
/* Species #1 : (Size 14) (AF 8.06401) (Age 18)  */


/* Organism #0 Fitness: 9 Error: 1 */
genomestart 0
trait 1 0.1 0 0 0 0 0 0 0 
trait 2 0.199739 0 0.000455845 0 0.0315881 0 0 0.0315948 
trait 3 0.3 0 0 0 0 0 0 0 
node 1 3 1 3
node 2 1 1 1
node 3 1 1 1
node 4 2 0 2
gene 2 1 4 -3.92596 0 1 -3.92596 1
gene 2 2 4 8 0 2 8 1
gene 3 3 4 8 0 3 8 1
genomeend 0

/* Organism #1 Fitness: 9 Error: 1 */
genomestart 1
trait 1 0.1 0 0 0 0 0 0 0 
trait 2 0.199674 0 0.000569806 0 0.0394852 0 0 0.0394935 
trait 3 0.3 0 0 0 0 0 0 0 
node 1 2 1 3
node 2 1 1 1
node 3 1 1 1
node 4 2 0 2
gene 2 1 4 -3.92596 0 1 -3.92596 1
gene 2 2 4 8 0 2 8 1
gene 3 3 4 8 0 3 8 1
genomeend 1

/* Organism #2 Fitness: 8.99961 Error: 1.00006 */
genomestart 2
trait 1 0.1 0 0 0 0 0 0 0 
trait 2 0.199608 0 0.000683767 0 0.0394852 0 0 0.0473922 
trait 3 0.34375 0 0.0622543 0 0 0 0 0 
node 1 3 1 3
node 2 1 1 1
node 3 1 1 1
node 4 2 0 2
gene 2 1 4 -1.95896 0 1 -1.95896 1
gene 2 2 4 5.97584 0 2 5.97584 1
gene 3 3 4 6.92944 0 3 6.92944 1
genomeend 2

/* Organism #3 Fitness: 4.11843 Error: 1.97061 */
genomestart 3
trait 1 0.1 0 0 0 0 0 0 0 
trait 2 0.199608 0 0.000683767 0 0.0394852 0 0 0.0473922 
trait 3 0.34375 0 0.0622543 0 0 0 0 0 
node 1 3 1 3
node 2 1 1 1
node 3 1 1 1
node 4 2 0 2
gene 2 1 4 -2.96375 0 1 -2.96375 1
gene 2 2 4 7.24856 0 2 7.24856 1
gene 3 3 4 2.25355 0 3 2.25355 1
genomeend 3

/* Organism #4 Fitness: 8.99997 Error: 1.00001 */
genomestart 4
trait 1 0.1 0 0 0 0 0 0 0 
trait 2 0.199674 0 0.000569806 0 0.0355366 0 0 0.0394935 
trait 3 0.321875 0 0.0311271 0 0 0 0 0 
node 1 3 1 3
node 2 1 1 1
node 3 1 1 1
node 4 2 0 2
gene 2 1 4 -4.42381 0 1 -4.42381 1
gene 2 2 4 6.87587 0 2 6.87587 1
gene 3 3 4 8 0 3 8 1
genomeend 4

/* Organism #5 Fitness: 9 Error: 1 */
genomestart 5
trait 1 0.1 0 0 0 0 0 0 0 
trait 2 0.199674 0 0.000569806 0 0.0355366 0 0 0.0394935 
trait 3 0.321875 0 0.0311271 0 0 0 0 0 
node 1 3 1 3
node 2 1 1 1
node 3 1 1 1
node 4 2 0 2
gene 2 1 4 -3.00009 0 1 -3.00009 1
gene 2 2 4 8 0 2 8 1
gene 3 3 4 8 0 3 8 1
genomeend 5

/* Organism #6 Fitness: 5.88544 Error: 1.57401 */
genomestart 6
trait 1 0.1 0 0 0 0 0 0 0 
trait 2 0.199608 0 0.000683767 0 0.0473822 0 0 0.0473922 
trait 3 0.3 0 0 0 0 0 0 0 
node 1 2 1 3
node 2 1 1 1
node 3 1 1 1
node 4 2 0 2
gene 2 1 4 -5.64451 0 1 -5.64451 1
gene 2 2 4 8 0 2 8 1
gene 3 3 4 5.58395 0 3 5.58395 1
genomeend 6

/* Organism #7 Fitness: 9 Error: 1 */
genomestart 7
trait 1 0.1 0 0 0 0 0 0 0 
trait 2 0.199608 0 0.000683767 0 0.0434337 0 0 0.0473922 
trait 3 0.321875 0 0.0311271 0 0 0 0 0 
node 1 2 1 3
node 2 1 1 1
node 3 1 1 1
node 4 2 0 2
gene 2 1 4 -3.92078 0 1 -3.92078 1
gene 2 2 4 8 0 2 8 1
gene 3 3 4 8 0 3 8 1
genomeend 7

/* Organism #8 Fitness: 9 Error: 1 */
genomestart 8
trait 1 0.1 0 0 0 0 0 0 0 
trait 2 0.199608 0 0.000683767 0 0.0394852 0 0 0.0473922 
trait 3 0.34375 0 0.0622543 0 0 0 0 0 
node 1 3 1 3
node 2 1 1 1
node 3 1 1 1
node 4 2 0 2
gene 2 1 4 -3.92596 0 1 -3.92596 1
gene 2 2 4 8 0 2 8 1
gene 3 3 4 8 0 3 8 1
genomeend 8

/* Organism #9 Fitness: 8.99347 Error: 1.00109 */
genomestart 9
trait 1 0.1 0 0 0 0 0 0 0 
trait 2 0.199739 0 0.000455845 0 0.0315881 0 0 0.0315948 
trait 3 0.3 0 0 0 0 0 0 0 
node 1 3 1 3
node 2 1 1 1
node 3 1 1 1
node 4 2 0 2
gene 2 1 4 -4.37232 0 1 -4.37232 1
gene 2 2 4 8 0 2 8 1
gene 3 3 4 5.75762 0 3 5.75762 1
genomeend 9

/* Organism #10 Fitness: 3.90018 Error: 2.02511 */
genomestart 10
trait 1 0.1 0 0 0 0 0 0 0.0089886 
trait 2 0.2 0 0 0 0 0 0 0 
trait 3 0.3 0 0 0 0 0 0 0 
node 1 3 1 3
node 2 3 1 1
node 3 1 1 1
node 4 2 0 2
node 7 1 0 0
gene 1 1 4 -7.4721 0 1 -7.4721 1
gene 3 2 4 5.90413 0 2 5.90413 1
gene 2 3 4 8 0 3 8 1
gene 2 2 7 1.46807 0 8 1.46807 1
gene 2 7 4 0.384278 0 9 0.384278 1
genomeend 10

/* Organism #11 Fitness: 9 Error: 1 */
genomestart 11
trait 1 0.1 0 0 0 0 0 0 0.0089886 
trait 2 0.2 0 0 0 0 0 0 0 
trait 3 0.3 0 0 0 0 0 0 0 
node 1 3 1 3
node 2 1 1 1
node 3 1 1 1
node 4 2 0 2
node 7 3 0 0
gene 1 1 4 -8 0 1 -8 1
gene 3 2 4 5.28538 0 2 5.28538 1
gene 2 3 4 8 0 3 8 1
gene 2 2 7 4.75569 0 8 4.75569 1
gene 2 7 4 8 0 9 8 1
genomeend 11

/* Organism #12 Fitness: 8.99912 Error: 1.00015 */
genomestart 12
trait 1 0.1 0 0 0 0 0 0 0.0089886 
trait 2 0.2 0 0 0 0 0 0 0 
trait 3 0.3 0 0 0 0 0 0 0 
node 1 3 1 3
node 2 3 1 1
node 3 1 1 1
node 4 2 0 2
node 7 1 0 0
gene 1 1 4 -5.47933 0 1 -5.47933 1
gene 1 2 4 4.10611 0 2 4.10611 1
gene 2 3 4 7.0121 0 3 7.0121 1
gene 2 2 7 2.053 0 8 2.053 1
gene 2 7 4 7.37556 0 9 7.37556 1
genomeend 12

/* Organism #13 Fitness: 8.99992 Error: 1.00001 */
genomestart 13
trait 1 0.1 0 0 0 0 0 0 0.0089886 
trait 2 0.2 0 0 0 0 0 0 0 
trait 3 0.3 0 0 0 0 0 0 0 
node 1 3 1 3
node 2 3 1 1
node 3 1 1 1
node 4 2 0 2
node 7 3 0 0
gene 1 1 4 -5.99152 0 1 -5.99152 1
gene 3 2 4 5.90221 0 2 5.90221 1
gene 2 3 4 5.04996 0 3 5.04996 1
gene 2 2 7 4.02572 0 8 4.02572 1
gene 2 7 4 7.37275 0 9 7.37275 1
genomeend 13

/* Species #2 : (Size 5) (AF 5.99929) (Age 16)  */


/* Organism #14 Fitness: 9 Error: 1 */
genomestart 14
trait 1 0.1 0 0 0 0 0 0 0.0089886 
trait 2 0.2 0 0 0 0 0 0 0 
trait 3 0.3 0 0 0 0 0 0 0 
node 1 3 1 3
node 2 1 1 1
node 3 1 1 1
node 4 2 0 2
node 7 3 0 0
gene 1 1 4 -7.4721 0 1 -7.4721 1
gene 3 2 4 3.39901 0 2 3.39901 1
gene 2 3 4 7.35324 0 3 7.35324 1
gene 2 2 7 3.89701 0 8 3.89701 1
gene 2 7 4 7.85326 0 9 7.85326 1
genomeend 14

/* Organism #15 Fitness: 4 Error: 2 */
genomestart 15
trait 1 0 0.640022 0 0 0 0.660547 0 0.0089886 
trait 2 0.2 0 0 0 0 0 0 0 
trait 3 0.3 0 0 0 0 0 0 0 
node 1 3 1 3
node 2 1 1 1
node 3 1 1 1
node 4 2 0 2
node 7 3 0 0
gene 1 1 4 -5.31445 0 1 -5.31445 1
gene 3 2 4 1.40431 0 2 1.40431 1
gene 2 3 4 -1.53851 0 3 -1.53851 1
gene 2 2 7 2.35585 0 8 2.35585 1
gene 2 7 4 -1.51165 0 9 -1.51165 1
genomeend 15

/* Organism #16 Fitness: 8.99645 Error: 1.00059 */
genomestart 16
trait 1 0.1 0 0 0 0 0 0 0.0089886 
trait 2 0.2 0.659436 0.274839 0 0 0.748478 0 0 
trait 3 0.3 0 0 0 0 0 0 0 
node 1 3 1 3
node 2 3 1 1
node 3 1 1 1
node 4 2 0 2
node 7 1 0 0
gene 1 1 4 -8 0 1 -8 1
gene 3 2 4 1.50944 0 2 1.50944 1
gene 2 3 4 7.84303 0 3 7.84303 1
gene 2 2 7 2.95387 0 8 2.95387 1
gene 2 7 4 8 0 9 8 1
genomeend 16

/* Organism #17 Fitness: 4 Error: 2 */
genomestart 17
trait 1 0.1 0 0 0 0 0 0 0.0089886 
trait 2 0.2 0 0 0 0 0 0 0 
trait 3 0.3 0 0 0 0 0 0 0 
node 1 3 1 3
node 2 3 1 1
node 3 1 1 1
node 4 2 0 2
node 7 1 0 0
gene 1 1 4 -6.40819 0 1 -6.40819 1
gene 3 2 4 1.93573 0 2 1.93573 1
gene 2 3 4 2.28571 0 3 2.28571 1
gene 2 2 7 4.35538 0 8 4.35538 1
gene 2 7 4 -1.36409 0 9 -1.36409 1
genomeend 17

/* Organism #18 Fitness: 4.00001 Error: 2 */
genomestart 18
trait 1 0.1 0 0 0 0 0 0 0.0089886 
trait 2 0.2 0 0 0 0 0 0 0 
trait 3 0.3 0 0 0 0 0 0 0 
node 1 3 1 3
node 2 3 1 1
node 3 1 1 1
node 4 2 0 2
node 7 1 0 0
gene 1 1 4 -0.610997 0 1 -0.610997 1
gene 3 2 4 5.24622 0 2 5.24622 1
gene 2 3 4 6.49254 0 3 6.49254 1
gene 2 2 7 2.04768 0 8 2.04768 1
gene 2 7 4 6.54022 0 9 6.54022 1
genomeend 18

/* Species #3 : (Size 6) (AF 4.54112) (Age 16)  */


/* Organism #19 Fitness: 8.94282 Error: 1.00955 */
genomestart 19
trait 1 0.1 0 0 0 0 0 0 0 
trait 2 0.213951 0 0 0 0.186077 0 0 0.247472 
trait 3 0.3 0 0 0 0 0 0 0 
node 1 3 1 3
node 2 3 1 1
node 3 2 1 1
node 4 3 0 2
node 6 1 0 0
gene 2 1 4 1.3254 0 1 1.3254 1
gene 1 2 4 -2.30261 0 2 -2.30261 1
gene 1 3 4 0.0269537 0 3 0.0269537 0
gene 3 3 6 -2.54427 0 6 -2.54427 1
gene 2 6 4 4.51804 0 7 4.51804 1
gene 1 1 6 0.710573 0 126 0.710573 1
genomeend 19

/* Organism #20 Fitness: 4.00001 Error: 2 */
genomestart 20
trait 1 0.1 0 0 0 0 0 0 0 
trait 2 0.221293 0 0 0 0.187167 0 0 0.248922 
trait 3 0.3 0 0 0 0 0 0 0 
node 1 3 1 3
node 2 3 1 1
node 3 2 1 1
node 4 3 0 2
node 6 2 0 0
gene 2 1 4 3.27031 0 1 3.27031 1
gene 1 2 4 -0.700369 0 2 -0.700369 1
gene 1 3 4 -1.14547 0 3 -1.14547 0
gene 3 3 6 -3.51562 0 6 -3.51562 1
gene 2 6 4 2.4119 0 7 2.4119 1
gene 1 1 6 1.77469 0 126 1.77469 1
gene 1 2 6 -0.672565 0 149 -0.672565 1
genomeend 20

/* Organism #21 Fitness: 4.00001 Error: 2 */
genomestart 21
trait 1 0.1 0 0 0 0 0 0 0 
trait 2 0.213951 0 0 0 0.186077 0 0 0.247472 
trait 3 0.3 0 0 0 0 0 0 0 
node 1 3 1 3
node 2 3 1 1
node 3 2 1 1
node 4 3 0 2
node 6 1 0 0
gene 2 1 4 0.815913 0 1 0.815913 1
gene 1 2 4 -4.16302 0 2 -4.16302 1
gene 1 3 4 -1.26897 0 3 -1.26897 0
gene 3 3 6 -1.12341 0 6 -1.12341 1
gene 2 6 4 2.10436 0 7 2.10436 1
gene 1 1 6 3.09598 0 126 3.09598 1
genomeend 21

/* Organism #22 Fitness: 2.30317 Error: 2.48238 */
genomestart 22
trait 1 0.1 0 0 0 0 0 0 0 
trait 2 0.213951 0 0 0 0.186077 0 0 0.247472 
trait 3 0.3 0 0 0 0 0 0 0 
node 1 3 1 3
node 2 3 1 1
node 3 2 1 1
node 4 3 0 2
node 6 1 0 0
gene 2 1 4 0.0067654 0 1 0.0067654 1
gene 1 2 4 -2.18912 0 2 -2.18912 1
gene 1 3 4 -1.327 0 3 -1.327 0
gene 3 3 6 -2.29641 0 6 -2.29641 1
gene 2 6 4 2.42468 0 7 2.42468 1
gene 1 1 6 -0.0274835 0 126 -0.0274835 1
genomeend 22

/* Organism #23 Fitness: 4.00071 Error: 1.99982 */
genomestart 23
trait 1 0.1 0 0 0 0 0 0 0 
trait 2 0.213951 0 0 0 0.186077 0 0 0.247472 
trait 3 0.3 0 0 0 0 0 0 0 
node 1 3 1 3
node 2 3 1 1
node 3 2 1 1
node 4 3 0 2
node 6 1 0 0
gene 2 1 4 3.1404 0 1 3.1404 1
gene 1 2 4 -1.41563 0 2 -1.41563 1
gene 1 3 4 -1.20219 0 3 -1.20219 0
gene 3 3 6 -4.17137 0 6 -4.17137 1
gene 2 6 4 4.81129 0 7 4.81129 1
gene 1 1 6 3.1306 0 126 3.1306 1
genomeend 23

/* Organism #24 Fitness: 4 Error: 2 */
genomestart 24
trait 1 0.1 0 0 0 0 0 0 0 
trait 2 0.213951 0 0 0 0.186077 0 0 0.247472 
trait 3 0.3 0 0 0 0 0 0 0 
node 1 3 1 3
node 2 3 1 1
node 3 2 1 1
node 4 3 0 2
node 6 1 0 0
gene 2 1 4 2.55656 0 1 2.55656 1
gene 1 2 4 -2.22979 0 2 -2.22979 1
gene 1 3 4 1.08179 0 3 1.08179 0
gene 3 3 6 -0.561539 0 6 -0.561539 1
gene 2 6 4 5.45751 0 7 5.45751 1
gene 1 1 6 0.884984 0 126 0.884984 1
genomeend 24

/* Species #4 : (Size 9) (AF 6.97294) (Age 15)  */


/* Organism #25 Fitness: 9 Error: 1 */
genomestart 25
trait 1 0.1 0 0 0 0 0 0 0 
trait 2 0.230968 0 0 0 0 0 0 0 
trait 3 0.3 0 0 0 0 0 0 0 
node 1 3 1 3
node 2 1 1 1
node 3 1 1 1
node 4 1 0 2
node 7 1 0 0
node 11 1 0 0
node 18 1 0 0
gene 3 1 4 -1.32326 0 1 -1.32326 1
gene 3 2 4 6.219 0 2 6.219 1
gene 2 3 4 7.13101 0 3 7.13101 1
gene 2 2 7 -3.53015 0 8 -3.53015 1
gene 2 7 4 -6.2537 0 9 -6.2537 1
gene 2 3 7 -3.04022 0 14 -3.04022 1
gene 2 3 11 -0.839365 0 17 -0.839365 0
gene 2 11 4 1.75104 0 18 1.75104 1
gene 2 3 18 0.20766 0 39 0.20766 1
gene 2 18 11 -2.79107 0 40 -2.79107 1
gene 3 2 11 2.22975 0 102 2.22975 1
genomeend 25

/* Organism #26 Fitness: 8.99995 Error: 1.00001 */
genomestart 26
trait 1 0.1 0 0 0 0 0 0 0 
trait 2 0.230968 0 0 0 0 0 0 0 
trait 3 0.3 0 0 0 0 0 0 0 
node 1 3 1 3
node 2 1 1 1
node 3 1 1 1
node 4 1 0 2
node 7 1 0 0
node 11 1 0 0
node 18 1 0 0
node 48 1 0 0
gene 3 1 4 0.142966 0 1 0.142966 1
gene 3 2 4 4.33467 0 2 4.33467 1
gene 2 3 4 6.52167 0 3 6.52167 1
gene 2 2 7 -3.8313 0 8 -3.8313 1
gene 2 7 4 -5.11974 0 9 -5.11974 1
gene 2 3 7 -6.14981 0 14 -6.14981 1
gene 2 3 11 -1.85814 0 17 -1.85814 0
gene 2 11 4 -0.90274 0 18 -0.90274 0
gene 2 3 18 2.33567 0 39 2.33567 1
gene 2 18 11 2.06157 0 40 2.06157 1
gene 3 2 11 5.62325 0 102 5.62325 1
gene 2 11 48 -0.655575 0 150 -0.655575 1
gene 2 48 4 1.53046 0 151 1.53046 1
genomeend 26

/* Organism #27 Fitness: 4.00015 Error: 1.99996 */
genomestart 27
trait 1 0.1 0 0 0 0 0 0 0 
trait 2 0.230968 0 0 0 0 0 0 0 
trait 3 0.3 0 0 0 0 0 0 0 
node 1 3 1 3
node 2 1 1 1
node 3 1 1 1
node 4 1 0 2
node 7 1 0 0
node 11 1 0 0
node 18 1 0 0
gene 3 1 4 -1.10328 0 1 -1.10328 1
gene 3 2 4 -2.48011 0 2 -2.48011 1
gene 2 3 4 -1.58872 0 3 -1.58872 1
gene 3 2 7 -0.160641 0 8 -0.160641 1
gene 2 7 4 -7.06471 0 9 -7.06471 1
gene 2 3 7 -3.2159 0 14 -3.2159 1
gene 2 3 11 -0.322796 0 17 -0.322796 0
gene 2 11 4 2.92919 0 18 2.92919 1
gene 2 3 18 -0.102715 0 39 -0.102715 1
gene 2 18 11 -0.635148 0 40 -0.635148 1
gene 3 2 11 1.32356 0 102 1.32356 1
genomeend 27

/* Organism #28 Fitness: 8.99927 Error: 1.00012 */
genomestart 28
trait 1 0.1 0 0 0 0 0 0 0 
trait 2 0.230968 0 0 0 0 0 0 0 
trait 3 0.3 0 0 0 0 0 0 0 
node 1 3 1 3
node 2 1 1 1
node 3 1 1 1
node 4 1 0 2
node 7 1 0 0
node 11 1 0 0
node 18 1 0 0
node 48 1 0 0
gene 3 1 4 -1.67956 0 1 -1.67956 1
gene 3 2 4 3.7604 0 2 3.7604 1
gene 2 3 4 5.89696 0 3 5.89696 1
gene 2 2 7 -0.411627 0 8 -0.411627 1
gene 2 7 4 -5.55557 0 9 -5.55557 1
gene 2 3 7 -2.32211 0 14 -2.32211 1
gene 2 3 11 -0.191699 0 17 -0.191699 0
gene 2 11 4 2.6789 0 18 2.6789 0
gene 2 3 18 1.62396 0 39 1.62396 1
gene 2 18 11 -2.23816 0 40 -2.23816 1
gene 3 2 11 4.49518 0 102 4.49518 1
gene 2 11 48 1 0 150 1 1
gene 2 48 4 0.400384 0 151 0.400384 1
genomeend 28

/* Organism #29 Fitness: 9 Error: 1 */
genomestart 29
trait 1 0.1 0 0 0 0 0 0 0 
trait 2 0.230968 0 0 0 0 0 0 0 
trait 3 0.3 0 0 0 0 0 0 0 
node 1 3 1 3
node 2 1 1 1
node 3 1 1 1
node 4 1 0 2
node 7 1 0 0
node 11 1 0 0
node 18 1 0 0
gene 3 1 4 -1.63308 0 1 -1.63308 1
gene 3 2 4 8 0 2 8 1
gene 2 3 4 7.43872 0 3 7.43872 1
gene 2 2 7 -1.29124 0 8 -1.29124 1
gene 2 7 4 -4.66896 0 9 -4.66896 1
gene 2 3 7 -1.84354 0 14 -1.84354 1
gene 2 3 11 -0.884202 0 17 -0.884202 0
gene 2 11 4 0.888656 0 18 0.888656 1
gene 2 3 18 -1.21399 0 39 -1.21399 1
gene 2 18 11 -1.59874 0 40 -1.59874 1
gene 3 2 11 2.22975 0 102 2.22975 1
genomeend 29

/* Organism #30 Fitness: 8.97331 Error: 1.00445 */
genomestart 30
trait 1 0.1 0 0 0 0 0 0 0 
trait 2 0.230968 0 0 0 0 0 0 0 
trait 3 0.3 0 0 0 0 0 0 0 
node 1 3 1 3
node 2 1 1 1
node 3 1 1 1
node 4 1 0 2
node 7 1 0 0
node 11 1 0 0
node 18 1 0 0
node 48 1 0 0
gene 3 1 4 0.315415 0 1 0.315415 1
gene 3 2 4 3.17998 0 2 3.17998 1
gene 2 3 4 8 0 3 8 1
gene 2 2 7 -2.39286 0 8 -2.39286 0
gene 2 7 4 -8 0 9 -8 1
gene 2 3 7 -1.17221 0 14 -1.17221 1
gene 2 3 11 0.809221 0 17 0.809221 0
gene 2 11 4 0.742376 0 18 0.742376 0
gene 2 3 18 0.0857329 0 39 0.0857329 1
gene 2 18 11 -2.00158 0 40 -2.00158 1
gene 3 2 11 3.46527 0 102 3.46527 1
gene 2 11 48 3.1436 0 150 3.1436 1
gene 2 48 4 1.60328 0 151 1.60328 1
genomeend 30

/* Organism #31 Fitness: 4.00486 Error: 1.99878 */
genomestart 31
trait 1 0.1 0 0 0 0 0 0 0 
trait 2 0.230968 0 0 0 0 0 0 0 
trait 3 0.3 0.818803 0.266279 0.434554 0 0 0.481739 0 
node 1 3 1 3
node 2 1 1 1
node 3 1 1 1
node 4 1 0 2
node 7 1 0 0
node 11 1 0 0
node 18 1 0 0
gene 3 1 4 -1.66074 0 1 -1.66074 1
gene 3 2 4 6.46936 0 2 6.46936 1
gene 2 3 4 6.31357 0 3 6.31357 1
gene 2 2 7 -1.74534 0 8 -1.74534 0
gene 2 7 4 -8 0 9 -8 1
gene 2 3 7 0.339466 0 14 0.339466 1
gene 2 3 11 -1.0004 0 17 -1.0004 0
gene 2 11 4 5.99746 0 18 5.99746 1
gene 2 3 18 0.240953 0 39 0.240953 1
gene 2 18 11 -0.344185 0 40 -0.344185 1
gene 3 2 11 -1.92737 0 102 -1.92737 1
genomeend 31

/* Organism #32 Fitness: 3.99921 Error: 2.0002 */
genomestart 32
trait 1 0.1 0 0 0 0 0 0 0 
trait 2 0.230968 0 0 0 0 0 0 0 
trait 3 0.3 0 0 0 0 0 0 0 
node 1 3 1 3
node 2 1 1 1
node 3 1 1 1
node 4 1 0 2
node 7 1 0 0
node 11 1 0 0
node 18 1 0 0
gene 3 1 4 -1.17752 0 1 -1.17752 1
gene 3 2 4 -1.24378 0 2 -1.24378 1
gene 2 3 4 8 0 3 8 1
gene 2 2 7 -5.21653 0 8 -5.21653 1
gene 2 7 4 -1.0938 0 9 -1.0938 1
gene 2 3 7 -3.4606 0 14 -3.4606 1
gene 2 3 11 -0.718406 0 17 -0.718406 0
gene 2 11 4 3.41321 0 18 3.41321 0
gene 2 3 18 1.70686 0 39 1.70686 1
gene 2 18 11 0.865112 0 40 0.865112 1
gene 3 2 11 2.94114 0 102 2.94114 1
genomeend 32

/* Organism #33 Fitness: 5.77969 Error: 1.5959 */
genomestart 33
trait 1 0.1 0 0 0 0 0 0 0 
trait 2 0.230968 0 0 0 0 0 0 0 
trait 3 0.3 0 0 0 0 0 0 0 
node 1 1 1 3
node 2 1 1 1
node 3 1 1 1
node 4 1 0 2
node 7 1 0 0
node 11 1 0 0
node 18 1 0 0
gene 3 1 4 -0.188807 0 1 -0.188807 1
gene 3 2 4 4.0839 0 2 4.0839 1
gene 2 3 4 6.54078 0 3 6.54078 1
gene 2 2 7 -0.101786 0 8 -0.101786 0
gene 3 7 4 -8 0 9 -8 1
gene 2 3 7 -2.07602 0 14 -2.07602 1
gene 2 3 11 2.11885 0 17 2.11885 0
gene 2 11 4 4.81699 0 18 4.81699 1
gene 2 3 18 -2.47788 0 39 -2.47788 1
gene 2 18 11 -1.09938 0 40 -1.09938 1
gene 3 2 11 -0.509423 0 102 -0.509423 1
genomeend 33

/* Species #5 : (Size 25) (AF 7.09948) (Age 14)  */


/* Organism #34 Fitness: 8.99999 Error: 1 */
genomestart 34
trait 1 0.1 0 0 0 0 0 0 0 
trait 2 0.2 0 0 0 0 0 0 0 
trait 3 0.3 0 0 0 0 0 0 0 
node 1 3 1 3
node 2 1 1 1
node 3 1 1 1
node 4 3 0 2
node 7 1 0 0
node 13 1 0 0
gene 3 1 4 -2.93935 0 1 -2.93935 1
gene 2 2 4 -8 0 2 -8 1
gene 2 3 4 8 0 3 8 1
gene 2 2 7 6.42755 0 8 6.42755 0
gene 2 7 4 -4.33321 0 9 -4.33321 1
gene 1 2 13 -0.173382 0 23 -0.173382 1
gene 2 13 7 -5.78999 0 24 -5.78999 1
gene 2 3 13 1.02408 0 46 1.02408 1
gene 1 3 7 1.76094 0 112 1.76094 1
genomeend 34

/* Organism #35 Fitness: 8.99999 Error: 1 */
genomestart 35
trait 1 0.1 0 0 0 0 0 0 0 
trait 2 0.2 0 0 0 0 0 0 0 
trait 3 0.3 0 0 0 0 0 0 0 
node 1 3 1 3
node 2 1 1 1
node 3 1 1 1
node 4 3 0 2
node 7 1 0 0
node 13 1 0 0
node 41 1 0 0
gene 3 1 4 -3.55056 0 1 -3.55056 1
gene 2 2 4 -7.01868 0 2 -7.01868 1
gene 2 3 4 6.25928 0 3 6.25928 1
gene 2 2 7 3.90778 0 8 3.90778 0
gene 2 7 4 -4.55431 0 9 -4.55431 1
gene 1 2 13 1.41012 0 23 1.41012 1
gene 2 13 7 -2.53405 0 24 -2.53405 1
gene 2 3 13 0.353772 0 46 0.353772 0
gene 1 3 7 -2.38215 0 112 -2.38215 1
gene 2 3 41 -0.00876282 0 130 -0.00876282 1
gene 2 41 13 1.96339 0 131 1.96339 1
genomeend 35

/* Organism #36 Fitness: 8.45874 Error: 1.09161 */
genomestart 36
trait 1 0.1 0 0 0 0 0 0 0 
trait 2 0.2 0 0 0 0 0 0 0 
trait 3 0.3 0 0 0 0 0 0 0 
node 1 3 1 3
node 2 1 1 1
node 3 1 1 1
node 4 3 0 2
node 7 1 0 0
node 13 1 0 0
node 41 1 0 0
gene 3 1 4 -0.794874 0 1 -0.794874 1
gene 2 2 4 -5.27423 0 2 -5.27423 1
gene 2 3 4 5.60243 0 3 5.60243 1
gene 2 2 7 7.19326 0 8 7.19326 0
gene 2 7 4 -6.00275 0 9 -6.00275 1
gene 1 2 13 0.971471 0 23 0.971471 1
gene 1 13 7 -4.7668 0 24 -4.7668 1
gene 2 3 13 -0.651115 0 46 -0.651115 0
gene 1 3 7 -1.05288 0 112 -1.05288 1
gene 2 3 41 2.91502 0 130 2.91502 1
gene 2 41 13 -1.00554 0 131 -1.00554 1
genomeend 36

/* Organism #37 Fitness: 9 Error: 1 */
genomestart 37
trait 1 0.1 0 0 0 0 0 0 0 
trait 2 0.2 0 0 0 0 0 0 0 
trait 3 0.3 0 0 0 0 0 0 0 
node 1 3 1 3
node 2 1 1 1
node 3 1 1 1
node 4 2 0 2
node 7 1 0 0
node 13 1 0 0
gene 3 1 4 -3.68781 0 1 -3.68781 1
gene 2 2 4 -6.63777 0 2 -6.63777 1
gene 2 3 4 7.69622 0 3 7.69622 1
gene 2 2 7 4.47516 0 8 4.47516 0
gene 2 7 4 -2.73359 0 9 -2.73359 1
gene 1 2 13 -0.863749 0 23 -0.863749 1
gene 2 13 7 -7.70633 0 24 -7.70633 1
gene 2 3 13 1.42632 0 46 1.42632 0
gene 1 3 7 -0.170669 0 112 -0.170669 1
genomeend 37

/* Organism #38 Fitness: 8.99907 Error: 1.00016 */
genomestart 38
trait 1 0.1 0 0 0 0 0 0 0 
trait 2 0.2 0 0 0 0 0 0 0 
trait 3 0.3 0 0 0 0 0 0 0 
node 1 3 1 3
node 2 1 1 1
node 3 1 1 1
node 4 1 0 2
node 7 1 0 0
node 13 1 0 0
gene 3 1 4 -5.09902 0 1 -5.09902 1
gene 2 2 4 -5.5096 0 2 -5.5096 1
gene 2 3 4 7.00368 0 3 7.00368 1
gene 2 2 7 6.34493 0 8 6.34493 0
gene 2 7 4 -2.17439 0 9 -2.17439 1
gene 1 2 13 0.627735 0 23 0.627735 1
gene 2 13 7 -5.66086 0 24 -5.66086 1
gene 2 3 13 -1.30407 0 46 -1.30407 0
gene 1 3 7 2.2611 0 112 2.2611 1
genomeend 38

/* Organism #39 Fitness: 8.99998 Error: 1 */
genomestart 39
trait 1 0.1 0 0 0 0 0 0 0 
trait 2 0.2 0 0 0 0 0 0 0 
trait 3 0.3 0 0 0 0 0 0 0 
node 1 3 1 3
node 2 1 1 1
node 3 1 1 1
node 4 3 0 2
node 7 1 0 0
node 13 1 0 0
node 41 1 0 0
gene 3 1 4 -4.69492 0 1 -4.69492 1
gene 2 2 4 -6.36091 0 2 -6.36091 1
gene 2 3 4 7.28601 0 3 7.28601 1
gene 2 2 7 3.93864 0 8 3.93864 0
gene 2 7 4 -0.00105557 0 9 -0.00105557 1
gene 1 2 13 1.92211 0 23 1.92211 1
gene 2 13 7 -2.33345 0 24 -2.33345 1
gene 2 3 13 0.238556 0 46 0.238556 0
gene 1 3 7 -0.980442 0 112 -0.980442 1
gene 2 3 41 -0.744499 0 130 -0.744499 1
gene 2 41 13 0.297454 0 131 0.297454 1
genomeend 39

/* Organism #40 Fitness: 4.17901 Error: 1.95574 */
genomestart 40
trait 1 0.0746534 0 0 0.991437 0 0 0 0 
trait 2 0.2 0 0 0 0 0 0 0 
trait 3 0.3 0 0 0 0 0 0 0 
node 1 3 1 3
node 2 1 1 1
node 3 1 1 1
node 4 3 0 2
node 7 1 0 0
node 13 1 0 0
gene 3 1 4 -3.17518 0 1 -3.17518 1
gene 2 2 4 -8 0 2 -8 1
gene 2 3 4 5.88217 0 3 5.88217 1
gene 2 2 7 4.65558 0 8 4.65558 0
gene 2 7 4 -3.33092 0 9 -3.33092 1
gene 1 2 13 1.3432 0 23 1.3432 1
gene 2 13 7 -6.06619 0 24 -6.06619 1
gene 2 3 13 -1.24062 0 46 -1.24062 1
gene 1 3 7 3.8264 0 112 3.8264 1
genomeend 40

/* Organism #41 Fitness: 8.99843 Error: 1.00026 */
genomestart 41
trait 1 0.1 0 0 0 0 0 0 0 
trait 2 0.2 0 0 0 0 0 0 0 
trait 3 0.3 0 0 0 0 0 0 0 
node 1 3 1 3
node 2 1 1 1
node 3 1 1 1
node 4 3 0 2
node 7 1 0 0
node 13 1 0 0
gene 3 1 4 -1.67518 0 1 -1.67518 1
gene 2 2 4 -6.87186 0 2 -6.87186 1
gene 2 3 4 4.80933 0 3 4.80933 1
gene 2 2 7 7.34103 0 8 7.34103 0
gene 2 7 4 -3.86855 0 9 -3.86855 1
gene 1 2 13 -1.22177 0 23 -1.22177 1
gene 2 13 7 -4.6167 0 24 -4.6167 1
gene 2 3 13 -2.69264 0 46 -2.69264 0
gene 1 3 7 1.25743 0 112 1.25743 1
genomeend 41

/* Organism #42 Fitness: 4.0119 Error: 1.99703 */
genomestart 42
trait 1 0.1 0 0 0 0 0 0 0 
trait 2 0.2 0.299687 0.683599 0 0 0 0 0 
trait 3 0.3 0 0 0 0 0 0 0 
node 1 3 1 3
node 2 1 1 1
node 3 1 1 1
node 4 3 0 2
node 7 1 0 0
node 13 3 0 0
gene 3 1 4 -2.93935 0 1 -2.93935 1
gene 2 2 4 -1.60553 0 2 -1.60553 1
gene 2 3 4 5.72567 0 3 5.72567 1
gene 2 2 7 6.42755 0 8 6.42755 0
gene 2 7 4 -6.28386 0 9 -6.28386 1
gene 1 2 13 -0.173382 0 23 -0.173382 1
gene 2 13 7 -2.45205 0 24 -2.45205 1
gene 2 3 13 1.02408 0 46 1.02408 1
gene 1 3 7 -0.335486 0 112 -0.335486 1
genomeend 42

/* Organism #43 Fitness: 5.59587 Error: 1.63444 */
genomestart 43
trait 1 0.1 0 0 0 0 0 0 0 
trait 2 0.2 0 0 0 0 0 0 0 
trait 3 0.3 0 0 0 0 0 0 0 
node 1 3 1 3
node 2 1 1 1
node 3 1 1 1
node 4 3 0 2
node 7 1 0 0
node 13 1 0 0
gene 3 1 4 -1.55836 0 1 -1.55836 1
gene 2 2 4 -5.34105 0 2 -5.34105 1
gene 2 3 4 7.01096 0 3 7.01096 1
gene 2 2 7 0.617508 0 8 0.617508 0
gene 2 7 4 -5.50115 0 9 -5.50115 1
gene 1 2 13 0.74061 0 23 0.74061 1
gene 2 13 7 -5.02906 0 24 -5.02906 1
gene 2 3 13 0.0279256 0 46 0.0279256 0
gene 1 3 7 -0.689725 0 112 -0.689725 1
genomeend 43

/* Organism #44 Fitness: 8.99994 Error: 1.00001 */
genomestart 44
trait 1 0.1 0 0 0 0 0 0 0 
trait 2 0.2 0 0 0 0 0 0 0 
trait 3 0.3 0 0 0 0 0 0 0 
node 1 3 1 3
node 2 1 1 1
node 3 1 1 1
node 4 3 0 2
node 7 1 0 0
node 13 1 0 0
node 40 1 0 0
gene 3 1 4 -2.8681 0 1 -2.8681 1
gene 2 2 4 -5.38435 0 2 -5.38435 1
gene 2 3 4 8 0 3 8 1
gene 2 2 7 7.46665 0 8 7.46665 0
gene 2 7 4 -3.11028 0 9 -3.11028 1
gene 1 2 13 -0.346911 0 23 -0.346911 1
gene 2 13 7 -3.64592 0 24 -3.64592 1
gene 2 3 13 -1.73154 0 46 -1.73154 1
gene 1 3 7 -0.684102 0 112 -0.684102 0
gene 1 3 40 1 0 128 1 1
gene 1 40 7 0.430625 0 129 0.430625 1
genomeend 44

/* Organism #45 Fitness: 8.99961 Error: 1.00006 */
genomestart 45
trait 1 0.1 0 0 0 0 0 0 0 
trait 2 0.2 0 0 0 0 0 0 0 
trait 3 0.3 0 0 0 0 0 0 0 
node 1 3 1 3
node 2 1 1 1
node 3 1 1 1
node 4 3 0 2
node 7 1 0 0
node 13 1 0 0
node 40 1 0 0
gene 3 1 4 -2.26482 0 1 -2.26482 1
gene 2 2 4 -7.4315 0 2 -7.4315 1
gene 2 3 4 6.29014 0 3 6.29014 1
gene 2 2 7 5.56587 0 8 5.56587 0
gene 2 7 4 -2.34706 0 9 -2.34706 1
gene 1 2 13 -0.614603 0 23 -0.614603 1
gene 2 13 7 -5.5126 0 24 -5.5126 1
gene 2 3 13 -0.238103 0 46 -0.238103 1
gene 1 3 7 -0.0772796 0 112 -0.0772796 0
gene 1 3 40 1.15397 0 128 1.15397 1
gene 1 40 7 1.67548 0 129 1.67548 1
genomeend 45

/* Organism #46 Fitness: 8.89534 Error: 1.01749 */
genomestart 46
trait 1 0.1 0 0 0 0 0 0 0 
trait 2 0.2 0 0 0 0 0 0 0 
trait 3 0.3 0 0 0 0 0 0 0 
node 1 3 1 3
node 2 1 1 1
node 3 1 1 1
node 4 3 0 2
node 7 1 0 0
node 13 1 0 0
node 40 1 0 0
gene 3 1 4 -4.24931 0 1 -4.24931 1
gene 2 2 4 -6.13224 0 2 -6.13224 1
gene 2 3 4 5.92314 0 3 5.92314 1
gene 2 2 7 5.19537 0 8 5.19537 0
gene 2 7 4 -1.44132 0 9 -1.44132 1
gene 1 2 13 -1.14343 0 23 -1.14343 1
gene 2 13 7 -2.01197 0 24 -2.01197 1
gene 2 3 13 -2.03909 0 46 -2.03909 1
gene 1 3 7 0.76308 0 112 0.76308 0
gene 1 3 40 -0.27498 0 128 -0.27498 1
gene 1 40 7 0.376054 0 129 0.376054 1
genomeend 46

/* Organism #47 Fitness: 8.96881 Error: 1.0052 */
genomestart 47
trait 1 0.1 0 0 0 0 0 0 0 
trait 2 0.2 0 0 0 0 0 0 0 
trait 3 0.3 0 0 0 0 0 0 0 
node 1 3 1 3
node 2 1 1 1
node 3 1 1 1
node 4 3 0 2
node 7 1 0 0
node 13 1 0 0
node 40 1 0 0
gene 3 1 4 -2.8681 0 1 -2.8681 1
gene 2 2 4 -5.38435 0 2 -5.38435 1
gene 2 3 4 5.71392 0 3 5.71392 1
gene 2 2 7 8 0 8 8 0
gene 2 7 4 -2.0398 0 9 -2.0398 1
gene 1 2 13 -0.280301 0 23 -0.280301 1
gene 2 13 7 -1.97462 0 24 -1.97462 1
gene 2 3 13 -3.86206 0 46 -3.86206 1
gene 1 3 7 -2.54738 0 112 -2.54738 0
gene 1 3 40 1.36731 0 128 1.36731 1
gene 1 40 7 0.390329 0 129 0.390329 1
genomeend 47

/* Organism #48 Fitness: 8.99971 Error: 1.00005 */
genomestart 48
trait 1 0.1 0 0 0 0 0 0 0 
trait 2 0.2 0 0 0 0 0 0 0 
trait 3 0.3 0 0 0 0 0 0 0 
node 1 3 1 3
node 2 1 1 1
node 3 1 1 1
node 4 3 0 2
node 7 1 0 0
node 13 1 0 0
node 40 1 0 0
gene 3 1 4 -2.17012 0 1 -2.17012 1
gene 2 2 4 -6.76633 0 2 -6.76633 1
gene 2 3 4 6.65904 0 3 6.65904 1
gene 2 2 7 7.82764 0 8 7.82764 0
gene 2 7 4 -2.8848 0 9 -2.8848 1
gene 1 2 13 -0.821139 0 23 -0.821139 1
gene 2 13 7 -1.17384 0 24 -1.17384 1
gene 2 3 13 -3.53047 0 46 -3.53047 1
gene 1 3 7 -2.66415 0 112 -2.66415 0
gene 1 3 40 -0.0804331 0 128 -0.0804331 1
gene 1 40 7 0.898039 0 129 0.898039 1
genomeend 48

/* Organism #49 Fitness: 8.93265 Error: 1.01125 */
genomestart 49
trait 1 0.1 0 0 0 0 0 0 0 
trait 2 0.2 0 0 0 0 0 0 0 
trait 3 0.3 0 0 0 0 0 0 0 
node 1 3 1 3
node 2 1 1 1
node 3 1 1 1
node 4 2 0 2
node 7 1 0 0
node 13 1 0 0
node 40 1 0 0
gene 3 1 4 -0.899073 0 1 -0.899073 1
gene 2 2 4 -7.45727 0 2 -7.45727 1
gene 2 3 4 8 0 3 8 1
gene 2 2 7 7.46665 0 8 7.46665 0
gene 2 7 4 -5.04261 0 9 -5.04261 1
gene 1 2 13 -2.74665 0 23 -2.74665 1
gene 2 13 7 -3.56489 0 24 -3.56489 1
gene 2 3 13 0.58133 0 46 0.58133 1
gene 1 3 7 1.36111 0 112 1.36111 0
gene 1 3 40 1 0 128 1 1
gene 1 40 7 1.03722 0 129 1.03722 1
genomeend 49

/* Organism #50 Fitness: 3.92207 Error: 2.01958 */
genomestart 50
trait 1 0.1 0 0 0 0 0 0 0 
trait 2 0.2 0 0 0 0 0 0 0 
trait 3 0.3 0 0 0 0 0 0 0 
node 1 3 1 3
node 2 2 1 1
node 3 1 1 1
node 4 3 0 2
node 7 1 0 0
node 13 1 0 0
node 40 1 0 0
gene 3 1 4 -0.790963 0 1 -0.790963 1
gene 2 2 4 -3.22619 0 2 -3.22619 1
gene 2 3 4 6.02897 0 3 6.02897 1
gene 2 2 7 8 0 8 8 0
gene 2 7 4 -2.34177 0 9 -2.34177 1
gene 1 2 13 1.02819 0 23 1.02819 1
gene 2 13 7 -3.64592 0 24 -3.64592 1
gene 2 3 13 -0.240304 0 46 -0.240304 1
gene 1 3 7 -1.99028 0 112 -1.99028 0
gene 1 3 40 -0.458646 0 128 -0.458646 1
gene 1 40 7 0.97491 0 129 0.97491 1
genomeend 50

/* Organism #51 Fitness: 8.9998 Error: 1.00003 */
genomestart 51
trait 1 0.1 0 0 0 0 0 0 0 
trait 2 0.2 0 0 0 0 0 0 0 
trait 3 0.3 0 0 0 0 0 0 0 
node 1 3 1 3
node 2 1 1 1
node 3 1 1 1
node 4 3 0 2
node 7 1 0 0
node 13 1 0 0
node 40 1 0 0
gene 3 1 4 -5.16174 0 1 -5.16174 1
gene 2 2 4 -5.50198 0 2 -5.50198 1
gene 2 3 4 7.25782 0 3 7.25782 1
gene 2 2 7 7.12624 0 8 7.12624 0
gene 2 7 4 -0.692312 0 9 -0.692312 1
gene 1 2 13 -0.176901 0 23 -0.176901 1
gene 2 13 7 -4.69989 0 24 -4.69989 1
gene 2 3 13 0.357655 0 46 0.357655 1
gene 1 3 7 -0.435145 0 112 -0.435145 0
gene 1 3 40 1 0 128 1 1
gene 1 40 7 1.97543 0 129 1.97543 1
genomeend 51

/* Organism #52 Fitness: 8.99994 Error: 1.00001 */
genomestart 52
trait 1 0.1 0 0 0 0 0 0 0 
trait 2 0.2 0 0 0 0 0 0 0 
trait 3 0.3 0 0 0 0 0 0 0 
node 1 3 1 3
node 2 1 1 1
node 3 1 1 1
node 4 3 0 2
node 7 1 0 0
node 13 1 0 0
node 40 1 0 0
gene 3 1 4 -2.8681 0 1 -2.8681 1
gene 2 2 4 -5.38435 0 2 -5.38435 1
gene 2 3 4 8 0 3 8 1
gene 2 2 7 7.46665 0 8 7.46665 0
gene 2 7 4 -3.11028 0 9 -3.11028 1
gene 1 2 13 -0.346911 0 23 -0.346911 1
gene 2 13 7 -3.64592 0 24 -3.64592 1
gene 2 3 13 -1.73154 0 46 -1.73154 1
gene 1 3 7 -0.684102 0 112 -0.684102 0
gene 1 3 40 1 0 128 1 1
gene 1 40 7 0.430625 0 129 0.430625 1
genomeend 52

/* Organism #53 Fitness: 8.99906 Error: 1.00016 */
genomestart 53
trait 1 0.1 0 0 0 0 0 0 0 
trait 2 0.2 0 0 0 0 0 0 0 
trait 3 0.3 0 0 0 0 0 0 0 
node 1 3 1 3
node 2 1 1 1
node 3 1 1 1
node 4 3 0 2
node 7 1 0 0
node 13 1 0 0
node 40 1 0 0
gene 3 1 4 -3.38117 0 1 -3.38117 1
gene 2 2 4 -6.3824 0 2 -6.3824 1
gene 2 3 4 8 0 3 8 1
gene 2 2 7 8 0 8 8 0
gene 2 7 4 -0.648406 0 9 -0.648406 1
gene 1 2 13 1.88931 0 23 1.88931 1
gene 2 13 7 -3.45209 0 24 -3.45209 1
gene 2 3 13 -0.332111 0 46 -0.332111 1
gene 1 3 7 -2.56732 0 112 -2.56732 0
gene 1 3 40 1.38126 0 128 1.38126 1
gene 1 40 7 2.68894 0 129 2.68894 1
genomeend 53

/* Organism #54 Fitness: 3.50125 Error: 2.12884 */
genomestart 54
trait 1 0.1 0 0 0 0 0 0 0 
trait 2 0.2 0 0 0 0 0 0 0 
trait 3 0.3 0 0 0 0 0 0 0 
node 1 3 1 3
node 2 1 1 1
node 3 1 1 1
node 4 3 0 2
node 7 1 0 0
node 13 1 0 0
gene 3 1 4 -0.382406 0 1 -0.382406 1
gene 2 2 4 -2.32305 0 2 -2.32305 1
gene 2 3 4 -2.99376 0 3 -2.99376 1
gene 2 2 7 1.63972 0 8 1.63972 0
gene 2 7 4 -5.89657 0 9 -5.89657 1
gene 1 2 13 -1.55848 0 23 -1.55848 1
gene 2 13 7 -2.81699 0 24 -2.81699 1
gene 3 3 13 2.24317 0 46 2.24317 1
gene 1 3 7 -0.813888 0 112 -0.813888 1
genomeend 54

/* Organism #55 Fitness: 1.04102 Error: 2.9797 */
genomestart 55
trait 1 0.1 0 0 0 0 0 0 0 
trait 2 0.2 0 0 0 0 0 0 0 
trait 3 0.3 0 0 0 0 0 0 0 
node 1 3 1 3
node 2 1 1 1
node 3 1 1 1
node 4 3 0 2
node 7 1 0 0
node 13 1 0 0
gene 3 1 4 0.787207 0 1 0.787207 1
gene 2 2 4 -5.19896 0 2 -5.19896 1
gene 2 3 4 -3.94237 0 3 -3.94237 1
gene 2 2 7 -0.578026 0 8 -0.578026 0
gene 2 7 4 -7.13169 0 9 -7.13169 1
gene 1 2 13 -1.66209 0 23 -1.66209 1
gene 2 13 7 -5.73773 0 24 -5.73773 1
gene 2 3 13 3.502 0 46 3.502 1
gene 1 3 7 -0.202602 0 112 -0.202602 1
genomeend 55

/* Organism #56 Fitness: 3.993 Error: 2.00175 */
genomestart 56
trait 1 0.1 0 0 0 0 0 0 0 
trait 2 0.2 0 0 0 0 0 0 0 
trait 3 0.3 0 0 0.88354 0 0 0.805728 0 
node 1 3 1 3
node 2 1 1 1
node 3 1 1 1
node 4 3 0 2
node 7 1 0 0
node 13 1 0 0
gene 3 1 4 -1.28822 0 1 -1.28822 1
gene 2 2 4 -4.81001 0 2 -4.81001 1
gene 2 3 4 -1.9848 0 3 -1.9848 1
gene 2 2 7 1.63972 0 8 1.63972 0
gene 2 7 4 -5.12313 0 9 -5.12313 1
gene 1 2 13 -2.09023 0 23 -2.09023 1
gene 2 13 7 -3.8761 0 24 -3.8761 1
gene 2 3 13 2.24317 0 46 2.24317 1
gene 1 3 7 0.506203 0 112 0.506203 1
genomeend 56

/* Organism #57 Fitness: 3.9988 Error: 2.0003 */
genomestart 57
trait 1 0.1 0 0 0 0 0 0 0 
trait 2 0.2 0 0 0 0 0 0 0 
trait 3 0.3 0 0 0 0 0 0 0 
node 1 3 1 3
node 2 1 1 1
node 3 1 1 1
node 4 3 0 2
node 7 1 0 0
node 13 1 0 0
gene 3 1 4 -1.55407 0 1 -1.55407 1
gene 2 2 4 -4.89997 0 2 -4.89997 1
gene 2 3 4 -2.50539 0 3 -2.50539 1
gene 2 2 7 0.260367 0 8 0.260367 0
gene 2 7 4 -5.12313 0 9 -5.12313 1
gene 1 2 13 0.18771 0 23 0.18771 1
gene 2 13 7 -1.6206 0 24 -1.6206 1
gene 2 3 13 2.68502 0 46 2.68502 1
gene 1 3 7 2.73218 0 112 2.73218 1
genomeend 57

/* Organism #58 Fitness: 3.993 Error: 2.00175 */
genomestart 58
trait 1 0.1 0 0 0 0 0 0 0 
trait 2 0.2 0 0 0 0 0 0 0 
trait 3 0.3 0 0 0 0 0 0 0 
node 1 3 1 3
node 2 1 1 1
node 3 1 1 1
node 4 3 0 2
node 7 1 0 0
node 13 1 0 0
gene 3 1 4 -1.28822 0 1 -1.28822 1
gene 2 2 4 -4.81001 0 2 -4.81001 1
gene 2 3 4 -1.9848 0 3 -1.9848 1
gene 2 2 7 1.63972 0 8 1.63972 0
gene 2 7 4 -5.12313 0 9 -5.12313 1
gene 1 2 13 -2.09023 0 23 -2.09023 1
gene 2 13 7 -3.8761 0 24 -3.8761 1
gene 2 3 13 2.24317 0 46 2.24317 1
gene 1 3 7 0.506203 0 112 0.506203 1
genomeend 58

/* Species #8 : (Size 7) (AF 6.4066) (Age 12)  */


/* Organism #59 Fitness: 8.9871 Error: 1.00215 */
genomestart 59
trait 1 0.1 0 0 0 0 0 0 0 
trait 2 0.2 0.126068 0 0 0 0.162932 0 0.0919968 
trait 3 0.225 0 0 0 0.100397 0 0.0169366 0 
node 1 3 1 3
node 2 1 1 1
node 3 1 1 1
node 4 2 0 2
node 7 1 0 0
node 13 1 0 0
node 19 1 0 0
gene 3 1 4 -0.249234 0 1 -0.249234 1
gene 2 2 4 -1.3842 0 2 -1.3842 0
gene 2 3 4 4.24244 0 3 4.24244 1
gene 2 2 7 6.49374 0 8 6.49374 1
gene 2 7 4 -1.72364 0 9 -1.72364 1
gene 2 2 13 -1.07954 0 23 -1.07954 1
gene 3 13 7 1.29876 0 24 1.29876 1
gene 2 3 19 -0.675949 0 42 -0.675949 1
gene 2 19 4 6.67475 0 43 6.67475 1
gene 3 13 19 -1.10334 0 50 -1.10334 1
genomeend 59

/* Organism #60 Fitness: 4.00038 Error: 1.99991 */
genomestart 60
trait 1 0.1 0 0 0 0 0 0 0 
trait 2 0.2 0.126068 0 0 0 0.162932 0 0.0919968 
trait 3 0.225 0 0 0 0.100397 0 0.0169366 0 
node 1 3 1 3
node 2 1 1 1
node 3 1 1 1
node 4 2 0 2
node 7 1 0 0
node 13 1 0 0
node 19 1 0 0
gene 3 1 4 -2.48346 0 1 -2.48346 1
gene 2 2 4 -2.02395 0 2 -2.02395 0
gene 3 3 4 3.65932 0 3 3.65932 1
gene 2 2 7 5.6206 0 8 5.6206 1
gene 2 7 4 -3.20345 0 9 -3.20345 1
gene 2 2 13 -1.30724 0 23 -1.30724 1
gene 3 13 7 0.790503 0 24 0.790503 1
gene 2 3 19 -0.562696 0 42 -0.562696 1
gene 2 19 4 8 0 43 8 1
gene 3 13 19 -1.99303 0 50 -1.99303 1
genomeend 60

/* Organism #61 Fitness: 8.89662 Error: 1.01728 */
genomestart 61
trait 1 0.1 0 0 0 0 0 0 0 
trait 2 0.2 0.126068 0 0 0 0.162932 0 0.0919968 
trait 3 0.3 0 0 0 0 0 0 0 
node 1 3 1 3
node 2 1 1 1
node 3 1 1 1
node 4 2 0 2
node 7 1 0 0
node 13 1 0 0
node 19 1 0 0
node 42 1 0 0
gene 3 1 4 -2.38162 0 1 -2.38162 1
gene 2 2 4 -4.66561 0 2 -4.66561 0
gene 3 3 4 1.57734 0 3 1.57734 1
gene 2 2 7 3.66198 0 8 3.66198 0
gene 2 7 4 -1.28341 0 9 -1.28341 1
gene 2 2 13 -3.90336 0 23 -3.90336 1
gene 3 13 7 1.16408 0 24 1.16408 1
gene 2 3 19 -1.92495 0 42 -1.92495 1
gene 2 19 4 8 0 43 8 1
gene 3 13 19 -1.61936 0 50 -1.61936 1
gene 2 2 42 -0.806019 0 133 -0.806019 1
gene 2 42 7 5.28441 0 134 5.28441 1
genomeend 61

/* Organism #62 Fitness: 8.98646 Error: 1.00226 */
genomestart 62
trait 1 0.1 0 0 0 0 0 0 0 
trait 2 0.2 0.126068 0 0 0 0.162932 0 0.0919968 
trait 3 0.225 0 0 0 0.100397 0 0.0169366 0 
node 1 3 1 3
node 2 1 1 1
node 3 1 1 1
node 4 2 0 2
node 7 1 0 0
node 13 1 0 0
node 19 1 0 0
gene 3 1 4 -0.249234 0 1 -0.249234 1
gene 2 2 4 -1.3842 0 2 -1.3842 0
gene 2 3 4 4.38096 0 3 4.38096 1
gene 2 2 7 6.76318 0 8 6.76318 1
gene 2 7 4 -1.85701 0 9 -1.85701 1
gene 2 2 13 -1.07954 0 23 -1.07954 1
gene 3 13 7 1.22283 0 24 1.22283 1
gene 2 3 19 -0.562696 0 42 -0.562696 1
gene 2 19 4 6.8515 0 43 6.8515 1
gene 3 13 19 -1.11696 0 50 -1.11696 1
genomeend 62

/* Organism #63 Fitness: 8.9721 Error: 1.00465 */
genomestart 63
trait 1 0.1 0 0 0 0 0 0 0 
trait 2 0.2 0.126068 0 0 0 0.162932 0 0.0919968 
trait 3 0.2625 0 0 0 0.0501985 0 0.00846829 0 
node 1 3 1 3
node 2 1 1 1
node 3 1 1 1
node 4 2 0 2
node 7 1 0 0
node 13 1 0 0
node 19 1 0 0
gene 3 1 4 -0.73079 0 1 -0.73079 1
gene 2 2 4 -0.0998123 0 2 -0.0998123 1
gene 3 3 4 5.57682 0 3 5.57682 1
gene 2 2 7 3.64446 0 8 3.64446 0
gene 2 7 4 -0.655199 0 9 -0.655199 1
gene 2 2 13 -2.51188 0 23 -2.51188 1
gene 3 13 7 2.14813 0 24 2.14813 1
gene 2 3 19 0.128779 0 42 0.128779 1
gene 2 19 4 8 0 43 8 1
gene 3 13 19 -1.32789 0 50 -1.32789 1
genomeend 63

/* Organism #64 Fitness: 1.00787 Error: 2.99607 */
genomestart 64
trait 1 0.1 0 0 0 0 0 0 0 
trait 2 0.2 0.126068 0 0 0 0.162932 0 0.0919968 
trait 3 0.3 0 0 0 0 0 0 0 
node 1 3 1 3
node 2 1 1 1
node 3 1 1 1
node 4 2 0 2
node 7 1 0 0
node 13 1 0 0
node 19 1 0 0
node 42 1 0 0
gene 3 1 4 -2.17217 0 1 -2.17217 1
gene 2 2 4 -3.27526 0 2 -3.27526 0
gene 3 3 4 4.48459 0 3 4.48459 1
gene 2 2 7 5.99888 0 8 5.99888 1
gene 2 7 4 -4.5541 0 9 -4.5541 1
gene 2 2 13 -4.79721 0 23 -4.79721 1
gene 3 13 7 3.23851 0 24 3.23851 1
gene 2 3 19 0.0441015 0 42 0.0441015 1
gene 2 19 4 6.07691 0 43 6.07691 1
gene 3 13 19 -1.79385 0 50 -1.79385 1
gene 2 2 42 -0.509363 0 133 -0.509363 1
gene 2 42 7 5.08137 0 134 5.08137 1
genomeend 64

/* Organism #65 Fitness: 3.99565 Error: 2.00109 */
genomestart 65
trait 1 0.1 0 0 0 0 0 0 0 
trait 2 0.2 0.126068 0 0 0 0.162932 0 0.0919968 
trait 3 0.225 0 0 0 0.100397 0 0.0169366 0 
node 1 3 1 3
node 2 1 1 1
node 3 1 1 1
node 4 2 0 2
node 7 1 0 0
node 13 1 0 0
node 19 1 0 0
node 50 1 0 0
gene 3 1 4 -0.249234 0 1 -0.249234 1
gene 2 2 4 -1.3842 0 2 -1.3842 0
gene 2 3 4 4.24244 0 3 4.24244 1
gene 2 2 7 6.49374 0 8 6.49374 1
gene 2 7 4 -1.85701 0 9 -1.85701 1
gene 2 2 13 -1.07954 0 23 -1.07954 0
gene 3 13 7 1.29876 0 24 1.29876 1
gene 2 3 19 -0.675949 0 42 -0.675949 1
gene 2 19 4 6.8515 0 43 6.8515 1
gene 3 13 19 -1.11696 0 50 -1.11696 1
gene 2 2 50 1 0 155 0 1
gene 2 50 13 -1.07954 0 156 0 1
genomeend 65

/* Species #10 : (Size 7) (AF 6.87651) (Age 11)  */


/* Organism #66 Fitness: 9.13018 Error: 0.978381 */
genomestart 66
trait 1 0.1 0 0 0 0 0 0 0 
trait 2 0.2 0 0 0 0 0 0 0 
trait 3 0.3 0 0 0 0 0 0 0 
node 1 3 1 3
node 2 1 1 1
node 3 1 1 1
node 4 2 0 2
node 7 1 0 0
node 11 1 0 0
node 21 1 0 0
gene 3 1 4 1.54462 0 1 1.54462 1
gene 2 2 4 1.91215 0 2 1.91215 1
gene 2 3 4 0.465047 0 3 0.465047 0
gene 2 2 7 -1.50288 0 8 -1.50288 0
gene 2 7 4 -4.84887 0 9 -4.84887 1
gene 2 3 7 -4.05155 0 14 -4.05155 1
gene 2 3 11 -0.177841 0 17 -0.177841 1
gene 2 11 4 1.49794 0 18 1.49794 1
gene 2 2 21 3.13953 0 48 3.13953 1
gene 2 21 7 5.45746 0 49 5.45746 1
gene 1 11 21 -1.47113 0 77 -1.47113 1
genomeend 66

/* Organism #67 Fitness: 4 Error: 2 */
genomestart 67
trait 1 0.1 0 0 0 0 0 0 0 
trait 2 0.199733 0 0.000171931 0.0730151 0 0 0.0187368 0 
trait 3 0.3 0 0 0 0 0 0 0 
node 1 3 1 3
node 2 1 1 1
node 3 1 1 1
node 4 2 0 2
node 7 1 0 0
node 11 1 0 0
node 21 1 0 0
gene 3 1 4 -1.26079 0 1 -1.26079 1
gene 2 2 4 -1.15536 0 2 -1.15536 1
gene 2 3 4 1.27642 0 3 1.27642 0
gene 2 2 7 -3.98772 0 8 -3.98772 1
gene 2 7 4 -6.23161 0 9 -6.23161 1
gene 2 3 7 0.381352 0 14 0.381352 1
gene 2 3 11 -2.48304 0 17 -2.48304 1
gene 1 11 4 1.58238 0 18 1.58238 1
gene 2 2 21 0.125507 0 48 0.125507 1
gene 2 21 7 2.89881 0 49 2.89881 1
gene 1 11 21 1.26058 0 77 1.26058 1
gene 3 21 4 -2.58166 0 121 -2.58166 1
genomeend 67

/* Organism #68 Fitness: 4.00001 Error: 2 */
genomestart 68
trait 1 0.1 0 0 0 0 0 0 0 
trait 2 0.199733 0 0.000171931 0.0730151 0 0 0.0187368 0 
trait 3 0.3 0 0 0 0 0 0 0 
node 1 3 1 3
node 2 1 1 1
node 3 1 1 1
node 4 2 0 2
node 7 1 0 0
node 11 1 0 0
node 21 1 0 0
gene 3 1 4 -2.19836 0 1 -2.19836 1
gene 2 2 4 0.253919 0 2 0.253919 1
gene 2 3 4 -1.73107 0 3 -1.73107 0
gene 2 2 7 -4.0948 0 8 -4.0948 1
gene 2 7 4 -7.36576 0 9 -7.36576 1
gene 2 3 7 -0.353484 0 14 -0.353484 1
gene 2 3 11 -0.356887 0 17 -0.356887 1
gene 1 11 4 2.96198 0 18 2.96198 1
gene 2 2 21 2.41313 0 48 2.41313 1
gene 2 21 7 2.78453 0 49 2.78453 1
gene 1 11 21 -0.792321 0 77 -0.792321 1
gene 3 21 4 -2.16589 0 121 -2.16589 1
genomeend 68

/* Organism #69 Fitness: 9.00169 Error: 0.999719 */
genomestart 69
trait 1 0.1 0 0 0 0 0 0 0 
trait 2 0.199866 0 8.59657e-05 0.0365076 0 0 0.00936841 0 
trait 3 0.3 0 0 0 0 0 0 0 
node 1 3 1 3
node 2 1 1 1
node 3 1 1 1
node 4 2 0 2
node 7 1 0 0
node 11 1 0 0
node 21 1 0 0
gene 3 1 4 2.23131 0 1 2.23131 1
gene 2 2 4 0.989479 0 2 0.989479 1
gene 2 3 4 -0.029853 0 3 -0.029853 1
gene 2 2 7 -2.7453 0 8 -2.7453 0
gene 2 7 4 -5.54024 0 9 -5.54024 1
gene 2 3 7 -3.31321 0 14 -3.31321 1
gene 2 3 11 -1.47335 0 17 -1.47335 1
gene 1 11 4 1.37079 0 18 1.37079 1
gene 2 2 21 2.32021 0 48 2.32021 1
gene 2 21 7 4.11247 0 49 4.11247 1
gene 1 11 21 -0.0104251 0 77 -0.0104251 1
genomeend 69

/* Organism #70 Fitness: 8.99993 Error: 1.00001 */
genomestart 70
trait 1 0.1 0 0 0 0 0 0 0 
trait 2 0.199733 0 0.000171931 0.0730151 0 0 0.0187368 0 
trait 3 0.3 0 0 0 0 0 0 0 
node 1 3 1 3
node 2 1 1 1
node 3 1 1 1
node 4 2 0 2
node 7 1 0 0
node 11 1 0 0
node 21 1 0 0
gene 3 1 4 3.75405 0 1 3.75405 1
gene 2 2 4 1.36434 0 2 1.36434 1
gene 2 3 4 1.65018 0 3 1.65018 0
gene 2 2 7 -1.94899 0 8 -1.94899 1
gene 2 7 4 -5.39875 0 9 -5.39875 1
gene 2 3 7 -4.0979 0 14 -4.0979 1
gene 2 3 11 -2.66554 0 17 -2.66554 1
gene 1 11 4 -0.432344 0 18 -0.432344 1
gene 2 2 21 3.75308 0 48 3.75308 1
gene 2 21 7 1.78594 0 49 1.78594 1
gene 1 11 21 1.45028 0 77 1.45028 1
gene 3 21 4 -0.477609 0 121 -0.477609 1
genomeend 70

/* Organism #71 Fitness: 4.00374 Error: 1.99906 */
genomestart 71
trait 1 0.1 0 0 0 0 0 0 0 
trait 2 0.199866 0 8.59657e-05 0.0365076 0 0 0.00936841 0 
trait 3 0.3 0 0 0 0 0 0 0 
node 1 3 1 3
node 2 1 1 1
node 3 1 1 1
node 4 2 0 2
node 7 1 0 0
node 11 1 0 0
node 21 1 0 0
gene 3 1 4 3.99572 0 1 3.99572 1
gene 2 2 4 1.81719 0 2 1.81719 1
gene 2 3 4 2.708 0 3 2.708 0
gene 2 2 7 -1.74742 0 8 -1.74742 0
gene 2 7 4 -4.21447 0 9 -4.21447 1
gene 2 3 7 -4.06734 0 14 -4.06734 1
gene 2 3 11 -4.23672 0 17 -4.23672 1
gene 1 11 4 3.26978 0 18 3.26978 1
gene 2 2 21 3.45042 0 48 3.45042 1
gene 2 21 7 3.17334 0 49 3.17334 1
gene 1 11 21 2.41899 0 77 2.41899 1
genomeend 71

/* Organism #72 Fitness: 9 Error: 1 */
genomestart 72
trait 1 0.1 0 0 0 0 0 0 0 
trait 2 0.199733 0 0.000171931 0.0730151 0 0 0.0187368 0 
trait 3 0.3 0 0 0 0 0 0 0 
node 1 3 1 3
node 2 1 1 1
node 3 1 1 1
node 4 2 0 2
node 7 1 0 0
node 11 1 0 0
node 21 1 0 0
gene 3 1 4 4.59671 0 1 4.59671 1
gene 2 2 4 2.5495 0 2 2.5495 1
gene 2 3 4 -1.0688 0 3 -1.0688 0
gene 2 2 7 -1.7098 0 8 -1.7098 1
gene 2 7 4 -8 0 9 -8 1
gene 2 3 7 -3.42429 0 14 -3.42429 1
gene 2 3 11 -5.10717 0 17 -5.10717 1
gene 1 11 4 -0.237954 0 18 -0.237954 1
gene 2 2 21 2.56971 0 48 2.56971 1
gene 2 21 7 1.46994 0 49 1.46994 1
gene 1 11 21 -0.391311 0 77 -0.391311 1
gene 3 21 4 -1.76766 0 121 -1.76766 1
genomeend 72

/* Species #11 : (Size 10) (AF 8.19021) (Age 11)  */


/* Organism #73 Fitness: 9.03543 Error: 0.994101 */
genomestart 73
trait 1 0.1 0 0 0 0 0 0 0 
trait 2 0.211523 0 0 0 0 0 0 0 
trait 3 0.3 0 0 0 0 0 0 0 
node 1 3 1 3
node 2 1 1 1
node 3 1 1 1
node 4 2 0 2
node 7 1 0 0
node 23 1 0 0
gene 1 1 4 -6.60609 0 1 -6.60609 1
gene 1 2 4 -0.813208 0 2 -0.813208 1
gene 3 3 4 -0.12233 0 3 -0.12233 0
gene 2 2 7 5.2817 0 8 5.2817 1
gene 2 7 4 8 0 9 8 1
gene 1 3 7 4.06892 0 14 4.06892 1
gene 3 3 23 -0.127201 0 56 -0.127201 1
gene 3 23 4 0.845049 0 57 0.845049 1
genomeend 73

/* Organism #74 Fitness: 8.99994 Error: 1.00001 */
genomestart 74
trait 1 0.1 0 0 0 0 0 0 0 
trait 2 0.968362 0 0 0 0.391004 0 0 0.315682 
trait 3 0.3 0 0 0 0 0 0 0 
node 1 3 1 3
node 2 1 1 1
node 3 1 1 1
node 4 2 0 2
node 7 1 0 0
node 23 2 0 0
gene 1 1 4 -8 0 1 -8 1
gene 1 2 4 1.27529 0 2 1.27529 1
gene 3 3 4 4.87816 0 3 4.87816 0
gene 2 2 7 6.09614 0 8 6.09614 1
gene 2 7 4 8 0 9 8 1
gene 2 3 7 3.63973 0 14 3.63973 1
gene 3 3 23 3.65016 0 56 3.65016 1
gene 3 23 4 3.3175 0 57 3.3175 1
genomeend 74

/* Organism #75 Fitness: 8.95643 Error: 1.00727 */
genomestart 75
trait 1 0.1 0 0 0 0 0 0 0 
trait 2 0.211523 0 0 0 0.542629 0 0 0 
trait 3 0.3 0 0 0 0 0 0 0 
node 1 3 1 3
node 2 1 1 1
node 3 1 1 1
node 4 2 0 2
node 7 1 0 0
node 23 2 0 0
gene 1 1 4 -5.73569 0 1 -5.73569 1
gene 1 2 4 0.957448 0 2 0.957448 1
gene 3 3 4 1.77596 0 3 1.77596 0
gene 2 2 7 8 0 8 8 1
gene 2 7 4 8 0 9 8 1
gene 2 3 7 3.45331 0 14 3.45331 1
gene 3 3 23 1.92446 0 56 1.92446 1
gene 3 23 4 1.47451 0 57 1.47451 1
genomeend 75

/* Organism #76 Fitness: 8.9998 Error: 1.00003 */
genomestart 76
trait 1 0.1 0 0 0 0 0 0 0 
trait 2 0.211523 0 0 0 0.271314 0 0 0 
trait 3 0.3 0 0 0 0 0 0 0 
node 1 3 1 3
node 2 1 1 1
node 3 1 1 1
node 4 2 0 2
node 7 1 0 0
node 23 2 0 0
gene 1 1 4 -6.94776 0 1 -6.94776 1
gene 1 2 4 0.523807 0 2 0.523807 1
gene 3 3 4 1.30495 0 3 1.30495 0
gene 2 2 7 6.53292 0 8 6.53292 1
gene 2 7 4 8 0 9 8 1
gene 2 3 7 3.93124 0 14 3.93124 1
gene 3 3 23 2.23807 0 56 2.23807 1
gene 3 23 4 1.49996 0 57 1.49996 1
genomeend 76

/* Organism #77 Fitness: 6.87216 Error: 1.37852 */
genomestart 77
trait 1 0.1 0 0 0 0 0 0 0 
trait 2 0.211523 0 0 0 0 0 0 0 
trait 3 0.3 0 0 0 0 0 0 0 
node 1 3 1 3
node 2 1 1 1
node 3 1 1 1
node 4 2 0 2
node 7 1 0 0
node 23 1 0 0
gene 1 1 4 -6.78609 0 1 -6.78609 1
gene 1 2 4 0.31393 0 2 0.31393 1
gene 3 3 4 1.26253 0 3 1.26253 0
gene 2 2 7 5.98863 0 8 5.98863 1
gene 2 7 4 8 0 9 8 1
gene 1 3 7 3.18912 0 14 3.18912 1
gene 3 3 23 1.83724 0 56 1.83724 1
gene 3 23 4 -1.32673 0 57 -1.32673 1
genomeend 77

/* Organism #78 Fitness: 5.3702 Error: 1.68263 */
genomestart 78
trait 1 0.1 0 0 0 0 0 0 0 
trait 2 0.211523 0 0 0 0.542629 0 0 0 
trait 3 0.3 0 0 0 0 0 0 0 
node 1 3 1 3
node 2 1 1 1
node 3 1 1 1
node 4 2 0 2
node 7 1 0 0
node 23 2 0 0
gene 1 1 4 -5.68595 0 1 -5.68595 1
gene 1 2 4 -0.0335356 0 2 -0.0335356 1
gene 3 3 4 1.37658 0 3 1.37658 0
gene 2 2 7 8 0 8 8 1
gene 2 7 4 8 0 9 8 1
gene 2 3 7 2.79065 0 14 2.79065 1
gene 3 3 23 5.90131 0 56 5.90131 1
gene 3 23 4 3.68296 0 57 3.68296 1
genomeend 78

/* Organism #79 Fitness: 11.6686 Error: 0.584068 */
/* ##------$ WINNER 79 SPECIES #11 $------## */
genomestart 79
trait 1 0.1 0 0 0 0 0 0 0 
trait 2 0.211523 0 0 0 0 0 0 0 
trait 3 0.3 0 0 0 0 0 0 0 
node 1 3 1 3
node 2 1 1 1
node 3 1 1 1
node 4 2 0 2
node 7 1 0 0
node 23 1 0 0
gene 1 1 4 -7.80949 0 1 -7.80949 1
gene 1 2 4 -1.28841 0 2 -1.28841 1
gene 3 3 4 0.488891 0 3 0.488891 0
gene 2 2 7 5.58875 0 8 5.58875 1
gene 2 7 4 8 0 9 8 1
gene 1 3 7 1.96737 0 14 1.96737 1
gene 3 3 23 -1.78065 0 56 -1.78065 1
gene 3 23 4 2.54339 0 57 2.54339 1
genomeend 79

/* Organism #80 Fitness: 8.9998 Error: 1.00003 */
genomestart 80
trait 1 0.1 0 0 0 0 0 0 0 
trait 2 0.211523 0 0 0 0.542629 0 0 0 
trait 3 0.3 0 0 0 0 0 0 0 
node 1 3 1 3
node 2 1 1 1
node 3 1 1 1
node 4 2 0 2
node 7 1 0 0
node 23 2 0 0
gene 1 1 4 -8 0 1 -8 1
gene 1 2 4 3.33683 0 2 3.33683 1
gene 3 3 4 4.22827 0 3 4.22827 0
gene 2 2 7 2.17278 0 8 2.17278 1
gene 2 7 4 5.54217 0 9 5.54217 1
gene 2 3 7 2.93948 0 14 2.93948 1
gene 3 3 23 3.44378 0 56 3.44378 1
gene 3 23 4 4.55717 0 57 4.55717 1
genomeend 80

/* Organism #81 Fitness: 4 Error: 2 */
genomestart 81
trait 1 0.1 0 0 0 0 0 0 0 
trait 2 0 0 0 0.980753 0 0 0 0 
trait 3 0.3 0 0 0 0 0 0 0 
node 1 3 1 3
node 2 1 1 1
node 3 1 1 1
node 4 2 0 2
node 7 1 0 0
node 23 1 0 0
gene 1 1 4 -6.28263 0 1 -6.28263 1
gene 1 2 4 -2.98237 0 2 -2.98237 1
gene 3 3 4 -2.37387 0 3 -2.37387 1
gene 2 2 7 2.84809 0 8 2.84809 1
gene 2 7 4 -2.02118 0 9 -2.02118 1
gene 1 3 7 1.09439 0 14 1.09439 1
gene 3 3 23 0.507347 0 56 0.507347 1
gene 3 23 4 -1.41959 0 57 -1.41959 1
genomeend 81

/* Organism #82 Fitness: 8.99978 Error: 1.00004 */
genomestart 82
trait 1 0.1 0 0 0 0 0 0 0 
trait 2 0.211523 0 0 0 0 0 0 0 
trait 3 0.3 0 0 0 0 0 0 0 
node 1 3 1 3
node 2 1 1 1
node 3 1 1 1
node 4 2 0 2
node 7 1 0 0
node 23 2 0 0
gene 1 1 4 -8 0 1 -8 1
gene 1 2 4 3.42199 0 2 3.42199 1
gene 3 3 4 -0.306779 0 3 -0.306779 0
gene 2 2 7 3.688 0 8 3.688 1
gene 2 7 4 6.88693 0 9 6.88693 1
gene 2 3 7 3.82693 0 14 3.82693 1
gene 3 3 23 2.36407 0 56 2.36407 1
gene 3 23 4 3.18932 0 57 3.18932 1
genomeend 82

/* Species #13 : (Size 8) (AF 6.82526) (Age 10)  */


/* Organism #83 Fitness: 8.99999 Error: 1 */
genomestart 83
trait 1 0.1 0 0 0 0 0 0 0 
trait 2 0.2 0 0 0 0 0 0 0 
trait 3 0.3 0 0 0 0 0 0 0 
node 1 3 1 3
node 2 1 1 1
node 3 1 1 1
node 4 2 0 2
node 7 2 0 0
node 13 1 0 0
node 44 1 0 0
gene 3 1 4 -4.31005 0 1 -4.31005 1
gene 2 2 4 -6.4034 0 2 -6.4034 1
gene 2 3 4 8 0 3 8 1
gene 2 2 7 -0.973886 0 8 -0.973886 0
gene 2 7 4 -0.128025 0 9 -0.128025 1
gene 2 2 13 -2.96565 0 23 -2.96565 1
gene 2 13 7 -0.0170786 0 24 -0.0170786 0
gene 3 3 7 -2.81626 0 41 -2.81626 1
gene 1 1 13 4.4079 0 67 4.4079 1
gene 2 13 44 1 0 138 0 1
gene 2 44 7 -0.0170786 0 139 0 1
genomeend 83

/* Organism #84 Fitness: 4 Error: 2 */
genomestart 84
trait 1 0.1 0 0 0 0 0 0 0 
trait 2 0.2 0 0 0 0 0 0 0 
trait 3 0.3 0 0 0 0 0 0 0 
node 1 3 1 3
node 2 1 1 1
node 3 1 1 1
node 4 2 0 2
node 7 2 0 0
node 13 1 0 0
node 44 1 0 0
gene 3 1 4 -5.67428 0 1 -5.67428 1
gene 2 2 4 -0.80874 0 2 -0.80874 1
gene 2 3 4 0.206576 0 3 0.206576 1
gene 2 2 7 -0.859621 0 8 -0.859621 0
gene 2 7 4 -2.05854 0 9 -2.05854 1
gene 2 2 13 -2.5603 0 23 -2.5603 1
gene 2 13 7 -0.0170786 0 24 -0.0170786 0
gene 3 3 7 -0.50426 0 41 -0.50426 1
gene 1 1 13 4.4079 0 67 4.4079 1
gene 2 13 44 2.94374 0 138 2.94374 1
gene 2 44 7 -0.265599 0 139 -0.265599 1
genomeend 84

/* Organism #85 Fitness: 6.60695 Error: 1.4296 */
genomestart 85
trait 1 0.1 0 0 0 0 0 0 0 
trait 2 0.2 0 0 0 0 0 0 0 
trait 3 0.761482 0 0 0 0 0 0 0.487955 
node 1 3 1 3
node 2 1 1 1
node 3 1 1 1
node 4 2 0 2
node 7 2 0 0
node 13 1 0 0
node 44 1 0 0
gene 3 1 4 -2.21953 0 1 -2.21953 1
gene 2 2 4 -5.95037 0 2 -5.95037 1
gene 2 3 4 2.10594 0 3 2.10594 1
gene 2 2 7 -0.475944 0 8 -0.475944 0
gene 2 7 4 0.172309 0 9 0.172309 1
gene 2 2 13 -3.38728 0 23 -3.38728 1
gene 2 13 7 -0.477995 0 24 -0.477995 0
gene 3 3 7 1.02349 0 41 1.02349 1
gene 1 1 13 1.91733 0 67 1.91733 1
gene 2 13 44 -0.242793 0 138 -0.242793 1
gene 2 44 7 -0.0170786 0 139 -0.0170786 1
genomeend 85

/* Organism #86 Fitness: 4 Error: 2 */
genomestart 86
trait 1 0.1 0 0 0 0 0 0 0 
trait 2 0.2 0 0 0 0 0 0 0 
trait 3 0.3 0 0 0 0 0 0 0 
node 1 3 1 3
node 2 1 1 1
node 3 1 1 1
node 4 2 0 2
node 7 2 0 0
node 13 1 0 0
node 44 1 0 0
gene 3 1 4 -2.95717 0 1 -2.95717 1
gene 2 2 4 -4.57253 0 2 -4.57253 1
gene 2 3 4 -0.354366 0 3 -0.354366 1
gene 2 2 7 -0.973886 0 8 -0.973886 0
gene 2 7 4 -0.58773 0 9 -0.58773 1
gene 2 2 13 -1.27563 0 23 -1.27563 1
gene 2 13 7 2.11069 0 24 2.11069 0
gene 3 3 7 -3.36879 0 41 -3.36879 1
gene 1 1 13 3.62207 0 67 3.62207 1
gene 2 13 44 2.26014 0 138 2.26014 1
gene 2 44 7 1.11211 0 139 1.11211 1
genomeend 86

/* Organism #87 Fitness: 4 Error: 2 */
genomestart 87
trait 1 0.1 0 0 0 0 0 0 0 
trait 2 0.2 0 0 0 0 0 0 0 
trait 3 0.3 0 0 0 0 0 0 0 
node 1 3 1 3
node 2 1 1 1
node 3 1 1 1
node 4 2 0 2
node 7 2 0 0
node 13 1 0 0
node 44 1 0 0
gene 3 1 4 -4.87135 0 1 -4.87135 1
gene 2 2 4 -8 0 2 -8 1
gene 2 3 4 1.05849 0 3 1.05849 1
gene 2 2 7 -1.05078 0 8 -1.05078 0
gene 2 7 4 -2.06825 0 9 -2.06825 1
gene 2 2 13 1.8913 0 23 1.8913 1
gene 2 13 7 -1.09615 0 24 -1.09615 0
gene 3 3 7 -2.81626 0 41 -2.81626 1
gene 1 1 13 0.379452 0 67 0.379452 1
gene 2 13 44 0.0722731 0 138 0.0722731 1
gene 2 44 7 2.00816 0 139 2.00816 1
genomeend 87

/* Organism #88 Fitness: 9 Error: 1 */
genomestart 88
trait 1 0.1 0 0 0 0 0 0 0 
trait 2 0.2 0 0 0 0 0 0 0 
trait 3 0.3 0 0 0 0 0 0 0 
node 1 3 1 3
node 2 1 1 1
node 3 1 1 1
node 4 2 0 2
node 7 2 0 0
node 13 1 0 0
node 44 1 0 0
gene 3 1 4 -4.86055 0 1 -4.86055 1
gene 2 2 4 -6.4034 0 2 -6.4034 1
gene 2 3 4 8 0 3 8 1
gene 2 2 7 -0.973886 0 8 -0.973886 1
gene 2 7 4 0.828704 0 9 0.828704 1
gene 2 2 13 -2.96565 0 23 -2.96565 1
gene 2 13 7 -0.865611 0 24 -0.865611 0
gene 3 3 7 -2.19114 0 41 -2.19114 1
gene 1 1 13 2.90844 0 67 2.90844 1
gene 2 13 44 1 0 138 0 1
gene 2 44 7 -0.0170786 0 139 0 1
genomeend 88

/* Organism #89 Fitness: 8.99516 Error: 1.00081 */
genomestart 89
trait 1 0.1 0 0 0 0 0 0 0 
trait 2 0.2 0 0 0 0 0 0 0 
trait 3 0 0 0.933145 0 0 0.00226524 0 0 
node 1 3 1 3
node 2 1 1 1
node 3 1 1 1
node 4 2 0 2
node 7 1 0 0
node 13 1 0 0
node 44 1 0 0
gene 3 1 4 -6.55357 0 1 -6.55357 1
gene 2 2 4 -8 0 2 -8 1
gene 2 3 4 8 0 3 8 1
gene 2 2 7 -0.985927 0 8 -0.985927 0
gene 2 7 4 -0.0581246 0 9 -0.0581246 1
gene 2 2 13 -2.73365 0 23 -2.73365 1
gene 2 13 7 0.122368 0 24 0.122368 0
gene 3 3 7 -1.56603 0 41 -1.56603 1
gene 1 1 13 -2.0676 0 67 -2.0676 1
gene 2 13 44 0.490379 0 138 0.490379 1
gene 2 44 7 0.353221 0 139 0.353221 1
genomeend 89

/* Organism #90 Fitness: 8.99999 Error: 1 */
genomestart 90
trait 1 0.1 0 0 0 0 0 0 0 
trait 2 0.2 0 0 0 0 0 0 0 
trait 3 0.3 0 0 0 0 0 0 0 
node 1 3 1 3
node 2 1 1 1
node 3 1 1 1
node 4 2 0 2
node 7 2 0 0
node 13 1 0 0
node 44 1 0 0
gene 3 1 4 -2.86556 0 1 -2.86556 1
gene 2 2 4 -7.50737 0 2 -7.50737 1
gene 2 3 4 6.10825 0 3 6.10825 1
gene 2 2 7 0.185553 0 8 0.185553 0
gene 2 7 4 2.03148 0 9 2.03148 1
gene 2 2 13 -3.3428 0 23 -3.3428 1
gene 2 13 7 -0.639255 0 24 -0.639255 0
gene 3 3 7 -2.75449 0 41 -2.75449 1
gene 1 1 13 6.25386 0 67 6.25386 1
gene 2 13 44 1.44993 0 138 1.44993 1
gene 2 44 7 -1.72827 0 139 -1.72827 1
genomeend 90

/* Species #14 : (Size 7) (AF 5.16003) (Age 7)  */


/* Organism #91 Fitness: 8.93644 Error: 1.01061 */
genomestart 91
trait 1 0.1 0 0 0 0 0 0 0 
trait 2 0.2 0 0 0 0 0 0 0 
trait 3 0.3 0 0 0 0 0 0 0 
node 1 3 1 3
node 2 3 1 1
node 3 1 1 1
node 4 2 0 2
node 7 1 0 0
node 31 1 0 0
gene 1 1 4 -4.67293 0 1 -4.67293 1
gene 1 2 4 2.87093 0 2 2.87093 1
gene 2 3 4 3.85291 0 3 3.85291 1
gene 1 2 7 4.10095 0 8 4.10095 0
gene 2 7 4 4.88696 0 9 4.88696 1
gene 3 3 7 3.26266 0 58 3.26266 1
gene 1 2 31 0.571573 0 90 0.571573 1
gene 1 31 7 0.485597 0 91 0.485597 1
genomeend 91

/* Organism #92 Fitness: 4 Error: 2 */
genomestart 92
trait 1 0.1 0 0 0 0 0 0 0 
trait 2 0.2 0 0 0 0 0 0 0 
trait 3 0.3 0 0 0 0 0 0 0 
node 1 3 1 3
node 2 1 1 1
node 3 1 1 1
node 4 2 0 2
node 7 1 0 0
node 31 2 0 0
gene 1 1 4 -7.62436 0 1 -7.62436 1
gene 1 2 4 0.219635 0 2 0.219635 0
gene 2 3 4 2.80844 0 3 2.80844 1
gene 1 2 7 -2.14442 0 8 -2.14442 0
gene 2 7 4 7.74772 0 9 7.74772 1
gene 3 3 7 3.04801 0 58 3.04801 1
gene 1 2 31 7.22348 0 90 7.22348 1
gene 1 31 7 -1.49855 0 91 -1.49855 1
genomeend 92

/* Organism #93 Fitness: 8.31126 Error: 1.11707 */
genomestart 93
trait 1 0.1 0 0 0 0 0 0 0 
trait 2 0.2 0 0 0 0 0 0 0 
trait 3 0.3 0 0 0 0 0 0 0 
node 1 3 1 3
node 2 3 1 1
node 3 1 1 1
node 4 2 0 2
node 7 1 0 0
node 31 1 0 0
node 51 1 0 0
gene 1 1 4 -4.67293 0 1 -4.67293 1
gene 1 2 4 2.87093 0 2 2.87093 1
gene 2 3 4 3.85291 0 3 3.85291 1
gene 1 2 7 4.10095 0 8 4.10095 0
gene 2 7 4 4.88696 0 9 4.88696 1
gene 3 3 7 3.26266 0 58 3.26266 1
gene 1 2 31 0.571573 0 90 0.571573 0
gene 1 31 7 0.485597 0 91 0.485597 1
gene 1 2 51 1 0 157 0 1
gene 1 51 31 0.571573 0 158 0 1
genomeend 93

/* Organism #94 Fitness: 4 Error: 2 */
genomestart 94
trait 1 0.1 0 0 0 0 0 0 0 
trait 2 0.2 0 0 0 0 0 0 0 
trait 3 0.3 0 0 0 0 0 0 0 
node 1 3 1 3
node 2 3 1 1
node 3 1 1 1
node 4 2 0 2
node 7 1 0 0
node 31 1 0 0
gene 1 1 4 -6.95932 0 1 -6.95932 1
gene 1 2 4 1.62598 0 2 1.62598 1
gene 2 3 4 0.877589 0 3 0.877589 1
gene 1 2 7 2.44682 0 8 2.44682 0
gene 2 7 4 0.498162 0 9 0.498162 1
gene 3 3 7 2.57981 0 58 2.57981 1
gene 1 2 31 3.42667 0 90 3.42667 1
gene 1 31 7 -2.05383 0 91 -2.05383 1
genomeend 94

/* Organism #95 Fitness: 2.87288 Error: 2.30504 */
genomestart 95
trait 1 0.1 0 0 0 0 0 0 0 
trait 2 0.2 0 0 0 0 0 0 0 
trait 3 0.3 0 0.17473 0.794667 0.159134 0 0 0 
node 1 3 1 3
node 2 3 1 1
node 3 1 1 1
node 4 2 0 2
node 7 1 0 0
node 31 1 0 0
gene 1 1 4 -5.403 0 1 -5.403 1
gene 1 2 4 1.236 0 2 1.236 1
gene 2 3 4 4.74993 0 3 4.74993 1
gene 1 2 7 5.22494 0 8 5.22494 0
gene 2 7 4 7.10103 0 9 7.10103 1
gene 3 3 7 2.27803 0 58 2.27803 1
gene 1 2 31 -1.73551 0 90 -1.73551 1
gene 1 31 7 0.431821 0 91 0.431821 1
genomeend 95

/* Organism #96 Fitness: 3.99964 Error: 2.00009 */
genomestart 96
trait 1 0.1 0 0 0 0 0 0 0 
trait 2 0.2 0 0 0 0 0 0 0 
trait 3 0.3 0 0 0 0 0 0 0 
node 1 3 1 3
node 2 1 1 1
node 3 1 1 1
node 4 2 0 2
node 7 1 0 0
node 31 2 0 0
gene 1 1 4 -8 0 1 -8 1
gene 1 2 4 -0.396164 0 2 -0.396164 0
gene 2 3 4 4.15284 0 3 4.15284 1
gene 1 2 7 -1.0015 0 8 -1.0015 0
gene 2 7 4 5.13849 0 9 5.13849 1
gene 3 3 7 0.88896 0 58 0.88896 1
gene 1 2 31 6.13888 0 90 6.13888 1
gene 1 31 7 0.655773 0 91 0.655773 1
genomeend 96

/* Organism #97 Fitness: 4 Error: 2 */
genomestart 97
trait 1 0.1 0 0 0 0 0 0 0 
trait 2 0.2 0 0 0 0 0 0 0 
trait 3 0.3 0 0 0 0 0 0 0 
node 1 3 1 3
node 2 3 1 1
node 3 1 1 1
node 4 2 0 2
node 7 1 0 0
node 31 2 0 0
gene 1 1 4 -6.33647 0 1 -6.33647 1
gene 1 2 4 1.51702 0 2 1.51702 0
gene 2 3 4 3.04781 0 3 3.04781 1
gene 1 2 7 2.00219 0 8 2.00219 0
gene 2 7 4 5.7996 0 9 5.7996 1
gene 3 3 7 2.18326 0 58 2.18326 1
gene 1 2 31 3.06183 0 90 3.06183 1
gene 1 31 7 -0.52901 0 91 -0.52901 1
genomeend 97

/* Species #15 : (Size 9) (AF 6.53941) (Age 4)  */


/* Organism #98 Fitness: 9 Error: 1 */
genomestart 98
trait 1 0.1 0 0 0 0 0 0 0 
trait 2 0.2 0 0 0 0 0 0 0 
trait 3 0.3 0 0 0 0 0 0 0 
node 1 3 1 3
node 2 1 1 1
node 3 1 1 1
node 4 3 0 2
node 7 1 0 0
node 13 1 0 0
gene 3 1 4 -4.01161 0 1 -4.01161 1
gene 2 2 4 -6.91391 0 2 -6.91391 1
gene 2 3 4 8 0 3 8 1
gene 2 2 7 3.65883 0 8 3.65883 1
gene 2 7 4 -1.83498 0 9 -1.83498 1
gene 1 2 13 -1.49311 0 23 -1.49311 1
gene 2 13 7 -4.15813 0 24 -4.15813 1
gene 2 3 13 1.87747 0 46 1.87747 1
gene 2 1 13 -0.586841 0 103 -0.586841 1
gene 1 13 4 0.462258 0 111 0.462258 1
genomeend 98

/* Organism #99 Fitness: 1.31311 Error: 2.85409 */
genomestart 99
trait 1 0.1 0 0 0 0 0 0 0 
trait 2 0.2 0 0 0 0 0 0 0 
trait 3 0.3 0 0 0 0 0 0 0 
node 1 3 1 3
node 2 1 1 1
node 3 1 1 1
node 4 3 0 2
node 7 1 0 0
node 13 1 0 0
gene 3 1 4 2.3915 0 1 2.3915 1
gene 2 2 4 0.508233 0 2 0.508233 1
gene 2 3 4 8 0 3 8 1
gene 2 2 7 1.04137 0 8 1.04137 1
gene 2 7 4 -4.04806 0 9 -4.04806 1
gene 1 2 13 1.66928 0 23 1.66928 1
gene 2 13 7 -2.93804 0 24 -2.93804 1
gene 2 3 13 -2.78144 0 46 -2.78144 1
gene 2 1 13 -2.21776 0 103 -2.21776 1
gene 1 13 4 0.46686 0 111 0.46686 1
gene 2 3 7 -0.740291 0 144 -0.740291 1
genomeend 99

/* Organism #100 Fitness: 4.02531 Error: 1.99368 */
genomestart 100
trait 1 0.1 0 0 0 0 0 0 0 
trait 2 0.2 0 0 0 0 0 0 0 
trait 3 0.3 0 0 0 0 0 0 0 
node 1 3 1 3
node 2 1 1 1
node 3 1 1 1
node 4 3 0 2
node 7 1 0 0
node 13 1 0 0
gene 3 1 4 -1.41547 0 1 -1.41547 1
gene 2 2 4 -5.87634 0 2 -5.87634 1
gene 2 3 4 8 0 3 8 1
gene 2 2 7 5.47691 0 8 5.47691 1
gene 2 7 4 -0.821646 0 9 -0.821646 1
gene 1 2 13 3.12336 0 23 3.12336 1
gene 2 13 7 -3.70791 0 24 -3.70791 1
gene 2 3 13 0.54797 0 46 0.54797 1
gene 2 1 13 -3.01695 0 103 -3.01695 1
gene 1 13 4 1.18084 0 111 1.18084 1
gene 2 3 7 -0.566978 0 144 -0.566978 1
genomeend 100

/* Organism #101 Fitness: 8.99997 Error: 1 */
genomestart 101
trait 1 0.1 0 0 0 0 0 0 0 
trait 2 0.2 0 0 0.289702 0.316964 0 0 0 
trait 3 0.3 0 0 0 0 0 0 0 
node 1 3 1 3
node 2 1 1 1
node 3 1 1 1
node 4 3 0 2
node 7 1 0 0
node 13 1 0 0
gene 3 1 4 -4.89691 0 1 -4.89691 1
gene 2 2 4 -7.87432 0 2 -7.87432 1
gene 2 3 4 8 0 3 8 1
gene 2 2 7 2.82189 0 8 2.82189 1
gene 2 7 4 0.405794 0 9 0.405794 1
gene 1 2 13 -3.02919 0 23 -3.02919 1
gene 2 13 7 -4.06526 0 24 -4.06526 1
gene 2 3 13 -3.16321 0 46 -3.16321 1
gene 2 1 13 1.22436 0 103 1.22436 1
gene 1 13 4 2.41409 0 111 2.41409 1
genomeend 101

/* Organism #102 Fitness: 8.99998 Error: 1 */
genomestart 102
trait 1 0.1 0 0 0 0 0 0 0 
trait 2 0.2 0 0 0 0 0 0 0 
trait 3 0.3 0 0 0 0 0 0 0 
node 1 3 1 3
node 2 1 1 1
node 3 1 1 1
node 4 3 0 2
node 7 1 0 0
node 13 1 0 0
gene 3 1 4 -4.01161 0 1 -4.01161 1
gene 2 2 4 -6.91391 0 2 -6.91391 1
gene 2 3 4 8 0 3 8 1
gene 2 2 7 3.65883 0 8 3.65883 1
gene 2 7 4 -2.23967 0 9 -2.23967 1
gene 1 2 13 0.917926 0 23 0.917926 1
gene 2 13 7 -4.32335 0 24 -4.32335 1
gene 2 3 13 1.87747 0 46 1.87747 1
gene 2 1 13 -0.586841 0 103 -0.586841 1
gene 1 13 4 0.462258 0 111 0.462258 1
genomeend 102

/* Organism #103 Fitness: 4.61462 Error: 1.85183 */
genomestart 103
trait 1 0.1 0 0 0 0 0 0.59831 0 
trait 2 0.2 0 0 0 0 0 0 0 
trait 3 0.3 0 0 0 0 0 0 0 
node 1 3 1 3
node 2 1 1 1
node 3 1 1 1
node 4 3 0 2
node 7 1 0 0
node 13 1 0 0
gene 3 1 4 -1.44519 0 1 -1.44519 1
gene 2 2 4 -8 0 2 -8 1
gene 2 3 4 1.51873 0 3 1.51873 1
gene 2 2 7 4.2458 0 8 4.2458 1
gene 2 7 4 -0.859686 0 9 -0.859686 1
gene 1 2 13 0.166022 0 23 0.166022 1
gene 2 13 7 -2.18061 0 24 -2.18061 1
gene 2 3 13 -1.21051 0 46 -1.21051 1
gene 2 1 13 -0.153812 0 103 -0.153812 1
gene 1 13 4 0.406546 0 111 0.406546 1
genomeend 103

/* Organism #104 Fitness: 4.29943 Error: 1.92649 */
genomestart 104
trait 1 0.1 0 0 0 0 0 0 0 
trait 2 0.2 0 0 0 0 0 0 0 
trait 3 0.3 0 0 0 0 0 0 0 
node 1 3 1 3
node 2 1 1 1
node 3 1 1 1
node 4 3 0 2
node 7 1 0 0
node 13 1 0 0
gene 3 1 4 -1.25094 0 1 -1.25094 1
gene 2 2 4 -4.90624 0 2 -4.90624 1
gene 2 3 4 8 0 3 8 1
gene 2 2 7 4.5861 0 8 4.5861 1
gene 2 7 4 -2.23967 0 9 -2.23967 1
gene 1 2 13 -1.04631 0 23 -1.04631 1
gene 2 13 7 -5.14181 0 24 -5.14181 1
gene 2 3 13 1.6923 0 46 1.6923 1
gene 2 1 13 0.0561649 0 103 0.0561649 1
gene 1 13 4 -1.08592 0 111 -1.08592 1
genomeend 104

/* Organism #105 Fitness: 8.60231 Error: 1.06703 */
genomestart 105
trait 1 0.1 0 0 0 0 0 0 0 
trait 2 0.2 0 0 0 0 0 0 0 
trait 3 0.3 0 0 0 0 0 0 0 
node 1 3 1 3
node 2 1 1 1
node 3 1 1 1
node 4 3 0 2
node 7 1 0 0
node 13 1 0 0
gene 3 1 4 0.114053 0 1 0.114053 1
gene 2 2 4 -8 0 2 -8 1
gene 2 3 4 8 0 3 8 1
gene 2 2 7 2.33782 0 8 2.33782 1
gene 2 7 4 -1.31547 0 9 -1.31547 1
gene 1 2 13 -1.25524 0 23 -1.25524 1
gene 2 13 7 -5.10552 0 24 -5.10552 1
gene 2 3 13 0.577768 0 46 0.577768 1
gene 2 1 13 -2.50845 0 103 -2.50845 1
gene 1 13 4 0.58379 0 111 0.58379 1
genomeend 105

/* Organism #106 Fitness: 8.99993 Error: 1.00001 */
genomestart 106
trait 1 0.1 0 0 0 0 0 0 0 
trait 2 0.2 0 0 0 0 0 0 0 
trait 3 0.3 0 0 0 0 0 0 0 
node 1 2 1 3
node 2 1 1 1
node 3 1 1 1
node 4 3 0 2
node 7 1 0 0
node 13 1 0 0
gene 3 1 4 -5.40784 0 1 -5.40784 1
gene 2 2 4 -8 0 2 -8 1
gene 2 3 4 6.53936 0 3 6.53936 1
gene 2 2 7 3.49984 0 8 3.49984 1
gene 2 7 4 -1.19947 0 9 -1.19947 1
gene 1 2 13 -3.75765 0 23 -3.75765 1
gene 2 13 7 -5.27562 0 24 -5.27562 1
gene 2 3 13 1.32379 0 46 1.32379 1
gene 2 1 13 1.77853 0 103 1.77853 1
gene 1 13 4 1.18084 0 111 1.18084 1
gene 2 3 7 -0.497197 0 144 -0.497197 1
genomeend 106

/* Species #16 : (Size 8) (AF 6.71907) (Age 3)  */


/* Organism #107 Fitness: 8.99949 Error: 1.00009 */
genomestart 107
trait 1 0.1 0 0 0 0 0 0 0 
trait 2 0.269355 0 0 0 0 0 0 0 
trait 3 0.3 0 0 0 0 0 0 0 
node 1 3 1 3
node 2 1 1 1
node 3 1 1 1
node 4 2 0 2
node 7 1 0 0
node 23 2 0 0
node 43 1 0 0
gene 1 1 4 -8 0 1 -8 1
gene 1 2 4 1.39232 0 2 1.39232 1
gene 3 3 4 1.35133 0 3 1.35133 0
gene 2 2 7 4.96421 0 8 4.96421 1
gene 2 7 4 8 0 9 8 1
gene 2 3 7 3.19848 0 14 3.19848 1
gene 3 3 23 1.96053 0 56 1.96053 0
gene 3 23 4 2.04341 0 57 2.04341 1
gene 1 2 23 0.625187 0 113 0.625187 1
gene 3 3 43 1.37845 0 136 1.37845 1
gene 3 43 23 1.24808 0 137 1.24808 1
genomeend 107

/* Organism #108 Fitness: 8.9983 Error: 1.00028 */
genomestart 108
trait 1 0.1 0 0 0 0 0 0 0 
trait 2 0.211523 0 0 0 0 0 0 0 
trait 3 0.3 0 0 0 0 0 0 0 
node 1 3 1 3
node 2 1 1 1
node 3 1 1 1
node 4 2 0 2
node 7 1 0 0
node 23 2 0 0
node 43 1 0 0
gene 1 1 4 -6.55152 0 1 -6.55152 1
gene 1 2 4 1.54351 0 2 1.54351 1
gene 3 3 4 1.45241 0 3 1.45241 0
gene 2 2 7 4.93508 0 8 4.93508 1
gene 2 7 4 7.10894 0 9 7.10894 1
gene 2 3 7 4.05872 0 14 4.05872 1
gene 3 3 23 1.24808 0 56 1.24808 0
gene 3 23 4 1.21182 0 57 1.21182 1
gene 1 2 23 0.397924 0 113 0.397924 1
gene 3 3 43 1 0 136 0 1
gene 3 43 23 1.24808 0 137 0 1
genomeend 108

/* Organism #109 Fitness: 4.00002 Error: 1.99999 */
genomestart 109
trait 1 0.1 0 0 0 0 0 0 0 
trait 2 0.211523 0 0 0 0 0 0 0 
trait 3 0.3 0 0 0 0 0 0 0 
node 1 3 1 3
node 2 1 1 1
node 3 1 1 1
node 4 2 0 2
node 7 1 0 0
node 23 2 0 0
node 43 1 0 0
gene 1 1 4 -4.28843 0 1 -4.28843 1
gene 1 2 4 1.30561 0 2 1.30561 1
gene 3 3 4 -0.246258 0 3 -0.246258 0
gene 2 2 7 6.9615 0 8 6.9615 1
gene 2 7 4 7.74652 0 9 7.74652 1
gene 2 3 7 6.12717 0 14 6.12717 1
gene 3 3 23 1.12035 0 56 1.12035 0
gene 3 23 4 3.02542 0 57 3.02542 1
gene 1 2 23 0.397924 0 113 0.397924 1
gene 3 3 43 0.857014 0 136 0.857014 1
gene 3 43 23 1.24808 0 137 1.24808 1
genomeend 109

/* Organism #110 Fitness: 4.79214 Error: 1.8109 */
genomestart 110
trait 1 0.1 0 0 0 0 0 0 0 
trait 2 0.211523 0 0 0 0 0 0 0 
trait 3 0.3 0 0 0 0 0 0 0 
node 1 3 1 3
node 2 1 1 1
node 3 1 1 1
node 4 2 0 2
node 7 1 0 0
node 23 2 0 0
node 43 1 0 0
gene 1 1 4 -5.26658 0 1 -5.26658 1
gene 1 2 4 1.50954 0 2 1.50954 1
gene 3 3 4 3.39331 0 3 3.39331 0
gene 2 2 7 3.74217 0 8 3.74217 1
gene 2 7 4 5.46509 0 9 5.46509 1
gene 2 3 7 4.05872 0 14 4.05872 1
gene 3 3 23 -2.15772 0 56 -2.15772 0
gene 3 23 4 -0.971814 0 57 -0.971814 1
gene 1 2 23 -1.22126 0 113 -1.22126 1
gene 3 3 43 -1.05609 0 136 -1.05609 1
gene 3 43 23 1.24808 0 137 1.24808 1
genomeend 110

/* Organism #111 Fitness: 4.01128 Error: 1.99718 */
genomestart 111
trait 1 0.1 0 0 0 0 0 0 0 
trait 2 0.211523 0 0 0 0 0 0 0 
trait 3 0.3 0 0 0 0 0 0 0 
node 1 3 1 3
node 2 1 1 1
node 3 1 1 1
node 4 2 0 2
node 7 1 0 0
node 23 2 0 0
node 43 1 0 0
gene 1 1 4 -8 0 1 -8 1
gene 1 2 4 1.35535 0 2 1.35535 1
gene 3 3 4 2.97869 0 3 2.97869 0
gene 2 2 7 5.25605 0 8 5.25605 1
gene 2 7 4 6.09653 0 9 6.09653 1
gene 2 3 7 5.99544 0 14 5.99544 1
gene 3 3 23 3.03079 0 56 3.03079 0
gene 3 23 4 -0.623351 0 57 -0.623351 1
gene 1 2 23 -2.05693 0 113 -2.05693 1
gene 3 3 43 0.85698 0 136 0.85698 1
gene 3 43 23 1.24808 0 137 1.24808 1
genomeend 111

/* Organism #112 Fitness: 8.98421 Error: 1.00263 */
genomestart 112
trait 1 0.1 0 0 0 0 0 0 0 
trait 2 0.240439 0 0 0 0 0 0 0 
trait 3 0.3 0 0 0 0 0 0 0 
node 1 3 1 3
node 2 1 1 1
node 3 1 1 1
node 4 2 0 2
node 7 1 0 0
node 23 2 0 0
node 43 1 0 0
gene 1 1 4 -6.86125 0 1 -6.86125 1
gene 1 2 4 0.107416 0 2 0.107416 1
gene 3 3 4 -0.469673 0 3 -0.469673 0
gene 2 2 7 5.2969 0 8 5.2969 1
gene 2 7 4 8 0 9 8 1
gene 2 3 7 6.30971 0 14 6.30971 1
gene 3 3 23 -0.551919 0 56 -0.551919 0
gene 3 23 4 0.0700737 0 57 0.0700737 1
gene 1 2 23 -1.53707 0 113 -1.53707 1
gene 3 3 43 1 0 136 1 1
gene 3 43 23 0.924863 0 137 0.924863 1
genomeend 112

/* Organism #113 Fitness: 4.96766 Error: 1.77118 */
genomestart 113
trait 1 0.1 0 0 0 0 0 0 0 
trait 2 0.211523 0 0 0 0 0 0 0 
trait 3 0.3 0 0 0 0 0 0 0 
node 1 3 1 3
node 2 1 1 1
node 3 1 1 1
node 4 2 0 2
node 7 1 0 0
node 23 2 0 0
node 43 1 0 0
gene 1 1 4 -8 0 1 -8 1
gene 1 2 4 1.0117 0 2 1.0117 1
gene 3 3 4 1.45241 0 3 1.45241 0
gene 2 2 7 3.5547 0 8 3.5547 1
gene 2 7 4 7.63893 0 9 7.63893 1
gene 2 3 7 2.38572 0 14 2.38572 1
gene 3 3 23 1.24808 0 56 1.24808 0
gene 3 23 4 0.114397 0 57 0.114397 1
gene 1 2 23 2.44995 0 113 2.44995 1
gene 3 3 43 2.09061 0 136 2.09061 1
gene 3 43 23 2.64677 0 137 2.64677 1
genomeend 113

/* Organism #114 Fitness: 8.99949 Error: 1.00009 */
genomestart 114
trait 1 0.1 0 0 0 0 0 0 0 
trait 2 0.269355 0 0 0 0 0 0 0 
trait 3 0.3 0 0 0 0 0 0 0 
node 1 3 1 3
node 2 1 1 1
node 3 1 1 1
node 4 2 0 2
node 7 1 0 0
node 23 2 0 0
node 43 1 0 0
gene 1 1 4 -8 0 1 -8 1
gene 1 2 4 1.39232 0 2 1.39232 1
gene 3 3 4 1.35133 0 3 1.35133 0
gene 2 2 7 4.96421 0 8 4.96421 1
gene 2 7 4 8 0 9 8 1
gene 2 3 7 3.19848 0 14 3.19848 1
gene 3 3 23 1.96053 0 56 1.96053 0
gene 3 23 4 2.04341 0 57 2.04341 1
gene 1 2 23 0.625187 0 113 0.625187 1
gene 3 3 43 1.37845 0 136 1.37845 1
gene 3 43 23 1.24808 0 137 1.24808 1
gene 2 2 43 0.635964 0 159 0.635964 1
genomeend 114

/* Species #17 : (Size 10) (AF 3.73591) (Age 2)  */


/* Organism #115 Fitness: 7.25411 Error: 1.30665 */
genomestart 115
trait 1 0.1 0 0 0 0 0 0 0 
trait 2 0.213951 0 0 0 0.186077 0 0 0.247472 
trait 3 0.3 0 0 0 0 0 0 0 
node 1 3 1 3
node 2 3 1 1
node 3 2 1 1
node 4 3 0 2
node 6 1 0 0
node 47 1 0 0
gene 2 1 4 1.3254 0 1 1.3254 1
gene 1 2 4 -2.30261 0 2 -2.30261 0
gene 1 3 4 0.0269537 0 3 0.0269537 0
gene 3 3 6 -2.54427 0 6 -2.54427 1
gene 2 6 4 4.51804 0 7 4.51804 1
gene 1 2 6 0.159848 0 127 0.159848 1
gene 1 2 47 1 0 147 0 1
gene 1 47 4 -2.30261 0 148 0 1
genomeend 115

/* Organism #116 Fitness: 5.74881 Error: 1.60233 */
genomestart 116
trait 1 0.1 0 0 0 0 0 0 0 
trait 2 0.213951 0 0 0 1 0 0 0.247472 
trait 3 0.3 0 0 0 0 0 0 0 
node 1 3 1 3
node 2 3 1 1
node 3 2 1 1
node 4 3 0 2
node 6 1 0 0
node 47 1 0 0
gene 2 1 4 1.40935 0 1 1.40935 1
gene 1 2 4 -3.97647 0 2 -3.97647 0
gene 1 3 4 1.62676 0 3 1.62676 0
gene 3 3 6 -1.00146 0 6 -1.00146 1
gene 2 6 4 4.28214 0 7 4.28214 1
gene 1 2 6 0.159848 0 127 0.159848 1
gene 1 2 47 2.06566 0 147 2.06566 1
gene 1 47 4 -1.41403 0 148 -1.41403 1
genomeend 116

/* Organism #117 Fitness: 1.92778 Error: 2.61156 */
genomestart 117
trait 1 0.1 0 0 0 0 0 0 0 
trait 2 0.213951 0 0 0 0.186077 0 0 0.247472 
trait 3 0.3 0 0 0 0 0 0 0 
node 1 3 1 3
node 2 3 1 1
node 3 2 1 1
node 4 3 0 2
node 6 1 0 0
node 47 1 0 0
gene 2 1 4 1.44502 0 1 1.44502 1
gene 1 2 4 -4.37626 0 2 -4.37626 0
gene 1 3 4 -1.03828 0 3 -1.03828 0
gene 3 3 6 -3.28685 0 6 -3.28685 1
gene 2 6 4 3.72606 0 7 3.72606 1
gene 1 2 6 1.09952 0 127 1.09952 1
gene 1 2 47 -0.43593 0 147 -0.43593 1
gene 1 47 4 -3.08143 0 148 -3.08143 1
genomeend 117

/* Organism #118 Fitness: 7.25411 Error: 1.30665 */
genomestart 118
trait 1 0.1 0 0 0 0 0 0 0 
trait 2 0.213951 0 0 0 0.186077 0 0 0.247472 
trait 3 0.3 0 0 0 0 0 0 0 
node 1 3 1 3
node 2 3 1 1
node 3 2 1 1
node 4 3 0 2
node 6 1 0 0
node 47 1 0 0
gene 2 1 4 1.3254 0 1 1.3254 1
gene 1 2 4 -2.30261 0 2 -2.30261 0
gene 1 3 4 0.0269537 0 3 0.0269537 0
gene 3 3 6 -2.54427 0 6 -2.54427 1
gene 2 6 4 4.51804 0 7 4.51804 1
gene 1 2 6 0.159848 0 127 0.159848 1
gene 1 2 47 1 0 147 0 1
gene 1 47 4 -2.30261 0 148 0 1
genomeend 118

/* Organism #119 Fitness: 3.99127 Error: 2.00218 */
genomestart 119
trait 1 0.1 0 0 0 0 0 0 0 
trait 2 0.213951 0 0 0 0.186077 0 0 0.247472 
trait 3 0.3 0 0 0 0 0 0 0 
node 1 3 1 3
node 2 3 1 1
node 3 2 1 1
node 4 3 0 2
node 6 1 0 0
node 47 1 0 0
gene 2 1 4 2.74422 0 1 2.74422 1
gene 1 2 4 -1.94786 0 2 -1.94786 0
gene 1 3 4 -2.46106 0 3 -2.46106 0
gene 3 3 6 -4.97506 0 6 -4.97506 1
gene 2 6 4 3.44193 0 7 3.44193 1
gene 1 2 6 -2.17198 0 127 -2.17198 1
gene 1 2 47 -1.15277 0 147 -1.15277 1
gene 1 47 4 -3.00109 0 148 -3.00109 1
genomeend 119

/* Organism #120 Fitness: 1.05696 Error: 2.97192 */
genomestart 120
trait 1 0.1 0 0 0 0 0 0 0 
trait 2 0.213951 0 0 0 0.186077 0 0 0.247472 
trait 3 0.3 0 0 0 0 0 0 0 
node 1 3 1 3
node 2 3 1 1
node 3 2 1 1
node 4 3 0 2
node 6 1 0 0
node 47 1 0 0
gene 2 1 4 -1.16297 0 1 -1.16297 1
gene 1 2 4 -1.20098 0 2 -1.20098 0
gene 1 3 4 0.85191 0 3 0.85191 0
gene 3 3 6 -0.728418 0 6 -0.728418 1
gene 2 6 4 6.87885 0 7 6.87885 1
gene 1 2 6 -0.972821 0 127 -0.972821 1
gene 1 2 47 2.20718 0 147 2.20718 1
gene 1 47 4 -3.11341 0 148 -3.11341 1
genomeend 120

/* Organism #121 Fitness: 3.97491 Error: 2.00628 */
genomestart 121
trait 1 0.1 0 0 0 0 0 0 0 
trait 2 0.213951 0 0 0 0.186077 0 0 0.247472 
trait 3 0.3 0 0 0 0 0 0 0 
node 1 3 1 3
node 2 3 1 1
node 3 2 1 1
node 4 3 0 2
node 6 1 0 0
node 47 1 0 0
gene 2 1 4 -0.478595 0 1 -0.478595 1
gene 1 2 4 -2.30261 0 2 -2.30261 0
gene 1 3 4 -1.26557 0 3 -1.26557 0
gene 3 3 6 -4.96946 0 6 -4.96946 1
gene 2 6 4 0.494077 0 7 0.494077 1
gene 1 2 6 -1.75815 0 127 -1.75815 1
gene 1 2 47 -2.05169 0 147 -2.05169 1
gene 1 47 4 -1.44638 0 148 -1.44638 1
genomeend 121

/* Organism #122 Fitness: 1.14726 Error: 2.9289 */
genomestart 122
trait 1 0.1 0 0 0 0 0 0 0 
trait 2 0.213951 0 0 0 0.186077 0 0 0.247472 
trait 3 0.3 0 0 0 0 0 0 0 
node 1 3 1 3
node 2 3 1 1
node 3 2 1 1
node 4 3 0 2
node 6 1 0 0
node 47 1 0 0
gene 2 1 4 0.513154 0 1 0.513154 1
gene 1 2 4 -3.81893 0 2 -3.81893 0
gene 1 3 4 -2.31826 0 3 -2.31826 0
gene 3 3 6 -2.4196 0 6 -2.4196 1
gene 2 6 4 2.68172 0 7 2.68172 1
gene 1 2 6 -1.65049 0 127 -1.65049 1
gene 1 2 47 1.44025 0 147 1.44025 1
gene 1 47 4 -2.38306 0 148 -2.38306 1
genomeend 122

/* Organism #123 Fitness: 1.10916 Error: 2.94683 */
genomestart 123
trait 1 0.1 0 0 0 0 0 0 0 
trait 2 0.213951 0 0 0 0.186077 0 0 0.247472 
trait 3 0.3 0 0 0 0 0 0 0 
node 1 3 1 3
node 2 3 1 1
node 3 2 1 1
node 4 3 0 2
node 6 1 0 0
node 47 1 0 0
gene 2 1 4 0.152354 0 1 0.152354 1
gene 1 2 4 -2.81198 0 2 -2.81198 0
gene 1 3 4 0.635043 0 3 0.635043 0
gene 3 3 6 -1.49114 0 6 -1.49114 1
gene 2 6 4 3.58007 0 7 3.58007 1
gene 1 2 6 -1.01841 0 127 -1.01841 1
gene 1 2 47 -0.911114 0 147 -0.911114 1
gene 3 47 4 -2.30261 0 148 -2.30261 1
genomeend 123

/* Organism #124 Fitness: 3.89472 Error: 2.0265 */
genomestart 124
trait 1 0.1 0 0 0 0 0 0 0 
trait 2 0.213951 0 0 0 0.186077 0 0 0.247472 
trait 3 0.3 0 0 0 0 0 0 0 
node 1 3 1 3
node 2 3 1 1
node 3 2 1 1
node 4 3 0 2
node 6 1 0 0
node 47 1 0 0
gene 2 1 4 1.1184 0 1 1.1184 1
gene 1 2 4 0.187363 0 2 0.187363 0
gene 1 3 4 -1.17945 0 3 -1.17945 0
gene 3 3 6 -2.32523 0 6 -2.32523 1
gene 2 6 4 6.13214 0 7 6.13214 1
gene 1 2 6 2.13984 0 127 2.13984 1
gene 1 2 47 0.249953 0 147 0.249953 1
gene 1 47 4 -0.773405 0 148 -0.773405 1
genomeend 124

/* Species #18 : (Size 1) (AF 4) (Age 2)  */


/* Organism #125 Fitness: 4 Error: 2 */
genomestart 125
trait 1 0.1 0 0 0 0 0 0 0 
trait 2 0.2 0 0 0 0 0 0 0 
trait 3 0.3 0 0 0 0 0 0 0 
node 1 3 1 3
node 2 1 1 1
node 3 1 1 1
node 4 3 0 2
node 7 1 0 0
node 13 1 0 0
node 40 1 0 0
gene 3 1 4 -5.16871 0 1 -5.16871 1
gene 2 2 4 -3.81526 0 2 -3.81526 1
gene 2 3 4 1.96161 0 3 1.96161 1
gene 2 2 7 1.84185 0 8 1.84185 0
gene 2 7 4 -4.17721 0 9 -4.17721 1
gene 1 2 13 1.24381 0 23 1.24381 1
gene 2 13 7 -4.32991 0 24 -4.32991 1
gene 2 3 13 -2.45898 0 46 -2.45898 1
gene 1 3 7 0.835935 0 112 0.835935 0
gene 1 3 40 -2.36449 0 128 -2.36449 1
gene 1 40 7 0.430625 0 129 0.430625 1
genomeend 125

/* Species #20 : (Size 13) (AF 6.0143) (Age 2)  */


/* Organism #126 Fitness: 8.9999 Error: 1.00002 */
genomestart 126
trait 1 0.1 0 0 0 0 0 0 0 
trait 2 0.199688 0 0.000200587 0.0851843 0 0 0.0218596 0 
trait 3 0.3 0 0 0 0 0 0 0 
node 1 3 1 3
node 2 1 1 1
node 3 1 1 1
node 4 2 0 2
node 7 1 0 0
node 11 1 0 0
node 21 1 0 0
node 49 1 0 0
gene 3 1 4 3.59574 0 1 3.59574 1
gene 2 2 4 0.875011 0 2 0.875011 1
gene 2 3 4 -0.956412 0 3 -0.956412 1
gene 2 2 7 -4.37494 0 8 -4.37494 1
gene 2 7 4 -7.1158 0 9 -7.1158 1
gene 2 3 7 -2.36845 0 14 -2.36845 0
gene 2 3 11 -2.38664 0 17 -2.38664 1
gene 1 11 4 0.513796 0 18 0.513796 1
gene 2 2 21 0.477866 0 48 0.477866 1
gene 2 21 7 2.93483 0 49 2.93483 1
gene 1 11 21 1.93719 0 77 1.93719 1
gene 3 21 4 -0.643605 0 121 -0.643605 1
gene 2 3 49 1 0 152 0 1
gene 2 49 7 -2.36845 0 153 0 1
genomeend 126

/* Organism #127 Fitness: 8.9999 Error: 1.00002 */
genomestart 127
trait 1 0.1 0 0 0 0 0 0 0 
trait 2 0.199688 0 0.000200587 0.0851843 0 0 0.0218596 0 
trait 3 0.3 0 0 0 0 0 0 0 
node 1 3 1 3
node 2 1 1 1
node 3 1 1 1
node 4 2 0 2
node 7 1 0 0
node 11 1 0 0
node 21 1 0 0
node 49 1 0 0
gene 3 1 4 3.59574 0 1 3.59574 1
gene 2 2 4 0.875011 0 2 0.875011 1
gene 2 3 4 -0.956412 0 3 -0.956412 1
gene 2 2 7 -4.37494 0 8 -4.37494 1
gene 2 7 4 -7.1158 0 9 -7.1158 1
gene 2 3 7 -2.36845 0 14 -2.36845 0
gene 2 3 11 -2.38664 0 17 -2.38664 1
gene 1 11 4 0.513796 0 18 0.513796 1
gene 2 2 21 0.477866 0 48 0.477866 1
gene 2 21 7 2.93483 0 49 2.93483 1
gene 1 11 21 1.93719 0 77 1.93719 1
gene 3 21 4 -0.643605 0 121 -0.643605 1
gene 2 3 49 1 0 152 0 1
gene 2 49 7 -2.36845 0 153 0 1
genomeend 127

/* Organism #128 Fitness: 4.06101 Error: 1.9848 */
genomestart 128
trait 1 0.1 0 0 0 0 0 0 0 
trait 2 0.199688 0 0.000200587 0.0851843 0 0 0.0218596 0 
trait 3 0.3 0 0 0 0 0 0 0 
node 1 3 1 3
node 2 1 1 1
node 3 1 1 1
node 4 2 0 2
node 7 1 0 0
node 11 1 0 0
node 21 1 0 0
node 49 1 0 0
gene 3 1 4 5.89684 0 1 5.89684 1
gene 2 2 4 -0.249639 0 2 -0.249639 1
gene 2 3 4 -1.60671 0 3 -1.60671 1
gene 2 2 7 -3.81944 0 8 -3.81944 1
gene 2 7 4 -5.00363 0 9 -5.00363 1
gene 2 3 7 -3.85458 0 14 -3.85458 0
gene 2 3 11 -4.32708 0 17 -4.32708 1
gene 1 11 4 1.11313 0 18 1.11313 1
gene 2 2 21 -0.609872 0 48 -0.609872 1
gene 2 21 7 5.33981 0 49 5.33981 1
gene 1 11 21 0.49698 0 77 0.49698 1
gene 3 21 4 -0.779949 0 121 -0.779949 1
gene 2 3 49 2.24852 0 152 2.24852 1
gene 2 49 7 -3.03717 0 153 -3.03717 1
genomeend 128

/* Organism #129 Fitness: 5.51741 Error: 1.65108 */
genomestart 129
trait 1 0.1 0 0 0 0 0 0 0 
trait 2 0.199688 0 0.000200587 0.0851843 0 0 0.0218596 0 
trait 3 0.3 0 0 0 0 0 0 0 
node 1 3 1 3
node 2 1 1 1
node 3 1 1 1
node 4 2 0 2
node 7 1 0 0
node 11 1 0 0
node 21 1 0 0
node 49 1 0 0
gene 3 1 4 1.19445 0 1 1.19445 1
gene 2 2 4 1.51942 0 2 1.51942 1
gene 2 3 4 -2.34228 0 3 -2.34228 1
gene 2 2 7 -2.44636 0 8 -2.44636 1
gene 2 7 4 -8 0 9 -8 1
gene 2 3 7 -1.5038 0 14 -1.5038 0
gene 2 3 11 -2.25569 0 17 -2.25569 1
gene 1 11 4 1.07322 0 18 1.07322 1
gene 2 2 21 1.92994 0 48 1.92994 1
gene 2 21 7 1.97032 0 49 1.97032 1
gene 1 11 21 1.59972 0 77 1.59972 1
gene 3 21 4 -0.24329 0 121 -0.24329 1
gene 2 3 49 3.04811 0 152 3.04811 1
gene 2 49 7 -2.36845 0 153 -2.36845 1
genomeend 129

/* Organism #130 Fitness: 4.00019 Error: 1.99995 */
genomestart 130
trait 1 0.1 0 0 0 0 0 0 0 
trait 2 0.199688 0 0.000200587 0.0851843 0 0 0.0218596 0 
trait 3 0.3 0 0 0 0 0 0 0 
node 1 3 1 3
node 2 1 1 1
node 3 1 1 1
node 4 2 0 2
node 7 1 0 0
node 11 1 0 0
node 21 1 0 0
node 49 1 0 0
gene 3 1 4 3.53183 0 1 3.53183 1
gene 2 2 4 -0.153406 0 2 -0.153406 1
gene 2 3 4 -0.0776138 0 3 -0.0776138 1
gene 2 2 7 -5.31404 0 8 -5.31404 1
gene 2 7 4 -8 0 9 -8 1
gene 2 3 7 -2.36845 0 14 -2.36845 0
gene 2 3 11 -2.70019 0 17 -2.70019 1
gene 1 11 4 -0.0825406 0 18 -0.0825406 1
gene 2 2 21 2.56811 0 48 2.56811 1
gene 2 21 7 2.99439 0 49 2.99439 1
gene 1 11 21 -0.0437572 0 77 -0.0437572 1
gene 3 21 4 -1.64242 0 121 -1.64242 1
gene 2 3 49 0.707373 0 152 0.707373 1
gene 2 49 7 -4.70563 0 153 -4.70563 1
genomeend 130

/* Organism #131 Fitness: 3.99936 Error: 2.00016 */
genomestart 131
trait 1 0.1 0 0 0 0 0 0 0 
trait 2 0.199688 0 0.000200587 0.0851843 0 0 0.0218596 0 
trait 3 0.3 0 0 0 0 0 0 0 
node 1 3 1 3
node 2 1 1 1
node 3 1 1 1
node 4 2 0 2
node 7 1 0 0
node 11 1 0 0
node 21 1 0 0
node 49 1 0 0
gene 3 1 4 3.14872 0 1 3.14872 1
gene 2 2 4 -0.346356 0 2 -0.346356 1
gene 2 3 4 0.895146 0 3 0.895146 1
gene 2 2 7 -5.57584 0 8 -5.57584 1
gene 2 7 4 -4.87013 0 9 -4.87013 1
gene 2 3 7 -4.3032 0 14 -4.3032 0
gene 2 3 11 -0.733775 0 17 -0.733775 1
gene 1 11 4 -1.83884 0 18 -1.83884 1
gene 2 2 21 -0.827172 0 48 -0.827172 1
gene 2 21 7 3.41775 0 49 3.41775 1
gene 1 11 21 0.437567 0 77 0.437567 1
gene 3 21 4 -2.98193 0 121 -2.98193 1
gene 2 3 49 3.084 0 152 3.084 1
gene 2 49 7 -1.19697 0 153 -1.19697 1
genomeend 131

/* Organism #132 Fitness: 8.57186 Error: 1.07223 */
genomestart 132
trait 1 0.1 0 0 0 0 0 0 0 
trait 2 0.199688 0 0.000200587 0.0851843 0 0 0.0218596 0 
trait 3 0.3 0 0 0 0 0 0 0 
node 1 3 1 3
node 2 1 1 1
node 3 1 1 1
node 4 2 0 2
node 7 1 0 0
node 11 1 0 0
node 21 1 0 0
node 49 1 0 0
gene 3 1 4 1.28542 0 1 1.28542 1
gene 2 2 4 -0.976138 0 2 -0.976138 1
gene 2 3 4 -0.816887 0 3 -0.816887 1
gene 2 2 7 -5.61183 0 8 -5.61183 1
gene 2 7 4 -8 0 9 -8 1
gene 2 3 7 -0.421702 0 14 -0.421702 0
gene 2 3 11 -1.214 0 17 -1.214 1
gene 1 11 4 2.93224 0 18 2.93224 1
gene 2 2 21 -0.626112 0 48 -0.626112 1
gene 2 21 7 4.36566 0 49 4.36566 1
gene 1 11 21 4.39069 0 77 4.39069 1
gene 3 21 4 -0.584883 0 121 -0.584883 1
gene 2 3 49 1 0 152 1 1
gene 2 49 7 -2.36845 0 153 -2.36845 1
genomeend 132

/* Organism #133 Fitness: 4 Error: 2 */
genomestart 133
trait 1 0.1 0 0 0 0 0 0 0 
trait 2 0.199688 0 0.000200587 0.0851843 0 0 0.0218596 0 
trait 3 0.3 0 0 0 0 0 0 0 
node 1 3 1 3
node 2 1 1 1
node 3 1 1 1
node 4 2 0 2
node 7 1 0 0
node 11 1 0 0
node 21 1 0 0
node 49 1 0 0
gene 3 1 4 5.22207 0 1 5.22207 1
gene 2 2 4 0.317851 0 2 0.317851 1
gene 2 3 4 1.1711 0 3 1.1711 1
gene 2 2 7 -6.41886 0 8 -6.41886 1
gene 2 7 4 -8 0 9 -8 1
gene 2 3 7 -2.39778 0 14 -2.39778 0
gene 2 3 11 -2.54074 0 17 -2.54074 1
gene 1 11 4 2.38718 0 18 2.38718 1
gene 2 2 21 -2.00032 0 48 -2.00032 1
gene 2 21 7 2.37031 0 49 2.37031 1
gene 1 11 21 -2.25484 0 77 -2.25484 1
gene 3 21 4 1.25668 0 121 1.25668 1
gene 2 3 49 1.28183 0 152 1.28183 1
gene 2 49 7 -2.36845 0 153 -2.36845 1
genomeend 133

/* Organism #134 Fitness: 3.99477 Error: 2.00131 */
genomestart 134
trait 1 0.1 0 0 0 0 0 0 0 
trait 2 0.199688 0 0.000200587 0.0851843 0 0 0.0218596 0 
trait 3 0.3 0 0 0 0 0 0 0 
node 1 3 1 3
node 2 1 1 1
node 3 1 1 1
node 4 2 0 2
node 7 1 0 0
node 11 1 0 0
node 21 1 0 0
node 49 1 0 0
gene 3 1 4 1.34915 0 1 1.34915 1
gene 2 2 4 0.875011 0 2 0.875011 1
gene 2 3 4 -0.792896 0 3 -0.792896 1
gene 2 2 7 -4.37494 0 8 -4.37494 1
gene 2 7 4 -4.9145 0 9 -4.9145 1
gene 2 3 7 -2.05685 0 14 -2.05685 0
gene 2 3 11 -2.85246 0 17 -2.85246 1
gene 1 11 4 -1.95753 0 18 -1.95753 1
gene 2 2 21 -2.00617 0 48 -2.00617 1
gene 2 21 7 1.23972 0 49 1.23972 1
gene 1 11 21 0.757441 0 77 0.757441 1
gene 3 21 4 -2.94156 0 121 -2.94156 1
gene 2 3 49 -0.902984 0 152 -0.902984 1
gene 2 49 7 -1.1056 0 153 -1.1056 1
genomeend 134

/* Organism #135 Fitness: 8.9999 Error: 1.00002 */
genomestart 135
trait 1 0.1 0 0 0 0 0 0 0 
trait 2 0.199688 0 0.000200587 0.0851843 0 0 0.0218596 0 
trait 3 0.3 0 0 0 0 0 0 0 
node 1 3 1 3
node 2 1 1 1
node 3 1 1 1
node 4 2 0 2
node 7 1 0 0
node 11 1 0 0
node 21 1 0 0
node 49 1 0 0
node 52 1 0 0
gene 3 1 4 3.59574 0 1 3.59574 1
gene 2 2 4 0.875011 0 2 0.875011 1
gene 2 3 4 -0.956412 0 3 -0.956412 1
gene 2 2 7 -4.37494 0 8 -4.37494 1
gene 2 7 4 -7.1158 0 9 -7.1158 1
gene 2 3 7 -2.36845 0 14 -2.36845 0
gene 2 3 11 -2.38664 0 17 -2.38664 1
gene 1 11 4 0.513796 0 18 0.513796 1
gene 2 2 21 0.477866 0 48 0.477866 1
gene 2 21 7 2.93483 0 49 2.93483 1
gene 1 11 21 1.93719 0 77 1.93719 1
gene 3 21 4 -0.643605 0 121 -0.643605 1
gene 2 3 49 1 0 152 0 0
gene 2 49 7 -2.36845 0 153 0 1
gene 2 3 52 1 0 160 0 1
gene 2 52 49 1 0 161 0 1
genomeend 135

/* Organism #136 Fitness: 4.04167 Error: 1.98961 */
genomestart 136
trait 1 0.1 0 0 0 0 0 0 0 
trait 2 0.199688 0 0.000200587 0.0851843 0 0 0.0218596 0 
trait 3 0.3 0 0 0 0 0 0 0 
node 1 3 1 3
node 2 1 1 1
node 3 1 1 1
node 4 2 0 2
node 7 1 0 0
node 11 1 0 0
node 21 1 0 0
node 49 1 0 0
gene 3 1 4 1.76709 0 1 1.76709 1
gene 2 2 4 1.58464 0 2 1.58464 1
gene 2 3 4 -2.14079 0 3 -2.14079 1
gene 2 2 7 -6.17888 0 8 -6.17888 1
gene 2 7 4 -6.81258 0 9 -6.81258 1
gene 2 3 7 -0.863644 0 14 -0.863644 0
gene 2 3 11 -4.78391 0 17 -4.78391 1
gene 1 11 4 2.60252 0 18 2.60252 1
gene 2 2 21 -0.0193046 0 48 -0.0193046 1
gene 2 21 7 5.35643 0 49 5.35643 1
gene 1 11 21 4.04099 0 77 4.04099 1
gene 3 21 4 -0.59974 0 121 -0.59974 1
gene 2 3 49 1.98838 0 152 1.98838 1
gene 2 49 7 -2.36845 0 153 -2.36845 1
genomeend 136

/* Organism #137 Fitness: 8.9999 Error: 1.00002 */
genomestart 137
trait 1 0.1 0 0 0 0 0 0 0 
trait 2 0.199688 0 0.000200587 0.0851843 0 0 0.0218596 0 
trait 3 0.43495 0.120676 0.0902062 0.846011 0 0.0535547 0.727452 0 
node 1 3 1 3
node 2 1 1 1
node 3 1 1 1
node 4 2 0 2
node 7 1 0 0
node 11 1 0 0
node 21 1 0 0
node 49 1 0 0
gene 3 1 4 3.59574 0 1 3.59574 1
gene 2 2 4 0.875011 0 2 0.875011 1
gene 2 3 4 -0.956412 0 3 -0.956412 1
gene 2 2 7 -4.37494 0 8 -4.37494 1
gene 2 7 4 -7.1158 0 9 -7.1158 1
gene 2 3 7 -2.36845 0 14 -2.36845 0
gene 2 3 11 -2.38664 0 17 -2.38664 1
gene 1 11 4 0.513796 0 18 0.513796 1
gene 2 2 21 0.477866 0 48 0.477866 1
gene 2 21 7 2.93483 0 49 2.93483 1
gene 1 11 21 1.93719 0 77 1.93719 1
gene 3 21 4 -0.643605 0 121 -0.643605 1
gene 2 3 49 1 0 152 0 1
gene 2 49 7 -2.36845 0 153 0 1
genomeend 137

/* Organism #138 Fitness: 4.00002 Error: 2 */
genomestart 138
trait 1 0.1 0 0 0 0 0 0 0 
trait 2 0.199688 0 0.000200587 0.0851843 0 0 0.0218596 0 
trait 3 0.3 0 0 0 0 0 0 0 
node 1 3 1 3
node 2 1 1 1
node 3 1 1 1
node 4 2 0 2
node 7 1 0 0
node 11 1 0 0
node 21 1 0 0
node 49 1 0 0
gene 3 1 4 5.24233 0 1 5.24233 1
gene 2 2 4 1.26162 0 2 1.26162 1
gene 2 3 4 0.470543 0 3 0.470543 1
gene 2 2 7 -5.93579 0 8 -5.93579 1
gene 2 7 4 -7.99528 0 9 -7.99528 1
gene 2 3 7 -2.87047 0 14 -2.87047 0
gene 2 3 11 -2.69716 0 17 -2.69716 1
gene 1 11 4 0.209994 0 18 0.209994 1
gene 2 2 21 0.648361 0 48 0.648361 1
gene 2 21 7 -2.28784 0 49 -2.28784 1
gene 1 11 21 1.27827 0 77 1.27827 1
gene 3 21 4 -2.96978 0 121 -2.96978 1
gene 2 3 49 -0.160683 0 152 -0.160683 1
gene 2 49 7 -0.625287 0 153 -0.625287 1
genomeend 138

/* Species #21 : (Size 11) (AF 8.4442) (Age 2)  */


/* Organism #139 Fitness: 8.99998 Error: 1 */
genomestart 139
trait 1 0.1 0 0 0 0 0 0 0 
trait 2 0.2 0 0 0 0 0 0 0 
trait 3 0.3 0 0 0 0 0 0 0 
node 1 3 1 3
node 2 1 1 1
node 3 1 1 1
node 4 2 0 2
node 7 2 0 0
node 13 1 0 0
gene 3 1 4 -5.41105 0 1 -5.41105 1
gene 2 2 4 -6.4034 0 2 -6.4034 1
gene 2 3 4 8 0 3 8 1
gene 2 2 7 -0.973886 0 8 -0.973886 0
gene 2 7 4 1.78543 0 9 1.78543 1
gene 2 2 13 -2.96565 0 23 -2.96565 1
gene 2 13 7 -1.71414 0 24 -1.71414 1
gene 3 3 7 -1.56603 0 41 -1.56603 1
gene 1 1 13 1.40898 0 67 1.40898 1
gene 2 1 7 0.504497 0 154 0.504497 1
genomeend 139

/* Organism #140 Fitness: 8.99999 Error: 1 */
genomestart 140
trait 1 0.1 0 0 0 0 0 0 0 
trait 2 0.2 0 0 0 0 0 0 0 
trait 3 0.3 0 0 0 0 0 0 0 
node 1 3 1 3
node 2 1 1 1
node 3 1 1 1
node 4 2 0 2
node 7 2 0 0
node 13 1 0 0
gene 3 1 4 -5.23046 0 1 -5.23046 1
gene 2 2 4 -5.69795 0 2 -5.69795 1
gene 2 3 4 8 0 3 8 1
gene 2 2 7 -1.5103 0 8 -1.5103 0
gene 2 7 4 0.191038 0 9 0.191038 1
gene 2 2 13 -0.504234 0 23 -0.504234 1
gene 2 13 7 -1.4565 0 24 -1.4565 1
gene 3 3 7 -2.77527 0 41 -2.77527 1
gene 1 1 13 3.79888 0 67 3.79888 1
gene 2 1 7 0.504497 0 154 0.504497 1
genomeend 140

/* Organism #141 Fitness: 4.14815 Error: 1.9633 */
genomestart 141
trait 1 0.1 0 0 0 0 0 0 0 
trait 2 0.2 0 0 0 0 0 0 0 
trait 3 0.3 0 0 0 0 0 0 0 
node 1 3 1 3
node 2 1 1 1
node 3 1 1 1
node 4 2 0 2
node 7 2 0 0
node 13 1 0 0
gene 3 1 4 -5.81908 0 1 -5.81908 1
gene 2 2 4 -1.52375 0 2 -1.52375 1
gene 2 3 4 8 0 3 8 1
gene 2 2 7 -0.80759 0 8 -0.80759 0
gene 2 7 4 0.274429 0 9 0.274429 1
gene 2 2 13 -3.38532 0 23 -3.38532 1
gene 2 13 7 -1.23144 0 24 -1.23144 1
gene 3 3 7 -1.29582 0 41 -1.29582 1
gene 1 1 13 1.40898 0 67 1.40898 1
gene 2 1 7 0.533049 0 154 0.533049 1
genomeend 141

/* Organism #142 Fitness: 9 Error: 1 */
genomestart 142
trait 1 0.1 0 0 0 0 0 0 0 
trait 2 0.2 0 0 0 0 0 0 0 
trait 3 0.3 0 0 0 0 0 0 0 
node 1 3 1 3
node 2 1 1 1
node 3 1 1 1
node 4 2 0 2
node 7 2 0 0
node 13 1 0 0
gene 3 1 4 -4.95371 0 1 -4.95371 1
gene 2 2 4 -8 0 2 -8 1
gene 2 3 4 8 0 3 8 1
gene 2 2 7 -0.392353 0 8 -0.392353 0
gene 2 7 4 1.78543 0 9 1.78543 1
gene 2 2 13 -2.96565 0 23 -2.96565 1
gene 2 13 7 -1.31205 0 24 -1.31205 1
gene 3 3 7 0.0630067 0 41 0.0630067 1
gene 1 1 13 0.161315 0 67 0.161315 1
gene 2 1 7 2.21822 0 154 2.21822 1
genomeend 142

/* Organism #143 Fitness: 8.99993 Error: 1.00001 */
genomestart 143
trait 1 0.1 0 0 0 0 0 0 0 
trait 2 0.2 0 0 0 0 0 0 0 
trait 3 0.3 0 0 0 0 0 0 0 
node 1 3 1 3
node 2 1 1 1
node 3 1 1 1
node 4 2 0 2
node 7 2 0 0
node 13 1 0 0
gene 3 1 4 -7.00549 0 1 -7.00549 1
gene 2 2 4 -6.64704 0 2 -6.64704 1
gene 2 3 4 7.35427 0 3 7.35427 1
gene 2 2 7 -0.265151 0 8 -0.265151 0
gene 2 7 4 1.9564 0 9 1.9564 1
gene 2 2 13 -4.13577 0 23 -4.13577 1
gene 2 13 7 -3.37163 0 24 -3.37163 1
gene 3 3 7 2.42949 0 41 2.42949 1
gene 1 1 13 -1.40581 0 67 -1.40581 1
gene 2 1 7 2.07365 0 154 2.07365 1
genomeend 143

/* Organism #144 Fitness: 8.99798 Error: 1.00034 */
genomestart 144
trait 1 0.1 0 0 0 0 0 0 0 
trait 2 0.2 0 0 0.913567 0.694193 0 0.165789 0 
trait 3 0.3 0 0 0 0 0 0 0 
node 1 3 1 3
node 2 1 1 1
node 3 1 1 1
node 4 2 0 2
node 7 2 0 0
node 13 1 0 0
gene 3 1 4 -6.59744 0 1 -6.59744 1
gene 2 2 4 -4.17679 0 2 -4.17679 1
gene 2 3 4 8 0 3 8 1
gene 2 2 7 -1.89891 0 8 -1.89891 0
gene 2 7 4 2.85864 0 9 2.85864 1
gene 2 2 13 -4.55401 0 23 -4.55401 1
gene 2 13 7 -0.171885 0 24 -0.171885 1
gene 3 3 7 -1.10202 0 41 -1.10202 1
gene 1 1 13 1.40898 0 67 1.40898 1
gene 2 1 7 0.777726 0 154 0.777726 1
genomeend 144

/* Organism #145 Fitness: 8.99998 Error: 1 */
genomestart 145
trait 1 0.1 0 0 0 0 0 0 0 
trait 2 0.2 0 0 0 0 0 0 0 
trait 3 0.3 0 0 0 0 0 0 0 
node 1 3 1 3
node 2 1 1 1
node 3 1 1 1
node 4 2 0 2
node 7 2 0 0
node 13 1 0 0
gene 3 1 4 -5.41105 0 1 -5.41105 1
gene 2 2 4 -6.4034 0 2 -6.4034 1
gene 2 3 4 8 0 3 8 1
gene 2 2 7 -0.973886 0 8 -0.973886 0
gene 2 7 4 1.78543 0 9 1.78543 1
gene 2 2 13 -2.96565 0 23 -2.96565 1
gene 2 13 7 -1.71414 0 24 -1.71414 1
gene 3 3 7 -1.56603 0 41 -1.56603 1
gene 1 1 13 1.40898 0 67 1.40898 1
gene 2 1 7 0.504497 0 154 0.504497 1
gene 2 3 13 0.185684 0 162 0.185684 1
genomeend 145

/* Organism #146 Fitness: 7.74032 Error: 1.21786 */
genomestart 146
trait 1 0.1 0 0 0 0 0 0 0 
trait 2 0.2 0 0 0 0 0 0 0 
trait 3 0.3 0 0 0 0 0 0 0 
node 1 3 1 3
node 2 1 1 1
node 3 1 1 1
node 4 2 0 2
node 7 2 0 0
node 13 1 0 0
gene 3 1 4 -6.52576 0 1 -6.52576 1
gene 2 2 4 -8 0 2 -8 1
gene 2 3 4 6.78533 0 3 6.78533 1
gene 2 2 7 -3.07415 0 8 -3.07415 0
gene 2 7 4 4.1108 0 9 4.1108 1
gene 2 2 13 -3.70635 0 23 -3.70635 1
gene 2 13 7 0.351363 0 24 0.351363 1
gene 3 3 7 -2.63243 0 41 -2.63243 1
gene 1 1 13 -1.00056 0 67 -1.00056 1
gene 2 1 7 -1.36861 0 154 -1.36861 1
genomeend 146

/* Organism #147 Fitness: 8.99999 Error: 1 */
genomestart 147
trait 1 0.1 0 0 0 0 0 0 0 
trait 2 0.2 0 0 0 0 0 0 0 
trait 3 0.3 0 0 0 0 0 0 0 
node 1 3 1 3
node 2 1 1 1
node 3 1 1 1
node 4 2 0 2
node 7 2 0 0
node 13 1 0 0
gene 3 1 4 -4.82929 0 1 -4.82929 1
gene 2 2 4 -6.76752 0 2 -6.76752 1
gene 2 3 4 7.46441 0 3 7.46441 1
gene 2 2 7 -2.90829 0 8 -2.90829 0
gene 2 7 4 1.54114 0 9 1.54114 1
gene 2 2 13 -2.82367 0 23 -2.82367 1
gene 2 13 7 -3.35068 0 24 -3.35068 1
gene 3 3 7 -1.69134 0 41 -1.69134 1
gene 1 1 13 0.200674 0 67 0.200674 1
gene 2 1 7 -1.06793 0 154 -1.06793 1
genomeend 147

/* Organism #148 Fitness: 8.99998 Error: 1 */
genomestart 148
trait 1 0.1 0 0 0 0 0 0 0 
trait 2 0.2 0 0 0 0 0 0 0 
trait 3 0.3 0 0 0 0 0 0 0 
node 1 3 1 3
node 2 1 1 1
node 3 1 1 1
node 4 2 0 2
node 7 2 0 0
node 13 1 0 0
gene 3 1 4 -5.41105 0 1 -5.41105 1
gene 2 2 4 -6.4034 0 2 -6.4034 1
gene 2 3 4 8 0 3 8 1
gene 2 2 7 -0.973886 0 8 -0.973886 0
gene 2 7 4 1.78543 0 9 1.78543 1
gene 2 2 13 -2.96565 0 23 -2.96565 1
gene 2 13 7 -1.71414 0 24 -1.71414 1
gene 3 3 7 -1.56603 0 41 -1.56603 1
gene 1 1 13 1.40898 0 67 1.40898 1
gene 2 1 7 0.504497 0 154 0.504497 1
genomeend 148

/* Organism #149 Fitness: 8.99991 Error: 1.00002 */
genomestart 149
trait 1 0.1 0 0 0 0 0 0 0 
trait 2 0.2 0 0 0 0 0 0 0 
trait 3 0.3 0 0 0 0 0 0 0 
node 1 3 1 3
node 2 1 1 1
node 3 1 1 1
node 4 2 0 2
node 7 2 0 0
node 13 1 0 0
gene 3 1 4 -5.7552 0 1 -5.7552 1
gene 2 2 4 -6.4034 0 2 -6.4034 1
gene 2 3 4 8 0 3 8 1
gene 2 2 7 -3.32623 0 8 -3.32623 0
gene 2 7 4 3.88508 0 9 3.88508 1
gene 2 2 13 -4.24701 0 23 -4.24701 1
gene 2 13 7 1.13531 0 24 1.13531 1
gene 3 3 7 -1.37268 0 41 -1.37268 1
gene 1 1 13 -0.962581 0 67 -0.962581 1
gene 2 1 7 -0.681818 0 154 -0.681818 1
genomeend 149
