
/* Species #1 : (Size 13) (AF 7.95093) (Age 24)  */


/* Organism #0 Fitness: 9 Error: 1 */
genomestart 0
trait 1 0.1 0.000380833 0 0 0 0 0 0 
trait 2 0.2 0 0 0 0.0121646 0 0.0311801 0 
trait 3 0.3 0 0 0.00507825 0.0212438 0 0 0 
node 1 1 1 3
node 2 2 1 1
node 3 3 1 1
node 4 2 0 2
gene 1 1 4 -3.92386 0 1 -3.92386 1
gene 3 2 4 8 0 2 8 1
gene 1 3 4 8 0 3 8 1
genomeend 0

/* Organism #1 Fitness: 4 Error: 2 */
genomestart 1
trait 1 0.1 0.000416536 0 0 0 0 0 0 
trait 2 0.2 0 0 0 0.013305 0 0.0341032 0 
trait 3 0.3 0.0289241 0.0113133 0.0505586 0.0192522 0.0701827 0.00220924 0.0175297 
node 1 1 1 3
node 2 2 1 1
node 3 3 1 1
node 4 3 0 2
gene 1 1 4 -3.5581 0 1 -3.5581 1
gene 3 2 4 0.504394 0 2 0.504394 1
gene 1 3 4 8 0 3 8 1
genomeend 1

/* Organism #2 Fitness: 4.02419 Error: 1.99396 */
genomestart 2
trait 1 0.1 0.000380833 0 0 0 0 0 0 
trait 2 0.2 0 0 0 0.0121646 0 0.0311801 0 
trait 3 0.3 0 0 0.00507825 0.0212438 0 0 0 
node 1 1 1 3
node 2 2 1 1
node 3 3 1 1
node 4 2 0 2
gene 1 1 4 1.03641 0 1 1.03641 1
gene 3 2 4 8 0 2 8 1
gene 1 3 4 5.91802 0 3 5.91802 1
genomeend 2

/* Organism #3 Fitness: 9 Error: 1 */
genomestart 3
trait 1 0.1 0.000416536 0 0 0 0 0 0 
trait 2 0.2 0 0 0 0.013305 0 0.0341032 0 
trait 3 0.3 0.0289241 0.0113133 0.0505586 0.0192522 0.0701827 0.00220924 0.0175297 
node 1 1 1 3
node 2 2 1 1
node 3 3 1 1
node 4 3 0 2
gene 1 1 4 -4.18426 0 1 -4.18426 1
gene 3 2 4 8 0 2 8 1
gene 1 3 4 8 0 3 8 1
genomeend 3

/* Organism #4 Fitness: 9 Error: 1 */
genomestart 4
trait 1 0.1 0.000398684 0 0 0 0 0 0 
trait 2 0.2 0 0 0 0.0127348 0 0.0326417 0 
trait 3 0.3 0.0144621 0.00565663 0.0278184 0.020248 0.0350913 0.00110462 0.00876483 
node 1 1 1 3
node 2 2 1 1
node 3 3 1 1
node 4 2 0 2
gene 1 1 4 -3.92386 0 1 -3.92386 1
gene 3 2 4 8 0 2 8 1
gene 1 3 4 8 0 3 8 1
genomeend 4

/* Organism #5 Fitness: 5.79531 Error: 1.59266 */
genomestart 5
trait 1 0.1 0.000416536 0 0 0 0 0 0 
trait 2 0.2 0 0 0 0.013305 0 0.0341032 0 
trait 3 0.3 0.0289241 0.0113133 0.0505586 0.0192522 0.0701827 0.00220924 0.0175297 
node 1 1 1 3
node 2 2 1 1
node 3 3 1 1
node 4 3 0 2
node 61 1 0 0
gene 1 1 4 -3.92386 0 1 -3.92386 1
gene 3 2 4 8 0 2 8 0
gene 1 3 4 8 0 3 8 1
gene 3 2 61 1 0 184 0 1
gene 3 61 4 8 0 185 0 1
genomeend 5

/* Organism #6 Fitness: 9 Error: 1 */
genomestart 6
trait 1 0.1 0.000416536 0 0 0 0 0 0 
trait 2 0.2 0 0 0 0.013305 0 0.0341032 0 
trait 3 0.3 0.0289241 0.0113133 0.0505586 0.0192522 0.0701827 0.00220924 0.0175297 
node 1 3 1 3
node 2 2 1 1
node 3 3 1 1
node 4 3 0 2
gene 1 1 4 -3.29399 0 1 -3.29399 1
gene 3 2 4 6.20194 0 2 6.20194 1
gene 1 3 4 8 0 3 8 1
genomeend 6

/* Organism #7 Fitness: 8.9997 Error: 1.00005 */
genomestart 7
trait 1 0.1 0.00040761 0 0 0 0 0 0 
trait 2 0.2 0 0 0 0.0130199 0 0.0333725 0 
trait 3 0.3 0.0216931 0.00848494 0.0391885 0.0197501 0.052637 0.00165693 0.0131473 
node 1 1 1 3
node 2 2 1 1
node 3 3 1 1
node 4 2 0 2
gene 1 1 4 -2.00869 0 1 -2.00869 1
gene 3 2 4 8 0 2 8 1
gene 1 3 4 6.25191 0 3 6.25191 1
genomeend 7

/* Organism #8 Fitness: 9 Error: 1 */
genomestart 8
trait 1 0.1 0.00040761 0 0 0 0 0 0 
trait 2 0.2 0 0 0 0.0130199 0 0.0333725 0 
trait 3 0.3 0.0216931 0.00848494 0.0391885 0.0197501 0.052637 0.00165693 0.0131473 
node 1 1 1 3
node 2 2 1 1
node 3 3 1 1
node 4 3 0 2
gene 1 1 4 -3.92438 0 1 -3.92438 1
gene 3 2 4 8 0 2 8 1
gene 1 3 4 7.98082 0 3 7.98082 1
genomeend 8

/* Organism #9 Fitness: 9 Error: 1 */
genomestart 9
trait 1 0.1 0.00040761 0 0 0 0 0 0 
trait 2 0.2 0 0 0 0.0130199 0 0.0333725 0 
trait 3 0.3 0.0216931 0.00848494 0.0391885 0.0197501 0.052637 0.00165693 0.0131473 
node 1 1 1 3
node 2 2 1 1
node 3 3 1 1
node 4 3 0 2
gene 1 1 4 -4.06499 0 1 -4.06499 1
gene 3 2 4 7.23467 0 2 7.23467 1
gene 1 3 4 8 0 3 8 1
genomeend 9

/* Organism #10 Fitness: 8.99968 Error: 1.00005 */
genomestart 10
trait 1 0.1 0.00040761 0 0 0 0 0 0 
trait 2 0.2 0 0 0 0.0130199 0 0.0333725 0 
trait 3 0.3 0.0216931 0.00848494 0.0391885 0.0197501 0.052637 0.00165693 0.0131473 
node 1 1 1 3
node 2 2 1 1
node 3 3 1 1
node 4 2 0 2
gene 1 1 4 -5.86333 0 1 -5.86333 1
gene 3 2 4 8 0 2 8 1
gene 1 3 4 8 0 3 8 1
genomeend 10

/* Organism #11 Fitness: 8.99971 Error: 1.00005 */
genomestart 11
trait 1 0.1 0 0 0.766031 0 0 0.109038 0 
trait 2 0.2 0 0 0 0.0124497 0 0.0319109 0 
trait 3 0.3 0.00723103 0.00282831 0.0164483 0.0207459 0.0175457 0.000552309 0.00438242 
node 1 1 1 3
node 2 2 1 1
node 3 3 1 1
node 4 2 0 2
gene 1 1 4 -2.0162 0 1 -2.0162 1
gene 3 2 4 8 0 2 8 1
gene 1 3 4 7.52704 0 3 7.52704 1
genomeend 11

/* Organism #12 Fitness: 8.54348 Error: 1.07708 */
genomestart 12
trait 1 0.1 0.000398684 0 0 0 0 0 0 
trait 2 0.2 0 0 0 0.0127348 0 0.0326417 0 
trait 3 0.0117358 0.0144621 0 0 1 0.0350913 0.979791 0.00876483 
node 1 1 1 3
node 2 2 1 1
node 3 3 1 1
node 4 2 0 2
gene 1 1 4 -5.86259 0 1 -5.86259 1
gene 3 2 4 -1.51598 0 2 -1.51598 1
gene 1 3 4 6.38957 0 3 6.38957 1
genomeend 12

/* Species #2 : (Size 9) (AF 7.63427) (Age 20)  */


/* Organism #13 Fitness: 8.99999 Error: 1 */
genomestart 13
trait 1 0.1 0 0 0 0 0 0 0 
trait 2 0.2 0 0.244403 0 0 0.176794 0 0 
trait 3 0.332141 0 0 0.145657 0.391767 0 0 0.361412 
node 1 1 1 3
node 2 2 1 1
node 3 2 1 1
node 4 2 0 2
node 9 1 0 0
gene 1 1 4 -2.69629 0 1 -2.69629 1
gene 1 2 4 2.70322 0 2 2.70322 1
gene 1 3 4 0.831205 0 3 0.831205 1
gene 1 3 9 5.3994 0 12 5.3994 1
gene 1 9 4 6.53415 0 13 6.53415 1
gene 2 1 9 -1.48352 0 32 -1.48352 1
gene 1 2 9 2.01815 0 71 2.01815 1
genomeend 13

/* Organism #14 Fitness: 8.8435 Error: 1.0262 */
genomestart 14
trait 1 0.1 0 0 0 0 0 0 0 
trait 2 0.2 0 0.244403 0 0 0.176794 0 0 
trait 3 0.332141 0 0 0.145657 0.391767 0 0 0.361412 
node 1 1 1 3
node 2 2 1 1
node 3 2 1 1
node 4 2 0 2
node 9 1 0 0
gene 1 1 4 -0.739367 0 1 -0.739367 1
gene 1 2 4 4.049 0 2 4.049 1
gene 1 3 4 0.381107 0 3 0.381107 1
gene 1 3 9 5.37202 0 12 5.37202 1
gene 1 9 4 7.64482 0 13 7.64482 1
gene 2 1 9 -1.48352 0 32 -1.48352 1
gene 1 2 9 0.890149 0 71 0.890149 1
genomeend 14

/* Organism #15 Fitness: 7.60201 Error: 1.24283 */
genomestart 15
trait 1 0.1 0 0 0 0 0 0 0 
trait 2 0.2 0 0.244403 0 0 0.176794 0 0 
trait 3 0.332141 0 0 0.145657 0.391767 0 0 0.361412 
node 1 1 1 3
node 2 2 1 1
node 3 2 1 1
node 4 2 0 2
node 9 1 0 0
gene 1 1 4 -0.235176 0 1 -0.235176 1
gene 1 2 4 1.36842 0 2 1.36842 1
gene 1 3 4 -0.235875 0 3 -0.235875 1
gene 1 3 9 5.64702 0 12 5.64702 1
gene 1 9 4 7.43343 0 13 7.43343 1
gene 2 1 9 -2.24415 0 32 -2.24415 1
gene 1 2 9 0.657597 0 71 0.657597 1
genomeend 15

/* Organism #16 Fitness: 8.99999 Error: 1 */
genomestart 16
trait 1 0.1 0 0 0 0 0 0 0 
trait 2 0.2 0 0.244403 0 0 0.176794 0 0 
trait 3 0.332141 0 0 0.145657 0.391767 0 0 0.361412 
node 1 1 1 3
node 2 2 1 1
node 3 2 1 1
node 4 2 0 2
node 9 1 0 0
gene 1 1 4 -2.63161 0 1 -2.63161 1
gene 1 2 4 2.21253 0 2 2.21253 1
gene 1 3 4 0.422193 0 3 0.422193 1
gene 1 3 9 5.48144 0 12 5.48144 1
gene 1 9 4 6.276 0 13 6.276 1
gene 2 1 9 -1.48538 0 32 -1.48538 1
gene 1 2 9 2.01815 0 71 2.01815 1
genomeend 16

/* Organism #17 Fitness: 4.00166 Error: 1.99959 */
genomestart 17
trait 1 0.1 0 0 0 0 0 0 0 
trait 2 0.2 0 0.244403 0 0 0.176794 0 0 
trait 3 0.332141 0 0 0.145657 0.391767 0 0 0.361412 
node 1 1 1 3
node 2 2 1 1
node 3 2 1 1
node 4 2 0 2
node 9 1 0 0
gene 1 1 4 -3.58579 0 1 -3.58579 1
gene 1 2 4 2.00413 0 2 2.00413 1
gene 1 3 4 1.92181 0 3 1.92181 1
gene 1 3 9 4.30751 0 12 4.30751 1
gene 1 9 4 7.23933 0 13 7.23933 1
gene 2 1 9 -3.9009 0 32 -3.9009 1
gene 1 2 9 0.0359526 0 71 0.0359526 1
genomeend 17

/* Organism #18 Fitness: 8.99999 Error: 1 */
genomestart 18
trait 1 0.1 0 0 0 0 0 0 0 
trait 2 0.2 0 0.244403 0 0 0.176794 0 0 
trait 3 0.332141 0 0 0.145657 0.391767 0 0 0.361412 
node 1 1 1 3
node 2 2 1 1
node 3 2 1 1
node 4 2 0 2
node 9 1 0 0
gene 1 1 4 -2.69629 0 1 -2.69629 1
gene 1 2 4 2.70322 0 2 2.70322 1
gene 1 3 4 0.831205 0 3 0.831205 1
gene 1 3 9 5.3994 0 12 5.3994 1
gene 1 9 4 6.01785 0 13 6.01785 1
gene 2 1 9 -1.48724 0 32 -1.48724 1
gene 1 2 9 2.01815 0 71 2.01815 1
genomeend 18

/* Organism #19 Fitness: 4.00002 Error: 1.99999 */
genomestart 19
trait 1 0.1 0 0 0 0 0 0 0 
trait 2 0.2 0 0.244403 0 0 0.176794 0 0 
trait 3 0.332141 0 0 0.145657 0.391767 0 0 0.361412 
node 1 1 1 3
node 2 2 1 1
node 3 2 1 1
node 4 2 0 2
node 9 1 0 0
gene 3 1 4 -4.43628 0 1 -4.43628 1
gene 1 2 4 0.320516 0 2 0.320516 1
gene 1 3 4 1.97079 0 3 1.97079 1
gene 1 3 9 0.360962 0 12 0.360962 1
gene 1 9 4 7.67479 0 13 7.67479 1
gene 2 1 9 -3.55274 0 32 -3.55274 1
gene 1 2 9 4.43246 0 71 4.43246 1
genomeend 19

/* Organism #20 Fitness: 8.99999 Error: 1 */
genomestart 20
trait 1 0.1 0 0 0 0 0 0 0 
trait 2 0.2 0 0.244403 0 0 0.176794 0 0 
trait 3 0.332141 0 0 0.145657 0.391767 0 0 0.361412 
node 1 1 1 3
node 2 2 1 1
node 3 2 1 1
node 4 2 0 2
node 9 1 0 0
gene 1 1 4 -2.69629 0 1 -2.69629 1
gene 1 2 4 1.72184 0 2 1.72184 1
gene 1 3 4 0.831205 0 3 0.831205 1
gene 1 3 9 5.56348 0 12 5.56348 1
gene 1 9 4 6.53415 0 13 6.53415 1
gene 2 1 9 -1.48352 0 32 -1.48352 1
gene 1 2 9 2.01815 0 71 2.01815 1
genomeend 20

/* Organism #21 Fitness: 8.26129 Error: 1.12575 */
genomestart 21
trait 1 0.1 0 0 0 0 0 0 0 
trait 2 0.2 0 0.244403 0 0 0.176794 0 0 
trait 3 0.332141 0 0 0.145657 0.391767 0 0 0.361412 
node 1 1 1 3
node 2 2 1 1
node 3 2 1 1
node 4 1 0 2
node 9 1 0 0
gene 1 1 4 -0.394202 0 1 -0.394202 1
gene 1 2 4 1.72184 0 2 1.72184 1
gene 1 3 4 0.482689 0 3 0.482689 1
gene 1 3 9 3.93983 0 12 3.93983 1
gene 1 9 4 3.72243 0 13 3.72243 1
gene 2 1 9 -1.84013 0 32 -1.84013 1
gene 1 2 9 2.31493 0 71 2.31493 1
genomeend 21

/* Species #3 : (Size 11) (AF 7.3124) (Age 18)  */


/* Organism #22 Fitness: 9 Error: 1 */
genomestart 22
trait 1 0.299931 0.016787 0.056044 0 0 0 0 0 
trait 2 0.213939 0 0.321124 0 0.256867 0 0 0 
trait 3 0.292099 0 0 0.208553 0.391767 0 0 0.471169 
node 1 3 1 3
node 2 2 1 1
node 3 2 1 1
node 4 1 0 2
node 9 1 0 0
node 17 1 0 0
gene 1 1 4 -1.82886 0 1 -1.82886 1
gene 1 2 4 6.52041 0 2 6.52041 1
gene 1 3 4 -7.14292 0 3 -7.14292 1
gene 1 3 9 -0.347737 0 12 -0.347737 0
gene 1 9 4 -2.85549 0 13 -2.85549 1
gene 2 1 9 -0.893399 0 18 -0.893399 1
gene 1 3 17 6.76294 0 29 6.76294 1
gene 2 17 9 2.78961 0 30 2.78961 1
gene 3 2 17 -3.64146 0 47 -3.64146 1
gene 2 17 4 -0.405886 0 130 -0.405886 1
genomeend 22

/* Organism #23 Fitness: 9 Error: 1 */
genomestart 23
trait 1 0.299717 0.0166999 0.0567861 0 0 0 0 0 
trait 2 0.214159 0 0.326194 0 0.260923 0 0 0 
trait 3 0.292099 0 0 0.201184 0.391767 0 0 0.46618 
node 1 1 1 3
node 2 2 1 1
node 3 2 1 1
node 4 1 0 2
node 9 1 0 0
node 17 1 0 0
gene 1 1 4 -0.599147 0 1 -0.599147 1
gene 1 2 4 7.43066 0 2 7.43066 1
gene 1 3 4 -6.2098 0 3 -6.2098 1
gene 1 3 9 -0.764502 0 12 -0.764502 1
gene 1 9 4 -4.36708 0 13 -4.36708 1
gene 2 1 9 -1.94338 0 18 -1.94338 1
gene 1 3 17 6.23217 0 29 6.23217 1
gene 2 17 9 5.92339 0 30 5.92339 1
gene 3 2 17 -4.40321 0 47 -4.40321 1
gene 2 17 4 0.200899 0 130 0.200899 1
genomeend 23

/* Organism #24 Fitness: 2.05876 Error: 2.56516 */
genomestart 24
trait 1 0.299931 0.016787 0.056044 0 0 0 0 0 
trait 2 0.213939 0 0.321124 0 0.256867 0 0 0 
trait 3 0.292099 0 0 0.208553 0.391767 0 0 0.471169 
node 1 1 1 3
node 2 3 1 1
node 3 2 1 1
node 4 1 0 2
node 9 1 0 0
node 17 1 0 0
gene 1 1 4 1.14041 0 1 1.14041 1
gene 1 2 4 8 0 2 8 1
gene 1 3 4 -1.23698 0 3 -1.23698 1
gene 1 3 9 -0.669227 0 12 -0.669227 0
gene 1 9 4 -1.8056 0 13 -1.8056 1
gene 2 1 9 -2.57679 0 18 -2.57679 1
gene 1 3 17 5.68604 0 29 5.68604 1
gene 2 17 9 1.09301 0 30 1.09301 1
gene 3 2 17 -2.04313 0 47 -2.04313 1
gene 2 17 4 0.0418354 0 130 0.0418354 1
genomeend 24

/* Organism #25 Fitness: 9 Error: 1 */
genomestart 25
trait 1 0.299931 0.016787 0.056044 0 0 0 0 0 
trait 2 0.213939 0 0.321124 0 0.256867 0 0 0 
trait 3 0.292099 0 0 0.208553 0.391767 0 0 0.471169 
node 1 1 1 3
node 2 2 1 1
node 3 2 1 1
node 4 1 0 2
node 9 1 0 0
node 17 1 0 0
gene 1 1 4 -1.45003 0 1 -1.45003 1
gene 1 2 4 6.14345 0 2 6.14345 1
gene 1 3 4 -6.83647 0 3 -6.83647 1
gene 1 3 9 -0.539996 0 12 -0.539996 0
gene 1 9 4 -2.94935 0 13 -2.94935 1
gene 2 1 9 -0.852154 0 18 -0.852154 1
gene 1 3 17 6.22449 0 29 6.22449 1
gene 2 17 9 3.33371 0 30 3.33371 1
gene 3 2 17 -3.45545 0 47 -3.45545 1
gene 2 17 4 -0.437462 0 130 -0.437462 1
genomeend 25

/* Organism #26 Fitness: 4.00162 Error: 1.99959 */
genomestart 26
trait 1 0.299502 0.0166127 0.0575281 0 0 0 0 0 
trait 2 0.214379 0 0.331265 0 0.264979 0 0 0 
trait 3 0.292099 0 0 0.193815 0.391767 0 0 0.461191 
node 1 3 1 3
node 2 3 1 1
node 3 2 1 1
node 4 1 0 2
node 9 1 0 0
node 17 1 0 0
gene 1 1 4 0.338028 0 1 0.338028 1
gene 1 2 4 5.2258 0 2 5.2258 1
gene 1 3 4 1.79643 0 3 1.79643 1
gene 1 3 9 0.57857 0 12 0.57857 0
gene 1 9 4 0.836402 0 13 0.836402 1
gene 2 1 9 1.16804 0 18 1.16804 1
gene 1 3 17 2.99548 0 29 2.99548 1
gene 2 17 9 2.78961 0 30 2.78961 1
gene 3 2 17 -1.84313 0 47 -1.84313 1
gene 2 17 4 0.823448 0 130 0.823448 1
genomeend 26

/* Organism #27 Fitness: 8.8378 Error: 1.02716 */
genomestart 27
trait 1 0.299931 0.016787 0.056044 0 0 0 0 0 
trait 2 0.213939 0 0.321124 0 0.256867 0 0 0 
trait 3 0.292099 0 0 0.208553 0.391767 0 0 0.471169 
node 1 3 1 3
node 2 2 1 1
node 3 2 1 1
node 4 1 0 2
node 9 1 0 0
node 17 1 0 0
gene 1 1 4 -0.517895 0 1 -0.517895 1
gene 1 2 4 6.75152 0 2 6.75152 1
gene 1 3 4 -6.23105 0 3 -6.23105 1
gene 1 3 9 1.37093 0 12 1.37093 0
gene 1 9 4 -0.788745 0 13 -0.788745 1
gene 2 1 9 -1.80253 0 18 -1.80253 1
gene 1 3 17 8 0 29 8 1
gene 2 17 9 2.18691 0 30 2.18691 1
gene 3 2 17 -5.31992 0 47 -5.31992 1
gene 2 17 4 -0.437462 0 130 -0.437462 1
genomeend 27

/* Organism #28 Fitness: 8.99947 Error: 1.00009 */
genomestart 28
trait 1 0.299717 0.0166999 0.0567861 0 0 0 0 0 
trait 2 0.214159 0 0.326194 0 0.260923 0 0 0 
trait 3 0.292099 0 0 0.201184 0.391767 0 0 0.46618 
node 1 3 1 3
node 2 2 1 1
node 3 2 1 1
node 4 1 0 2
node 9 1 0 0
node 17 1 0 0
gene 2 1 4 -2.44326 0 1 -2.44326 1
gene 1 2 4 4.78838 0 2 4.78838 1
gene 1 3 4 -6.75434 0 3 -6.75434 1
gene 1 3 9 -2.13973 0 12 -2.13973 1
gene 1 9 4 -2.09874 0 13 -2.09874 1
gene 2 1 9 -2.46905 0 18 -2.46905 1
gene 1 3 17 4.87316 0 29 4.87316 1
gene 2 17 9 2.29275 0 30 2.29275 1
gene 3 2 17 -4.39357 0 47 -4.39357 1
gene 2 17 4 1.05728 0 130 1.05728 1
genomeend 28

/* Organism #29 Fitness: 9 Error: 1 */
genomestart 29
trait 1 0.299717 0.0166999 0.0567861 0 0 0 0 0 
trait 2 0.214159 0 0.326194 0 0.260923 0 0 0 
trait 3 0.292099 0 0 0.201184 0.391767 0 0 0.46618 
node 1 3 1 3
node 2 2 1 1
node 3 2 1 1
node 4 1 0 2
node 9 1 0 0
node 17 1 0 0
gene 1 1 4 -1.82886 0 1 -1.82886 1
gene 1 2 4 6.52041 0 2 6.52041 1
gene 1 3 4 -7.14292 0 3 -7.14292 1
gene 1 3 9 -0.347737 0 12 -0.347737 0
gene 1 9 4 -2.85549 0 13 -2.85549 1
gene 2 1 9 -0.893399 0 18 -0.893399 1
gene 1 3 17 4.60914 0 29 4.60914 1
gene 2 17 9 2.78961 0 30 2.78961 1
gene 3 2 17 -2.89745 0 47 -2.89745 1
gene 2 17 4 -0.405886 0 130 -0.405886 1
genomeend 29

/* Organism #30 Fitness: 9 Error: 1 */
genomestart 30
trait 1 0.299931 0.016787 0.056044 0 0 0 0 0 
trait 2 0.213939 0 0.321124 0 0.256867 0 0 0 
trait 3 0.292099 0 0 0.208553 0.391767 0 0 0.471169 
node 1 3 1 3
node 2 2 1 1
node 3 2 1 1
node 4 1 0 2
node 9 1 0 0
node 17 1 0 0
gene 1 1 4 -0.143296 0 1 -0.143296 1
gene 1 2 4 8 0 2 8 1
gene 1 3 4 -7.69389 0 3 -7.69389 1
gene 1 3 9 -1.49925 0 12 -1.49925 0
gene 1 9 4 -4.63139 0 13 -4.63139 1
gene 2 1 9 -0.576836 0 18 -0.576836 1
gene 1 3 17 7.33927 0 29 7.33927 1
gene 2 17 9 3.71495 0 30 3.71495 1
gene 3 2 17 -3.06806 0 47 -3.06806 1
gene 2 17 4 -0.405886 0 130 -0.405886 1
genomeend 30

/* Organism #31 Fitness: 9 Error: 1 */
genomestart 31
trait 1 0.299717 0.0166999 0.0567861 0 0 0 0 0 
trait 2 0.214159 0 0.326194 0 0.260923 0 0 0 
trait 3 0.292099 0 0 0.201184 0.391767 0 0 0.46618 
node 1 1 1 3
node 2 2 1 1
node 3 2 1 1
node 4 1 0 2
node 9 1 0 0
node 17 1 0 0
gene 1 1 4 -0.313557 0 1 -0.313557 1
gene 1 2 4 5.76649 0 2 5.76649 1
gene 1 3 4 -7.14292 0 3 -7.14292 1
gene 1 3 9 -0.732256 0 12 -0.732256 1
gene 1 9 4 -3.04321 0 13 -3.04321 1
gene 2 1 9 -0.810908 0 18 -0.810908 1
gene 1 3 17 5.68604 0 29 5.68604 1
gene 2 17 9 2.78961 0 30 2.78961 1
gene 3 2 17 -3.26945 0 47 -3.26945 1
gene 2 17 4 -0.469038 0 130 -0.469038 1
gene 1 1 17 0.187525 0 186 0.187525 1
genomeend 31

/* Organism #32 Fitness: 2.53876 Error: 2.40665 */
genomestart 32
trait 1 0.299717 0.0166999 0.0567861 0 0 0 0 0 
trait 2 0.214159 0 0.326194 0 0.260923 0 0 0 
trait 3 0.292099 0 0 0.201184 0.391767 0 0 0.46618 
node 1 3 1 3
node 2 2 1 1
node 3 2 1 1
node 4 1 0 2
node 9 1 0 0
node 17 1 0 0
gene 1 1 4 0.160073 0 1 0.160073 1
gene 1 2 4 8 0 2 8 1
gene 1 3 4 -6.78181 0 3 -6.78181 1
gene 1 3 9 1.10516 0 12 1.10516 0
gene 1 9 4 -2.14144 0 13 -2.14144 1
gene 2 1 9 -0.893399 0 18 -0.893399 1
gene 1 3 17 0.212522 0 29 0.212522 1
gene 2 17 9 0.0955816 0 30 0.0955816 1
gene 3 2 17 -5.87918 0 47 -5.87918 1
gene 2 17 4 -0.405886 0 130 -0.405886 1
genomeend 32

/* Species #4 : (Size 9) (AF 6.9503) (Age 16)  */


/* Organism #33 Fitness: 8.99567 Error: 1.00072 */
genomestart 33
trait 1 0.882998 0 0.441645 0 0.141616 0 0.865696 0.40479 
trait 2 0.2 0 0 0 0 0 0 0 
trait 3 0.292099 0 0 0.0464297 0.391767 0 0 0.361412 
node 1 1 1 3
node 2 2 1 1
node 3 2 1 1
node 4 1 0 2
node 9 1 0 0
node 17 1 0 0
node 21 3 0 0
gene 1 1 4 -4.27716 0 1 -4.27716 1
gene 1 2 4 3.00454 0 2 3.00454 1
gene 1 3 4 -3.77643 0 3 -3.77643 0
gene 1 3 9 3.0755 0 12 3.0755 0
gene 1 9 4 2.09074 0 13 2.09074 1
gene 2 1 9 -3.57626 0 18 -3.57626 1
gene 1 3 17 1.50836 0 29 1.50836 1
gene 1 17 9 2.79289 0 30 2.79289 1
gene 1 17 4 7.32179 0 35 7.32179 1
gene 3 2 21 -0.100152 0 43 -0.100152 1
gene 1 21 4 -2.1447 0 44 -2.1447 1
genomeend 33

/* Organism #34 Fitness: 4 Error: 2 */
genomestart 34
trait 1 0.1 0 0 0 0 0 0 0 
trait 2 0.2 0 0 0 0 0 0 0 
trait 3 0.292099 0 0 0.0464297 0.391767 0 0 0.361412 
node 1 1 1 3
node 2 2 1 1
node 3 2 1 1
node 4 1 0 2
node 9 1 0 0
node 17 1 0 0
node 21 3 0 0
gene 1 1 4 0.814686 0 1 0.814686 1
gene 1 2 4 1.04186 0 2 1.04186 1
gene 1 3 4 -0.592427 0 3 -0.592427 0
gene 1 3 9 2.19767 0 12 2.19767 0
gene 1 9 4 -2.48552 0 13 -2.48552 1
gene 2 1 9 -3.552 0 18 -3.552 1
gene 1 3 17 3.74699 0 29 3.74699 1
gene 1 17 9 -1.00194 0 30 -1.00194 1
gene 1 17 4 4.5511 0 35 4.5511 1
gene 3 2 21 -1.59464 0 43 -1.59464 1
gene 1 21 4 0.198096 0 44 0.198096 1
genomeend 34

/* Organism #35 Fitness: 8.24368 Error: 1.12882 */
genomestart 35
trait 1 0.1 0 0 0 0 0 0 0 
trait 2 0.2 0 0 0 0 0 0 0 
trait 3 0.292099 0 0 0.0464297 0.391767 0 0 0.361412 
node 1 1 1 3
node 2 2 1 1
node 3 2 1 1
node 4 1 0 2
node 9 1 0 0
node 17 1 0 0
node 21 3 0 0
gene 1 1 4 -3.11835 0 1 -3.11835 1
gene 1 2 4 0.266744 0 2 0.266744 1
gene 1 3 4 -2.21804 0 3 -2.21804 0
gene 1 3 9 2.02735 0 12 2.02735 0
gene 1 9 4 1.77205 0 13 1.77205 1
gene 2 1 9 -0.454674 0 18 -0.454674 1
gene 1 3 17 1.69428 0 29 1.69428 1
gene 1 17 9 2.41144 0 30 2.41144 1
gene 1 17 4 4.0924 0 35 4.0924 1
gene 3 2 21 -1.7771 0 43 -1.7771 1
gene 1 21 4 -2.13081 0 44 -2.13081 1
genomeend 35

/* Organism #36 Fitness: 6.61517 Error: 1.428 */
genomestart 36
trait 1 0.491499 0 0.220823 0 0.0708081 0 0.432848 0.202395 
trait 2 0.2 0 0 0 0 0 0 0 
trait 3 0.292099 0 0 0.0464297 0.391767 0 0 0.361412 
node 1 1 1 3
node 2 2 1 1
node 3 2 1 1
node 4 1 0 2
node 9 1 0 0
node 17 1 0 0
node 21 3 0 0
gene 1 1 4 -5.07133 0 1 -5.07133 1
gene 1 2 4 1.18732 0 2 1.18732 1
gene 1 3 4 -2.03982 0 3 -2.03982 0
gene 1 3 9 2.85416 0 12 2.85416 0
gene 1 9 4 1.40474 0 13 1.40474 1
gene 2 1 9 -0.309513 0 18 -0.309513 1
gene 1 3 17 0.397976 0 29 0.397976 1
gene 1 17 9 1.70701 0 30 1.70701 1
gene 1 17 4 8 0 35 8 1
gene 3 2 21 -0.100152 0 43 -0.100152 1
gene 1 21 4 -3.61548 0 44 -3.61548 1
genomeend 36

/* Organism #37 Fitness: 8.20726 Error: 1.13517 */
genomestart 37
trait 1 0.491499 0 0.220823 0 0.0708081 0 0.432848 0.202395 
trait 2 0.2 0 0 0 0 0 0 0 
trait 3 0.292099 0 0 0.0464297 0.391767 0 0 0.361412 
node 1 1 1 3
node 2 2 1 1
node 3 2 1 1
node 4 1 0 2
node 9 1 0 0
node 17 1 0 0
node 21 3 0 0
gene 1 1 4 -3.34459 0 1 -3.34459 1
gene 1 2 4 2.60873 0 2 2.60873 1
gene 1 3 4 -2.21804 0 3 -2.21804 0
gene 1 3 9 3.0755 0 12 3.0755 0
gene 1 9 4 1.31106 0 13 1.31106 1
gene 2 1 9 -3.57626 0 18 -3.57626 1
gene 1 3 17 1.50836 0 29 1.50836 1
gene 1 17 9 2.79289 0 30 2.79289 1
gene 1 17 4 7.32179 0 35 7.32179 1
gene 3 2 21 -0.100152 0 43 -0.100152 1
gene 1 21 4 -1.38652 0 44 -1.38652 1
genomeend 37

/* Organism #38 Fitness: 8.95813 Error: 1.00699 */
genomestart 38
trait 1 0.491499 0 0.220823 0 0.0708081 0 0.432848 0.202395 
trait 2 0.2 0 0 0 0 0 0 0 
trait 3 0.292099 0 0 0.0464297 0.391767 0 0 0.361412 
node 1 1 1 3
node 2 2 1 1
node 3 2 1 1
node 4 1 0 2
node 9 1 0 0
node 17 1 0 0
node 21 3 0 0
gene 1 1 4 -5.80785 0 1 -5.80785 1
gene 1 2 4 4.05759 0 2 4.05759 1
gene 1 3 4 -3.15597 0 3 -3.15597 0
gene 1 3 9 4.90048 0 12 4.90048 0
gene 1 9 4 2.55464 0 13 2.55464 1
gene 2 1 9 -0.993195 0 18 -0.993195 1
gene 1 3 17 0.718481 0 29 0.718481 1
gene 1 17 9 3.67337 0 30 3.67337 1
gene 1 17 4 8 0 35 8 1
gene 3 2 21 0.829895 0 43 0.829895 1
gene 1 21 4 -3.59473 0 44 -3.59473 1
genomeend 38

/* Organism #39 Fitness: 4.15677 Error: 1.96118 */
genomestart 39
trait 1 0.1 0 0 0 0 0 0 0 
trait 2 0.2 0 0 0 0 0 0 0 
trait 3 0.292099 0 0 0.0464297 0.391767 0 0 0.361412 
node 1 1 1 3
node 2 2 1 1
node 3 2 1 1
node 4 1 0 2
node 9 1 0 0
node 17 1 0 0
node 21 3 0 0
gene 1 1 4 -3.32757 0 1 -3.32757 1
gene 1 2 4 3.07592 0 2 3.07592 1
gene 1 3 4 -0.773086 0 3 -0.773086 0
gene 1 3 9 5.44149 0 12 5.44149 0
gene 1 9 4 -2.33266 0 13 -2.33266 1
gene 2 1 9 -1.79028 0 18 -1.79028 1
gene 1 3 17 5.3157 0 29 5.3157 1
gene 1 17 9 -0.621632 0 30 -0.621632 1
gene 1 17 4 8 0 35 8 1
gene 3 2 21 1.02173 0 43 1.02173 1
gene 1 21 4 -0.041247 0 44 -0.041247 1
genomeend 39

/* Organism #40 Fitness: 6.90689 Error: 1.3719 */
genomestart 40
trait 1 0.882998 0 0.441645 0 0.141616 0 0.865696 0.40479 
trait 2 0.2 0 0 0 0 0 0 0 
trait 3 0.292099 0 0 0.0464297 0.391767 0 0 0.361412 
node 1 1 1 3
node 2 2 1 1
node 3 2 1 1
node 4 1 0 2
node 9 1 0 0
node 17 1 0 0
node 21 3 0 0
gene 1 1 4 -2.3632 0 1 -2.3632 1
gene 1 2 4 1.04045 0 2 1.04045 1
gene 1 3 4 -4.60841 0 3 -4.60841 0
gene 1 3 9 0.960089 0 12 0.960089 0
gene 1 9 4 -1.19563 0 13 -1.19563 1
gene 2 1 9 -2.53714 0 18 -2.53714 1
gene 1 3 17 0.899618 0 29 0.899618 1
gene 1 17 9 1.56558 0 30 1.56558 1
gene 1 17 4 4.9937 0 35 4.9937 1
gene 3 2 21 1.93755 0 43 1.93755 1
gene 1 21 4 -0.56473 0 44 -0.56473 1
genomeend 40

/* Organism #41 Fitness: 6.46913 Error: 1.45655 */
genomestart 41
trait 1 0.882998 0 0.441645 0 0.141616 0 0.865696 0.40479 
trait 2 0.2 0 0 0 0 0 0 0 
trait 3 0.292099 0 0 0.0464297 0.391767 0 0 0.361412 
node 1 1 1 3
node 2 2 1 1
node 3 2 1 1
node 4 1 0 2
node 9 1 0 0
node 17 1 0 0
node 21 3 0 0
gene 1 1 4 -2.49569 0 1 -2.49569 1
gene 1 2 4 3.00454 0 2 3.00454 1
gene 1 3 4 -0.978788 0 3 -0.978788 0
gene 1 3 9 4.00086 0 12 4.00086 0
gene 1 9 4 1.28787 0 13 1.28787 1
gene 2 1 9 -2.26118 0 18 -2.26118 1
gene 1 3 17 1.50836 0 29 1.50836 1
gene 1 17 9 -0.96978 0 30 -0.96978 1
gene 1 17 4 7.32179 0 35 7.32179 1
gene 3 2 21 0.32169 0 43 0.32169 1
gene 1 21 4 -2.40121 0 44 -2.40121 1
genomeend 41

/* Species #5 : (Size 8) (AF 5.548) (Age 16)  */


/* Organism #42 Fitness: 8.99999 Error: 1 */
genomestart 42
trait 1 0.1 0 0 0 0 0 0 0 
trait 2 0.2 0 0 0 0 0 0 0 
trait 3 0.292099 0 0 0.0464297 0.391767 0 0 0.361412 
node 1 1 1 3
node 2 3 1 1
node 3 2 1 1
node 4 1 0 2
node 9 1 0 0
node 17 1 0 0
node 23 1 0 0
node 45 1 0 0
gene 1 1 4 -1.47562 0 1 -1.47562 1
gene 1 2 4 3.76225 0 2 3.76225 1
gene 1 3 4 7.18735 0 3 7.18735 1
gene 1 3 9 -2.12688 0 12 -2.12688 0
gene 1 9 4 4.1463 0 13 4.1463 1
gene 2 1 9 -1.34661 0 18 -1.34661 1
gene 1 3 17 -1.60174 0 29 -1.60174 0
gene 1 17 9 0.587701 0 30 0.587701 1
gene 1 17 4 -3.32573 0 35 -3.32573 1
gene 1 3 23 7.37874 0 49 7.37874 1
gene 1 23 17 1.44962 0 50 1.44962 1
gene 3 2 17 -4.40304 0 58 -4.40304 1
gene 1 2 45 1 0 131 0 1
gene 1 45 4 3.76225 0 132 0 1
genomeend 42

/* Organism #43 Fitness: 4.0332 Error: 1.99172 */
genomestart 43
trait 1 0.1 0 0 0 0 0 0 0 
trait 2 0.2 0 0 0 0 0 0 0 
trait 3 0.292099 0 0 0.0464297 0.391767 0.92071 0 0 
node 1 1 1 3
node 2 3 1 1
node 3 2 1 1
node 4 1 0 2
node 9 1 0 0
node 17 2 0 0
node 23 1 0 0
node 45 3 0 0
gene 1 1 4 -0.608949 0 1 -0.608949 1
gene 1 2 4 2.08117 0 2 2.08117 0
gene 1 3 4 -1.58862 0 3 -1.58862 1
gene 1 3 9 0.229171 0 12 0.229171 1
gene 1 9 4 0.942786 0 13 0.942786 1
gene 2 1 9 -1.3039 0 18 -1.3039 1
gene 1 3 17 -0.554597 0 29 -0.554597 0
gene 1 17 9 2.3888 0 30 2.3888 1
gene 1 17 4 -5.14362 0 35 -5.14362 1
gene 1 3 23 4.96078 0 49 4.96078 1
gene 1 23 17 1.32557 0 50 1.32557 1
gene 3 2 17 -4.78135 0 58 -4.78135 1
gene 1 2 45 1.19067 0 131 1.19067 1
gene 1 45 4 3.17351 0 132 3.17351 1
genomeend 43

/* Organism #44 Fitness: 4.01514 Error: 1.99622 */
genomestart 44
trait 1 0.1 0 0 0 0 0 0 0 
trait 2 0.2 0 0 0 0 0 0 0 
trait 3 0.292099 0 0 0.0464297 0.391767 0 0 0.361412 
node 1 1 1 3
node 2 3 1 1
node 3 2 1 1
node 4 1 0 2
node 9 1 0 0
node 17 1 0 0
node 23 1 0 0
node 45 1 0 0
gene 1 1 4 0.614117 0 1 0.614117 1
gene 1 2 4 2.24696 0 2 2.24696 1
gene 1 3 4 7.43171 0 3 7.43171 1
gene 1 3 9 -1.65034 0 12 -1.65034 0
gene 1 9 4 5.19494 0 13 5.19494 1
gene 2 1 9 -3.26552 0 18 -3.26552 1
gene 1 3 17 -0.616376 0 29 -0.616376 0
gene 1 17 9 2.90791 0 30 2.90791 1
gene 1 17 4 -1.05183 0 35 -1.05183 1
gene 1 3 23 8 0 49 8 1
gene 1 23 17 1.48184 0 50 1.48184 1
gene 3 2 17 -4.2875 0 58 -4.2875 1
gene 1 2 45 1 0 131 1 1
gene 1 45 4 1.97653 0 132 1.97653 1
genomeend 44

/* Organism #45 Fitness: 4.0967 Error: 1.97597 */
genomestart 45
trait 1 0.1 0 0 0 0 0 0 0 
trait 2 0.2 0 0 0 0 0 0 0 
trait 3 0.292099 0 0 0.0464297 0.391767 0 0 0.361412 
node 1 1 1 3
node 2 3 1 1
node 3 2 1 1
node 4 1 0 2
node 9 1 0 0
node 17 1 0 0
node 23 1 0 0
node 45 3 0 0
node 62 1 0 0
gene 1 1 4 -1.17662 0 1 -1.17662 1
gene 1 2 4 2.6683 0 2 2.6683 0
gene 1 3 4 6.44117 0 3 6.44117 1
gene 1 3 9 -2.0223 0 12 -2.0223 0
gene 1 9 4 3.25042 0 13 3.25042 1
gene 2 1 9 -0.320384 0 18 -0.320384 1
gene 1 3 17 -2.1441 0 29 -2.1441 0
gene 1 17 9 0.888926 0 30 0.888926 1
gene 1 17 4 -3.68387 0 35 -3.68387 1
gene 1 3 23 6.2426 0 49 6.2426 1
gene 1 23 17 2.54474 0 50 2.54474 1
gene 3 2 17 -4.5922 0 58 -4.5922 1
gene 1 2 45 1.8595 0 131 1.3595 0
gene 1 45 4 2.56867 0 132 0.687545 1
gene 1 2 62 1 0 187 0 1
gene 1 62 45 1.8595 0 188 0 1
genomeend 45

/* Organism #46 Fitness: 8.99939 Error: 1.0001 */
genomestart 46
trait 1 0.1 0 0 0 0 0 0 0 
trait 2 0.2 0 0 0 0 0 0 0 
trait 3 0.292099 0 0 0.0464297 0.391767 0 0 0.361412 
node 1 1 1 3
node 2 3 1 1
node 3 2 1 1
node 4 1 0 2
node 9 1 0 0
node 17 2 0 0
node 23 1 0 0
node 45 3 0 0
gene 1 1 4 -0.87761 0 1 -0.87761 1
gene 1 2 4 1.57436 0 2 1.57436 0
gene 1 3 4 5.69498 0 3 5.69498 1
gene 1 3 9 -1.91772 0 12 -1.91772 1
gene 1 9 4 2.35454 0 13 2.35454 1
gene 2 1 9 0.705843 0 18 0.705843 1
gene 1 3 17 -2.68646 0 29 -2.68646 0
gene 1 17 9 1.19015 0 30 1.19015 1
gene 1 17 4 -4.04201 0 35 -4.04201 1
gene 1 3 23 5.10647 0 49 5.10647 1
gene 1 23 17 3.63987 0 50 3.63987 1
gene 3 2 17 -4.78135 0 58 -4.78135 1
gene 1 2 45 2.719 0 131 2.719 1
gene 1 45 4 1.37509 0 132 1.37509 1
genomeend 46

/* Organism #47 Fitness: 7.19091 Error: 1.31841 */
genomestart 47
trait 1 0.1 0 0 0 0 0 0 0 
trait 2 0.2 0 0 0 0 0 0 0 
trait 3 0.292099 0 0 0.0464297 0.391767 0 0 0.361412 
node 1 1 1 3
node 2 3 1 1
node 3 2 1 1
node 4 1 0 2
node 9 1 0 0
node 17 2 0 0
node 23 1 0 0
node 45 1 0 0
gene 1 1 4 -0.123871 0 1 -0.123871 1
gene 1 2 4 4.02188 0 2 4.02188 0
gene 1 3 4 -0.505899 0 3 -0.505899 1
gene 1 3 9 -3.89097 0 12 -3.89097 0
gene 1 9 4 3.64019 0 13 3.64019 1
gene 2 1 9 -1.36567 0 18 -1.36567 1
gene 1 3 17 -0.501487 0 29 -0.501487 0
gene 1 17 9 -0.122695 0 30 -0.122695 1
gene 1 17 4 -1.9366 0 35 -1.9366 1
gene 1 3 23 5.9997 0 49 5.9997 1
gene 1 23 17 3.78348 0 50 3.78348 1
gene 3 2 17 -2.76525 0 58 -2.76525 1
gene 1 2 45 1 0 131 1 1
gene 1 45 4 2.4014 0 132 2.4014 1
genomeend 47

/* Organism #48 Fitness: 4.78848 Error: 1.81174 */
genomestart 48
trait 1 0.1 0 0 0 0 0 0 0 
trait 2 0.2 0 0 0 0 0 0 0 
trait 3 0.292099 0 0 0.0464297 0.391767 0 0 0.361412 
node 1 1 1 3
node 2 3 1 1
node 3 2 1 1
node 4 1 0 2
node 9 1 0 0
node 17 2 0 0
node 23 1 0 0
node 45 1 0 0
gene 1 1 4 -2.53123 0 1 -2.53123 1
gene 1 2 4 2.49391 0 2 2.49391 0
gene 1 3 4 7.22607 0 3 7.22607 1
gene 1 3 9 -2.45395 0 12 -2.45395 0
gene 1 9 4 2.98416 0 13 2.98416 1
gene 2 1 9 1.37866 0 18 1.37866 1
gene 1 3 17 -0.593887 0 29 -0.593887 0
gene 1 17 9 1.96476 0 30 1.96476 1
gene 1 17 4 -1.75252 0 35 -1.75252 1
gene 1 3 23 8 0 49 8 1
gene 1 23 17 2.61564 0 50 2.61564 1
gene 3 2 17 -2.67136 0 58 -2.67136 1
gene 1 2 45 4.04659 0 131 4.04659 1
gene 1 45 4 3.18712 0 132 3.18712 1
genomeend 48

/* Organism #49 Fitness: 2.26018 Error: 2.49661 */
genomestart 49
trait 1 0.1 0 0 0 0 0 0 0 
trait 2 0.2 0 0 0 0 0 0 0 
trait 3 0.292099 0 0 0.0464297 0.391767 0 0 0.361412 
node 1 1 1 3
node 2 3 1 1
node 3 2 1 1
node 4 1 0 2
node 9 1 0 0
node 17 1 0 0
node 23 1 0 0
node 45 1 0 0
gene 1 1 4 -3.09204 0 1 -3.09204 1
gene 1 2 4 2.45753 0 2 2.45753 0
gene 1 3 4 4.56417 0 3 4.56417 1
gene 1 3 9 -1.85592 0 12 -1.85592 0
gene 1 9 4 3.9871 0 13 3.9871 1
gene 2 1 9 0.767438 0 18 0.767438 1
gene 1 3 17 -2.77824 0 29 -2.77824 0
gene 1 17 9 0.20895 0 30 0.20895 1
gene 1 17 4 -5.85637 0 35 -5.85637 1
gene 1 3 23 2.84254 0 49 2.84254 1
gene 1 23 17 2.59764 0 50 2.59764 1
gene 3 2 17 -7.14318 0 58 -7.14318 1
gene 1 2 45 -0.0210271 0 131 -0.0210271 1
gene 1 45 4 -1.69731 0 132 -1.69731 1
genomeend 49

/* Species #6 : (Size 8) (AF 5.4184) (Age 15)  */


/* Organism #50 Fitness: 8.99974 Error: 1.00004 */
genomestart 50
trait 1 0.1 0 0 0 0 0 0 0 
trait 2 0.2 0 0 0 0 0 0 0 
trait 3 0.313725 0 0 0.100021 0.391767 0 0 0.361412 
node 1 1 1 3
node 2 2 1 1
node 3 2 1 1
node 4 1 0 2
node 9 1 0 0
node 26 1 0 0
gene 1 1 4 -0.673893 0 1 -0.673893 1
gene 1 2 4 -1.99931 0 2 -1.99931 1
gene 1 3 4 0.0708909 0 3 0.0708909 1
gene 1 3 9 -0.626065 0 12 -0.626065 0
gene 1 9 4 5.44016 0 13 5.44016 1
gene 1 3 26 -1.98357 0 55 -1.98357 1
gene 1 26 9 2.41944 0 56 2.41944 1
gene 1 26 4 1.03348 0 80 1.03348 1
gene 1 2 9 -0.559579 0 93 -0.559579 1
genomeend 50

/* Organism #51 Fitness: 5.86074 Error: 1.5791 */
genomestart 51
trait 1 0.1 0 0 0 0 0 0 0 
trait 2 0.2 0 0 0 0 0 0 0 
trait 3 0.313725 0 0 0.100021 0.391767 0 0 0.361412 
node 1 1 1 3
node 2 2 1 1
node 3 2 1 1
node 4 1 0 2
node 9 1 0 0
node 26 1 0 0
gene 1 1 4 -0.840659 0 1 -0.840659 1
gene 1 2 4 -3.28093 0 2 -3.28093 1
gene 1 3 4 -0.354212 0 3 -0.354212 1
gene 1 3 9 1.21929 0 12 1.21929 1
gene 1 9 4 4.49809 0 13 4.49809 1
gene 1 3 26 0.0732743 0 55 0.0732743 1
gene 1 26 9 0.532731 0 56 0.532731 1
gene 1 26 4 -0.350135 0 80 -0.350135 1
gene 1 2 9 0.823058 0 93 0.823058 1
genomeend 51

/* Organism #52 Fitness: 1.10222 Error: 2.95013 */
genomestart 52
trait 1 0.1 0 0 0 0 0 0 0 
trait 2 0.2 0 0 0 0 0 0 0 
trait 3 0.313725 0 0 0.100021 0.391767 0 0 0.361412 
node 1 1 1 3
node 2 2 1 1
node 3 2 1 1
node 4 1 0 2
node 9 1 0 0
node 26 1 0 0
gene 1 1 4 -2.16676 0 1 -2.16676 1
gene 1 2 4 -3.74718 0 2 -3.74718 1
gene 1 3 4 -1.50245 0 3 -1.50245 1
gene 1 3 9 -2.85812 0 12 -2.85812 0
gene 3 9 4 5.26422 0 13 5.26422 1
gene 1 3 26 -1.92027 0 55 -1.92027 1
gene 1 26 9 1.37732 0 56 1.37732 1
gene 1 26 4 0.0476821 0 80 0.0476821 1
gene 1 2 9 1.92093 0 93 1.92093 1
genomeend 52

/* Organism #53 Fitness: 4 Error: 2 */
genomestart 53
trait 1 0.1 0 0 0 0 0 0 0 
trait 2 0.2 0 0 0 0 0 0 0 
trait 3 0.313725 0 0 0.100021 0.391767 0 0 0.361412 
node 1 1 1 3
node 2 2 1 1
node 3 2 1 1
node 4 1 0 2
node 9 1 0 0
node 26 1 0 0
gene 1 1 4 1.49806 0 1 1.49806 1
gene 1 2 4 0.164831 0 2 0.164831 1
gene 1 3 4 1.30056 0 3 1.30056 1
gene 1 3 9 -1.66611 0 12 -1.66611 0
gene 1 9 4 5.91806 0 13 5.91806 1
gene 1 3 26 -4.19107 0 55 -4.19107 1
gene 1 26 9 3.91983 0 56 3.91983 1
gene 1 26 4 2.02633 0 80 2.02633 1
gene 1 2 9 -0.116397 0 93 -0.116397 1
genomeend 53

/* Organism #54 Fitness: 8.99974 Error: 1.00004 */
genomestart 54
trait 1 0.1 0 0 0 0 0 0 0 
trait 2 0.2 0 0 0 0 0 0 0 
trait 3 0.313725 0 0 0.100021 0.391767 0 0 0.361412 
node 1 1 1 3
node 2 2 1 1
node 3 2 1 1
node 4 1 0 2
node 9 1 0 0
node 26 1 0 0
gene 1 1 4 -0.673893 0 1 -0.673893 1
gene 1 2 4 -1.99931 0 2 -1.99931 1
gene 1 3 4 0.0708909 0 3 0.0708909 1
gene 1 3 9 -0.626065 0 12 -0.626065 0
gene 1 9 4 5.44016 0 13 5.44016 1
gene 1 3 26 -1.98357 0 55 -1.98357 1
gene 1 26 9 2.41944 0 56 2.41944 1
gene 1 26 4 1.03348 0 80 1.03348 1
gene 1 2 9 -0.559579 0 93 -0.559579 1
genomeend 54

/* Organism #55 Fitness: 6.46095 Error: 1.45816 */
genomestart 55
trait 1 0.1 0 0 0 0 0 0 0 
trait 2 0.2 0 0 0 0 0 0 0 
trait 3 0.313725 0 0 0.100021 0.391767 0 0 0.361412 
node 1 1 1 3
node 2 2 1 1
node 3 2 1 1
node 4 1 0 2
node 9 1 0 0
node 26 1 0 0
gene 1 1 4 1.14313 0 1 1.14313 1
gene 1 2 4 -3.09613 0 2 -3.09613 1
gene 1 3 4 1.54183 0 3 1.54183 1
gene 1 3 9 1.73856 0 12 1.73856 0
gene 1 9 4 6.28262 0 13 6.28262 1
gene 1 3 26 -1.64653 0 55 -1.64653 1
gene 1 26 9 2.41944 0 56 2.41944 1
gene 1 26 4 0.965469 0 80 0.965469 1
gene 1 2 9 -0.559579 0 93 -0.559579 1
genomeend 55

/* Organism #56 Fitness: 3.93457 Error: 2.01642 */
genomestart 56
trait 1 0.1 0 0 0 0 0 0 0 
trait 2 0.2 0 0 0 0 0 0 0 
trait 3 0.313725 0 0 0.100021 0.391767 0 0 0.361412 
node 1 1 1 3
node 2 2 1 1
node 3 2 1 1
node 4 1 0 2
node 9 1 0 0
node 26 1 0 0
gene 1 1 4 0.0296276 0 1 0.0296276 1
gene 1 2 4 0.239466 0 2 0.239466 1
gene 1 3 4 -0.715672 0 3 -0.715672 1
gene 1 3 9 -1.30764 0 12 -1.30764 0
gene 1 9 4 3.03251 0 13 3.03251 1
gene 1 3 26 -1.67204 0 55 -1.67204 1
gene 1 26 9 0.275854 0 56 0.275854 1
gene 1 26 4 2.04352 0 80 2.04352 1
gene 1 2 9 1.08286 0 93 1.08286 1
genomeend 56

/* Organism #57 Fitness: 3.98925 Error: 2.00269 */
genomestart 57
trait 1 0.1 0 0 0 0 0 0 0 
trait 2 0.2 0 0 0 0 0 0 0 
trait 3 0.313725 0 0 0.100021 0.391767 0 0 0.361412 
node 1 1 1 3
node 2 2 1 1
node 3 2 1 1
node 4 1 0 2
node 9 1 0 0
node 26 1 0 0
gene 1 1 4 0.901267 0 1 0.901267 1
gene 1 2 4 -4.31093 0 2 -4.31093 1
gene 1 3 4 -2.15567 0 3 -2.15567 1
gene 1 3 9 1.18243 0 12 1.18243 0
gene 1 9 4 4.90079 0 13 4.90079 1
gene 1 3 26 -2.17012 0 55 -2.17012 1
gene 1 26 9 0.413889 0 56 0.413889 1
gene 1 26 4 2.93816 0 80 2.93816 1
gene 1 2 9 -1.94784 0 93 -1.94784 1
genomeend 57

/* Species #8 : (Size 9) (AF 7.07182) (Age 13)  */


/* Organism #58 Fitness: 8.99946 Error: 1.00009 */
genomestart 58
trait 1 0.1 0 0 0.186182 0 0 0 0 
trait 2 0.2 0 0 0 0 0 0 0 
trait 3 0.335351 0 0 0.153612 0.391767 0 0 0.361412 
node 1 1 1 3
node 2 2 1 1
node 3 2 1 1
node 4 2 0 2
node 9 1 0 0
node 29 1 0 0
gene 1 1 4 -2.32131 0 1 -2.32131 1
gene 1 2 4 4.6787 0 2 4.6787 1
gene 1 3 4 -3.94992 0 3 -3.94992 1
gene 1 3 9 6.58419 0 12 6.58419 1
gene 1 9 4 -0.373534 0 13 -0.373534 1
gene 1 9 29 -2.7885 0 67 -2.7885 1
gene 1 29 4 2.90396 0 68 2.90396 1
gene 3 3 29 -1.23332 0 150 -1.23332 1
genomeend 58

/* Organism #59 Fitness: 4.23148 Error: 1.94294 */
genomestart 59
trait 1 0.1 0 0 0.186182 0 0 0 0 
trait 2 0.2 0 0 0 0 0 0 0 
trait 3 0.335351 0 0 0.153612 0.391767 0 0 0.361412 
node 1 1 1 3
node 2 2 1 1
node 3 2 1 1
node 4 2 0 2
node 9 1 0 0
node 29 1 0 0
gene 1 1 4 -2.41067 0 1 -2.41067 1
gene 1 2 4 3.37531 0 2 3.37531 1
gene 1 3 4 -3.90501 0 3 -3.90501 1
gene 1 3 9 6.22545 0 12 6.22545 1
gene 1 9 4 0.730752 0 13 0.730752 1
gene 1 9 29 0.134826 0 67 0.134826 1
gene 1 29 4 -3.26255 0 68 -3.26255 1
gene 3 3 29 -1.23332 0 150 -1.23332 1
genomeend 59

/* Organism #60 Fitness: 8.94205 Error: 1.00967 */
genomestart 60
trait 1 0.1 0 0 0.186182 0 0 0 0 
trait 2 0.2 0 0 0 0 0 0 0 
trait 3 0.335351 0 0 0.153612 0.391767 0 0 0.361412 
node 1 1 1 3
node 2 2 1 1
node 3 2 1 1
node 4 2 0 2
node 9 1 0 0
node 29 1 0 0
gene 1 1 4 -2.32131 0 1 -2.32131 1
gene 1 2 4 3.62973 0 2 3.62973 1
gene 1 3 4 -2.81356 0 3 -2.81356 1
gene 1 3 9 6.58419 0 12 6.58419 1
gene 1 9 4 -0.892876 0 13 -0.892876 1
gene 1 9 29 -1.11842 0 67 -1.11842 1
gene 1 29 4 1.3056 0 68 1.3056 1
gene 3 3 29 -2.80487 0 150 -2.80487 1
genomeend 60

/* Organism #61 Fitness: 8.99946 Error: 1.00009 */
genomestart 61
trait 1 0.1 0 0 0.186182 0 0 0 0 
trait 2 0.2 0 0 0 0 0 0 0 
trait 3 0.335351 0 0 0.153612 0.391767 0 0 0.361412 
node 1 1 1 3
node 2 2 1 1
node 3 2 1 1
node 4 2 0 2
node 9 1 0 0
node 29 1 0 0
gene 1 1 4 -2.32131 0 1 -2.32131 1
gene 1 2 4 4.6787 0 2 4.6787 1
gene 1 3 4 -3.94992 0 3 -3.94992 1
gene 1 3 9 6.58419 0 12 6.58419 1
gene 1 9 4 -0.373534 0 13 -0.373534 1
gene 1 9 29 -2.7885 0 67 -2.7885 1
gene 1 29 4 2.90396 0 68 2.90396 1
gene 3 3 29 -1.23332 0 150 -1.23332 1
genomeend 61

/* Organism #62 Fitness: 3.92774 Error: 2.01815 */
genomestart 62
trait 1 0.1 0 0 0.186182 0 0 0 0 
trait 2 0.2 0 0 0 0 0 0 0 
trait 3 0.335351 0 0 0.153612 0.391767 0 0 0.361412 
node 1 1 1 3
node 2 2 1 1
node 3 2 1 1
node 4 2 0 2
node 9 1 0 0
node 29 1 0 0
gene 1 1 4 1.42846 0 1 1.42846 1
gene 1 2 4 3.49053 0 2 3.49053 1
gene 1 3 4 -5.11195 0 3 -5.11195 1
gene 1 3 9 8 0 12 8 1
gene 1 9 4 -0.57955 0 13 -0.57955 1
gene 1 9 29 -3.44961 0 67 -3.44961 1
gene 1 29 4 2.46068 0 68 2.46068 1
gene 3 3 29 -0.871516 0 150 -0.871516 1
genomeend 62

/* Organism #63 Fitness: 8.53069 Error: 1.07927 */
genomestart 63
trait 1 0.1 0 0 0.186182 0 0 0 0 
trait 2 0.2 0 0 0 0 0 0 0 
trait 3 0.335351 0 0 0.153612 0.391767 0 0 0.361412 
node 1 1 1 3
node 2 2 1 1
node 3 2 1 1
node 4 2 0 2
node 9 1 0 0
node 29 1 0 0
node 63 1 0 0
gene 1 1 4 -2.32131 0 1 -2.32131 1
gene 1 2 4 4.6787 0 2 4.6787 1
gene 1 3 4 -3.94992 0 3 -3.94992 1
gene 1 3 9 6.58419 0 12 6.58419 1
gene 1 9 4 -0.373534 0 13 -0.373534 1
gene 1 9 29 -2.7885 0 67 -2.7885 1
gene 1 29 4 2.90396 0 68 2.90396 0
gene 3 3 29 -1.23332 0 150 -1.23332 1
gene 1 29 63 1 0 189 0 1
gene 1 63 4 2.90396 0 190 0 1
genomeend 63

/* Organism #64 Fitness: 8.99861 Error: 1.00023 */
genomestart 64
trait 1 0.1 0 0 0.186182 0 0 0 0 
trait 2 0.2 0 0 0 0 0 0 0 
trait 3 0.335351 0 0 0.153612 0.391767 0 0 0.361412 
node 1 1 1 3
node 2 2 1 1
node 3 2 1 1
node 4 2 0 2
node 9 1 0 0
node 29 1 0 0
gene 1 1 4 -2.32131 0 1 -2.32131 1
gene 1 2 4 4.02701 0 2 4.02701 1
gene 1 3 4 -3.8673 0 3 -3.8673 1
gene 1 3 9 7.29209 0 12 7.29209 1
gene 1 9 4 0.0757281 0 13 0.0757281 1
gene 1 9 29 -1.95228 0 67 -1.95228 1
gene 1 29 4 0.415542 0 68 0.415542 1
gene 3 3 29 -0.967958 0 150 -0.967958 1
genomeend 64

/* Organism #65 Fitness: 3.84045 Error: 2.04029 */
genomestart 65
trait 1 0 0 0.882704 0.186182 0.554246 0 0 0.928396 
trait 2 0.2 0 0 0 0 0 0 0 
trait 3 0.335351 0 0 0.153612 0.391767 0 0 0.361412 
node 1 1 1 3
node 2 2 1 1
node 3 2 1 1
node 4 2 0 2
node 9 1 0 0
node 29 1 0 0
gene 1 1 4 -1.0013 0 1 -1.0013 1
gene 1 2 4 -1.504 0 2 -1.504 1
gene 1 3 4 -1.56718 0 3 -1.56718 1
gene 1 3 9 7.24165 0 12 7.24165 1
gene 1 9 4 0.728794 0 13 0.728794 1
gene 1 9 29 -1.52948 0 67 -1.52948 1
gene 1 29 4 -0.273847 0 68 -0.273847 1
gene 3 3 29 -0.702599 0 150 -0.702599 1
genomeend 65

/* Organism #66 Fitness: 7.17641 Error: 1.32112 */
genomestart 66
trait 1 0.1 0 0 0.186182 0 0 0 0 
trait 2 0.2 0 0 0 0 0 0 0 
trait 3 0.335351 0 0 0.153612 0.391767 0 0 0.361412 
node 1 1 1 3
node 2 2 1 1
node 3 2 1 1
node 4 2 0 2
node 9 1 0 0
node 29 1 0 0
gene 1 1 4 -0.0405064 0 1 -0.0405064 1
gene 1 2 4 2.64535 0 2 2.64535 1
gene 1 3 4 -5.65866 0 3 -5.65866 1
gene 1 3 9 6.93227 0 12 6.93227 1
gene 1 9 4 -0.220112 0 13 -0.220112 1
gene 1 9 29 -3.19216 0 67 -3.19216 1
gene 1 29 4 -3.81419 0 68 -3.81419 1
gene 3 3 29 -0.533615 0 150 -0.533615 1
genomeend 66

/* Species #9 : (Size 7) (AF 7.63157) (Age 13)  */


/* Organism #67 Fitness: 9.0811 Error: 0.986513 */
genomestart 67
trait 1 0.49375 0 0 0 0 0 0 0 
trait 2 0.2 0 0 0 0 0 0 0 
trait 3 0.335351 0.105402 0.106196 0.0768059 0.695883 0.41096 0 0.361412 
node 1 1 1 3
node 2 2 1 1
node 3 2 1 1
node 4 1 0 2
node 9 1 0 0
node 30 1 0 0
gene 1 1 4 -2.07064 0 1 -2.07064 1
gene 1 2 4 1.32202 0 2 1.32202 1
gene 1 3 4 -0.179739 0 3 -0.179739 1
gene 1 3 9 4.44138 0 12 4.44138 0
gene 1 9 4 4.65664 0 13 4.65664 1
gene 2 1 9 -4.33993 0 32 -4.33993 1
gene 2 2 9 -3.12853 0 62 -3.12853 1
gene 1 3 30 5.24717 0 69 5.24717 1
gene 1 30 9 4.62247 0 70 4.62247 1
gene 2 2 30 -0.318485 0 112 -0.318485 1
genomeend 67

/* Organism #68 Fitness: 8.44036 Error: 1.09477 */
genomestart 68
trait 1 0.49375 0 0 0 0 0 0 0 
trait 2 0.2 0 0 0 0 0 0 0 
trait 3 0.335351 0.105402 0.106196 0.0768059 0.695883 0.41096 0 0.361412 
node 1 1 1 3
node 2 2 1 1
node 3 2 1 1
node 4 1 0 2
node 9 1 0 0
node 30 1 0 0
gene 1 1 4 -0.459119 0 1 -0.459119 1
gene 1 2 4 2.50605 0 2 2.50605 1
gene 1 3 4 2.09913 0 3 2.09913 1
gene 1 3 9 2.32605 0 12 2.32605 0
gene 1 9 4 6.56987 0 13 6.56987 1
gene 2 1 9 -4.40772 0 32 -4.40772 1
gene 2 2 9 -1.2409 0 62 -1.2409 1
gene 2 3 30 6.16052 0 69 6.16052 1
gene 1 30 9 2.77309 0 70 2.77309 1
gene 2 2 30 -0.533413 0 112 -0.533413 1
genomeend 68

/* Organism #69 Fitness: 7.02775 Error: 1.34901 */
genomestart 69
trait 1 0.49375 0 0 0 0 0 0 0 
trait 2 0.2 0 0 0 0 0 0 0 
trait 3 0.335351 0.105402 0.106196 0.0768059 0.695883 0.41096 0 0.361412 
node 1 1 1 3
node 2 2 1 1
node 3 2 1 1
node 4 1 0 2
node 9 1 0 0
node 30 1 0 0
gene 1 1 4 -0.133122 0 1 -0.133122 1
gene 1 2 4 1.25769 0 2 1.25769 1
gene 1 3 4 1.2897 0 3 1.2897 1
gene 1 3 9 6.87903 0 12 6.87903 0
gene 1 9 4 5.66805 0 13 5.66805 1
gene 2 1 9 -6.19978 0 32 -6.19978 1
gene 2 2 9 -1.6686 0 62 -1.6686 1
gene 1 3 30 7.00755 0 69 7.00755 1
gene 1 30 9 2.985 0 70 2.985 1
gene 2 2 30 -2.02028 0 112 -2.02028 1
genomeend 69

/* Organism #70 Fitness: 15.1226 Error: 0.111216 */
/* ##------$ WINNER 70 SPECIES #9 $------## */
genomestart 70
trait 1 0.49375 0 0 0 0 0 0 0 
trait 2 0.2 0 0 0 0 0 0 0 
trait 3 0.335351 0.105402 0.106196 0.0768059 0.695883 0.41096 0 0.361412 
node 1 1 1 3
node 2 2 1 1
node 3 2 1 1
node 4 1 0 2
node 9 1 0 0
node 30 1 0 0
gene 1 1 4 -0.469625 0 1 -0.469625 1
gene 1 2 4 2.32908 0 2 2.32908 1
gene 1 3 4 -2.64673 0 3 -2.64673 1
gene 1 3 9 3.95998 0 12 3.95998 0
gene 1 9 4 4.65664 0 13 4.65664 1
gene 2 1 9 -5.07656 0 32 -5.07656 1
gene 2 2 9 -5.22268 0 62 -5.22268 1
gene 1 3 30 2.82604 0 69 2.82604 1
gene 1 30 9 6.44124 0 70 6.44124 1
gene 2 2 30 1.49001 0 112 1.49001 1
genomeend 70

/* Organism #71 Fitness: 4.20544 Error: 1.94928 */
genomestart 71
trait 1 0.49375 0 0 0 0 0 0 0 
trait 2 0.2 0 0 0 0 0 0 0 
trait 3 0.335351 0.105402 0.106196 0.0768059 0.695883 0.41096 0 0.361412 
node 1 1 1 3
node 2 2 1 1
node 3 2 1 1
node 4 1 0 2
node 9 1 0 0
node 30 1 0 0
gene 1 1 4 -0.337286 0 1 -0.337286 1
gene 1 2 4 0.67805 0 2 0.67805 1
gene 1 3 4 -0.155531 0 3 -0.155531 1
gene 1 3 9 0.411509 0 12 0.411509 0
gene 1 9 4 3.89084 0 13 3.89084 1
gene 2 1 9 -5.94142 0 32 -5.94142 1
gene 2 2 9 -2.75971 0 62 -2.75971 1
gene 1 3 30 7.61994 0 69 7.61994 1
gene 1 30 9 3.15159 0 70 3.15159 1
gene 2 2 30 0.171628 0 112 0.171628 1
genomeend 71

/* Organism #72 Fitness: 5.54369 Error: 1.6455 */
genomestart 72
trait 1 0.49375 0 0 0 0 0 0 0 
trait 2 0.2 0 0 0 0 0 0 0 
trait 3 0.335351 0.105402 0.106196 0.0768059 0.695883 0.41096 0 0.361412 
node 1 1 1 3
node 2 2 1 1
node 3 2 1 1
node 4 1 0 2
node 9 1 0 0
node 30 1 0 0
gene 1 1 4 -2.92989 0 1 -2.92989 1
gene 1 2 4 2.80825 0 2 2.80825 1
gene 1 3 4 -1.8307 0 3 -1.8307 1
gene 1 3 9 5.26678 0 12 5.26678 0
gene 1 9 4 4.88559 0 13 4.88559 1
gene 2 1 9 -5.43475 0 32 -5.43475 1
gene 2 2 9 -0.94974 0 62 -0.94974 1
gene 1 3 30 7.25014 0 69 7.25014 1
gene 1 30 9 3.45932 0 70 3.45932 1
gene 2 2 30 -0.169105 0 112 -0.169105 1
genomeend 72

/* Organism #73 Fitness: 4 Error: 2 */
genomestart 73
trait 1 0.49375 0 0 0 0 0 0 0 
trait 2 0.2 0 0 0 0 0 0 0 
trait 3 0.335351 0.105402 0.106196 0.0768059 0.695883 0.41096 0 0.361412 
node 1 1 1 3
node 2 2 1 1
node 3 2 1 1
node 4 1 0 2
node 9 1 0 0
node 30 1 0 0
gene 1 1 4 0.743719 0 1 0.743719 1
gene 1 2 4 1.32202 0 2 1.32202 1
gene 1 3 4 2.27786 0 3 2.27786 1
gene 1 3 9 5.54107 0 12 5.54107 0
gene 1 9 4 3.32388 0 13 3.32388 1
gene 2 1 9 0.311313 0 32 0.311313 1
gene 2 2 9 1.63016 0 62 1.63016 1
gene 1 3 30 5.24717 0 69 5.24717 1
gene 1 30 9 1.84294 0 70 1.84294 1
gene 2 2 30 0.672471 0 112 0.672471 1
genomeend 73

/* Species #10 : (Size 10) (AF 6.32764) (Age 13)  */


/* Organism #74 Fitness: 9 Error: 1 */
genomestart 74
trait 1 0.121128 0 0.0047338 0 0.0426149 0 0 0 
trait 2 0.175 0 0 0 0 0 0 0 
trait 3 0.292099 0 0 0.0464297 0.391767 0 0 0.361412 
node 1 1 1 3
node 2 2 1 1
node 3 2 1 1
node 4 1 0 2
node 9 1 0 0
node 17 1 0 0
node 21 1 0 0
gene 1 1 4 -2.09755 0 1 -2.09755 1
gene 1 2 4 0.0101351 0 2 0.0101351 1
gene 1 3 4 2.22464 0 3 2.22464 1
gene 1 3 9 5.65629 0 12 5.65629 0
gene 1 9 4 0.334057 0 13 0.334057 1
gene 2 1 9 -0.297457 0 18 -0.297457 1
gene 1 3 17 3.68529 0 29 3.68529 1
gene 1 17 9 2.00382 0 30 2.00382 1
gene 3 17 4 -4.37193 0 35 -4.37193 1
gene 1 2 21 2.32075 0 43 2.32075 1
gene 1 21 4 8 0 44 8 1
gene 1 21 9 2.04844 0 57 2.04844 1
gene 3 3 21 -1.52114 0 64 -1.52114 1
gene 3 1 21 -1.98741 0 76 -1.98741 1
gene 1 2 9 -0.207173 0 138 -0.207173 1
gene 1 2 17 -0.171874 0 175 -0.171874 1
genomeend 74

/* Organism #75 Fitness: 1.89111 Error: 2.62482 */
genomestart 75
trait 1 0.121128 0 0.00394483 0 0.0355124 0 0 0 
trait 2 0.1625 0 0 0 0 0 0 0 
trait 3 0.292099 0 0 0.0464297 0.391767 0 0 0.361412 
node 1 1 1 3
node 2 2 1 1
node 3 2 1 1
node 4 1 0 2
node 9 1 0 0
node 17 1 0 0
node 21 1 0 0
gene 1 1 4 -2.06647 0 1 -2.06647 1
gene 1 2 4 -2.21921 0 2 -2.21921 0
gene 1 3 4 2.51198 0 3 2.51198 1
gene 1 3 9 5.46217 0 12 5.46217 0
gene 1 9 4 -0.236424 0 13 -0.236424 1
gene 2 1 9 -0.643508 0 18 -0.643508 1
gene 1 3 17 -0.424485 0 29 -0.424485 1
gene 1 17 9 2.11989 0 30 2.11989 1
gene 3 17 4 -5.66829 0 35 -5.66829 1
gene 1 2 21 0.120816 0 43 0.120816 1
gene 1 21 4 8 0 44 8 1
gene 1 21 9 3.2515 0 57 3.2515 1
gene 3 3 21 -0.13044 0 64 -0.13044 1
gene 3 1 21 -1.98741 0 76 -1.98741 1
gene 1 2 9 -0.241102 0 138 -0.241102 1
gene 1 2 17 -0.770706 0 175 -0.770706 1
genomeend 75

/* Organism #76 Fitness: 9 Error: 1 */
genomestart 76
trait 1 0.121128 0 0.00315587 0 0.0284099 0 0 0 
trait 2 0.15 0 0 0 0 0 0 0 
trait 3 0.292099 0 0.860197 0.530109 0 0 0 0.640285 
node 1 1 1 3
node 2 2 1 1
node 3 2 1 1
node 4 1 0 2
node 9 1 0 0
node 17 1 0 0
node 21 1 0 0
gene 1 1 4 -1.86998 0 1 -1.86998 1
gene 1 2 4 -0.509756 0 2 -0.509756 0
gene 1 3 4 3.19505 0 3 3.19505 1
gene 1 3 9 4.46105 0 12 4.46105 0
gene 1 9 4 0.771836 0 13 0.771836 1
gene 2 1 9 1.70102 0 18 1.70102 1
gene 1 3 17 1.68813 0 29 1.68813 1
gene 1 17 9 3.78097 0 30 3.78097 1
gene 3 17 4 -4.47676 0 35 -4.47676 1
gene 1 2 21 1.97317 0 43 1.97317 1
gene 1 21 4 8 0 44 8 1
gene 1 21 9 3.59574 0 57 3.59574 1
gene 3 3 21 1.71187 0 64 1.71187 1
gene 3 1 21 -1.33095 0 76 -1.33095 1
gene 1 2 9 0.791864 0 138 0.791864 1
gene 1 2 17 -1.24634 0 175 -1.24634 1
genomeend 76

/* Organism #77 Fitness: 9 Error: 1 */
genomestart 77
trait 1 0.121128 0 0.00315587 0 0.0284099 0 0 0 
trait 2 0.15 0 0 0 0 0 0 0 
trait 3 0.292099 0 0 0.0464297 0.391767 0 0 0.361412 
node 1 1 1 3
node 2 2 1 1
node 3 2 1 1
node 4 1 0 2
node 9 1 0 0
node 17 1 0 0
node 21 1 0 0
gene 1 1 4 -2.29846 0 1 -2.29846 1
gene 1 2 4 -0.485688 0 2 -0.485688 0
gene 1 3 4 2.51198 0 3 2.51198 1
gene 1 3 9 5.30238 0 12 5.30238 0
gene 1 9 4 0.280011 0 13 0.280011 1
gene 2 1 9 -0.643508 0 18 -0.643508 1
gene 1 3 17 2.70895 0 29 2.70895 1
gene 1 17 9 2.11989 0 30 2.11989 1
gene 3 17 4 -4.47676 0 35 -4.47676 1
gene 1 2 21 1.80989 0 43 1.80989 1
gene 1 21 4 8 0 44 8 1
gene 1 21 9 2.10475 0 57 2.10475 1
gene 3 3 21 -1.46754 0 64 -1.46754 1
gene 3 1 21 -1.43257 0 76 -1.43257 1
gene 1 2 9 -0.568326 0 138 -0.568326 1
gene 1 2 17 -0.171874 0 175 -0.171874 1
genomeend 77

/* Organism #78 Fitness: 4 Error: 2 */
genomestart 78
trait 1 0.121128 0 0.00394483 0 0.0355124 0 0 0 
trait 2 0.1625 0 0 0 0 0 0 0 
trait 3 0.292099 0 0 0.0464297 0.391767 0 0 0.361412 
node 1 1 1 3
node 2 2 1 1
node 3 2 1 1
node 4 1 0 2
node 9 1 0 0
node 17 1 0 0
node 21 1 0 0
gene 1 1 4 -3.41523 0 1 -3.41523 1
gene 1 2 4 0.424489 0 2 0.424489 0
gene 1 3 4 0.343699 0 3 0.343699 1
gene 1 3 9 3.27867 0 12 3.27867 0
gene 1 9 4 -2.01438 0 13 -2.01438 1
gene 2 1 9 1.29254 0 18 1.29254 1
gene 1 3 17 2.27404 0 29 2.27404 1
gene 1 17 9 4.30959 0 30 4.30959 1
gene 3 17 4 -5.45137 0 35 -5.45137 1
gene 1 2 21 2.21879 0 43 2.21879 1
gene 1 21 4 8 0 44 8 1
gene 1 21 9 -0.135466 0 57 -0.135466 1
gene 3 3 21 -0.848621 0 64 -0.848621 1
gene 3 1 21 -4.11873 0 76 -4.11873 1
gene 1 2 9 -0.387749 0 138 -0.387749 1
gene 1 2 17 0.384922 0 175 0.384922 1
genomeend 78

/* Organism #79 Fitness: 4.31895 Error: 1.92179 */
genomestart 79
trait 1 0.121128 0 0.00394483 0 0.0355124 0 0 0 
trait 2 0.1625 0 0 0 0 0 0 0 
trait 3 0.292099 0 0 0.0464297 0.391767 0 0 0.361412 
node 1 1 1 3
node 2 2 1 1
node 3 2 1 1
node 4 1 0 2
node 9 1 0 0
node 17 1 0 0
node 21 1 0 0
gene 1 1 4 -1.40281 0 1 -1.40281 1
gene 1 2 4 1.00973 0 2 1.00973 0
gene 1 3 4 4.60285 0 3 4.60285 1
gene 1 3 9 4.67494 0 12 4.67494 0
gene 1 9 4 -1.53845 0 13 -1.53845 1
gene 2 1 9 1.38115 0 18 1.38115 1
gene 1 3 17 4.58426 0 29 4.58426 1
gene 1 17 9 4.27444 0 30 4.27444 1
gene 3 17 4 -4.80568 0 35 -4.80568 1
gene 1 2 21 3.90674 0 43 3.90674 1
gene 1 21 4 8 0 44 8 1
gene 1 21 9 0.80969 0 57 0.80969 1
gene 3 3 21 -2.26461 0 64 -2.26461 1
gene 3 1 21 -1.70999 0 76 -1.70999 1
gene 1 2 9 0.727174 0 138 0.727174 1
gene 1 2 17 1.03869 0 175 1.03869 1
genomeend 79

/* Organism #80 Fitness: 4 Error: 2 */
genomestart 80
trait 1 0.121128 0 0.0047338 0 0.0426149 0 0 0 
trait 2 0.175 0 0 0 0 0 0 0 
trait 3 0.292099 0 0 0.0464297 0.391767 0 0 0.361412 
node 1 1 1 3
node 2 2 1 1
node 3 2 1 1
node 4 1 0 2
node 9 1 0 0
node 17 1 0 0
node 21 1 0 0
gene 1 1 4 -2.96596 0 1 -2.96596 1
gene 1 2 4 -1.99922 0 2 -1.99922 1
gene 1 3 4 3.36432 0 3 3.36432 1
gene 1 3 9 5.50162 0 12 5.50162 0
gene 1 9 4 0.417157 0 13 0.417157 1
gene 2 1 9 -1.16076 0 18 -1.16076 1
gene 1 3 17 4.11027 0 29 4.11027 1
gene 1 17 9 4.15271 0 30 4.15271 1
gene 3 17 4 -4.97311 0 35 -4.97311 1
gene 1 2 21 1.54871 0 43 1.54871 1
gene 1 21 4 8 0 44 8 1
gene 1 21 9 4.03523 0 57 4.03523 1
gene 3 3 21 -1.57438 0 64 -1.57438 1
gene 3 1 21 -2.90396 0 76 -2.90396 1
gene 1 2 9 0.186592 0 138 0.186592 1
gene 1 2 17 0.452245 0 175 0.452245 1
genomeend 80

/* Organism #81 Fitness: 9 Error: 1 */
genomestart 81
trait 1 0.121128 0 0.00394483 0 0.0355124 0 0 0 
trait 2 0.1625 0 0 0 0 0 0 0 
trait 3 0.292099 0 0 0.0464297 0.391767 0 0 0.361412 
node 1 1 1 3
node 2 2 1 1
node 3 2 1 1
node 4 1 0 2
node 9 1 0 0
node 17 1 0 0
node 21 1 0 0
gene 1 1 4 -2.29846 0 1 -2.29846 1
gene 1 2 4 0.0101351 0 2 0.0101351 1
gene 1 3 4 2.51198 0 3 2.51198 1
gene 1 3 9 5.65629 0 12 5.65629 0
gene 1 9 4 0.334057 0 13 0.334057 1
gene 2 1 9 -0.297457 0 18 -0.297457 1
gene 1 3 17 2.70895 0 29 2.70895 1
gene 1 17 9 2.11989 0 30 2.11989 1
gene 3 17 4 -4.47676 0 35 -4.47676 1
gene 1 2 21 2.32075 0 43 2.32075 1
gene 1 21 4 8 0 44 8 1
gene 1 21 9 2.10475 0 57 2.10475 1
gene 3 3 21 -1.46754 0 64 -1.46754 1
gene 3 1 21 -1.43257 0 76 -1.43257 1
gene 1 2 9 -0.568326 0 138 -0.568326 1
gene 1 2 17 -0.171874 0 175 -0.171874 1
genomeend 81

/* Organism #82 Fitness: 4.06633 Error: 1.98349 */
genomestart 82
trait 1 0.121128 0 0.00315587 0 0.0284099 0 0 0 
trait 2 0.15 0 0 0 0 0 0 0 
trait 3 0.292099 0 0 0.0464297 0.391767 0 0 0.361412 
node 1 1 1 3
node 2 2 1 1
node 3 2 1 1
node 4 1 0 2
node 9 1 0 0
node 17 1 0 0
node 21 1 0 0
gene 1 1 4 -2.29846 0 1 -2.29846 1
gene 1 2 4 -0.175397 0 2 -0.175397 0
gene 1 3 4 2.91887 0 3 2.91887 1
gene 1 3 9 4.01393 0 12 4.01393 0
gene 1 9 4 0.157279 0 13 0.157279 1
gene 2 1 9 0.866747 0 18 0.866747 1
gene 1 3 17 -1.31432 0 29 -1.31432 1
gene 1 17 9 0.607745 0 30 0.607745 1
gene 3 17 4 -4.47676 0 35 -4.47676 1
gene 1 2 21 -0.493411 0 43 -0.493411 1
gene 1 21 4 5.97904 0 44 5.97904 1
gene 1 21 9 3.70234 0 57 3.70234 1
gene 3 3 21 -1.46754 0 64 -1.46754 1
gene 3 1 21 -0.737575 0 76 -0.737575 1
gene 1 2 9 1.76393 0 138 1.76393 1
gene 1 2 17 0.59403 0 175 0.59403 1
genomeend 82

/* Organism #83 Fitness: 9 Error: 1 */
genomestart 83
trait 1 0.121128 0 0.00315587 0 0.0284099 0 0 0 
trait 2 0.15 0 0 0 0 0 0 0 
trait 3 0.292099 0 0 0.0464297 0.391767 0 0 0.361412 
node 1 1 1 3
node 2 2 1 1
node 3 2 1 1
node 4 1 0 2
node 9 1 0 0
node 17 1 0 0
node 21 1 0 0
gene 1 1 4 -2.29846 0 1 -2.29846 1
gene 1 2 4 -0.485688 0 2 -0.485688 0
gene 1 3 4 2.51198 0 3 2.51198 1
gene 1 3 9 5.30238 0 12 5.30238 0
gene 1 9 4 0.280011 0 13 0.280011 1
gene 2 1 9 -0.643508 0 18 -0.643508 1
gene 1 3 17 2.70895 0 29 2.70895 1
gene 1 17 9 2.11989 0 30 2.11989 1
gene 3 17 4 -4.47676 0 35 -4.47676 1
gene 1 2 21 1.80989 0 43 1.80989 1
gene 1 21 4 8 0 44 8 1
gene 1 21 9 2.10475 0 57 2.10475 1
gene 3 3 21 -1.46754 0 64 -1.46754 1
gene 3 1 21 -1.43257 0 76 -1.43257 1
gene 1 2 9 -0.568326 0 138 -0.568326 1
gene 1 2 17 -0.171874 0 175 -0.171874 1
genomeend 83

/* Species #11 : (Size 7) (AF 4.73417) (Age 11)  */


/* Organism #84 Fitness: 8.99963 Error: 1.00006 */
genomestart 84
trait 1 0.1 0 0 0 0 0 0 0 
trait 2 0.2 0 0 0 0 0 0 0 
trait 3 0.292099 0 0 0.0464297 0.391767 0 0 0.361412 
node 1 1 1 3
node 2 2 1 1
node 3 2 1 1
node 4 1 0 2
node 9 1 0 0
node 17 1 0 0
node 21 1 0 0
node 36 1 0 0
gene 1 1 4 -4.71851 0 1 -4.71851 1
gene 1 2 4 0.0765119 0 2 0.0765119 0
gene 1 3 4 -3.13471 0 3 -3.13471 0
gene 1 3 9 4.47586 0 12 4.47586 0
gene 1 9 4 4.88299 0 13 4.88299 1
gene 2 1 9 2.39545 0 18 2.39545 1
gene 1 3 17 0.468967 0 29 0.468967 1
gene 1 17 9 -6.25422 0 30 -6.25422 1
gene 1 17 4 1.22423 0 35 1.22423 1
gene 1 2 21 4.50955 0 43 4.50955 0
gene 1 21 4 3.79115 0 44 3.79115 1
gene 1 21 9 3.69333 0 57 3.69333 1
gene 1 2 36 -0.689596 0 90 -0.689596 1
gene 1 36 21 -2.06945 0 91 -2.06945 1
genomeend 84

/* Organism #85 Fitness: 3.99998 Error: 2 */
genomestart 85
trait 1 0.1 0 0 0 0 0 0 0 
trait 2 0.2 0 0 0 0 0 0 0 
trait 3 0.292099 0 0 0.0464297 0.391767 0 0 0.361412 
node 1 1 1 3
node 2 2 1 1
node 3 2 1 1
node 4 1 0 2
node 9 1 0 0
node 17 1 0 0
node 21 1 0 0
node 36 1 0 0
gene 1 1 4 1.86542 0 1 1.86542 1
gene 1 2 4 -0.976619 0 2 -0.976619 0
gene 1 3 4 -1.46918 0 3 -1.46918 0
gene 1 3 9 3.98819 0 12 3.98819 0
gene 1 9 4 1.04475 0 13 1.04475 1
gene 2 1 9 0.00984914 0 18 0.00984914 1
gene 1 3 17 -0.31175 0 29 -0.31175 1
gene 1 17 9 -4.33716 0 30 -4.33716 1
gene 1 17 4 3.23625 0 35 3.23625 1
gene 1 2 21 0.383223 0 43 0.383223 0
gene 1 21 4 0.296803 0 44 0.296803 1
gene 1 21 9 1.12154 0 57 1.12154 1
gene 1 2 36 -2.08101 0 90 -2.08101 1
gene 1 36 21 -1.51787 0 91 -1.51787 1
genomeend 85

/* Organism #86 Fitness: 4 Error: 2 */
genomestart 86
trait 1 0.1 0 0 0 0 0 0 0 
trait 2 0.2 0 0 0 0 0 0 0 
trait 3 0.292099 0 0 0.0464297 0.391767 0 0 0.382962 
node 1 1 1 3
node 2 2 1 1
node 3 2 1 1
node 4 1 0 2
node 9 1 0 0
node 17 1 0 0
node 21 1 0 0
node 36 1 0 0
gene 1 1 4 -2.54528 0 1 -2.54528 1
gene 1 2 4 -1.06358 0 2 -1.06358 0
gene 1 3 4 -2.11652 0 3 -2.11652 0
gene 1 3 9 4.63539 0 12 4.63539 0
gene 1 9 4 2.83011 0 13 2.83011 1
gene 2 1 9 1.02357 0 18 1.02357 1
gene 1 3 17 1.32257 0 29 1.32257 1
gene 1 17 9 -5.22224 0 30 -5.22224 1
gene 1 17 4 3.17738 0 35 3.17738 1
gene 1 2 21 2.64286 0 43 2.64286 0
gene 1 21 4 1.89853 0 44 1.89853 1
gene 1 21 9 5.34237 0 57 5.34237 1
gene 1 2 36 0.512329 0 90 0.512329 1
gene 1 36 21 1.52795 0 91 1.52795 1
genomeend 86

/* Organism #87 Fitness: 3.99953 Error: 2.00012 */
genomestart 87
trait 1 0.1 0 0 0 0 0 0 0 
trait 2 0.2 0 0 0 0 0 0 0 
trait 3 0.292099 0 0 0.0464297 0.391767 0 0 0.361412 
node 1 1 1 3
node 2 2 1 1
node 3 2 1 1
node 4 1 0 2
node 9 1 0 0
node 17 1 0 0
node 21 2 0 0
node 36 1 0 0
gene 1 1 4 -7.02114 0 1 -7.02114 1
gene 1 2 4 1.77508 0 2 1.77508 0
gene 1 3 4 2.90823 0 3 2.90823 0
gene 1 3 9 6.16303 0 12 6.16303 0
gene 1 9 4 3.67537 0 13 3.67537 1
gene 2 1 9 1.01712 0 18 1.01712 1
gene 1 3 17 2.64095 0 29 2.64095 1
gene 1 17 9 -7.04737 0 30 -7.04737 1
gene 1 17 4 2.04716 0 35 2.04716 1
gene 1 2 21 -2.84239 0 43 -2.84239 0
gene 1 21 4 3.61468 0 44 3.61468 1
gene 1 21 9 0.968274 0 57 0.968274 1
gene 1 2 36 0.499801 0 90 0.499801 1
gene 1 36 21 2.09117 0 91 2.09117 1
genomeend 87

/* Organism #88 Fitness: 4.1217 Error: 1.9698 */
genomestart 88
trait 1 0.1 0 0 0 0 0 0 0 
trait 2 0.2 0 0 0 0 0 0 0 
trait 3 0.292099 0 0 0.0464297 0.391767 0 0 0.361412 
node 1 1 1 3
node 2 2 1 1
node 3 2 1 1
node 4 1 0 2
node 9 1 0 0
node 17 1 0 0
node 21 1 0 0
node 36 1 0 0
gene 1 1 4 -5.91388 0 1 -5.91388 1
gene 1 2 4 -1.60273 0 2 -1.60273 0
gene 1 3 4 -3.56485 0 3 -3.56485 0
gene 1 3 9 6.21434 0 12 6.21434 0
gene 1 9 4 3.95183 0 13 3.95183 1
gene 2 1 9 -0.0693013 0 18 -0.0693013 1
gene 1 3 17 -2.04753 0 29 -2.04753 1
gene 1 17 9 -7.03202 0 30 -7.03202 1
gene 1 17 4 3.01716 0 35 3.01716 1
gene 1 2 21 -1.47123 0 43 -1.47123 0
gene 1 21 4 4.7511 0 44 4.7511 1
gene 1 21 9 3.70682 0 57 3.70682 1
gene 1 2 36 -1.95709 0 90 -1.95709 1
gene 1 36 21 0.544893 0 91 0.544893 1
genomeend 88

/* Organism #89 Fitness: 4.01836 Error: 1.99542 */
genomestart 89
trait 1 0.1 0 0 0 0 0 0 0 
trait 2 0.2 0 0 0 0 0 0 0 
trait 3 0.292099 0 0 0.0464297 0.391767 0 0 0.361412 
node 1 1 1 3
node 2 2 1 1
node 3 2 1 1
node 4 1 0 2
node 9 1 0 0
node 17 1 0 0
node 21 1 0 0
node 36 1 0 0
gene 1 1 4 -4.71851 0 1 -4.71851 1
gene 1 2 4 -1.85293 0 2 -1.85293 0
gene 1 3 4 0.951652 0 3 0.951652 0
gene 1 3 9 2.58165 0 12 2.58165 0
gene 1 9 4 1.02307 0 13 1.02307 1
gene 2 1 9 2.39545 0 18 2.39545 1
gene 1 3 17 0.468967 0 29 0.468967 1
gene 1 17 9 -4.91376 0 30 -4.91376 1
gene 1 17 4 1.98284 0 35 1.98284 1
gene 1 2 21 -2.45806 0 43 -2.45806 0
gene 1 21 4 3.79115 0 44 3.79115 1
gene 1 21 9 3.45005 0 57 3.45005 1
gene 1 2 36 -0.674585 0 90 -0.674585 1
gene 1 36 21 -0.41146 0 91 -0.41146 1
genomeend 89

/* Organism #90 Fitness: 4 Error: 2 */
genomestart 90
trait 1 0.1 0 0 0 0 0 0 0 
trait 2 0.2 0 0 0 0 0 0 0 
trait 3 0.292099 0 0 0.0464297 0.391767 0 0 0.361412 
node 1 1 1 3
node 2 2 1 1
node 3 2 1 1
node 4 1 0 2
node 9 1 0 0
node 17 1 0 0
node 21 1 0 0
node 36 1 0 0
gene 1 1 4 -3.38664 0 1 -3.38664 1
gene 1 2 4 -3.4088 0 2 -3.4088 0
gene 1 3 4 -2.20098 0 3 -2.20098 0
gene 1 3 9 2.58165 0 12 2.58165 0
gene 1 9 4 -0.569731 0 13 -0.569731 1
gene 2 1 9 1.6961 0 18 1.6961 1
gene 1 3 17 -0.573802 0 29 -0.573802 1
gene 1 17 9 -7.8485 0 30 -7.8485 1
gene 1 17 4 2.03808 0 35 2.03808 1
gene 1 2 21 3.2946 0 43 3.2946 0
gene 1 21 4 1.56509 0 44 1.56509 1
gene 1 21 9 1.28418 0 57 1.28418 1
gene 1 2 36 1.61431 0 90 1.61431 1
gene 1 36 21 -1.69654 0 91 -1.69654 1
genomeend 90

/* Species #13 : (Size 11) (AF 7.21114) (Age 9)  */


/* Organism #91 Fitness: 9 Error: 1 */
genomestart 91
trait 1 0.240568 0.0116173 0.0415559 0 0 0 0 0 
trait 2 0.2 0 0 0 0 0 0 0 
trait 3 0.292099 0 0 0.0464297 0.391767 0 0 0.361412 
node 1 3 1 3
node 2 2 1 1
node 3 2 1 1
node 4 1 0 2
node 9 1 0 0
node 17 1 0 0
node 31 1 0 0
gene 1 1 4 -3.71708 0 1 -3.71708 1
gene 1 2 4 7.22788 0 2 7.22788 1
gene 1 3 4 -7.16714 0 3 -7.16714 1
gene 1 3 9 -0.939977 0 12 -0.939977 0
gene 1 9 4 -0.0934531 0 13 -0.0934531 1
gene 2 1 9 -6.98929 0 18 -6.98929 1
gene 1 3 17 2.78816 0 29 2.78816 1
gene 1 17 9 3.14928 0 30 3.14928 1
gene 3 2 17 2.06248 0 47 2.06248 1
gene 1 3 31 -2.4614 0 72 -2.4614 1
gene 1 31 17 0.804231 0 73 0.804231 1
gene 3 2 9 0.708757 0 108 0.708757 1
genomeend 91

/* Organism #92 Fitness: 9 Error: 1 */
genomestart 92
trait 1 0.237396 0.0111526 0.0429694 0 0 0 0 0 
trait 2 0.2 0 0 0 0 0 0 0 
trait 3 0.292099 0 0 0.0464297 0.391767 0 0 0.361412 
node 1 3 1 3
node 2 2 1 1
node 3 2 1 1
node 4 1 0 2
node 9 1 0 0
node 17 1 0 0
node 31 1 0 0
gene 1 1 4 -3.43407 0 1 -3.43407 1
gene 1 2 4 7.8923 0 2 7.8923 1
gene 1 3 4 -7.66608 0 3 -7.66608 1
gene 1 3 9 1.64999 0 12 1.64999 0
gene 1 9 4 1.79006 0 13 1.79006 1
gene 2 1 9 -8 0 18 -8 1
gene 1 3 17 2.35189 0 29 2.35189 1
gene 1 17 9 1.20339 0 30 1.20339 1
gene 3 2 17 -0.6602 0 47 -0.6602 1
gene 1 3 31 -1.04157 0 72 -1.04157 1
gene 1 31 17 1.89988 0 73 1.89988 1
gene 3 2 9 -1.51243 0 108 -1.51243 1
genomeend 92

/* Organism #93 Fitness: 9 Error: 1 */
genomestart 93
trait 1 0.238982 0.011385 0.0422627 0 0 0 0 0 
trait 2 0.2 0 0 0 0 0 0 0 
trait 3 0.292099 0 0 0.0464297 0.391767 0 0 0.361412 
node 1 3 1 3
node 2 2 1 1
node 3 2 1 1
node 4 1 0 2
node 9 1 0 0
node 17 1 0 0
node 31 1 0 0
gene 1 1 4 -3.7187 0 1 -3.7187 1
gene 1 2 4 8 0 2 8 1
gene 1 3 4 -8 0 3 -8 1
gene 1 3 9 0.736038 0 12 0.736038 0
gene 1 9 4 -2.52264 0 13 -2.52264 1
gene 2 1 9 -7.13041 0 18 -7.13041 1
gene 1 3 17 4.79076 0 29 4.79076 1
gene 1 17 9 4.67359 0 30 4.67359 1
gene 3 2 17 2.10132 0 47 2.10132 1
gene 1 3 31 -5.0502 0 72 -5.0502 1
gene 1 31 17 1.88806 0 73 1.88806 1
gene 3 2 9 0.699393 0 108 0.699393 1
genomeend 93

/* Organism #94 Fitness: 4.75769 Error: 1.81879 */
genomestart 94
trait 1 0.238982 0.011385 0.0422627 0 0 0 0 0 
trait 2 0.2 0 0 0 0 0 0 0 
trait 3 0.292099 0 0 0.0464297 0.391767 0 0 0.361412 
node 1 3 1 3
node 2 2 1 1
node 3 2 1 1
node 4 1 0 2
node 9 1 0 0
node 17 1 0 0
node 31 1 0 0
gene 1 1 4 -6.06522 0 1 -6.06522 1
gene 1 2 4 5.75895 0 2 5.75895 1
gene 1 3 4 -7.27883 0 3 -7.27883 1
gene 1 3 9 -3.11958 0 12 -3.11958 0
gene 1 9 4 -0.0828627 0 13 -0.0828627 1
gene 2 1 9 -5.79686 0 18 -5.79686 1
gene 1 3 17 2.67692 0 29 2.67692 1
gene 1 17 9 5.11933 0 30 5.11933 1
gene 3 2 17 -0.6602 0 47 -0.6602 1
gene 1 3 31 -4.08563 0 72 -4.08563 1
gene 1 31 17 -2.21784 0 73 -2.21784 1
gene 3 2 9 -2.17549 0 108 -2.17549 1
genomeend 94

/* Organism #95 Fitness: 9 Error: 1 */
genomestart 95
trait 1 0.240568 0.0116173 0.0415559 0 0 0 0 0 
trait 2 0.2 0 0 0 0 0 0 0 
trait 3 0.292099 0 0 0.0464297 0.391767 0 0 0.361412 
node 1 3 1 3
node 2 2 1 1
node 3 2 1 1
node 4 1 0 2
node 9 1 0 0
node 17 1 0 0
node 31 1 0 0
gene 1 1 4 -3.71708 0 1 -3.71708 1
gene 1 2 4 7.22788 0 2 7.22788 1
gene 1 3 4 -7.16714 0 3 -7.16714 1
gene 1 3 9 -0.939977 0 12 -0.939977 0
gene 1 9 4 -0.0934531 0 13 -0.0934531 1
gene 2 1 9 -6.98929 0 18 -6.98929 1
gene 1 3 17 2.78816 0 29 2.78816 1
gene 1 17 9 3.14928 0 30 3.14928 1
gene 3 2 17 2.06248 0 47 2.06248 1
gene 1 3 31 -2.4614 0 72 -2.4614 1
gene 1 31 17 0.804231 0 73 0.804231 1
gene 3 2 9 0.708757 0 108 0.708757 1
genomeend 95

/* Organism #96 Fitness: 4 Error: 2 */
genomestart 96
trait 1 0.237396 0.0111526 0.0429694 0 0 0 0 0 
trait 2 0.2 0 0 0 0 0 0 0 
trait 3 0.292099 0 0 0.0464297 0.391767 0 0 0.361412 
node 1 3 1 3
node 2 2 1 1
node 3 2 1 1
node 4 1 0 2
node 9 1 0 0
node 17 1 0 0
node 31 1 0 0
gene 1 1 4 1.69521 0 1 1.69521 1
gene 1 2 4 7.8923 0 2 7.8923 1
gene 1 3 4 2.46535 0 3 2.46535 1
gene 1 3 9 -1.02605 0 12 -1.02605 0
gene 1 9 4 1.79006 0 13 1.79006 1
gene 2 1 9 0.649045 0 18 0.649045 1
gene 1 3 17 0.849958 0 29 0.849958 1
gene 1 17 9 2.08397 0 30 2.08397 1
gene 3 2 17 -0.6602 0 47 -0.6602 1
gene 1 3 31 0.597362 0 72 0.597362 1
gene 1 31 17 -0.342784 0 73 -0.342784 1
gene 3 2 9 -1.51243 0 108 -1.51243 1
genomeend 96

/* Organism #97 Fitness: 9 Error: 1 */
genomestart 97
trait 1 0.237396 0.0111526 0.0429694 0 0 0 0 0 
trait 2 0.2 0 0 0 0 0 0 0 
trait 3 0.292099 0 0 0.0464297 0.391767 0 0 0.361412 
node 1 3 1 3
node 2 2 1 1
node 3 2 1 1
node 4 1 0 2
node 9 1 0 0
node 17 1 0 0
node 31 1 0 0
gene 1 1 4 -4.41568 0 1 -4.41568 1
gene 1 2 4 8 0 2 8 1
gene 1 3 4 -8 0 3 -8 1
gene 1 3 9 3.63982 0 12 3.63982 0
gene 1 9 4 3.63931 0 13 3.63931 1
gene 2 1 9 -7.70356 0 18 -7.70356 1
gene 1 3 17 3.69776 0 29 3.69776 1
gene 1 17 9 -0.465988 0 30 -0.465988 1
gene 3 2 17 -0.933889 0 47 -0.933889 1
gene 1 3 31 -2.6222 0 72 -2.6222 1
gene 1 31 17 3.38296 0 73 3.38296 1
gene 3 2 9 -2.14429 0 108 -2.14429 1
genomeend 97

/* Organism #98 Fitness: 4.00285 Error: 1.99929 */
genomestart 98
trait 1 0.237396 0.0111526 0.0429694 0 0 0 0 0 
trait 2 0.2 0 0 0 0 0 0 0 
trait 3 0.292099 0 0 0.0464297 0.391767 0 0 0.361412 
node 1 3 1 3
node 2 2 1 1
node 3 2 1 1
node 4 1 0 2
node 9 1 0 0
node 17 1 0 0
node 31 1 0 0
gene 1 1 4 -5.30437 0 1 -5.30437 1
gene 1 2 4 7.79981 0 2 7.79981 1
gene 1 3 4 -1.02539 0 3 -1.02539 1
gene 1 3 9 3.90473 0 12 3.90473 0
gene 1 9 4 -0.602237 0 13 -0.602237 1
gene 2 1 9 -8 0 18 -8 1
gene 1 3 17 6.07021 0 29 6.07021 1
gene 1 17 9 -2.23724 0 30 -2.23724 1
gene 3 2 17 -1.67315 0 47 -1.67315 1
gene 1 3 31 -0.811324 0 72 -0.811324 1
gene 1 31 17 1.72498 0 73 1.72498 1
gene 3 2 9 1.07914 0 108 1.07914 1
genomeend 98

/* Organism #99 Fitness: 8.99996 Error: 1.00001 */
genomestart 99
trait 1 0.238982 0.660949 0.223852 0 0.305939 0 0 0.0113376 
trait 2 0.2 0 0 0 0 0 0 0 
trait 3 0.292099 0 0 0.0464297 0.391767 0 0 0.361412 
node 1 3 1 3
node 2 2 1 1
node 3 2 1 1
node 4 1 0 2
node 9 1 0 0
node 17 1 0 0
node 31 1 0 0
gene 1 1 4 -2.55902 0 1 -2.55902 1
gene 1 2 4 8 0 2 8 1
gene 1 3 4 -8 0 3 -8 1
gene 1 3 9 -0.865123 0 12 -0.865123 0
gene 1 9 4 0.639055 0 13 0.639055 1
gene 2 1 9 -8 0 18 -8 1
gene 1 3 17 5.36999 0 29 5.36999 1
gene 1 17 9 1.9497 0 30 1.9497 1
gene 3 2 17 2.09938 0 47 2.09938 1
gene 2 3 31 -3.89518 0 72 -3.89518 1
gene 1 31 17 0.249694 0 73 0.249694 1
gene 3 2 9 1.23676 0 108 1.23676 1
genomeend 99

/* Organism #100 Fitness: 4 Error: 2 */
genomestart 100
trait 1 0.240568 0.0116173 0.0415559 0 0 0 0 0 
trait 2 0.2 0 0 0 0 0 0 0 
trait 3 0.292099 0 0 0.0464297 0.391767 0 0 0.361412 
node 1 3 1 3
node 2 1 1 1
node 3 2 1 1
node 4 1 0 2
node 9 1 0 0
node 17 1 0 0
node 31 1 0 0
gene 1 1 4 -4.13911 0 1 -4.13911 1
gene 1 2 4 -0.458924 0 2 -0.458924 1
gene 1 3 4 -5.84224 0 3 -5.84224 1
gene 1 3 9 -2.87808 0 12 -2.87808 0
gene 1 9 4 -2.37679 0 13 -2.37679 1
gene 2 1 9 -6.98929 0 18 -6.98929 1
gene 1 3 17 -2.32409 0 29 -2.32409 1
gene 1 17 9 -1.60593 0 30 -1.60593 1
gene 3 2 17 4.37381 0 47 4.37381 1
gene 1 3 31 -3.59072 0 72 -3.59072 1
gene 2 31 17 1.95112 0 73 1.95112 1
gene 3 2 9 -0.313337 0 108 -0.313337 1
genomeend 100

/* Organism #101 Fitness: 8.56208 Error: 1.0739 */
genomestart 101
trait 1 0.240568 0.0116173 0.0415559 0 0 0 0 0 
trait 2 0.2 0 0 0 0 0 0 0 
trait 3 0.292099 0 0 0.0464297 0.391767 0 0 0.361412 
node 1 3 1 3
node 2 2 1 1
node 3 2 1 1
node 4 1 0 2
node 9 1 0 0
node 17 1 0 0
node 31 1 0 0
gene 1 1 4 -1.76909 0 1 -1.76909 1
gene 1 2 4 7.22788 0 2 7.22788 1
gene 1 3 4 -5.97271 0 3 -5.97271 1
gene 1 3 9 -1.09727 0 12 -1.09727 0
gene 1 9 4 -0.181354 0 13 -0.181354 1
gene 2 1 9 -5.96364 0 18 -5.96364 1
gene 1 3 17 2.73955 0 29 2.73955 1
gene 1 17 9 3.33973 0 30 3.33973 1
gene 3 2 17 0.982761 0 47 0.982761 1
gene 1 3 31 -0.28466 0 72 -0.28466 1
gene 1 31 17 1.51414 0 73 1.51414 1
gene 3 2 9 0.708757 0 108 0.708757 1
genomeend 101

/* Species #14 : (Size 5) (AF 4.73933) (Age 8)  */


/* Organism #102 Fitness: 4.00049 Error: 1.99988 */
genomestart 102
trait 1 0.1 0 0 0 0 0 0 0 
trait 2 0.2 0 0 0 0 0 0 0 
trait 3 0.292099 0 0 0.0464297 0.391767 0 0 0.361412 
node 1 2 1 3
node 2 3 1 1
node 3 2 1 1
node 4 1 0 2
node 9 1 0 0
node 17 1 0 0
node 23 1 0 0
gene 1 1 4 -0.938867 0 1 -0.938867 1
gene 1 2 4 4.16891 0 2 4.16891 1
gene 1 3 4 0.281131 0 3 0.281131 0
gene 1 3 9 -2.39162 0 12 -2.39162 0
gene 1 9 4 -1.46592 0 13 -1.46592 1
gene 2 1 9 -2.31854 0 18 -2.31854 1
gene 1 3 17 -0.914178 0 29 -0.914178 0
gene 1 17 9 7.70651 0 30 7.70651 1
gene 1 17 4 -0.0937225 0 35 -0.0937225 1
gene 1 3 23 -0.723184 0 49 -0.723184 1
gene 1 23 17 0.342242 0 50 0.342242 1
gene 1 2 9 -0.932898 0 118 -0.932898 1
gene 1 1 17 -0.765117 0 178 -0.765117 1
genomeend 102

/* Organism #103 Fitness: 8.99913 Error: 1.00014 */
genomestart 103
trait 1 0.1 0 0 0 0 0 0 0 
trait 2 0.2 0 0 0 0 0 0 0 
trait 3 0.292099 0 0 0.0464297 0.391767 0 0 0.361412 
node 1 2 1 3
node 2 3 1 1
node 3 2 1 1
node 4 1 0 2
node 9 1 0 0
node 17 1 0 0
node 23 1 0 0
gene 1 1 4 -1.8238 0 1 -1.8238 1
gene 1 2 4 4.16891 0 2 4.16891 1
gene 1 3 4 1.61526 0 3 1.61526 0
gene 1 3 9 -3.25582 0 12 -3.25582 0
gene 1 9 4 -2.5369 0 13 -2.5369 1
gene 2 1 9 0.219268 0 18 0.219268 1
gene 1 3 17 -1.60174 0 29 -1.60174 0
gene 1 17 9 4.67519 0 30 4.67519 1
gene 1 17 4 -3.32573 0 35 -3.32573 1
gene 1 3 23 -0.917456 0 49 -0.917456 1
gene 1 23 17 -0.8745 0 50 -0.8745 1
gene 1 2 9 -1.71044 0 118 -1.71044 1
gene 1 1 17 0.0510896 0 178 0.0510896 1
genomeend 103

/* Organism #104 Fitness: 2.69529 Error: 2.35827 */
genomestart 104
trait 1 0.1 0 0 0 0 0 0 0 
trait 2 0.2 0 0 0 0 0 0 0 
trait 3 0.292099 0 0 0.0464297 0.391767 0 0 0.361412 
node 1 2 1 3
node 2 3 1 1
node 3 2 1 1
node 4 1 0 2
node 9 1 0 0
node 17 1 0 0
node 23 1 0 0
gene 1 1 4 -2.18273 0 1 -2.18273 1
gene 1 2 4 2.30342 0 2 2.30342 1
gene 1 3 4 3.00973 0 3 3.00973 0
gene 1 3 9 -3.50665 0 12 -3.50665 0
gene 1 9 4 -3.32602 0 13 -3.32602 1
gene 2 1 9 -1.37211 0 18 -1.37211 1
gene 1 3 17 0.345035 0 29 0.345035 0
gene 1 17 9 6.13572 0 30 6.13572 1
gene 1 17 4 -1.00195 0 35 -1.00195 1
gene 1 3 23 -2.69787 0 49 -2.69787 1
gene 1 23 17 -1.26006 0 50 -1.26006 1
gene 1 2 9 -1.71044 0 118 -1.71044 1
gene 1 1 17 -1.81911 0 178 -1.81911 1
gene 1 23 4 -0.613103 0 191 -0.613103 1
genomeend 104

/* Organism #105 Fitness: 4.00174 Error: 1.99957 */
genomestart 105
trait 1 0.1 0 0 0 0 0 0 0 
trait 2 0.2 0 0 0 0 0 0 0 
trait 3 0.292099 0 0 0.0464297 0.391767 0 0 0.361412 
node 1 2 1 3
node 2 3 1 1
node 3 2 1 1
node 4 1 0 2
node 9 1 0 0
node 17 1 0 0
node 23 1 0 0
gene 1 1 4 -2.18273 0 1 -2.18273 1
gene 1 2 4 2.30342 0 2 2.30342 1
gene 1 3 4 1.61526 0 3 1.61526 0
gene 1 3 9 -3.50665 0 12 -3.50665 0
gene 1 9 4 -3.32602 0 13 -3.32602 1
gene 2 1 9 0.219268 0 18 0.219268 1
gene 1 3 17 0.345035 0 29 0.345035 0
gene 1 17 9 4.67519 0 30 4.67519 1
gene 1 17 4 -3.32573 0 35 -3.32573 1
gene 1 3 23 -2.69787 0 49 -2.69787 1
gene 1 23 17 -0.8745 0 50 -0.8745 1
gene 1 2 9 -1.71044 0 118 -1.71044 1
gene 1 1 17 -1.81911 0 178 -1.81911 1
genomeend 105

/* Organism #106 Fitness: 4 Error: 2 */
genomestart 106
trait 1 0.1 0 0 0 0 0 0 0 
trait 2 0.2 0 0 0 0 0 0 0 
trait 3 0.292099 0 0 0.0464297 0.391767 0 0 0.361412 
node 1 2 1 3
node 2 3 1 1
node 3 2 1 1
node 4 1 0 2
node 9 1 0 0
node 17 1 0 0
node 23 1 0 0
gene 1 1 4 0.064966 0 1 0.064966 1
gene 1 2 4 5.61789 0 2 5.61789 1
gene 1 3 4 1.01287 0 3 1.01287 0
gene 1 3 9 -1.82267 0 12 -1.82267 0
gene 1 9 4 -3.21089 0 13 -3.21089 1
gene 2 1 9 -0.985368 0 18 -0.985368 1
gene 1 3 17 -3.1463 0 29 -3.1463 0
gene 1 17 9 3.85654 0 30 3.85654 1
gene 1 17 4 -1.21883 0 35 -1.21883 1
gene 1 3 23 0.813133 0 49 0.813133 1
gene 1 23 17 0.905454 0 50 0.905454 1
gene 1 2 9 -1.71044 0 118 -1.71044 1
gene 1 1 17 2.23736 0 178 2.23736 1
genomeend 106

/* Species #15 : (Size 9) (AF 5.37769) (Age 8)  */


/* Organism #107 Fitness: 8.9501 Error: 1.00833 */
genomestart 107
trait 1 0.1 0 0 0 0 0 0 0 
trait 2 0.2 0 0 0 0 0 0 0 
trait 3 0.292099 0 0 0.0464297 0.391767 0 0 0.361412 
node 1 1 1 3
node 2 3 1 1
node 3 2 1 1
node 4 1 0 2
node 9 1 0 0
node 17 1 0 0
node 23 1 0 0
node 43 1 0 0
node 59 1 0 0
gene 1 1 4 -0.73926 0 1 -0.73926 1
gene 1 2 4 3.76225 0 2 3.76225 1
gene 1 3 4 1.31304 0 3 1.31304 0
gene 1 3 9 -2.12688 0 12 -2.12688 0
gene 1 9 4 -2.5369 0 13 -2.5369 1
gene 2 1 9 -0.886556 0 18 -0.886556 1
gene 1 3 17 -1.60174 0 29 -1.60174 0
gene 1 17 9 3.00874 0 30 3.00874 1
gene 1 17 4 -3.32573 0 35 -3.32573 0
gene 1 3 23 -1.14138 0 49 -1.14138 0
gene 1 23 17 -0.8745 0 50 -0.8745 1
gene 1 3 43 1 0 121 0 1
gene 1 43 23 -1.14138 0 122 0 1
gene 1 1 23 0.297186 0 141 0.297186 1
gene 1 1 43 -0.28611 0 164 -0.28611 1
gene 1 17 59 1 0 180 0 1
gene 1 59 4 -3.32573 0 181 0 1
genomeend 107

/* Organism #108 Fitness: 6.57813 Error: 1.43521 */
genomestart 108
trait 1 0.1 0 0 0 0 0 0 0 
trait 2 0.2 0 0 0 0 0 0 0 
trait 3 0.292099 0 0 0.0464297 0.391767 0 0 0.361412 
node 1 1 1 3
node 2 3 1 1
node 3 2 1 1
node 4 1 0 2
node 9 1 0 0
node 17 1 0 0
node 23 1 0 0
node 43 1 0 0
node 59 1 0 0
node 61 1 0 0
gene 1 1 4 -0.73926 0 1 -0.73926 1
gene 1 2 4 3.76225 0 2 3.76225 0
gene 1 3 4 1.31304 0 3 1.31304 0
gene 1 3 9 -2.12688 0 12 -2.12688 1
gene 1 9 4 -2.5369 0 13 -2.5369 1
gene 2 1 9 -0.886556 0 18 -0.886556 1
gene 1 3 17 -1.60174 0 29 -1.60174 0
gene 1 17 9 3.00874 0 30 3.00874 1
gene 1 17 4 -3.32573 0 35 -3.32573 0
gene 1 3 23 -1.14138 0 49 -1.14138 1
gene 1 23 17 -0.8745 0 50 -0.8745 1
gene 1 3 43 1 0 121 0 1
gene 1 43 23 -1.14138 0 122 0 1
gene 1 1 23 0.297186 0 141 0.297186 1
gene 1 1 43 -0.28611 0 164 -0.28611 1
gene 1 17 59 1 0 180 0 1
gene 1 59 4 -3.32573 0 181 0 1
gene 1 2 61 1 0 184 0 1
gene 1 61 4 3.76225 0 185 0 1
genomeend 108

/* Organism #109 Fitness: 3.9846 Error: 2.00385 */
genomestart 109
trait 1 0.1 0 0 0 0 0 0 0 
trait 2 0.2 0 0 0 0 0 0 0 
trait 3 0.292099 0 0 0.0464297 0.391767 0 0 0.361412 
node 1 1 1 3
node 2 3 1 1
node 3 2 1 1
node 4 1 0 2
node 9 1 0 0
node 17 1 0 0
node 23 1 0 0
node 43 1 0 0
node 59 1 0 0
gene 1 1 4 -0.577735 0 1 -0.577735 1
gene 1 2 4 2.45364 0 2 2.45364 1
gene 1 3 4 1.91859 0 3 1.91859 0
gene 1 3 9 0.354506 0 12 0.354506 0
gene 1 9 4 -0.335523 0 13 -0.335523 1
gene 2 1 9 -2.82927 0 18 -2.82927 1
gene 1 3 17 -1.05916 0 29 -1.05916 1
gene 1 17 9 3.00874 0 30 3.00874 1
gene 1 17 4 -3.04133 0 35 -3.04133 0
gene 1 3 23 -2.21702 0 49 -2.21702 0
gene 1 23 17 -0.583979 0 50 -0.583979 1
gene 1 3 43 -1.13664 0 121 -1.13664 1
gene 1 43 23 -0.0301362 0 122 -0.0301362 1
gene 1 1 23 1.89501 0 141 1.89501 1
gene 1 1 43 0.726631 0 164 0.726631 1
gene 1 17 59 1 0 180 1 1
gene 1 59 4 0.161085 0 181 0.161085 1
genomeend 109

/* Organism #110 Fitness: 3.98994 Error: 2.00252 */
genomestart 110
trait 1 0.1 0 0 0 0 0 0 0 
trait 2 0.2 0 0 0 0 0 0 0 
trait 3 0.292099 0 0 0.0464297 0.391767 0 0 0.361412 
node 1 1 1 3
node 2 3 1 1
node 3 2 1 1
node 4 1 0 2
node 9 1 0 0
node 17 1 0 0
node 23 1 0 0
node 43 1 0 0
gene 1 1 4 -1.58197 0 1 -1.58197 1
gene 1 2 4 4.34081 0 2 4.34081 1
gene 1 3 4 0.393084 0 3 0.393084 0
gene 1 3 9 -0.884135 0 12 -0.884135 0
gene 1 9 4 -0.635853 0 13 -0.635853 1
gene 2 1 9 -0.886556 0 18 -0.886556 1
gene 1 3 17 -0.145675 0 29 -0.145675 0
gene 1 17 9 3.4151 0 30 3.4151 1
gene 1 17 4 -0.951444 0 35 -0.951444 1
gene 1 3 23 -1.0692 0 49 -1.0692 0
gene 1 23 17 1.10893 0 50 1.10893 1
gene 1 3 43 1.03133 0 121 1.03133 1
gene 1 43 23 -1.03201 0 122 -1.03201 1
gene 1 1 23 0.297186 0 141 0.297186 1
gene 1 1 43 -0.568209 0 164 -0.568209 1
genomeend 110

/* Organism #111 Fitness: 3.94638 Error: 2.01345 */
genomestart 111
trait 1 0.1 0 0 0 0 0 0 0 
trait 2 0.2 0 0 0 0 0 0 0 
trait 3 0.292099 0 0 0.0464297 0.391767 0 0 0.361412 
node 1 1 1 3
node 2 3 1 1
node 3 2 1 1
node 4 1 0 2
node 9 1 0 0
node 17 1 0 0
node 23 1 0 0
node 43 1 0 0
node 59 1 0 0
gene 1 1 4 -0.73926 0 1 -0.73926 1
gene 1 2 4 3.76225 0 2 3.76225 1
gene 1 3 4 1.31304 0 3 1.31304 0
gene 1 3 9 -2.12688 0 12 -2.12688 1
gene 1 9 4 -2.5369 0 13 -2.5369 1
gene 2 1 9 -0.886556 0 18 -0.886556 1
gene 1 3 17 -1.60174 0 29 -1.60174 1
gene 1 17 9 3.00874 0 30 3.00874 1
gene 1 17 4 -3.32573 0 35 -3.32573 1
gene 1 3 23 -1.14138 0 49 -1.14138 0
gene 1 23 17 -0.8745 0 50 -0.8745 1
gene 1 3 43 1 0 121 0 1
gene 1 43 23 -1.14138 0 122 0 1
gene 1 1 23 0.297186 0 141 0.297186 1
gene 1 1 43 -0.28611 0 164 -0.28611 1
gene 1 17 59 1 0 180 0 1
gene 1 59 4 -3.32573 0 181 0 1
gene 2 43 17 -0.252331 0 192 -0.252331 1
genomeend 111

/* Organism #112 Fitness: 4 Error: 2 */
genomestart 112
trait 1 0.1 0 0 0 0 0 0 0 
trait 2 0.2 0 0 0 0 0 0 0 
trait 3 0.292099 0 0 0.0464297 0.391767 0 0 0.361412 
node 1 1 1 3
node 2 3 1 1
node 3 2 1 1
node 4 1 0 2
node 9 1 0 0
node 17 1 0 0
node 23 1 0 0
node 43 1 0 0
node 59 1 0 0
gene 1 1 4 0.636623 0 1 0.636623 1
gene 1 2 4 -1.50335 0 2 -1.50335 1
gene 1 3 4 2.50211 0 3 2.50211 0
gene 1 3 9 -2.12688 0 12 -2.12688 0
gene 1 9 4 -0.41391 0 13 -0.41391 1
gene 2 1 9 0.810462 0 18 0.810462 1
gene 1 3 17 0.428972 0 29 0.428972 0
gene 1 17 9 3.59215 0 30 3.59215 1
gene 1 17 4 -1.87135 0 35 -1.87135 0
gene 1 3 23 -1.29012 0 49 -1.29012 0
gene 1 23 17 0.691752 0 50 0.691752 1
gene 1 3 43 -0.451514 0 121 -0.451514 1
gene 1 43 23 -1.45965 0 122 -1.45965 1
gene 1 1 23 2.5541 0 141 2.5541 1
gene 1 1 43 0.0328342 0 164 0.0328342 1
gene 1 17 59 1.16645 0 180 1.16645 1
gene 1 59 4 -3.32573 0 181 -3.32573 1
genomeend 112

/* Organism #113 Fitness: 8.9501 Error: 1.00833 */
genomestart 113
trait 1 0.1 0 0 0 0 0 0 0 
trait 2 0.2 0 0 0 0 0 0 0 
trait 3 0.292099 0 0 0.0464297 0.391767 0 0 0.361412 
node 1 1 1 3
node 2 3 1 1
node 3 2 1 1
node 4 1 0 2
node 9 1 0 0
node 17 1 0 0
node 23 1 0 0
node 43 1 0 0
node 59 1 0 0
gene 1 1 4 -0.73926 0 1 -0.73926 1
gene 1 2 4 3.76225 0 2 3.76225 1
gene 1 3 4 1.31304 0 3 1.31304 0
gene 1 3 9 -2.12688 0 12 -2.12688 0
gene 1 9 4 -2.5369 0 13 -2.5369 1
gene 2 1 9 -0.886556 0 18 -0.886556 1
gene 1 3 17 -1.60174 0 29 -1.60174 0
gene 1 17 9 3.00874 0 30 3.00874 1
gene 1 17 4 -3.32573 0 35 -3.32573 0
gene 1 3 23 -1.14138 0 49 -1.14138 0
gene 1 23 17 -0.8745 0 50 -0.8745 1
gene 1 3 43 1 0 121 0 1
gene 1 43 23 -1.14138 0 122 0 1
gene 1 1 23 0.297186 0 141 0.297186 1
gene 1 1 43 -0.28611 0 164 -0.28611 1
gene 1 17 59 1 0 180 0 1
gene 1 59 4 -3.32573 0 181 0 1
genomeend 113

/* Organism #114 Fitness: 4 Error: 2 */
genomestart 114
trait 1 0.1 0 0 0 0 0 0 0 
trait 2 0.2 0 0 0 0 0 0 0 
trait 3 0.292099 0 0 0.0464297 0.391767 0 0 0.361412 
node 1 1 1 3
node 2 3 1 1
node 3 2 1 1
node 4 1 0 2
node 9 1 0 0
node 17 1 0 0
node 23 1 0 0
node 43 1 0 0
gene 1 1 4 -3.07653 0 1 -3.07653 1
gene 1 2 4 4.83901 0 2 4.83901 1
gene 1 3 4 2.35762 0 3 2.35762 0
gene 1 3 9 -2.71967 0 12 -2.71967 0
gene 1 9 4 -2.75992 0 13 -2.75992 1
gene 2 1 9 -1.23562 0 18 -1.23562 1
gene 1 3 17 -1.17682 0 29 -1.17682 0
gene 1 17 9 2.60469 0 30 2.60469 1
gene 1 17 4 -2.29823 0 35 -2.29823 1
gene 1 3 23 -1.86936 0 49 -1.86936 0
gene 1 23 17 0.312713 0 50 0.312713 1
gene 1 3 43 -0.674092 0 121 -0.674092 1
gene 1 43 23 -2.79426 0 122 -2.79426 1
gene 1 1 23 -1.70477 0 141 -1.70477 1
gene 1 1 43 -1.82808 0 164 -1.82808 1
genomeend 114

/* Organism #115 Fitness: 4 Error: 2 */
genomestart 115
trait 1 0.1 0 0 0 0 0 0 0 
trait 2 0.2 0 0 0 0 0 0 0 
trait 3 0.292099 0 0 0.0464297 0.391767 0 0 0.361412 
node 1 1 1 3
node 2 3 1 1
node 3 2 1 1
node 4 1 0 2
node 9 1 0 0
node 17 1 0 0
node 23 1 0 0
node 43 1 0 0
node 59 1 0 0
gene 1 1 4 -2.18536 0 1 -2.18536 1
gene 1 2 4 5.57827 0 2 5.57827 1
gene 1 3 4 0.256048 0 3 0.256048 0
gene 1 3 9 -0.940021 0 12 -0.940021 0
gene 1 9 4 -4.60411 0 13 -4.60411 1
gene 2 1 9 1.40153 0 18 1.40153 1
gene 1 3 17 -3.54663 0 29 -3.54663 0
gene 1 17 9 5.46523 0 30 5.46523 1
gene 1 17 4 -4.63791 0 35 -4.63791 0
gene 1 3 23 -2.21468 0 49 -2.21468 0
gene 1 23 17 -1.94562 0 50 -1.94562 1
gene 1 3 43 -1.37299 0 121 -1.37299 1
gene 1 43 23 -0.707268 0 122 -0.707268 1
gene 1 1 23 1.85886 0 141 1.85886 1
gene 2 1 43 -0.28611 0 164 -0.28611 1
gene 1 17 59 1 0 180 1 1
gene 1 59 4 -1.55002 0 181 -1.55002 1
genomeend 115

/* Species #16 : (Size 9) (AF 7.78401) (Age 8)  */


/* Organism #116 Fitness: 8.99999 Error: 1 */
genomestart 116
trait 1 0.31354 0.0223052 0.00904619 0 0 0 0 0 
trait 2 0.2 0 0 0 0 0 0 0 
trait 3 0.292099 0 0 0.0464297 0.391767 0 0 0.361412 
node 1 3 1 3
node 2 2 1 1
node 3 2 1 1
node 4 1 0 2
node 9 1 0 0
node 17 1 0 0
node 31 1 0 0
gene 1 1 4 -1.41946 0 1 -1.41946 1
gene 1 2 4 5.16102 0 2 5.16102 1
gene 1 3 4 -4.83618 0 3 -4.83618 1
gene 1 3 9 -1.6122 0 12 -1.6122 0
gene 1 9 4 -4.04833 0 13 -4.04833 1
gene 2 1 9 -3.18337 0 18 -3.18337 1
gene 1 3 17 6.9661 0 29 6.9661 1
gene 1 17 9 -3.42574 0 30 -3.42574 1
gene 3 2 17 -2.93972 0 47 -2.93972 1
gene 1 3 31 -0.560608 0 72 -0.560608 1
gene 1 31 17 0.620428 0 73 0.620428 1
gene 3 1 31 1.77369 0 107 1.77369 1
gene 2 17 4 -1.68508 0 129 -1.68508 1
genomeend 116

/* Organism #117 Fitness: 2.1038 Error: 2.54955 */
genomestart 117
trait 1 0.31354 0.0223052 0.00904619 0 0 0 0 0 
trait 2 0.2 0 0 0 0 0 0 0 
trait 3 0.292099 0 0 0.0464297 0.391767 0 0 0.361412 
node 1 3 1 3
node 2 2 1 1
node 3 2 1 1
node 4 1 0 2
node 9 1 0 0
node 17 1 0 0
node 31 1 0 0
gene 1 1 4 0.749214 0 1 0.749214 1
gene 1 2 4 2.35495 0 2 2.35495 1
gene 1 3 4 -3.38654 0 3 -3.38654 1
gene 1 3 9 -1.6122 0 12 -1.6122 1
gene 1 9 4 2.1991 0 13 2.1991 1
gene 2 1 9 -4.60548 0 18 -4.60548 1
gene 1 3 17 8 0 29 8 1
gene 1 17 9 -1.61758 0 30 -1.61758 1
gene 3 2 17 -2.2479 0 47 -2.2479 1
gene 1 3 31 -0.358203 0 72 -0.358203 1
gene 1 31 17 -1.36799 0 73 -1.36799 1
gene 3 1 31 0.38761 0 107 0.38761 1
gene 2 17 4 0.342786 0 129 0.342786 1
genomeend 117

/* Organism #118 Fitness: 8.99995 Error: 1.00001 */
genomestart 118
trait 1 0.31354 0.0223052 0.00904619 0 0 0 0 0 
trait 2 0.2 0 0 0 0 0 0 0 
trait 3 0.292099 0 0 0.0464297 0.391767 0 0 0.361412 
node 1 3 1 3
node 2 2 1 1
node 3 2 1 1
node 4 1 0 2
node 9 1 0 0
node 17 1 0 0
node 31 1 0 0
gene 1 1 4 -0.882852 0 1 -0.882852 1
gene 1 2 4 4.43922 0 2 4.43922 1
gene 1 3 4 -4.0697 0 3 -4.0697 1
gene 1 3 9 -0.24537 0 12 -0.24537 0
gene 1 9 4 -3.72022 0 13 -3.72022 1
gene 2 1 9 -3.03291 0 18 -3.03291 1
gene 1 3 17 8 0 29 8 1
gene 1 17 9 -2.43189 0 30 -2.43189 1
gene 3 2 17 -2.58233 0 47 -2.58233 1
gene 1 3 31 -0.983306 0 72 -0.983306 1
gene 1 31 17 1.0079 0 73 1.0079 1
gene 3 1 31 1.77369 0 107 1.77369 1
gene 2 17 4 -1.87987 0 129 -1.87987 1
genomeend 118

/* Organism #119 Fitness: 8.99981 Error: 1.00003 */
genomestart 119
trait 1 0.31354 0.0223052 0.00904619 0 0 0 0 0 
trait 2 0.2 0 0 0 0 0 0 0 
trait 3 0.292099 0 0 0.0464297 0.391767 0 0 0.361412 
node 1 3 1 3
node 2 2 1 1
node 3 2 1 1
node 4 1 0 2
node 9 1 0 0
node 17 1 0 0
node 31 1 0 0
gene 1 1 4 -0.434845 0 1 -0.434845 1
gene 1 2 4 3.13074 0 2 3.13074 1
gene 1 3 4 -4.89488 0 3 -4.89488 1
gene 1 3 9 -0.535402 0 12 -0.535402 0
gene 1 9 4 -2.05026 0 13 -2.05026 1
gene 2 1 9 -5.01344 0 18 -5.01344 1
gene 1 3 17 4.99831 0 29 4.99831 1
gene 1 17 9 -2.89278 0 30 -2.89278 1
gene 3 2 17 -2.29472 0 47 -2.29472 1
gene 1 3 31 1.15428 0 72 1.15428 1
gene 1 31 17 1.31732 0 73 1.31732 1
gene 3 1 31 0.650207 0 107 0.650207 1
gene 2 17 4 -1.68508 0 129 -1.68508 1
gene 1 1 17 0.0510896 0 178 0 1
genomeend 119

/* Organism #120 Fitness: 8.99864 Error: 1.00023 */
genomestart 120
trait 1 0.31354 0.0223052 0.00904619 0 0 0 0 0 
trait 2 0.2 0 0 0 0 0 0 0 
trait 3 0.292099 0 0 0.0464297 0.391767 0 0 0.361412 
node 1 3 1 3
node 2 2 1 1
node 3 2 1 1
node 4 1 0 2
node 9 1 0 0
node 17 1 0 0
node 31 1 0 0
gene 1 1 4 0.698388 0 1 0.698388 1
gene 1 2 4 5.02062 0 2 5.02062 1
gene 1 3 4 -5.18632 0 3 -5.18632 1
gene 1 3 9 -1.79581 0 12 -1.79581 0
gene 1 9 4 -1.59572 0 13 -1.59572 1
gene 2 1 9 -4.06197 0 18 -4.06197 1
gene 1 3 17 3.98405 0 29 3.98405 1
gene 1 17 9 -4.00763 0 30 -4.00763 1
gene 3 2 17 -1.48293 0 47 -1.48293 1
gene 1 3 31 1.4914 0 72 1.4914 1
gene 1 31 17 3.57994 0 73 3.57994 1
gene 3 1 31 0.986932 0 107 0.986932 1
gene 2 17 4 -2.47635 0 129 -2.47635 1
gene 1 1 17 0.0510896 0 178 0.0510896 1
genomeend 120

/* Organism #121 Fitness: 8.99954 Error: 1.00008 */
genomestart 121
trait 1 0.31354 0.0223052 0.00904619 0 0 0 0 0 
trait 2 0.2 0 0 0 0 0 0 0 
trait 3 0.292099 0 0 0.0464297 0.391767 0 0 0.361412 
node 1 3 1 3
node 2 2 1 1
node 3 2 1 1
node 4 1 0 2
node 9 1 0 0
node 17 1 0 0
node 31 1 0 0
gene 1 1 4 -2.63656 0 1 -2.63656 1
gene 1 2 4 4.66976 0 2 4.66976 1
gene 1 3 4 -2.71365 0 3 -2.71365 1
gene 1 3 9 -1.34548 0 12 -1.34548 0
gene 1 9 4 -4.83603 0 13 -4.83603 1
gene 2 1 9 -0.825743 0 18 -0.825743 1
gene 1 3 17 8 0 29 8 1
gene 1 17 9 -1.93602 0 30 -1.93602 1
gene 3 2 17 -4.07175 0 47 -4.07175 1
gene 1 3 31 -0.0467415 0 72 -0.0467415 1
gene 1 31 17 -1.47923 0 73 -1.47923 1
gene 3 1 31 4.14007 0 107 4.14007 1
gene 2 17 4 -1.68508 0 129 -1.68508 1
genomeend 121

/* Organism #122 Fitness: 8.99976 Error: 1.00004 */
genomestart 122
trait 1 0.31354 0.0223052 0.00904619 0 0 0 0 0 
trait 2 0.2 0 0 0 0 0 0 0 
trait 3 0.292099 0 0 0.0464297 0.391767 0 0 0.361412 
node 1 3 1 3
node 2 2 1 1
node 3 2 1 1
node 4 2 0 2
node 9 1 0 0
node 17 1 0 0
node 31 1 0 0
gene 1 1 4 -1.8816 0 1 -1.8816 1
gene 1 2 4 4.32206 0 2 4.32206 1
gene 1 3 4 -2.89209 0 3 -2.89209 1
gene 1 3 9 1.70748 0 12 1.70748 0
gene 1 9 4 -1.32766 0 13 -1.32766 1
gene 2 1 9 -3.46049 0 18 -3.46049 1
gene 1 3 17 3.51426 0 29 3.51426 1
gene 1 17 9 -1.24893 0 30 -1.24893 1
gene 3 2 17 -4.56726 0 47 -4.56726 1
gene 1 3 31 3.30378 0 72 3.30378 1
gene 1 31 17 2.80688 0 73 2.80688 1
gene 3 1 31 1.63989 0 107 1.63989 1
gene 2 17 4 -1.68508 0 129 -1.68508 1
gene 1 1 17 1.33408 0 178 1.33408 1
gene 1 2 31 -0.712455 0 193 -0.712455 1
genomeend 122

/* Organism #123 Fitness: 4.96466 Error: 1.77185 */
genomestart 123
trait 1 0.31354 0.0223052 0.00904619 0 0 0 0 0 
trait 2 0.2 0 0 0 0 0 0 0 
trait 3 0.292099 0 0 0.0464297 0.391767 0 0 0.361412 
node 1 3 1 3
node 2 2 1 1
node 3 2 1 1
node 4 2 0 2
node 9 1 0 0
node 17 1 0 0
node 31 1 0 0
gene 1 1 4 -0.998169 0 1 -0.998169 1
gene 1 2 4 2.15456 0 2 2.15456 1
gene 1 3 4 -2.97848 0 3 -2.97848 1
gene 1 3 9 0.907323 0 12 0.907323 0
gene 1 9 4 1.15923 0 13 1.15923 1
gene 2 1 9 -1.88044 0 18 -1.88044 1
gene 1 3 17 1.56627 0 29 1.56627 1
gene 1 17 9 -3.60284 0 30 -3.60284 1
gene 3 2 17 -4.22552 0 47 -4.22552 1
gene 1 3 31 4.53499 0 72 4.53499 1
gene 1 31 17 0.707782 0 73 0.707782 1
gene 3 1 31 2.18064 0 107 2.18064 1
gene 2 17 4 -2.21272 0 129 -2.21272 1
gene 1 1 17 3.62974 0 178 3.62974 1
genomeend 123

/* Organism #124 Fitness: 8.98995 Error: 1.00167 */
genomestart 124
trait 1 0.31354 0.0223052 0.00904619 0 0 0 0 0 
trait 2 0.2 0 0 0 0 0 0 0 
trait 3 0.292099 0 0 0.0464297 0.391767 0 0 0.361412 
node 1 3 1 3
node 2 2 1 1
node 3 2 1 1
node 4 1 0 2
node 9 1 0 0
node 17 1 0 0
node 31 1 0 0
gene 1 1 4 -1.8816 0 1 -1.8816 1
gene 1 2 4 5.16102 0 2 5.16102 1
gene 1 3 4 -2.89209 0 3 -2.89209 1
gene 1 3 9 -1.6122 0 12 -1.6122 0
gene 1 9 4 -1.32766 0 13 -1.32766 1
gene 2 1 9 -3.18337 0 18 -3.18337 1
gene 1 3 17 6.9661 0 29 6.9661 1
gene 1 17 9 -3.42574 0 30 -3.42574 1
gene 3 2 17 -4.56726 0 47 -4.56726 1
gene 1 3 31 3.30378 0 72 3.30378 1
gene 1 31 17 2.80688 0 73 2.80688 1
gene 3 1 31 1.63989 0 107 1.63989 1
gene 2 17 4 -1.68508 0 129 -1.68508 1
genomeend 124

/* Species #17 : (Size 9) (AF 6.75277) (Age 7)  */


/* Organism #125 Fitness: 8.99972 Error: 1.00005 */
genomestart 125
trait 1 0.55 0 0 0 0 0 0 0 
trait 2 0.2 0 0 0 0 0 0 0 
trait 3 0.335351 0 0 0.153612 0.391767 0 0 0.361412 
node 1 1 1 3
node 2 2 1 1
node 3 2 1 1
node 4 1 0 2
node 9 1 0 0
node 30 1 0 0
node 47 1 0 0
gene 1 1 4 -2.36081 0 1 -2.36081 1
gene 1 2 4 5.9534 0 2 5.9534 1
gene 1 3 4 -2.92279 0 3 -2.92279 0
gene 1 3 9 4.9701 0 12 4.9701 1
gene 1 9 4 4.2502 0 13 4.2502 1
gene 2 1 9 -4.00011 0 32 -4.00011 1
gene 2 2 9 -4.89915 0 62 -4.89915 1
gene 1 3 30 5.56286 0 69 5.56286 1
gene 1 30 9 3.75509 0 70 3.75509 1
gene 3 2 30 -1.14042 0 125 -1.14042 1
gene 1 3 47 0.186688 0 136 0.186688 1
gene 1 47 4 0.39452 0 137 0.39452 1
genomeend 125

/* Organism #126 Fitness: 3.76699 Error: 2.05913 */
genomestart 126
trait 1 0.55 0 0 0 0 0 0 0 
trait 2 0.2 0 0 0 0 0 0 0 
trait 3 0.335351 0 0 0.153612 0.391767 0 0 0.361412 
node 1 1 1 3
node 2 2 1 1
node 3 2 1 1
node 4 1 0 2
node 9 2 0 0
node 30 1 0 0
node 47 1 0 0
gene 1 1 4 -4.17683 0 1 -4.17683 1
gene 1 2 4 4.46919 0 2 4.46919 1
gene 1 3 4 -3.62479 0 3 -3.62479 0
gene 1 3 9 -1.50945 0 12 -1.50945 0
gene 1 9 4 4.61771 0 13 4.61771 1
gene 2 1 9 0.616012 0 32 0.616012 1
gene 2 2 9 -4.62509 0 62 -4.62509 1
gene 1 3 30 6.13099 0 69 6.13099 1
gene 1 30 9 1.5635 0 70 1.5635 1
gene 3 2 30 1.40025 0 125 1.40025 1
gene 1 3 47 -1.15597 0 136 -1.15597 1
gene 1 47 4 -0.390241 0 137 -0.390241 1
genomeend 126

/* Organism #127 Fitness: 4.01274 Error: 1.99682 */
genomestart 127
trait 1 0.55 0 0 0 0 0 0 0 
trait 2 0.2 0 0 0 0 0 0 0 
trait 3 0.335351 0 0 0.153612 0.391767 0 0 0.361412 
node 1 1 1 3
node 2 2 1 1
node 3 2 1 1
node 4 1 0 2
node 9 1 0 0
node 30 1 0 0
node 47 1 0 0
gene 1 1 4 -2.79431 0 1 -2.79431 1
gene 1 2 4 7.77634 0 2 7.77634 1
gene 1 3 4 -0.0818954 0 3 -0.0818954 0
gene 1 3 9 4.9701 0 12 4.9701 0
gene 1 9 4 5.35366 0 13 5.35366 1
gene 2 1 9 -4.00011 0 32 -4.00011 1
gene 2 2 9 -3.78441 0 62 -3.78441 1
gene 1 3 30 6.69913 0 69 6.69913 1
gene 1 30 9 3.75509 0 70 3.75509 1
gene 3 2 30 1.55597 0 125 1.55597 1
gene 1 3 47 1.64565 0 136 1.64565 1
gene 1 47 4 0.39452 0 137 0.39452 1
genomeend 127

/* Organism #128 Fitness: 8.99979 Error: 1.00004 */
genomestart 128
trait 1 0.55 0 0 0 0 0 0 0 
trait 2 0.2 0 0 0 0 0 0 0 
trait 3 0.335351 0 0 0.153612 0.391767 0 0 0.361412 
node 1 1 1 3
node 2 2 1 1
node 3 2 1 1
node 4 1 0 2
node 9 1 0 0
node 30 1 0 0
node 47 1 0 0
gene 1 1 4 -2.28125 0 1 -2.28125 1
gene 1 2 4 6.91355 0 2 6.91355 1
gene 1 3 4 -0.475803 0 3 -0.475803 0
gene 1 3 9 5.59977 0 12 5.59977 1
gene 1 9 4 6.21312 0 13 6.21312 1
gene 2 1 9 -3.22743 0 32 -3.22743 1
gene 2 2 9 -3.78224 0 62 -3.78224 1
gene 1 3 30 5.75427 0 69 5.75427 1
gene 1 30 9 3.23692 0 70 3.23692 1
gene 3 2 30 -0.235577 0 125 -0.235577 1
gene 1 3 47 -0.665144 0 136 -0.665144 1
gene 1 47 4 0.39452 0 137 0.39452 1
genomeend 128

/* Organism #129 Fitness: 8.99915 Error: 1.00014 */
genomestart 129
trait 1 0.55 0 0 0 0 0 0 0 
trait 2 0.2 0 0 0 0 0 0 0 
trait 3 0.335351 0 0 0.153612 0.391767 0 0 0.361412 
node 1 1 1 3
node 2 2 1 1
node 3 2 1 1
node 4 1 0 2
node 9 1 0 0
node 30 1 0 0
node 47 1 0 0
gene 1 1 4 -3.47578 0 1 -3.47578 1
gene 1 2 4 7.25979 0 2 7.25979 1
gene 1 3 4 -1.34542 0 3 -1.34542 0
gene 1 3 9 5.26853 0 12 5.26853 1
gene 1 9 4 5.27453 0 13 5.27453 1
gene 2 1 9 -3.57429 0 32 -3.57429 1
gene 2 2 9 -4.44217 0 62 -4.44217 1
gene 1 3 30 0.723837 0 69 0.723837 1
gene 1 30 9 1.35918 0 70 1.35918 1
gene 3 2 30 -1.14042 0 125 -1.14042 1
gene 1 3 47 -2.12028 0 136 -2.12028 1
gene 1 47 4 0.39452 0 137 0.39452 1
genomeend 129

/* Organism #130 Fitness: 4 Error: 2 */
genomestart 130
trait 1 0.55 0 0 0 0 0 0 0 
trait 2 0.2 0 0 0 0 0 0 0 
trait 3 0.335351 0 0 0.153612 0.391767 0 0 0.361412 
node 1 1 1 3
node 2 2 1 1
node 3 2 1 1
node 4 1 0 2
node 9 1 0 0
node 30 1 0 0
node 47 1 0 0
gene 1 1 4 -0.13019 0 1 -0.13019 1
gene 1 2 4 7.32049 0 2 7.32049 1
gene 1 3 4 -1.87375 0 3 -1.87375 1
gene 1 3 9 4.57295 0 12 4.57295 0
gene 1 9 4 6.85202 0 13 6.85202 1
gene 2 1 9 -2.22069 0 32 -2.22069 1
gene 2 2 9 -3.08954 0 62 -3.08954 1
gene 1 3 30 6.00966 0 69 6.00966 1
gene 1 30 9 6.12592 0 70 6.12592 1
gene 3 2 30 -0.445292 0 125 -0.445292 1
gene 1 3 47 0.916167 0 136 0.916167 1
gene 1 47 4 1.40934 0 137 1.40934 1
genomeend 130

/* Organism #131 Fitness: 8.99993 Error: 1.00001 */
genomestart 131
trait 1 0.55 0 0 0 0 0 0 0 
trait 2 0.2 0 0 0 0 0 0 0 
trait 3 0.335351 0 0 0.153612 0.391767 0 0 0.361412 
node 1 1 1 3
node 2 2 1 1
node 3 2 1 1
node 4 1 0 2
node 9 1 0 0
node 30 1 0 0
node 47 1 0 0
gene 1 1 4 -2.57756 0 1 -2.57756 1
gene 1 2 4 6.86487 0 2 6.86487 1
gene 1 3 4 -1.50234 0 3 -1.50234 0
gene 1 3 9 4.27475 0 12 4.27475 0
gene 1 9 4 4.80193 0 13 4.80193 1
gene 2 1 9 -3.71996 0 32 -3.71996 1
gene 2 2 9 -4.34178 0 62 -4.34178 1
gene 1 3 30 6.13099 0 69 6.13099 1
gene 1 30 9 5.01338 0 70 5.01338 1
gene 3 2 30 0.207777 0 125 0.207777 1
gene 1 3 47 0.916167 0 136 0.916167 1
gene 1 47 4 0.39452 0 137 0.39452 1
genomeend 131

/* Organism #132 Fitness: 3.99681 Error: 2.0008 */
genomestart 132
trait 1 0.55 0 0 0 0 0 0 0 
trait 2 0.2 0 0 0 0 0 0 0 
trait 3 0.335351 0 0 0 0.464564 0.249005 0 0.391036 
node 1 1 1 3
node 2 1 1 1
node 3 2 1 1
node 4 1 0 2
node 9 1 0 0
node 30 1 0 0
node 47 1 0 0
gene 1 1 4 -4.98535 0 1 -4.98535 1
gene 1 2 4 6.86487 0 2 6.86487 1
gene 1 3 4 0.850622 0 3 0.850622 1
gene 1 3 9 3.18294 0 12 3.18294 1
gene 1 9 4 2.56486 0 13 2.56486 1
gene 2 1 9 -1.71853 0 32 -1.71853 1
gene 2 2 9 -2.93554 0 62 -2.93554 1
gene 1 3 30 -0.898946 0 69 -0.898946 1
gene 1 30 9 -2.18124 0 70 -2.18124 1
gene 3 2 30 0.366289 0 125 0.366289 1
gene 1 3 47 3.37421 0 136 3.37421 1
gene 1 47 4 -0.929323 0 137 -0.929323 1
genomeend 132

/* Organism #133 Fitness: 8.99983 Error: 1.00003 */
genomestart 133
trait 1 0.55 0 0 0 0 0 0 0 
trait 2 0.2 0 0 0 0 0 0 0 
trait 3 0.335351 0 0 0.153612 0.391767 0 0 0.361412 
node 1 1 1 3
node 2 2 1 1
node 3 2 1 1
node 4 1 0 2
node 9 1 0 0
node 30 1 0 0
node 47 1 0 0
gene 1 1 4 -3.69457 0 1 -3.69457 1
gene 1 2 4 4.94692 0 2 4.94692 1
gene 1 3 4 0.117889 0 3 0.117889 0
gene 1 3 9 4.50639 0 12 4.50639 0
gene 1 9 4 4.88945 0 13 4.88945 1
gene 2 1 9 -6.11124 0 32 -6.11124 1
gene 2 2 9 -4.96601 0 62 -4.96601 1
gene 1 3 30 3.15618 0 69 3.15618 1
gene 1 30 9 6.86372 0 70 6.86372 1
gene 3 2 30 0.621701 0 125 0.621701 1
gene 1 3 47 0.186688 0 136 0.186688 1
gene 1 47 4 1.84006 0 137 1.84006 1
genomeend 133

/* Species #19 : (Size 8) (AF 4.99738) (Age 5)  */


/* Organism #134 Fitness: 8.90298 Error: 1.01621 */
genomestart 134
trait 1 0.1 0 0 0 0 0 0 0 
trait 2 0.2 0 0 0 0 0 0 0 
trait 3 0.292099 0.500261 0 0.0464297 0.944888 0 0 0.361412 
node 1 1 1 3
node 2 2 1 1
node 3 2 1 1
node 4 1 0 2
node 9 1 0 0
node 17 1 0 0
node 23 1 0 0
gene 1 1 4 -0.664747 0 1 -0.664747 1
gene 1 2 4 2.63453 0 2 2.63453 1
gene 1 3 4 1.72209 0 3 1.72209 1
gene 1 3 9 4.70516 0 12 4.70516 0
gene 1 9 4 2.90047 0 13 2.90047 1
gene 2 1 9 -8 0 18 -8 1
gene 1 3 17 6.37073 0 29 6.37073 0
gene 1 17 9 3.48562 0 30 3.48562 1
gene 1 17 4 -5.01028 0 35 -5.01028 1
gene 1 3 23 5.99535 0 49 5.99535 1
gene 1 23 17 -1.17541 0 50 -1.17541 1
gene 3 2 17 -1.81809 0 58 -1.81809 1
genomeend 134

/* Organism #135 Fitness: 3.92181 Error: 2.01964 */
genomestart 135
trait 1 0.1 0 0 0 0 0 0 0 
trait 2 0.2 0 0 0 0 0 0 0 
trait 3 0.292099 0.500261 0 0.0464297 0.944888 0 0 0.361412 
node 1 1 1 3
node 2 2 1 1
node 3 2 1 1
node 4 1 0 2
node 9 1 0 0
node 17 1 0 0
node 23 1 0 0
gene 1 1 4 -0.844293 0 1 -0.844293 1
gene 1 2 4 -0.395744 0 2 -0.395744 1
gene 1 3 4 1.97227 0 3 1.97227 1
gene 1 3 9 6.50617 0 12 6.50617 0
gene 1 9 4 5.62465 0 13 5.62465 1
gene 2 1 9 -6.86194 0 18 -6.86194 1
gene 1 3 17 8 0 29 8 0
gene 1 17 9 0.793908 0 30 0.793908 1
gene 2 17 4 2.1808 0 35 2.1808 1
gene 1 3 23 6.07607 0 49 6.07607 1
gene 1 23 17 1.56995 0 50 1.56995 1
gene 3 2 17 -0.275602 0 58 -0.275602 1
genomeend 135

/* Organism #136 Fitness: 4.62302 Error: 1.84988 */
genomestart 136
trait 1 0.1 0 0 0 0 0 0 0 
trait 2 0.2 0 0 0 0 0 0 0 
trait 3 0.292099 0.500261 0 0.0464297 0.944888 0 0 0.361412 
node 1 1 1 3
node 2 2 1 1
node 3 2 1 1
node 4 1 0 2
node 9 1 0 0
node 17 1 0 0
node 23 1 0 0
gene 1 1 4 0.290902 0 1 0.290902 1
gene 1 2 4 2.07767 0 2 2.07767 1
gene 1 3 4 0.982934 0 3 0.982934 1
gene 1 3 9 4.70178 0 12 4.70178 1
gene 1 9 4 4.39853 0 13 4.39853 1
gene 2 1 9 -7.37348 0 18 -7.37348 1
gene 1 3 17 4.07232 0 29 4.07232 0
gene 1 17 9 3.89937 0 30 3.89937 1
gene 1 17 4 -5.10335 0 35 -5.10335 1
gene 1 3 23 8 0 49 8 1
gene 1 23 17 -0.153717 0 50 -0.153717 1
gene 3 2 17 -2.95606 0 58 -2.95606 1
genomeend 136

/* Organism #137 Fitness: 3.99997 Error: 2.00001 */
genomestart 137
trait 1 0.1 0 0 0 0 0 0 0 
trait 2 0.2 0 0 0 0 0 0 0 
trait 3 0.292099 0.500261 0 0.0464297 0.944888 0 0 0.361412 
node 1 1 1 3
node 2 2 1 1
node 3 2 1 1
node 4 1 0 2
node 9 1 0 0
node 17 1 0 0
node 23 1 0 0
gene 1 1 4 2.99651 0 1 2.99651 1
gene 1 2 4 -0.628847 0 2 -0.628847 1
gene 1 3 4 4.19542 0 3 4.19542 1
gene 1 3 9 2.05105 0 12 2.05105 1
gene 1 9 4 5.3219 0 13 5.3219 1
gene 2 1 9 -6.24172 0 18 -6.24172 1
gene 1 3 17 6.37654 0 29 6.37654 1
gene 1 17 9 2.10051 0 30 2.10051 1
gene 1 17 4 -3.191 0 35 -3.191 1
gene 1 3 23 8 0 49 8 1
gene 1 23 17 -2.20084 0 50 -2.20084 1
gene 3 2 17 -1.29793 0 58 -1.29793 1
genomeend 137

/* Organism #138 Fitness: 4.15005 Error: 1.96283 */
genomestart 138
trait 1 0.1 0 0 0 0 0 0 0 
trait 2 0.2 0 0 0 0 0 0 0 
trait 3 0.292099 0.500261 0 0.525806 1 0 0 0.0836579 
node 1 1 1 3
node 2 2 1 1
node 3 2 1 1
node 4 1 0 2
node 9 2 0 0
node 17 1 0 0
node 23 1 0 0
gene 1 1 4 -0.664747 0 1 -0.664747 1
gene 1 2 4 1.68474 0 2 1.68474 1
gene 1 3 4 1.72209 0 3 1.72209 1
gene 1 3 9 3.54648 0 12 3.54648 1
gene 1 9 4 3.92478 0 13 3.92478 1
gene 2 1 9 -8 0 18 -8 1
gene 1 3 17 6.37654 0 29 6.37654 0
gene 1 17 9 3.48562 0 30 3.48562 1
gene 1 17 4 -5.27368 0 35 -5.27368 1
gene 1 3 23 7.93589 0 49 7.93589 1
gene 1 23 17 -0.153717 0 50 -0.153717 1
gene 3 2 17 -3.51434 0 58 -3.51434 1
genomeend 138

/* Organism #139 Fitness: 6.33228 Error: 1.4836 */
genomestart 139
trait 1 0.1 0 0 0 0 0 0 0 
trait 2 0.2 0 0 0 0 0 0 0 
trait 3 0.292099 0.500261 0 0.0464297 0.944888 0 0 0.361412 
node 1 1 1 3
node 2 2 1 1
node 3 2 1 1
node 4 1 0 2
node 9 1 0 0
node 17 1 0 0
node 23 1 0 0
gene 1 1 4 0.220008 0 1 0.220008 1
gene 1 2 4 3.68739 0 2 3.68739 1
gene 1 3 4 2.24775 0 3 2.24775 1
gene 1 3 9 4.18355 0 12 4.18355 0
gene 1 9 4 2.82413 0 13 2.82413 1
gene 2 1 9 -6.59149 0 18 -6.59149 1
gene 1 3 17 3.99742 0 29 3.99742 0
gene 1 17 9 2.20491 0 30 2.20491 1
gene 1 17 4 -4.44889 0 35 -4.44889 1
gene 1 3 23 5.4351 0 49 5.4351 1
gene 1 23 17 -1.17541 0 50 -1.17541 1
gene 3 2 17 -0.761628 0 58 -0.761628 1
genomeend 139

/* Organism #140 Fitness: 4.02776 Error: 1.99307 */
genomestart 140
trait 1 0.1 0 0 0 0 0 0 0 
trait 2 0.2 0 0 0 0 0 0 0 
trait 3 0.292099 0.500261 0 0.0464297 0.944888 0 0 0.361412 
node 1 1 1 3
node 2 2 1 1
node 3 2 1 1
node 4 1 0 2
node 9 1 0 0
node 17 1 0 0
node 23 1 0 0
gene 1 1 4 3.83898 0 1 3.83898 1
gene 1 2 4 2.66876 0 2 2.66876 1
gene 1 3 4 0.649479 0 3 0.649479 1
gene 1 3 9 3.94346 0 12 3.94346 1
gene 1 9 4 3.48186 0 13 3.48186 1
gene 2 1 9 -6.05386 0 18 -6.05386 1
gene 1 3 17 4.69447 0 29 4.69447 0
gene 1 17 9 2.10051 0 30 2.10051 1
gene 1 17 4 -6.96482 0 35 -6.96482 1
gene 1 3 23 0.71376 0 49 0.71376 1
gene 1 23 17 -0.153717 0 50 -0.153717 1
gene 3 2 17 -5.11233 0 58 -5.11233 1
genomeend 140

/* Organism #141 Fitness: 4.02115 Error: 1.99472 */
genomestart 141
trait 1 0.1 0 0 0 0 0 0 0 
trait 2 0.2 0 0 0 0 0 0 0 
trait 3 0.292099 0.500261 0 0.0464297 0.944888 0 0 0.361412 
node 1 1 1 3
node 2 2 1 1
node 3 2 1 1
node 4 1 0 2
node 9 1 0 0
node 17 1 0 0
node 23 1 0 0
gene 1 1 4 1.08187 0 1 1.08187 1
gene 1 2 4 1.20187 0 2 1.20187 1
gene 1 3 4 5.04942 0 3 5.04942 1
gene 1 3 9 4.59751 0 12 4.59751 1
gene 1 9 4 4.68836 0 13 4.68836 1
gene 2 1 9 -6.57497 0 18 -6.57497 1
gene 1 3 17 7.50974 0 29 7.50974 0
gene 1 17 9 3.7235 0 30 3.7235 1
gene 1 17 4 -5.98129 0 35 -5.98129 1
gene 1 3 23 8 0 49 8 1
gene 1 23 17 -2.34311 0 50 -2.34311 1
gene 3 2 17 -3.51434 0 58 -3.51434 1
genomeend 141

/* Species #20 : (Size 8) (AF 5.13355) (Age 5)  */


/* Organism #142 Fitness: 8.93368 Error: 1.01107 */
genomestart 142
trait 1 0 0.192441 0 0 0.970897 0.979564 0 0 
trait 2 0.2 0 0 0 0 0 0 0 
trait 3 0.335351 0 0 0.153612 0.391767 0 0 0.361412 
node 1 1 1 3
node 2 2 1 1
node 3 2 1 1
node 4 1 0 2
node 9 1 0 0
node 30 1 0 0
gene 1 1 4 -1.66543 0 1 -1.66543 1
gene 1 2 4 -4.48294 0 2 -4.48294 1
gene 1 3 4 2.58282 0 3 2.58282 1
gene 2 3 9 2.82211 0 12 2.82211 0
gene 1 9 4 -0.248979 0 13 -0.248979 1
gene 2 1 9 -2.57524 0 32 -2.57524 1
gene 2 2 9 -0.039212 0 62 -0.039212 1
gene 1 3 30 -0.434934 0 69 -0.434934 1
gene 1 30 9 0.921351 0 70 0.921351 1
gene 3 2 30 -3.01463 0 125 -3.01463 1
genomeend 142

/* Organism #143 Fitness: 1.65548 Error: 2.71334 */
genomestart 143
trait 1 0 0.192441 0 0 0.970897 0.979564 0 0 
trait 2 0.2 0 0 0 0 0 0 0 
trait 3 0.335351 0 0 0.153612 0.391767 0 0 0.361412 
node 1 1 1 3
node 2 2 1 1
node 3 2 1 1
node 4 1 0 2
node 9 1 0 0
node 30 1 0 0
gene 1 1 4 0.341382 0 1 0.341382 1
gene 1 2 4 -1.22633 0 2 -1.22633 1
gene 1 3 4 -0.761905 0 3 -0.761905 1
gene 2 3 9 -2.24732 0 12 -2.24732 1
gene 1 9 4 2.80834 0 13 2.80834 1
gene 2 1 9 -2.68372 0 32 -2.68372 1
gene 2 2 9 1.95686 0 62 1.95686 1
gene 1 3 30 -1.26217 0 69 -1.26217 1
gene 1 30 9 1.78523 0 70 1.78523 1
gene 3 2 30 -3.75593 0 125 -3.75593 1
genomeend 143

/* Organism #144 Fitness: 5.07488 Error: 1.74725 */
genomestart 144
trait 1 0 0.192441 0 0 0.970897 0.979564 0 0 
trait 2 0.2 0 0 0 0 0 0 0 
trait 3 0.335351 0 0 0.153612 0.391767 0 0 0.361412 
node 1 1 1 3
node 2 2 1 1
node 3 2 1 1
node 4 1 0 2
node 9 1 0 0
node 30 1 0 0
gene 1 1 4 0.218793 0 1 0.218793 1
gene 1 2 4 -4.32809 0 2 -4.32809 1
gene 1 3 4 2.75174 0 3 2.75174 1
gene 2 3 9 2.35635 0 12 2.35635 0
gene 1 9 4 1.49222 0 13 1.49222 1
gene 2 1 9 -2.74513 0 32 -2.74513 1
gene 2 2 9 -2.30992 0 62 -2.30992 1
gene 1 3 30 0.572217 0 69 0.572217 1
gene 1 30 9 -0.561825 0 70 -0.561825 1
gene 3 2 30 -3.01463 0 125 -3.01463 1
genomeend 144

/* Organism #145 Fitness: 4.73215 Error: 1.82465 */
genomestart 145
trait 1 0 0.192441 0 0 0.970897 0.979564 0 0 
trait 2 0.2 0 0 0 0 0 0 0 
trait 3 0.335351 0 0 0.153612 0.391767 0 0 0.361412 
node 1 1 1 3
node 2 2 1 1
node 3 2 1 1
node 4 1 0 2
node 9 1 0 0
node 30 1 0 0
gene 1 1 4 -1.66543 0 1 -1.66543 1
gene 1 2 4 -5.14206 0 2 -5.14206 1
gene 1 3 4 1.35142 0 3 1.35142 1
gene 2 3 9 1.28027 0 12 1.28027 0
gene 1 9 4 -0.773995 0 13 -0.773995 1
gene 2 1 9 -4.73829 0 32 -4.73829 1
gene 2 2 9 -0.039212 0 62 -0.039212 1
gene 2 3 30 -0.947576 0 69 -0.947576 1
gene 1 30 9 0.921351 0 70 0.921351 1
gene 3 2 30 -2.41213 0 125 -2.41213 1
genomeend 145

/* Organism #146 Fitness: 8.84034 Error: 1.02673 */
genomestart 146
trait 1 0 0.192441 0 0 0.970897 0.979564 0 0 
trait 2 0.2 0 0 0 0 0 0 0 
