
/* Species #1 : (Size 16) (AF 8.00207) (Age 16)  */


/* Organism #0 Fitness: 9 Error: 1 */
genomestart 0
trait 1 0.1 0 0 0 0 0 0 0 
trait 2 0.2 0 0 0 0 0 0 0 
trait 3 0.3 0 0 0 0 0 0 0 
node 1 2 1 3
node 2 2 1 1
node 3 2 1 1
node 4 3 0 2
gene 2 1 4 -4.43332 0 1 -4.43332 1
gene 1 2 4 8 0 2 8 1
gene 2 3 4 8 0 3 8 1
genomeend 0

/* Organism #1 Fitness: 4.12127 Error: 1.96991 */
genomestart 1
trait 1 0.1 0 0 0 0 0 0 0 
trait 2 0.2 0 0 0 0 0 0 0 
trait 3 0.3 0 0 0 0 0 0 0 
node 1 2 1 3
node 2 2 1 1
node 3 2 1 1
node 4 3 0 2
node 43 1 0 0
gene 2 1 4 -3.29472 0 1 -3.29472 1
gene 3 2 4 8 0 2 8 0
gene 2 3 4 7.54379 0 3 7.54379 1
gene 3 2 43 1 0 130 0 1
gene 3 43 4 8 0 131 0 1
genomeend 1

/* Organism #2 Fitness: 8.99997 Error: 1.00001 */
genomestart 2
trait 1 0.1 0 0 0 0 0 0 0 
trait 2 0.2 0 0 0 0 0 0 0 
trait 3 0.3 0 0 0 0 0 0 0 
node 1 2 1 3
node 2 2 1 1
node 3 2 1 1
node 4 3 0 2
gene 2 1 4 -2.45655 0 1 -2.45655 1
gene 1 2 4 8 0 2 8 1
gene 2 3 4 8 0 3 8 1
genomeend 2

/* Organism #3 Fitness: 9 Error: 1 */
genomestart 3
trait 1 0.1 0 0 0 0 0 0 0 
trait 2 0.2 0 0 0 0 0 0 0 
trait 3 0.3 0 0 0 0 0 0 0 
node 1 2 1 3
node 2 3 1 1
node 3 2 1 1
node 4 3 0 2
gene 2 1 4 -3.35761 0 1 -3.35761 1
gene 3 2 4 8 0 2 8 1
gene 2 3 4 8 0 3 8 1
genomeend 3

/* Organism #4 Fitness: 7.92529 Error: 1.18481 */
genomestart 4
trait 1 0.1 0 0 0 0 0 0 0 
trait 2 0.2 0 0 0 0 0 0 0 
trait 3 0.3 0 0 0 0 0 0 0 
node 1 2 1 3
node 2 2 1 1
node 3 2 1 1
node 4 3 0 2
gene 2 1 4 -6.73752 0 1 -6.73752 1
gene 3 2 4 7.04159 0 2 7.04159 1
gene 2 3 4 8 0 3 8 1
genomeend 4

/* Organism #5 Fitness: 9 Error: 1 */
genomestart 5
trait 1 0.1 0 0 0 0 0 0 0 
trait 2 0.2 0 0 0 0 0 0 0 
trait 3 0.3 0 0 0 0 0 0 0 
node 1 2 1 3
node 2 2 1 1
node 3 2 1 1
node 4 3 0 2
gene 2 1 4 -4.38232 0 1 -4.38232 1
gene 1 2 4 7.81031 0 2 7.81031 1
gene 2 3 4 8 0 3 8 1
genomeend 5

/* Organism #6 Fitness: 9 Error: 1 */
genomestart 6
trait 1 0.1 0 0 0 0 0 0 0 
trait 2 0.2 0 0 0 0 0 0 0 
trait 3 0.3 0 0 0 0 0 0 0 
node 1 2 1 3
node 2 2 1 1
node 3 2 1 1
node 4 3 0 2
gene 2 1 4 -4.43332 0 1 -4.43332 1
gene 1 2 4 8 0 2 8 1
gene 2 3 4 8 0 3 8 1
genomeend 6

/* Organism #7 Fitness: 9 Error: 1 */
genomestart 7
trait 1 0.1 0 0 0 0 0 0 0 
trait 2 0.2 0 0 0 0 0 0 0 
trait 3 0.3 0 0 0 0 0 0 0 
node 1 2 1 3
node 2 2 1 1
node 3 2 1 1
node 4 3 0 2
gene 2 1 4 -4.38232 0 1 -4.38232 1
gene 1 2 4 7.81031 0 2 7.81031 1
gene 2 3 4 8 0 3 8 1
genomeend 7

/* Organism #8 Fitness: 9 Error: 1 */
genomestart 8
trait 1 0.1 0 0 0 0 0 0 0 
trait 2 0.2 0 0 0 0 0 0 0 
trait 3 0.3 0 0 0 0 0 0 0 
node 1 2 1 3
node 2 3 1 1
node 3 2 1 1
node 4 3 0 2
gene 2 1 4 -3.99027 0 1 -3.99027 1
gene 1 2 4 8 0 2 8 1
gene 2 3 4 8 0 3 8 1
genomeend 8

/* Organism #9 Fitness: 8.99997 Error: 1.00001 */
genomestart 9
trait 1 0.1 0 0 0 0 0 0 0 
trait 2 0.2 0 0 0 0 0 0 0 
trait 3 0.3 0 0 0 0 0 0 0 
node 1 2 1 3
node 2 3 1 1
node 3 2 1 1
node 4 3 0 2
gene 2 1 4 -2.45115 0 1 -2.45115 1
gene 3 2 4 8 0 2 8 1
gene 2 3 4 6.41254 0 3 6.41254 1
genomeend 9

/* Organism #10 Fitness: 8.99931 Error: 1.00011 */
genomestart 10
trait 1 0.1 0 0 0 0 0 0 0 
trait 2 0.2 0 0 0 0 0 0 0 
trait 3 0.3 0 0 0 0 0 0 0 
node 1 2 1 3
node 2 2 1 1
node 3 2 1 1
node 4 3 0 2
gene 2 1 4 -1.84239 0 1 -1.84239 1
gene 1 2 4 7.47258 0 2 7.47258 1
gene 2 3 4 6.75846 0 3 6.75846 1
genomeend 10

/* Organism #11 Fitness: 8.99953 Error: 1.00008 */
genomestart 11
trait 1 0.1 0 0 0 0 0 0 0 
trait 2 0.2 0 0 0 0 0 0 0 
trait 3 0.3 0 0 0 0 0 0 0 
node 1 2 1 3
node 2 2 1 1
node 3 2 1 1
node 4 3 0 2
gene 2 1 4 -1.91866 0 1 -1.91866 1
gene 3 2 4 8 0 2 8 1
gene 2 3 4 8 0 3 8 1
genomeend 11

/* Organism #12 Fitness: 8.98871 Error: 1.00188 */
genomestart 12
trait 1 0.1 0 0 0 0 0 0 0 
trait 2 0.2 0 0 0 0 0 0 0 
trait 3 0.3 0 0 0 0 0 0 0 
node 1 2 1 3
node 2 2 1 1
node 3 1 1 1
node 4 3 0 2
gene 2 1 4 -4.95416 0 1 -4.95416 1
gene 3 2 4 8 0 2 8 1
gene 2 3 4 6.22816 0 3 6.22816 1
genomeend 12

/* Organism #13 Fitness: 3.99999 Error: 2 */
genomestart 13
trait 1 0.1 0 0 0 0 0 0 0 
trait 2 0.2 0 0 0 0 0 0 0 
trait 3 0.3 0 0 0 0 0 0 0 
node 1 2 1 3
node 2 2 1 1
node 3 2 1 1
node 4 3 0 2
gene 2 1 4 -4.30174 0 1 -4.30174 1
gene 3 2 4 0.829103 0 2 0.829103 1
gene 2 3 4 7.01405 0 3 7.01405 1
genomeend 13

/* Organism #14 Fitness: 3.99905 Error: 2.00024 */
genomestart 14
trait 1 0.1 0 0 0 0 0 0 0 
trait 2 0.2 0 0 0 0 0 0 0 
trait 3 0.3 0 0 0 0 0 0 0 
node 1 2 1 3
node 2 2 1 1
node 3 2 1 1
node 4 3 0 2
gene 2 1 4 -1.68425 0 1 -1.68425 1
gene 3 2 4 -0.595834 0 2 -0.595834 1
gene 2 3 4 8 0 3 8 1
genomeend 14

/* Organism #15 Fitness: 9 Error: 1 */
genomestart 15
trait 1 0.1 0 0 0 0 0 0 0 
trait 2 0.2 0 0 0 0 0 0 0 
trait 3 0.3 0 0 0 0 0 0 0 
node 1 2 1 3
node 2 2 1 1
node 3 2 1 1
node 4 3 0 2
gene 2 1 4 -3.35761 0 1 -3.35761 1
gene 3 2 4 8 0 2 8 1
gene 2 3 4 8 0 3 8 1
genomeend 15

/* Species #2 : (Size 10) (AF 4.64393) (Age 14)  */


/* Organism #16 Fitness: 10.0372 Error: 0.83185 */
genomestart 16
trait 1 0.1 0 0 0 0 0 0 0 
trait 2 0.2 0 0 0 0 0 0 0 
trait 3 0.3 0 0 0 0 0 0 0 
node 1 3 1 3
node 2 1 1 1
node 3 1 1 1
node 4 2 0 2
node 5 1 0 0
node 8 1 0 0
gene 3 1 4 -1.32961 0 1 -1.32961 1
gene 1 2 4 0.221457 0 2 0.221457 0
gene 2 3 4 2.71216 0 3 2.71216 1
gene 1 3 5 -2.33473 0 4 -2.33473 1
gene 1 5 4 3.20931 0 5 3.20931 1
gene 1 2 8 1.7989 0 10 1.7989 1
gene 1 8 4 -1.3583 0 11 -1.3583 1
gene 2 2 5 0.585524 0 26 0.585524 1
genomeend 16

/* Organism #17 Fitness: 4.00132 Error: 1.99967 */
genomestart 17
trait 1 0.1 0 0 0 0 0 0 0 
trait 2 0.2 0 0 0 0 0 0 0 
trait 3 0.3 0 0 0 0 0 0 0 
node 1 3 1 3
node 2 1 1 1
node 3 1 1 1
node 4 2 0 2
node 5 1 0 0
node 8 1 0 0
gene 3 1 4 -1.32961 0 1 -1.32961 1
gene 1 2 4 0.221457 0 2 0.221457 0
gene 2 3 4 2.71216 0 3 2.71216 1
gene 1 3 5 -2.33473 0 4 -2.33473 1
gene 1 5 4 3.20931 0 5 3.20931 1
gene 1 2 8 1.7989 0 10 1.7989 1
gene 1 8 4 -1.3583 0 11 -1.3583 0
gene 2 2 5 0.585524 0 26 0.585524 1
gene 3 1 5 0.446835 0 132 0.446835 1
genomeend 17

/* Organism #18 Fitness: 4.09404 Error: 1.97663 */
genomestart 18
trait 1 0.1 0 0 0 0 0 0 0 
trait 2 0.2 0 0 0 0 0 0 0 
trait 3 0.3 0 0 0 0 0 0 0 
node 1 3 1 3
node 2 1 1 1
node 3 1 1 1
node 4 2 0 2
node 5 1 0 0
node 8 1 0 0
gene 3 1 4 -3.15758 0 1 -3.15758 1
gene 1 2 4 2.45853 0 2 2.45853 0
gene 2 3 4 3.08316 0 3 3.08316 1
gene 1 3 5 -3.96951 0 4 -3.96951 1
gene 1 5 4 2.49539 0 5 2.49539 1
gene 1 2 8 1.56955 0 10 1.56955 1
gene 1 8 4 0.00390949 0 11 0.00390949 1
gene 2 2 5 0.694026 0 26 0.694026 1
genomeend 18

/* Organism #19 Fitness: 4.8617 Error: 1.79507 */
genomestart 19
trait 1 0.1 0 0 0 0 0 0 0 
trait 2 0.2 0 0 0 0 0 0 0 
trait 3 0.3 0 0 0 0 0 0 0 
node 1 3 1 3
node 2 1 1 1
node 3 1 1 1
node 4 2 0 2
node 5 1 0 0
node 8 1 0 0
gene 3 1 4 -1.32961 0 1 -1.32961 1
gene 1 2 4 0.221457 0 2 0.221457 0
gene 2 3 4 2.71216 0 3 2.71216 1
gene 1 3 5 -2.33473 0 4 -2.33473 1
gene 1 5 4 3.20931 0 5 3.20931 1
gene 1 2 8 1.7989 0 10 1.7989 1
gene 1 8 4 -1.3583 0 11 -1.3583 0
gene 2 2 5 0.585524 0 26 0.585524 1
genomeend 19

/* Organism #20 Fitness: 4 Error: 2 */
genomestart 20
trait 1 0.1 0 0 0 0 0 0 0 
trait 2 0.2 0 0 0 0 0 0 0 
trait 3 0.3 0 0 0 0 0 0 0 
node 1 3 1 3
node 2 1 1 1
node 3 1 1 1
node 4 3 0 2
node 5 1 0 0
node 8 1 0 0
node 39 1 0 0
gene 3 1 4 -2.69563 0 1 -2.69563 1
gene 1 2 4 -1.85778 0 2 -1.85778 0
gene 2 3 4 0.771517 0 3 0.771517 1
gene 1 3 5 -0.628029 0 4 -0.628029 1
gene 1 5 4 1.03664 0 5 1.03664 1
gene 1 2 8 2.8814 0 10 2.8814 1
gene 1 8 4 -1.03052 0 11 -1.03052 0
gene 2 2 5 0.994418 0 26 0.994418 1
gene 1 8 39 0.617768 0 114 0.617768 1
gene 1 39 4 -3.81976 0 115 -3.81976 1
genomeend 20

/* Organism #21 Fitness: 2.46812 Error: 2.42897 */
genomestart 21
trait 1 0.1 0 0 0 0 0 0 0 
trait 2 0.2 0 0 0 0 0 0 0 
trait 3 0.3 0 0 0 0 0 0 0 
node 1 3 1 3
node 2 1 1 1
node 3 1 1 1
node 4 2 0 2
node 5 1 0 0
node 8 1 0 0
gene 3 1 4 0.0575237 0 1 0.0575237 1
gene 1 2 4 0.24045 0 2 0.24045 0
gene 2 3 4 -0.503758 0 3 -0.503758 1
gene 1 3 5 2.17711 0 4 2.17711 1
gene 1 5 4 4.02216 0 5 4.02216 1
gene 1 2 8 3.42017 0 10 3.42017 1
gene 1 8 4 0.126655 0 11 0.126655 0
gene 2 2 5 -1.81326 0 26 -1.81326 1
genomeend 21

/* Organism #22 Fitness: 4.00005 Error: 1.99999 */
genomestart 22
trait 1 0.1 0 0 0 0 0 0 0 
trait 2 0.2 0 0 0 0 0 0 0 
trait 3 0.3 0 0 0 0 0 0 0 
node 1 3 1 3
node 2 1 1 1
node 3 1 1 1
node 4 2 0 2
node 5 1 0 0
node 8 1 0 0
gene 3 1 4 0.371733 0 1 0.371733 1
gene 1 2 4 -1.60013 0 2 -1.60013 0
gene 2 3 4 4.41467 0 3 4.41467 1
gene 1 3 5 -4.75212 0 4 -4.75212 1
gene 1 5 4 3.72899 0 5 3.72899 1
gene 1 2 8 -0.476646 0 10 -0.476646 1
gene 1 8 4 0.149173 0 11 0.149173 1
gene 2 2 5 2.10704 0 26 2.10704 1
genomeend 22

/* Organism #23 Fitness: 3.8299 Error: 2.04299 */
genomestart 23
trait 1 0.1 0 0 0 0 0 0 0 
trait 2 0.2 0 0 0 0 0 0 0 
trait 3 0.3 0 0 0 0 0 0 0 
node 1 3 1 3
node 2 1 1 1
node 3 1 1 1
node 4 2 0 2
node 5 1 0 0
node 8 1 0 0
gene 3 1 4 -1.23702 0 1 -1.23702 1
gene 1 2 4 1.52779 0 2 1.52779 0
gene 2 3 4 1.10504 0 3 1.10504 1
gene 1 3 5 -0.668273 0 4 -0.668273 1
gene 1 5 4 1.14248 0 5 1.14248 1
gene 1 2 8 2.30636 0 10 2.30636 1
gene 1 8 4 0.0822307 0 11 0.0822307 1
gene 2 2 5 -0.538372 0 26 -0.538372 1
genomeend 23

/* Organism #24 Fitness: 4.28525 Error: 1.92992 */
genomestart 24
trait 1 0.1 0 0 0 0 0 0 0 
trait 2 0.2 0 0 0 0 0 0 0 
trait 3 0.3 0 0 0 0 0 0 0 
node 1 2 1 3
node 2 1 1 1
node 3 1 1 1
node 4 2 0 2
node 5 3 0 0
node 8 1 0 0
gene 3 1 4 -1.70004 0 1 -1.70004 1
gene 1 2 4 0.30061 0 2 0.30061 0
gene 2 3 4 5.02507 0 3 5.02507 1
gene 1 3 5 -5.64691 0 4 -5.64691 1
gene 1 5 4 1.18805 0 5 1.18805 1
gene 1 2 8 2.35745 0 10 2.35745 1
gene 1 8 4 -2.01813 0 11 -2.01813 0
gene 2 2 5 2.21334 0 26 2.21334 1
genomeend 24

/* Organism #25 Fitness: 4.8617 Error: 1.79507 */
genomestart 25
trait 1 0.1 0 0 0 0 0 0 0 
trait 2 0.2 0 0 0 0 0 0 0 
trait 3 0.3 0 0 0 0 0 0 0 
node 1 3 1 3
node 2 1 1 1
node 3 1 1 1
node 4 2 0 2
node 5 1 0 0
node 8 1 0 0
gene 3 1 4 -1.32961 0 1 -1.32961 1
gene 1 2 4 0.221457 0 2 0.221457 0
gene 2 3 4 2.71216 0 3 2.71216 1
gene 1 3 5 -2.33473 0 4 -2.33473 1
gene 1 5 4 3.20931 0 5 3.20931 1
gene 1 2 8 1.7989 0 10 1.7989 1
gene 1 8 4 -1.3583 0 11 -1.3583 0
gene 2 2 5 0.585524 0 26 0.585524 1
genomeend 25

/* Species #3 : (Size 11) (AF 5.42315) (Age 11)  */


/* Organism #26 Fitness: 8.99202 Error: 1.00133 */
genomestart 26
trait 1 0.1 0 0 0 0 0 0 0 
trait 2 0.2 0 0 0 0 0 0 0 
trait 3 0.3 0 0 0 0 0 0 0 
node 1 2 1 3
node 2 1 1 1
node 3 2 1 1
node 4 1 0 2
node 17 1 0 0
gene 1 1 4 -5.49502 0 1 -5.49502 1
gene 1 2 4 -2.01809 0 2 -2.01809 0
gene 1 3 4 -3.6886 0 3 -3.6886 1
gene 1 2 17 3.08558 0 29 3.08558 1
gene 1 17 4 7.77168 0 30 7.77168 1
genomeend 26

/* Organism #27 Fitness: 3.97757 Error: 2.00562 */
genomestart 27
trait 1 0.1 0 0 0 0 0 0 0 
trait 2 0.2 0 0 0 0 0 0 0 
trait 3 0.3 0 0 0 0 0 0 0 
node 1 3 1 3
node 2 1 1 1
node 3 2 1 1
node 4 1 0 2
node 17 1 0 0
node 45 1 0 0
gene 1 1 4 -4.8658 0 1 -4.8658 1
gene 1 2 4 0.201698 0 2 0.201698 1
gene 1 3 4 -3.0897 0 3 -3.0897 1
gene 1 2 17 2.03496 0 29 2.03496 0
gene 1 17 4 6.77813 0 30 6.77813 1
gene 1 2 45 1 0 136 0 1
gene 1 45 17 2.03496 0 137 0 1
genomeend 27

/* Organism #28 Fitness: 3.84498 Error: 2.03914 */
genomestart 28
trait 1 0.1 0 0.0536959 0.0149919 0 0.0454294 0.0274473 0 
trait 2 0.2 0 0 0 0 0 0 0 
trait 3 0.302383 0.00539471 0 0 0 0 0.000351147 0 
node 1 2 1 3
node 2 1 1 1
node 3 2 1 1
node 4 1 0 2
node 17 1 0 0
gene 1 1 4 -4.53576 0 1 -4.53576 1
gene 1 2 4 -1.80468 0 2 -1.80468 0
gene 1 3 4 -1.63535 0 3 -1.63535 1
gene 1 2 17 -0.519232 0 29 -0.519232 1
gene 1 17 4 7.77168 0 30 7.77168 1
genomeend 28

/* Organism #29 Fitness: 4.16676 Error: 1.95874 */
genomestart 29
trait 1 0.1 0 0.107392 0.0299837 0 0.0908588 0.0548946 0 
trait 2 0.2 0 0 0 0 0 0 0 
trait 3 0.304767 0.0107894 0 0 0 0 0.000702293 0 
node 1 2 1 3
node 2 1 1 1
node 3 2 1 1
node 4 1 0 2
node 17 1 0 0
gene 1 1 4 -5.32351 0 1 -5.32351 1
gene 1 2 4 -1.80468 0 2 -1.80468 1
gene 1 3 4 -1.2301 0 3 -1.2301 1
gene 1 2 17 3.72153 0 29 3.72153 1
gene 1 17 4 6.49009 0 30 6.49009 1
genomeend 29

/* Organism #30 Fitness: 7.43126 Error: 1.27397 */
genomestart 30
trait 1 0.1 0 0.107392 0.0299837 0 0.0908588 0.0548946 0 
trait 2 0.2 0 0 0 0 0 0 0 
trait 3 0.304767 0.0107894 0 0 0 0 0.000702293 0 
node 1 2 1 3
node 2 1 1 1
node 3 2 1 1
node 4 1 0 2
node 17 1 0 0
gene 1 1 4 -4.22165 0 1 -4.22165 1
gene 1 2 4 -0.523337 0 2 -0.523337 1
gene 1 3 4 -3.98408 0 3 -3.98408 1
gene 1 2 17 1.09803 0 29 1.09803 1
gene 1 17 4 8 0 30 8 1
genomeend 30

/* Organism #31 Fitness: 3.99998 Error: 2.00001 */
genomestart 31
trait 1 0.1 0 0.0536959 0.0149919 0 0.0454294 0.0274473 0 
trait 2 0.2 0 0 0 0 0 0 0 
trait 3 0.302383 0.00539471 0 0 0 0 0.000351147 0 
node 1 2 1 3
node 2 1 1 1
node 3 2 1 1
node 4 1 0 2
node 17 1 0 0
gene 1 1 4 -5.59301 0 1 -5.59301 1
gene 1 2 4 -0.155975 0 2 -0.155975 0
gene 1 3 4 -4.7614 0 3 -4.7614 1
gene 1 2 17 3.13721 0 29 3.13721 1
gene 1 17 4 8 0 30 8 1
gene 3 1 17 1.04175 0 96 1.04175 1
gene 1 3 17 -0.387664 0 106 -0.387664 1
genomeend 31

/* Organism #32 Fitness: 8.97774 Error: 1.00371 */
genomestart 32
trait 1 0.1 0 0.0536959 0.0149919 0 0.0454294 0.0274473 0 
trait 2 0.2 0 0 0 0 0 0 0 
trait 3 0.302383 0.00539471 0 0 0 0 0.000351147 0 
node 1 2 1 3
node 2 1 1 1
node 3 2 1 1
node 4 1 0 2
node 17 1 0 0
gene 1 1 4 -5.40927 0 1 -5.40927 1
gene 1 2 4 -1.91138 0 2 -1.91138 0
gene 1 3 4 -3.65713 0 3 -3.65713 1
gene 1 2 17 2.32443 0 29 2.32443 1
gene 1 17 4 7.88584 0 30 7.88584 1
genomeend 32

/* Organism #33 Fitness: 1.2707 Error: 2.87275 */
genomestart 33
trait 1 0.1 0 0 0 0 0 0 0 
trait 2 0.2 0 0 0 0 0 0 0 
trait 3 0.3 0 0 0 0 0 0 0 
node 1 2 1 3
node 2 1 1 1
node 3 2 1 1
node 4 1 0 2
node 17 1 0 0
gene 1 1 4 -3.58751 0 1 -3.58751 1
gene 2 2 4 -3.77465 0 2 -3.77465 0
gene 1 3 4 -3.50418 0 3 -3.50418 1
gene 1 2 17 2.81297 0 29 2.81297 1
gene 1 17 4 8 0 30 8 1
genomeend 33

/* Organism #34 Fitness: 4.00023 Error: 1.99994 */
genomestart 34
trait 1 0.1 0 0.0536959 0.0149919 0 0.0454294 0.0274473 0 
trait 2 0.2 0 0 0 0 0 0 0 
trait 3 0.302383 0.00539471 0 0 0 0 0.000351147 0 
node 1 2 1 3
node 2 1 1 1
node 3 2 1 1
node 4 1 0 2
node 17 1 0 0
gene 1 1 4 -7.49518 0 1 -7.49518 1
gene 1 2 4 -0.580545 0 2 -0.580545 0
gene 1 3 4 -1.58664 0 3 -1.58664 1
gene 1 2 17 3.47734 0 29 3.47734 1
gene 1 17 4 5.51351 0 30 5.51351 1
genomeend 34

/* Organism #35 Fitness: 8.99347 Error: 1.00109 */
genomestart 35
trait 1 0.1 0 0 0 0 0 0 0 
trait 2 0.2 0 0 0 0 0 0 0 
trait 3 0.3 0 0 0 0 0 0 0 
node 1 3 1 3
node 2 1 1 1
node 3 2 1 1
node 4 1 0 2
node 17 1 0 0
gene 1 1 4 -5.49502 0 1 -5.49502 1
gene 1 2 4 2.42148 0 2 2.42148 0
gene 1 3 4 -3.6886 0 3 -3.6886 1
gene 1 2 17 0.984337 0 29 0.984337 1
gene 1 17 4 7.77168 0 30 7.77168 1
genomeend 35

/* Organism #36 Fitness: 4 Error: 2 */
genomestart 36
trait 1 0.1 0 0 0 0 0 0 0 
trait 2 0.2 0 0 0 0 0 0 0 
trait 3 0.3 0 0 0 0 0 0 0 
node 1 3 1 3
node 2 1 1 1
node 3 2 1 1
node 4 1 0 2
node 17 1 0 0
gene 1 1 4 -2.40702 0 1 -2.40702 1
gene 1 2 4 1.82677 0 2 1.82677 0
gene 1 3 4 -4.33116 0 3 -4.33116 1
gene 1 2 17 1.09272 0 29 1.09272 1
gene 1 17 4 7.36899 0 30 7.36899 1
gene 3 1 17 0.482433 0 96 0.482433 1
gene 1 3 17 -1.55477 0 106 -1.55477 1
genomeend 36

/* Species #4 : (Size 6) (AF 5.86591) (Age 11)  */


/* Organism #37 Fitness: 8.96802 Error: 1.00533 */
genomestart 37
trait 1 0.1 0 0 0 0 0 0 0 
trait 2 0.2 0 0 0 0 0 0 0 
trait 3 0.425062 0 0.450994 0.3639 0.17612 0.249209 0.197319 0 
node 1 3 1 3
node 2 1 1 1
node 3 1 1 1
node 4 2 0 2
node 5 1 0 0
node 8 3 0 0
node 19 1 0 0
gene 3 1 4 1.98077 0 1 1.98077 1
gene 1 2 4 -1.20792 0 2 -1.20792 0
gene 2 3 4 4.77828 0 3 4.77828 1
gene 1 3 5 8 0 4 8 1
gene 1 5 4 -4.92273 0 5 -4.92273 0
gene 1 2 8 2.40453 0 10 2.40453 1
gene 1 8 4 4.88472 0 11 4.88472 1
gene 1 5 19 2.61331 0 33 2.61331 1
gene 1 19 4 -5.74077 0 34 -5.74077 1
genomeend 37

/* Organism #38 Fitness: 8.20403 Error: 1.13573 */
genomestart 38
trait 1 0.075 0.0747562 0 0.181488 0 0 0.242897 0 
trait 2 0.2 0 0 0 0 0 0 0 
trait 3 0.413338 0 0.450994 0.3639 0.159609 0.243423 0.17882 0 
node 1 3 1 3
node 2 1 1 1
node 3 1 1 1
node 4 2 0 2
node 5 1 0 0
node 8 3 0 0
node 19 1 0 0
node 30 1 0 0
gene 3 1 4 1.91847 0 1 1.91847 1
gene 1 2 4 -2.01059 0 2 -2.01059 0
gene 2 3 4 1.39164 0 3 1.39164 1
gene 1 3 5 6.71137 0 4 6.71137 1
gene 1 5 4 -2.16281 0 5 -2.16281 0
gene 1 2 8 5.44413 0 10 5.44413 1
gene 1 8 4 2.42244 0 11 2.42244 1
gene 1 5 19 1.47556 0 33 1.47556 0
gene 1 19 4 -3.82452 0 34 -3.82452 1
gene 1 5 30 -0.134867 0 83 -0.134867 1
gene 1 30 19 5.60543 0 84 5.60543 1
genomeend 38

/* Organism #39 Fitness: 5.37582 Error: 1.68142 */
genomestart 39
trait 1 0.05 0.149512 0 0 0.171402 0 0.485794 0 
trait 2 0.2 0 0 0 0 0 0 0 
trait 3 0.417246 0 0.450994 0.3639 0.165113 0.245352 0.184986 0 
node 1 3 1 3
node 2 1 1 1
node 3 1 1 1
node 4 2 0 2
node 5 1 0 0
node 8 3 0 0
node 19 1 0 0
gene 3 1 4 0.881641 0 1 0.881641 1
gene 1 2 4 -3.68863 0 2 -3.68863 1
gene 2 3 4 2.39149 0 3 2.39149 1
gene 1 3 5 7.45833 0 4 7.45833 1
gene 1 5 4 -6.16187 0 5 -6.16187 0
gene 1 2 8 6.92423 0 10 6.92423 1
gene 1 8 4 5.95112 0 11 5.95112 1
gene 1 5 19 5.51145 0 33 5.51145 1
gene 1 19 4 -6.38949 0 34 -6.38949 1
genomeend 39

/* Organism #40 Fitness: 4.32378 Error: 1.92063 */
genomestart 40
trait 1 0.05 0.149512 0 0 0.171402 0 0.485794 0 
trait 2 0.2 0 0 0 0 0 0 0 
trait 3 0.417246 0 0.450994 0.3639 0.165113 0.245352 0.184986 0 
node 1 3 1 3
node 2 1 1 1
node 3 1 1 1
node 4 2 0 2
node 5 1 0 0
node 8 3 0 0
node 19 1 0 0
gene 3 1 4 2.17589 0 1 2.17589 1
gene 1 2 4 -2.56168 0 2 -2.56168 1
gene 2 3 4 1.66104 0 3 1.66104 1
gene 1 3 5 8 0 4 8 1
gene 1 5 4 -4.61556 0 5 -4.61556 0
gene 1 2 8 4.93685 0 10 4.93685 1
gene 1 8 4 3.78283 0 11 3.78283 1
gene 1 5 19 5.04478 0 33 5.04478 1
gene 1 19 4 -6.21697 0 34 -6.21697 1
genomeend 40

/* Organism #41 Fitness: 4.00001 Error: 2 */
genomestart 41
trait 1 0.075 0.0747562 0 0 0.085701 0 0.242897 0 
trait 2 0 0 0.0056814 0 0 0 0 0 
trait 3 0.413338 0 0.450994 0.3639 0.159609 0.243423 0.17882 0 
node 1 3 1 3
node 2 1 1 1
node 3 1 1 1
node 4 2 0 2
node 5 1 0 0
node 8 1 0 0
node 19 1 0 0
node 30 1 0 0
gene 3 1 4 -0.0115538 0 1 -0.0115538 1
gene 1 2 4 -1.48693 0 2 -1.48693 0
gene 2 3 4 4.0864 0 3 4.0864 1
gene 1 3 5 7.90271 0 4 7.90271 1
gene 1 5 4 -1.17862 0 5 -1.17862 1
gene 1 2 8 2.85495 0 10 2.85495 1
gene 1 8 4 3.43862 0 11 3.43862 1
gene 1 5 19 4.68833 0 33 4.68833 1
gene 1 19 4 1.5493 0 34 1.5493 1
gene 1 5 30 -0.134867 0 83 -0.134867 1
gene 1 30 19 5.49457 0 84 5.49457 1
genomeend 41

/* Organism #42 Fitness: 4.32378 Error: 1.92063 */
genomestart 42
trait 1 0.05 0.149512 0 0 0.171402 0 0.485794 0 
trait 2 0.2 0 0 0 0 0 0 0 
trait 3 0.417246 0 0.450994 0.3639 0.165113 0.245352 0.184986 0 
node 1 3 1 3
node 2 1 1 1
node 3 1 1 1
node 4 2 0 2
node 5 1 0 0
node 8 3 0 0
node 19 1 0 0
gene 3 1 4 2.17589 0 1 2.17589 1
gene 1 2 4 -2.56168 0 2 -2.56168 1
gene 2 3 4 1.66104 0 3 1.66104 1
gene 1 3 5 8 0 4 8 1
gene 1 5 4 -4.61556 0 5 -4.61556 0
gene 1 2 8 4.93685 0 10 4.93685 1
gene 1 8 4 3.78283 0 11 3.78283 1
gene 1 5 19 5.04478 0 33 5.04478 1
gene 1 19 4 -6.21697 0 34 -6.21697 1
genomeend 42

/* Species #5 : (Size 10) (AF 4.94508) (Age 11)  */


/* Organism #43 Fitness: 8.96638 Error: 1.00561 */
genomestart 43
trait 1 0.1 0 0 0 0 0 0 0 
trait 2 0.2 0 0.52459 0 0 0.267591 0.261933 0 
trait 3 0.3 0 0 0 0 0 0 0 
node 1 3 1 3
node 2 1 1 1
node 3 1 1 1
node 4 2 0 2
node 5 1 0 0
node 8 1 0 0
node 18 1 0 0
gene 3 1 4 -1.36221 0 1 -1.36221 1
gene 1 2 4 0.6483 0 2 0.6483 1
gene 2 3 4 2.06129 0 3 2.06129 0
gene 1 3 5 2.36227 0 4 2.36227 1
gene 1 5 4 1.71784 0 5 1.71784 1
gene 1 2 8 -2.71098 0 10 -2.71098 1
gene 1 8 4 -1.29099 0 11 -1.29099 1
gene 2 3 18 1.97642 0 31 1.97642 1
gene 2 18 4 1.84343 0 32 1.84343 1
gene 3 8 5 -3.07419 0 43 -3.07419 1
gene 2 5 18 0.614926 0 85 0.614926 1
genomeend 43

/* Organism #44 Fitness: 4.00045 Error: 1.99989 */
genomestart 44
trait 1 0.1 0 0 0 0 0 0 0 
trait 2 0.2 0 0.52459 0 0 0.267591 0.261933 0 
trait 3 0.3 0 0 0 0 0 0 0 
node 1 3 1 3
node 2 1 1 1
node 3 1 1 1
node 4 2 0 2
node 5 1 0 0
node 8 1 0 0
node 18 1 0 0
gene 3 1 4 -2.19106 0 1 -2.19106 1
gene 1 2 4 -1.58603 0 2 -1.58603 1
gene 2 3 4 -3.67707 0 3 -3.67707 0
gene 1 3 5 0.730181 0 4 0.730181 1
gene 1 5 4 0.540338 0 5 0.540338 1
gene 1 2 8 0.252101 0 10 0.252101 1
gene 1 8 4 0.487299 0 11 0.487299 1
gene 2 3 18 -1.51179 0 31 -1.51179 1
gene 2 18 4 -1.62741 0 32 -1.62741 1
gene 3 8 5 -1.9023 0 43 -1.9023 1
gene 2 5 18 2.84797 0 85 2.84797 1
genomeend 44

/* Organism #45 Fitness: 3.98765 Error: 2.00309 */
genomestart 45
trait 1 0.1 0 0 0 0 0 0 0 
trait 2 0.2 0 0.52459 0 0 0.267591 0.261933 0 
trait 3 0.3 0 0 0 0 0 0 0 
node 1 3 1 3
node 2 1 1 1
node 3 1 1 1
node 4 2 0 2
node 5 1 0 0
node 8 1 0 0
node 18 1 0 0
gene 3 1 4 -1.63903 0 1 -1.63903 1
gene 1 2 4 2.66876 0 2 2.66876 1
gene 2 3 4 -0.538437 0 3 -0.538437 0
gene 1 3 5 2.19718 0 4 2.19718 1
gene 1 5 4 0.998265 0 5 0.998265 1
gene 1 2 8 -2.1927 0 10 -2.1927 1
gene 1 8 4 -2.18436 0 11 -2.18436 1
gene 2 3 18 0.221534 0 31 0.221534 1
gene 2 18 4 3.19852 0 32 3.19852 1
gene 3 8 5 -1.9023 0 43 -1.9023 1
gene 2 5 18 -1.77105 0 85 -1.77105 1
genomeend 45

/* Organism #46 Fitness: 6.89034 Error: 1.37505 */
genomestart 46
trait 1 0.1 0 0 0 0 0 0 0 
trait 2 0.2 0 0.52459 0 0 0.267591 0.261933 0 
trait 3 0.3 0 0 0 0 0 0 0 
node 1 3 1 3
node 2 1 1 1
node 3 1 1 1
node 4 2 0 2
node 5 1 0 0
node 8 1 0 0
node 18 1 0 0
gene 3 1 4 -1.36221 0 1 -1.36221 1
gene 1 2 4 0.6483 0 2 0.6483 1
gene 2 3 4 2.06129 0 3 2.06129 0
gene 1 3 5 2.36227 0 4 2.36227 1
gene 1 5 4 1.14318 0 5 1.14318 1
gene 1 2 8 -2.71098 0 10 -2.71098 1
gene 1 8 4 0.918791 0 11 0.918791 1
gene 2 3 18 1.97642 0 31 1.97642 1
gene 2 18 4 1.50458 0 32 1.50458 1
gene 3 8 5 -4.73302 0 43 -4.73302 1
gene 2 5 18 -0.00925906 0 85 -0.00925906 1
genomeend 46

/* Organism #47 Fitness: 4.0886 Error: 1.97797 */
genomestart 47
trait 1 0.1 0 0 0 0 0 0 0 
trait 2 0.2 0 0.52459 0 0 0.267591 0.261933 0 
trait 3 0.3 0 0 0 0 0 0 0 
node 1 3 1 3
node 2 1 1 1
node 3 1 1 1
node 4 2 0 2
node 5 1 0 0
node 8 1 0 0
node 18 1 0 0
gene 3 1 4 0.709683 0 1 0.709683 1
gene 1 2 4 -1.22592 0 2 -1.22592 1
gene 2 3 4 1.19611 0 3 1.19611 0
gene 1 3 5 2.65572 0 4 2.65572 1
gene 1 5 4 -0.147835 0 5 -0.147835 1
gene 1 2 8 -1.47334 0 10 -1.47334 1
gene 1 8 4 -3.76686 0 11 -3.76686 1
gene 2 3 18 1.97642 0 31 1.97642 1
gene 2 18 4 -0.386382 0 32 -0.386382 1
gene 3 8 5 -1.82088 0 43 -1.82088 1
gene 2 5 18 -0.307403 0 85 -0.307403 1
genomeend 47

/* Organism #48 Fitness: 5.67627 Error: 1.61751 */
genomestart 48
trait 1 0.1 0 0 0 0 0 0 0 
trait 2 0.2 0 0.52459 0 0 0.267591 0.261933 0 
trait 3 0.3 0 0 0 0 0 0 0 
node 1 3 1 3
node 2 1 1 1
node 3 1 1 1
node 4 2 0 2
node 5 1 0 0
node 8 1 0 0
node 18 1 0 0
gene 3 1 4 -1.31814 0 1 -1.31814 1
gene 1 2 4 1.66763 0 2 1.66763 1
gene 2 3 4 2.941 0 3 2.941 0
gene 1 3 5 2.17847 0 4 2.17847 1
gene 1 5 4 0.997887 0 5 0.997887 1
gene 1 2 8 -2.09073 0 10 -2.09073 1
gene 1 8 4 2.36888 0 11 2.36888 1
gene 2 3 18 2.78621 0 31 2.78621 1
gene 2 18 4 0.451492 0 32 0.451492 1
gene 3 8 5 -2.6606 0 43 -2.6606 1
gene 2 5 18 0.77583 0 85 0.77583 1
genomeend 48

/* Organism #49 Fitness: 3.85358 Error: 2.03695 */
genomestart 49
trait 1 0.1 0 0 0 0 0 0 0 
trait 2 0.2 0 0.52459 0 0 0.267591 0.261933 0 
trait 3 0.3 0 0 0 0 0 0 0 
node 1 3 1 3
node 2 1 1 1
node 3 1 1 1
node 4 2 0 2
node 5 1 0 0
node 8 1 0 0
node 18 1 0 0
gene 3 1 4 -0.248698 0 1 -0.248698 1
gene 1 2 4 -0.666059 0 2 -0.666059 1
gene 2 3 4 -3.4267 0 3 -3.4267 0
gene 1 3 5 1.18784 0 4 1.18784 1
gene 1 5 4 -0.298181 0 5 -0.298181 1
gene 1 2 8 -1.85173 0 10 -1.85173 1
gene 1 8 4 -1.15956 0 11 -1.15956 1
gene 2 3 18 1.18044 0 31 1.18044 1
gene 2 18 4 1.92882 0 32 1.92882 1
gene 3 8 5 -0.502551 0 43 -0.502551 1
gene 2 5 18 -1.45186 0 85 -1.45186 1
genomeend 49

/* Organism #50 Fitness: 4 Error: 2 */
genomestart 50
trait 1 0.1 0 0 0 0 0 0 0 
trait 2 0.2 0 0.52459 0 0 0.267591 0.261933 0 
trait 3 0.3 0 0 0 0 0 0 0 
node 1 3 1 3
node 2 1 1 1
node 3 1 1 1
node 4 2 0 2
node 5 1 0 0
node 8 1 0 0
node 18 1 0 0
gene 3 1 4 -4.99183 0 1 -4.99183 1
gene 1 2 4 -1.00095 0 2 -1.00095 1
gene 2 3 4 -3.40065 0 3 -3.40065 0
gene 1 3 5 1.60467 0 4 1.60467 1
gene 1 5 4 1.82337 0 5 1.82337 1
gene 1 2 8 -1.8938 0 10 -1.8938 1
gene 1 8 4 -1.55197 0 11 -1.55197 1
gene 2 3 18 -0.590621 0 31 -0.590621 1
gene 2 18 4 2.5705 0 32 2.5705 1
gene 3 8 5 -2.94711 0 43 -2.94711 1
gene 2 5 18 -2.03835 0 85 -2.03835 1
genomeend 50

/* Organism #51 Fitness: 4 Error: 2 */
genomestart 51
trait 1 0.1 0 0 0 0 0 0 0 
trait 2 0.2 0 0.52459 0 0 0.267591 0.261933 0 
trait 3 0.3 0 0 0 0 0 0 0 
node 1 3 1 3
node 2 1 1 1
node 3 1 1 1
node 4 2 0 2
node 5 1 0 0
node 8 1 0 0
node 18 1 0 0
gene 3 1 4 -2.85314 0 1 -2.85314 1
gene 1 2 4 0.634457 0 2 0.634457 1
gene 2 3 4 -1.89743 0 3 -1.89743 0
gene 1 3 5 2.36227 0 4 2.36227 1
gene 1 5 4 -1.39823 0 5 -1.39823 1
gene 1 2 8 -2.40367 0 10 -2.40367 1
gene 1 8 4 -1.29099 0 11 -1.29099 1
gene 2 3 18 0.360803 0 31 0.360803 1
gene 2 18 4 -0.093947 0 32 -0.093947 1
gene 3 8 5 -4.73302 0 43 -4.73302 1
gene 2 5 18 1.67893 0 85 1.67893 1
genomeend 51

/* Organism #52 Fitness: 3.98748 Error: 2.00313 */
genomestart 52
trait 1 0.1 0 0 0 0 0 0 0 
trait 2 0.2 0 0.52459 0 0 0.267591 0.261933 0 
trait 3 0.3 0 0 0 0 0 0 0 
node 1 3 1 3
node 2 1 1 1
node 3 1 1 1
node 4 2 0 2
node 5 1 0 0
node 8 1 0 0
node 18 1 0 0
gene 3 1 4 -2.72626 0 1 -2.72626 1
gene 1 2 4 1.44095 0 2 1.44095 1
gene 2 3 4 1.44359 0 3 1.44359 0
gene 1 3 5 3.2829 0 4 3.2829 1
gene 1 5 4 0.592256 0 5 0.592256 1
gene 1 2 8 -0.4689 0 10 -0.4689 1
gene 1 8 4 2.03162 0 11 2.03162 1
gene 2 3 18 -0.992884 0 31 -0.992884 1
gene 2 18 4 -0.943795 0 32 -0.943795 1
gene 3 8 5 -5.07375 0 43 -5.07375 1
gene 2 5 18 1.1359 0 85 1.1359 1
genomeend 52

/* Species #6 : (Size 12) (AF 6.46117) (Age 10)  */


/* Organism #53 Fitness: 8.99979 Error: 1.00003 */
genomestart 53
trait 1 0.1 0 0 0 0 0 0 0 
trait 2 0.2 0 0 0 0 0 0 0 
trait 3 0.3 0 0 0 0 0 0 0 
node 1 3 1 3
node 2 1 1 1
node 3 1 1 1
node 4 2 0 2
node 5 1 0 0
node 8 1 0 0
node 23 2 0 0
gene 3 1 4 -3.27857 0 1 -3.27857 1
gene 1 2 4 4.48157 0 2 4.48157 0
gene 2 3 4 -0.888415 0 3 -0.888415 1
gene 1 3 5 -1.53773 0 4 -1.53773 1
gene 1 5 4 4.80982 0 5 4.80982 1
gene 1 2 8 -0.075252 0 10 -0.075252 1
gene 1 8 4 1.07327 0 11 1.07327 1
gene 2 2 5 2.11061 0 26 2.11061 1
gene 1 1 8 0.437909 0 36 0.437909 1
gene 2 2 23 1 0 54 1 1
gene 2 23 5 -1.44655 0 55 -1.44655 1
genomeend 53

/* Organism #54 Fitness: 4 Error: 2 */
genomestart 54
trait 1 0.1 0 0 0 0 0 0 0 
trait 2 0.2 0 0 0 0 0 0 0 
trait 3 0.3 0 0 0 0 0 0 0 
node 1 2 1 3
node 2 1 1 1
node 3 1 1 1
node 4 2 0 2
node 5 1 0 0
node 8 1 0 0
node 23 2 0 0
gene 3 1 4 -4.79472 0 1 -4.79472 1
gene 1 2 4 5.9065 0 2 5.9065 0
gene 2 3 4 -2.50701 0 3 -2.50701 1
gene 1 3 5 -1.43715 0 4 -1.43715 1
gene 1 5 4 6.44694 0 5 6.44694 1
gene 1 2 8 -1.55846 0 10 -1.55846 1
gene 1 8 4 0.738032 0 11 0.738032 1
gene 2 2 5 1.00465 0 26 1.00465 1
gene 1 1 8 1.8596 0 36 1.8596 1
gene 2 2 23 0.653386 0 54 0.653386 1
gene 2 23 5 -2.16629 0 55 -2.16629 1
genomeend 54

/* Organism #55 Fitness: 8.94387 Error: 1.00937 */
genomestart 55
trait 1 0.181101 0.096748 0 0 0 0.046907 0 0 
trait 2 0.2 0 0 0 0 0 0 0 
trait 3 0.3 0 0 0 0 0 0 0 
node 1 3 1 3
node 2 1 1 1
node 3 1 1 1
node 4 2 0 2
node 5 1 0 0
node 8 3 0 0
node 23 1 0 0
gene 3 1 4 0.770232 0 1 0.770232 1
gene 1 2 4 -1.51757 0 2 -1.51757 0
gene 2 3 4 -0.579305 0 3 -0.579305 1
gene 1 3 5 -1.47674 0 4 -1.47674 1
gene 1 5 4 6.29638 0 5 6.29638 1
gene 1 2 8 -1.53003 0 10 -1.53003 1
gene 1 8 4 -1.7207 0 11 -1.7207 1
gene 2 2 5 4.21289 0 26 4.21289 0
gene 1 1 8 2.47197 0 36 2.47197 1
gene 2 2 23 -3.44557 0 54 -3.44557 1
gene 2 23 5 -3.21699 0 55 -3.21699 1
genomeend 55

/* Organism #56 Fitness: 3.9996 Error: 2.0001 */
genomestart 56
trait 1 0.14055 0.048374 0 0 0 0.0234535 0 0 
trait 2 0.2 0 0 0 0 0 0 0 
trait 3 0.3 0 0 0 0 0 0 0 
node 1 3 1 3
node 2 1 1 1
node 3 1 1 1
node 4 2 0 2
node 5 1 0 0
node 8 1 0 0
node 23 2 0 0
gene 3 1 4 -1.80318 0 1 -1.80318 1
gene 1 2 4 1.18846 0 2 1.18846 0
gene 2 3 4 0.113737 0 3 0.113737 1
gene 1 3 5 -2.4215 0 4 -2.4215 1
gene 1 5 4 -2.15791 0 5 -2.15791 1
gene 1 2 8 -0.0602712 0 10 -0.0602712 1
gene 1 8 4 -1.71178 0 11 -1.71178 1
gene 2 2 5 5.52937 0 26 5.52937 0
gene 1 1 8 -1.98208 0 36 -1.98208 1
gene 2 2 23 -1.05234 0 54 -1.05234 1
gene 2 23 5 -1.41236 0 55 -1.41236 1
genomeend 56

/* Organism #57 Fitness: 8.88832 Error: 1.01867 */
genomestart 57
trait 1 0.1 0 0 0 0 0 0 0 
trait 2 0.2 0 0 0 0 0 0 0 
trait 3 0.3 0 0 0 0 0 0 0 
node 1 3 1 3
node 2 1 1 1
node 3 1 1 1
node 4 2 0 2
node 5 1 0 0
node 8 1 0 0
node 23 2 0 0
gene 3 1 4 -1.85541 0 1 -1.85541 1
gene 1 2 4 3.9173 0 2 3.9173 1
gene 2 3 4 -2.90353 0 3 -2.90353 1
gene 1 3 5 -2.57348 0 4 -2.57348 1
gene 1 5 4 5.26934 0 5 5.26934 1
gene 1 2 8 0.645099 0 10 0.645099 1
gene 1 8 4 1.34865 0 11 1.34865 1
gene 2 2 5 1.92547 0 26 1.92547 1
gene 1 1 8 -1.67354 0 36 -1.67354 1
gene 2 2 23 -0.175722 0 54 -0.175722 1
gene 2 23 5 -1.44655 0 55 -1.44655 1
genomeend 57

/* Organism #58 Fitness: 3.99996 Error: 2.00001 */
genomestart 58
trait 1 0.181101 0.096748 0 0 0 0.046907 0 0 
trait 2 0.2 0 0 0 0 0 0 0 
trait 3 0.3 0 0 0 0 0 0 0 
node 1 3 1 3
node 2 1 1 1
node 3 1 1 1
node 4 2 0 2
node 5 1 0 0
node 8 1 0 0
node 23 1 0 0
gene 3 1 4 -0.424058 0 1 -0.424058 1
gene 1 2 4 -2.15724 0 2 -2.15724 0
gene 2 3 4 0.391041 0 3 0.391041 1
gene 1 3 5 1.06832 0 4 1.06832 1
gene 1 5 4 7.48209 0 5 7.48209 1
gene 1 2 8 1.67686 0 10 1.67686 1
gene 1 8 4 -0.961197 0 11 -0.961197 1
gene 2 2 5 5.64 0 26 5.64 0
gene 1 1 8 1.39806 0 36 1.39806 1
gene 2 2 23 -4.23198 0 54 -4.23198 1
gene 2 23 5 0.579109 0 55 0.579109 1
genomeend 58

/* Organism #59 Fitness: 8.25443 Error: 1.12695 */
genomestart 59
trait 1 0.14055 0.048374 0 0 0 0.0234535 0 0 
trait 2 0.2 0 0 0 0 0 0 0 
trait 3 0.3 0 0 0 0 0 0 0 
node 1 3 1 3
node 2 1 1 1
node 3 1 1 1
node 4 2 0 2
node 5 1 0 0
node 8 1 0 0
node 23 2 0 0
gene 3 1 4 -3.27857 0 1 -3.27857 1
gene 1 2 4 -0.22773 0 2 -0.22773 0
gene 2 3 4 1.62303 0 3 1.62303 1
gene 1 3 5 -1.23645 0 4 -1.23645 1
gene 1 5 4 4.80982 0 5 4.80982 1
gene 1 2 8 -0.075252 0 10 -0.075252 1
gene 1 8 4 -0.972067 0 11 -0.972067 1
gene 2 2 5 2.11061 0 26 2.11061 1
gene 1 1 8 2.58238 0 36 2.58238 1
gene 2 2 23 1 0 54 1 1
gene 2 23 5 -1.44655 0 55 -1.44655 1
genomeend 59

/* Organism #60 Fitness: 5.55818 Error: 1.64242 */
genomestart 60
trait 1 0.1 0 0 0 0 0 0 0 
trait 2 0.2 0 0 0 0 0 0 0 
trait 3 0.3 0 0 0 0.225542 0 0 0 
node 1 3 1 3
node 2 1 1 1
node 3 1 1 1
node 4 2 0 2
node 5 1 0 0
node 8 1 0 0
node 23 2 0 0
gene 3 1 4 -2.31436 0 1 -2.31436 1
gene 1 2 4 5.53485 0 2 5.53485 0
gene 2 3 4 0.891179 0 3 0.891179 1
gene 1 3 5 0.894451 0 4 0.894451 1
gene 1 5 4 7.21295 0 5 7.21295 1
gene 1 2 8 0.192931 0 10 0.192931 1
gene 1 8 4 2.24904 0 11 2.24904 1
gene 2 2 5 2.48953 0 26 2.48953 1
gene 1 1 8 1.12471 0 36 1.12471 1
gene 2 2 23 1 0 54 1 1
gene 2 23 5 -1.4594 0 55 -1.4594 1
genomeend 60

/* Organism #61 Fitness: 3.74858 Error: 2.06388 */
genomestart 61
trait 1 0.14055 0.048374 0 0 0 0.0234535 0 0 
trait 2 0.2 0 0 0 0 0 0 0 
trait 3 0 0 0.894391 0 0.80917 0 0 0 
node 1 3 1 3
node 2 1 1 1
node 3 1 1 1
node 4 2 0 2
node 5 1 0 0
node 8 1 0 0
node 23 2 0 0
gene 3 1 4 -0.0736215 0 1 -0.0736215 1
gene 1 2 4 -2.49282 0 2 -2.49282 0
gene 2 3 4 0.49483 0 3 0.49483 1
gene 1 3 5 1.09341 0 4 1.09341 1
gene 1 5 4 3.91676 0 5 3.91676 1
gene 1 2 8 -1.3327 0 10 -1.3327 1
gene 1 8 4 1.63712 0 11 1.63712 1
gene 2 2 5 2.83211 0 26 2.83211 0
gene 1 1 8 1.2276 0 36 1.2276 1
gene 2 2 23 0.445217 0 54 0.445217 1
gene 2 23 5 -1.44655 0 55 -1.44655 1
genomeend 61

/* Organism #62 Fitness: 9 Error: 1 */
genomestart 62
trait 1 0.1 0 0 0.906081 0 0 0 0 
trait 2 0.2 0 0 0 0 0 0 0 
trait 3 0.3 0 0 0 0 0 0 0 
node 1 3 1 3
node 2 1 1 1
node 3 1 1 1
node 4 2 0 2
node 5 1 0 0
node 8 1 0 0
node 23 2 0 0
gene 3 1 4 -3.778 0 1 -3.778 1
gene 1 2 4 2.61335 0 2 2.61335 1
gene 2 3 4 -1.57709 0 3 -1.57709 1
gene 1 3 5 -3.92543 0 4 -3.92543 1
gene 1 5 4 6.71727 0 5 6.71727 1
gene 1 2 8 2.08389 0 10 2.08389 1
gene 1 8 4 -1.37129 0 11 -1.37129 1
gene 2 2 5 2.79518 0 26 2.79518 1
gene 1 1 8 2.81041 0 36 2.81041 1
gene 2 2 23 2.74072 0 54 2.74072 1
gene 2 23 5 -1.44655 0 55 -1.44655 1
genomeend 62

/* Organism #63 Fitness: 8.14103 Error: 1.14675 */
genomestart 63
trait 1 0.14055 0.048374 0 0 0 0.0234535 0 0 
trait 2 0.2 0 0 0 0 0 0 0 
trait 3 0.3 0 0 0 0 0 0 0 
node 1 3 1 3
node 2 1 1 1
node 3 1 1 1
node 4 2 0 2
node 5 1 0 0
node 8 1 0 0
node 23 1 0 0
gene 3 1 4 -1.52331 0 1 -1.52331 1
gene 1 2 4 1.48613 0 2 1.48613 0
gene 2 3 4 -0.249217 0 3 -0.249217 1
gene 1 3 5 0.235539 0 4 0.235539 1
gene 1 5 4 5.64625 0 5 5.64625 1
gene 1 2 8 1.72655 0 10 1.72655 1
gene 1 8 4 -0.303901 0 11 -0.303901 1
gene 2 2 5 2.34469 0 26 2.34469 0
gene 1 1 8 2.58238 0 36 2.58238 1
gene 2 2 23 -4.84582 0 54 -4.84582 1
gene 2 23 5 -0.563112 0 55 -0.563112 1
genomeend 63

/* Organism #64 Fitness: 4.0003 Error: 1.99992 */
genomestart 64
trait 1 0.14055 0.048374 0 0 0 0.0234535 0 0 
trait 2 0.2 0 0 0 0 0 0 0 
trait 3 0.3 0 0 0 0 0 0 0 
node 1 3 1 3
node 2 1 1 1
node 3 1 1 1
node 4 2 0 2
node 5 1 0 0
node 8 1 0 0
node 23 1 0 0
gene 3 1 4 -2.30379 0 1 -2.30379 1
gene 1 2 4 2.12692 0 2 2.12692 0
gene 2 3 4 0.367309 0 3 0.367309 1
gene 1 3 5 -1.38709 0 4 -1.38709 1
gene 1 5 4 5.25742 0 5 5.25742 1
gene 1 2 8 -0.0677616 0 10 -0.0677616 1
gene 1 8 4 0.0506001 0 11 0.0506001 1
gene 2 2 5 2.84515 0 26 2.84515 1
gene 1 1 8 1.51015 0 36 1.51015 1
gene 2 2 23 -1.92291 0 54 -1.92291 1
gene 2 23 5 -2.15335 0 55 -2.15335 1
genomeend 64

/* Species #7 : (Size 14) (AF 6.47746) (Age 9)  */


/* Organism #65 Fitness: 8.99977 Error: 1.00004 */
genomestart 65
trait 1 0.1 0 0 0 0 0 0 0 
trait 2 0.140337 0 0 0.0804293 0 0 0.278695 0 
trait 3 0.3 0 0 0 0 0 0 0 
node 1 3 1 3
node 2 1 1 1
node 3 1 1 1
node 4 2 0 2
node 5 1 0 0
node 8 1 0 0
node 20 1 0 0
gene 3 1 4 1.21888 0 1 1.21888 1
gene 1 2 4 0.43349 0 2 0.43349 1
gene 2 3 4 4.696 0 3 4.696 1
gene 1 3 5 -3.43453 0 4 -3.43453 1
gene 1 5 4 1.16897 0 5 1.16897 1
gene 1 2 8 -2.2829 0 10 -2.2829 1
gene 1 8 4 -8 0 11 -8 1
gene 3 2 5 3.78928 0 37 3.78928 0
gene 1 5 20 -2.0837 0 44 -2.0837 1
gene 3 20 4 1.84132 0 45 1.84132 1
genomeend 65

/* Organism #66 Fitness: 2.68477 Error: 2.36147 */
genomestart 66
trait 1 0.1 0 0.852929 0.625667 0 0 0 0.111604 
trait 2 0.140337 0 0 0.0804293 0 0 0.278695 0 
trait 3 0.3 0 0 0 0 0 0 0 
node 1 3 1 3
node 2 1 1 1
node 3 1 1 1
node 4 2 0 2
node 5 1 0 0
node 8 1 0 0
node 20 1 0 0
gene 3 1 4 0.454776 0 1 0.454776 1
gene 1 2 4 -1.28668 0 2 -1.28668 1
gene 2 3 4 2.33866 0 3 2.33866 1
gene 1 3 5 -5.52163 0 4 -5.52163 1
gene 1 5 4 -0.329146 0 5 -0.329146 1
gene 1 2 8 -0.988347 0 10 -0.988347 1
gene 1 8 4 -8 0 11 -8 1
gene 3 2 5 0.949187 0 37 0.949187 0
gene 1 5 20 0.0792685 0 44 0.0792685 1
gene 3 20 4 1.84132 0 45 1.84132 1
genomeend 66

/* Organism #67 Fitness: 8.1886 Error: 1.13843 */
genomestart 67
trait 1 0.1 0 0 0 0 0 0 0 
trait 2 0.147795 0 0 0.0703756 0 0 0.243858 0 
trait 3 0.15 0 0 0 0 0 0 0 
node 1 3 1 3
node 2 1 1 1
node 3 1 1 1
node 4 2 0 2
node 5 1 0 0
node 8 1 0 0
node 20 1 0 0
gene 3 1 4 0.136477 0 1 0.136477 1
gene 1 2 4 1.37644 0 2 1.37644 1
gene 2 3 4 4.23571 0 3 4.23571 1
gene 1 3 5 1.8291 0 4 1.8291 1
gene 1 5 4 1.16897 0 5 1.16897 0
gene 1 2 8 -2.2829 0 10 -2.2829 1
gene 1 8 4 -8 0 11 -8 1
gene 3 2 5 4.1389 0 37 4.1389 0
gene 1 5 20 -2.0837 0 44 -2.0837 1
gene 3 20 4 1.84132 0 45 1.84132 1
genomeend 67

/* Organism #68 Fitness: 4.00021 Error: 1.99995 */
genomestart 68
trait 1 0.1 0 0 0 0 0 0 0 
trait 2 0.140337 0 0 0.0804293 0 0 0.278695 0 
trait 3 0.3 0 0 0 0 0 0 0 
node 1 3 1 3
node 2 1 1 1
node 3 1 1 1
node 4 2 0 2
node 5 1 0 0
node 8 1 0 0
node 20 1 0 0
gene 3 1 4 -0.119643 0 1 -0.119643 1
gene 1 2 4 1.29911 0 2 1.29911 1
gene 2 3 4 3.93297 0 3 3.93297 1
gene 1 3 5 -5.39945 0 4 -5.39945 1
gene 1 5 4 -0.743616 0 5 -0.743616 1
gene 1 2 8 -0.146436 0 10 -0.146436 1
gene 1 8 4 -8 0 11 -8 1
gene 3 2 5 1.43178 0 37 1.43178 0
gene 1 5 20 -1.8549 0 44 -1.8549 1
gene 3 20 4 4.06419 0 45 4.06419 1
genomeend 68

/* Organism #69 Fitness: 5.99696 Error: 1.55113 */
genomestart 69
trait 1 0.1 0 0 0 0 0 0 0 
trait 2 0.155253 0 0 0.0603219 0 0 0.209021 0 
trait 3 0 0 0 0 0 0 0 0 
node 1 3 1 3
node 2 1 1 1
node 3 1 1 1
node 4 2 0 2
node 5 1 0 0
node 8 1 0 0
node 20 1 0 0
gene 3 1 4 2.07181 0 1 2.07181 1
gene 1 2 4 1.07486 0 2 1.07486 1
gene 2 3 4 2.92149 0 3 2.92149 1
gene 1 3 5 1.82756 0 4 1.82756 1
gene 1 5 4 2.08875 0 5 2.08875 0
gene 1 2 8 -1.22937 0 10 -1.22937 1
gene 1 8 4 -4.07276 0 11 -4.07276 1
gene 3 2 5 6.10089 0 37 6.10089 0
gene 1 5 20 -2.0837 0 44 -2.0837 1
gene 3 20 4 1.0625 0 45 1.0625 1
genomeend 69

/* Organism #70 Fitness: 8.96922 Error: 1.00513 */
genomestart 70
trait 1 0.1 0 0 0 0 0 0 0 
trait 2 0.140337 0 0 0.0804293 0 0 0.278695 0 
trait 3 0.3 0 0 0 0 0 0 0 
node 1 3 1 3
node 2 1 1 1
node 3 1 1 1
node 4 2 0 2
node 5 1 0 0
node 8 1 0 0
node 20 1 0 0
gene 3 1 4 0.985648 0 1 0.985648 1
gene 1 2 4 -0.249944 0 2 -0.249944 1
gene 2 3 4 1.86288 0 3 1.86288 1
gene 1 3 5 -4.06303 0 4 -4.06303 1
gene 1 5 4 1.13267 0 5 1.13267 1
gene 1 2 8 -0.986972 0 10 -0.986972 1
gene 1 8 4 -5.6082 0 11 -5.6082 1
gene 3 2 5 4.71737 0 37 4.71737 0
gene 1 5 20 -3.22855 0 44 -3.22855 1
gene 3 20 4 2.71154 0 45 2.71154 1
genomeend 70

/* Organism #71 Fitness: 8.99915 Error: 1.00014 */
genomestart 71
trait 1 0.1 0 0 0 0 0 0 0 
trait 2 0.140337 0 0 0.0804293 0 0 0.278695 0 
trait 3 0.3 0 0 0 0 0 0 0 
node 1 3 1 3
node 2 1 1 1
node 3 1 1 1
node 4 2 0 2
node 5 1 0 0
node 8 1 0 0
node 20 1 0 0
gene 3 1 4 0.136477 0 1 0.136477 1
gene 1 2 4 1.37644 0 2 1.37644 1
gene 2 3 4 4.23571 0 3 4.23571 1
gene 1 3 5 -1.59884 0 4 -1.59884 1
gene 1 5 4 2.95866 0 5 2.95866 1
gene 1 2 8 -0.988347 0 10 -0.988347 1
gene 1 8 4 -8 0 11 -8 1
gene 3 2 5 2.38481 0 37 2.38481 0
gene 1 5 20 -2.18295 0 44 -2.18295 1
gene 3 20 4 2.88352 0 45 2.88352 1
genomeend 71

/* Organism #72 Fitness: 8.99795 Error: 1.00034 */
genomestart 72
trait 1 0.1 0 0 0 0 0 0 0 
trait 2 0.147795 0 0 0.0703756 0 0 0.243858 0 
trait 3 0.15 0 0 0 0 0 0 0 
node 1 3 1 3
node 2 1 1 1
node 3 1 1 1
node 4 2 0 2
node 5 1 0 0
node 8 1 0 0
node 20 1 0 0
gene 3 1 4 0.677677 0 1 0.677677 1
gene 1 2 4 1.93527 0 2 1.93527 1
gene 2 3 4 4.46586 0 3 4.46586 1
gene 1 3 5 0.11513 0 4 0.11513 1
gene 1 5 4 2.06382 0 5 2.06382 0
gene 1 2 8 -1.63563 0 10 -1.63563 1
gene 1 8 4 -7.04809 0 11 -7.04809 1
gene 3 2 5 3.26186 0 37 3.26186 0
gene 1 5 20 -2.13333 0 44 -2.13333 1
gene 3 20 4 2.36242 0 45 2.36242 1
genomeend 72

/* Organism #73 Fitness: 4.00365 Error: 1.99909 */
genomestart 73
trait 1 0.1 0 0 0 0 0 0 0 
trait 2 0.140337 0 0 0.0804293 0 0 0.278695 0 
trait 3 0.3 0 0 0 0 0 0 0 
node 1 3 1 3
node 2 1 1 1
node 3 1 1 1
node 4 2 0 2
node 5 1 0 0
node 8 1 0 0
node 20 1 0 0
gene 3 1 4 -1.07104 0 1 -1.07104 1
gene 1 2 4 -0.846993 0 2 -0.846993 1
gene 2 3 4 6.0337 0 3 6.0337 1
gene 1 3 5 -1.3362 0 4 -1.3362 1
gene 1 5 4 0.954598 0 5 0.954598 1
gene 1 2 8 -1.05052 0 10 -1.05052 1
gene 1 8 4 -8 0 11 -8 1
gene 3 2 5 1.86593 0 37 1.86593 0
gene 1 5 20 -1.52486 0 44 -1.52486 1
gene 3 20 4 2.88352 0 45 2.88352 1
genomeend 73

/* Organism #74 Fitness: 8.96832 Error: 1.00528 */
genomestart 74
trait 1 0.1 0 0 0 0 0 0 0 
trait 2 0.140337 0 0 0.0804293 0 0 0.278695 0 
trait 3 0.3 0 0 0 0 0 0 0 
node 1 3 1 3
node 2 1 1 1
node 3 1 1 1
node 4 2 0 2
node 5 1 0 0
node 8 1 0 0
node 20 1 0 0
gene 3 1 4 -1.92778 0 1 -1.92778 1
gene 1 2 4 1.27507 0 2 1.27507 1
gene 2 3 4 6.67219 0 3 6.67219 1
gene 1 3 5 -0.559266 0 4 -0.559266 1
gene 1 5 4 3.53414 0 5 3.53414 1
gene 1 2 8 0.807935 0 10 0.807935 1
gene 1 8 4 -8 0 11 -8 1
gene 3 2 5 0.952497 0 37 0.952497 0
gene 1 5 20 0.217559 0 44 0.217559 1
gene 3 20 4 1.02928 0 45 1.02928 1
genomeend 74

/* Organism #75 Fitness: 5.8693 Error: 1.57734 */
genomestart 75
trait 1 0.1 0 0 0 0 0 0 0 
trait 2 0.140337 0 0 0.0804293 0 0 0.278695 0 
trait 3 0.3 0 0 0 0 0 0 0 
node 1 3 1 3
node 2 1 1 1
node 3 1 1 1
node 4 2 0 2
node 5 1 0 0
node 8 1 0 0
node 20 1 0 0
gene 3 1 4 2.57661 0 1 2.57661 1
gene 1 2 4 1.98587 0 2 1.98587 1
gene 2 3 4 6.79742 0 3 6.79742 1
gene 1 3 5 -3.51669 0 4 -3.51669 1
gene 1 5 4 1.48767 0 5 1.48767 1
gene 1 2 8 -0.118795 0 10 -0.118795 1
gene 1 8 4 -6.51427 0 11 -6.51427 1
gene 3 2 5 5.64781 0 37 5.64781 0
gene 1 5 20 -4.53013 0 44 -4.53013 1
gene 3 20 4 1.49881 0 45 1.49881 1
genomeend 75

/* Organism #76 Fitness: 1.99535 Error: 2.58743 */
genomestart 76
trait 1 0.1 0 0 0 0 0 0 0 
trait 2 0.140337 0 0 0.0804293 0 0 0.278695 0 
trait 3 0.3 0 0 0 0 0 0 0 
node 1 3 1 3
node 2 1 1 1
node 3 1 1 1
node 4 2 0 2
node 5 1 0 0
node 8 1 0 0
node 20 1 0 0
gene 3 1 4 0.456575 0 1 0.456575 1
gene 1 2 4 1.09036 0 2 1.09036 1
gene 2 3 4 2.57307 0 3 2.57307 1
gene 1 3 5 -5.02363 0 4 -5.02363 1
gene 1 5 4 1.97111 0 5 1.97111 1
gene 1 2 8 -0.0678276 0 10 -0.0678276 1
gene 1 8 4 -8 0 11 -8 1
gene 3 2 5 4.55266 0 37 4.55266 0
gene 1 5 20 -2.81544 0 44 -2.81544 1
gene 3 20 4 -1.38861 0 45 -1.38861 1
genomeend 76

/* Organism #77 Fitness: 8.99868 Error: 1.00022 */
genomestart 77
trait 1 0.1 0 0 0 0 0 0 0 
trait 2 0.140337 0 0 0.0804293 0 0 0.278695 0 
trait 3 0.3 0 0 0 0 0 0 0 
node 1 3 1 3
node 2 1 1 1
node 3 1 1 1
node 4 2 0 2
node 5 1 0 0
node 8 1 0 0
node 20 1 0 0
gene 3 1 4 0.136477 0 1 0.136477 1
gene 1 2 4 1.37644 0 2 1.37644 1
gene 2 3 4 4.696 0 3 4.696 1
gene 1 3 5 -3.43453 0 4 -3.43453 1
gene 1 5 4 1.16897 0 5 1.16897 1
gene 1 2 8 -0.988347 0 10 -0.988347 1
gene 1 8 4 -8 0 11 -8 1
gene 3 2 5 3.78928 0 37 3.78928 0
gene 1 5 20 -2.0837 0 44 -2.0837 1
gene 3 20 4 1.84132 0 45 1.84132 1
genomeend 77

/* Organism #78 Fitness: 4.01254 Error: 1.99687 */
genomestart 78
trait 1 0.1 0 0 0 0 0 0 0 
trait 2 0.147795 0 0 0.0703756 0 0 0.243858 0 
trait 3 0.15 0 0 0 0 0 0 0 
node 1 3 1 3
node 2 1 1 1
node 3 1 1 1
node 4 2 0 2
node 5 1 0 0
node 8 1 0 0
node 20 1 0 0
gene 3 1 4 -0.488571 0 1 -0.488571 1
gene 1 2 4 -1.74097 0 2 -1.74097 1
gene 2 3 4 4.55346 0 3 4.55346 1
gene 1 3 5 3.39157 0 4 3.39157 1
gene 1 5 4 2.03654 0 5 2.03654 0
gene 1 2 8 -3.89507 0 10 -3.89507 1
gene 1 8 4 -6.30991 0 11 -6.30991 1
gene 3 2 5 2.45298 0 37 2.45298 0
gene 1 5 20 0.125233 0 44 0.125233 1
gene 3 20 4 1.84132 0 45 1.84132 1
genomeend 78

/* Species #8 : (Size 13) (AF 5.74835) (Age 9)  */


/* Organism #79 Fitness: 8.99961 Error: 1.00006 */
genomestart 79
trait 1 0.1 0 0 0 0 0 0 0 
trait 2 0.2 0 0 0 0 0 0 0 
trait 3 0.3 0 0 0 0 0 0 0 
node 1 3 1 3
node 2 1 1 1
node 3 1 1 1
node 4 2 0 2
node 5 1 0 0
node 8 1 0 0
gene 3 1 4 -5.81888 0 1 -5.81888 1
gene 1 2 4 1.6521 0 2 1.6521 1
gene 2 3 4 -5.87291 0 3 -5.87291 1
gene 1 3 5 -0.428898 0 4 -0.428898 1
gene 1 5 4 8 0 5 8 1
gene 1 2 8 -1.28021 0 10 -1.28021 1
gene 1 8 4 -0.438326 0 11 -0.438326 1
gene 3 2 5 3.28019 0 37 3.28019 1
gene 3 5 8 0.543491 0 48 0.543491 1
genomeend 79

/* Organism #80 Fitness: 4.03154 Error: 1.99213 */
genomestart 80
trait 1 0.1 0 0 0 0 0 0 0 
trait 2 0.2 0 0 0 0 0 0 0 
trait 3 0.3 0 0 0 0 0 0 0 
node 1 3 1 3
node 2 1 1 1
node 3 1 1 1
node 4 2 0 2
node 5 1 0 0
node 8 1 0 0
gene 3 1 4 -5.81888 0 1 -5.81888 1
gene 1 2 4 1.6521 0 2 1.6521 1
gene 2 3 4 -5.87291 0 3 -5.87291 1
gene 1 3 5 -0.428898 0 4 -0.428898 1
gene 1 5 4 8 0 5 8 1
gene 1 2 8 -1.28021 0 10 -1.28021 1
gene 1 8 4 -0.438326 0 11 -0.438326 1
gene 3 2 5 3.28019 0 37 3.28019 1
gene 3 5 8 0.543491 0 48 0.543491 1
gene 3 1 5 0.446835 0 132 0 1
genomeend 80

/* Organism #81 Fitness: 1.00226 Error: 2.99887 */
genomestart 81
trait 1 0.1 0 0 0 0 0 0 0 
trait 2 0.2 0 0 0 0 0 0 0 
trait 3 0.3 0 0 0 0 0 0 0 
node 1 3 1 3
node 2 1 1 1
node 3 1 1 1
node 4 2 0 2
node 5 1 0 0
node 8 1 0 0
gene 3 1 4 -2.14735 0 1 -2.14735 1
gene 1 2 4 1.69573 0 2 1.69573 0
gene 2 3 4 -4.4522 0 3 -4.4522 1
gene 1 3 5 -1.42941 0 4 -1.42941 1
gene 1 5 4 8 0 5 8 1
gene 1 2 8 -0.248673 0 10 -0.248673 1
gene 1 8 4 -0.659882 0 11 -0.659882 1
gene 3 2 5 3.82494 0 37 3.82494 1
gene 3 5 8 -1.51667 0 48 -1.51667 1
genomeend 81

/* Organism #82 Fitness: 8.96304 Error: 1.00617 */
genomestart 82
trait 1 0.1 0 0 0 0 0 0 0 
trait 2 0.2 0 0 0 0 0 0 0 
trait 3 0.3 0 0 0 0 0 0 0 
node 1 3 1 3
node 2 2 1 1
node 3 1 1 1
node 4 2 0 2
node 5 1 0 0
node 8 1 0 0
gene 3 1 4 -6.78362 0 1 -6.78362 1
gene 1 2 4 0.155697 0 2 0.155697 1
gene 2 3 4 -4.38917 0 3 -4.38917 1
gene 1 3 5 0.441731 0 4 0.441731 1
gene 1 5 4 7.66002 0 5 7.66002 1
gene 1 2 8 -0.883537 0 10 -0.883537 1
gene 1 8 4 1.29954 0 11 1.29954 1
gene 3 2 5 3.57369 0 37 3.57369 1
gene 3 5 8 -1.10014 0 48 -1.10014 1
genomeend 82

/* Organism #83 Fitness: 8.47802 Error: 1.0883 */
genomestart 83
trait 1 0.1 0 0 0 0 0 0 0 
trait 2 0.2 0 0 0 0 0 0 0 
trait 3 0.3 0 0 0 0 0 0 0 
node 1 3 1 3
node 2 1 1 1
node 3 1 1 1
node 4 2 0 2
node 5 1 0 0
node 8 1 0 0
gene 3 1 4 -4.47438 0 1 -4.47438 1
gene 1 2 4 -0.956181 0 2 -0.956181 0
gene 2 3 4 -4.47718 0 3 -4.47718 1
gene 1 3 5 1.34399 0 4 1.34399 1
gene 1 5 4 8 0 5 8 1
gene 1 2 8 -0.439541 0 10 -0.439541 1
gene 1 8 4 -0.000953883 0 11 -0.000953883 1
gene 3 2 5 2.62986 0 37 2.62986 1
gene 3 5 8 1.09671 0 48 1.09671 1
genomeend 83

/* Organism #84 Fitness: 4.00001 Error: 2 */
genomestart 84
trait 1 0.1 0 0 0 0 0 0 0 
trait 2 0.2 0 0 0 0 0 0 0 
trait 3 0.3 0 0 0 0 0 0 0 
node 1 3 1 3
node 2 1 1 1
node 3 1 1 1
node 4 2 0 2
node 5 1 0 0
node 8 1 0 0
gene 3 1 4 -8 0 1 -8 1
gene 1 2 4 -0.960936 0 2 -0.960936 1
gene 2 3 4 -2.9379 0 3 -2.9379 1
gene 1 3 5 0.533879 0 4 0.533879 1
gene 1 5 4 6.21172 0 5 6.21172 1
gene 1 2 8 -1.93221 0 10 -1.93221 1
gene 1 8 4 1.00687 0 11 1.00687 1
gene 3 2 5 1.41162 0 37 1.41162 1
gene 3 5 8 -0.6622 0 48 -0.6622 1
genomeend 84

/* Organism #85 Fitness: 4.00006 Error: 1.99999 */
genomestart 85
trait 1 0.1 0 0 0 0 0 0 0 
trait 2 0.2 0 0 0 0 0 0 0 
trait 3 0.3 0 0 0 0 0 0 0 
node 1 3 1 3
node 2 1 1 1
node 3 1 1 1
node 4 2 0 2
node 5 1 0 0
node 8 1 0 0
gene 3 1 4 -7.06451 0 1 -7.06451 1
gene 1 2 4 3.41949 0 2 3.41949 0
gene 2 3 4 -3.01987 0 3 -3.01987 1
gene 1 3 5 -1.41685 0 4 -1.41685 1
gene 1 5 4 6.98386 0 5 6.98386 1
gene 1 2 8 -0.292998 0 10 -0.292998 1
gene 1 8 4 -2.18914 0 11 -2.18914 1
gene 3 2 5 4.07024 0 37 4.07024 1
gene 3 5 8 2.94836 0 48 2.94836 1
genomeend 85

/* Organism #86 Fitness: 8.9711 Error: 1.00482 */
genomestart 86
trait 1 0.1 0 0 0 0 0 0 0 
trait 2 0.2 0 0 0 0 0 0 0 
trait 3 0.3 0 0 0 0 0 0 0 
node 1 3 1 3
node 2 1 1 1
node 3 1 1 1
node 4 2 0 2
node 5 1 0 0
node 8 1 0 0
gene 3 1 4 -4.96625 0 1 -4.96625 1
gene 1 2 4 1.6521 0 2 1.6521 0
gene 2 3 4 -5.87291 0 3 -5.87291 1
gene 1 3 5 0.60092 0 4 0.60092 1
gene 1 5 4 7.76931 0 5 7.76931 1
gene 1 2 8 0.169253 0 10 0.169253 1
gene 1 8 4 -0.000953883 0 11 -0.000953883 1
gene 3 2 5 1.69175 0 37 1.69175 1
gene 3 5 8 0.821469 0 48 0.821469 1
genomeend 86

/* Organism #87 Fitness: 8.75644 Error: 1.04087 */
genomestart 87
trait 1 0.1 0 0 0 0 0 0 0 
trait 2 0.2 0 0 0 0 0 0 0 
trait 3 0.3 0 0 0 0 0 0 0 
node 1 3 1 3
node 2 1 1 1
node 3 1 1 1
node 4 2 0 2
node 5 1 0 0
node 8 1 0 0
gene 3 1 4 -5.40314 0 1 -5.40314 1
gene 1 2 4 0.0514385 0 2 0.0514385 0
gene 2 3 4 -7.11681 0 3 -7.11681 1
gene 1 3 5 1.44719 0 4 1.44719 1
gene 1 5 4 7.88466 0 5 7.88466 1
gene 1 2 8 -1.91345 0 10 -1.91345 1
gene 1 8 4 0.926753 0 11 0.926753 1
gene 3 2 5 2.58948 0 37 2.58948 1
gene 1 5 8 0.827915 0 48 0.827915 1
genomeend 87

/* Organism #88 Fitness: 4.23987 Error: 1.94091 */
genomestart 88
trait 1 0.1 0 0 0 0 0 0 0 
trait 2 0.2 0 0 0 0 0 0 0 
trait 3 0.3 0 0 0 0 0 0 0 
node 1 3 1 3
node 2 1 1 1
node 3 1 1 1
node 4 2 0 2
node 5 1 0 0
node 8 1 0 0
gene 3 1 4 -5.04478 0 1 -5.04478 1
gene 1 2 4 2.27735 0 2 2.27735 1
gene 2 3 4 -2.58088 0 3 -2.58088 1
gene 1 3 5 3.0741 0 4 3.0741 1
gene 1 5 4 5.91102 0 5 5.91102 1
gene 1 2 8 -1.03989 0 10 -1.03989 1
gene 1 8 4 -0.0657705 0 11 -0.0657705 1
gene 3 2 5 2.27764 0 37 2.27764 1
gene 3 5 8 -1.49613 0 48 -1.49613 1
genomeend 88

/* Organism #89 Fitness: 5.04198 Error: 1.75456 */
genomestart 89
trait 1 0.1 0 0 0 0 0 0 0 
trait 2 0.2 0 0 0 0 0 0 0 
trait 3 0.3 0 0 0 0 0 0 0 
node 1 3 1 3
node 2 1 1 1
node 3 1 1 1
node 4 2 0 2
node 5 1 0 0
node 8 1 0 0
gene 3 1 4 -6.5085 0 1 -6.5085 1
gene 1 2 4 -1.21669 0 2 -1.21669 0
gene 2 3 4 -4.81744 0 3 -4.81744 1
gene 1 3 5 1.59888 0 4 1.59888 1
gene 1 5 4 5.61889 0 5 5.61889 1
gene 1 2 8 1.77451 0 10 1.77451 1
gene 1 8 4 3.47539 0 11 3.47539 1
gene 3 2 5 3.05873 0 37 3.05873 1
gene 3 5 8 -2.06851 0 48 -2.06851 1
genomeend 89

/* Organism #90 Fitness: 4 Error: 2 */
genomestart 90
trait 1 0.1 0 0 0 0 0 0 0 
trait 2 0.2 0 0 0 0 0 0 0 
trait 3 0.3 0 0 0 0 0 0 0 
node 1 3 1 3
node 2 1 1 1
node 3 1 1 1
node 4 2 0 2
node 5 1 0 0
node 8 1 0 0
gene 3 1 4 -0.269836 0 1 -0.269836 1
gene 1 2 4 -0.840114 0 2 -0.840114 0
gene 2 3 4 1.42796 0 3 1.42796 1
gene 1 3 5 0.557624 0 4 0.557624 1
gene 1 5 4 5.80522 0 5 5.80522 1
gene 1 2 8 0.213798 0 10 0.213798 1
gene 1 8 4 0.505154 0 11 0.505154 1
gene 3 2 5 0.871554 0 37 0.871554 1
gene 3 5 8 2.2283 0 48 2.2283 1
genomeend 90

/* Organism #91 Fitness: 4.24459 Error: 1.93976 */
genomestart 91
trait 1 0.1 0 0 0 0 0 0 0 
trait 2 0.2 0 0 0 0 0 0 0 
trait 3 0.3 0 0 0 0 0 0 0 
node 1 3 1 3
node 2 1 1 1
node 3 1 1 1
node 4 2 0 2
node 5 1 0 0
node 8 1 0 0
gene 3 1 4 -6.24284 0 1 -6.24284 1
gene 1 2 4 1.6521 0 2 1.6521 0
gene 2 3 4 -4.11908 0 3 -4.11908 1
gene 1 3 5 1.3589 0 4 1.3589 1
gene 1 5 4 8 0 5 8 1
gene 1 2 8 -1.28021 0 10 -1.28021 1
gene 1 8 4 -0.438326 0 11 -0.438326 1
gene 3 2 5 3.28019 0 37 3.28019 1
gene 3 5 8 0.543491 0 48 0.543491 1
gene 3 1 5 0.446835 0 132 0 1
genomeend 91

/* Species #9 : (Size 13) (AF 7.80714) (Age 7)  */


/* Organism #92 Fitness: 9 Error: 1 */
genomestart 92
trait 1 0.1 0 0 0 0 0 0 0 
trait 2 0.2 0 0.33542 0 0 0 0.166655 0 
trait 3 0.3 0.126832 0 0.245162 0 0 0 0 
node 1 1 1 3
node 2 1 1 1
node 3 1 1 1
node 4 2 0 2
node 5 1 0 0
node 8 3 0 0
gene 3 1 4 -4.79185 0 1 -4.79185 1
gene 1 2 4 3.87317 0 2 3.87317 0
gene 2 3 4 -5.85542 0 3 -5.85542 1
gene 1 3 5 -2.6774 0 4 -2.6774 1
gene 1 5 4 7.29573 0 5 7.29573 1
gene 1 2 8 0.495028 0 10 0.495028 1
gene 1 8 4 1.19986 0 11 1.19986 1
gene 2 2 5 3.11841 0 26 3.11841 1
gene 1 1 8 0.447355 0 36 0.447355 1
gene 2 8 5 -1.38262 0 53 -1.38262 1
genomeend 92

/* Organism #93 Fitness: 9 Error: 1 */
genomestart 93
trait 1 0.1 0 0 0 0 0 0 0 
trait 2 0.2 0 0.33542 0 0 0 0.166655 0 
trait 3 0.3 0.0634158 0 0.122581 0 0 0 0 
node 1 1 1 3
node 2 1 1 1
node 3 1 1 1
node 4 2 0 2
node 5 1 0 0
node 8 3 0 0
gene 3 1 4 -4.92291 0 1 -4.92291 1
gene 1 2 4 3.45723 0 2 3.45723 0
gene 2 3 4 -5.34502 0 3 -5.34502 1
gene 1 3 5 -2.14699 0 4 -2.14699 1
gene 1 5 4 6.69745 0 5 6.69745 1
gene 1 2 8 0.357008 0 10 0.357008 1
gene 1 8 4 2.03797 0 11 2.03797 1
gene 2 2 5 2.74938 0 26 2.74938 1
gene 1 1 8 0.321069 0 36 0.321069 1
gene 2 8 5 -0.919647 0 53 -0.919647 1
gene 2 1 5 -0.627649 0 122 -0.627649 1
genomeend 93

/* Organism #94 Fitness: 8.997 Error: 1.0005 */
genomestart 94
trait 1 0.1 0 0 0 0 0 0 0 
trait 2 0.2 0 0.33542 0 0 0 0.166655 0 
trait 3 0.3 0.126832 0 0.245162 0 0 0 0 
node 1 1 1 3
node 2 1 1 1
node 3 1 1 1
node 4 2 0 2
node 5 1 0 0
node 8 3 0 0
gene 3 1 4 -5.09665 0 1 -5.09665 1
gene 1 2 4 6.96794 0 2 6.96794 0
gene 2 3 4 -1.69818 0 3 -1.69818 1
gene 1 3 5 -2.68495 0 4 -2.68495 1
gene 1 5 4 6.80769 0 5 6.80769 1
gene 1 2 8 0.324685 0 10 0.324685 1
gene 1 8 4 4.43416 0 11 4.43416 1
gene 2 2 5 3.97411 0 26 3.97411 1
gene 1 1 8 0.282037 0 36 0.282037 1
gene 2 8 5 -2.1763 0 53 -2.1763 1
genomeend 94

/* Organism #95 Fitness: 8.9999 Error: 1.00002 */
genomestart 95
trait 1 0.1 0 0 0 0 0 0 0 
trait 2 0.2 0 0.33542 0 0 0 0.166655 0 
trait 3 0.85122 0.0127254 0 0.245162 0 0 0 0.831777 
node 1 1 1 3
node 2 1 1 1
node 3 1 1 1
node 4 2 0 2
node 5 1 0 0
node 8 3 0 0
gene 3 1 4 -3.67314 0 1 -3.67314 1
gene 1 2 4 2.98768 0 2 2.98768 0
gene 2 3 4 -6.9893 0 3 -6.9893 1
gene 1 3 5 -2.10867 0 4 -2.10867 1
gene 1 5 4 8 0 5 8 1
gene 1 2 8 1.96525 0 10 1.96525 1
gene 1 8 4 1.35889 0 11 1.35889 1
gene 2 2 5 4.01185 0 26 4.01185 1
gene 1 1 8 -0.233835 0 36 -0.233835 1
gene 2 8 5 -1.56668 0 53 -1.56668 1
genomeend 95

/* Organism #96 Fitness: 4 Error: 2 */
genomestart 96
trait 1 0.1 0 0 0 0 0 0 0 
trait 2 0.2 0 0.33542 0 0 0 0.166655 0 
trait 3 0.3 0.0634158 0 0.122581 0 0 0 0 
node 1 1 1 3
node 2 1 1 1
node 3 1 1 1
node 4 2 0 2
node 5 1 0 0
node 8 3 0 0
gene 3 1 4 -0.326884 0 1 -0.326884 1
gene 1 2 4 1.1561 0 2 1.1561 0
gene 1 3 4 -7.13232 0 3 -7.13232 1
gene 1 3 5 -2.14699 0 4 -2.14699 1
gene 1 5 4 6.69745 0 5 6.69745 1
gene 1 2 8 0.019357 0 10 0.019357 1
gene 1 8 4 2.68603 0 11 2.68603 1
gene 2 2 5 0.814633 0 26 0.814633 1
gene 1 1 8 1.34813 0 36 1.34813 1
gene 2 8 5 -1.92067 0 53 -1.92067 1
gene 2 1 5 -1.88097 0 122 -1.88097 1
genomeend 96

/* Organism #97 Fitness: 8.88266 Error: 1.01962 */
genomestart 97
trait 1 0.1 0 0 0 0 0 0 0 
trait 2 0.2 0 0.33542 0 0 0 0.166655 0 
trait 3 0.3 0.126832 0 0.245162 0 0 0 0 
node 1 1 1 3
node 2 1 1 1
node 3 1 1 1
node 4 2 0 2
node 5 1 0 0
node 8 3 0 0
gene 3 1 4 -5.99972 0 1 -5.99972 1
gene 1 2 4 5.4689 0 2 5.4689 0
gene 2 3 4 -5.87624 0 3 -5.87624 1
gene 1 3 5 -1.93819 0 4 -1.93819 1
gene 1 5 4 7.29573 0 5 7.29573 1
gene 1 2 8 2.30954 0 10 2.30954 1
gene 1 8 4 3.62216 0 11 3.62216 1
gene 2 2 5 2.78719 0 26 2.78719 1
gene 1 1 8 0.0274472 0 36 0.0274472 1
gene 2 8 5 -0.0882865 0 53 -0.0882865 1
genomeend 97

/* Organism #98 Fitness: 8.61919 Error: 1.06415 */
genomestart 98
trait 1 0.1 0 0 0 0 0 0 0 
trait 2 0.2 0 0.33542 0 0 0 0.166655 0 
trait 3 0.3 0.0634158 0 0.122581 0 0 0 0 
node 1 1 1 3
node 2 1 1 1
node 3 1 1 1
node 4 2 0 2
node 5 1 0 0
node 8 3 0 0
gene 3 1 4 -4.92291 0 1 -4.92291 1
gene 1 2 4 4.2145 0 2 4.2145 0
gene 2 3 4 -6.94717 0 3 -6.94717 1
gene 1 3 5 1.29855 0 4 1.29855 1
gene 1 5 4 6.09604 0 5 6.09604 1
gene 1 2 8 1.24849 0 10 1.24849 1
gene 1 8 4 4.41774 0 11 4.41774 1
gene 2 2 5 2.67345 0 26 2.67345 1
gene 1 1 8 0.321069 0 36 0.321069 1
gene 2 8 5 0.260873 0 53 0.260873 1
gene 2 1 5 -0.627649 0 122 -0.627649 1
genomeend 98

/* Organism #99 Fitness: 8.99999 Error: 1 */
genomestart 99
trait 1 0.1 0 0 0 0 0 0 0 
trait 2 0.2 0 0.33542 0 0 0 0.166655 0 
trait 3 0.3 0.0634158 0 0.122581 0 0 0 0 
node 1 1 1 3
node 2 1 1 1
node 3 1 1 1
node 4 2 0 2
node 5 1 0 0
node 8 3 0 0
gene 3 1 4 -2.97304 0 1 -2.97304 1
gene 1 2 4 2.14587 0 2 2.14587 0
gene 2 3 4 -7.10741 0 3 -7.10741 1
gene 1 3 5 -3.36683 0 4 -3.36683 1
gene 1 5 4 8 0 5 8 1
gene 1 2 8 -1.60094 0 10 -1.60094 1
gene 1 8 4 1.6363 0 11 1.6363 1
gene 2 2 5 2.75525 0 26 2.75525 1
gene 1 1 8 -1.72628 0 36 -1.72628 1
gene 2 8 5 -0.8587 0 53 -0.8587 1
gene 2 1 5 -0.627649 0 122 -0.627649 1
genomeend 99

/* Organism #100 Fitness: 4 Error: 2 */
genomestart 100
trait 1 0.1 0 0 0 0 0 0 0 
trait 2 0.2 0 0.33542 0 0 0 0.166655 0 
trait 3 0.3 0.0634158 0 0.122581 0 0 0 0 
node 1 1 1 3
node 2 1 1 1
node 3 1 1 1
node 4 2 0 2
node 5 1 0 0
node 8 3 0 0
gene 3 1 4 -4.57144 0 1 -4.57144 1
gene 1 2 4 5.48702 0 2 5.48702 0
gene 2 3 4 -6.41311 0 3 -6.41311 1
gene 1 3 5 0.276138 0 4 0.276138 1
gene 1 5 4 8 0 5 8 1
gene 1 2 8 1.8181 0 10 1.8181 1
gene 1 8 4 1.70306 0 11 1.70306 1
gene 2 2 5 0.825603 0 26 0.825603 1
gene 1 1 8 1.51692 0 36 1.51692 1
gene 2 8 5 -1.64529 0 53 -1.64529 1
gene 2 1 5 -0.627649 0 122 -0.627649 1
genomeend 100

/* Organism #101 Fitness: 8.99999 Error: 1 */
genomestart 101
trait 1 0.1 0 0 0 0 0 0 0 
trait 2 0.2 0 0.33542 0 0 0 0.166655 0 
trait 3 0.3 0.0951237 0 0.183871 0 0 0 0 
node 1 1 1 3
node 2 1 1 1
node 3 1 1 1
node 4 2 0 2
node 5 1 0 0
node 8 3 0 0
gene 3 1 4 -6.81805 0 1 -6.81805 1
gene 1 2 4 3.45723 0 2 3.45723 0
gene 2 3 4 -5.34502 0 3 -5.34502 1
gene 1 3 5 -1.67732 0 4 -1.67732 1
gene 1 5 4 6.69745 0 5 6.69745 1
gene 1 2 8 0.324685 0 10 0.324685 1
gene 1 8 4 3.07711 0 11 3.07711 1
gene 2 2 5 2.74938 0 26 2.74938 1
gene 1 1 8 0.321069 0 36 0.321069 1
gene 2 8 5 -0.919647 0 53 -0.919647 1
gene 2 1 5 -0.627649 0 122 -0.627649 1
genomeend 101

/* Organism #102 Fitness: 8.98787 Error: 1.00202 */
genomestart 102
trait 1 0.1 0 0 0 0 0 0 0 
trait 2 0.2 0 0.33542 0 0 0 0.166655 0 
trait 3 0.3 0.0634158 0 0.122581 0 0 0 0 
node 1 1 1 3
node 2 1 1 1
node 3 1 1 1
node 4 2 0 2
node 5 1 0 0
node 8 3 0 0
gene 3 1 4 -5.35099 0 1 -5.35099 1
gene 1 2 4 4.39764 0 2 4.39764 0
gene 2 3 4 -5.45446 0 3 -5.45446 1
gene 1 3 5 0.241751 0 4 0.241751 1
gene 1 5 4 6.61701 0 5 6.61701 1
gene 1 2 8 -1.74584 0 10 -1.74584 1
gene 1 8 4 1.37078 0 11 1.37078 1
gene 2 2 5 2.01164 0 26 2.01164 1
gene 1 1 8 0.19854 0 36 0.19854 1
gene 2 8 5 -0.919647 0 53 -0.919647 1
gene 2 1 5 -0.627649 0 122 -0.627649 1
genomeend 102

/* Organism #103 Fitness: 8.99923 Error: 1.00013 */
genomestart 103
trait 1 0.1 0 0 0 0 0 0 0 
trait 2 0.2 0 0.33542 0 0 0 0.166655 0 
trait 3 0.3 0.126832 0 0.245162 0 0 0 0 
node 1 1 1 3
node 2 1 1 1
node 3 1 1 1
node 4 2 0 2
node 5 1 0 0
node 8 3 0 0
gene 3 1 4 -5.80495 0 1 -5.80495 1
gene 1 2 4 4.79119 0 2 4.79119 1
gene 2 3 4 -6.31807 0 3 -6.31807 1
gene 1 3 5 -2.17736 0 4 -2.17736 1
gene 1 5 4 7.51859 0 5 7.51859 1
gene 1 2 8 0.409856 0 10 0.409856 1
gene 1 8 4 2.13848 0 11 2.13848 1
gene 2 2 5 4.2423 0 26 4.2423 1
gene 1 1 8 1.50353 0 36 1.50353 1
gene 2 8 5 -2.10681 0 53 -2.10681 1
genomeend 103

/* Organism #104 Fitness: 4.007 Error: 1.99825 */
genomestart 104
trait 1 0.1 0 0 0 0 0 0 0 
trait 2 0.2 0 0.33542 0 0 0 0.166655 0 
trait 3 0.3 0.0951237 0 0.183871 0 0 0 0 
node 1 1 1 3
node 2 1 1 1
node 3 1 1 1
node 4 2 0 2
node 5 1 0 0
node 8 3 0 0
gene 3 1 4 -6.77963 0 1 -6.77963 1
gene 1 2 4 3.25995 0 2 3.25995 0
gene 2 3 4 -4.83174 0 3 -4.83174 1
gene 1 3 5 -0.840253 0 4 -0.840253 1
gene 1 5 4 5.49066 0 5 5.49066 1
gene 1 2 8 -1.10014 0 10 -1.10014 1
gene 1 8 4 0.624527 0 11 0.624527 1
gene 2 2 5 5.16063 0 26 5.16063 1
gene 1 1 8 -1.23272 0 36 -1.23272 1
gene 2 8 5 -1.15114 0 53 -1.15114 1
genomeend 104

/* Species #10 : (Size 13) (AF 7.08981) (Age 7)  */


/* Organism #105 Fitness: 9.65138 Error: 0.893333 */
genomestart 105
trait 1 0.1 0 0 0 0 0 0 0 
trait 2 0.2 0 0 0 0 0 0 0 
trait 3 0.3 0 0.578526 0 0 0.576663 0.40979 0.0990458 
node 1 3 1 3
node 2 1 1 1
node 3 1 1 1
node 4 2 0 2
node 5 1 0 0
node 8 1 0 0
node 25 1 0 0
gene 3 1 4 0.185066 0 1 0.185066 1
gene 1 2 4 2.80511 0 2 2.80511 0
gene 2 3 4 3.63457 0 3 3.63457 1
gene 1 3 5 -2.21693 0 4 -2.21693 1
gene 1 5 4 7.36637 0 5 7.36637 1
gene 1 2 8 0.619048 0 10 0.619048 1
gene 1 8 4 -6.9984 0 11 -6.9984 1
gene 3 2 5 0.948541 0 37 0.948541 1
gene 3 5 8 -0.203638 0 48 -0.203638 0
gene 3 5 25 -2.68827 0 61 -2.68827 1
gene 3 25 8 -2.16005 0 62 -2.16005 1
gene 2 3 25 -0.469257 0 69 -0.469257 1
genomeend 105

/* Organism #106 Fitness: 8.99939 Error: 1.0001 */
genomestart 106
trait 1 0.1 0 0 0 0 0 0 0 
trait 2 0.2 0 0 0 0 0 0 0 
trait 3 0.3 0 0.578526 0 0 0.576663 0.40979 0.0990458 
node 1 3 1 3
node 2 1 1 1
node 3 1 1 1
node 4 2 0 2
node 5 1 0 0
node 8 1 0 0
node 25 1 0 0
gene 3 1 4 0.185066 0 1 0.185066 1
gene 1 2 4 4.30629 0 2 4.30629 0
gene 2 3 4 3.63457 0 3 3.63457 1
gene 1 3 5 -2.21693 0 4 -2.21693 1
gene 1 5 4 8 0 5 8 1
gene 1 2 8 0.619048 0 10 0.619048 1
gene 1 8 4 -6.9984 0 11 -6.9984 1
gene 3 2 5 0.948541 0 37 0.948541 1
gene 3 5 8 -0.203638 0 48 -0.203638 0
gene 3 5 25 0.635499 0 61 0.635499 1
gene 3 25 8 -2.16005 0 62 -2.16005 1
gene 2 3 25 -0.469257 0 69 -0.469257 1
genomeend 106

/* Organism #107 Fitness: 8.99379 Error: 1.00104 */
genomestart 107
trait 1 0.1 0 0 0 0 0 0 0 
trait 2 0.2 0 0 0 0 0 0 0 
trait 3 0.3 0 0.578526 0 0 0.576663 0.40979 0.0990458 
node 1 3 1 3
node 2 1 1 1
node 3 1 1 1
node 4 2 0 2
node 5 1 0 0
node 8 1 0 0
node 25 1 0 0
gene 3 1 4 1.5487 0 1 1.5487 1
gene 1 2 4 2.91393 0 2 2.91393 1
gene 2 3 4 1.22847 0 3 1.22847 1
gene 1 3 5 -3.35624 0 4 -3.35624 1
gene 1 5 4 7.68319 0 5 7.68319 1
gene 1 2 8 2.30509 0 10 2.30509 1
gene 1 8 4 -7.4992 0 11 -7.4992 1
gene 3 2 5 1.19529 0 37 1.19529 1
gene 3 5 8 1.19004 0 48 1.19004 0
gene 3 5 25 -0.958548 0 61 -0.958548 1
gene 3 25 8 -1.76454 0 62 -1.76454 1
gene 2 3 25 0.780106 0 69 0.780106 1
genomeend 107

/* Organism #108 Fitness: 0.713772 Error: 3.15515 */
genomestart 108
trait 1 0.1 0 0 0 0 0 0 0 
trait 2 0.2 0 0 0 0 0 0 0 
trait 3 0.3 0 0.578526 0 0 0.576663 0.40979 0.0990458 
node 1 3 1 3
node 2 1 1 1
node 3 1 1 1
node 4 2 0 2
node 5 1 0 0
node 8 1 0 0
node 25 1 0 0
gene 3 1 4 0.227241 0 1 0.227241 1
gene 1 2 4 1.76375 0 2 1.76375 0
gene 2 3 4 5.49788 0 3 5.49788 1
gene 1 3 5 -1.84305 0 4 -1.84305 1
gene 1 5 4 6.97378 0 5 6.97378 1
gene 1 2 8 2.38542 0 10 2.38542 1
gene 1 8 4 -8 0 11 -8 1
gene 3 2 5 1.84586 0 37 1.84586 1
gene 3 5 8 -0.870097 0 48 -0.870097 0
gene 3 5 25 -4.19512 0 61 -4.19512 1
gene 3 25 8 0.870161 0 62 0.870161 1
gene 2 3 25 -0.129136 0 69 -0.129136 1
genomeend 108

/* Organism #109 Fitness: 5.62724 Error: 1.62782 */
genomestart 109
trait 1 0.1 0 0 0 0 0 0 0 
trait 2 0.2 0 0 0 0 0 0 0 
trait 3 0.3 0 0.578526 0 0 0.576663 0.40979 0.0990458 
node 1 3 1 3
node 2 1 1 1
node 3 1 1 1
node 4 2 0 2
node 5 1 0 0
node 8 1 0 0
node 25 1 0 0
gene 3 1 4 2.87864 0 1 2.87864 1
gene 1 2 4 1.9327 0 2 1.9327 0
gene 2 3 4 -0.17785 0 3 -0.17785 1
gene 1 3 5 -2.91225 0 4 -2.91225 1
gene 1 5 4 2.49604 0 5 2.49604 1
gene 1 2 8 1.15112 0 10 1.15112 1
gene 1 8 4 -8 0 11 -8 1
gene 3 2 5 0.371252 0 37 0.371252 1
gene 3 5 8 -0.933679 0 48 -0.933679 0
gene 3 5 25 -0.471538 0 61 -0.471538 1
gene 3 25 8 -0.133405 0 62 -0.133405 1
gene 2 3 25 2.78755 0 69 2.78755 1
gene 2 1 5 -1.56458 0 122 -1.56458 1
genomeend 109

/* Organism #110 Fitness: 4.00001 Error: 2 */
genomestart 110
trait 1 0.1 0 0 0 0 0 0 0 
trait 2 0.2 0 0 0 0 0 0 0 
trait 3 0.3 0 0.578526 0 0 0.576663 0.40979 0.0990458 
node 1 3 1 3
node 2 1 1 1
node 3 1 1 1
node 4 2 0 2
node 5 1 0 0
node 8 1 0 0
node 25 1 0 0
gene 3 1 4 2.23256 0 1 2.23256 1
gene 1 2 4 5.4935 0 2 5.4935 0
gene 2 3 4 0.474383 0 3 0.474383 1
gene 1 3 5 -3.43295 0 4 -3.43295 1
gene 1 5 4 0.673714 0 5 0.673714 1
gene 1 2 8 5.65132 0 10 5.65132 1
gene 1 8 4 -8 0 11 -8 1
gene 3 2 5 -0.782175 0 37 -0.782175 1
gene 3 5 8 1.58696 0 48 1.58696 1
gene 3 5 25 3.01594 0 61 3.01594 1
gene 3 25 8 -2.8551 0 62 -2.8551 1
gene 2 3 25 1.59794 0 69 1.59794 1
genomeend 110

/* Organism #111 Fitness: 9.65138 Error: 0.893333 */
genomestart 111
trait 1 0.1 0 0 0 0 0 0 0 
trait 2 0.2 0 0 0 0 0 0 0 
trait 3 0.3 0 0.578526 0 0 0.576663 0.40979 0.0990458 
node 1 3 1 3
node 2 1 1 1
node 3 1 1 1
node 4 2 0 2
node 5 1 0 0
node 8 1 0 0
node 25 1 0 0
gene 3 1 4 0.185066 0 1 0.185066 1
gene 1 2 4 2.80511 0 2 2.80511 0
gene 2 3 4 3.63457 0 3 3.63457 1
gene 1 3 5 -2.21693 0 4 -2.21693 1
gene 1 5 4 7.36637 0 5 7.36637 1
gene 1 2 8 0.619048 0 10 0.619048 1
gene 1 8 4 -6.9984 0 11 -6.9984 1
gene 3 2 5 0.948541 0 37 0.948541 1
gene 3 5 8 -0.203638 0 48 -0.203638 0
gene 3 5 25 -2.68827 0 61 -2.68827 1
gene 3 25 8 -2.16005 0 62 -2.16005 1
gene 2 3 25 -0.469257 0 69 -0.469257 1
genomeend 111

/* Organism #112 Fitness: 4 Error: 2 */
genomestart 112
trait 1 0.1 0 0 0 0 0 0 0 
trait 2 0.2 0 0 0 0 0 0 0 
trait 3 0.3 0 0.578526 0 0 0.576663 0.40979 0.0990458 
node 1 3 1 3
node 2 1 1 1
node 3 1 1 1
node 4 2 0 2
node 5 1 0 0
node 8 1 0 0
node 25 1 0 0
gene 3 1 4 0.185066 0 1 0.185066 1
gene 1 2 4 2.80511 0 2 2.80511 0
gene 2 3 4 3.63457 0 3 3.63457 1
gene 1 3 5 -2.21693 0 4 -2.21693 1
gene 1 5 4 8 0 5 8 1
gene 1 2 8 0.619048 0 10 0.619048 1
gene 1 8 4 -6.9984 0 11 -6.9984 1
gene 3 2 5 1.44204 0 37 1.44204 1
gene 3 5 8 2.58372 0 48 2.58372 0
gene 3 5 25 0.771173 0 61 0.771173 1
gene 3 25 8 -1.36902 0 62 -1.36902 1
gene 3 3 25 2.02947 0 69 2.02947 1
genomeend 112

/* Organism #113 Fitness: 9 Error: 1 */
genomestart 113
trait 1 0.1 0 0 0 0 0 0 0 
trait 2 0.2 0 0 0 0 0 0 0 
trait 3 0.3 0 0.578526 0 0 0.576663 0.40979 0.0990458 
node 1 3 1 3
node 2 1 1 1
node 3 1 1 1
node 4 2 0 2
node 5 1 0 0
node 8 1 0 0
node 25 1 0 0
gene 3 1 4 2.91234 0 1 2.91234 1
gene 1 2 4 4.30629 0 2 4.30629 0
gene 2 3 4 0.793576 0 3 0.793576 1
gene 1 3 5 -4.49556 0 4 -4.49556 1
gene 1 5 4 8 0 5 8 1
gene 1 2 8 2.11873 0 10 2.11873 1
gene 1 8 4 -8 0 11 -8 1
gene 3 2 5 1.87293 0 37 1.87293 1
gene 3 5 8 0.491292 0 48 0.491292 0
gene 3 5 25 0.635499 0 61 0.635499 1
gene 3 25 8 -1.36902 0 62 -1.36902 1
gene 2 3 25 2.02947 0 69 2.02947 1
gene 2 1 5 -0.627649 0 122 0 1
genomeend 113

/* Organism #114 Fitness: 12.507 Error: 0.463471 */
/* ##------$ WINNER 114 SPECIES #10 $------## */
genomestart 114
trait 1 0.1 0 0 0 0 0 0 0 
trait 2 0.2 0 0 0 0 0 0 0 
trait 3 0.3 0 0.578526 0 0 0.576663 0.40979 0.0990458 
node 1 3 1 3
node 2 1 1 1
node 3 1 1 1
node 4 2 0 2
node 5 1 0 0
node 8 1 0 0
node 25 1 0 0
gene 3 1 4 3.80529 0 1 3.80529 1
gene 1 2 4 2.96489 0 2 2.96489 0
gene 2 3 4 1.06848 0 3 1.06848 1
gene 1 3 5 -3.65009 0 4 -3.65009 1
gene 1 5 4 8 0 5 8 1
gene 1 2 8 5.30418 0 10 5.30418 1
gene 1 8 4 -8 0 11 -8 1
gene 3 2 5 0.112687 0 37 0.112687 1
gene 3 5 8 2.30855 0 48 2.30855 1
gene 3 5 25 -0.0702285 0 61 -0.0702285 1
gene 3 25 8 -0.781499 0 62 -0.781499 1
gene 2 3 25 2.02947 0 69 2.02947 1
genomeend 114

/* Organism #115 Fitness: 1.06752 Error: 2.96679 */
genomestart 115
trait 1 0.785883 0 0.196349 0 0 0.170873 0 0 
trait 2 0.2 0 0 0 0 0 0 0 
trait 3 0.3 0 0.578526 0 0 0.576663 0.40979 0.0990458 
node 1 3 1 3
node 2 1 1 1
node 3 1 1 1
node 4 2 0 2
node 5 1 0 0
node 8 1 0 0
node 25 1 0 0
gene 3 1 4 3.75587 0 1 3.75587 1
gene 1 2 4 0.56431 0 2 0.56431 0
gene 2 3 4 -2.35293 0 3 -2.35293 1
gene 1 3 5 -4.05008 0 4 -4.05008 1
gene 1 5 4 8 0 5 8 1
gene 1 2 8 0.353719 0 10 0.353719 1
gene 1 8 4 -8 0 11 -8 1
gene 3 2 5 -0.468361 0 37 -0.468361 1
gene 3 5 8 0.491292 0 48 0.491292 0
gene 3 5 25 -2.68827 0 61 -2.68827 1
gene 3 25 8 -0.217736 0 62 -0.217736 1
gene 2 3 25 0.711681 0 69 0.711681 1
genomeend 115

/* Organism #116 Fitness: 8.99995 Error: 1.00001 */
genomestart 116
trait 1 0.1 0.260524 0.161496 0 0 0 0 0 
trait 2 0.2 0 0 0 0 0 0 0 
trait 3 0.3 0 0.578526 0 0 0.576663 0.40979 0.0990458 
node 1 3 1 3
node 2 1 1 1
node 3 1 1 1
node 4 2 0 2
node 5 1 0 0
node 8 1 0 0
node 25 1 0 0
gene 3 1 4 4.43035 0 1 4.43035 1
gene 1 2 4 5.28324 0 2 5.28324 0
gene 2 3 4 -2.01032 0 3 -2.01032 1
gene 1 3 5 -2.83836 0 4 -2.83836 1
gene 1 5 4 5.96507 0 5 5.96507 1
gene 1 2 8 2.22832 0 10 2.22832 1
gene 1 8 4 -8 0 11 -8 1
gene 3 2 5 2.83308 0 37 2.83308 1
gene 3 5 8 -0.356177 0 48 -0.356177 0
gene 3 5 25 2.02632 0 61 2.02632 1
gene 3 25 8 0.853157 0 62 0.853157 1
gene 2 3 25 1.5864 0 69 1.5864 1
gene 2 1 5 -0.599593 0 122 -0.599593 1
genomeend 116

/* Organism #117 Fitness: 8.95604 Error: 1.00734 */
genomestart 117
trait 1 0.1 0 0 0 0 0 0 0 
trait 2 0.2 0 0 0 0 0 0 0 
trait 3 0.3 0 0.578526 0 0 0.576663 0.40979 0.0990458 
node 1 3 1 3
node 2 1 1 1
node 3 1 1 1
node 4 2 0 2
node 5 1 0 0
node 8 1 0 0
node 25 1 0 0
gene 3 1 4 2.28815 0 1 2.28815 1
gene 1 2 4 2.6565 0 2 2.6565 0
gene 2 3 4 -1.17764 0 3 -1.17764 1
gene 1 3 5 -3.40656 0 4 -3.40656 1
gene 1 5 4 -0.0165608 0 5 -0.0165608 1
gene 1 2 8 3.33469 0 10 3.33469 1
gene 1 8 4 -8 0 11 -8 1
gene 3 2 5 1.87683 0 37 1.87683 1
gene 3 5 8 0.69613 0 48 0.69613 0
gene 3 5 25 -1.06026 0 61 -1.06026 1
gene 3 25 8 -0.874227 0 62 -0.874227 1
gene 2 3 25 1.97399 0 69 1.97399 1
gene 2 1 5 0.861508 0 122 0.861508 1
genomeend 117

/* Species #11 : (Size 8) (AF 4.70076) (Age 4)  */


/* Organism #118 Fitness: 4.88382 Error: 1.79006 */
genomestart 118
trait 1 0.1 0 0 0 0 0 0 0 
trait 2 0.2 0 0.33542 0 0 0 0.166655 0 
trait 3 0.3 0 0 0 0 0 0 0 
node 1 3 1 3
node 2 1 1 1
node 3 1 1 1
node 4 2 0 2
node 5 1 0 0
node 8 1 0 0
node 35 1 0 0
gene 3 1 4 -2.71765 0 1 -2.71765 1
gene 1 2 4 0.425238 0 2 0.425238 0
gene 2 3 4 -8 0 3 -8 1
gene 1 3 5 0.442448 0 4 0.442448 1
gene 1 5 4 2.49046 0 5 2.49046 1
gene 1 2 8 0.875687 0 10 0.875687 1
gene 1 8 4 4.1055 0 11 4.1055 1
gene 2 2 5 1.90671 0 26 1.90671 0
gene 1 1 8 -0.401245 0 36 -0.401245 1
gene 2 8 5 3.06307 0 53 3.06307 1
gene 1 3 8 2.40016 0 80 2.40016 1
gene 2 2 35 2.36685 0 100 2.36685 1
gene 2 35 5 1.91222 0 101 1.91222 1
genomeend 118

/* Organism #119 Fitness: 4.03962 Error: 1.99012 */
genomestart 119
trait 1 0.1 0 0 0 0 0 0 0 
trait 2 0.2 0 0.33542 0 0 0 0.166655 0 
trait 3 0.3 0 0 0 0 0 0 0 
node 1 3 1 3
node 2 1 1 1
node 3 1 1 1
node 4 2 0 2
node 5 1 0 0
node 8 1 0 0
node 35 1 0 0
gene 3 1 4 1.40889 0 1 1.40889 1
gene 1 2 4 -0.842461 0 2 -0.842461 0
gene 2 3 4 -5.65753 0 3 -5.65753 1
gene 1 3 5 -2.45108 0 4 -2.45108 1
gene 1 5 4 1.80953 0 5 1.80953 1
gene 1 2 8 1.05488 0 10 1.05488 1
gene 1 8 4 -1.01231 0 11 -1.01231 1
gene 2 2 5 1.64717 0 26 1.64717 0
gene 1 1 8 1.75602 0 36 1.75602 1
gene 2 8 5 -2.19865 0 53 -2.19865 1
gene 1 3 8 1.97995 0 80 1.97995 1
gene 2 2 35 1.09579 0 100 1.09579 1
gene 2 35 5 4.04765 0 101 4.04765 1
genomeend 119

/* Organism #120 Fitness: 4.01088 Error: 1.99728 */
genomestart 120
trait 1 0.1 0 0 0 0 0 0 0 
trait 2 0.2 0 0.33542 0 0 0 0.166655 0 
trait 3 0.3 0 0 0 0 0 0 0 
node 1 3 1 3
node 2 1 1 1
node 3 1 1 1
node 4 2 0 2
node 5 1 0 0
node 8 1 0 0
node 35 1 0 0
gene 3 1 4 -2.71765 0 1 -2.71765 1
gene 1 2 4 -1.10211 0 2 -1.10211 0
gene 2 3 4 1.7025 0 3 1.7025 1
gene 1 3 5 -0.372758 0 4 -0.372758 1
gene 1 5 4 0.915385 0 5 0.915385 1
gene 1 2 8 1.59098 0 10 1.59098 1
gene 1 8 4 1.64459 0 11 1.64459 1
gene 2 2 5 0.655668 0 26 0.655668 0
gene 1 1 8 1.31224 0 36 1.31224 1
gene 2 8 5 2.0542 0 53 2.0542 1
gene 1 3 8 0.724564 0 80 0.724564 1
gene 2 2 35 3.49199 0 100 3.49199 1
gene 2 35 5 2.76048 0 101 2.76048 1
genomeend 120

/* Organism #121 Fitness: 7.80355 Error: 1.20652 */
genomestart 121
trait 1 0.1 0 0 0 0 0 0 0 
trait 2 0.2 0 0.33542 0 0 0 0.166655 0 
trait 3 0.3 0 0 0 0 0 0 0 
node 1 3 1 3
node 2 1 1 1
node 3 1 1 1
node 4 2 0 2
node 5 1 0 0
node 8 1 0 0
node 35 1 0 0
gene 3 1 4 -1.85212 0 1 -1.85212 1
gene 1 2 4 0.69266 0 2 0.69266 0
gene 2 3 4 -3.3545 0 3 -3.3545 1
gene 1 3 5 1.53003 0 4 1.53003 1
gene 1 5 4 0.232512 0 5 0.232512 1
gene 1 2 8 2.17972 0 10 2.17972 1
gene 1 8 4 1.93238 0 11 1.93238 1
gene 2 2 5 2.90586 0 26 2.90586 1
gene 1 1 8 -1.39127 0 36 -1.39127 1
gene 2 8 5 -1.71714 0 53 -1.71714 1
gene 1 3 8 4.16907 0 80 4.16907 1
gene 2 2 35 1.17193 0 100 1.17193 1
gene 2 35 5 1.66428 0 101 1.66428 1
genomeend 121

/* Organism #122 Fitness: 4.78233 Error: 1.81315 */
genomestart 122
trait 1 0.1 0 0 0 0 0 0 0 
trait 2 0.2 0 0.33542 0 0 0 0.166655 0 
trait 3 0.3 0 0 0 0 0 0 0 
node 1 3 1 3
node 2 1 1 1
node 3 1 1 1
node 4 2 0 2
node 5 1 0 0
node 8 1 0 0
node 35 1 0 0
node 44 1 0 0
gene 3 1 4 -2.08542 0 1 -2.08542 1
gene 1 2 4 3.19028 0 2 3.19028 0
gene 2 3 4 -0.383202 0 3 -0.383202 1
gene 1 3 5 -2.26286 0 4 -2.26286 0
gene 1 5 4 1.87313 0 5 1.87313 1
gene 1 2 8 1.92712 0 10 1.92712 1
gene 1 8 4 2.11585 0 11 2.11585 1
gene 2 2 5 2.28088 0 26 2.28088 0
gene 1 1 8 -4.44066 0 36 -4.44066 1
gene 2 8 5 -3.05268 0 53 -3.05268 1
gene 1 3 8 2.5271 0 80 2.5271 1
gene 2 2 35 3.26835 0 100 3.26835 1
gene 2 35 5 1.75135 0 101 1.75135 1
gene 1 3 44 1 0 133 0 1
gene 1 44 5 -2.26286 0 134 0 1
genomeend 122

/* Organism #123 Fitness: 4.00007 Error: 1.99998 */
genomestart 123
trait 1 0.1 0 0 0 0 0 0 0 
trait 2 0.2 0 0 0 0 0 0.166655 0 
trait 3 0.3 0 0 0 0 0 0 0 
node 1 3 1 3
node 2 1 1 1
node 3 1 1 1
node 4 2 0 2
node 5 1 0 0
node 8 1 0 0
node 35 1 0 0
gene 3 1 4 -0.793293 0 1 -0.793293 1
gene 1 2 4 2.30226 0 2 2.30226 0
gene 2 3 4 -6.1496 0 3 -6.1496 1
gene 1 3 5 -0.225458 0 4 -0.225458 1
gene 1 5 4 2.61939 0 5 2.61939 1
gene 1 2 8 1.22298 0 10 1.22298 1
gene 1 8 4 5.37688 0 11 5.37688 1
gene 2 2 5 -0.0183909 0 26 -0.0183909 0
gene 1 1 8 -3.99905 0 36 -3.99905 1
gene 2 8 5 1.65542 0 53 1.65542 1
gene 1 3 8 2.17441 0 80 2.17441 1
gene 2 2 35 2.8176 0 100 2.8176 1
gene 2 35 5 1.83179 0 101 1.83179 1
genomeend 123

/* Organism #124 Fitness: 4 Error: 2 */
genomestart 124
trait 1 0.1 0 0 0 0 0 0 0 
trait 2 0.2 0 0.33542 0 0 0 0.166655 0 
trait 3 0.3 0 0 0 0 0 0 0 
node 1 3 1 3
node 2 1 1 1
node 3 1 1 1
node 4 2 0 2
node 5 1 0 0
node 8 1 0 0
node 35 1 0 0
gene 3 1 4 -3.62421 0 1 -3.62421 1
gene 1 2 4 2.05421 0 2 2.05421 0
gene 2 3 4 -0.726444 0 3 -0.726444 1
gene 1 3 5 -4.02285 0 4 -4.02285 1
gene 1 5 4 -0.615707 0 5 -0.615707 1
gene 1 2 8 4.08124 0 10 4.08124 1
gene 1 8 4 1.03303 0 11 1.03303 1
gene 2 2 5 0.556858 0 26 0.556858 0
gene 1 1 8 -6.65062 0 36 -6.65062 1
gene 2 8 5 -2.43083 0 53 -2.43083 1
gene 1 3 8 2.77991 0 80 2.77991 1
gene 2 2 35 5.28116 0 100 5.28116 1
gene 2 35 5 2.26497 0 101 2.26497 1
genomeend 124

/* Organism #125 Fitness: 4.08581 Error: 1.97866 */
genomestart 125
trait 1 0.1 0 0 0 0 0 0 0 
trait 2 0.2 0 0.33542 0 0 0 0.166655 0 
trait 3 0.3 0 0 0 0 0 0 0 
node 1 3 1 3
node 2 1 1 1
node 3 1 1 1
node 4 2 0 2
node 5 1 0 0
node 8 1 0 0
node 35 1 0 0
gene 3 1 4 -2.08542 0 1 -2.08542 1
gene 1 2 4 3.19028 0 2 3.19028 0
gene 2 3 4 -0.383202 0 3 -0.383202 1
gene 1 3 5 -2.26286 0 4 -2.26286 1
gene 1 5 4 1.87313 0 5 1.87313 1
gene 1 2 8 1.92712 0 10 1.92712 1
gene 1 8 4 2.11585 0 11 2.11585 1
gene 2 2 5 2.28088 0 26 2.28088 0
gene 1 1 8 -4.44066 0 36 -4.44066 1
gene 2 8 5 -3.05268 0 53 -3.05268 1
gene 1 3 8 2.5271 0 80 2.5271 1
gene 2 2 35 3.26835 0 100 3.26835 1
gene 2 35 5 1.75135 0 101 1.75135 1
genomeend 125

/* Species #12 : (Size 13) (AF 5.61402) (Age 3)  */


/* Organism #126 Fitness: 8.96946 Error: 1.00509 */
genomestart 126
trait 1 0.1 0 0 0 0 0 0 0 
trait 2 0.2 0 0 0 0 0 0 0 
trait 3 0.393797 0 0.450994 0.3639 0.13209 0.233781 0.147989 0 
node 1 3 1 3
node 2 1 1 1
node 3 1 1 1
node 4 2 0 2
node 5 1 0 0
node 8 1 0 0
node 19 1 0 0
node 30 1 0 0
gene 3 1 4 0.313854 0 1 0.313854 1
gene 1 2 4 -2.30045 0 2 -2.30045 0
gene 2 3 4 1.19701 0 3 1.19701 1
gene 1 3 5 6.74929 0 4 6.74929 1
gene 1 5 4 -2.67394 0 5 -2.67394 0
gene 1 2 8 5.84627 0 10 5.84627 1
gene 1 8 4 4.09052 0 11 4.09052 1
gene 1 5 19 2.00116 0 33 2.00116 0
gene 1 19 4 -3.49965 0 34 -3.49965 1
gene 1 5 30 -0.805167 0 83 -0.805167 1
gene 1 30 19 3.94149 0 84 3.94149 1
gene 1 2 30 -0.571534 0 107 -0.571534 1
gene 2 8 5 -0.331271 0 117 0 1
genomeend 126

/* Organism #127 Fitness: 3.94733 Error: 2.01321 */
genomestart 127
trait 1 0.1 0 0 0 0 0 0 0 
trait 2 0.2 0 0 0 0 0 0 0 
trait 3 0.393797 0 0.450994 0.3639 0.13209 0.233781 0.147989 0 
node 1 3 1 3
node 2 1 1 1
node 3 1 1 1
node 4 2 0 2
node 5 1 0 0
node 8 1 0 0
node 19 1 0 0
node 30 1 0 0
gene 3 1 4 0.982516 0 1 0.982516 1
gene 1 2 4 -0.625537 0 2 -0.625537 0
gene 2 3 4 0.0658575 0 3 0.0658575 1
gene 1 3 5 2.36485 0 4 2.36485 1
gene 1 5 4 -3.49022 0 5 -3.49022 0
gene 1 2 8 5.84627 0 10 5.84627 1
gene 1 8 4 3.25056 0 11 3.25056 1
gene 1 5 19 1.04044 0 33 1.04044 0
gene 1 19 4 -3.73777 0 34 -3.73777 1
gene 1 5 30 0.273125 0 83 0.273125 1
gene 1 30 19 2.43225 0 84 2.43225 1
gene 1 2 30 -0.0474987 0 107 -0.0474987 1
gene 2 8 5 -1.36359 0 117 -1.36359 1
genomeend 127

/* Organism #128 Fitness: 2.49335 Error: 2.42097 */
genomestart 128
trait 1 0.1 0 0 0 0 0 0 0 
trait 2 0.2 0 0 0 0 0 0 0 
trait 3 0.393797 0 0.450994 0.3639 0.13209 0.233781 0.147989 0 
node 1 3 1 3
node 2 1 1 1
node 3 1 1 1
node 4 2 0 2
node 5 1 0 0
node 8 1 0 0
node 19 1 0 0
node 30 1 0 0
gene 3 1 4 1.33749 0 1 1.33749 1
gene 1 2 4 1.49367 0 2 1.49367 0
gene 2 3 4 1.07462 0 3 1.07462 1
gene 1 3 5 6.94009 0 4 6.94009 1
gene 1 5 4 -3.33976 0 5 -3.33976 0
gene 1 2 8 7.74498 0 10 7.74498 1
gene 1 8 4 3.86872 0 11 3.86872 1
gene 1 5 19 4.84333 0 33 4.84333 0
gene 1 19 4 -5.87325 0 34 -5.87325 1
gene 1 5 30 -1.88093 0 83 -1.88093 1
gene 1 30 19 3.94149 0 84 3.94149 1
gene 1 2 30 2.48725 0 107 2.48725 1
genomeend 128

/* Organism #129 Fitness: 1.64923 Error: 2.71578 */
genomestart 129
trait 1 0.1 0 0 0 0 0 0 0 
trait 2 0.2 0 0 0 0 0 0 0 
trait 3 0.393797 0 0.450994 0.3639 0.13209 0.233781 0.147989 0 
node 1 3 1 3
node 2 1 1 1
node 3 1 1 1
node 4 2 0 2
node 5 1 0 0
node 8 1 0 0
node 19 1 0 0
node 30 1 0 0
gene 3 1 4 -1.36077 0 1 -1.36077 1
gene 1 2 4 -3.59057 0 2 -3.59057 0
gene 2 3 4 3.48886 0 3 3.48886 1
gene 1 3 5 7.11478 0 4 7.11478 1
gene 1 5 4 -1.01251 0 5 -1.01251 0
gene 1 2 8 6.56256 0 10 6.56256 1
gene 1 8 4 3.73345 0 11 3.73345 1
gene 1 5 19 2.9101 0 33 2.9101 0
gene 1 19 4 -5.67386 0 34 -5.67386 1
gene 1 5 30 -0.126605 0 83 -0.126605 1
gene 1 30 19 1.83371 0 84 1.83371 1
gene 1 2 30 1.90174 0 107 1.90174 1
gene 2 8 5 0.417923 0 117 0.417923 1
genomeend 129

/* Organism #130 Fitness: 8.82602 Error: 1.02914 */
genomestart 130
trait 1 0.1 0 0 0 0 0 0 0 
trait 2 0.2 0 0 0 0 0 0 0 
trait 3 0.393797 0 0.450994 0.3639 0.13209 0.233781 0.147989 0 
node 1 3 1 3
node 2 1 1 1
node 3 1 1 1
node 4 2 0 2
node 5 1 0 0
node 8 1 0 0
node 19 1 0 0
node 30 1 0 0
gene 3 1 4 0.816284 0 1 0.816284 1
gene 1 2 4 -1.14441 0 2 -1.14441 0
gene 2 3 4 0.993755 0 3 0.993755 1
gene 1 3 5 7.37464 0 4 7.37464 1
gene 1 5 4 -2.52825 0 5 -2.52825 0
gene 1 2 8 5.57882 0 10 5.57882 1
gene 1 8 4 3.69786 0 11 3.69786 1
gene 1 5 19 2.98502 0 33 2.98502 0
gene 1 19 4 -3.74117 0 34 -3.74117 1
gene 1 5 30 -0.714152 0 83 -0.714152 1
gene 1 30 19 3.94149 0 84 3.94149 1
gene 1 2 30 0.0451441 0 107 0.0451441 1
gene 2 8 5 -0.331271 0 117 0 1
genomeend 130

/* Organism #131 Fitness: 1.61678 Error: 2.72847 */
genomestart 131
trait 1 0.1 0 0 0 0 0 0 0 
trait 2 0.2 0 0 0 0 0 0 0 
trait 3 0.393797 0 0.450994 0.3639 0.13209 0.233781 0.147989 0 
node 1 3 1 3
node 2 1 1 1
node 3 1 1 1
node 4 2 0 2
node 5 1 0 0
node 8 1 0 0
node 19 1 0 0
node 30 2 0 0
gene 3 1 4 1.59272 0 1 1.59272 1
gene 1 2 4 -1.05569 0 2 -1.05569 0
gene 2 3 4 0.861669 0 3 0.861669 1
gene 1 3 5 4.64925 0 4 4.64925 1
gene 1 5 4 0.141157 0 5 0.141157 0
gene 1 2 8 -1.63585 0 10 -1.63585 1
gene 1 8 4 4.51322 0 11 4.51322 1
gene 1 5 19 2.00116 0 33 2.00116 0
gene 1 19 4 -3.49965 0 34 -3.49965 1
gene 1 5 30 -0.805167 0 83 -0.805167 1
gene 1 30 19 5.25302 0 84 5.25302 1
gene 1 2 30 -0.571534 0 107 -0.571534 1
genomeend 131

/* Organism #132 Fitness: 8.90386 Error: 1.01607 */
genomestart 132
trait 1 0.1 0 0 0 0 0 0 0 
trait 2 0.2 0 0 0 0 0 0 0 
trait 3 0.393797 0 0.450994 0.3639 0.13209 0.233781 0.147989 0 
node 1 3 1 3
node 2 1 1 1
node 3 1 1 1
node 4 2 0 2
node 5 1 0 0
node 8 1 0 0
node 19 1 0 0
node 30 1 0 0
gene 3 1 4 0.313854 0 1 0.313854 1
gene 1 2 4 -2.30045 0 2 -2.30045 0
gene 2 3 4 1.19701 0 3 1.19701 1
gene 1 3 5 6.74929 0 4 6.74929 1
gene 1 5 4 -2.67394 0 5 -2.67394 0
gene 1 2 8 5.84627 0 10 5.84627 1
gene 1 8 4 4.09052 0 11 4.09052 1
gene 1 5 19 2.00116 0 33 2.00116 0
gene 1 19 4 -3.49965 0 34 -3.49965 1
gene 1 5 30 -0.805167 0 83 -0.805167 1
gene 1 30 19 3.94149 0 84 3.94149 1
gene 1 2 30 -0.571534 0 107 -0.571534 1
gene 1 3 19 -0.238371 0 138 -0.238371 1
genomeend 132

/* Organism #133 Fitness: 3.76312 Error: 2.06012 */
genomestart 133
trait 1 0.1 0 0 0 0 0 0 0 
trait 2 0.2 0 0 0 0 0 0 0 
trait 3 0.393797 0 0.450994 0.3639 0.13209 0.233781 0.147989 0 
node 1 3 1 3
node 2 1 1 1
node 3 1 1 1
node 4 2 0 2
node 5 2 0 0
node 8 1 0 0
node 19 1 0 0
node 30 1 0 0
gene 3 1 4 1.28219 0 1 1.28219 1
gene 1 2 4 -4.65783 0 2 -4.65783 0
gene 2 3 4 -0.571469 0 3 -0.571469 1
gene 1 3 5 5.59714 0 4 5.59714 1
gene 1 5 4 -2.84701 0 5 -2.84701 0
gene 1 2 8 4.58517 0 10 4.58517 1
gene 1 8 4 3.45255 0 11 3.45255 1
gene 1 5 19 3.13209 0 33 3.13209 0
gene 1 19 4 -3.75567 0 34 -3.75567 1
gene 1 5 30 -2.2777 0 83 -2.2777 1
gene 1 30 19 0.741014 0 84 0.741014 1
gene 1 2 30 1.63046 0 107 1.63046 1
genomeend 133

/* Organism #134 Fitness: 7.81054 Error: 1.20527 */
genomestart 134
trait 1 0.1 0 0 0 0 0 0 0 
trait 2 0.2 0 0 0 0 0 0 0 
trait 3 0.393797 0 0.450994 0.3639 0.13209 0.233781 0.147989 0 
node 1 3 1 3
node 2 1 1 1
node 3 1 1 1
node 4 2 0 2
node 5 1 0 0
node 8 1 0 0
node 19 1 0 0
node 30 1 0 0
gene 3 1 4 1.378 0 1 1.378 1
gene 1 2 4 -1.07853 0 2 -1.07853 0
gene 2 3 4 -0.769197 0 3 -0.769197 1
gene 1 3 5 5.5889 0 4 5.5889 1
gene 1 5 4 -3.89643 0 5 -3.89643 0
gene 1 2 8 8 0 10 8 1
gene 1 8 4 1.67113 0 11 1.67113 1
gene 1 5 19 2.67514 0 33 2.67514 0
gene 1 19 4 -5.16764 0 34 -5.16764 1
gene 1 5 30 0.84056 0 83 0.84056 1
gene 1 30 19 3.75354 0 84 3.75354 1
gene 1 2 30 -1.91987 0 107 -1.91987 1
gene 2 8 5 -0.331271 0 117 -0.331271 1
genomeend 134

/* Organism #135 Fitness: 8.96946 Error: 1.00509 */
genomestart 135
trait 1 0.1 0 0 0 0 0 0 0 
trait 2 0.2 0 0 0 0 0 0 0 
trait 3 0.393797 0 0.450994 0.3639 0.13209 0.233781 0.147989 0 
node 1 3 1 3
node 2 1 1 1
node 3 1 1 1
node 4 2 0 2
node 5 1 0 0
node 8 1 0 0
node 19 1 0 0
node 30 1 0 0
gene 3 1 4 0.313854 0 1 0.313854 1
gene 1 2 4 -2.30045 0 2 -2.30045 0
gene 2 3 4 1.19701 0 3 1.19701 1
gene 1 3 5 6.74929 0 4 6.74929 1
gene 1 5 4 -2.67394 0 5 -2.67394 0
gene 1 2 8 5.84627 0 10 5.84627 1
gene 1 8 4 4.09052 0 11 4.09052 1
gene 1 5 19 2.00116 0 33 2.00116 0
gene 1 19 4 -3.49965 0 34 -3.49965 1
gene 1 5 30 -0.805167 0 83 -0.805167 1
gene 1 30 19 3.94149 0 84 3.94149 1
gene 1 2 30 -0.571534 0 107 -0.571534 1
gene 2 8 5 -0.331271 0 117 0 1
genomeend 135

/* Organism #136 Fitness: 8.03234 Error: 1.16586 */
genomestart 136
trait 1 0.1 0 0 0 0 0 0 0 
trait 2 0.2 0 0 0 0 0 0 0 
trait 3 0.393797 0 0.450994 0.3639 0.13209 0.233781 0.147989 0 
node 1 3 1 3
node 2 1 1 1
node 3 1 1 1
node 4 2 0 2
node 5 1 0 0
node 8 1 0 0
node 19 1 0 0
node 30 1 0 0
gene 3 1 4 2.84888 0 1 2.84888 1
gene 1 2 4 -1.60239 0 2 -1.60239 0
gene 2 3 4 -1.29326 0 3 -1.29326 1
gene 1 3 5 8 0 4 8 1
gene 1 5 4 -2.26266 0 5 -2.26266 0
gene 1 2 8 -1.36199 0 10 -1.36199 1
gene 1 8 4 2.50838 0 11 2.50838 1
gene 1 5 19 3.5407 0 33 3.5407 0
gene 1 19 4 -1.92163 0 34 -1.92163 1
gene 1 5 30 0.856333 0 83 0.856333 1
gene 1 30 19 4.14547 0 84 4.14547 1
gene 1 2 30 -0.571534 0 107 -0.571534 1
gene 2 8 5 -1.24276 0 117 -1.24276 1
genomeend 136

/* Organism #137 Fitness: 4 Error: 2 */
genomestart 137
trait 1 0.1 0 0 0 0 0 0 0 
trait 2 0.2 0 0 0 0 0 0 0 
trait 3 0.393797 0 0.450994 0.3639 0.13209 0.233781 0.147989 0 
node 1 3 1 3
node 2 1 1 1
node 3 1 1 1
node 4 2 0 2
node 5 1 0 0
node 8 1 0 0
node 19 1 0 0
node 30 1 0 0
gene 3 1 4 -1.65602 0 1 -1.65602 1
gene 1 2 4 -2.88795 0 2 -2.88795 1
gene 2 3 4 0.646734 0 3 0.646734 1
gene 1 3 5 4.31673 0 4 4.31673 1
gene 1 5 4 -3.51221 0 5 -3.51221 1
gene 1 2 8 8 0 10 8 1
gene 1 8 4 2.18536 0 11 2.18536 1
gene 1 5 19 0.983186 0 33 0.983186 1
gene 1 19 4 -4.92018 0 34 -4.92018 1
gene 1 5 30 1.62377 0 83 1.62377 1
gene 1 30 19 4.58421 0 84 4.58421 1
gene 1 2 30 0.00374569 0 107 0.00374569 1
gene 2 8 5 -0.331271 0 117 -0.331271 1
genomeend 137

/* Organism #138 Fitness: 4.00078 Error: 1.99981 */
genomestart 138
trait 1 0.1 0 0 0 0 0 0 0 
trait 2 0.2 0 0 0 0 0 0 0 
trait 3 0.393797 0 0.450994 0.3639 0.13209 0.233781 0.147989 0 
node 1 3 1 3
node 2 1 1 1
node 3 1 1 1
node 4 2 0 2
node 5 1 0 0
node 8 1 0 0
node 19 1 0 0
node 30 1 0 0
gene 1 1 4 1.39892 0 1 1.39892 1
gene 1 2 4 -2.91298 0 2 -2.91298 0
gene 2 3 4 2.35093 0 3 2.35093 1
gene 1 3 5 6.96259 0 4 6.96259 1
gene 1 5 4 -4.93446 0 5 -4.93446 0
gene 1 2 8 5.84627 0 10 5.84627 1
gene 1 8 4 4.09052 0 11 4.09052 1
gene 1 5 19 0.864303 0 33 0.864303 0
gene 1 19 4 -2.2656 0 34 -2.2656 1
gene 1 5 30 -1.72884 0 83 -1.72884 1
gene 1 30 19 4.55127 0 84 4.55127 1
gene 1 2 30 -0.571534 0 107 -0.571534 1
gene 2 8 5 -0.258902 0 117 -0.258902 1
genomeend 138

/* Species #13 : (Size 8) (AF 3.25242) (Age 2)  */


/* Organism #139 Fitness: 3.99514 Error: 2.00122 */
genomestart 139
trait 1 0.1 0 0 0 0 0 0 0 
trait 2 0.2 0 0 0 0 0 0 0 
trait 3 0.3 0 0 0 0 0 0 0 
node 1 3 1 3
node 2 1 1 1
node 3 2 1 1
node 4 1 0 2
node 17 1 0 0
gene 1 1 4 -1.79382 0 1 -1.79382 1
gene 1 2 4 4.00309 0 2 4.00309 0
gene 1 3 4 -2.98217 0 3 -2.98217 1
gene 1 2 17 -0.893549 0 29 -0.893549 1
gene 1 17 4 7.65362 0 30 7.65362 1
gene 3 1 17 -0.56095 0 96 -0.56095 1
gene 1 3 17 -1.57053 0 106 -1.57053 1
genomeend 139

/* Organism #140 Fitness: 4 Error: 2 */
genomestart 140
trait 1 0.1 0 0 0 0 0 0 0 
trait 2 0.2 0 0 0 0 0 0 0 
trait 3 0.3 0 0 0 0 0 0 0 
node 1 3 1 3
node 2 1 1 1
node 3 2 1 1
node 4 1 0 2
node 17 1 0 0
gene 1 1 4 -3.43589 0 1 -3.43589 1
gene 1 2 4 1.29125 0 2 1.29125 0
gene 1 3 4 -2.8641 0 3 -2.8641 1
gene 1 2 17 -0.893549 0 29 -0.893549 1
gene 1 17 4 -0.49367 0 30 -0.49367 1
gene 3 1 17 0.0255748 0 96 0.0255748 1
gene 1 3 17 -3.40383 0 106 -3.40383 1
genomeend 140

/* Organism #141 Fitness: 4.00118 Error: 1.99971 */
genomestart 141
trait 1 0.1 0 0 0 0 0 0 0 
trait 2 0.2 0 0 0 0 0 0 0 
trait 3 0.3 0 0 0 0 0 0 0 
node 1 3 1 3
node 2 1 1 1
node 3 2 1 1
node 4 1 0 2
node 17 1 0 0
gene 1 1 4 -1.63618 0 1 -1.63618 1
gene 1 2 4 1.6459 0 2 1.6459 0
gene 1 3 4 -2.98217 0 3 -2.98217 1
gene 1 2 17 -1.68066 0 29 -1.68066 1
gene 1 17 4 -1.33065 0 30 -1.33065 1
gene 3 1 17 0.76062 0 96 0.76062 1
gene 1 3 17 0.677558 0 106 0.677558 1
genomeend 141

/* Organism #142 Fitness: 4 Error: 2 */
genomestart 142
trait 1 0.1 0.816129 0.759002 0 0 0 0 0 
trait 2 0.2 0 0 0 0 0 0 0 
trait 3 0.3 0 0 0 0 0 0 0 
node 1 3 1 3
node 2 1 1 1
node 3 2 1 1
node 4 1 0 2
node 17 1 0 0
gene 1 1 4 -1.95297 0 1 -1.95297 1
gene 1 2 4 2.29243 0 2 2.29243 0
gene 1 3 4 -0.941013 0 3 -0.941013 1
gene 1 2 17 0.108639 0 29 0.108639 1
gene 1 17 4 8 0 30 8 1
gene 3 1 17 0.838993 0 96 0.838993 1
gene 1 3 17 0.0791616 0 106 0.0791616 1
genomeend 142

/* Organism #143 Fitness: 1.00001 Error: 3 */
genomestart 143
trait 1 0.1 0 0 0 0 0 0 0 
trait 2 0.2 0 0 0 0 0 0 0 
trait 3 0.3 0 0 0 0 0 0 0 
node 1 3 1 3
node 2 1 1 1
node 3 2 1 1
node 4 1 0 2
node 17 1 0 0
gene 1 1 4 -2.53535 0 1 -2.53535 1
gene 1 2 4 6.03122 0 2 6.03122 0
gene 1 3 4 0.14438 0 3 0.14438 1
gene 1 2 17 -3.35023 0 29 -3.35023 1
gene 1 17 4 6.20411 0 30 6.20411 1
gene 3 1 17 0.620672 0 96 0.620672 1
gene 1 3 17 -3.03219 0 106 -3.03219 1
genomeend 143

/* Organism #144 Fitness: 1.0279 Error: 2.98615 */
genomestart 144
trait 1 0.1 0 0 0 0 0 0 0 
trait 2 0.2 0 0 0 0 0 0 0 
trait 3 0.3 0 0 0 0 0 0 0 
node 1 3 1 3
node 2 1 1 1
node 3 2 1 1
node 4 1 0 2
node 17 1 0 0
gene 1 1 4 0.154081 0 1 0.154081 1
gene 1 2 4 3.49186 0 2 3.49186 0
gene 1 3 4 -4.04235 0 3 -4.04235 1
gene 1 2 17 0.492257 0 29 0.492257 1
gene 1 17 4 8 0 30 8 1
gene 3 1 17 -1.86017 0 96 -1.86017 1
gene 1 3 17 1.73449 0 106 1.73449 1
genomeend 144

/* Organism #145 Fitness: 3.99514 Error: 2.00122 */
genomestart 145
trait 1 0.1 0 0 0 0 0 0 0 
trait 2 0.2 0 0 0 0 0 0 0 
trait 3 0.3 0 0 0 0 0 0 0 
node 1 3 1 3
node 2 1 1 1
node 3 2 1 1
node 4 1 0 2
node 17 1 0 0
gene 1 1 4 -1.79382 0 1 -1.79382 1
gene 1 2 4 4.00309 0 2 4.00309 0
gene 1 3 4 -2.98217 0 3 -2.98217 1
gene 1 2 17 -0.893549 0 29 -0.893549 1
gene 1 17 4 7.65362 0 30 7.65362 1
gene 3 1 17 -0.56095 0 96 -0.56095 1
gene 1 3 17 -1.57053 0 106 -1.57053 1
genomeend 145

/* Organism #146 Fitness: 3.99999 Error: 2 */
genomestart 146
trait 1 0.1 0 0 0 0 0 0 0 
trait 2 0.2 0 0 0 0 0 0 0 
trait 3 0.3 0 0 0 0 0 0 0 
node 1 3 1 3
node 2 1 1 1
node 3 2 1 1
node 4 1 0 2
node 17 1 0 0
gene 1 1 4 -3.56326 0 1 -3.56326 1
gene 1 2 4 4.88208 0 2 4.88208 0
gene 1 3 4 -5.02761 0 3 -5.02761 1
gene 1 2 17 -0.893549 0 29 -0.893549 1
gene 1 17 4 1.41451 0 30 1.41451 1
gene 3 1 17 0.181652 0 96 0.181652 1
gene 1 3 17 -1.55988 0 106 -1.55988 1
genomeend 146

/* Species #14 : (Size 1) (AF 4.46597) (Age 1)  */


/* Organism #147 Fitness: 4.46597 Error: 1.88672 */
genomestart 147
trait 1 0.1 0 0 0 0 0 0 0 
trait 2 0.2 0 0 0 0 0 0 0 
trait 3 0.3 0 0 0 0 0 0 0 
node 1 3 1 3
node 2 1 1 1
node 3 1 1 1
node 4 2 0 2
node 5 1 0 0
node 8 1 0 0
node 39 1 0 0
node 44 1 0 0
gene 3 1 4 -1.32961 0 1 -1.32961 1
gene 1 2 4 0.221457 0 2 0.221457 0
gene 2 3 4 2.71216 0 3 2.71216 1
gene 1 3 5 -2.33473 0 4 -2.33473 0
gene 1 5 4 3.20931 0 5 3.20931 1
gene 1 2 8 1.7989 0 10 1.7989 1
gene 1 8 4 -1.3583 0 11 -1.3583 0
gene 2 2 5 0.585524 0 26 0.585524 1
gene 1 8 39 1 0 114 0 1
gene 1 39 4 -1.3583 0 115 0 1
gene 1 3 44 1 0 133 0 1
gene 1 44 5 -2.33473 0 134 0 1
genomeend 147

/* Species #15 : (Size 1) (AF 8.11498) (Age 1)  */


/* Organism #148 Fitness: 8.11498 Error: 1.15132 */
genomestart 148
trait 1 0.1 0 0 0 0 0 0 0 
trait 2 0.2 0 0 0 0 0 0 0 
trait 3 0.3 0 0 0 0 0 0 0 
node 1 3 1 3
node 2 1 1 1
node 3 1 1 1
node 4 2 0 2
node 5 1 0 0
node 8 1 0 0
node 39 1 0 0
gene 3 1 4 -1.32961 0 1 -1.32961 1
gene 1 2 4 0.221457 0 2 0.221457 0
gene 2 3 4 2.71216 0 3 2.71216 1
gene 1 3 5 -2.33473 0 4 -2.33473 1
gene 1 5 4 3.20931 0 5 3.20931 1
gene 1 2 8 1.7989 0 10 1.7989 1
gene 1 8 4 -1.3583 0 11 -1.3583 0
gene 2 2 5 0.585524 0 26 0.585524 1
gene 1 8 39 1 0 114 0 1
gene 1 39 4 -1.3583 0 115 0 1
gene 1 3 39 0.853395 0 135 0.853395 1
genomeend 148

/* Species #16 : (Size 1) (AF 3.86013) (Age 1)  */


/* Organism #149 Fitness: 3.86013 Error: 2.03528 */
genomestart 149
trait 1 0.1 0 0 0 0 0 0 0 
trait 2 0.2 0 0 0 0 0 0 0 
trait 3 0.409429 0 0.450994 0.3639 0.154105 0.241495 0.172654 0 
node 1 3 1 3
node 2 1 1 1
node 3 1 1 1
node 4 2 0 2
node 5 1 0 0
node 8 1 0 0
node 19 1 0 0
node 30 1 0 0
gene 3 1 4 2.87165 0 1 2.87165 1
gene 1 2 4 2.01066 0 2 2.01066 1
gene 2 3 4 -1.92576 0 3 -1.92576 1
gene 1 3 5 1.32219 0 4 1.32219 1
gene 1 5 4 0.229138 0 5 0.229138 0
gene 1 2 8 3.54567 0 10 3.54567 1
gene 1 8 4 1.047 0 11 1.047 1
gene 1 5 19 2.28884 0 33 2.28884 1
gene 1 19 4 -0.797542 0 34 -0.797542 1
gene 1 5 30 -2.22976 0 83 -2.22976 1
gene 1 30 19 -0.275842 0 84 -0.275842 1
genomeend 149
