
/* Species #1 : (Size 13) (AF 8.23086) (Age 23)  */


/* Organism #0 Fitness: 9 Error: 1 */
genomestart 0
trait 1 0.182321 0.214713 0.000726287 0.0277905 0.207198 0 0.00407287 0 
trait 2 0.2 0 0 0 0.000174838 0.0098395 0 0.00317847 
trait 3 0.316402 0 0 0.00101603 0 0 0.0479971 0.0269545 
node 1 1 1 3
node 2 2 1 1
node 3 3 1 1
node 4 2 0 2
gene 3 1 4 -3.25428 0 1 -3.25428 1
gene 3 2 4 6.8676 0 2 6.8676 1
gene 2 3 4 8 0 3 8 1
genomeend 0

/* Organism #1 Fitness: 9 Error: 1 */
genomestart 1
trait 1 0.183011 0.21591 0.000720701 0.0277859 0.208703 0 0.00404154 0 
trait 2 0.2 0 0 0 0.000173493 0.00984328 0 0.00315402 
trait 3 0.316421 0 0 0.00100822 0 0 0.0479971 0.0269313 
node 1 1 1 3
node 2 2 1 1
node 3 3 1 1
node 4 2 0 2
gene 3 1 4 -2.88524 0 1 -2.88524 1
gene 3 2 4 6.8676 0 2 6.8676 1
gene 2 3 4 6.70652 0 3 6.70652 1
genomeend 1

/* Organism #2 Fitness: 8.9999 Error: 1.00002 */
genomestart 2
trait 1 0.183701 0.217107 0.000715114 0.0277814 0.210209 0 0.00401021 0 
trait 2 0.2 0 0 0 0.000172148 0.00984707 0 0.00312957 
trait 3 0.316439 0 0 0.0010004 0 0 0.0479971 0.0269081 
node 1 1 1 3
node 2 2 1 1
node 3 3 1 1
node 4 2 0 2
gene 3 1 4 -3.54166 0 1 -3.54166 1
gene 3 2 4 5.7861 0 2 5.7861 1
gene 2 3 4 7.93727 0 3 7.93727 1
genomeend 2

/* Organism #3 Fitness: 8.97346 Error: 1.00443 */
genomestart 3
trait 1 0.183011 0.21591 0.000720701 0.0277859 0.208703 0 0.00404154 0 
trait 2 0.2 0 0 0 0.000173493 0.00984328 0 0.00315402 
trait 3 0.316421 0 0 0.00100822 0 0 0.0479971 0.0269313 
node 1 1 1 3
node 2 2 1 1
node 3 3 1 1
node 4 2 0 2
gene 3 1 4 -1.09979 0 1 -1.09979 1
gene 3 2 4 6.57647 0 2 6.57647 1
gene 2 3 4 5.12438 0 3 5.12438 1
genomeend 3

/* Organism #4 Fitness: 8.99998 Error: 1 */
genomestart 4
trait 1 0.182321 0.214713 0.000726287 0.0277905 0.207198 0 0.00407287 0 
trait 2 0.2 0 0 0 0.000174838 0.0098395 0 0.00317847 
trait 3 0.316402 0 0 0.00101603 0 0 0.0479971 0.0269545 
node 1 1 1 3
node 2 2 1 1
node 3 3 1 1
node 4 2 0 2
gene 3 1 4 -2.55891 0 1 -2.55891 1
gene 3 2 4 8 0 2 8 1
gene 3 3 4 8 0 3 8 1
genomeend 4

/* Organism #5 Fitness: 4.03721 Error: 1.99072 */
genomestart 5
trait 1 0.183011 0.21591 0.000720701 0.0277859 0.208703 0 0.00404154 0 
trait 2 0.2 0 0.662868 0.173732 0.000173493 0.00984328 0 0 
trait 3 0.316421 0 0 0.00100822 0 0 0.0479971 0.0269313 
node 1 1 1 3
node 2 2 1 1
node 3 3 1 1
node 4 2 0 2
gene 3 1 4 -3.25428 0 1 -3.25428 1
gene 3 2 4 8 0 2 8 1
gene 2 3 4 2.30585 0 3 2.30585 1
genomeend 5

/* Organism #6 Fitness: 9 Error: 1 */
genomestart 6
trait 1 0.183011 0.21591 0.000720701 0.0277859 0.208703 0 0.00404154 0 
trait 2 0.2 0 0 0 0.000173493 0.00984328 0 0.00315402 
trait 3 0.316421 0 0 0.00100822 0 0 0.0479971 0.0269313 
node 1 1 1 3
node 2 2 1 1
node 3 3 1 1
node 4 2 0 2
gene 3 1 4 -3.06976 0 1 -3.06976 1
gene 3 2 4 7.4338 0 2 7.4338 1
gene 2 3 4 7.35326 0 3 7.35326 1
genomeend 6

/* Organism #7 Fitness: 8.99779 Error: 1.00037 */
genomestart 7
trait 1 0.182321 0.214713 0.000726287 0.0277905 0.207198 0 0.00407287 0 
trait 2 0.2 0 0 0 0.000174838 0.0098395 0 0.00317847 
trait 3 0.316402 0 0 0.00101603 0 0 0.0479971 0.0269545 
node 1 1 1 3
node 2 2 1 1
node 3 2 1 1
node 4 2 0 2
gene 3 1 4 -3.17771 0 1 -3.17771 1
gene 3 2 4 4.78355 0 2 4.78355 1
gene 2 3 4 7.97241 0 3 7.97241 1
genomeend 7

/* Organism #8 Fitness: 9 Error: 1 */
genomestart 8
trait 1 0.1 0 0 0 0 0 0 0 
trait 2 0.2 0.000390486 0 0 0 0.0413254 0 0.0367803 
trait 3 0.37513 0.394077 0 0.130029 0 0 0.191988 0.0957493 
node 1 3 1 3
node 2 1 1 1
node 3 2 1 1
node 4 2 0 2
node 14 1 0 0
gene 3 1 4 -8 0 1 -8 1
gene 3 2 4 6.08288 0 2 6.08288 1
gene 3 3 4 8 0 3 8 1
gene 3 2 14 7.34797 0 22 7.34797 1
gene 3 14 4 7.78166 0 23 7.78166 1
genomeend 8

/* Organism #9 Fitness: 9 Error: 1 */
genomestart 9
trait 1 0.1 0 0 0 0 0 0 0 
trait 2 0.2 0.000390486 0 0 0 0.0413254 0 0.0367803 
trait 3 0.37513 0.394077 0 0.130029 0 0 0.191988 0.0957493 
node 1 3 1 3
node 2 2 1 1
node 3 2 1 1
node 4 2 0 2
node 14 1 0 0
gene 1 1 4 -7.76638 0 1 -7.76638 1
gene 3 2 4 5.56355 0 2 5.56355 1
gene 3 3 4 8 0 3 8 1
gene 3 2 14 2.17419 0 22 2.17419 1
gene 3 14 4 6.4518 0 23 6.4518 1
genomeend 9

/* Organism #10 Fitness: 3.99305 Error: 2.00174 */
genomestart 10
trait 1 0.1 0 0 0 0 0 0 0 
trait 2 0.2 0.000390486 0 0 0 0.0413254 0 0.0367803 
trait 3 0.37513 0.394077 0 0.130029 0 0 0.191988 0.0957493 
node 1 3 1 3
node 2 1 1 1
node 3 2 1 1
node 4 2 0 2
node 14 1 0 0
gene 1 1 4 -8 0 1 -8 1
gene 3 2 4 4.17861 0 2 4.17861 1
gene 3 3 4 8 0 3 8 1
gene 3 2 14 3.07225 0 22 3.07225 1
gene 3 14 4 2.40507 0 23 2.40507 1
genomeend 10

/* Organism #11 Fitness: 9 Error: 1 */
genomestart 11
trait 1 0.1 0 0 0 0 0 0 0 
trait 2 0.2 0.000390486 0 0 0 0.0413254 0 0.0367803 
trait 3 0.37513 0.394077 0 0.130029 0 0 0.191988 0.0957493 
node 1 3 1 3
node 2 2 1 1
node 3 2 1 1
node 4 2 0 2
node 14 1 0 0
gene 1 1 4 -7.76638 0 1 -7.76638 1
gene 3 2 4 5.35387 0 2 5.35387 1
gene 1 3 4 8 0 3 8 1
gene 3 2 14 3.29346 0 22 3.29346 1
gene 3 14 4 6.86724 0 23 6.86724 1
genomeend 11

/* Organism #12 Fitness: 8.99977 Error: 1.00004 */
genomestart 12
trait 1 0.1 0 0 0 0 0 0 0 
trait 2 0.2 0.000390486 0 0 0 0.0413254 0 0.0367803 
trait 3 0.37513 0.394077 0 0.130029 0 0 0.191988 0.0957493 
node 1 3 1 3
node 2 1 1 1
node 3 2 1 1
node 4 2 0 2
node 14 1 0 0
gene 3 1 4 -7.54559 0 1 -7.54559 1
gene 3 2 4 7.63462 0 2 7.63462 1
gene 3 3 4 5.61507 0 3 5.61507 1
gene 3 2 14 7.91571 0 22 7.91571 1
gene 3 14 4 8 0 23 8 1
genomeend 12

/* Species #2 : (Size 8) (AF 8.21779) (Age 19)  */


/* Organism #13 Fitness: 9 Error: 1 */
genomestart 13
trait 1 0.108413 0.385452 0.00178778 0.00465656 0.25615 0 0.0100255 0 
trait 2 0.2 0 0 0 0.00043037 0 0 0.00782393 
trait 3 0.383013 0 0.316809 0.002501 0 0.304493 0.00749955 0.0111671 
node 1 2 1 3
node 2 2 1 1
node 3 2 1 1
node 4 2 0 2
node 7 3 0 0
gene 1 1 4 -8 0 1 -8 1
gene 1 2 4 -7.98264 0 2 -7.98264 1
gene 2 3 4 4.89847 0 3 4.89847 1
gene 1 3 7 3.84086 0 8 3.84086 1
gene 1 7 4 8 0 9 8 1
genomeend 13

/* Organism #14 Fitness: 9 Error: 1 */
genomestart 14
trait 1 0.108413 0.385452 0.00178778 0.00465656 0.25615 0 0.0100255 0 
trait 2 0.2 0 0 0 0.00043037 0 0 0.00782393 
trait 3 0.383013 0 0.316809 0.002501 0 0.304493 0.00749955 0.0111671 
node 1 2 1 3
node 2 2 1 1
node 3 2 1 1
node 4 2 0 2
node 7 3 0 0
gene 1 1 4 -8 0 1 -8 1
gene 1 2 4 -7.98264 0 2 -7.98264 1
gene 2 3 4 2.8548 0 3 2.8548 1
gene 1 3 7 3.84086 0 8 3.84086 1
gene 1 7 4 8 0 9 8 1
genomeend 14

/* Organism #15 Fitness: 8.99108 Error: 1.00149 */
genomestart 15
trait 1 0.108413 0.385452 0.00178778 0.00465656 0.25615 0 0.0100255 0 
trait 2 0.2 0 0 0 0.00043037 0 0 0.00782393 
trait 3 0.383013 0 0.316809 0.002501 0 0.304493 0.00749955 0.0111671 
node 1 2 1 3
node 2 2 1 1
node 3 2 1 1
node 4 2 0 2
node 7 3 0 0
gene 1 1 4 -8 0 1 -8 1
gene 1 2 4 -5.724 0 2 -5.724 1
gene 2 3 4 2.15493 0 3 2.15493 1
gene 1 3 7 2.84512 0 8 2.84512 1
gene 1 7 4 7.16696 0 9 7.16696 1
genomeend 15

/* Organism #16 Fitness: 8.2363 Error: 1.1301 */
genomestart 16
trait 1 0.108413 0.385452 0.00178778 0.00465656 0.25615 0 0.0100255 0 
trait 2 0.2 0 0 0 0.00043037 0 0 0.00782393 
trait 3 0.383013 0 0.316809 0.002501 0 0.304493 0.00749955 0.0111671 
node 1 2 1 3
node 2 2 1 1
node 3 2 1 1
node 4 2 0 2
node 7 3 0 0
gene 1 1 4 -7.25311 0 1 -7.25311 1
gene 1 2 4 -8 0 2 -8 1
gene 2 3 4 -0.361042 0 3 -0.361042 1
gene 1 3 7 5.92694 0 8 5.92694 1
gene 1 7 4 8 0 9 8 1
genomeend 16

/* Organism #17 Fitness: 3.99999 Error: 2 */
genomestart 17
trait 1 0.108413 0.385452 0.00178778 0.00465656 0.25615 0 0.0100255 0 
trait 2 0.2 0 0 0 0.00043037 0 0 0.00782393 
trait 3 0.383013 0 0.316809 0.002501 0 0.304493 0.00749955 0.0111671 
node 1 2 1 3
node 2 2 1 1
node 3 2 1 1
node 4 2 0 2
node 7 3 0 0
gene 1 1 4 -5.73202 0 1 -5.73202 1
gene 1 2 4 0.501881 0 2 0.501881 1
gene 2 3 4 3.06056 0 3 3.06056 1
gene 1 3 7 1.37436 0 8 1.37436 1
gene 1 7 4 -0.37351 0 9 -0.37351 1
genomeend 17

/* Organism #18 Fitness: 8.99859 Error: 1.00023 */
genomestart 18
trait 1 0.108413 0.385452 0.00178778 0.00465656 0.25615 0 0.0100255 0 
trait 2 0.2 0 0 0 0.00043037 0 0 0.00782393 
trait 3 0.383013 0 0.316809 0.002501 0 0.304493 0.00749955 0.0111671 
node 1 2 1 3
node 2 2 1 1
node 3 2 1 1
node 4 2 0 2
node 7 3 0 0
gene 1 1 4 -8 0 1 -8 1
gene 1 2 4 -7.99132 0 2 -7.99132 1
gene 2 3 4 6.29426 0 3 6.29426 1
gene 1 3 7 2.11312 0 8 2.11312 1
gene 1 7 4 8 0 9 8 1
genomeend 18

/* Organism #19 Fitness: 8.5959 Error: 1.06812 */
genomestart 19
trait 1 0.108413 0.385452 0.00178778 0.00465656 0.25615 0 0.0100255 0 
trait 2 0.2 0 0 0 0.00043037 0 0 0.00782393 
trait 3 0.383013 0 0.316809 0.002501 0 0.304493 0.00749955 0.0111671 
node 1 2 1 3
node 2 2 1 1
node 3 2 1 1
node 4 2 0 2
node 7 3 0 0
gene 1 1 4 -8 0 1 -8 1
gene 1 2 4 -6.31163 0 2 -6.31163 1
gene 2 3 4 1.64985 0 3 1.64985 1
gene 1 3 7 2.36784 0 8 2.36784 1
gene 1 7 4 6.88143 0 9 6.88143 1
genomeend 19

/* Organism #20 Fitness: 8.92042 Error: 1.01329 */
genomestart 20
trait 1 0.108413 0.385452 0.00178778 0.00465656 0.25615 0 0.0100255 0 
trait 2 0.2 0 0 0 0.00043037 0 0 0.00782393 
trait 3 0.383013 0 0.316809 0.002501 0 0.304493 0.00749955 0.0111671 
node 1 2 1 3
node 2 2 1 1
node 3 2 1 1
node 4 2 0 2
node 7 3 0 0
gene 1 1 4 -8 0 1 -8 1
gene 1 2 4 -8 0 2 -8 1
gene 2 3 4 2.72904 0 3 2.72904 1
gene 1 3 7 3.84086 0 8 3.84086 1
gene 1 7 4 6.14565 0 9 6.14565 1
genomeend 20

/* Species #3 : (Size 7) (AF 8.79754) (Age 18)  */


/* Organism #21 Fitness: 9 Error: 1 */
genomestart 21
trait 1 0.1 0 0 0 0 0 0 0 
trait 2 0.339104 0.00552705 0 0 0.467264 0.221177 0.118602 0 
trait 3 0.075 0 0 0 0.696367 0.575578 0.656039 0.212957 
node 1 2 1 3
node 2 2 1 1
node 3 1 1 1
node 4 2 0 2
node 13 1 0 0
gene 2 1 4 -3.43983 0 1 -3.43983 1
gene 2 2 4 7.54464 0 2 7.54464 1
gene 3 3 4 6.11356 0 3 6.11356 1
gene 3 3 13 8 0 20 8 1
gene 3 13 4 1.16862 0 21 1.16862 1
gene 2 1 13 -3.60709 0 54 -3.60709 1
genomeend 21

/* Organism #22 Fitness: 8.97653 Error: 1.00391 */
genomestart 22
trait 1 0.1 0 0 0 0 0 0 0 
trait 2 0.339104 0.00552705 0 0 0.467264 0.221177 0.118602 0 
trait 3 0.075 0 0 0 0.696367 0.575578 0.656039 0.212957 
node 1 2 1 3
node 2 2 1 1
node 3 1 1 1
node 4 2 0 2
node 13 1 0 0
gene 2 1 4 -5.63395 0 1 -5.63395 1
gene 2 2 4 6.75886 0 2 6.75886 1
gene 3 3 4 6.08214 0 3 6.08214 1
gene 3 3 13 8 0 20 8 1
gene 3 13 4 3.09869 0 21 3.09869 1
gene 2 1 13 -2.77626 0 54 -2.77626 1
genomeend 22

/* Organism #23 Fitness: 9 Error: 1 */
genomestart 23
trait 1 0.1 0 0 0 0 0 0 0 
trait 2 0.339104 0.00829058 0 0 0.467264 0.318778 0.177903 0 
trait 3 0.075 0 0 0 0.696367 0.575578 0.656039 0.212957 
node 1 2 1 3
node 2 2 1 1
node 3 1 1 1
node 4 2 0 2
node 13 1 0 0
gene 2 1 4 -3.95718 0 1 -3.95718 1
gene 2 2 4 7.30581 0 2 7.30581 1
gene 3 3 4 6.11356 0 3 6.11356 1
gene 3 3 13 8 0 20 8 1
gene 3 13 4 1.16862 0 21 1.16862 1
gene 2 1 13 -1.80815 0 54 -1.80815 1
genomeend 23

/* Organism #24 Fitness: 7.60633 Error: 1.24204 */
genomestart 24
trait 1 0.1 0 0 0 0 0 0 0 
trait 2 0.339104 0.0110541 0 0 0.467264 0.416378 0.237204 0 
trait 3 0.075 0 0 0 0.696367 0.575578 0.656039 0.212957 
node 1 2 1 3
node 2 2 1 1
node 3 1 1 1
node 4 2 0 2
node 13 1 0 0
gene 2 1 4 -6.0667 0 1 -6.0667 1
gene 2 2 4 6.29948 0 2 6.29948 1
gene 3 3 4 8 0 3 8 1
gene 3 3 13 8 0 20 8 1
gene 3 13 4 -0.226383 0 21 -0.226383 1
gene 2 1 13 -1.16733 0 54 -1.16733 1
genomeend 24

/* Organism #25 Fitness: 8.99995 Error: 1.00001 */
genomestart 25
trait 1 0.1 0 0 0.10718 0 0 0.0848387 0 
trait 2 0.339104 0.0110541 0 0 0.467264 0.416378 0.237204 0 
trait 3 0.075 0 0 0 0.696367 0.575578 0.656039 0.212957 
node 1 2 1 3
node 2 2 1 1
node 3 1 1 1
node 4 2 0 2
node 13 1 0 0
gene 2 1 4 -3.3825 0 1 -3.3825 1
gene 2 2 4 8 0 2 8 1
gene 3 3 4 6.52905 0 3 6.52905 1
gene 3 3 13 8 0 20 8 1
gene 3 13 4 2.28814 0 21 2.28814 1
gene 2 1 13 -0.0492752 0 54 -0.0492752 1
genomeend 25

/* Organism #26 Fitness: 8.99996 Error: 1.00001 */
genomestart 26
trait 1 0.1 0 0 0 0 0 0 0 
trait 2 0.339104 0.00552705 0 0 0.467264 0.221177 0.118602 0 
trait 3 0.075 0 0 0 0.696367 0.575578 0.656039 0.212957 
node 1 2 1 3
node 2 2 1 1
node 3 1 1 1
node 4 2 0 2
node 13 1 0 0
gene 2 1 4 -2.48202 0 1 -2.48202 1
gene 2 2 4 6.41377 0 2 6.41377 1
gene 3 3 4 5.05024 0 3 5.05024 1
gene 3 3 13 6.24956 0 20 6.24956 1
gene 3 13 4 0.229061 0 21 0.229061 1
gene 2 1 13 -1.59693 0 54 -1.59693 1
genomeend 26

/* Organism #27 Fitness: 9 Error: 1 */
genomestart 27
trait 1 0.1 0 0 0 0 0 0 0 
trait 2 0.339104 0.00829058 0 0 0.467264 0.318778 0.177903 0 
trait 3 0.075 0 0 0 0.696367 0.575578 0.656039 0.212957 
node 1 2 1 3
node 2 2 1 1
node 3 1 1 1
node 4 2 0 2
node 13 1 0 0
gene 2 1 4 -2.94907 0 1 -2.94907 1
gene 2 2 4 8 0 2 8 1
gene 3 3 4 6.3854 0 3 6.3854 1
gene 3 3 13 6.86618 0 20 6.86618 1
gene 3 13 4 1.32369 0 21 1.32369 1
gene 2 1 13 -1.54628 0 54 -1.54628 1
genomeend 27

/* Species #4 : (Size 7) (AF 4.85749) (Age 18)  */


/* Organism #28 Fitness: 8.31018 Error: 1.11726 */
genomestart 28
trait 1 0.1 0 0 0 0 0 0 0 
trait 2 0.2 0 0 0 0 0 0 0 
trait 3 0.3 0 0 0 0 0 0.102528 0 
node 1 3 1 3
node 2 2 1 1
node 3 3 1 1
node 4 2 0 2
node 9 1 0 0
gene 1 1 4 0.243486 0 1 0.243486 1
gene 3 2 4 1.13699 0 2 1.13699 0
gene 1 3 4 1.5863 0 3 1.5863 1
gene 2 2 9 4.23512 0 12 4.23512 1
gene 1 9 4 -2.7894 0 13 -2.7894 1
genomeend 28

/* Organism #29 Fitness: 4 Error: 2 */
genomestart 29
trait 1 0.1 0 0 0 0 0 0 0 
trait 2 0.2 0 0 0 0 0 0 0 
trait 3 0.3 0 0 0 0 0 0.102528 0 
node 1 3 1 3
node 2 2 1 1
node 3 3 1 1
node 4 2 0 2
node 9 1 0 0
gene 1 1 4 -1.72116 0 1 -1.72116 1
gene 3 2 4 3.12041 0 2 3.12041 0
gene 1 3 4 0.199013 0 3 0.199013 1
gene 2 2 9 2.87087 0 12 2.87087 1
gene 1 9 4 -5.25227 0 13 -5.25227 1
genomeend 29

/* Organism #30 Fitness: 8.31018 Error: 1.11726 */
genomestart 30
trait 1 0.1 0 0 0 0 0 0 0 
trait 2 0.2 0 0 0 0 0 0 0 
trait 3 0.3 0 0 0 0 0 0.102528 0 
node 1 3 1 3
node 2 2 1 1
node 3 3 1 1
node 4 2 0 2
node 9 1 0 0
gene 1 1 4 0.243486 0 1 0.243486 1
gene 3 2 4 1.13699 0 2 1.13699 0
gene 1 3 4 1.5863 0 3 1.5863 1
gene 2 2 9 4.23512 0 12 4.23512 1
gene 1 9 4 -2.7894 0 13 -2.7894 1
genomeend 30

/* Organism #31 Fitness: 3.65032 Error: 2.08942 */
genomestart 31
trait 1 0.1 0 0 0 0 0 0 0 
trait 2 0.2 0 0 0 0 0 0 0 
trait 3 0.3 0 0 0 0 0 0.102528 0 
node 1 3 1 3
node 2 2 1 1
node 3 3 1 1
node 4 2 0 2
node 9 1 0 0
gene 1 1 4 0.534136 0 1 0.534136 1
gene 3 2 4 -0.127817 0 2 -0.127817 0
gene 1 3 4 1.99612 0 3 1.99612 1
gene 2 2 9 6.86008 0 12 6.86008 1
gene 1 9 4 -1.85667 0 13 -1.85667 1
genomeend 31

/* Organism #32 Fitness: 1.27461 Error: 2.87101 */
genomestart 32
trait 1 0.1 0 0 0 0 0 0 0 
trait 2 0.2 0 0 0 0 0 0 0 
trait 3 0.3 0 0 0 0 0 0.102528 0 
node 1 3 1 3
node 2 2 1 1
node 3 3 1 1
node 4 2 0 2
node 9 1 0 0
gene 1 1 4 1.69769 0 1 1.69769 1
gene 3 2 4 3.52104 0 2 3.52104 0
gene 1 3 4 3.62683 0 3 3.62683 1
gene 2 2 9 3.42693 0 12 3.42693 1
gene 1 9 4 -2.56825 0 13 -2.56825 1
genomeend 32

/* Organism #33 Fitness: 3.99805 Error: 2.00049 */
genomestart 33
trait 1 0.1 0 0 0 0 0 0 0 
trait 2 0.2 0 0 0 0 0 0 0 
trait 3 0.3 0 0 0 0 0 0.102528 0 
node 1 3 1 3
node 2 2 1 1
node 3 3 1 1
node 4 2 0 2
node 9 1 0 0
gene 1 1 4 2.26166 0 1 2.26166 1
gene 3 2 4 -1.22042 0 2 -1.22042 0
gene 1 3 4 0.174199 0 3 0.174199 1
gene 2 2 9 7.32983 0 12 7.32983 1
gene 1 9 4 -0.852096 0 13 -0.852096 1
genomeend 33

/* Organism #34 Fitness: 4.45909 Error: 1.88834 */
genomestart 34
trait 1 0.1 0 0 0 0 0 0 0 
trait 2 0.2 0 0 0 0 0 0 0 
trait 3 0.3 0 0 0 0 0 0.101304 0 
node 1 3 1 3
node 2 2 1 1
node 3 1 1 1
node 4 2 0 2
node 9 1 0 0
node 42 1 0 0
gene 1 1 4 0.885734 0 1 0.885734 1
gene 3 2 4 -2.47411 0 2 -2.47411 0
gene 1 3 4 -2.38956 0 3 -2.38956 0
gene 2 2 9 5.32482 0 12 5.32482 1
gene 1 9 4 0.271398 0 13 0.271398 1
gene 1 3 42 -0.626784 0 124 -0.626784 1
gene 1 42 4 -1.67462 0 125 -1.67462 1
genomeend 34

/* Species #5 : (Size 5) (AF 6.97096) (Age 18)  */


/* Organism #35 Fitness: 4.00469 Error: 1.99883 */
genomestart 35
trait 1 0.1 0 0 0 0 0 0 0 
trait 2 0.2 0.000390486 0 0 0 0.0413254 0 0.0367803 
trait 3 0.37513 0.394077 0 0.130029 0 0 0.191988 0.0957493 
node 1 3 1 3
node 2 1 1 1
node 3 2 1 1
node 4 2 0 2
node 14 1 0 0
gene 1 1 4 -5.91655 0 1 -5.91655 1
gene 3 2 4 6.30568 0 2 6.30568 1
gene 3 3 4 0.559431 0 3 0.559431 1
gene 3 2 14 6.81886 0 22 6.81886 1
gene 3 14 4 8 0 23 8 1
genomeend 35

/* Organism #36 Fitness: 4 Error: 2 */
genomestart 36
trait 1 0.1 0 0 0 0 0 0 0 
trait 2 0.2 0.000390486 0 0 0 0.0413254 0 0.0367803 
trait 3 0.37513 0.394077 0 0.130029 0 0 0.191988 0.0957493 
node 1 3 1 3
node 2 2 1 1
node 3 2 1 1
node 4 2 0 2
node 14 1 0 0
gene 3 1 4 -0.815321 0 1 -0.815321 1
gene 3 2 4 -1.30568 0 2 -1.30568 1
gene 3 3 4 7.08027 0 3 7.08027 1
gene 3 2 14 1.85414 0 22 1.85414 1
gene 3 14 4 8 0 23 8 1
genomeend 36

/* Organism #37 Fitness: 8.99848 Error: 1.00025 */
genomestart 37
trait 1 0 0 0 0 0 0 0 0.898839 
trait 2 0.2 0.000390486 0 0 0 0.0413254 0 0.0367803 
trait 3 0.37513 0.394077 0 0.130029 0 0 0.191988 0.0957493 
node 1 3 1 3
node 2 1 1 1
node 3 2 1 1
node 4 2 0 2
node 14 1 0 0
gene 3 1 4 -8 0 1 -8 1
gene 3 2 4 5.29561 0 2 5.29561 1
gene 3 3 4 6.07835 0 3 6.07835 1
gene 3 2 14 4.37208 0 22 4.37208 1
gene 3 14 4 7.20731 0 23 7.20731 1
genomeend 37

/* Organism #38 Fitness: 8.99998 Error: 1 */
genomestart 38
trait 1 0.1 0 0 0 0 0 0 0 
trait 2 0.2 0.000390486 0 0 0 0.0413254 0 0.0367803 
trait 3 0.37513 0.394077 0 0.130029 0 0 0.191988 0.0957493 
node 1 3 1 3
node 2 2 1 1
node 3 2 1 1
node 4 2 0 2
node 14 1 0 0
gene 1 1 4 -7.59599 0 1 -7.59599 1
gene 2 2 4 5.14928 0 2 5.14928 1
gene 3 3 4 6.2091 0 3 6.2091 1
gene 3 2 14 3.38272 0 22 3.38272 1
gene 3 14 4 8 0 23 8 1
genomeend 38

/* Organism #39 Fitness: 8.85167 Error: 1.02482 */
genomestart 39
trait 1 0.1 0 0 0 0 0 0 0 
trait 2 0.2 0.000390486 0 0 0 0.0413254 0 0.0367803 
trait 3 0.37513 0.394077 0 0.130029 0 0 0.191988 0.0957493 
node 1 3 1 3
node 2 2 1 1
node 3 2 1 1
node 4 2 0 2
node 14 1 0 0
gene 1 1 4 -7.76638 0 1 -7.76638 1
gene 3 2 4 5.56355 0 2 5.56355 1
gene 3 3 4 8 0 3 8 1
gene 3 2 14 3.38272 0 22 3.38272 1
gene 3 14 4 7.78166 0 23 7.78166 1
gene 3 1 14 -0.538865 0 198 -0.538865 1
genomeend 39

/* Species #6 : (Size 7) (AF 7.32986) (Age 17)  */


/* Organism #40 Fitness: 9.45529 Error: 0.925054 */
genomestart 40
trait 1 0.1 0 0 0 0 0 0 0 
trait 2 0.2 0 0 0 0 0 0 0 
trait 3 0.3 0 0 0 0 0 0.119665 0 
node 1 3 1 3
node 2 2 1 1
node 3 3 1 1
node 4 2 0 2
node 16 1 0 0
gene 1 1 4 1.22921 0 1 1.22921 1
gene 2 2 4 -1.51808 0 2 -1.51808 1
gene 1 3 4 -0.148941 0 3 -0.148941 1
gene 1 3 16 -0.835994 0 28 -0.835994 1
gene 1 16 4 -5.76433 0 29 -5.76433 1
gene 3 2 16 -1.28833 0 76 -1.28833 1
genomeend 40

/* Organism #41 Fitness: 5.18302 Error: 1.72338 */
genomestart 41
trait 1 0.1 0 0 0 0 0 0 0 
trait 2 0.2 0 0 0 0 0 0 0 
trait 3 0.3 0 0 0 0 0 0.119665 0 
node 1 3 1 3
node 2 2 1 1
node 3 3 1 1
node 4 2 0 2
node 16 1 0 0
gene 1 1 4 0.783745 0 1 0.783745 1
gene 2 2 4 -1.51808 0 2 -1.51808 1
gene 1 3 4 -0.148941 0 3 -0.148941 1
gene 1 3 16 -0.835994 0 28 -0.835994 1
gene 1 16 4 -5.64971 0 29 -5.64971 1
gene 3 2 16 -1.28833 0 76 -1.28833 1
gene 1 1 16 -0.425463 0 199 -0.425463 1
genomeend 41

/* Organism #42 Fitness: 8.79544 Error: 1.03429 */
genomestart 42
trait 1 0.1 0 0 0 0 0 0 0 
trait 2 0.2 0 0 0 0 0 0 0 
trait 3 0.3 0 0 0 0 0 0.119665 0 
node 1 3 1 3
node 2 2 1 1
node 3 3 1 1
node 4 2 0 2
node 16 1 0 0
gene 1 1 4 1.75863 0 1 1.75863 1
gene 2 2 4 -1.45369 0 2 -1.45369 1
gene 1 3 4 -1.29179 0 3 -1.29179 1
gene 1 3 16 -4.098 0 28 -4.098 1
gene 1 16 4 -4.24265 0 29 -4.24265 1
gene 3 2 16 -0.375786 0 76 -0.375786 1
genomeend 42

/* Organism #43 Fitness: 14.0053 Error: 0.257631 */
/* ##------$ WINNER 43 SPECIES #6 $------## */
genomestart 43
trait 1 0.1 0 0 0 0 0 0 0 
trait 2 0.2 0 0 0 0 0 0 0 
trait 3 0.3 0 0 0 0 0 0.119665 0 
node 1 1 1 3
node 2 2 1 1
node 3 3 1 1
node 4 2 0 2
node 16 1 0 0
gene 1 1 4 2.35689 0 1 2.35689 1
gene 2 2 4 -1.17921 0 2 -1.17921 1
gene 1 3 4 -1.99519 0 3 -1.99519 1
gene 1 3 16 -0.835994 0 28 -0.835994 1
gene 1 16 4 -6.28884 0 29 -6.28884 1
gene 3 2 16 -2.14051 0 76 -2.14051 1
genomeend 43

/* Organism #44 Fitness: 3.99997 Error: 2.00001 */
genomestart 44
trait 1 0.1 0 0 0 0 0 0 0 
trait 2 0.2 0 0 0 0 0 0 0 
trait 3 0.3 0 0 0 0 0 0.119665 0 
node 1 3 1 3
node 2 2 1 1
node 3 3 1 1
node 4 2 0 2
node 16 1 0 0
gene 1 1 4 0.957004 0 1 0.957004 1
gene 2 2 4 -2.66498 0 2 -2.66498 1
gene 1 3 4 -2.30065 0 3 -2.30065 1
gene 1 3 16 1.04004 0 28 1.04004 1
gene 1 16 4 -6.72674 0 29 -6.72674 1
gene 3 2 16 2.4432 0 76 2.4432 1
genomeend 44

/* Organism #45 Fitness: 8.61566 Error: 1.06476 */
genomestart 45
trait 1 0.1 0 0 0 0 0 0 0 
trait 2 0.2 0 0 0 0 0 0 0 
trait 3 0.3 0 0 0 0 0 0.119665 0 
node 1 3 1 3
node 2 2 1 1
node 3 3 1 1
node 4 2 0 2
node 16 1 0 0
gene 1 1 4 0.783745 0 1 0.783745 1
gene 2 2 4 -3.7679 0 2 -3.7679 1
gene 1 3 4 -0.148941 0 3 -0.148941 1
gene 1 3 16 -0.835994 0 28 -0.835994 1
gene 1 16 4 -5.76433 0 29 -5.76433 1
gene 3 2 16 -0.679979 0 76 -0.679979 1
genomeend 45

/* Organism #46 Fitness: 1.2543 Error: 2.88004 */
genomestart 46
trait 1 0.1 0 0 0 0 0 0 0 
trait 2 0.2 0 0.264924 0 0 0.878574 0 0.173487 
trait 3 0.3 0 0 0 0 0 0.119665 0 
node 1 3 1 3
node 2 2 1 1
node 3 3 1 1
node 4 2 0 2
node 16 1 0 0
gene 1 1 4 2.36475 0 1 2.36475 1
gene 2 2 4 -1.54947 0 2 -1.54947 1
gene 1 3 4 -0.959796 0 3 -0.959796 1
gene 1 3 16 0.037439 0 28 0.037439 1
gene 1 16 4 -3.70695 0 29 -3.70695 1
gene 3 2 16 0.408643 0 76 0.408643 1
genomeend 46

/* Species #7 : (Size 10) (AF 8.0457) (Age 16)  */


/* Organism #47 Fitness: 9 Error: 1 */
genomestart 47
trait 1 0.1 0.418117 0 0 0.271367 0 0 0 
trait 2 0.2 0 0 0 0 0 0 0 
trait 3 0.3 0 0 0 0 0 0 0 
node 1 2 1 3
node 2 2 1 1
node 3 2 1 1
node 4 2 0 2
node 7 1 0 0
node 18 1 0 0
gene 1 1 4 -4.14631 0 1 -4.14631 1
gene 2 2 4 6.54276 0 2 6.54276 1
gene 2 3 4 7.62268 0 3 7.62268 1
gene 1 3 7 -3.86655 0 8 -3.86655 1
gene 2 7 4 -2.77313 0 9 -2.77313 0
gene 1 7 18 -2.51222 0 32 -2.51222 1
gene 1 18 4 4.49897 0 33 4.49897 1
gene 1 2 7 -2.27103 0 77 -2.27103 1
genomeend 47

/* Organism #48 Fitness: 9 Error: 1 */
genomestart 48
trait 1 0.1 0.418117 0 0 0.271367 0 0 0 
trait 2 0.2 0 0 0 0 0 0 0 
trait 3 0.3 0 0 0 0 0 0 0 
node 1 2 1 3
node 2 2 1 1
node 3 2 1 1
node 4 2 0 2
node 7 1 0 0
node 18 1 0 0
gene 1 1 4 -4.14631 0 1 -4.14631 1
gene 2 2 4 6.54276 0 2 6.54276 1
gene 2 3 4 7.62268 0 3 7.62268 1
gene 1 3 7 -3.86655 0 8 -3.86655 1
gene 2 7 4 -2.77313 0 9 -2.77313 0
gene 1 7 18 -2.51222 0 32 -2.51222 1
gene 1 18 4 4.49897 0 33 4.49897 1
gene 1 2 7 -2.27103 0 77 -2.27103 1
genomeend 48

/* Organism #49 Fitness: 3.99949 Error: 2.00013 */
genomestart 49
trait 1 0.1 0.418117 0 0 0.271367 0 0 0 
trait 2 0.2 0 0 0 0 0 0 0 
trait 3 0.3 0 0 0 0 0 0 0 
node 1 2 1 3
node 2 2 1 1
node 3 2 1 1
node 4 2 0 2
node 7 1 0 0
node 18 1 0 0
gene 1 1 4 -3.06839 0 1 -3.06839 1
gene 2 2 4 4.81446 0 2 4.81446 1
gene 2 3 4 1.04876 0 3 1.04876 1
gene 1 3 7 -0.958135 0 8 -0.958135 1
gene 2 7 4 -3.90087 0 9 -3.90087 0
gene 1 7 18 -0.34145 0 32 -0.34145 1
gene 1 18 4 0.0143758 0 33 0.0143758 1
gene 1 2 7 -0.41605 0 77 -0.41605 1
genomeend 49

/* Organism #50 Fitness: 9 Error: 1 */
genomestart 50
trait 1 0.1 0.418117 0 0 0.271367 0 0 0 
trait 2 0.2 0 0 0 0 0 0 0 
trait 3 0.3 0 0 0 0 0 0 0 
node 1 2 1 3
node 2 2 1 1
node 3 2 1 1
node 4 2 0 2
node 7 1 0 0
node 18 1 0 0
gene 1 1 4 -3.5016 0 1 -3.5016 1
gene 2 2 4 8 0 2 8 1
gene 2 3 4 8 0 3 8 1
gene 1 3 7 -1.66751 0 8 -1.66751 1
gene 2 7 4 -4.15855 0 9 -4.15855 0
gene 1 7 18 -4.01637 0 32 -4.01637 1
gene 1 18 4 4.91014 0 33 4.91014 1
gene 1 2 7 -0.590205 0 77 -0.590205 1
genomeend 50

/* Organism #51 Fitness: 4.45866 Error: 1.88845 */
genomestart 51
trait 1 0.1 0.418117 0 0 0.271367 0 0 0 
trait 2 0.2 0 0 0 0 0 0 0 
trait 3 0.3 0 0 0 0 0 0 0 
node 1 2 1 3
node 2 2 1 1
node 3 3 1 1
node 4 2 0 2
node 7 1 0 0
node 18 1 0 0
gene 1 1 4 0.409105 0 1 0.409105 1
gene 2 2 4 6.24213 0 2 6.24213 1
gene 3 3 4 7.87122 0 3 7.87122 1
gene 1 3 7 -4.97054 0 8 -4.97054 1
gene 2 7 4 -2.4704 0 9 -2.4704 0
gene 1 7 18 -2.56613 0 32 -2.56613 1
gene 1 18 4 6.81799 0 33 6.81799 1
gene 1 2 7 -1.47992 0 77 -1.47992 1
genomeend 51

/* Organism #52 Fitness: 9 Error: 1 */
genomestart 52
trait 1 0.1 0.418117 0 0 0.271367 0 0 0 
trait 2 0.2 0 0 0 0 0 0 0 
trait 3 0.3 0 0 0 0 0 0 0 
node 1 2 1 3
node 2 2 1 1
node 3 2 1 1
node 4 2 0 2
node 7 1 0 0
node 18 1 0 0
gene 1 1 4 -3.18433 0 1 -3.18433 1
gene 2 2 4 7.54928 0 2 7.54928 1
gene 2 3 4 8 0 3 8 1
gene 1 3 7 -5.44059 0 8 -5.44059 1
gene 2 7 4 -2.9301 0 9 -2.9301 0
gene 1 7 18 -4.43086 0 32 -4.43086 1
gene 1 18 4 2.11908 0 33 2.11908 1
gene 1 2 7 -0.842678 0 77 -0.842678 1
genomeend 52

/* Organism #53 Fitness: 8.99881 Error: 1.0002 */
genomestart 53
trait 1 0.1 0.418117 0 0 0.271367 0 0 0 
trait 2 0.2 0 0 0 0 0 0 0 
trait 3 0.3 0 0 0 0 0 0 0 
node 1 2 1 3
node 2 2 1 1
node 3 2 1 1
node 4 2 0 2
node 7 1 0 0
node 18 1 0 0
gene 1 1 4 -1.79098 0 1 -1.79098 1
gene 2 2 4 6.57632 0 2 6.57632 1
gene 2 3 4 5.56262 0 3 5.56262 1
gene 1 3 7 -4.95351 0 8 -4.95351 1
gene 2 7 4 -3.7646 0 9 -3.7646 0
gene 1 7 18 -1.86271 0 32 -1.86271 1
gene 1 18 4 5.88714 0 33 5.88714 1
gene 1 2 7 0.055195 0 77 0.055195 1
genomeend 53

/* Organism #54 Fitness: 9 Error: 1 */
genomestart 54
trait 1 0.1 0.418117 0 0 0.271367 0 0 0 
trait 2 0.370674 0 0.315866 0 0.603662 0 0 0 
trait 3 0.3 0 0 0 0 0 0 0 
node 1 2 1 3
node 2 2 1 1
node 3 2 1 1
node 4 2 0 2
node 7 1 0 0
node 18 1 0 0
gene 1 1 4 -4.15089 0 1 -4.15089 1
gene 2 2 4 8 0 2 8 1
gene 2 3 4 7.60496 0 3 7.60496 1
gene 1 3 7 -2.45832 0 8 -2.45832 1
gene 2 7 4 -5.05012 0 9 -5.05012 0
gene 1 7 18 -3.52334 0 32 -3.52334 1
gene 1 18 4 6.27414 0 33 6.27414 1
gene 1 2 7 0.101934 0 77 0.101934 1
genomeend 54

/* Organism #55 Fitness: 9 Error: 1 */
genomestart 55
trait 1 0.1 0.418117 0 0 0.271367 0 0 0 
trait 2 0.2 0 0 0 0 0 0 0 
trait 3 0.3 0 0 0 0 0 0 0 
node 1 2 1 3
node 2 2 1 1
node 3 2 1 1
node 4 2 0 2
node 7 1 0 0
node 18 1 0 0
gene 1 1 4 -3.97764 0 1 -3.97764 1
gene 2 2 4 8 0 2 8 1
gene 2 3 4 7.61449 0 3 7.61449 1
gene 1 3 7 -5.64014 0 8 -5.64014 1
gene 2 7 4 -1.54673 0 9 -1.54673 0
gene 1 7 18 -4.04358 0 32 -4.04358 1
gene 1 18 4 2.4063 0 33 2.4063 1
gene 1 2 7 -0.0580865 0 77 -0.0580865 1
genomeend 55

/* Organism #56 Fitness: 9 Error: 1 */
genomestart 56
trait 1 0.1 0.418117 0 0 0.271367 0 0 0 
trait 2 0.2 0 0 0 0 0 0 0 
trait 3 0.3 0 0 0 0 0 0 0 
node 1 2 1 3
node 2 2 1 1
node 3 2 1 1
node 4 2 0 2
node 7 1 0 0
node 18 1 0 0
gene 1 1 4 -4.39421 0 1 -4.39421 1
gene 2 2 4 6.50977 0 2 6.50977 1
gene 2 3 4 7.71701 0 3 7.71701 1
gene 1 3 7 -3.97053 0 8 -3.97053 1
gene 2 7 4 -2.95175 0 9 -2.95175 0
gene 1 7 18 -2.60065 0 32 -2.60065 1
gene 1 18 4 4.40952 0 33 4.40952 1
gene 1 2 7 -2.22903 0 77 -2.22903 1
genomeend 56

/* Species #8 : (Size 7) (AF 5.32977) (Age 16)  */


/* Organism #57 Fitness: 8.99814 Error: 1.00031 */
genomestart 57
trait 1 0.1 0.687593 0 0 0.271367 0 0.543918 0 
trait 2 0.2 0 0 0 0 0 0 0 
trait 3 0 0 0 0 0 0 0 0 
node 1 3 1 3
node 2 2 1 1
node 3 2 1 1
node 4 2 0 2
node 7 1 0 0
node 20 1 0 0
gene 1 1 4 -1.5439 0 1 -1.5439 1
gene 2 2 4 3.89377 0 2 3.89377 1
gene 2 3 4 0.666162 0 3 0.666162 0
gene 1 3 7 -2.82335 0 8 -2.82335 1
gene 1 7 4 -0.923678 0 9 -0.923678 1
gene 1 7 20 -2.78791 0 37 -2.78791 1
gene 1 20 4 5.02431 0 38 5.02431 1
gene 3 1 20 0.87035 0 135 0.87035 1
genomeend 57

/* Organism #58 Fitness: 4.02666 Error: 1.99334 */
genomestart 58
trait 1 0.1 0.687593 0 0 0.271367 0 0.543918 0 
trait 2 0.2 0 0 0 0 0 0 0 
trait 3 0 0 0 0 0 0 0 0 
node 1 3 1 3
node 2 2 1 1
node 3 2 1 1
node 4 2 0 2
node 7 1 0 0
node 20 1 0 0
gene 1 1 4 -2.25633 0 1 -2.25633 1
gene 2 2 4 3.8655 0 2 3.8655 1
gene 2 3 4 3.31482 0 3 3.31482 0
gene 1 3 7 -2.68199 0 8 -2.68199 1
gene 1 7 4 -0.923678 0 9 -0.923678 0
gene 1 7 20 -0.976086 0 37 -0.976086 1
gene 1 20 4 6.98965 0 38 6.98965 1
gene 3 1 20 -0.310273 0 135 -0.310273 1
genomeend 58

/* Organism #59 Fitness: 4.00027 Error: 1.99993 */
genomestart 59
trait 1 0.1 0.687593 0 0 0.271367 0 0.543918 0 
trait 2 0.2 0 0 0 0 0 0 0 
trait 3 0 0 0 0 0 0 0 0 
node 1 3 1 3
node 2 2 1 1
node 3 2 1 1
node 4 2 0 2
node 7 1 0 0
node 20 1 0 0
gene 1 1 4 0.938356 0 1 0.938356 1
gene 2 2 4 6.30297 0 2 6.30297 1
gene 2 3 4 0.479454 0 3 0.479454 0
gene 1 3 7 -2.66277 0 8 -2.66277 1
gene 1 7 4 -0.012938 0 9 -0.012938 1
gene 1 7 20 -3.9332 0 37 -3.9332 1
gene 1 20 4 5.2397 0 38 5.2397 1
gene 3 1 20 1.67839 0 135 1.67839 1
genomeend 59

/* Organism #60 Fitness: 4 Error: 2 */
genomestart 60
trait 1 0.1 0.687593 0 0 0.271367 0 0.543918 0 
trait 2 0.2 0 0 0 0 0 0 0 
trait 3 0 0 0 0 0 0 0 0 
node 1 3 1 3
node 2 2 1 1
node 3 2 1 1
node 4 2 0 2
node 7 1 0 0
node 20 1 0 0
node 67 1 0 0
gene 1 1 4 -2.25633 0 1 -2.25633 1
gene 2 2 4 5.48391 0 2 5.48391 1
gene 2 3 4 0.666162 0 3 0.666162 0
gene 1 3 7 -2.82335 0 8 -2.82335 0
gene 1 7 4 -0.923678 0 9 -0.923678 0
gene 1 7 20 -2.78791 0 37 -2.78791 1
gene 1 20 4 6.94371 0 38 6.94371 1
gene 3 1 20 1.05734 0 135 1.05734 1
gene 1 3 67 1 0 200 0 1
gene 1 67 7 -2.82335 0 201 0 1
genomeend 60

/* Organism #61 Fitness: 4.00028 Error: 1.99993 */
genomestart 61
trait 1 0.1 0.687593 0 0 0.271367 0 0.543918 0 
trait 2 0.2 0 0 0 0 0 0 0 
trait 3 0 0 0 0 0 0 0 0 
node 1 3 1 3
node 2 2 1 1
node 3 2 1 1
node 4 2 0 2
node 7 1 0 0
node 20 1 0 0
node 68 1 0 0
gene 1 1 4 -2.25633 0 1 -2.25633 1
gene 2 2 4 5.48391 0 2 5.48391 1
gene 2 3 4 0.666162 0 3 0.666162 0
gene 1 3 7 -2.82335 0 8 -2.82335 1
gene 2 7 4 -2.79754 0 9 -2.79754 0
gene 1 7 20 -2.78791 0 37 -2.78791 0
gene 1 20 4 5.02431 0 38 5.02431 1
gene 3 1 20 0.87035 0 135 0.87035 1
gene 1 7 68 1 0 202 0 1
gene 1 68 20 -2.78791 0 203 0 1
genomeend 61

/* Organism #62 Fitness: 3.28663 Error: 2.18709 */
genomestart 62
trait 1 0.1 0.687593 0 0 0.271367 0 0.543918 0 
trait 2 0.2 0 0 0 0 0 0 0 
trait 3 0 0 0 0 0 0 0 0 
node 1 3 1 3
node 2 2 1 1
node 3 2 1 1
node 4 2 0 2
node 7 1 0 0
node 20 1 0 0
gene 1 1 4 0.270723 0 1 0.270723 1
gene 2 2 4 3.57195 0 2 3.57195 1
gene 1 3 4 2.69262 0 3 2.69262 0
gene 1 3 7 -4.34312 0 8 -4.34312 1
gene 1 7 4 1.90222 0 9 1.90222 1
gene 1 7 20 -2.78791 0 37 -2.78791 1
gene 1 20 4 5.5506 0 38 5.5506 1
gene 3 1 20 -1.1015 0 135 -1.1015 1
genomeend 62

/* Organism #63 Fitness: 8.99639 Error: 1.0006 */
genomestart 63
trait 1 0.1 0.687593 0 0 0.271367 0 0.543918 0 
trait 2 0.2 0 0 0 0 0 0 0 
trait 3 0 0 0 0 0 0 0 0 
node 1 3 1 3
node 2 2 1 1
node 3 2 1 1
node 4 2 0 2
node 7 1 0 0
node 20 1 0 0
gene 1 1 4 -2.25633 0 1 -2.25633 1
gene 2 2 4 5.48391 0 2 5.48391 1
gene 2 3 4 1.3482 0 3 1.3482 0
gene 3 3 7 -2.68199 0 8 -2.68199 1
gene 2 7 4 -2.79754 0 9 -2.79754 0
gene 1 7 20 -2.97182 0 37 -2.97182 1
gene 1 20 4 6.94371 0 38 6.94371 1
gene 3 1 20 1.05734 0 135 1.05734 1
genomeend 63

/* Species #9 : (Size 7) (AF 7.20579) (Age 16)  */


/* Organism #64 Fitness: 8.99999 Error: 1 */
genomestart 64
trait 1 0.1 0.418117 0 0 0.271367 0 0 0 
trait 2 0.2 0 0 0 0 0 0 0 
trait 3 0.3 0 0 0 0 0 0 0 
node 1 2 1 3
node 2 2 1 1
node 3 1 1 1
node 4 2 0 2
node 7 1 0 0
node 17 3 0 0
gene 1 1 4 0.250709 0 1 0.250709 1
gene 2 2 4 4.05602 0 2 4.05602 1
gene 2 3 4 1.08859 0 3 1.08859 1
gene 1 3 7 -4.39311 0 8 -4.39311 1
gene 1 7 4 -5.00709 0 9 -5.00709 1
gene 3 2 17 3.85394 0 30 3.85394 1
gene 2 17 4 3.98779 0 31 3.98779 1
gene 1 1 7 0.769971 0 41 0.769971 1
genomeend 64

/* Organism #65 Fitness: 4 Error: 2 */
genomestart 65
trait 1 0.1 0.418117 0 0 0.271367 0 0 0 
trait 2 0.2 0 0 0 0 0 0 0 
trait 3 0.3 0 0 0 0 0 0 0 
node 1 2 1 3
node 2 2 1 1
node 3 1 1 1
node 4 2 0 2
node 7 1 0 0
node 17 3 0 0
gene 1 1 4 -0.0185827 0 1 -0.0185827 1
gene 2 2 4 -2.40708 0 2 -2.40708 1
gene 2 3 4 3.45528 0 3 3.45528 1
gene 1 3 7 -6.24586 0 8 -6.24586 1
gene 1 7 4 -5.00709 0 9 -5.00709 1
gene 3 2 17 3.0873 0 30 3.0873 1
gene 2 17 4 3.72855 0 31 3.72855 1
gene 1 1 7 0.491834 0 41 0.491834 1
genomeend 65

/* Organism #66 Fitness: 8.8713 Error: 1.02153 */
genomestart 66
trait 1 0.1 0.418117 0 0 0.271367 0 0 0 
trait 2 0.2 0 0 0 0 0 0 0 
trait 3 0.3 0 0 0 0 0 0 0 
node 1 2 1 3
node 2 2 1 1
node 3 1 1 1
node 4 2 0 2
node 7 1 0 0
node 17 3 0 0
gene 1 1 4 0.131194 0 1 0.131194 1
gene 2 2 4 6.27722 0 2 6.27722 1
gene 2 3 4 0.48304 0 3 0.48304 1
gene 1 3 7 -3.80137 0 8 -3.80137 1
gene 1 7 4 -3.46209 0 9 -3.46209 1
gene 1 2 17 3.87253 0 30 3.87253 1
gene 2 17 4 4.95275 0 31 4.95275 1
gene 1 1 7 0.761791 0 41 0.761791 1
genomeend 66

/* Organism #67 Fitness: 6.59845 Error: 1.43126 */
genomestart 67
trait 1 0.1 0.418117 0 0 0.271367 0 0 0 
trait 2 0.2 0 0 0 0 0 0 0 
trait 3 0.3 0 0 0 0 0 0 0 
node 1 2 1 3
node 2 2 1 1
node 3 1 1 1
node 4 2 0 2
node 7 1 0 0
node 17 3 0 0
gene 1 1 4 -0.651827 0 1 -0.651827 1
gene 2 2 4 4.14207 0 2 4.14207 1
gene 2 3 4 1.847 0 3 1.847 1
gene 1 3 7 -3.12425 0 8 -3.12425 1
gene 1 7 4 -7.34861 0 9 -7.34861 1
gene 3 2 17 -2.47616 0 30 -2.47616 1
gene 2 17 4 1.19109 0 31 1.19109 1
gene 1 1 7 -2.47588 0 41 -2.47588 1
genomeend 67

/* Organism #68 Fitness: 3.99475 Error: 2.00131 */
genomestart 68
trait 1 0.1 0.418117 0 0 0.271367 0 0 0 
trait 2 0.2 0 0 0 0 0 0 0 
trait 3 0.3 0 0 0 0 0 0 0 
node 1 2 1 3
node 2 2 1 1
node 3 1 1 1
node 4 2 0 2
node 7 1 0 0
node 17 3 0 0
gene 1 1 4 0.513776 0 1 0.513776 1
gene 2 2 4 5.4393 0 2 5.4393 1
gene 2 3 4 1.73675 0 3 1.73675 1
gene 1 3 7 -2.48819 0 8 -2.48819 1
gene 1 7 4 -3.44634 0 9 -3.44634 1
gene 3 2 17 2.5365 0 30 2.5365 1
gene 2 17 4 -1.18171 0 31 -1.18171 1
gene 1 1 7 4.38018 0 41 4.38018 1
genomeend 68

/* Organism #69 Fitness: 8.99999 Error: 1 */
genomestart 69
trait 1 0.1 0.418117 0 0 0.271367 0 0 0 
trait 2 0.2 0 0 0 0 0 0 0 
trait 3 0.3 0 0 0 0 0 0 0 
node 1 2 1 3
node 2 2 1 1
node 3 1 1 1
node 4 2 0 2
node 7 1 0 0
node 17 3 0 0
gene 1 1 4 0.250709 0 1 0.250709 1
gene 2 2 4 4.05602 0 2 4.05602 1
gene 2 3 4 1.08859 0 3 1.08859 1
gene 1 3 7 -4.39311 0 8 -4.39311 1
gene 1 7 4 -5.00709 0 9 -5.00709 1
gene 3 2 17 3.85394 0 30 3.85394 1
gene 2 17 4 3.98779 0 31 3.98779 1
gene 1 1 7 0.769971 0 41 0.769971 1
gene 2 2 7 -0.68446 0 204 -0.68446 1
genomeend 69

/* Organism #70 Fitness: 8.97603 Error: 1.004 */
genomestart 70
trait 1 0.1 0.418117 0 0 0.271367 0 0 0 
trait 2 0.2 0 0 0 0 0 0 0 
trait 3 0.3 0 0 0 0 0 0 0 
node 1 2 1 3
node 2 2 1 1
node 3 1 1 1
node 4 2 0 2
node 7 1 0 0
node 17 3 0 0
gene 1 1 4 0.117711 0 1 0.117711 1
gene 2 2 4 4.44147 0 2 4.44147 1
gene 2 3 4 0.126787 0 3 0.126787 1
gene 1 3 7 -4.65204 0 8 -4.65204 1
gene 1 7 4 -2.60728 0 9 -2.60728 1
gene 3 2 17 3.35666 0 30 3.35666 1
gene 2 17 4 2.66943 0 31 2.66943 1
gene 1 1 7 1.09778 0 41 1.09778 1
genomeend 70

/* Species #10 : (Size 10) (AF 7.79742) (Age 16)  */


/* Organism #71 Fitness: 9 Error: 1 */
genomestart 71
trait 1 0.1 0 0 0 0 0 0 0 
trait 2 0.2 0 0 0 0 0.0413254 0 0 
trait 3 0.37513 0 0 0 0 0 0.191988 0.0957493 
node 1 3 1 3
node 2 1 1 1
node 3 3 1 1
node 4 2 0 2
node 14 1 0 0
gene 3 1 4 -0.195357 0 1 -0.195357 1
gene 3 2 4 7.8848 0 2 7.8848 1
gene 2 3 4 8 0 3 8 1
gene 3 2 14 -3.37742 0 22 -3.37742 1
gene 3 14 4 -4.02329 0 23 -4.02329 1
gene 2 1 14 1.30897 0 34 1.30897 1
gene 3 3 14 -2.88045 0 46 -2.88045 1
genomeend 71

/* Organism #72 Fitness: 9 Error: 1 */
genomestart 72
trait 1 0.1 0 0 0 0 0 0 0 
trait 2 0.2 0 0 0 0 0.0413254 0 0 
trait 3 0.37513 0 0 0 0 0 0.191988 0.0957493 
node 1 2 1 3
node 2 1 1 1
node 3 3 1 1
node 4 2 0 2
node 14 1 0 0
gene 3 1 4 -1.62645 0 1 -1.62645 1
gene 3 2 4 8 0 2 8 1
gene 2 3 4 7.56262 0 3 7.56262 1
gene 3 2 14 -2.63511 0 22 -2.63511 1
gene 3 14 4 -1.94217 0 23 -1.94217 1
gene 2 1 14 3.51243 0 34 3.51243 1
gene 3 3 14 -2.63455 0 46 -2.63455 1
genomeend 72

/* Organism #73 Fitness: 8.99973 Error: 1.00004 */
genomestart 73
trait 1 0.1 0 0 0 0 0 0 0 
trait 2 0.2 0 0 0 0.259268 0.926544 0 0.684388 
trait 3 0.37513 0 0 0 0 0 0.191988 0.0957493 
node 1 3 1 3
node 2 1 1 1
node 3 3 1 1
node 4 2 0 2
node 14 1 0 0
gene 3 1 4 -1.6633 0 1 -1.6633 1
gene 3 2 4 7.42089 0 2 7.42089 1
gene 2 3 4 7.93314 0 3 7.93314 1
gene 3 2 14 -1.3658 0 22 -1.3658 1
gene 3 14 4 -3.7087 0 23 -3.7087 1
gene 2 1 14 3.44377 0 34 3.44377 1
gene 3 3 14 -2.02758 0 46 -2.02758 1
genomeend 73

/* Organism #74 Fitness: 9 Error: 1 */
genomestart 74
trait 1 0.1 0 0 0 0 0 0 0 
trait 2 0.2 0 0 0 0 0.0413254 0 0 
trait 3 0.37513 0 0 0 0 0 0.191988 0.0957493 
node 1 3 1 3
node 2 1 1 1
node 3 3 1 1
node 4 2 0 2
node 14 1 0 0
gene 3 1 4 -0.195357 0 1 -0.195357 1
gene 3 2 4 7.8848 0 2 7.8848 1
gene 2 3 4 8 0 3 8 1
gene 3 2 14 -3.37742 0 22 -3.37742 1
gene 3 14 4 -4.02329 0 23 -4.02329 1
gene 2 1 14 1.30897 0 34 1.30897 1
gene 3 3 14 -2.88045 0 46 -2.88045 1
genomeend 74

/* Organism #75 Fitness: 7.74487 Error: 1.21704 */
genomestart 75
trait 1 0.1 0 0 0 0 0 0 0 
trait 2 0.2 0 0 0 0 0.0413254 0 0 
trait 3 0.37513 0 0 0 0 0 0.191988 0.0957493 
node 1 1 1 3
node 2 1 1 1
node 3 3 1 1
node 4 2 0 2
node 14 1 0 0
gene 3 1 4 -0.333261 0 1 -0.333261 1
gene 3 2 4 7.30337 0 2 7.30337 1
gene 2 3 4 1.31134 0 3 1.31134 1
gene 3 2 14 -0.737996 0 22 -0.737996 1
gene 3 14 4 -2.17414 0 23 -2.17414 1
gene 2 1 14 3.1772 0 34 3.1772 1
gene 3 3 14 -3.32099 0 46 -3.32099 1
genomeend 75

/* Organism #76 Fitness: 9 Error: 1 */
genomestart 76
trait 1 0.1 0 0 0 0 0 0 0 
trait 2 0.2 0 0 0 0 0.0413254 0 0 
trait 3 0.37513 0 0 0 0 0 0.191988 0.0957493 
node 1 3 1 3
node 2 1 1 1
node 3 3 1 1
node 4 2 0 2
node 14 1 0 0
gene 3 1 4 -1.31707 0 1 -1.31707 1
gene 3 2 4 7.9424 0 2 7.9424 1
gene 2 3 4 7.58772 0 3 7.58772 1
gene 3 2 14 -2.81877 0 22 -2.81877 1
gene 3 14 4 -3.85826 0 23 -3.85826 1
gene 2 1 14 1.27424 0 34 1.27424 1
gene 3 3 14 -2.19089 0 46 -2.19089 1
genomeend 76

/* Organism #77 Fitness: 4 Error: 2 */
genomestart 77
trait 1 0.1 0 0 0 0 0 0 0 
trait 2 0.2 0 0 0 0 0.0413254 0 0 
trait 3 0.37513 0 0 0 0 0 0.191988 0.0957493 
node 1 3 1 3
node 2 1 1 1
node 3 3 1 1
node 4 2 0 2
node 14 1 0 0
gene 3 1 4 -2.31936 0 1 -2.31936 1
gene 3 2 4 8 0 2 8 1
gene 2 3 4 1.73938 0 3 1.73938 1
gene 3 2 14 -5.34126 0 22 -5.34126 1
gene 3 14 4 -4.08645 0 23 -4.08645 1
gene 2 1 14 1.95181 0 34 1.95181 1
gene 3 3 14 1.89953 0 46 1.89953 1
genomeend 77

/* Organism #78 Fitness: 8.2296 Error: 1.13127 */
genomestart 78
trait 1 0.1 0 0 0 0 0 0 0 
trait 2 0.2 0 0 0 0 0.0413254 0 0 
trait 3 0.37513 0 0 0 0 0 0.191988 0.0957493 
node 1 3 1 3
node 2 1 1 1
node 3 3 1 1
node 4 2 0 2
node 14 1 0 0
gene 3 1 4 -0.335131 0 1 -0.335131 1
gene 3 2 4 8 0 2 8 1
gene 2 3 4 5.67866 0 3 5.67866 1
gene 3 2 14 -4.59699 0 22 -4.59699 1
gene 3 14 4 -2.06546 0 23 -2.06546 1
gene 2 1 14 -0.756456 0 34 -0.756456 1
gene 3 3 14 -1.55344 0 46 -1.55344 1
genomeend 78

/* Organism #79 Fitness: 9 Error: 1 */
genomestart 79
trait 1 0.1 0 0 0 0 0 0 0 
trait 2 0.2 0 0 0 0 0.0413254 0 0 
trait 3 0.37513 0 0 0 0 0 0.191988 0.0957493 
node 1 3 1 3
node 2 1 1 1
node 3 3 1 1
node 4 2 0 2
node 14 1 0 0
gene 3 1 4 -2.43879 0 1 -2.43879 1
gene 3 2 4 8 0 2 8 1
gene 2 3 4 7.17544 0 3 7.17544 1
gene 3 2 14 -2.26013 0 22 -2.26013 1
gene 3 14 4 -3.69322 0 23 -3.69322 1
gene 2 1 14 1.23952 0 34 1.23952 1
gene 3 3 14 -1.50133 0 46 -1.50133 1
genomeend 79

/* Organism #80 Fitness: 4 Error: 2 */
genomestart 80
trait 1 0.1 0 0 0 0 0 0 0 
trait 2 0.2 0 0 0 0 0.0413254 0 0 
trait 3 0.37513 0 0 0 0 0 0.191988 0.0957493 
node 1 2 1 3
node 2 1 1 1
node 3 3 1 1
node 4 2 0 2
node 14 1 0 0
gene 2 1 4 1.58864 0 1 1.58864 1
gene 3 2 4 8 0 2 8 1
gene 2 3 4 7.03214 0 3 7.03214 1
gene 3 2 14 -2.26013 0 22 -2.26013 1
gene 3 14 4 2.32065 0 23 2.32065 1
gene 2 1 14 1.04906 0 34 1.04906 1
gene 3 3 14 -3.8563 0 46 -3.8563 1
genomeend 80

/* Species #11 : (Size 9) (AF 7.56195) (Age 10)  */


/* Organism #81 Fitness: 9 Error: 1 */
genomestart 81
trait 1 0.1 0.418117 0 0 0.271367 0 0 0 
trait 2 0.2 0 0 0 0 0 0 0 
trait 3 0.3 0 0 0 0 0 0 0 
node 1 2 1 3
node 2 2 1 1
node 3 2 1 1
node 4 2 0 2
node 7 1 0 0
node 18 1 0 0
node 35 1 0 0
node 53 1 0 0
gene 1 1 4 -2.14221 0 1 -2.14221 1
gene 2 2 4 7.70535 0 2 7.70535 1
gene 2 3 4 7.61348 0 3 7.61348 1
gene 1 3 7 -4.51192 0 8 -4.51192 0
gene 2 7 4 -2.68636 0 9 -2.68636 1
gene 1 7 18 -0.015886 0 32 -0.015886 0
gene 1 18 4 -1.01472 0 33 -1.01472 1
gene 1 3 35 5.05554 0 95 5.05554 1
gene 1 35 7 -0.808519 0 96 -0.808519 0
gene 1 35 53 -1.22475 0 158 -1.22475 1
gene 1 53 7 0.450849 0 159 0.450849 1
genomeend 81

/* Organism #82 Fitness: 8.99976 Error: 1.00004 */
genomestart 82
trait 1 0.1 0.418117 0 0 0.271367 0 0 0 
trait 2 0.2 0 0 0 0 0 0 0 
trait 3 0.3 0 0 0 0 0 0 0 
node 1 2 1 3
node 2 2 1 1
node 3 2 1 1
node 4 2 0 2
node 7 1 0 0
node 18 1 0 0
node 35 1 0 0
node 53 1 0 0
gene 1 1 4 -1.99714 0 1 -1.99714 1
gene 2 2 4 7.53523 0 2 7.53523 1
gene 2 3 4 7.5674 0 3 7.5674 1
gene 1 3 7 -3.68414 0 8 -3.68414 0
gene 2 7 4 -3.69006 0 9 -3.69006 1
gene 1 7 18 0.486081 0 32 0.486081 0
gene 1 18 4 -1.94987 0 33 -1.94987 1
gene 1 3 35 6.52777 0 95 6.52777 1
gene 1 35 7 -2.00766 0 96 -2.00766 1
gene 1 35 53 0.910907 0 158 0.910907 1
gene 1 53 7 0.199544 0 159 0.199544 1
genomeend 82

/* Organism #83 Fitness: 1.00001 Error: 3 */
genomestart 83
trait 1 0.1 0.418117 0 0 0.271367 0 0 0 
trait 2 0.2 0 0 0 0 0 0 0 
trait 3 0.3 0 0 0 0 0 0 0 
node 1 2 1 3
node 2 2 1 1
node 3 2 1 1
node 4 2 0 2
node 7 1 0 0
node 18 1 0 0
node 35 1 0 0
node 53 1 0 0
gene 1 1 4 -3.33261 0 1 -3.33261 1
gene 2 2 4 5.56822 0 2 5.56822 1
gene 2 3 4 5.22078 0 3 5.22078 1
gene 1 3 7 -6.92725 0 8 -6.92725 0
gene 2 7 4 -5.11665 0 9 -5.11665 1
gene 1 7 18 -0.167523 0 32 -0.167523 0
gene 1 18 4 1.20934 0 33 1.20934 1
gene 1 3 35 7.40973 0 95 7.40973 1
gene 1 35 7 0.529835 0 96 0.529835 0
gene 1 35 53 -0.249266 0 158 -0.249266 1
gene 1 53 7 2.79332 0 159 2.79332 1
genomeend 83

/* Organism #84 Fitness: 8.99978 Error: 1.00004 */
genomestart 84
trait 1 0.1 0.418117 0 0 0.271367 0 0 0 
trait 2 0.2 0 0 0 0 0 0 0 
trait 3 0.3 0 0 0 0 0 0 0 
node 1 2 1 3
node 2 2 1 1
node 3 2 1 1
node 4 2 0 2
node 7 1 0 0
node 18 1 0 0
node 35 1 0 0
node 53 1 0 0
gene 1 1 4 -1.49432 0 1 -1.49432 1
gene 2 2 4 5.77573 0 2 5.77573 1
gene 2 3 4 5.7792 0 3 5.7792 1
gene 1 3 7 -4.06563 0 8 -4.06563 0
gene 2 7 4 -0.640469 0 9 -0.640469 1
gene 1 7 18 4.15183 0 32 4.15183 0
gene 1 18 4 -1.90787 0 33 -1.90787 1
gene 1 3 35 5.57491 0 95 5.57491 1
gene 1 35 7 -1.00442 0 96 -1.00442 0
gene 1 35 53 0.23757 0 158 0.23757 1
gene 1 53 7 0.714168 0 159 0.714168 1
gene 2 3 53 1.46168 0 193 1.46168 1
genomeend 84

/* Organism #85 Fitness: 8.99991 Error: 1.00002 */
genomestart 85
trait 1 0.1 0.418117 0 0 0.271367 0 0 0 
trait 2 0.2 0 0 0 0 0 0 0 
trait 3 0.3 0 0 0 0 0 0 0 
node 1 2 1 3
node 2 2 1 1
node 3 2 1 1
node 4 2 0 2
node 7 1 0 0
node 18 1 0 0
node 35 1 0 0
node 53 1 0 0
gene 1 1 4 0.700286 0 1 0.700286 1
gene 2 2 4 6.48569 0 2 6.48569 1
gene 2 3 4 8 0 3 8 1
gene 1 3 7 -0.762949 0 8 -0.762949 0
gene 2 7 4 -4.93353 0 9 -4.93353 1
gene 1 7 18 1.71077 0 32 1.71077 0
gene 1 18 4 -1.38346 0 33 -1.38346 1
gene 1 3 35 6.02237 0 95 6.02237 1
gene 1 35 7 -0.808519 0 96 -0.808519 0
gene 1 35 53 2.30781 0 158 2.30781 1
gene 1 53 7 1.95057 0 159 1.95057 1
gene 2 3 53 0.555837 0 193 0.555837 1
genomeend 85

/* Organism #86 Fitness: 8.99997 Error: 1.00001 */
genomestart 86
trait 1 0.1 0.418117 0 0 0.271367 0 0 0 
trait 2 0.2 0 0 0 0 0 0 0 
trait 3 0.3 0 0 0 0 0 0 0 
node 1 2 1 3
node 2 2 1 1
node 3 2 1 1
node 4 2 0 2
node 7 1 0 0
node 18 1 0 0
node 35 1 0 0
node 53 2 0 0
gene 1 1 4 -1.7373 0 1 -1.7373 1
gene 2 2 4 8 0 2 8 1
gene 2 3 4 6.12492 0 3 6.12492 1
gene 1 3 7 -3.82444 0 8 -3.82444 0
gene 2 7 4 -2.48987 0 9 -2.48987 1
gene 1 7 18 2.8492 0 32 2.8492 0
gene 1 18 4 -0.598741 0 33 -0.598741 1
gene 1 3 35 7.15383 0 95 7.15383 1
gene 1 35 7 -2.76953 0 96 -2.76953 0
gene 1 35 53 -0.570249 0 158 -0.570249 1
gene 1 53 7 -0.90471 0 159 -0.90471 1
gene 2 3 53 0.555837 0 193 0.555837 1
genomeend 86

/* Organism #87 Fitness: 9 Error: 1 */
genomestart 87
trait 1 0.1 0.418117 0 0 0.271367 0 0 0 
trait 2 0.2 0 0 0 0 0 0 0 
trait 3 0.3 0 0 0 0 0 0 0 
node 1 2 1 3
node 2 2 1 1
node 3 2 1 1
node 4 2 0 2
node 7 1 0 0
node 18 1 0 0
node 35 1 0 0
node 53 1 0 0
node 69 1 0 0
gene 1 1 4 -1.85206 0 1 -1.85206 1
gene 2 2 4 7.36511 0 2 7.36511 1
gene 2 3 4 7.52132 0 3 7.52132 1
gene 1 3 7 -2.85637 0 8 -2.85637 1
gene 2 7 4 -4.69376 0 9 -4.69376 1
gene 1 7 18 0.988049 0 32 0.988049 0
gene 1 18 4 -2.88501 0 33 -2.88501 0
gene 1 3 35 8 0 95 8 1
gene 1 35 7 -3.20679 0 96 -3.20679 0
gene 1 35 53 3.04657 0 158 3.04657 1
gene 1 53 7 -0.0517603 0 159 -0.0517603 1
gene 1 18 69 1 0 205 0 1
gene 1 69 4 -2.88501 0 206 0 1
genomeend 87

/* Organism #88 Fitness: 4.07034 Error: 1.98249 */
genomestart 88
trait 1 0.1 0.418117 0 0 0.271367 0 0 0 
trait 2 0.2 0 0 0 0 0 0 0 
trait 3 0.3 0 0 0 0 0 0 0 
node 1 2 1 3
node 2 2 1 1
node 3 2 1 1
node 4 2 0 2
node 7 1 0 0
node 18 1 0 0
node 35 1 0 0
node 53 1 0 0
gene 1 1 4 -0.844543 0 1 -0.844543 1
gene 2 2 4 8 0 2 8 1
gene 2 3 4 2.04045 0 3 2.04045 1
gene 1 3 7 -4.77287 0 8 -4.77287 0
gene 2 7 4 -4.02542 0 9 -4.02542 1
gene 1 7 18 -0.585915 0 32 -0.585915 0
gene 1 18 4 -1.24547 0 33 -1.24547 1
gene 1 3 35 4.27316 0 95 4.27316 1
gene 1 35 7 -2.29126 0 96 -2.29126 0
gene 1 35 53 -1.55326 0 158 -1.55326 1
gene 1 53 7 0.450849 0 159 0.450849 1
genomeend 88

/* Organism #89 Fitness: 8.9878 Error: 1.00203 */
genomestart 89
trait 1 0.1 0.418117 0 0 0.271367 0 0 0 
trait 2 0.2 0 0 0 0 0 0 0 
trait 3 0.3 0 0 0 0 0 0 0 
node 1 2 1 3
node 2 2 1 1
node 3 2 1 1
node 4 2 0 2
node 7 1 0 0
node 18 1 0 0
node 35 1 0 0
node 53 1 0 0
gene 1 1 4 -1.85206 0 1 -1.85206 1
gene 2 2 4 7.70535 0 2 7.70535 1
gene 2 3 4 8 0 3 8 1
gene 1 3 7 -2.19164 0 8 -2.19164 0
gene 2 7 4 -4.69376 0 9 -4.69376 1
gene 1 7 18 2.08173 0 32 2.08173 0
gene 1 18 4 -1.01472 0 33 -1.01472 1
gene 1 3 35 5.05554 0 95 5.05554 1
gene 1 35 7 -0.808519 0 96 -0.808519 0
gene 1 35 53 1.67355 0 158 1.67355 1
gene 1 53 7 0.714168 0 159 0.714168 1
gene 2 3 53 0.555837 0 193 0.555837 1
genomeend 89

/* Species #12 : (Size 10) (AF 8.35616) (Age 10)  */


/* Organism #90 Fitness: 8.99916 Error: 1.00014 */
genomestart 90
trait 1 0.1 0.418117 0 0 0.271367 0 0 0 
trait 2 0.2 0 0 0 0 0 0 0 
trait 3 0.3 0 0 0 0 0 0 0 
node 1 2 1 3
node 2 2 1 1
node 3 2 1 1
node 4 2 0 2
node 7 1 0 0
node 18 1 0 0
node 30 1 0 0
gene 1 1 4 -0.951377 0 1 -0.951377 1
gene 2 2 4 5.96772 0 2 5.96772 1
gene 2 3 4 4.55769 0 3 4.55769 1
gene 2 3 7 -2.16397 0 8 -2.16397 1
gene 1 7 4 -1.39763 0 9 -1.39763 1
gene 1 7 18 2.45777 0 32 2.45777 1
gene 1 18 4 -1.70085 0 33 -1.70085 1
gene 1 7 30 2.32715 0 78 2.32715 1
gene 1 30 18 2.74671 0 79 2.74671 1
gene 2 2 18 -0.766652 0 100 -0.766652 1
gene 2 30 4 -0.19171 0 178 -0.19171 1
genomeend 90

/* Organism #91 Fitness: 8.96758 Error: 1.00541 */
genomestart 91
trait 1 0.1 0.418117 0 0 0.271367 0 0 0 
trait 2 0.2 0 0 0 0 0 0 0 
trait 3 0.3 0 0 0 0 0 0 0 
node 1 2 1 3
node 2 2 1 1
node 3 2 1 1
node 4 2 0 2
node 7 1 0 0
node 18 1 0 0
node 30 1 0 0
gene 1 1 4 -2.04689 0 1 -2.04689 1
gene 2 2 4 4.72081 0 2 4.72081 1
gene 2 3 4 3.53512 0 3 3.53512 1
gene 2 3 7 -0.591533 0 8 -0.591533 1
gene 1 7 4 -1.59322 0 9 -1.59322 1
gene 1 7 18 2.25923 0 32 2.25923 1
gene 1 18 4 0.665213 0 33 0.665213 1
gene 1 7 30 0.813704 0 78 0.813704 1
gene 1 30 18 -1.42109 0 79 -1.42109 1
gene 2 2 18 1.60725 0 100 1.60725 1
gene 2 30 4 1.7581 0 178 1.7581 1
genomeend 91

/* Organism #92 Fitness: 8.99989 Error: 1.00002 */
genomestart 92
trait 1 0.1 0.418117 0 0 0.271367 0 0 0 
trait 2 0.2 0 0 0 0 0 0 0 
trait 3 0.3 0.426065 0 0 0 0 0.966742 0 
node 1 2 1 3
node 2 2 1 1
node 3 2 1 1
node 4 2 0 2
node 7 1 0 0
node 18 1 0 0
node 30 1 0 0
gene 1 1 4 -1.15521 0 1 -1.15521 1
gene 2 2 4 5.96772 0 2 5.96772 1
gene 2 3 4 6.26308 0 3 6.26308 1
gene 2 3 7 -2.41567 0 8 -2.41567 1
gene 1 7 4 -1.39763 0 9 -1.39763 1
gene 1 7 18 -1.39769 0 32 -1.39769 1
gene 1 18 4 -0.118391 0 33 -0.118391 1
gene 1 7 30 -0.116634 0 78 -0.116634 1
gene 1 30 18 3.14589 0 79 3.14589 1
gene 2 2 18 -0.569724 0 100 -0.569724 1
gene 2 30 4 -0.557763 0 178 -0.557763 1
genomeend 92

/* Organism #93 Fitness: 8.98294 Error: 1.00284 */
genomestart 93
trait 1 0.1 0.418117 0 0 0.271367 0 0 0 
trait 2 0.2 0 0 0 0 0 0 0 
trait 3 0.3 0 0 0 0 0 0 0 
node 1 2 1 3
node 2 2 1 1
node 3 2 1 1
node 4 2 0 2
node 7 1 0 0
node 18 3 0 0
node 30 1 0 0
gene 1 1 4 1.68878 0 1 1.68878 1
gene 2 2 4 3.81719 0 2 3.81719 1
gene 2 3 4 5.29235 0 3 5.29235 1
gene 2 3 7 0.993708 0 8 0.993708 1
gene 1 7 4 -1.72537 0 9 -1.72537 1
gene 1 7 18 4.52432 0 32 4.52432 1
gene 1 18 4 -1.82528 0 33 -1.82528 1
gene 1 7 30 2.2424 0 78 2.2424 1
gene 1 30 18 4.83445 0 79 4.83445 1
gene 2 2 18 1.29273 0 100 1.29273 1
gene 2 30 4 -0.19171 0 178 -0.19171 1
genomeend 93

/* Organism #94 Fitness: 8.99737 Error: 1.00044 */
genomestart 94
trait 1 0.1 0.418117 0 0 0.271367 0 0 0 
trait 2 0.2 0 0 0 0 0 0 0 
trait 3 0.3 0 0 0 0 0 0 0 
node 1 2 1 3
node 2 2 1 1
node 3 2 1 1
node 4 2 0 2
node 7 1 0 0
node 18 1 0 0
node 30 1 0 0
gene 1 1 4 0.0284093 0 1 0.0284093 1
gene 2 2 4 7.79605 0 2 7.79605 1
gene 2 3 4 3.32418 0 3 3.32418 1
gene 2 3 7 -2.20905 0 8 -2.20905 1
gene 1 7 4 -1.51912 0 9 -1.51912 1
gene 1 7 18 1.5483 0 32 1.5483 1
gene 1 18 4 -2.17611 0 33 -2.17611 1
gene 1 7 30 0.73543 0 78 0.73543 1
gene 1 30 18 3.47717 0 79 3.47717 1
gene 2 2 18 -0.766652 0 100 -0.766652 1
gene 2 30 4 1.51193 0 178 1.51193 1
genomeend 94

/* Organism #95 Fitness: 8.99604 Error: 1.00066 */
genomestart 95
trait 1 0.1 0.418117 0 0 0.271367 0 0 0 
trait 2 0.2 0 0 0 0 0 0 0 
trait 3 0.3 0 0 0 0 0 0 0 
node 1 2 1 3
node 2 2 1 1
node 3 2 1 1
node 4 2 0 2
node 7 1 0 0
node 18 1 0 0
node 30 1 0 0
gene 1 1 4 0.51502 0 1 0.51502 1
gene 2 2 4 4.25237 0 2 4.25237 1
gene 2 3 4 3.81804 0 3 3.81804 1
gene 2 3 7 -1.93942 0 8 -1.93942 1
gene 1 7 4 -2.87868 0 9 -2.87868 1
gene 1 7 18 2.84034 0 32 2.84034 1
gene 1 18 4 -3.79489 0 33 -3.79489 1
gene 1 7 30 0.130074 0 78 0.130074 1
gene 1 30 18 0.432714 0 79 0.432714 1
gene 2 2 18 -1.52934 0 100 -1.52934 1
gene 2 30 4 1.21103 0 178 1.21103 1
genomeend 95

/* Organism #96 Fitness: 4.32231 Error: 1.92098 */
genomestart 96
trait 1 0.1 0.418117 0 0 0.271367 0 0 0 
trait 2 0.2 0 0 0 0 0 0 0 
trait 3 0.3 0 0 0 0 0 0 0 
node 1 2 1 3
node 2 2 1 1
node 3 2 1 1
node 4 2 0 2
node 7 1 0 0
node 18 1 0 0
node 30 1 0 0
gene 1 1 4 1.94297 0 1 1.94297 1
gene 2 2 4 -1.18739 0 2 -1.18739 1
gene 2 3 4 7.00881 0 3 7.00881 1
gene 2 3 7 0.607849 0 8 0.607849 1
gene 1 7 4 -4.18826 0 9 -4.18826 1
gene 1 7 18 0.763593 0 32 0.763593 1
gene 1 18 4 -3.08637 0 33 -3.08637 1
gene 1 7 30 1.76778 0 78 1.76778 1
gene 1 30 18 1.92195 0 79 1.92195 1
gene 2 2 18 0.690771 0 100 0.690771 1
gene 2 30 4 -0.19171 0 178 -0.19171 1
genomeend 96

/* Organism #97 Fitness: 8.18442 Error: 1.13916 */
genomestart 97
trait 1 0.1 0.418117 0 0 0.271367 0 0 0 
trait 2 0.2 0 0 0 0 0 0 0 
trait 3 0.3 0 0 0 0 0 0 0 
node 1 2 1 3
node 2 2 1 1
node 3 2 1 1
node 4 2 0 2
node 7 1 0 0
node 18 1 0 0
node 30 1 0 0
gene 1 1 4 2.79465 0 1 2.79465 1
gene 2 2 4 2.2716 0 2 2.2716 1
gene 2 3 4 6.88749 0 3 6.88749 1
gene 2 3 7 1.10278 0 8 1.10278 1
gene 1 7 4 -1.91086 0 9 -1.91086 1
gene 1 7 18 2.08911 0 32 2.08911 1
gene 1 18 4 -2.20944 0 33 -2.20944 1
gene 1 7 30 4.35788 0 78 4.35788 1
gene 1 30 18 4.29421 0 79 4.29421 1
gene 2 2 18 -0.445538 0 100 -0.445538 1
genomeend 97

/* Organism #98 Fitness: 8.99916 Error: 1.00014 */
genomestart 98
trait 1 0.1 0.418117 0 0 0.271367 0 0 0 
trait 2 0.2 0 0 0 0 0 0 0 
trait 3 0.3 0 0 0 0 0 0 0 
node 1 2 1 3
node 2 2 1 1
node 3 2 1 1
node 4 2 0 2
node 7 1 0 0
node 18 1 0 0
node 30 1 0 0
gene 1 1 4 -0.951377 0 1 -0.951377 1
gene 2 2 4 5.96772 0 2 5.96772 1
gene 2 3 4 4.55769 0 3 4.55769 1
gene 2 3 7 -2.16397 0 8 -2.16397 1
gene 1 7 4 -1.39763 0 9 -1.39763 1
gene 1 7 18 2.45777 0 32 2.45777 1
gene 1 18 4 -1.70085 0 33 -1.70085 1
gene 1 7 30 2.32715 0 78 2.32715 1
gene 1 30 18 2.74671 0 79 2.74671 1
gene 2 2 18 -0.766652 0 100 -0.766652 1
gene 2 30 4 -0.19171 0 178 -0.19171 1
genomeend 98

/* Organism #99 Fitness: 8.11271 Error: 1.15172 */
genomestart 99
trait 1 0.1 0.418117 0 0 0.271367 0 0 0 
trait 2 0.2 0 0 0 0 0 0 0 
trait 3 0.3 0 0 0 0 0 0 0 
node 1 2 1 3
node 2 2 1 1
node 3 2 1 1
node 4 2 0 2
node 7 1 0 0
node 18 1 0 0
node 30 1 0 0
gene 1 1 4 -1.5634 0 1 -1.5634 1
gene 2 2 4 3.93791 0 2 3.93791 1
gene 2 3 4 -0.142853 0 3 -0.142853 1
gene 2 3 7 0.803266 0 8 0.803266 1
gene 1 7 4 -2.63963 0 9 -2.63963 1
gene 1 7 18 0.337304 0 32 0.337304 1
gene 1 18 4 -0.0314397 0 33 -0.0314397 1
gene 3 7 30 1.09133 0 78 1.09133 1
gene 1 30 18 -1.93584 0 79 -1.93584 1
gene 2 2 18 -0.0906297 0 100 -0.0906297 1
genomeend 99

/* Species #13 : (Size 4) (AF 4) (Age 8)  */


/* Organism #100 Fitness: 4 Error: 2 */
genomestart 100
trait 1 0.1 0.418117 0 0.860802 0.271367 0 0 0 
trait 2 0.2 0 0 0 0 0 0 0 
trait 3 0.475 0 0.188678 0 0 0 0 0.0241692 
node 1 2 1 3
node 2 2 1 1
node 3 2 1 1
node 4 2 0 2
node 7 1 0 0
node 17 3 0 0
node 40 1 0 0
gene 1 1 4 0.489576 0 1 0.489576 1
gene 2 2 4 -4.33565 0 2 -4.33565 0
gene 2 3 4 -3.50317 0 3 -3.50317 0
gene 1 3 7 -1.89805 0 8 -1.89805 1
gene 1 7 4 -7.53095 0 9 -7.53095 1
gene 3 2 17 6.27313 0 30 6.27313 1
gene 2 17 4 4.20786 0 31 4.20786 0
gene 1 1 7 2.07683 0 41 2.07683 1
gene 1 3 17 3.36793 0 84 3.36793 1
gene 2 17 40 0.0976311 0 119 0.0976311 1
gene 2 40 4 2.61466 0 120 2.61466 1
gene 1 40 7 -1.68491 0 145 -1.68491 1
genomeend 100

/* Organism #101 Fitness: 4 Error: 2 */
genomestart 101
trait 1 0.1 0.418117 0 0 0.271367 0 0 0 
trait 2 0.2 0 0 0 0 0 0 0 
trait 3 0.475 0 0.188678 0 0 0 0 0.0241692 
node 1 2 1 3
node 2 2 1 1
node 3 2 1 1
node 4 2 0 2
node 7 1 0 0
node 17 3 0 0
node 40 1 0 0
gene 1 1 4 -0.934674 0 1 -0.934674 1
gene 2 2 4 0.242061 0 2 0.242061 0
gene 2 3 4 -0.978929 0 3 -0.978929 0
gene 1 3 7 1.31639 0 8 1.31639 1
gene 1 7 4 -5.29648 0 9 -5.29648 1
gene 3 2 17 0.61638 0 30 0.61638 1
gene 2 17 4 5.15996 0 31 5.15996 0
gene 1 1 7 1.49525 0 41 1.49525 1
gene 1 3 17 -0.0143849 0 84 -0.0143849 1
gene 2 17 40 2.37785 0 119 2.37785 1
gene 2 40 4 2.66127 0 120 2.66127 1
gene 1 40 7 0.400064 0 145 0.400064 1
genomeend 101

/* Organism #102 Fitness: 4 Error: 2 */
genomestart 102
trait 1 0.1 0.418117 0 0 0.271367 0 0 0 
trait 2 0.2 0 0 0 0 0 0 0 
trait 3 0.475 0 0.188678 0 0 0 0 0.0241692 
node 1 2 1 3
node 2 2 1 1
node 3 2 1 1
node 4 2 0 2
node 7 1 0 0
node 17 3 0 0
node 40 3 0 0
gene 1 1 4 -0.196322 0 1 -0.196322 1
gene 2 2 4 -2.03987 0 2 -2.03987 0
gene 2 3 4 -0.283687 0 3 -0.283687 0
gene 1 3 7 1.86517 0 8 1.86517 1
gene 1 7 4 -1.56606 0 9 -1.56606 1
gene 3 2 17 0.263116 0 30 0.263116 1
gene 2 17 4 1.56855 0 31 1.56855 0
gene 1 1 7 -0.961888 0 41 -0.961888 1
gene 1 3 17 2.84316 0 84 2.84316 1
gene 2 17 40 4.76581 0 119 4.76581 1
gene 2 40 4 0.015657 0 120 0.015657 1
gene 1 40 7 -0.134512 0 145 -0.134512 1
genomeend 102

/* Organism #103 Fitness: 4 Error: 2 */
genomestart 103
trait 1 0.1 0.418117 0 0 0.271367 0 0 0 
trait 2 0.2 0 0 0 0 0 0 0 
trait 3 0.475 0 0.188678 0 0 0 0 0.0241692 
node 1 2 1 3
node 2 2 1 1
node 3 2 1 1
node 4 2 0 2
node 7 1 0 0
node 17 3 0 0
node 40 3 0 0
gene 1 1 4 2.61831 0 1 2.61831 1
gene 2 2 4 -3.67237 0 2 -3.67237 0
gene 2 3 4 1.28092 0 3 1.28092 0
gene 1 3 7 -0.0167377 0 8 -0.0167377 1
gene 1 7 4 -2.85909 0 9 -2.85909 1
gene 3 2 17 0.944714 0 30 0.944714 1
gene 2 17 4 -2.25158 0 31 -2.25158 0
gene 1 1 7 -0.452015 0 41 -0.452015 1
gene 1 3 17 0.38605 0 84 0.38605 1
gene 2 17 40 2.82423 0 119 2.82423 1
gene 2 40 4 1.73256 0 120 1.73256 1
gene 1 40 7 0.265387 0 145 0.265387 1
genomeend 103

/* Species #14 : (Size 4) (AF 4.11826) (Age 7)  */


/* Organism #104 Fitness: 1.15749 Error: 2.92413 */
genomestart 104
trait 1 0.1 0 0 0 0 0 0 0 
trait 2 0.2 0 0 0 0 0 0 0 
trait 3 0.3 0 0 0 0 0 0.101304 0 
node 1 3 1 3
node 2 2 1 1
node 3 1 1 1
node 4 2 0 2
node 9 1 0 0
node 42 1 0 0
gene 1 1 4 0.0208992 0 1 0.0208992 1
gene 3 2 4 -3.72553 0 2 -3.72553 0
gene 1 3 4 -2.92808 0 3 -2.92808 1
gene 2 2 9 4.43354 0 12 4.43354 1
gene 1 9 4 4.72975 0 13 4.72975 1
gene 1 3 42 -2.06541 0 124 -2.06541 1
gene 1 42 4 -2.94558 0 125 -2.94558 1
genomeend 104

/* Organism #105 Fitness: 3.74437 Error: 2.06496 */
genomestart 105
trait 1 0.1 0 0 0 0 0 0 0 
trait 2 0.2 0 0 0 0 0 0 0 
trait 3 0.3 0 0 0 0 0 0.101304 0 
node 1 3 1 3
node 2 2 1 1
node 3 1 1 1
node 4 2 0 2
node 9 1 0 0
node 42 1 0 0
gene 1 1 4 0.753136 0 1 0.753136 1
gene 3 2 4 -3.25325 0 2 -3.25325 0
gene 1 3 4 -2.38956 0 3 -2.38956 0
gene 2 2 9 4.98336 0 12 4.98336 1
gene 1 9 4 3.56047 0 13 3.56047 1
gene 1 3 42 0.496074 0 124 0.496074 1
gene 1 42 4 -2.16784 0 125 -2.16784 1
genomeend 105

/* Organism #106 Fitness: 7.30333 Error: 1.29753 */
genomestart 106
trait 1 0.1 0 0 0 0 0 0 0 
trait 2 0.2 0 0 0 0 0 0 0 
trait 3 0.3 0 0 0 0 0 0.101304 0 
node 1 3 1 3
node 2 2 1 1
node 3 3 1 1
node 4 2 0 2
node 9 2 0 0
node 42 1 0 0
gene 1 1 4 0.0208992 0 1 0.0208992 1
gene 3 2 4 -3.72553 0 2 -3.72553 0
gene 1 3 4 -1.85103 0 3 -1.85103 0
gene 2 2 9 4.43354 0 12 4.43354 1
gene 1 9 4 2.39118 0 13 2.39118 1
gene 1 3 42 3.05756 0 124 3.05756 1
gene 1 42 4 -2.94558 0 125 -2.94558 1
genomeend 106

/* Organism #107 Fitness: 4.26786 Error: 1.93412 */
genomestart 107
trait 1 0.1 0 0 0 0 0 0 0 
trait 2 0.2 0 0 0 0 0 0 0 
trait 3 0.3 0 0 0 0 0 0.101304 0 
node 1 3 1 3
node 2 2 1 1
node 3 1 1 1
node 4 2 0 2
node 9 1 0 0
node 42 1 0 0
gene 1 1 4 1.48537 0 1 1.48537 1
gene 3 2 4 -2.78097 0 2 -2.78097 1
gene 1 3 4 -2.92808 0 3 -2.92808 1
gene 2 2 9 5.53317 0 12 5.53317 1
gene 1 9 4 4.72975 0 13 4.72975 1
gene 1 3 42 -2.06541 0 124 -2.06541 1
gene 1 42 4 -1.3901 0 125 -1.3901 1
genomeend 107

/* Species #15 : (Size 8) (AF 6.76665) (Age 6)  */


/* Organism #108 Fitness: 8.99814 Error: 1.00031 */
genomestart 108
trait 1 0.1 0 0 0 0 0 0 0 
trait 2 0.2 0 0 0 0 0 0 0 
trait 3 0.3 0 0 0 0 0 0.119665 0 
node 1 3 1 3
node 2 2 1 1
node 3 3 1 1
node 4 2 0 2
node 16 1 0 0
node 46 1 0 0
gene 1 1 4 -4.35962 0 1 -4.35962 1
gene 2 2 4 2.29759 0 2 2.29759 0
gene 1 3 4 -5.49773 0 3 -5.49773 1
gene 1 3 16 -1.60148 0 28 -1.60148 1
gene 1 16 4 2.56348 0 29 2.56348 1
gene 3 2 16 -0.0513841 0 76 -0.0513841 1
gene 2 2 46 2.80518 0 132 2.80518 1
gene 2 46 4 4.88146 0 133 4.88146 1
gene 3 16 46 -0.983732 0 194 -0.983732 1
genomeend 108

/* Organism #109 Fitness: 8.99822 Error: 1.0003 */
genomestart 109
trait 1 0.1 0 0 0 0 0 0 0 
trait 2 0.2 0 0 0 0 0 0 0 
trait 3 0.3 0 0 0 0 0 0.119665 0 
node 1 3 1 3
node 2 2 1 1
node 3 3 1 1
node 4 2 0 2
node 16 1 0 0
node 46 1 0 0
gene 1 1 4 -6.57811 0 1 -6.57811 1
gene 2 2 4 3.44303 0 2 3.44303 0
gene 1 3 4 -6.37164 0 3 -6.37164 1
gene 1 3 16 -0.10355 0 28 -0.10355 1
gene 1 16 4 2.02927 0 29 2.02927 1
gene 3 2 16 0.867934 0 76 0.867934 1
gene 2 2 46 2.40918 0 132 2.40918 1
gene 2 46 4 6.36528 0 133 6.36528 1
gene 3 16 46 0.151973 0 194 0.151973 1
genomeend 109

/* Organism #110 Fitness: 4.04027 Error: 1.98996 */
genomestart 110
trait 1 0.1 0 0 0 0 0 0 0 
trait 2 0.2 0 0 0 0 0 0 0 
trait 3 0.3 0 0 0 0 0 0.119665 0 
node 1 3 1 3
node 2 2 1 1
node 3 3 1 1
node 4 2 0 2
node 16 1 0 0
node 46 1 0 0
gene 1 1 4 -5.00006 0 1 -5.00006 1
gene 2 2 4 3.50526 0 2 3.50526 0
gene 1 3 4 -5.23293 0 3 -5.23293 1
gene 1 3 16 -0.141138 0 28 -0.141138 1
gene 1 16 4 1.57614 0 29 1.57614 1
gene 3 2 16 1.69049 0 76 1.69049 1
gene 2 2 46 1.65498 0 132 1.65498 1
gene 2 46 4 2.64745 0 133 2.64745 1
gene 3 16 46 -1.09176 0 194 -1.09176 1
genomeend 110

/* Organism #111 Fitness: 3.45893 Error: 2.14018 */
genomestart 111
trait 1 0.1 0 0 0 0 0 0 0 
trait 2 0 0 0 0.391284 0 0.914411 0 0 
trait 3 0.3 0 0 0 0 0 0.119665 0 
node 1 3 1 3
node 2 2 1 1
node 3 3 1 1
node 4 2 0 2
node 16 1 0 0
node 46 1 0 0
gene 1 1 4 -3.91056 0 1 -3.91056 1
gene 2 2 4 1.71649 0 2 1.71649 0
gene 1 3 4 -4.31467 0 3 -4.31467 1
gene 1 3 16 -3.9064 0 28 -3.9064 1
gene 1 16 4 2.2235 0 29 2.2235 1
gene 3 2 16 3.96287 0 76 3.96287 1
gene 2 2 46 2.00296 0 132 2.00296 1
gene 2 46 4 6.6845 0 133 6.6845 1
genomeend 111

/* Organism #112 Fitness: 6.26015 Error: 1.49797 */
genomestart 112
trait 1 0.1 0 0 0 0 0 0 0 
trait 2 0.2 0 0 0 0 0 0 0 
trait 3 0.3 0 0 0 0 0 0.119665 0 
node 1 3 1 3
node 2 2 1 1
node 3 3 1 1
node 4 2 0 2
node 16 1 0 0
node 46 1 0 0
gene 1 1 4 -4.35962 0 1 -4.35962 1
gene 2 2 4 2.29759 0 2 2.29759 0
gene 1 3 4 -5.49773 0 3 -5.49773 1
gene 1 3 16 0.370412 0 28 0.370412 1
gene 1 16 4 2.57936 0 29 2.57936 1
gene 3 2 16 -2.1218 0 76 -2.1218 1
gene 2 2 46 2.98545 0 132 2.98545 1
gene 2 46 4 4.3612 0 133 4.3612 1
gene 3 16 46 -1.14083 0 194 -1.14083 1
genomeend 112

/* Organism #113 Fitness: 8.81738 Error: 1.03059 */
genomestart 113
trait 1 0.1 0 0 0 0 0 0 0 
trait 2 0.2 0 0 0 0 0 0 0 
trait 3 0.3 0 0 0 0 0 0.119665 0 
node 1 3 1 3
node 2 2 1 1
node 3 3 1 1
node 4 2 0 2
node 16 1 0 0
node 46 1 0 0
gene 1 1 4 -5.5191 0 1 -5.5191 1
gene 2 2 4 3.51334 0 2 3.51334 0
gene 1 3 4 -5.49773 0 3 -5.49773 1
gene 1 3 16 -2.75576 0 28 -2.75576 1
gene 1 16 4 3.06467 0 29 3.06467 1
gene 3 2 16 -0.0513841 0 76 -0.0513841 1
gene 2 2 46 2.80518 0 132 2.80518 1
gene 2 46 4 4.88146 0 133 4.88146 1
gene 3 16 46 -0.983732 0 194 -0.983732 1
genomeend 113

/* Organism #114 Fitness: 8.50878 Error: 1.08302 */
genomestart 114
trait 1 0.1 0 0 0 0 0 0 0 
trait 2 0.2 0 0 0 0 0 0 0 
trait 3 0.3 0 0 0 0 0 0.119665 0 
node 1 3 1 3
node 2 2 1 1
node 3 3 1 1
node 4 3 0 2
node 16 1 0 0
node 46 1 0 0
gene 1 1 4 -4.32626 0 1 -4.32626 1
gene 2 2 4 0.0447281 0 2 0.0447281 0
gene 1 3 4 -7.56425 0 3 -7.56425 1
gene 1 3 16 -2.58262 0 28 -2.58262 1
gene 1 16 4 2.3538 0 29 2.3538 1
gene 3 2 16 2.18318 0 76 2.18318 1
gene 2 2 46 1.50198 0 132 1.50198 1
gene 2 46 4 2.84427 0 133 2.84427 1
gene 3 16 46 1.00352 0 194 1.00352 1
genomeend 114

/* Organism #115 Fitness: 5.05131 Error: 1.75249 */
genomestart 115
trait 1 0.1 0 0 0 0 0 0 0 
trait 2 0.2 0 0 0 0 0 0 0 
trait 3 0.3 0 0 0 0 0 0.119665 0 
node 1 3 1 3
node 2 2 1 1
node 3 3 1 1
node 4 2 0 2
node 16 1 0 0
node 46 1 0 0
gene 1 1 4 -6.41602 0 1 -6.41602 1
gene 2 2 4 1.22631 0 2 1.22631 0
gene 1 3 4 -4.3503 0 3 -4.3503 1
gene 1 3 16 -2.49389 0 28 -2.49389 1
gene 1 16 4 1.72605 0 29 1.72605 1
gene 3 2 16 -0.673008 0 76 -0.673008 1
gene 2 2 46 2.51639 0 132 2.51639 1
gene 2 46 4 6.12968 0 133 6.12968 1
genomeend 115

/* Species #16 : (Size 9) (AF 6.80285) (Age 4)  */


/* Organism #116 Fitness: 9 Error: 1 */
genomestart 116
trait 1 0.1 0 0 0 0 0 0 0 
trait 2 0.339104 0 0 0 0 0.025976 0 0 
trait 3 0.075 0 0 0 0.696367 0.575578 0.656039 0.212957 
node 1 2 1 3
node 2 2 1 1
node 3 1 1 1
node 4 2 0 2
node 13 1 0 0
node 54 1 0 0
gene 2 1 4 -4.35446 0 1 -4.35446 1
gene 2 2 4 7.05708 0 2 7.05708 1
gene 3 3 4 8 0 3 8 1
gene 3 3 13 5.82889 0 20 5.82889 0
gene 3 13 4 3.89392 0 21 3.89392 1
gene 2 1 13 -3.98062 0 54 -3.98062 1
gene 2 2 13 1.26031 0 140 1.26031 1
gene 3 3 54 -0.566805 0 160 -0.566805 1
gene 3 54 13 6.89721 0 161 6.89721 1
genomeend 116

/* Organism #117 Fitness: 8.99995 Error: 1.00001 */
genomestart 117
trait 1 0.1 0 0 0 0 0 0 0 
trait 2 0.339104 0 0 0 0 0.025976 0 0 
trait 3 0.075 0 0 0 0.696367 0.575578 0.656039 0.212957 
node 1 2 1 3
node 2 2 1 1
node 3 2 1 1
node 4 2 0 2
node 13 1 0 0
node 54 1 0 0
gene 2 1 4 -3.44935 0 1 -3.44935 1
gene 2 2 4 3.9604 0 2 3.9604 1
gene 3 3 4 3.17186 0 3 3.17186 1
gene 3 3 13 8 0 20 8 0
gene 3 13 4 2.67085 0 21 2.67085 1
gene 2 1 13 -4.69914 0 54 -4.69914 1
gene 2 2 13 2.12514 0 140 2.12514 1
gene 3 3 54 3.48442 0 160 3.48442 1
gene 3 54 13 8 0 161 8 1
genomeend 117

/* Organism #118 Fitness: 3.83726 Error: 2.04111 */
genomestart 118
trait 1 0.1 0 0 0 0 0 0 0 
trait 2 0.339104 0 0 0 0 0.025976 0 0 
trait 3 0.075 0 0 0 0.696367 0.575578 0.656039 0.212957 
node 1 2 1 3
node 2 2 1 1
node 3 1 1 1
node 4 2 0 2
node 13 1 0 0
node 54 1 0 0
gene 2 1 4 -6.723 0 1 -6.723 1
gene 2 2 4 7.29755 0 2 7.29755 1
gene 3 3 4 5.8666 0 3 5.8666 1
gene 3 3 13 6.47476 0 20 6.47476 0
gene 3 13 4 1.75833 0 21 1.75833 1
gene 2 1 13 -4.969 0 54 -4.969 1
gene 2 2 13 0.924209 0 140 0.924209 1
gene 3 3 54 -0.566805 0 160 -0.566805 1
gene 3 54 13 4.77116 0 161 4.77116 1
genomeend 118

/* Organism #119 Fitness: 8.99061 Error: 1.00157 */
genomestart 119
trait 1 0.1 0 0 0 0 0 0 0 
trait 2 0.339104 0 0 0 0 0.025976 0 0 
trait 3 0.075 0 0 0 0.696367 0.575578 0.656039 0.212957 
node 1 2 1 3
node 2 2 1 1
node 3 1 1 1
node 4 2 0 2
node 13 1 0 0
node 54 1 0 0
gene 2 1 4 -3.08573 0 1 -3.08573 1
gene 2 2 4 7.97931 0 2 7.97931 1
gene 3 3 4 7.5669 0 3 7.5669 1
gene 3 3 13 7.53759 0 20 7.53759 0
gene 3 13 4 4.18501 0 21 4.18501 1
gene 2 1 13 -4.06225 0 54 -4.06225 1
gene 2 2 13 -0.00998816 0 140 -0.00998816 1
gene 3 3 54 4.18773 0 160 4.18773 1
gene 3 54 13 8 0 161 8 1
genomeend 119

/* Organism #120 Fitness: 8.98867 Error: 1.00189 */
genomestart 120
trait 1 0.1 0 0 0 0 0 0 0 
trait 2 0.339104 0 0 0 0 0.025976 0 0 
trait 3 0.075 0 0 0 0.696367 0.575578 0.656039 0.212957 
node 1 2 1 3
node 2 2 1 1
node 3 1 1 1
node 4 2 0 2
node 13 1 0 0
node 54 1 0 0
gene 2 1 4 -6.72673 0 1 -6.72673 1
gene 2 2 4 8 0 2 8 1
gene 3 3 4 8 0 3 8 1
gene 3 3 13 7.64091 0 20 7.64091 0
gene 3 13 4 5.08254 0 21 5.08254 1
gene 2 1 13 -3.18198 0 54 -3.18198 1
gene 2 2 13 0.697747 0 140 0.697747 1
gene 3 3 54 -1.8388 0 160 -1.8388 1
gene 3 54 13 5.34639 0 161 5.34639 1
genomeend 120

/* Organism #121 Fitness: 8.64018 Error: 1.06058 */
genomestart 121
trait 1 0.1 0 0 0 0 0 0 0 
trait 2 0.339104 0 0 0 0 0.025976 0 0 
trait 3 0.075 0 0 0 0.696367 0.575578 0.656039 0.212957 
node 1 2 1 3
node 2 2 1 1
node 3 1 1 1
node 4 2 0 2
node 13 1 0 0
node 54 1 0 0
gene 2 1 4 -4.35446 0 1 -4.35446 1
gene 2 2 4 1.40592 0 2 1.40592 1
gene 3 3 4 5.85738 0 3 5.85738 1
gene 3 3 13 7.07746 0 20 7.07746 0
gene 3 13 4 3.50526 0 21 3.50526 1
gene 2 1 13 -3.60991 0 54 -3.60991 1
gene 2 2 13 2.51663 0 140 2.51663 1
gene 3 3 54 1.16733 0 160 1.16733 1
gene 3 54 13 6.93922 0 161 6.93922 1
genomeend 121

/* Organism #122 Fitness: 4 Error: 2 */
genomestart 122
trait 1 0.1 0 0 0 0 0 0 0 
trait 2 0.339104 0 0 0 0 0.025976 0 0 
trait 3 0.075 0 0 0 0.696367 0.575578 0.656039 0.212957 
node 1 2 1 3
node 2 2 1 1
node 3 1 1 1
node 4 2 0 2
node 13 1 0 0
node 54 1 0 0
gene 2 1 4 0.92507 0 1 0.92507 1
gene 2 2 4 7.79575 0 2 7.79575 1
gene 3 3 4 0.594277 0 3 0.594277 1
gene 3 3 13 1.76087 0 20 1.76087 0
gene 3 13 4 2.51151 0 21 2.51151 1
gene 2 1 13 -2.73081 0 54 -2.73081 1
gene 2 2 13 2.70558 0 140 2.70558 1
gene 3 3 54 1.07548 0 160 1.07548 1
gene 3 54 13 8 0 161 8 1
genomeend 122

/* Organism #123 Fitness: 4.79618 Error: 1.80998 */
genomestart 123
trait 1 0.1 0 0 0 0 0 0 0 
trait 2 0.339104 0 0 0 0 0.025976 0 0 
trait 3 0.075 0 0 0 0.696367 0.575578 0.656039 0.212957 
node 1 2 1 3
node 2 2 1 1
node 3 1 1 1
node 4 2 0 2
node 13 1 0 0
node 54 1 0 0
gene 2 1 4 -2.30136 0 1 -2.30136 1
gene 2 2 4 7.31302 0 2 7.31302 1
gene 3 3 4 8 0 3 8 1
gene 3 3 13 8 0 20 8 0
gene 3 13 4 5.7063 0 21 5.7063 1
gene 2 1 13 -4.03673 0 54 -4.03673 1
gene 2 2 13 1.82302 0 140 1.82302 1
gene 1 3 54 -0.323719 0 160 -0.323719 1
gene 3 54 13 8 0 161 8 1
genomeend 123

/* Organism #124 Fitness: 3.9728 Error: 2.00681 */
genomestart 124
trait 1 0.1 0 0 0 0 0 0 0 
trait 2 0.339104 0 0 0 0 0.025976 0 0 
trait 3 0.075 0 0 0 0.696367 0.575578 0.656039 0.212957 
node 1 2 1 3
node 2 2 1 1
node 3 1 1 1
node 4 2 0 2
node 13 1 0 0
node 54 1 0 0
gene 2 1 4 -5.00882 0 1 -5.00882 1
gene 2 2 4 6.02196 0 2 6.02196 1
gene 3 3 4 2.75419 0 3 2.75419 1
gene 3 3 13 8 0 20 8 0
gene 3 13 4 3.78825 0 21 3.78825 1
gene 2 1 13 -2.35055 0 54 -2.35055 1
gene 2 2 13 -2.23409 0 140 -2.23409 1
gene 3 3 54 -1.52411 0 160 -1.52411 1
gene 3 54 13 5.28661 0 161 5.28661 1
genomeend 124

/* Species #17 : (Size 12) (AF 8.98511) (Age 4)  */


/* Organism #125 Fitness: 9 Error: 1 */
genomestart 125
trait 1 0.1 0 0 0 0 0 0 0 
trait 2 0.2 0 0 0 0 0.0413254 0 0 
trait 3 0.466228 0 0 0 0 0 0.191988 0.0957493 
node 1 3 1 3
node 2 2 1 1
node 3 3 1 1
node 4 2 0 2
node 14 1 0 0
node 52 2 0 0
node 57 1 0 0
gene 3 1 4 -0.614765 0 1 -0.614765 1
gene 3 2 4 8 0 2 8 1
gene 2 3 4 7.96675 0 3 7.96675 1
gene 3 2 14 -1.50736 0 22 -1.50736 0
gene 3 14 4 -4.0834 0 23 -4.0834 1
gene 2 1 14 1.78821 0 34 1.78821 1
gene 3 3 14 -4.60103 0 46 -4.60103 1
gene 3 2 52 0.0474631 0 156 0.0474631 0
gene 3 52 14 -1.30484 0 157 -1.30484 1
gene 3 2 57 1.25766 0 168 1.25766 1
gene 3 57 52 -1.22631 0 169 -1.22631 1
genomeend 125

/* Organism #126 Fitness: 9 Error: 1 */
genomestart 126
trait 1 0.1 0 0 0 0 0 0 0 
trait 2 0.2 0 0 0 0 0.0413254 0 0 
trait 3 0.466228 0 0 0 0 0 0.191988 0.0957493 
node 1 3 1 3
node 2 2 1 1
node 3 3 1 1
node 4 2 0 2
node 14 1 0 0
node 52 2 0 0
node 57 1 0 0
gene 3 1 4 -0.614765 0 1 -0.614765 1
gene 3 2 4 8 0 2 8 1
gene 2 3 4 7.96675 0 3 7.96675 1
gene 3 2 14 -1.50736 0 22 -1.50736 0
gene 3 14 4 -4.0834 0 23 -4.0834 1
gene 2 1 14 1.78821 0 34 1.78821 1
gene 3 3 14 -4.60103 0 46 -4.60103 1
gene 3 2 52 0.0474631 0 156 0.0474631 0
gene 3 52 14 -1.30484 0 157 -1.30484 1
gene 3 2 57 1.25766 0 168 1.25766 1
gene 3 57 52 -1.22631 0 169 -1.22631 1
genomeend 126

/* Organism #127 Fitness: 8.99822 Error: 1.0003 */
genomestart 127
trait 1 0.1 0 0 0 0 0 0 0 
trait 2 0.2 0 0 0 0 0.0413254 0 0 
trait 3 0.420679 0 0 0 0 0 0.191988 0.0957493 
node 1 3 1 3
node 2 2 1 1
node 3 3 1 1
node 4 2 0 2
node 14 1 0 0
node 52 1 0 0
node 57 1 0 0
gene 3 1 4 -2.66344 0 1 -2.66344 1
gene 3 2 4 6.68764 0 2 6.68764 1
gene 2 3 4 8 0 3 8 1
gene 3 2 14 0.618799 0 22 0.618799 0
gene 3 14 4 -2.42507 0 23 -2.42507 1
gene 2 1 14 0.780515 0 34 0.780515 1
gene 3 3 14 -3.87573 0 46 -3.87573 1
gene 3 2 52 -1.26724 0 156 -1.26724 0
gene 3 52 14 0.253411 0 157 0.253411 1
gene 3 2 57 3.57493 0 168 3.57493 1
gene 3 57 52 -1.99957 0 169 -1.99957 1
genomeend 127

/* Organism #128 Fitness: 8.82485 Error: 1.02933 */
genomestart 128
trait 1 0.1 0 0 0 0 0 0 0 
trait 2 0.2 0 0 0 0 0.0413254 0 0 
trait 3 0.37513 0 0 0 0 0 0.191988 0.0957493 
node 1 3 1 3
node 2 2 1 1
node 3 3 1 1
node 4 2 0 2
node 14 1 0 0
node 52 1 0 0
node 57 1 0 0
gene 3 1 4 -0.376014 0 1 -0.376014 1
gene 3 2 4 6.93712 0 2 6.93712 1
gene 2 3 4 1.1449 0 3 1.1449 1
gene 3 2 14 -2.19162 0 22 -2.19162 1
gene 3 14 4 -6.76787 0 23 -6.76787 1
gene 2 1 14 0.95609 0 34 0.95609 1
gene 3 3 14 -1.51667 0 46 -1.51667 1
gene 3 2 52 4.31716 0 156 4.31716 0
gene 3 52 14 -3.60755 0 157 -3.60755 1
gene 3 2 57 -0.374919 0 168 -0.374919 1
gene 3 57 52 -0.841873 0 169 -0.841873 1
genomeend 128

/* Organism #129 Fitness: 8.99877 Error: 1.0002 */
genomestart 129
trait 1 0.1 0 0 0 0 0 0 0 
trait 2 0.2 0 0 0 0 0.0413254 0 0 
trait 3 0.37513 0 0 0 0 0 0.191988 0.0957493 
node 1 3 1 3
node 2 2 1 1
node 3 3 1 1
node 4 2 0 2
node 14 1 0 0
node 52 1 0 0
node 57 1 0 0
gene 3 1 4 0.496702 0 1 0.496702 1
gene 2 2 4 7.47015 0 2 7.47015 1
gene 2 3 4 8 0 3 8 1
gene 3 2 14 -1.71582 0 22 -1.71582 0
gene 3 14 4 -2.23806 0 23 -2.23806 1
gene 2 1 14 1.02029 0 34 1.02029 1
gene 3 3 14 -3.96807 0 46 -3.96807 1
gene 3 2 52 4.56684 0 156 4.56684 0
gene 3 52 14 -2.08034 0 157 -2.08034 1
gene 3 2 57 2.30336 0 168 2.30336 1
gene 3 57 52 -1.78712 0 169 -1.78712 1
genomeend 129

/* Organism #130 Fitness: 9 Error: 1 */
genomestart 130
trait 1 0.1 0 0 0 0 0 0 0 
trait 2 0.2 0 0 0 0 0.0413254 0 0 
trait 3 0.37513 0 0 0 0 0 0.191988 0.0957493 
node 1 3 1 3
node 2 2 1 1
node 3 3 1 1
node 4 2 0 2
node 14 1 0 0
node 52 1 0 0
node 57 1 0 0
gene 3 1 4 0.260328 0 1 0.260328 1
gene 3 2 4 6.93712 0 2 6.93712 1
gene 2 3 4 8 0 3 8 1
gene 3 2 14 -0.0557405 0 22 -0.0557405 0
gene 3 14 4 -4.36587 0 23 -4.36587 1
gene 2 1 14 1.65882 0 34 1.65882 1
gene 3 3 14 -1.6456 0 46 -1.6456 1
gene 3 2 52 2.07964 0 156 1.57964 0
gene 3 52 14 -1.41434 0 157 -0.819889 1
gene 3 2 57 1.10434 0 168 0.604337 1
gene 3 57 52 0.390871 0 169 -0.109129 1
genomeend 130

/* Organism #131 Fitness: 8.99983 Error: 1.00003 */
genomestart 131
trait 1 0.1 0 0 0 0 0 0 0 
trait 2 0.2 0 0 0 0 0.0413254 0 0 
trait 3 0.420679 0 0 0 0 0 0.191988 0.0957493 
node 1 3 1 3
node 2 2 1 1
node 3 3 1 1
node 4 2 0 2
node 14 1 0 0
node 52 1 0 0
node 57 1 0 0
gene 3 1 4 -0.614765 0 1 -0.614765 1
gene 3 2 4 6.93712 0 2 6.93712 1
gene 2 3 4 8 0 3 8 1
gene 3 2 14 -0.0557405 0 22 -0.0557405 0
gene 3 14 4 -4.36587 0 23 -4.36587 1
gene 2 1 14 1.78821 0 34 1.78821 1
gene 3 3 14 -1.6456 0 46 -1.6456 1
gene 3 2 52 2.07964 0 156 1.57964 0
gene 3 52 14 -1.30484 0 157 -1.30484 1
gene 3 2 57 1.25766 0 168 1.25766 1
gene 3 57 52 0.390871 0 169 -0.109129 1
genomeend 131

/* Organism #132 Fitness: 8.99959 Error: 1.00007 */
genomestart 132
trait 1 0.1 0 0 0 0 0 0 0 
trait 2 0.2 0 0 0 0 0.0413254 0 0 
trait 3 0.466228 0 0 0 0 0 0.191988 0.0957493 
node 1 3 1 3
node 2 2 1 1
node 3 3 1 1
node 4 2 0 2
node 14 1 0 0
node 52 2 0 0
node 57 1 0 0
gene 3 1 4 -0.115493 0 1 -0.115493 1
gene 3 2 4 6.02581 0 2 6.02581 1
gene 2 3 4 7.32159 0 3 7.32159 1
gene 3 2 14 -3.94779 0 22 -3.94779 0
gene 3 14 4 -1.83421 0 23 -1.83421 1
gene 2 1 14 1.58734 0 34 1.58734 1
gene 3 3 14 -7.01371 0 46 -7.01371 1
gene 3 2 52 -0.86577 0 156 -0.86577 0
gene 3 52 14 0.826792 0 157 0.826792 1
gene 3 2 57 1.25766 0 168 1.25766 1
gene 3 57 52 2.23157 0 169 2.23157 1
genomeend 132

/* Organism #133 Fitness: 9 Error: 1 */
genomestart 133
trait 1 0.1 0 0 0 0 0 0 0 
trait 2 0.2 0 0 0 0 0.0413254 0 0 
trait 3 0.420679 0 0 0 0 0 0.191988 0.0957493 
node 1 3 1 3
node 2 2 1 1
node 3 3 1 1
node 4 2 0 2
node 14 1 0 0
node 52 1 0 0
node 57 1 0 0
gene 3 1 4 -0.614765 0 1 -0.614765 1
gene 3 2 4 8 0 2 8 1
gene 2 3 4 8 0 3 8 1
gene 3 2 14 -1.50736 0 22 -1.50736 0
gene 3 14 4 -4.36587 0 23 -4.36587 1
gene 2 1 14 1.65882 0 34 1.65882 1
gene 3 3 14 -1.6456 0 46 -1.6456 1
gene 3 2 52 2.07964 0 156 1.57964 0
gene 3 52 14 -1.41434 0 157 -0.819889 1
gene 3 2 57 1.10434 0 168 0.604337 1
gene 3 57 52 -1.22631 0 169 -1.22631 1
genomeend 133

/* Organism #134 Fitness: 9 Error: 1 */
genomestart 134
trait 1 0.1 0 0 0 0 0 0 0 
trait 2 0.2 0 0 0 0 0.0413254 0 0 
trait 3 0.420679 0 0 0 0 0 0.191988 0.0957493 
node 1 3 1 3
node 2 2 1 1
node 3 3 1 1
node 4 2 0 2
node 14 1 0 0
node 52 1 0 0
node 57 1 0 0
gene 3 1 4 0.260328 0 1 0.260328 1
gene 3 2 4 8 0 2 8 1
gene 2 3 4 8 0 3 8 1
gene 3 2 14 -1.50736 0 22 -1.50736 0
gene 3 14 4 -4.36587 0 23 -4.36587 1
gene 2 1 14 1.78821 0 34 1.78821 1
gene 3 3 14 -1.6456 0 46 -1.6456 1
gene 3 2 52 2.07964 0 156 1.57964 0
gene 3 52 14 -1.30484 0 157 -1.30484 1
gene 3 2 57 1.10434 0 168 0.604337 1
gene 3 57 52 -1.22631 0 169 -1.22631 1
genomeend 134

/* Organism #135 Fitness: 9 Error: 1 */
genomestart 135
trait 1 0.1 0 0 0 0 0 0 0 
trait 2 0.2 0 0 0 0 0.0413254 0 0 
trait 3 0.466228 0 0 0 0 0 0.191988 0.0957493 
node 1 3 1 3
node 2 2 1 1
node 3 3 1 1
node 4 2 0 2
node 14 1 0 0
node 52 2 0 0
node 57 1 0 0
gene 3 1 4 -0.614765 0 1 -0.614765 1
gene 3 2 4 8 0 2 8 1
gene 2 3 4 7.96675 0 3 7.96675 1
gene 3 2 14 -1.50736 0 22 -1.50736 0
gene 3 14 4 -4.0834 0 23 -4.0834 1
gene 2 1 14 1.78821 0 34 1.78821 1
gene 3 3 14 -4.60103 0 46 -4.60103 1
gene 3 2 52 0.0474631 0 156 0.0474631 0
gene 3 52 14 -1.30484 0 157 -1.30484 1
gene 3 2 57 1.25766 0 168 1.25766 1
gene 3 57 52 -1.22631 0 169 -1.22631 1
genomeend 135

/* Organism #136 Fitness: 9 Error: 1 */
genomestart 136
trait 1 0.1 0 0 0 0 0 0 0 
trait 2 0.2 0 0 0 0 0.0413254 0 0 
trait 3 0.420679 0 0 0 0 0 0.191988 0.0957493 
node 1 3 1 3
node 2 2 1 1
node 3 3 1 1
node 4 2 0 2
node 14 1 0 0
node 52 2 0 0
node 57 1 0 0
gene 3 1 4 -0.177218 0 1 -0.177218 1
gene 3 2 4 7.46856 0 2 7.46856 1
gene 2 3 4 7.98337 0 3 7.98337 1
gene 3 2 14 -0.781549 0 22 -0.781549 1
gene 3 14 4 -4.22463 0 23 -4.22463 1
gene 2 1 14 1.72352 0 34 1.72352 1
gene 3 3 14 -3.12331 0 46 -3.12331 1
gene 3 2 52 1.06355 0 156 0.813554 1
gene 3 52 14 -1.35959 0 157 -1.06236 1
gene 3 2 57 1.181 0 168 0.931 1
gene 3 57 52 -0.417719 0 169 -0.667719 1
genomeend 136

/* Species #18 : (Size 6) (AF 7.49535) (Age 4)  */


/* Organism #137 Fitness: 8.99304 Error: 1.00116 */
genomestart 137
trait 1 0.1 0.418117 0 0 0.271367 0 0 0 
trait 2 0.2 0 0 0 0 0 0 0 
trait 3 0.3 0 0 0 0 0 0 0 
node 1 2 1 3
node 2 2 1 1
node 3 2 1 1
node 4 2 0 2
node 7 1 0 0
node 18 1 0 0
node 35 1 0 0
node 53 1 0 0
node 58 1 0 0
gene 1 1 4 -0.853001 0 1 -0.853001 1
gene 2 2 4 3.76989 0 2 3.76989 1
gene 2 3 4 3.50505 0 3 3.50505 1
gene 1 3 7 -0.98152 0 8 -0.98152 0
gene 2 7 4 -1.17985 0 9 -1.17985 1
gene 1 7 18 -3.59777 0 32 -3.59777 0
gene 1 18 4 -4.69131 0 33 -4.69131 1
gene 1 3 35 2.92127 0 95 2.92127 1
gene 1 35 7 1.59856 0 96 1.59856 0
gene 1 35 53 0.081689 0 158 0.081689 0
gene 1 53 7 -2.97589 0 159 -2.97589 1
gene 1 35 58 0.993549 0 170 0.993549 1
gene 1 58 53 -0.926932 0 171 -0.926932 1
genomeend 137

/* Organism #138 Fitness: 6.28803 Error: 1.49241 */
genomestart 138
trait 1 0.1 0.418117 0 0 0.271367 0 0 0 
trait 2 0.2 0 0 0 0 0 0 0 
trait 3 0.3 0 0 0 0 0 0 0 
node 1 2 1 3
node 2 2 1 1
node 3 2 1 1
node 4 2 0 2
node 7 1 0 0
node 18 1 0 0
node 35 1 0 0
node 53 1 0 0
node 58 1 0 0
gene 1 1 4 -0.0850311 0 1 -0.0850311 1
gene 2 2 4 1.4128 0 2 1.4128 1
gene 2 3 4 5.17249 0 3 5.17249 1
gene 1 3 7 -0.841261 0 8 -0.841261 0
gene 2 7 4 0.305893 0 9 0.305893 1
gene 1 7 18 -3.59777 0 32 -3.59777 0
gene 1 18 4 -2.40625 0 33 -2.40625 1
gene 1 3 35 2.61525 0 95 2.61525 1
gene 1 35 7 1.59856 0 96 1.59856 0
gene 1 35 53 1.19418 0 158 1.19418 0
gene 1 53 7 -0.745901 0 159 -0.745901 1
gene 1 35 58 -1.12753 0 170 -1.12753 1
gene 1 58 53 -3.07435 0 171 -3.07435 1
genomeend 138

/* Organism #139 Fitness: 7.07947 Error: 1.33927 */
genomestart 139
trait 1 0.1 0.418117 0 0 0.271367 0 0 0 
trait 2 0.2 0 0 0 0 0 0 0 
trait 3 0.3 0 0 0 0 0 0 0 
node 1 2 1 3
node 2 2 1 1
node 3 2 1 1
node 4 2 0 2
node 7 1 0 0
node 18 1 0 0
node 35 1 0 0
node 53 1 0 0
node 58 1 0 0
gene 1 1 4 -0.735543 0 1 -0.735543 1
gene 2 2 4 2.63678 0 2 2.63678 1
gene 2 3 4 4.48805 0 3 4.48805 1
gene 1 3 7 -1.74124 0 8 -1.74124 0
gene 2 7 4 0.604902 0 9 0.604902 1
gene 1 7 18 -3.91353 0 32 -3.91353 1
gene 1 18 4 -4.61226 0 33 -4.61226 1
gene 1 3 35 1.57356 0 95 1.57356 1
gene 1 35 7 1.89456 0 96 1.89456 1
gene 1 35 53 0.081689 0 158 0.081689 0
gene 1 53 7 1.37182 0 159 1.37182 1
gene 1 35 58 1.32098 0 170 1.32098 1
gene 1 58 53 0.248534 0 171 0.248534 1
gene 2 1 53 -0.969316 0 207 -0.969316 1
genomeend 139

/* Organism #140 Fitness: 8.9265 Error: 1.01228 */
genomestart 140
trait 1 0.1 0.418117 0 0 0.271367 0 0 0 
trait 2 0.2 0 0 0 0 0 0 0 
trait 3 0.3 0 0 0 0 0 0 0 
node 1 2 1 3
node 2 2 1 1
node 3 2 1 1
node 4 2 0 2
node 7 1 0 0
node 18 1 0 0
node 35 1 0 0
node 53 1 0 0
node 58 1 0 0
gene 1 1 4 -0.794272 0 1 -0.794272 1
gene 2 2 4 3.20333 0 2 3.20333 1
gene 2 3 4 3.99655 0 3 3.99655 1
gene 1 3 7 -1.36138 0 8 -1.36138 0
gene 2 7 4 -0.287474 0 9 -0.287474 1
gene 1 7 18 -3.75565 0 32 -3.75565 0
gene 1 18 4 -4.65178 0 33 -4.65178 1
gene 1 3 35 2.24742 0 95 2.24742 1
gene 1 35 7 1.74656 0 96 1.74656 0
gene 1 35 53 0.081689 0 158 0.081689 0
gene 1 53 7 -0.802036 0 159 -0.802036 1
gene 1 35 58 1.15726 0 170 1.15726 1
gene 1 58 53 -0.339199 0 171 -0.339199 1
genomeend 140

/* Organism #141 Fitness: 4.76767 Error: 1.8165 */
genomestart 141
trait 1 0.1 0.418117 0 0 0.271367 0 0 0 
trait 2 0.2 0 0 0 0 0 0 0 
trait 3 0.3 0 0 0 0 0 0 0 
node 1 2 1 3
node 2 2 1 1
node 3 2 1 1
node 4 2 0 2
node 7 1 0 0
node 18 1 0 0
node 35 3 0 0
node 53 1 0 0
node 58 1 0 0
gene 1 1 4 -1.23902 0 1 -1.23902 1
gene 2 2 4 0.872841 0 2 0.872841 1
gene 2 3 4 1.40803 0 3 1.40803 1
gene 1 3 7 0.179019 0 8 0.179019 0
gene 2 7 4 0.986519 0 9 0.986519 1
gene 1 7 18 -3.32281 0 32 -3.32281 0
gene 1 18 4 -4.98078 0 33 -4.98078 1
gene 1 3 35 4.23047 0 95 4.23047 1
gene 1 35 7 2.78131 0 96 2.78131 0
gene 1 35 53 -1.76544 0 158 -1.76544 0
gene 1 53 7 -0.261805 0 159 -0.261805 1
gene 1 35 58 1.05388 0 170 1.05388 1
gene 1 58 53 1.982 0 171 1.982 1
genomeend 141

/* Organism #142 Fitness: 8.9174 Error: 1.0138 */
genomestart 142
trait 1 0.1 0.418117 0 0 0.271367 0 0 0 
trait 2 0.2 0 0 0 0 0 0 0 
trait 3 0.3 0 0 0 0 0 0 0 
node 1 2 1 3
node 2 2 1 1
node 3 2 1 1
node 4 2 0 2
node 7 1 0 0
node 18 1 0 0
node 35 1 0 0
node 53 1 0 0
node 58 1 0 0
gene 1 1 4 -2.20034 0 1 -2.20034 1
gene 2 2 4 -2.11604 0 2 -2.11604 1
gene 2 3 4 3.15245 0 3 3.15245 1
gene 1 3 7 0.12312 0 8 0.12312 0
gene 2 7 4 0.525941 0 9 0.525941 1
gene 1 7 18 -1.68092 0 32 -1.68092 0
gene 1 18 4 -6.9547 0 33 -6.9547 1
gene 1 3 35 1.33539 0 95 1.33539 1
gene 1 35 7 3.48177 0 96 3.48177 0
gene 1 35 53 1.66255 0 158 1.66255 0
gene 1 53 7 -2.96815 0 159 -2.96815 1
gene 1 35 58 3.52555 0 170 3.52555 1
gene 1 58 53 -1.04252 0 171 -1.04252 1
genomeend 142

/* Species #19 : (Size 7) (AF 8.65055) (Age 3)  */


/* Organism #143 Fitness: 8.99211 Error: 1.00131 */
genomestart 143
trait 1 0.1 0.418117 0 0 0.271367 0 0 0 
trait 2 0.2 0 0 0 0 0 0 0 
trait 3 0.3 0 0 0 0 0 0 0 
node 1 2 1 3
node 2 2 1 1
node 3 2 1 1
node 4 2 0 2
node 7 1 0 0
node 18 1 0 0
node 35 1 0 0
gene 1 1 4 -2.61307 0 1 -2.61307 1
gene 2 2 4 5.68875 0 2 5.68875 1
gene 2 3 4 -4.42306 0 3 -4.42306 1
gene 1 3 7 -1.933 0 8 -1.933 0
gene 2 7 4 -3.84159 0 9 -3.84159 1
gene 1 7 18 -1.24765 0 32 -1.24765 0
gene 1 18 4 -1.12949 0 33 -1.12949 1
gene 1 3 35 -0.497154 0 95 -0.497154 1
gene 1 35 7 -1.06813 0 96 -1.06813 0
genomeend 143

/* Organism #144 Fitness: 8.99114 Error: 1.00148 */
genomestart 144
trait 1 0.1 0.418117 0 0 0.271367 0 0 0 
trait 2 0.2 0 0 0 0 0 0 0 
trait 3 0.3 0 0 0 0 0 0 0 
node 1 2 1 3
node 2 2 1 1
node 3 2 1 1
node 4 2 0 2
node 7 1 0 0
node 18 1 0 0
node 35 1 0 0
gene 1 1 4 -4.76572 0 1 -4.76572 1
gene 2 2 4 6.09233 0 2 6.09233 1
gene 2 3 4 -3.48893 0 3 -3.48893 1
gene 1 3 7 -2.36845 0 8 -2.36845 0
gene 2 7 4 -3.27346 0 9 -3.27346 1
gene 1 7 18 1.92961 0 32 1.92961 0
gene 1 18 4 -1.12949 0 33 -1.12949 1
gene 1 3 35 -0.497154 0 95 -0.497154 1
gene 1 35 7 -2.53145 0 96 -2.53145 0
genomeend 144

/* Organism #145 Fitness: 8.99859 Error: 1.00024 */
genomestart 145
trait 1 0.1 0.418117 0 0 0.271367 0 0 0 
trait 2 0.2 0 0 0 0 0 0 0 
trait 3 0.3 0 0 0 0 0 0 0 
node 1 2 1 3
node 2 2 1 1
node 3 2 1 1
node 4 2 0 2
node 7 1 0 0
node 18 1 0 0
node 35 1 0 0
gene 1 1 4 -4.1615 0 1 -4.1615 1
gene 2 2 4 5.90021 0 2 5.90021 1
gene 2 3 4 -2.9489 0 3 -2.9489 1
gene 1 3 7 -1.65463 0 8 -1.65463 0
gene 2 7 4 -3.55753 0 9 -3.55753 1
gene 1 7 18 0.229487 0 32 0.229487 0
gene 1 18 4 0.456241 0 33 0.456241 1
gene 1 3 35 -1.13126 0 95 -1.13126 1
gene 1 35 7 -1.79979 0 96 -1.79979 1
genomeend 145

/* Organism #146 Fitness: 7.73311 Error: 1.21915 */
genomestart 146
trait 1 0.1 0.418117 0 0 0.271367 0 0 0 
trait 2 0.2 0 0 0 0 0 0 0 
trait 3 0.3 0 0 0 0 0 0 0 
node 1 2 1 3
node 2 2 1 1
node 3 2 1 1
node 4 2 0 2
node 7 1 0 0
node 18 1 0 0
node 35 1 0 0
gene 1 1 4 -3.55728 0 1 -3.55728 1
gene 2 2 4 5.70809 0 2 5.70809 1
gene 2 3 4 -2.40887 0 3 -2.40887 1
gene 1 3 7 -2.36845 0 8 -2.36845 0
gene 2 7 4 -3.84159 0 9 -3.84159 1
gene 1 7 18 -1.47064 0 32 -1.47064 0
gene 1 18 4 -0.86487 0 33 -0.86487 1
gene 1 3 35 -0.305917 0 95 -0.305917 1
gene 1 35 7 -1.06813 0 96 -1.06813 0
genomeend 146

/* Organism #147 Fitness: 8.98333 Error: 1.00278 */
genomestart 147
trait 1 0.1 0.418117 0 0 0.271367 0 0 0 
trait 2 0.2 0 0 0 0 0 0 0 
trait 3 0.3 0 0 0 0 0 0 0 
node 1 2 1 3
node 2 2 1 1
node 3 2 1 1
node 4 2 0 2
node 7 1 0 0
node 18 1 0 0
node 35 1 0 0
gene 1 1 4 -1.26588 0 1 -1.26588 1
gene 2 2 4 3.60658 0 2 3.60658 1
gene 2 3 4 -3.78572 0 3 -3.78572 1
gene 1 3 7 0.402568 0 8 0.402568 0
gene 2 7 4 -6.12215 0 9 -6.12215 1
gene 1 7 18 0.945709 0 32 0.945709 0
gene 1 18 4 1.22244 0 33 1.22244 1
gene 1 3 35 -0.60474 0 95 -0.60474 1
gene 1 35 7 -0.116644 0 96 -0.116644 0
genomeend 147

/* Organism #148 Fitness: 7.85673 Error: 1.19701 */
genomestart 148
trait 1 0.1 0.418117 0 0 0.271367 0 0 0 
trait 2 0.2 0 0 0 0 0 0 0 
trait 3 0.3 0 0 0 0 0 0 0 
node 1 2 1 3
node 2 2 1 1
node 3 2 1 1
node 4 2 0 2
node 7 1 0 0
node 18 1 0 0
node 35 1 0 0
gene 1 1 4 -3.79107 0 1 -3.79107 1
gene 2 2 4 4.08987 0 2 4.08987 1
gene 2 3 4 -1.22635 0 3 -1.22635 1
gene 1 3 7 -3.80047 0 8 -3.80047 0
gene 2 7 4 -5.45629 0 9 -5.45629 1
gene 1 7 18 3.44059 0 32 3.44059 0
gene 1 18 4 1.27122 0 33 1.27122 1
gene 1 3 35 -1.70048 0 95 -1.70048 1
gene 1 35 7 -1.05488 0 96 -1.05488 0
genomeend 148

/* Organism #149 Fitness: 8.99882 Error: 1.0002 */
genomestart 149
trait 1 0.1 0.418117 0 0 0.271367 0 0 0 
trait 2 0.2 0 0 0 0 0 0 0 
trait 3 0.3 0 0 0 0 0 0 0 
node 1 2 1 3
node 2 2 1 1
node 3 2 1 1
node 4 2 0 2
node 7 1 0 0
node 18 1 0 0
node 35 1 0 0
gene 1 1 4 -3.68939 0 1 -3.68939 1
gene 2 2 4 5.89054 0 2 5.89054 1
gene 2 3 4 -3.95599 0 3 -3.95599 1
gene 1 3 7 -2.15073 0 8 -2.15073 0
gene 2 7 4 -3.55753 0 9 -3.55753 1
gene 1 7 18 0.34098 0 32 0.34098 0
gene 1 18 4 0.323929 0 33 0.323929 1
gene 1 3 35 -0.401536 0 95 -0.401536 1
gene 1 35 7 -1.79979 0 96 -1.79979 0
genomeend 149
