
/* Species #1 : (Size 8) (AF 7.01908) (Age 33)  */


/* Organism #0 Fitness: 9 Error: 1 */
genomestart 0
trait 1 0.1 0 0 0 0 0 0 0 
trait 2 0.2 0 0 0 0 0.478961 0.404612 0.380512 
trait 3 0.3 0 0 0 0 0 0 0 
node 1 1 1 3
node 2 3 1 1
node 3 3 1 1
node 4 2 0 2
gene 1 1 4 -4.05535 0 1 -4.05535 1
gene 1 2 4 -8 0 2 -8 1
gene 1 3 4 8 0 3 8 1
genomeend 0

/* Organism #1 Fitness: 8.99846 Error: 1.00026 */
genomestart 1
trait 1 0.1 0 0 0 0 0 0 0 
trait 2 0.2 0 0 0 0 0.478961 0.404612 0.380512 
trait 3 0.3 0 0 0 0 0 0 0 
node 1 1 1 3
node 2 3 1 1
node 3 3 1 1
node 4 2 0 2
gene 1 1 4 -5.09822 0 1 -5.09822 1
gene 1 2 4 -6.94681 0 2 -6.94681 1
gene 1 3 4 6.77769 0 3 6.77769 1
genomeend 1

/* Organism #2 Fitness: 4.65415 Error: 1.84265 */
genomestart 2
trait 1 0.1 0 0 0 0 0 0 0 
trait 2 0.2 0 0 0 0 0.478961 0.404612 0.380512 
trait 3 0.3 0 0 0 0 0 0 0 
node 1 1 1 3
node 2 3 1 1
node 3 3 1 1
node 4 2 0 2
gene 1 1 4 -1.89424 0 1 -1.89424 1
gene 1 2 4 -8 0 2 -8 1
gene 1 3 4 1.5536 0 3 1.5536 1
genomeend 2

/* Organism #3 Fitness: 7.90627 Error: 1.18819 */
genomestart 3
trait 1 0.1 0 0 0 0 0 0 0 
trait 2 0.2 0 0 0 0 0.476466 0.402505 0.380662 
trait 3 0.3 0 0 0 0 0 0 0 
node 1 1 1 3
node 2 3 1 1
node 3 3 1 1
node 4 2 0 2
gene 1 1 4 -0.654935 0 1 -0.654935 1
gene 1 2 4 1.00726 0 2 1.00726 1
gene 1 3 4 8 0 3 8 1
genomeend 3

/* Organism #4 Fitness: 9 Error: 1 */
genomestart 4
trait 1 0.1 0 0 0 0 0 0 0 
trait 2 0.2 0 0 0 0 0.478961 0.404612 0.380512 
trait 3 0.3 0 0 0 0 0 0 0 
node 1 1 1 3
node 2 3 1 1
node 3 3 1 1
node 4 2 0 2
gene 1 1 4 -5.02525 0 1 -5.02525 1
gene 1 2 4 -6.71843 0 2 -6.71843 1
gene 1 3 4 8 0 3 8 1
genomeend 4

/* Organism #5 Fitness: 8.99675 Error: 1.00054 */
genomestart 5
trait 1 0.1 0 0 0 0 0 0 0 
trait 2 0.2 0 0 0 0 0.478961 0.404612 0.380512 
trait 3 0.3 0 0 0 0 0 0 0 
node 1 1 1 3
node 2 3 1 1
node 3 3 1 1
node 4 2 0 2
gene 1 1 4 -6.47262 0 1 -6.47262 1
gene 1 2 4 -8 0 2 -8 1
gene 1 3 4 8 0 3 8 1
genomeend 5

/* Organism #6 Fitness: 6.59319 Error: 1.43228 */
genomestart 6
trait 1 0.1 0 0 0 0 0 0 0 
trait 2 0.2 0 0 0 0 0.478961 0.404612 0.380512 
trait 3 0.3 0 0 0 0 0 0 0 
node 1 1 1 3
node 2 3 1 1
node 3 3 1 1
node 4 2 0 2
node 89 1 0 0
gene 1 1 4 -4.05535 0 1 -4.05535 1
gene 1 2 4 -8 0 2 -8 1
gene 1 3 4 8 0 3 8 0
gene 1 3 89 1 0 256 0 1
gene 1 89 4 8 0 257 0 1
genomeend 6

/* Organism #7 Fitness: 1.00384 Error: 2.99808 */
genomestart 7
trait 1 0.1 0 0 0 0 0 0 0 
trait 2 0.2 0 0 0 0 0.478961 0.404612 0.380512 
trait 3 0.3 0 0 0 0 0 0 0 
node 1 1 1 3
node 2 3 1 1
node 3 3 1 1
node 4 2 0 2
gene 1 1 4 1.41092 0 1 1.41092 1
gene 1 2 4 -8 0 2 -8 1
gene 1 3 4 8 0 3 8 1
genomeend 7

/* Species #3 : (Size 7) (AF 8.28536) (Age 30)  */


/* Organism #8 Fitness: 9 Error: 1 */
genomestart 8
trait 1 0.142528 0.00256664 0 0 0.0673902 0 0 0 
trait 2 0.2 0 0 0 0 0 0 0 
trait 3 0.3 0.0389629 0 0.377502 0 0 0 0 
node 1 2 1 3
node 2 1 1 1
node 3 2 1 1
node 4 1 0 2
node 8 1 0 0
gene 2 1 4 3.94875 0 1 3.94875 1
gene 2 2 4 -7.85597 0 2 -7.85597 1
gene 2 3 4 -0.853802 0 3 -0.853802 0
gene 2 3 8 -8 0 10 -8 1
gene 3 8 4 8 0 11 8 1
gene 1 2 8 4.72191 0 136 4.72191 1
gene 1 1 8 1.52827 0 171 1.52827 1
genomeend 8

/* Organism #9 Fitness: 9 Error: 1 */
genomestart 9
trait 1 0.163792 0.00213886 0 0 0.0673902 0 0 0 
trait 2 0.2 0 0 0 0 0 0 0 
trait 3 0.3 0.0389629 0 0.377502 0 0 0 0 
node 1 2 1 3
node 2 1 1 1
node 3 2 1 1
node 4 1 0 2
node 8 1 0 0
gene 2 1 4 3.94875 0 1 3.94875 1
gene 2 2 4 -7.68073 0 2 -7.68073 1
gene 2 3 4 -0.853802 0 3 -0.853802 0
gene 2 3 8 -7.83768 0 10 -7.83768 1
gene 3 8 4 8 0 11 8 1
gene 1 2 8 4.61168 0 136 4.61168 1
gene 1 1 8 1.52827 0 171 1.52827 1
genomeend 9

/* Organism #10 Fitness: 9 Error: 1 */
genomestart 10
trait 1 0.163792 0.00213886 0 0 0.0673902 0 0 0 
trait 2 0.2 0 0 0 0 0 0 0 
trait 3 0.3 0.0389629 0 0.377502 0 0 0 0 
node 1 2 1 3
node 2 1 1 1
node 3 2 1 1
node 4 1 0 2
node 8 1 0 0
gene 2 1 4 3.94875 0 1 3.94875 1
gene 2 2 4 -7.68073 0 2 -7.68073 1
gene 2 3 4 -0.853802 0 3 -0.853802 0
gene 2 3 8 -7.83768 0 10 -7.83768 1
gene 3 8 4 8 0 11 8 1
gene 1 2 8 4.61168 0 136 4.61168 1
gene 1 1 8 1.52827 0 171 1.52827 1
genomeend 10

/* Organism #11 Fitness: 9 Error: 1 */
genomestart 11
trait 1 0.163792 0.00213886 0 0 0.0673902 0 0 0 
trait 2 0.2 0 0 0 0 0 0 0 
trait 3 0.3 0.0389629 0 0.377502 0 0 0 0 
node 1 2 1 3
node 2 1 1 1
node 3 2 1 1
node 4 1 0 2
node 8 1 0 0
gene 2 1 4 3.94875 0 1 3.94875 1
gene 2 2 4 -7.68073 0 2 -7.68073 1
gene 2 3 4 -0.853802 0 3 -0.853802 0
gene 2 3 8 -7.83768 0 10 -7.83768 1
gene 3 8 4 8 0 11 8 1
gene 1 2 8 4.61168 0 136 4.61168 1
gene 1 1 8 1.52827 0 171 1.52827 1
genomeend 11

/* Organism #12 Fitness: 8.99812 Error: 1.00031 */
genomestart 12
trait 1 0.185056 0.00171109 0 0 0.0673902 0 0 0 
trait 2 0.2 0 0 0 0 0 0 0 
trait 3 0.3 0.0389629 0 0.377502 0 0 0 0 
node 1 2 1 3
node 2 1 1 1
node 3 2 1 1
node 4 1 0 2
node 8 1 0 0
gene 2 1 4 2.44583 0 1 2.44583 1
gene 2 2 4 -8 0 2 -8 1
gene 2 3 4 1.27741 0 3 1.27741 0
gene 2 3 8 -5.44331 0 10 -5.44331 1
gene 3 8 4 7.19648 0 11 7.19648 1
gene 1 2 8 3.06379 0 136 3.06379 1
gene 1 1 8 0.619292 0 171 0.619292 1
genomeend 12

/* Organism #13 Fitness: 9 Error: 1 */
genomestart 13
trait 1 0.15316 0.00235275 0.154362 0.767857 0.177822 0 0 0.825084 
trait 2 0.2 0 0 0 0 0 0 0 
trait 3 0.3 0.0389629 0 0.377502 0 0 0 0 
node 1 2 1 3
node 2 1 1 1
node 3 2 1 1
node 4 1 0 2
node 8 1 0 0
gene 2 1 4 4.43515 0 1 4.43515 1
gene 2 2 4 -8 0 2 -8 1
gene 2 3 4 -2.83818 0 3 -2.83818 0
gene 2 3 8 -8 0 10 -8 1
gene 3 8 4 8 0 11 8 1
gene 1 2 8 4.83818 0 136 4.83818 1
gene 1 1 8 1.24834 0 171 1.24834 1
genomeend 13

/* Organism #14 Fitness: 3.99938 Error: 2.00015 */
genomestart 14
trait 1 0.163792 0.00213886 0 0 0.0673902 0 0 0 
trait 2 0.2 0 0 0 0 0 0 0 
trait 3 0.3 0.0389629 0 0.377502 0 0 0 0 
node 1 2 1 3
node 2 1 1 1
node 3 2 1 1
node 4 1 0 2
node 8 1 0 0
gene 2 1 4 1.76507 0 1 1.76507 1
gene 2 2 4 -7.36646 0 2 -7.36646 1
gene 2 3 4 -1.95256 0 3 -1.95256 0
gene 2 3 8 -5.88166 0 10 -5.88166 1
gene 3 8 4 8 0 11 8 1
gene 1 2 8 -2.4353 0 136 -2.4353 1
gene 1 1 8 -0.548182 0 171 -0.548182 1
genomeend 14

/* Species #4 : (Size 10) (AF 8.4537) (Age 27)  */


/* Organism #15 Fitness: 9 Error: 1 */
genomestart 15
trait 1 0.1 0 0 0 0 0 0 0.671136 
trait 2 0.2 0 0 0 0 0 0 0 
trait 3 0.3 0 0 0 0 0 0 0 
node 1 1 1 3
node 2 3 1 1
node 3 1 1 1
node 4 2 0 2
node 11 1 0 0
gene 3 1 4 0.197264 0 1 0.197264 1
gene 3 2 4 7.12248 0 2 7.12248 1
gene 3 3 4 -7.41128 0 3 -7.41128 1
gene 1 3 11 8 0 19 8 1
gene 1 11 4 -7.93432 0 20 -7.93432 1
gene 3 2 11 -4.79374 0 27 -4.79374 1
gene 2 1 11 3.82982 0 130 3.82982 1
genomeend 15

/* Organism #16 Fitness: 8.26378 Error: 1.12532 */
genomestart 16
trait 1 0.1 0 0 0 0 0 0 0.671136 
trait 2 0.2 0 0 0 0 0 0 0 
trait 3 0.3 0 0 0 0 0 0 0 
node 1 1 1 3
node 2 3 1 1
node 3 1 1 1
node 4 2 0 2
node 11 1 0 0
gene 3 1 4 -0.621846 0 1 -0.621846 1
gene 3 2 4 6.36807 0 2 6.36807 1
gene 3 3 4 -7.74213 0 3 -7.74213 1
gene 1 3 11 8 0 19 8 1
gene 1 11 4 0.226968 0 20 0.226968 1
gene 3 2 11 -3.579 0 27 -3.579 1
gene 2 1 11 3.41186 0 130 3.41186 1
genomeend 16

/* Organism #17 Fitness: 9 Error: 1 */
genomestart 17
trait 1 0.1 0 0 0 0 0 0 0.671136 
trait 2 0.2 0 0 0 0 0 0 0 
trait 3 0.3 0 0 0 0 0 0 0 
node 1 1 1 3
node 2 3 1 1
node 3 1 1 1
node 4 2 0 2
node 11 1 0 0
gene 3 1 4 -0.00190197 0 1 -0.00190197 1
gene 3 2 4 7.56124 0 2 7.56124 1
gene 3 3 4 -7.70564 0 3 -7.70564 1
gene 1 3 11 8 0 19 8 1
gene 1 11 4 -7.93432 0 20 -7.93432 1
gene 3 2 11 -5.27559 0 27 -5.27559 1
gene 2 1 11 3.50693 0 130 3.50693 1
genomeend 17

/* Organism #18 Fitness: 9 Error: 1 */
genomestart 18
trait 1 0.1 0 0 0 0 0 0 0.671136 
trait 2 0.2 0 0 0 0 0 0 0 
trait 3 0.3 0 0 0 0 0 0 0 
node 1 1 1 3
node 2 3 1 1
node 3 1 1 1
node 4 2 0 2
node 11 1 0 0
gene 3 1 4 0.197264 0 1 0.197264 1
gene 3 2 4 8 0 2 8 1
gene 3 3 4 -8 0 3 -8 1
gene 1 3 11 8 0 19 8 1
gene 1 11 4 -7.93432 0 20 -7.93432 1
gene 3 2 11 -5.75745 0 27 -5.75745 1
gene 2 1 11 3.82982 0 130 3.82982 1
genomeend 18

/* Organism #19 Fitness: 4.93283 Error: 1.779 */
genomestart 19
trait 1 0.1 0 0 0 0 0 0 0.671136 
trait 2 0.2 0 0 0 0 0 0 0 
trait 3 0.3 0 0 0 0 0 0 0 
node 1 1 1 3
node 2 3 1 1
node 3 1 1 1
node 4 2 0 2
node 11 1 0 0
gene 3 1 4 0.137756 0 1 0.137756 1
gene 3 2 4 6.53697 0 2 6.53697 1
gene 3 3 4 -8 0 3 -8 1
gene 1 3 11 8 0 19 8 1
gene 1 11 4 -6.93058 0 20 -6.93058 1
gene 3 2 11 2.22617 0 27 2.22617 1
gene 2 1 11 1.5106 0 130 1.5106 1
genomeend 19

/* Organism #20 Fitness: 8.99879 Error: 1.0002 */
genomestart 20
trait 1 0.1 0 0 0 0 0 0 0.671136 
trait 2 0.2 0 0 0 0 0 0 0 
trait 3 0.3 0 0 0 0 0 0 0 
node 1 1 1 3
node 2 3 1 1
node 3 1 1 1
node 4 2 0 2
node 11 1 0 0
gene 3 1 4 -2.20832 0 1 -2.20832 1
gene 3 2 4 8 0 2 8 1
gene 3 3 4 0.480966 0 3 0.480966 1
gene 1 3 11 8 0 19 8 1
gene 1 11 4 -8 0 20 -8 1
gene 3 2 11 -2.98007 0 27 -2.98007 1
gene 2 1 11 1.83485 0 130 1.83485 1
genomeend 20

/* Organism #21 Fitness: 9 Error: 1 */
genomestart 21
trait 1 0.1 0 0 0 0 0 0 0.671136 
trait 2 0.2 0 0 0 0 0 0 0 
trait 3 0.3 0 0 0 0 0 0 0 
node 1 1 1 3
node 2 3 1 1
node 3 1 1 1
node 4 2 0 2
node 11 1 0 0
gene 3 1 4 -0.201068 0 1 -0.201068 1
gene 3 2 4 7.12248 0 2 7.12248 1
gene 3 3 4 -7.41128 0 3 -7.41128 1
gene 1 3 11 8 0 19 8 1
gene 1 11 4 -7.93432 0 20 -7.93432 1
gene 3 2 11 -5.75745 0 27 -5.75745 1
gene 2 1 11 3.82982 0 130 3.82982 1
genomeend 21

/* Organism #22 Fitness: 9 Error: 1 */
genomestart 22
trait 1 0.1 0 0 0 0 0 0 0.671136 
trait 2 0.2 0 0 0 0 0 0 0 
trait 3 0.3 0 0 0 0 0 0 0 
node 1 1 1 3
node 2 3 1 1
node 3 1 1 1
node 4 2 0 2
node 11 1 0 0
gene 3 1 4 -1.39287 0 1 -1.39287 1
gene 3 2 4 5.46278 0 2 5.46278 1
gene 3 3 4 -5.76045 0 3 -5.76045 1
gene 1 3 11 8 0 19 8 1
gene 1 11 4 -7.78791 0 20 -7.78791 1
gene 3 2 11 -6.12001 0 27 -6.12001 1
gene 2 1 11 5.59814 0 130 5.59814 1
genomeend 22

/* Organism #23 Fitness: 9 Error: 1 */
genomestart 23
trait 1 0.1 0 0 0 0 0 0 0.671136 
trait 2 0.2 0 0 0 0 0 0 0 
trait 3 0.3 0 0 0 0 0 0 0 
node 1 1 1 3
node 2 3 1 1
node 3 1 1 1
node 4 2 0 2
node 11 1 0 0
gene 3 1 4 0.197264 0 1 0.197264 1
gene 3 2 4 7.12248 0 2 7.12248 1
gene 3 3 4 -7.41128 0 3 -7.41128 1
gene 1 3 11 8 0 19 8 1
gene 1 11 4 -7.93432 0 20 -7.93432 1
gene 3 2 11 -4.79374 0 27 -4.79374 1
gene 2 1 11 3.82982 0 130 3.82982 1
genomeend 23

/* Organism #24 Fitness: 8.34164 Error: 1.11181 */
genomestart 24
trait 1 0.1 0 0 0 0 0 0 0.671136 
trait 2 0.2 0 0 0 0 0 0 0 
trait 3 0.3 0 0 0 0 0 0 0 
node 1 1 1 3
node 2 3 1 1
node 3 1 1 1
node 4 2 0 2
node 11 1 0 0
gene 3 1 4 1.94612 0 1 1.94612 1
gene 3 2 4 5.88422 0 2 5.88422 1
gene 3 3 4 -5.62072 0 3 -5.62072 1
gene 1 3 11 8 0 19 8 1
gene 1 11 4 -7.40949 0 20 -7.40949 1
gene 3 2 11 -2.70666 0 27 -2.70666 1
gene 2 1 11 6.24187 0 130 6.24187 1
genomeend 24

/* Species #5 : (Size 5) (AF 5.81113) (Age 27)  */


/* Organism #25 Fitness: 1.04873 Error: 2.97593 */
genomestart 25
trait 1 0.1 0 0 0 0 0 0 0 
trait 2 0.499709 0.314148 0 0.997552 0 0 0 0.713728 
trait 3 0.3 0.207802 0 0.893616 0 0 0 0 
node 1 2 1 3
node 2 1 1 1
node 3 2 1 1
node 4 3 0 2
node 8 1 0 0
node 10 1 0 0
node 20 1 0 0
gene 2 1 4 2.81413 0 1 2.81413 1
gene 2 2 4 -7.26075 0 2 -7.26075 0
gene 2 3 4 -4.048 0 3 -4.048 1
gene 2 3 8 0.426349 0 10 0.426349 1
gene 3 8 4 2.61747 0 11 2.61747 1
gene 2 2 10 -8 0 17 -8 1
gene 2 10 4 -2.00886 0 18 -2.00886 1
gene 2 10 20 6.96074 0 52 6.96074 0
gene 2 20 4 -0.435664 0 53 -0.435664 1
gene 1 2 8 1.44237 0 152 1.44237 1
gene 1 1 10 0.512234 0 209 0.512234 1
genomeend 25

/* Organism #26 Fitness: 8.99765 Error: 1.00039 */
genomestart 26
trait 1 0.1 0 0 0 0 0 0 0 
trait 2 0.584921 0 0 0.997552 0 0 0 0.713728 
trait 3 0.3 0.207802 0 0.893616 0 0 0 0 
node 1 2 1 3
node 2 1 1 1
node 3 2 1 1
node 4 1 0 2
node 8 1 0 0
node 10 1 0 0
node 20 1 0 0
gene 2 1 4 1.68623 0 1 1.68623 1
gene 2 2 4 -3.44426 0 2 -3.44426 0
gene 2 3 4 -6.38948 0 3 -6.38948 1
gene 2 3 8 -2.84141 0 10 -2.84141 1
gene 2 8 4 2.51705 0 11 2.51705 1
gene 2 2 10 -4.8707 0 17 -4.8707 1
gene 2 10 4 -2.26558 0 18 -2.26558 1
gene 2 10 20 4.05346 0 52 4.05346 1
gene 2 20 4 -2.42572 0 53 -2.42572 1
gene 1 2 8 -0.00142106 0 152 -0.00142106 1
gene 1 1 10 1.18755 0 209 1.18755 1
genomeend 26

/* Organism #27 Fitness: 5.14032 Error: 1.73277 */
genomestart 27
trait 1 0.1 0 0 0 0 0 0 0 
trait 2 0.499709 0.314148 0 0.997552 0 0 0 0.713728 
trait 3 0.3 0.207802 0 0.893616 0 0 0 0 
node 1 2 1 3
node 2 1 1 1
node 3 2 1 1
node 4 3 0 2
node 8 1 0 0
node 10 1 0 0
node 20 1 0 0
gene 2 1 4 2.42509 0 1 2.42509 1
gene 2 2 4 -0.667689 0 2 -0.667689 0
gene 2 3 4 -5.03722 0 3 -5.03722 1
gene 2 3 8 -2.50109 0 10 -2.50109 1
gene 2 8 4 2.33667 0 11 2.33667 1
gene 2 2 10 -8 0 17 -8 1
gene 2 10 4 -3.66057 0 18 -3.66057 1
gene 2 10 20 4.30247 0 52 4.30247 0
gene 2 20 4 -3.87446 0 53 -3.87446 1
gene 1 2 8 1.11621 0 152 1.11621 1
gene 1 1 10 0.512234 0 209 0.512234 1
genomeend 27

/* Organism #28 Fitness: 6.25062 Error: 1.49988 */
genomestart 28
trait 1 0.1 0 0 0 0 0 0 0 
trait 2 0.801456 0 0.345505 0.997552 0 0 0 0.713728 
trait 3 0.3 0.207802 0 0.893616 0 0 0 0 
node 1 2 1 3
node 2 1 1 1
node 3 2 1 1
node 4 1 0 2
node 8 1 0 0
node 10 1 0 0
node 20 1 0 0
gene 2 1 4 2.09291 0 1 2.09291 1
gene 2 2 4 -1.02244 0 2 -1.02244 0
gene 2 3 4 -3.9671 0 3 -3.9671 1
gene 2 3 8 -0.238161 0 10 -0.238161 1
gene 2 8 4 0.956791 0 11 0.956791 1
gene 2 2 10 -5.72333 0 17 -5.72333 1
gene 2 10 4 -5.12812 0 18 -5.12812 1
gene 2 10 20 5.16586 0 52 5.16586 0
gene 2 20 4 -0.644848 0 53 -0.644848 1
gene 1 2 8 2.07434 0 152 2.07434 1
gene 1 1 10 0.00255347 0 209 0.00255347 1
genomeend 28

/* Organism #29 Fitness: 7.61831 Error: 1.23987 */
genomestart 29
trait 1 0.1 0 0 0 0 0 0 0 
trait 2 0.499709 0.314148 0 0.997552 0 0 0 0.713728 
trait 3 0.3 0.207802 0 0.893616 0 0 0 0 
node 1 2 1 3
node 2 1 1 1
node 3 2 1 1
node 4 1 0 2
node 8 1 0 0
node 10 1 0 0
node 20 1 0 0
gene 2 1 4 2.05198 0 1 2.05198 1
gene 2 2 4 -0.252709 0 2 -0.252709 0
gene 2 3 4 -4.40699 0 3 -4.40699 1
gene 2 3 8 -1.35311 0 10 -1.35311 1
gene 2 8 4 2.90387 0 11 2.90387 1
gene 2 2 10 -7.94799 0 17 -7.94799 1
gene 2 10 4 -3.23275 0 18 -3.23275 1
gene 2 10 20 6.6316 0 52 6.6316 0
gene 2 20 4 -2.36291 0 53 -2.36291 1
gene 1 2 8 2.7063 0 152 2.7063 1
gene 1 1 10 0.512234 0 209 0.512234 1
gene 1 8 20 -0.108617 0 258 -0.108617 1
genomeend 29

/* Species #6 : (Size 5) (AF 5.54528) (Age 27)  */


/* Organism #30 Fitness: 8.72159 Error: 1.04677 */
genomestart 30
trait 1 0.1 0.0136887 0 0 0 0 0 0 
trait 2 0.2 0 0 0 0 0 0 0 
trait 3 0.3 0 0 0 0 0 0 0 
node 1 2 1 3
node 2 1 1 1
node 3 3 1 1
node 4 1 0 2
node 8 1 0 0
node 12 1 0 0
gene 2 1 4 2.53564 0 1 2.53564 1
gene 2 2 4 -6.72662 0 2 -6.72662 1
gene 2 3 4 -3.23216 0 3 -3.23216 1
gene 3 3 8 1.30146 0 10 1.30146 0
gene 2 8 4 8 0 11 8 1
gene 2 3 12 -1.51342 0 22 -1.51342 1
gene 2 12 8 1.3746 0 23 1.3746 1
gene 1 1 12 3.83028 0 101 3.83028 1
gene 1 1 8 -1.02015 0 171 -1.02015 1
genomeend 30

/* Organism #31 Fitness: 4 Error: 2 */
genomestart 31
trait 1 0 0 0.510789 0 0 0 0 0 
trait 2 0.2 0 0 0 0 0 0 0 
trait 3 0.3 0 0 0 0 0 0 0 
node 1 2 1 3
node 2 1 1 1
node 3 3 1 1
node 4 1 0 2
node 8 1 0 0
node 12 1 0 0
gene 2 1 4 5.55203 0 1 5.55203 1
gene 2 2 4 -0.793092 0 2 -0.793092 1
gene 2 3 4 -1.48183 0 3 -1.48183 1
gene 3 3 8 4.60219 0 10 4.60219 0
gene 2 8 4 5.56392 0 11 5.56392 1
gene 2 3 12 3.26308 0 22 3.26308 1
gene 2 12 8 1.49197 0 23 1.49197 1
gene 1 1 12 5.60383 0 101 5.60383 1
gene 1 1 8 -0.328756 0 171 -0.328756 1
genomeend 31

/* Organism #32 Fitness: 2.00449 Error: 2.5842 */
genomestart 32
trait 1 0.05 0.00684437 0.255394 0 0 0 0 0 
trait 2 0.2 0 0 0 0 0 0 0 
trait 3 0.225541 0 0.693545 0 0 0 0.125315 0 
node 1 2 1 3
node 2 1 1 1
node 3 3 1 1
node 4 3 0 2
node 8 1 0 0
node 12 1 0 0
gene 3 1 4 3.54179 0 1 3.54179 1
gene 2 2 4 -3.80523 0 2 -3.80523 1
gene 2 3 4 -3.82184 0 3 -3.82184 1
gene 3 3 8 1.58355 0 10 1.58355 0
gene 2 8 4 5.91353 0 11 5.91353 1
gene 2 3 12 -0.574758 0 22 -0.574758 1
gene 2 12 8 -1.21414 0 23 -1.21414 1
gene 1 1 12 3.41139 0 101 3.41139 1
gene 1 1 8 -1.98656 0 171 -1.98656 1
genomeend 32

/* Organism #33 Fitness: 4.00034 Error: 1.99992 */
genomestart 33
trait 1 0.1 0.0136887 0 0 0 0 0 0 
trait 2 0.2 0 0 0 0 0 0 0 
trait 3 0.3 0 0 0 0 0 0 0 
node 1 2 1 3
node 2 1 1 1
node 3 3 1 1
node 4 1 0 2
node 8 1 0 0
node 12 1 0 0
gene 2 1 4 3.66971 0 1 3.66971 1
gene 2 2 4 -6.19441 0 2 -6.19441 1
gene 2 3 4 -6.48013 0 3 -6.48013 1
gene 3 3 8 -1.4685 0 10 -1.4685 0
gene 2 8 4 8 0 11 8 1
gene 2 3 12 -2.25177 0 22 -2.25177 1
gene 2 12 8 1.97024 0 23 1.97024 1
gene 1 1 12 0.0809384 0 101 0.0809384 1
gene 1 1 8 -0.417808 0 171 -0.417808 1
genomeend 33

/* Organism #34 Fitness: 8.99998 Error: 1 */
genomestart 34
trait 1 0.05 0.00684437 0.255394 0 0 0 0 0 
trait 2 0.2 0 0 0 0 0 0 0 
trait 3 0.3 0 0 0 0 0 0 0 
node 1 2 1 3
node 2 1 1 1
node 3 3 1 1
node 4 1 0 2
node 8 1 0 0
node 12 1 0 0
gene 2 1 4 4.99401 0 1 4.99401 1
gene 2 2 4 -6.07058 0 2 -6.07058 1
gene 2 3 4 -5.71157 0 3 -5.71157 1
gene 3 3 8 4.07999 0 10 4.07999 0
gene 2 8 4 6.73827 0 11 6.73827 1
gene 2 3 12 1.82993 0 22 1.82993 1
gene 2 12 8 1.09198 0 23 1.09198 1
gene 1 1 12 3.40377 0 101 3.40377 1
gene 1 1 8 -1.05286 0 171 -1.05286 1
genomeend 34

/* Species #7 : (Size 10) (AF 7.70059) (Age 25)  */


/* Organism #35 Fitness: 9 Error: 1 */
genomestart 35
trait 1 0.05 0.143654 0 0 0 0 0 0 
trait 2 0.795824 0.228815 0 0.100492 0.48946 0 0.123787 0.537337 
trait 3 0.3 0 0 0 0 0 0 0 
node 1 1 1 3
node 2 1 1 1
node 3 1 1 1
node 4 2 0 2
gene 2 1 4 -3.89054 0 1 -3.89054 1
gene 2 2 4 7.85831 0 2 7.85831 1
gene 2 3 4 -8 0 3 -8 1
genomeend 35

/* Organism #36 Fitness: 9 Error: 1 */
genomestart 36
trait 1 0.05 0.143654 0 0 0 0 0 0 
trait 2 0.448351 0.919349 0.26268 0.64556 0.266155 0.101501 0.123787 0.537337 
trait 3 0.3 0 0 0 0 0 0 0 
node 1 1 1 3
node 2 1 1 1
node 3 1 1 1
node 4 2 0 2
gene 2 1 4 -3.89054 0 1 -3.89054 1
gene 2 2 4 7.85831 0 2 7.85831 1
gene 2 3 4 -8 0 3 -8 1
genomeend 36

/* Organism #37 Fitness: 6.01531 Error: 1.54739 */
genomestart 37
trait 1 0.05 0.143654 0 0 0 0 0 0 
trait 2 0.795824 0.228815 0 0.100492 0.48946 0 0.123787 0.537337 
trait 3 0.3 0 0 0 0 0 0 0 
node 1 1 1 3
node 2 1 1 1
node 3 1 1 1
node 4 2 0 2
node 90 1 0 0
gene 2 1 4 -3.89054 0 1 -3.89054 1
gene 2 2 4 7.85831 0 2 7.85831 0
gene 2 3 4 -8 0 3 -8 1
gene 2 2 90 1 0 259 0 1
gene 2 90 4 7.85831 0 260 0 1
genomeend 37

/* Organism #38 Fitness: 9 Error: 1 */
genomestart 38
trait 1 0.05 0.143654 0 0 0 0 0 0 
trait 2 0.795824 0.228815 0 0.100492 0.48946 0 0.123787 0.537337 
trait 3 0.3 0 0 0 0 0 0 0 
node 1 1 1 3
node 2 1 1 1
node 3 1 1 1
node 4 2 0 2
gene 2 1 4 -3.89054 0 1 -3.89054 1
gene 2 2 4 7.89831 0 2 7.89831 1
gene 2 3 4 -8 0 3 -8 1
genomeend 38

/* Organism #39 Fitness: 4 Error: 2 */
genomestart 39
trait 1 0.05 0.143654 0 0 0 0 0 0 
trait 2 0.622088 0.574082 0.13134 0.373026 0.377807 0.0507507 0.123787 0.537337 
trait 3 0.3 0 0 0 0 0 0 0 
node 1 1 1 3
node 2 1 1 1
node 3 1 1 1
node 4 2 0 2
gene 2 1 4 -3.85343 0 1 -3.85343 1
gene 2 2 4 0.993363 0 2 0.993363 1
gene 2 3 4 -8 0 3 -8 1
genomeend 39

/* Organism #40 Fitness: 4 Error: 2 */
genomestart 40
trait 1 0.05 0.143654 0 0 0 0 0 0 
trait 2 0.448351 0.919349 0.26268 0.64556 0.266155 0.101501 0.123787 0.537337 
trait 3 0.3 0 0 0 0 0 0 0 
node 1 1 1 3
node 2 1 1 1
node 3 1 1 1
node 4 2 0 2
gene 2 1 4 -2.75829 0 1 -2.75829 1
gene 2 2 4 8 0 2 8 1
gene 2 3 4 0.023222 0 3 0.023222 1
genomeend 40

/* Organism #41 Fitness: 9 Error: 1 */
genomestart 41
trait 1 0.05 0.143654 0 0 0 0 0 0 
trait 2 0.795824 0.228815 0 0.100492 0.48946 0 0.123787 0.537337 
trait 3 0.3 0 0 0 0 0 0 0 
node 1 1 1 3
node 2 1 1 1
node 3 1 1 1
node 4 2 0 2
gene 2 1 4 -4.94516 0 1 -4.94516 1
gene 2 2 4 8 0 2 8 1
gene 2 3 4 -8 0 3 -8 1
genomeend 41

/* Organism #42 Fitness: 9 Error: 1 */
genomestart 42
trait 1 0.05 0.143654 0 0 0 0 0 0 
trait 2 0.622088 0.574082 0.13134 0.373026 0.377807 0.0507507 0.123787 0.537337 
trait 3 0.3 0 0 0 0 0 0 0 
node 1 1 1 3
node 2 1 1 1
node 3 1 1 1
node 4 2 0 2
gene 2 1 4 -3.67034 0 1 -3.67034 1
gene 2 2 4 8 0 2 8 1
gene 2 3 4 -8 0 3 -8 1
genomeend 42

/* Organism #43 Fitness: 8.99667 Error: 1.00056 */
genomestart 43
trait 1 0.05 0.143654 0 0 0 0 0 0 
trait 2 0.795824 0.228815 0 0.100492 0.48946 0 0.123787 0.537337 
trait 3 0.3 0 0 0 0 0 0 0 
node 1 1 1 3
node 2 1 1 1
node 3 1 1 1
node 4 2 0 2
gene 1 1 4 -5.45484 0 1 -5.45484 1
gene 2 2 4 6.97684 0 2 6.97684 1
gene 2 3 4 -7.5516 0 3 -7.5516 1
genomeend 43

/* Organism #44 Fitness: 8.99393 Error: 1.00101 */
genomestart 44
trait 1 0.05 0.143654 0 0 0 0 0 0 
trait 2 0.448351 0.919349 0.26268 0.64556 0.266155 0.101501 0.123787 0.537337 
trait 3 0.3 0 0 0 0 0 0 0 
node 1 1 1 3
node 2 1 1 1
node 3 1 1 1
node 4 2 0 2
gene 2 1 4 -6.08999 0 1 -6.08999 1
gene 2 2 4 7.49026 0 2 7.49026 1
gene 2 3 4 -7.58921 0 3 -7.58921 1
genomeend 44

/* Species #8 : (Size 8) (AF 6.49024) (Age 25)  */


/* Organism #45 Fitness: 9 Error: 1 */
genomestart 45
trait 1 0.407538 0 0 0 0 0 0 0 
trait 2 0.15 0.169162 0 0.0292336 0.0505574 0.100507 0 0.0122611 
trait 3 0.3 0 0 0 0 0.899255 0 0.991618 
node 1 3 1 3
node 2 3 1 1
node 3 3 1 1
node 4 3 0 2
node 7 1 0 0
node 15 1 0 0
node 28 1 0 0
gene 1 1 4 -8 0 1 -8 1
gene 3 2 4 8 0 2 8 1
gene 2 3 4 -8 0 3 -8 1
gene 2 3 7 -3.56237 0 8 -3.56237 0
gene 2 7 4 4.04535 0 9 4.04535 1
gene 3 1 7 1.58945 0 24 1.58945 1
gene 2 3 15 3.9782 0 36 3.9782 1
gene 2 15 7 -1.02329 0 37 -1.02329 1
gene 2 15 28 -1.07927 0 71 -1.07927 1
gene 2 28 7 -1.82307 0 72 -1.82307 1
genomeend 45

/* Organism #46 Fitness: 4.00008 Error: 1.99998 */
genomestart 46
trait 1 0.407538 0 0 0 0 0 0 0 
trait 2 0.15 0.169162 0 0.0292336 0.0505574 0.100507 0 0.0122611 
trait 3 0.3 0 0 0 0 0.899255 0 0.991618 
node 1 3 1 3
node 2 3 1 1
node 3 3 1 1
node 4 3 0 2
node 7 1 0 0
node 15 1 0 0
node 28 1 0 0
gene 1 1 4 -8 0 1 -8 1
gene 3 2 4 8 0 2 8 1
gene 2 3 4 -1.73964 0 3 -1.73964 1
gene 2 3 7 -1.21165 0 8 -1.21165 0
gene 2 7 4 -2.20337 0 9 -2.20337 1
gene 3 1 7 3.07316 0 24 3.07316 1
gene 2 3 15 1.52315 0 36 1.52315 1
gene 2 15 7 -1.05665 0 37 -1.05665 1
gene 2 15 28 -2.86901 0 71 -2.86901 1
gene 2 28 7 0.415773 0 72 0.415773 1
genomeend 46

/* Organism #47 Fitness: 6.25748 Error: 1.4985 */
genomestart 47
trait 1 0.407538 0 0 0 0 0 0 0 
trait 2 0.15 0.169162 0 0.0292336 0.0505574 0.100507 0 0.0122611 
trait 3 0.3 0 0 0 0 0.899255 0 0.991618 
node 1 3 1 3
node 2 3 1 1
node 3 3 1 1
node 4 3 0 2
node 7 1 0 0
node 15 1 0 0
node 28 1 0 0
gene 1 1 4 -8 0 1 -8 1
gene 3 2 4 8 0 2 8 1
gene 2 3 4 -6.61947 0 3 -6.61947 1
gene 2 3 7 -1.91146 0 8 -1.91146 0
gene 2 7 4 5.26179 0 9 5.26179 1
gene 3 1 7 -0.455163 0 24 -0.455163 1
gene 2 3 15 5.68328 0 36 5.68328 1
gene 2 15 7 -2.49018 0 37 -2.49018 1
gene 2 15 28 -3.75966 0 71 -3.75966 1
gene 2 28 7 -0.428329 0 72 -0.428329 1
genomeend 47

/* Organism #48 Fitness: 4.00117 Error: 1.99971 */
genomestart 48
trait 1 0.407538 0 0 0 0 0 0 0 
trait 2 0.15 0.169162 0 0.0292336 0.0505574 0.100507 0 0.0122611 
trait 3 0.3 0 0 0 0 0.899255 0 0.991618 
node 1 3 1 3
node 2 3 1 1
node 3 3 1 1
node 4 3 0 2
node 7 1 0 0
node 15 1 0 0
node 28 1 0 0
gene 1 1 4 -7.25392 0 1 -7.25392 1
gene 3 2 4 5.64505 0 2 5.64505 1
gene 2 3 4 -0.282428 0 3 -0.282428 1
gene 2 3 7 2.09044 0 8 2.09044 0
gene 2 7 4 2.3969 0 9 2.3969 1
gene 3 1 7 0.0905104 0 24 0.0905104 1
gene 2 3 15 4.92207 0 36 4.92207 1
gene 2 15 7 -2.45729 0 37 -2.45729 1
gene 2 15 28 0.835047 0 71 0.835047 1
gene 2 28 7 0.0554389 0 72 0.0554389 1
genomeend 48

/* Organism #49 Fitness: 9 Error: 1 */
genomestart 49
trait 1 0.407538 0 0 0 0 0 0 0 
trait 2 0.15 0.169162 0.463831 0.0292336 0.529371 0.100507 0 0.0122611 
trait 3 0.3 0 0 0 0 0.899255 0 0.991618 
node 1 3 1 3
node 2 3 1 1
node 3 3 1 1
node 4 3 0 2
node 7 1 0 0
node 15 1 0 0
node 28 1 0 0
gene 1 1 4 -6.64132 0 1 -6.64132 1
gene 3 2 4 8 0 2 8 1
gene 2 3 4 -6.1964 0 3 -6.1964 1
gene 2 3 7 -4.26399 0 8 -4.26399 0
gene 2 7 4 1.89635 0 9 1.89635 1
gene 3 1 7 1.00486 0 24 1.00486 1
gene 2 3 15 4.02461 0 36 4.02461 1
gene 2 15 7 0.0573219 0 37 0.0573219 1
gene 2 15 28 -0.974559 0 71 -0.974559 1
gene 2 28 7 -1.20271 0 72 -1.20271 1
genomeend 49

/* Organism #50 Fitness: 8.99999 Error: 1 */
genomestart 50
trait 1 0.407538 0 0 0 0 0 0 0 
trait 2 0.15 0.169162 0 0.0292336 0.0505574 0.100507 0 0.0122611 
trait 3 0.3 0 0 0 0 0.899255 0 0.991618 
node 1 3 1 3
node 2 3 1 1
node 3 3 1 1
node 4 3 0 2
node 7 1 0 0
node 15 1 0 0
node 28 1 0 0
gene 1 1 4 -6.33334 0 1 -6.33334 1
gene 3 2 4 5.61416 0 2 5.61416 1
gene 2 3 4 -7.49625 0 3 -7.49625 1
gene 2 3 7 -1.33421 0 8 -1.33421 0
gene 2 7 4 3.58018 0 9 3.58018 1
gene 3 1 7 2.86303 0 24 2.86303 1
gene 2 3 15 4.16065 0 36 4.16065 1
gene 2 15 7 -2.7803 0 37 -2.7803 1
gene 2 15 28 -0.906536 0 71 -0.906536 1
gene 2 28 7 -1.88164 0 72 -1.88164 1
genomeend 50

/* Organism #51 Fitness: 1.66323 Error: 2.71034 */
genomestart 51
trait 1 0.407538 0 0 0 0 0 0 0 
trait 2 0.15 0.169162 0 0.0292336 0.0505574 0.100507 0 0.0122611 
trait 3 0.3 0 0 0 0 0.899255 0 0.991618 
node 1 3 1 3
node 2 3 1 1
node 3 3 1 1
node 4 3 0 2
node 7 1 0 0
node 15 1 0 0
node 28 1 0 0
gene 1 1 4 -8 0 1 -8 1
gene 3 2 4 6.3504 0 2 6.3504 1
gene 2 3 4 1.83205 0 3 1.83205 1
gene 2 3 7 -4.32577 0 8 -4.32577 0
gene 2 7 4 -1.73437 0 9 -1.73437 1
gene 3 1 7 -2.12223 0 24 -2.12223 1
gene 2 3 15 2.00482 0 36 2.00482 1
gene 2 15 7 -3.35157 0 37 -3.35157 1
gene 2 15 28 -2.14372 0 71 -2.14372 1
gene 2 28 7 -2.43629 0 72 -2.43629 1
genomeend 51

/* Organism #52 Fitness: 8.99999 Error: 1 */
genomestart 52
trait 1 0.407538 0 0 0 0 0 0 0 
trait 2 0.15 0.169162 0 0.0292336 0.0505574 0.100507 0 0.0122611 
trait 3 0.3 0 0 0 0 0.899255 0 0.991618 
node 1 3 1 3
node 2 3 1 1
node 3 3 1 1
node 4 3 0 2
node 7 1 0 0
node 15 1 0 0
node 28 1 0 0
node 86 1 0 0
gene 1 1 4 -5.50827 0 1 -5.50827 1
gene 3 2 4 7.24102 0 2 7.24102 1
gene 2 3 4 -7.02275 0 3 -7.02275 1
gene 2 3 7 2.11282 0 8 2.11282 0
gene 2 7 4 7.04362 0 9 7.04362 0
gene 3 1 7 0.208129 0 24 0.208129 1
gene 2 3 15 3.91028 0 36 3.91028 1
gene 2 15 7 -0.371009 0 37 -0.371009 1
gene 2 15 28 -4.36557 0 71 -4.36557 1
gene 2 28 7 -2.70531 0 72 -2.70531 1
gene 2 7 86 5.51973 0 244 5.51973 1
gene 2 86 4 0.927881 0 245 0.927881 1
genomeend 52

/* Species #9 : (Size 8) (AF 7.40201) (Age 24)  */


/* Organism #53 Fitness: 9 Error: 1 */
genomestart 53
trait 1 0.1 0 0 0 0 0 0 0 
trait 2 0.207637 0.0891511 0 0 0 0 0 0.0133123 
trait 3 0.3 0 0 0 0 0 0 0 
node 1 3 1 3
node 2 3 1 1
node 3 1 1 1
node 4 3 0 2
node 7 1 0 0
gene 1 1 4 -3.73172 0 1 -3.73172 1
gene 3 2 4 2.98379 0 2 2.98379 1
gene 3 3 4 -8 0 3 -8 1
gene 2 3 7 1.32108 0 8 1.32108 1
gene 2 7 4 5.01839 0 9 5.01839 1
gene 3 1 7 -5.72781 0 34 -5.72781 1
gene 2 2 7 6.98454 0 43 6.98454 1
genomeend 53

/* Organism #54 Fitness: 4.88997 Error: 1.78867 */
genomestart 54
trait 1 0.1 0 0 0 0 0 0 0 
trait 2 0.207637 0.0891511 0 0 0 0 0 0.0133123 
trait 3 0.3 0 0 0 0 0 0 0 
node 1 3 1 3
node 2 3 1 1
node 3 1 1 1
node 4 3 0 2
node 7 1 0 0
gene 1 1 4 -3.65582 0 1 -3.65582 1
gene 3 2 4 4.51082 0 2 4.51082 1
gene 3 3 4 -6.75394 0 3 -6.75394 1
gene 2 3 7 -0.356635 0 8 -0.356635 1
gene 2 7 4 6.16637 0 9 6.16637 1
gene 3 1 7 -2.62061 0 34 -2.62061 1
gene 2 2 7 7.27839 0 43 7.27839 1
genomeend 54

/* Organism #55 Fitness: 4.00004 Error: 1.99999 */
genomestart 55
trait 1 0.1 0 0 0 0 0 0 0 
trait 2 0.207637 0.0891511 0 0 0 0 0 0.0133123 
trait 3 0.3 0 0 0 0 0 0 0 
node 1 3 1 3
node 2 3 1 1
node 3 1 1 1
node 4 3 0 2
node 7 1 0 0
gene 1 1 4 -5.42187 0 1 -5.42187 1
gene 3 2 4 2.96539 0 2 2.96539 1
gene 3 3 4 -6.3405 0 3 -6.3405 1
gene 2 3 7 -1.31543 0 8 -1.31543 1
gene 2 7 4 3.7609 0 9 3.7609 1
gene 3 1 7 -6.67736 0 34 -6.67736 1
gene 2 2 7 5.95289 0 43 5.95289 1
genomeend 55

/* Organism #56 Fitness: 8.99999 Error: 1 */
genomestart 56
trait 1 0.1 0 0 0 0 0 0 0 
trait 2 0.207637 0.0891511 0 0 0 0 0 0.0133123 
trait 3 0.3 0 0 0 0 0 0 0 
node 1 3 1 3
node 2 3 1 1
node 3 1 1 1
node 4 3 0 2
node 7 1 0 0
gene 1 1 4 -3.1874 0 1 -3.1874 1
gene 3 2 4 3.28095 0 2 3.28095 1
gene 3 3 4 -7.04995 0 3 -7.04995 1
gene 2 3 7 -0.401118 0 8 -0.401118 1
gene 2 7 4 2.7002 0 9 2.7002 1
gene 3 1 7 -3.57402 0 34 -3.57402 1
gene 2 2 7 6.98454 0 43 6.98454 1
genomeend 56

/* Organism #57 Fitness: 9 Error: 1 */
genomestart 57
trait 1 0.1 0 0 0 0 0 0 0 
trait 2 0.207637 0.0891511 0 0 0 0 0 0.0133123 
trait 3 0.3 0 0 0 0 0 0 0 
node 1 3 1 3
node 2 3 1 1
node 3 1 1 1
node 4 3 0 2
node 7 1 0 0
gene 1 1 4 -4.35159 0 1 -4.35159 1
gene 3 2 4 3.65907 0 2 3.65907 1
gene 3 3 4 -6.77123 0 3 -6.77123 1
gene 2 3 7 1.35101 0 8 1.35101 1
gene 2 7 4 4.02935 0 9 4.02935 1
gene 3 1 7 -2.86725 0 34 -2.86725 1
gene 2 2 7 6.89419 0 43 6.89419 1
genomeend 57

/* Organism #58 Fitness: 5.32615 Error: 1.69215 */
genomestart 58
trait 1 0.1 0 0 0 0 0 0 0 
trait 2 0.207637 0.0891511 0 0 0 0 0 0.0133123 
trait 3 0.3 0 0 0 0 0 0 0 
node 1 3 1 3
node 2 3 1 1
node 3 1 1 1
node 4 3 0 2
node 7 1 0 0
gene 1 1 4 -4.06811 0 1 -4.06811 1
gene 3 2 4 1.08162 0 2 1.08162 1
gene 3 3 4 -0.96865 0 3 -0.96865 1
gene 2 3 7 3.61888 0 8 3.61888 1
gene 2 7 4 3.79751 0 9 3.79751 1
gene 3 1 7 -7.70117 0 34 -7.70117 1
gene 2 2 7 8 0 43 8 1
genomeend 58

/* Organism #59 Fitness: 8.99999 Error: 1 */
genomestart 59
trait 1 0.1 0 0 0 0 0 0 0 
trait 2 0.207637 0.0891511 0 0 0 0 0 0.0133123 
trait 3 0.3 0 0 0 0 0 0 0 
node 1 3 1 3
node 2 3 1 1
node 3 1 1 1
node 4 3 0 2
node 7 1 0 0
gene 1 1 4 -3.1874 0 1 -3.1874 1
gene 3 2 4 3.28095 0 2 3.28095 1
gene 3 3 4 -7.04995 0 3 -7.04995 1
gene 2 3 7 -0.401118 0 8 -0.401118 1
gene 2 7 4 2.7002 0 9 2.7002 1
gene 3 1 7 -3.57402 0 34 -3.57402 1
gene 2 2 7 7.97451 0 43 7.97451 1
genomeend 59

/* Organism #60 Fitness: 8.99995 Error: 1.00001 */
genomestart 60
trait 1 0.1 0 0 0 0 0 0 0 
trait 2 0.207637 0.0891511 0 0 0 0 0 0.517532 
trait 3 0.3 0 0 0 0 0 0 0 
node 1 3 1 3
node 2 3 1 1
node 3 1 1 1
node 4 3 0 2
node 7 1 0 0
gene 1 1 4 -3.1874 0 1 -3.1874 1
gene 3 2 4 2.87807 0 2 2.87807 1
gene 3 3 4 -8 0 3 -8 1
gene 2 3 7 -0.401118 0 8 -0.401118 1
gene 2 7 4 2.7002 0 9 2.7002 1
gene 3 1 7 -0.610765 0 34 -0.610765 1
gene 2 2 7 7.28521 0 43 7.28521 1
genomeend 60

/* Species #10 : (Size 6) (AF 7.02475) (Age 24)  */


/* Organism #61 Fitness: 8.99987 Error: 1.00002 */
genomestart 61
trait 1 0.1 0.0503287 0.141082 0 0.169826 0 0 0 
trait 2 0.2 0 0 0 0 0 0 0 
trait 3 0.3 0 0 0 0 0 0 0 
node 1 2 1 3
node 2 1 1 1
node 3 2 1 1
node 4 1 0 2
node 8 1 0 0
node 12 3 0 0
node 17 1 0 0
gene 2 1 4 -3.26739 0 1 -3.26739 1
gene 2 2 4 -2.31749 0 2 -2.31749 0
gene 2 3 4 -4.66084 0 3 -4.66084 1
gene 2 3 8 -1.32313 0 10 -1.32313 1
gene 2 8 4 7.22837 0 11 7.22837 1
gene 2 3 12 -1.57453 0 22 -1.57453 1
gene 2 12 8 0.50961 0 23 0.50961 1
gene 2 2 17 -7.3987 0 44 -7.3987 1
gene 3 17 4 -5.30761 0 45 -5.30761 1
gene 2 17 12 -2.97254 0 174 -2.97254 1
genomeend 61

/* Organism #62 Fitness: 4 Error: 2 */
genomestart 62
trait 1 0.1 0.0503287 0.141082 0 0.169826 0 0 0 
trait 2 0.2 0 0 0 0 0 0 0 
trait 3 0.3 0 0 0 0 0 0 0 
node 1 2 1 3
node 2 1 1 1
node 3 2 1 1
node 4 1 0 2
node 8 1 0 0
node 12 3 0 0
node 17 1 0 0
gene 2 1 4 -4.99977 0 1 -4.99977 1
gene 2 2 4 -4.16565 0 2 -4.16565 0
gene 2 3 4 -4.16374 0 3 -4.16374 1
gene 2 3 8 -2.55028 0 10 -2.55028 1
gene 2 8 4 7.5782 0 11 7.5782 1
gene 2 3 12 -3.43419 0 22 -3.43419 1
gene 2 12 8 -1.63022 0 23 -1.63022 1
gene 2 2 17 -8 0 44 -8 1
gene 3 17 4 0.277047 0 45 0.277047 1
gene 2 17 12 0.970375 0 174 0.970375 1
genomeend 62

/* Organism #63 Fitness: 8.99987 Error: 1.00002 */
genomestart 63
trait 1 0.1 0.0503287 0.141082 0 0.169826 0 0 0 
trait 2 0.2 0 0 0 0 0 0 0 
trait 3 0.3 0 0 0 0 0 0 0 
node 1 2 1 3
node 2 1 1 1
node 3 2 1 1
node 4 1 0 2
node 8 1 0 0
node 12 3 0 0
node 17 1 0 0
gene 2 1 4 -3.26739 0 1 -3.26739 1
gene 2 2 4 -2.31749 0 2 -2.31749 0
gene 2 3 4 -4.66084 0 3 -4.66084 1
gene 2 3 8 -1.32313 0 10 -1.32313 1
gene 2 8 4 7.22837 0 11 7.22837 1
gene 2 3 12 -1.57453 0 22 -1.57453 1
gene 2 12 8 0.50961 0 23 0.50961 1
gene 2 2 17 -8 0 44 -8 1
gene 3 17 4 -5.30761 0 45 -5.30761 1
gene 2 17 12 -2.97254 0 174 -2.97254 1
genomeend 63

/* Organism #64 Fitness: 8.88191 Error: 1.01975 */
genomestart 64
trait 1 0.1 0.0503287 0.141082 0 0.169826 0 0 0 
trait 2 0.2 0 0 0 0 0 0 0 
trait 3 0.3 0 0 0 0 0 0 0 
node 1 2 1 3
node 2 1 1 1
node 3 2 1 1
node 4 1 0 2
node 8 1 0 0
node 12 3 0 0
node 17 1 0 0
gene 2 1 4 -0.837659 0 1 -0.837659 1
gene 2 2 4 -3.84184 0 2 -3.84184 0
gene 2 3 4 -6.7082 0 3 -6.7082 1
gene 2 3 8 -3.66701 0 10 -3.66701 1
gene 2 8 4 7.13464 0 11 7.13464 1
gene 2 3 12 -2.92103 0 22 -2.92103 1
gene 2 12 8 2.09396 0 23 2.09396 1
gene 2 2 17 -5.86703 0 44 -5.86703 1
gene 3 17 4 -7.06963 0 45 -7.06963 1
gene 2 17 12 -2.97254 0 174 -2.97254 1
genomeend 64

/* Organism #65 Fitness: 2.2755 Error: 2.49152 */
genomestart 65
trait 1 0.1 0.0503287 0.141082 0 0.169826 0 0 0 
trait 2 0.2 0 0 0 0 0 0 0 
trait 3 0.3 0 0 0 0 0 0 0 
node 1 2 1 3
node 2 1 1 1
node 3 2 1 1
node 4 1 0 2
node 8 1 0 0
node 12 3 0 0
node 17 1 0 0
gene 2 1 4 -5.26307 0 1 -5.26307 1
gene 2 2 4 1.36811 0 2 1.36811 0
gene 2 3 4 -4.19921 0 3 -4.19921 1
gene 2 3 8 -2.10597 0 10 -2.10597 1
gene 2 8 4 6.68394 0 11 6.68394 1
gene 2 3 12 1.71265 0 22 1.71265 1
gene 2 12 8 0.50961 0 23 0.50961 1
gene 2 2 17 -7.87584 0 44 -7.87584 1
gene 3 17 4 -0.848745 0 45 -0.848745 1
gene 2 17 12 1.94015 0 174 1.94015 1
genomeend 65

/* Organism #66 Fitness: 8.99131 Error: 1.00145 */
genomestart 66
trait 1 0.1 0.0503287 0.141082 0 0.169826 0 0 0 
trait 2 0.2 0 0 0 0 0 0 0 
trait 3 0.3 0 0 0 0 0 0 0 
node 1 2 1 3
node 2 1 1 1
node 3 2 1 1
node 4 1 0 2
node 8 1 0 0
node 12 3 0 0
node 17 1 0 0
gene 2 1 4 -6.57066 0 1 -6.57066 1
gene 2 2 4 0.339857 0 2 0.339857 0
gene 2 3 4 -5.34226 0 3 -5.34226 1
gene 2 3 8 -4.16637 0 10 -4.16637 1
gene 2 8 4 8 0 11 8 1
gene 2 3 12 -0.668306 0 22 -0.668306 1
gene 2 12 8 1.76651 0 23 1.76651 1
gene 2 2 17 -8 0 44 -8 1
gene 3 17 4 -0.865512 0 45 -0.865512 1
gene 2 17 12 -2.07712 0 174 -2.07712 1
genomeend 66

/* Species #11 : (Size 9) (AF 8.23291) (Age 23)  */


/* Organism #67 Fitness: 9 Error: 1 */
genomestart 67
trait 1 0.1 0 0 0 0 0 0 0 
trait 2 0.207637 0.0891511 0 0 0 0 0 0.0140311 
trait 3 0.3 0 0 0 0 0 0 0 
node 1 3 1 3
node 2 3 1 1
node 3 1 1 1
node 4 3 0 2
node 7 1 0 0
gene 1 1 4 -4.01308 0 1 -4.01308 1
gene 3 2 4 8 0 2 8 1
gene 3 3 4 5.3796 0 3 5.3796 1
gene 2 3 7 6.68634 0 8 6.68634 1
gene 2 7 4 5.19727 0 9 5.19727 1
gene 3 1 7 -5.42417 0 34 -5.42417 1
gene 2 2 7 1.53581 0 59 1.53581 0
genomeend 67

/* Organism #68 Fitness: 4 Error: 2 */
genomestart 68
trait 1 0.1 0 0 0 0 0 0 0 
trait 2 0.207637 0.0891511 0 0 0 0 0 0.0139412 
trait 3 0.3 0 0 0 0 0 0 0 
node 1 3 1 3
node 2 3 1 1
node 3 1 1 1
node 4 3 0 2
node 7 1 0 0
gene 1 1 4 1.27776 0 1 1.27776 1
gene 3 2 4 8 0 2 8 1
gene 3 3 4 3.14208 0 3 3.14208 1
gene 1 3 7 0.403076 0 8 0.403076 1
gene 2 7 4 6.30669 0 9 6.30669 1
gene 3 1 7 0.711028 0 34 0.711028 1
gene 2 2 7 3.35905 0 59 3.35905 0
genomeend 68

/* Organism #69 Fitness: 9 Error: 1 */
genomestart 69
trait 1 0.1 0 0 0 0 0 0 0 
trait 2 0.207637 0.0891511 0 0 0 0 0 0.0139412 
trait 3 0.3 0 0 0 0 0 0 0 
node 1 3 1 3
node 2 3 1 1
node 3 1 1 1
node 4 3 0 2
node 7 1 0 0
gene 1 1 4 -4.76088 0 1 -4.76088 1
gene 3 2 4 8 0 2 8 1
gene 3 3 4 5.20839 0 3 5.20839 1
gene 2 3 7 5.52357 0 8 5.52357 1
gene 2 7 4 3.71922 0 9 3.71922 1
gene 3 1 7 -1.43341 0 34 -1.43341 1
gene 2 2 7 -0.936729 0 59 -0.936729 0
genomeend 69

/* Organism #70 Fitness: 8.99465 Error: 1.00089 */
genomestart 70
trait 1 0.1 0 0 0 0 0 0 0 
trait 2 0.207637 0.0891511 0 0 0 0 0 0.0140311 
trait 3 0.3 0 0 0 0 0 0 0 
node 1 3 1 3
node 2 3 1 1
node 3 1 1 1
node 4 3 0 2
node 7 1 0 0
gene 1 1 4 -1.42594 0 1 -1.42594 1
gene 3 2 4 6.19985 0 2 6.19985 1
gene 3 3 4 8 0 3 8 1
gene 2 3 7 7.39185 0 8 7.39185 1
gene 2 7 4 1.9084 0 9 1.9084 1
gene 3 1 7 -4.44845 0 34 -4.44845 1
gene 2 2 7 1.77185 0 59 1.77185 0
genomeend 70

/* Organism #71 Fitness: 8.09421 Error: 1.15497 */
genomestart 71
trait 1 0.1 0 0 0 0 0 0 0 
trait 2 0.207637 0.0891511 0 0 0 0 0 0.0139412 
trait 3 0.3 0 0 0 0 0 0 0 
node 1 3 1 3
node 2 3 1 1
node 3 1 1 1
node 4 3 0 2
node 7 1 0 0
gene 1 1 4 -4.80376 0 1 -4.80376 1
gene 3 2 4 8 0 2 8 1
gene 3 3 4 0.642505 0 3 0.642505 1
gene 2 3 7 5.3119 0 8 5.3119 1
gene 2 7 4 4.5057 0 9 4.5057 1
gene 3 1 7 -1.51738 0 34 -1.51738 1
gene 2 2 7 -0.460351 0 59 -0.460351 1
genomeend 71

/* Organism #72 Fitness: 8.99799 Error: 1.00033 */
genomestart 72
trait 1 0.1 0 0 0 0 0 0 0 
trait 2 0.207637 0.0891511 0 0 0 0 0 0.0140311 
trait 3 0.3 0 0 0 0 0 0 0 
node 1 3 1 3
node 2 3 1 1
node 3 1 1 1
node 4 3 0 2
node 7 1 0 0
gene 1 1 4 -1.62508 0 1 -1.62508 1
gene 3 2 4 8 0 2 8 1
gene 3 3 4 8 0 3 8 1
gene 2 3 7 5.95208 0 8 5.95208 1
gene 2 7 4 2.51301 0 9 2.51301 1
gene 3 1 7 -3.18346 0 34 -3.18346 1
gene 2 2 7 3.78373 0 59 3.78373 0
genomeend 72

/* Organism #73 Fitness: 8.06318 Error: 1.16043 */
genomestart 73
trait 1 0.1 0 0 0 0 0 0 0 
trait 2 0.207637 0.0891511 0 0 0 0 0 0.0139412 
trait 3 0.3 0 0 0 0 0 0 0 
node 1 3 1 3
node 2 3 1 1
node 3 1 1 1
node 4 3 0 2
node 7 1 0 0
gene 1 1 4 -0.377368 0 1 -0.377368 1
gene 3 2 4 7.84858 0 2 7.84858 1
gene 3 3 4 1.15437 0 3 1.15437 1
gene 2 3 7 -0.135914 0 8 -0.135914 1
gene 2 7 4 6.91649 0 9 6.91649 1
gene 3 1 7 -1.37561 0 34 -1.37561 1
gene 2 2 7 3.79578 0 59 3.79578 0
genomeend 73

/* Organism #74 Fitness: 8.94616 Error: 1.00899 */
genomestart 74
trait 1 0.1 0 0 0 0 0 0 0 
trait 2 0.207637 0.0891511 0 0 0 0 0 0.0138514 
trait 3 0.3 0 0 0 0 0 0 0 
node 1 3 1 3
node 2 3 1 1
node 3 1 1 1
node 4 3 0 2
node 7 1 0 0
gene 1 1 4 -0.955092 0 1 -0.955092 1
gene 3 2 4 8 0 2 8 1
gene 3 3 4 3.14208 0 3 3.14208 1
gene 2 3 7 4.88731 0 8 4.88731 1
gene 2 7 4 2.28161 0 9 2.28161 1
gene 3 1 7 -5.04474 0 34 -5.04474 1
gene 2 2 7 3.21259 0 59 3.21259 0
genomeend 74

/* Organism #75 Fitness: 8.99996 Error: 1.00001 */
genomestart 75
trait 1 0.1 0 0 0 0 0 0 0 
trait 2 0.207637 0.0891511 0 0 0 0 0 0.0138514 
trait 3 0.3 0 0 0 0 0 0 0 
node 1 3 1 3
node 2 3 1 1
node 3 1 1 1
node 4 3 0 2
node 7 1 0 0
gene 1 1 4 -3.54672 0 1 -3.54672 1
gene 3 2 4 8 0 2 8 1
gene 3 3 4 2.93476 0 3 2.93476 1
gene 2 3 7 5.43783 0 8 5.43783 1
gene 2 7 4 6.13784 0 9 6.13784 1
gene 3 1 7 -5.44152 0 34 -5.44152 1
gene 2 2 7 1.21713 0 59 1.21713 0
genomeend 75

/* Species #12 : (Size 10) (AF 7.99187) (Age 21)  */


/* Organism #76 Fitness: 9 Error: 1 */
genomestart 76
trait 1 0.1 0 0 0 0 0 0.101602 0 
trait 2 0.15 0.140166 0 0 0 0 0 0.0141789 
trait 3 0.3 0 0 0 0 0 0 0 
node 1 3 1 3
node 2 2 1 1
node 3 1 1 1
node 4 3 0 2
node 7 1 0 0
node 15 1 0 0
gene 1 1 4 -3.25912 0 1 -3.25912 1
gene 3 2 4 6.80474 0 2 6.80474 1
gene 2 3 4 -7.23767 0 3 -7.23767 1
gene 2 3 7 1.48254 0 8 1.48254 1
gene 2 7 4 0.140849 0 9 0.140849 1
gene 3 1 7 1.06686 0 24 1.06686 1
gene 2 3 15 -1.90504 0 36 -1.90504 1
gene 2 15 7 -1.17024 0 37 -1.17024 1
gene 1 15 4 -0.40473 0 83 -0.40473 1
gene 3 1 15 3.65909 0 96 3.65909 1
genomeend 76

/* Organism #77 Fitness: 8.99966 Error: 1.00006 */
genomestart 77
trait 1 0.1 0 0 0 0 0 0.101602 0 
trait 2 0.15 0.140166 0 0 0 0 0 0.0141789 
trait 3 0.3 0 0 0 0 0 0 0 
node 1 3 1 3
node 2 2 1 1
node 3 1 1 1
node 4 3 0 2
node 7 1 0 0
node 15 1 0 0
gene 1 1 4 -2.36366 0 1 -2.36366 1
gene 3 2 4 8 0 2 8 1
gene 2 3 4 -7.03062 0 3 -7.03062 1
gene 2 3 7 4.80249 0 8 4.80249 1
gene 2 7 4 -1.67916 0 9 -1.67916 1
gene 3 1 7 2.29827 0 24 2.29827 1
gene 2 3 15 0.834673 0 36 0.834673 1
gene 2 15 7 -1.5778 0 37 -1.5778 1
gene 1 15 4 1.0902 0 83 1.0902 1
gene 3 1 15 0.550151 0 96 0.550151 1
genomeend 77

/* Organism #78 Fitness: 8.99976 Error: 1.00004 */
genomestart 78
trait 1 0.1 0 0 0 0 0 0.101602 0 
trait 2 0.15 0.140166 0 0 0 0 0 0.0141789 
trait 3 0.3 0 0 0 0 0 0 0 
node 1 3 1 3
node 2 2 1 1
node 3 1 1 1
node 4 3 0 2
node 7 1 0 0
node 15 1 0 0
gene 1 1 4 -1.86223 0 1 -1.86223 1
gene 3 2 4 8 0 2 8 1
gene 2 3 4 -8 0 3 -8 1
gene 2 3 7 2.52479 0 8 2.52479 1
gene 2 7 4 0.140849 0 9 0.140849 1
gene 3 1 7 1.40374 0 24 1.40374 1
gene 2 3 15 0.480824 0 36 0.480824 1
gene 2 15 7 -3.59035 0 37 -3.59035 1
gene 1 15 4 -0.40473 0 83 -0.40473 1
gene 3 1 15 1.17944 0 96 1.17944 1
genomeend 78

/* Organism #79 Fitness: 7.30589 Error: 1.29706 */
genomestart 79
trait 1 0.1 0 0 0 0 0 0.101602 0 
trait 2 0.15 0.140166 0 0 0 0 0 0.0141789 
trait 3 0.3 0 0 0 0 0 0 0 
node 1 3 1 3
node 2 2 1 1
node 3 1 1 1
node 4 3 0 2
node 7 1 0 0
node 15 1 0 0
gene 1 1 4 -4.77597 0 1 -4.77597 1
gene 3 2 4 6.80474 0 2 6.80474 1
gene 2 3 4 -1.7507 0 3 -1.7507 1
gene 2 3 7 1.80498 0 8 1.80498 1
gene 2 7 4 -1.26498 0 9 -1.26498 1
gene 3 1 7 1.06686 0 24 1.06686 1
gene 2 3 15 -2.89847 0 36 -2.89847 1
gene 2 15 7 -2.20521 0 37 -2.20521 1
gene 1 15 4 -1.84922 0 83 -1.84922 1
gene 3 1 15 3.72351 0 96 3.72351 1
genomeend 79

/* Organism #80 Fitness: 6.69933 Error: 1.41169 */
genomestart 80
trait 1 0.1 0 0 0 0 0 0.101602 0 
trait 2 0.15 0.140166 0 0 0 0 0 0.0141789 
trait 3 0.3 0 0 0 0 0 0 0 
node 1 3 1 3
node 2 2 1 1
node 3 1 1 1
node 4 3 0 2
node 7 1 0 0
node 15 1 0 0
gene 1 1 4 -4.4219 0 1 -4.4219 1
gene 3 2 4 5.05079 0 2 5.05079 1
gene 2 3 4 -7.06922 0 3 -7.06922 1
gene 2 3 7 3.65914 0 8 3.65914 1
gene 2 7 4 -0.555142 0 9 -0.555142 1
gene 3 1 7 3.76481 0 24 3.76481 1
gene 2 3 15 -3.28135 0 36 -3.28135 1
gene 2 15 7 -2.64933 0 37 -2.64933 1
gene 1 15 4 -2.70883 0 83 -2.70883 1
gene 3 1 15 -1.55805 0 96 -1.55805 1
genomeend 80

/* Organism #81 Fitness: 4.00204 Error: 1.99949 */
genomestart 81
trait 1 0.1 0 0 0 0 0 0.101602 0 
trait 2 0.15 0.140166 0 0 0 0 0 0.0141789 
trait 3 0.3 0 0 0 0 0 0 0 
node 1 3 1 3
node 2 2 1 1
node 3 1 1 1
node 4 3 0 2
node 7 1 0 0
node 15 1 0 0
gene 1 1 4 -3.285 0 1 -3.285 1
gene 3 2 4 2.05554 0 2 2.05554 1
gene 2 3 4 -5.99174 0 3 -5.99174 1
gene 2 3 7 3.05323 0 8 3.05323 1
gene 2 7 4 -0.591812 0 9 -0.591812 1
gene 3 1 7 2.46651 0 24 2.46651 1
gene 2 3 15 1.38909 0 36 1.38909 1
gene 2 15 7 0.591713 0 37 0.591713 1
gene 1 15 4 0.282008 0 83 0.282008 1
gene 3 1 15 1.91714 0 96 1.91714 1
genomeend 81

/* Organism #82 Fitness: 8.98302 Error: 1.00283 */
genomestart 82
trait 1 0.1 0 0 0 0 0 0.101602 0 
trait 2 0.15 0.140166 0 0 0 0 0 0.0141789 
trait 3 0.3 0 0 0 0 0 0 0 
node 1 3 1 3
node 2 2 1 1
node 3 1 1 1
node 4 3 0 2
node 7 1 0 0
node 15 1 0 0
gene 1 1 4 -3.11286 0 1 -3.11286 1
gene 3 2 4 4.31791 0 2 4.31791 1
gene 2 3 4 -6.37303 0 3 -6.37303 1
gene 3 3 7 0.877985 0 8 0.877985 1
gene 2 7 4 -1.95667 0 9 -1.95667 1
gene 3 1 7 -1.0746 0 24 -1.0746 1
gene 2 3 15 -0.967463 0 36 -0.967463 1
gene 2 15 7 -4.67237 0 37 -4.67237 1
gene 1 15 4 -1.58202 0 83 -1.58202 1
gene 3 1 15 -1.16413 0 96 -1.16413 1
genomeend 82

/* Organism #83 Fitness: 9 Error: 1 */
genomestart 83
trait 1 0.1 0 0 0 0 0 0.101602 0 
trait 2 0.15 0.140166 0 0 0 0 0 0.0141789 
trait 3 0.3 0 0 0 0 0 0 0 
node 1 3 1 3
node 2 2 1 1
node 3 1 1 1
node 4 3 0 2
node 7 1 0 0
node 15 1 0 0
gene 1 1 4 -1.51614 0 1 -1.51614 1
gene 3 2 4 7.2894 0 2 7.2894 1
gene 2 3 4 -7.72576 0 3 -7.72576 1
gene 2 3 7 1.78793 0 8 1.78793 1
gene 2 7 4 -1.98874 0 9 -1.98874 1
gene 3 1 7 0.340595 0 24 0.340595 1
gene 1 3 15 -3.91256 0 36 -3.91256 1
gene 2 15 7 -5.59895 0 37 -5.59895 1
gene 1 15 4 -1.80334 0 83 -1.80334 1
gene 3 1 15 5.54236 0 96 5.54236 1
genomeend 83

/* Organism #84 Fitness: 7.92895 Error: 1.18416 */
genomestart 84
trait 1 0.1 0 0 0 0 0 0.101602 0 
trait 2 0.15 0.140166 0 0 0 0 0 0.0141789 
trait 3 0.3 0 0 0 0 0 0 0 
node 1 3 1 3
node 2 2 1 1
node 3 1 1 1
node 4 3 0 2
node 7 1 0 0
node 15 1 0 0
gene 1 1 4 -1.0251 0 1 -1.0251 1
gene 3 2 4 7.7796 0 2 7.7796 1
gene 2 3 4 -7.5629 0 3 -7.5629 1
gene 2 3 7 -1.66089 0 8 -1.66089 1
gene 2 7 4 -0.031523 0 9 -0.031523 1
gene 3 1 7 -0.829535 0 24 -0.829535 1
gene 2 3 15 -1.73436 0 36 -1.73436 1
gene 2 15 7 0.891927 0 37 0.891927 1
gene 1 15 4 0.43416 0 83 0.43416 1
gene 3 1 15 5.28331 0 96 5.28331 1
genomeend 84

/* Organism #85 Fitness: 9 Error: 1 */
genomestart 85
trait 1 0.1 0 0 0 0 0 0.101602 0 
trait 2 0.15 0.140166 0 0 0 0 0 0.0141789 
trait 3 0.3 0 0 0 0 0 0 0 
node 1 3 1 3
node 2 2 1 1
node 3 1 1 1
node 4 3 0 2
node 7 1 0 0
node 15 1 0 0
gene 1 1 4 -3.25912 0 1 -3.25912 1
gene 3 2 4 8 0 2 8 1
gene 2 3 4 -8 0 3 -8 1
gene 2 3 7 2.52479 0 8 2.52479 1
gene 2 7 4 -1.99537 0 9 -1.99537 1
gene 3 1 7 2.85309 0 24 2.85309 1
gene 2 3 15 -1.90504 0 36 -1.90504 1
gene 2 15 7 -3.59035 0 37 -3.59035 1
gene 1 15 4 -0.40473 0 83 -0.40473 1
gene 3 1 15 1.17944 0 96 1.17944 1
genomeend 85

/* Species #15 : (Size 6) (AF 8.92876) (Age 17)  */


/* Organism #86 Fitness: 8.99856 Error: 1.00024 */
genomestart 86
trait 1 0.1 0 0.831559 0 0 0 0 0.0707006 
trait 2 0.15 0.140166 0 0 0 0 0 0.0141789 
trait 3 0.3 0 0 0 0 0 0 0 
node 1 3 1 3
node 2 2 1 1
node 3 1 1 1
node 4 2 0 2
node 7 1 0 0
node 15 1 0 0
node 71 1 0 0
gene 1 1 4 3.79974 0 1 3.79974 1
gene 3 2 4 3.7941 0 2 3.7941 1
gene 2 3 4 -5.73717 0 3 -5.73717 1
gene 2 3 7 -1.5347 0 8 -1.5347 0
gene 2 7 4 5.22309 0 9 5.22309 0
gene 3 1 7 -4.6054 0 24 -4.6054 1
gene 2 3 15 -0.987604 0 36 -0.987604 1
gene 2 15 7 -1.26247 0 37 -1.26247 1
gene 1 15 4 -8 0 83 -8 1
gene 3 1 15 2.89878 0 111 2.89878 1
gene 3 2 7 0.510058 0 182 0.510058 1
gene 2 7 71 0.072998 0 203 0.072998 1
gene 2 71 4 4.26757 0 204 4.26757 1
genomeend 86

/* Organism #87 Fitness: 8.99821 Error: 1.0003 */
genomestart 87
trait 1 0.1 0 0.831559 0 0 0 0 0.0707006 
trait 2 0.15 0.140166 0 0 0 0 0 0.0141789 
trait 3 0.3 0 0 0 0 0 0 0 
node 1 3 1 3
node 2 2 1 1
node 3 1 1 1
node 4 2 0 2
node 7 1 0 0
node 15 1 0 0
node 71 1 0 0
gene 2 1 4 2.92659 0 1 2.92659 1
gene 3 2 4 7.51805 0 2 7.51805 1
gene 2 3 4 -7.7822 0 3 -7.7822 1
gene 2 3 7 -2.18909 0 8 -2.18909 0
gene 2 7 4 4.53263 0 9 4.53263 0
gene 3 1 7 -5.75118 0 24 -5.75118 1
gene 2 3 15 3.88897 0 36 3.88897 1
gene 2 15 7 -3.40303 0 37 -3.40303 1
gene 1 15 4 -8 0 83 -8 1
gene 3 1 15 6.88026 0 111 6.88026 1
gene 3 2 7 4.88896 0 182 4.88896 1
gene 2 7 71 -0.613492 0 203 -0.613492 1
gene 2 71 4 6.75292 0 204 6.75292 1
genomeend 87

/* Organism #88 Fitness: 8.99482 Error: 1.00086 */
genomestart 88
trait 1 0.1 0 0.831559 0 0 0 0 0.0707006 
trait 2 0.15 0.140166 0 0 0 0 0 0.0141789 
trait 3 0.3 0 0 0 0 0 0 0 
node 1 3 1 3
node 2 2 1 1
node 3 1 1 1
node 4 2 0 2
node 7 1 0 0
node 15 1 0 0
node 71 1 0 0
gene 1 1 4 1.99724 0 1 1.99724 1
gene 3 2 4 6.53461 0 2 6.53461 1
gene 2 3 4 -5.9357 0 3 -5.9357 1
gene 2 3 7 -1.51934 0 8 -1.51934 0
gene 2 7 4 6.5361 0 9 6.5361 1
gene 3 1 7 -3.05249 0 24 -3.05249 1
gene 2 3 15 -0.82184 0 36 -0.82184 1
gene 2 15 7 -2.09712 0 37 -2.09712 1
gene 1 15 4 -8 0 83 -8 1
gene 3 1 15 5.81894 0 111 5.81894 1
gene 3 2 7 2.52437 0 182 2.52437 1
gene 2 7 71 0.570703 0 203 0.570703 1
gene 2 71 4 1.80078 0 204 1.80078 1
genomeend 88

/* Organism #89 Fitness: 8.71101 Error: 1.04856 */
genomestart 89
trait 1 0.1 0 0.831559 0 0 0 0 0.0707006 
trait 2 0.15 0.140166 0 0 0 0 0 0.0141789 
trait 3 0.3 0 0 0 0 0 0 0 
node 1 3 1 3
node 2 2 1 1
node 3 1 1 1
node 4 2 0 2
node 7 1 0 0
node 15 1 0 0
node 71 1 0 0
gene 1 1 4 1.71031 0 1 1.71031 1
gene 3 2 4 4.76011 0 2 4.76011 1
gene 2 3 4 -5.56163 0 3 -5.56163 1
gene 2 3 7 -0.629882 0 8 -0.629882 0
gene 2 7 4 4.97926 0 9 4.97926 0
gene 3 1 7 -5.12842 0 24 -5.12842 1
gene 2 3 15 -0.0574589 0 36 -0.0574589 1
gene 2 15 7 -1.11328 0 37 -1.11328 1
gene 1 15 4 -8 0 83 -8 1
gene 3 1 15 5.92283 0 111 5.92283 1
gene 3 2 7 3.42617 0 182 3.42617 1
gene 2 7 71 -1.4897 0 203 -1.4897 1
gene 2 71 4 4.26757 0 204 4.26757 1
genomeend 89

/* Organism #90 Fitness: 8.99999 Error: 1 */
genomestart 90
trait 1 0.1 0 0.831559 0 0 0 0 0.0707006 
trait 2 0.15 0.140166 0 0 0 0 0 0.0141789 
trait 3 0.3 0 0 0 0 0 0 0 
node 1 3 1 3
node 2 2 1 1
node 3 1 1 1
node 4 2 0 2
node 7 1 0 0
node 15 1 0 0
node 71 1 0 0
gene 1 1 4 1.64738 0 1 1.64738 1
gene 3 2 4 7.16588 0 2 7.16588 1
gene 2 3 4 -7.96917 0 3 -7.96917 1
gene 2 3 7 -2.56029 0 8 -2.56029 0
gene 2 7 4 4.49572 0 9 4.49572 0
gene 3 1 7 -5.19248 0 24 -5.19248 1
gene 2 3 15 0.278798 0 36 0.278798 1
gene 2 15 7 -4.67657 0 37 -4.67657 1
gene 1 15 4 -8 0 83 -8 1
gene 3 1 15 4.36172 0 111 4.36172 1
gene 3 2 7 4.23019 0 182 4.23019 1
gene 2 7 71 0.570703 0 203 0.570703 1
gene 2 71 4 3.88623 0 204 3.88623 1
genomeend 90

/* Organism #91 Fitness: 8.86996 Error: 1.02175 */
genomestart 91
trait 1 0.1 0 0.831559 0 0 0 0 0.0707006 
trait 2 0.15 0.140166 0 0 0 0 0 0.0141789 
trait 3 0.3 0 0 0 0 0 0 0 
node 1 3 1 3
node 2 2 1 1
node 3 1 1 1
node 4 2 0 2
node 7 1 0 0
node 15 1 0 0
node 71 1 0 0
gene 1 1 4 3.54216 0 1 3.54216 1
gene 3 2 4 8 0 2 8 1
gene 2 3 4 -7.53266 0 3 -7.53266 1
gene 2 3 7 -3.50275 0 8 -3.50275 0
gene 2 7 4 4.32915 0 9 4.32915 0
gene 3 1 7 -7.91816 0 24 -7.91816 1
gene 2 3 15 3.50298 0 36 3.50298 1
gene 2 15 7 -3.05309 0 37 -3.05309 1
gene 1 15 4 -8 0 83 -8 1
gene 3 1 15 6.16003 0 111 6.16003 1
gene 3 2 7 3.66463 0 182 3.66463 1
gene 2 7 71 1.06841 0 203 1.06841 1
gene 2 71 4 6.39492 0 204 6.39492 1
genomeend 91

/* Species #16 : (Size 9) (AF 7.89299) (Age 14)  */


/* Organism #92 Fitness: 9 Error: 1 */
genomestart 92
trait 1 0.1 0 0 0 0 0 0.203203 0 
trait 2 0.15 0.140166 0 0 0 0 0 0.0141789 
trait 3 0.3 0 0 0 0 0 0 0 
node 1 1 1 3
node 2 3 1 1
node 3 1 1 1
node 4 3 0 2
node 7 1 0 0
node 15 1 0 0
node 49 1 0 0
gene 1 1 4 -7.10295 0 1 -7.10295 1
gene 3 2 4 8 0 2 8 1
gene 2 3 4 -8 0 3 -8 1
gene 2 3 7 -0.00189315 0 8 -0.00189315 1
gene 2 7 4 2.18732 0 9 2.18732 1
gene 3 1 7 -2.70723 0 24 -2.70723 1
gene 2 3 15 -5.13818 0 36 -5.13818 1
gene 2 15 7 0.127546 0 37 0.127546 1
gene 1 15 4 4.46659 0 83 4.46659 1
gene 3 1 15 -0.56927 0 96 -0.56927 1
gene 2 2 15 6.36295 0 128 6.36295 1
gene 2 3 49 2.19055 0 144 2.19055 1
gene 2 49 15 -5.22153 0 145 -5.22153 1
genomeend 92

/* Organism #93 Fitness: 9 Error: 1 */
genomestart 93
trait 1 0.1 0 0 0 0 0 0.203203 0 
trait 2 0.15 0.140166 0 0 0 0 0 0.0141789 
trait 3 0.3 0 0 0 0 0 0 0 
node 1 1 1 3
node 2 3 1 1
node 3 1 1 1
node 4 3 0 2
node 7 1 0 0
node 15 1 0 0
node 49 1 0 0
gene 1 1 4 -4.62355 0 1 -4.62355 1
gene 3 2 4 8 0 2 8 1
gene 2 3 4 -7.81056 0 3 -7.81056 1
gene 2 3 7 0.297649 0 8 0.297649 1
gene 2 7 4 0.585723 0 9 0.585723 1
gene 3 1 7 -2.02157 0 24 -2.02157 1
gene 1 3 15 -6.64043 0 36 -6.64043 1
gene 2 15 7 2.04959 0 37 2.04959 1
gene 1 15 4 6.464 0 83 6.464 1
gene 3 1 15 -2.37064 0 96 -2.37064 1
gene 2 2 15 6.93017 0 128 6.93017 1
gene 2 3 49 3.05731 0 144 3.05731 1
gene 2 49 15 -4.00847 0 145 -4.00847 1
genomeend 93

/* Organism #94 Fitness: 9 Error: 1 */
genomestart 94
trait 1 0.1 0 0 0 0 0 0.203203 0 
trait 2 0.15 0.140166 0 0 0 0 0 0.0141789 
trait 3 0.3 0 0 0 0.411256 0 0 0.23393 
node 1 1 1 3
node 2 3 1 1
node 3 1 1 1
node 4 3 0 2
node 7 1 0 0
node 15 1 0 0
node 49 1 0 0
gene 1 1 4 -4.99332 0 1 -4.99332 1
gene 3 2 4 7.20551 0 2 7.20551 1
gene 2 3 4 -8 0 3 -8 1
gene 2 3 7 -0.44232 0 8 -0.44232 0
gene 2 7 4 2.58968 0 9 2.58968 1
gene 3 1 7 -4.95278 0 24 -4.95278 1
gene 2 3 15 -5.35467 0 36 -5.35467 1
gene 2 15 7 -1.89913 0 37 -1.89913 1
gene 1 15 4 6.6073 0 83 6.6073 1
gene 3 1 15 1.46506 0 96 1.46506 1
gene 2 2 15 3.03031 0 128 3.03031 1
gene 2 3 49 2.68743 0 144 2.68743 1
gene 2 49 15 -3.6392 0 145 -3.6392 1
genomeend 94

/* Organism #95 Fitness: 8.99985 Error: 1.00003 */
genomestart 95
trait 1 0.1 0 0 0 0 0 0.203203 0 
trait 2 0.15 0.140166 0 0 0 0 0 0.0141789 
trait 3 0.3 0 0 0 0 0 0 0 
node 1 1 1 3
node 2 3 1 1
node 3 1 1 1
node 4 3 0 2
node 7 1 0 0
node 15 1 0 0
node 49 1 0 0
gene 1 1 4 -8 0 1 -8 1
gene 3 2 4 8 0 2 8 1
gene 2 3 4 -5.71431 0 3 -5.71431 1
gene 2 3 7 1.41854 0 8 1.41854 1
gene 2 7 4 2.09459 0 9 2.09459 1
gene 3 1 7 -3.87457 0 24 -3.87457 1
gene 2 3 15 -3.03079 0 36 -3.03079 1
gene 2 15 7 2.46529 0 37 2.46529 1
gene 1 15 4 2.14956 0 83 2.14956 1
gene 3 1 15 -1.38153 0 96 -1.38153 1
gene 2 2 15 7.55521 0 128 7.55521 1
gene 2 3 49 2.19055 0 144 2.19055 1
gene 2 49 15 -5.22153 0 145 -5.22153 1
genomeend 95

/* Organism #96 Fitness: 4.03833 Error: 1.99044 */
genomestart 96
trait 1 0.1 0 0 0 0 0 0.203203 0 
trait 2 0.379191 0.672622 0 0 0.805005 0 0 0 
trait 3 0.3 0 0 0 0 0 0 0 
node 1 1 1 3
node 2 3 1 1
node 3 1 1 1
node 4 3 0 2
node 7 1 0 0
node 15 1 0 0
node 49 1 0 0
gene 1 1 4 -7.10295 0 1 -7.10295 1
gene 3 2 4 8 0 2 8 1
gene 2 3 4 -1.84012 0 3 -1.84012 1
gene 2 3 7 1.1296 0 8 1.1296 1
gene 2 7 4 2.04681 0 9 2.04681 1
gene 3 1 7 -0.759174 0 24 -0.759174 1
gene 2 3 15 1.51871 0 36 1.51871 1
gene 2 15 7 2.40917 0 37 2.40917 1
gene 1 15 4 -0.657241 0 83 -0.657241 1
gene 3 1 15 -0.762855 0 96 -0.762855 1
gene 2 2 15 3.88011 0 128 3.88011 1
gene 2 3 49 2.28662 0 144 2.28662 1
gene 2 49 15 -5.08086 0 145 -5.08086 1
genomeend 96

/* Organism #97 Fitness: 9 Error: 1 */
genomestart 97
trait 1 0.1 0 0 0 0 0 0.203203 0 
trait 2 0.15 0.140166 0 0 0 0 0 0.0141789 
trait 3 0.3 0 0 0 0 0 0 0 
node 1 1 1 3
node 2 3 1 1
node 3 1 1 1
node 4 3 0 2
node 7 1 0 0
node 15 1 0 0
node 49 1 0 0
gene 1 1 4 -7.40989 0 1 -7.40989 1
gene 3 2 4 8 0 2 8 1
gene 2 3 4 -7.76298 0 3 -7.76298 1
gene 2 3 7 -0.95306 0 8 -0.95306 0
gene 2 7 4 3.13197 0 9 3.13197 1
gene 3 1 7 -2.70723 0 24 -2.70723 1
gene 2 3 15 -4.91703 0 36 -4.91703 1
gene 2 15 7 -0.980016 0 37 -0.980016 1
gene 1 15 4 4.7675 0 83 4.7675 1
gene 3 1 15 -0.208673 0 96 -0.208673 1
gene 2 2 15 5.22536 0 128 5.22536 1
gene 2 3 49 1.69005 0 144 1.69005 1
gene 2 49 15 -5.22153 0 145 -5.22153 1
genomeend 97

/* Organism #98 Fitness: 8.9987 Error: 1.00022 */
genomestart 98
trait 1 0.1 0 0 0 0 0 0.203203 0 
trait 2 0.15 0.140166 0 0 0 0 0 0.0141789 
trait 3 0.3 0 0 0 0 0 0 0 
node 1 1 1 3
node 2 3 1 1
node 3 1 1 1
node 4 3 0 2
node 7 1 0 0
node 15 1 0 0
node 49 1 0 0
gene 1 1 4 -7.74613 0 1 -7.74613 1
gene 3 2 4 8 0 2 8 1
gene 2 3 4 -8 0 3 -8 1
gene 2 3 7 -0.700233 0 8 -0.700233 0
gene 2 7 4 3.1045 0 9 3.1045 1
gene 3 1 7 -2.06373 0 24 -2.06373 1
gene 2 3 15 -5.91146 0 36 -5.91146 1
gene 2 15 7 -3.8732 0 37 -3.8732 1
gene 1 15 4 3.47682 0 83 3.47682 1
gene 3 1 15 0.0603968 0 96 0.0603968 1
gene 2 2 15 2.48475 0 128 2.48475 1
gene 2 3 49 3.66231 0 144 3.66231 1
gene 2 49 15 -5.22153 0 145 -5.22153 1
genomeend 98

/* Organism #99 Fitness: 9 Error: 1 */
genomestart 99
trait 1 0.1 0 0 0 0 0 0.203203 0 
trait 2 0.15 0.140166 0 0 0 0 0 0.0141789 
trait 3 0.3 0 0 0 0 0 0 0 
node 1 1 1 3
node 2 3 1 1
node 3 1 1 1
node 4 3 0 2
node 7 1 0 0
node 15 1 0 0
node 49 1 0 0
gene 1 1 4 -7.40989 0 1 -7.40989 1
gene 3 2 4 8 0 2 8 1
gene 2 3 4 -7.76298 0 3 -7.76298 1
gene 2 3 7 -0.95306 0 8 -0.95306 0
gene 2 7 4 3.13197 0 9 3.13197 1
gene 3 1 7 -2.70723 0 24 -2.70723 1
gene 2 3 15 -4.91703 0 36 -4.91703 1
gene 2 15 7 -0.980016 0 37 -0.980016 1
gene 1 15 4 4.7675 0 83 4.7675 1
gene 3 1 15 -0.208673 0 96 -0.208673 1
gene 2 2 15 5.22536 0 128 5.22536 1
gene 2 3 49 1.69005 0 144 1.69005 1
gene 2 49 15 -5.22153 0 145 -5.22153 1
genomeend 99

/* Organism #100 Fitness: 4 Error: 2 */
genomestart 100
trait 1 0.1 0 0 0 0 0 0.203203 0 
trait 2 0.15 0.140166 0 0 0 0 0 0.0141789 
trait 3 0.3 0 0 0 0 0 0 0 
node 1 1 1 3
node 2 3 1 1
node 3 1 1 1
node 4 3 0 2
node 7 1 0 0
node 15 2 0 0
node 49 1 0 0
gene 1 1 4 -7.15347 0 1 -7.15347 1
gene 3 2 4 5.80879 0 2 5.80879 1
gene 2 3 4 -1.8761 0 3 -1.8761 1
gene 2 3 7 0.824308 0 8 0.824308 1
gene 2 7 4 2.97914 0 9 2.97914 1
gene 3 1 7 -1.70896 0 24 -1.70896 1
gene 2 3 15 -3.65788 0 36 -3.65788 1
gene 2 15 7 0.600437 0 37 0.600437 1
gene 1 15 4 6.64974 0 83 6.64974 1
gene 3 1 15 0.892434 0 96 0.892434 1
gene 2 2 15 4.48821 0 128 4.48821 1
gene 2 3 49 -1.27407 0 144 -1.27407 1
gene 2 49 15 -3.61843 0 145 -3.61843 1
genomeend 100

/* Species #17 : (Size 6) (AF 6.07805) (Age 11)  */


/* Organism #101 Fitness: 8.99836 Error: 1.00027 */
genomestart 101
trait 1 0.1 0.170885 0 0 0.000332548 0 0 0 
trait 2 0.167354 0.1685 0 0 0 0 0 0.0200349 
trait 3 0.3 0 0 0 0 0.521619 0.136498 0 
node 1 3 1 3
node 2 3 1 1
node 3 1 1 1
node 4 3 0 2
node 7 1 0 0
node 54 1 0 0
gene 1 1 4 0.497473 0 1 0.497473 1
gene 3 2 4 1.44201 0 2 1.44201 1
gene 3 3 4 -5.3002 0 3 -5.3002 1
gene 2 3 7 -0.55299 0 8 -0.55299 1
gene 2 7 4 -2.58505 0 9 -2.58505 1
gene 2 1 7 0.0879265 0 12 0.0879265 1
gene 1 2 7 -1.41953 0 106 -1.41953 1
gene 1 2 54 1.72217 0 159 1.72217 1
gene 1 54 7 0.606743 0 160 0.606743 1
genomeend 101

/* Organism #102 Fitness: 3.95581 Error: 2.01108 */
genomestart 102
trait 1 0.1 0.170885 0 0 0.000332548 0 0 0 
trait 2 0.167354 0.1685 0 0 0 0 0 0.0200349 
trait 3 0.3 0 0 0 0 0.521619 0.136498 0 
node 1 3 1 3
node 2 3 1 1
node 3 1 1 1
node 4 3 0 2
node 7 1 0 0
node 54 1 0 0
gene 1 1 4 0.497473 0 1 0.497473 1
gene 3 2 4 1.44201 0 2 1.44201 1
gene 3 3 4 -2.12908 0 3 -2.12908 1
gene 2 3 7 -0.55299 0 8 -0.55299 1
gene 2 7 4 -1.88258 0 9 -1.88258 1
gene 2 1 7 -0.644077 0 12 -0.644077 1
gene 1 2 7 -1.41953 0 106 -1.41953 1
gene 1 2 54 2.93419 0 159 2.93419 1
gene 1 54 7 0.606743 0 160 0.606743 1
genomeend 102

/* Organism #103 Fitness: 4.0021 Error: 1.99947 */
genomestart 103
trait 1 0.1 0.170885 0 0 0.000332548 0 0 0 
trait 2 0.167354 0.1685 0 0 0 0 0 0.0200349 
trait 3 0.3 0 0 0 0 0.521619 0.136498 0 
node 1 3 1 3
node 2 3 1 1
node 3 1 1 1
node 4 2 0 2
node 7 1 0 0
node 54 1 0 0
gene 1 1 4 -3.04128 0 1 -3.04128 1
gene 3 2 4 5.504 0 2 5.504 1
gene 3 3 4 -0.931788 0 3 -0.931788 1
gene 2 3 7 3.61618 0 8 3.61618 1
gene 2 7 4 -2.02312 0 9 -2.02312 1
gene 2 1 7 -2.10798 0 12 -2.10798 1
gene 1 2 7 -3.39468 0 106 -3.39468 1
gene 1 2 54 4.17256 0 159 4.17256 1
gene 1 54 7 -3.19114 0 160 -3.19114 1
genomeend 103

/* Organism #104 Fitness: 8.99977 Error: 1.00004 */
genomestart 104
trait 1 0.1 0.170885 0 0 0.000332548 0 0 0 
trait 2 0.167354 0.1685 0 0 0 0 0 0.0200349 
trait 3 0.3 0 0 0 0 0.521619 0.136498 0 
node 1 3 1 3
node 2 3 1 1
node 3 1 1 1
node 4 3 0 2
node 7 1 0 0
node 54 1 0 0
gene 1 1 4 -1.56703 0 1 -1.56703 1
gene 3 2 4 3.709 0 2 3.709 1
gene 3 3 4 -2.36395 0 3 -2.36395 1
gene 2 3 7 2.41267 0 8 2.41267 1
gene 2 7 4 -4.1285 0 9 -4.1285 1
gene 2 1 7 0.270568 0 12 0.270568 1
gene 1 2 7 -0.588687 0 106 -0.588687 1
gene 1 2 54 1.98164 0 159 1.98164 1
gene 1 54 7 -0.484681 0 160 -0.484681 1
genomeend 104

/* Organism #105 Fitness: 4.01242 Error: 1.9969 */
genomestart 105
trait 1 0.1 0.170885 0 0 0.000332548 0 0 0 
trait 2 0.167354 0.1685 0 0 0 0 0 0.0200349 
trait 3 0.3 0 0 0 0 0.521619 0.136498 0 
node 1 3 1 3
node 2 3 1 1
node 3 1 1 1
node 4 3 0 2
node 7 1 0 0
node 54 1 0 0
gene 1 1 4 -0.425648 0 1 -0.425648 1
gene 3 2 4 1.44201 0 2 1.44201 1
gene 3 3 4 -2.41079 0 3 -2.41079 1
gene 2 3 7 2.49895 0 8 2.49895 1
gene 2 7 4 0.906117 0 9 0.906117 1
gene 2 1 7 1.93848 0 12 1.93848 1
gene 1 2 7 -1.41953 0 106 -1.41953 1
gene 1 2 54 -2.32489 0 159 -2.32489 1
gene 1 54 7 -0.737474 0 160 -0.737474 1
genomeend 105

/* Organism #106 Fitness: 6.49983 Error: 1.45052 */
genomestart 106
trait 1 0.1 0.170885 0 0 0.000332548 0 0 0 
trait 2 0.167354 0.1685 0 0 0 0 0 0.0200349 
trait 3 0.3 0 0 0 0 0.521619 0.136498 0 
node 1 3 1 3
node 2 3 1 1
node 3 1 1 1
node 4 3 0 2
node 7 1 0 0
node 54 1 0 0
gene 1 1 4 -0.597405 0 1 -0.597405 1
gene 3 2 4 0.6794 0 2 0.6794 1
gene 3 3 4 -5.90655 0 3 -5.90655 1
gene 2 3 7 -0.233928 0 8 -0.233928 1
gene 3 7 4 -4.40291 0 9 -4.40291 1
gene 2 1 7 -1.36096 0 12 -1.36096 1
gene 1 2 7 -2.07694 0 106 -2.07694 1
gene 1 2 54 -0.0409073 0 159 -0.0409073 1
gene 1 54 7 -1.94006 0 160 -1.94006 1
genomeend 106

/* Species #18 : (Size 7) (AF 6.58361) (Age 10)  */


/* Organism #107 Fitness: 8.99643 Error: 1.00059 */
genomestart 107
trait 1 0.1 0.0503287 0.141082 0 0.169826 0 0 0 
trait 2 0.2 0 0 0 0 0 0 0 
trait 3 0.3 0 0 0 0 0 0 0 
node 1 2 1 3
node 2 1 1 1
node 3 2 1 1
node 4 2 0 2
node 8 1 0 0
node 12 3 0 0
node 17 1 0 0
node 62 1 0 0
gene 2 1 4 -4.68908 0 1 -4.68908 1
gene 2 2 4 5.0222 0 2 5.0222 1
gene 2 3 4 -4.20405 0 3 -4.20405 1
gene 2 3 8 3.78936 0 10 3.78936 0
gene 2 8 4 1.17514 0 11 1.17514 1
gene 2 3 12 -1.47928 0 22 -1.47928 1
gene 2 12 8 4.567 0 23 4.567 1
gene 2 2 17 -3.46608 0 44 -3.46608 0
gene 2 17 4 -8 0 45 -8 1
gene 2 2 62 2.06856 0 180 2.06856 1
gene 2 62 17 -7.87466 0 181 -7.87466 1
genomeend 107

/* Organism #108 Fitness: 7.48508 Error: 1.26411 */
genomestart 108
trait 1 0.1 0.0503287 0.141082 0 0.169826 0 0 0 
trait 2 0.2 0 0 0 0 0 0 0 
trait 3 0.3 0 0 0 0 0 0 0 
node 1 2 1 3
node 2 1 1 1
node 3 2 1 1
node 4 2 0 2
node 8 1 0 0
node 12 3 0 0
node 17 1 0 0
node 62 1 0 0
gene 2 1 4 -1.15271 0 1 -1.15271 1
gene 2 2 4 2.13455 0 2 2.13455 1
gene 2 3 4 -4.20405 0 3 -4.20405 1
gene 2 3 8 3.78936 0 10 3.78936 0
gene 2 8 4 -0.777217 0 11 -0.777217 1
gene 2 3 12 0.184256 0 22 0.184256 1
gene 2 12 8 2.18699 0 23 2.18699 1
gene 2 2 17 -4.9618 0 44 -4.9618 0
gene 2 17 4 -8 0 45 -8 1
gene 1 2 62 2.48308 0 180 2.48308 1
gene 2 62 17 -8 0 181 -8 1
genomeend 108

/* Organism #109 Fitness: 4.02486 Error: 1.99379 */
genomestart 109
trait 1 0.1 0.0503287 0.141082 0 0.169826 0 0 0 
trait 2 0.2 0 0 0 0 0 0 0 
trait 3 0.3 0 0 0 0 0 0 0 
node 1 2 1 3
node 2 1 1 1
node 3 2 1 1
node 4 2 0 2
node 8 1 0 0
node 12 3 0 0
node 17 1 0 0
node 62 1 0 0
gene 2 1 4 -5.91252 0 1 -5.91252 1
gene 2 2 4 0.652854 0 2 0.652854 1
gene 2 3 4 -6.50971 0 3 -6.50971 1
gene 2 3 8 4.30889 0 10 4.30889 1
gene 2 8 4 4.23727 0 11 4.23727 1
gene 2 3 12 -2.09501 0 22 -2.09501 1
gene 2 12 8 6.55163 0 23 6.55163 1
gene 2 2 17 -4.15178 0 44 -4.15178 0
gene 2 17 4 -1.542 0 45 -1.542 1
gene 2 2 62 1.64539 0 180 1.64539 1
gene 2 62 17 -5.94163 0 181 -5.94163 1
genomeend 109

/* Organism #110 Fitness: 8.6206 Error: 1.06391 */
genomestart 110
trait 1 0.1 0.0503287 0.141082 0 0.169826 0 0 0 
trait 2 0.2 0 0 0 0 0 0 0 
trait 3 0.3 0 0 0 0 0 0 0 
node 1 2 1 3
node 2 1 1 1
node 3 2 1 1
node 4 2 0 2
node 8 1 0 0
node 12 3 0 0
node 17 1 0 0
node 62 1 0 0
gene 2 1 4 -2.45514 0 1 -2.45514 1
gene 2 2 4 2.24665 0 2 2.24665 1
gene 2 3 4 -4.20246 0 3 -4.20246 1
gene 2 3 8 2.82684 0 10 2.82684 0
gene 2 8 4 1.90906 0 11 1.90906 1
gene 2 3 12 0.592824 0 22 0.592824 1
gene 2 12 8 4.11864 0 23 4.11864 1
gene 2 2 17 0.142215 0 44 0.142215 1
gene 2 17 4 -0.0892556 0 45 -0.0892556 1
gene 2 2 62 -1.83277 0 180 -1.83277 1
gene 2 62 17 -7.3359 0 181 -7.3359 1
genomeend 110

/* Organism #111 Fitness: 4 Error: 2 */
genomestart 111
trait 1 0.1 0.0503287 0.141082 0 0.169826 0 0 0 
trait 2 0.2 0 0 0 0 0 0 0 
trait 3 0.3 0 0 0 0 0 0 0 
node 1 1 1 3
node 2 1 1 1
node 3 2 1 1
node 4 2 0 2
node 8 1 0 0
node 12 3 0 0
node 17 1 0 0
node 62 1 0 0
gene 2 1 4 -2.25127 0 1 -2.25127 1
gene 2 2 4 1.10285 0 2 1.10285 1
gene 2 3 4 -6.68093 0 3 -6.68093 1
gene 2 3 8 1.82271 0 10 1.82271 0
gene 2 8 4 -2.35243 0 11 -2.35243 1
gene 2 3 12 -2.52754 0 22 -2.52754 1
gene 2 12 8 4.13057 0 23 4.13057 1
gene 2 2 17 -2.47513 0 44 -2.47513 0
gene 2 17 4 -6.5173 0 45 -6.5173 1
gene 2 2 62 -0.778572 0 180 -0.778572 1
gene 2 62 17 -0.191669 0 181 -0.191669 1
genomeend 111

/* Organism #112 Fitness: 4.03772 Error: 1.99059 */
genomestart 112
trait 1 0.1 0.0503287 0.612081 0.258454 1 0 0 0 
trait 2 0.2 0 0 0 0 0 0 0 
trait 3 0.3 0 0 0 0 0 0 0 
node 1 2 1 3
node 2 1 1 1
node 3 2 1 1
node 4 2 0 2
node 8 1 0 0
node 12 3 0 0
node 17 1 0 0
node 62 1 0 0
gene 2 1 4 -4.65784 0 1 -4.65784 1
gene 2 2 4 2.53704 0 2 2.53704 1
gene 2 3 4 -4.20405 0 3 -4.20405 1
gene 2 3 8 3.78936 0 10 3.78936 0
gene 2 8 4 1.17514 0 11 1.17514 1
gene 2 3 12 -1.47928 0 22 -1.47928 1
gene 2 12 8 4.567 0 23 4.567 1
gene 2 2 17 -3.46608 0 44 -3.46608 0
gene 2 17 4 -6.48609 0 45 -6.48609 1
gene 2 2 62 2.06856 0 180 2.06856 1
gene 2 62 17 -7.87466 0 181 -7.87466 1
genomeend 112

/* Organism #113 Fitness: 8.92055 Error: 1.01327 */
genomestart 113
trait 1 0.1 0.0503287 0.141082 0 0.169826 0 0 0 
trait 2 0.2 0 0 0 0 0 0 0 
trait 3 0.3 0 0 0 0 0 0 0 
node 1 2 1 3
node 2 1 1 1
node 3 2 1 1
node 4 2 0 2
node 8 1 0 0
node 12 3 0 0
node 17 1 0 0
node 62 1 0 0
gene 2 1 4 -2.2792 0 1 -2.2792 1
gene 2 2 4 7.26019 0 2 7.26019 1
gene 2 3 4 -6.39522 0 3 -6.39522 1
gene 2 3 8 4.24832 0 10 4.24832 0
gene 2 8 4 3.89403 0 11 3.89403 1
gene 2 3 12 -0.473846 0 22 -0.473846 1
gene 2 12 8 3.66886 0 23 3.66886 1
gene 2 2 17 -1.13762 0 44 -1.13762 0
gene 2 17 4 -8 0 45 -8 1
gene 1 2 62 1.71071 0 180 1.71071 1
gene 2 62 17 1.98857 0 181 1.98857 1
genomeend 113

/* Species #19 : (Size 10) (AF 7.21648) (Age 7)  */


/* Organism #114 Fitness: 9.00023 Error: 0.999962 */
genomestart 114
trait 1 0.1 0.00342218 0 0 0.0673902 0 0 0 
trait 2 0.2 0 0 0 0 0 0 0.277474 
trait 3 0.3 0.0389629 0 0.377502 0 0 0 0 
node 1 2 1 3
node 2 1 1 1
node 3 2 1 1
node 4 1 0 2
node 8 1 0 0
node 65 1 0 0
gene 2 1 4 2.00246 0 1 2.00246 1
gene 2 2 4 -4.25449 0 2 -4.25449 1
gene 2 3 4 -0.0778816 0 3 -0.0778816 0
gene 2 3 8 -5.45185 0 10 -5.45185 1
gene 3 8 4 -4.32199 0 11 -4.32199 1
gene 1 2 8 -2.6559 0 136 -2.6559 1
gene 1 1 8 1.19145 0 171 1.19145 1
gene 2 3 65 -2.61542 0 189 -2.61542 1
gene 2 65 4 1.39599 0 190 1.39599 1
genomeend 114

/* Organism #115 Fitness: 4.01927 Error: 1.99519 */
genomestart 115
trait 1 0.1 0.00342218 0 0 0.0673902 0 0 0 
trait 2 0.2 0 0 0 0 0 0 0.277474 
trait 3 0.320253 0.0292222 0.181608 0.502133 0 0.0360565 0.1639 0 
node 1 2 1 3
node 2 1 1 1
node 3 2 1 1
node 4 1 0 2
node 8 1 0 0
node 65 1 0 0
gene 2 1 4 3.13065 0 1 3.13065 1
gene 2 2 4 -5.60871 0 2 -5.60871 1
gene 2 3 4 -3.47564 0 3 -3.47564 0
gene 2 3 8 -4.37267 0 10 -4.37267 1
gene 3 8 4 -4.26908 0 11 -4.26908 1
gene 1 2 8 -4.17125 0 136 -4.17125 1
gene 1 1 8 0.186437 0 171 0.186437 1
gene 2 3 65 -0.594104 0 189 -0.594104 1
gene 2 65 4 2.08433 0 190 2.08433 1
genomeend 115

/* Organism #116 Fitness: 4.00205 Error: 1.99949 */
genomestart 116
trait 1 0.1 0.00342218 0 0 0.0673902 0 0 0 
trait 2 0.2 0 0 0 0 0 0 0.277474 
trait 3 0.320253 0.0292222 0.181608 0.502133 0 0.0360565 0.1639 0 
node 1 2 1 3
node 2 1 1 1
node 3 2 1 1
node 4 1 0 2
node 8 1 0 0
node 65 1 0 0
gene 2 1 4 4.57165 0 1 4.57165 1
gene 2 2 4 -3.44624 0 2 -3.44624 1
gene 2 3 4 1.83818 0 3 1.83818 0
gene 2 3 8 -2.38537 0 10 -2.38537 1
gene 3 8 4 -4.06092 0 11 -4.06092 1
gene 1 2 8 -0.740468 0 136 -0.740468 1
gene 1 1 8 -0.0874611 0 171 -0.0874611 1
gene 2 3 65 -1.64016 0 189 -1.64016 1
gene 2 65 4 0.192992 0 190 0.192992 1
genomeend 116

/* Organism #117 Fitness: 4 Error: 2 */
genomestart 117
trait 1 0.1 0.00342218 0 0 0.0673902 0 0 0 
trait 2 0.2 0 0 0 0 0 0 0.277474 
trait 3 0.340506 0.0194814 0.363217 0.626764 0 0.072113 0.3278 0 
node 1 2 1 3
node 2 1 1 1
node 3 2 1 1
node 4 1 0 2
node 8 1 0 0
node 65 1 0 0
gene 2 1 4 1.66741 0 1 1.66741 1
gene 2 2 4 -5.25653 0 2 -5.25653 1
gene 2 3 4 -3.17668 0 3 -3.17668 0
gene 2 3 8 -2.03611 0 10 -2.03611 1
gene 3 8 4 -6.95399 0 11 -6.95399 1
gene 1 2 8 1.55231 0 136 1.55231 1
gene 1 1 8 2.7249 0 171 2.7249 1
gene 2 3 65 0.0432012 0 189 0.0432012 1
gene 2 65 4 -1.10634 0 190 -1.10634 1
genomeend 117

/* Organism #118 Fitness: 8.99641 Error: 1.0006 */
genomestart 118
trait 1 0.1 0.00342218 0 0 0.0673902 0 0 0 
trait 2 0.2 0 0 0 0 0 0 0.277474 
trait 3 0.33038 0.0243518 0.272412 0.564449 0 0.0540847 0.24585 0 
node 1 2 1 3
node 2 1 1 1
node 3 2 1 1
node 4 1 0 2
node 8 1 0 0
node 65 1 0 0
gene 2 1 4 2.08474 0 1 2.08474 1
gene 2 2 4 -4.25449 0 2 -4.25449 1
gene 2 3 4 -1.1712 0 3 -1.1712 0
gene 2 3 8 -5.45185 0 10 -5.45185 1
gene 3 8 4 -4.32199 0 11 -4.32199 1
gene 1 2 8 2.94947 0 136 2.94947 1
gene 1 1 8 1.19145 0 171 1.19145 1
gene 2 3 65 -2.61542 0 189 -2.61542 1
gene 2 65 4 1.39599 0 190 1.39599 1
genomeend 118

/* Organism #119 Fitness: 9.00005 Error: 0.999991 */
genomestart 119
trait 1 0.1 0.00342218 0 0 0.0673902 0 0 0 
trait 2 0.2 0 0 0 0 0 0 0.277474 
trait 3 0.3 0.0389629 0 0.377502 0 0 0 0 
node 1 2 1 3
node 2 1 1 1
node 3 2 1 1
node 4 1 0 2
node 8 1 0 0
node 65 1 0 0
gene 2 1 4 2.00246 0 1 2.00246 1
gene 2 2 4 -4.25449 0 2 -4.25449 1
gene 2 3 4 -0.0778816 0 3 -0.0778816 0
gene 2 3 8 -5.45185 0 10 -5.45185 1
gene 3 8 4 -4.32199 0 11 -4.32199 1
gene 1 2 8 -2.6559 0 136 -2.6559 1
gene 1 1 8 1.19145 0 171 1.19145 1
gene 2 3 65 -2.61542 0 189 -2.61542 1
gene 2 65 4 1.39599 0 190 1.39599 1
gene 3 65 8 -0.370239 0 261 -0.370239 1
genomeend 119

/* Organism #120 Fitness: 12.6759 Error: 0.439671 */
/* ##------$ WINNER 120 SPECIES #19 $------## */
genomestart 120
trait 1 0.1 0.00342218 0 0 0.0673902 0 0 0 
trait 2 0.581402 0 0.976769 0 0 0 0 0.277474 
trait 3 0.310127 0.0340925 0.0908041 0.439818 0 0.0180282 0.0819501 0 
node 1 2 1 3
node 2 1 1 1
node 3 2 1 1
node 4 1 0 2
node 8 1 0 0
node 65 1 0 0
gene 2 1 4 2.75373 0 1 2.75373 1
gene 2 2 4 -4.25449 0 2 -4.25449 1
gene 2 3 4 -0.0991397 0 3 -0.0991397 0
gene 2 3 8 -5.81889 0 10 -5.81889 1
gene 3 8 4 -6.64469 0 11 -6.64469 1
gene 1 2 8 -5.07662 0 136 -5.07662 1
gene 1 1 8 1.19145 0 171 1.19145 1
gene 2 3 65 -1.35225 0 189 -1.35225 1
gene 2 65 4 3.10107 0 190 3.10107 1
genomeend 120

/* Organism #121 Fitness: 4.96707 Error: 1.77131 */
genomestart 121
trait 1 0.1 0.00342218 0 0 0.0673902 0 0 0 
trait 2 0.2 0 0 0 0 0 0 0.277474 
trait 3 0.310127 0.0340925 0.0908041 0.439818 0 0.0180282 0.0819501 0 
node 1 2 1 3
node 2 1 1 1
node 3 2 1 1
node 4 1 0 2
node 8 1 0 0
node 65 1 0 0
gene 2 1 4 2.09355 0 1 2.09355 1
gene 2 2 4 -6.05066 0 2 -6.05066 1
gene 2 3 4 2.30349 0 3 2.30349 0
gene 2 3 8 -7.34656 0 10 -7.34656 1
gene 3 8 4 -2.90068 0 11 -2.90068 1
gene 1 2 8 0.920857 0 136 0.920857 1
gene 1 1 8 0.399436 0 171 0.399436 1
gene 2 3 65 -3.76775 0 189 -3.76775 1
gene 2 65 4 1.39599 0 190 1.39599 1
genomeend 121

/* Organism #122 Fitness: 6.68526 Error: 1.41441 */
genomestart 122
trait 1 0.1 0.00342218 0 0 0.0673902 0 0 0 
trait 2 0.2 0 0 0 0 0 0 0.277474 
trait 3 0.320253 0.0292222 0.181608 0.502133 0 0.0360565 0.1639 0 
node 1 2 1 3
node 2 1 1 1
node 3 2 1 1
node 4 1 0 2
node 8 1 0 0
node 65 1 0 0
gene 2 1 4 0.0701137 0 1 0.0701137 1
gene 2 2 4 -2.45012 0 2 -2.45012 1
gene 2 3 4 -3.64168 0 3 -3.64168 0
gene 2 3 8 -4.37374 0 10 -4.37374 1
gene 3 8 4 -5.1158 0 11 -5.1158 1
gene 1 2 8 -3.34114 0 136 -3.34114 1
gene 1 1 8 1.97549 0 171 1.97549 1
gene 2 3 65 -4.86978 0 189 -4.86978 1
gene 2 65 4 1.25513 0 190 1.25513 1
genomeend 122

/* Organism #123 Fitness: 8.81853 Error: 1.0304 */
genomestart 123
trait 1 0.1 0.00342218 0 0 0.0673902 0 0 0 
trait 2 0.2 0 0 0 0 0 0 0.277474 
trait 3 0.310127 0.0340925 0.0908041 0.439818 0 0.0180282 0.0819501 0 
node 1 2 1 3
node 2 1 1 1
node 3 2 1 1
node 4 1 0 2
node 8 1 0 0
node 65 1 0 0
gene 2 1 4 0.703148 0 1 0.703148 1
gene 2 2 4 -5.36153 0 2 -5.36153 1
gene 2 3 4 0.437978 0 3 0.437978 0
gene 2 3 8 -7.07449 0 10 -7.07449 1
gene 3 8 4 -4.49726 0 11 -4.49726 1
gene 1 2 8 -0.196547 0 136 -0.196547 1
gene 1 1 8 1.12684 0 171 1.12684 1
gene 2 3 65 -5.06151 0 189 -5.06151 1
gene 2 65 4 2.0271 0 190 2.0271 1
genomeend 123

/* Species #20 : (Size 5) (AF 6.04727) (Age 6)  */


/* Organism #124 Fitness: 8.06241 Error: 1.16056 */
genomestart 124
trait 1 0.959584 0.680669 0 0 0 0 0 0.602744 
trait 2 0.207637 0.0891511 0 0 0 0 0 0.0133123 
trait 3 0.3 0 0 0 0 0 0 0 
node 1 3 1 3
node 2 3 1 1
node 3 1 1 1
node 4 3 0 2
node 7 1 0 0
node 70 1 0 0
gene 1 1 4 -0.336293 0 1 -0.336293 1
gene 3 2 4 -3.82946 0 2 -3.82946 1
gene 3 3 4 2.46802 0 3 2.46802 1
gene 2 3 7 -1.8009 0 8 -1.8009 1
gene 2 7 4 0.0647597 0 9 0.0647597 1
gene 3 1 7 -6.8866 0 34 -6.8866 1
gene 2 2 7 3.40442 0 43 3.40442 1
gene 2 2 70 0.376557 0 200 0.376557 1
gene 2 70 7 -1.74622 0 201 -1.74622 1
genomeend 124

/* Organism #125 Fitness: 4.77038 Error: 1.81588 */
genomestart 125
trait 1 0.1 0 0 0 0 0 0 0 
trait 2 0.207637 0.0891511 0 0 0 0 0 0.0133123 
trait 3 0.3 0 0 0 0 0 0 0 
node 1 3 1 3
node 2 3 1 1
node 3 1 1 1
node 4 3 0 2
node 7 1 0 0
node 70 1 0 0
gene 1 1 4 0.0629423 0 1 0.0629423 1
gene 3 2 4 -1.1414 0 2 -1.1414 1
gene 1 3 4 0.18006 0 3 0.18006 1
gene 2 3 7 0.488004 0 8 0.488004 1
gene 2 7 4 4.02707 0 9 4.02707 1
gene 3 1 7 -2.85567 0 34 -2.85567 1
gene 2 2 7 -0.966838 0 43 -0.966838 0
gene 2 2 70 3.30066 0 200 3.30066 1
gene 2 70 7 -2.03598 0 201 -2.03598 1
genomeend 125

/* Organism #126 Fitness: 5.53063 Error: 1.64827 */
genomestart 126
trait 1 0.1 0 0 0 0 0 0 0 
trait 2 0.207637 0.0891511 0 0 0 0 0 0.0133123 
trait 3 0.3 0 0 0 0 0 0 0 
node 1 3 1 3
node 2 3 1 1
node 3 1 1 1
node 4 3 0 2
node 7 1 0 0
node 70 1 0 0
gene 1 1 4 0.094362 0 1 0.094362 1
gene 3 2 4 -1.73276 0 2 -1.73276 1
gene 3 3 4 0.914915 0 3 0.914915 1
gene 2 3 7 1.37094 0 8 1.37094 1
gene 2 7 4 3.50559 0 9 3.50559 1
gene 3 1 7 -2.56148 0 34 -2.56148 1
gene 2 2 7 0.986878 0 43 0.986878 0
gene 2 2 70 2.88282 0 200 2.88282 1
gene 2 70 7 -1.14265 0 201 -1.14265 1
genomeend 126

/* Organism #127 Fitness: 8.26492 Error: 1.12512 */
genomestart 127
trait 1 0.1 0 0 0 0 0 0 0 
trait 2 0.207637 0.0891511 0 0 0 0 0 0.0133123 
trait 3 0.3 0 0 0 0 0 0 0 
node 1 3 1 3
node 2 3 1 1
node 3 1 1 1
node 4 3 0 2
node 7 1 0 0
node 70 1 0 0
gene 1 1 4 -0.420127 0 1 -0.420127 1
gene 3 2 4 -2.26524 0 2 -2.26524 1
gene 3 3 4 1.78549 0 3 1.78549 1
gene 2 3 7 1.78979 0 8 1.78979 1
gene 2 7 4 4.41171 0 9 4.41171 1
gene 3 1 7 -3.36932 0 34 -3.36932 1
gene 2 2 7 1.46187 0 43 1.46187 0
gene 2 2 70 3.3618 0 200 3.3618 1
gene 2 70 7 -4.32876 0 201 -4.32876 1
genomeend 127

/* Organism #128 Fitness: 3.60802 Error: 2.10052 */
genomestart 128
trait 1 0.529792 0.340334 0 0 0 0 0 0.301372 
trait 2 0.207637 0.0891511 0 0 0 0 0 0.0133123 
trait 3 0.3 0 0 0 0 0 0 0 
node 1 3 1 3
node 2 3 1 1
node 3 1 1 1
node 4 3 0 2
node 7 1 0 0
node 70 1 0 0
gene 1 1 4 0.726327 0 1 0.726327 1
gene 3 2 4 -3.47683 0 2 -3.47683 1
gene 3 3 4 -0.336183 0 3 -0.336183 1
gene 2 3 7 -0.448074 0 8 -0.448074 1
gene 2 7 4 5.28876 0 9 5.28876 1
gene 3 1 7 -4.86916 0 34 -4.86916 1
gene 2 2 7 3.47982 0 43 3.47982 0
gene 2 2 70 2.58528 0 200 2.58528 1
gene 2 70 7 -3.29101 0 201 -3.29101 1
genomeend 128

/* Species #21 : (Size 10) (AF 7.01098) (Age 2)  */


/* Organism #129 Fitness: 8.98306 Error: 1.00283 */
genomestart 129
trait 1 0.1 0 0 0 0 0 0 0 
trait 2 0.499709 0.314148 0 0.997552 0 0 0 0.713728 
trait 3 0.3 0.207802 0 0.893616 0 0 0 0 
node 1 2 1 3
node 2 1 1 1
node 3 2 1 1
node 4 3 0 2
node 8 1 0 0
node 10 1 0 0
node 20 1 0 0
node 80 1 0 0
gene 2 1 4 0.652736 0 1 0.652736 1
gene 2 2 4 -5.15267 0 2 -5.15267 0
gene 2 3 4 -4.2494 0 3 -4.2494 1
gene 2 3 8 -1.35311 0 10 -1.35311 1
gene 2 8 4 2.90387 0 11 2.90387 1
gene 2 2 10 -7.11615 0 17 -7.11615 1
gene 2 10 4 -4.58351 0 18 -4.58351 1
gene 2 10 20 4.9194 0 52 4.9194 0
gene 2 20 4 -2.36291 0 53 -2.36291 1
gene 1 2 8 1.44237 0 152 1.44237 1
gene 1 1 10 0.512234 0 209 0.512234 1
gene 2 10 80 1 0 227 0 1
gene 2 80 20 4.9194 0 228 0 1
gene 2 3 20 0.225403 0 251 0.225403 1
genomeend 129

/* Organism #130 Fitness: 8.98639 Error: 1.00227 */
genomestart 130
trait 1 0.1 0 0 0 0 0 0 0 
trait 2 0.499709 0.314148 0 0.997552 0 0 0 0.713728 
trait 3 0.3 0.207802 0 0.893616 0 0 0 0 
node 1 2 1 3
node 2 1 1 1
node 3 2 1 1
node 4 3 0 2
node 8 1 0 0
node 10 1 0 0
node 20 1 0 0
node 80 1 0 0
gene 2 1 4 0.652736 0 1 0.652736 1
gene 2 2 4 -5.15267 0 2 -5.15267 0
gene 2 3 4 -4.2494 0 3 -4.2494 1
gene 2 3 8 -1.35311 0 10 -1.35311 1
gene 2 8 4 2.90387 0 11 2.90387 1
gene 2 2 10 -7.11615 0 17 -7.11615 1
gene 2 10 4 -4.58351 0 18 -4.58351 1
gene 2 10 20 4.9194 0 52 4.9194 0
gene 2 20 4 -2.36291 0 53 -2.36291 1
gene 1 2 8 1.44237 0 152 1.44237 1
gene 1 1 10 0.512234 0 209 0.512234 1
gene 2 10 80 1 0 227 0 1
gene 2 80 20 4.9194 0 228 0 1
gene 2 3 20 0.225403 0 251 0.225403 1
gene 1 1 80 -0.332125 0 262 -0.332125 1
genomeend 130

/* Organism #131 Fitness: 8.98306 Error: 1.00283 */
genomestart 131
trait 1 0.1 0 0 0 0 0 0 0 
trait 2 0.499709 0.314148 0 0.997552 0 0 0 0.713728 
trait 3 0.3 0.207802 0 0.893616 0 0 0 0 
node 1 2 1 3
node 2 2 1 1
node 3 2 1 1
node 4 3 0 2
node 8 1 0 0
node 10 1 0 0
node 20 1 0 0
node 80 1 0 0
gene 2 1 4 0.652736 0 1 0.652736 1
gene 2 2 4 -5.15267 0 2 -5.15267 0
gene 2 3 4 -4.2494 0 3 -4.2494 1
gene 2 3 8 -1.35311 0 10 -1.35311 1
gene 2 8 4 2.90387 0 11 2.90387 1
gene 2 2 10 -7.11615 0 17 -7.11615 1
gene 2 10 4 -4.58351 0 18 -4.58351 1
gene 2 10 20 4.9194 0 52 4.9194 0
gene 2 20 4 -2.36291 0 53 -2.36291 1
gene 1 2 8 1.44237 0 152 1.44237 1
gene 1 1 10 0.512234 0 209 0.512234 1
gene 2 10 80 1 0 227 0 1
gene 2 80 20 4.9194 0 228 0 1
gene 2 3 20 0.225403 0 251 0.225403 1
genomeend 131

/* Organism #132 Fitness: 8.92997 Error: 1.01169 */
genomestart 132
trait 1 0.1 0 0 0 0 0 0 0 
trait 2 0.499709 0.314148 0 0.997552 0 0 0 0.713728 
trait 3 0.3 0.207802 0 0.893616 0 0 0 0 
node 1 2 1 3
node 2 1 1 1
node 3 2 1 1
node 4 3 0 2
node 8 1 0 0
node 10 1 0 0
node 20 1 0 0
node 80 1 0 0
gene 2 1 4 0.652736 0 1 0.652736 1
gene 2 2 4 -5.15267 0 2 -5.15267 0
gene 2 3 4 -4.2494 0 3 -4.2494 1
gene 2 3 8 -1.35311 0 10 -1.35311 1
gene 2 8 4 2.90387 0 11 2.90387 1
gene 2 2 10 -7.11615 0 17 -7.11615 1
gene 2 10 4 -4.58351 0 18 -4.58351 1
gene 2 10 20 4.9194 0 52 4.9194 0
gene 2 20 4 -2.36291 0 53 -2.36291 1
gene 1 2 8 1.44237 0 152 1.44237 1
gene 1 1 10 0.512234 0 209 0.512234 1
gene 2 10 80 1 0 227 0 1
gene 2 80 20 4.9194 0 228 0 1
gene 2 3 20 0.225403 0 251 0.225403 1
gene 3 20 8 -0.997954 0 263 -0.997954 1
genomeend 132

/* Organism #133 Fitness: 4.1327 Error: 1.9671 */
genomestart 133
trait 1 0.1 0 0 0 0 0 0 0 
trait 2 0.499709 0.314148 0 0.997552 0 0 0 0.713728 
trait 3 0.3 0.207802 0 0.893616 0 0 0.278727 0 
node 1 2 1 3
node 2 1 1 1
node 3 2 1 1
node 4 3 0 2
node 8 1 0 0
node 10 1 0 0
node 20 1 0 0
node 80 1 0 0
gene 2 1 4 -0.780317 0 1 -0.780317 1
gene 2 2 4 -5.27145 0 2 -5.27145 0
gene 2 3 4 -3.10405 0 3 -3.10405 1
gene 2 3 8 -0.212877 0 10 -0.212877 1
gene 2 8 4 2.90387 0 11 2.90387 1
gene 2 2 10 -7.11615 0 17 -7.11615 1
gene 2 10 4 -5.63481 0 18 -5.63481 1
gene 2 10 20 -1.82782 0 52 -1.82782 0
gene 2 20 4 -2.33827 0 53 -2.33827 1
gene 1 2 8 0.332967 0 152 0.332967 1
gene 1 1 10 2.31733 0 209 2.31733 1
gene 2 10 80 -0.187002 0 227 -0.187002 1
gene 2 80 20 4.03425 0 228 4.03425 1
gene 2 3 20 0.487962 0 251 0.487962 1
genomeend 133

/* Organism #134 Fitness: 8.99999 Error: 1 */
genomestart 134
trait 1 0.1 0 0 0 0 0 0 0 
trait 2 0.499709 0.314148 0 0.997552 0 0 0 0.713728 
trait 3 0.3 0.207802 0 0.893616 0 0 0 0 
node 1 2 1 3
node 2 1 1 1
node 3 2 1 1
node 4 3 0 2
node 8 1 0 0
node 10 1 0 0
node 20 1 0 0
node 80 1 0 0
gene 2 1 4 -1.29799 0 1 -1.29799 1
gene 2 2 4 -2.84728 0 2 -2.84728 0
gene 2 3 4 -5.51104 0 3 -5.51104 1
gene 2 3 8 -3.49026 0 10 -3.49026 1
gene 2 8 4 4.34907 0 11 4.34907 1
gene 2 2 10 -5.1878 0 17 -5.1878 1
gene 2 10 4 -5.88001 0 18 -5.88001 1
gene 2 10 20 4.38167 0 52 4.38167 0
gene 2 20 4 -0.431418 0 53 -0.431418 1
gene 1 2 8 3.02564 0 152 3.02564 1
gene 1 1 10 1.97646 0 209 1.97646 1
gene 2 10 80 -1.32751 0 227 -1.32751 1
gene 2 80 20 6.19211 0 228 6.19211 1
gene 2 3 20 2.17563 0 251 2.17563 1
genomeend 134

/* Organism #135 Fitness: 7.63396 Error: 1.23704 */
genomestart 135
trait 1 0.1 0 0 0 0 0 0 0 
trait 2 0.522022 0.314148 0 0.997552 0 0 0 0.714501 
trait 3 0.3 0.207802 0 0.893616 0 0 0 0 
node 1 2 1 3
node 2 1 1 1
node 3 2 1 1
node 4 3 0 2
node 8 1 0 0
node 10 1 0 0
node 20 1 0 0
node 80 1 0 0
gene 2 1 4 -0.46877 0 1 -0.46877 1
gene 2 2 4 -7.40115 0 2 -7.40115 0
gene 2 3 4 -4.2494 0 3 -4.2494 1
gene 2 3 8 0.492284 0 10 0.492284 1
gene 2 8 4 2.90387 0 11 2.90387 1
gene 2 2 10 -0.168057 0 17 -0.168057 1
gene 2 10 4 -4.25099 0 18 -4.25099 1
gene 2 10 20 6.8806 0 52 6.8806 0
gene 2 20 4 -2.19126 0 53 -2.19126 1
gene 1 2 8 3.28452 0 152 3.28452 1
gene 1 1 10 -1.26695 0 209 -1.26695 1
gene 2 10 80 0.48836 0 227 0.48836 1
gene 2 80 20 6.75542 0 228 6.75542 1
gene 2 3 20 0.225403 0 251 0.225403 1
genomeend 135

/* Organism #136 Fitness: 4 Error: 2 */
genomestart 136
trait 1 0.1 0 0 0 0 0 0 0 
trait 2 0.499709 0.314148 0 0.997552 0 0 0 0.713728 
trait 3 0.3 0.207802 0 0.893616 0 0 0 0 
node 1 2 1 3
node 2 1 1 1
node 3 2 1 1
node 4 3 0 2
node 8 2 0 0
node 10 1 0 0
node 20 1 0 0
node 80 1 0 0
gene 2 1 4 -1.07313 0 1 -1.07313 1
gene 2 2 4 -4.08466 0 2 -4.08466 0
gene 2 3 4 -0.347203 0 3 -0.347203 1
gene 2 3 8 -2.21195 0 10 -2.21195 1
gene 2 8 4 2.90387 0 11 2.90387 1
gene 2 2 10 0.96493 0 17 0.96493 1
gene 2 10 4 -4.72436 0 18 -4.72436 1
gene 2 10 20 6.96295 0 52 6.96295 0
gene 2 20 4 -2.44015 0 53 -2.44015 1
gene 1 2 8 1.93338 0 152 1.93338 1
gene 1 1 10 1.29905 0 209 1.29905 1
gene 2 10 80 2.41893 0 227 2.41893 1
gene 2 80 20 2.99403 0 228 2.99403 1
gene 2 3 20 0.356246 0 251 0.356246 1
genomeend 136

/* Organism #137 Fitness: 5.46064 Error: 1.6632 */
genomestart 137
trait 1 0.1 0 0 0 0 0 0 0 
trait 2 0.499709 0.314148 0 0.997552 0 0 0 0.713728 
trait 3 0.3 0.207802 0 0.893616 0 0 0 0 
node 1 2 1 3
node 2 1 1 1
node 3 2 1 1
node 4 3 0 2
node 8 1 0 0
node 10 1 0 0
node 20 1 0 0
node 80 1 0 0
gene 2 1 4 2.97495 0 1 2.97495 1
gene 2 2 4 -3.13618 0 2 -3.13618 0
gene 2 3 4 -5.49479 0 3 -5.49479 1
gene 2 3 8 -3.55325 0 10 -3.55325 1
gene 2 8 4 1.18095 0 11 1.18095 1
gene 2 2 10 -5.52325 0 17 -5.52325 1
gene 2 10 4 -2.26179 0 18 -2.26179 1
gene 2 10 20 5.6648 0 52 5.6648 0
gene 2 20 4 -2.49692 0 53 -2.49692 1
gene 1 2 8 1.44237 0 152 1.44237 1
gene 1 1 10 1.74873 0 209 1.74873 1
gene 2 10 80 0.613246 0 227 0.613246 1
gene 2 80 20 -0.0280255 0 228 -0.0280255 1
gene 2 3 20 -0.456113 0 251 -0.456113 1
genomeend 137

/* Organism #138 Fitness: 4.00002 Error: 2 */
genomestart 138
trait 1 0.1 0 0 0 0 0 0 0 
trait 2 0.499709 0.314148 0 0.997552 0 0 0 0.713728 
trait 3 0.3 0.207802 0 0.893616 0 0 0 0 
node 1 2 1 3
node 2 1 1 1
node 3 2 1 1
node 4 3 0 2
node 8 1 0 0
node 10 1 0 0
node 20 1 0 0
node 80 1 0 0
gene 2 1 4 -0.374504 0 1 -0.374504 1
gene 2 2 4 -4.67265 0 2 -4.67265 0
gene 2 3 4 -3.59106 0 3 -3.59106 1
gene 2 3 8 -0.299125 0 10 -0.299125 1
gene 2 8 4 1.48425 0 11 1.48425 1
gene 2 2 10 -8 0 17 -8 1
gene 2 10 4 -3.93457 0 18 -3.93457 1
gene 2 10 20 6.10608 0 52 6.10608 0
gene 2 20 4 -3.43882 0 53 -3.43882 1
gene 1 2 8 0.377543 0 152 0.377543 1
gene 1 1 10 2.7136 0 209 2.7136 1
gene 3 10 80 -0.558901 0 227 -0.558901 1
gene 2 80 20 4.44088 0 228 4.44088 1
gene 2 3 20 2.04535 0 251 2.04535 1
genomeend 138

/* Species #22 : (Size 11) (AF 7.57384) (Age 2)  */


/* Organism #139 Fitness: 9 Error: 1 */
genomestart 139
trait 1 0.407538 0 0 0 0 0 0 0 
trait 2 0.15 0.169162 0 0.0292336 0.0505574 0.100507 0 0.0122611 
trait 3 0.3 0 0 0 0 0.899255 0 0.991618 
node 1 3 1 3
node 2 3 1 1
node 3 3 1 1
node 4 3 0 2
node 7 1 0 0
node 15 1 0 0
node 28 1 0 0
node 86 1 0 0
gene 1 1 4 -8 0 1 -8 1
gene 3 2 4 8 0 2 8 1
gene 2 3 4 -8 0 3 -8 1
gene 2 3 7 -3.56237 0 8 -3.56237 0
gene 2 7 4 4.04535 0 9 4.04535 0
gene 3 1 7 1.58945 0 24 1.58945 1
gene 2 3 15 3.9782 0 36 3.9782 1
gene 2 15 7 -1.02329 0 37 -1.02329 1
gene 2 15 28 -1.07927 0 71 -1.07927 1
gene 2 28 7 -1.82307 0 72 -1.82307 1
gene 2 7 86 1 0 244 0 1
gene 2 86 4 4.04535 0 245 0 1
gene 3 2 7 -0.888055 0 252 -0.888055 1
genomeend 139

/* Organism #140 Fitness: 6.98546 Error: 1.357 */
genomestart 140
trait 1 0.407538 0 0 0 0 0 0 0 
trait 2 0.15 0.169162 0 0.0292336 0.0505574 0.100507 0 0.0122611 
trait 3 0.3 0 0 0 0 0.899255 0 0.991618 
node 1 3 1 3
node 2 3 1 1
node 3 3 1 1
node 4 3 0 2
node 7 1 0 0
node 15 1 0 0
node 28 1 0 0
node 86 1 0 0
gene 1 1 4 -8 0 1 -8 1
gene 3 2 4 7.1988 0 2 7.1988 1
gene 2 3 4 -8 0 3 -8 1
gene 2 3 7 -4.96388 0 8 -4.96388 0
gene 2 7 4 4.67948 0 9 4.67948 0
gene 3 1 7 -0.314327 0 24 -0.314327 1
gene 2 3 15 2.32105 0 36 2.32105 1
gene 2 15 7 0.236307 0 37 0.236307 1
gene 2 15 28 -2.64135 0 71 -2.64135 1
gene 2 28 7 -1.03095 0 72 -1.03095 1
gene 2 7 86 -1.23892 0 244 -1.23892 1
gene 2 86 4 2.90492 0 245 2.90492 1
gene 3 2 7 -0.195854 0 252 -0.195854 1
genomeend 140

/* Organism #141 Fitness: 8.9428 Error: 1.00955 */
genomestart 141
trait 1 0.407538 0 0 0 0 0 0 0 
trait 2 0.15 0.169162 0 0.0292336 0.0505574 0.100507 0 0.0122611 
trait 3 0.3 0 0 0 0 0.899255 0 0.991618 
node 1 3 1 3
node 2 3 1 1
node 3 3 1 1
node 4 3 0 2
node 7 1 0 0
node 15 1 0 0
node 28 1 0 0
node 86 1 0 0
gene 1 1 4 -8 0 1 -8 1
gene 3 2 4 7.87591 0 2 7.87591 1
gene 2 3 4 -2.48737 0 3 -2.48737 1
gene 2 3 7 -1.93497 0 8 -1.93497 0
gene 2 7 4 2.44226 0 9 2.44226 0
gene 3 1 7 1.98241 0 24 1.98241 1
gene 2 3 15 2.31696 0 36 2.31696 1
gene 2 15 7 -0.910071 0 37 -0.910071 1
gene 2 15 28 1.54843 0 71 1.54843 1
gene 2 28 7 -1.24712 0 72 -1.24712 1
gene 2 7 86 0.136921 0 244 0.136921 1
gene 2 86 4 2.15667 0 245 2.15667 1
gene 3 2 7 -3.3216 0 252 -3.3216 1
genomeend 141

/* Organism #142 Fitness: 8.90686 Error: 1.01556 */
genomestart 142
trait 1 0.407538 0 0 0 0 0 0 0 
trait 2 0.15 0.169162 0 0.0292336 0.0505574 0.100507 0 0.0122611 
trait 3 0.3 0 0 0 0 0.899255 0 0.991618 
node 1 3 1 3
node 2 3 1 1
node 3 3 1 1
node 4 3 0 2
node 7 1 0 0
node 15 1 0 0
node 28 1 0 0
node 86 1 0 0
gene 1 1 4 -8 0 1 -8 1
gene 3 2 4 8 0 2 8 1
gene 2 3 4 -7.86101 0 3 -7.86101 1
gene 2 3 7 -2.66993 0 8 -2.66993 0
gene 2 7 4 3.83745 0 9 3.83745 0
gene 3 1 7 -2.14745 0 24 -2.14745 1
gene 2 3 15 3.9782 0 36 3.9782 1
gene 2 15 7 -1.15199 0 37 -1.15199 1
gene 2 15 28 -1.07927 0 71 -1.07927 1
gene 2 28 7 -1.82307 0 72 -1.82307 1
gene 2 7 86 2.20381 0 244 2.20381 1
gene 2 86 4 1.68437 0 245 1.68437 1
gene 3 2 7 -2.10141 0 252 -2.10141 1
genomeend 142

/* Organism #143 Fitness: 5.88305 Error: 1.5745 */
genomestart 143
trait 1 0.407538 0 0 0 0 0 0 0 
trait 2 0.15 0.169162 0 0.0292336 0.0505574 0.100507 0 0.0122611 
trait 3 0.3 0 0 0 0 0.899255 0 0.991618 
node 1 3 1 3
node 2 3 1 1
node 3 3 1 1
node 4 3 0 2
node 7 1 0 0
node 15 1 0 0
node 28 1 0 0
node 86 1 0 0
gene 1 1 4 -7.27725 0 1 -7.27725 1
gene 3 2 4 8 0 2 8 1
gene 2 3 4 -8 0 3 -8 1
gene 2 3 7 -3.01322 0 8 -3.01322 0
gene 2 7 4 4.04535 0 9 4.04535 0
gene 3 1 7 2.53632 0 24 2.53632 1
gene 2 3 15 3.9782 0 36 3.9782 1
gene 2 15 7 -3.07478 0 37 -3.07478 1
gene 1 15 28 1.11524 0 71 1.11524 1
gene 2 28 7 -1.6953 0 72 -1.6953 1
gene 2 7 86 -0.831128 0 244 -0.831128 1
gene 2 86 4 -1.5696 0 245 -1.5696 1
gene 3 2 7 -0.888055 0 252 -0.888055 1
genomeend 143

/* Organism #144 Fitness: 9 Error: 1 */
genomestart 144
trait 1 0.407538 0 0 0 0 0 0 0 
trait 2 0.15 0.169162 0 0.0292336 0.0505574 0.100507 0 0.0122611 
trait 3 0.3 0 0 0 0 0.899255 0 0.991618 
node 1 3 1 3
node 2 3 1 1
node 3 3 1 1
node 4 3 0 2
node 7 1 0 0
node 15 1 0 0
node 28 1 0 0
node 86 1 0 0
gene 1 1 4 -8 0 1 -8 1
gene 3 2 4 8 0 2 8 1
gene 2 3 4 -8 0 3 -8 1
gene 2 3 7 -3.56237 0 8 -3.56237 0
gene 2 7 4 4.04535 0 9 4.04535 0
gene 3 1 7 1.58945 0 24 1.58945 1
gene 2 3 15 3.9782 0 36 3.9782 1
gene 2 15 7 -1.02329 0 37 -1.02329 1
gene 2 15 28 -1.07927 0 71 -1.07927 1
gene 2 28 7 -1.82307 0 72 -1.82307 1
gene 2 7 86 1 0 244 0 1
gene 2 86 4 4.04535 0 245 0 1
gene 3 2 7 -0.888055 0 252 -0.888055 1
genomeend 144

/* Organism #145 Fitness: 8.99999 Error: 1 */
genomestart 145
trait 1 0.407538 0 0 0 0.538799 0 0 0 
trait 2 0.15 0.169162 0 0.0292336 0.0505574 0.100507 0 0.0122611 
trait 3 0.3 0 0 0 0 0.899255 0 0.991618 
node 1 3 1 3
node 2 3 1 1
node 3 3 1 1
node 4 3 0 2
node 7 1 0 0
node 15 1 0 0
node 28 1 0 0
node 86 1 0 0
gene 1 1 4 -7.1022 0 1 -7.1022 1
gene 3 2 4 7.93827 0 2 7.93827 1
gene 2 3 4 -6.43811 0 3 -6.43811 1
gene 2 3 7 -1.49517 0 8 -1.49517 0
gene 2 7 4 3.46269 0 9 3.46269 0
gene 3 1 7 1.57604 0 24 1.57604 1
gene 2 3 15 4.79281 0 36 4.79281 1
gene 2 15 7 -3.39842 0 37 -3.39842 1
gene 2 15 28 -3.22857 0 71 -3.22857 1
gene 2 28 7 -1.35918 0 72 -1.35918 1
gene 2 7 86 -1.0747 0 244 -1.0747 1
gene 2 86 4 5.68724 0 245 5.68724 1
gene 3 2 7 -0.73712 0 252 -0.73712 1
genomeend 145

/* Organism #146 Fitness: 8.99646 Error: 1.00059 */
genomestart 146
trait 1 0.407538 0 0 0 0 0 0 0 
trait 2 0.15 0.169162 0 0.0292336 0.0505574 0.100507 0 0.0122611 
trait 3 0.3 0 0 0 0 0.899255 0 0.991618 
node 1 3 1 3
node 2 3 1 1
node 3 3 1 1
node 4 3 0 2
node 7 1 0 0
node 15 1 0 0
node 28 1 0 0
node 86 1 0 0
gene 1 1 4 -5.7603 0 1 -5.7603 1
gene 3 2 4 6.49813 0 2 6.49813 1
gene 2 3 4 -6.54851 0 3 -6.54851 1
gene 2 3 7 -4.04617 0 8 -4.04617 0
gene 2 7 4 1.95023 0 9 1.95023 0
gene 3 1 7 0.27806 0 24 0.27806 1
gene 2 3 15 3.86531 0 36 3.86531 1
gene 2 15 7 -3.44557 0 37 -3.44557 1
gene 2 15 28 -3.56706 0 71 -3.56706 1
gene 2 28 7 -4.28994 0 72 -4.28994 1
gene 2 7 86 -0.996127 0 244 -0.996127 1
gene 2 86 4 1.56542 0 245 1.56542 1
gene 3 2 7 0.395144 0 252 0.395144 1
genomeend 146

/* Organism #147 Fitness: 6.59767 Error: 1.43141 */
genomestart 147
trait 1 0.407538 0 0 0 0 0 0 0 
trait 2 0.15 0.169162 0 0.0292336 0.0505574 0.100507 0 0.0122611 
trait 3 0.3 0 0 0 0 0.899255 0 0.991618 
node 1 3 1 3
node 2 3 1 1
node 3 3 1 1
node 4 3 0 2
node 7 1 0 0
node 15 1 0 0
node 28 1 0 0
node 86 1 0 0
gene 1 1 4 -6.16251 0 1 -6.16251 1
gene 3 2 4 8 0 2 8 1
gene 2 3 4 -7.86155 0 3 -7.86155 1
gene 2 3 7 -3.75842 0 8 -3.75842 0
gene 2 7 4 2.06219 0 9 2.06219 0
gene 3 1 7 0.920499 0 24 0.920499 1
gene 2 3 15 2.67834 0 36 2.67834 1
gene 2 15 7 -0.610476 0 37 -0.610476 1
gene 2 15 28 -2.35599 0 71 -2.35599 1
gene 2 28 7 -2.78304 0 72 -2.78304 1
gene 2 7 86 2.86505 0 244 2.86505 1
gene 2 86 4 6.10645 0 245 6.10645 1
gene 3 2 7 -2.67541 0 252 -2.67541 1
genomeend 147

/* Organism #148 Fitness: 1 Error: 3 */
genomestart 148
trait 1 0.407538 0 0 0 0 0 0 0 
trait 2 0.15 0.169162 0 0.0292336 0.0505574 0.100507 0 0.0122611 
trait 3 0.3 0 0 0 0 0.899255 0 0.991618 
node 1 3 1 3
node 2 3 1 1
node 3 3 1 1
node 4 3 0 2
node 7 1 0 0
node 15 1 0 0
node 28 1 0 0
node 86 1 0 0
gene 1 1 4 -0.633277 0 1 -0.633277 1
gene 3 2 4 8 0 2 8 1
gene 2 3 4 -8 0 3 -8 1
gene 2 3 7 -2.04265 0 8 -2.04265 0
gene 2 7 4 3.10438 0 9 3.10438 0
gene 3 1 7 1.58945 0 24 1.58945 1
gene 2 3 15 1.8575 0 36 1.8575 1
gene 2 15 7 1.2005 0 37 1.2005 1
gene 2 15 28 0.52847 0 71 0.52847 1
gene 2 28 7 -2.96769 0 72 -2.96769 1
gene 2 7 86 2.09432 0 244 2.09432 1
gene 2 86 4 4.83967 0 245 4.83967 1
gene 3 2 7 -0.389219 0 252 -0.389219 1
genomeend 148

/* Organism #149 Fitness: 9 Error: 1 */
genomestart 149
trait 1 0.407538 0 0 0 0 0 0 0 
trait 2 0.15 0.169162 0 0.0292336 0.0505574 0.100507 0 0.0122611 
trait 3 0.3 0 0 0 0 0.899255 0 0.991618 
node 1 3 1 3
node 2 3 1 1
node 3 3 1 1
node 4 3 0 2
node 7 1 0 0
node 15 1 0 0
node 28 1 0 0
node 86 1 0 0
gene 1 1 4 -8 0 1 -8 1
gene 3 2 4 8 0 2 8 1
gene 2 3 4 -8 0 3 -8 1
gene 2 3 7 -3.56237 0 8 -3.56237 0
gene 2 7 4 4.04535 0 9 4.04535 0
gene 3 1 7 1.58945 0 24 1.58945 1
gene 2 3 15 3.9782 0 36 3.9782 1
gene 2 15 7 -1.02329 0 37 -1.02329 1
gene 2 15 28 -1.07927 0 71 -1.07927 1
gene 2 28 7 -1.82307 0 72 -1.82307 1
gene 2 7 86 1 0 244 0 1
gene 2 86 4 4.04535 0 245 0 1
gene 3 2 7 -0.888055 0 252 -0.888055 1
genomeend 149
