
/* Species #1 : (Size 7) (AF 7.89633) (Age 30)  */


/* Organism #0 Fitness: 9 Error: 1 */
genomestart 0
trait 1 0.100301 0 0.00116097 0 0.0118706 0.00257414 0.0497856 0.00657868 
trait 2 0.2 0 0.0987568 0.0284871 0.12028 0.0441641 0 0 
trait 3 0.298949 0 0 0 0.00395907 0 0 0.000554455 
node 1 2 1 3
node 2 3 1 1
node 3 1 1 1
node 4 3 0 2
node 5 1 0 0
gene 2 1 4 -3.30793 0 1 -3.30793 1
gene 3 2 4 7.86853 0 2 7.86853 1
gene 2 3 4 8 0 3 8 1
gene 2 2 5 -1.32437 0 4 -1.32437 1
gene 2 5 4 -1.63165 0 5 -1.63165 1
gene 3 3 5 -0.515481 0 146 -0.515481 1
genomeend 0

/* Organism #1 Fitness: 9 Error: 1 */
genomestart 1
trait 1 0.100301 0 0.00116097 0 0.0118706 0.00257414 0.0497856 0.00657868 
trait 2 0.2 0 0.0987568 0.0284871 0.12028 0.0441641 0 0 
trait 3 0.298949 0 0 0 0.00395907 0 0 0.000554455 
node 1 2 1 3
node 2 3 1 1
node 3 1 1 1
node 4 3 0 2
node 5 1 0 0
gene 2 1 4 -3.30793 0 1 -3.30793 1
gene 3 2 4 7.86853 0 2 7.86853 1
gene 2 3 4 8 0 3 8 1
gene 2 2 5 -1.32437 0 4 -1.32437 1
gene 2 5 4 -1.63165 0 5 -1.63165 1
gene 3 3 5 -0.515481 0 146 -0.515481 1
genomeend 1

/* Organism #2 Fitness: 9 Error: 1 */
genomestart 2
trait 1 0.100301 0 0.00116097 0 0.0118706 0.00257414 0.0497856 0.00657868 
trait 2 0.2 0 0.0987568 0.0284871 0.12028 0.0441641 0 0 
trait 3 0.298949 0 0 0 0.00395907 0 0 0.000554455 
node 1 2 1 3
node 2 3 1 1
node 3 1 1 1
node 4 3 0 2
node 5 1 0 0
gene 2 1 4 -3.45344 0 1 -3.45344 1
gene 3 2 4 8 0 2 8 1
gene 2 3 4 7.08854 0 3 7.08854 1
gene 2 2 5 0.212061 0 4 0.212061 1
gene 2 5 4 -1.63165 0 5 -1.63165 1
gene 3 3 5 -1.20037 0 146 -1.20037 1
genomeend 2

/* Organism #3 Fitness: 1.27447 Error: 2.87107 */
genomestart 3
trait 1 0.100301 0 0.00116097 0 0.0118706 0.00257414 0.0497856 0.00657868 
trait 2 0.2 0 0.0987568 0.0213653 0.235783 0.0422208 0.221646 0 
trait 3 0.298949 0 0 0 0.00395907 0 0 0.000554455 
node 1 2 1 3
node 2 3 1 1
node 3 1 1 1
node 4 3 0 2
node 5 1 0 0
gene 2 1 4 -1.9315 0 1 -1.9315 1
gene 3 2 4 1.15188 0 2 1.15188 1
gene 2 3 4 1.3556 0 3 1.3556 1
gene 2 2 5 1.14641 0 4 1.14641 1
gene 2 5 4 -1.50925 0 5 -1.50925 1
gene 3 3 5 -1.98472 0 146 -1.98472 1
gene 2 1 5 -1.93553 0 278 -1.93553 1
genomeend 3

/* Organism #4 Fitness: 8.99987 Error: 1.00002 */
genomestart 4
trait 1 0.100301 0 0.00116097 0 0.0118706 0.00257414 0.0497856 0.00657868 
trait 2 0.2 0 0.0987568 0.0249262 0.178032 0.0431925 0.110823 0 
trait 3 0.298949 0 0 0 0.00395907 0 0 0.000554455 
node 1 2 1 3
node 2 3 1 1
node 3 1 1 1
node 4 3 0 2
node 5 1 0 0
gene 2 1 4 -2.34692 0 1 -2.34692 1
gene 3 2 4 8 0 2 8 1
gene 2 3 4 8 0 3 8 1
gene 2 2 5 -1.91782 0 4 -1.91782 1
gene 2 5 4 0.324726 0 5 0.324726 1
gene 3 3 5 1.36487 0 146 1.36487 1
genomeend 4

/* Organism #5 Fitness: 9 Error: 1 */
genomestart 5
trait 1 0.100301 0 0.00116097 0 0.0118706 0.00257414 0.0497856 0.00657868 
trait 2 0.2 0 0.0987568 0.0213653 0.235783 0.0422208 0.221646 0 
trait 3 0.298949 0 0 0 0.00395907 0 0 0.000554455 
node 1 2 1 3
node 2 3 1 1
node 3 1 1 1
node 4 3 0 2
node 5 1 0 0
gene 2 1 4 -3.30793 0 1 -3.30793 1
gene 3 2 4 7.86853 0 2 7.86853 1
gene 2 3 4 8 0 3 8 1
gene 2 2 5 -1.32437 0 4 -1.32437 1
gene 2 5 4 -1.63165 0 5 -1.63165 1
gene 3 3 5 -0.21828 0 146 -0.21828 1
gene 2 1 5 -0.340155 0 278 -0.340155 1
genomeend 5

/* Organism #6 Fitness: 8.99998 Error: 1 */
genomestart 6
trait 1 0.100301 0 0.00116097 0 0.0118706 0.00257414 0.0497856 0.00657868 
trait 2 0.2 0 0.0987568 0.0213653 0.235783 0.0422208 0.221646 0 
trait 3 0.298949 0 0 0 0.00395907 0 0 0.000554455 
node 1 2 1 3
node 2 3 1 1
node 3 1 1 1
node 4 3 0 2
node 5 1 0 0
gene 2 1 4 -3.29547 0 1 -3.29547 1
gene 3 2 4 5.89968 0 2 5.89968 1
gene 2 3 4 8 0 3 8 1
gene 2 2 5 -3.30959 0 4 -3.30959 1
gene 2 5 4 -1.63165 0 5 -1.63165 1
gene 3 3 5 -2.65541 0 146 -2.65541 1
gene 2 1 5 1.64437 0 278 1.64437 1
genomeend 6

/* Species #2 : (Size 12) (AF 7.99692) (Age 28)  */


/* Organism #7 Fitness: 9 Error: 1 */
genomestart 7
trait 1 0.0999023 0.00405096 7.25607e-05 0.204371 0.000321951 0.0027998 0.0541501 0.000411168 
trait 2 0.2 0 0.0273006 0 0.472495 0.423525 0 0 
trait 3 0.147208 0 0 0 0.0211563 0 0 0.00147277 
node 1 2 1 3
node 2 2 1 1
node 3 1 1 1
node 4 2 0 2
gene 1 1 4 -4.06135 0 1 -4.06135 1
gene 2 2 4 -8 0 2 -8 1
gene 2 3 4 8 0 3 8 1
genomeend 7

/* Organism #8 Fitness: 5.09015 Error: 1.74386 */
genomestart 8
trait 1 0.0999023 0.00405096 7.25607e-05 0.204371 0.000321951 0.0027998 0.0541501 0.000411168 
trait 2 0.2 0 0.0273006 0 0.472495 0.423525 0 0 
trait 3 0.147208 0 0 0 0.0211563 0 0 0.00147277 
node 1 2 1 3
node 2 2 1 1
node 3 1 1 1
node 4 2 0 2
gene 1 1 4 -6.51172 0 1 -6.51172 1
gene 2 2 4 -8 0 2 -8 1
gene 2 3 4 6.29521 0 3 6.29521 1
genomeend 8

/* Organism #9 Fitness: 8.99999 Error: 1 */
genomestart 9
trait 1 0.0999023 0.00405096 7.25607e-05 0.204371 0.000321951 0.0027998 0.0541501 0.000411168 
trait 2 0.2 0 0.0273006 0 0.472495 0.423525 0 0 
trait 3 0.147208 0 0 0 0.0211563 0 0 0.00147277 
node 1 2 1 3
node 2 2 1 1
node 3 1 1 1
node 4 2 0 2
gene 1 1 4 -2.85389 0 1 -2.85389 1
gene 1 2 4 -6.94305 0 2 -6.94305 1
gene 2 3 4 5.56395 0 3 5.56395 1
genomeend 9

/* Organism #10 Fitness: 8.95431 Error: 1.00762 */
genomestart 10
trait 1 0.0999023 0.00405096 7.25607e-05 0.204371 0.000321951 0.0027998 0.0541501 0.000411168 
trait 2 0.2 0 0.0273006 0 0.472495 0.423525 0 0 
trait 3 0.147208 0 0 0 0.0211563 0 0 0.00147277 
node 1 2 1 3
node 2 2 1 1
node 3 1 1 1
node 4 2 0 2
gene 1 1 4 -2.31709 0 1 -2.31709 1
gene 2 2 4 -6.67193 0 2 -6.67193 1
gene 2 3 4 8 0 3 8 1
genomeend 10

/* Organism #11 Fitness: 1.00661 Error: 2.9967 */
genomestart 11
trait 1 0.0999023 0.00405096 7.25607e-05 0.204371 0.000321951 0.0027998 0.0541501 0.000411168 
trait 2 0.2 0 0.0273006 0 0.472495 0.423525 0 0 
trait 3 0.147208 0 0 0 0.0211563 0 0 0.00147277 
node 1 2 1 3
node 2 2 1 1
node 3 1 1 1
node 4 2 0 2
gene 1 1 4 1.28901 0 1 1.28901 1
gene 2 2 4 -7.97545 0 2 -7.97545 1
gene 2 3 4 8 0 3 8 1
genomeend 11

/* Organism #12 Fitness: 8.91329 Error: 1.01449 */
genomestart 12
trait 1 0.0999023 0.00405096 7.25607e-05 0.204371 0.000321951 0.0027998 0.0541501 0.000411168 
trait 2 0.2 0 0.0273006 0 0.472495 0.423525 0 0 
trait 3 0.147208 0 0 0 0.0211563 0 0 0.00147277 
node 1 2 1 3
node 2 2 1 1
node 3 1 1 1
node 4 2 0 2
gene 1 1 4 -5.36949 0 1 -5.36949 1
gene 2 2 4 -6.30456 0 2 -6.30456 1
gene 2 3 4 6.22645 0 3 6.22645 1
genomeend 12

/* Organism #13 Fitness: 8.99958 Error: 1.00007 */
genomestart 13
trait 1 0.0999023 0.00405096 7.25607e-05 0.204371 0.000321951 0.0027998 0.0541501 0.000411168 
trait 2 0.2 0 0.0273006 0 0.472495 0.423525 0 0 
trait 3 0.147208 0 0 0 0.0211563 0 0 0.00147277 
node 1 2 1 3
node 2 2 1 1
node 3 1 1 1
node 4 2 0 2
gene 1 1 4 -6.05477 0 1 -6.05477 1
gene 2 2 4 -6.8424 0 2 -6.8424 1
gene 2 3 4 8 0 3 8 1
genomeend 13

/* Organism #14 Fitness: 8.99998 Error: 1 */
genomestart 14
trait 1 0.0999023 0.00405096 7.25607e-05 0.204371 0.000321951 0.0027998 0.0541501 0.000411168 
trait 2 0.2 0 0.0273006 0 0.472495 0.423525 0 0 
trait 3 0.147208 0 0 0 0.0211563 0 0 0.00147277 
node 1 2 1 3
node 2 2 1 1
node 3 1 1 1
node 4 2 0 2
gene 3 1 4 -3.79742 0 1 -3.79742 1
gene 2 2 4 -8 0 2 -8 1
gene 2 3 4 6.388 0 3 6.388 1
genomeend 14

/* Organism #15 Fitness: 8.99928 Error: 1.00012 */
genomestart 15
trait 1 0.0999023 0.00405096 7.25607e-05 0.204371 0.000321951 0.0027998 0.0541501 0.000411168 
trait 2 0.2 0 0.0273006 0 0.472495 0.423525 0 0 
trait 3 0.147208 0 0 0 0.0211563 0 0 0.00147277 
node 1 2 1 3
node 2 2 1 1
node 3 1 1 1
node 4 2 0 2
gene 3 1 4 -3.6554 0 1 -3.6554 1
gene 2 2 4 -6.17689 0 2 -6.17689 1
gene 2 3 4 8 0 3 8 1
genomeend 15

/* Organism #16 Fitness: 8.99986 Error: 1.00002 */
genomestart 16
trait 1 0.0996094 0 0.000580486 0 0.00257561 0.00189074 0.0365682 0.00328934 
trait 2 0.2 0 0.0512776 0 0.243868 0.239183 0 0 
trait 3 0.292642 0 0 0 0.0277135 0 0 0.00388119 
node 1 3 1 3
node 2 2 1 1
node 3 1 1 1
node 4 1 0 2
node 31 1 0 0
gene 2 1 4 1.82804 0 1 1.82804 1
gene 3 2 4 -7.59821 0 2 -7.59821 1
gene 3 3 4 8 0 3 8 1
gene 3 2 31 2.10025 0 79 2.10025 1
gene 3 31 4 -8 0 80 -8 1
genomeend 16

/* Organism #17 Fitness: 9 Error: 1 */
genomestart 17
trait 1 0 0.926603 0.000580486 0 0.0367236 0 0.208493 0.494618 
trait 2 0.2 0.523672 0 0 0 0.239183 0.859041 0 
trait 3 0.292642 0 0 0 0.0277135 0 0 0.00388119 
node 1 3 1 3
node 2 2 1 1
node 3 1 1 1
node 4 1 0 2
node 31 1 0 0
gene 2 1 4 -0.998512 0 1 -0.998512 1
gene 3 2 4 -3.73359 0 2 -3.73359 1
gene 3 3 4 8 0 3 8 1
gene 3 2 31 0.956483 0 79 0.956483 1
gene 1 31 4 -8 0 80 -8 1
genomeend 17

/* Organism #18 Fitness: 9 Error: 1 */
genomestart 18
trait 1 0.469862 0 0.654697 0.587731 0.484986 0.00189074 0.0365682 0 
trait 2 0.2 0 0.0512776 0 0.243868 0.239183 0 0 
trait 3 0.292642 0 0 0 0.0277135 0 0 0.00388119 
node 1 3 1 3
node 2 2 1 1
node 3 1 1 1
node 4 1 0 2
node 31 1 0 0
gene 2 1 4 -1.08852 0 1 -1.08852 1
gene 3 2 4 -6.88183 0 2 -6.88183 1
gene 3 3 4 8 0 3 8 1
gene 3 2 31 1.13399 0 79 1.13399 1
gene 3 31 4 -7.78372 0 80 -7.78372 1
genomeend 18

/* Species #3 : (Size 9) (AF 7.31303) (Age 27)  */


/* Organism #19 Fitness: 8.99936 Error: 1.00011 */
genomestart 19
trait 1 0.1 0 0 0 0 0 0 0 
trait 2 0.2 0 0 0 0 0 0 0 
trait 3 0.3 0 0 0 0 0 0 0 
node 1 2 1 3
node 2 2 1 1
node 3 1 1 1
node 4 3 0 2
node 9 2 0 0
gene 3 1 4 2.02285 0 1 2.02285 1
gene 3 2 4 -4.2584 0 2 -4.2584 0
gene 3 3 4 -4.95031 0 3 -4.95031 1
gene 3 2 9 -6.25973 0 12 -6.25973 1
gene 3 9 4 -8 0 13 -8 1
genomeend 19

/* Organism #20 Fitness: 8.98483 Error: 1.00253 */
genomestart 20
trait 1 0.1 0 0 0 0 0 0 0 
trait 2 0.2 0 0 0 0 0 0 0 
trait 3 0.3 0 0 0 0 0 0 0 
node 1 2 1 3
node 2 2 1 1
node 3 1 1 1
node 4 3 0 2
node 9 2 0 0
gene 3 1 4 1.39323 0 1 1.39323 1
gene 3 2 4 -2.29486 0 2 -2.29486 0
gene 3 3 4 -4.95031 0 3 -4.95031 1
gene 3 2 9 -0.88965 0 12 -0.88965 1
gene 3 9 4 -5.56791 0 13 -5.56791 1
genomeend 20

/* Organism #21 Fitness: 4.39877 Error: 1.90267 */
genomestart 21
trait 1 0.1 0 0 0 0 0 0 0 
trait 2 0.2 0 0 0 0 0 0 0 
trait 3 0.3 0 0 0 0 0 0 0 
node 1 2 1 3
node 2 2 1 1
node 3 1 1 1
node 4 3 0 2
node 9 2 0 0
node 87 1 0 0
gene 3 1 4 2.02285 0 1 2.02285 1
gene 3 2 4 -4.74759 0 2 -4.74759 0
gene 3 3 4 -4.95031 0 3 -4.95031 0
gene 3 2 9 -6.25973 0 12 -6.25973 1
gene 3 9 4 -8 0 13 -8 1
gene 3 3 87 1 0 281 0 1
gene 3 87 4 -4.95031 0 282 0 1
genomeend 21

/* Organism #22 Fitness: 8.98845 Error: 1.00193 */
genomestart 22
trait 1 0.1 0 0 0 0 0 0 0 
trait 2 0.2 0 0 0 0 0 0 0 
trait 3 0.3 0 0 0 0 0 0 0 
node 1 2 1 3
node 2 2 1 1
node 3 1 1 1
node 4 3 0 2
node 9 2 0 0
gene 3 1 4 2.73039 0 1 2.73039 1
gene 3 2 4 -3.26491 0 2 -3.26491 0
gene 3 3 4 -5.58816 0 3 -5.58816 1
gene 3 2 9 -5.00873 0 12 -5.00873 1
gene 3 9 4 -8 0 13 -8 1
genomeend 22

/* Organism #23 Fitness: 7.50035 Error: 1.26132 */
genomestart 23
trait 1 0.1 0 0 0 0 0 0 0 
trait 2 0.2 0 0 0 0 0 0 0 
trait 3 0.3 0 0 0 0 0 0 0 
node 1 2 1 3
node 2 2 1 1
node 3 1 1 1
node 4 3 0 2
node 9 2 0 0
gene 3 1 4 0.211017 0 1 0.211017 1
gene 3 2 4 -4.66652 0 2 -4.66652 0
gene 3 3 4 -6.1539 0 3 -6.1539 1
gene 3 2 9 -4.56103 0 12 -4.56103 1
gene 3 9 4 -8 0 13 -8 1
genomeend 23

/* Organism #24 Fitness: 5.40191 Error: 1.6758 */
genomestart 24
trait 1 0.1 0 0 0 0 0 0 0 
trait 2 0.2 0 0 0 0 0 0 0 
trait 3 0.3 0 0 0 0 0 0 0 
node 1 2 1 3
node 2 2 1 1
node 3 1 1 1
node 4 3 0 2
node 9 2 0 0
gene 3 1 4 -0.149166 0 1 -0.149166 1
gene 3 2 4 0.736198 0 2 0.736198 0
gene 3 3 4 -3.64838 0 3 -3.64838 1
gene 3 2 9 -6.26524 0 12 -6.26524 1
gene 3 9 4 -7.77075 0 13 -7.77075 1
genomeend 24

/* Organism #25 Fitness: 8.79164 Error: 1.03493 */
genomestart 25
trait 1 0.1 0 0 0 0 0 0 0 
trait 2 0.2 0 0 0 0 0 0 0 
trait 3 0.3 0 0 0 0 0 0 0 
node 1 2 1 3
node 2 2 1 1
node 3 1 1 1
node 4 3 0 2
node 9 2 0 0
gene 3 1 4 2.40852 0 1 2.40852 1
gene 3 2 4 -4.42403 0 2 -4.42403 0
gene 3 3 4 -4.9559 0 3 -4.9559 1
gene 3 2 9 -6.37125 0 12 -6.37125 1
gene 3 9 4 -6.16513 0 13 -6.16513 1
genomeend 25

/* Organism #26 Fitness: 8.07246 Error: 1.15879 */
genomestart 26
trait 1 0.1 0 0 0 0 0 0 0 
trait 2 0.2 0 0 0 0 0 0 0 
trait 3 0.3 0 0 0 0 0 0 0 
node 1 2 1 3
node 2 2 1 1
node 3 1 1 1
node 4 3 0 2
node 9 2 0 0
gene 3 1 4 2.98086 0 1 2.98086 1
gene 3 2 4 -3.20153 0 2 -3.20153 0
gene 3 3 4 -6.46402 0 3 -6.46402 1
gene 3 2 9 -6.25973 0 12 -6.25973 1
gene 3 9 4 -6.63886 0 13 -6.63886 1
genomeend 26

/* Organism #27 Fitness: 4.67954 Error: 1.83678 */
genomestart 27
trait 1 0.1 0 0 0 0 0 0 0 
trait 2 0.2 0 0 0 0 0 0 0 
trait 3 0.3 0 0 0 0 0 0 0 
node 1 2 1 3
node 2 2 1 1
node 3 1 1 1
node 4 3 0 2
node 9 2 0 0
gene 3 1 4 4.31438 0 1 4.31438 1
gene 3 2 4 -3.0064 0 2 -3.0064 0
gene 3 3 4 0.578932 0 3 0.578932 1
gene 3 2 9 -6.25973 0 12 -6.25973 1
gene 3 9 4 -8 0 13 -8 1
genomeend 27

/* Species #4 : (Size 9) (AF 7.66745) (Age 25)  */


/* Organism #28 Fitness: 9 Error: 1 */
genomestart 28
trait 1 0.08958 0 0 0 0 0.0082008 0.158609 0.0683594 
trait 2 0.2 0 0 0 0 0 0 0 
trait 3 0.3 0 0 0 0 0 0 0 
node 1 2 1 3
node 2 2 1 1
node 3 1 1 1
node 4 1 0 2
node 15 1 0 0
gene 2 1 4 -4.56865 0 1 -4.56865 1
gene 3 2 4 6.2337 0 2 6.2337 1
gene 3 3 4 8 0 3 8 1
gene 3 2 15 4.45242 0 25 4.45242 1
gene 3 15 4 4.03694 0 26 4.03694 1
gene 2 1 15 -2.89319 0 54 -2.89319 1
gene 3 3 15 4.54569 0 122 4.54569 1
genomeend 28

/* Organism #29 Fitness: 4 Error: 2 */
genomestart 29
trait 1 0.0861067 0 0 0 0 0.0082008 0.158609 0.0911458 
trait 2 0.2 0 0 0 0 0 0 0 
trait 3 0.3 0 0 0 0 0 0 0 
node 1 2 1 3
node 2 2 1 1
node 3 1 1 1
node 4 1 0 2
node 15 1 0 0
gene 2 1 4 -0.599427 0 1 -0.599427 1
gene 3 2 4 6.44006 0 2 6.44006 1
gene 3 3 4 8 0 3 8 1
gene 3 2 15 3.54688 0 25 3.54688 1
gene 3 15 4 3.56102 0 26 3.56102 1
gene 2 1 15 1.58417 0 54 1.58417 1
gene 3 3 15 4.54569 0 122 4.54569 1
genomeend 29

/* Organism #30 Fitness: 4 Error: 2 */
genomestart 30
trait 1 0.0878434 0 0 0 0 0.0082008 0.158609 0.0797526 
trait 2 0.2 0 0 0 0 0 0 0 
trait 3 0.3 0 0 0 0 0 0 0 
node 1 2 1 3
node 2 2 1 1
node 3 1 1 1
node 4 1 0 2
node 15 1 0 0
gene 2 1 4 -3.45353 0 1 -3.45353 1
gene 3 2 4 0.643589 0 2 0.643589 1
gene 3 3 4 8 0 3 8 1
gene 3 2 15 0.324128 0 25 0.324128 1
gene 3 15 4 5.76398 0 26 5.76398 1
gene 2 1 15 -3.40222 0 54 -3.40222 1
gene 3 3 15 6.63227 0 122 6.63227 1
genomeend 30

/* Organism #31 Fitness: 8.99969 Error: 1.00005 */
genomestart 31
trait 1 0.0861067 0 0 0 0 0.0082008 0.158609 0.0911458 
trait 2 0.2 0 0 0 0 0 0 0 
trait 3 0.3 0 0 0 0 0 0 0 
node 1 2 1 3
node 2 2 1 1
node 3 1 1 1
node 4 1 0 2
node 15 1 0 0
gene 2 1 4 -2.48288 0 1 -2.48288 1
gene 3 2 4 7.18042 0 2 7.18042 1
gene 3 3 4 8 0 3 8 1
gene 3 2 15 4.04645 0 25 4.04645 1
gene 3 15 4 3.9425 0 26 3.9425 1
gene 2 1 15 -0.4023 0 54 -0.4023 1
gene 3 3 15 2.7646 0 122 2.7646 1
genomeend 31

/* Organism #32 Fitness: 8.94286 Error: 1.00954 */
genomestart 32
trait 1 0.0878434 0 0 0 0 0.0082008 0.158609 0.0797526 
trait 2 0.2 0 0 0 0 0 0 0 
trait 3 0.3 0 0 0 0 0 0 0 
node 1 2 1 3
node 2 2 1 1
node 3 1 1 1
node 4 1 0 2
node 15 1 0 0
gene 2 1 4 -0.999679 0 1 -0.999679 1
gene 3 2 4 0.343141 0 2 0.343141 1
gene 3 3 4 8 0 3 8 1
gene 3 2 15 4.4165 0 25 4.4165 1
gene 3 15 4 4.03694 0 26 4.03694 1
gene 2 1 15 -0.862887 0 54 -0.862887 1
gene 3 3 15 2.36105 0 122 2.36105 1
genomeend 32

/* Organism #33 Fitness: 7.06453 Error: 1.34208 */
genomestart 33
trait 1 0.08958 0 0 0 0 0.0082008 0.158609 0.0683594 
trait 2 0.2 0 0 0 0 0 0 0 
trait 3 0.3 0 0 0 0 0 0 0 
node 1 2 1 3
node 2 2 1 1
node 3 1 1 1
node 4 1 0 2
node 15 1 0 0
gene 2 1 4 -3.11878 0 1 -3.11878 1
gene 3 2 4 8 0 2 8 1
gene 3 3 4 2.1738 0 3 2.1738 1
gene 3 2 15 4.45242 0 25 4.45242 1
gene 3 15 4 2.77726 0 26 2.77726 1
gene 2 1 15 -2.4649 0 54 -2.4649 1
gene 3 3 15 2.37242 0 122 2.37242 1
genomeend 33

/* Organism #34 Fitness: 8.99996 Error: 1.00001 */
genomestart 34
trait 1 0.08958 0 0 0 0 0.0082008 0.158609 0.0683594 
trait 2 0.2 0 0 0 0 0 0 0 
trait 3 0.3 0 0.416844 0 0 0 0 0 
node 1 2 1 3
node 2 2 1 1
node 3 1 1 1
node 4 1 0 2
node 15 1 0 0
gene 2 1 4 -6.27573 0 1 -6.27573 1
gene 3 2 4 7.17132 0 2 7.17132 1
gene 3 3 4 7.57957 0 3 7.57957 1
gene 3 2 15 3.85219 0 25 3.85219 1
gene 3 15 4 2.64589 0 26 2.64589 1
gene 2 1 15 -2.73306 0 54 -2.73306 1
gene 3 3 15 2.67661 0 122 2.67661 1
genomeend 34

/* Organism #35 Fitness: 8.99999 Error: 1 */
genomestart 35
trait 1 0.08958 0 0 0 0 0.0082008 0.158609 0.0683594 
trait 2 0.2 0 0 0 0 0 0 0 
trait 3 0.3 0 0 0 0 0 0 0 
node 1 2 1 3
node 2 2 1 1
node 3 1 1 1
node 4 1 0 2
node 15 1 0 0
gene 2 1 4 -2.70495 0 1 -2.70495 1
gene 3 2 4 6.16067 0 2 6.16067 1
gene 3 3 4 8 0 3 8 1
gene 3 2 15 4.45242 0 25 4.45242 1
gene 3 15 4 6.41956 0 26 6.41956 1
gene 2 1 15 -2.89319 0 54 -2.89319 1
gene 3 3 15 3.51506 0 122 3.51506 1
genomeend 35

/* Organism #36 Fitness: 9 Error: 1 */
genomestart 36
trait 1 0.0861067 0 0 0 0 0.0082008 0.158609 0.0911458 
trait 2 0.2 0 0 0 0 0 0 0 
trait 3 0.3 0 0 0 0 0 0 0 
node 1 2 1 3
node 2 2 1 1
node 3 1 1 1
node 4 1 0 2
node 15 1 0 0
gene 2 1 4 -3.84232 0 1 -3.84232 1
gene 1 2 4 7.7163 0 2 7.7163 1
gene 3 3 4 8 0 3 8 1
gene 3 2 15 3.70722 0 25 3.70722 1
gene 3 15 4 4.03648 0 26 4.03648 1
gene 2 1 15 -1.03109 0 54 -1.03109 1
gene 3 3 15 4.26202 0 122 4.26202 1
genomeend 36

/* Species #5 : (Size 10) (AF 6.97018) (Age 24)  */


/* Organism #37 Fitness: 9 Error: 1 */
genomestart 37
trait 1 0.1 0 0 0 0 0.00583168 0.112789 0 
trait 2 0.2 0 0 0 0 0 0 0 
trait 3 0.3 0 0.658901 0 0 0 0.925827 0 
node 1 2 1 3
node 2 3 1 1
node 3 1 1 1
node 4 3 0 2
node 5 1 0 0
gene 3 1 4 1.05865 0 1 1.05865 1
gene 2 2 4 -8 0 2 -8 1
gene 3 3 4 6.92508 0 3 6.92508 1
gene 3 2 5 6.17463 0 4 6.17463 1
gene 2 5 4 -7.96946 0 5 -7.96946 1
gene 2 3 5 -4.09212 0 27 -4.09212 1
gene 2 1 5 2.74184 0 33 2.74184 1
genomeend 37

/* Organism #38 Fitness: 2.5842 Error: 2.39246 */
genomestart 38
trait 1 0.1 0 0 0 0 0.00583168 0.112789 0 
trait 2 0.2 0 0 0 0 0 0 0 
trait 3 0.3 0 0.658901 0 0 0 0.925827 0 
node 1 2 1 3
node 2 3 1 1
node 3 1 1 1
node 4 3 0 2
node 5 1 0 0
gene 3 1 4 -0.562518 0 1 -0.562518 1
gene 1 2 4 -8 0 2 -8 1
gene 3 3 4 -1.94225 0 3 -1.94225 1
gene 3 2 5 4.23191 0 4 4.23191 1
gene 2 5 4 0.473813 0 5 0.473813 1
gene 2 3 5 -3.33465 0 27 -3.33465 1
gene 2 1 5 5.18597 0 33 5.18597 1
genomeend 38

/* Organism #39 Fitness: 4.10246 Error: 1.97455 */
genomestart 39
trait 1 0.1 0 0 0 0 0.00583168 0.112789 0 
trait 2 0.2 0 0 0 0 0 0 0 
trait 3 0.3 0 0.658901 0 0 0 0.925827 0 
node 1 2 1 3
node 2 3 1 1
node 3 1 1 1
node 4 3 0 2
node 5 1 0 0
gene 3 1 4 2.4222 0 1 2.4222 1
gene 2 2 4 -0.843315 0 2 -0.843315 1
gene 3 3 4 6.44616 0 3 6.44616 1
gene 3 2 5 5.73148 0 4 5.73148 1
gene 2 5 4 -7.28482 0 5 -7.28482 1
gene 2 3 5 -4.92545 0 27 -4.92545 1
gene 2 1 5 2.30358 0 33 2.30358 1
genomeend 39

/* Organism #40 Fitness: 9 Error: 1 */
genomestart 40
trait 1 0.1 0 0 0 0 0.00583168 0.112789 0 
trait 2 0.2 0 0 0 0 0 0 0 
trait 3 0.3 0 0.658901 0 0 0 0.925827 0 
node 1 2 1 3
node 2 3 1 1
node 3 1 1 1
node 4 3 0 2
node 5 1 0 0
gene 3 1 4 0.288439 0 1 0.288439 1
gene 2 2 4 -8 0 2 -8 1
gene 3 3 4 5.3149 0 3 5.3149 1
gene 3 2 5 7.47612 0 4 7.47612 1
gene 2 5 4 -8 0 5 -8 1
gene 2 3 5 -4.0102 0 27 -4.0102 1
gene 2 1 5 1.4481 0 33 1.4481 1
genomeend 40

/* Organism #41 Fitness: 8.99643 Error: 1.00059 */
genomestart 41
trait 1 0.1 0 0 0 0 0.00583168 0.112789 0 
trait 2 0.2 0 0 0 0 0 0 0 
trait 3 0.3 0 0.658901 0 0 0 0.925827 0 
node 1 2 1 3
node 2 3 1 1
node 3 1 1 1
node 4 3 0 2
node 5 1 0 0
gene 3 1 4 -1.13052 0 1 -1.13052 1
gene 2 2 4 -8 0 2 -8 1
gene 3 3 4 8 0 3 8 1
gene 3 2 5 5.34271 0 4 5.34271 1
gene 2 5 4 -6.34362 0 5 -6.34362 1
gene 2 3 5 -3.16754 0 27 -3.16754 1
gene 2 1 5 3.51218 0 33 3.51218 1
genomeend 41

/* Organism #42 Fitness: 5.06023 Error: 1.7505 */
genomestart 42
trait 1 0.1 0 0 0 0 0.00583168 0.112789 0 
trait 2 0.2 0 0 0 0 0 0 0 
trait 3 0.3 0 0.658901 0 0 0 0.925827 0 
node 1 2 1 3
node 2 3 1 1
node 3 1 1 1
node 4 3 0 2
node 5 1 0 0
gene 3 1 4 2.75689 0 1 2.75689 1
gene 2 2 4 -6.40594 0 2 -6.40594 1
gene 3 3 4 5.00884 0 3 5.00884 1
gene 3 2 5 4.36384 0 4 4.36384 1
gene 2 5 4 -8 0 5 -8 1
gene 2 3 5 -2.23245 0 27 -2.23245 1
gene 2 1 5 3.57734 0 33 3.57734 1
genomeend 42

/* Organism #43 Fitness: 8.95844 Error: 1.00693 */
genomestart 43
trait 1 0.1 0 0 0 0 0.00583168 0.112789 0 
trait 2 0.2 0 0 0 0 0 0 0 
trait 3 0.3 0 0.658901 0 0 0 0.925827 0 
node 1 2 1 3
node 2 3 1 1
node 3 1 1 1
node 4 3 0 2
node 5 1 0 0
gene 3 1 4 -0.99892 0 1 -0.99892 1
gene 2 2 4 -8 0 2 -8 1
gene 3 3 4 6.84733 0 3 6.84733 1
gene 3 2 5 8 0 4 8 1
gene 2 5 4 -7.30553 0 5 -7.30553 1
gene 2 3 5 -4.09212 0 27 -4.09212 1
gene 2 1 5 -1.35532 0 33 -1.35532 1
genomeend 43

/* Organism #44 Fitness: 9 Error: 1 */
genomestart 44
trait 1 0.1 0 0 0 0 0.00583168 0.112789 0 
trait 2 0.2 0 0 0 0 0 0 0 
trait 3 0.3 0 0.658901 0 0 0 0.925827 0 
node 1 2 1 3
node 2 3 1 1
node 3 1 1 1
node 4 3 0 2
node 5 1 0 0
gene 3 1 4 1.05865 0 1 1.05865 1
gene 2 2 4 -8 0 2 -8 1
gene 3 3 4 6.92508 0 3 6.92508 1
gene 3 2 5 6.17463 0 4 6.17463 1
gene 2 5 4 -8 0 5 -8 1
gene 2 3 5 -4.09212 0 27 -4.09212 1
gene 2 1 5 2.74184 0 33 2.74184 1
genomeend 44

/* Organism #45 Fitness: 4.00004 Error: 1.99999 */
genomestart 45
trait 1 0.1 0 0 0 0 0.00583168 0.112789 0 
trait 2 0.2 0 0 0 0 0 0 0 
trait 3 0.3 0 0.658901 0 0 0 0.925827 0 
node 1 2 1 3
node 2 3 1 1
node 3 1 1 1
node 4 3 0 2
node 5 1 0 0
gene 3 1 4 -0.32351 0 1 -0.32351 1
gene 2 2 4 -7.79421 0 2 -7.79421 1
gene 3 3 4 5.9932 0 3 5.9932 1
gene 3 2 5 6.17463 0 4 6.17463 1
gene 2 5 4 -8 0 5 -8 1
gene 2 3 5 -0.544953 0 27 -0.544953 1
gene 2 1 5 2.74184 0 33 2.74184 1
genomeend 45

/* Organism #46 Fitness: 8.99995 Error: 1.00001 */
genomestart 46
trait 1 0.1 0 0 0 0 0.00583168 0.112789 0 
trait 2 0.2 0 0 0 0 0 0 0 
trait 3 0.3 0 0.658901 0 0 0 0.925827 0 
node 1 2 1 3
node 2 3 1 1
node 3 1 1 1
node 4 3 0 2
node 5 1 0 0
gene 3 1 4 1.39737 0 1 1.39737 1
gene 2 2 4 -8 0 2 -8 1
gene 1 3 4 8 0 3 8 1
gene 3 2 5 6.17463 0 4 6.17463 1
gene 2 5 4 -7.02347 0 5 -7.02347 1
gene 2 3 5 -2.90539 0 27 -2.90539 1
gene 2 1 5 5.06731 0 33 5.06731 1
genomeend 46

/* Species #6 : (Size 14) (AF 6.81883) (Age 22)  */


/* Organism #47 Fitness: 9 Error: 1 */
genomestart 47
trait 1 0.096875 0 0.00464389 0 0.0206048 0.00164016 0.0317218 0.0263147 
trait 2 0.2 0 0.106353 0 0 0.0382027 0 0 
trait 3 1 0 0 0 0 0 0 0 
node 1 1 1 3
node 2 3 1 1
node 3 2 1 1
node 4 1 0 2
node 23 1 0 0
gene 3 1 4 -8 0 1 -8 1
gene 3 2 4 8 0 2 8 1
gene 2 3 4 8 0 3 8 1
gene 2 3 23 5.44211 0 52 5.44211 1
gene 2 23 4 5.01595 0 53 5.01595 1
gene 1 2 23 2.67324 0 68 2.67324 1
genomeend 47

/* Organism #48 Fitness: 8.99992 Error: 1.00001 */
genomestart 48
trait 1 0.096875 0 0.00464389 0 0.0206048 0.00164016 0.0317218 0.0263147 
trait 2 0.2 0 0.106353 0 0 0.0485441 0 0 
trait 3 1 0 0 0 0 0 0 0 
node 1 1 1 3
node 2 3 1 1
node 3 2 1 1
node 4 1 0 2
node 23 1 0 0
gene 3 1 4 -6.28403 0 1 -6.28403 1
gene 3 2 4 7.61083 0 2 7.61083 1
gene 2 3 4 6.73014 0 3 6.73014 1
gene 2 3 23 5.65614 0 52 5.65614 1
gene 2 23 4 8 0 53 8 1
gene 1 2 23 1.00596 0 68 1.00596 1
genomeend 48

/* Organism #49 Fitness: 8.9998 Error: 1.00003 */
genomestart 49
trait 1 0.096875 0 0.00464389 0 0.0206048 0.00164016 0.0317218 0.0263147 
trait 2 0.2 0 0.106353 0.927865 0 0.0485441 0 0 
trait 3 1 0 0 0 0 0 0 0 
node 1 1 1 3
node 2 3 1 1
node 3 2 1 1
node 4 1 0 2
node 23 1 0 0
gene 3 1 4 -7.73974 0 1 -7.73974 1
gene 3 2 4 7.53284 0 2 7.53284 1
gene 2 3 4 5.5826 0 3 5.5826 1
gene 2 3 23 6.35095 0 52 6.35095 1
gene 2 23 4 4.24707 0 53 4.24707 1
gene 1 2 23 4.2241 0 68 4.2241 1
genomeend 49

/* Organism #50 Fitness: 4.10609 Error: 1.97365 */
genomestart 50
trait 1 0.096875 0 0.00464389 0 0.0206048 0.00164016 0.0317218 0.0263147 
trait 2 0.2 0 0.106353 0 0 0.0382027 0 0 
trait 3 1 0 0 0 0 0 0 0 
node 1 1 1 3
node 2 3 1 1
node 3 2 1 1
node 4 1 0 2
node 23 1 0 0
gene 3 1 4 -8 0 1 -8 1
gene 3 2 4 7.6914 0 2 7.6914 1
gene 2 3 4 1.57255 0 3 1.57255 1
gene 2 3 23 4.70659 0 52 4.70659 1
gene 2 23 4 5.69442 0 53 5.69442 1
gene 1 2 23 0.974604 0 68 0.974604 1
genomeend 50

/* Organism #51 Fitness: 4.00014 Error: 1.99997 */
genomestart 51
trait 1 0.096875 0 0.00464389 0 0.0206048 0.00164016 0.0317218 0.0263147 
trait 2 0.2 0 0.106353 0 0 0.0485441 0 0 
trait 3 1 0 0 0 0 0 0 0 
node 1 1 1 3
node 2 3 1 1
node 3 2 1 1
node 4 1 0 2
node 23 1 0 0
gene 3 1 4 -1.33232 0 1 -1.33232 1
gene 3 2 4 8 0 2 8 1
gene 2 3 4 8 0 3 8 1
gene 2 3 23 5.89756 0 52 5.89756 1
gene 2 23 4 6.83465 0 53 6.83465 1
gene 1 2 23 3.11968 0 68 3.11968 1
genomeend 51

/* Organism #52 Fitness: 4 Error: 2 */
genomestart 52
trait 1 0.096875 0 0.00464389 0 0.0206048 0.00164016 0.0317218 0.0263147 
trait 2 0.2 0 0.106353 0 0 0.0382027 0 0 
trait 3 1 0 0 0 0 0 0 0 
node 1 1 1 3
node 2 3 1 1
node 3 2 1 1
node 4 1 0 2
node 23 1 0 0
gene 3 1 4 -6.42199 0 1 -6.42199 1
gene 3 2 4 8 0 2 8 1
gene 2 3 4 -0.634929 0 3 -0.634929 1
gene 2 3 23 5.21489 0 52 5.21489 1
gene 2 23 4 3.66543 0 53 3.66543 1
gene 1 2 23 0.467975 0 68 0.467975 1
genomeend 52

/* Organism #53 Fitness: 8.99999 Error: 1 */
genomestart 53
trait 1 0.096875 0 0.00464389 0 0.0206048 0.00164016 0.0317218 0.0263147 
trait 2 0.2 0 0.106353 0 0 0.0588855 0 0 
trait 3 1 0 0 0 0 0 0 0 
node 1 1 1 3
node 2 3 1 1
node 3 2 1 1
node 4 1 0 2
node 23 1 0 0
gene 3 1 4 -6.14926 0 1 -6.14926 1
gene 3 2 4 8 0 2 8 1
gene 2 3 4 5.7305 0 3 5.7305 1
gene 2 3 23 6.08239 0 52 6.08239 1
gene 2 23 4 6.71927 0 53 6.71927 1
gene 1 2 23 1.95736 0 68 1.95736 1
genomeend 53

/* Organism #54 Fitness: 4.0148 Error: 1.9963 */
genomestart 54
trait 1 0.096875 0 0.00464389 0 0.0206048 0.00164016 0.0317218 0.0263147 
trait 2 0.2 0 0.106353 0 0 0.0485441 0 0 
trait 3 1 0 0 0 0 0 0 0 
node 1 1 1 3
node 2 3 1 1
node 3 2 1 1
node 4 1 0 2
node 23 1 0 0
gene 3 1 4 -1.94502 0 1 -1.94502 1
gene 3 2 4 5.80569 0 2 5.80569 1
gene 2 3 4 -2.47594 0 3 -2.47594 1
gene 2 3 23 5.17445 0 52 5.17445 1
gene 2 23 4 6.14047 0 53 6.14047 1
gene 1 2 23 2.74445 0 68 2.74445 1
genomeend 54

/* Organism #55 Fitness: 4.00003 Error: 1.99999 */
genomestart 55
trait 1 0.096875 0 0.00464389 0 0.0206048 0.00164016 0.0317218 0.0263147 
trait 2 0.2 0 0.106353 0 0 0.0485441 0 0 
trait 3 1 0 0 0 0 0 0 0 
node 1 1 1 3
node 2 3 1 1
node 3 2 1 1
node 4 1 0 2
node 23 1 0 0
gene 3 1 4 -0.606479 0 1 -0.606479 1
gene 3 2 4 5.68767 0 2 5.68767 1
gene 2 3 4 6.42062 0 3 6.42062 1
gene 3 3 23 6.00513 0 52 6.00513 1
gene 2 23 4 5.95652 0 53 5.95652 1
gene 1 2 23 -1.42102 0 68 -1.42102 1
genomeend 55

/* Organism #56 Fitness: 4.0081 Error: 1.99798 */
genomestart 56
trait 1 0.096875 0 0.00464389 0 0.0206048 0.00164016 0.0317218 0.0263147 
trait 2 0.2 0 0.106353 0 0 0.0382027 0 0 
trait 3 1 0 0 0 0 0 0 0 
node 1 1 1 3
node 2 3 1 1
node 3 2 1 1
node 4 1 0 2
node 23 1 0 0
gene 3 1 4 -6.8649 0 1 -6.8649 1
gene 3 2 4 8 0 2 8 1
gene 2 3 4 0.774266 0 3 0.774266 1
gene 2 3 23 5.91491 0 52 5.91491 1
gene 2 23 4 4.83141 0 53 4.83141 1
gene 1 2 23 4.07176 0 68 4.07176 1
genomeend 56

/* Organism #57 Fitness: 9 Error: 1 */
genomestart 57
trait 1 0.096875 0 0.00464389 0 0.0206048 0.00164016 0.0317218 0.0263147 
trait 2 0.2 0 0.106353 0.402706 0.505247 0.0588855 0 0 
trait 3 1 0 0 0.259303 0 0.0517561 0 0 
node 1 1 1 3
node 2 3 1 1
node 3 1 1 1
node 4 3 0 2
node 23 1 0 0
node 54 1 0 0
gene 3 1 4 -3.45588 0 1 -3.45588 1
gene 3 2 4 7.9594 0 2 7.9594 1
gene 2 3 4 7.32725 0 3 7.32725 1
gene 2 3 23 5.37984 0 52 5.37984 1
gene 2 23 4 1.05706 0 53 1.05706 0
gene 1 2 23 -0.898585 0 68 -0.898585 1
gene 3 4 54 -1.09356 0 162 -1.09356 1
gene 3 54 23 -0.573322 0 163 -0.573322 1
genomeend 57

/* Organism #58 Fitness: 9 Error: 1 */
genomestart 58
trait 1 0.096875 0 0.00464389 0 0.0206048 0.00164016 0.0317218 0.0263147 
trait 2 0.2 0 0.106353 0.402706 0.505247 0.0588855 0 0 
trait 3 1 0 0 0.259303 0 0.0517561 0 0 
node 1 1 1 3
node 2 3 1 1
node 3 1 1 1
node 4 3 0 2
node 23 1 0 0
node 54 1 0 0
gene 3 1 4 -3.45588 0 1 -3.45588 1
gene 3 2 4 7.9594 0 2 7.9594 1
gene 2 3 4 7.32725 0 3 7.32725 1
gene 2 3 23 5.37984 0 52 5.37984 1
gene 2 23 4 1.05706 0 53 1.05706 1
gene 1 2 23 -0.898585 0 68 -0.898585 1
gene 3 4 54 -1.09356 0 162 -1.09356 1
gene 3 54 23 -0.573322 0 163 -0.573322 1
genomeend 58

/* Organism #59 Fitness: 9 Error: 1 */
genomestart 59
trait 1 0.096875 0 0.00464389 0 0.0206048 0.00164016 0.0317218 0.0263147 
trait 2 0.2 0 0.106353 0.402706 0.505247 0.0588855 0 0 
trait 3 1 0 0 0.259303 0 0.0517561 0 0 
node 1 1 1 3
node 2 3 1 1
node 3 1 1 1
node 4 3 0 2
node 23 1 0 0
node 54 1 0 0
gene 3 1 4 -3.92113 0 1 -3.92113 1
gene 3 2 4 8 0 2 8 1
gene 2 3 4 8 0 3 8 1
gene 2 3 23 4.04902 0 52 4.04902 1
gene 2 23 4 0.499578 0 53 0.499578 0
gene 1 2 23 -0.572335 0 68 -0.572335 1
gene 3 4 54 0.931119 0 162 0.931119 1
gene 3 54 23 -0.897034 0 163 -0.897034 1
genomeend 59

/* Organism #60 Fitness: 8.33479 Error: 1.113 */
genomestart 60
trait 1 0.096875 0 0.00464389 0 0.0206048 0.00164016 0.0317218 0.0263147 
trait 2 0.2 0 0.106353 0.402706 0.505247 0.0588855 0 0 
trait 3 1 0 0 0.259303 0 0.0517561 0 0 
node 1 1 1 3
node 2 3 1 1
node 3 1 1 1
node 4 3 0 2
node 23 1 0 0
node 54 1 0 0
gene 3 1 4 -5.05793 0 1 -5.05793 1
gene 3 2 4 8 0 2 8 1
gene 2 3 4 5.47637 0 3 5.47637 1
gene 2 3 23 4.49917 0 52 4.49917 1
gene 2 23 4 2.97701 0 53 2.97701 0
gene 1 2 23 -2.25747 0 68 -2.25747 1
gene 3 4 54 -0.364467 0 162 -0.364467 1
gene 3 54 23 0.813698 0 163 0.813698 1
genomeend 60

/* Species #8 : (Size 8) (AF 7.74912) (Age 22)  */


/* Organism #61 Fitness: 9 Error: 1 */
genomestart 61
trait 1 0.102411 0 0.00928777 0 0.0949649 0.0018224 0.0352464 0.0526295 
trait 2 0.2 0 0.212707 0 0 0.117771 0 0 
trait 3 0.3 0 0 0 0 0 0 0 
node 1 1 1 3
node 2 1 1 1
node 3 2 1 1
node 4 2 0 2
node 5 1 0 0
node 24 1 0 0
gene 2 1 4 -3.98456 0 1 -3.98456 1
gene 3 2 4 8 0 2 8 1
gene 3 3 4 8 0 3 8 1
gene 2 2 5 -2.21425 0 4 -2.21425 1
gene 2 5 4 1.699 0 5 1.699 1
gene 2 3 5 1.47136 0 36 1.47136 1
gene 2 5 24 0.773725 0 56 0.773725 1
gene 2 24 4 -0.110521 0 57 -0.110521 1
gene 2 1 5 -0.691943 0 73 -0.691943 1
gene 1 2 24 -0.194567 0 210 -0.194567 1
genomeend 61

/* Organism #62 Fitness: 3.98821 Error: 2.00295 */
genomestart 62
trait 1 0.102411 0 0.00928777 0 0.0949649 0.0018224 0.0352464 0.0526295 
trait 2 0.2 0 0.212707 0 0 0.117771 0 0 
trait 3 0.3 0 0 0 0 0 0 0 
node 1 1 1 3
node 2 1 1 1
node 3 2 1 1
node 4 2 0 2
node 5 1 0 0
node 24 1 0 0
gene 2 1 4 -6.07201 0 1 -6.07201 1
gene 3 2 4 7.96898 0 2 7.96898 1
gene 3 3 4 2.16935 0 3 2.16935 1
gene 2 2 5 -3.55319 0 4 -3.55319 1
gene 2 5 4 2.74188 0 5 2.74188 1
gene 2 3 5 2.28248 0 36 2.28248 1
gene 2 5 24 0.522093 0 56 0.522093 1
gene 2 24 4 -0.861242 0 57 -0.861242 1
gene 2 1 5 1.20052 0 73 1.20052 1
gene 1 2 24 0.328739 0 210 0.328739 1
genomeend 62

/* Organism #63 Fitness: 4.00488 Error: 1.99878 */
genomestart 63
trait 1 0.102411 0 0.00928777 0 0.0949649 0.0018224 0.0352464 0.0526295 
trait 2 0.2 0 0.212707 0 0 0.117771 0 0 
trait 3 0.3 0 0 0 0 0 0 0 
node 1 1 1 3
node 2 1 1 1
node 3 2 1 1
node 4 2 0 2
node 5 1 0 0
node 24 1 0 0
gene 2 1 4 -1.70087 0 1 -1.70087 1
gene 3 2 4 6.20322 0 2 6.20322 1
gene 3 3 4 8 0 3 8 1
gene 2 2 5 -1.23 0 4 -1.23 1
gene 2 5 4 3.09713 0 5 3.09713 1
gene 2 3 5 3.27135 0 36 3.27135 1
gene 2 5 24 -0.86962 0 56 -0.86962 1
gene 2 24 4 -2.45461 0 57 -2.45461 1
gene 2 1 5 1.70298 0 73 1.70298 1
gene 1 2 24 -0.194567 0 210 -0.194567 1
genomeend 63

/* Organism #64 Fitness: 9 Error: 1 */
genomestart 64
trait 1 0.102411 0 0.00928777 0 0.0949649 0.0018224 0.0352464 0.0526295 
trait 2 0.2 0 0.212707 0 0 0.117771 0 0 
trait 3 0.3 0 0 0 0 0 0 0 
node 1 1 1 3
node 2 1 1 1
node 3 2 1 1
node 4 2 0 2
node 5 1 0 0
node 24 1 0 0
gene 2 1 4 -3.39192 0 1 -3.39192 1
gene 3 2 4 7.88848 0 2 7.88848 1
gene 3 3 4 8 0 3 8 1
gene 2 2 5 -0.457243 0 4 -0.457243 1
gene 2 5 4 3.15609 0 5 3.15609 1
gene 2 3 5 2.48899 0 36 2.48899 1
gene 2 5 24 -1.53334 0 56 -1.53334 1
gene 2 24 4 -1.15045 0 57 -1.15045 1
gene 2 1 5 -2.59102 0 73 -2.59102 1
gene 1 2 24 -2.20516 0 210 -2.20516 1
genomeend 64

/* Organism #65 Fitness: 9 Error: 1 */
genomestart 65
trait 1 0.102411 0 0.00928777 0 0.0949649 0.0018224 0.0352464 0.0526295 
trait 2 0.2 0 0.212707 0 0 0.117771 0 0 
trait 3 0.3 0 0 0 0 0 0 0 
node 1 1 1 3
node 2 1 1 1
node 3 2 1 1
node 4 2 0 2
node 5 1 0 0
node 24 1 0 0
gene 2 1 4 -3.98456 0 1 -3.98456 1
gene 3 2 4 8 0 2 8 1
gene 3 3 4 8 0 3 8 1
gene 2 2 5 -2.21425 0 4 -2.21425 1
gene 2 5 4 1.699 0 5 1.699 1
gene 2 3 5 1.47136 0 36 1.47136 1
gene 2 5 24 0.773725 0 56 0.773725 1
gene 2 24 4 -0.110521 0 57 -0.110521 1
gene 2 1 5 -0.691943 0 73 -0.691943 1
gene 1 2 24 -0.194567 0 210 -0.194567 1
gene 2 1 24 -0.124835 0 283 -0.124835 1
genomeend 65

/* Organism #66 Fitness: 8.99998 Error: 1 */
genomestart 66
trait 1 0.102411 0 0.00928777 0 0.0949649 0.0018224 0.0352464 0.0526295 
trait 2 0.2 0 0.212707 0 0 0.117771 0 0 
trait 3 0.3 0 0 0 0 0 0 0 
node 1 1 1 3
node 2 1 1 1
node 3 2 1 1
node 4 2 0 2
node 5 1 0 0
node 24 1 0 0
gene 2 1 4 -1.76277 0 1 -1.76277 1
gene 3 2 4 8 0 2 8 1
gene 3 3 4 8 0 3 8 1
gene 2 2 5 -0.659525 0 4 -0.659525 1
gene 2 5 4 1.97282 0 5 1.97282 1
gene 2 3 5 2.91798 0 36 2.91798 1
gene 2 5 24 0.621004 0 56 0.621004 1
gene 2 24 4 -1.69365 0 57 -1.69365 1
gene 2 1 5 -0.942855 0 73 -0.942855 1
gene 1 2 24 -1.41037 0 210 -1.41037 1
genomeend 66

/* Organism #67 Fitness: 8.9999 Error: 1.00002 */
genomestart 67
trait 1 0.102411 0 0.00928777 0 0.0949649 0.0018224 0.0352464 0.0526295 
trait 2 0.2 0 0.212707 0 0 0.117771 0 0 
trait 3 0.3 0 0 0 0 0 0 0 
node 1 1 1 3
node 2 1 1 1
node 3 2 1 1
node 4 2 0 2
node 5 1 0 0
node 24 1 0 0
gene 2 1 4 -4.30776 0 1 -4.30776 1
gene 3 2 4 6.25594 0 2 6.25594 1
gene 3 3 4 7.82597 0 3 7.82597 1
gene 2 2 5 -3.5552 0 4 -3.5552 1
gene 2 5 4 2.6921 0 5 2.6921 1
gene 2 3 5 3.36978 0 36 3.36978 1
gene 2 5 24 0.957777 0 56 0.957777 1
gene 2 24 4 1.06344 0 57 1.06344 1
gene 2 1 5 -1.54986 0 73 -1.54986 1
gene 1 2 24 -0.194567 0 210 -0.194567 1
genomeend 67

/* Organism #68 Fitness: 9 Error: 1 */
genomestart 68
trait 1 0.102411 0 0.00928777 0 0.0949649 0.0018224 0.0352464 0.0526295 
trait 2 0.2 0 0.212707 0 0 0.117771 0 0 
trait 3 0.3 0 0 0 0 0 0 0 
node 1 1 1 3
node 2 1 1 1
node 3 2 1 1
node 4 2 0 2
node 5 1 0 0
node 24 1 0 0
gene 2 1 4 -3.98456 0 1 -3.98456 1
gene 3 2 4 8 0 2 8 1
gene 3 3 4 8 0 3 8 1
gene 2 2 5 -2.21425 0 4 -2.21425 1
gene 2 5 4 1.699 0 5 1.699 1
gene 2 3 5 1.47136 0 36 1.47136 1
gene 2 5 24 0.773725 0 56 0.773725 1
gene 2 24 4 -0.110521 0 57 -0.110521 1
gene 2 1 5 -0.691943 0 73 -0.691943 1
gene 1 2 24 -0.194567 0 210 -0.194567 1
genomeend 68

/* Species #9 : (Size 7) (AF 7.67201) (Age 22)  */


/* Organism #69 Fitness: 9 Error: 1 */
genomestart 69
trait 1 0.207992 0 0.340352 0.17081 0.089709 0.00583168 0.556394 0 
trait 2 0.2 0.484071 0 0 0.478594 0 0.317023 0.227644 
trait 3 0.3 0 0 0 0 0 0 0 
node 1 1 1 3
node 2 3 1 1
node 3 1 1 1
node 4 3 0 2
node 5 1 0 0
node 22 3 0 0
node 26 1 0 0
gene 3 1 4 -1.86125 0 1 -1.86125 1
gene 1 2 4 -6.62845 0 2 -6.62845 1
gene 3 3 4 8 0 3 8 1
gene 2 2 5 -1.09015 0 4 -1.09015 1
gene 2 5 4 0.228444 0 5 0.228444 1
gene 2 3 5 -0.0202642 0 27 -0.0202642 1
gene 2 1 5 0.0263737 0 33 0.0263737 1
gene 2 2 22 3.67894 0 49 3.67894 1
gene 3 22 4 -5.06925 0 50 -5.06925 1
gene 2 2 26 -0.0779078 0 61 -0.0779078 1
gene 2 26 5 -0.402366 0 62 -0.402366 1
gene 1 22 26 1.95739 0 202 1.95739 1
gene 1 3 22 -0.700039 0 268 -0.700039 1
genomeend 69

/* Organism #70 Fitness: 6.13102 Error: 1.52391 */
genomestart 70
trait 1 0.207992 0 0.340352 0.17081 0.089709 0.00583168 0.556394 0 
trait 2 0.2 0.484071 0 0 0.478594 0 0.317023 0.227644 
trait 3 0.3 0 0 0 0 0 0 0 
node 1 1 1 3
node 2 3 1 1
node 3 1 1 1
node 4 3 0 2
node 5 1 0 0
node 22 3 0 0
node 26 1 0 0
gene 3 1 4 -1.50198 0 1 -1.50198 1
gene 1 2 4 1.85642 0 2 1.85642 1
gene 3 3 4 1.06928 0 3 1.06928 1
gene 2 2 5 -3.39478 0 4 -3.39478 1
gene 2 5 4 2.24551 0 5 2.24551 1
gene 2 3 5 0.570458 0 27 0.570458 1
gene 2 1 5 0.549641 0 33 0.549641 1
gene 2 2 22 3.67894 0 49 3.67894 1
gene 3 22 4 -1.42641 0 50 -1.42641 1
gene 2 2 26 2.07837 0 61 2.07837 1
gene 2 26 5 -0.402366 0 62 -0.402366 1
gene 1 22 26 1.83725 0 202 1.83725 1
gene 1 3 22 -0.672266 0 268 -0.672266 1
genomeend 70

/* Organism #71 Fitness: 7.57379 Error: 1.24795 */
genomestart 71
trait 1 0.207992 0 0.340352 0.17081 0.089709 0.00583168 0.556394 0 
trait 2 0.2 0.484071 0 0 0.478594 0 0.317023 0.227644 
trait 3 0.3 0 0 0 0 0 0 0 
node 1 1 1 3
node 2 3 1 1
node 3 1 1 1
node 4 3 0 2
node 5 1 0 0
node 22 3 0 0
node 26 1 0 0
node 87 1 0 0
gene 3 1 4 -0.902301 0 1 -0.902301 1
gene 1 2 4 -4.46988 0 2 -4.46988 1
gene 3 3 4 7.12775 0 3 7.12775 0
gene 2 2 5 -0.673111 0 4 -0.673111 1
gene 2 5 4 -0.077428 0 5 -0.077428 1
gene 2 3 5 0.76171 0 27 0.76171 1
gene 2 1 5 -0.74818 0 33 -0.74818 1
gene 2 2 22 3.32683 0 49 3.32683 1
gene 3 22 4 -5.74818 0 50 -5.74818 1
gene 2 2 26 -0.477588 0 61 -0.477588 1
gene 2 26 5 0.431596 0 62 0.431596 1
gene 1 22 26 1.44546 0 202 1.44546 1
gene 1 3 22 -0.700039 0 268 -0.700039 1
gene 3 3 87 1 0 281 0 1
gene 3 87 4 7.12775 0 282 0 1
genomeend 71

/* Organism #72 Fitness: 4.00041 Error: 1.9999 */
genomestart 72
trait 1 0.207992 0 0.340352 0.17081 0.089709 0.00583168 0.556394 0 
trait 2 0 0.145385 0 0 0.478594 0 0.317023 1 
trait 3 0.3 0 0 0 0 0 0 0 
node 1 1 1 3
node 2 3 1 1
node 3 1 1 1
node 4 3 0 2
node 5 1 0 0
node 22 3 0 0
node 26 1 0 0
gene 3 1 4 -3.44405 0 1 -3.44405 1
gene 1 2 4 -5.72065 0 2 -5.72065 1
gene 3 3 4 8 0 3 8 1
gene 2 2 5 -1.87162 0 4 -1.87162 1
gene 2 5 4 0.459432 0 5 0.459432 1
gene 2 3 5 -2.11476 0 27 -2.11476 1
gene 2 1 5 -2.37115 0 33 -2.37115 1
gene 2 2 22 1.41205 0 49 1.41205 1
gene 3 22 4 -6.42059 0 50 -6.42059 1
gene 2 2 26 -0.442469 0 61 -0.442469 1
gene 2 26 5 -2.34181 0 62 -2.34181 1
gene 1 22 26 1.95739 0 202 1.95739 1
gene 1 3 22 1.70969 0 268 1.70969 1
genomeend 72

/* Organism #73 Fitness: 9 Error: 1 */
genomestart 73
trait 1 0.207992 0 0.340352 0.17081 0.089709 0.00583168 0.556394 0 
trait 2 0.2 0.484071 0 0 0.478594 0 0.317023 0.227644 
trait 3 0.3 0 0 0 0 0 0 0 
node 1 1 1 3
node 2 3 1 1
node 3 1 1 1
node 4 3 0 2
node 5 1 0 0
node 22 3 0 0
node 26 1 0 0
gene 3 1 4 -0.902301 0 1 -0.902301 1
gene 1 2 4 -6.62845 0 2 -6.62845 1
gene 3 3 4 8 0 3 8 1
gene 2 2 5 -1.09015 0 4 -1.09015 1
gene 2 5 4 0.228444 0 5 0.228444 1
gene 2 3 5 -0.0202642 0 27 -0.0202642 1
gene 2 1 5 0.0263737 0 33 0.0263737 1
gene 2 2 22 3.32683 0 49 3.32683 1
gene 3 22 4 -5.74818 0 50 -5.74818 1
gene 2 2 26 -0.477588 0 61 -0.477588 1
gene 2 26 5 -0.402366 0 62 -0.402366 1
gene 1 22 26 1.44546 0 202 1.44546 1
gene 1 3 22 -0.700039 0 268 -0.700039 1
genomeend 73

/* Organism #74 Fitness: 8.9989 Error: 1.00018 */
genomestart 74
trait 1 0.207992 0 0.340352 0.17081 0.089709 0.00583168 0.556394 0 
trait 2 0.2 0.484071 0 0 0.478594 0 0.317023 0.227644 
trait 3 0.3 0 0 0 0 0 0 0 
node 1 1 1 3
node 2 3 1 1
node 3 1 1 1
node 4 3 0 2
node 5 1 0 0
node 22 3 0 0
node 26 1 0 0
gene 3 1 4 1.28434 0 1 1.28434 1
gene 1 2 4 -2.85778 0 2 -2.85778 1
gene 3 3 4 5.23984 0 3 5.23984 1
gene 2 2 5 -2.69348 0 4 -2.69348 1
gene 2 5 4 -0.0350623 0 5 -0.0350623 1
gene 2 3 5 -1.154 0 27 -1.154 1
gene 2 1 5 -1.04819 0 33 -1.04819 1
gene 2 2 22 3.32683 0 49 3.32683 1
gene 3 22 4 -6.07552 0 50 -6.07552 1
gene 2 2 26 -0.477588 0 61 -0.477588 1
gene 2 26 5 0.351844 0 62 0.351844 1
gene 1 22 26 1.83388 0 202 1.83388 1
gene 1 3 22 -0.892103 0 268 -0.892103 1
genomeend 74

/* Organism #75 Fitness: 8.99996 Error: 1.00001 */
genomestart 75
trait 1 0 0 0.340352 0.17081 0.089709 0.00583168 0.556394 0 
trait 2 0.2 0.484071 0 0 0.478594 0 0.317023 0.227644 
trait 3 0.3 0 0 0 0 0 0 0 
node 1 1 1 3
node 2 3 1 1
node 3 1 1 1
node 4 3 0 2
node 5 1 0 0
node 22 3 0 0
node 26 1 0 0
gene 3 1 4 -0.445588 0 1 -0.445588 1
gene 1 2 4 -7.81048 0 2 -7.81048 1
gene 3 3 4 8 0 3 8 1
gene 2 2 5 -1.09015 0 4 -1.09015 1
gene 2 5 4 -1.61658 0 5 -1.61658 1
gene 2 3 5 1.67262 0 27 1.67262 1
gene 2 1 5 -0.304133 0 33 -0.304133 1
gene 1 2 22 3.67894 0 49 3.67894 1
gene 3 22 4 -3.50725 0 50 -3.50725 1
gene 2 2 26 -1.54688 0 61 -1.54688 1
gene 2 26 5 1.698 0 62 1.698 1
gene 1 22 26 2.61231 0 202 2.61231 1
gene 1 3 22 1.5411 0 268 1.5411 1
genomeend 75

/* Species #10 : (Size 7) (AF 4.39833) (Age 20)  */


/* Organism #76 Fitness: 8.96942 Error: 1.0051 */
genomestart 76
trait 1 0.1 0 0 0.000926117 0 0.00437376 0.143348 0 
trait 2 0.2 0 0 0 0 0 0 0 
trait 3 0.3 0 0 0 0 0 0 0 
node 1 2 1 3
node 2 3 1 1
node 3 2 1 1
node 4 3 0 2
node 5 1 0 0
node 22 1 0 0
node 29 1 0 0
node 41 1 0 0
gene 3 1 4 -4.48526 0 1 -4.48526 1
gene 2 2 4 -2.69132 0 2 -2.69132 1
gene 3 3 4 2.77329 0 3 2.77329 1
gene 2 2 5 -2.21058 0 4 -2.21058 1
gene 2 5 4 0.00147374 0 5 0.00147374 1
gene 2 3 5 -0.428134 0 27 -0.428134 1
gene 2 1 5 6.42073 0 33 6.42073 1
gene 2 2 22 -3.851 0 49 -3.851 1
gene 2 22 4 -4.3204 0 50 -4.3204 0
gene 2 22 29 4.00473 0 74 4.00473 1
gene 2 29 4 2.79138 0 75 2.79138 1
gene 2 22 41 -2.66806 0 112 -2.66806 1
gene 2 41 29 -0.960509 0 113 -0.960509 1
gene 1 5 41 -5.4579 0 134 -5.4579 1
gene 3 41 4 -2.5568 0 215 -2.5568 1
gene 2 22 5 -0.731048 0 275 -0.731048 1
genomeend 76

/* Organism #77 Fitness: 4.00011 Error: 1.99997 */
genomestart 77
trait 1 0.1 0 0 0.000926117 0 0.00437376 0.143348 0 
trait 2 0.2 0 0 0 0 0 0 0 
trait 3 0.3 0 0 0 0 0 0 0 
node 1 2 1 3
node 2 3 1 1
node 3 2 1 1
node 4 3 0 2
node 5 1 0 0
node 22 1 0 0
node 29 1 0 0
node 41 1 0 0
gene 3 1 4 -6.22782 0 1 -6.22782 1
gene 2 2 4 -4.35029 0 2 -4.35029 1
gene 3 3 4 0.547851 0 3 0.547851 1
gene 2 2 5 -1.37719 0 4 -1.37719 1
gene 2 5 4 1.92238 0 5 1.92238 1
gene 2 3 5 1.64223 0 27 1.64223 1
gene 2 1 5 4.59361 0 33 4.59361 1
gene 2 2 22 -2.05159 0 49 -2.05159 1
gene 2 22 4 -5.8618 0 50 -5.8618 0
gene 2 22 29 5.62274 0 74 5.62274 1
gene 2 29 4 1.64034 0 75 1.64034 1
gene 2 22 41 -3.9014 0 112 -3.9014 1
gene 2 41 29 0.895187 0 113 0.895187 1
gene 1 5 41 -6.88396 0 134 -6.88396 1
gene 3 41 4 -1.81284 0 215 -1.81284 1
gene 2 22 5 -0.988212 0 275 -0.988212 1
genomeend 77

/* Organism #78 Fitness: 2.54774 Error: 2.40384 */
genomestart 78
trait 1 0.1 0 0 0.000926117 0 0.00437376 0.143348 0 
trait 2 0.2 0 0 0 0 0 0 0 
trait 3 0.3 0 0 0 0 0 0 0 
node 1 2 1 3
node 2 3 1 1
node 3 2 1 1
node 4 3 0 2
node 5 1 0 0
node 22 1 0 0
node 29 1 0 0
node 41 1 0 0
gene 3 1 4 -1.2594 0 1 -1.2594 1
gene 2 2 4 -3.78022 0 2 -3.78022 1
gene 3 3 4 1.19101 0 3 1.19101 1
gene 2 2 5 1.37328 0 4 1.37328 1
gene 2 5 4 2.31363 0 5 2.31363 1
gene 2 3 5 3.32542 0 27 3.32542 1
gene 2 1 5 8 0 33 8 1
gene 2 2 22 -1.22345 0 49 -1.22345 1
gene 2 22 4 0.642763 0 50 0.642763 0
gene 2 22 29 -0.446981 0 74 -0.446981 1
gene 2 29 4 2.92178 0 75 2.92178 1
gene 2 22 41 -0.202809 0 112 -0.202809 1
gene 2 41 29 1.3943 0 113 1.3943 1
gene 1 5 41 -1.76295 0 134 -1.76295 1
gene 3 41 4 -1.34541 0 215 -1.34541 1
gene 2 22 5 0.527916 0 275 0.527916 1
genomeend 78

/* Organism #79 Fitness: 2.48762 Error: 2.42278 */
genomestart 79
trait 1 0.1 0 0 0.000926117 0 0.00437376 0.143348 0 
trait 2 0.2 0 0 0 0 0 0 0 
trait 3 0.3 0 0 0 0 0 0 0 
node 1 2 1 3
node 2 3 1 1
node 3 2 1 1
node 4 3 0 2
node 5 1 0 0
node 22 1 0 0
node 29 1 0 0
node 41 1 0 0
gene 3 1 4 -3.79964 0 1 -3.79964 1
gene 2 2 4 -2.22107 0 2 -2.22107 1
gene 3 3 4 1.74452 0 3 1.74452 1
gene 2 2 5 -4.69706 0 4 -4.69706 1
gene 2 5 4 3.49824 0 5 3.49824 1
gene 2 3 5 4.26354 0 27 4.26354 1
gene 2 1 5 4.54067 0 33 4.54067 1
gene 2 2 22 -1.82057 0 49 -1.82057 1
gene 2 22 4 -2.97958 0 50 -2.97958 0
gene 2 22 29 3.30158 0 74 3.30158 1
gene 2 29 4 1.4342 0 75 1.4342 1
gene 2 22 41 -2.40829 0 112 -2.40829 1
gene 2 41 29 1.39262 0 113 1.39262 1
gene 1 5 41 -3.14648 0 134 -3.14648 1
gene 3 41 4 0.602275 0 215 0.602275 1
gene 2 22 5 3.04892 0 275 3.04892 1
genomeend 79

/* Organism #80 Fitness: 7.73727 Error: 1.2184 */
genomestart 80
trait 1 0.1 0 0 0.000926117 0 0.00437376 0.143348 0 
trait 2 0.2 0 0 0 0 0 0 0 
trait 3 0.3 0 0 0 0 0 0 0 
node 1 2 1 3
node 2 3 1 1
node 3 2 1 1
node 4 3 0 2
node 5 1 0 0
node 22 1 0 0
node 29 1 0 0
node 41 1 0 0
gene 3 1 4 -3.6847 0 1 -3.6847 1
gene 2 2 4 -1.56542 0 2 -1.56542 1
gene 3 3 4 1.19101 0 3 1.19101 1
gene 2 2 5 -2.21058 0 4 -2.21058 1
gene 2 5 4 2.31363 0 5 2.31363 1
gene 2 3 5 1.80526 0 27 1.80526 1
gene 2 1 5 6.42073 0 33 6.42073 1
gene 2 2 22 -2.97476 0 49 -2.97476 1
gene 2 22 4 -4.41765 0 50 -4.41765 0
gene 2 22 29 1.8444 0 74 1.8444 1
gene 2 29 4 0.457525 0 75 0.457525 1
gene 2 22 41 -3.12603 0 112 -3.12603 1
gene 2 41 29 0.186908 0 113 0.186908 1
gene 1 5 41 -3.34924 0 134 -3.34924 1
gene 3 41 4 -0.346824 0 215 -0.346824 1
gene 2 22 5 0.675561 0 275 0.675561 1
genomeend 80

/* Organism #81 Fitness: 1.04378 Error: 2.97834 */
genomestart 81
trait 1 0.1 0 0 0.000926117 0 0.00437376 0.143348 0 
trait 2 0.2 0 0 0 0 0 0 0 
trait 3 0.3 0 0 0 0 0 0 0 
node 1 2 1 3
node 2 3 1 1
node 3 2 1 1
node 4 3 0 2
node 5 1 0 0
node 22 1 0 0
node 29 1 0 0
node 41 1 0 0
gene 3 1 4 -2.03499 0 1 -2.03499 1
gene 2 2 4 -1.13314 0 2 -1.13314 1
gene 3 3 4 2.56379 0 3 2.56379 1
gene 2 2 5 -2.08475 0 4 -2.08475 1
gene 2 5 4 0.401186 0 5 0.401186 1
gene 2 3 5 1.75027 0 27 1.75027 1
gene 2 1 5 7.74424 0 33 7.74424 1
gene 2 2 22 -1.77639 0 49 -1.77639 1
gene 2 22 4 -5.97885 0 50 -5.97885 0
gene 2 22 29 5.07523 0 74 5.07523 1
gene 2 29 4 3.97528 0 75 3.97528 1
gene 2 22 41 -2.43237 0 112 -2.43237 1
gene 2 41 29 0.19768 0 113 0.19768 1
gene 1 5 41 -4.40357 0 134 -4.40357 1
gene 3 41 4 0.761767 0 215 0.761767 1
gene 2 22 5 1.72791 0 275 1.72791 1
genomeend 81

/* Organism #82 Fitness: 4.00234 Error: 1.99942 */
genomestart 82
trait 1 0.1 0 0 0.000926117 0 0.00437376 0.143348 0 
trait 2 0.2 0 0 0 0 0 0 0 
trait 3 0.3 0 0 0 0 0 0 0 
node 1 2 1 3
node 2 3 1 1
node 3 2 1 1
node 4 3 0 2
node 5 1 0 0
node 22 1 0 0
node 29 1 0 0
node 41 1 0 0
gene 3 1 4 -4.08498 0 1 -4.08498 1
gene 2 2 4 -2.12837 0 2 -2.12837 1
gene 3 3 4 1.98215 0 3 1.98215 1
gene 2 2 5 -2.21058 0 4 -2.21058 1
gene 2 5 4 1.15755 0 5 1.15755 1
gene 2 3 5 0.688562 0 27 0.688562 1
gene 2 1 5 6.42073 0 33 6.42073 1
gene 2 2 22 -3.41288 0 49 -3.41288 1
gene 2 22 4 -4.36903 0 50 -4.36903 1
gene 2 22 29 2.92456 0 74 2.92456 1
gene 2 29 4 1.62445 0 75 1.62445 1
gene 2 22 41 -2.89704 0 112 -2.89704 1
gene 2 41 29 -0.3868 0 113 -0.3868 1
gene 1 5 41 -4.40357 0 134 -4.40357 1
gene 3 41 4 -1.45181 0 215 -1.45181 1
gene 2 22 5 -0.0277438 0 275 -0.0277438 1
genomeend 82

/* Species #12 : (Size 7) (AF 4.97118) (Age 19)  */


/* Organism #83 Fitness: 8.99816 Error: 1.00031 */
genomestart 83
trait 1 0.931239 0 0.49305 0 0 0.0013668 0.241682 0.722624 
trait 2 0.2 0 0.0721684 0 0 0.039958 0 0 
trait 3 0.291591 0 0 0 0.0316726 0 0 0.00443564 
node 1 2 1 3
node 2 2 1 1
node 3 1 1 1
node 4 1 0 2
node 30 1 0 0
gene 2 1 4 -2.35183 0 1 -2.35183 1
gene 3 2 4 -4.57147 0 2 -4.57147 1
gene 3 3 4 0.309331 0 3 0.309331 1
gene 3 3 30 4.204 0 77 4.204 1
gene 3 30 4 3.6963 0 78 3.6963 1
gene 2 2 30 -0.544787 0 114 -0.544787 1
gene 2 1 30 -2.84005 0 203 -2.84005 1
genomeend 83

/* Organism #84 Fitness: 4 Error: 2 */
genomestart 84
trait 1 0.931239 0 0.49305 0 0 0.0013668 0.241682 0.722624 
trait 2 0.2 0 0.0721684 0 0 0.039958 0 0 
trait 3 0.291591 0 0 0 0.0316726 0 0 0.00443564 
node 1 2 1 3
node 2 2 1 1
node 3 1 1 1
node 4 1 0 2
node 30 1 0 0
gene 2 1 4 -4.67554 0 1 -4.67554 1
gene 3 2 4 -4.06807 0 2 -4.06807 1
gene 3 3 4 0.605745 0 3 0.605745 1
gene 3 3 30 5.75389 0 77 5.75389 1
gene 3 30 4 0.86514 0 78 0.86514 1
gene 2 2 30 -1.65574 0 114 -1.65574 1
gene 2 1 30 -1.87047 0 203 -1.87047 1
genomeend 84

/* Organism #85 Fitness: 4.01094 Error: 1.99727 */
genomestart 85
trait 1 0.931239 0 0.49305 0 0 0.0013668 0.241682 0.722624 
trait 2 0.2 0 0.0721684 0 0 0.039958 0 0 
trait 3 0.291591 0 0 0 0.0316726 0 0 0.00443564 
node 1 2 1 3
node 2 2 1 1
node 3 1 1 1
node 4 1 0 2
node 30 1 0 0
gene 2 1 4 -2.01924 0 1 -2.01924 1
gene 3 2 4 -3.00974 0 2 -3.00974 1
gene 3 3 4 0.0898264 0 3 0.0898264 1
gene 3 3 30 5.63258 0 77 5.63258 1
gene 3 30 4 0.771615 0 78 0.771615 1
gene 2 2 30 -0.973408 0 114 -0.973408 1
gene 2 1 30 -5.0245 0 203 -5.0245 1
genomeend 85

/* Organism #86 Fitness: 3.86012 Error: 2.03528 */
genomestart 86
trait 1 0.931239 0 0.49305 0 0 0.0013668 0.241682 0.722624 
trait 2 0.2 0 0.0721684 0 0 0.039958 0 0 
trait 3 0.291591 0 0 0 0.0316726 0 0 0.00443564 
node 1 2 1 3
node 2 2 1 1
node 3 1 1 1
node 4 1 0 2
node 30 1 0 0
gene 2 1 4 -0.668989 0 1 -0.668989 1
gene 3 2 4 -3.63972 0 2 -3.63972 1
gene 3 3 4 1.4888 0 3 1.4888 1
gene 3 3 30 8 0 77 8 1
gene 3 30 4 4.36883 0 78 4.36883 1
gene 2 2 30 -0.15845 0 114 -0.15845 1
gene 2 1 30 -5.61513 0 203 -5.61513 1
genomeend 86

/* Organism #87 Fitness: 5.9282 Error: 1.56521 */
genomestart 87
trait 1 0.931239 0 0.49305 0 0 0.0013668 0.241682 0.722624 
trait 2 0.2 0 0.0721684 0 0 0.039958 0 0 
trait 3 0.291591 0 0 0 0.0316726 0 0 0.00443564 
node 1 2 1 3
node 2 2 1 1
node 3 1 1 1
node 4 1 0 2
node 30 1 0 0
gene 2 1 4 -1.14016 0 1 -1.14016 1
gene 3 2 4 -3.64202 0 2 -3.64202 1
gene 3 3 4 -0.756787 0 3 -0.756787 1
gene 3 3 30 3.44128 0 77 3.44128 1
gene 3 30 4 2.08233 0 78 2.08233 1
gene 2 2 30 -0.825406 0 114 -0.825406 1
gene 2 1 30 -3.02319 0 203 -3.02319 1
genomeend 87

/* Organism #88 Fitness: 4.0004 Error: 1.9999 */
genomestart 88
trait 1 0.931239 0 0.49305 0 0 0.0013668 0.241682 0.722624 
trait 2 0.2 0 0.0721684 0 0 0.039958 0 0 
trait 3 0.291591 0 0 0 0.0316726 0 0 0.00443564 
node 1 2 1 3
node 2 2 1 1
node 3 1 1 1
node 4 1 0 2
node 30 1 0 0
gene 2 1 4 -2.35183 0 1 -2.35183 1
gene 3 2 4 -6.46361 0 2 -6.46361 1
gene 3 3 4 0.0604444 0 3 0.0604444 1
gene 3 3 30 4.204 0 77 4.204 1
gene 3 30 4 0.480302 0 78 0.480302 1
gene 2 2 30 -0.544787 0 114 -0.544787 1
gene 2 1 30 -3.73191 0 203 -3.73191 1
genomeend 88

/* Organism #89 Fitness: 4.00042 Error: 1.99989 */
genomestart 89
trait 1 0.931239 0 0.49305 0.378803 0 0.096394 0.241682 0.722624 
trait 2 0.2 0 0.0721684 0 0 0.039958 0 0 
trait 3 0.291591 0 0 0 0.0316726 0 0 0.00443564 
node 1 2 1 3
node 2 2 1 1
node 3 2 1 1
node 4 1 0 2
node 30 1 0 0
gene 2 1 4 -4.30916 0 1 -4.30916 1
gene 3 2 4 -0.651452 0 2 -0.651452 1
gene 3 3 4 2.24777 0 3 2.24777 1
gene 3 3 30 4.76049 0 77 4.76049 1
gene 3 30 4 0.21118 0 78 0.21118 1
gene 2 2 30 -2.80598 0 114 -2.80598 1
gene 2 1 30 -1.19796 0 203 -1.19796 1
genomeend 89

/* Species #13 : (Size 7) (AF 8.74794) (Age 19)  */


/* Organism #90 Fitness: 9 Error: 1 */
genomestart 90
trait 1 0.0996094 0 0.000580486 0 0.00257561 0.00189074 0.0365682 0.00328934 
trait 2 0.2 0.523672 0 0 0 0.239183 0.859041 0 
trait 3 0.292642 0 0 0 0.0277135 0 0 0.00388119 
node 1 3 1 3
node 2 2 1 1
node 3 1 1 1
node 4 1 0 2
node 31 1 0 0
gene 2 1 4 -0.367955 0 1 -0.367955 1
gene 3 2 4 -3.76633 0 2 -3.76633 1
gene 3 3 4 8 0 3 8 1
gene 3 2 31 2.66728 0 79 2.66728 1
gene 1 31 4 -8 0 80 -8 1
genomeend 90

/* Organism #91 Fitness: 8.99904 Error: 1.00016 */
genomestart 91
trait 1 0.0996094 0 0.000580486 0 0.00257561 0.00189074 0.0365682 0.00328934 
trait 2 0.2 0 0.0512776 0 0.243868 0.239183 0 0 
trait 3 0.292642 0 0 0 0.0277135 0 0 0.00388119 
node 1 3 1 3
node 2 2 1 1
node 3 1 1 1
node 4 1 0 2
node 31 1 0 0
gene 2 1 4 1.99823 0 1 1.99823 1
gene 3 2 4 -6.54215 0 2 -6.54215 1
gene 3 3 4 7.06416 0 3 7.06416 1
gene 3 2 31 2.36028 0 79 2.36028 1
gene 3 31 4 -7.54533 0 80 -7.54533 1
genomeend 91

/* Organism #92 Fitness: 8.60763 Error: 1.06612 */
genomestart 92
trait 1 0.0996094 0 0.000580486 0 0.00257561 0.00189074 0.0365682 0.00328934 
trait 2 0.2 0 0.0512776 0 0.243868 0.239183 0 0 
trait 3 0.292642 0 0 0 0.0277135 0 0 0.00388119 
node 1 3 1 3
node 2 2 1 1
node 3 1 1 1
node 4 1 0 2
node 31 1 0 0
gene 2 1 4 -1.24184 0 1 -1.24184 1
gene 3 2 4 -3.57669 0 2 -3.57669 1
gene 3 3 4 5.77954 0 3 5.77954 1
gene 3 2 31 0.11508 0 79 0.11508 1
gene 3 31 4 -8 0 80 -8 1
genomeend 92

/* Organism #93 Fitness: 8.99081 Error: 1.00153 */
genomestart 93
trait 1 0.0996094 0 0.000580486 0 0.00257561 0.00189074 0.0365682 0.00328934 
trait 2 0.2 0 0.0512776 0 0.243868 0.239183 0 0 
trait 3 0.130395 0 0.0573244 0.126665 0.631955 0 0 0.00388119 
node 1 3 1 3
node 2 2 1 1
node 3 1 1 1
node 4 1 0 2
node 31 1 0 0
gene 2 1 4 2.46342 0 1 2.46342 1
gene 3 2 4 -3.8639 0 2 -3.8639 1
gene 3 3 4 8 0 3 8 1
gene 3 2 31 1.81511 0 79 1.81511 1
gene 3 31 4 -8 0 80 -8 1
genomeend 93

/* Organism #94 Fitness: 8.99936 Error: 1.00011 */
genomestart 94
trait 1 0.0996094 0 0.000580486 0 0.00257561 0.00189074 0.0365682 0.00328934 
trait 2 0.2 0 0.0512776 0 0.243868 0.239183 0 0 
trait 3 0.292642 0 0 0 0.0277135 0 0 0.00388119 
node 1 3 1 3
node 2 2 1 1
node 3 1 1 1
node 4 1 0 2
node 31 1 0 0
gene 2 1 4 -0.0285373 0 1 -0.0285373 1
gene 3 2 4 -3.96124 0 2 -3.96124 1
gene 3 3 4 7.98682 0 3 7.98682 1
gene 3 2 31 0.203665 0 79 0.203665 1
gene 3 31 4 -8 0 80 -8 1
genomeend 94

/* Organism #95 Fitness: 7.63874 Error: 1.23617 */
genomestart 95
trait 1 0.0996094 0 0.000580486 0 0.00257561 0.00189074 0.0365682 0.00328934 
trait 2 0.2 0 0.0512776 0 0.243868 0.239183 0 0 
trait 3 0.292642 0 0 0 0.0277135 0 0 0.00388119 
node 1 3 1 3
node 2 2 1 1
node 3 1 1 1
node 4 1 0 2
node 31 1 0 0
gene 2 1 4 0.34282 0 1 0.34282 1
gene 3 2 4 -0.303484 0 2 -0.303484 1
gene 3 3 4 7.64302 0 3 7.64302 1
gene 3 2 31 0.935009 0 79 0.935009 1
gene 3 31 4 -8 0 80 -8 1
genomeend 95

/* Organism #96 Fitness: 9 Error: 1 */
genomestart 96
trait 1 0.0996094 0 0.000580486 0 0.00257561 0.00189074 0.0365682 0.00328934 
trait 2 0.2 0.261836 0.0256388 0 0.121934 0.239183 0.42952 0 
trait 3 0.292642 0 0 0 0.0277135 0 0 0.00388119 
node 1 3 1 3
node 2 2 1 1
node 3 1 1 1
node 4 1 0 2
node 31 1 0 0
gene 2 1 4 -1.08756 0 1 -1.08756 1
gene 3 2 4 -3.76633 0 2 -3.76633 1
gene 3 3 4 6.853 0 3 6.853 1
gene 3 2 31 1.98056 0 79 1.98056 1
gene 1 31 4 -5.80355 0 80 -5.80355 1
genomeend 96

/* Species #14 : (Size 10) (AF 7.76884) (Age 19)  */


/* Organism #97 Fitness: 9 Error: 1 */
genomestart 97
trait 1 0.102411 0.0554268 0.00928777 0 0.0949649 0.0009112 0.0176232 0.0263147 
trait 2 0.774848 0 0.212707 0 0 0.0705602 0 0 
trait 3 0.3 0 0 0 0 0 0 0.0102013 
node 1 1 1 3
node 2 1 1 1
node 3 2 1 1
node 4 2 0 2
node 5 1 0 0
node 24 1 0 0
node 33 1 0 0
gene 2 1 4 -5.20472 0 1 -5.20472 1
gene 3 2 4 8 0 2 8 1
gene 3 3 4 8 0 3 8 1
gene 2 2 5 6.78601 0 4 6.78601 1
gene 2 5 4 6.6801 0 5 6.6801 1
gene 2 3 5 -4.97978 0 36 -4.97978 0
gene 2 5 24 -0.987189 0 56 -0.987189 1
gene 2 24 4 -0.614941 0 57 -0.614941 1
gene 2 3 33 -4.92421 0 85 -4.92421 1
gene 2 33 5 -3.89606 0 86 -3.89606 1
gene 2 3 24 -0.801319 0 240 -0.801319 1
gene 3 33 4 -0.684443 0 251 -0.684443 1
genomeend 97

/* Organism #98 Fitness: 9 Error: 1 */
genomestart 98
trait 1 0.102411 0.0277134 0.00928777 0 0.0949649 0.0013668 0.0264348 0.0394721 
trait 2 0.774848 0 0.212707 0 0 0.0705602 0 0 
trait 3 0.3 0 0 0 0 0 0 0.0102013 
node 1 1 1 3
node 2 1 1 1
node 3 2 1 1
node 4 2 0 2
node 5 1 0 0
node 24 1 0 0
node 33 1 0 0
gene 2 1 4 -4.41369 0 1 -4.41369 1
gene 3 2 4 7.83734 0 2 7.83734 1
gene 3 3 4 7.17815 0 3 7.17815 1
gene 2 2 5 8 0 4 8 1
gene 2 5 4 5.8201 0 5 5.8201 1
gene 2 3 5 -1.75141 0 36 -1.75141 0
gene 2 5 24 2.03534 0 56 2.03534 1
gene 2 24 4 -0.337081 0 57 -0.337081 1
gene 2 3 33 -5.52522 0 85 -5.52522 1
gene 2 33 5 -6.37253 0 86 -6.37253 1
gene 2 3 24 -0.0965084 0 240 -0.0965084 1
gene 3 33 4 -0.830912 0 251 -0.830912 1
genomeend 98

/* Organism #99 Fitness: 9 Error: 1 */
genomestart 99
trait 1 0.102411 0.0277134 0.00928777 0 0.0949649 0.0013668 0.0264348 0.0394721 
trait 2 0.774848 0 0.212707 0 0 0.0705602 0 0 
trait 3 0.3 0 0 0 0 0 0 0.0102013 
node 1 1 1 3
node 2 1 1 1
node 3 2 1 1
node 4 2 0 2
node 5 1 0 0
node 24 1 0 0
node 33 1 0 0
gene 2 1 4 -5.20472 0 1 -5.20472 1
gene 3 2 4 8 0 2 8 1
gene 3 3 4 8 0 3 8 1
gene 2 2 5 6.78601 0 4 6.78601 1
gene 2 5 4 6.6801 0 5 6.6801 1
gene 2 3 5 -4.97978 0 36 -4.97978 0
gene 2 5 24 0.40465 0 56 0.40465 1
gene 2 24 4 -1.16654 0 57 -1.16654 1
gene 2 3 33 -1.19573 0 85 -1.19573 1
gene 2 33 5 -3.89606 0 86 -3.89606 1
gene 2 3 24 -0.801319 0 240 -0.801319 1
gene 3 33 4 -0.712732 0 251 -0.712732 1
genomeend 99

/* Organism #100 Fitness: 4 Error: 2 */
genomestart 100
trait 1 0.102411 0.0554268 0.00928777 0 0.0949649 0.0009112 0.0176232 0.0263147 
trait 2 0.774848 0 0.212707 0 0 0.0705602 0 0 
trait 3 0.3 0 0 0 0 0 0 0.0102013 
node 1 1 1 3
node 2 1 1 1
node 3 2 1 1
node 4 2 0 2
node 5 1 0 0
node 24 1 0 0
node 33 1 0 0
gene 2 1 4 -6.56189 0 1 -6.56189 1
gene 3 2 4 -0.752976 0 2 -0.752976 1
gene 3 3 4 1.53759 0 3 1.53759 1
gene 2 2 5 5.86886 0 4 5.86886 1
gene 2 5 4 -2.18319 0 5 -2.18319 1
gene 2 3 5 -0.146183 0 36 -0.146183 0
gene 2 5 24 -1.77952 0 56 -1.77952 1
gene 2 24 4 -2.34547 0 57 -2.34547 1
gene 2 3 33 0.365025 0 85 0.365025 1
gene 2 33 5 -5.66056 0 86 -5.66056 1
gene 2 3 24 -2.12608 0 240 -2.12608 1
gene 3 33 4 -0.590558 0 251 -0.590558 1
genomeend 100

/* Organism #101 Fitness: 8.99999 Error: 1 */
genomestart 101
trait 1 0.102411 0.0554268 0.00928777 0 0.0949649 0.0009112 0.0176232 0.0263147 
trait 2 0.774848 0 0.212707 0 0 0.0705602 0 0 
trait 3 0.3 0 0 0 0 0 0 0.0102013 
node 1 1 1 3
node 2 1 1 1
node 3 2 1 1
node 4 2 0 2
node 5 1 0 0
node 24 1 0 0
node 33 1 0 0
gene 2 1 4 -3.47281 0 1 -3.47281 1
gene 3 2 4 5.85157 0 2 5.85157 1
gene 3 3 4 8 0 3 8 1
gene 2 2 5 -2.03283 0 4 -2.03283 1
gene 2 5 4 5.09197 0 5 5.09197 1
gene 2 3 5 -2.25483 0 36 -2.25483 0
gene 2 5 24 -1.94157 0 56 -1.94157 1
gene 2 24 4 0.279394 0 57 0.279394 1
gene 2 3 33 -2.99531 0 85 -2.99531 1
gene 2 33 5 -2.1444 0 86 -2.1444 1
gene 2 3 24 -0.801319 0 240 -0.801319 1
gene 3 33 4 1.06433 0 251 1.06433 1
genomeend 101

/* Organism #102 Fitness: 4.00024 Error: 1.99994 */
genomestart 102
trait 1 0.102411 0.0554268 0.00928777 0 0.0949649 0.0009112 0.0176232 0.0263147 
trait 2 0.774848 0 0.212707 0 0 0.0705602 0 0 
trait 3 0.3 0 0 0 0 0 0 0.0102013 
node 1 1 1 3
node 2 1 1 1
node 3 2 1 1
node 4 2 0 2
node 5 1 0 0
node 24 1 0 0
node 33 1 0 0
gene 2 1 4 1.19034 0 1 1.19034 1
gene 3 2 4 8 0 2 8 1
gene 3 3 4 1.97554 0 3 1.97554 1
gene 2 2 5 6.10457 0 4 6.10457 1
gene 2 5 4 -1.46708 0 5 -1.46708 1
gene 2 3 5 -6.46442 0 36 -6.46442 0
gene 2 5 24 -2.13781 0 56 -2.13781 1
gene 2 24 4 0.897179 0 57 0.897179 1
gene 2 3 33 -1.40646 0 85 -1.40646 1
gene 2 33 5 -3.50713 0 86 -3.50713 1
gene 2 3 24 -2.42754 0 240 -2.42754 1
gene 3 33 4 0.633462 0 251 0.633462 1
genomeend 102

/* Organism #103 Fitness: 9 Error: 1 */
genomestart 103
trait 1 0.102411 0.0554268 0.00928777 0 0.0949649 0.0009112 0.0176232 0.0263147 
trait 2 0.774848 0 0.212707 0 0 0.0705602 0 0 
trait 3 0.3 0 0 0 0 0 0 0.0102013 
node 1 1 1 3
node 2 1 1 1
node 3 2 1 1
node 4 2 0 2
node 5 1 0 0
node 24 1 0 0
node 33 1 0 0
gene 2 1 4 -5.20472 0 1 -5.20472 1
gene 3 2 4 8 0 2 8 1
gene 3 3 4 8 0 3 8 1
gene 2 2 5 6.78601 0 4 6.78601 1
gene 2 5 4 6.6801 0 5 6.6801 1
gene 2 3 5 -4.97978 0 36 -4.97978 0
gene 2 5 24 -0.987189 0 56 -0.987189 1
gene 2 24 4 -0.614941 0 57 -0.614941 1
gene 2 3 33 -4.92421 0 85 -4.92421 1
gene 2 33 5 -3.89606 0 86 -3.89606 1
gene 2 3 24 -0.801319 0 240 -0.801319 1
gene 3 33 4 -0.684443 0 251 -0.684443 1
genomeend 103

/* Organism #104 Fitness: 9 Error: 1 */
genomestart 104
trait 1 0.102411 0 0.00928777 0 0.0949649 0.0018224 0.0352464 0.0526295 
trait 2 0.774848 0 0.212707 0 0 0.0705602 0 0 
trait 3 0.3 0 0 0 0 0 0 0.0102013 
node 1 1 1 3
node 2 1 1 1
node 3 2 1 1
node 4 2 0 2
node 5 1 0 0
node 24 1 0 0
node 33 1 0 0
gene 2 1 4 -2.40104 0 1 -2.40104 1
gene 3 2 4 8 0 2 8 1
gene 3 3 4 6.17564 0 3 6.17564 1
gene 2 2 5 7.38215 0 4 7.38215 1
gene 2 5 4 5.5903 0 5 5.5903 1
gene 2 3 5 -2.72961 0 36 -2.72961 0
gene 2 5 24 2.09767 0 56 2.09767 1
gene 2 24 4 -2.43043 0 57 -2.43043 1
gene 2 3 33 -2.21593 0 85 -2.21593 1
gene 2 33 5 -0.767495 0 86 -0.767495 1
gene 2 3 24 -0.719789 0 240 -0.719789 1
gene 3 33 4 -1.89564 0 251 -1.89564 1
genomeend 104

/* Organism #105 Fitness: 9 Error: 1 */
genomestart 105
trait 1 0.102411 0 0.00928777 0 0.0949649 0.0018224 0.0352464 0.0526295 
trait 2 0.774848 0 0.212707 0 0 0.0705602 0 0 
trait 3 0.3 0 0 0 0 0 0 0.0102013 
node 1 1 1 3
node 2 1 1 1
node 3 2 1 1
node 4 2 0 2
node 5 1 0 0
node 24 1 0 0
node 33 1 0 0
gene 2 1 4 -4.84502 0 1 -4.84502 1
gene 3 2 4 8 0 2 8 1
gene 3 3 4 7.8563 0 3 7.8563 1
gene 2 2 5 8 0 4 8 1
gene 2 5 4 3.0384 0 5 3.0384 1
gene 2 3 5 2.08407 0 36 2.08407 0
gene 2 5 24 -1.5338 0 56 -1.5338 1
gene 2 24 4 0.950964 0 57 0.950964 1
gene 2 3 33 -3.01266 0 85 -3.01266 1
gene 2 33 5 -1.45186 0 86 -1.45186 1
gene 2 3 24 0.27123 0 240 0.27123 1
gene 3 33 4 -1.62204 0 251 -1.62204 1
genomeend 105

/* Organism #106 Fitness: 6.68812 Error: 1.41386 */
genomestart 106
trait 1 0.102411 0 0.00928777 0 0.0949649 0.0018224 0.0352464 0.0526295 
trait 2 0.774848 0 0.212707 0 0 0.0705602 0 0 
trait 3 0.3 0 0 0 0 0 0 0.0102013 
node 1 1 1 3
node 2 1 1 1
node 3 2 1 1
node 4 2 0 2
node 5 1 0 0
node 24 1 0 0
node 33 1 0 0
gene 2 1 4 -6.25721 0 1 -6.25721 1
gene 3 2 4 8 0 2 8 1
gene 3 3 4 6.73285 0 3 6.73285 1
gene 2 2 5 8 0 4 8 1
gene 2 5 4 5.60162 0 5 5.60162 1
gene 2 3 5 -2.74805 0 36 -2.74805 0
gene 2 5 24 0.113032 0 56 0.113032 1
gene 2 24 4 -0.180828 0 57 -0.180828 1
gene 2 3 33 0.780752 0 85 0.780752 1
gene 2 33 5 -3.39768 0 86 -3.39768 1
gene 2 3 24 0.392409 0 240 0.392409 1
gene 3 33 4 -0.252302 0 251 -0.252302 1
genomeend 106

/* Species #15 : (Size 7) (AF 8.642) (Age 19)  */


/* Organism #107 Fitness: 8.99999 Error: 1 */
genomestart 107
trait 1 0.102411 0 0.00928777 0 0.0949649 0.0018224 0.0352464 0.0526295 
trait 2 0.075 0 0.212707 0.57512 0.0122595 0.0441641 0 0 
trait 3 0.3 0 0 0 0 0 0 0 
node 1 1 1 3
node 2 3 1 1
node 3 2 1 1
node 4 2 0 2
node 5 1 0 0
node 24 1 0 0
gene 2 1 4 -2.92285 0 1 -2.92285 1
gene 3 2 4 3.95843 0 2 3.95843 1
gene 3 3 4 -7.53235 0 3 -7.53235 1
gene 2 2 5 2.89605 0 4 2.89605 1
gene 2 5 4 4.37908 0 5 4.37908 1
gene 2 3 5 4.78215 0 36 4.78215 1
gene 2 5 24 4.58051 0 56 4.58051 1
gene 2 24 4 -2.03215 0 57 -2.03215 1
gene 3 1 24 0.109906 0 72 0.109906 1
gene 1 2 24 -0.645919 0 143 -0.645919 1
genomeend 107

/* Organism #108 Fitness: 8.97954 Error: 1.00341 */
genomestart 108
trait 1 0.102411 0 0.00928777 0 0.0949649 0.0018224 0.0352464 0.0526295 
trait 2 0.075 0 0.212707 0.57512 0.0122595 0.0441641 0 0 
trait 3 0.3 0 0 0 0 0 0 0 
node 1 1 1 3
node 2 3 1 1
node 3 2 1 1
node 4 2 0 2
node 5 1 0 0
node 24 1 0 0
gene 2 1 4 -1.17718 0 1 -1.17718 1
gene 3 2 4 1.75233 0 2 1.75233 1
gene 3 3 4 -7.53235 0 3 -7.53235 1
gene 2 2 5 2.84971 0 4 2.84971 1
gene 2 5 4 2.09861 0 5 2.09861 1
gene 2 3 5 7.19194 0 36 7.19194 1
gene 2 5 24 4.58051 0 56 4.58051 1
gene 2 24 4 -1.50018 0 57 -1.50018 1
gene 3 1 24 0.109906 0 72 0.109906 1
gene 1 2 24 -2.4764 0 143 -2.4764 1
genomeend 108

/* Organism #109 Fitness: 8.99676 Error: 1.00054 */
genomestart 109
trait 1 0.102411 0 0.00928777 0 0.0949649 0.0018224 0.0352464 0.0526295 
trait 2 0.075 0 0.212707 0.57512 0.0122595 0.0441641 0 0 
trait 3 0.3 0 0 0 0 0 0 0 
node 1 1 1 3
node 2 3 1 1
node 3 2 1 1
node 4 2 0 2
node 5 1 0 0
node 24 1 0 0
gene 2 1 4 -4.23285 0 1 -4.23285 1
gene 3 2 4 2.81295 0 2 2.81295 1
gene 3 3 4 -5.56517 0 3 -5.56517 1
gene 2 2 5 1.70011 0 4 1.70011 1
gene 2 5 4 4.73796 0 5 4.73796 1
gene 2 3 5 5.98941 0 36 5.98941 1
gene 2 5 24 2.99088 0 56 2.99088 1
gene 2 24 4 -1.78944 0 57 -1.78944 1
gene 3 1 24 0.942403 0 72 0.942403 1
gene 1 2 24 -0.645919 0 143 -0.645919 1
gene 2 3 24 -0.805217 0 284 -0.805217 1
genomeend 109

/* Organism #110 Fitness: 8.99997 Error: 1.00001 */
genomestart 110
trait 1 0.102411 0 0.00928777 0 0.0949649 0.0018224 0.0352464 0.0526295 
trait 2 0.075 0 0.212707 0.57512 0.0122595 0.0441641 0 0 
trait 3 0.3 0 0 0 0 0 0 0 
node 1 1 1 3
node 2 3 1 1
node 3 2 1 1
node 4 2 0 2
node 5 1 0 0
node 24 1 0 0
gene 2 1 4 -3.57785 0 1 -3.57785 1
gene 3 2 4 3.38569 0 2 3.38569 1
gene 3 3 4 -6.54876 0 3 -6.54876 1
gene 2 2 5 2.29808 0 4 2.29808 1
gene 2 5 4 4.55852 0 5 4.55852 1
gene 2 3 5 5.38578 0 36 5.38578 1
gene 2 5 24 3.78569 0 56 3.78569 1
gene 2 24 4 -1.9108 0 57 -1.9108 1
gene 3 1 24 0.526155 0 72 0.526155 1
gene 1 2 24 -0.645919 0 143 -0.645919 1
genomeend 110

/* Organism #111 Fitness: 6.67956 Error: 1.41552 */
genomestart 111
trait 1 0.102411 0 0.00928777 0 0.0949649 0.0018224 0.0352464 0.0526295 
trait 2 0.075 0 0.212707 0.57512 0.0122595 0.0441641 0 0 
trait 3 0.3 0 0 0 0 0 0 0 
node 1 1 1 3
node 2 3 1 1
node 3 2 1 1
node 4 2 0 2
node 5 1 0 0
node 24 1 0 0
gene 2 1 4 -4.50077 0 1 -4.50077 1
gene 3 2 4 3.16096 0 2 3.16096 1
gene 3 3 4 -7.53235 0 3 -7.53235 1
gene 2 2 5 5.3706 0 4 5.3706 1
gene 2 5 4 -0.197669 0 5 -0.197669 1
gene 2 3 5 4.78215 0 36 4.78215 1
gene 2 5 24 1.10941 0 56 1.10941 1
gene 2 24 4 1.60682 0 57 1.60682 1
gene 3 1 24 1.2563 0 72 1.2563 1
gene 1 2 24 -0.225196 0 143 -0.225196 1
genomeend 111

/* Organism #112 Fitness: 8.98714 Error: 1.00214 */
genomestart 112
trait 1 0.102411 0 0.00928777 0 0.0949649 0.0018224 0.0352464 0.0526295 
trait 2 0.075 0 0.212707 0.57512 0.0122595 0.0441641 0 0 
trait 3 0.3 0 0 0 0 0 0 0 
node 1 1 1 3
node 2 3 1 1
node 3 2 1 1
node 4 2 0 2
node 5 1 0 0
node 24 1 0 0
gene 2 1 4 -2.07474 0 1 -2.07474 1
gene 3 2 4 2.98902 0 2 2.98902 1
gene 3 3 4 -4.39721 0 3 -4.39721 1
gene 2 2 5 3.59065 0 4 3.59065 1
gene 2 5 4 6.06634 0 5 6.06634 1
gene 2 3 5 6.16961 0 36 6.16961 1
gene 2 5 24 1.53532 0 56 1.53532 1
gene 2 24 4 -3.8334 0 57 -3.8334 1
gene 3 1 24 0.609846 0 72 0.609846 1
gene 1 2 24 -0.645919 0 143 -0.645919 1
genomeend 112

/* Organism #113 Fitness: 8.85103 Error: 1.02493 */
genomestart 113
trait 1 0.102411 0 0.00928777 0 0.0949649 0.0018224 0.0352464 0.0526295 
trait 2 0.075 0 0.212707 0.57512 0.0122595 0.0441641 0 0 
trait 3 0.3 0 0 0 0 0 0 0 
node 1 1 1 3
node 2 3 1 1
node 3 2 1 1
node 4 2 0 2
node 5 1 0 0
node 24 1 0 0
gene 2 1 4 -3.11309 0 1 -3.11309 1
gene 3 2 4 4.941 0 2 4.941 1
gene 3 3 4 -5.68237 0 3 -5.68237 1
gene 2 2 5 0.719496 0 4 0.719496 1
gene 2 5 4 4.41418 0 5 4.41418 1
gene 2 3 5 4.67728 0 36 4.67728 1
gene 2 5 24 2.75115 0 56 2.75115 1
gene 2 24 4 -1.5632 0 57 -1.5632 1
gene 3 1 24 -0.342182 0 72 -0.342182 1
gene 1 2 24 -2.08058 0 143 -2.08058 1
genomeend 113

/* Species #16 : (Size 10) (AF 8.55376) (Age 15)  */


/* Organism #114 Fitness: 9 Error: 1 */
genomestart 114
trait 1 1 0 0.256586 0.0825553 0.0206048 0.961762 0.0317218 0 
trait 2 0.2 0 0.106353 0 0 0.0588855 0 0 
trait 3 0.529449 0 0 0.43642 0 0.489525 0 0 
node 1 1 1 3
node 2 3 1 1
node 3 1 1 1
node 4 3 0 2
node 23 1 0 0
node 40 1 0 0
gene 3 1 4 -2.79058 0 1 -2.79058 1
gene 3 2 4 6.74244 0 2 6.74244 1
gene 2 3 4 8 0 3 8 1
gene 1 3 23 2.76564 0 52 2.76564 1
gene 2 23 4 4.12528 0 53 4.12528 0
gene 1 2 23 0.902334 0 68 0.902334 1
gene 1 23 40 3.31021 0 109 3.31021 1
gene 2 40 4 -1.16621 0 110 -1.16621 1
gene 2 2 40 -3.48085 0 254 -3.48085 1
genomeend 114

/* Organism #115 Fitness: 8.99968 Error: 1.00005 */
genomestart 115
trait 1 1 0 0.256586 0.0825553 0.0206048 0.961762 0.0317218 0 
trait 2 0.2 0 0.106353 0 0 0.0588855 0 0 
trait 3 0.764725 0 0 0.21821 0 0.244763 0 0 
node 1 2 1 3
node 2 3 1 1
node 3 1 1 1
node 4 3 0 2
node 23 1 0 0
node 40 1 0 0
gene 3 1 4 -2.79058 0 1 -2.79058 1
gene 3 2 4 7.10696 0 2 7.10696 1
gene 2 3 4 8 0 3 8 1
gene 1 3 23 2.76564 0 52 2.76564 1
gene 2 23 4 4.12528 0 53 4.12528 0
gene 1 2 23 2.02375 0 68 2.02375 1
gene 1 23 40 3.31021 0 109 3.31021 1
gene 2 40 4 0.79211 0 110 0.79211 1
gene 2 2 40 -3.15945 0 254 -3.15945 1
genomeend 115

/* Organism #116 Fitness: 8.99999 Error: 1 */
genomestart 116
trait 1 1 0 0.256586 0.0825553 0.0206048 0.961762 0.0317218 0 
trait 2 0.2 0 0.106353 0 0 0.0588855 0 0 
trait 3 0.764725 0 0 0.21821 0 0.244763 0 0 
node 1 1 1 3
node 2 3 1 1
node 3 1 1 1
node 4 3 0 2
node 23 1 0 0
node 40 1 0 0
gene 3 1 4 -3.08175 0 1 -3.08175 1
gene 3 2 4 5.98031 0 2 5.98031 1
gene 2 3 4 6.56503 0 3 6.56503 1
gene 1 3 23 2.76564 0 52 2.76564 1
gene 2 23 4 2.5671 0 53 2.5671 0
gene 1 2 23 -1.06173 0 68 -1.06173 1
gene 1 23 40 5.31015 0 109 5.31015 1
gene 2 40 4 -0.437347 0 110 -0.437347 1
gene 2 2 40 -1.84641 0 254 -1.84641 1
genomeend 116

/* Organism #117 Fitness: 9 Error: 1 */
genomestart 117
trait 1 1 0 0.256586 0.0825553 0.0206048 0.961762 0.0317218 0 
trait 2 0.2 0 0.106353 0 0 0.0588855 0 0 
trait 3 1 0 0 0 0 0 0 0 
node 1 2 1 3
node 2 3 1 1
node 3 1 1 1
node 4 3 0 2
node 23 1 0 0
node 40 1 0 0
gene 3 1 4 -3.80441 0 1 -3.80441 1
gene 3 2 4 8 0 2 8 1
gene 2 3 4 6.51974 0 3 6.51974 1
gene 1 3 23 4.67737 0 52 4.67737 1
gene 3 23 4 5.69285 0 53 5.69285 0
gene 1 2 23 0.334838 0 68 0.334838 1
gene 1 23 40 1.86743 0 109 1.86743 1
gene 2 40 4 0.229679 0 110 0.229679 1
gene 2 2 40 -4.98289 0 254 -4.98289 1
genomeend 117

/* Organism #118 Fitness: 8.98945 Error: 1.00176 */
genomestart 118
trait 1 1 0 0.256586 0.0825553 0.0206048 0.961762 0.0317218 0 
trait 2 0.2 0 0.106353 0 0 0.0588855 0 0 
trait 3 0.529449 0 0 0.43642 0 0.489525 0 0 
node 1 1 1 3
node 2 3 1 1
node 3 1 1 1
node 4 3 0 2
node 23 1 0 0
node 40 1 0 0
gene 3 1 4 -1.44472 0 1 -1.44472 1
gene 3 2 4 4.67134 0 2 4.67134 1
gene 2 3 4 6.51999 0 3 6.51999 1
gene 1 3 23 1.12921 0 52 1.12921 1
gene 2 23 4 4.9076 0 53 4.9076 0
gene 1 2 23 0.902334 0 68 0.902334 1
gene 1 23 40 1.34124 0 109 1.34124 1
gene 2 40 4 0.162738 0 110 0.162738 1
gene 2 2 40 -2.59909 0 254 -2.59909 1
genomeend 118

/* Organism #119 Fitness: 8.99905 Error: 1.00016 */
genomestart 119
trait 1 1 0 0.256586 0.0825553 0.0206048 0.961762 0.0317218 0 
trait 2 0.2 0 0.106353 0 0 0.0588855 0 0 
trait 3 0.529449 0 0 0.43642 0 0.489525 0 0 
node 1 1 1 3
node 2 3 1 1
node 3 1 1 1
node 4 3 0 2
node 23 1 0 0
node 40 1 0 0
gene 3 1 4 -1.93688 0 1 -1.93688 1
gene 3 2 4 6.93253 0 2 6.93253 1
gene 3 3 4 6.31883 0 3 6.31883 1
gene 1 3 23 0.717976 0 52 0.717976 1
gene 2 23 4 5.38803 0 53 5.38803 0
gene 1 2 23 -1.06793 0 68 -1.06793 1
gene 1 23 40 3.72181 0 109 3.72181 1
gene 2 40 4 -2.604 0 110 -2.604 1
gene 2 2 40 -4.4812 0 254 -4.4812 1
genomeend 119

/* Organism #120 Fitness: 9 Error: 1 */
genomestart 120
trait 1 1 0 0.256586 0.0825553 0.0206048 0.961762 0.0317218 0 
trait 2 0.2 0 0.106353 0 0 0.0588855 0 0 
trait 3 0.529449 0 0 0.43642 0 0.489525 0 0 
node 1 1 1 3
node 2 3 1 1
node 3 1 1 1
node 4 3 0 2
node 23 1 0 0
node 40 1 0 0
gene 3 1 4 -2.79058 0 1 -2.79058 1
gene 3 2 4 6.74244 0 2 6.74244 1
gene 2 3 4 8 0 3 8 1
gene 1 3 23 2.76564 0 52 2.76564 1
gene 2 23 4 4.12528 0 53 4.12528 0
gene 1 2 23 0.902334 0 68 0.902334 1
gene 1 23 40 3.31021 0 109 3.31021 1
gene 2 40 4 -1.16621 0 110 -1.16621 1
gene 2 2 40 -3.48085 0 254 -3.48085 1
genomeend 120

/* Organism #121 Fitness: 8.99992 Error: 1.00001 */
genomestart 121
trait 1 1 0 0.256586 0.0825553 0.0206048 0.961762 0.0317218 0 
trait 2 0.2 0 0.106353 0 0 0.0588855 0 0 
trait 3 0.764725 0 0 0.21821 0 0.244763 0 0 
node 1 1 1 3
node 2 3 1 1
node 3 1 1 1
node 4 3 0 2
node 23 1 0 0
node 40 1 0 0
gene 3 1 4 -2.00299 0 1 -2.00299 1
gene 3 2 4 5.27105 0 2 5.27105 1
gene 2 3 4 6.98736 0 3 6.98736 1
gene 1 3 23 0.658908 0 52 0.658908 1
gene 3 23 4 4.70741 0 53 4.70741 0
gene 1 2 23 1.67743 0 68 1.67743 1
gene 1 23 40 5.08013 0 109 5.08013 1
gene 2 40 4 -0.28416 0 110 -0.28416 1
gene 2 2 40 -4.0154 0 254 -4.0154 1
genomeend 121

/* Organism #122 Fitness: 4.54947 Error: 1.86705 */
genomestart 122
trait 1 1 0 0.256586 0.0825553 0.0206048 0.961762 0.0317218 0 
trait 2 0.2 0 0.106353 0 0 0.0588855 0 0 
trait 3 1 0 0 0 0 0 0 0 
node 1 2 1 3
node 2 3 1 1
node 3 1 1 1
node 4 3 0 2
node 23 1 0 0
node 40 1 0 0
gene 3 1 4 -5.07681 0 1 -5.07681 1
gene 3 2 4 4.70568 0 2 4.70568 1
gene 2 3 4 6.99577 0 3 6.99577 1
gene 1 3 23 5.23298 0 52 5.23298 1
gene 3 23 4 4.19339 0 53 4.19339 0
gene 1 2 23 2.63958 0 68 2.63958 1
gene 1 23 40 2.67195 0 109 2.67195 1
gene 2 40 4 -0.866464 0 110 -0.866464 1
gene 3 2 40 -5.22708 0 254 -5.22708 1
genomeend 122

/* Organism #123 Fitness: 9 Error: 1 */
genomestart 123
trait 1 1 0 0.256586 0.0825553 0.0206048 0.961762 0.0317218 0 
trait 2 0.2 0 0.106353 0 0 0.0588855 0 0 
trait 3 1 0 0 0 0 0 0 0 
node 1 2 1 3
node 2 3 1 1
node 3 1 1 1
node 4 3 0 2
node 23 1 0 0
node 40 1 0 0
gene 3 1 4 -4.51157 0 1 -4.51157 1
gene 3 2 4 8 0 2 8 1
gene 2 3 4 8 0 3 8 1
gene 1 3 23 0.903991 0 52 0.903991 1
gene 3 23 4 1.36631 0 53 1.36631 0
gene 1 2 23 2.13304 0 68 2.13304 1
gene 1 23 40 1.74125 0 109 1.74125 1
gene 2 40 4 -0.172889 0 110 -0.172889 1
gene 2 2 40 -1.30137 0 254 -1.30137 1
genomeend 123

/* Species #17 : (Size 5) (AF 7.34566) (Age 12)  */


/* Organism #124 Fitness: 9 Error: 1 */
genomestart 124
trait 1 0.096875 0 0.00464389 0 0.0206048 0.00164016 0.0317218 0.0263147 
trait 2 0.2 0 0.106353 0.402706 0.505247 0.0588855 0 0 
trait 3 1 0 0 0.259303 0 0.0517561 0 0 
node 1 1 1 3
node 2 3 1 1
node 3 1 1 1
node 4 3 0 2
node 23 1 0 0
node 54 1 0 0
gene 3 1 4 -3.45588 0 1 -3.45588 1
gene 3 2 4 7.9594 0 2 7.9594 1
gene 2 3 4 7.32725 0 3 7.32725 1
gene 2 3 23 5.37984 0 52 5.37984 1
gene 2 23 4 1.05706 0 53 1.05706 0
gene 1 2 23 -0.898585 0 68 -0.898585 1
gene 3 4 54 -1.09356 0 162 -1.09356 1
gene 3 54 23 -0.573322 0 163 -0.573322 1
gene 2 1 23 -0.43247 0 285 -0.43247 1
genomeend 124

/* Organism #125 Fitness: 6.84302 Error: 1.38408 */
genomestart 125
trait 1 0.096875 0 0.00464389 0 0.0206048 0.00164016 0.0317218 0.0263147 
trait 2 0.2 0 0.106353 0.402706 0.505247 0.0588855 0 0 
trait 3 1 0 0 0.259303 0 0.0517561 0 0 
node 1 1 1 3
node 2 3 1 1
node 3 1 1 1
node 4 3 0 2
node 23 1 0 0
node 54 1 0 0
gene 3 1 4 -4.83662 0 1 -4.83662 1
gene 3 2 4 8 0 2 8 1
gene 2 3 4 4.93252 0 3 4.93252 1
gene 2 3 23 4.55274 0 52 4.55274 1
gene 2 23 4 0.62902 0 53 0.62902 0
gene 1 2 23 -1.11295 0 68 -1.11295 1
gene 3 4 54 -2.24087 0 162 -2.24087 1
gene 3 54 23 -0.802822 0 163 -0.802822 1
genomeend 125

/* Organism #126 Fitness: 8.99989 Error: 1.00002 */
genomestart 126
trait 1 0 0.19991 0.00464389 0 0.0206048 0.64662 0 0 
trait 2 0.2 0 0.106353 0.402706 0.505247 0.0588855 0 0 
trait 3 1 0 0 0.259303 0 0.0517561 0 0 
node 1 1 1 3
node 2 3 1 1
node 3 1 1 1
node 4 3 0 2
node 23 1 0 0
node 54 1 0 0
gene 3 1 4 -3.10029 0 1 -3.10029 1
gene 3 2 4 8 0 2 8 1
gene 2 3 4 5.32617 0 3 5.32617 1
gene 2 3 23 6.18128 0 52 6.18128 1
gene 2 23 4 1.22472 0 53 1.22472 0
gene 1 2 23 -2.68366 0 68 -2.68366 1
gene 3 4 54 0.73912 0 162 0.73912 1
gene 3 54 23 0.164674 0 163 0.164674 1
genomeend 126

/* Organism #127 Fitness: 8.9999 Error: 1.00002 */
genomestart 127
trait 1 0.096875 0 0.00464389 0 0.0206048 0.00164016 0.0317218 0.0263147 
trait 2 0.2 0 0 0.62599 0.505247 0.730149 0 0 
trait 3 1 0 0 0.259303 0 0.0517561 0 0 
node 1 1 1 3
node 2 1 1 1
node 3 1 1 1
node 4 3 0 2
node 23 1 0 0
node 54 1 0 0
gene 3 1 4 -2.23405 0 1 -2.23405 1
gene 3 2 4 7.15287 0 2 7.15287 1
gene 2 3 4 7.20314 0 3 7.20314 1
gene 2 3 23 7.27114 0 52 7.27114 1
gene 2 23 4 -0.219451 0 53 -0.219451 0
gene 1 2 23 -0.0923787 0 68 -0.0923787 1
gene 3 4 54 -1.56569 0 162 -1.56569 1
gene 3 54 23 0.48881 0 163 0.48881 1
genomeend 127

/* Organism #128 Fitness: 2.8855 Error: 2.30133 */
genomestart 128
trait 1 0.096875 0 0.00464389 0 0.0206048 0.00164016 0.0317218 0.0263147 
trait 2 0.2 0 0.106353 0.402706 0.505247 0.0588855 0 0 
trait 3 1 0 0 0.259303 0 0.0517561 0 0 
node 1 1 1 3
node 2 3 1 1
node 3 1 1 1
node 4 3 0 2
node 23 1 0 0
node 54 1 0 0
gene 3 1 4 1.60186 0 1 1.60186 1
gene 3 2 4 2.20213 0 2 2.20213 1
gene 2 3 4 -1.43144 0 3 -1.43144 1
gene 2 3 23 5.08952 0 52 5.08952 1
gene 2 23 4 0.731381 0 53 0.731381 0
gene 1 2 23 2.34371 0 68 2.34371 1
gene 3 4 54 -2.57107 0 162 -2.57107 1
gene 3 54 23 -2.32899 0 163 -2.32899 1
genomeend 128

/* Species #18 : (Size 4) (AF 3.92923) (Age 11)  */


/* Organism #129 Fitness: 3.71721 Error: 2.07199 */
genomestart 129
trait 1 0.1 0 0 0.000926117 0 0.00437376 0.143348 0 
trait 2 0.1 0.0376465 0 0 0 0 0 0 
trait 3 0.3 0 0 0 0 0 0 0 
node 1 2 1 3
node 2 1 1 1
node 3 2 1 1
node 4 3 0 2
node 5 1 0 0
node 22 1 0 0
node 29 1 0 0
node 41 3 0 0
node 60 1 0 0
node 73 1 0 0
gene 3 1 4 -2.4326 0 1 -2.4326 1
gene 2 2 4 -2.64736 0 2 -2.64736 0
gene 3 3 4 -0.459244 0 3 -0.459244 1
gene 2 2 5 -0.552659 0 4 -0.552659 1
gene 2 5 4 3.10785 0 5 3.10785 1
gene 2 3 5 -1.64108 0 27 -1.64108 1
gene 2 1 5 8 0 33 8 1
gene 2 2 22 3.31996 0 49 3.31996 1
gene 2 22 4 -0.0710139 0 50 -0.0710139 1
gene 2 22 29 -1.14583 0 74 -1.14583 1
gene 3 29 4 -1.96106 0 75 -1.96106 1
gene 2 22 41 1.40905 0 112 1.40905 1
gene 2 41 29 3.8816 0 113 3.8816 1
gene 1 5 41 4.4237 0 134 4.4237 1
gene 3 5 29 -1.22576 0 166 -1.22576 1
gene 2 3 60 0.775937 0 180 0.775937 1
gene 2 60 5 2.93008 0 181 2.93008 1
gene 2 2 73 -0.0507124 0 224 -0.0507124 1
gene 2 73 4 1.99165 0 225 1.99165 1
gene 3 60 41 -0.0876802 0 230 -0.0876802 1
genomeend 129

/* Organism #130 Fitness: 4 Error: 2 */
genomestart 130
trait 1 0.1 0 0 0.000926117 0 0.00437376 0.143348 0 
trait 2 0.1 0.0376465 0 0 0 0 0 0 
trait 3 0.3 0 0 0 0 0 0 0 
node 1 2 1 3
node 2 1 1 1
node 3 2 1 1
node 4 3 0 2
node 5 1 0 0
node 22 1 0 0
node 29 1 0 0
node 41 3 0 0
node 60 1 0 0
node 73 1 0 0
gene 3 1 4 -0.564618 0 1 -0.564618 1
gene 2 2 4 -0.889127 0 2 -0.889127 0
gene 3 3 4 -1.3762 0 3 -1.3762 1
gene 2 2 5 -2.58147 0 4 -2.58147 1
gene 2 5 4 3.90706 0 5 3.90706 1
gene 2 3 5 1.18158 0 27 1.18158 1
gene 2 1 5 7.19732 0 33 7.19732 1
gene 2 2 22 1.61405 0 49 1.61405 1
gene 2 22 4 1.30864 0 50 1.30864 1
gene 2 22 29 0.933885 0 74 0.933885 1
gene 3 29 4 -0.244453 0 75 -0.244453 1
gene 2 22 41 5.23153 0 112 5.23153 1
gene 2 41 29 2.3603 0 113 2.3603 1
gene 1 5 41 2.05817 0 134 2.05817 1
gene 3 5 29 0.568613 0 166 0.568613 1
gene 2 3 60 -1.379 0 180 -1.379 1
gene 2 60 5 1.98697 0 181 1.98697 1
gene 2 2 73 1.3849 0 224 1.3849 1
gene 2 73 4 1.99165 0 225 1.99165 1
gene 3 60 41 0.919758 0 230 0.919758 1
genomeend 130

/* Organism #131 Fitness: 3.99971 Error: 2.00007 */
genomestart 131
trait 1 0.1 0 0 0.000926117 0 0.00437376 0.143348 0 
trait 2 0.1 0.0376465 0 0 0 0 0 0 
trait 3 0.3 0 0 0 0 0 0 0 
node 1 2 1 3
node 2 1 1 1
node 3 2 1 1
node 4 3 0 2
node 5 1 0 0
node 22 1 0 0
node 29 1 0 0
node 41 3 0 0
node 60 1 0 0
node 73 1 0 0
gene 3 1 4 -0.376316 0 1 -0.376316 1
gene 2 2 4 0.920481 0 2 0.920481 0
gene 3 3 4 0.159161 0 3 0.159161 1
gene 2 2 5 -0.57799 0 4 -0.57799 1
gene 2 5 4 1.10437 0 5 1.10437 1
gene 2 3 5 -1.15963 0 27 -1.15963 1
gene 2 1 5 7.47792 0 33 7.47792 1
gene 2 2 22 0.608944 0 49 0.608944 1
gene 2 22 4 1.36847 0 50 1.36847 1
gene 2 22 29 0.549925 0 74 0.549925 1
gene 3 29 4 -0.238197 0 75 -0.238197 1
gene 2 22 41 0.27015 0 112 0.27015 1
gene 2 41 29 1.70683 0 113 1.70683 1
gene 1 5 41 1.76781 0 134 1.76781 1
gene 3 5 29 1.31841 0 166 1.31841 1
gene 2 3 60 -1.379 0 180 -1.379 1
gene 2 60 5 -0.235042 0 181 -0.235042 1
gene 2 2 73 -1.87937 0 224 -1.87937 1
gene 2 73 4 2.18449 0 225 2.18449 1
gene 3 60 41 -0.0117024 0 230 -0.0117024 1
genomeend 131

/* Organism #132 Fitness: 4 Error: 2 */
genomestart 132
trait 1 0.1 0 0 0.000926117 0 0.00437376 0.143348 0 
trait 2 0.1 0.0376465 0 0 0 0 0 0 
trait 3 0.3 0 0 0 0 0 0 0 
node 1 2 1 3
node 2 1 1 1
node 3 2 1 1
node 4 3 0 2
node 5 1 0 0
node 22 1 0 0
node 29 1 0 0
node 41 3 0 0
node 60 1 0 0
node 73 1 0 0
gene 3 1 4 -0.564618 0 1 -0.564618 1
gene 2 2 4 -0.889127 0 2 -0.889127 0
gene 3 3 4 -1.3762 0 3 -1.3762 1
gene 2 2 5 -2.58147 0 4 -2.58147 1
gene 2 5 4 3.90706 0 5 3.90706 1
gene 2 3 5 1.18158 0 27 1.18158 1
gene 2 1 5 7.19732 0 33 7.19732 1
gene 2 2 22 1.61405 0 49 1.61405 1
gene 2 22 4 2.07543 0 50 2.07543 1
gene 2 22 29 0.933885 0 74 0.933885 1
gene 3 29 4 -0.244453 0 75 -0.244453 1
gene 2 22 41 0.27015 0 112 0.27015 1
gene 2 41 29 2.3603 0 113 2.3603 1
gene 1 5 41 2.05817 0 134 2.05817 1
gene 3 5 29 0.568613 0 166 0.568613 1
gene 2 3 60 -1.379 0 180 -1.379 1
gene 2 60 5 1.98697 0 181 1.98697 1
gene 2 2 73 2.39227 0 224 2.39227 1
gene 2 73 4 1.99165 0 225 1.99165 1
gene 3 60 41 1.81843 0 230 1.81843 1
genomeend 132

/* Species #19 : (Size 9) (AF 7.20356) (Age 8)  */


/* Organism #133 Fitness: 8.99935 Error: 1.00011 */
genomestart 133
trait 1 0.100301 0 0.00116097 0 0.0118706 0.00257414 0.0497856 0.00657868 
trait 2 0.392858 0.364101 1 0 0 0.569776 0.0790264 0 
trait 3 0.149474 0.14552 0 0 0.00395907 0 0 0.000554455 
node 1 2 1 3
node 2 3 1 1
node 3 1 1 1
node 4 3 0 2
node 5 1 0 0
node 66 1 0 0
gene 2 1 4 -1.85499 0 1 -1.85499 1
gene 3 2 4 4.59512 0 2 4.59512 1
gene 2 3 4 6.4401 0 3 6.4401 1
gene 2 2 5 7.68748 0 4 7.68748 0
gene 2 5 4 -0.918688 0 5 -0.918688 1
gene 3 3 5 -1.9436 0 146 -1.9436 1
gene 2 2 66 1.62192 0 196 1.62192 1
gene 2 66 5 -2.31569 0 197 -2.31569 1
genomeend 133

/* Organism #134 Fitness: 8.99483 Error: 1.00086 */
genomestart 134
trait 1 0.100301 0 0.00116097 0 0.0118706 0.00257414 0.0497856 0.00657868 
trait 2 0.392858 0.364101 1 0 0 0.569776 0.0790264 0 
trait 3 0.149474 0.14552 0 0 0.00395907 0 0 0.000554455 
node 1 2 1 3
node 2 3 1 1
node 3 1 1 1
node 4 3 0 2
node 5 1 0 0
node 66 1 0 0
gene 2 1 4 -1.43328 0 1 -1.43328 1
gene 3 2 4 4.28582 0 2 4.28582 1
gene 2 3 4 4.52777 0 3 4.52777 1
gene 2 2 5 5.55779 0 4 5.55779 0
gene 2 5 4 0.455528 0 5 0.455528 1
gene 3 3 5 -0.895965 0 146 -0.895965 1
gene 2 2 66 1.39464 0 196 1.39464 1
gene 2 66 5 -3.09947 0 197 -3.09947 1
genomeend 134

/* Organism #135 Fitness: 4.00033 Error: 1.99992 */
genomestart 135
trait 1 0.100301 0 0.00116097 0 0.0118706 0.00257414 0.0497856 0.00657868 
trait 2 0.392858 0.364101 1 0 0 0.569776 0.0790264 0 
trait 3 0.149474 0.14552 0 0 0.00395907 0 0 0.000554455 
node 1 2 1 3
node 2 3 1 1
node 3 1 1 1
node 4 3 0 2
node 5 1 0 0
node 66 1 0 0
gene 2 1 4 -2.12357 0 1 -2.12357 1
gene 3 2 4 4.84222 0 2 4.84222 1
gene 2 3 4 0.275538 0 3 0.275538 1
gene 2 2 5 6.20641 0 4 6.20641 0
gene 2 5 4 0.455528 0 5 0.455528 1
gene 1 3 5 -0.199684 0 146 -0.199684 1
gene 2 2 66 0.88989 0 196 0.88989 1
gene 2 66 5 -3.97763 0 197 -3.97763 1
genomeend 135

/* Organism #136 Fitness: 4.00105 Error: 1.99974 */
genomestart 136
trait 1 0.100301 0 0.00116097 0 0.0118706 0.00257414 0.0497856 0.00657868 
trait 2 0.392858 0.364101 1 0 0 0.569776 0.0790264 0 
trait 3 0.149474 0.14552 0 0 0.00395907 0 0 0.000554455 
node 1 2 1 3
node 2 3 1 1
node 3 1 1 1
node 4 3 0 2
node 5 1 0 0
node 66 1 0 0
gene 2 1 4 -1.53049 0 1 -1.53049 1
gene 3 2 4 4.84222 0 2 4.84222 1
gene 2 3 4 -1.86276 0 3 -1.86276 1
gene 2 2 5 3.53398 0 4 3.53398 0
gene 2 5 4 0.828129 0 5 0.828129 1
gene 3 3 5 -3.63738 0 146 -3.63738 1
gene 2 2 66 0.820661 0 196 0.820661 1
gene 2 66 5 -4.09226 0 197 -4.09226 1
genomeend 136

/* Organism #137 Fitness: 7.48252 Error: 1.26458 */
genomestart 137
trait 1 0.100301 0 0.00116097 0 0.0118706 0.00257414 0.0497856 0.00657868 
trait 2 0.392858 0.364101 1 0 0 0.569776 0.0790264 0 
trait 3 0.149474 0.14552 0 0 0.00395907 0 0 0.000554455 
node 1 2 1 3
node 2 3 1 1
node 3 1 1 1
node 4 3 0 2
node 5 1 0 0
node 66 1 0 0
gene 2 1 4 -2.79897 0 1 -2.79897 1
gene 3 2 4 2.91313 0 2 2.91313 1
gene 2 3 4 5.72901 0 3 5.72901 1
gene 2 2 5 7.37038 0 4 7.37038 0
gene 2 5 4 1.18891 0 5 1.18891 1
gene 3 3 5 -4.26533 0 146 -4.26533 1
gene 2 2 66 2.10687 0 196 2.10687 1
gene 2 66 5 -0.499888 0 197 -0.499888 1
genomeend 137

/* Organism #138 Fitness: 8.99633 Error: 1.00061 */
genomestart 138
trait 1 0.100301 0 0.00116097 0 0.0118706 0.00257414 0.0497856 0.00657868 
trait 2 0.392858 0.364101 1 0 0 0.569776 0.0790264 0 
trait 3 0.149474 0.14552 0 0 0.00395907 0 0 0.000554455 
node 1 2 1 3
node 2 3 1 1
node 3 1 1 1
node 4 3 0 2
node 5 1 0 0
node 66 1 0 0
gene 2 1 4 -1.53049 0 1 -1.53049 1
gene 3 2 4 4.84222 0 2 4.84222 1
gene 2 3 4 4.00042 0 3 4.00042 1
gene 2 2 5 5.55779 0 4 5.55779 0
gene 2 5 4 0.455528 0 5 0.455528 1
gene 3 3 5 -1.26904 0 146 -1.26904 1
gene 2 2 66 1.26342 0 196 1.26342 1
gene 2 66 5 -2.80995 0 197 -2.80995 1
gene 2 1 66 -0.2791 0 286 -0.2791 1
genomeend 138

/* Organism #139 Fitness: 8.99016 Error: 1.00164 */
genomestart 139
trait 1 0.100301 0 0.00116097 0 0.0118706 0.00257414 0.0497856 0.00657868 
trait 2 0.392858 0.364101 1 0 0 0.569776 0.0790264 0 
trait 3 0.149474 0.14552 0 0 0.00395907 0 0 0.000554455 
node 1 2 1 3
node 2 3 1 1
node 3 1 1 1
node 4 3 0 2
node 5 1 0 0
node 66 1 0 0
node 88 1 0 0
gene 2 1 4 -1.53049 0 1 -1.53049 1
gene 3 2 4 4.84222 0 2 4.84222 1
gene 2 3 4 4.00042 0 3 4.00042 1
gene 2 2 5 5.55779 0 4 5.55779 0
gene 2 5 4 0.455528 0 5 0.455528 0
gene 3 3 5 -1.26904 0 146 -1.26904 1
gene 2 2 66 1.26342 0 196 1.26342 1
gene 2 66 5 -2.80995 0 197 -2.80995 1
gene 2 5 88 1 0 287 0 1
gene 2 88 4 0.455528 0 288 0 1
genomeend 139

/* Organism #140 Fitness: 4.37181 Error: 1.90911 */
genomestart 140
trait 1 0.100301 0 0.00116097 0 0.0118706 0.00257414 0.0497856 0.00657868 
trait 2 0.392858 0.364101 1 0 0 0.569776 0.0790264 0 
trait 3 0.149474 0.14552 0 0 0.00395907 0 0 0.000554455 
node 1 2 1 3
node 2 3 1 1
node 3 1 1 1
node 4 3 0 2
node 5 1 0 0
node 66 1 0 0
gene 2 1 4 -1.8597 0 1 -1.8597 1
gene 3 2 4 7.08701 0 2 7.08701 1
gene 2 3 4 1.50271 0 3 1.50271 1
gene 2 2 5 5.84075 0 4 5.84075 0
gene 2 5 4 -1.04982 0 5 -1.04982 1
gene 3 3 5 1.21859 0 146 1.21859 1
gene 2 2 66 1.54748 0 196 1.54748 1
gene 2 66 5 -3.3068 0 197 -3.3068 1
genomeend 140

/* Organism #141 Fitness: 8.99567 Error: 1.00072 */
genomestart 141
trait 1 0.100301 0 0.00116097 0 0.0118706 0.00257414 0.0497856 0.00657868 
trait 2 0.392858 0.364101 1 0 0 0.569776 0.0790264 0 
trait 3 0.149474 0.14552 0 0 0.00395907 0 0 0.000554455 
node 1 2 1 3
node 2 3 1 1
node 3 2 1 1
node 4 3 0 2
node 5 1 0 0
node 66 1 0 0
gene 2 1 4 -2.9473 0 1 -2.9473 1
gene 3 2 4 6.38893 0 2 6.38893 1
gene 2 3 4 4.41622 0 3 4.41622 1
gene 2 2 5 8 0 4 8 0
gene 2 5 4 -0.954028 0 5 -0.954028 1
gene 3 3 5 -2.91755 0 146 -2.91755 1
gene 2 2 66 1.62192 0 196 1.62192 1
gene 2 66 5 -2.06245 0 197 -2.06245 1
genomeend 141

/* Species #20 : (Size 6) (AF 5.09174) (Age 6)  */


/* Organism #142 Fitness: 8.97925 Error: 1.00346 */
genomestart 142
trait 1 0.1 0 0 0.000926117 0 0.00437376 0.143348 0 
trait 2 0.2 0 0 0 0 0 0 0 
trait 3 0.3 0 0 0 0 0 0 0 
node 1 2 1 3
node 2 3 1 1
node 3 2 1 1
node 4 3 0 2
node 5 3 0 0
node 22 1 0 0
node 29 1 0 0
node 41 1 0 0
node 60 1 0 0
gene 3 1 4 0.875385 0 1 0.875385 1
gene 2 2 4 -0.256802 0 2 -0.256802 1
gene 3 3 4 0.0840296 0 3 0.0840296 1
gene 2 2 5 1.50679 0 4 1.50679 1
gene 1 5 4 8 0 5 8 1
gene 2 3 5 -0.420314 0 27 -0.420314 0
gene 2 1 5 0.0127245 0 33 0.0127245 1
gene 2 2 22 -1.83167 0 49 -1.83167 1
gene 2 22 4 2.00112 0 50 2.00112 0
gene 2 22 29 -3.11747 0 74 -3.11747 1
gene 2 29 4 -2.15901 0 75 -2.15901 1
gene 2 22 41 3.82204 0 112 3.82204 1
gene 2 41 29 2.27912 0 113 2.27912 1
gene 1 5 41 -0.199621 0 134 -0.199621 1
gene 3 5 29 1.11976 0 166 1.11976 1
gene 2 3 60 -0.961755 0 180 -0.961755 1
gene 2 60 5 -1.91254 0 181 -1.91254 1
gene 1 2 60 -0.657178 0 258 -0.657178 1
genomeend 142

/* Organism #143 Fitness: 7.08315 Error: 1.33858 */
genomestart 143
trait 1 0.1 0 0 0.000926117 0 0.00437376 0.143348 0 
trait 2 0.2 0 0 0 0 0 0 0 
trait 3 0.3 0 0 0 0 0 0 0 
node 1 3 1 3
node 2 3 1 1
node 3 2 1 1
node 4 3 0 2
node 5 3 0 0
node 22 1 0 0
node 29 1 0 0
node 41 1 0 0
node 60 1 0 0
gene 3 1 4 -0.916284 0 1 -0.916284 1
gene 2 2 4 3.323 0 2 3.323 1
gene 3 3 4 -2.54274 0 3 -2.54274 1
gene 2 2 5 -1.40397 0 4 -1.40397 1
gene 1 5 4 8 0 5 8 1
gene 2 3 5 0.364048 0 27 0.364048 0
gene 2 1 5 -0.842125 0 33 -0.842125 1
gene 2 2 22 0.938957 0 49 0.938957 1
gene 2 22 4 4.82781 0 50 4.82781 0
gene 2 22 29 -5.00519 0 74 -5.00519 1
gene 2 29 4 -2.02968 0 75 -2.02968 1
gene 2 22 41 1.12324 0 112 1.12324 1
gene 2 41 29 2.95955 0 113 2.95955 1
gene 1 5 41 -1.0419 0 134 -1.0419 1
gene 3 5 29 3.26491 0 166 3.26491 1
gene 2 3 60 -3.27279 0 180 -3.27279 1
gene 2 60 5 0.446889 0 181 0.446889 1
gene 1 2 60 0.801855 0 258 0.801855 1
genomeend 143

/* Organism #144 Fitness: 2.51806 Error: 2.41316 */
genomestart 144
trait 1 0.1 0 0 0.000926117 0 0.00437376 0.143348 0 
trait 2 0.2 0 0 0 0 0 0 0 
trait 3 0.3 0 0 0 0 0 0 0 
node 1 2 1 3
node 2 3 1 1
node 3 2 1 1
node 4 3 0 2
node 5 3 0 0
node 22 1 0 0
node 29 1 0 0
node 41 1 0 0
node 60 1 0 0
gene 3 1 4 2.00399 0 1 2.00399 1
gene 2 2 4 0.531063 0 2 0.531063 1
gene 3 3 4 -1.24305 0 3 -1.24305 1
gene 2 2 5 -0.492595 0 4 -0.492595 1
gene 1 5 4 6.69989 0 5 6.69989 1
gene 2 3 5 1.75278 0 27 1.75278 0
gene 2 1 5 -0.184407 0 33 -0.184407 1
gene 2 2 22 -0.0602997 0 49 -0.0602997 1
gene 2 22 4 0.353646 0 50 0.353646 0
gene 2 22 29 -3.41459 0 74 -3.41459 1
gene 2 29 4 -0.809978 0 75 -0.809978 1
gene 2 22 41 1.65609 0 112 1.65609 1
gene 2 41 29 2.27912 0 113 2.27912 1
gene 1 5 41 -0.538663 0 134 -0.538663 1
gene 3 5 29 1.05106 0 166 1.05106 1
gene 2 3 60 1.51248 0 180 1.51248 1
gene 2 60 5 -2.31514 0 181 -2.31514 1
gene 1 2 60 -0.53302 0 258 -0.53302 1
genomeend 144

/* Organism #145 Fitness: 4 Error: 2 */
genomestart 145
trait 1 0.1 0 0 0.000926117 0 0.00437376 0.143348 0 
trait 2 0.2 0 0 0 0 0 0 0 
trait 3 0.3 0 0 0 0 0 0 0 
node 1 2 1 3
node 2 3 1 1
node 3 2 1 1
node 4 3 0 2
node 5 3 0 0
node 22 1 0 0
node 29 1 0 0
node 41 1 0 0
node 60 1 0 0
gene 3 1 4 0.875385 0 1 0.875385 1
gene 2 2 4 -0.256802 0 2 -0.256802 1
gene 3 3 4 0.0840296 0 3 0.0840296 1
gene 2 2 5 1.50679 0 4 1.50679 1
gene 1 5 4 8 0 5 8 1
gene 2 3 5 1.54177 0 27 1.54177 0
gene 2 1 5 0.329592 0 33 0.329592 1
gene 2 2 22 0.0924192 0 49 0.0924192 1
gene 2 22 4 2.00112 0 50 2.00112 0
gene 2 22 29 -3.11747 0 74 -3.11747 1
gene 2 29 4 -1.44001 0 75 -1.44001 1
gene 2 22 41 2.47922 0 112 2.47922 1
gene 2 41 29 3.50218 0 113 3.50218 1
gene 1 5 41 -0.199621 0 134 -0.199621 1
gene 3 5 29 1.11976 0 166 1.11976 1
gene 2 3 60 -0.961755 0 180 -0.961755 1
gene 2 60 5 0.446889 0 181 0.446889 1
gene 1 2 60 -0.434435 0 258 -0.434435 1
genomeend 145

/* Organism #146 Fitness: 3.97193 Error: 2.00703 */
genomestart 146
trait 1 0.1 0 0 0.000926117 0 0.00437376 0.143348 0 
trait 2 0.2 0 0 0 0 0 0 0 
trait 3 0.3 0 0 0 0 0 0 0 
node 1 2 1 3
node 2 3 1 1
node 3 2 1 1
node 4 3 0 2
node 5 3 0 0
node 22 1 0 0
node 29 1 0 0
node 41 1 0 0
node 60 1 0 0
gene 3 1 4 -0.0246936 0 1 -0.0246936 1
gene 2 2 4 -1.41309 0 2 -1.41309 1
gene 3 3 4 -0.656473 0 3 -0.656473 1
gene 2 2 5 3.86034 0 4 3.86034 1
gene 1 5 4 8 0 5 8 1
gene 2 3 5 -1.32959 0 27 -1.32959 0
gene 2 1 5 -1.42427 0 33 -1.42427 1
gene 2 2 22 0.156043 0 49 0.156043 1
gene 2 22 4 0.786464 0 50 0.786464 0
gene 2 22 29 -3.37682 0 74 -3.37682 1
gene 2 29 4 -0.972244 0 75 -0.972244 1
gene 2 22 41 3.2096 0 112 3.2096 1
gene 2 41 29 3.9079 0 113 3.9079 1
gene 1 5 41 1.55459 0 134 1.55459 1
gene 3 5 29 2.24612 0 166 2.24612 1
gene 2 3 60 -0.614073 0 180 -0.614073 1
gene 2 60 5 -2.91441 0 181 -2.91441 1
gene 1 2 60 -1.4389 0 258 -1.4389 1
genomeend 146

/* Organism #147 Fitness: 3.99802 Error: 2.0005 */
genomestart 147
trait 1 0 0.731743 0 0.845791 0 0 0.143348 0 
trait 2 0.2 0 0 0 0 0 0 0 
trait 3 0.3 0 0 0 0 0 0 0 
node 1 2 1 3
node 2 3 1 1
node 3 2 1 1
node 4 3 0 2
node 5 3 0 0
node 22 1 0 0
node 29 1 0 0
node 41 1 0 0
node 60 1 0 0
gene 3 1 4 -0.729838 0 1 -0.729838 1
gene 2 2 4 0.777227 0 2 0.777227 1
gene 3 3 4 0.518307 0 3 0.518307 1
gene 2 2 5 -3.96921 0 4 -3.96921 1
gene 1 5 4 7.21139 0 5 7.21139 1
gene 2 3 5 2.98588 0 27 2.98588 0
gene 2 1 5 1.25291 0 33 1.25291 1
gene 2 2 22 -1.46968 0 49 -1.46968 1
gene 2 22 4 3.08088 0 50 3.08088 0
gene 2 22 29 -2.83516 0 74 -2.83516 1
gene 2 29 4 -2.09441 0 75 -2.09441 1
gene 2 22 41 0.622581 0 112 0.622581 1
gene 2 41 29 5.22364 0 113 5.22364 1
gene 1 5 41 2.01946 0 134 2.01946 1
gene 3 5 29 1.5377 0 166 1.5377 1
gene 2 3 60 -0.801066 0 180 -0.801066 1
gene 2 60 5 0.29953 0 181 0.29953 1
gene 1 2 60 -0.434435 0 258 -0.434435 1
genomeend 147

/* Species #21 : (Size 1) (AF 9) (Age 1)  */


/* Organism #148 Fitness: 9 Error: 1 */
genomestart 148
trait 1 0.100301 0 0.00116097 0 0.0118706 0.00257414 0.0497856 0.00657868 
trait 2 0.2 0 0.0987568 0.0213653 0.235783 0.0422208 0.221646 0 
trait 3 0.298949 0 0 0 0.00395907 0 0 0.000554455 
node 1 2 1 3
node 2 3 1 1
node 3 1 1 1
node 4 3 0 2
node 5 1 0 0
node 86 1 0 0
gene 2 1 4 -3.30793 0 1 -3.30793 1
gene 3 2 4 7.86853 0 2 7.86853 1
gene 2 3 4 8 0 3 8 1
gene 2 2 5 -1.32437 0 4 -1.32437 0
gene 2 5 4 -1.63165 0 5 -1.63165 1
gene 3 3 5 -0.515481 0 146 -0.515481 1
gene 2 1 5 -0.340155 0 278 0 1
gene 2 2 86 1 0 279 0 1
gene 2 86 5 -1.32437 0 280 0 1
genomeend 148

/* Species #22 : (Size 1) (AF 4.432) (Age 1)  */


/* Organism #149 Fitness: 4.432 Error: 1.89477 */
genomestart 149
trait 1 0.100301 0 0.00116097 0 0.0118706 0.00257414 0.0497856 0.00657868 
trait 2 0.2 0 0.0987568 0.0213653 0.235783 0.0422208 0.221646 0 
trait 3 0.298949 0 0 0 0.00395907 0 0 0.000554455 
node 1 2 1 3
node 2 3 1 1
node 3 1 1 1
node 4 3 0 2
node 5 1 0 0
node 87 1 0 0
gene 2 1 4 -3.30793 0 1 -3.30793 1
gene 3 2 4 7.86853 0 2 7.86853 1
gene 2 3 4 8 0 3 8 0
gene 2 2 5 -1.32437 0 4 -1.32437 1
gene 2 5 4 -1.63165 0 5 -1.63165 1
gene 3 3 5 -0.515481 0 146 -0.515481 1
gene 2 1 5 -0.340155 0 278 0 1
gene 2 3 87 1 0 281 0 1
gene 2 87 4 8 0 282 0 1
genomeend 149
