
/* Species #3 : (Size 6) (AF 6.5056) (Age 38)  */


/* Organism #0 Fitness: 8.99995 Error: 1.00001 */
genomestart 0
trait 1 0.096875 0 0.020665 0 0 0 0 0 
trait 2 0.320094 0 0 0.296957 0 0.277118 0.0346146 0 
trait 3 0.648722 0 0.343697 0.666566 0 0.485976 0.260931 0 
node 1 2 1 3
node 2 2 1 1
node 3 1 1 1
node 4 1 0 2
node 5 1 0 0
node 16 1 0 0
node 117 1 0 0
gene 1 1 4 3.44346 0 1 3.44346 1
gene 1 2 4 -0.969206 0 2 -0.969206 1
gene 2 3 4 -8 0 3 -8 1
gene 1 2 5 2.15882 0 4 2.15882 0
gene 1 5 4 1.5654 0 5 1.5654 0
gene 3 2 16 -7.04471 0 29 -7.04471 1
gene 1 16 5 7.26992 0 30 7.26992 1
gene 3 16 4 7.69992 0 71 7.69992 1
gene 1 3 5 -3.5239 0 282 -3.5239 1
gene 1 5 117 -2.75155 0 350 -2.75155 1
gene 1 117 4 6.29091 0 351 6.29091 1
gene 1 1 16 1.45209 0 384 1.45209 1
gene 1 1 5 -0.686491 0 394 -0.686491 1
genomeend 0

/* Organism #1 Fitness: 8.99975 Error: 1.00004 */
genomestart 1
trait 1 0.096875 0 0.020665 0 0 0 0 0 
trait 2 0.320094 0 0 0.296957 0 0.277118 0.0346146 0 
trait 3 0.297444 0 0 0.333132 0 0.265195 0.439013 0 
node 1 2 1 3
node 2 2 1 1
node 3 1 1 1
node 4 1 0 2
node 5 1 0 0
node 16 1 0 0
node 117 1 0 0
gene 1 1 4 2.91873 0 1 2.91873 1
gene 1 2 4 0.114226 0 2 0.114226 1
gene 2 3 4 -8 0 3 -8 1
gene 1 2 5 2.0891 0 4 2.0891 0
gene 1 5 4 0.816067 0 5 0.816067 0
gene 3 2 16 -6.14308 0 29 -6.14308 1
gene 1 16 5 8 0 30 8 1
gene 3 16 4 8 0 71 8 1
gene 1 3 5 -3.45217 0 282 -3.45217 1
gene 1 5 117 -0.749536 0 350 -0.749536 1
gene 1 117 4 5.83174 0 351 5.83174 1
gene 1 1 16 1.4642 0 384 1.4642 1
gene 1 1 5 -0.686491 0 394 -0.686491 1
genomeend 1

/* Organism #2 Fitness: 4.02369 Error: 1.99409 */
genomestart 2
trait 1 0.096875 0 0.020665 0 0 0 0 0 
trait 2 0.320094 0 0 0.296957 0 0.277118 0.0346146 0 
trait 3 0.297444 0 0 0.333132 0 0.265195 0.439013 0 
node 1 2 1 3
node 2 2 1 1
node 3 1 1 1
node 4 1 0 2
node 5 1 0 0
node 16 1 0 0
node 117 1 0 0
gene 1 1 4 2.84132 0 1 2.84132 1
gene 1 2 4 -0.245854 0 2 -0.245854 1
gene 2 3 4 -5.5548 0 3 -5.5548 1
gene 1 2 5 4.56394 0 4 4.56394 0
gene 1 5 4 2.26353 0 5 2.26353 0
gene 3 2 16 -8 0 29 -8 1
gene 1 16 5 8 0 30 8 1
gene 3 16 4 8 0 71 8 1
gene 1 3 5 -4.39366 0 282 -4.39366 1
gene 1 5 117 -0.0575668 0 350 -0.0575668 1
gene 1 117 4 8 0 351 8 1
gene 1 1 16 1.4642 0 384 1.4642 1
gene 1 1 5 1.29747 0 394 1.29747 1
genomeend 2

/* Organism #3 Fitness: 4.01027 Error: 1.99743 */
genomestart 3
trait 1 0.096875 0 0.020665 0 0 0 0 0 
trait 2 0.320094 0 0 0.296957 0 0.277118 0.0346146 0 
trait 3 0.648722 0 0.343697 0.666566 0 0.485976 0.260931 0 
node 1 2 1 3
node 2 2 1 1
node 3 1 1 1
node 4 1 0 2
node 5 1 0 0
node 16 1 0 0
node 117 1 0 0
gene 1 1 4 5.21742 0 1 5.21742 1
gene 1 2 4 -2.2494 0 2 -2.2494 1
gene 2 3 4 -5.74889 0 3 -5.74889 1
gene 1 2 5 0.970156 0 4 0.970156 0
gene 1 5 4 0.102069 0 5 0.102069 0
gene 3 2 16 -7.22421 0 29 -7.22421 1
gene 1 16 5 7.07269 0 30 7.07269 1
gene 3 16 4 8 0 71 8 1
gene 1 3 5 -3.5239 0 282 -3.5239 1
gene 1 5 117 -4.62895 0 350 -4.62895 1
gene 1 117 4 7.98361 0 351 7.98361 1
gene 1 1 16 1.45209 0 384 1.45209 1
gene 1 1 5 -1.73026 0 394 -1.73026 1
genomeend 3

/* Organism #4 Fitness: 4.00007 Error: 1.99998 */
genomestart 4
trait 1 0.096875 0 0.020665 0 0 0 0 0 
trait 2 0.320094 0 0 0.296957 0 0.277118 0.0346146 0 
trait 3 0.648722 0 0.343697 0.666566 0.66766 0 0 0.83281 
node 1 2 1 3
node 2 2 1 1
node 3 1 1 1
node 4 1 0 2
node 5 1 0 0
node 16 1 0 0
node 117 1 0 0
gene 1 1 4 2.15767 0 1 2.15767 1
gene 1 2 4 -1.89605 0 2 -1.89605 1
gene 2 3 4 -8 0 3 -8 1
gene 1 2 5 1.4198 0 4 1.4198 0
gene 1 5 4 3.30695 0 5 3.30695 0
gene 3 2 16 -7.35291 0 29 -7.35291 1
gene 1 16 5 7.63456 0 30 7.63456 1
gene 3 16 4 8 0 71 8 1
gene 1 3 5 -3.68322 0 282 -3.68322 1
gene 1 5 117 -1.59837 0 350 -1.59837 1
gene 1 117 4 4.26215 0 351 4.26215 1
gene 1 1 16 -0.267772 0 384 -0.267772 1
gene 1 1 5 -0.686491 0 394 -0.686491 1
genomeend 4

/* Organism #5 Fitness: 8.99988 Error: 1.00002 */
genomestart 5
trait 1 0.096875 0 0.020665 0 0 0 0 0 
trait 2 0.320094 0 0 0.296957 0 0.277118 0.0346146 0 
trait 3 0.473083 0 0.171849 0.499849 0 0.375586 0.349972 0 
node 1 2 1 3
node 2 2 1 1
node 3 1 1 1
node 4 1 0 2
node 5 1 0 0
node 16 1 0 0
node 117 1 0 0
gene 1 1 4 3.18109 0 1 3.18109 1
gene 1 2 4 -0.42749 0 2 -0.42749 1
gene 2 3 4 -8 0 3 -8 1
gene 1 2 5 2.12396 0 4 2.12396 1
gene 1 5 4 1.19073 0 5 1.19073 0
gene 3 2 16 -6.5939 0 29 -6.5939 1
gene 1 16 5 7.63496 0 30 7.63496 1
gene 3 16 4 7.84996 0 71 7.84996 1
gene 1 3 5 -3.48803 0 282 -3.48803 1
gene 1 5 117 -1.75054 0 350 -1.75054 1
gene 1 117 4 6.06133 0 351 6.06133 1
gene 1 1 16 1.45814 0 384 1.45814 1
gene 1 1 5 -0.686491 0 394 -0.686491 1
gene 2 16 117 0.736736 0 436 0.736736 1
genomeend 5

/* Species #4 : (Size 6) (AF 8.16599) (Age 38)  */


/* Organism #6 Fitness: 9 Error: 1 */
genomestart 6
trait 1 0.1 0 0 0 0 0 0 0 
trait 2 0 0.692873 0 0 0 0 0 0 
trait 3 0.15 0 0.604359 0 0 0 0 0.401179 
node 1 2 1 3
node 2 3 1 1
node 3 1 1 1
node 4 3 0 2
node 5 1 0 0
node 19 1 0 0
gene 3 1 4 -6.90039 0 1 -6.90039 1
gene 1 2 4 8 0 2 8 1
gene 2 3 4 5.33762 0 3 5.33762 1
gene 1 2 5 -0.462733 0 4 -0.462733 1
gene 1 5 4 -2.04053 0 5 -2.04053 1
gene 2 3 19 5.52964 0 35 5.52964 1
gene 2 19 4 4.73908 0 36 4.73908 1
gene 2 2 19 0.693269 0 43 0.693269 0
gene 1 5 19 1.73521 0 92 1.73521 1
gene 2 3 5 0.252647 0 282 0.252647 1
gene 3 1 5 -3.20696 0 313 -3.20696 1
genomeend 6

/* Organism #7 Fitness: 8.99947 Error: 1.00009 */
genomestart 7
trait 1 0.1 0 0 0 0 0 0 0 
trait 2 0 0.692873 0 0 0 0 0 0 
trait 3 0.15 0 0.604359 0 0 0 0 0.401179 
node 1 2 1 3
node 2 3 1 1
node 3 1 1 1
node 4 3 0 2
node 5 1 0 0
node 19 1 0 0
gene 3 1 4 -0.961705 0 1 -0.961705 1
gene 1 2 4 6.4845 0 2 6.4845 1
gene 2 3 4 8 0 3 8 1
gene 1 2 5 4.08069 0 4 4.08069 1
gene 1 5 4 -1.33068 0 5 -1.33068 1
gene 2 3 19 3.22528 0 35 3.22528 1
gene 2 19 4 3.62521 0 36 3.62521 1
gene 2 2 19 2.56275 0 43 2.56275 0
gene 1 5 19 -0.425964 0 92 -0.425964 1
gene 2 3 5 -0.103312 0 282 -0.103312 1
gene 3 1 5 1.73115 0 313 1.73115 1
genomeend 7

/* Organism #8 Fitness: 8.99999 Error: 1 */
genomestart 8
trait 1 0.1 0 0 0 0 0 0 0 
trait 2 0 0.692873 0 0 0 0 0 0 
trait 3 0.15 0 0.604359 0 0 0 0 0.401179 
node 1 2 1 3
node 2 3 1 1
node 3 1 1 1
node 4 3 0 2
node 5 1 0 0
node 19 1 0 0
gene 3 1 4 -5.00271 0 1 -5.00271 1
gene 1 2 4 7.39125 0 2 7.39125 1
gene 2 3 4 5.65808 0 3 5.65808 1
gene 1 2 5 2.35915 0 4 2.35915 1
gene 1 5 4 -1.63392 0 5 -1.63392 1
gene 2 3 19 5.59693 0 35 5.59693 1
gene 2 19 4 4.03638 0 36 4.03638 1
gene 2 2 19 1.37341 0 43 1.37341 0
gene 1 5 19 0.978859 0 92 0.978859 1
gene 2 3 5 0.547895 0 282 0.547895 1
gene 3 1 5 -0.475342 0 313 -0.475342 1
genomeend 8

/* Organism #9 Fitness: 8.99928 Error: 1.00012 */
genomestart 9
trait 1 0.1 0 0 0 0 0 0 0 
trait 2 0 0.692873 0 0 0 0 0 0 
trait 3 0.15 0 0.604359 0 0 0 0 0.401179 
node 1 2 1 3
node 2 3 1 1
node 3 1 1 1
node 4 3 0 2
node 5 1 0 0
node 19 1 0 0
gene 3 1 4 -3.10502 0 1 -3.10502 1
gene 1 2 4 6.78249 0 2 6.78249 1
gene 2 3 4 5.97853 0 3 5.97853 1
gene 1 2 5 5.18103 0 4 5.18103 1
gene 1 5 4 -1.22732 0 5 -1.22732 1
gene 2 3 19 5.66421 0 35 5.66421 1
gene 2 19 4 3.33367 0 36 3.33367 1
gene 2 2 19 2.05356 0 43 2.05356 0
gene 1 5 19 0.222505 0 92 0.222505 1
gene 2 3 5 0.843143 0 282 0.843143 1
gene 3 1 5 2.25628 0 313 2.25628 1
genomeend 9

/* Organism #10 Fitness: 8.99999 Error: 1 */
genomestart 10
trait 1 0.1 0 0 0 0 0 0 0 
trait 2 0 0.692873 0 0 0 0 0 0 
trait 3 0.15 0 0.604359 0 0 0 0 0.401179 
node 1 2 1 3
node 2 3 1 1
node 3 1 1 1
node 4 3 0 2
node 5 1 0 0
node 19 1 0 0
gene 3 1 4 -2.72778 0 1 -2.72778 1
gene 1 2 4 8 0 2 8 1
gene 2 3 4 6.0309 0 3 6.0309 1
gene 1 2 5 6.70993 0 4 6.70993 1
gene 1 5 4 -0.314982 0 5 -0.314982 1
gene 2 3 19 7.13518 0 35 7.13518 1
gene 2 19 4 0.914547 0 36 0.914547 1
gene 2 2 19 3.15662 0 43 3.15662 0
gene 1 5 19 -0.237755 0 92 -0.237755 1
gene 2 3 5 0.843143 0 282 0.843143 1
gene 3 1 5 2.25628 0 313 2.25628 1
genomeend 10

/* Organism #11 Fitness: 3.99722 Error: 2.0007 */
genomestart 11
trait 1 0.1 0 0 0 0 0 0 0 
trait 2 0 0.692873 0 0 0 0 0 0 
trait 3 0.15 0 0.604359 0 0 0 0 0.401179 
node 1 2 1 3
node 2 3 1 1
node 3 1 1 1
node 4 3 0 2
node 5 1 0 0
node 19 1 0 0
gene 3 1 4 -3.23635 0 1 -3.23635 1
gene 1 2 4 2.05554 0 2 2.05554 1
gene 2 3 4 0.508641 0 3 0.508641 1
gene 1 2 5 1.21245 0 4 1.21245 1
gene 1 5 4 0.0309916 0 5 0.0309916 1
gene 2 3 19 6.60641 0 35 6.60641 1
gene 2 19 4 -0.814354 0 36 -0.814354 1
gene 2 2 19 2.10032 0 43 2.10032 0
gene 1 5 19 0.63487 0 92 0.63487 1
gene 2 3 5 1.26559 0 282 1.26559 1
gene 3 1 5 0.948985 0 313 0.948985 1
genomeend 11

/* Species #5 : (Size 8) (AF 5.50001) (Age 37)  */


/* Organism #12 Fitness: 9 Error: 1 */
genomestart 12
trait 1 0.1 0 0 0 0 0 0 0 
trait 2 0.1875 0 0 0.0439397 0.0520664 0 0 0 
trait 3 0.475 0 0.101407 0.222834 0 0.0349285 0 0 
node 1 2 1 3
node 2 1 1 1
node 3 3 1 1
node 4 2 0 2
node 20 1 0 0
gene 3 1 4 -4.00821 0 1 -4.00821 1
gene 2 2 4 -8 0 2 -8 1
gene 2 3 4 7.93726 0 3 7.93726 1
gene 2 3 20 -5.07669 0 38 -5.07669 1
gene 2 20 4 -0.561434 0 39 -0.561434 1
gene 1 2 20 -0.626133 0 245 -0.626133 1
gene 2 1 20 0.556421 0 258 0.556421 1
genomeend 12

/* Organism #13 Fitness: 4 Error: 2 */
genomestart 13
trait 1 0.1 0 0 0 0 0 0 0 
trait 2 0.1875 0 0 0.0439397 0.0520664 0 0 0 
trait 3 0.475 0 0.101407 0.222834 0 0.0349285 0 0 
node 1 2 1 3
node 2 1 1 1
node 3 3 1 1
node 4 2 0 2
node 20 1 0 0
gene 3 1 4 -4.31459 0 1 -4.31459 1
gene 2 2 4 -8 0 2 -8 1
gene 2 3 4 -1.48311 0 3 -1.48311 1
gene 2 3 20 -4.09713 0 38 -4.09713 1
gene 2 20 4 -1.92006 0 39 -1.92006 1
gene 1 2 20 -0.187978 0 245 -0.187978 1
gene 2 1 20 -0.834764 0 258 -0.834764 1
genomeend 13

/* Organism #14 Fitness: 9 Error: 1 */
genomestart 14
trait 1 0.1 0 0 0 0 0 0 0 
trait 2 0.1875 0 0 0.0439397 0.0520664 0 0 0 
trait 3 0.475 0 0.101407 0.222834 0 0.0349285 0 0 
node 1 2 1 3
node 2 1 1 1
node 3 3 1 1
node 4 2 0 2
node 20 1 0 0
gene 3 1 4 -3.80499 0 1 -3.80499 1
gene 2 2 4 -8 0 2 -8 1
gene 2 3 4 7.44935 0 3 7.44935 1
gene 2 3 20 -4.0734 0 38 -4.0734 1
gene 2 20 4 0.157234 0 39 0.157234 1
gene 1 2 20 -0.626133 0 245 -0.626133 1
gene 2 1 20 -0.473842 0 258 -0.473842 1
genomeend 14

/* Organism #15 Fitness: 4 Error: 2 */
genomestart 15
trait 1 0.1 0 0 0 0 0 0 0 
trait 2 0.1875 0 0 0.0439397 0.0520664 0 0 0 
trait 3 0.475 0 0.101407 0.222834 0 0.0349285 0 0 
node 1 2 1 3
node 2 1 1 1
node 3 3 1 1
node 4 2 0 2
node 20 1 0 0
gene 3 1 4 2.38358 0 1 2.38358 1
gene 2 2 4 -8 0 2 -8 1
gene 2 3 4 0.383496 0 3 0.383496 1
gene 2 3 20 -3.20569 0 38 -3.20569 1
gene 2 20 4 2.92766 0 39 2.92766 1
gene 1 2 20 -1.14639 0 245 -1.14639 1
gene 2 1 20 0.104933 0 258 0.104933 1
genomeend 15

/* Organism #16 Fitness: 9 Error: 1 */
genomestart 16
trait 1 0.1 0 0 0 0 0 0 0 
trait 2 0.1875 0 0 0.0439397 0.0520664 0 0 0 
trait 3 0.475 0 0.101407 0.222834 0 0.0349285 0 0 
node 1 2 1 3
node 2 1 1 1
node 3 3 1 1
node 4 2 0 2
node 20 1 0 0
gene 3 1 4 -3.60177 0 1 -3.60177 1
gene 2 2 4 -8 0 2 -8 1
gene 2 3 4 7.93726 0 3 7.93726 1
gene 2 3 20 -5.07669 0 38 -5.07669 1
gene 2 20 4 -0.561434 0 39 -0.561434 1
gene 1 2 20 -0.626133 0 245 -0.626133 1
gene 2 1 20 -1.50411 0 258 -1.50411 1
genomeend 16

/* Organism #17 Fitness: 1.00032 Error: 2.99984 */
genomestart 17
trait 1 0.1 0 0 0 0 0 0 0 
trait 2 0.1875 0 0 0.0439397 0.0520664 0 0 0 
trait 3 0.475 0 0.101407 0.222834 0 0.0349285 0 0 
node 1 2 1 3
node 2 1 1 1
node 3 3 1 1
node 4 2 0 2
node 20 1 0 0
gene 3 1 4 1.96022 0 1 1.96022 1
gene 2 2 4 -7.82355 0 2 -7.82355 1
gene 2 3 4 7.7377 0 3 7.7377 1
gene 2 3 20 -2.18141 0 38 -2.18141 1
gene 2 20 4 2.26054 0 39 2.26054 1
gene 1 2 20 2.01616 0 245 2.01616 1
gene 2 1 20 -3.70354 0 258 -3.70354 1
genomeend 17

/* Organism #18 Fitness: 3.99966 Error: 2.00009 */
genomestart 18
trait 1 0.1 0 0 0 0 0 0 0 
trait 2 0.1875 0 0 0.0439397 0.0520664 0 0 0 
trait 3 0.475 0 0.101407 0.222834 0 0.0349285 0 0 
node 1 2 1 3
node 2 1 1 1
node 3 3 1 1
node 4 2 0 2
node 20 1 0 0
gene 3 1 4 -4.00821 0 1 -4.00821 1
gene 2 2 4 -0.264523 0 2 -0.264523 1
gene 2 3 4 5.47331 0 3 5.47331 1
gene 2 3 20 -0.366933 0 38 -0.366933 1
gene 2 20 4 -1.14392 0 39 -1.14392 1
gene 1 2 20 -0.901634 0 245 -0.901634 1
gene 2 1 20 0.133273 0 258 0.133273 1
genomeend 18

/* Organism #19 Fitness: 4.00009 Error: 1.99998 */
genomestart 19
trait 1 0.1 0 0 0 0 0 0 0 
trait 2 0.1875 0 0 0.0439397 0.0520664 0 0 0 
trait 3 0.475 0 0.101407 0.222834 0 0.0349285 0 0 
node 1 2 1 3
node 2 1 1 1
node 3 3 1 1
node 4 2 0 2
node 20 1 0 0
gene 3 1 4 -3.15158 0 1 -3.15158 1
gene 2 2 4 0.980039 0 2 0.980039 1
gene 2 3 4 6.87308 0 3 6.87308 1
gene 2 3 20 -3.73505 0 38 -3.73505 1
gene 2 20 4 0.859371 0 39 0.859371 1
gene 1 2 20 1.80409 0 245 1.80409 1
gene 2 1 20 -3.87034 0 258 -3.87034 1
genomeend 19

/* Species #6 : (Size 7) (AF 7.53437) (Age 37)  */


/* Organism #20 Fitness: 9 Error: 1 */
genomestart 20
trait 1 0.1 0 0 0 0 0 0 0 
trait 2 0.2 0 0 0 0 0 0 0 
trait 3 0.371535 0.290666 0.0630615 0 0.209705 0 0 0 
node 1 2 1 3
node 2 3 1 1
node 3 1 1 1
node 4 1 0 2
node 5 2 0 0
node 14 1 0 0
gene 3 1 4 3.08351 0 1 3.08351 1
gene 1 2 4 8 0 2 8 1
gene 2 3 4 1.60582 0 3 1.60582 1
gene 1 2 5 4.36609 0 4 4.36609 1
gene 1 5 4 -3.17924 0 5 -3.17924 1
gene 2 3 14 -2.79263 0 24 -2.79263 1
gene 2 14 4 -7.56319 0 25 -7.56319 1
gene 3 3 5 -4.36247 0 133 -4.36247 1
gene 1 1 5 0.7835 0 329 0.7835 1
genomeend 20

/* Organism #21 Fitness: 8.62664 Error: 1.06289 */
genomestart 21
trait 1 0.1 0 0 0 0 0 0 0 
trait 2 0.2 0 0 0 0 0 0 0 
trait 3 0.371535 0.290666 0.0630615 0 0.209705 0 0 0 
node 1 2 1 3
node 2 3 1 1
node 3 1 1 1
node 4 1 0 2
node 5 2 0 0
node 14 1 0 0
gene 3 1 4 3.4444 0 1 3.4444 1
gene 1 2 4 8 0 2 8 1
gene 2 3 4 0.868649 0 3 0.868649 0
gene 1 2 5 3.59099 0 4 3.59099 1
gene 1 5 4 -3.17924 0 5 -3.17924 1
gene 2 3 14 -2.37103 0 24 -2.37103 1
gene 2 14 4 -7.46545 0 25 -7.46545 1
gene 3 3 5 -4.36247 0 133 -4.36247 1
gene 1 1 5 0.7835 0 329 0.7835 1
gene 2 5 14 -0.417493 0 437 -0.417493 1
genomeend 21

/* Organism #22 Fitness: 8.99931 Error: 1.00011 */
genomestart 22
trait 1 0.1 0 0 0 0 0 0 0 
trait 2 0.2 0 0 0 0 0 0 0 
trait 3 0.371535 0.290666 0.0630615 0 0.209705 0 0 0 
node 1 2 1 3
node 2 3 1 1
node 3 1 1 1
node 4 1 0 2
node 5 2 0 0
node 14 1 0 0
gene 3 1 4 2.40928 0 1 2.40928 1
gene 1 2 4 6.18387 0 2 6.18387 1
gene 2 3 4 0.850391 0 3 0.850391 0
gene 1 2 5 1.86987 0 4 1.86987 1
gene 1 5 4 -3.88479 0 5 -3.88479 1
gene 2 3 14 -2.76186 0 24 -2.76186 1
gene 2 14 4 -5.70443 0 25 -5.70443 1
gene 3 3 5 -3.63928 0 133 -3.63928 1
gene 1 1 5 2.48717 0 329 2.48717 1
genomeend 22

/* Organism #23 Fitness: 8.99978 Error: 1.00004 */
genomestart 23
trait 1 0.1 0 0 0 0 0 0 0 
trait 2 0.2 0 0 0 0 0 0 0 
trait 3 0.371535 0.290666 0.0630615 0 0.209705 0 0 0 
node 1 2 1 3
node 2 3 1 1
node 3 1 1 1
node 4 1 0 2
node 5 2 0 0
node 14 1 0 0
gene 3 1 4 3.08351 0 1 3.08351 1
gene 1 2 4 8 0 2 8 1
gene 2 3 4 1.60582 0 3 1.60582 1
gene 1 2 5 4.36609 0 4 4.36609 1
gene 1 5 4 -3.17924 0 5 -3.17924 1
gene 2 3 14 -2.79263 0 24 -2.79263 1
gene 2 14 4 -7.56319 0 25 -7.56319 1
gene 3 3 5 -4.36247 0 133 -4.36247 1
gene 1 1 5 0.7835 0 329 0.7835 1
gene 1 2 14 0.246854 0 438 0.246854 1
genomeend 23

/* Organism #24 Fitness: 4.14708 Error: 1.96356 */
genomestart 24
trait 1 0.1 0 0 0 0 0 0 0 
trait 2 0.2 0 0 0 0 0 0 0 
trait 3 0.371535 0.290666 0.0630615 0 0.209705 0 0 0 
node 1 2 1 3
node 2 3 1 1
node 3 1 1 1
node 4 1 0 2
node 5 2 0 0
node 14 1 0 0
gene 3 1 4 0.890736 0 1 0.890736 1
gene 1 2 4 8 0 2 8 1
gene 2 3 4 2.05952 0 3 2.05952 0
gene 1 2 5 1.37118 0 4 1.37118 1
gene 1 5 4 -5.50452 0 5 -5.50452 1
gene 2 3 14 -1.96552 0 24 -1.96552 1
gene 2 14 4 -8 0 25 -8 1
gene 3 3 5 -4.80679 0 133 -4.80679 1
gene 1 1 5 -0.0997135 0 329 -0.0997135 1
genomeend 24

/* Organism #25 Fitness: 4.0004 Error: 1.9999 */
genomestart 25
trait 1 0.1 0 0 0 0 0 0 0 
trait 2 0.2 0 0 0 0 0 0 0 
trait 3 0.371535 0.290666 0.0630615 0 0.209705 0 0 0 
node 1 2 1 3
node 2 3 1 1
node 3 1 1 1
node 4 1 0 2
node 5 2 0 0
node 14 1 0 0
gene 3 1 4 5.54378 0 1 5.54378 1
gene 1 2 4 8 0 2 8 1
gene 2 3 4 1.22257 0 3 1.22257 1
gene 1 2 5 6.85424 0 4 6.85424 1
gene 1 5 4 -0.909862 0 5 -0.909862 1
gene 2 3 14 -2.86761 0 24 -2.86761 1
gene 2 14 4 -6.27918 0 25 -6.27918 1
gene 3 3 5 -1.86772 0 133 -1.86772 1
gene 1 1 5 0.0697926 0 329 0.0697926 1
genomeend 25

/* Organism #26 Fitness: 8.96741 Error: 1.00544 */
genomestart 26
trait 1 0.1 0 0 0 0 0 0 0 
trait 2 0.2 0 0 0 0 0 0 0 
trait 3 0.371535 0.290666 0.0630615 0 0.209705 0 0 0 
node 1 2 1 3
node 2 3 1 1
node 3 1 1 1
node 4 1 0 2
node 5 2 0 0
node 14 1 0 0
gene 3 1 4 5.84736 0 1 5.84736 1
gene 1 2 4 8 0 2 8 1
gene 2 3 4 -0.326628 0 3 -0.326628 0
gene 1 2 5 2.83432 0 4 2.83432 1
gene 1 5 4 -3.20743 0 5 -3.20743 1
gene 2 3 14 -2.53683 0 24 -2.53683 1
gene 2 14 4 -7.39667 0 25 -7.39667 1
gene 3 3 5 -2.78026 0 133 -2.78026 1
gene 1 1 5 1.76826 0 329 1.76826 1
genomeend 26

/* Species #7 : (Size 6) (AF 8.07048) (Age 35)  */


/* Organism #27 Fitness: 9 Error: 1 */
genomestart 27
trait 1 0.334739 0 0 0 0.449983 0 0.316699 0 
trait 2 0.367088 0 0 0.413157 0 0.385555 0.0481595 0 
trait 3 0.3 0 0.0993988 0.0116732 0 0 0 0 
node 1 1 1 3
node 2 3 1 1
node 3 3 1 1
node 4 1 0 2
node 5 1 0 0
node 16 1 0 0
node 27 1 0 0
gene 1 1 4 -4.0377 0 1 -4.0377 1
gene 1 2 4 6.77343 0 2 6.77343 1
gene 2 3 4 -8 0 3 -8 1
gene 1 2 5 4.24405 0 4 4.24405 1
gene 1 5 4 1.14902 0 5 1.14902 1
gene 1 2 16 0.82462 0 29 0.82462 1
gene 1 16 5 -0.874711 0 30 -0.874711 1
gene 1 2 27 -2.03316 0 61 -2.03316 1
gene 1 27 16 5.03707 0 62 5.03707 1
gene 2 1 16 -0.570704 0 271 -0.570704 1
genomeend 27

/* Organism #28 Fitness: 8.74654 Error: 1.04254 */
genomestart 28
trait 1 0.334739 0 0 0 0.449983 0 0.316699 0 
trait 2 0.367088 0 0 0.413157 0 0.385555 0.0481595 0 
trait 3 0.3 0 0.0993988 0.0116732 0 0 0 0 
node 1 1 1 3
node 2 3 1 1
node 3 3 1 1
node 4 1 0 2
node 5 1 0 0
node 16 1 0 0
node 27 1 0 0
gene 1 1 4 -1.8407 0 1 -1.8407 1
gene 1 2 4 5.94196 0 2 5.94196 1
gene 2 3 4 2.23111 0 3 2.23111 1
gene 1 2 5 4.94288 0 4 4.94288 1
gene 1 5 4 2.50927 0 5 2.50927 1
gene 1 2 16 2.78067 0 29 2.78067 1
gene 1 16 5 -1.57467 0 30 -1.57467 1
gene 1 2 27 -2.03316 0 61 -2.03316 1
gene 1 27 16 3.67911 0 62 3.67911 1
gene 2 1 16 -2.77455 0 271 -2.77455 1
genomeend 28

/* Organism #29 Fitness: 4.06322 Error: 1.98426 */
genomestart 29
trait 1 0.334739 0 0 0 0.449983 0 0.316699 0 
trait 2 0.367088 0 0 0.413157 0 0.385555 0.0481595 0 
trait 3 0.3 0 0.0993988 0.0116732 0 0 0 0 
node 1 1 1 3
node 2 3 1 1
node 3 3 1 1
node 4 1 0 2
node 5 1 0 0
node 16 1 0 0
node 27 1 0 0
gene 1 1 4 0.82512 0 1 0.82512 1
gene 1 2 4 0.52897 0 2 0.52897 1
gene 2 3 4 -8 0 3 -8 1
gene 1 2 5 1.78651 0 4 1.78651 1
gene 1 5 4 0.385891 0 5 0.385891 1
gene 1 2 16 1.15928 0 29 1.15928 1
gene 1 16 5 -0.695925 0 30 -0.695925 1
gene 1 2 27 0.140594 0 61 0.140594 1
gene 3 27 16 2.20764 0 62 2.20764 1
gene 2 1 16 0.246202 0 271 0.246202 1
genomeend 29

/* Organism #30 Fitness: 8.62259 Error: 1.06358 */
genomestart 30
trait 1 0.334739 0 0 0 0.449983 0 0.316699 0 
trait 2 0.367088 0 0 0.413157 0 0.385555 0.0481595 0 
trait 3 0.3 0 0.0993988 0.0116732 0 0 0 0 
node 1 1 1 3
node 2 3 1 1
node 3 3 1 1
node 4 1 0 2
node 5 1 0 0
node 16 1 0 0
node 27 1 0 0
gene 1 1 4 -2.23609 0 1 -2.23609 1
gene 1 2 4 8 0 2 8 1
gene 2 3 4 -5.97263 0 3 -5.97263 1
gene 3 2 5 3.81352 0 4 3.81352 1
gene 1 5 4 -0.337592 0 5 -0.337592 1
gene 1 2 16 -0.705994 0 29 -0.705994 1
gene 1 16 5 -1.75434 0 30 -1.75434 1
gene 1 2 27 -1.5042 0 61 -1.5042 1
gene 1 27 16 7.51551 0 62 7.51551 1
gene 2 1 16 1.88025 0 271 1.88025 1
genomeend 30

/* Organism #31 Fitness: 9 Error: 1 */
genomestart 31
trait 1 0.334739 0 0 0 0.449983 0 0.316699 0 
trait 2 0.367088 0 0 0.413157 0 0.385555 0.0481595 0 
trait 3 0.3 0 0.0993988 0.0116732 0 0 0 0 
node 1 1 1 3
node 2 3 1 1
node 3 3 1 1
node 4 1 0 2
node 5 1 0 0
node 16 1 0 0
node 27 1 0 0
gene 1 1 4 -4.0377 0 1 -4.0377 1
gene 1 2 4 6.77343 0 2 6.77343 1
gene 2 3 4 -8 0 3 -8 1
gene 1 2 5 4.24405 0 4 4.24405 1
gene 1 5 4 1.14902 0 5 1.14902 1
gene 1 2 16 0.561232 0 29 0.561232 1
gene 1 16 5 -0.874711 0 30 -0.874711 1
gene 1 2 27 -2.03316 0 61 -2.03316 1
gene 3 27 16 5.09171 0 62 5.09171 1
gene 2 1 16 -0.570704 0 271 -0.570704 1
genomeend 31

/* Organism #32 Fitness: 8.99052 Error: 1.00158 */
genomestart 32
trait 1 0.334739 0 0 0 0.449983 0 0.316699 0 
trait 2 0.367088 0 0 0.413157 0 0.385555 0.0481595 0 
trait 3 0.3 0 0.0993988 0.0116732 0 0 0 0 
node 1 1 1 3
node 2 3 1 1
node 3 3 1 1
node 4 1 0 2
node 5 1 0 0
node 16 1 0 0
node 27 1 0 0
gene 1 1 4 -2.25597 0 1 -2.25597 1
gene 1 2 4 8 0 2 8 1
gene 2 3 4 -7.56296 0 3 -7.56296 1
gene 1 2 5 5.86601 0 4 5.86601 1
gene 1 5 4 0.507477 0 5 0.507477 1
gene 1 2 16 -0.580792 0 29 -0.580792 1
gene 1 16 5 -1.2549 0 30 -1.2549 1
gene 1 2 27 -1.09572 0 61 -1.09572 1
gene 2 27 16 5.40047 0 62 5.40047 1
gene 2 1 16 -2.19097 0 271 -2.19097 1
genomeend 32

/* Species #8 : (Size 7) (AF 6.70001) (Age 31)  */


/* Organism #33 Fitness: 9 Error: 1 */
genomestart 33
trait 1 0 0 0.00516626 0.236063 0 0.22805 0 0 
trait 2 0.508672 0 0 0.494643 0 0.334349 0.233106 0 
trait 3 0.3 0 0 0 0 0 0 0 
node 1 1 1 3
node 2 3 1 1
node 3 3 1 1
node 4 2 0 2
node 5 1 0 0
node 16 1 0 0
node 39 1 0 0
gene 1 1 4 -2.15073 0 1 -2.15073 1
gene 1 2 4 3.99515 0 2 3.99515 1
gene 2 3 4 -8 0 3 -8 1
gene 1 2 5 -3.06112 0 4 -3.06112 0
gene 1 5 4 2.30293 0 5 2.30293 1
gene 1 2 16 -3.65793 0 29 -3.65793 1
gene 1 16 5 -4.56523 0 30 -4.56523 1
gene 1 16 39 3.67872 0 98 3.67872 1
gene 1 39 5 0.840835 0 99 0.840835 1
gene 2 16 4 -6.75702 0 120 -6.75702 1
gene 2 3 39 -0.83694 0 387 -0.83694 1
genomeend 33

/* Organism #34 Fitness: 8.99942 Error: 1.0001 */
genomestart 34
trait 1 0 0 0.00516626 0.236063 0 0.22805 0 0 
trait 2 0.508672 0 0 0.494643 0 0.334349 0.233106 0 
trait 3 0.3 0 0 0 0 0 0 0 
node 1 1 1 3
node 2 3 1 1
node 3 3 1 1
node 4 2 0 2
node 5 1 0 0
node 16 1 0 0
node 39 1 0 0
gene 1 1 4 -0.485092 0 1 -0.485092 1
gene 1 2 4 4.00562 0 2 4.00562 1
gene 2 3 4 -8 0 3 -8 1
gene 1 2 5 -3.84943 0 4 -3.84943 1
gene 1 5 4 1.26368 0 5 1.26368 1
gene 1 2 16 -3.79371 0 29 -3.79371 1
gene 1 16 5 0.602934 0 30 0.602934 1
gene 1 16 39 2.39951 0 98 2.39951 1
gene 1 39 5 1.11656 0 99 1.11656 1
gene 2 16 4 -5.31197 0 120 -5.31197 1
gene 2 3 39 -2.12081 0 387 -2.12081 1
genomeend 34

/* Organism #35 Fitness: 4.00001 Error: 2 */
genomestart 35
trait 1 0 0 0.00516626 0.236063 0 0.22805 0 0 
trait 2 0.508672 0 0 0.494643 0 0.334349 0.233106 0 
trait 3 0.3 0 0 0 0 0 0 0 
node 1 1 1 3
node 2 3 1 1
node 3 3 1 1
node 4 2 0 2
node 5 1 0 0
node 16 1 0 0
node 39 1 0 0
gene 1 1 4 -2.15073 0 1 -2.15073 1
gene 1 2 4 3.88082 0 2 3.88082 1
gene 2 3 4 0.571492 0 3 0.571492 1
gene 1 2 5 -3.06112 0 4 -3.06112 0
gene 1 5 4 1.04776 0 5 1.04776 1
gene 1 2 16 -3.42239 0 29 -3.42239 1
gene 1 16 5 -4.36457 0 30 -4.36457 1
gene 1 16 39 -0.279749 0 98 -0.279749 1
gene 1 39 5 0.840835 0 99 0.840835 1
gene 2 16 4 -1.7501 0 120 -1.7501 1
gene 2 3 39 1.83348 0 387 1.83348 1
genomeend 35

/* Organism #36 Fitness: 4 Error: 2 */
genomestart 36
trait 1 0 0 0.00516626 0.236063 0 0.22805 0 0 
trait 2 0.508672 0 0 0.494643 0 0.334349 0.233106 0 
trait 3 0.3 0 0 0 0 0 0 0 
node 1 1 1 3
node 2 3 1 1
node 3 3 1 1
node 4 2 0 2
node 5 1 0 0
node 16 1 0 0
node 39 1 0 0
gene 1 1 4 -0.101529 0 1 -0.101529 1
gene 1 2 4 2.50067 0 2 2.50067 1
gene 2 3 4 0.461218 0 3 0.461218 1
gene 1 2 5 -4.27062 0 4 -4.27062 0
gene 1 5 4 2.30293 0 5 2.30293 1
gene 1 2 16 -5.45359 0 29 -5.45359 1
gene 1 16 5 -6.84118 0 30 -6.84118 1
gene 1 16 39 4.04929 0 98 4.04929 1
gene 1 39 5 2.37752 0 99 2.37752 1
gene 2 16 4 -7.84789 0 120 -7.84789 1
gene 2 3 39 1.90023 0 387 1.90023 1
genomeend 36

/* Organism #37 Fitness: 8.35297 Error: 1.10985 */
genomestart 37
trait 1 0 0 0.00516626 0.236063 0 0.22805 0 0 
trait 2 0.508672 0 0 0.494643 0 0.334349 0.233106 0 
trait 3 0.3 0 0 0 0 0 0 0 
node 1 1 1 3
node 2 3 1 1
node 3 3 1 1
node 4 2 0 2
node 5 1 0 0
node 16 1 0 0
node 39 1 0 0
gene 1 1 4 -1.82825 0 1 -1.82825 1
gene 1 2 4 2.43801 0 2 2.43801 1
gene 2 3 4 -8 0 3 -8 1
gene 1 2 5 0.388124 0 4 0.388124 0
gene 1 5 4 4.09552 0 5 4.09552 1
gene 1 2 16 -3.68079 0 29 -3.68079 1
gene 1 16 5 -0.622735 0 30 -0.622735 1
gene 1 16 39 2.59743 0 98 2.59743 1
gene 1 39 5 1.47755 0 99 1.47755 1
gene 2 16 4 -5.35783 0 120 -5.35783 1
gene 2 3 39 -1.38365 0 387 -1.38365 1
genomeend 37

/* Organism #38 Fitness: 9 Error: 1 */
genomestart 38
trait 1 0 0 0.00516626 0.236063 0 0.22805 0 0 
trait 2 0.508672 0 0 0.494643 0.803345 0.334349 0.233106 0.456961 
trait 3 0.3 0 0 0 0 0 0 0 
node 1 1 1 3
node 2 3 1 1
node 3 3 1 1
node 4 2 0 2
node 5 1 0 0
node 16 1 0 0
node 39 1 0 0
gene 1 1 4 -0.654596 0 1 -0.654596 1
gene 1 2 4 4.37028 0 2 4.37028 1
gene 2 3 4 -7.11144 0 3 -7.11144 1
gene 1 2 5 -3.05101 0 4 -3.05101 0
gene 1 5 4 0.339566 0 5 0.339566 1
gene 1 2 16 -3.74709 0 29 -3.74709 1
gene 1 16 5 -4.65414 0 30 -4.65414 1
gene 1 16 39 3.54447 0 98 3.54447 1
gene 1 39 5 0.162323 0 99 0.162323 1
gene 2 16 4 -6.09201 0 120 -6.09201 1
gene 2 3 39 -0.83694 0 387 -0.83694 1
genomeend 38

/* Organism #39 Fitness: 3.54765 Error: 2.11648 */
genomestart 39
trait 1 0 0 0.00516626 0.236063 0 0.22805 0 0 
trait 2 0.508672 0 0 0.494643 0 0.334349 0.233106 0 
trait 3 0.3 0 0 0 0 0 0 0 
node 1 1 1 3
node 2 3 1 1
node 3 3 1 1
node 4 2 0 2
node 5 1 0 0
node 16 1 0 0
node 39 1 0 0
gene 1 1 4 -1.16763 0 1 -1.16763 1
gene 1 2 4 -1.01676 0 2 -1.01676 1
gene 2 3 4 -8 0 3 -8 1
gene 1 2 5 -1.18786 0 4 -1.18786 0
gene 1 5 4 0.679071 0 5 0.679071 1
gene 1 2 16 -2.84781 0 29 -2.84781 1
gene 1 16 5 -4.94973 0 30 -4.94973 1
gene 1 16 39 2.65785 0 98 2.65785 1
gene 1 39 5 -0.818982 0 99 -0.818982 1
gene 2 16 4 1.51244 0 120 1.51244 1
gene 2 3 39 -1.3298 0 387 -1.3298 1
genomeend 39

/* Species #9 : (Size 6) (AF 8.15922) (Age 31)  */


/* Organism #40 Fitness: 8.99695 Error: 1.00051 */
genomestart 40
trait 1 0.0980469 0 0.0129156 0 0 0 0 0 
trait 2 0.332495 0 0 0.327621 0 0.305733 0.0381889 0 
trait 3 0.225 0 0.207711 0 0 0 0 0.178377 
node 1 1 1 3
node 2 3 1 1
node 3 3 1 1
node 4 2 0 2
node 5 1 0 0
node 16 1 0 0
node 40 1 0 0
node 81 1 0 0
node 102 1 0 0
node 118 1 0 0
gene 1 1 4 -2.20482 0 1 -2.20482 1
gene 1 2 4 3.75418 0 2 3.75418 1
gene 2 3 4 -5.85049 0 3 -5.85049 1
gene 1 2 5 2.76329 0 4 2.76329 0
gene 1 5 4 2.43157 0 5 2.43157 0
gene 1 2 16 -2.67078 0 29 -2.67078 1
gene 1 16 5 1.53358 0 30 1.53358 0
gene 1 5 40 0.805444 0 101 0.805444 0
gene 1 40 4 -1.89104 0 102 -1.89104 1
gene 1 2 81 -0.619889 0 230 -0.619889 1
gene 1 81 5 0.69764 0 231 0.69764 0
gene 2 5 102 2.30693 0 291 2.30693 1
gene 1 102 40 -1.47616 0 292 -1.47616 1
gene 1 16 118 -1.2528 0 353 -1.2528 1
gene 1 118 5 2.48156 0 354 2.48156 1
genomeend 40

/* Organism #41 Fitness: 8.99926 Error: 1.00012 */
genomestart 41
trait 1 0.0980469 0 0.0129156 0 0 0 0 0 
trait 2 0.332495 0 0 0.16381 0 0.652867 0.360102 0 
trait 3 0.225 0 0.207711 0 0 0 0 0.178377 
node 1 1 1 3
node 2 3 1 1
node 3 3 1 1
node 4 2 0 2
node 5 1 0 0
node 16 1 0 0
node 40 1 0 0
node 81 1 0 0
node 102 1 0 0
node 118 1 0 0
gene 1 1 4 -1.85224 0 1 -1.85224 1
gene 1 2 4 4.13209 0 2 4.13209 1
gene 2 3 4 -6.19908 0 3 -6.19908 1
gene 1 2 5 1.64402 0 4 1.64402 0
gene 1 5 4 1.03431 0 5 1.03431 0
gene 1 2 16 -2.72888 0 29 -2.72888 1
gene 1 16 5 0.289992 0 30 0.289992 0
gene 1 5 40 0.240171 0 101 0.240171 0
gene 1 40 4 -1.54575 0 102 -1.54575 1
gene 1 2 81 -0.166435 0 230 -0.166435 1
gene 1 81 5 -0.594325 0 231 -0.594325 0
gene 2 5 102 1.86878 0 291 1.86878 1
gene 1 102 40 -1.72901 0 292 -1.72901 1
gene 1 16 118 0.586707 0 353 0.586707 1
gene 1 118 5 2.86361 0 354 2.86361 1
genomeend 41

/* Organism #42 Fitness: 8.99985 Error: 1.00002 */
genomestart 42
trait 1 0.0980469 0 0.0129156 0 0 0 0 0 
trait 2 0.332495 0 0 0.16381 0 0.652867 0.360102 0 
trait 3 0.225 0 0.207711 0 0 0 0 0.178377 
node 1 1 1 3
node 2 3 1 1
node 3 3 1 1
node 4 2 0 2
node 5 1 0 0
node 16 1 0 0
node 40 1 0 0
node 81 1 0 0
node 102 1 0 0
node 118 1 0 0
gene 1 1 4 -4.33844 0 1 -4.33844 1
gene 1 2 4 6.49772 0 2 6.49772 1
gene 2 3 4 -6.03736 0 3 -6.03736 1
gene 1 2 5 -0.268649 0 4 -0.268649 1
gene 1 5 4 1.59978 0 5 1.59978 0
gene 1 2 16 -4.31437 0 29 -4.31437 1
gene 1 16 5 -1.16051 0 30 -1.16051 0
gene 1 5 40 2.40577 0 101 2.40577 0
gene 1 40 4 -3.98366 0 102 -3.98366 1
gene 1 2 81 0.197312 0 230 0.197312 1
gene 1 81 5 -2.20295 0 231 -2.20295 1
gene 2 5 102 3.94576 0 291 3.94576 1
gene 1 102 40 -1.73051 0 292 -1.73051 1
gene 1 16 118 -2.41977 0 353 -2.41977 1
gene 1 118 5 5.01912 0 354 5.01912 1
genomeend 42

/* Organism #43 Fitness: 4.01437 Error: 1.99641 */
genomestart 43
trait 1 0.0980469 0 0.0129156 0 0 0 0 0 
trait 2 0.332495 0 0 0.327621 0 0.305733 0.0381889 0 
trait 3 0.225 0 0.207711 0 0 0 0 0.178377 
node 1 1 1 3
node 2 3 1 1
node 3 3 1 1
node 4 2 0 2
node 5 1 0 0
node 16 1 0 0
node 40 1 0 0
node 81 1 0 0
node 102 1 0 0
node 118 1 0 0
gene 1 1 4 1.22163 0 1 1.22163 1
gene 1 2 4 1.38252 0 2 1.38252 1
gene 2 3 4 -5.85049 0 3 -5.85049 1
gene 1 2 5 4.77301 0 4 4.77301 0
gene 1 5 4 1.75828 0 5 1.75828 0
gene 1 2 16 -3.9203 0 29 -3.9203 1
gene 1 16 5 -0.85765 0 30 -0.85765 0
gene 1 5 40 0.805444 0 101 0.805444 0
gene 1 40 4 -0.0949349 0 102 -0.0949349 1
gene 1 2 81 0.0195 0 230 0.0195 1
gene 1 81 5 2.61823 0 231 2.61823 0
gene 2 5 102 1.2414 0 291 1.2414 1
gene 1 102 40 0.342949 0 292 0.342949 1
gene 1 16 118 -2.14966 0 353 -2.14966 1
gene 1 118 5 4.96326 0 354 4.96326 1
genomeend 43

/* Organism #44 Fitness: 8.94563 Error: 1.00907 */
genomestart 44
trait 1 0.0980469 0 0.0129156 0 0 0 0 0 
trait 2 0.332495 0 0 0 0 1 0.682016 0 
trait 3 0.449997 0 0.55611 0.252244 0 0 0 0 
node 1 1 1 3
node 2 3 1 1
node 3 3 1 1
node 4 2 0 2
node 5 1 0 0
node 16 1 0 0
node 40 1 0 0
node 81 1 0 0
node 102 1 0 0
node 118 1 0 0
gene 1 1 4 -0.943398 0 1 -0.943398 1
gene 1 2 4 6.65391 0 2 6.65391 1
gene 2 3 4 -8 0 3 -8 1
gene 1 2 5 -0.927048 0 4 -0.927048 0
gene 1 5 4 -0.918571 0 5 -0.918571 0
gene 1 2 16 -2.78699 0 29 -2.78699 1
gene 1 16 5 0.120439 0 30 0.120439 0
gene 1 5 40 2.02323 0 101 2.02323 0
gene 1 40 4 -0.0123314 0 102 -0.0123314 1
gene 1 2 81 0.207754 0 230 0.207754 1
gene 1 81 5 -2.57228 0 231 -2.57228 0
gene 2 5 102 1.65063 0 291 1.65063 1
gene 1 102 40 0.289084 0 292 0.289084 1
gene 1 16 118 2.38439 0 353 2.38439 1
gene 1 118 5 3.8608 0 354 3.8608 1
genomeend 44

/* Organism #45 Fitness: 8.99926 Error: 1.00012 */
genomestart 45
trait 1 0.0980469 0 0.0129156 0 0 0 0 0 
trait 2 0.332495 0 0 0.16381 0 0.652867 0.360102 0 
trait 3 0.225 0 0.207711 0 0 0 0 0.178377 
node 1 1 1 3
node 2 3 1 1
node 3 3 1 1
node 4 2 0 2
node 5 1 0 0
node 16 1 0 0
node 40 1 0 0
node 81 1 0 0
node 102 1 0 0
node 118 1 0 0
gene 1 1 4 -1.85224 0 1 -1.85224 1
gene 1 2 4 4.13209 0 2 4.13209 1
gene 2 3 4 -6.19908 0 3 -6.19908 1
gene 1 2 5 1.64402 0 4 1.64402 0
gene 1 5 4 1.03431 0 5 1.03431 0
gene 1 2 16 -2.72888 0 29 -2.72888 1
gene 1 16 5 0.289992 0 30 0.289992 0
gene 1 5 40 0.240171 0 101 0.240171 0
gene 1 40 4 -1.54575 0 102 -1.54575 1
gene 1 2 81 -0.166435 0 230 -0.166435 1
gene 1 81 5 -0.594325 0 231 -0.594325 0
gene 2 5 102 1.86878 0 291 1.86878 1
gene 1 102 40 -1.72901 0 292 -1.72901 1
gene 1 16 118 0.586707 0 353 0.586707 1
gene 1 118 5 2.86361 0 354 2.86361 1
genomeend 45

/* Species #10 : (Size 7) (AF 7.47429) (Age 31)  */


/* Organism #46 Fitness: 9.30774 Error: 0.949141 */
genomestart 46
trait 1 0.05 0 0 0 0 0.303088 0 0 
trait 2 0.2 0.191396 0 0 0 0 0.064727 0 
trait 3 0.293474 0.0493786 0.132858 0.170685 0 0 0.206046 0.251368 
node 1 2 1 3
node 2 3 1 1
node 3 1 1 1
node 4 1 0 2
node 5 1 0 0
node 19 1 0 0
node 41 1 0 0
gene 3 1 4 -2.64261 0 1 -2.64261 1
gene 1 2 4 -3.96906 0 2 -3.96906 0
gene 2 3 4 -1.47006 0 3 -1.47006 1
gene 1 2 5 4.14627 0 4 4.14627 1
gene 1 5 4 -3.29326 0 5 -3.29326 1
gene 2 3 19 3.1795 0 35 3.1795 1
gene 2 19 4 8 0 36 8 1
gene 2 2 19 5.82147 0 43 5.82147 1
gene 2 3 41 -3.00708 0 103 -3.00708 1
gene 2 41 19 -6.09834 0 104 -6.09834 1
gene 1 1 19 0.568824 0 356 0.568824 1
gene 3 2 41 -0.82502 0 406 -0.82502 1
genomeend 46

/* Organism #47 Fitness: 4.00085 Error: 1.99979 */
genomestart 47
trait 1 0.05 0 0 0 0 0.303088 0 0 
trait 2 0.2 0.191396 0 0 0 0 0.064727 0 
trait 3 0.293474 0.0493786 0.132858 0.170685 0 0 0.206046 0.251368 
node 1 2 1 3
node 2 3 1 1
node 3 1 1 1
node 4 1 0 2
node 5 1 0 0
node 19 1 0 0
node 41 1 0 0
node 145 1 0 0
gene 3 1 4 -2.98408 0 1 -2.98408 1
gene 1 2 4 -4.18688 0 2 -4.18688 0
gene 2 3 4 -0.918474 0 3 -0.918474 1
gene 1 2 5 4.82112 0 4 4.82112 1
gene 1 5 4 -2.3273 0 5 -2.3273 1
gene 2 3 19 3.07643 0 35 3.07643 1
gene 2 19 4 7.94461 0 36 7.94461 1
gene 2 2 19 5.60146 0 43 5.60146 0
gene 2 3 41 -2.92309 0 103 -2.92309 1
gene 2 41 19 -5.44727 0 104 -5.44727 1
gene 1 1 19 0.568824 0 356 0.568824 1
gene 3 2 41 -0.104805 0 406 -0.104805 1
gene 2 2 145 1 0 439 0 1
gene 2 145 19 5.60146 0 440 0 1
genomeend 47

/* Organism #48 Fitness: 13.0041 Error: 0.393874 */
/* ##------$ WINNER 48 SPECIES #10 $------## */
genomestart 48
trait 1 0.05 0 0 0 0 0.303088 0 0 
trait 2 0.2 0.191396 0 0 0 0 0.064727 0 
trait 3 0.293474 0.0493786 0.132858 0.170685 0 0 0.206046 0.251368 
node 1 2 1 3
node 2 3 1 1
node 3 1 1 1
node 4 1 0 2
node 5 1 0 0
node 19 1 0 0
node 41 1 0 0
gene 3 1 4 -3.32556 0 1 -3.32556 1
gene 1 2 4 -3.96906 0 2 -3.96906 0
gene 2 3 4 -1.47006 0 3 -1.47006 1
gene 1 2 5 5.49598 0 4 5.49598 1
gene 1 5 4 -3.29326 0 5 -3.29326 1
gene 2 3 19 2.97335 0 35 2.97335 1
gene 2 19 4 8 0 36 8 1
gene 2 2 19 5.38145 0 43 5.38145 1
gene 2 3 41 -2.8391 0 103 -2.8391 1
gene 2 41 19 -6.09834 0 104 -6.09834 1
gene 1 1 19 0.568824 0 356 0.568824 1
gene 3 2 41 -0.82502 0 406 -0.82502 1
genomeend 48

/* Organism #49 Fitness: 8.99987 Error: 1.00002 */
genomestart 49
trait 1 0.05 0 0 0 0 0.303088 0 0 
trait 2 0.2 0.191396 0 0 0 0 0.064727 0 
trait 3 0.293474 0.0493786 0.132858 0.170685 0 0 0.206046 0.251368 
node 1 2 1 3
node 2 3 1 1
node 3 1 1 1
node 4 1 0 2
node 5 1 0 0
node 19 1 0 0
node 41 1 0 0
gene 3 1 4 -1.92037 0 1 -1.92037 1
gene 1 2 4 -4.77707 0 2 -4.77707 0
gene 2 3 4 -2.28721 0 3 -2.28721 1
gene 1 2 5 5.76493 0 4 5.76493 1
gene 1 5 4 -0.914769 0 5 -0.914769 1
gene 2 3 19 1.93626 0 35 1.93626 1
gene 2 19 4 8 0 36 8 1
gene 2 2 19 5.88058 0 43 5.88058 1
gene 2 3 41 -5.34405 0 103 -5.34405 1
gene 2 41 19 -3.81487 0 104 -3.81487 1
gene 1 1 19 1.16943 0 356 1.16943 1
gene 3 2 41 1.45268 0 406 1.45268 1
genomeend 49

/* Organism #50 Fitness: 4 Error: 2 */
genomestart 50
trait 1 0.05 0 0 0 0 0.303088 0 0 
trait 2 0.2 0.191396 0 0 0 0 0.064727 0 
trait 3 0.293474 0.0493786 0.132858 0.170685 0 0 0.206046 0.251368 
node 1 2 1 3
node 2 3 1 1
node 3 1 1 1
node 4 1 0 2
node 5 1 0 0
node 19 1 0 0
node 41 1 0 0
gene 3 1 4 -3.76966 0 1 -3.76966 1
gene 1 2 4 -4.51905 0 2 -4.51905 0
gene 2 3 4 0.965963 0 3 0.965963 1
gene 1 2 5 7.82967 0 4 7.82967 1
gene 1 5 4 -0.956622 0 5 -0.956622 1
gene 2 3 19 4.96611 0 35 4.96611 1
gene 2 19 4 8 0 36 8 1
gene 2 2 19 4.09049 0 43 4.09049 1
gene 2 3 41 -0.686353 0 103 -0.686353 1
gene 2 41 19 -6.14905 0 104 -6.14905 1
gene 1 1 19 0.568824 0 356 0.568824 1
gene 3 2 41 3.08688 0 406 3.08688 1
genomeend 50

/* Organism #51 Fitness: 8.99996 Error: 1.00001 */
genomestart 51
trait 1 0.05 0 0 0 0 0.303088 0 0 
trait 2 0.2 0.191396 0 0 0 0 0.064727 0 
trait 3 0.293474 0.0493786 0.132858 0.170685 0 0 0.206046 0.251368 
node 1 2 1 3
node 2 3 1 1
node 3 1 1 1
node 4 1 0 2
node 5 1 0 0
node 19 1 0 0
node 41 1 0 0
gene 3 1 4 -1.38917 0 1 -1.38917 1
gene 1 2 4 -3.87252 0 2 -3.87252 0
gene 2 3 4 -0.633487 0 3 -0.633487 1
gene 1 2 5 3.05978 0 4 3.05978 1
gene 3 5 4 -1.74929 0 5 -1.74929 1
gene 2 3 19 0.538766 0 35 0.538766 1
gene 2 19 4 5.99598 0 36 5.99598 1
gene 2 2 19 6.30393 0 43 6.30393 1
gene 2 3 41 -0.463297 0 103 -0.463297 1
gene 2 41 19 -2.78524 0 104 -2.78524 1
gene 1 1 19 0.568824 0 356 0.568824 1
gene 3 2 41 0.61541 0 406 0.61541 1
genomeend 51

/* Organism #52 Fitness: 4.00749 Error: 1.99813 */
genomestart 52
trait 1 0.05 0 0 0 0 0.303088 0 0 
trait 2 0.2 0.191396 0 0 0 0 0.064727 0 
trait 3 0.293474 0.0493786 0.132858 0.170685 0 0 0.206046 0.251368 
node 1 2 1 3
node 2 3 1 1
node 3 1 1 1
node 4 1 0 2
node 5 1 0 0
node 19 1 0 0
node 41 1 0 0
gene 3 1 4 -1.48062 0 1 -1.48062 1
gene 1 2 4 -6.05353 0 2 -6.05353 0
gene 2 3 4 0.97326 0 3 0.97326 1
gene 1 2 5 2.67264 0 4 2.67264 1
gene 1 5 4 -5.25719 0 5 -5.25719 1
gene 2 3 19 0.915138 0 35 0.915138 1
gene 2 19 4 8 0 36 8 1
gene 2 2 19 -0.133576 0 43 -0.133576 1
gene 2 3 41 -3.72178 0 103 -3.72178 1
gene 2 41 19 -4.96468 0 104 -4.96468 1
gene 1 1 19 -0.377025 0 356 -0.377025 1
gene 3 2 41 -0.740196 0 406 -0.740196 1
genomeend 52

/* Species #11 : (Size 8) (AF 7.76329) (Age 28)  */


/* Organism #53 Fitness: 9 Error: 1 */
genomestart 53
trait 1 0.1 0 0 0 0 0 0 0 
trait 2 0.2 0 0 0 0 0 0 0 
trait 3 0.349195 0 0 0 0 0.0349285 0 0 
node 1 3 1 3
node 2 1 1 1
node 3 3 1 1
node 4 2 0 2
node 20 1 0 0
node 47 1 0 0
gene 3 1 4 1.08332 0 1 1.08332 1
gene 3 2 4 -8 0 2 -8 1
gene 2 3 4 8 0 3 8 1
gene 2 3 20 -2.29185 0 38 -2.29185 1
gene 3 20 4 -5.9117 0 39 -5.9117 1
gene 2 2 20 3.40426 0 115 3.40426 1
gene 2 20 47 4.58385 0 124 4.58385 1
gene 2 47 4 -4.22614 0 125 -4.22614 1
genomeend 53

/* Organism #54 Fitness: 9 Error: 1 */
genomestart 54
trait 1 0.1 0 0 0 0 0 0 0 
trait 2 0.2 0 0 0 0 0 0 0 
trait 3 0.349195 0 0 0 0 0.0349285 0 0 
node 1 3 1 3
node 2 1 1 1
node 3 3 1 1
node 4 2 0 2
node 20 1 0 0
node 47 1 0 0
gene 3 1 4 3.21482 0 1 3.21482 1
gene 3 2 4 -8 0 2 -8 1
gene 2 3 4 7.01264 0 3 7.01264 1
gene 2 3 20 -3.55894 0 38 -3.55894 1
gene 3 20 4 -8 0 39 -8 1
gene 2 2 20 5.53875 0 115 5.53875 1
gene 2 20 47 5.06356 0 124 5.06356 1
gene 2 47 4 -3.3046 0 125 -3.3046 1
genomeend 54

/* Organism #55 Fitness: 4 Error: 2 */
genomestart 55
trait 1 0.1 0 0 0 0 0 0 0 
trait 2 0.2 0 0 0 0 0 0 0 
trait 3 0.349195 0 0 0 0 0.0349285 0 0 
node 1 3 1 3
node 2 1 1 1
node 3 3 1 1
node 4 2 0 2
node 20 1 0 0
node 47 1 0 0
gene 3 1 4 -0.966016 0 1 -0.966016 1
gene 3 2 4 -5.75098 0 2 -5.75098 1
gene 2 3 4 -0.977621 0 3 -0.977621 1
gene 2 3 20 -1.55572 0 38 -1.55572 1
gene 3 20 4 -4.25359 0 39 -4.25359 1
gene 2 2 20 -1.95827 0 115 -1.95827 1
gene 2 20 47 0.270268 0 124 0.270268 1
gene 2 47 4 -4.1862 0 125 -4.1862 1
genomeend 55

/* Organism #56 Fitness: 9 Error: 1 */
genomestart 56
trait 1 0.1 0 0 0 0 0 0 0 
trait 2 0.2 0 0 0 0 0 0 0 
trait 3 0.349195 0 0 0 0 0.0349285 0 0 
node 1 3 1 3
node 2 1 1 1
node 3 3 1 1
node 4 2 0 2
node 20 1 0 0
node 47 1 0 0
gene 3 1 4 1.08332 0 1 1.08332 1
gene 3 2 4 -8 0 2 -8 1
gene 2 3 4 8 0 3 8 1
gene 2 3 20 -2.29185 0 38 -2.29185 1
gene 3 20 4 -5.9117 0 39 -5.9117 1
gene 2 2 20 3.40426 0 115 3.40426 1
gene 2 20 47 4.58385 0 124 4.58385 1
gene 2 47 4 -4.22614 0 125 -4.22614 1
genomeend 56

/* Organism #57 Fitness: 8.99608 Error: 1.00065 */
genomestart 57
trait 1 0.1 0 0 0 0 0 0 0 
trait 2 0.2 0 0 0 0 0 0 0 
trait 3 0.349195 0 0 0 0 0.0349285 0 0 
node 1 3 1 3
node 2 1 1 1
node 3 3 1 1
node 4 2 0 2
node 20 1 0 0
node 47 1 0 0
gene 3 1 4 2.99741 0 1 2.99741 1
gene 3 2 4 -8 0 2 -8 1
gene 2 3 4 8 0 3 8 1
gene 2 3 20 0.183153 0 38 0.183153 1
gene 3 20 4 -5.5039 0 39 -5.5039 1
gene 2 2 20 5.87222 0 115 5.87222 1
gene 2 20 47 4.39385 0 124 4.39385 1
gene 2 47 4 -1.73472 0 125 -1.73472 1
genomeend 57

/* Organism #58 Fitness: 9 Error: 1 */
genomestart 58
trait 1 0.1 0 0 0 0 0 0 0 
trait 2 0.2 0 0 0 0 0 0 0 
trait 3 0.349195 0 0 0 0 0.0349285 0 0 
node 1 3 1 3
node 2 1 1 1
node 3 3 1 1
node 4 2 0 2
node 20 1 0 0
node 47 1 0 0
gene 3 1 4 3.25865 0 1 3.25865 1
gene 3 2 4 -1.40121 0 2 -1.40121 1
gene 2 3 4 5.77833 0 3 5.77833 1
gene 2 3 20 -1.23725 0 38 -1.23725 1
gene 3 20 4 -7.27889 0 39 -7.27889 1
gene 2 2 20 3.40426 0 115 3.40426 1
gene 2 20 47 4.30996 0 124 4.30996 1
gene 2 47 4 -4.71797 0 125 -4.71797 1
genomeend 58

/* Organism #59 Fitness: 8.99665 Error: 1.00056 */
genomestart 59
trait 1 0.1 0 0 0 0 0 0 0 
trait 2 0.2 0 0 0 0 0 0 0 
trait 3 0.349195 0 0 0 0 0.0349285 0 0 
node 1 3 1 3
node 2 1 1 1
node 3 3 1 1
node 4 2 0 2
node 20 1 0 0
node 47 1 0 0
gene 3 1 4 0.147821 0 1 0.147821 1
gene 3 2 4 -7.92788 0 2 -7.92788 1
gene 2 3 4 6.11906 0 3 6.11906 1
gene 2 3 20 -1.00135 0 38 -1.00135 1
gene 3 20 4 -4.56434 0 39 -4.56434 1
gene 2 2 20 1.30766 0 115 1.30766 1
gene 2 20 47 2.55666 0 124 2.55666 1
gene 2 47 4 -3.14834 0 125 -3.14834 1
gene 2 1 20 0.882382 0 421 0.882382 1
genomeend 59

/* Organism #60 Fitness: 4.11358 Error: 1.9718 */
genomestart 60
trait 1 0.1 0 0 0 0 0 0 0 
trait 2 0.2 0 0 0 0 0 0 0 
trait 3 0.349195 0 0 0 0 0.0349285 0 0 
node 1 3 1 3
node 2 1 1 1
node 3 3 1 1
node 4 2 0 2
node 20 1 0 0
node 47 1 0 0
gene 3 1 4 3.5488 0 1 3.5488 1
gene 3 2 4 -7.33868 0 2 -7.33868 1
gene 2 3 4 8 0 3 8 1
gene 2 3 20 -1.49061 0 38 -1.49061 1
gene 3 20 4 -4.59037 0 39 -4.59037 1
gene 2 2 20 5.69805 0 115 5.69805 1
gene 2 20 47 3.11532 0 124 3.11532 1
gene 2 47 4 -5.58046 0 125 -5.58046 1
gene 2 1 20 -1.31649 0 421 -1.31649 1
genomeend 60

/* Species #12 : (Size 4) (AF 5.2489) (Age 27)  */


/* Organism #61 Fitness: 4 Error: 2 */
genomestart 61
trait 1 0.0992188 0 0.00516626 0 0 0 0 0 
trait 2 0.344896 0 0 0.358285 0 0.334349 0.0417633 0.529124 
trait 3 0.3 0 0 0 0 0 0 0 
node 1 1 1 3
node 2 3 1 1
node 3 3 1 1
node 4 2 0 2
node 5 1 0 0
node 16 1 0 0
node 39 1 0 0
node 50 1 0 0
node 119 1 0 0
gene 1 1 4 -3.04081 0 1 -3.04081 1
gene 1 2 4 -2.29248 0 2 -2.29248 0
gene 2 3 4 -5.55046 0 3 -5.55046 1
gene 3 2 5 0.488008 0 4 0.488008 0
gene 1 5 4 -7.27962 0 5 -7.27962 1
gene 1 2 16 0.66906 0 29 0.66906 1
gene 1 16 5 8 0 30 8 1
gene 1 16 39 5.14396 0 98 5.14396 0
gene 1 39 5 -5.09468 0 99 -5.09468 1
gene 1 5 50 4.43203 0 134 4.43203 1
gene 1 50 4 6.67657 0 135 6.67657 1
gene 2 1 16 -3.23606 0 247 -3.23606 1
gene 3 3 5 1.33336 0 330 1.33336 1
gene 2 3 50 1.67801 0 345 1.67801 1
gene 1 16 119 1.5935 0 361 1.5935 1
gene 1 119 39 -0.106643 0 362 -0.106643 1
gene 1 39 50 0.58257 0 390 0.58257 1
genomeend 61

/* Organism #62 Fitness: 8.99562 Error: 1.00073 */
genomestart 62
trait 1 0.0992188 0 0.00516626 0 0 0 0 0 
trait 2 0.344896 0 0 0.358285 0 0.334349 0.0417633 0.529124 
trait 3 0.3 0 0 0 0 0 0 0 
node 1 1 1 3
node 2 3 1 1
node 3 3 1 1
node 4 2 0 2
node 5 1 0 0
node 16 1 0 0
node 39 1 0 0
node 50 1 0 0
node 119 1 0 0
gene 1 1 4 1.46648 0 1 1.46648 1
gene 1 2 4 -1.04638 0 2 -1.04638 0
gene 2 3 4 -6.90249 0 3 -6.90249 1
gene 3 2 5 -0.720716 0 4 -0.720716 0
gene 1 5 4 -8 0 5 -8 1
gene 1 2 16 -2.18793 0 29 -2.18793 1
gene 1 16 5 8 0 30 8 1
gene 1 16 39 4.78324 0 98 4.78324 0
gene 1 39 5 -7.19948 0 99 -7.19948 1
gene 1 5 50 0.851506 0 134 0.851506 1
gene 1 50 4 5.29012 0 135 5.29012 1
gene 2 1 16 1.56567 0 247 1.56567 1
gene 3 3 5 -0.690533 0 330 -0.690533 1
gene 2 3 50 1.9764 0 345 1.9764 1
gene 1 16 119 2.15914 0 361 2.15914 1
gene 1 119 39 1.9434 0 362 1.9434 1
gene 1 39 50 -4.19504 0 390 -4.19504 1
genomeend 62

/* Organism #63 Fitness: 4 Error: 2 */
genomestart 63
trait 1 0.0992188 0 0.00516626 0 0 0 0 0 
trait 2 0.344896 0 0 0.358285 0 0.334349 0.0417633 0.529124 
trait 3 0.3 0 0 0 0 0 0 0 
node 1 1 1 3
node 2 3 1 1
node 3 3 1 1
node 4 2 0 2
node 5 1 0 0
node 16 1 0 0
node 39 1 0 0
node 50 1 0 0
node 119 1 0 0
gene 1 1 4 -0.542123 0 1 -0.542123 1
gene 1 2 4 0.531913 0 2 0.531913 0
gene 2 3 4 -7.04599 0 3 -7.04599 1
gene 3 2 5 1.05409 0 4 1.05409 0
gene 1 5 4 -8 0 5 -8 1
gene 1 2 16 -1.27035 0 29 -1.27035 1
gene 1 16 5 7.68843 0 30 7.68843 1
gene 1 16 39 3.43847 0 98 3.43847 0
gene 1 39 5 -5.56653 0 99 -5.56653 1
gene 1 5 50 2.35233 0 134 2.35233 1
gene 1 50 4 6.6677 0 135 6.6677 1
gene 2 1 16 -3.54741 0 247 -3.54741 1
gene 3 3 5 -0.103409 0 330 -0.103409 1
gene 2 3 50 1.9764 0 345 1.9764 1
gene 1 16 119 2.10781 0 361 2.10781 1
gene 1 119 39 1.9434 0 362 1.9434 1
gene 1 39 50 -2.08594 0 390 -2.08594 1
genomeend 63

/* Organism #64 Fitness: 4 Error: 2 */
genomestart 64
trait 1 0.0992188 0 0.00516626 0 0 0 0 0 
trait 2 0.344896 0 0 0.358285 0 0.334349 0.0417633 0.529124 
trait 3 0.3 0 0 0 0 0 0 0 
node 1 1 1 3
node 2 3 1 1
node 3 3 1 1
node 4 2 0 2
node 5 1 0 0
node 16 1 0 0
node 39 1 0 0
node 50 1 0 0
node 119 1 0 0
gene 1 1 4 -2.19999 0 1 -2.19999 1
gene 1 2 4 2.78389 0 2 2.78389 0
gene 2 3 4 -8 0 3 -8 1
gene 3 2 5 2.81168 0 4 2.81168 0
gene 1 5 4 -8 0 5 -8 1
gene 1 2 16 2.37469 0 29 2.37469 1
gene 1 16 5 8 0 30 8 1
gene 1 16 39 4.75192 0 98 4.75192 0
gene 1 39 5 -4.56033 0 99 -4.56033 1
gene 1 5 50 -0.812723 0 134 -0.812723 1
gene 1 50 4 6.6677 0 135 6.6677 1
gene 2 1 16 -3.61478 0 247 -3.61478 1
gene 3 3 5 1.46985 0 330 1.46985 1
gene 2 3 50 -0.677564 0 345 -0.677564 1
gene 1 16 119 3.76057 0 361 3.76057 1
gene 1 119 39 1.6961 0 362 1.6961 1
gene 1 39 50 -1.06435 0 390 -1.06435 1
genomeend 64

/* Species #14 : (Size 7) (AF 6.85491) (Age 24)  */


/* Organism #65 Fitness: 9 Error: 1 */
genomestart 65
trait 1 0.1 0 0 0 0 0 0 0 
trait 2 0.367088 0 0 0.413157 0 0.385555 0.0481595 0 
trait 3 0.3 0 0 0 0 0 0 0 
node 1 1 1 3
node 2 3 1 1
node 3 2 1 1
node 4 2 0 2
node 5 1 0 0
node 16 1 0 0
node 27 1 0 0
node 55 1 0 0
gene 1 1 4 -5.4461 0 1 -5.4461 1
gene 1 2 4 8 0 2 8 1
gene 3 3 4 -8 0 3 -8 1
gene 1 2 5 2.43168 0 4 2.43168 0
gene 1 5 4 0.877283 0 5 0.877283 0
gene 1 2 16 -3.03933 0 29 -3.03933 1
gene 2 16 5 6.45953 0 30 6.45953 1
gene 1 2 27 -2.66905 0 61 -2.66905 1
gene 1 27 16 -6.19564 0 62 -6.19564 1
gene 1 5 55 0.228266 0 150 0.228266 1
gene 1 55 4 2.19448 0 151 2.19448 1
gene 1 16 4 -1.77352 0 161 -1.77352 1
gene 1 3 5 -0.816027 0 398 -0.816027 1
genomeend 65

/* Organism #66 Fitness: 8.98679 Error: 1.0022 */
genomestart 66
trait 1 0.1 0 0 0 0 0 0 0 
trait 2 0.367088 0 0 0.413157 0 0.385555 0.0481595 0 
trait 3 0.3 0 0 0 0 0 0 0 
node 1 1 1 3
node 2 3 1 1
node 3 2 1 1
node 4 2 0 2
node 5 1 0 0
node 16 1 0 0
node 27 1 0 0
node 55 1 0 0
gene 1 1 4 -6.76504 0 1 -6.76504 1
gene 1 2 4 8 0 2 8 1
gene 3 3 4 -8 0 3 -8 1
gene 1 2 5 1.99169 0 4 1.99169 0
gene 1 5 4 -1.36798 0 5 -1.36798 0
gene 1 2 16 1.42523 0 29 1.42523 1
gene 2 16 5 6.87597 0 30 6.87597 1
gene 1 2 27 0.721098 0 61 0.721098 1
gene 1 27 16 -4.16368 0 62 -4.16368 1
gene 1 5 55 -1.42727 0 150 -1.42727 1
gene 1 55 4 0.244787 0 151 0.244787 1
gene 1 16 4 -4.08475 0 161 -4.08475 1
gene 1 3 5 0.929988 0 398 0.929988 1
genomeend 66

/* Organism #67 Fitness: 8.99994 Error: 1.00001 */
genomestart 67
trait 1 0.1 0 0 0 0 0 0 0 
trait 2 0.367088 0 0 0.413157 0 0.385555 0.0481595 0 
trait 3 0.3 0 0 0 0 0 0 0 
node 1 1 1 3
node 2 3 1 1
node 3 2 1 1
node 4 2 0 2
node 5 1 0 0
node 16 1 0 0
node 27 1 0 0
node 55 1 0 0
gene 1 1 4 -7.73249 0 1 -7.73249 1
gene 1 2 4 8 0 2 8 1
gene 3 3 4 -7.76945 0 3 -7.76945 1
gene 1 2 5 0.854464 0 4 0.854464 0
gene 1 5 4 3.06934 0 5 3.06934 0
gene 1 2 16 -4.08892 0 29 -4.08892 1
gene 2 16 5 7.48749 0 30 7.48749 1
gene 1 2 27 -0.689303 0 61 -0.689303 1
gene 1 27 16 -4.57694 0 62 -4.57694 1
gene 1 5 55 -1.64605 0 150 -1.64605 1
gene 1 55 4 2.07968 0 151 2.07968 1
gene 1 16 4 -0.859261 0 161 -0.859261 1
gene 1 3 5 -0.816027 0 398 -0.816027 1
gene 2 2 55 3.0719 0 422 3.0719 1
genomeend 67

/* Organism #68 Fitness: 4 Error: 2 */
genomestart 68
trait 1 0.1 0 0 0 0 0 0 0 
trait 2 0.367088 0 0 0.413157 0 0.385555 0.0481595 0 
trait 3 0.3 0 0 0 0 0 0 0 
node 1 1 1 3
node 2 3 1 1
node 3 2 1 1
node 4 2 0 2
node 5 1 0 0
node 16 1 0 0
node 27 1 0 0
node 55 1 0 0
gene 1 1 4 -4.95543 0 1 -4.95543 1
gene 1 2 4 0.255434 0 2 0.255434 1
gene 3 3 4 -7.22212 0 3 -7.22212 1
gene 1 2 5 1.25003 0 4 1.25003 0
gene 1 5 4 0.877283 0 5 0.877283 0
gene 1 2 16 1.58887 0 29 1.58887 1
gene 2 16 5 7.07297 0 30 7.07297 1
gene 1 2 27 -5.04242 0 61 -5.04242 1
gene 1 27 16 -4.68087 0 62 -4.68087 1
gene 1 5 55 -2.2107 0 150 -2.2107 1
gene 1 55 4 2.15474 0 151 2.15474 1
gene 1 16 4 -4.22833 0 161 -4.22833 1
gene 1 3 5 0.697623 0 398 0.697623 1
gene 2 2 55 1.10527 0 422 1.10527 1
genomeend 68

/* Organism #69 Fitness: 9 Error: 1 */
genomestart 69
trait 1 0.1 0 0 0 0 0 0 0 
trait 2 0.367088 0 0 0.413157 0 0.385555 0.0481595 0 
trait 3 0.3 0 0 0 0 0 0 0 
node 1 1 1 3
node 2 3 1 1
node 3 2 1 1
node 4 2 0 2
node 5 1 0 0
node 16 1 0 0
node 27 1 0 0
node 55 1 0 0
gene 1 1 4 -7.88058 0 1 -7.88058 1
gene 1 2 4 8 0 2 8 1
gene 3 3 4 -8 0 3 -8 1
gene 1 2 5 2.90742 0 4 2.90742 0
gene 2 5 4 0.865781 0 5 0.865781 0
gene 1 2 16 -2.61065 0 29 -2.61065 1
gene 2 16 5 6.62938 0 30 6.62938 1
gene 1 2 27 -2.40218 0 61 -2.40218 1
gene 1 27 16 -6.19493 0 62 -6.19493 1
gene 1 5 55 1.40779 0 150 1.40779 1
gene 1 55 4 3.5334 0 151 3.5334 1
gene 1 16 4 -0.917404 0 161 -0.917404 1
gene 1 3 5 0.867619 0 398 0.867619 1
gene 2 2 55 2.25668 0 422 2.25668 1
genomeend 69

/* Organism #70 Fitness: 3.99761 Error: 2.0006 */
genomestart 70
trait 1 0.1 0 0 0 0.771713 0 0 0 
trait 2 0.367088 0 0 0.413157 0 0.385555 0.0481595 0 
trait 3 0.3 0 0 0 0 0 0 0 
node 1 1 1 3
node 2 3 1 1
node 3 2 1 1
node 4 2 0 2
node 5 1 0 0
node 16 1 0 0
node 27 1 0 0
node 55 1 0 0
gene 1 1 4 -5.40755 0 1 -5.40755 1
gene 1 2 4 5.50572 0 2 5.50572 1
gene 3 3 4 1.45188 0 3 1.45188 1
gene 1 2 5 -1.60502 0 4 -1.60502 0
gene 1 5 4 2.94586 0 5 2.94586 0
gene 1 2 16 -3.03933 0 29 -3.03933 1
gene 2 16 5 4.73963 0 30 4.73963 1
gene 1 2 27 1.34243 0 61 1.34243 1
gene 1 27 16 -8 0 62 -8 1
gene 1 5 55 0.956296 0 150 0.956296 1
gene 1 55 4 1.53853 0 151 1.53853 1
gene 1 16 4 -2.39572 0 161 -2.39572 1
gene 1 3 5 -1.66245 0 398 -1.66245 1
genomeend 70

/* Organism #71 Fitness: 4 Error: 2 */
genomestart 71
trait 1 0.1 0 0 0 0 0 0 0 
trait 2 0.367088 0 0 0.413157 0 0.385555 0.0481595 0 
trait 3 0.3 0 0 0 0 0 0 0 
node 1 1 1 3
node 2 3 1 1
node 3 2 1 1
node 4 2 0 2
node 5 1 0 0
node 16 1 0 0
node 27 1 0 0
node 55 1 0 0
gene 1 1 4 -5.4461 0 1 -5.4461 1
gene 1 2 4 -1.09293 0 2 -1.09293 1
gene 3 3 4 -8 0 3 -8 1
gene 1 2 5 2.84096 0 4 2.84096 0
gene 1 5 4 1.01678 0 5 1.01678 0
gene 1 2 16 -0.675345 0 29 -0.675345 1
gene 2 16 5 6.45953 0 30 6.45953 1
gene 1 2 27 -3.99079 0 61 -3.99079 1
gene 1 27 16 -5.02393 0 62 -5.02393 1
gene 1 5 55 -0.812294 0 150 -0.812294 1
gene 1 55 4 -2.17278 0 151 -2.17278 1
gene 1 16 4 0.602182 0 161 0.602182 1
gene 1 3 5 -0.816027 0 398 -0.816027 1
genomeend 71

/* Species #15 : (Size 7) (AF 7.54791) (Age 23)  */


/* Organism #72 Fitness: 9 Error: 1 */
genomestart 72
trait 1 0.1 0 0 0 0 0 0 0 
trait 2 0 0.908503 0.194985 0 0 0 0 0.127768 
trait 3 0.60625 0 0.551797 0.320557 0 0.0174642 0 0 
node 1 3 1 3
node 2 2 1 1
node 3 3 1 1
node 4 2 0 2
node 20 1 0 0
node 59 1 0 0
gene 3 1 4 -3.95558 0 1 -3.95558 1
gene 1 2 4 -8 0 2 -8 1
gene 2 3 4 8 0 3 8 1
gene 2 3 20 3.59759 0 38 3.59759 1
gene 2 20 4 0.574596 0 39 0.574596 0
gene 2 2 20 -1.28073 0 115 -1.28073 1
gene 1 1 20 1.85161 0 132 1.85161 1
gene 2 2 59 -1.03772 0 165 -1.03772 1
gene 2 59 20 -3.51048 0 166 -3.51048 1
gene 2 3 59 -0.999643 0 331 -0.999643 1
genomeend 72

/* Organism #73 Fitness: 8.99994 Error: 1.00001 */
genomestart 73
trait 1 0.1 0 0 0 0 0 0 0 
trait 2 0 0.908503 0.194985 0 0 0 0 0.127768 
trait 3 0.60625 0 0.551797 0.320557 0 0.0174642 0 0 
node 1 3 1 3
node 2 3 1 1
node 3 3 1 1
node 4 2 0 2
node 20 1 0 0
node 59 1 0 0
gene 3 1 4 -2.48082 0 1 -2.48082 1
gene 1 2 4 -8 0 2 -8 1
gene 2 3 4 8 0 3 8 1
gene 2 3 20 2.22307 0 38 2.22307 1
gene 2 20 4 1.51465 0 39 1.51465 0
gene 2 2 20 0.672467 0 115 0.672467 1
gene 1 1 20 1.94373 0 132 1.94373 1
gene 2 2 59 -2.28009 0 165 -2.28009 1
gene 2 59 20 -5.12238 0 166 -5.12238 1
gene 2 3 59 -3.05767 0 331 -3.05767 1
genomeend 73

/* Organism #74 Fitness: 9 Error: 1 */
genomestart 74
trait 1 0.1 0 0 0 0 0 0 0 
trait 2 0 0.908503 0.194985 0 0 0 0 0.127768 
trait 3 0.60625 0 0.551797 0.320557 0 0.0174642 0 0 
node 1 3 1 3
node 2 2 1 1
node 3 3 1 1
node 4 2 0 2
node 20 1 0 0
node 59 1 0 0
gene 3 1 4 -3.95558 0 1 -3.95558 1
gene 1 2 4 -8 0 2 -8 1
gene 2 3 4 8 0 3 8 1
gene 2 3 20 3.59759 0 38 3.59759 1
gene 2 20 4 0.574596 0 39 0.574596 0
gene 2 2 20 -1.28073 0 115 -1.28073 1
gene 1 1 20 1.85161 0 132 1.85161 1
gene 2 2 59 -1.03772 0 165 -1.03772 1
gene 2 59 20 -3.51048 0 166 -3.51048 1
gene 2 3 59 -0.999643 0 331 -0.999643 1
genomeend 74

/* Organism #75 Fitness: 8.99909 Error: 1.00015 */
genomestart 75
trait 1 0.1 0 0 0 0 0 0 0 
trait 2 0 0.908503 0.194985 0 0 0 0 0.127768 
trait 3 0.60625 0 0.551797 0.320557 0 0.0174642 0 0 
node 1 3 1 3
node 2 2 1 1
node 3 3 1 1
node 4 2 0 2
node 20 1 0 0
node 59 1 0 0
gene 3 1 4 -1.86005 0 1 -1.86005 1
gene 1 2 4 -7.27974 0 2 -7.27974 1
gene 2 3 4 7.11502 0 3 7.11502 1
gene 2 3 20 5.65473 0 38 5.65473 1
gene 2 20 4 -0.433666 0 39 -0.433666 0
gene 2 2 20 0.336359 0 115 0.336359 1
gene 1 1 20 1.48867 0 132 1.48867 1
gene 2 2 59 -0.532545 0 165 -0.532545 1
gene 2 59 20 -4.05979 0 166 -4.05979 1
gene 2 3 59 0.269929 0 331 0.269929 1
genomeend 75

/* Organism #76 Fitness: 9 Error: 1 */
genomestart 76
trait 1 0.1 0 0 0 0 0 0 0 
trait 2 0 0.908503 0.194985 0 0 0 0 0.127768 
trait 3 0.60625 0 0.551797 0.320557 0 0.0174642 0 0 
node 1 3 1 3
node 2 2 1 1
node 3 3 1 1
node 4 2 0 2
node 20 1 0 0
node 59 1 0 0
gene 3 1 4 -3.95128 0 1 -3.95128 1
gene 1 2 4 -8 0 2 -8 1
gene 2 3 4 8 0 3 8 1
gene 2 3 20 2.39268 0 38 2.39268 1
gene 2 20 4 -0.915902 0 39 -0.915902 0
gene 2 2 20 -1.52167 0 115 -1.52167 1
gene 1 1 20 0.604247 0 132 0.604247 1
gene 2 2 59 1.85804 0 165 1.85804 1
gene 2 59 20 -5.64675 0 166 -5.64675 1
gene 2 3 59 -0.999643 0 331 -0.999643 1
genomeend 76

/* Organism #77 Fitness: 4.00038 Error: 1.9999 */
genomestart 77
trait 1 0.1 0 0 0 0 0 0 0 
trait 2 0 0.908503 0.194985 0 0 0 0 0.127768 
trait 3 0.60625 0 0.551797 0.320557 0 0.0174642 0 0 
node 1 3 1 3
node 2 2 1 1
node 3 3 1 1
node 4 1 0 2
node 20 1 0 0
node 59 1 0 0
gene 3 1 4 -2.42116 0 1 -2.42116 1
gene 1 2 4 0.556092 0 2 0.556092 1
gene 2 3 4 6.19654 0 3 6.19654 1
gene 2 3 20 1.16149 0 38 1.16149 1
gene 2 20 4 1.37235 0 39 1.37235 0
gene 2 2 20 -3.55366 0 115 -3.55366 1
gene 1 1 20 -0.194529 0 132 -0.194529 1
gene 2 2 59 0.696771 0 165 0.696771 1
gene 2 59 20 -3.69162 0 166 -3.69162 1
gene 2 3 59 0.935776 0 331 0.935776 1
genomeend 77

/* Organism #78 Fitness: 3.83597 Error: 2.04144 */
genomestart 78
trait 1 0.1 0 0 0 0 0 0 0 
trait 2 0 0.908503 0.194985 0 0 0 0 0.127768 
trait 3 0.60625 0 0.551797 0.320557 0 0.0174642 0 0 
node 1 3 1 3
node 2 2 1 1
node 3 3 1 1
node 4 2 0 2
node 20 1 0 0
node 59 1 0 0
gene 3 1 4 0.673286 0 1 0.673286 1
gene 1 2 4 -8 0 2 -8 1
gene 2 3 4 6.82082 0 3 6.82082 1
gene 2 3 20 3.34216 0 38 3.34216 1
gene 2 20 4 -1.13513 0 39 -1.13513 0
gene 2 2 20 -0.60441 0 115 -0.60441 1
gene 1 1 20 0.836335 0 132 0.836335 1
gene 2 2 59 -2.16488 0 165 -2.16488 1
gene 2 59 20 -2.72531 0 166 -2.72531 1
gene 2 3 59 -2.17769 0 331 -2.17769 1
genomeend 78

/* Species #16 : (Size 5) (AF 6.02346) (Age 21)  */


/* Organism #79 Fitness: 8.99991 Error: 1.00002 */
genomestart 79
trait 1 0.1 0 0 0 0 0 0 0 
trait 2 0 0.567331 0 0 0 0 0 0 
trait 3 0.15 0 0 0 0 0 0.219844 0.401179 
node 1 1 1 3
node 2 3 1 1
node 3 1 1 1
node 4 3 0 2
node 5 1 0 0
node 19 1 0 0
node 72 3 0 0
gene 3 1 4 -4.29239 0 1 -4.29239 1
gene 1 2 4 8 0 2 8 1
gene 2 3 4 6.70384 0 3 6.70384 1
gene 1 2 5 2.58141 0 4 2.58141 1
gene 1 5 4 -0.841335 0 5 -0.841335 1
gene 2 3 19 -0.505364 0 35 -0.505364 1
gene 2 19 4 2.39358 0 36 2.39358 1
gene 2 2 19 -1.39368 0 43 -1.39368 1
gene 1 5 19 0.321748 0 92 0.321748 1
gene 3 1 5 2.00343 0 184 2.00343 1
gene 1 2 72 5.83731 0 200 5.83731 1
gene 1 72 5 -3.34399 0 201 -3.34399 1
gene 3 3 5 5.37816 0 330 5.37816 1
genomeend 79

/* Organism #80 Fitness: 9 Error: 1 */
genomestart 80
trait 1 0.1 0 0 0 0 0 0 0 
trait 2 0 0.567331 0 0 0 0 0 0 
trait 3 0.15 0 0 0 0 0 0.219844 0.401179 
node 1 1 1 3
node 2 3 1 1
node 3 1 1 1
node 4 3 0 2
node 5 1 0 0
node 19 1 0 0
node 72 1 0 0
gene 3 1 4 -4.82127 0 1 -4.82127 1
gene 1 2 4 4.6761 0 2 4.6761 1
gene 2 3 4 8 0 3 8 1
gene 1 2 5 5.14721 0 4 5.14721 1
gene 1 5 4 5.45254 0 5 5.45254 1
gene 2 3 19 3.68867 0 35 3.68867 1
gene 2 19 4 -2.78922 0 36 -2.78922 1
gene 2 2 19 -2.05707 0 43 -2.05707 1
gene 1 5 19 -3.91634 0 92 -3.91634 1
gene 3 1 5 -0.858882 0 184 -0.858882 1
gene 1 2 72 4.76584 0 200 4.76584 1
gene 1 72 5 -3.40283 0 201 -3.40283 1
gene 3 3 5 3.39807 0 330 3.39807 1
genomeend 80

/* Organism #81 Fitness: 3.76011 Error: 2.0609 */
genomestart 81
trait 1 0.1 0 0 0 0 0 0 0 
trait 2 0 0.567331 0 0 0 0 0 0 
trait 3 0.15 0 0 0 0 0 0.219844 0.401179 
node 1 2 1 3
node 2 3 1 1
node 3 1 1 1
node 4 3 0 2
node 5 1 0 0
node 19 1 0 0
node 72 1 0 0
gene 3 1 4 -2.80774 0 1 -2.80774 1
gene 1 2 4 -2.02976 0 2 -2.02976 1
gene 2 3 4 8 0 3 8 1
gene 1 2 5 4.766 0 4 4.766 1
gene 1 5 4 8 0 5 8 1
gene 2 3 19 0.345225 0 35 0.345225 1
gene 2 19 4 -2.6942 0 36 -2.6942 1
gene 2 2 19 0.564582 0 43 0.564582 1
gene 1 5 19 0.12529 0 92 0.12529 1
gene 3 1 5 0.686697 0 184 0.686697 1
gene 1 2 72 4.46494 0 200 4.46494 1
gene 1 72 5 0.887695 0 201 0.887695 1
gene 3 3 5 -2.47473 0 330 -2.47473 1
genomeend 81

/* Organism #82 Fitness: 4.32433 Error: 1.9205 */
genomestart 82
trait 1 0.1 0 0 0 0 0 0 0 
trait 2 0 0.567331 0 0 0 0 0 0 
trait 3 0.15 0 0 0 0 0 0.219844 0.401179 
node 1 1 1 3
node 2 3 1 1
node 3 1 1 1
node 4 3 0 2
node 5 1 0 0
node 19 1 0 0
node 72 1 0 0
gene 3 1 4 -6.91727 0 1 -6.91727 1
gene 1 2 4 -0.945797 0 2 -0.945797 1
gene 2 3 4 -1.15192 0 3 -1.15192 1
gene 1 2 5 1.89509 0 4 1.89509 1
gene 1 5 4 8 0 5 8 1
gene 2 3 19 0.778176 0 35 0.778176 1
gene 1 19 4 1.84751 0 36 1.84751 1
gene 2 2 19 -2.37279 0 43 -2.37279 1
gene 1 5 19 -2.66271 0 92 -2.66271 1
gene 3 1 5 0.884713 0 184 0.884713 1
gene 1 2 72 5.8409 0 200 5.8409 1
gene 1 72 5 -0.00044 0 201 -0.00044 1
gene 3 3 5 4.85148 0 330 4.85148 1
genomeend 82

/* Organism #83 Fitness: 4.03295 Error: 1.99178 */
genomestart 83
trait 1 0.1 0 0 0 0 0 0 0 
trait 2 0 0.567331 0 0 0 0 0 0 
trait 3 0.15 0 0 0 0 0 0.219844 0.401179 
node 1 2 1 3
node 2 3 1 1
node 3 1 1 1
node 4 3 0 2
node 5 1 0 0
node 19 1 0 0
node 72 1 0 0
gene 3 1 4 -1.71781 0 1 -1.71781 1
gene 1 2 4 4.85265 0 2 4.85265 1
gene 2 3 4 8 0 3 8 1
gene 1 2 5 5.08116 0 4 5.08116 1
gene 1 5 4 7.86334 0 5 7.86334 1
gene 2 3 19 0.0259402 0 35 0.0259402 1
gene 2 19 4 -2.04019 0 36 -2.04019 1
gene 2 2 19 -0.548125 0 43 -0.548125 1
gene 1 5 19 -2.39667 0 92 -2.39667 1
gene 3 1 5 0.0265333 0 184 0.0265333 1
gene 1 2 72 5.81497 0 200 5.81497 1
gene 1 72 5 -0.310735 0 201 -0.310735 1
gene 3 3 5 3.01904 0 330 3.01904 1
genomeend 83

/* Species #17 : (Size 7) (AF 8.28451) (Age 21)  */


/* Organism #84 Fitness: 9 Error: 1 */
genomestart 84
trait 1 0.1 0 0 0 0 0 0 0 
trait 2 0.2 0.824434 0.852644 0 0.0534818 0.408203 0.973737 1 
trait 3 0.5625 0 0.15211 0.33425 0 0.0349285 0 0 
node 1 3 1 3
node 2 1 1 1
node 3 3 1 1
node 4 2 0 2
node 20 3 0 0
node 68 1 0 0
node 74 1 0 0
gene 3 1 4 2.8385 0 1 2.8385 1
gene 3 2 4 -4.7761 0 2 -4.7761 1
gene 2 3 4 8 0 3 8 1
gene 2 3 20 -4.87377 0 38 -4.87377 1
gene 2 20 4 -7.71825 0 39 -7.71825 1
gene 2 2 20 5.54348 0 115 5.54348 1
gene 1 1 20 4.49065 0 132 4.49065 1
gene 2 2 68 0.968936 0 191 0.968936 1
gene 2 68 20 -0.122374 0 192 -0.122374 0
gene 2 68 74 0.768469 0 208 0.768469 1
gene 2 74 20 3.67494 0 209 3.67494 0
gene 1 68 4 -5.88215 0 251 -5.88215 1
genomeend 84

/* Organism #85 Fitness: 8.99155 Error: 1.00141 */
genomestart 85
trait 1 0.1 0 0 0 0 0 0 0 
trait 2 0.2 0.824434 0.852644 0 0.0534818 0.408203 0.973737 1 
trait 3 0.5625 0 0.15211 0.33425 0 0.0349285 0 0 
node 1 3 1 3
node 2 1 1 1
node 3 3 1 1
node 4 2 0 2
node 20 3 0 0
node 68 1 0 0
node 74 1 0 0
gene 3 1 4 4.41015 0 1 4.41015 1
gene 3 2 4 -3.4099 0 2 -3.4099 1
gene 2 3 4 8 0 3 8 1
gene 2 3 20 -7.25044 0 38 -7.25044 1
gene 2 20 4 -6.13798 0 39 -6.13798 1
gene 2 2 20 7.60262 0 115 7.60262 1
gene 1 1 20 6.57179 0 132 6.57179 1
gene 2 2 68 0.179083 0 191 0.179083 1
gene 2 68 20 0.189336 0 192 0.189336 0
gene 2 68 74 2.53832 0 208 2.53832 1
gene 2 74 20 2.91167 0 209 2.91167 0
gene 1 68 4 -5.93201 0 251 -5.93201 1
genomeend 85

/* Organism #86 Fitness: 4 Error: 2 */
genomestart 86
trait 1 0.1 0 0 0 0 0 0 0 
trait 2 0.2 0.824434 0.852644 0 0.0534818 0.408203 0.973737 1 
trait 3 0.5625 0 0.15211 0.33425 0 0.0349285 0 0 
node 1 3 1 3
node 2 1 1 1
node 3 3 1 1
node 4 2 0 2
node 20 3 0 0
node 68 1 0 0
node 74 1 0 0
gene 3 1 4 2.27649 0 1 2.27649 1
gene 3 2 4 -5.7894 0 2 -5.7894 1
gene 2 3 4 7.56789 0 3 7.56789 1
gene 2 3 20 -3.74971 0 38 -3.74971 1
gene 2 20 4 -7.26365 0 39 -7.26365 1
gene 2 2 20 4.47039 0 115 4.47039 1
gene 1 1 20 -1.48886 0 132 -1.48886 1
gene 2 2 68 -0.268717 0 191 -0.268717 1
gene 2 68 20 -2.51785 0 192 -2.51785 0
gene 2 68 74 0.914621 0 208 0.914621 1
gene 2 74 20 3.27517 0 209 3.27517 1
gene 1 68 4 -5.01643 0 251 -5.01643 1
gene 2 2 74 -1.13774 0 423 -1.13774 1
genomeend 86

/* Organism #87 Fitness: 9 Error: 1 */
genomestart 87
trait 1 0.1 0 0 0 0 0 0 0 
trait 2 0.2 0.824434 0.852644 0 0.0534818 0.408203 0.973737 1 
trait 3 0.5625 0 0.15211 0.33425 0 0.0349285 0 0 
node 1 3 1 3
node 2 1 1 1
node 3 3 1 1
node 4 2 0 2
node 20 3 0 0
node 68 1 0 0
node 74 1 0 0
gene 3 1 4 1.1697 0 1 1.1697 1
gene 3 2 4 -3.25341 0 2 -3.25341 1
gene 2 3 4 7.56975 0 3 7.56975 1
gene 2 3 20 -7.09129 0 38 -7.09129 1
gene 2 20 4 -5.4453 0 39 -5.4453 1
gene 2 2 20 7.25176 0 115 7.25176 1
gene 1 1 20 6.36689 0 132 6.36689 1
gene 2 2 68 0.448032 0 191 0.448032 1
gene 2 68 20 -2.6071 0 192 -2.6071 0
gene 2 68 74 2.32915 0 208 2.32915 1
gene 2 74 20 5.66588 0 209 5.66588 0
gene 1 68 4 -3.66059 0 251 -3.66059 1
genomeend 87

/* Organism #88 Fitness: 9 Error: 1 */
genomestart 88
trait 1 0.1 0 0 0 0 0 0 0 
trait 2 0.2 0.824434 0.852644 0 0.0534818 0.408203 0.973737 1 
trait 3 0.5625 0 0.15211 0.33425 0 0.0349285 0 0 
node 1 3 1 3
node 2 1 1 1
node 3 3 1 1
node 4 2 0 2
node 20 3 0 0
node 68 1 0 0
node 74 1 0 0
gene 3 1 4 2.97471 0 1 2.97471 1
gene 3 2 4 -5.12302 0 2 -5.12302 1
gene 2 3 4 8 0 3 8 1
gene 2 3 20 -4.03584 0 38 -4.03584 1
gene 2 20 4 -7.2061 0 39 -7.2061 1
gene 2 2 20 6.19259 0 115 6.19259 1
gene 1 1 20 0.673885 0 132 0.673885 1
gene 2 2 68 0.968936 0 191 0.968936 1
gene 2 68 20 2.28425 0 192 2.28425 0
gene 2 68 74 0.768469 0 208 0.768469 1
gene 2 74 20 1.77147 0 209 1.77147 0
gene 1 68 4 -6.73169 0 251 -6.73169 1
genomeend 88

/* Organism #89 Fitness: 9 Error: 1 */
genomestart 89
trait 1 0.1 0 0 0 0 0 0 0 
trait 2 0.2 0.824434 0.852644 0 0.0534818 0.408203 0.973737 1 
trait 3 0.5625 0 0.15211 0.33425 0 0.0349285 0 0 
node 1 3 1 3
node 2 1 1 1
node 3 3 1 1
node 4 2 0 2
node 20 3 0 0
node 68 1 0 0
node 74 1 0 0
gene 3 1 4 0.371315 0 1 0.371315 1
gene 3 2 4 -5.34439 0 2 -5.34439 1
gene 2 3 4 7.00066 0 3 7.00066 1
gene 2 3 20 -4.53512 0 38 -4.53512 1
gene 2 20 4 -8 0 39 -8 1
gene 2 2 20 7.48089 0 115 7.48089 1
gene 1 1 20 0.945427 0 132 0.945427 1
gene 2 2 68 2.72341 0 191 2.72341 1
gene 2 68 20 2.34227 0 192 2.34227 0
gene 2 68 74 -0.105867 0 208 -0.105867 1
gene 2 74 20 -1.11461 0 209 -1.11461 0
gene 1 68 4 2.48875 0 251 2.48875 1
gene 2 2 74 -1.52127 0 423 -1.52127 1
genomeend 89

/* Organism #90 Fitness: 9 Error: 1 */
genomestart 90
trait 1 0.1 0 0 0 0 0 0 0 
trait 2 0.2 0.824434 0.852644 0 0.0534818 0.408203 0.973737 1 
trait 3 0.5625 0 0.15211 0.33425 0 0.0349285 0 0 
node 1 3 1 3
node 2 1 1 1
node 3 3 1 1
node 4 2 0 2
node 20 3 0 0
node 68 1 0 0
node 74 1 0 0
gene 3 1 4 2.61891 0 1 2.61891 1
gene 3 2 4 -3.34928 0 2 -3.34928 1
gene 2 3 4 8 0 3 8 1
gene 2 3 20 -7.06846 0 38 -7.06846 1
gene 2 20 4 -5.29531 0 39 -5.29531 1
gene 2 2 20 6.58803 0 115 6.58803 1
gene 1 1 20 3.53162 0 132 3.53162 1
gene 2 2 68 2.13993 0 191 2.13993 1
gene 2 68 20 -1.65757 0 192 -1.65757 0
gene 2 68 74 0.825226 0 208 0.825226 1
gene 2 74 20 3.67494 0 209 3.67494 0
gene 1 68 4 -5.88215 0 251 -5.88215 1
genomeend 90

/* Species #18 : (Size 6) (AF 7.5761) (Age 21)  */


/* Organism #91 Fitness: 8.99996 Error: 1.00001 */
genomestart 91
trait 1 0.1 0 0 0 0 0 0 0 
trait 2 0.367088 0 0 0.413157 0 0.385555 0.0481595 0 
trait 3 0.3 0 0 0 0 0 0 0 
node 1 1 1 3
node 2 3 1 1
node 3 3 1 1
node 4 2 0 2
node 5 1 0 0
node 16 1 0 0
node 27 2 0 0
node 55 1 0 0
node 62 1 0 0
node 121 1 0 0
gene 1 1 4 0.151611 0 1 0.151611 1
gene 1 2 4 7.94969 0 2 7.94969 1
gene 2 3 4 5.70442 0 3 5.70442 1
gene 1 2 5 5.13129 0 4 5.13129 1
gene 1 5 4 1.38791 0 5 1.38791 0
gene 1 2 16 2.52737 0 29 2.52737 1
gene 1 16 5 -2.05246 0 30 -2.05246 1
gene 1 2 27 -6.58168 0 61 -6.58168 1
gene 1 27 16 0.870981 0 62 0.870981 1
gene 1 5 55 1.34811 0 150 1.34811 0
gene 1 55 4 -1.40575 0 151 -1.40575 1
gene 1 16 4 -3.93226 0 161 -3.93226 1
gene 1 2 62 -0.184978 0 176 -0.184978 1
gene 1 62 5 2.37441 0 177 2.37441 1
gene 3 62 16 -0.723224 0 254 -0.723224 1
gene 1 5 121 -0.236533 0 365 -0.236533 1
gene 1 121 55 0.697533 0 366 0.697533 1
genomeend 91

/* Organism #92 Fitness: 4 Error: 2 */
genomestart 92
trait 1 0.1 0 0 0 0 0 0 0 
trait 2 0.367088 0 0 0.413157 0 0.385555 0.0481595 0 
trait 3 0.3 0 0 0 0 0 0 0 
node 1 1 1 3
node 2 3 1 1
node 3 3 1 1
node 4 2 0 2
node 5 1 0 0
node 16 1 0 0
node 27 1 0 0
node 55 1 0 0
node 62 1 0 0
node 121 1 0 0
node 140 1 0 0
gene 1 1 4 2.23855 0 1 2.23855 1
gene 1 2 4 7.94969 0 2 7.94969 1
gene 2 3 4 5.70442 0 3 5.70442 1
gene 1 2 5 5.75227 0 4 5.75227 1
gene 1 5 4 2.75471 0 5 2.75471 0
gene 1 2 16 0.204794 0 29 0.204794 1
gene 1 16 5 -2.6337 0 30 -2.6337 0
gene 2 2 27 -8 0 61 -8 1
gene 1 27 16 1.36215 0 62 1.36215 1
gene 1 5 55 0.430771 0 150 0.430771 0
gene 1 55 4 2.31239 0 151 2.31239 1
gene 1 16 4 -1.47725 0 161 -1.47725 1
gene 1 2 62 1.25392 0 176 1.25392 1
gene 1 62 5 0.455515 0 177 0.455515 1
gene 3 62 16 -3.07459 0 254 -3.07459 1
gene 1 5 121 -0.909576 0 365 -0.909576 1
gene 1 121 55 -0.504464 0 366 -0.504464 1
gene 1 16 140 1 0 424 1 1
gene 1 140 5 -1.52754 0 425 -1.52754 1
genomeend 92

/* Organism #93 Fitness: 7.27878 Error: 1.30208 */
genomestart 93
trait 1 0.1 0 0 0 0 0 0 0 
trait 2 0.367088 0 0 0.413157 0 0.385555 0.0481595 0 
trait 3 0.3 0 0 0 0 0 0 0 
node 1 1 1 3
node 2 3 1 1
node 3 3 1 1
node 4 2 0 2
node 5 1 0 0
node 16 1 0 0
node 27 2 0 0
node 55 1 0 0
node 62 1 0 0
node 121 1 0 0
gene 1 1 4 1.35125 0 1 1.35125 1
gene 1 2 4 1.67067 0 2 1.67067 1
gene 2 3 4 3.32382 0 3 3.32382 1
gene 1 2 5 3.52927 0 4 3.52927 1
gene 1 5 4 0.686181 0 5 0.686181 0
gene 1 2 16 0.525067 0 29 0.525067 1
gene 1 16 5 -3.13745 0 30 -3.13745 1
gene 1 2 27 -6.98424 0 61 -6.98424 1
gene 1 27 16 0.446188 0 62 0.446188 1
gene 1 5 55 3.48131 0 150 3.48131 0
gene 1 55 4 -1.40575 0 151 -1.40575 1
gene 1 16 4 -6.26185 0 161 -6.26185 1
gene 1 2 62 -2.23286 0 176 -2.23286 1
gene 1 62 5 1.02463 0 177 1.02463 1
gene 3 62 16 -0.636569 0 254 -0.636569 1
gene 1 5 121 -1.66807 0 365 -1.66807 1
gene 1 121 55 1.58642 0 366 1.58642 1
genomeend 93

/* Organism #94 Fitness: 9 Error: 1 */
genomestart 94
trait 1 0.1 0 0 0 0 0 0 0 
trait 2 0.367088 0 0 0.413157 0 0.385555 0.0481595 0 
trait 3 0.3 0 0 0 0 0 0 0 
node 1 1 1 3
node 2 3 1 1
node 3 3 1 1
node 4 2 0 2
node 5 1 0 0
node 16 1 0 0
node 27 2 0 0
node 55 1 0 0
node 62 1 0 0
node 121 1 0 0
gene 1 1 4 -2.10213 0 1 -2.10213 1
gene 1 2 4 8 0 2 8 1
gene 2 3 4 6.94278 0 3 6.94278 1
gene 1 2 5 4.53317 0 4 4.53317 1
gene 1 5 4 3.12335 0 5 3.12335 0
gene 1 2 16 0.149421 0 29 0.149421 1
gene 1 16 5 -4.1103 0 30 -4.1103 1
gene 1 2 27 -6.63693 0 61 -6.63693 1
gene 1 27 16 -0.224738 0 62 -0.224738 1
gene 1 5 55 0.135068 0 150 0.135068 0
gene 1 55 4 -0.388385 0 151 -0.388385 1
gene 1 16 4 -5.76329 0 161 -5.76329 1
gene 1 2 62 1.03944 0 176 1.03944 1
gene 1 62 5 4.62788 0 177 4.62788 1
gene 3 62 16 -0.723224 0 254 -0.723224 1
gene 1 5 121 -0.236533 0 365 -0.236533 1
gene 1 121 55 1.29698 0 366 1.29698 1
genomeend 94

/* Organism #95 Fitness: 8.96386 Error: 1.00603 */
genomestart 95
trait 1 0.1 0 0 0 0 0 0 0 
trait 2 0.367088 0 0 0.413157 0 0.385555 0.0481595 0 
trait 3 0.3 0 0 0 0 0 0 0 
node 1 1 1 3
node 2 3 1 1
node 3 3 1 1
node 4 2 0 2
node 5 1 0 0
node 16 1 0 0
node 27 2 0 0
node 55 1 0 0
node 62 1 0 0
node 121 1 0 0
gene 1 1 4 0.171078 0 1 0.171078 1
gene 1 2 4 6.22366 0 2 6.22366 1
gene 2 3 4 4.94186 0 3 4.94186 1
gene 1 2 5 3.84462 0 4 3.84462 1
gene 1 5 4 2.40741 0 5 2.40741 0
gene 1 2 16 2.85794 0 29 2.85794 1
gene 1 16 5 -1.65919 0 30 -1.65919 0
gene 1 2 27 -6.58168 0 61 -6.58168 1
gene 1 27 16 2.65682 0 62 2.65682 1
gene 1 5 55 2.69272 0 150 2.69272 0
gene 1 55 4 -3.07887 0 151 -3.07887 1
gene 1 16 4 -3.10083 0 161 -3.10083 1
gene 1 2 62 -2.38057 0 176 -2.38057 1
gene 1 62 5 2.22825 0 177 2.22825 1
gene 3 62 16 -2.0516 0 254 -2.0516 1
gene 1 5 121 -2.30416 0 365 -2.30416 1
gene 1 121 55 1.98662 0 366 1.98662 1
genomeend 95

/* Organism #96 Fitness: 7.21396 Error: 1.31412 */
genomestart 96
trait 1 0.1 0 0 0 0 0 0 0 
trait 2 0.367088 0 0 0.413157 0 0.385555 0.0481595 0 
trait 3 0.3 0 0 0 0 0 0 0 
node 1 1 1 3
node 2 3 1 1
node 3 3 1 1
node 4 2 0 2
node 5 1 0 0
node 16 1 0 0
node 27 2 0 0
node 55 1 0 0
node 62 1 0 0
node 121 1 0 0
gene 1 1 4 -1.51493 0 1 -1.51493 1
gene 1 2 4 7.12124 0 2 7.12124 1
gene 2 3 4 8 0 3 8 1
gene 1 2 5 3.92372 0 4 3.92372 1
gene 1 5 4 0.422884 0 5 0.422884 0
gene 1 2 16 1.79213 0 29 1.79213 1
gene 1 16 5 -0.966568 0 30 -0.966568 1
gene 1 2 27 -5.45482 0 61 -5.45482 1
gene 1 27 16 1.4525 0 62 1.4525 1
gene 1 5 55 1.29534 0 150 1.29534 0
gene 1 55 4 0.240405 0 151 0.240405 1
gene 1 16 4 -5.68318 0 161 -5.68318 1
gene 1 2 62 -2.15298 0 176 -2.15298 1
gene 1 62 5 1.70177 0 177 1.70177 1
gene 3 62 16 1.75853 0 254 1.75853 1
gene 1 5 121 1.71302 0 365 1.71302 1
gene 1 121 55 1.37752 0 366 1.37752 1
genomeend 96

/* Species #19 : (Size 8) (AF 8.72028) (Age 17)  */


/* Organism #97 Fitness: 9 Error: 1 */
genomestart 97
trait 1 0.1 0 0.0565375 0 0.115741 0.185949 0 0 
trait 2 0.2 0.456892 0 0 0.106414 0 0 0.868139 
trait 3 0.5625 0 0.15211 0.33425 0 0.132921 0 0.37505 
node 1 3 1 3
node 2 1 1 1
node 3 2 1 1
node 4 2 0 2
node 20 1 0 0
node 68 1 0 0
node 74 1 0 0
node 88 1 0 0
gene 3 1 4 -2.72466 0 1 -2.72466 1
gene 3 2 4 -6.48032 0 2 -6.48032 1
gene 2 3 4 8 0 3 8 1
gene 2 3 20 -7.46579 0 38 -7.46579 1
gene 2 20 4 -8 0 39 -8 1
gene 2 2 20 7.43754 0 115 7.43754 1
gene 1 1 20 -0.114691 0 132 -0.114691 1
gene 2 2 68 -2.45633 0 191 -2.45633 1
gene 2 68 20 3.6328 0 192 3.6328 0
gene 2 68 74 -3.40489 0 208 -3.40489 1
gene 2 74 20 2.76962 0 209 2.76962 0
gene 2 74 88 -1.02104 0 252 -1.02104 1
gene 2 88 20 2.26644 0 253 2.26644 1
gene 2 88 4 1.44316 0 323 1.44316 1
gene 2 3 88 1.15162 0 367 1.15162 1
genomeend 97

/* Organism #98 Fitness: 6.76223 Error: 1.39957 */
genomestart 98
trait 1 0.1 0 0.0565375 0 0.115741 0.185949 0 0 
trait 2 0.2 0.456892 0 0 0.106414 0 0 0.868139 
trait 3 0.5625 0 0.15211 0.33425 0 0.132921 0 0.37505 
node 1 3 1 3
node 2 1 1 1
node 3 2 1 1
node 4 2 0 2
node 20 1 0 0
node 68 1 0 0
node 74 1 0 0
node 88 1 0 0
gene 3 1 4 -0.822208 0 1 -0.822208 1
gene 3 2 4 -8 0 2 -8 1
gene 2 3 4 7.04819 0 3 7.04819 1
gene 2 3 20 -8 0 38 -8 1
gene 2 20 4 -6.47794 0 39 -6.47794 1
gene 2 2 20 8 0 115 8 1
gene 1 1 20 -1.21687 0 132 -1.21687 1
gene 2 2 68 -3.14569 0 191 -3.14569 1
gene 2 68 20 1.15147 0 192 1.15147 0
gene 2 68 74 -1.6468 0 208 -1.6468 1
gene 2 74 20 3.70199 0 209 3.70199 0
gene 2 74 88 1.06584 0 252 1.06584 1
gene 2 88 20 0.167099 0 253 0.167099 1
gene 2 88 4 1.44316 0 323 1.44316 1
gene 2 3 88 -0.42435 0 367 -0.42435 1
genomeend 98

/* Organism #99 Fitness: 9 Error: 1 */
genomestart 99
trait 1 0.1 0 0.0565375 0 0.115741 0.185949 0 0 
trait 2 0.2 0.456892 0 0 0.106414 0 0 0.868139 
trait 3 0.5625 0 0.15211 0.33425 0 0.132921 0 0.37505 
node 1 3 1 3
node 2 1 1 1
node 3 2 1 1
node 4 2 0 2
node 20 1 0 0
node 68 1 0 0
node 74 1 0 0
node 88 1 0 0
gene 3 1 4 -4.89546 0 1 -4.89546 1
gene 3 2 4 -6.88073 0 2 -6.88073 1
gene 2 3 4 8 0 3 8 1
gene 2 3 20 -8 0 38 -8 1
gene 2 20 4 -8 0 39 -8 1
gene 2 2 20 8 0 115 8 1
gene 1 1 20 -1.88658 0 132 -1.88658 1
gene 2 2 68 -3.6019 0 191 -3.6019 1
gene 2 68 20 5.4749 0 192 5.4749 0
gene 2 68 74 -4.07754 0 208 -4.07754 1
gene 2 74 20 1.11266 0 209 1.11266 0
gene 2 74 88 1.34466 0 252 1.34466 1
gene 2 88 20 0.797235 0 253 0.797235 1
gene 2 88 4 0.964472 0 323 0.964472 1
gene 2 3 88 0.353856 0 367 0.353856 1
gene 1 3 74 0.481471 0 428 0.481471 1
genomeend 99

/* Organism #100 Fitness: 9 Error: 1 */
genomestart 100
trait 1 0.1 0 0.0565375 0 0.115741 0.185949 0 0 
trait 2 0.2 0.456892 0 0 0.106414 0 0 0.868139 
trait 3 0.5625 0 0.15211 0.33425 0 0.132921 0 0.37505 
node 1 3 1 3
node 2 1 1 1
node 3 2 1 1
node 4 2 0 2
node 20 1 0 0
node 68 1 0 0
node 74 1 0 0
node 88 1 0 0
gene 3 1 4 -0.356507 0 1 -0.356507 1
gene 3 2 4 -6.4793 0 2 -6.4793 1
gene 2 3 4 7.56241 0 3 7.56241 1
gene 2 3 20 -7.97205 0 38 -7.97205 1
gene 2 20 4 -7.55555 0 39 -7.55555 1
gene 2 2 20 7.86649 0 115 7.86649 1
gene 1 1 20 0.326329 0 132 0.326329 1
gene 2 2 68 -3.00605 0 191 -3.00605 1
gene 2 68 20 5.40014 0 192 5.40014 0
gene 2 68 74 -1.23982 0 208 -1.23982 1
gene 2 74 20 2.53021 0 209 2.53021 0
gene 2 74 88 -0.276923 0 252 -0.276923 1
gene 2 88 20 -0.000775082 0 253 -0.000775082 1
gene 2 88 4 1.63932 0 323 1.63932 1
gene 2 3 88 -0.192505 0 367 -0.192505 1
genomeend 100

/* Organism #101 Fitness: 9 Error: 1 */
genomestart 101
trait 1 0.1 0 0.0565375 0 0.115741 0.185949 0 0 
trait 2 0.2 0.456892 0 0 0.106414 0 0 0.868139 
trait 3 0.5625 0 0.15211 0.33425 0 0.132921 0 0.37505 
node 1 3 1 3
node 2 1 1 1
node 3 2 1 1
node 4 2 0 2
node 20 1 0 0
node 68 1 0 0
node 74 1 0 0
node 88 1 0 0
gene 3 1 4 -3.70274 0 1 -3.70274 1
gene 3 2 4 -8 0 2 -8 1
gene 2 3 4 6.7671 0 3 6.7671 1
gene 2 3 20 -6.96694 0 38 -6.96694 1
gene 2 20 4 -2.36747 0 39 -2.36747 1
gene 2 2 20 7.43754 0 115 7.43754 1
gene 1 1 20 1.63837 0 132 1.63837 1
gene 2 2 68 -1.6135 0 191 -1.6135 1
gene 2 68 20 3.76156 0 192 3.76156 0
gene 2 68 74 -4.1637 0 208 -4.1637 1
gene 2 74 20 2.76962 0 209 2.76962 0
gene 2 74 88 1.12049 0 252 1.12049 1
gene 2 88 20 -1.50344 0 253 -1.50344 1
gene 2 88 4 3.77969 0 323 3.77969 1
gene 2 3 88 3.18594 0 367 3.18594 1
genomeend 101

/* Organism #102 Fitness: 9 Error: 1 */
genomestart 102
trait 1 0.1 0 0.0565375 0 0.115741 0.185949 0 0 
trait 2 0.2 0.456892 0 0 0.106414 0 0 0.868139 
trait 3 0.5625 0 0.15211 0.33425 0 0.132921 0 0.37505 
node 1 3 1 3
node 2 1 1 1
node 3 2 1 1
node 4 2 0 2
node 20 1 0 0
node 68 1 0 0
node 74 1 0 0
node 88 1 0 0
gene 3 1 4 -2.72466 0 1 -2.72466 1
gene 3 2 4 -6.48032 0 2 -6.48032 1
gene 2 3 4 8 0 3 8 1
gene 2 3 20 -7.46579 0 38 -7.46579 1
gene 2 20 4 -8 0 39 -8 1
gene 2 2 20 7.43754 0 115 7.43754 1
gene 1 1 20 -0.114691 0 132 -0.114691 1
gene 2 2 68 -2.45633 0 191 -2.45633 1
gene 2 68 20 3.6328 0 192 3.6328 0
gene 2 68 74 -3.40489 0 208 -3.40489 1
gene 2 74 20 2.76962 0 209 2.76962 0
gene 2 74 88 -1.02104 0 252 -1.02104 1
gene 2 88 20 2.26644 0 253 2.26644 1
gene 2 88 4 1.44316 0 323 1.44316 1
gene 2 3 88 1.15162 0 367 1.15162 1
genomeend 102

/* Organism #103 Fitness: 9 Error: 1 */
genomestart 103
trait 1 0.1 0 0.0565375 0 0.115741 0.185949 0 0 
trait 2 0.2 0.456892 0 0 0.106414 0 0 0.868139 
trait 3 0.5625 0 0.15211 0.33425 0 0.132921 0 0.37505 
node 1 3 1 3
node 2 1 1 1
node 3 2 1 1
node 4 2 0 2
node 20 1 0 0
node 68 1 0 0
node 74 1 0 0
node 88 1 0 0
gene 3 1 4 -2.72466 0 1 -2.72466 1
gene 3 2 4 -6.48032 0 2 -6.48032 1
gene 2 3 4 8 0 3 8 1
gene 2 3 20 -7.46579 0 38 -7.46579 1
gene 2 20 4 -8 0 39 -8 1
gene 2 2 20 7.43754 0 115 7.43754 1
gene 1 1 20 -0.114691 0 132 -0.114691 1
gene 2 2 68 -2.45633 0 191 -2.45633 1
gene 2 68 20 3.6328 0 192 3.6328 0
gene 2 68 74 -3.40489 0 208 -3.40489 1
gene 2 74 20 2.76962 0 209 2.76962 0
gene 2 74 88 -1.02104 0 252 -1.02104 1
gene 2 88 20 2.26644 0 253 2.26644 1
gene 2 88 4 1.44316 0 323 1.44316 1
gene 2 3 88 1.15162 0 367 1.15162 1
genomeend 103

/* Organism #104 Fitness: 9 Error: 1 */
genomestart 104
trait 1 0.1 0 0.0565375 0 0.115741 0.185949 0 0 
trait 2 0.2 0.456892 0 0 0.106414 0 0 0.868139 
trait 3 0.5625 0 0.15211 0.33425 0 0.132921 0 0.37505 
node 1 3 1 3
node 2 1 1 1
node 3 2 1 1
node 4 2 0 2
node 20 1 0 0
node 68 1 0 0
node 74 1 0 0
node 88 1 0 0
gene 1 1 4 -2.72466 0 1 -2.72466 1
gene 3 2 4 -6.48032 0 2 -6.48032 1
gene 2 3 4 8 0 3 8 1
gene 2 3 20 -7.46579 0 38 -7.46579 1
gene 2 20 4 -8 0 39 -8 1
gene 2 2 20 7.43754 0 115 7.43754 1
gene 1 1 20 -0.114691 0 132 -0.114691 1
gene 2 2 68 -2.45633 0 191 -2.45633 1
gene 2 68 20 3.6328 0 192 3.6328 0
gene 2 68 74 -3.40489 0 208 -3.40489 1
gene 2 74 20 2.76962 0 209 2.76962 0
gene 2 74 88 -1.02104 0 252 -1.02104 1
gene 2 88 20 2.26644 0 253 2.26644 1
gene 2 88 4 1.44316 0 323 1.44316 1
gene 2 3 88 1.15162 0 367 1.15162 1
genomeend 104

/* Species #20 : (Size 8) (AF 7.26849) (Age 16)  */


/* Organism #105 Fitness: 9 Error: 1 */
genomestart 105
trait 1 0.1 0 0 0 0 0 0 0 
trait 2 0.19375 0 0 0.0219698 0.0260332 0 0 0 
trait 3 0.475 0 0.101407 0.222834 0 0.0349285 0 0 
node 1 3 1 3
node 2 1 1 1
node 3 3 1 1
node 4 2 0 2
node 20 1 0 0
node 134 1 0 0
gene 3 1 4 -3.99534 0 1 -3.99534 1
gene 3 2 4 -7.98205 0 2 -7.98205 1
gene 2 3 4 8 0 3 8 1
gene 2 3 20 -3.12967 0 38 -3.12967 0
gene 2 20 4 -1.04756 0 39 -1.04756 1
gene 3 2 20 0.803403 0 257 0.803403 1
gene 2 1 20 2.69231 0 301 2.69231 1
gene 2 3 134 2.63668 0 403 2.63668 1
gene 2 134 20 -3.64862 0 404 -3.64862 1
genomeend 105

/* Organism #106 Fitness: 3.99998 Error: 2.00001 */
genomestart 106
trait 1 0.1 0 0 0 0 0 0 0 
trait 2 0.19375 0 0 0.0219698 0.0260332 0 0 0 
trait 3 0.475 0 0.101407 0.222834 0 0.0349285 0 0 
node 1 3 1 3
node 2 1 1 1
node 3 3 1 1
node 4 2 0 2
node 20 1 0 0
node 134 1 0 0
gene 3 1 4 -2.44677 0 1 -2.44677 1
gene 3 2 4 -8 0 2 -8 1
gene 2 3 4 -0.626637 0 3 -0.626637 1
gene 2 3 20 -3.12967 0 38 -3.12967 0
gene 2 20 4 -0.201347 0 39 -0.201347 1
gene 3 2 20 -1.55465 0 257 -1.55465 1
gene 2 1 20 0.431615 0 301 0.431615 1
gene 2 3 134 5.06811 0 403 5.06811 1
gene 2 134 20 -5.98499 0 404 -5.98499 1
genomeend 106

/* Organism #107 Fitness: 9 Error: 1 */
genomestart 107
trait 1 0.1 0 0 0 0 0 0 0 
trait 2 0.19375 0 0 0.0219698 0.0260332 0 0 0 
trait 3 0.475 0 0.101407 0.222834 0 0.0349285 0 0 
node 1 3 1 3
node 2 1 1 1
node 3 3 1 1
node 4 2 0 2
node 20 1 0 0
node 134 1 0 0
gene 3 1 4 -3.99534 0 1 -3.99534 1
gene 3 2 4 -7.98205 0 2 -7.98205 1
gene 2 3 4 8 0 3 8 1
gene 2 3 20 -3.12967 0 38 -3.12967 0
gene 2 20 4 -1.04756 0 39 -1.04756 1
gene 3 2 20 0.803403 0 257 0.803403 1
gene 2 1 20 2.69231 0 301 2.69231 1
gene 2 3 134 2.63668 0 403 2.63668 1
gene 2 134 20 -3.64862 0 404 -3.64862 1
gene 2 1 134 -0.785856 0 441 -0.785856 1
genomeend 107

/* Organism #108 Fitness: 9 Error: 1 */
genomestart 108
trait 1 0.1 0 0 0 0 0 0 0 
trait 2 0.19375 0 0 0.0219698 0.0260332 0 0 0 
trait 3 0.475 0 0.101407 0.222834 0 0.0349285 0 0 
node 1 3 1 3
node 2 1 1 1
node 3 3 1 1
node 4 2 0 2
node 20 1 0 0
node 134 2 0 0
gene 3 1 4 -3.99534 0 1 -3.99534 1
gene 3 2 4 -7.98205 0 2 -7.98205 1
gene 2 3 4 8 0 3 8 1
gene 2 3 20 -3.12967 0 38 -3.12967 0
gene 2 20 4 -1.04756 0 39 -1.04756 1
gene 3 2 20 0.803403 0 257 0.803403 1
gene 2 1 20 2.69231 0 301 2.69231 1
gene 2 3 134 2.63668 0 403 2.63668 1
gene 2 134 20 -3.64862 0 404 -3.64862 1
genomeend 108

/* Organism #109 Fitness: 8.09593 Error: 1.15467 */
genomestart 109
trait 1 0.1 0 0 0 0 0 0 0 
trait 2 0.19375 0 0 0.0219698 0.0260332 0 0 0 
trait 3 0.475 0 0.101407 0.222834 0 0.0349285 0 0 
node 1 3 1 3
node 2 1 1 1
node 3 3 1 1
node 4 2 0 2
node 20 1 0 0
node 134 1 0 0
gene 3 1 4 -1.7323 0 1 -1.7323 1
gene 3 2 4 -5.69627 0 2 -5.69627 1
gene 2 3 4 1.31469 0 3 1.31469 1
gene 2 3 20 -2.0785 0 38 -2.0785 0
gene 2 20 4 1.22584 0 39 1.22584 1
gene 3 2 20 0.347542 0 257 0.347542 1
gene 2 1 20 1.97912 0 301 1.97912 1
gene 2 3 134 3.761 0 403 3.761 1
gene 2 134 20 -1.76172 0 404 -1.76172 1
genomeend 109

/* Organism #110 Fitness: 8.99999 Error: 1 */
genomestart 110
trait 1 0.1 0 0 0 0 0 0 0 
trait 2 0.19375 0 0 0.0219698 0.0260332 0 0 0 
trait 3 0.475 0 0.101407 0.222834 0 0.0349285 0 0 
node 1 3 1 3
node 2 1 1 1
node 3 3 1 1
node 4 2 0 2
node 20 1 0 0
node 134 1 0 0
gene 3 1 4 -2.0408 0 1 -2.0408 1
gene 3 2 4 -6.55436 0 2 -6.55436 1
gene 2 3 4 5.70419 0 3 5.70419 1
gene 2 3 20 -0.696151 0 38 -0.696151 0
gene 2 20 4 -0.642433 0 39 -0.642433 1
gene 3 2 20 -1.40106 0 257 -1.40106 1
gene 2 1 20 4.50329 0 301 4.50329 1
gene 2 3 134 0.504676 0 403 0.504676 1
gene 2 134 20 -1.55524 0 404 -1.55524 1
genomeend 110

/* Organism #111 Fitness: 1.052 Error: 2.97433 */
genomestart 111
trait 1 0.1 0 0 0 0 0 0 0 
trait 2 0.19375 0 0 0.0219698 0.0260332 0 0 0 
trait 3 0.475 0 0.101407 0.222834 0 0.0349285 0 0 
node 1 3 1 3
node 2 1 1 1
node 3 3 1 1
node 4 2 0 2
node 20 1 0 0
node 134 1 0 0
gene 3 1 4 1.09582 0 1 1.09582 1
gene 3 2 4 -8 0 2 -8 1
gene 2 3 4 8 0 3 8 1
gene 2 3 20 -2.3888 0 38 -2.3888 0
gene 2 20 4 -0.930409 0 39 -0.930409 1
gene 3 2 20 0.328479 0 257 0.328479 1
gene 2 1 20 0.422244 0 301 0.422244 1
gene 2 3 134 0.154997 0 403 0.154997 1
gene 2 134 20 -1.41451 0 404 -1.41451 1
genomeend 111

/* Organism #112 Fitness: 9 Error: 1 */
genomestart 112
trait 1 0.1 0 0 0 0 0 0 0 
trait 2 0.19375 0 0 0.0219698 0.0260332 0 0 0 
trait 3 0.475 0 0.101407 0.222834 0 0.0349285 0 0 
node 1 3 1 3
node 2 1 1 1
node 3 3 1 1
node 4 2 0 2
node 20 1 0 0
node 134 1 0 0
gene 3 1 4 -3.99534 0 1 -3.99534 1
gene 3 2 4 -7.98205 0 2 -7.98205 1
gene 2 3 4 8 0 3 8 1
gene 2 3 20 -3.12967 0 38 -3.12967 0
gene 2 20 4 -1.04756 0 39 -1.04756 1
gene 3 2 20 0.803403 0 257 0.803403 1
gene 2 1 20 2.69231 0 301 2.69231 1
gene 2 3 134 2.63668 0 403 2.63668 1
gene 2 134 20 -3.64862 0 404 -3.64862 1
gene 2 2 134 0.0475251 0 442 0.0475251 1
genomeend 112

/* Species #21 : (Size 5) (AF 8.57204) (Age 15)  */


/* Organism #113 Fitness: 8.78858 Error: 1.03545 */
genomestart 113
trait 1 0.1 0 0.0565375 0 0.115741 0.185949 0 0 
trait 2 0.2 0.998421 0 0 0 0 0.626914 0.868139 
trait 3 0.5625 0 0.15211 0.33425 0 0.0349285 0 0 
node 1 3 1 3
node 2 1 1 1
node 3 3 1 1
node 4 2 0 2
node 20 1 0 0
node 68 1 0 0
node 74 1 0 0
node 88 1 0 0
node 96 1 0 0
node 106 1 0 0
node 127 1 0 0
gene 3 1 4 -2.53449 0 1 -2.53449 1
gene 3 2 4 -8 0 2 -8 1
gene 2 3 4 6.49288 0 3 6.49288 1
gene 2 3 20 -0.423552 0 38 -0.423552 1
gene 2 20 4 -1.52434 0 39 -1.52434 1
gene 2 2 20 5.00439 0 115 5.00439 1
gene 1 1 20 2.20668 0 132 2.20668 1
gene 2 2 68 6.37116 0 191 6.37116 1
gene 2 68 20 0.105101 0 192 0.105101 1
gene 2 68 74 1.18533 0 208 1.18533 1
gene 2 74 20 3.49342 0 209 3.49342 1
gene 2 74 88 0.553398 0 252 0.553398 0
gene 2 88 20 3.48893 0 253 3.48893 1
gene 2 74 96 1.70963 0 278 1.70963 1
gene 2 96 88 4.03588 0 279 4.03588 1
gene 3 88 4 3.38781 0 299 3.38781 1
gene 2 68 106 0.131046 0 310 0.131046 1
gene 2 106 74 -1.40444 0 311 -1.40444 1
gene 2 74 127 -0.974842 0 381 -0.974842 1
gene 2 127 96 -0.722114 0 382 -0.722114 1
genomeend 113

/* Organism #114 Fitness: 9 Error: 1 */
genomestart 114
trait 1 0.1 0 0.0565375 0 0.115741 0.185949 0 0 
trait 2 0.2 0.998421 0 0 0 0 0.626914 0.868139 
trait 3 0.5625 0 0.15211 0.33425 0 0.0349285 0 0 
node 1 3 1 3
node 2 1 1 1
node 3 3 1 1
node 4 2 0 2
node 20 3 0 0
node 68 1 0 0
node 74 1 0 0
node 88 1 0 0
node 96 1 0 0
node 106 1 0 0
node 127 1 0 0
gene 3 1 4 -2.72498 0 1 -2.72498 1
gene 3 2 4 -8 0 2 -8 1
gene 2 3 4 7.24973 0 3 7.24973 1
gene 2 3 20 -8 0 38 -8 1
gene 2 20 4 -2.14506 0 39 -2.14506 1
gene 2 2 20 4.84439 0 115 4.84439 1
gene 1 1 20 2.0842 0 132 2.0842 1
gene 2 2 68 4.33837 0 191 4.33837 1
gene 2 68 20 2.01852 0 192 2.01852 0
gene 2 68 74 -0.349644 0 208 -0.349644 1
gene 2 74 20 4.48137 0 209 4.48137 0
gene 2 74 88 -2.78005 0 252 -2.78005 1
gene 2 88 20 3.40996 0 253 3.40996 1
gene 2 74 96 1.63548 0 278 1.63548 1
gene 2 96 88 2.33432 0 279 2.33432 1
gene 3 88 4 0.953239 0 299 0.953239 1
gene 2 68 106 -2.47527 0 310 -2.47527 1
gene 2 106 74 0.657678 0 311 0.657678 1
gene 2 74 127 -0.0108842 0 381 -0.0108842 1
gene 2 127 96 -1.18883 0 382 -1.18883 1
gene 3 74 4 -0.138452 0 443 -0.138452 1
genomeend 114

/* Organism #115 Fitness: 8.99999 Error: 1 */
genomestart 115
trait 1 0.1 0 0.0565375 0 0.115741 0.185949 0 0 
trait 2 0.2 0.998421 0 0 0 0 0.626914 0.868139 
trait 3 0.5625 0 0.15211 0.33425 0 0.0349285 0 0 
node 1 3 1 3
node 2 1 1 1
node 3 3 1 1
node 4 2 0 2
node 20 1 0 0
node 68 1 0 0
node 74 1 0 0
node 88 1 0 0
node 96 1 0 0
node 106 1 0 0
node 127 1 0 0
gene 3 1 4 -1.43283 0 1 -1.43283 1
gene 3 2 4 -5.76371 0 2 -5.76371 1
gene 2 3 4 6.47184 0 3 6.47184 1
gene 2 3 20 -6.22678 0 38 -6.22678 1
gene 2 20 4 -3.51803 0 39 -3.51803 1
gene 2 2 20 3.94408 0 115 3.94408 1
gene 1 1 20 2.58993 0 132 2.58993 1
gene 2 2 68 4.57551 0 191 4.57551 1
gene 2 68 20 1.43776 0 192 1.43776 0
gene 2 68 74 -2.38064 0 208 -2.38064 1
gene 2 74 20 4.04962 0 209 4.04962 0
gene 2 74 88 -1.87193 0 252 -1.87193 0
gene 2 88 20 6.1142 0 253 6.1142 1
gene 2 74 96 -1.32827 0 278 -1.32827 1
gene 2 96 88 1.0142 0 279 1.0142 1
gene 3 88 4 2.06852 0 299 2.06852 1
gene 2 68 106 0.00682478 0 310 0.00682478 1
gene 2 106 74 -0.792848 0 311 -0.792848 1
gene 2 74 127 0.582182 0 381 0.582182 1
gene 2 127 96 -0.683259 0 382 -0.683259 1
genomeend 115

/* Organism #116 Fitness: 7.07163 Error: 1.34075 */
genomestart 116
trait 1 0.1 0 0.0565375 0 0.115741 0.185949 0 0 
trait 2 0.2 0.998421 0 0 0 0 0.626914 0.868139 
trait 3 0.5625 0 0.15211 0.33425 0 0.0349285 0 0 
node 1 3 1 3
node 2 1 1 1
node 3 3 1 1
node 4 2 0 2
node 20 3 0 0
node 68 1 0 0
node 74 1 0 0
node 88 1 0 0
node 96 1 0 0
node 106 1 0 0
node 127 1 0 0
gene 3 1 4 0.74175 0 1 0.74175 1
gene 3 2 4 1.18874 0 2 1.18874 1
gene 2 3 4 8 0 3 8 1
gene 2 3 20 -6.75775 0 38 -6.75775 1
gene 2 20 4 -1.08998 0 39 -1.08998 1
gene 2 2 20 -1.58925 0 115 -1.58925 1
gene 1 1 20 0.129 0 132 0.129 1
gene 2 2 68 5.0894 0 191 5.0894 1
gene 2 68 20 1.24084 0 192 1.24084 0
gene 2 68 74 0.383777 0 208 0.383777 1
gene 2 74 20 5.46932 0 209 5.46932 0
gene 2 74 88 -2.50856 0 252 -2.50856 0
gene 2 88 20 1.71251 0 253 1.71251 1
gene 2 74 96 0.579612 0 278 0.579612 0
gene 2 96 88 -1.02459 0 279 -1.02459 1
gene 3 88 4 0.411447 0 299 0.411447 1
gene 2 68 106 -2.55534 0 310 -2.55534 1
gene 2 106 74 2.71979 0 311 2.71979 1
gene 2 74 127 1.51449 0 381 1.51449 1
gene 2 127 96 -3.71994 0 382 -3.71994 1
genomeend 116

/* Organism #117 Fitness: 8.99999 Error: 1 */
genomestart 117
trait 1 0.1 0 0.0565375 0 0.115741 0.185949 0 0 
trait 2 0.2 0.998421 0 0 0 0 0.626914 0.868139 
trait 3 0.5625 0 0.15211 0.33425 0 0.0349285 0 0 
node 1 3 1 3
node 2 1 1 1
node 3 3 1 1
node 4 2 0 2
node 20 3 0 0
node 68 1 0 0
node 74 1 0 0
node 88 1 0 0
node 96 1 0 0
node 106 1 0 0
node 127 1 0 0
gene 3 1 4 -2.5711 0 1 -2.5711 1
gene 3 2 4 -6.44397 0 2 -6.44397 1
gene 2 3 4 5.61178 0 3 5.61178 1
gene 2 3 20 -7.03925 0 38 -7.03925 1
gene 2 20 4 -0.267583 0 39 -0.267583 1
gene 2 2 20 6.63883 0 115 6.63883 1
gene 1 1 20 2.81236 0 132 2.81236 1
gene 2 2 68 3.34554 0 191 3.34554 1
gene 2 68 20 1.72574 0 192 1.72574 0
gene 2 68 74 0.416421 0 208 0.416421 1
gene 2 74 20 6.29375 0 209 6.29375 0
gene 2 74 88 -2.88045 0 252 -2.88045 0
gene 2 88 20 4.49308 0 253 4.49308 1
gene 2 74 96 1.35408 0 278 1.35408 0
gene 2 96 88 -0.567206 0 279 -0.567206 1
gene 3 88 4 1.06904 0 299 1.06904 1
gene 2 68 106 -1.86969 0 310 -1.86969 1
gene 2 106 74 2.71979 0 311 2.71979 1
gene 2 74 127 0.303715 0 381 0.303715 1
gene 2 127 96 2.10436 0 382 2.10436 1
genomeend 117

/* Species #22 : (Size 7) (AF 6.52124) (Age 15)  */


/* Organism #118 Fitness: 8.99997 Error: 1.00001 */
genomestart 118
trait 1 0.1 0 0 0 0 0 0 0 
trait 2 0.0984375 0.0690799 0.317753 0.395877 0.00650829 0 0 0 
trait 3 0.796838 0 0.613719 0.222834 0.1835 0.0349285 0 0.510557 
node 1 3 1 3
node 2 1 1 1
node 3 3 1 1
node 4 2 0 2
node 20 1 0 0
gene 3 1 4 -2.67866 0 1 -2.67866 1
gene 3 2 4 5.20788 0 2 5.20788 1
gene 2 3 4 -5.51043 0 3 -5.51043 1
gene 2 3 20 1.05109 0 38 1.05109 1
gene 2 20 4 -0.196559 0 39 -0.196559 1
gene 3 2 20 -2.14963 0 300 -2.14963 1
gene 2 1 20 0.124907 0 359 0.124907 1
genomeend 118

/* Organism #119 Fitness: 3.11081 Error: 2.23625 */
genomestart 119
trait 1 0.1 0 0 0 0 0 0 0 
trait 2 0.0984375 0.0690799 0.317753 0.395877 0.00650829 0 0 0 
trait 3 0.796838 0 0.613719 0.222834 0.1835 0.0349285 0 0.510557 
node 1 3 1 3
node 2 1 1 1
node 3 3 1 1
node 4 2 0 2
node 20 1 0 0
gene 3 1 4 -1.51005 0 1 -1.51005 1
gene 3 2 4 6.08438 0 2 6.08438 1
gene 2 3 4 -3.58766 0 3 -3.58766 1
gene 2 3 20 0.338129 0 38 0.338129 1
gene 2 20 4 1.27193 0 39 1.27193 1
gene 3 2 20 -2.41685 0 300 -2.41685 1
gene 2 1 20 2.21987 0 359 2.21987 1
genomeend 119

/* Organism #120 Fitness: 4.35596 Error: 1.91291 */
genomestart 120
trait 1 0.1 0 0 0 0 0 0 0 
trait 2 0.0984375 0.0690799 0.317753 0.395877 0.00650829 0 0 0 
trait 3 0.796838 0 0.613719 0.222834 0.1835 0.0349285 0 0.510557 
node 1 3 1 3
node 2 1 1 1
node 3 3 1 1
node 4 2 0 2
node 20 1 0 0
gene 3 1 4 -1.75995 0 1 -1.75995 1
gene 3 2 4 5.92509 0 2 5.92509 1
gene 2 3 4 -3.67013 0 3 -3.67013 1
gene 2 3 20 -0.972967 0 38 -0.972967 1
gene 2 20 4 -2.51743 0 39 -2.51743 1
gene 3 2 20 -1.45692 0 300 -1.45692 1
gene 2 1 20 1.42633 0 359 1.42633 1
genomeend 120

/* Organism #121 Fitness: 2.72746 Error: 2.3485 */
genomestart 121
trait 1 0 0.974744 0 0 0 0 0.659177 0.434882 
trait 2 0.0984375 0.0690799 0.317753 0.395877 0.00650829 0 0 0 
trait 3 0.796838 0 0.613719 0.222834 0.1835 0.0349285 0 0.510557 
node 1 3 1 3
node 2 3 1 1
node 3 3 1 1
node 4 2 0 2
node 20 1 0 0
gene 3 1 4 0.18871 0 1 0.18871 1
gene 3 2 4 5.20788 0 2 5.20788 1
gene 2 3 4 -4.83592 0 3 -4.83592 1
gene 2 3 20 0.439713 0 38 0.439713 1
gene 2 20 4 -0.196559 0 39 -0.196559 1
gene 3 2 20 -0.171081 0 300 -0.171081 1
gene 2 1 20 1.16806 0 359 1.16806 1
genomeend 121

/* Organism #122 Fitness: 8.99993 Error: 1.00001 */
genomestart 122
trait 1 0.1 0 0 0 0 0 0 0 
trait 2 0.0984375 0.0690799 0.317753 0.395877 0.00650829 0 0 0 
trait 3 0.796838 0 0.613719 0.222834 0.1835 0.0349285 0 0.510557 
node 1 3 1 3
node 2 1 1 1
node 3 3 1 1
node 4 2 0 2
node 20 1 0 0
gene 2 1 4 -0.535633 0 1 -0.535633 1
gene 3 2 4 2.84817 0 2 2.84817 1
gene 2 3 4 -5.09616 0 3 -5.09616 1
gene 2 3 20 3.25029 0 38 3.25029 1
gene 2 20 4 -2.68981 0 39 -2.68981 1
gene 3 2 20 -4.52195 0 300 -4.52195 1
gene 2 1 20 2.21156 0 359 2.21156 1
genomeend 122

/* Organism #123 Fitness: 8.45458 Error: 1.09232 */
genomestart 123
trait 1 0.1 0 0 0 0 0 0 0 
trait 2 0.0984375 0.0690799 0.317753 0.395877 0.00650829 0 0 0 
trait 3 0.796838 0 0.613719 0.222834 0.1835 0.0349285 0 0.510557 
node 1 3 1 3
node 2 1 1 1
node 3 3 1 1
node 4 2 0 2
node 20 2 0 0
gene 1 1 4 -0.268316 0 1 -0.268316 1
gene 3 2 4 6.13382 0 2 6.13382 1
gene 2 3 4 -7.61645 0 3 -7.61645 1
gene 2 3 20 0.621967 0 38 0.621967 1
gene 2 20 4 -0.196559 0 39 -0.196559 1
gene 3 2 20 -4.58395 0 300 -4.58395 1
gene 2 1 20 1.32289 0 359 1.32289 1
genomeend 123

/* Organism #124 Fitness: 8.99997 Error: 1.00001 */
genomestart 124
trait 1 0.1 0 0 0 0 0 0 0 
trait 2 0.0984375 0.0690799 0.317753 0.395877 0.00650829 0 0 0 
trait 3 0.796838 0 0.613719 0.222834 0.1835 0.0349285 0 0.510557 
node 1 3 1 3
node 2 1 1 1
node 3 3 1 1
node 4 2 0 2
node 20 1 0 0
gene 3 1 4 -2.67866 0 1 -2.67866 1
gene 3 2 4 5.20788 0 2 5.20788 1
gene 2 3 4 -5.51043 0 3 -5.51043 1
gene 2 3 20 1.05109 0 38 1.05109 1
gene 2 20 4 -0.196559 0 39 -0.196559 1
gene 3 2 20 -2.14963 0 300 -2.14963 1
gene 2 1 20 0.124907 0 359 0.124907 1
genomeend 124

/* Species #23 : (Size 4) (AF 5.3252) (Age 14)  */


/* Organism #125 Fitness: 5.52103 Error: 1.65031 */
genomestart 125
trait 1 0.1 0 0 0 0 0 0 0 
trait 2 0.2 0.824434 0 0 0 0 0 0.868139 
trait 3 0.5625 0 0.15211 0.33425 0 0.0349285 0 0 
node 1 3 1 3
node 2 1 1 1
node 3 3 1 1
node 4 3 0 2
node 20 3 0 0
node 68 1 0 0
node 74 1 0 0
node 104 1 0 0
node 144 1 0 0
gene 3 1 4 8 0 1 8 1
gene 3 2 4 -8 0 2 -8 0
gene 2 3 4 4.06744 0 3 4.06744 1
gene 2 3 20 -2.91779 0 38 -2.91779 1
gene 2 20 4 -7.59122 0 39 -7.59122 1
gene 2 2 20 8 0 115 8 1
gene 1 1 20 2.52015 0 132 2.52015 1
gene 2 2 68 3.53293 0 191 3.53293 1
gene 2 68 20 -3.97997 0 192 -3.97997 0
gene 2 68 74 1.32199 0 208 1.32199 1
gene 2 74 20 -3.70027 0 209 -3.70027 0
gene 1 68 4 1.78081 0 251 1.78081 0
gene 3 2 74 4.34672 0 297 4.34672 1
gene 3 2 104 2.71568 0 303 2.71568 1
gene 3 104 4 -6.12427 0 304 -6.12427 1
gene 1 68 144 1 0 433 0 1
gene 1 144 4 1.78081 0 434 0 1
gene 1 3 104 -0.312731 0 444 -0.312731 1
genomeend 125

/* Organism #126 Fitness: 8.99968 Error: 1.00005 */
genomestart 126
trait 1 0.1 0 0 0 0 0 0 0 
trait 2 0.2 0.824434 0 0 0 0 0 0.868139 
trait 3 0.5625 0 0.15211 0.33425 0 0.0349285 0 0 
node 1 3 1 3
node 2 1 1 1
node 3 3 1 1
node 4 3 0 2
node 20 3 0 0
node 68 1 0 0
node 74 1 0 0
node 104 1 0 0
node 144 1 0 0
gene 3 1 4 8 0 1 8 1
gene 3 2 4 -8 0 2 -8 0
gene 2 3 4 2.10853 0 3 2.10853 1
gene 2 3 20 -5.10146 0 38 -5.10146 1
gene 2 20 4 -7.59122 0 39 -7.59122 1
gene 2 2 20 8 0 115 8 1
gene 1 1 20 3.79694 0 132 3.79694 1
gene 2 2 68 2.14172 0 191 2.14172 1
gene 2 68 20 -4.48486 0 192 -4.48486 0
gene 2 68 74 2.49633 0 208 2.49633 1
gene 2 74 20 -3.70027 0 209 -3.70027 0
gene 1 68 4 0.942571 0 251 0.942571 0
gene 3 2 74 4.87798 0 297 4.87798 1
gene 3 2 104 0.792282 0 303 0.792282 1
gene 3 104 4 -7.12803 0 304 -7.12803 1
gene 1 68 144 0.223173 0 433 0.223173 1
gene 1 144 4 1.8248 0 434 1.8248 1
genomeend 126

/* Organism #127 Fitness: 4.00295 Error: 1.99926 */
genomestart 127
trait 1 0.1 0 0 0 0 0 0 0 
trait 2 0.2 0.824434 0 0 0 0 0 0.868139 
trait 3 0.5625 0 0.15211 0.33425 0 0.0349285 0 0 
node 1 3 1 3
node 2 1 1 1
node 3 3 1 1
node 4 3 0 2
node 20 3 0 0
node 68 1 0 0
node 74 1 0 0
node 104 1 0 0
node 144 1 0 0
gene 3 1 4 8 0 1 8 1
gene 3 2 4 -7.59801 0 2 -7.59801 0
gene 2 3 4 5.39685 0 3 5.39685 1
gene 2 3 20 -0.435408 0 38 -0.435408 1
gene 2 20 4 -6.66044 0 39 -6.66044 1
gene 2 2 20 7.04998 0 115 7.04998 1
gene 1 1 20 1.48717 0 132 1.48717 1
gene 2 2 68 1.79657 0 191 1.79657 1
gene 2 68 20 -3.57196 0 192 -3.57196 0
gene 2 68 74 2.10272 0 208 2.10272 1
gene 2 74 20 -2.03982 0 209 -2.03982 0
gene 1 68 4 1.21031 0 251 1.21031 0
gene 3 2 74 4.64544 0 297 4.64544 1
gene 3 2 104 0.519582 0 303 0.519582 1
gene 3 104 4 -5.39519 0 304 -5.39519 1
gene 1 68 144 1.7625 0 433 1.7625 1
gene 1 144 4 -0.326161 0 434 -0.326161 1
genomeend 127

/* Organism #128 Fitness: 2.77714 Error: 2.33353 */
genomestart 128
trait 1 0.1 0 0 0 0 0 0 0 
trait 2 0.2 0.824434 0 0 0 0 0 0.868139 
trait 3 0.5625 0 0.15211 0.33425 0 0.0349285 0 0 
node 1 3 1 3
node 2 1 1 1
node 3 3 1 1
node 4 3 0 2
node 20 3 0 0
node 68 1 0 0
node 74 1 0 0
node 104 1 0 0
node 144 1 0 0
gene 3 1 4 8 0 1 8 1
gene 3 2 4 -8 0 2 -8 0
gene 2 3 4 5.48837 0 3 5.48837 1
gene 2 3 20 -3.88895 0 38 -3.88895 1
gene 2 20 4 -8 0 39 -8 1
gene 2 2 20 6.81973 0 115 6.81973 1
gene 1 1 20 2.69487 0 132 2.69487 1
gene 2 2 68 4.39026 0 191 4.39026 1
gene 2 68 20 -5.14356 0 192 -5.14356 0
gene 2 68 74 -1.14939 0 208 -1.14939 1
gene 2 74 20 -3.49646 0 209 -3.49646 0
gene 1 68 4 3.68152 0 251 3.68152 0
gene 3 2 74 5.2978 0 297 5.2978 1
gene 3 2 104 0.506965 0 303 0.506965 1
gene 3 104 4 -3.74083 0 304 -3.74083 1
gene 1 68 144 3.30713 0 433 3.30713 1
gene 1 144 4 1.73051 0 434 1.73051 1
genomeend 128

/* Species #24 : (Size 6) (AF 7.32258) (Age 13)  */


/* Organism #129 Fitness: 8.99886 Error: 1.00019 */
genomestart 129
trait 1 0.1 0 0 0 0 0 0 0 
trait 2 0.367088 0 0 0.413157 0 0.385555 0.0481595 0 
trait 3 0.3 0 0 0 0 0 0 0 
node 1 1 1 3
node 2 3 1 1
node 3 3 1 1
node 4 2 0 2
node 5 1 0 0
node 16 1 0 0
node 27 1 0 0
node 55 1 0 0
node 108 1 0 0
gene 1 1 4 1.9681 0 1 1.9681 1
gene 1 2 4 4.38646 0 2 4.38646 1
gene 2 3 4 0.406097 0 3 0.406097 1
gene 1 2 5 2.22755 0 4 2.22755 1
gene 1 5 4 -0.742248 0 5 -0.742248 0
gene 1 2 16 -3.05709 0 29 -3.05709 1
gene 2 16 5 -0.544091 0 30 -0.544091 1
gene 1 2 27 1.82397 0 61 1.82397 1
gene 1 27 16 2.63436 0 62 2.63436 1
gene 1 5 55 7.85252 0 150 7.85252 1
gene 1 55 4 -0.641322 0 151 -0.641322 1
gene 1 16 4 0.0823055 0 161 0.0823055 1
gene 2 27 5 1.04565 0 307 1.04565 1
gene 2 3 108 -4.13751 0 320 -4.13751 1
gene 2 108 4 -6.87638 0 321 -6.87638 1
genomeend 129

/* Organism #130 Fitness: 3.99987 Error: 2.00003 */
genomestart 130
trait 1 0.1 0 0 0 0 0 0 0 
trait 2 0.367088 0 0 0.413157 0 0.385555 0.0481595 0 
trait 3 0.3 0 0 0 0 0 0 0 
node 1 1 1 3
node 2 3 1 1
node 3 3 1 1
node 4 2 0 2
node 5 1 0 0
node 16 1 0 0
node 27 1 0 0
node 55 1 0 0
node 108 1 0 0
gene 1 1 4 0.0545474 0 1 0.0545474 1
gene 1 2 4 6.33501 0 2 6.33501 1
gene 2 3 4 -1.62246 0 3 -1.62246 1
gene 1 2 5 0.294039 0 4 0.294039 1
gene 1 5 4 0.657137 0 5 0.657137 0
gene 1 2 16 -0.88098 0 29 -0.88098 1
gene 2 16 5 1.17987 0 30 1.17987 1
gene 1 2 27 1.9647 0 61 1.9647 1
gene 1 27 16 0.423824 0 62 0.423824 1
gene 1 5 55 6.55137 0 150 6.55137 1
gene 1 55 4 1.85581 0 151 1.85581 1
gene 1 16 4 2.45344 0 161 2.45344 1
gene 2 27 5 1.43473 0 307 1.43473 1
gene 2 3 108 -4.2027 0 320 -4.2027 1
gene 2 108 4 2.44486 0 321 2.44486 1
genomeend 130

/* Organism #131 Fitness: 8.94291 Error: 1.00953 */
genomestart 131
trait 1 0.1 0 0 0 0 0 0 0 
trait 2 0.367088 0 0 0.413157 0 0.385555 0.0481595 0 
trait 3 0.3 0 0 0 0 0 0 0 
node 1 1 1 3
node 2 3 1 1
node 3 3 1 1
node 4 2 0 2
node 5 1 0 0
node 16 1 0 0
node 27 1 0 0
node 55 1 0 0
node 108 1 0 0
gene 1 1 4 0.557787 0 1 0.557787 1
gene 1 2 4 6.41442 0 2 6.41442 1
gene 2 3 4 3.46251 0 3 3.46251 1
gene 1 2 5 2.3744 0 4 2.3744 1
gene 1 5 4 1.78526 0 5 1.78526 0
gene 1 2 16 -2.42076 0 29 -2.42076 1
gene 2 16 5 -7.88223 0 30 -7.88223 1
gene 1 2 27 2.17448 0 61 2.17448 1
gene 1 27 16 3.49048 0 62 3.49048 1
gene 1 5 55 8 0 150 8 1
gene 1 55 4 -0.641322 0 151 -0.641322 1
gene 1 16 4 2.25847 0 161 2.25847 1
gene 2 27 5 1.18298 0 307 1.18298 1
gene 2 3 108 -3.02832 0 320 -3.02832 1
gene 2 108 4 -6.87638 0 321 -6.87638 1
genomeend 131

/* Organism #132 Fitness: 8.99886 Error: 1.00019 */
genomestart 132
trait 1 0.1 0 0 0 0 0 0 0 
trait 2 0.367088 0 0 0.413157 0 0.385555 0.0481595 0 
trait 3 0.3 0 0 0 0 0 0 0 
node 1 1 1 3
node 2 3 1 1
node 3 3 1 1
node 4 2 0 2
node 5 1 0 0
node 16 1 0 0
node 27 1 0 0
node 55 1 0 0
node 108 1 0 0
gene 1 1 4 1.9681 0 1 1.9681 1
gene 1 2 4 4.38646 0 2 4.38646 1
gene 2 3 4 0.406097 0 3 0.406097 1
gene 1 2 5 2.22755 0 4 2.22755 1
gene 1 5 4 -0.742248 0 5 -0.742248 0
gene 1 2 16 -3.05709 0 29 -3.05709 1
gene 2 16 5 -0.544091 0 30 -0.544091 1
gene 1 2 27 1.82397 0 61 1.82397 1
gene 1 27 16 2.63436 0 62 2.63436 1
gene 1 5 55 7.85252 0 150 7.85252 1
gene 1 55 4 -0.641322 0 151 -0.641322 1
gene 1 16 4 0.0823055 0 161 0.0823055 1
gene 2 27 5 1.04565 0 307 1.04565 1
gene 2 3 108 -4.13751 0 320 -4.13751 1
gene 2 108 4 -6.87638 0 321 -6.87638 1
genomeend 132

/* Organism #133 Fitness: 8.99498 Error: 1.00084 */
genomestart 133
trait 1 0.1 0 0 0 0 0 0 0 
trait 2 0.367088 0 0 0.413157 0 0.385555 0.0481595 0 
trait 3 0.3 0 0 0 0 0 0 0 
node 1 1 1 3
node 2 3 1 1
node 3 3 1 1
node 4 2 0 2
node 5 1 0 0
node 16 1 0 0
node 27 1 0 0
node 55 1 0 0
node 108 1 0 0
gene 1 1 4 2.01581 0 1 2.01581 1
gene 1 2 4 3.60759 0 2 3.60759 1
gene 2 3 4 0.756223 0 3 0.756223 1
gene 1 2 5 1.37925 0 4 1.37925 1
gene 1 5 4 -0.0845761 0 5 -0.0845761 1
gene 1 2 16 -2.73892 0 29 -2.73892 1
gene 2 16 5 -3.02454 0 30 -3.02454 1
gene 1 2 27 2.20845 0 61 2.20845 1
gene 1 27 16 1.82637 0 62 1.82637 1
gene 1 5 55 7.85252 0 150 7.85252 1
gene 1 55 4 -0.641322 0 151 -0.641322 1
gene 1 16 4 -0.289028 0 161 -0.289028 1
gene 2 27 5 2.14713 0 307 2.14713 1
gene 2 3 108 -4.09022 0 320 -4.09022 1
gene 2 108 4 -6.87638 0 321 -6.87638 1
genomeend 133

/* Organism #134 Fitness: 4 Error: 2 */
genomestart 134
trait 1 0.1 0 0 0 0 0 0 0 
trait 2 0.367088 0 0 0.413157 0 0.385555 0.0481595 0 
trait 3 0.3 0 0 0 0 0 0 0 
node 1 1 1 3
node 2 3 1 1
node 3 3 1 1
node 4 2 0 2
node 5 1 0 0
node 16 1 0 0
node 27 1 0 0
node 55 1 0 0
node 108 1 0 0
gene 1 1 4 -1.12064 0 1 -1.12064 1
gene 1 2 4 0.814169 0 2 0.814169 1
gene 2 3 4 0.0871633 0 3 0.0871633 1
gene 1 2 5 -1.94618 0 4 -1.94618 1
gene 1 5 4 1.29971 0 5 1.29971 0
gene 1 2 16 -0.791109 0 29 -0.791109 1
gene 2 16 5 -3.78217 0 30 -3.78217 1
gene 1 2 27 3.08296 0 61 3.08296 1
gene 1 27 16 -1.05808 0 62 -1.05808 1
gene 1 5 55 8 0 150 8 1
gene 1 55 4 -0.989894 0 151 -0.989894 1
gene 1 16 4 -2.72663 0 161 -2.72663 1
gene 2 27 5 1.89605 0 307 1.89605 1
gene 2 3 108 0.43876 0 320 0.43876 1
gene 2 108 4 -8 0 321 -8 1
genomeend 134

/* Species #25 : (Size 7) (AF 6.15797) (Age 13)  */


/* Organism #135 Fitness: 9 Error: 1 */
genomestart 135
trait 1 0.1 0 0 0 0 0 0 0 
trait 2 0.2 0 0 0 0 0 0 0 
trait 3 0.3541 0 0.551797 0.0601045 0 0.0174642 0 0.264917 
node 1 3 1 3
node 2 2 1 1
node 3 3 1 1
node 4 2 0 2
node 20 3 0 0
node 59 1 0 0
node 103 1 0 0
node 138 1 0 0
gene 3 1 4 -3.80951 0 1 -3.80951 1
gene 1 2 4 -7.57693 0 2 -7.57693 1
gene 3 3 4 8 0 3 8 1
gene 2 3 20 -7.54583 0 38 -7.54583 1
gene 2 20 4 2.70527 0 39 2.70527 0
gene 2 2 20 3.56173 0 115 3.56173 1
gene 1 1 20 1.80884 0 132 1.80884 1
gene 2 2 59 -0.70211 0 165 -0.70211 1
gene 2 59 20 4.47901 0 166 4.47901 0
gene 2 20 103 3.05514 0 293 3.05514 1
gene 2 103 4 -0.519148 0 294 -0.519148 1
