
/* Species #1 : (Size 11) (AF 8.06206) (Age 23)  */


/* Organism #0 Fitness: 9 Error: 1 */
genomestart 0
trait 1 0.1 0 0 0.000669511 0.000646787 0 0.00219787 0 
trait 2 0.2 0 0 0 0 0 0 0 
trait 3 0.269531 0.0986842 0 0.0522713 0.0163903 0.0391855 0 0.0753546 
node 1 3 1 3
node 2 2 1 1
node 3 3 1 1
node 4 2 0 2
gene 1 1 4 -4.13878 0 1 -4.13878 1
gene 3 2 4 8 0 2 8 1
gene 1 3 4 -8 0 3 -8 1
genomeend 0

/* Organism #1 Fitness: 9 Error: 1 */
genomestart 1
trait 1 0.1 0 0 0.000669511 0.000646787 0 0.00219787 0 
trait 2 0.2 0 0 0 0 0 0 0 
trait 3 0.269531 0.0986842 0 0.0522713 0.0163903 0.0391855 0 0.0753546 
node 1 3 1 3
node 2 2 1 1
node 3 3 1 1
node 4 2 0 2
gene 1 1 4 -4.13878 0 1 -4.13878 1
gene 3 2 4 8 0 2 8 1
gene 1 3 4 -8 0 3 -8 1
genomeend 1

/* Organism #2 Fitness: 8.6833 Error: 1.05326 */
genomestart 2
trait 1 0.1 0 0 0.000669511 0.000646787 0 0.00219787 0 
trait 2 0 0 0 0 0 0 0 0 
trait 3 0.269531 0.0986842 0 0.0522713 0.0163903 0.0391855 0 0.0753546 
node 1 3 1 3
node 2 2 1 1
node 3 3 1 1
node 4 2 0 2
gene 1 1 4 -4.16502 0 1 -4.16502 1
gene 3 2 4 4.74946 0 2 4.74946 1
gene 3 3 4 -8 0 3 -8 1
genomeend 2

/* Organism #3 Fitness: 9 Error: 1 */
genomestart 3
trait 1 0.1 0 0 0.000669511 0.000646787 0 0.00219787 0 
trait 2 0.2 0 0 0 0 0 0 0 
trait 3 0.269531 0.0986842 0 0.0522713 0.0163903 0.0391855 0 0.0753546 
node 1 3 1 3
node 2 2 1 1
node 3 3 1 1
node 4 2 0 2
gene 1 1 4 -3.72754 0 1 -3.72754 1
gene 3 2 4 7.23976 0 2 7.23976 1
gene 1 3 4 -8 0 3 -8 1
genomeend 3

/* Organism #4 Fitness: 8.99991 Error: 1.00001 */
genomestart 4
trait 1 0.1 0 0 0.000669511 0.000646787 0 0.00219787 0 
trait 2 0.2 0 0 0 0 0 0 0 
trait 3 0.269531 0.0986842 0 0.0522713 0.0163903 0.0391855 0 0.0753546 
node 1 3 1 3
node 2 2 1 1
node 3 3 1 1
node 4 2 0 2
gene 1 1 4 -3.26844 0 1 -3.26844 1
gene 3 2 4 8 0 2 8 1
gene 1 3 4 -6.99016 0 3 -6.99016 1
genomeend 4

/* Organism #5 Fitness: 8.99994 Error: 1.00001 */
genomestart 5
trait 1 0.1 0 0 0.000669511 0.000646787 0 0.00219787 0 
trait 2 0.2 0 0 0 0 0 0 0 
trait 3 0.269531 0.0986842 0 0.0522713 0.0163903 0.0391855 0 0.0753546 
node 1 3 1 3
node 2 1 1 1
node 3 3 1 1
node 4 2 0 2
gene 1 1 4 -4.24902 0 1 -4.24902 1
gene 3 2 4 6.58599 0 2 6.58599 1
gene 1 3 4 -5.51617 0 3 -5.51617 1
genomeend 5

/* Organism #6 Fitness: 8.99996 Error: 1.00001 */
genomestart 6
trait 1 0.1 0 0 0.000669511 0.000646787 0 0.00219787 0 
trait 2 0.2 0 0 0 0 0 0 0 
trait 3 0.269531 0.0986842 0 0.0522713 0.0163903 0.0391855 0 0.0753546 
node 1 3 1 3
node 2 2 1 1
node 3 3 1 1
node 4 2 0 2
gene 1 1 4 -3.36677 0 1 -3.36677 1
gene 3 2 4 5.80139 0 2 5.80139 1
gene 1 3 4 -8 0 3 -8 1
genomeend 6

/* Organism #7 Fitness: 9 Error: 1 */
genomestart 7
trait 1 0.1 0 0 0.000669511 0.000646787 0 0.00219787 0 
trait 2 0.2 0 0 0 0 0 0 0 
trait 3 0.269531 0.0986842 0.0682895 0.457422 0 0.0391855 0 0.0753546 
node 1 3 1 3
node 2 2 1 1
node 3 3 1 1
node 4 2 0 2
gene 1 1 4 -4.85649 0 1 -4.85649 1
gene 3 2 4 8 0 2 8 1
gene 1 3 4 -8 0 3 -8 1
genomeend 7

/* Organism #8 Fitness: 8.99994 Error: 1.00001 */
genomestart 8
trait 1 0.1 0 0 0.000669511 0.000646787 0 0.00219787 0 
trait 2 0.2 0 0 0 0 0 0 0 
trait 3 0.269531 0.0986842 0 0.0522713 0.0163903 0.0391855 0 0.0753546 
node 1 3 1 3
node 2 2 1 1
node 3 3 1 1
node 4 2 0 2
gene 1 1 4 -2.56378 0 1 -2.56378 1
gene 3 2 4 6.99085 0 2 6.99085 1
gene 1 3 4 -6.82808 0 3 -6.82808 1
genomeend 8

/* Organism #9 Fitness: 3.99958 Error: 2.00011 */
genomestart 9
trait 1 0.1 0 0 0.000669511 0.000646787 0 0.00219787 0 
trait 2 0.2 0 0 0 0 0 0 0 
trait 3 0.269531 0.0986842 0 0.0522713 0.0163903 0.0391855 0 0.0753546 
node 1 3 1 3
node 2 2 1 1
node 3 3 1 1
node 4 2 0 2
gene 1 1 4 -1.85995 0 1 -1.85995 1
gene 3 2 4 -1.29515 0 2 -1.29515 1
gene 1 3 4 -8 0 3 -8 1
genomeend 9

/* Organism #10 Fitness: 4 Error: 2 */
genomestart 10
trait 1 0.1 0 0 0.000669511 0.000646787 0 0.00219787 0 
trait 2 0.2 0 0 0 0 0 0 0 
trait 3 0.269531 0.0986842 0 0.0522713 0.0163903 0.0391855 0 0.0753546 
node 1 3 1 3
node 2 2 1 1
node 3 3 1 1
node 4 2 0 2
gene 1 1 4 -4.86767 0 1 -4.86767 1
gene 3 2 4 1.74219 0 2 1.74219 1
gene 1 3 4 -7.04553 0 3 -7.04553 1
genomeend 10

/* Species #2 : (Size 9) (AF 6.49735) (Age 21)  */


/* Organism #11 Fitness: 9 Error: 1 */
genomestart 11
trait 1 0.0875 0 0.0617636 0 0 0 0.608107 0.31384 
trait 2 0.109375 0 0.938653 0 0.758056 0 0 0 
trait 3 0.475 0 0 0 0 0 0 0 
node 1 1 1 3
node 2 2 1 1
node 3 1 1 1
node 4 2 0 2
node 8 1 0 0
gene 3 1 4 -4.11213 0 1 -4.11213 1
gene 1 2 4 -8 0 2 -8 1
gene 2 3 4 0.28142 0 3 0.28142 0
gene 2 3 8 6.97485 0 10 6.97485 1
gene 2 8 4 7.77462 0 11 7.77462 1
gene 3 1 8 -1.49378 0 126 -1.49378 1
genomeend 11

/* Organism #12 Fitness: 4 Error: 2 */
genomestart 12
trait 1 0.0875 0 0.0617636 0 0 0 0.608107 0.31384 
trait 2 0.109375 0 0.938653 0 0.758056 0 0 0 
trait 3 0.475 0 0 0 0 0 0 0 
node 1 1 1 3
node 2 2 1 1
node 3 1 1 1
node 4 2 0 2
node 8 1 0 0
gene 3 1 4 -6.54723 0 1 -6.54723 1
gene 1 2 4 -8 0 2 -8 1
gene 2 3 4 0.413179 0 3 0.413179 0
gene 2 3 8 7.26706 0 10 7.26706 1
gene 2 8 4 2.45991 0 11 2.45991 1
gene 3 1 8 -3.51807 0 126 -3.51807 1
genomeend 12

/* Organism #13 Fitness: 7.16015 Error: 1.32415 */
genomestart 13
trait 1 0.08125 0 0.0573519 0.892648 0 0.781496 0.564671 0.58875 
trait 2 0.114063 0 0.936023 0 0.757763 0 0 0 
trait 3 0.475 0 0 0 0 0 0 0 
node 1 1 1 3
node 2 2 1 1
node 3 1 1 1
node 4 2 0 2
node 8 1 0 0
gene 3 1 4 -6.53481 0 1 -6.53481 1
gene 1 2 4 -5.37348 0 2 -5.37348 1
gene 2 3 4 1.05774 0 3 1.05774 0
gene 2 3 8 5.45906 0 10 5.45906 1
gene 2 8 4 6.68402 0 11 6.68402 1
gene 3 1 8 -2.37154 0 126 -2.37154 1
genomeend 13

/* Organism #14 Fitness: 8.36361 Error: 1.10801 */
genomestart 14
trait 1 0.0875 0 0.0617636 0 0 0 0.608107 0.31384 
trait 2 0.109375 0 0.938653 0 0.758056 0 0 0 
trait 3 0.475 0 0 0 0 0 0 0 
node 1 1 1 3
node 2 2 1 1
node 3 1 1 1
node 4 2 0 2
node 8 1 0 0
gene 3 1 4 -1.54877 0 1 -1.54877 1
gene 1 2 4 -5.40822 0 2 -5.40822 1
gene 2 3 4 0.593319 0 3 0.593319 1
gene 2 3 8 5.66416 0 10 5.66416 1
gene 2 8 4 6.07006 0 11 6.07006 1
gene 3 1 8 -3.23118 0 126 -3.23118 1
gene 2 2 8 -1.66644 0 183 -1.66644 1
genomeend 14

/* Organism #15 Fitness: 9 Error: 1 */
genomestart 15
trait 1 0.0875 0 0.0617636 0 0 0 0.608107 0.31384 
trait 2 0.109375 0 0.938653 0 0.758056 0 0 0 
trait 3 0.475 0 0 0 0 0 0 0 
node 1 1 1 3
node 2 2 1 1
node 3 1 1 1
node 4 2 0 2
node 8 1 0 0
gene 3 1 4 -3.67098 0 1 -3.67098 1
gene 1 2 4 -7.81876 0 2 -7.81876 1
gene 2 3 4 0.530569 0 3 0.530569 0
gene 2 3 8 5.45906 0 10 5.45906 1
gene 2 8 4 7.88731 0 11 7.88731 1
gene 3 1 8 -1.54931 0 126 -1.54931 1
gene 2 2 8 0.190823 0 183 0.190823 1
genomeend 15

/* Organism #16 Fitness: 1.01027 Error: 2.99488 */
genomestart 16
trait 1 0.075 0 0.0529402 0 0 0 0.521235 0.376294 
trait 2 0.11875 0 0.619982 0 0.792142 0 0 0 
trait 3 0.475 0 0 0 0 0 0 0 
node 1 1 1 3
node 2 2 1 1
node 3 1 1 1
node 4 2 0 2
node 8 1 0 0
gene 3 1 4 1.35901 0 1 1.35901 1
gene 1 2 4 -8 0 2 -8 1
gene 2 3 4 2.2238 0 3 2.2238 0
gene 2 3 8 3.54574 0 10 3.54574 1
gene 2 8 4 7.77462 0 11 7.77462 1
gene 3 1 8 -2.1275 0 126 -2.1275 1
genomeend 16

/* Organism #17 Fitness: 8.99994 Error: 1.00001 */
genomestart 17
trait 1 0.08125 0 0.0573519 0 0 0 0.564671 0.345067 
trait 2 0.114063 0 0.936023 0 0.757763 0 0 0 
trait 3 0.475 0 0 0 0 0 0 0 
node 1 1 1 3
node 2 2 1 1
node 3 1 1 1
node 4 2 0 2
node 8 1 0 0
gene 3 1 4 -5.55754 0 1 -5.55754 1
gene 1 2 4 -6.06513 0 2 -6.06513 1
gene 2 3 4 0.42611 0 3 0.42611 0
gene 2 3 8 5.42462 0 10 5.42462 1
gene 2 8 4 7.91322 0 11 7.91322 1
gene 3 1 8 -2.04252 0 126 -2.04252 1
genomeend 17

/* Organism #18 Fitness: 3.99999 Error: 2 */
genomestart 18
trait 1 0.0875 0 0.0617636 0 0 0 0.608107 0.31384 
trait 2 0.109375 0 0.938653 0 0.758056 0 0 0 
trait 3 0.475 0 0 0 0 0 0 0 
node 1 1 1 3
node 2 2 1 1
node 3 1 1 1
node 4 2 0 2
node 8 1 0 0
gene 3 1 4 -1.32592 0 1 -1.32592 1
gene 1 2 4 -8 0 2 -8 1
gene 2 3 4 -1.7939 0 3 -1.7939 0
gene 2 3 8 5.2781 0 10 5.2781 1
gene 2 8 4 6.77296 0 11 6.77296 1
gene 3 1 8 0.26618 0 126 0.26618 1
gene 2 2 8 -0.0649843 0 183 -0.0649843 1
genomeend 18

/* Organism #19 Fitness: 6.94216 Error: 1.3652 */
genomestart 19
trait 1 0.0875 0 0.0617636 0 0 0 0.608107 0.31384 
trait 2 0.109375 0 0.938653 0 0.758056 0 0 0 
trait 3 0.475 0 0 0 0 0 0 0 
node 1 1 1 3
node 2 2 1 1
node 3 1 1 1
node 4 2 0 2
node 8 1 0 0
gene 3 1 4 -2.32069 0 1 -2.32069 1
gene 1 2 4 -5.79159 0 2 -5.79159 1
gene 2 3 4 0.1509 0 3 0.1509 0
gene 2 3 8 5.61555 0 10 5.61555 1
gene 2 8 4 8 0 11 8 1
gene 3 1 8 -2.08499 0 126 -2.08499 1
genomeend 19

/* Species #3 : (Size 13) (AF 8.50935) (Age 19)  */


/* Organism #20 Fitness: 9 Error: 1 */
genomestart 20
trait 1 0.1 0 0 0 0 0 0 0 
trait 2 0.2 0 0 0 0 0 0 0 
trait 3 0 0 0 0 0 0 0 0.590451 
node 1 2 1 3
node 2 1 1 1
node 3 2 1 1
node 4 2 0 2
node 13 1 0 0
gene 2 1 4 -2.79656 0 1 -2.79656 1
gene 2 2 4 6.89524 0 2 6.89524 1
gene 2 3 4 7.36178 0 3 7.36178 1
gene 2 2 13 -4.64668 0 22 -4.64668 1
gene 2 13 4 -2.79522 0 23 -2.79522 1
gene 2 3 13 -2.53378 0 44 -2.53378 1
genomeend 20

/* Organism #21 Fitness: 8.99934 Error: 1.00011 */
genomestart 21
trait 1 0.1 0 0 0 0 0 0 0 
trait 2 0.2 0 0 0 0 0 0 0 
trait 3 0.0421875 0 0 0 0.00714956 0.0119962 0 0.507419 
node 1 2 1 3
node 2 1 1 1
node 3 2 1 1
node 4 2 0 2
node 13 1 0 0
gene 2 1 4 -1.85126 0 1 -1.85126 1
gene 2 2 4 8 0 2 8 1
gene 2 3 4 8 0 3 8 1
gene 2 2 13 -6.61053 0 22 -6.61053 1
gene 2 13 4 -1.69448 0 23 -1.69448 0
gene 2 3 13 -2.63734 0 44 -2.63734 1
genomeend 21

/* Organism #22 Fitness: 7.62571 Error: 1.23853 */
genomestart 22
trait 1 0.1 0 0 0 0 0 0 0 
trait 2 0.2 0 0 0 0 0 0 0 
trait 3 0.0421875 0 0 0 0.00714956 0.0119962 0 0.507419 
node 1 2 1 3
node 2 1 1 1
node 3 2 1 1
node 4 2 0 2
node 13 1 0 0
gene 2 1 4 -4.99357 0 1 -4.99357 1
gene 2 2 4 8 0 2 8 1
gene 2 3 4 5.22929 0 3 5.22929 1
gene 2 2 13 -3.55093 0 22 -3.55093 1
gene 2 13 4 1.06355 0 23 1.06355 0
gene 2 3 13 -2.44872 0 44 -2.44872 1
genomeend 22

/* Organism #23 Fitness: 4.00037 Error: 1.99991 */
genomestart 23
trait 1 0.1 0 0 0 0 0 0 0 
trait 2 0.2 0 0 0 0 0 0 0 
trait 3 0.0421875 0 0 0 0.00714956 0.0119962 0 0.507419 
node 1 2 1 3
node 2 1 1 1
node 3 2 1 1
node 4 2 0 2
node 13 1 0 0
gene 2 1 4 -2.14903 0 1 -2.14903 1
gene 2 2 4 0.311642 0 2 0.311642 1
gene 2 3 4 -1.22018 0 3 -1.22018 1
gene 2 2 13 -2.56849 0 22 -2.56849 1
gene 2 13 4 -0.727656 0 23 -0.727656 0
gene 2 3 13 -2.26011 0 44 -2.26011 1
genomeend 23

/* Organism #24 Fitness: 9 Error: 1 */
genomestart 24
trait 1 0.1 0 0 0 0 0 0 0 
trait 2 0.2 0 0 0 0 0 0 0 
trait 3 0 0 0 0 0 0 0 0.590451 
node 1 2 1 3
node 2 1 1 1
node 3 2 1 1
node 4 2 0 2
node 13 1 0 0
gene 2 1 4 -1.62014 0 1 -1.62014 1
gene 2 2 4 7.62074 0 2 7.62074 1
gene 2 3 4 8 0 3 8 1
gene 2 2 13 -5.55647 0 22 -5.55647 1
gene 2 13 4 -5.92991 0 23 -5.92991 1
gene 2 3 13 -0.587518 0 44 -0.587518 1
genomeend 24

/* Organism #25 Fitness: 9 Error: 1 */
genomestart 25
trait 1 0.1 0 0 0 0 0 0 0 
trait 2 0.2 0 0 0 0 0 0 0 
trait 3 0 0 0 0 0 0 0 0.590451 
node 1 2 1 3
node 2 1 1 1
node 3 2 1 1
node 4 2 0 2
node 13 1 0 0
gene 2 1 4 -3.36907 0 1 -3.36907 1
gene 2 2 4 6.50876 0 2 6.50876 1
gene 2 3 4 8 0 3 8 1
gene 2 2 13 -2.23607 0 22 -2.23607 1
gene 2 13 4 -4.54466 0 23 -4.54466 1
gene 2 3 13 -1.62433 0 44 -1.62433 1
genomeend 25

/* Organism #26 Fitness: 9 Error: 1 */
genomestart 26
trait 1 0.1 0 0 0 0 0 0 0 
trait 2 0.2 0 0 0 0 0 0 0 
trait 3 0.084375 0 0 0 0.0142991 0.0239923 0 0.424387 
node 1 2 1 3
node 2 1 1 1
node 3 2 1 1
node 4 2 0 2
node 13 1 0 0
gene 2 1 4 -4.63841 0 1 -4.63841 1
gene 2 2 4 8 0 2 8 1
gene 2 3 4 8 0 3 8 1
gene 2 2 13 -4.9697 0 22 -4.9697 1
gene 2 13 4 0.521566 0 23 0.521566 0
gene 2 3 13 -6.06318 0 44 -6.06318 1
gene 2 4 13 0.420896 0 190 0.420896 1
genomeend 26

/* Organism #27 Fitness: 8.99618 Error: 1.00064 */
genomestart 27
trait 1 0.1 0 0 0 0 0 0 0 
trait 2 0.2 0 0 0 0 0 0 0 
trait 3 0 0 0 0 0 0 0 0.590451 
node 1 2 1 3
node 2 1 1 1
node 3 2 1 1
node 4 2 0 2
node 13 1 0 0
gene 2 1 4 -3.50937 0 1 -3.50937 1
gene 2 2 4 5.00876 0 2 5.00876 1
gene 2 3 4 7.08868 0 3 7.08868 1
gene 2 2 13 -1.28552 0 22 -1.28552 1
gene 2 13 4 -2.95043 0 23 -2.95043 1
gene 2 3 13 -2.99974 0 44 -2.99974 1
genomeend 27

/* Organism #28 Fitness: 9 Error: 1 */
genomestart 28
trait 1 0.1 0 0 0 0 0 0 0 
trait 2 0.2 0 0 0 0 0 0 0 
trait 3 0.0421875 0 0 0 0.00714956 0.0119962 0 0.507419 
node 1 2 1 3
node 2 1 1 1
node 3 2 1 1
node 4 2 0 2
node 13 1 0 0
gene 2 1 4 -2.89839 0 1 -2.89839 1
gene 2 2 4 8 0 2 8 1
gene 2 3 4 7.46978 0 3 7.46978 1
gene 2 2 13 -4.15732 0 22 -4.15732 1
gene 2 13 4 -0.780019 0 23 -0.780019 1
gene 2 3 13 -3.51893 0 44 -3.51893 1
genomeend 28

/* Organism #29 Fitness: 9 Error: 1 */
genomestart 29
trait 1 0.1 0 0 0 0 0 0 0 
trait 2 0.2 0 0 0 0 0 0 0 
trait 3 0 0 0 0 0 0 0 0.590451 
node 1 2 1 3
node 2 1 1 1
node 3 2 1 1
node 4 2 0 2
node 13 1 0 0
gene 2 1 4 -4.2589 0 1 -4.2589 1
gene 2 2 4 8 0 2 8 1
gene 2 3 4 8 0 3 8 1
gene 2 2 13 -2.59144 0 22 -2.59144 1
gene 2 13 4 -3.2456 0 23 -3.2456 1
gene 2 3 13 -1.11754 0 44 -1.11754 1
genomeend 29

/* Organism #30 Fitness: 8.99995 Error: 1.00001 */
genomestart 30
trait 1 0.1 0 0 0 0 0 0 0 
trait 2 0.2 0 0 0 0 0 0 0 
trait 3 0.084375 0 0 0 0.0142991 0.0239923 0 0.424387 
node 1 2 1 3
node 2 1 1 1
node 3 2 1 1
node 4 2 0 2
node 13 1 0 0
gene 2 1 4 -2.39286 0 1 -2.39286 1
gene 2 2 4 8 0 2 8 1
gene 2 3 4 7.53727 0 3 7.53727 1
gene 3 2 13 -3.72246 0 22 -3.72246 1
gene 2 13 4 2.67355 0 23 2.67355 0
gene 2 3 13 -7.25487 0 44 -7.25487 1
genomeend 30

/* Organism #31 Fitness: 9 Error: 1 */
genomestart 31
trait 1 0.1 0 0 0 0 0 0 0 
trait 2 0.2 0 0 0 0 0 0 0 
trait 3 0.0421875 0 0 0 0.00714956 0.0119962 0 0.507419 
node 1 2 1 3
node 2 1 1 1
node 3 2 1 1
node 4 2 0 2
node 13 1 0 0
gene 2 1 4 -3.36907 0 1 -3.36907 1
gene 2 2 4 6.50876 0 2 6.50876 1
gene 2 3 4 8 0 3 8 1
gene 2 2 13 -4.9697 0 22 -4.9697 1
gene 2 13 4 0.521566 0 23 0.521566 0
gene 2 3 13 -2.16083 0 44 -2.16083 1
genomeend 31

/* Organism #32 Fitness: 9 Error: 1 */
genomestart 32
trait 1 0.1 0 0 0 0 0 0 0 
trait 2 0.2 0 0 0 0 0 0 0 
trait 3 0 0 0 0 0 0 0 0.590451 
node 1 2 1 3
node 2 1 1 1
node 3 2 1 1
node 4 2 0 2
node 13 1 0 0
gene 2 1 4 -3.36907 0 1 -3.36907 1
gene 2 2 4 6.89524 0 2 6.89524 1
gene 2 3 4 8 0 3 8 1
gene 2 2 13 -3.46674 0 22 -3.46674 1
gene 2 13 4 -3.78424 0 23 -3.78424 1
gene 2 3 13 -2.16083 0 44 -2.16083 1
genomeend 32

/* Species #4 : (Size 8) (AF 8.18529) (Age 18)  */


/* Organism #33 Fitness: 9 Error: 1 */
genomestart 33
trait 1 0.1 0 0 0 0 0 0 0 
trait 2 0.2 0 0 0 0 0 0 0 
trait 3 0.3 0 0 0 0 0 0 0 
node 1 2 1 3
node 2 1 1 1
node 3 2 1 1
node 4 1 0 2
node 15 1 0 0
gene 1 1 4 -3.87874 0 1 -3.87874 1
gene 3 2 4 8 0 2 8 1
gene 2 3 4 4.46633 0 3 4.46633 1
gene 2 3 15 5.34604 0 27 5.34604 1
gene 2 15 4 7.18854 0 28 7.18854 1
gene 3 1 15 -1.34229 0 46 -1.34229 1
gene 3 2 15 -0.379209 0 118 -0.379209 1
genomeend 33

/* Organism #34 Fitness: 9 Error: 1 */
genomestart 34
trait 1 0.1 0 0 0 0 0 0 0 
trait 2 0.2 0 0 0 0 0 0 0 
trait 3 0.3 0 0 0 0 0 0 0 
node 1 2 1 3
node 2 1 1 1
node 3 2 1 1
node 4 1 0 2
node 15 1 0 0
gene 1 1 4 -4.27667 0 1 -4.27667 1
gene 3 2 4 8 0 2 8 1
gene 2 3 4 6.1569 0 3 6.1569 1
gene 2 3 15 4.02951 0 27 4.02951 1
gene 2 15 4 5.11265 0 28 5.11265 1
gene 3 1 15 -1.97459 0 46 -1.97459 1
gene 3 2 15 0.87134 0 118 0.87134 1
genomeend 34

/* Organism #35 Fitness: 7.48258 Error: 1.26457 */
genomestart 35
trait 1 0.1 0 0 0 0 0 0 0 
trait 2 0.2 0 0 0 0 0 0 0 
trait 3 0.3 0 0 0 0 0 0 0 
node 1 2 1 3
node 2 1 1 1
node 3 2 1 1
node 4 1 0 2
node 15 1 0 0
node 66 1 0 0
gene 1 1 4 -3.59067 0 1 -3.59067 1
gene 3 2 4 7.00084 0 2 7.00084 1
gene 2 3 4 3.85925 0 3 3.85925 1
gene 2 3 15 4.66155 0 27 4.66155 1
gene 2 15 4 6.76607 0 28 6.76607 0
gene 3 1 15 -2.60276 0 46 -2.60276 1
gene 3 2 15 0.511603 0 118 0.511603 1
gene 2 15 66 1 0 191 0 1
gene 2 66 4 6.76607 0 192 0 1
genomeend 35

/* Organism #36 Fitness: 8.99992 Error: 1.00001 */
genomestart 36
trait 1 0.1 0 0 0 0 0 0 0 
trait 2 0.2 0 0 0 0 0 0 0 
trait 3 0.3 0 0 0 0 0 0 0 
node 1 2 1 3
node 2 1 1 1
node 3 2 1 1
node 4 1 0 2
node 15 1 0 0
gene 1 1 4 -5.72297 0 1 -5.72297 1
gene 3 2 4 8 0 2 8 1
gene 2 3 4 4.33805 0 3 4.33805 1
gene 2 3 15 6.17232 0 27 6.17232 1
gene 2 15 4 8 0 28 8 1
gene 3 1 15 -0.235047 0 46 -0.235047 1
gene 3 2 15 -2.6197 0 118 -2.6197 1
genomeend 36

/* Organism #37 Fitness: 4 Error: 2 */
genomestart 37
trait 1 0.1 0 0 0 0 0 0 0 
trait 2 0.2 0 0 0 0 0 0 0 
trait 3 0.3 0 0 0 0 0 0 0 
node 1 2 1 3
node 2 1 1 1
node 3 2 1 1
node 4 1 0 2
node 15 1 0 0
gene 1 1 4 -4.89601 0 1 -4.89601 1
gene 3 2 4 5.69965 0 2 5.69965 1
gene 2 3 4 1.81841 0 3 1.81841 1
gene 2 3 15 4.66155 0 27 4.66155 1
gene 2 15 4 8 0 28 8 1
gene 3 1 15 1.49807 0 46 1.49807 1
gene 3 2 15 -1.27085 0 118 -1.27085 1
genomeend 37

/* Organism #38 Fitness: 9 Error: 1 */
genomestart 38
trait 1 0.1 0 0 0 0 0 0 0 
trait 2 0.2 0 0 0 0 0 0 0 
trait 3 0.3 0 0 0 0 0 0 0 
node 1 2 1 3
node 2 1 1 1
node 3 2 1 1
node 4 1 0 2
node 15 1 0 0
gene 1 1 4 -3.71876 0 1 -3.71876 1
gene 3 2 4 6.84682 0 2 6.84682 1
gene 2 3 4 3.22292 0 3 3.22292 1
gene 2 3 15 4.49369 0 27 4.49369 1
gene 1 15 4 7.59427 0 28 7.59427 1
gene 3 1 15 -1.11072 0 46 -1.11072 1
gene 3 2 15 -0.725849 0 118 -0.725849 1
genomeend 38

/* Organism #39 Fitness: 9 Error: 1 */
genomestart 39
trait 1 0.1 0 0 0 0 0 0 0 
trait 2 0.2 0 0 0 0 0 0 0 
trait 3 0.3 0 0 0 0 0 0 0 
node 1 2 1 3
node 2 1 1 1
node 3 2 1 1
node 4 1 0 2
node 15 1 0 0
gene 1 1 4 -3.87874 0 1 -3.87874 1
gene 3 2 4 8 0 2 8 1
gene 2 3 4 4.46633 0 3 4.46633 1
gene 2 3 15 5.34604 0 27 5.34604 1
gene 2 15 4 7.18854 0 28 7.18854 1
gene 3 1 15 -1.34229 0 46 -1.34229 1
gene 3 2 15 -0.379209 0 118 -0.379209 1
genomeend 39

/* Organism #40 Fitness: 8.99984 Error: 1.00003 */
genomestart 40
trait 1 0.1 0 0 0 0 0 0 0 
trait 2 0.2 0 0 0 0 0 0 0 
trait 3 0.3 0 0 0 0 0 0 0 
node 1 2 1 3
node 2 1 1 1
node 3 2 1 1
node 4 1 0 2
node 15 1 0 0
gene 1 1 4 -3.55879 0 1 -3.55879 1
gene 3 2 4 5.69363 0 2 5.69363 1
gene 2 3 4 4.46633 0 3 4.46633 1
gene 2 3 15 5.34604 0 27 5.34604 1
gene 2 15 4 7.18854 0 28 7.18854 1
gene 3 1 15 -1.34229 0 46 -1.34229 1
gene 3 2 15 -0.379209 0 118 -0.379209 1
genomeend 40

/* Species #5 : (Size 8) (AF 6.04439) (Age 16)  */


/* Organism #41 Fitness: 9 Error: 1 */
genomestart 41
trait 1 0.075 0 0 0 0 0.151566 0.209903 0.178254 
trait 2 0.2 0 0 0 0 0 0 0 
trait 3 0.3 0 0 0 0 0.0802445 0 0 
node 1 1 1 3
node 2 1 1 1
node 3 2 1 1
node 4 1 0 2
node 13 1 0 0
node 27 1 0 0
gene 2 1 4 -1.82301 0 1 -1.82301 1
gene 2 2 4 6.54738 0 2 6.54738 0
gene 1 3 4 5.66208 0 3 5.66208 1
gene 2 2 13 5.50913 0 22 5.50913 1
gene 2 13 4 -8 0 23 -8 1
gene 2 3 13 -7.10961 0 55 -7.10961 1
gene 2 2 27 4.13222 0 69 4.13222 1
gene 2 27 13 5.88092 0 70 5.88092 1
gene 3 1 13 -2.48978 0 172 -2.48978 1
genomeend 41

/* Organism #42 Fitness: 4.00003 Error: 1.99999 */
genomestart 42
trait 1 0.075 0 0 0 0 0.151566 0.209903 0.178254 
trait 2 0.2 0 0 0 0 0 0 0 
trait 3 0.3 0 0 0 0 0.0802445 0 0 
node 1 1 1 3
node 2 1 1 1
node 3 2 1 1
node 4 1 0 2
node 13 1 0 0
node 27 1 0 0
gene 1 1 4 -1.82301 0 1 -1.82301 1
gene 2 2 4 6.54738 0 2 6.54738 1
gene 1 3 4 5.66208 0 3 5.66208 1
gene 2 2 13 5.50913 0 22 5.50913 1
gene 2 13 4 -8 0 23 -8 1
gene 2 3 13 -7.10961 0 55 -7.10961 1
gene 2 2 27 4.13222 0 69 4.13222 1
gene 2 27 13 5.88092 0 70 5.88092 1
gene 3 1 13 -2.48978 0 172 -2.48978 1
genomeend 42

/* Organism #43 Fitness: 4 Error: 2 */
genomestart 43
trait 1 0.075 0 0 0 0 0.151566 0.209903 0.178254 
trait 2 0.2 0 0 0 0 0 0 0 
trait 3 0.225 0.169006 0 0 0 0.0802445 0.0723528 0 
node 1 1 1 3
node 2 1 1 1
node 3 2 1 1
node 4 1 0 2
node 13 1 0 0
node 27 1 0 0
gene 2 1 4 -1.71956 0 1 -1.71956 1
gene 2 2 4 7.69116 0 2 7.69116 0
gene 1 3 4 3.91465 0 3 3.91465 1
gene 2 2 13 3.25568 0 22 3.25568 1
gene 2 13 4 -7.51882 0 23 -7.51882 1
gene 2 3 13 -8 0 55 -8 1
gene 2 2 27 5.94678 0 69 5.94678 1
gene 2 27 13 1.01806 0 70 1.01806 1
gene 3 1 13 -0.346763 0 172 -0.346763 1
genomeend 43

/* Organism #44 Fitness: 4.00201 Error: 1.9995 */
genomestart 44
trait 1 0.075 0 0 0 0 0.151566 0.209903 0.178254 
trait 2 0.2 0 0 0 0 0 0 0 
trait 3 0.15 0.338013 0 0 0 0.0802445 0.144706 0 
node 1 1 1 3
node 2 1 1 1
node 3 2 1 1
node 4 1 0 2
node 13 1 0 0
node 27 1 0 0
gene 2 1 4 -2.3829 0 1 -2.3829 1
gene 2 2 4 5.67033 0 2 5.67033 1
gene 1 3 4 6.18903 0 3 6.18903 1
gene 2 2 13 5.48405 0 22 5.48405 1
gene 2 13 4 -7.93366 0 23 -7.93366 1
gene 2 3 13 -6.10315 0 55 -6.10315 1
gene 2 2 27 2.97579 0 69 2.97579 1
gene 2 27 13 6.17872 0 70 6.17872 1
gene 3 1 13 -2.48978 0 172 -2.48978 1
gene 2 1 27 0.0568979 0 186 0.0568979 1
genomeend 44

/* Organism #45 Fitness: 5.3532 Error: 1.6863 */
genomestart 45
trait 1 0.075 0 0 0 0 0.151566 0.209903 0.178254 
trait 2 0.2 0 0 0 0 0 0 0 
trait 3 0.3 0 0 0 0 0.0802445 0 0 
node 1 1 1 3
node 2 1 1 1
node 3 2 1 1
node 4 1 0 2
node 13 1 0 0
node 27 1 0 0
gene 2 1 4 -0.364606 0 1 -0.364606 1
gene 2 2 4 4.95923 0 2 4.95923 0
gene 1 3 4 7.55305 0 3 7.55305 1
gene 2 2 13 7.06512 0 22 7.06512 1
gene 2 13 4 -7.02946 0 23 -7.02946 1
gene 2 3 13 -6.43784 0 55 -6.43784 1
gene 2 2 27 2.94642 0 69 2.94642 1
gene 2 27 13 5.6334 0 70 5.6334 1
gene 3 1 13 -0.805393 0 172 -0.805393 1
genomeend 45

/* Organism #46 Fitness: 9 Error: 1 */
genomestart 46
trait 1 0.075 0 0 0 0 0.151566 0.209903 0.178254 
trait 2 0.2 0 0 0 0 0 0 0 
trait 3 0.225 0.169006 0 0 0 0.0802445 0.0723528 0 
node 1 1 1 3
node 2 1 1 1
node 3 2 1 1
node 4 1 0 2
node 13 1 0 0
node 27 1 0 0
gene 2 1 4 -1.82301 0 1 -1.82301 1
gene 2 2 4 6.54738 0 2 6.54738 0
gene 1 3 4 5.66208 0 3 5.66208 1
gene 2 2 13 5.50913 0 22 5.50913 1
gene 2 13 4 -8 0 23 -8 1
gene 2 3 13 -6.10315 0 55 -6.10315 1
gene 2 2 27 4.13222 0 69 4.13222 1
gene 2 27 13 6.17872 0 70 6.17872 1
gene 3 1 13 -2.48978 0 172 -2.48978 1
genomeend 46

/* Organism #47 Fitness: 4 Error: 2 */
genomestart 47
trait 1 0.075 0 0 0 0 0.151566 0.209903 0.178254 
trait 2 0.2 0 0 0 0 0 0 0 
trait 3 0.225 0.169006 0 0 0 0.0802445 0.0723528 0 
node 1 1 1 3
node 2 1 1 1
node 3 2 1 1
node 4 1 0 2
node 13 1 0 0
node 27 1 0 0
gene 2 1 4 -2.85707 0 1 -2.85707 1
gene 2 2 4 5.6972 0 2 5.6972 0
gene 1 3 4 -1.33806 0 3 -1.33806 1
gene 2 2 13 1.03618 0 22 1.03618 1
gene 2 13 4 -7.34309 0 23 -7.34309 1
gene 2 3 13 -7.97277 0 55 -7.97277 1
gene 2 2 27 -2.26671 0 69 -2.26671 1
gene 2 27 13 6.81726 0 70 6.81726 1
gene 3 1 13 -2.85543 0 172 -2.85543 1
genomeend 47

/* Organism #48 Fitness: 8.99986 Error: 1.00002 */
genomestart 48
trait 1 0.075 0 0 0 0 0.151566 0.209903 0.178254 
trait 2 0.2 0 0 0 0 0 0 0 
trait 3 0.225 0.169006 0 0 0 0.0802445 0.0723528 0 
node 1 1 1 3
node 2 1 1 1
node 3 2 1 1
node 4 1 0 2
node 13 1 0 0
node 27 1 0 0
gene 2 1 4 0.0820444 0 1 0.0820444 1
gene 2 2 4 7.19335 0 2 7.19335 0
gene 1 3 4 5.74479 0 3 5.74479 1
gene 2 2 13 4.94248 0 22 4.94248 1
gene 2 13 4 -8 0 23 -8 1
gene 2 3 13 -4.57078 0 55 -4.57078 1
gene 2 2 27 1.67935 0 69 1.67935 1
gene 2 27 13 5.22789 0 70 5.22789 1
gene 3 1 13 -2.46192 0 172 -2.46192 1
genomeend 48

/* Species #6 : (Size 9) (AF 5.7325) (Age 15)  */


/* Organism #49 Fitness: 8.99997 Error: 1.00001 */
genomestart 49
trait 1 0 0 0 0 0.182428 0 0 0 
trait 2 0.2 0 0 0 0 0 0 0 
trait 3 0.3 0 0 0 0 0 0 0 
node 1 1 1 3
node 2 1 1 1
node 3 2 1 1
node 4 2 0 2
node 13 1 0 0
node 27 1 0 0
node 42 1 0 0
gene 2 1 4 0.648433 0 1 0.648433 1
gene 2 2 4 -2.30893 0 2 -2.30893 0
gene 1 3 4 1.91268 0 3 1.91268 1
gene 2 2 13 1.94869 0 22 1.94869 1
gene 2 13 4 -5.23376 0 23 -5.23376 1
gene 2 3 13 -3.85727 0 55 -3.85727 1
gene 2 2 27 2.14943 0 69 2.14943 1
gene 2 27 13 6.02669 0 70 6.02669 1
gene 2 3 27 -0.77191 0 82 -0.77191 0
gene 3 1 27 1.20987 0 91 1.20987 1
gene 2 3 42 1.73155 0 110 1.73155 1
gene 2 42 27 -2.49775 0 111 -2.49775 1
genomeend 49

/* Organism #50 Fitness: 4 Error: 2 */
genomestart 50
trait 1 0 0 0 0 0.182428 0 0 0 
trait 2 0.2 0 0 0 0 0 0 0 
trait 3 0.3 0 0 0 0 0 0 0 
node 1 1 1 3
node 2 1 1 1
node 3 2 1 1
node 4 2 0 2
node 13 1 0 0
node 27 1 0 0
node 42 1 0 0
gene 2 1 4 2.75944 0 1 2.75944 1
gene 2 2 4 -0.29617 0 2 -0.29617 0
gene 1 3 4 -0.834781 0 3 -0.834781 1
gene 2 2 13 1.94869 0 22 1.94869 0
gene 2 13 4 -4.57052 0 23 -4.57052 1
gene 2 3 13 -5.03203 0 55 -5.03203 1
gene 2 2 27 1.43557 0 69 1.43557 1
gene 2 27 13 5.53388 0 70 5.53388 1
gene 2 3 27 -2.93226 0 82 -2.93226 0
gene 3 1 27 0.0214857 0 91 0.0214857 1
gene 2 3 42 1.92432 0 110 1.92432 1
gene 2 42 27 1.46253 0 111 1.46253 1
genomeend 50

/* Organism #51 Fitness: 8.95688 Error: 1.00719 */
genomestart 51
trait 1 0 0 0 0 0.182428 0 0 0 
trait 2 0.2 0 0 0 0 0 0 0 
trait 3 0.3 0 0 0 0 0 0 0 
node 1 1 1 3
node 2 1 1 1
node 3 2 1 1
node 4 2 0 2
node 13 1 0 0
node 27 1 0 0
node 42 1 0 0
gene 2 1 4 0.234572 0 1 0.234572 1
gene 2 2 4 -3.37547 0 2 -3.37547 0
gene 1 3 4 0.987827 0 3 0.987827 1
gene 2 2 13 1.04154 0 22 1.04154 0
gene 2 13 4 -4.51785 0 23 -4.51785 1
gene 2 3 13 -4.14747 0 55 -4.14747 1
gene 2 2 27 3.04012 0 69 3.04012 1
gene 2 27 13 4.16168 0 70 4.16168 1
gene 2 3 27 -2.46576 0 82 -2.46576 0
gene 3 1 27 0.800993 0 91 0.800993 1
gene 2 3 42 3.06528 0 110 3.06528 1
gene 2 42 27 -2.49775 0 111 -2.49775 1
genomeend 51

/* Organism #52 Fitness: 4.90119 Error: 1.78614 */
genomestart 52
trait 1 0 0 0 0 0.182428 0 0 0 
trait 2 0.2 0 0 0 0 0 0 0 
trait 3 0.3 0 0 0 0 0 0 0 
node 1 1 1 3
node 2 1 1 1
node 3 2 1 1
node 4 2 0 2
node 13 1 0 0
node 27 1 0 0
node 42 1 0 0
gene 2 1 4 -0.305667 0 1 -0.305667 1
gene 2 2 4 0.599702 0 2 0.599702 0
gene 1 3 4 0.817427 0 3 0.817427 1
gene 2 2 13 1.80576 0 22 1.80576 1
gene 2 13 4 -5.24386 0 23 -5.24386 1
gene 2 3 13 -2.3557 0 55 -2.3557 1
gene 2 2 27 3.89557 0 69 3.89557 1
gene 2 27 13 5.55187 0 70 5.55187 1
gene 2 3 27 0.970382 0 82 0.970382 0
gene 3 1 27 -1.31302 0 91 -1.31302 1
gene 2 3 42 1.01771 0 110 1.01771 1
gene 2 42 27 -4.57136 0 111 -4.57136 1
genomeend 52

/* Organism #53 Fitness: 8.73172 Error: 1.04505 */
genomestart 53
trait 1 0 0 0 0 0.182428 0 0 0 
trait 2 0.2 0 0 0 0 0 0 0 
trait 3 0.3 0 0 0 0 0 0 0 
node 1 1 1 3
node 2 1 1 1
node 3 2 1 1
node 4 2 0 2
node 13 1 0 0
node 27 1 0 0
node 42 1 0 0
gene 2 1 4 1.38472 0 1 1.38472 1
gene 2 2 4 0.150795 0 2 0.150795 0
gene 1 3 4 0.860723 0 3 0.860723 1
gene 2 2 13 -0.345861 0 22 -0.345861 1
gene 2 13 4 -4.49061 0 23 -4.49061 1
gene 2 3 13 -1.76272 0 55 -1.76272 1
gene 2 2 27 -1.54564 0 69 -1.54564 1
gene 2 27 13 8 0 70 8 1
gene 2 3 27 1.1722 0 82 1.1722 0
gene 3 1 27 -0.59644 0 91 -0.59644 1
gene 2 3 42 0.207335 0 110 0.207335 1
gene 2 42 27 -2.0095 0 111 -2.0095 1
genomeend 53

/* Organism #54 Fitness: 4.00166 Error: 1.99959 */
genomestart 54
trait 1 0 0 0 0 0.182428 0 0 0 
trait 2 0.2 0 0 0 0 0 0 0 
trait 3 0.3 0 0 0 0 0 0 0 
node 1 1 1 3
node 2 1 1 1
node 3 2 1 1
node 4 2 0 2
node 13 1 0 0
node 27 1 0 0
node 42 1 0 0
gene 2 1 4 1.59707 0 1 1.59707 1
gene 2 2 4 -0.708478 0 2 -0.708478 0
gene 1 3 4 2.95746 0 3 2.95746 1
gene 2 2 13 4.01046 0 22 4.01046 0
gene 2 13 4 -4.06055 0 23 -4.06055 1
gene 2 3 13 -6.08478 0 55 -6.08478 1
gene 2 2 27 -0.0687065 0 69 -0.0687065 1
gene 2 27 13 4.58686 0 70 4.58686 1
gene 2 3 27 0.215143 0 82 0.215143 0
gene 3 1 27 -0.282265 0 91 -0.282265 1
gene 2 3 42 1.73155 0 110 1.73155 1
gene 2 42 27 -3.0504 0 111 -3.0504 1
genomeend 54

/* Organism #55 Fitness: 4.00076 Error: 1.99981 */
genomestart 55
trait 1 0 0 0 0 0.182428 0 0 0 
trait 2 0.2 0 0 0 0 0 0 0 
trait 3 0.3 0 0 0 0 0 0 0 
node 1 1 1 3
node 2 1 1 1
node 3 2 1 1
node 4 2 0 2
node 13 1 0 0
node 27 1 0 0
node 42 1 0 0
gene 2 1 4 0.271896 0 1 0.271896 1
gene 2 2 4 -3.05002 0 2 -3.05002 0
gene 1 3 4 -0.325986 0 3 -0.325986 1
gene 2 2 13 1.48406 0 22 1.48406 1
gene 2 13 4 0.761765 0 23 0.761765 1
gene 2 3 13 -3.85727 0 55 -3.85727 1
gene 2 2 27 2.14943 0 69 2.14943 1
gene 2 27 13 7.41033 0 70 7.41033 1
gene 2 3 27 -2.70033 0 82 -2.70033 0
gene 3 1 27 1.61095 0 91 1.61095 1
gene 2 3 42 -0.22854 0 110 -0.22854 1
gene 2 42 27 -3.9892 0 111 -3.9892 1
genomeend 55

/* Organism #56 Fitness: 4.00036 Error: 1.99991 */
genomestart 56
trait 1 0 0 0 0 0.182428 0 0 0 
trait 2 0.2 0 0 0 0 0 0 0 
trait 3 0.3 0 0 0 0 0 0 0 
node 1 1 1 3
node 2 1 1 1
node 3 2 1 1
node 4 2 0 2
node 13 1 0 0
node 27 1 0 0
node 42 1 0 0
gene 2 1 4 0.179346 0 1 0.179346 1
gene 2 2 4 -2.36481 0 2 -2.36481 0
gene 1 3 4 3.45923 0 3 3.45923 1
gene 2 2 13 2.60912 0 22 2.60912 1
gene 2 13 4 -3.14047 0 23 -3.14047 1
gene 2 3 13 -6.04209 0 55 -6.04209 1
gene 2 2 27 3.03745 0 69 3.03745 1
gene 2 27 13 8 0 70 8 1
gene 2 3 27 -1.2489 0 82 -1.2489 0
gene 3 1 27 0.162462 0 91 0.162462 1
gene 2 3 42 1.73155 0 110 1.73155 1
gene 2 42 27 0.908585 0 111 0.908585 1
genomeend 56

/* Organism #57 Fitness: 4 Error: 2 */
genomestart 57
trait 1 0.361428 0 0 0.164312 0.370073 0 0 0.510912 
trait 2 0.2 0 0 0 0 0 0 0 
trait 3 0.3 0 0 0 0 0 0 0 
node 1 1 1 3
node 2 1 1 1
node 3 2 1 1
node 4 2 0 2
node 13 1 0 0
node 27 1 0 0
node 42 1 0 0
gene 2 1 4 -0.834925 0 1 -0.834925 1
gene 2 2 4 -0.584883 0 2 -0.584883 0
gene 1 3 4 3.82574 0 3 3.82574 1
gene 2 2 13 -1.1908 0 22 -1.1908 1
gene 2 13 4 -7.2461 0 23 -7.2461 1
gene 2 3 13 -1.43416 0 55 -1.43416 1
gene 2 2 27 2.14943 0 69 2.14943 1
gene 2 27 13 3.59413 0 70 3.59413 1
gene 2 3 27 -0.177095 0 82 -0.177095 0
gene 2 1 27 2.17892 0 91 2.17892 1
gene 2 3 42 1.73155 0 110 1.73155 1
gene 2 42 27 -2.11198 0 111 -2.11198 1
genomeend 57

/* Species #7 : (Size 9) (AF 8.97986) (Age 13)  */


/* Organism #58 Fitness: 9 Error: 1 */
genomestart 58
trait 1 0.1 0 0 0 0 0 0 0 
trait 2 0.2 0.00707319 0.0834604 0 0 0 0 0 
trait 3 0.3 0 0 0 0 0 0 0 
node 1 1 1 3
node 2 1 1 1
node 3 2 1 1
node 4 2 0 2
node 13 1 0 0
gene 2 1 4 -2.6008 0 1 -2.6008 1
gene 2 2 4 0.426908 0 2 0.426908 0
gene 2 3 4 6.63244 0 3 6.63244 1
gene 2 2 13 8 0 22 8 1
gene 2 13 4 -8 0 23 -8 1
gene 2 1 13 0.0592896 0 68 0.0592896 1
gene 1 3 13 -1.61445 0 112 -1.61445 1
genomeend 58

/* Organism #59 Fitness: 9 Error: 1 */
genomestart 59
trait 1 0.1 0 0 0 0 0 0 0 
trait 2 0.2 0.00707319 0.0834604 0 0 0 0 0 
trait 3 0.3 0 0 0 0 0 0 0 
node 1 3 1 3
node 2 1 1 1
node 3 2 1 1
node 4 2 0 2
node 13 1 0 0
gene 2 1 4 -4.84726 0 1 -4.84726 1
gene 2 2 4 -0.356425 0 2 -0.356425 0
gene 2 3 4 8 0 3 8 1
gene 2 2 13 8 0 22 8 1
gene 2 13 4 -8 0 23 -8 1
gene 2 1 13 -1.69245 0 68 -1.69245 1
gene 1 3 13 -0.439206 0 112 -0.439206 1
genomeend 59

/* Organism #60 Fitness: 9 Error: 1 */
genomestart 60
trait 1 0.1 0 0 0 0 0 0 0 
trait 2 0.2 0.00707319 0.0834604 0 0 0 0 0 
trait 3 0.3 0 0 0 0 0 0 0 
node 1 1 1 3
node 2 1 1 1
node 3 2 1 1
node 4 2 0 2
node 13 1 0 0
gene 2 1 4 -3.44486 0 1 -3.44486 1
gene 2 2 4 0.426908 0 2 0.426908 0
gene 2 3 4 6.63244 0 3 6.63244 1
gene 2 2 13 5.19813 0 22 5.19813 1
gene 2 13 4 -7.56991 0 23 -7.56991 1
gene 2 1 13 0.0592896 0 68 0.0592896 1
gene 1 3 13 -2.92779 0 112 -2.92779 1
genomeend 60

/* Organism #61 Fitness: 9 Error: 1 */
genomestart 61
trait 1 0.1 0 0 0 0 0 0 0 
trait 2 0.2 0.00707319 0.0834604 0 0 0 0 0 
trait 3 0.3 0 0 0 0 0 0 0 
node 1 1 1 3
node 2 1 1 1
node 3 2 1 1
node 4 2 0 2
node 13 1 0 0
gene 2 1 4 -1.02786 0 1 -1.02786 1
gene 2 2 4 0.125023 0 2 0.125023 0
gene 2 3 4 5.30603 0 3 5.30603 1
gene 2 2 13 8 0 22 8 1
gene 2 13 4 -8 0 23 -8 1
gene 2 1 13 0.893923 0 68 0.893923 1
gene 1 3 13 -1.74127 0 112 -1.74127 1
genomeend 61

/* Organism #62 Fitness: 8.85454 Error: 1.02434 */
genomestart 62
trait 1 0.1 0 0 0 0 0 0 0 
trait 2 0.2 0.00707319 0.0834604 0 0 0 0 0 
trait 3 0.3 0 0 0 0 0 0 0 
node 1 1 1 3
node 2 1 1 1
node 3 2 1 1
node 4 2 0 2
node 13 1 0 0
gene 2 1 4 -0.876725 0 1 -0.876725 1
gene 2 2 4 1.54248 0 2 1.54248 0
gene 2 3 4 1.99251 0 3 1.99251 1
gene 2 2 13 5.00538 0 22 5.00538 1
gene 2 13 4 -5.10399 0 23 -5.10399 1
gene 3 1 13 -2.94866 0 68 -2.94866 1
gene 1 3 13 -2.12624 0 112 -2.12624 1
genomeend 62

/* Organism #63 Fitness: 8.99816 Error: 1.00031 */
genomestart 63
trait 1 0.1 0 0 0 0 0 0 0 
trait 2 0.2 0.00707319 0.0834604 0 0 0 0 0 
trait 3 0.3 0 0 0 0 0 0 0 
node 1 1 1 3
node 2 1 1 1
node 3 2 1 1
node 4 2 0 2
node 13 1 0 0
gene 2 1 4 -3.63202 0 1 -3.63202 1
gene 2 2 4 0.970171 0 2 0.970171 0
gene 2 3 4 5.27466 0 3 5.27466 1
gene 2 2 13 8 0 22 8 1
gene 2 13 4 -6.18173 0 23 -6.18173 1
gene 2 1 13 -0.470352 0 68 -0.470352 1
gene 1 3 13 -2.4242 0 112 -2.4242 1
genomeend 63

/* Organism #64 Fitness: 8.96609 Error: 1.00566 */
genomestart 64
trait 1 0.1 0 0 0 0 0 0 0 
trait 2 0.2 0.00707319 0.0834604 0 0 0 0 0 
trait 3 0.3 0 0 0 0 0 0 0 
node 1 1 1 3
node 2 1 1 1
node 3 2 1 1
node 4 2 0 2
node 13 1 0 0
gene 2 1 4 -4.65866 0 1 -4.65866 1
gene 2 2 4 2.07879 0 2 2.07879 0
gene 2 3 4 5.70841 0 3 5.70841 1
gene 2 2 13 8 0 22 8 1
gene 2 13 4 -6.68181 0 23 -6.68181 1
gene 2 1 13 -0.725614 0 68 -0.725614 1
gene 1 3 13 -2.87973 0 112 -2.87973 1
genomeend 64

/* Organism #65 Fitness: 8.99998 Error: 1 */
genomestart 65
trait 1 0.1 0 0 0 0 0 0 0 
trait 2 0.2 0.00707319 0.0834604 0 0 0 0 0 
trait 3 0.3 0 0 0 0 0 0 0 
node 1 1 1 3
node 2 1 1 1
node 3 2 1 1
node 4 2 0 2
node 13 1 0 0
gene 2 1 4 -4.57424 0 1 -4.57424 1
gene 2 2 4 1.09379 0 2 1.09379 0
gene 2 3 4 8 0 3 8 1
gene 2 2 13 8 0 22 8 1
gene 2 13 4 -6.01341 0 23 -6.01341 1
gene 2 1 13 1.52453 0 68 1.52453 1
gene 1 3 13 -3.80566 0 112 -3.80566 1
genomeend 65

/* Organism #66 Fitness: 9 Error: 1 */
genomestart 66
trait 1 0.1 0 0 0 0 0 0 0 
trait 2 0.2 0.00707319 0.0834604 0 0 0 0 0 
trait 3 0.3 0 0 0 0 0 0 0 
node 1 1 1 3
node 2 1 1 1
node 3 2 1 1
node 4 2 0 2
node 13 1 0 0
gene 2 1 4 -4.30327 0 1 -4.30327 1
gene 2 2 4 1.94368 0 2 1.94368 0
gene 2 3 4 8 0 3 8 1
gene 2 2 13 7.31713 0 22 7.31713 1
gene 2 13 4 -8 0 23 -8 1
gene 2 1 13 -1.11393 0 68 -1.11393 1
gene 1 3 13 -2.58296 0 112 -2.58296 1
genomeend 66

/* Species #8 : (Size 10) (AF 8.51286) (Age 12)  */


/* Organism #67 Fitness: 9 Error: 1 */
genomestart 67
trait 1 0.1 0 0 0 0 0 0 0 
trait 2 0.2 0 0 0 0 0 0 0 
trait 3 0.3 0 0 0 0 0 0 0 
node 1 1 1 3
node 2 1 1 1
node 3 2 1 1
node 4 2 0 2
node 13 1 0 0
node 34 1 0 0
gene 2 1 4 1.5762 0 1 1.5762 1
gene 1 2 4 6.19485 0 2 6.19485 1
gene 2 3 4 8 0 3 8 1
gene 2 2 13 -1.49915 0 22 -1.49915 1
gene 2 13 4 -8 0 23 -8 1
gene 1 3 13 -3.58182 0 55 -3.58182 0
gene 2 3 34 -3.38056 0 89 -3.38056 1
gene 2 34 13 0.977976 0 90 0.977976 1
genomeend 67

/* Organism #68 Fitness: 8.98002 Error: 1.00333 */
genomestart 68
trait 1 0.1 0 0 0 0 0 0 0 
trait 2 0.2 0 0 0 0 0 0 0 
trait 3 0.3 0 0 0 0 0 0 0 
node 1 1 1 3
node 2 1 1 1
node 3 2 1 1
node 4 2 0 2
node 13 1 0 0
node 34 1 0 0
gene 2 1 4 2.62218 0 1 2.62218 1
gene 1 2 4 6.53557 0 2 6.53557 1
gene 2 3 4 8 0 3 8 1
gene 2 2 13 0.781531 0 22 0.781531 1
gene 2 13 4 -8 0 23 -8 1
gene 1 3 13 -5.70598 0 55 -5.70598 0
gene 2 3 34 -5.02848 0 89 -5.02848 1
gene 2 34 13 2.52069 0 90 2.52069 1
gene 2 2 34 0.548448 0 188 0.548448 1
genomeend 68

/* Organism #69 Fitness: 4.15028 Error: 1.96278 */
genomestart 69
trait 1 0.0992188 0.00293334 0.0058527 0.00463069 0 0 0 0 
trait 2 0.2 0 0 0 0 0 0 0 
trait 3 0.34375 0 0 0.000225211 0 0.00984771 0 0.0105965 
node 1 1 1 3
node 2 1 1 1
node 3 2 1 1
node 4 2 0 2
node 13 1 0 0
node 34 1 0 0
gene 2 1 4 2.28296 0 1 2.28296 1
gene 1 2 4 6.19485 0 2 6.19485 1
gene 2 3 4 1.93925 0 3 1.93925 1
gene 2 2 13 -3.11905 0 22 -3.11905 1
gene 2 13 4 -1.78625 0 23 -1.78625 1
gene 1 3 13 -3.58182 0 55 -3.58182 0
gene 2 3 34 -1.04043 0 89 -1.04043 1
gene 2 34 13 0.931126 0 90 0.931126 1
gene 2 2 34 2.07907 0 188 2.07907 1
genomeend 69

/* Organism #70 Fitness: 8.9985 Error: 1.00025 */
genomestart 70
trait 1 0.1 0 0 0 0 0 0 0 
trait 2 0.2 0 0 0 0 0 0 0 
trait 3 0.3 0 0 0 0 0 0 0 
node 1 1 1 3
node 2 1 1 1
node 3 2 1 1
node 4 2 0 2
node 13 1 0 0
node 34 1 0 0
gene 2 1 4 4.02123 0 1 4.02123 1
gene 1 2 4 5.42028 0 2 5.42028 1
gene 2 3 4 7.26663 0 3 7.26663 1
gene 2 2 13 0.0763316 0 22 0.0763316 1
gene 2 13 4 -5.7157 0 23 -5.7157 1
gene 1 3 13 -4.32921 0 55 -4.32921 0
gene 2 3 34 -3.27077 0 89 -3.27077 1
gene 2 34 13 2.55839 0 90 2.55839 1
gene 2 2 34 1.01914 0 188 1.01914 1
genomeend 70

/* Organism #71 Fitness: 9 Error: 1 */
genomestart 71
trait 1 0.1 0 0 0 0 0 0 0 
trait 2 0.2 0 0 0 0 0 0 0 
trait 3 0.3 0 0 0 0 0 0 0 
node 1 1 1 3
node 2 1 1 1
node 3 2 1 1
node 4 2 0 2
node 13 1 0 0
node 34 1 0 0
gene 2 1 4 1.51979 0 1 1.51979 1
gene 1 2 4 7.35272 0 2 7.35272 1
gene 2 3 4 5.78901 0 3 5.78901 1
gene 2 2 13 -1.3395 0 22 -1.3395 1
gene 2 13 4 -7.32442 0 23 -7.32442 1
gene 1 3 13 -4.22469 0 55 -4.22469 0
gene 2 3 34 -4.99942 0 89 -4.99942 1
gene 2 34 13 1.26691 0 90 1.26691 1
genomeend 71

/* Organism #72 Fitness: 9 Error: 1 */
genomestart 72
trait 1 0.0984375 0.00586668 0.0117054 0.00926139 0 0 0 0 
trait 2 0.2 0 0 0 0 0 0 0 
trait 3 1 0 0 0 0 0.888496 0 0.128695 
node 1 1 1 3
node 2 1 1 1
node 3 2 1 1
node 4 2 0 2
node 13 1 0 0
node 34 1 0 0
gene 2 1 4 2.28296 0 1 2.28296 1
gene 2 2 4 3.18276 0 2 3.18276 1
gene 1 3 4 7.76008 0 3 7.76008 1
gene 2 2 13 -4.92536 0 22 -4.92536 1
gene 2 13 4 -8 0 23 -8 1
gene 1 3 13 -4.42663 0 55 -4.42663 0
gene 2 3 34 -1.04043 0 89 -1.04043 1
gene 2 34 13 3.63304 0 90 3.63304 1
genomeend 72

/* Organism #73 Fitness: 8.9999 Error: 1.00002 */
genomestart 73
trait 1 0.1 0 0 0 0 0 0 0 
trait 2 0.2 0 0 0 0 0 0 0 
trait 3 0.3 0 0 0 0 0 0 0 
node 1 1 1 3
node 2 1 1 1
node 3 2 1 1
node 4 2 0 2
node 13 1 0 0
node 34 1 0 0
gene 2 1 4 1.6706 0 1 1.6706 1
gene 1 2 4 3.85145 0 2 3.85145 1
gene 2 3 4 8 0 3 8 1
gene 2 2 13 -2.89991 0 22 -2.89991 1
gene 2 13 4 -8 0 23 -8 1
gene 1 3 13 -4.1402 0 55 -4.1402 0
gene 2 3 34 -3.26443 0 89 -3.26443 1
gene 2 34 13 -0.018795 0 90 -0.018795 1
genomeend 73

/* Organism #74 Fitness: 9 Error: 1 */
genomestart 74
trait 1 0.0992188 0.00293334 0.0058527 0.00463069 0 0 0 0 
trait 2 0.2 0 0 0 0 0 0 0 
trait 3 0.34375 0 0 0.000225211 0 0.00984771 0 0.0105965 
node 1 1 1 3
node 2 1 1 1
node 3 2 1 1
node 4 2 0 2
node 13 1 0 0
node 34 1 0 0
gene 2 1 4 0.589965 0 1 0.589965 1
gene 1 2 4 5.01834 0 2 5.01834 1
gene 2 3 4 7.70382 0 3 7.70382 1
gene 2 2 13 -3.75062 0 22 -3.75062 1
gene 2 13 4 -8 0 23 -8 1
gene 1 3 13 -3.70571 0 55 -3.70571 0
gene 2 3 34 -0.81662 0 89 -0.81662 1
gene 2 34 13 0.283003 0 90 0.283003 1
genomeend 74

/* Organism #75 Fitness: 8.99995 Error: 1.00001 */
genomestart 75
trait 1 0.0992188 0.00293334 0.0058527 0.00463069 0 0 0 0 
trait 2 0.2 0 0 0 0 0 0 0 
trait 3 0.34375 0 0 0.000225211 0 0.00984771 0 0.0105965 
node 1 1 1 3
node 2 1 1 1
node 3 2 1 1
node 4 2 0 2
node 13 1 0 0
node 34 1 0 0
gene 2 1 4 2.28296 0 1 2.28296 1
gene 1 2 4 6.26593 0 2 6.26593 1
gene 2 3 4 8 0 3 8 1
gene 2 2 13 -7.42128 0 22 -7.42128 1
gene 2 13 4 -8 0 23 -8 1
gene 1 3 13 -2.9949 0 55 -2.9949 0
gene 2 3 34 0.512763 0 89 0.512763 1
gene 2 34 13 0.977976 0 90 0.977976 1
genomeend 75

/* Organism #76 Fitness: 9 Error: 1 */
genomestart 76
trait 1 0.1 0 0 0 0 0 0 0 
trait 2 0.2 0 0 0 0 0 0 0 
trait 3 0.3 0 0 0 0 0 0 0 
node 1 1 1 3
node 2 1 1 1
node 3 2 1 1
node 4 2 0 2
node 13 1 0 0
node 34 1 0 0
gene 2 1 4 3.77012 0 1 3.77012 1
gene 1 2 4 5.39596 0 2 5.39596 1
gene 2 3 4 6.53235 0 3 6.53235 1
gene 2 2 13 -2.27541 0 22 -2.27541 1
gene 2 13 4 -8 0 23 -8 1
gene 3 3 13 -5.21505 0 55 -5.21505 0
gene 2 3 34 -1.56834 0 89 -1.56834 1
gene 2 34 13 1.76257 0 90 1.76257 1
gene 2 2 34 1.61409 0 188 1.61409 1
genomeend 76

/* Species #9 : (Size 10) (AF 8.22017) (Age 11)  */


/* Organism #77 Fitness: 9.00122 Error: 0.999797 */
genomestart 77
trait 1 0.1 0 0 0 0 0 0 0 
trait 2 0.2 0 0 0 0 0 0 0 
trait 3 0.3 0 0 0.139782 0 0.0150458 0 0 
node 1 1 1 3
node 2 1 1 1
node 3 2 1 1
node 4 2 0 2
node 13 1 0 0
node 37 1 0 0
gene 2 1 4 2.36198 0 1 2.36198 1
gene 2 2 4 0.0878034 0 2 0.0878034 1
gene 2 3 4 -0.729425 0 3 -0.729425 1
gene 2 2 13 -2.35317 0 22 -2.35317 1
gene 2 13 4 -8 0 23 -8 1
gene 2 3 13 -5.86551 0 55 -5.86551 1
gene 2 2 37 -2.88176 0 97 -2.88176 1
gene 2 37 4 2.59262 0 98 2.59262 1
gene 3 37 13 2.70964 0 141 2.70964 1
genomeend 77

/* Organism #78 Fitness: 8.99999 Error: 1 */
genomestart 78
trait 1 0.1 0 0 0 0 0 0 0 
trait 2 0.2 0 0 0 0 0 0 0 
trait 3 0.3 0 0 0.279563 0 0.0100306 0 0 
node 1 1 1 3
node 2 1 1 1
node 3 2 1 1
node 4 2 0 2
node 13 2 0 0
node 37 1 0 0
gene 2 1 4 3.32884 0 1 3.32884 1
gene 2 2 4 1.36538 0 2 1.36538 1
gene 2 3 4 -0.362149 0 3 -0.362149 1
gene 2 2 13 -3.65062 0 22 -3.65062 1
gene 2 13 4 -7.67366 0 23 -7.67366 1
gene 2 3 13 -6.66582 0 55 -6.66582 1
gene 2 2 37 0.784101 0 97 0.784101 1
gene 2 37 4 3.04717 0 98 3.04717 1
gene 1 37 13 2.49541 0 141 2.49541 1
gene 3 1 13 -0.314573 0 189 -0.314573 1
genomeend 78

/* Organism #79 Fitness: 7.91085 Error: 1.18738 */
genomestart 79
trait 1 0.1 0 0 0 0 0 0 0 
trait 2 0.2 0 0 0 0 0 0 0 
trait 3 0.3 0 0 0.279563 0 0.0100306 0 0 
node 1 1 1 3
node 2 1 1 1
node 3 2 1 1
node 4 2 0 2
node 13 2 0 0
node 37 1 0 0
gene 2 1 4 0.16453 0 1 0.16453 1
gene 2 2 4 0.166286 0 2 0.166286 1
gene 2 3 4 0.529335 0 3 0.529335 1
gene 2 2 13 -4.33545 0 22 -4.33545 1
gene 2 13 4 -7.03511 0 23 -7.03511 1
gene 2 3 13 -5.58636 0 55 -5.58636 1
gene 2 2 37 -2.68477 0 97 -2.68477 1
gene 2 37 4 -0.0716522 0 98 -0.0716522 1
gene 1 37 13 3.29224 0 141 3.29224 1
gene 3 1 13 1.16993 0 189 1.16993 1
genomeend 79

/* Organism #80 Fitness: 4.37518 Error: 1.90831 */
genomestart 80
trait 1 0.1 0 0 0 0 0 0 0 
trait 2 0.2 0 0 0 0 0 0 0 
trait 3 0.3 0 0 0.139782 0 0.0150458 0 0 
node 1 1 1 3
node 2 1 1 1
node 3 2 1 1
node 4 2 0 2
node 13 1 0 0
node 37 1 0 0
gene 2 1 4 1.48359 0 1 1.48359 1
gene 2 2 4 0.0878034 0 2 0.0878034 1
gene 2 3 4 -1.71742 0 3 -1.71742 1
gene 2 2 13 -0.221332 0 22 -0.221332 1
gene 2 13 4 1.48734 0 23 1.48734 1
gene 2 3 13 -5.29062 0 55 -5.29062 1
gene 2 2 37 -2.88176 0 97 -2.88176 1
gene 2 37 4 0.335495 0 98 0.335495 1
gene 3 37 13 2.02704 0 141 2.02704 1
genomeend 80

/* Organism #81 Fitness: 8.84558 Error: 1.02585 */
genomestart 81
trait 1 0.1 0 0 0 0 0 0 0 
trait 2 0.2 0 0 0 0 0 0 0 
trait 3 0.3 0 0 0.209673 0 0.0125382 0 0 
node 1 1 1 3
node 2 1 1 1
node 3 2 1 1
node 4 2 0 2
node 13 2 0 0
node 37 1 0 0
gene 2 1 4 1.22875 0 1 1.22875 1
gene 2 2 4 -2.17172 0 2 -2.17172 1
gene 2 3 4 -1.06691 0 3 -1.06691 1
gene 2 2 13 -6.82544 0 22 -6.82544 1
gene 2 13 4 -8 0 23 -8 1
gene 2 3 13 -4.55997 0 55 -4.55997 1
gene 2 2 37 -2.38145 0 97 -2.38145 1
gene 2 37 4 1.01949 0 98 1.01949 1
gene 3 37 13 2.31329 0 141 2.31329 1
genomeend 81

/* Organism #82 Fitness: 9.00121 Error: 0.999799 */
genomestart 82
trait 1 0.1 0 0 0 0 0 0 0 
trait 2 0.2 0 0 0 0 0 0 0 
trait 3 0.3 0 0 0.279563 0 0.0100306 0 0 
node 1 1 1 3
node 2 1 1 1
node 3 2 1 1
node 4 2 0 2
node 13 2 0 0
node 37 1 0 0
node 67 1 0 0
gene 2 1 4 2.36198 0 1 2.36198 1
gene 2 2 4 0.0878034 0 2 0.0878034 0
gene 2 3 4 -0.729425 0 3 -0.729425 1
gene 2 2 13 -5.57758 0 22 -5.57758 1
gene 2 13 4 -8 0 23 -8 1
gene 2 3 13 -5.86551 0 55 -5.86551 1
gene 2 2 37 -1.71265 0 97 -1.71265 1
gene 2 37 4 1.88425 0 98 1.88425 1
gene 1 37 13 4.69826 0 141 4.69826 1
gene 2 2 67 1 0 193 0 1
gene 2 67 4 0.0878034 0 194 0 1
genomeend 82

/* Organism #83 Fitness: 3.96527 Error: 2.0087 */
genomestart 83
trait 1 0.1 0 0 0 0 0 0 0 
trait 2 0.2 0 0 0 0 0 0 0 
trait 3 0.3 0 0 0.279563 0 0.0100306 0 0 
node 1 1 1 3
node 2 1 1 1
node 3 2 1 1
node 4 2 0 2
node 13 2 0 0
node 37 1 0 0
gene 2 1 4 1.26585 0 1 1.26585 1
gene 2 2 4 1.25536 0 2 1.25536 1
gene 2 3 4 -2.29989 0 3 -2.29989 1
gene 2 2 13 -7.27415 0 22 -7.27415 1
gene 2 13 4 -2.06275 0 23 -2.06275 1
gene 2 3 13 -4.47757 0 55 -4.47757 1
gene 2 2 37 -1.88157 0 97 -1.88157 1
gene 2 37 4 1.5721 0 98 1.5721 1
gene 1 37 13 3.07715 0 141 3.07715 1
genomeend 83

/* Organism #84 Fitness: 9.00118 Error: 0.999803 */
genomestart 84
trait 1 0.1 0 0 0 0 0 0 0 
trait 2 0.2 0 0 0 0 0 0 0 
trait 3 0.3 0 0 0.279563 0 0.0100306 0 0 
node 1 1 1 3
node 2 1 1 1
node 3 2 1 1
node 4 2 0 2
node 13 2 0 0
node 37 1 0 0
gene 2 1 4 2.36198 0 1 2.36198 1
gene 2 2 4 0.0878034 0 2 0.0878034 1
gene 2 3 4 -0.729425 0 3 -0.729425 1
gene 2 2 13 -5.57758 0 22 -5.57758 1
gene 2 13 4 -8 0 23 -8 1
gene 2 3 13 -5.86551 0 55 -5.86551 1
gene 2 2 37 -1.71265 0 97 -1.71265 1
gene 2 37 4 1.88425 0 98 1.88425 1
gene 1 37 13 4.69826 0 141 4.69826 1
gene 3 1 13 -0.314573 0 189 -0.314573 1
gene 2 1 37 0.54855 0 195 0.54855 1
genomeend 84

/* Organism #85 Fitness: 5.36268 Error: 1.68425 */
genomestart 85
trait 1 0.1 0 0 0 0 0 0 0 
trait 2 0.2 0 0 0 0 0 0 0 
trait 3 0.445678 0 0 0.209673 0.227054 0.625468 0 0.0617644 
node 1 1 1 3
node 2 1 1 1
node 3 2 1 1
node 4 2 0 2
node 13 1 0 0
node 37 1 0 0
gene 2 1 4 0.206994 0 1 0.206994 1
gene 2 2 4 -0.3926 0 2 -0.3926 1
gene 2 3 4 -1.25163 0 3 -1.25163 1
gene 2 2 13 -1.72374 0 22 -1.72374 1
gene 2 13 4 -5.9718 0 23 -5.9718 1
gene 2 3 13 -8 0 55 -8 1
gene 2 2 37 -2.52117 0 97 -2.52117 1
gene 2 37 4 0.699703 0 98 0.699703 1
gene 1 37 13 3.61572 0 141 3.61572 1
genomeend 85

/* Organism #86 Fitness: 15.7385 Error: 0.0328209 */
/* ##------$ WINNER 86 SPECIES #9 $------## */
genomestart 86
trait 1 0.1 0 0 0 0 0 0 0 
trait 2 0.2 0 0 0 0 0 0 0 
trait 3 0.3 0 0 0.279563 0 0.0100306 0 0 
node 1 1 1 3
node 2 1 1 1
node 3 2 1 1
node 4 2 0 2
node 13 3 0 0
node 37 1 0 0
gene 2 1 4 2.17824 0 1 2.17824 1
gene 2 2 4 -1.45882 0 2 -1.45882 1
gene 2 3 4 -1.72341 0 3 -1.72341 1
gene 2 2 13 -7.95119 0 22 -7.95119 1
gene 2 13 4 -8 0 23 -8 1
gene 2 3 13 -6.44158 0 55 -6.44158 1
gene 2 2 37 -0.499859 0 97 -0.499859 1
gene 2 37 4 3.27748 0 98 3.27748 1
gene 1 37 13 7.09613 0 141 7.09613 1
gene 3 1 13 1.12992 0 189 1.12992 1
genomeend 86

/* Species #10 : (Size 11) (AF 6.4031) (Age 11)  */


/* Organism #87 Fitness: 8.99999 Error: 1 */
genomestart 87
trait 1 0.1 0 0 0 0 0 0 0 
trait 2 0.2 0 0 0 0 0 0 0 
trait 3 0.3 0 0 0 0 0.0802445 0 0 
node 1 1 1 3
node 2 1 1 1
node 3 2 1 1
node 4 2 0 2
node 13 3 0 0
node 38 1 0 0
gene 2 1 4 -2.22121 0 1 -2.22121 1
gene 2 2 4 6.57181 0 2 6.57181 1
gene 2 3 4 5.99822 0 3 5.99822 1
gene 2 2 13 0.971896 0 22 0.971896 1
gene 3 13 4 -2.83203 0 23 -2.83203 0
gene 2 3 13 -2.26266 0 55 -2.26266 1
gene 3 1 13 2.2119 0 85 2.2119 1
gene 2 13 38 3.67889 0 99 3.67889 1
gene 2 38 4 -0.674788 0 100 -0.674788 1
gene 2 3 38 0.956866 0 176 0.956866 1
genomeend 87

/* Organism #88 Fitness: 4.00537 Error: 1.99866 */
genomestart 88
trait 1 0.1 0 0 0 0 0 0 0 
trait 2 0.2 0 0 0 0 0 0 0 
trait 3 0.3 0 0 0 0 0.0802445 0 0 
node 1 1 1 3
node 2 1 1 1
node 3 2 1 1
node 4 2 0 2
node 13 3 0 0
node 38 1 0 0
gene 2 1 4 1.97504 0 1 1.97504 1
gene 2 2 4 4.87943 0 2 4.87943 1
gene 2 3 4 5.51253 0 3 5.51253 1
gene 2 2 13 2.85649 0 22 2.85649 1
gene 3 13 4 -0.382476 0 23 -0.382476 0
gene 2 3 13 -0.124099 0 55 -0.124099 1
gene 3 1 13 0.0845769 0 85 0.0845769 1
gene 2 13 38 0.126941 0 99 0.126941 1
gene 2 38 4 -1.06611 0 100 -1.06611 1
gene 2 3 38 2.30245 0 176 2.30245 1
genomeend 88

/* Organism #89 Fitness: 8.98197 Error: 1.00301 */
genomestart 89
trait 1 0.1 0 0 0 0 0 0 0 
trait 2 0.2 0 0 0 0 0 0 0 
trait 3 0.3 0 0 0 0 0.0802445 0 0 
node 1 1 1 3
node 2 1 1 1
node 3 2 1 1
node 4 2 0 2
node 13 3 0 0
node 38 1 0 0
gene 2 1 4 -0.251688 0 1 -0.251688 1
gene 2 2 4 2.71718 0 2 2.71718 1
gene 2 3 4 4.27256 0 3 4.27256 1
gene 2 2 13 2.38976 0 22 2.38976 1
gene 3 13 4 -2.91607 0 23 -2.91607 0
gene 2 3 13 -3.337 0 55 -3.337 1
gene 3 1 13 3.06255 0 85 3.06255 1
gene 2 13 38 2.02984 0 99 2.02984 1
gene 2 38 4 -1.23664 0 100 -1.23664 1
gene 2 3 38 0.956866 0 176 0.956866 1
genomeend 89

/* Organism #90 Fitness: 8.99948 Error: 1.00009 */
genomestart 90
trait 1 0.1 0 0 0 0 0 0 0 
trait 2 0.2 0 0 0 0 0 0 0 
trait 3 0.3 0 0 0 0 0.0802445 0 0 
node 1 1 1 3
node 2 1 1 1
node 3 2 1 1
node 4 2 0 2
node 13 3 0 0
node 38 1 0 0
gene 2 1 4 -0.513896 0 1 -0.513896 1
gene 2 2 4 5.89482 0 2 5.89482 1
gene 2 3 4 3.52774 0 3 3.52774 1
gene 2 2 13 1.92979 0 22 1.92979 1
gene 3 13 4 0.212956 0 23 0.212956 0
gene 2 3 13 -4.4327 0 55 -4.4327 1
gene 3 1 13 1.29151 0 85 1.29151 1
gene 2 13 38 0.609167 0 99 0.609167 1
gene 2 38 4 -1.45523 0 100 -1.45523 1
gene 2 3 38 -2.30882 0 176 -2.30882 1
genomeend 90

/* Organism #91 Fitness: 1.08389 Error: 2.9589 */
genomestart 91
trait 1 0.1 0 0 0 0 0 0 0 
trait 2 0.2 0 0 0 0 0 0 0 
trait 3 0.3 0 0 0 0 0.0802445 0 0 
node 1 1 1 3
node 2 1 1 1
node 3 2 1 1
node 4 2 0 2
node 13 3 0 0
node 38 1 0 0
gene 2 1 4 -1.2805 0 1 -1.2805 1
gene 2 2 4 -1.73987 0 2 -1.73987 1
gene 2 3 4 4.08008 0 3 4.08008 1
gene 2 2 13 0.510281 0 22 0.510281 1
gene 3 13 4 -0.375069 0 23 -0.375069 0
gene 2 3 13 -3.81902 0 55 -3.81902 1
gene 3 1 13 4.18745 0 85 4.18745 1
gene 2 13 38 3.67889 0 99 3.67889 1
gene 2 38 4 1.94789 0 100 1.94789 1
gene 2 3 38 0.671766 0 176 0.671766 1
genomeend 91

/* Organism #92 Fitness: 8.99063 Error: 1.00156 */
genomestart 92
trait 1 0.1 0 0 0 0 0 0 0 
trait 2 0.2 0 0 0 0 0 0 0 
trait 3 0.3 0 0 0 0 0.0802445 0 0 
node 1 1 1 3
node 2 1 1 1
node 3 2 1 1
node 4 2 0 2
node 13 3 0 0
node 38 1 0 0
gene 2 1 4 -2.43933 0 1 -2.43933 1
gene 2 2 4 5.87047 0 2 5.87047 1
gene 2 3 4 7.24201 0 3 7.24201 1
gene 2 2 13 3.82277 0 22 3.82277 1
gene 3 13 4 -4.14441 0 23 -4.14441 0
gene 2 3 13 0.167059 0 55 0.167059 1
gene 3 1 13 2.79829 0 85 2.79829 1
gene 2 13 38 3.75523 0 99 3.75523 1
gene 2 38 4 -2.11903 0 100 -2.11903 1
gene 2 3 38 2.0972 0 176 2.0972 1
genomeend 92

/* Organism #93 Fitness: 4.10311 Error: 1.97439 */
genomestart 93
trait 1 0.1 0 0 0 0 0 0 0 
trait 2 0.2 0 0 0 0 0 0 0 
trait 3 0.3 0 0 0 0 0.0802445 0 0 
node 1 1 1 3
node 2 1 1 1
node 3 2 1 1
node 4 2 0 2
node 13 3 0 0
node 38 1 0 0
gene 2 1 4 1.08566 0 1 1.08566 1
gene 2 2 4 6.2768 0 2 6.2768 1
gene 2 3 4 4.16677 0 3 4.16677 1
gene 2 2 13 2.56401 0 22 2.56401 1
gene 3 13 4 -0.291975 0 23 -0.291975 0
gene 2 3 13 -2.49422 0 55 -2.49422 1
gene 3 1 13 -0.54047 0 85 -0.54047 1
gene 2 13 38 -0.632924 0 99 -0.632924 1
gene 2 38 4 -0.771709 0 100 -0.771709 1
gene 2 3 38 0.419516 0 176 0.419516 1
genomeend 93

/* Organism #94 Fitness: 4.36209 Error: 1.91144 */
genomestart 94
trait 1 0.1 0 0 0 0 0 0 0 
trait 2 0.2 0 0 0 0 0 0 0 
trait 3 0.3 0 0 0 0 0.0802445 0 0 
node 1 1 1 3
node 2 1 1 1
node 3 2 1 1
node 4 2 0 2
node 13 3 0 0
node 38 2 0 0
gene 2 1 4 -2.74752 0 1 -2.74752 1
gene 2 2 4 4.13528 0 2 4.13528 1
gene 2 3 4 5.29534 0 3 5.29534 1
gene 2 2 13 2.33763 0 22 2.33763 1
gene 3 13 4 -0.511642 0 23 -0.511642 0
gene 2 3 13 -5.81269 0 55 -5.81269 1
gene 3 1 13 4.34583 0 85 4.34583 1
gene 2 13 38 0.388812 0 99 0.388812 1
gene 2 38 4 -2.00173 0 100 -2.00173 1
gene 2 3 38 0.956866 0 176 0.956866 1
genomeend 94

/* Organism #95 Fitness: 8.99999 Error: 1 */
genomestart 95
trait 1 0.1 0 0 0 0 0 0 0 
trait 2 0.2 0 0 0 0 0 0 0 
trait 3 0.3 0 0 0 0 0.0802445 0 0 
node 1 1 1 3
node 2 1 1 1
node 3 2 1 1
node 4 2 0 2
node 13 3 0 0
node 38 1 0 0
gene 2 1 4 -2.22121 0 1 -2.22121 1
gene 2 2 4 6.57181 0 2 6.57181 1
gene 2 3 4 5.99822 0 3 5.99822 1
gene 2 2 13 0.971896 0 22 0.971896 1
gene 3 13 4 -2.83203 0 23 -2.83203 0
gene 2 3 13 -2.26266 0 55 -2.26266 1
gene 3 1 13 2.2119 0 85 2.2119 1
gene 2 13 38 3.67889 0 99 3.67889 1
gene 2 38 4 -0.674788 0 100 -0.674788 1
gene 2 3 38 0.956866 0 176 0.956866 1
genomeend 95

/* Organism #96 Fitness: 2.90834 Error: 2.29461 */
genomestart 96
trait 1 0.1 0 0 0 0 0 0 0 
trait 2 0.2 0 0 0 0 0 0 0 
trait 3 0.3 0 0 0 0 0.0802445 0 0 
node 1 1 1 3
node 2 1 1 1
node 3 2 1 1
node 4 2 0 2
node 13 3 0 0
node 38 1 0 0
gene 2 1 4 -0.118655 0 1 -0.118655 1
gene 2 2 4 5.2899 0 2 5.2899 1
gene 2 3 4 2.73857 0 3 2.73857 1
gene 2 2 13 4.23022 0 22 4.23022 1
gene 3 13 4 -3.68028 0 23 -3.68028 1
gene 2 3 13 -4.08518 0 55 -4.08518 1
gene 3 1 13 2.52023 0 85 2.52023 1
gene 2 13 38 0.48204 0 99 0.48204 1
gene 2 38 4 -2.4833 0 100 -2.4833 1
gene 2 3 38 0.956866 0 176 0.956866 1
genomeend 96

/* Organism #97 Fitness: 8.99924 Error: 1.00013 */
genomestart 97
trait 1 0.1 0 0 0 0 0 0 0 
trait 2 0.2 0 0 0 0 0 0 0 
trait 3 0.3 0 0 0 0 0.0802445 0 0 
node 1 1 1 3
node 2 1 1 1
node 3 2 1 1
node 4 3 0 2
node 13 3 0 0
node 38 1 0 0
gene 2 1 4 -0.414458 0 1 -0.414458 1
gene 3 2 4 4.56203 0 2 4.56203 1
gene 2 3 4 6.04541 0 3 6.04541 1
gene 2 2 13 4.70066 0 22 4.70066 1
gene 3 13 4 -0.416338 0 23 -0.416338 0
gene 2 3 13 -2.57399 0 55 -2.57399 1
gene 3 1 13 2.42271 0 85 2.42271 1
gene 2 13 38 0.0128715 0 99 0.0128715 1
gene 2 38 4 -3.83029 0 100 -3.83029 1
gene 2 3 38 0.78286 0 176 0.78286 1
genomeend 97

/* Species #12 : (Size 9) (AF 5.87684) (Age 9)  */


/* Organism #98 Fitness: 8.99968 Error: 1.00005 */
genomestart 98
trait 1 0.0754049 0.176163 0 0.0485729 0 0.454512 0 0 
trait 2 0.2 0 0 0 0 0 0 0 
trait 3 0.3 0 0.396153 0 0 0 0 0 
node 1 1 1 3
node 2 1 1 1
node 3 2 1 1
node 4 1 0 2
node 13 1 0 0
node 34 1 0 0
node 45 1 0 0
gene 2 1 4 -1.24914 0 1 -1.24914 1
gene 2 2 4 4.525 0 2 4.525 1
gene 2 3 4 -3.35034 0 3 -3.35034 1
gene 2 2 13 3.01171 0 22 3.01171 0
gene 2 13 4 -2.15387 0 23 -2.15387 1
gene 2 3 13 2.15719 0 55 2.15719 0
gene 2 3 34 1.34638 0 89 1.34638 1
gene 2 34 13 -1.4387 0 90 -1.4387 1
gene 2 2 45 -1.62842 0 120 -1.62842 1
gene 2 45 13 -6.47855 0 121 -6.47855 1
gene 1 34 4 -2.24824 0 156 -2.24824 1
genomeend 98

/* Organism #99 Fitness: 4.05156 Error: 1.98715 */
genomestart 99
trait 1 0.0754049 0.176163 0 0.0485729 0 0.454512 0 0 
trait 2 0.2 0 0 0 0 0 0 0 
trait 3 0.3 0 0.396153 0 0 0 0 0 
node 1 1 1 3
node 2 1 1 1
node 3 2 1 1
node 4 1 0 2
node 13 1 0 0
node 34 1 0 0
node 45 1 0 0
gene 2 1 4 1.38386 0 1 1.38386 1
gene 2 2 4 2.79914 0 2 2.79914 1
gene 2 3 4 -2.26556 0 3 -2.26556 1
gene 2 2 13 1.41029 0 22 1.41029 0
gene 2 13 4 -4.77773 0 23 -4.77773 1
gene 2 3 13 0.300362 0 55 0.300362 0
gene 2 3 34 -1.01553 0 89 -1.01553 1
gene 2 34 13 6.03236 0 90 6.03236 1
gene 2 2 45 0.610457 0 120 0.610457 1
gene 2 45 13 -5.24057 0 121 -5.24057 1
gene 1 34 4 -0.181765 0 156 -0.181765 1
genomeend 99

/* Organism #100 Fitness: 8.99584 Error: 1.00069 */
genomestart 100
trait 1 0.0754049 0.176163 0 0.0485729 0 0.454512 0 0 
trait 2 0.2 0 0 0 0 0 0 0 
trait 3 0.3 0 0.396153 0 0 0 0 0 
node 1 1 1 3
node 2 1 1 1
node 3 2 1 1
node 4 1 0 2
node 13 1 0 0
node 34 1 0 0
node 45 1 0 0
gene 2 1 4 0.674777 0 1 0.674777 1
gene 2 2 4 2.20553 0 2 2.20553 1
gene 2 3 4 -5.30252 0 3 -5.30252 1
gene 2 2 13 2.92319 0 22 2.92319 0
gene 2 13 4 -2.41173 0 23 -2.41173 1
gene 2 3 13 3.55836 0 55 3.55836 0
gene 2 3 34 -0.664494 0 89 -0.664494 1
gene 2 34 13 -0.846377 0 90 -0.846377 1
gene 2 2 45 -1.56024 0 120 -1.56024 1
gene 2 45 13 1.13488 0 121 1.13488 1
gene 1 34 4 -2.24824 0 156 -2.24824 1
genomeend 100

/* Organism #101 Fitness: 1.24682 Error: 2.88339 */
genomestart 101
trait 1 0.0754049 0.176163 0 0.0485729 0 0.454512 0 0 
trait 2 0.2 0 0 0 0 0 0 0 
trait 3 0.3 0 0.396153 0 0 0 0 0 
node 1 1 1 3
node 2 1 1 1
node 3 2 1 1
node 4 1 0 2
node 13 1 0 0
node 34 1 0 0
node 45 1 0 0
gene 2 1 4 0.0442914 0 1 0.0442914 1
gene 2 2 4 1.4389 0 2 1.4389 1
gene 2 3 4 -0.748563 0 3 -0.748563 1
gene 2 2 13 1.14763 0 22 1.14763 0
gene 2 13 4 -5.39089 0 23 -5.39089 1
gene 2 3 13 -0.566912 0 55 -0.566912 1
gene 2 3 34 -0.575499 0 89 -0.575499 1
gene 2 34 13 4.6798 0 90 4.6798 1
gene 2 2 45 1.7685 0 120 1.7685 1
gene 2 45 13 -7.22379 0 121 -7.22379 1
gene 1 34 4 1.07232 0 156 1.07232 1
genomeend 101

/* Organism #102 Fitness: 7.99163 Error: 1.17305 */
genomestart 102
trait 1 0.0754049 0.176163 0 0.0485729 0 0.454512 0 0 
trait 2 0.2 0 0 0 0 0 0 0 
trait 3 0.3 0 0.396153 0 0 0 0 0 
node 1 1 1 3
node 2 1 1 1
node 3 2 1 1
node 4 1 0 2
node 13 1 0 0
node 34 1 0 0
node 45 1 0 0
gene 2 1 4 0.0498259 0 1 0.0498259 1
gene 2 2 4 2.96193 0 2 2.96193 1
gene 2 3 4 -3.3295 0 3 -3.3295 1
gene 2 2 13 2.41515 0 22 2.41515 0
gene 2 13 4 -3.42122 0 23 -3.42122 1
gene 2 3 13 3.35624 0 55 3.35624 0
gene 2 3 34 -2.05403 0 89 -2.05403 1
gene 2 34 13 7.70428 0 90 7.70428 1
gene 2 2 45 3.81907 0 120 3.81907 1
gene 2 45 13 -5.24057 0 121 -5.24057 1
gene 1 34 4 2.12872 0 156 2.12872 1
genomeend 102

/* Organism #103 Fitness: 2.00215 Error: 2.58503 */
genomestart 103
trait 1 0.0754049 0.176163 0 0.0485729 0 0.454512 0 0 
trait 2 0.2 0 0 0 0 0 0 0 
trait 3 0.3 0 0.396153 0 0 0 0 0 
node 1 1 1 3
node 2 1 1 1
node 3 2 1 1
node 4 1 0 2
node 13 1 0 0
node 34 1 0 0
node 45 1 0 0
gene 2 1 4 0.546913 0 1 0.546913 1
gene 2 2 4 -0.609809 0 2 -0.609809 1
gene 2 3 4 -3.02747 0 3 -3.02747 1
gene 2 2 13 3.35155 0 22 3.35155 0
gene 2 13 4 -4.08997 0 23 -4.08997 1
gene 2 3 13 0.118471 0 55 0.118471 0
gene 2 3 34 0.635747 0 89 0.635747 1
gene 2 34 13 -2.26637 0 90 -2.26637 1
gene 2 2 45 3.53665 0 120 3.53665 1
gene 2 45 13 -5.61044 0 121 -5.61044 1
gene 1 34 4 -0.181765 0 156 -0.181765 1
genomeend 103

/* Organism #104 Fitness: 8.8351 Error: 1.02761 */
genomestart 104
trait 1 0.0754049 0.176163 0 0.0485729 0 0.454512 0 0 
trait 2 0.2 0 0 0 0 0 0 0 
trait 3 0.3 0 0.396153 0 0 0 0 0 
node 1 1 1 3
node 2 1 1 1
node 3 2 1 1
node 4 1 0 2
node 13 1 0 0
node 34 1 0 0
node 45 1 0 0
gene 2 1 4 -2.91442 0 1 -2.91442 1
gene 2 2 4 4.76337 0 2 4.76337 1
gene 2 3 4 -1.7743 0 3 -1.7743 1
gene 2 2 13 2.91616 0 22 2.91616 0
gene 2 13 4 -2.01749 0 23 -2.01749 1
gene 2 3 13 4.21454 0 55 4.21454 0
gene 2 3 34 1.01885 0 89 1.01885 1
gene 2 34 13 -2.58167 0 90 -2.58167 1
gene 2 2 45 -0.745367 0 120 -0.745367 1
gene 2 45 13 -7.59997 0 121 -7.59997 1
gene 1 34 4 -2.24824 0 156 -2.24824 1
genomeend 104

/* Organism #105 Fitness: 8.83175 Error: 1.02817 */
genomestart 105
trait 1 0.0754049 0.176163 0 0.0485729 0 0.454512 0 0 
trait 2 0.2 0 0 0 0 0 0 0 
trait 3 0.3 0 0.396153 0 0 0 0 0 
node 1 3 1 3
node 2 1 1 1
node 3 2 1 1
node 4 1 0 2
node 13 1 0 0
node 34 1 0 0
node 45 1 0 0
gene 2 1 4 0.707719 0 1 0.707719 1
gene 2 2 4 3.56563 0 2 3.56563 1
gene 2 3 4 -2.89086 0 3 -2.89086 1
gene 2 2 13 2.14472 0 22 2.14472 1
gene 2 13 4 -2.14445 0 23 -2.14445 1
gene 2 3 13 3.07417 0 55 3.07417 0
gene 2 3 34 1.61577 0 89 1.61577 1
gene 2 34 13 -3.04527 0 90 -3.04527 1
gene 2 2 45 -0.200563 0 120 -0.200563 1
gene 2 45 13 -6.16993 0 121 -6.16993 1
gene 1 34 4 -2.8638 0 156 -2.8638 1
genomeend 105

/* Organism #106 Fitness: 1.93701 Error: 2.60824 */
genomestart 106
trait 1 0.0754049 0.176163 0 0.0485729 0 0.454512 0 0 
trait 2 0.2 0 0 0 0.0857141 0 0 0.710238 
trait 3 0.3 0 0.396153 0 0 0 0 0 
node 1 1 1 3
node 2 1 1 1
node 3 2 1 1
node 4 1 0 2
node 13 1 0 0
node 34 1 0 0
node 45 1 0 0
gene 2 1 4 -0.19452 0 1 -0.19452 1
gene 2 2 4 -0.180136 0 2 -0.180136 1
gene 2 3 4 -2.53935 0 3 -2.53935 1
gene 2 2 13 3.5456 0 22 3.5456 0
gene 2 13 4 0.461382 0 23 0.461382 1
gene 2 3 13 0.259862 0 55 0.259862 0
gene 2 3 34 -0.785246 0 89 -0.785246 1
gene 2 34 13 7.64627 0 90 7.64627 1
gene 2 2 45 1.42439 0 120 1.42439 1
gene 2 45 13 -5.71202 0 121 -5.71202 1
gene 1 34 4 -0.181765 0 156 -0.181765 1
genomeend 106

/* Species #13 : (Size 11) (AF 7.06806) (Age 9)  */


/* Organism #107 Fitness: 9 Error: 1 */
genomestart 107
trait 1 0 0.375468 0.749146 0.592729 0 0 0 0 
trait 2 0.2 0 0 0 0 0 0 0 
trait 3 0.3 0 0 0 0 0 0 0 
node 1 1 1 3
node 2 1 1 1
node 3 2 1 1
node 4 2 0 2
node 13 1 0 0
node 34 1 0 0
node 46 1 0 0
gene 2 1 4 -3.90255 0 1 -3.90255 1
gene 2 2 4 7.47063 0 2 7.47063 1
gene 2 3 4 -7.35473 0 3 -7.35473 1
gene 2 2 13 -0.672985 0 22 -0.672985 1
gene 1 13 4 -0.49184 0 23 -0.49184 1
gene 2 3 13 3.6725 0 55 3.6725 0
gene 2 3 34 3.61596 0 89 3.61596 1
gene 2 34 13 -1.24739 0 90 -1.24739 1
gene 2 3 46 1.61447 0 122 1.61447 1
gene 2 46 13 3.59406 0 123 3.59406 1
genomeend 107

/* Organism #108 Fitness: 4 Error: 2 */
genomestart 108
trait 1 0 0.375468 0.749146 0.592729 0 0 0 0 
trait 2 0.2 0 0 0 0 0 0 0 
trait 3 0.3 0 0 0 0 0 0 0 
node 1 1 1 3
node 2 1 1 1
node 3 2 1 1
node 4 2 0 2
node 13 1 0 0
node 34 1 0 0
node 46 1 0 0
gene 2 1 4 -2.38628 0 1 -2.38628 1
gene 2 2 4 7.6828 0 2 7.6828 1
gene 2 3 4 -1.28077 0 3 -1.28077 1
gene 1 2 13 -3.00563 0 22 -3.00563 1
gene 1 13 4 -1.25287 0 23 -1.25287 1
gene 2 3 13 1.49716 0 55 1.49716 1
gene 2 3 34 2.59256 0 89 2.59256 1
gene 2 34 13 -1.39943 0 90 -1.39943 1
gene 2 3 46 -0.535828 0 122 -0.535828 1
gene 2 46 13 3.49635 0 123 3.49635 1
genomeend 108

/* Organism #109 Fitness: 8.99999 Error: 1 */
genomestart 109
trait 1 0 0.375468 0.749146 0.592729 0 0 0 0 
trait 2 0.2 0 0 0 0 0 0 0 
trait 3 0.3 0 0 0 0 0 0 0 
node 1 1 1 3
node 2 1 1 1
node 3 2 1 1
node 4 2 0 2
node 13 1 0 0
node 34 1 0 0
node 46 1 0 0
gene 2 1 4 -3.21803 0 1 -3.21803 1
gene 2 2 4 7.47063 0 2 7.47063 1
gene 2 3 4 -6.95889 0 3 -6.95889 1
gene 2 2 13 -0.672985 0 22 -0.672985 1
gene 1 13 4 -2.01389 0 23 -2.01389 1
gene 2 3 13 3.6725 0 55 3.6725 0
gene 2 3 34 3.61596 0 89 3.61596 1
gene 2 34 13 -2.29701 0 90 -2.29701 1
gene 2 3 46 0.154912 0 122 0.154912 1
gene 2 46 13 3.59406 0 123 3.59406 1
genomeend 109

/* Organism #110 Fitness: 8.99998 Error: 1 */
genomestart 110
trait 1 0 0.375468 0.749146 0.592729 0 0 0 0 
trait 2 0.2 0 0 0 0 0 0 0 
trait 3 0.3 0 0 0 0 0 0 0 
node 1 1 1 3
node 2 1 1 1
node 3 2 1 1
node 4 2 0 2
node 13 1 0 0
node 34 1 0 0
node 46 1 0 0
gene 2 1 4 -3.40588 0 1 -3.40588 1
gene 2 2 4 6.00939 0 2 6.00939 1
gene 2 3 4 -8 0 3 -8 1
gene 2 2 13 -2.40376 0 22 -2.40376 1
gene 1 13 4 -5.26848 0 23 -5.26848 1
gene 2 3 13 2.82793 0 55 2.82793 0
gene 2 3 34 2.06369 0 89 2.06369 1
gene 2 34 13 -1.63239 0 90 -1.63239 1
gene 2 3 46 -2.98941 0 122 -2.98941 1
gene 2 46 13 3.90125 0 123 3.90125 1
genomeend 110

/* Organism #111 Fitness: 8.9987 Error: 1.00022 */
genomestart 111
trait 1 0 0.375468 0.749146 0.592729 0 0 0 0 
trait 2 0.2 0 0 0 0 0 0 0 
trait 3 0.3 0 0 0 0 0 0 0 
node 1 1 1 3
node 2 1 1 1
node 3 2 1 1
node 4 2 0 2
node 13 1 0 0
node 34 1 0 0
node 46 1 0 0
gene 2 1 4 -0.95881 0 1 -0.95881 1
gene 2 2 4 5.43332 0 2 5.43332 1
gene 2 3 4 -7.62364 0 3 -7.62364 1
gene 2 2 13 -0.746434 0 22 -0.746434 1
gene 1 13 4 -1.32073 0 23 -1.32073 1
gene 2 3 13 -0.619865 0 55 -0.619865 0
gene 2 3 34 1.03773 0 89 1.03773 1
gene 2 34 13 -1.71317 0 90 -1.71317 1
gene 2 3 46 -1.33743 0 122 -1.33743 1
gene 2 46 13 1.83087 0 123 1.83087 1
genomeend 111

/* Organism #112 Fitness: 4 Error: 2 */
genomestart 112
trait 1 0 0.375468 0.749146 0.592729 0 0 0 0 
trait 2 0.2 0 0 0 0 0 0 0 
trait 3 0.3 0 0 0 0 0 0 0 
node 1 1 1 3
node 2 1 1 1
node 3 2 1 1
node 4 2 0 2
node 13 1 0 0
node 34 1 0 0
node 46 1 0 0
gene 2 1 4 -4.69048 0 1 -4.69048 1
gene 2 2 4 8 0 2 8 1
gene 2 3 4 1.32985 0 3 1.32985 1
gene 2 2 13 -0.803294 0 22 -0.803294 1
gene 1 13 4 -0.974256 0 23 -0.974256 1
gene 2 3 13 3.52131 0 55 3.52131 0
gene 2 3 34 6.0478 0 89 6.0478 1
gene 2 34 13 -1.62463 0 90 -1.62463 1
gene 2 3 46 1.91511 0 122 1.91511 1
gene 2 46 13 -1.07244 0 123 -1.07244 1
genomeend 112

/* Organism #113 Fitness: 8.75647 Error: 1.04087 */
genomestart 113
trait 1 0 0.375468 0.749146 0.592729 0 0 0 0 
trait 2 0.2 0 0 0 0 0 0 0 
trait 3 0.3 0 0 0 0 0 0 0 
node 1 1 1 3
node 2 1 1 1
node 3 2 1 1
node 4 2 0 2
node 13 1 0 0
node 34 1 0 0
node 46 1 0 0
gene 2 1 4 -1.67477 0 1 -1.67477 1
gene 2 2 4 6.52044 0 2 6.52044 1
gene 2 3 4 -5.48652 0 3 -5.48652 1
gene 2 2 13 -4.61884 0 22 -4.61884 1
gene 1 13 4 -2.69357 0 23 -2.69357 1
gene 2 3 13 1.78849 0 55 1.78849 0
gene 2 3 34 2.55316 0 89 2.55316 1
gene 2 34 13 -0.116376 0 90 -0.116376 1
gene 2 3 46 -0.220855 0 122 -0.220855 1
gene 2 46 13 4.7861 0 123 4.7861 1
genomeend 113

/* Organism #114 Fitness: 8.99999 Error: 1 */
genomestart 114
trait 1 0 0.375468 0.749146 0.592729 0 0 0 0 
trait 2 0.2 0 0 0 0 0 0 0 
trait 3 0.3 0 0 0 0 0 0 0 
node 1 1 1 3
node 2 1 1 1
node 3 2 1 1
node 4 2 0 2
node 13 1 0 0
node 34 1 0 0
node 46 1 0 0
gene 2 1 4 -3.21803 0 1 -3.21803 1
gene 2 2 4 5.70417 0 2 5.70417 1
gene 2 3 4 -6.95889 0 3 -6.95889 1
gene 2 2 13 -2.23971 0 22 -2.23971 1
gene 1 13 4 -2.01389 0 23 -2.01389 1
gene 2 3 13 3.6725 0 55 3.6725 0
gene 2 3 34 3.61596 0 89 3.61596 1
gene 2 34 13 -2.29701 0 90 -2.29701 1
gene 2 3 46 1.61447 0 122 1.61447 1
gene 2 46 13 3.59406 0 123 3.59406 1
gene 1 34 4 0.551756 0 196 0.551756 1
genomeend 114

/* Organism #115 Fitness: 3.99994 Error: 2.00002 */
genomestart 115
trait 1 0 0.375468 0.749146 0.592729 0 0 0 0 
trait 2 0.2 0 0 0 0 0 0 0 
trait 3 0.3 0 0 0 0 0 0 0 
node 1 1 1 3
node 2 1 1 1
node 3 2 1 1
node 4 2 0 2
node 13 1 0 0
node 34 1 0 0
node 46 1 0 0
gene 2 1 4 -5.74942 0 1 -5.74942 1
gene 2 2 4 8 0 2 8 1
gene 2 3 4 0.856449 0 3 0.856449 1
gene 2 2 13 -0.989281 0 22 -0.989281 1
gene 1 13 4 -1.42052 0 23 -1.42052 1
gene 2 3 13 3.99943 0 55 3.99943 0
gene 2 3 34 0.503653 0 89 0.503653 1
gene 2 34 13 -1.9353 0 90 -1.9353 1
gene 2 3 46 1.76038 0 122 1.76038 1
gene 2 46 13 1.84064 0 123 1.84064 1
genomeend 115

/* Organism #116 Fitness: 9 Error: 1 */
genomestart 116
trait 1 0 0.375468 0.749146 0.592729 0 0 0 0 
trait 2 0.2 0 0 0 0 0 0 0 
trait 3 0.3 0 0 0 0 0 0 0 
node 1 1 1 3
node 2 1 1 1
node 3 2 1 1
node 4 2 0 2
node 13 1 0 0
node 34 1 0 0
node 46 1 0 0
gene 2 1 4 -4.27346 0 1 -4.27346 1
gene 2 2 4 8 0 2 8 1
gene 2 3 4 -7.21854 0 3 -7.21854 1
gene 2 2 13 -2.4438 0 22 -2.4438 1
gene 1 13 4 0.192764 0 23 0.192764 1
gene 2 3 13 3.97425 0 55 3.97425 0
gene 2 3 34 1.45542 0 89 1.45542 1
gene 2 34 13 -3.81499 0 90 -3.81499 1
gene 2 3 46 -0.507427 0 122 -0.507427 1
gene 2 46 13 3.80845 0 123 3.80845 1
genomeend 116

/* Organism #117 Fitness: 2.99357 Error: 2.26981 */
genomestart 117
trait 1 0 0.375468 0.749146 0.592729 0 0 0 0 
trait 2 0.2 0 0 0 0 0 0 0 
trait 3 0.3 0 0 0 0 0 0 0 
node 1 1 1 3
node 2 1 1 1
node 3 2 1 1
node 4 2 0 2
node 13 1 0 0
node 34 1 0 0
node 46 1 0 0
gene 2 1 4 -6.36627 0 1 -6.36627 1
gene 2 2 4 7.69285 0 2 7.69285 1
gene 2 3 4 0.602285 0 3 0.602285 1
gene 2 2 13 -0.0464653 0 22 -0.0464653 1
gene 1 13 4 -4.88524 0 23 -4.88524 1
gene 2 3 13 0.156937 0 55 0.156937 0
gene 2 3 34 -1.01202 0 89 -1.01202 1
gene 2 34 13 -1.24739 0 90 -1.24739 1
gene 2 3 46 -3.71283 0 122 -3.71283 1
gene 2 46 13 1.24388 0 123 1.24388 1
genomeend 117

/* Species #14 : (Size 10) (AF 7.30436) (Age 8)  */


/* Organism #118 Fitness: 9 Error: 1 */
genomestart 118
trait 1 0.1 0 0 0 0 0 0 0 
trait 2 0.2 0 0 0 0 0.306359 0 0 
trait 3 0.3 0 0 0 0.411413 0 0.102882 0 
node 1 1 1 3
node 2 1 1 1
node 3 2 1 1
node 4 2 0 2
node 13 1 0 0
node 41 1 0 0
gene 2 1 4 -0.0801999 0 1 -0.0801999 1
gene 2 2 4 5.13484 0 2 5.13484 1
gene 2 3 4 -4.08363 0 3 -4.08363 1
gene 3 2 13 -1.58374 0 22 -1.58374 1
gene 2 13 4 -7.22172 0 23 -7.22172 1
gene 2 3 13 4.54516 0 44 4.54516 1
gene 2 13 41 -0.530155 0 107 -0.530155 1
gene 2 41 4 -1.0401 0 108 -1.0401 1
genomeend 118

/* Organism #119 Fitness: 9 Error: 1 */
genomestart 119
trait 1 0.1 0 0 0 0 0 0 0 
trait 2 0.2 0 0 0 0 0.153179 0 0 
trait 3 0.3 0 0 0 0.411413 0 0.102882 0 
node 1 1 1 3
node 2 1 1 1
node 3 2 1 1
node 4 2 0 2
node 13 1 0 0
node 41 1 0 0
gene 2 1 4 -0.718352 0 1 -0.718352 1
gene 2 2 4 5.04447 0 2 5.04447 1
gene 2 3 4 1.15482 0 3 1.15482 1
gene 3 2 13 -1.17183 0 22 -1.17183 1
gene 2 13 4 -8 0 23 -8 1
gene 2 3 13 3.37146 0 44 3.37146 1
gene 2 13 41 1.48844 0 107 1.48844 1
gene 2 41 4 -2.49096 0 108 -2.49096 1
genomeend 119

/* Organism #120 Fitness: 2.15002 Error: 2.53371 */
genomestart 120
trait 1 0.1 0 0 0 0 0 0 0 
trait 2 0.2 0 0 0 0 0.306359 0 0 
trait 3 0.3 0 0 0 0.411413 0 0.102882 0 
node 1 1 1 3
node 2 1 1 1
node 3 2 1 1
node 4 2 0 2
node 13 1 0 0
node 41 1 0 0
gene 2 1 4 -0.0801999 0 1 -0.0801999 1
gene 2 2 4 3.50487 0 2 3.50487 1
gene 2 3 4 -1.8868 0 3 -1.8868 1
gene 3 2 13 -3.11441 0 22 -3.11441 1
gene 2 13 4 1.98166 0 23 1.98166 1
gene 2 3 13 2.31265 0 44 2.31265 1
gene 2 13 41 -0.543031 0 107 -0.543031 1
gene 2 41 4 -1.5637 0 108 -1.5637 1
genomeend 120

/* Organism #121 Fitness: 4 Error: 2 */
genomestart 121
trait 1 0.1 0 0 0 0 0 0 0 
trait 2 0.2 0 0 0 0 0.153179 0 0 
trait 3 0.3 0 0 0 0.411413 0 0.102882 0 
node 1 1 1 3
node 2 1 1 1
node 3 2 1 1
node 4 2 0 2
node 13 1 0 0
node 41 1 0 0
gene 2 1 4 2.09908 0 1 2.09908 1
gene 2 2 4 4.95499 0 2 4.95499 1
gene 2 3 4 -2.50706 0 3 -2.50706 1
gene 3 2 13 -3.36049 0 22 -3.36049 1
gene 2 13 4 -8 0 23 -8 1
gene 2 3 13 2.13378 0 44 2.13378 1
gene 2 13 41 0.433617 0 107 0.433617 1
gene 2 41 4 -2.2945 0 108 -2.2945 1
genomeend 121

/* Organism #122 Fitness: 9 Error: 1 */
genomestart 122
trait 1 0.1 0 0 0 0 0 0 0 
trait 2 0.2 0 0 0 0 0.153179 0 0 
trait 3 0.3 0 0 0 0.411413 0 0.102882 0 
node 1 1 1 3
node 2 1 1 1
node 3 2 1 1
node 4 2 0 2
node 13 1 0 0
node 41 1 0 0
gene 2 1 4 0.10461 0 1 0.10461 1
gene 2 2 4 4.53108 0 2 4.53108 1
gene 2 3 4 -1.60303 0 3 -1.60303 1
gene 3 2 13 -2.37687 0 22 -2.37687 1
gene 2 13 4 -7.26923 0 23 -7.26923 1
gene 2 3 13 4.1 0 44 4.1 1
gene 2 13 41 0.832908 0 107 0.832908 1
gene 2 41 4 -1.7212 0 108 -1.7212 1
gene 2 2 41 -0.0567574 0 197 -0.0567574 1
genomeend 122

/* Organism #123 Fitness: 8.99777 Error: 1.00037 */
genomestart 123
trait 1 0.1 0 0 0 0 0 0 0 
trait 2 0.2 0 0 0 0 0 0 0 
trait 3 0.3 0 0 0 0.411413 0 0.102882 0 
node 1 3 1 3
node 2 1 1 1
node 3 2 1 1
node 4 2 0 2
node 13 1 0 0
node 41 1 0 0
gene 2 1 4 1.91815 0 1 1.91815 1
gene 2 2 4 2.06895 0 2 2.06895 1
gene 2 3 4 0.731519 0 3 0.731519 1
gene 3 2 13 -1.6623 0 22 -1.6623 1
gene 2 13 4 -7.82796 0 23 -7.82796 1
gene 2 3 13 5.95916 0 44 5.95916 1
gene 2 13 41 3.62575 0 107 3.62575 1
gene 2 41 4 0.391423 0 108 0.391423 1
genomeend 123

/* Organism #124 Fitness: 8.9896 Error: 1.00173 */
genomestart 124
trait 1 0.1 0 0 0 0 0 0 0 
trait 2 0.2 0 0 0 0 0.306359 0 0 
trait 3 0.3 0 0 0 0.411413 0 0.102882 0 
node 1 1 1 3
node 2 1 1 1
node 3 2 1 1
node 4 2 0 2
node 13 1 0 0
node 41 1 0 0
gene 2 1 4 -2.3753 0 1 -2.3753 1
gene 2 2 4 3.13591 0 2 3.13591 1
gene 2 3 4 -1.53259 0 3 -1.53259 1
gene 3 2 13 -0.766568 0 22 -0.766568 1
gene 2 13 4 -2.05184 0 23 -2.05184 1
gene 2 3 13 3.54483 0 44 3.54483 1
gene 2 13 41 1.05296 0 107 1.05296 1
gene 2 41 4 1.15456 0 108 1.15456 1
genomeend 124

/* Organism #125 Fitness: 3.90624 Error: 2.02358 */
genomestart 125
trait 1 0.1 0 0 0 0 0 0 0 
trait 2 0.2 0 0 0 0 0.153179 0 0 
trait 3 0.3 0 0 0 0.411413 0 0.102882 0 
node 1 1 1 3
node 2 1 1 1
node 3 2 1 1
node 4 2 0 2
node 13 1 0 0
node 41 1 0 0
gene 2 1 4 0.10461 0 1 0.10461 1
gene 2 2 4 3.65795 0 2 3.65795 1
gene 2 3 4 -1.60303 0 3 -1.60303 1
gene 3 2 13 -2.98799 0 22 -2.98799 1
gene 2 13 4 -0.525656 0 23 -0.525656 1
gene 2 3 13 4.49012 0 44 4.49012 1
gene 2 13 41 -0.272612 0 107 -0.272612 1
gene 2 41 4 -1.7212 0 108 -1.7212 1
genomeend 125

/* Organism #126 Fitness: 9 Error: 1 */
genomestart 126
trait 1 0.1 0 0 0 0 0 0 0 
trait 2 0.2 0 0 0 0 0.153179 0 0 
trait 3 0.3 0 0 0 0.411413 0 0.102882 0 
node 1 1 1 3
node 2 1 1 1
node 3 2 1 1
node 4 2 0 2
node 13 1 0 0
node 41 1 0 0
gene 2 1 4 -2.40913 0 1 -2.40913 1
gene 2 2 4 6.21224 0 2 6.21224 1
gene 2 3 4 -3.4983 0 3 -3.4983 1
gene 3 2 13 -3.67042 0 22 -3.67042 1
gene 2 13 4 -8 0 23 -8 1
gene 2 3 13 5.10839 0 44 5.10839 1
gene 2 13 41 -1.00293 0 107 -1.00293 1
gene 2 41 4 -0.296174 0 108 -0.296174 1
genomeend 126

/* Organism #127 Fitness: 8.99999 Error: 1 */
genomestart 127
trait 1 0.1 0 0 0 0 0 0 0 
trait 2 0.2 0 0 0 0 0.306359 0 0 
trait 3 0.3 0 0 0 0.411413 0 0.102882 0 
node 1 1 1 3
node 2 1 1 1
node 3 2 1 1
node 4 2 0 2
node 13 1 0 0
node 41 1 0 0
gene 2 1 4 -0.432467 0 1 -0.432467 1
gene 2 2 4 4.86114 0 2 4.86114 1
gene 2 3 4 -6.30787 0 3 -6.30787 1
gene 3 2 13 -1.16065 0 22 -1.16065 1
gene 2 13 4 -7.76128 0 23 -7.76128 1
gene 2 3 13 4.90229 0 44 4.90229 1
gene 2 13 41 -0.0749142 0 107 -0.0749142 1
gene 2 41 4 -3.34253 0 108 -3.34253 1
genomeend 127

/* Species #15 : (Size 8) (AF 5.52183) (Age 8)  */


/* Organism #128 Fitness: 8.54883 Error: 1.07616 */
genomestart 128
trait 1 0.1 0 0 0 0 0 0 0 
trait 2 0.2 0 0 0 0 0 0 0 
trait 3 0.3 0 0 0 0 0.120367 0 0 
node 1 1 1 3
node 2 1 1 1
node 3 1 1 1
node 4 2 0 2
node 13 1 0 0
node 44 1 0 0
gene 2 1 4 -0.598588 0 1 -0.598588 1
gene 2 2 4 -0.0244243 0 2 -0.0244243 0
gene 2 3 4 7.09247 0 3 7.09247 0
gene 2 2 13 -1.35519 0 22 -1.35519 1
gene 2 13 4 2.68521 0 23 2.68521 1
gene 2 3 13 -2.181 0 55 -2.181 0
gene 2 3 44 -1.52788 0 116 -1.52788 1
gene 2 44 4 8 0 117 8 1
genomeend 128

/* Organism #129 Fitness: 4.0024 Error: 1.9994 */
genomestart 129
trait 1 0.1 0 0 0 0 0 0 0 
trait 2 0.2 0 0 0 0 0 0 0 
trait 3 0.3 0 0 0 0 0.120367 0 0 
node 1 1 1 3
node 2 1 1 1
node 3 1 1 1
node 4 3 0 2
node 13 1 0 0
node 44 1 0 0
gene 2 1 4 1.38102 0 1 1.38102 1
gene 2 2 4 -1.56014 0 2 -1.56014 0
gene 2 3 4 6.77437 0 3 6.77437 0
gene 2 2 13 0.322593 0 22 0.322593 1
gene 2 13 4 2.19743 0 23 2.19743 1
gene 2 3 13 -2.181 0 55 -2.181 0
gene 2 3 44 -2.60739 0 116 -2.60739 1
gene 2 44 4 -1.96078 0 117 -1.96078 1
genomeend 129

/* Organism #130 Fitness: 3.99912 Error: 2.00022 */
genomestart 130
trait 1 0.1 0 0 0 0 0 0 0 
trait 2 0.2 0 0 0 0 0 0 0 
trait 3 0.3 0 0 0 0 0.120367 0 0 
node 1 1 1 3
node 2 1 1 1
node 3 1 1 1
node 4 2 0 2
node 13 1 0 0
node 44 1 0 0
gene 2 1 4 -0.869572 0 1 -0.869572 1
gene 2 2 4 3.03218 0 2 3.03218 0
gene 2 3 4 4.87227 0 3 4.87227 0
gene 2 2 13 0.862661 0 22 0.862661 1
gene 2 13 4 5.13139 0 23 5.13139 1
gene 2 3 13 -3.75788 0 55 -3.75788 0
gene 2 3 44 -1.29142 0 116 -1.29142 1
gene 2 44 4 8 0 117 8 1
genomeend 130

/* Organism #131 Fitness: 4.00004 Error: 1.99999 */
genomestart 131
trait 1 0.1 0 0 0 0 0 0 0 
trait 2 0.2 0 0 0 0 0 0 0 
trait 3 0.3 0 0 0 0 0.120367 0 0 
node 1 1 1 3
node 2 3 1 1
node 3 1 1 1
node 4 2 0 2
node 13 1 0 0
node 44 1 0 0
gene 2 1 4 0.961169 0 1 0.961169 1
gene 2 2 4 -1.3185 0 2 -1.3185 0
gene 2 3 4 5.65574 0 3 5.65574 0
gene 2 2 13 -0.117537 0 22 -0.117537 1
gene 2 13 4 3.86606 0 23 3.86606 1
gene 2 3 13 -3.92146 0 55 -3.92146 0
gene 2 3 44 -3.48535 0 116 -3.48535 1
gene 2 44 4 6.87297 0 117 6.87297 1
genomeend 131

/* Organism #132 Fitness: 4 Error: 2 */
genomestart 132
trait 1 0.1 0 0 0 0 0 0 0 
trait 2 0.2 0 0 0 0 0 0 0 
trait 3 0.3 0 0 0 0 0.120367 0 0 
node 1 1 1 3
node 2 1 1 1
node 3 1 1 1
node 4 2 0 2
node 13 1 0 0
node 44 1 0 0
gene 2 1 4 0.213296 0 1 0.213296 1
gene 2 2 4 3.68456 0 2 3.68456 0
gene 2 3 4 7.51192 0 3 7.51192 0
gene 2 2 13 -3.41329 0 22 -3.41329 1
gene 2 13 4 4.51413 0 23 4.51413 1
gene 2 3 13 -2.41213 0 55 -2.41213 0
gene 2 3 44 -0.145377 0 116 -0.145377 1
gene 2 44 4 8 0 117 8 1
genomeend 132

/* Organism #133 Fitness: 4.13373 Error: 1.96684 */
genomestart 133
trait 1 0.1 0 0 0 0 0 0 0 
trait 2 0.2 0 0 0 0 0 0 0 
trait 3 0.3 0 0 0 0 0.120367 0 0 
node 1 1 1 3
node 2 1 1 1
node 3 1 1 1
node 4 2 0 2
node 13 1 0 0
node 44 1 0 0
gene 2 1 4 0.684883 0 1 0.684883 1
gene 2 2 4 0.0938487 0 2 0.0938487 0
gene 2 3 4 5.64637 0 3 5.64637 0
gene 2 2 13 -2.43383 0 22 -2.43383 1
gene 2 13 4 4.85159 0 23 4.85159 1
gene 2 3 13 -2.68276 0 55 -2.68276 0
gene 2 3 44 -2.77304 0 116 -2.77304 1
gene 2 44 4 8 0 117 8 1
genomeend 133

/* Organism #134 Fitness: 6.94168 Error: 1.36529 */
genomestart 134
trait 1 0.1 0 0 0 0 0 0 0 
trait 2 0 0.115603 0.189918 0 0 0 0 0.64486 
trait 3 0.3 0 0 0 0 0.120367 0 0 
node 1 1 1 3
node 2 1 1 1
node 3 1 1 1
node 4 2 0 2
node 13 1 0 0
node 44 1 0 0
gene 2 1 4 -0.623067 0 1 -0.623067 1
gene 2 2 4 -0.909267 0 2 -0.909267 0
gene 2 3 4 8 0 3 8 0
gene 2 2 13 -0.332918 0 22 -0.332918 1
gene 2 13 4 1.80738 0 23 1.80738 1
gene 2 3 13 -3.34783 0 55 -3.34783 0
gene 2 3 44 -1.52788 0 116 -1.52788 1
gene 2 44 4 7.62864 0 117 7.62864 1
genomeend 134

/* Organism #135 Fitness: 8.54883 Error: 1.07616 */
genomestart 135
trait 1 0.1 0 0 0 0 0 0 0 
trait 2 0.2 0 0 0 0 0 0 0 
trait 3 0.3 0 0 0 0 0.120367 0 0 
node 1 1 1 3
node 2 1 1 1
node 3 1 1 1
node 4 2 0 2
node 13 1 0 0
node 44 1 0 0
gene 2 1 4 -0.598588 0 1 -0.598588 1
gene 2 2 4 1.68602 0 2 1.68602 0
gene 2 3 4 5.79193 0 3 5.79193 0
gene 2 2 13 -1.35519 0 22 -1.35519 1
gene 2 13 4 2.68521 0 23 2.68521 1
gene 2 3 13 -2.181 0 55 -2.181 0
gene 2 3 44 -1.52788 0 116 -1.52788 1
gene 2 44 4 8 0 117 8 1
genomeend 135

/* Species #16 : (Size 7) (AF 5.94615) (Age 6)  */


/* Organism #136 Fitness: 8.99826 Error: 1.00029 */
genomestart 136
trait 1 0.1 0 0 0 0 0 0 0 
trait 2 0.6 0.0276699 0 0 0 0 0 0.157379 
trait 3 0.3 0 0 0 0 0.0802445 0 0 
node 1 1 1 3
node 2 1 1 1
node 3 2 1 1
node 4 1 0 2
node 13 1 0 0
gene 2 1 4 -5.71392 0 1 -5.71392 1
gene 2 2 4 3.13163 0 2 3.13163 1
gene 2 3 4 -1.17789 0 3 -1.17789 1
gene 2 2 13 5.6053 0 22 5.6053 1
gene 2 13 4 4.23651 0 23 4.23651 1
gene 2 3 13 -8 0 55 -8 1
genomeend 136

/* Organism #137 Fitness: 4.22715 Error: 1.944 */
genomestart 137
trait 1 0.1 0 0 0 0 0 0 0 
trait 2 0 0 0 0.248363 0 0 0 0.157379 
trait 3 0.3 0 0 0 0 0.0802445 0 0 
node 1 1 1 3
node 2 1 1 1
node 3 2 1 1
node 4 1 0 2
node 13 1 0 0
gene 2 1 4 -5.17978 0 1 -5.17978 1
gene 2 2 4 3.83783 0 2 3.83783 1
gene 2 3 4 1.91143 0 3 1.91143 1
gene 2 2 13 6.55487 0 22 6.55487 1
gene 2 13 4 5.10204 0 23 5.10204 1
gene 2 3 13 -8 0 55 -8 1
genomeend 137

/* Organism #138 Fitness: 3.02176 Error: 2.26168 */
genomestart 138
trait 1 0.1 0 0 0 0 0 0 0 
trait 2 0.6 0.0276699 0 0 0 0 0 0.157379 
trait 3 0.3 0 0 0 0 0.0802445 0 0 
node 1 1 1 3
node 2 1 1 1
node 3 2 1 1
node 4 1 0 2
node 13 1 0 0
gene 2 1 4 -5.33304 0 1 -5.33304 1
gene 2 2 4 1.1683 0 2 1.1683 1
gene 2 3 4 1.279 0 3 1.279 1
gene 2 2 13 7.87593 0 22 7.87593 1
gene 2 13 4 4.37469 0 23 4.37469 1
gene 2 3 13 -5.59174 0 55 -5.59174 1
genomeend 138

/* Organism #139 Fitness: 7.22922 Error: 1.31128 */
genomestart 139
trait 1 0.1 0 0 0 0 0 0 0 
trait 2 0.6 0.0276699 0 0 0 0 0 0.157379 
trait 3 0.3 0 0 0 0 0.0802445 0 0 
node 1 1 1 3
node 2 1 1 1
node 3 2 1 1
node 4 1 0 2
node 13 1 0 0
gene 2 1 4 -5.5906 0 1 -5.5906 1
gene 2 2 4 1.53265 0 2 1.53265 1
gene 2 3 4 -1.00037 0 3 -1.00037 1
gene 2 2 13 7.75573 0 22 7.75573 1
gene 2 13 4 4.23371 0 23 4.23371 1
gene 2 3 13 -6.70703 0 55 -6.70703 1
genomeend 139

/* Organism #140 Fitness: 3.67436 Error: 2.08314 */
genomestart 140
trait 1 0.1 0 0 0 0 0 0 0 
trait 2 0.6 0.0276699 0 0 0 0 0 0.157379 
trait 3 0.3 0 0 0 0 0.0802445 0 0 
node 1 1 1 3
node 2 1 1 1
node 3 2 1 1
node 4 1 0 2
node 13 1 0 0
gene 2 1 4 2.09521 0 1 2.09521 1
gene 2 2 4 2.21403 0 2 2.21403 1
gene 2 3 4 -1.60774 0 3 -1.60774 1
gene 2 2 13 5.68558 0 22 5.68558 1
gene 2 13 4 2.19487 0 23 2.19487 1
gene 2 3 13 -6.41753 0 55 -6.41753 1
genomeend 140

/* Organism #141 Fitness: 5.49467 Error: 1.65593 */
genomestart 141
trait 1 0.1 0 0 0 0 0 0 0 
trait 2 0.6 0.0276699 0 0 0 0 0 0.157379 
trait 3 0.3 0 0 0 0 0.0802445 0 0 
node 1 1 1 3
node 2 1 1 1
node 3 2 1 1
node 4 1 0 2
node 13 1 0 0
gene 2 1 4 -7.52022 0 1 -7.52022 1
gene 2 2 4 5.58403 0 2 5.58403 1
gene 2 3 4 2.00504 0 3 2.00504 1
gene 2 2 13 7.09908 0 22 7.09908 1
gene 2 13 4 5.31357 0 23 5.31357 1
gene 2 3 13 -8 0 55 -8 1
genomeend 141

/* Organism #142 Fitness: 8.97761 Error: 1.00373 */
genomestart 142
trait 1 0.1 0 0 0 0 0 0 0 
trait 2 0.6 0.0276699 0 0 0 0 0 0.157379 
trait 3 1 0 0 0 0.737686 0.0802445 0.507287 0 
node 1 1 1 3
node 2 1 1 1
node 3 2 1 1
node 4 1 0 2
node 13 1 0 0
gene 2 1 4 -7.71913 0 1 -7.71913 1
gene 2 2 4 4.61711 0 2 4.61711 1
gene 2 3 4 0.193848 0 3 0.193848 1
gene 2 2 13 5.6053 0 22 5.6053 1
gene 2 13 4 4.23651 0 23 4.23651 1
gene 2 3 13 -7.91094 0 55 -7.91094 1
genomeend 142

/* Species #17 : (Size 7) (AF 5.67308) (Age 3)  */


/* Organism #143 Fitness: 8.99998 Error: 1 */
genomestart 143
trait 1 0.1 0 0 0 0 0 0 0 
trait 2 0.2 0 0 0 0 0 0 0 
trait 3 0.3 0 0 0 0 0.0802445 0 0 
node 1 1 1 3
node 2 1 1 1
node 3 2 1 1
node 4 2 0 2
node 13 1 0 0
node 38 1 0 0
node 64 1 0 0
gene 2 1 4 0.905698 0 1 0.905698 1
gene 2 2 4 5.51471 0 2 5.51471 1
gene 2 3 4 5.80862 0 3 5.80862 1
gene 2 2 13 3.20209 0 22 3.20209 0
gene 2 13 4 -8 0 23 -8 0
gene 2 3 13 -0.6826 0 55 -0.6826 1
gene 3 1 13 2.1851 0 85 2.1851 1
gene 2 13 38 1.22472 0 99 1.22472 1
gene 2 38 4 -3.76526 0 100 -3.76526 1
gene 2 2 64 1 0 180 1 1
gene 2 64 13 3.72094 0 181 3.72094 1
genomeend 143

/* Organism #144 Fitness: 3.26707 Error: 2.1925 */
genomestart 144
trait 1 0.1 0 0 0 0 0 0 0 
trait 2 0.2 0 0 0 0 0 0 0 
trait 3 0.3 0 0 0 0 0.0802445 0 0 
node 1 1 1 3
node 2 1 1 1
node 3 2 1 1
node 4 2 0 2
node 13 1 0 0
node 38 1 0 0
node 64 1 0 0
gene 2 1 4 -0.90298 0 1 -0.90298 1
gene 2 2 4 3.05096 0 2 3.05096 1
gene 2 3 4 4.73993 0 3 4.73993 1
gene 2 2 13 2.36108 0 22 2.36108 0
gene 2 13 4 -8 0 23 -8 0
gene 2 3 13 -0.205465 0 55 -0.205465 1
gene 3 1 13 0.33929 0 85 0.33929 1
gene 2 13 38 3.28725 0 99 3.28725 1
gene 2 38 4 -3.5471 0 100 -3.5471 1
gene 2 2 64 1 0 180 1 1
gene 2 64 13 0.269772 0 181 0.269772 1
genomeend 144

/* Organism #145 Fitness: 4.0287 Error: 1.99284 */
genomestart 145
trait 1 0.1 0 0 0 0 0 0 0 
trait 2 0.2 0 0 0 0 0 0 0 
trait 3 0.3 0 0 0 0 0.0802445 0 0 
node 1 1 1 3
node 2 1 1 1
node 3 2 1 1
node 4 2 0 2
node 13 1 0 0
node 38 1 0 0
node 64 1 0 0
gene 2 1 4 1.00698 0 1 1.00698 1
gene 2 2 4 6.12554 0 2 6.12554 1
gene 2 3 4 6.1567 0 3 6.1567 1
gene 2 2 13 1.21409 0 22 1.21409 0
gene 2 13 4 -6.75865 0 23 -6.75865 0
gene 2 3 13 0.480246 0 55 0.480246 1
gene 3 1 13 0.719607 0 85 0.719607 1
gene 2 13 38 -1.16305 0 99 -1.16305 1
gene 2 38 4 -1.67498 0 100 -1.67498 1
gene 2 2 64 0.429137 0 180 0.429137 1
gene 2 64 13 2.74227 0 181 2.74227 1
genomeend 145

/* Organism #146 Fitness: 4.00191 Error: 1.99952 */
genomestart 146
trait 1 0.1 0 0 0 0 0 0 0 
trait 2 0.2 0 0 0 0 0 0 0 
trait 3 0.3 0 0 0 0 0.0802445 0 0 
node 1 1 1 3
node 2 1 1 1
node 3 1 1 1
node 4 2 0 2
node 13 1 0 0
node 38 1 0 0
node 64 1 0 0
gene 2 1 4 1.55237 0 1 1.55237 1
gene 2 2 4 1.30295 0 2 1.30295 1
gene 2 3 4 1.726 0 3 1.726 1
gene 2 2 13 3.30964 0 22 3.30964 0
gene 2 13 4 -8 0 23 -8 0
gene 2 3 13 -2.00148 0 55 -2.00148 1
gene 3 1 13 0.730441 0 85 0.730441 1
gene 2 13 38 -1.36452 0 99 -1.36452 1
gene 2 38 4 0.0478816 0 100 0.0478816 1
gene 2 2 64 1 0 180 1 1
gene 2 64 13 2.64571 0 181 2.64571 1
genomeend 146

/* Organism #147 Fitness: 8.99941 Error: 1.0001 */
genomestart 147
trait 1 0.1 0 0 0 0 0 0 0 
trait 2 0.2 0 0 0 0 0 0 0 
trait 3 0.3 0 0 0 0 0.0802445 0 0 
node 1 1 1 3
node 2 1 1 1
node 3 2 1 1
node 4 2 0 2
node 13 1 0 0
node 38 1 0 0
node 64 1 0 0
gene 2 1 4 -1.79997 0 1 -1.79997 1
gene 2 2 4 5.16966 0 2 5.16966 1
gene 2 3 4 4.03808 0 3 4.03808 1
gene 2 2 13 3.21668 0 22 3.21668 0
gene 2 13 4 -7.81047 0 23 -7.81047 0
gene 2 3 13 -2.39562 0 55 -2.39562 1
gene 3 1 13 3.358 0 85 3.358 1
gene 2 13 38 -0.587333 0 99 -0.587333 1
gene 2 38 4 -3.30717 0 100 -3.30717 1
gene 2 2 64 0.00193011 0 180 0.00193011 1
gene 2 64 13 1.42577 0 181 1.42577 1
genomeend 147

/* Organism #148 Fitness: 6.34011 Error: 1.48204 */
genomestart 148
trait 1 0.1 0 0 0 0 0 0 0 
trait 2 0.2 0 0 0 0 0 0 0 
trait 3 0.3 0 0 0 0 0.0802445 0 0 
node 1 1 1 3
node 2 1 1 1
node 3 2 1 1
node 4 2 0 2
node 13 1 0 0
node 38 1 0 0
node 64 1 0 0
gene 2 1 4 -0.610214 0 1 -0.610214 1
gene 2 2 4 4.68727 0 2 4.68727 1
gene 2 3 4 1.87778 0 3 1.87778 1
gene 2 2 13 4.73153 0 22 4.73153 0
gene 2 13 4 -7.90671 0 23 -7.90671 0
gene 2 3 13 -2.54999 0 55 -2.54999 1
gene 3 1 13 -0.617478 0 85 -0.617478 1
gene 2 13 38 -0.660028 0 99 -0.660028 1
gene 2 38 4 -2.46766 0 100 -2.46766 1
gene 2 2 64 1 0 180 1 1
gene 2 64 13 1.93998 0 181 1.93998 1
genomeend 148

/* Organism #149 Fitness: 4.07437 Error: 1.98149 */
genomestart 149
trait 1 0.1 0 0 0 0 0 0 0 
trait 2 0.2 0 0 0 0 0 0 0 
trait 3 0.3 0 0 0 0 0.0802445 0 0 
node 1 1 1 3
node 2 1 1 1
node 3 2 1 1
node 4 2 0 2
node 13 1 0 0
node 38 1 0 0
node 64 1 0 0
gene 2 1 4 0.825049 0 1 0.825049 1
gene 2 2 4 4.53713 0 2 4.53713 1
gene 2 3 4 5.69403 0 3 5.69403 1
gene 2 2 13 4.91063 0 22 4.91063 0
gene 2 13 4 -6.80812 0 23 -6.80812 0
gene 2 3 13 -1.25514 0 55 -1.25514 1
gene 3 1 13 3.95624 0 85 3.95624 1
gene 2 13 38 -1.04413 0 99 -1.04413 1
gene 2 38 4 -3.20693 0 100 -3.20693 1
gene 2 2 64 1 0 180 1 1
gene 2 64 13 2.46029 0 181 2.46029 1
genomeend 149
