
/* Species #2 : (Size 8) (AF 6.10788) (Age 26)  */


/* Organism #0 Fitness: 9 Error: 1 */
genomestart 0
trait 1 0.0895264 0.0308037 0.347937 0 0.470318 0.149257 0 0.455718 
trait 2 0.2 0 0 0 0 0 0 0 
trait 3 0.3 0 0 0 0 0 0 0 
node 1 2 1 3
node 2 3 1 1
node 3 3 1 1
node 4 3 0 2
node 7 1 0 0
gene 1 1 4 -3.98056 0 1 -3.98056 1
gene 3 2 4 6.52262 0 2 6.52262 1
gene 1 3 4 -0.901656 0 3 -0.901656 0
gene 3 3 7 5.96584 0 8 5.96584 1
gene 3 7 4 8 0 9 8 1
gene 3 2 7 4.48544 0 26 4.48544 1
gene 2 1 7 -0.897264 0 97 -0.897264 1
genomeend 0

/* Organism #1 Fitness: 3.86471 Error: 2.03411 */
genomestart 1
trait 1 0.0895264 0.0308037 0.347937 0 0.470318 0.149257 0 0.455718 
trait 2 0.2 0 0 0 0 0 0 0.851844 
trait 3 0.3 0 0 0 0 0 0 0 
node 1 2 1 3
node 2 3 1 1
node 3 3 1 1
node 4 3 0 2
node 7 1 0 0
gene 1 1 4 -6.32467 0 1 -6.32467 1
gene 3 2 4 2.95753 0 2 2.95753 1
gene 1 3 4 -0.0767912 0 3 -0.0767912 0
gene 3 3 7 6.35128 0 8 6.35128 1
gene 3 7 4 7.0036 0 9 7.0036 1
gene 3 2 7 0.640229 0 26 0.640229 1
gene 2 1 7 -1.03651 0 97 -1.03651 1
genomeend 1

/* Organism #2 Fitness: 9 Error: 1 */
genomestart 2
trait 1 0.0895264 0.0308037 0.347937 0 0.470318 0.149257 0 0.455718 
trait 2 0.2 0 0 0 0 0 0 0.851844 
trait 3 0.3 0 0 0 0 0 0 0 
node 1 3 1 3
node 2 3 1 1
node 3 3 1 1
node 4 3 0 2
node 7 1 0 0
gene 1 1 4 -3.98056 0 1 -3.98056 1
gene 3 2 4 5.12172 0 2 5.12172 1
gene 1 3 4 -0.901656 0 3 -0.901656 0
gene 3 3 7 4.57067 0 8 4.57067 1
gene 3 7 4 8 0 9 8 1
gene 3 2 7 4.48544 0 26 4.48544 1
gene 2 1 7 -0.897264 0 97 -0.897264 1
genomeend 2

/* Organism #3 Fitness: 1 Error: 3 */
genomestart 3
trait 1 0.0895264 0.0308037 0.347937 0 0.470318 0.149257 0 0.455718 
trait 2 0.2 0 0 0 0 0 0 0.425922 
trait 3 0.3 0 0 0 0 0 0 0 
node 1 2 1 3
node 2 3 1 1
node 3 3 1 1
node 4 3 0 2
node 7 1 0 0
gene 1 1 4 -4.81707 0 1 -4.81707 1
gene 3 2 4 8 0 2 8 1
gene 1 3 4 -2.76358 0 3 -2.76358 1
gene 3 3 7 -1.05052 0 8 -1.05052 1
gene 3 7 4 8 0 9 8 1
gene 3 2 7 2.42364 0 26 2.42364 1
gene 2 1 7 0.892784 0 97 0.892784 1
genomeend 3

/* Organism #4 Fitness: 4 Error: 2 */
genomestart 4
trait 1 0 0.0308037 0.347937 0 0.527264 0.149257 0 0.455718 
trait 2 0.2 0 0 0 0 0 0 0.851844 
trait 3 0.3 0 0 0 0 0 0 0 
node 1 2 1 3
node 2 3 1 1
node 3 3 1 1
node 4 3 0 2
node 7 1 0 0
gene 1 1 4 -1.89168 0 1 -1.89168 1
gene 3 2 4 3.60378 0 2 3.60378 1
gene 1 3 4 -2.45581 0 3 -2.45581 0
gene 3 3 7 4.12162 0 8 4.12162 1
gene 3 7 4 8 0 9 8 1
gene 3 2 7 3.3742 0 26 3.3742 1
gene 2 1 7 1.51221 0 97 1.51221 1
genomeend 4

/* Organism #5 Fitness: 8.99832 Error: 1.00028 */
genomestart 5
trait 1 0.0895264 0.0308037 0.347937 0 0.470318 0.149257 0 0.455718 
trait 2 0.2 0 0 0 0 0 0 0 
trait 3 0.3 0 0 0 0 0 0 0 
node 1 2 1 3
node 2 3 1 1
node 3 3 1 1
node 4 3 0 2
node 7 1 0 0
gene 1 1 4 -5.40881 0 1 -5.40881 1
gene 3 2 4 6.68285 0 2 6.68285 1
gene 1 3 4 -0.81027 0 3 -0.81027 0
gene 3 3 7 6.66551 0 8 6.66551 1
gene 3 7 4 7.07033 0 9 7.07033 1
gene 3 2 7 2.91801 0 26 2.91801 1
gene 2 1 7 -0.169879 0 97 -0.169879 1
genomeend 5

/* Organism #6 Fitness: 4 Error: 2 */
genomestart 6
trait 1 0.0895264 0.0308037 0.347937 0 0.470318 0.149257 0 0.455718 
trait 2 0.2 0 0 0.0588614 0 0 0.624886 0.851844 
trait 3 0.3 0 0 0 0 0 0 0 
node 1 2 1 3
node 2 3 1 1
node 3 3 1 1
node 4 3 0 2
node 7 1 0 0
gene 1 1 4 -3.7553 0 1 -3.7553 1
gene 3 2 4 7.61668 0 2 7.61668 1
gene 1 3 4 2.34435 0 3 2.34435 0
gene 3 3 7 0.0846279 0 8 0.0846279 1
gene 3 7 4 0.140395 0 9 0.140395 1
gene 3 2 7 4.19789 0 26 4.19789 1
gene 2 1 7 -0.624383 0 97 -0.624383 1
genomeend 6

/* Organism #7 Fitness: 9 Error: 1 */
genomestart 7
trait 1 0.0895264 0.0308037 0.347937 0 0.470318 0.149257 0 0.455718 
trait 2 0.2 0 0 0 0 0 0 0.425922 
trait 3 0.3 0 0 0 0 0 0 0 
node 1 2 1 3
node 2 3 1 1
node 3 3 1 1
node 4 3 0 2
node 7 1 0 0
gene 1 1 4 -3.21934 0 1 -3.21934 1
gene 3 2 4 6.66614 0 2 6.66614 1
gene 1 3 4 -1.11787 0 3 -1.11787 0
gene 3 3 7 5.65197 0 8 5.65197 1
gene 3 7 4 7.39636 0 9 7.39636 1
gene 3 2 7 3.6476 0 26 3.6476 1
gene 2 1 7 -3.05407 0 97 -3.05407 1
genomeend 7

/* Species #3 : (Size 9) (AF 7.02671) (Age 25)  */


/* Organism #8 Fitness: 8.99978 Error: 1.00004 */
genomestart 8
trait 1 0.0313385 0 0.454141 0.147976 0 0.078916 0 0 
trait 2 0.483569 0.0468058 0.191052 0 0.0840785 0 0.325524 0.319414 
trait 3 0.3 0.145975 0 0 0.215472 0 0 0 
node 1 3 1 3
node 2 1 1 1
node 3 3 1 1
node 4 2 0 2
node 10 1 0 0
gene 1 1 4 -2.08863 0 1 -2.08863 1
gene 1 2 4 -2.44895 0 2 -2.44895 0
gene 1 3 4 -5.94799 0 3 -5.94799 1
gene 1 2 10 3.31121 0 14 3.31121 1
gene 1 10 4 4.72543 0 15 4.72543 1
gene 2 1 10 -2.22136 0 41 -2.22136 1
gene 2 3 10 1.76502 0 211 1.76502 1
genomeend 8

/* Organism #9 Fitness: 6.49891 Error: 1.4507 */
genomestart 9
trait 1 0.0313385 0 0.454141 0.147976 0 0.078916 0 0 
trait 2 0.483569 0.0468058 0.191052 0 0.0840785 0 0.325524 0.319414 
trait 3 0.3 0.145975 0 0 0.215472 0 0 0 
node 1 3 1 3
node 2 1 1 1
node 3 3 1 1
node 4 2 0 2
node 10 1 0 0
gene 1 1 4 -2.76151 0 1 -2.76151 1
gene 2 2 4 -2.68488 0 2 -2.68488 1
gene 1 3 4 -2.90305 0 3 -2.90305 1
gene 1 2 10 4.35672 0 14 4.35672 1
gene 1 10 4 5.48819 0 15 5.48819 1
gene 2 1 10 -2.7253 0 41 -2.7253 1
gene 2 3 10 2.91085 0 211 2.91085 1
genomeend 9

/* Organism #10 Fitness: 4 Error: 2 */
genomestart 10
trait 1 0.0313385 0 0.454141 0.147976 0 0.078916 0 0 
trait 2 0.483569 0.0468058 0.191052 0 0.0840785 0 0.325524 0.319414 
trait 3 0.3 0.145975 0 0 0.215472 0 0 0 
node 1 3 1 3
node 2 1 1 1
node 3 3 1 1
node 4 2 0 2
node 10 1 0 0
gene 1 1 4 -4.47225 0 1 -4.47225 1
gene 1 2 4 -4.74646 0 2 -4.74646 0
gene 1 3 4 -5.34224 0 3 -5.34224 1
gene 1 2 10 2.68311 0 14 2.68311 1
gene 1 10 4 2.34441 0 15 2.34441 1
gene 2 1 10 -2.71138 0 41 -2.71138 1
gene 2 3 10 2.22145 0 211 2.22145 1
genomeend 10

/* Organism #11 Fitness: 6.08729 Error: 1.53276 */
genomestart 11
trait 1 0.0313385 0 0.454141 0.147976 0 0.078916 0 0 
trait 2 0.483569 0.0468058 0.191052 0 0.0840785 0 0.325524 0.319414 
trait 3 0.3 0.145975 0 0 0.215472 0 0 0 
node 1 3 1 3
node 2 1 1 1
node 3 3 1 1
node 4 2 0 2
node 10 1 0 0
gene 1 1 4 -3.94699 0 1 -3.94699 1
gene 2 2 4 -4.50736 0 2 -4.50736 0
gene 1 3 4 -5.43618 0 3 -5.43618 1
gene 1 2 10 3.55854 0 14 3.55854 1
gene 1 10 4 6.49499 0 15 6.49499 1
gene 2 1 10 -3.47316 0 41 -3.47316 1
gene 2 3 10 -0.726451 0 211 -0.726451 1
genomeend 11

/* Organism #12 Fitness: 8.98988 Error: 1.00169 */
genomestart 12
trait 1 0.0313385 0 0.454141 0.147976 0 0.078916 0 0 
trait 2 0 0.0468058 1 0 0.0840785 0 0.325524 0.610234 
trait 3 0.3 0.145975 0 0 0.215472 0 0 0 
node 1 3 1 3
node 2 1 1 1
node 3 3 1 1
node 4 2 0 2
node 10 1 0 0
gene 1 1 4 -1.30128 0 1 -1.30128 1
gene 2 2 4 -3.08445 0 2 -3.08445 0
gene 1 3 4 -4.02646 0 3 -4.02646 1
gene 1 2 10 1.65344 0 14 1.65344 1
gene 1 10 4 6.77596 0 15 6.77596 1
gene 2 1 10 -1.4663 0 41 -1.4663 1
gene 2 3 10 3.946 0 211 3.946 1
genomeend 12

/* Organism #13 Fitness: 6.28254 Error: 1.4935 */
genomestart 13
trait 1 0.0313385 0.676185 0.454141 0.147976 0 0.078916 0 0 
trait 2 0.483569 0.0468058 0.191052 0 0.0840785 0 0.325524 0.319414 
trait 3 0.3 0.145975 0 0 0.215472 0 0 0 
node 1 3 1 3
node 2 1 1 1
node 3 3 1 1
node 4 2 0 2
node 10 1 0 0
gene 1 1 4 -0.0220757 0 1 -0.0220757 1
gene 2 2 4 -0.230415 0 2 -0.230415 0
gene 1 3 4 1.01194 0 3 1.01194 1
gene 1 2 10 4.22783 0 14 4.22783 1
gene 1 10 4 0.896275 0 15 0.896275 1
gene 2 1 10 -1.56951 0 41 -1.56951 1
gene 2 3 10 0.782589 0 211 0.782589 1
genomeend 13

/* Organism #14 Fitness: 9.3809 Error: 0.937175 */
genomestart 14
trait 1 0 0.680528 0.165335 0.147976 0 0.078916 0.441726 0 
trait 2 0.483569 0.0468058 0.191052 0 0.0840785 0 0.325524 0.319414 
trait 3 0.3 0.145975 0 0 0.215472 0 0 0 
node 1 3 1 3
node 2 1 1 1
node 3 3 1 1
node 4 2 0 2
node 10 1 0 0
gene 1 1 4 -1.59428 0 1 -1.59428 1
gene 2 2 4 -0.0758073 0 2 -0.0758073 1
gene 1 3 4 -2.67814 0 3 -2.67814 1
gene 1 2 10 5.21519 0 14 5.21519 1
gene 1 10 4 4.57078 0 15 4.57078 1
gene 2 1 10 -0.811193 0 41 -0.811193 1
gene 2 3 10 3.16036 0 211 3.16036 1
genomeend 14

/* Organism #15 Fitness: 8.99961 Error: 1.00007 */
genomestart 15
trait 1 0.0313385 0 0.454141 0.147976 0 0.078916 0 0 
trait 2 0.483569 0.0468058 0.191052 0 0.0840785 0 0.325524 0.319414 
trait 3 0.3 0.145975 0 0 0.215472 0 0 0 
node 1 3 1 3
node 2 1 1 1
node 3 3 1 1
node 4 2 0 2
node 10 1 0 0
gene 1 1 4 -4.06192 0 1 -4.06192 1
gene 1 2 4 -0.760691 0 2 -0.760691 0
gene 1 3 4 -4.85543 0 3 -4.85543 1
gene 1 2 10 4.35793 0 14 4.35793 1
gene 1 10 4 6.02008 0 15 6.02008 1
gene 2 1 10 -1.34721 0 41 -1.34721 1
gene 2 3 10 0.297695 0 211 0.297695 1
genomeend 15

/* Organism #16 Fitness: 4.00144 Error: 1.99964 */
genomestart 16
trait 1 0.0313385 0 0.454141 0.147976 0 0.078916 0 0 
trait 2 0.483569 0.0468058 0.191052 0 0.0840785 0 0.325524 0.319414 
trait 3 0.3 0.145975 0 0 0.215472 0 0 0 
node 1 3 1 3
node 2 1 1 1
node 3 3 1 1
node 4 2 0 2
node 10 1 0 0
gene 1 1 4 1.55541 0 1 1.55541 1
gene 2 2 4 -1.3769 0 2 -1.3769 0
gene 1 3 4 -6.12539 0 3 -6.12539 1
gene 1 2 10 2.39948 0 14 2.39948 1
gene 1 10 4 2.72662 0 15 2.72662 1
gene 2 1 10 -2.3857 0 41 -2.3857 1
gene 2 3 10 1.20206 0 211 1.20206 1
genomeend 16

/* Species #4 : (Size 9) (AF 7.19435) (Age 23)  */


/* Organism #17 Fitness: 8.99998 Error: 1 */
genomestart 17
trait 1 0.05 0 0.332212 0.214341 0 0.102912 0.0135402 0.00811952 
trait 2 0.2 0 0 0 0 0 0 0 
trait 3 0.871449 0 0.153757 0.0892939 0.625295 0.627488 0.629614 0.952194 
node 1 3 1 3
node 2 1 1 1
node 3 1 1 1
node 4 2 0 2
node 7 1 0 0
node 14 1 0 0
node 86 1 0 0
gene 2 1 4 -5.24627 0 1 -5.24627 1
gene 3 2 4 -8 0 2 -8 1
gene 3 3 4 7.50064 0 3 7.50064 1
gene 3 3 7 2.41165 0 8 2.41165 0
gene 3 7 4 0.687067 0 9 0.687067 1
gene 3 3 14 3.23262 0 27 3.23262 1
gene 3 14 7 -3.25646 0 28 -3.25646 0
gene 1 2 7 -4.12098 0 212 -4.12098 1
gene 3 14 86 -0.872495 0 235 -0.872495 1
gene 3 86 7 0.468103 0 236 0.468103 1
genomeend 17

/* Organism #18 Fitness: 8.97664 Error: 1.0039 */
genomestart 18
trait 1 0.05 0 0.332212 0.214341 0 0.125061 0.0135402 0.539085 
trait 2 0.2 0 0 0 0 0 0 0 
trait 3 0.871449 0 0.153757 0.0892939 0.625295 0.627488 0.629614 0.952194 
node 1 3 1 3
node 2 1 1 1
node 3 1 1 1
node 4 2 0 2
node 7 1 0 0
node 14 1 0 0
node 86 1 0 0
gene 2 1 4 -7.59596 0 1 -7.59596 1
gene 3 2 4 -5.98321 0 2 -5.98321 1
gene 3 3 4 7.26337 0 3 7.26337 1
gene 3 3 7 2.31657 0 8 2.31657 0
gene 3 7 4 2.75923 0 9 2.75923 1
gene 3 3 14 4.08974 0 27 4.08974 1
gene 3 14 7 -0.915554 0 28 -0.915554 0
gene 1 2 7 -4.79013 0 212 -4.79013 1
gene 2 14 86 -0.907841 0 235 -0.907841 1
gene 3 86 7 2.05213 0 236 2.05213 1
genomeend 18

/* Organism #19 Fitness: 8.99996 Error: 1.00001 */
genomestart 19
trait 1 0.05 0 0.332212 0.214341 0 0.102912 0.0135402 0.00811952 
trait 2 0.2 0 0 0 0 0 0 0 
trait 3 0.871449 0 0.153757 0.0892939 0.625295 0.627488 0.629614 0.952194 
node 1 3 1 3
node 2 1 1 1
node 3 1 1 1
node 4 2 0 2
node 7 1 0 0
node 14 1 0 0
node 86 1 0 0
gene 2 1 4 -3.71933 0 1 -3.71933 1
gene 3 2 4 -8 0 2 -8 1
gene 3 3 4 5.15533 0 3 5.15533 1
gene 3 3 7 -2.2935 0 8 -2.2935 0
gene 3 7 4 2.09887 0 9 2.09887 1
gene 3 3 14 0.31555 0 27 0.31555 1
gene 1 14 7 -0.00319931 0 28 -0.00319931 0
gene 1 2 7 -2.07807 0 212 -2.07807 1
gene 3 14 86 -1.45356 0 235 -1.45356 1
gene 3 86 7 0.468103 0 236 0.468103 1
genomeend 19

/* Organism #20 Fitness: 1.24178 Error: 2.88565 */
genomestart 20
trait 1 0.05 0 0.332212 0.214341 0 0.102912 0.0135402 0.00811952 
trait 2 0.2 0 0 0 0 0 0 0 
trait 3 0.871449 0 0.153757 0.0892939 0.625295 0.627488 0.629614 0.952194 
node 1 3 1 3
node 2 1 1 1
node 3 1 1 1
node 4 2 0 2
node 7 1 0 0
node 14 1 0 0
node 86 1 0 0
gene 2 1 4 -0.98194 0 1 -0.98194 1
gene 3 2 4 -6.00923 0 2 -6.00923 1
gene 3 3 4 7.41104 0 3 7.41104 1
gene 3 3 7 1.61131 0 8 1.61131 0
gene 3 7 4 2.24495 0 9 2.24495 1
gene 3 3 14 1.74087 0 27 1.74087 1
gene 3 14 7 0.858256 0 28 0.858256 0
gene 1 2 7 -3.76991 0 212 -3.76991 1
gene 3 14 86 1.02558 0 235 1.02558 1
gene 3 86 7 1.23137 0 236 1.23137 1
genomeend 20

/* Organism #21 Fitness: 4.06385 Error: 1.9841 */
genomestart 21
trait 1 0.05 0 0.332212 0.214341 0 0.102912 0.0135402 0.00811952 
trait 2 0.2 0 0 0 0 0 0 0 
trait 3 0.871449 0 0.153757 0.0892939 0.625295 0.627488 0.629614 0.952194 
node 1 3 1 3
node 2 1 1 1
node 3 1 1 1
node 4 2 0 2
node 7 1 0 0
node 14 1 0 0
node 86 1 0 0
gene 2 1 4 -5.18035 0 1 -5.18035 1
gene 3 2 4 -6.61428 0 2 -6.61428 1
gene 3 3 4 4.31617 0 3 4.31617 1
gene 3 3 7 -1.87341 0 8 -1.87341 0
gene 3 7 4 2.05084 0 9 2.05084 1
gene 3 3 14 0.898148 0 27 0.898148 1
gene 3 14 7 1.32406 0 28 1.32406 0
gene 1 2 7 -3.56853 0 212 -3.56853 1
gene 3 14 86 2.1787 0 235 2.1787 1
gene 3 86 7 -0.881227 0 236 -0.881227 1
genomeend 21

/* Organism #22 Fitness: 8.68484 Error: 1.053 */
genomestart 22
trait 1 0.05 0 0.332212 0.214341 0 0.102912 0.0135402 0.00811952 
trait 2 0.2 0 0 0 0 0 0 0 
trait 3 0.871449 0 0.153757 0.0892939 0.625295 0.627488 0.629614 0.952194 
node 1 3 1 3
node 2 1 1 1
node 3 1 1 1
node 4 2 0 2
node 7 1 0 0
node 14 1 0 0
node 86 1 0 0
gene 2 1 4 -4.93753 0 1 -4.93753 1
gene 3 2 4 -5.85454 0 2 -5.85454 1
gene 3 3 4 5.50387 0 3 5.50387 1
gene 3 3 7 1.10111 0 8 1.10111 0
gene 3 7 4 1.48591 0 9 1.48591 1
gene 3 3 14 2.49987 0 27 2.49987 1
gene 3 14 7 -3.15491 0 28 -3.15491 0
gene 1 2 7 -4.50343 0 212 -4.50343 1
gene 3 14 86 1.73596 0 235 1.73596 1
gene 3 86 7 -0.881227 0 236 -0.881227 1
genomeend 22

/* Organism #23 Fitness: 5.81485 Error: 1.5886 */
genomestart 23
trait 1 0.05 0 0.332212 0.214341 0 0.102912 0.0135402 0.00811952 
trait 2 0.2 0 0 0 0 0 0 0 
trait 3 0.871449 0 0.153757 0.0892939 0.625295 0.627488 0.629614 0.952194 
node 1 2 1 3
node 2 1 1 1
node 3 1 1 1
node 4 2 0 2
node 7 1 0 0
node 14 1 0 0
node 86 1 0 0
gene 2 1 4 -2.90703 0 1 -2.90703 1
gene 3 2 4 1.49424 0 2 1.49424 1
gene 3 3 4 -2.46495 0 3 -2.46495 1
gene 3 3 7 0.244222 0 8 0.244222 0
gene 3 7 4 3.65621 0 9 3.65621 1
gene 3 3 14 2.478 0 27 2.478 1
gene 3 14 7 -0.704154 0 28 -0.704154 0
gene 1 2 7 -0.259197 0 212 -0.259197 1
gene 3 14 86 -0.653367 0 235 -0.653367 1
gene 3 86 7 1.09577 0 236 1.09577 1
genomeend 23

/* Organism #24 Fitness: 8.96751 Error: 1.00542 */
genomestart 24
trait 1 0.05 0 0.332212 0.214341 0 0.102912 0.0135402 0.00811952 
trait 2 0.2 0 0 0 0 0 0 0 
trait 3 0.871449 0 0.153757 0.0892939 0.625295 0.627488 0.629614 0.952194 
node 1 3 1 3
node 2 1 1 1
node 3 1 1 1
node 4 2 0 2
node 7 1 0 0
node 14 1 0 0
node 86 1 0 0
gene 2 1 4 -6.16521 0 1 -6.16521 1
gene 3 2 4 -3.52452 0 2 -3.52452 1
gene 3 3 4 7.22391 0 3 7.22391 1
gene 3 3 7 2.6556 0 8 2.6556 0
gene 3 7 4 -0.314618 0 9 -0.314618 1
gene 3 3 14 3.01223 0 27 3.01223 1
gene 3 14 7 -1.27918 0 28 -1.27918 0
gene 1 2 7 -2.04038 0 212 -2.04038 1
gene 3 14 86 2.17079 0 235 2.17079 1
gene 3 86 7 -1.79982 0 236 -1.79982 1
genomeend 24

/* Organism #25 Fitness: 8.99975 Error: 1.00004 */
genomestart 25
trait 1 0.05 0 0.332212 0.214341 0 0.102912 0.0135402 0.00811952 
trait 2 0.2 0 0 0 0 0 0 0 
trait 3 0.871449 0 0.153757 0.0892939 0.625295 0.627488 0.629614 0.952194 
node 1 3 1 3
node 2 1 1 1
node 3 1 1 1
node 4 2 0 2
node 7 1 0 0
node 14 1 0 0
node 86 1 0 0
gene 2 1 4 -7.16284 0 1 -7.16284 1
gene 3 2 4 -8 0 2 -8 1
gene 3 3 4 8 0 3 8 1
gene 3 3 7 0.651253 0 8 0.651253 0
gene 3 7 4 2.42272 0 9 2.42272 1
gene 3 3 14 1.02822 0 27 1.02822 1
gene 3 14 7 -1.92529 0 28 -1.92529 0
gene 1 2 7 -1.63092 0 212 -1.63092 1
gene 3 14 86 -3.16545 0 235 -3.16545 1
gene 3 86 7 0.468103 0 236 0.468103 1
genomeend 25

/* Species #5 : (Size 8) (AF 6.40452) (Age 22)  */


/* Organism #26 Fitness: 9 Error: 1 */
genomestart 26
trait 1 0.100904 0.0105903 0 0.147976 0.00068566 0.206846 0.0270805 0.016239 
trait 2 0.2 0 0 0 0 0 0 0.195083 
trait 3 0.3 0 0 0 0 0 0 0 
node 1 3 1 3
node 2 1 1 1
node 3 3 1 1
node 4 3 0 2
node 16 1 0 0
gene 2 1 4 -7.63703 0 1 -7.63703 1
gene 2 2 4 8 0 2 8 1
gene 1 3 4 7.5909 0 3 7.5909 1
gene 1 3 16 2.03332 0 32 2.03332 1
gene 3 16 4 6.94217 0 33 6.94217 1
gene 3 2 16 1.52935 0 169 1.52935 1
gene 3 1 16 -0.872317 0 213 -0.872317 1
genomeend 26

/* Organism #27 Fitness: 4.00127 Error: 1.99968 */
genomestart 27
trait 1 0.100904 0.0105903 0 0.147976 0.00068566 0.206846 0.0270805 0.016239 
trait 2 0.2 0 0 0 0 0 0 0.195083 
trait 3 0.3 0 0 0 0 0 0 0 
node 1 3 1 3
node 2 1 1 1
node 3 3 1 1
node 4 3 0 2
node 16 1 0 0
gene 2 1 4 -7.81852 0 1 -7.81852 1
gene 2 2 4 0.0158177 0 2 0.0158177 1
gene 1 3 4 8 0 3 8 1
gene 1 3 16 1.91381 0 32 1.91381 1
gene 3 16 4 6.19302 0 33 6.19302 1
gene 3 2 16 1.85028 0 169 1.85028 1
gene 3 1 16 -0.740433 0 213 -0.740433 1
genomeend 27

/* Organism #28 Fitness: 4.12537 Error: 1.9689 */
genomestart 28
trait 1 0.100904 0.0105903 0 0.147976 0.00068566 0.206846 0.0270805 0.016239 
trait 2 0.2 0 0 0 0 0 0 0.195083 
trait 3 0.3 0 0 0 0 0 0 0 
node 1 3 1 3
node 2 1 1 1
node 3 3 1 1
node 4 3 0 2
node 16 1 0 0
gene 2 1 4 -8 0 1 -8 1
gene 2 2 4 2.13194 0 2 2.13194 1
gene 1 3 4 -0.635404 0 3 -0.635404 1
gene 1 3 16 0.804726 0 32 0.804726 1
gene 3 16 4 8 0 33 8 1
gene 3 2 16 1.29531 0 169 1.29531 1
gene 3 1 16 0.396154 0 213 0.396154 1
genomeend 28

/* Organism #29 Fitness: 8.98993 Error: 1.00168 */
genomestart 29
trait 1 0.100904 0.0105903 0 0.147976 0.00068566 0.206846 0.0270805 0.016239 
trait 2 0.2 0 0 0 0 0 0 0.195083 
trait 3 0.3 0 0 0 0 0 0 0 
node 1 3 1 3
node 2 1 1 1
node 3 3 1 1
node 4 3 0 2
node 16 1 0 0
gene 2 1 4 -8 0 1 -8 1
gene 2 2 4 8 0 2 8 1
gene 1 3 4 7.96274 0 3 7.96274 1
gene 1 3 16 1.5293 0 32 1.5293 1
gene 3 16 4 6.70412 0 33 6.70412 1
gene 3 2 16 2.52154 0 169 2.52154 1
gene 3 1 16 1.73593 0 213 1.73593 1
genomeend 29

/* Organism #30 Fitness: 9 Error: 1 */
genomestart 30
trait 1 0.100904 0.0105903 0 0.147976 0.00068566 0.206846 0.0270805 0.016239 
trait 2 0.2 0 0 0 0 0 0 0.195083 
trait 3 0.3 0 0 0 0 0 0 0 
node 1 3 1 3
node 2 1 1 1
node 3 3 1 1
node 4 3 0 2
node 16 1 0 0
gene 2 1 4 -8 0 1 -8 1
gene 2 2 4 8 0 2 8 1
gene 1 3 4 8 0 3 8 1
gene 1 3 16 0.708943 0 32 0.708943 1
gene 3 16 4 4.76036 0 33 4.76036 1
gene 3 2 16 0.0342602 0 169 0.0342602 1
gene 3 1 16 1.63256 0 213 1.63256 1
genomeend 30

/* Organism #31 Fitness: 4.00274 Error: 1.99931 */
genomestart 31
trait 1 0.100904 0.0105903 0 0.147976 0.00068566 0.206846 0.0270805 0.016239 
trait 2 0.174221 0 0.878454 0.408203 0 0.520353 0 0.195083 
trait 3 0.3 0 0 0 0 0 0 0 
node 1 2 1 3
node 2 1 1 1
node 3 3 1 1
node 4 3 0 2
node 16 1 0 0
gene 2 1 4 -5.71817 0 1 -5.71817 1
gene 2 2 4 7.1239 0 2 7.1239 1
gene 1 3 4 7.5419 0 3 7.5419 1
gene 1 3 16 5.05098 0 32 5.05098 1
gene 3 16 4 7.20593 0 33 7.20593 1
gene 3 2 16 2.94479 0 169 2.94479 1
gene 3 1 16 1.36948 0 213 1.36948 1
genomeend 31

/* Organism #32 Fitness: 9 Error: 1 */
genomestart 32
trait 1 0.100904 0.0105903 0 0.147976 0.00068566 0.206846 0.0270805 0.016239 
trait 2 0.2 0 0 0 0 0 0 0.195083 
trait 3 0.3 0 0 0 0 0 0 0 
node 1 3 1 3
node 2 1 1 1
node 3 3 1 1
node 4 3 0 2
node 16 1 0 0
gene 2 1 4 -5.38513 0 1 -5.38513 1
gene 2 2 4 7.09738 0 2 7.09738 1
gene 1 3 4 7.97468 0 3 7.97468 1
gene 1 3 16 4.47781 0 32 4.47781 1
gene 3 16 4 8 0 33 8 1
gene 3 2 16 2.26703 0 169 2.26703 1
gene 3 1 16 -1.94595 0 213 -1.94595 1
genomeend 32

/* Organism #33 Fitness: 3.11682 Error: 2.23455 */
genomestart 33
trait 1 0.100904 0.0105903 0 0.147976 0.00068566 0.206846 0.0270805 0.016239 
trait 2 0.2 0 0 0 0 0 0 0.195083 
trait 3 0.3 0 0 0 0 0 0 0 
node 1 3 1 3
node 2 1 1 1
node 3 3 1 1
node 4 3 0 2
node 16 1 0 0
gene 2 1 4 -8 0 1 -8 1
gene 2 2 4 5.83355 0 2 5.83355 1
gene 1 3 4 8 0 3 8 1
gene 1 3 16 2.61903 0 32 2.61903 1
gene 3 16 4 4.6898 0 33 4.6898 1
gene 3 2 16 1.80543 0 169 1.80543 1
gene 3 1 16 -3.21185 0 213 -3.21185 1
genomeend 33

/* Species #6 : (Size 7) (AF 6.13808) (Age 22)  */


/* Organism #34 Fitness: 9 Error: 1 */
genomestart 34
trait 1 0.1 0 0 0 0 0 0 0 
trait 2 0.2 0 0 0 0 0 0 0 
trait 3 0.3 0 0 0 0 0 0 0 
node 1 2 1 3
node 2 3 1 1
node 3 3 1 1
node 4 3 0 2
node 7 1 0 0
gene 1 1 4 -4.21403 0 1 -4.21403 1
gene 3 2 4 -7.07421 0 2 -7.07421 1
gene 1 3 4 -3.8115 0 3 -3.8115 0
gene 3 3 7 4.37808 0 8 4.37808 1
gene 3 7 4 7.92769 0 9 7.92769 1
gene 2 2 7 -1.26511 0 21 -1.26511 0
gene 3 1 7 -3.6011 0 75 -3.6011 1
genomeend 34

/* Organism #35 Fitness: 4 Error: 2 */
genomestart 35
trait 1 0.1 0 0 0 0 0 0 0 
trait 2 0.2 0 0 0 0 0 0 0 
trait 3 0.3 0 0 0 0 0 0 0 
node 1 2 1 3
node 2 3 1 1
node 3 3 1 1
node 4 3 0 2
node 7 1 0 0
gene 1 1 4 -4.53323 0 1 -4.53323 1
gene 3 2 4 -6.72508 0 2 -6.72508 1
gene 1 3 4 -2.23849 0 3 -2.23849 1
gene 3 3 7 2.47259 0 8 2.47259 1
gene 3 7 4 -0.911633 0 9 -0.911633 1
gene 2 2 7 0.578984 0 21 0.578984 0
gene 3 1 7 -5.97501 0 75 -5.97501 1
genomeend 35

/* Organism #36 Fitness: 3.99999 Error: 2 */
genomestart 36
trait 1 0.1 0 0 0 0 0 0 0 
trait 2 0.2 0 0 0 0 0 0 0 
trait 3 0.3 0 0 0 0 0 0 0 
node 1 2 1 3
node 2 3 1 1
node 3 3 1 1
node 4 3 0 2
node 7 1 0 0
gene 1 1 4 -2.55919 0 1 -2.55919 1
gene 3 2 4 -8 0 2 -8 1
gene 1 3 4 -2.533 0 3 -2.533 1
gene 3 3 7 2.13167 0 8 2.13167 1
gene 3 7 4 7.52768 0 9 7.52768 1
gene 2 2 7 0.565699 0 21 0.565699 1
gene 3 1 7 -4.97509 0 75 -4.97509 1
genomeend 36

/* Organism #37 Fitness: 4.00021 Error: 1.99995 */
genomestart 37
trait 1 0.1 0 0 0 0 0 0 0 
trait 2 0.2 0 0 0 0 0 0 0 
trait 3 0.3 0 0 0 0 0 0 0 
node 1 2 1 3
node 2 3 1 1
node 3 3 1 1
node 4 3 0 2
node 7 1 0 0
gene 1 1 4 -4.21403 0 1 -4.21403 1
gene 3 2 4 -7.84163 0 2 -7.84163 1
gene 1 3 4 -2.54466 0 3 -2.54466 0
gene 3 3 7 2.71122 0 8 2.71122 1
gene 3 7 4 2.25182 0 9 2.25182 1
gene 2 2 7 -0.724496 0 21 -0.724496 0
gene 3 1 7 -1.87132 0 75 -1.87132 1
genomeend 37

/* Organism #38 Fitness: 9 Error: 1 */
genomestart 38
trait 1 0.1 0 0 0 0 0 0 0 
trait 2 0.2 0 0 0 0 0 0 0 
trait 3 0.3 0 0 0 0 0 0 0 
node 1 2 1 3
node 2 3 1 1
node 3 3 1 1
node 4 3 0 2
node 7 1 0 0
gene 1 1 4 -4.21403 0 1 -4.21403 1
gene 3 2 4 -7.07421 0 2 -7.07421 1
gene 1 3 4 -3.8115 0 3 -3.8115 0
gene 3 3 7 4.37808 0 8 4.37808 1
gene 3 7 4 7.92769 0 9 7.92769 1
gene 2 2 7 -1.26511 0 21 -1.26511 0
gene 3 1 7 -3.6011 0 75 -3.6011 1
genomeend 38

/* Organism #39 Fitness: 8.96636 Error: 1.00561 */
genomestart 39
trait 1 0.1 0 0 0 0 0 0 0 
trait 2 0.2 0 0 0 0 0 0 0 
trait 3 0.3 0 0 0 0 0 0 0 
node 1 2 1 3
node 2 3 1 1
node 3 3 1 1
node 4 3 0 2
node 7 1 0 0
gene 1 1 4 -3.49815 0 1 -3.49815 1
gene 3 2 4 -5.52401 0 2 -5.52401 1
gene 1 3 4 -4.67482 0 3 -4.67482 0
gene 3 3 7 3.17329 0 8 3.17329 1
gene 3 7 4 8 0 9 8 1
gene 2 2 7 0.604958 0 21 0.604958 0
gene 3 1 7 -2.03435 0 75 -2.03435 1
genomeend 39

/* Organism #40 Fitness: 4 Error: 2 */
genomestart 40
trait 1 0.1 0 0 0 0 0 0 0 
trait 2 0.2 0 0 0 0 0 0 0 
trait 3 0.3 0 0 0 0 0 0 0 
node 1 2 1 3
node 2 3 1 1
node 3 3 1 1
node 4 3 0 2
node 7 1 0 0
gene 1 1 4 2.00861 0 1 2.00861 1
gene 3 2 4 -8 0 2 -8 1
gene 1 3 4 -3.51748 0 3 -3.51748 0
gene 3 3 7 4.37808 0 8 4.37808 1
gene 3 7 4 -0.289831 0 9 -0.289831 1
gene 2 2 7 1.65395 0 21 1.65395 0
gene 3 1 7 2.4208 0 75 2.4208 1
genomeend 40

/* Species #7 : (Size 8) (AF 7.90879) (Age 22)  */


/* Organism #41 Fitness: 9 Error: 1 */
genomestart 41
trait 1 0 0 0.353458 0 0.92848 0 0.660625 0 
trait 2 0.19375 0 0 0 0 0.0191785 0 0.0207285 
trait 3 0.3 0 0 0 0 0 0 0 
node 1 2 1 3
node 2 3 1 1
node 3 3 1 1
node 4 3 0 2
node 7 1 0 0
node 17 2 0 0
gene 1 1 4 -2.95364 0 1 -2.95364 1
gene 2 2 4 1.84898 0 2 1.84898 0
gene 2 3 4 7.26243 0 3 7.26243 0
gene 1 3 7 2.83321 0 8 2.83321 1
gene 3 7 4 8 0 9 8 1
gene 3 2 7 8 0 26 8 1
gene 2 1 7 -1.11153 0 29 -1.11153 1
gene 2 2 17 2.04922 0 35 2.04922 1
gene 2 17 4 -1.9385 0 36 -1.9385 1
genomeend 41

/* Organism #42 Fitness: 8.99992 Error: 1.00001 */
genomestart 42
trait 1 0 0 0.353458 0 1 0 1 0 
trait 2 0.19375 0 0 0 0 0.0191785 0 0.0207285 
trait 3 0.3 0 0 0 0 0 0 0 
node 1 2 1 3
node 2 3 1 1
node 3 3 1 1
node 4 3 0 2
node 7 1 0 0
node 17 2 0 0
gene 1 1 4 -1.58516 0 1 -1.58516 1
gene 2 2 4 1.44378 0 2 1.44378 1
gene 2 3 4 6.55526 0 3 6.55526 0
gene 1 3 7 5.15672 0 8 5.15672 1
gene 3 7 4 6.45947 0 9 6.45947 1
gene 3 2 7 8 0 26 8 1
gene 2 1 7 -0.803263 0 29 -0.803263 1
gene 2 2 17 0.419145 0 35 0.419145 1
gene 2 17 4 -1.64185 0 36 -1.64185 1
genomeend 42

/* Organism #43 Fitness: 4.00011 Error: 1.99997 */
genomestart 43
trait 1 0 0 0.353458 0 0.92848 0 0.660625 0 
trait 2 0.2 0 0 0 0 0 0 0 
trait 3 0.3 0 0 0 0 0 0 0 
node 1 2 1 3
node 2 3 1 1
node 3 3 1 1
node 4 3 0 2
node 7 1 0 0
node 17 2 0 0
gene 1 1 4 -2.92846 0 1 -2.92846 1
gene 2 2 4 2.09194 0 2 2.09194 0
gene 2 3 4 6.12447 0 3 6.12447 0
gene 1 3 7 4.84702 0 8 4.84702 1
gene 3 7 4 5.72667 0 9 5.72667 1
gene 3 2 7 8 0 26 8 1
gene 2 1 7 1.43319 0 29 1.43319 1
gene 2 2 17 3.75834 0 35 3.75834 1
gene 2 17 4 -2.85177 0 36 -2.85177 1
genomeend 43

/* Organism #44 Fitness: 8.99738 Error: 1.00044 */
genomestart 44
trait 1 0 0 0.353458 0 0.92848 0 0.660625 0 
trait 2 0.19375 0 0 0 0 0.0191785 0 0.0207285 
trait 3 0.3 0 0 0 0 0 0 0 
node 1 2 1 3
node 2 3 1 1
node 3 3 1 1
node 4 3 0 2
node 7 1 0 0
node 17 2 0 0
gene 1 1 4 -5.24042 0 1 -5.24042 1
gene 2 2 4 3.02356 0 2 3.02356 0
gene 2 3 4 5.76876 0 3 5.76876 0
gene 1 3 7 5.29038 0 8 5.29038 1
gene 3 7 4 7.56691 0 9 7.56691 1
gene 3 2 7 6.57532 0 26 6.57532 1
gene 2 1 7 -1.72967 0 29 -1.72967 1
gene 2 2 17 2.35908 0 35 2.35908 1
gene 2 17 4 -1.51174 0 36 -1.51174 1
genomeend 44

/* Organism #45 Fitness: 9 Error: 1 */
genomestart 45
trait 1 0 0 0.353458 0 0.92848 0 0.660625 0 
trait 2 0.196875 0 0 0 0 0.00958924 0 0.0103642 
trait 3 0.3 0 0 0 0 0 0 0 
node 1 2 1 3
node 2 3 1 1
node 3 3 1 1
node 4 3 0 2
node 7 1 0 0
node 17 2 0 0
gene 1 1 4 -3.03105 0 1 -3.03105 1
gene 2 2 4 1.84898 0 2 1.84898 0
gene 2 3 4 7.26243 0 3 7.26243 1
gene 1 3 7 2.66816 0 8 2.66816 1
gene 3 7 4 8 0 9 8 1
gene 3 2 7 8 0 26 8 1
gene 2 1 7 -1.08867 0 29 -1.08867 1
gene 2 2 17 1.84252 0 35 1.84252 1
gene 2 17 4 -2.07127 0 36 -2.07127 1
genomeend 45

/* Organism #46 Fitness: 8.99999 Error: 1 */
genomestart 46
trait 1 0 0 0.353458 0 0.92848 0 0.660625 0 
trait 2 0.2 0 0 0 0 0 0 0 
trait 3 0.3 0 0 0 0 0 0 0 
node 1 2 1 3
node 2 3 1 1
node 3 3 1 1
node 4 3 0 2
node 7 1 0 0
node 17 2 0 0
gene 1 1 4 -3.55099 0 1 -3.55099 1
gene 2 2 4 1.43232 0 2 1.43232 0
gene 2 3 4 7.45875 0 3 7.45875 0
gene 1 3 7 0.909846 0 8 0.909846 1
gene 3 7 4 8 0 9 8 1
gene 3 2 7 8 0 26 8 1
gene 2 1 7 -0.4314 0 29 -0.4314 1
gene 2 2 17 -0.660256 0 35 -0.660256 1
gene 2 17 4 -2.05645 0 36 -2.05645 1
genomeend 46

/* Organism #47 Fitness: 5.27294 Error: 1.70371 */
genomestart 47
trait 1 0 0 0.353458 0 0.92848 0 0.660625 0 
trait 2 0.196875 0 0 0 0 0.00958924 0 0.0103642 
trait 3 0.3 0 0 0 0 0 0 0 
node 1 2 1 3
node 2 3 1 1
node 3 3 1 1
node 4 3 0 2
node 7 1 0 0
node 17 2 0 0
gene 1 1 4 -3.67207 0 1 -3.67207 1
gene 2 2 4 -0.346573 0 2 -0.346573 0
gene 2 3 4 5.41469 0 3 5.41469 1
gene 1 3 7 1.24312 0 8 1.24312 1
gene 3 7 4 8 0 9 8 1
gene 3 2 7 8 0 26 8 1
gene 2 1 7 -2.43886 0 29 -2.43886 1
gene 2 2 17 -0.184483 0 35 -0.184483 1
gene 2 17 4 -3.8808 0 36 -3.8808 1
genomeend 47

/* Organism #48 Fitness: 9 Error: 1 */
genomestart 48
trait 1 0 0 0.353458 0 0.92848 0 0.660625 0 
trait 2 0.19375 0 0 0 0 0.0191785 0 0.0207285 
trait 3 0.3 0 0 0 0 0 0 0 
node 1 2 1 3
node 2 3 1 1
node 3 3 1 1
node 4 3 0 2
node 7 1 0 0
node 17 2 0 0
gene 1 1 4 -2.95364 0 1 -2.95364 1
gene 2 2 4 1.84898 0 2 1.84898 0
gene 2 3 4 7.26243 0 3 7.26243 0
gene 1 3 7 2.83321 0 8 2.83321 1
gene 3 7 4 8 0 9 8 1
gene 3 2 7 8 0 26 8 1
gene 2 1 7 -1.11153 0 29 -1.11153 1
gene 2 2 17 2.04922 0 35 2.04922 1
gene 2 17 4 -1.9385 0 36 -1.9385 1
gene 1 17 7 -0.503236 0 261 -0.503236 1
genomeend 48

/* Species #8 : (Size 8) (AF 7.72773) (Age 22)  */


/* Organism #49 Fitness: 8.99994 Error: 1.00001 */
genomestart 49
trait 1 0.1 0.0170172 0 0 0 0 0 0 
trait 2 0.2 0 0 0 0 0 0 0 
trait 3 0.225 0 0.0323583 0 0 0 0 0 
node 1 2 1 3
node 2 3 1 1
node 3 3 1 1
node 4 3 0 2
node 7 1 0 0
node 18 1 0 0
node 59 1 0 0
node 69 1 0 0
gene 1 1 4 -2.99195 0 1 -2.99195 1
gene 2 2 4 -5.34387 0 2 -5.34387 1
gene 2 3 4 6.38345 0 3 6.38345 1
gene 1 3 7 -0.191143 0 8 -0.191143 0
gene 3 7 4 0.448174 0 9 0.448174 1
gene 1 3 18 -1.73857 0 37 -1.73857 1
gene 1 18 7 -2.56908 0 38 -2.56908 1
gene 3 7 59 0.0663949 0 151 0.0663949 1
gene 3 59 4 -0.546759 0 152 -0.546759 0
gene 3 59 69 0.716336 0 189 0.216336 1
gene 3 69 4 -1.47219 0 190 -0.747196 1
genomeend 49

/* Organism #50 Fitness: 8.98357 Error: 1.00274 */
genomestart 50
trait 1 0.1 0.0170172 0 0 0 0 0 0 
trait 2 0.2 0 0 0 0 0 0 0 
trait 3 0.20625 0 0.0404479 0 0 0 0 0 
node 1 2 1 3
node 2 3 1 1
node 3 3 1 1
node 4 3 0 2
node 7 1 0 0
node 18 1 0 0
node 59 1 0 0
node 69 1 0 0
gene 1 1 4 -3.12282 0 1 -3.12282 1
gene 2 2 4 -5.60994 0 2 -5.60994 1
gene 2 3 4 6.30878 0 3 6.30878 1
gene 1 3 7 -0.289474 0 8 -0.289474 0
gene 3 7 4 0.0541854 0 9 0.0541854 1
gene 1 3 18 -1.09776 0 37 -1.09776 1
gene 1 18 7 -2.46855 0 38 -2.46855 1
gene 3 7 59 0.593143 0 151 0.593143 1
gene 3 59 4 -0.612435 0 152 -0.612435 1
gene 3 59 69 0.27248 0 189 -0.10252 1
gene 3 69 4 -2.04158 0 190 -1.49783 1
gene 1 18 69 -0.334189 0 262 -0.334189 1
genomeend 50

/* Organism #51 Fitness: 4 Error: 2 */
genomestart 51
trait 1 0.1 0.0170172 0 0 0 0 0 0 
trait 2 0.2 0 0 0 0 0 0 0 
trait 3 0.1875 0 0.0485375 0 0 0 0 0 
node 1 2 1 3
node 2 3 1 1
node 3 3 1 1
node 4 3 0 2
node 7 1 0 0
node 18 1 0 0
node 59 1 0 0
node 69 1 0 0
gene 1 1 4 -5.53849 0 1 -5.53849 1
gene 2 2 4 -3.62608 0 2 -3.62608 1
gene 2 3 4 0.214867 0 3 0.214867 1
gene 1 3 7 0.696731 0 8 0.696731 0
gene 3 7 4 1.39268 0 9 1.39268 1
gene 1 3 18 -0.456944 0 37 -0.456944 1
gene 1 18 7 -4.80488 0 38 -4.80488 1
gene 3 7 59 0.769914 0 151 0.769914 1
gene 3 59 4 1.7164 0 152 1.7164 0
gene 3 59 69 -0.848898 0 189 -0.848898 1
gene 3 69 4 0.933248 0 190 0.933248 1
genomeend 51

/* Organism #52 Fitness: 8.84138 Error: 1.02655 */
genomestart 52
trait 1 0.1 0.0170172 0 0 0 0 0 0 
trait 2 0.2 0 0 0 0 0 0 0 
trait 3 0.1875 0 0.0485375 0 0 0 0 0 
node 1 2 1 3
node 2 3 1 1
node 3 3 1 1
node 4 3 0 2
node 7 1 0 0
node 18 1 0 0
node 59 1 0 0
node 69 1 0 0
gene 1 1 4 -1.38833 0 1 -1.38833 1
gene 2 2 4 -1.88001 0 2 -1.88001 1
gene 2 3 4 6.2341 0 3 6.2341 1
gene 1 3 7 -0.387806 0 8 -0.387806 0
gene 3 7 4 0.169578 0 9 0.169578 1
gene 1 3 18 0.697132 0 37 0.697132 1
gene 1 18 7 -3.95159 0 38 -3.95159 1
gene 3 7 59 2.88287 0 151 2.88287 1
gene 3 59 4 -0.678111 0 152 -0.678111 0
gene 3 59 69 0.964711 0 189 0.964711 1
gene 3 69 4 -4.45836 0 190 -4.45836 1
genomeend 52

/* Organism #53 Fitness: 8.99853 Error: 1.00025 */
genomestart 53
trait 1 0.1 0.0170172 0 0 0 0 0 0 
trait 2 0.2 0 0 0 0 0 0 0 
trait 3 0.20625 0 0.0404479 0 0 0 0 0 
node 1 2 1 3
node 2 3 1 1
node 3 3 1 1
node 4 3 0 2
node 7 1 0 0
node 18 1 0 0
node 59 1 0 0
node 69 1 0 0
gene 1 1 4 -3.12282 0 1 -3.12282 1
gene 2 2 4 -5.60994 0 2 -5.60994 1
gene 2 3 4 6.30878 0 3 6.30878 1
gene 1 3 7 -0.289474 0 8 -0.289474 0
gene 3 7 4 0.0541854 0 9 0.0541854 1
gene 1 3 18 -1.09776 0 37 -1.09776 1
gene 1 18 7 -2.46855 0 38 -2.46855 1
gene 3 7 59 0.593143 0 151 0.593143 1
gene 3 59 4 -0.612435 0 152 -0.612435 0
gene 3 59 69 0.27248 0 189 -0.10252 1
gene 3 69 4 -2.04158 0 190 -1.49783 1
genomeend 53

/* Organism #54 Fitness: 8.99853 Error: 1.00025 */
genomestart 54
trait 1 0.1 0.0170172 0 0 0 0 0 0 
trait 2 0.2 0 0 0 0 0 0 0 
trait 3 0.20625 0 0.0404479 0 0 0 0 0 
node 1 2 1 3
node 2 3 1 1
node 3 3 1 1
node 4 3 0 2
node 7 1 0 0
node 18 1 0 0
node 59 1 0 0
node 69 1 0 0
gene 1 1 4 -3.12282 0 1 -3.12282 1
gene 2 2 4 -5.60994 0 2 -5.60994 1
gene 2 3 4 6.30878 0 3 6.30878 1
gene 1 3 7 -0.289474 0 8 -0.289474 0
gene 3 7 4 0.0541854 0 9 0.0541854 1
gene 1 3 18 -1.09776 0 37 -1.09776 1
gene 1 18 7 -2.46855 0 38 -2.46855 1
gene 3 7 59 0.593143 0 151 0.593143 1
gene 3 59 4 -0.612435 0 152 -0.612435 0
gene 3 59 69 0.27248 0 189 -0.10252 1
gene 3 69 4 -2.04158 0 190 -1.49783 1
genomeend 54

/* Organism #55 Fitness: 8.99993 Error: 1.00001 */
genomestart 55
trait 1 0.1 0.0170172 0 0 0 0 0 0 
trait 2 0.2 0 0 0 0 0 0 0 
trait 3 0.20625 0 0.0404479 0 0 0 0 0 
node 1 2 1 3
node 2 3 1 1
node 3 3 1 1
node 4 3 0 2
node 7 1 0 0
node 18 2 0 0
node 59 1 0 0
node 69 1 0 0
gene 1 1 4 -3.94849 0 1 -3.94849 1
gene 2 2 4 -8 0 2 -8 1
gene 2 3 4 6.80295 0 3 6.80295 1
gene 1 3 7 1.90821 0 8 1.90821 0
gene 3 7 4 0.286439 0 9 0.286439 1
gene 1 3 18 -0.863421 0 37 -0.863421 1
gene 1 18 7 -1.49312 0 38 -1.49312 1
gene 3 7 59 2.85106 0 151 2.85106 1
gene 3 59 4 -2.01191 0 152 -2.01191 0
gene 3 59 69 0.716336 0 189 0.716336 1
gene 3 69 4 1.82932 0 190 1.82932 1
genomeend 55

/* Organism #56 Fitness: 4 Error: 2 */
genomestart 56
trait 1 0.1 0.0170172 0 0 0 0 0 0 
trait 2 0.2 0 0 0 0 0 0 0 
trait 3 0.1875 0 0.0485375 0 0 0 0 0 
node 1 3 1 3
node 2 3 1 1
node 3 3 1 1
node 4 3 0 2
node 7 1 0 0
node 18 1 0 0
node 59 1 0 0
node 69 1 0 0
gene 1 1 4 -5.3194 0 1 -5.3194 1
gene 2 2 4 -7.76065 0 2 -7.76065 1
gene 2 3 4 5.11093 0 3 5.11093 1
gene 1 3 7 -0.550553 0 8 -0.550553 0
gene 3 7 4 -2.74333 0 9 -2.74333 1
gene 1 3 18 -2.86144 0 37 -2.86144 1
gene 1 18 7 -4.23283 0 38 -4.23283 1
gene 3 7 59 -1.21716 0 151 -1.21716 1
gene 3 59 4 -0.796925 0 152 -0.796925 0
gene 3 59 69 1.83207 0 189 1.83207 1
gene 3 69 4 -2.61097 0 190 -2.61097 1
genomeend 56

/* Species #9 : (Size 8) (AF 6.03823) (Age 21)  */


/* Organism #57 Fitness: 8.9993 Error: 1.00012 */
genomestart 57
trait 1 0.0572038 0.00423612 0 0.258958 0 0.338066 0.0101552 0.00608964 
trait 2 0.2 0 0 0 0 0 0 0 
trait 3 0.3 0 0 0 0 0 0 0 
node 1 2 1 3
node 2 1 1 1
node 3 2 1 1
node 4 2 0 2
node 36 1 0 0
gene 2 1 4 -6.08959 0 1 -6.08959 1
gene 3 2 4 -1.81481 0 2 -1.81481 0
gene 3 3 4 8 0 3 8 1
gene 3 2 36 2.18345 0 87 2.18345 1
gene 3 36 4 8 0 88 8 1
gene 3 3 36 0.255956 0 161 0.255956 1
genomeend 57

/* Organism #58 Fitness: 4.47604 Error: 1.88434 */
genomestart 58
trait 1 0.414661 0.913803 0 0.258958 0 0.338066 0.0101552 0.00608964 
trait 2 0.2 0 0 0 0 0 0 0 
trait 3 0.3 0 0 0 0 0 0 0 
node 1 2 1 3
node 2 1 1 1
node 3 2 1 1
node 4 2 0 2
node 36 1 0 0
gene 2 1 4 -5.73674 0 1 -5.73674 1
gene 3 2 4 1.91561 0 2 1.91561 0
gene 3 3 4 -1.84744 0 3 -1.84744 1
gene 3 2 36 2.07515 0 87 2.07515 1
gene 3 36 4 8 0 88 8 1
gene 3 3 36 -0.482963 0 161 -0.482963 1
genomeend 58

/* Organism #59 Fitness: 8.98436 Error: 1.00261 */
genomestart 59
trait 1 0.0572038 0.00423612 0 0.258958 0 0.338066 0.0101552 0.00608964 
trait 2 0.2 0 0 0 0 0 0 0 
trait 3 0.3 0 0 0 0 0 0 0 
node 1 2 1 3
node 2 1 1 1
node 3 2 1 1
node 4 2 0 2
node 36 1 0 0
gene 2 1 4 -6.43383 0 1 -6.43383 1
gene 3 2 4 0.263239 0 2 0.263239 0
gene 3 3 4 -0.630915 0 3 -0.630915 1
gene 3 2 36 3.01052 0 87 3.01052 1
gene 3 36 4 8 0 88 8 1
gene 3 3 36 1.0727 0 161 1.0727 1
genomeend 59

/* Organism #60 Fitness: 8.3889 Error: 1.10364 */
genomestart 60
trait 1 0.0572038 0.00423612 0 0.258958 0 0.338066 0.0101552 0.00608964 
trait 2 0.2 0 0 0 0 0 0 0 
trait 3 0.3 0 0 0 0 0 0 0 
node 1 2 1 3
node 2 1 1 1
node 3 2 1 1
node 4 2 0 2
node 36 1 0 0
gene 2 1 4 -7.52439 0 1 -7.52439 1
gene 3 2 4 -0.351326 0 2 -0.351326 0
gene 3 3 4 4.45346 0 3 4.45346 1
gene 3 2 36 1.08814 0 87 1.08814 1
gene 3 36 4 8 0 88 8 1
gene 3 3 36 2.84655 0 161 2.84655 1
genomeend 60

/* Organism #61 Fitness: 4.00127 Error: 1.99968 */
genomestart 61
trait 1 0.0572038 0.00423612 0 0.258958 0 0.338066 0.0101552 0.00608964 
trait 2 0.2 0 0 0 0 0 0 0 
trait 3 0.3 0 0 0 0 0 0 0 
node 1 2 1 3
node 2 1 1 1
node 3 2 1 1
node 4 2 0 2
node 36 1 0 0
gene 2 1 4 -8 0 1 -8 1
gene 3 2 4 1.30782 0 2 1.30782 0
gene 3 3 4 1.45869 0 3 1.45869 1
gene 3 2 36 2.6434 0 87 2.6434 1
gene 3 36 4 6.36398 0 88 6.36398 1
gene 3 3 36 3.34991 0 161 3.34991 1
genomeend 61

/* Organism #62 Fitness: 5.45003 Error: 1.66547 */
genomestart 62
trait 1 0.0572038 0.00423612 0 0.258958 0 0.338066 0.0101552 0.00608964 
trait 2 0.2 0 0 0 0 0 0 0 
trait 3 0.3 0 0 0 0 0 0 0 
node 1 2 1 3
node 2 1 1 1
node 3 2 1 1
node 4 2 0 2
node 36 1 0 0
gene 2 1 4 -6.13856 0 1 -6.13856 1
gene 3 2 4 -0.876437 0 2 -0.876437 0
gene 3 3 4 -2.39754 0 3 -2.39754 1
gene 3 2 36 2.64545 0 87 2.64545 1
gene 3 36 4 5.99891 0 88 5.99891 1
gene 3 3 36 1.18183 0 161 1.18183 1
genomeend 62

/* Organism #63 Fitness: 4 Error: 2 */
genomestart 63
trait 1 0.0572038 0.00423612 0 0.258958 0 0.338066 0.0101552 0.00608964 
trait 2 0.2 0 0 0 0 0 0 0 
trait 3 0.3 0 0 0 0 0 0 0 
node 1 2 1 3
node 2 1 1 1
node 3 2 1 1
node 4 2 0 2
node 36 1 0 0
gene 2 1 4 0.0202266 0 1 0.0202266 1
gene 3 2 4 2.02132 0 2 2.02132 0
gene 3 3 4 8 0 3 8 1
gene 3 2 36 0.86423 0 87 0.86423 1
gene 3 36 4 8 0 88 8 1
gene 3 3 36 0.556001 0 161 0.556001 1
genomeend 63

/* Organism #64 Fitness: 4.00598 Error: 1.99851 */
genomestart 64
trait 1 0.0572038 0.00423612 0 0.258958 0 0.338066 0.0101552 0.00608964 
trait 2 0.2 0 0 0 0 0 0 0 
trait 3 0.3 0 0 0 0 0 0 0 
node 1 2 1 3
node 2 1 1 1
node 3 2 1 1
node 4 2 0 2
node 36 1 0 0
gene 2 1 4 -7.39881 0 1 -7.39881 1
gene 3 2 4 -2.96083 0 2 -2.96083 0
gene 3 3 4 3.70371 0 3 3.70371 1
gene 3 2 36 0.465179 0 87 0.465179 1
gene 3 36 4 6.69299 0 88 6.69299 1
gene 3 3 36 2.40708 0 161 2.40708 1
genomeend 64

/* Species #10 : (Size 7) (AF 7.50567) (Age 21)  */


/* Organism #65 Fitness: 8.99999 Error: 1 */
genomestart 65
trait 1 0 0 0.187996 0.147976 0 0.188864 0.690276 0 
trait 2 0.2 0 0 0 0 0 0 0 
trait 3 0.3 0 0 0 0 0 0 0 
node 1 3 1 3
node 2 1 1 1
node 3 3 1 1
node 4 2 0 2
node 10 1 0 0
node 23 1 0 0
gene 1 1 4 2.80488 0 1 2.80488 1
gene 1 2 4 3.02079 0 2 3.02079 0
gene 1 3 4 -6.55997 0 3 -6.55997 1
gene 1 2 10 -8 0 14 -8 1
gene 1 10 4 6.9444 0 15 6.9444 1
gene 1 2 23 3.43745 0 51 3.43745 1
gene 1 23 10 1.54248 0 52 1.54248 1
genomeend 65

/* Organism #66 Fitness: 3.99995 Error: 2.00001 */
genomestart 66
trait 1 0 0 0.0939979 0.147976 0 0.0944318 0.603385 0 
trait 2 0.2 0 0 0 0 0 0 0 
trait 3 0.3 0 0 0 0 0 0 0 
node 1 3 1 3
node 2 1 1 1
node 3 3 1 1
node 4 2 0 2
node 10 1 0 0
node 23 1 0 0
gene 1 1 4 2.28024 0 1 2.28024 1
gene 1 2 4 3.00704 0 2 3.00704 0
gene 2 3 4 -7.36985 0 3 -7.36985 1
gene 1 2 10 -5.87856 0 14 -5.87856 1
gene 1 10 4 5.97685 0 15 5.97685 1
gene 1 2 23 1.70252 0 51 1.70252 1
gene 1 23 10 -0.836533 0 52 -0.836533 1
genomeend 66

/* Organism #67 Fitness: 8.54 Error: 1.07767 */
genomestart 67
trait 1 0 0 0 0.147976 0 0 0.516495 0 
trait 2 0.2 0 0 0 0 0 0 0 
trait 3 0.3 0 0 0 0 0 0 0 
node 1 3 1 3
node 2 1 1 1
node 3 3 1 1
node 4 2 0 2
node 10 1 0 0
node 23 3 0 0
gene 1 1 4 1.00672 0 1 1.00672 1
gene 1 2 4 2.40781 0 2 2.40781 0
gene 1 3 4 -4.20237 0 3 -4.20237 1
gene 1 2 10 -8 0 14 -8 1
gene 1 10 4 6.13549 0 15 6.13549 1
gene 1 2 23 1.64676 0 51 1.64676 1
gene 1 23 10 0.175051 0 52 0.175051 1
genomeend 67

/* Organism #68 Fitness: 8.9999 Error: 1.00002 */
genomestart 68
trait 1 0 0 0.0939979 0.147976 0 0.0944318 0.603385 0 
trait 2 0.2 0 0 0 0 0 0 0 
trait 3 0.3 0 0 0 0 0 0 0 
node 1 3 1 3
node 2 1 1 1
node 3 3 1 1
node 4 2 0 2
node 10 1 0 0
node 23 1 0 0
gene 1 1 4 2.44468 0 1 2.44468 1
gene 1 2 4 1.29259 0 2 1.29259 0
gene 1 3 4 -8 0 3 -8 1
gene 1 2 10 -8 0 14 -8 1
gene 1 10 4 8 0 15 8 1
gene 1 2 23 2.95154 0 51 2.95154 1
gene 1 23 10 1.65987 0 52 1.65987 1
genomeend 68

/* Organism #69 Fitness: 8.99999 Error: 1 */
genomestart 69
trait 1 0 0 0.0939979 0.147976 0 0.0944318 0.603385 0 
trait 2 0.2 0 0 0 0 0 0 0 
trait 3 0.3 0 0 0 0 0 0 0 
node 1 3 1 3
node 2 1 1 1
node 3 3 1 1
node 4 2 0 2
node 10 1 0 0
node 23 1 0 0
gene 1 1 4 2.80488 0 1 2.80488 1
gene 1 2 4 3.02079 0 2 3.02079 0
gene 1 3 4 -6.55997 0 3 -6.55997 1
gene 1 2 10 -8 0 14 -8 1
gene 1 10 4 6.9444 0 15 6.9444 1
gene 1 2 23 3.43745 0 51 3.43745 1
gene 1 23 10 1.54248 0 52 1.54248 1
genomeend 69

/* Organism #70 Fitness: 3.99989 Error: 2.00003 */
genomestart 70
trait 1 0 0 0.187996 0.147976 0 0.188864 0.690276 0 
trait 2 0.2 0 0 0 0 0 0 0 
trait 3 0.3 0 0 0 0 0 0 0 
node 1 3 1 3
node 2 1 1 1
node 3 3 1 1
node 4 2 0 2
node 10 1 0 0
node 23 1 0 0
gene 1 1 4 2.12868 0 1 2.12868 1
gene 1 2 4 3.99049 0 2 3.99049 0
gene 1 3 4 -6.06857 0 3 -6.06857 1
gene 1 2 10 -1.4298 0 14 -1.4298 1
gene 1 10 4 7.8644 0 15 7.8644 1
gene 1 2 23 1.14671 0 51 1.14671 1
gene 1 23 10 -0.736371 0 52 -0.736371 1
genomeend 70

/* Organism #71 Fitness: 8.99998 Error: 1 */
genomestart 71
trait 1 0 0 0.0939979 0.147976 0 0.0944318 0.603385 0 
trait 2 0.2 0 0 0 0 0 0 0 
trait 3 0.3 0 0 0 0 0 0 0 
node 1 3 1 3
node 2 1 1 1
node 3 3 1 1
node 4 2 0 2
node 10 1 0 0
node 23 1 0 0
gene 1 1 4 3.3744 0 1 3.3744 1
gene 1 2 4 4.8127 0 2 4.8127 0
gene 1 3 4 -5.90357 0 3 -5.90357 1
gene 1 2 10 -8 0 14 -8 1
gene 1 10 4 8 0 15 8 1
gene 1 2 23 2.74979 0 51 2.74979 1
gene 1 23 10 1.02939 0 52 1.02939 1
genomeend 71

/* Species #13 : (Size 7) (AF 8.29462) (Age 13)  */


/* Organism #72 Fitness: 8.99983 Error: 1.00003 */
genomestart 72
trait 1 0 0 0.27537 0 0 0 0 0 
trait 2 0.15 0.108881 0 0 0 0 0 0 
trait 3 0.3 0 0 0 0 0 0 0 
node 1 2 1 3
node 2 3 1 1
node 3 3 1 1
node 4 3 0 2
node 7 1 0 0
node 18 1 0 0
node 49 1 0 0
gene 1 1 4 -2.46677 0 1 -2.46677 1
gene 2 2 4 6.31952 0 2 6.31952 1
gene 2 3 4 6.18881 0 3 6.18881 1
gene 3 3 7 -3.35987 0 8 -3.35987 0
gene 3 7 4 -3.44648 0 9 -3.44648 1
gene 1 3 18 -1.42616 0 37 -1.42616 0
gene 1 18 7 -1.9006 0 38 -1.9006 1
gene 1 3 49 -4.46084 0 125 -4.46084 1
gene 1 49 18 -1.48333 0 126 -1.48333 1
gene 2 2 18 -2.31755 0 232 -2.31755 1
genomeend 72

/* Organism #73 Fitness: 8.99764 Error: 1.00039 */
genomestart 73
trait 1 0 0 0.27537 0 0 0 0 0 
trait 2 0.15 0.108881 0 0 0 0 0 0 
trait 3 0.3 0 0 0 0 0 0 0 
node 1 2 1 3
node 2 3 1 1
node 3 3 1 1
node 4 3 0 2
node 7 1 0 0
node 18 1 0 0
node 49 1 0 0
gene 1 1 4 -0.940048 0 1 -0.940048 1
gene 2 2 4 3.85356 0 2 3.85356 1
gene 2 3 4 6.91262 0 3 6.91262 1
gene 3 3 7 -3.35987 0 8 -3.35987 0
gene 3 7 4 -1.29242 0 9 -1.29242 1
gene 1 3 18 -0.7285 0 37 -0.7285 0
gene 1 18 7 0.33987 0 38 0.33987 1
gene 1 3 49 -2.33899 0 125 -2.33899 1
gene 1 49 18 -1.48333 0 126 -1.48333 1
gene 2 2 18 -0.817759 0 232 -0.817759 1
genomeend 73

/* Organism #74 Fitness: 8.99998 Error: 1 */
genomestart 74
trait 1 0 0 0.27537 0 0 0 0 0 
trait 2 0.15 0.108881 0 0 0 0 0 0 
trait 3 0.3 0 0 0 0 0 0 0 
node 1 2 1 3
node 2 3 1 1
node 3 3 1 1
node 4 3 0 2
node 7 1 0 0
node 18 1 0 0
node 49 1 0 0
gene 1 1 4 -2.58187 0 1 -2.58187 1
gene 2 2 4 8 0 2 8 1
gene 2 3 4 5.13956 0 3 5.13956 1
gene 3 3 7 -1.77404 0 8 -1.77404 1
gene 3 7 4 -2.22664 0 9 -2.22664 1
gene 1 3 18 -1.20698 0 37 -1.20698 0
gene 1 18 7 -3.3843 0 38 -3.3843 1
gene 1 3 49 -5.68615 0 125 -5.68615 1
gene 1 49 18 -2.19388 0 126 -2.19388 1
gene 2 2 18 -2.31755 0 232 -2.31755 1
genomeend 74

/* Organism #75 Fitness: 8.99764 Error: 1.00039 */
genomestart 75
trait 1 0 0 0.27537 0 0 0 0 0 
trait 2 0.15 0.108881 0 0 0 0 0 0 
trait 3 0.3 0 0 0 0 0 0 0 
node 1 2 1 3
node 2 3 1 1
node 3 3 1 1
node 4 3 0 2
node 7 1 0 0
node 18 1 0 0
node 49 1 0 0
gene 1 1 4 -0.940048 0 1 -0.940048 1
gene 2 2 4 3.85356 0 2 3.85356 1
gene 2 3 4 6.91262 0 3 6.91262 1
gene 3 3 7 -3.35987 0 8 -3.35987 0
gene 3 7 4 -1.29242 0 9 -1.29242 1
gene 1 3 18 -0.7285 0 37 -0.7285 0
gene 1 18 7 0.33987 0 38 0.33987 1
gene 1 3 49 -2.33899 0 125 -2.33899 1
gene 1 49 18 -1.48333 0 126 -1.48333 1
gene 2 2 18 -0.817759 0 232 -0.817759 1
genomeend 75

/* Organism #76 Fitness: 4.06761 Error: 1.98317 */
genomestart 76
trait 1 0 0 0.27537 0 0 0 0 0 
trait 2 0.15 0.108881 0 0 0 0 0 0 
trait 3 0.3 0 0 0 0 0 0 0 
node 1 2 1 3
node 2 3 1 1
node 3 3 1 1
node 4 3 0 2
node 7 1 0 0
node 18 1 0 0
node 49 1 0 0
gene 1 1 4 -1.98725 0 1 -1.98725 1
gene 2 2 4 2.056 0 2 2.056 1
gene 2 3 4 7.77729 0 3 7.77729 1
gene 3 3 7 -4.70632 0 8 -4.70632 0
gene 3 7 4 -1.7895 0 9 -1.7895 1
gene 1 3 18 0.624943 0 37 0.624943 0
gene 1 18 7 -0.86504 0 38 -0.86504 1
gene 1 3 49 -3.69768 0 125 -3.69768 1
gene 1 49 18 -1.3961 0 126 -1.3961 1
gene 2 2 18 -2.70256 0 232 -2.70256 1
genomeend 76

/* Organism #77 Fitness: 8.99983 Error: 1.00003 */
genomestart 77
trait 1 0 0 0.27537 0 0 0 0 0 
trait 2 0.15 0.108881 0 0 0 0 0 0 
trait 3 0.3 0 0 0 0 0 0 0 
node 1 2 1 3
node 2 3 1 1
node 3 3 1 1
node 4 3 0 2
node 7 1 0 0
node 18 1 0 0
node 49 1 0 0
gene 1 1 4 -2.46677 0 1 -2.46677 1
gene 2 2 4 6.31952 0 2 6.31952 1
gene 2 3 4 6.18881 0 3 6.18881 1
gene 3 3 7 -3.35987 0 8 -3.35987 0
gene 3 7 4 -3.44648 0 9 -3.44648 1
gene 1 3 18 -1.42616 0 37 -1.42616 0
gene 1 18 7 -1.9006 0 38 -1.9006 1
gene 1 3 49 -4.46084 0 125 -4.46084 1
gene 1 49 18 -1.48333 0 126 -1.48333 1
gene 2 2 18 -2.31755 0 232 -2.31755 1
genomeend 77

/* Organism #78 Fitness: 8.99983 Error: 1.00003 */
genomestart 78
trait 1 0 0 0.27537 0 0 0 0 0 
trait 2 0.15 0.108881 0 0 0 0 0 0 
trait 3 0.3 0 0 0 0 0 0 0 
node 1 2 1 3
node 2 3 1 1
node 3 3 1 1
node 4 3 0 2
node 7 1 0 0
node 18 1 0 0
node 49 1 0 0
gene 1 1 4 -2.46677 0 1 -2.46677 1
gene 2 2 4 6.31952 0 2 6.31952 1
gene 2 3 4 6.18881 0 3 6.18881 1
gene 3 3 7 -3.35987 0 8 -3.35987 0
gene 3 7 4 -3.44648 0 9 -3.44648 1
gene 1 3 18 -1.42616 0 37 -1.42616 0
gene 1 18 7 -1.9006 0 38 -1.9006 1
gene 1 3 49 -4.46084 0 125 -4.46084 1
gene 1 49 18 -1.48333 0 126 -1.48333 1
gene 2 2 18 -2.31755 0 232 -2.31755 1
genomeend 78

/* Species #14 : (Size 9) (AF 8.21683) (Age 13)  */


/* Organism #79 Fitness: 9 Error: 1 */
genomestart 79
trait 1 0.0937724 0.0350478 0.108996 0.110982 0 0.143223 0.0169253 0.0601975 
trait 2 0.2 0 0 0 0 0 0 0 
trait 3 0.3 0 0 0 0 0 0 0 
node 1 3 1 3
node 2 3 1 1
node 3 3 1 1
node 4 2 0 2
node 50 1 0 0
gene 2 1 4 -4.76148 0 1 -4.76148 1
gene 3 2 4 7.96106 0 2 7.96106 1
gene 1 3 4 7.52374 0 3 7.52374 1
gene 1 3 50 4.99715 0 127 4.99715 1
gene 1 50 4 1.24882 0 128 1.24882 1
genomeend 79

/* Organism #80 Fitness: 8.9988 Error: 1.0002 */
genomestart 80
trait 1 0.0937724 0.0350478 0.108996 0.110982 0 0.143223 0.0169253 0.0601975 
trait 2 0.2 0 0 0 0 0 0 0 
trait 3 0.3 0 0 0 0 0 0 0 
node 1 3 1 3
node 2 3 1 1
node 3 3 1 1
node 4 2 0 2
node 50 1 0 0
gene 2 1 4 -7.71039 0 1 -7.71039 1
gene 3 2 4 8 0 2 8 1
gene 2 3 4 8 0 3 8 1
gene 1 3 50 4.5817 0 127 4.5817 1
gene 1 50 4 2.88155 0 128 2.88155 1
genomeend 80

/* Organism #81 Fitness: 8.99982 Error: 1.00003 */
genomestart 81
trait 1 0.0937724 0.0350478 0.108996 0.110982 0 0.143223 0.0169253 0.0601975 
trait 2 0.2 0 0 0 0 0 0 0 
trait 3 0.3 0 0 0 0 0 0 0 
node 1 3 1 3
node 2 3 1 1
node 3 3 1 1
node 4 2 0 2
node 50 1 0 0
gene 2 1 4 -3.54792 0 1 -3.54792 1
gene 3 2 4 7.669 0 2 7.669 1
gene 1 3 4 7.21697 0 3 7.21697 1
gene 1 3 50 5.69571 0 127 5.69571 1
gene 1 50 4 2.87004 0 128 2.87004 1
genomeend 81

/* Organism #82 Fitness: 8.99998 Error: 1 */
genomestart 82
trait 1 0.0937724 0.0350478 0.108996 0.110982 0 0.143223 0.0169253 0.0601975 
trait 2 0.2 0 0 0 0 0 0 0 
trait 3 0.3 0 0 0 0 0 0 0 
node 1 3 1 3
node 2 3 1 1
node 3 3 1 1
node 4 2 0 2
node 50 1 0 0
gene 2 1 4 -5.82259 0 1 -5.82259 1
gene 3 2 4 7.774 0 2 7.774 1
gene 1 3 4 8 0 3 8 1
gene 1 3 50 4.13602 0 127 4.13602 1
gene 1 50 4 1.28488 0 128 1.28488 1
genomeend 82

/* Organism #83 Fitness: 4.19686 Error: 1.95138 */
genomestart 83
trait 1 0.0937724 0.0350478 0.108996 0.110982 0 0.143223 0.0169253 0.0601975 
trait 2 0.2 0 0 0 0 0 0 0 
trait 3 0.3 0 0 0 0 0 0 0 
node 1 3 1 3
node 2 3 1 1
node 3 3 1 1
node 4 2 0 2
node 50 1 0 0
gene 2 1 4 -6.21792 0 1 -6.21792 1
gene 3 2 4 -0.141114 0 2 -0.141114 1
gene 1 3 4 6.54303 0 3 6.54303 1
gene 1 3 50 4.78842 0 127 4.78842 1
gene 1 50 4 0.25636 0 128 0.25636 1
genomeend 83

/* Organism #84 Fitness: 6.75631 Error: 1.40071 */
genomestart 84
trait 1 0.0937724 0.0350478 0.108996 0.110982 0 0.143223 0.0169253 0.0601975 
trait 2 0.2 0 0 0 0 0 0 0 
trait 3 0.3 0 0 0 0 0 0 0 
node 1 3 1 3
node 2 3 1 1
node 3 3 1 1
node 4 2 0 2
node 50 1 0 0
gene 2 1 4 -6.7335 0 1 -6.7335 1
gene 3 2 4 8 0 2 8 1
gene 1 3 4 8 0 3 8 1
gene 1 3 50 3.90954 0 127 3.90954 1
gene 1 50 4 -1.15672 0 128 -1.15672 1
genomeend 84

/* Organism #85 Fitness: 8.99981 Error: 1.00003 */
genomestart 85
trait 1 0.445395 0.0350478 0.108996 0 0 0.143223 0.921856 0.0601975 
trait 2 0.2 0 0 0 0 0 0 0 
trait 3 0.3 0 0 0 0 0 0 0 
node 1 3 1 3
node 2 3 1 1
node 3 3 1 1
node 4 2 0 2
node 50 1 0 0
gene 2 1 4 -5.35634 0 1 -5.35634 1
gene 3 2 4 8 0 2 8 1
gene 2 3 4 6.70206 0 3 6.70206 1
gene 1 3 50 3.43803 0 127 3.43803 1
gene 1 50 4 0.764994 0 128 0.764994 1
genomeend 85

/* Organism #86 Fitness: 8.99988 Error: 1.00002 */
genomestart 86
trait 1 0.0937724 0.0350478 0.108996 0.110982 0 0.143223 0.0169253 0.0601975 
trait 2 0.2 0 0 0 0 0 0 0 
trait 3 0.3 0 0 0 0 0 0 0 
node 1 3 1 3
node 2 3 1 1
node 3 3 1 1
node 4 2 0 2
node 50 1 0 0
gene 2 1 4 -3.67487 0 1 -3.67487 1
gene 3 2 4 8 0 2 8 1
gene 1 3 4 6.07133 0 3 6.07133 1
gene 1 3 50 3.48012 0 127 3.48012 1
gene 1 50 4 -0.202522 0 128 -0.202522 1
genomeend 86

/* Organism #87 Fitness: 8.99998 Error: 1 */
genomestart 87
trait 1 0.0937724 0.0350478 0.108996 0.110982 0 0.143223 0.0169253 0.0601975 
trait 2 0.2 0 0 0 0 0 0 0 
trait 3 0.3 0 0 0 0 0 0 0 
node 1 3 1 3
node 2 3 1 1
node 3 3 1 1
node 4 2 0 2
node 50 1 0 0
gene 2 1 4 -3.55688 0 1 -3.55688 1
gene 3 2 4 5.6953 0 2 5.6953 1
gene 1 3 4 7.41077 0 3 7.41077 1
gene 1 3 50 6.82512 0 127 6.82512 1
gene 1 50 4 2.05737 0 128 2.05737 1
genomeend 87

/* Species #15 : (Size 6) (AF 7.98106) (Age 11)  */


/* Organism #88 Fitness: 8.98775 Error: 1.00204 */
genomestart 88
trait 1 0.0572038 0.00423612 0 0.258958 0 0.338066 0.0101552 0.00608964 
trait 2 0.2 0 0 0 0 0 0 0 
trait 3 0.3 0 0 0 0 0 0 0 
node 1 2 1 3
node 2 1 1 1
node 3 2 1 1
node 4 2 0 2
node 36 1 0 0
node 60 1 0 0
gene 2 1 4 -2.11518 0 1 -2.11518 1
gene 3 2 4 3.37551 0 2 3.37551 1
gene 3 3 4 5.32046 0 3 5.32046 1
gene 1 2 36 5.61081 0 87 5.61081 1
gene 3 36 4 1.63673 0 88 1.63673 0
gene 3 36 60 -5.59528 0 154 -5.59528 1
gene 3 60 4 3.4849 0 155 3.4849 1
genomeend 88

/* Organism #89 Fitness: 8.15088 Error: 1.14503 */
genomestart 89
trait 1 0.0572038 0.00423612 0 0.258958 0 0.338066 0.0101552 0.00608964 
trait 2 0.2 0 0 0 0 0 0 0 
trait 3 0.3 0 0 0 0 0 0 0 
node 1 2 1 3
node 2 1 1 1
node 3 2 1 1
node 4 2 0 2
node 36 1 0 0
node 60 1 0 0
gene 2 1 4 -2.00041 0 1 -2.00041 1
gene 3 2 4 2.36079 0 2 2.36079 1
gene 3 3 4 6.21901 0 3 6.21901 1
gene 1 2 36 7.38434 0 87 7.38434 1
gene 3 36 4 -0.305591 0 88 -0.305591 0
gene 3 36 60 -3.78554 0 154 -3.78554 1
gene 3 60 4 5.85924 0 155 5.85924 1
genomeend 89

/* Organism #90 Fitness: 4.00236 Error: 1.99941 */
genomestart 90
trait 1 0.0572038 0.00423612 0 0.258958 0 0.338066 0.0101552 0.00608964 
trait 2 0.2 0 0 0 0 0 0 0 
trait 3 0.3 0 0 0 0 0 0 0 
node 1 2 1 3
node 2 1 1 1
node 3 2 1 1
node 4 2 0 2
node 36 1 0 0
node 60 1 0 0
gene 2 1 4 -1.28377 0 1 -1.28377 1
gene 3 2 4 1.57687 0 2 1.57687 1
gene 3 3 4 3.85025 0 3 3.85025 1
gene 1 2 36 7.11846 0 87 7.11846 1
gene 3 36 4 5.38662 0 88 5.38662 1
gene 3 36 60 -1.5382 0 154 -1.5382 1
gene 3 60 4 4.51493 0 155 4.51493 1
genomeend 90

/* Organism #91 Fitness: 8.99482 Error: 1.00086 */
genomestart 91
trait 1 0.0572038 0.00423612 0 0.258958 0 0.338066 0.0101552 0.00608964 
trait 2 0.2 0 0 0 0 0 0 0 
trait 3 0.113519 0.275153 0 0 0 0 0.462838 0 
node 1 2 1 3
node 2 1 1 1
node 3 2 1 1
node 4 2 0 2
node 36 1 0 0
node 60 1 0 0
gene 2 1 4 -2.41864 0 1 -2.41864 1
gene 3 2 4 4.93502 0 2 4.93502 1
gene 3 3 4 3.79879 0 3 3.79879 1
gene 1 2 36 7.33993 0 87 7.33993 1
gene 3 36 4 1.74274 0 88 1.74274 0
gene 3 36 60 -0.926559 0 154 -0.926559 1
gene 3 60 4 0.597696 0 155 0.597696 1
genomeend 91

/* Organism #92 Fitness: 8.82606 Error: 1.02913 */
genomestart 92
trait 1 0.0572038 0.00423612 0 0.258958 0 0.338066 0.0101552 0.00608964 
trait 2 0.2 0 0 0 0 0 0 0 
trait 3 0.3 0 0 0 0 0 0 0 
node 1 2 1 3
node 2 1 1 1
node 3 2 1 1
node 4 2 0 2
node 36 1 0 0
node 60 1 0 0
gene 2 1 4 -2.79718 0 1 -2.79718 1
gene 3 2 4 3.51056 0 2 3.51056 1
gene 3 3 4 4.54525 0 3 4.54525 1
gene 1 2 36 7.34072 0 87 7.34072 1
gene 3 36 4 2.57158 0 88 2.57158 0
gene 3 36 60 -6.76186 0 154 -6.76186 1
gene 3 60 4 0.580254 0 155 0.580254 1
genomeend 92

/* Organism #93 Fitness: 8.92449 Error: 1.01261 */
genomestart 93
trait 1 0.0572038 0.00423612 0 0.258958 0 0.338066 0.0101552 0.00608964 
trait 2 0.2 0 0 0 0 0 0 0 
trait 3 0.3 0.133171 0 0 0.394333 0 0 0 
node 1 2 1 3
node 2 1 1 1
node 3 2 1 1
node 4 2 0 2
node 36 1 0 0
node 60 1 0 0
gene 2 1 4 -1.69155 0 1 -1.69155 1
gene 3 2 4 3.02231 0 2 3.02231 1
gene 3 3 4 2.60614 0 3 2.60614 1
gene 1 2 36 4.9252 0 87 4.9252 1
gene 3 36 4 -0.117265 0 88 -0.117265 0
gene 3 36 60 -5.67276 0 154 -5.67276 1
gene 3 60 4 0.857835 0 155 0.857835 1
genomeend 93

/* Species #16 : (Size 4) (AF 4.00079) (Age 10)  */


/* Organism #94 Fitness: 3.99993 Error: 2.00002 */
genomestart 94
trait 1 0 0 0.353458 0 0.92848 0 0.660625 0 
trait 2 0.2 0 0 0 0 0 0 0 
trait 3 0.3 0 0 0 0 0 0 0 
node 1 2 1 3
node 2 3 1 1
node 3 3 1 1
node 4 3 0 2
node 7 1 0 0
node 17 2 0 0
node 62 1 0 0
gene 1 1 4 2.20372 0 1 2.20372 1
gene 2 2 4 -0.134612 0 2 -0.134612 0
gene 3 3 4 8 0 3 8 1
gene 1 3 7 5.60724 0 8 5.60724 0
gene 3 7 4 6.0456 0 9 6.0456 1
gene 3 2 7 -2.16729 0 26 -2.16729 1
gene 2 1 7 -2.16505 0 29 -2.16505 1
gene 2 2 17 -1.03918 0 35 -1.03918 1
gene 2 17 4 1.22876 0 36 1.22876 1
gene 3 17 7 -4.09128 0 117 -4.09128 1
gene 1 3 62 0.622791 0 159 0.622791 1
gene 3 62 7 5.28928 0 160 5.28928 1
genomeend 94

/* Organism #95 Fitness: 4.00325 Error: 1.99919 */
genomestart 95
trait 1 0 0 0.353458 0 0.92848 0 0.660625 0 
trait 2 0.2 0 0 0 0 0 0 0 
trait 3 0.3 0 0 0 0 0 0 0 
node 1 2 1 3
node 2 3 1 1
node 3 3 1 1
node 4 3 0 2
node 7 1 0 0
node 17 2 0 0
node 62 3 0 0
gene 1 1 4 -1.44434 0 1 -1.44434 1
gene 2 2 4 -2.20821 0 2 -2.20821 0
gene 3 3 4 6.58743 0 3 6.58743 1
gene 1 3 7 2.25374 0 8 2.25374 0
gene 3 7 4 2.63169 0 9 2.63169 1
gene 3 2 7 -0.869842 0 26 -0.869842 1
gene 2 1 7 -2.23115 0 29 -2.23115 1
gene 2 2 17 -2.54898 0 35 -2.54898 1
gene 2 17 4 -2.53684 0 36 -2.53684 1
gene 3 17 7 -0.0349009 0 117 -0.0349009 1
gene 1 3 62 2.95521 0 159 2.95521 1
gene 3 62 7 0.724061 0 160 0.724061 1
genomeend 95

/* Organism #96 Fitness: 4 Error: 2 */
genomestart 96
trait 1 0 0 0.353458 0 0.92848 0 0.660625 0 
trait 2 0.2 0 0 0 0 0 0 0 
trait 3 0.3 0 0 0 0 0 0 0 
node 1 2 1 3
node 2 3 1 1
node 3 3 1 1
node 4 3 0 2
node 7 1 0 0
node 17 2 0 0
node 62 1 0 0
gene 1 1 4 2.49614 0 1 2.49614 1
gene 2 2 4 0.336541 0 2 0.336541 0
gene 2 3 4 8 0 3 8 1
gene 1 3 7 4.80156 0 8 4.80156 0
gene 3 7 4 4.3815 0 9 4.3815 1
gene 3 2 7 0.902298 0 26 0.902298 1
gene 2 1 7 0.301787 0 29 0.301787 1
gene 2 2 17 1.59372 0 35 1.59372 1
gene 2 17 4 1.84191 0 36 1.84191 1
gene 3 17 7 -2.87498 0 117 -2.87498 1
gene 1 3 62 0.0224087 0 159 0.0224087 1
gene 3 62 7 1.29162 0 160 1.29162 1
genomeend 96

/* Organism #97 Fitness: 3.99999 Error: 2 */
genomestart 97
trait 1 0 0 0.353458 0 0.92848 0 0.660625 0 
trait 2 0.2 0 0 0 0 0 0 0 
trait 3 0.3 0 0 0 0 0 0 0 
node 1 2 1 3
node 2 3 1 1
node 3 3 1 1
node 4 3 0 2
node 7 1 0 0
node 17 2 0 0
node 62 1 0 0
gene 1 1 4 0.705364 0 1 0.705364 1
gene 2 2 4 -2.2162 0 2 -2.2162 0
gene 3 3 4 8 0 3 8 1
gene 1 3 7 -0.538578 0 8 -0.538578 0
gene 3 7 4 1.90628 0 9 1.90628 1
gene 3 2 7 -0.524808 0 26 -0.524808 1
gene 2 1 7 2.41454 0 29 2.41454 1
gene 2 2 17 1.9024 0 35 1.9024 1
gene 2 17 4 1.97653 0 36 1.97653 1
gene 3 17 7 -3.14199 0 117 -3.14199 1
gene 1 3 62 1.85463 0 159 1.85463 1
gene 3 62 7 0.694775 0 160 0.694775 1
genomeend 97

/* Species #17 : (Size 7) (AF 6.0757) (Age 10)  */


/* Organism #98 Fitness: 8.99725 Error: 1.00046 */
genomestart 98
trait 1 0.0572038 0.944341 0.74261 0.258958 0 0.338066 0 0.00608964 
trait 2 0.2 0 0 0 0 0 0 0 
trait 3 0.15 0 0.362536 0 0.40964 0 0 0 
node 1 2 1 3
node 2 1 1 1
node 3 2 1 1
node 4 2 0 2
node 36 1 0 0
node 63 1 0 0
gene 2 1 4 -7.48742 0 1 -7.48742 1
gene 3 2 4 -3.11966 0 2 -3.11966 1
gene 3 3 4 6.48188 0 3 6.48188 1
gene 3 2 36 -0.0640287 0 87 -0.0640287 1
gene 3 36 4 8 0 88 8 0
gene 3 3 36 0.394772 0 153 0.394772 1
gene 3 36 63 2.14703 0 162 2.14703 1
gene 3 63 4 8 0 163 8 1
gene 2 1 63 -1.94804 0 188 -1.94804 1
genomeend 98

/* Organism #99 Fitness: 8.57496 Error: 1.0717 */
genomestart 99
trait 1 0.0572038 0.944341 0.74261 0.258958 0 0.338066 0 0.00608964 
trait 2 0.2 0 0 0 0 0 0 0 
trait 3 0.15 0 0.362536 0 0.40964 0 0 0 
node 1 2 1 3
node 2 1 1 1
node 3 2 1 1
node 4 2 0 2
node 36 3 0 0
node 63 1 0 0
gene 2 1 4 -8 0 1 -8 1
gene 3 2 4 -2.56116 0 2 -2.56116 1
gene 3 3 4 8 0 3 8 1
gene 3 2 36 1.10662 0 87 1.10662 1
gene 3 36 4 8 0 88 8 0
gene 3 3 36 1.6762 0 153 1.6762 1
gene 3 36 63 0.632187 0 162 0.632187 1
gene 3 63 4 8 0 163 8 1
gene 2 1 63 -1.17338 0 188 -1.17338 1
genomeend 99

/* Organism #100 Fitness: 3.98632 Error: 2.00342 */
genomestart 100
trait 1 0.0572038 0.944341 0.74261 0.258958 0 0.338066 0 0.00608964 
trait 2 0.2 0 0 0 0 0 0 0 
trait 3 0.15 0 0.362536 0 0.40964 0 0 0 
node 1 2 1 3
node 2 1 1 1
node 3 2 1 1
node 4 2 0 2
node 36 1 0 0
node 63 1 0 0
gene 2 1 4 -0.961191 0 1 -0.961191 1
gene 3 2 4 -4.85552 0 2 -4.85552 1
gene 3 3 4 7.05091 0 3 7.05091 1
gene 3 2 36 1.48654 0 87 1.48654 1
gene 3 36 4 7.32333 0 88 7.32333 0
gene 3 3 36 -1.79087 0 153 -1.79087 1
gene 3 36 63 2.37734 0 162 2.37734 1
gene 3 63 4 6.96915 0 163 6.96915 1
gene 2 1 63 -0.283923 0 188 -0.283923 1
genomeend 100

/* Organism #101 Fitness: 3.9971 Error: 2.00073 */
genomestart 101
trait 1 0.0572038 0.474289 0.371305 0.258958 0 0.338066 0.00507759 0.00608964 
trait 2 0.2 0 0 0 0 0 0 0 
trait 3 0.15 0 0.362536 0 0.40964 0 0 0 
node 1 2 1 3
node 2 1 1 1
node 3 2 1 1
node 4 2 0 2
node 36 1 0 0
node 63 1 0 0
gene 2 1 4 -3.95213 0 1 -3.95213 1
gene 3 2 4 -2.57946 0 2 -2.57946 1
gene 3 3 4 8 0 3 8 1
gene 3 2 36 1.18124 0 87 1.18124 1
gene 3 36 4 -3.76519 0 88 -3.76519 0
gene 3 3 36 2.12811 0 153 2.12811 1
gene 3 36 63 1.8186 0 162 1.8186 1
gene 3 63 4 8 0 163 8 1
gene 2 1 63 0.171425 0 188 0.171425 1
genomeend 101

/* Organism #102 Fitness: 4.07221 Error: 1.98203 */
genomestart 102
trait 1 0.0572038 0.474289 0.371305 0.258958 0 0.338066 0.00507759 0.00608964 
trait 2 0.2 0 0 0 0 0 0 0 
trait 3 0.15 0 0.362536 0 0.40964 0 0 0 
node 1 2 1 3
node 2 1 1 1
node 3 2 1 1
node 4 2 0 2
node 36 1 0 0
node 63 1 0 0
gene 2 1 4 -5.33739 0 1 -5.33739 1
gene 3 2 4 -3.79666 0 2 -3.79666 1
gene 3 3 4 8 0 3 8 1
gene 3 2 36 -2.44738 0 87 -2.44738 1
gene 3 36 4 -3.94926 0 88 -3.94926 0
gene 3 3 36 2.41693 0 153 2.41693 1
gene 3 36 63 1.23414 0 162 1.23414 1
gene 3 63 4 1.94678 0 163 1.94678 1
gene 2 1 63 1.23596 0 188 1.23596 1
genomeend 102

/* Organism #103 Fitness: 8.90205 Error: 1.01637 */
genomestart 103
trait 1 0.0572038 0.474289 0.371305 0.258958 0 0.338066 0.00507759 0.00608964 
trait 2 0.2 0 0 0 0 0 0 0 
trait 3 0.15 0 0.362536 0 0.40964 0 0 0 
node 1 2 1 3
node 2 1 1 1
node 3 2 1 1
node 4 2 0 2
node 36 1 0 0
node 63 1 0 0
gene 2 1 4 -5.58064 0 1 -5.58064 1
gene 3 2 4 -1.98533 0 2 -1.98533 1
gene 3 3 4 6.65134 0 3 6.65134 1
gene 3 2 36 -0.190154 0 87 -0.190154 1
gene 3 36 4 -1.94033 0 88 -1.94033 0
gene 3 3 36 0.367112 0 153 0.367112 1
gene 3 36 63 -0.186679 0 162 -0.186679 1
gene 3 63 4 8 0 163 8 1
gene 2 1 63 -1.23377 0 188 -1.23377 1
genomeend 103

/* Organism #104 Fitness: 4 Error: 2 */
genomestart 104
trait 1 0.0572038 0.474289 0.371305 0.258958 0 0.338066 0.00507759 0.00608964 
trait 2 0.2 0 0 0 0 0 0 0 
trait 3 0.15 0 0.362536 0 0.40964 0 0 0 
node 1 2 1 3
node 2 1 1 1
node 3 2 1 1
node 4 2 0 2
node 36 1 0 0
node 63 1 0 0
gene 2 1 4 -5.58064 0 1 -5.58064 1
gene 3 2 4 -1.48594 0 2 -1.48594 1
gene 3 3 4 -0.139601 0 3 -0.139601 1
gene 3 2 36 -0.544892 0 87 -0.544892 1
gene 3 36 4 -1.94033 0 88 -1.94033 0
gene 3 3 36 0.367112 0 153 0.367112 1
gene 3 36 63 -1.25629 0 162 -1.25629 1
gene 3 63 4 6.33944 0 163 6.33944 1
gene 2 1 63 -1.22379 0 188 -1.22379 1
genomeend 104

/* Species #18 : (Size 8) (AF 6.49837) (Age 9)  */


/* Organism #105 Fitness: 8.9999 Error: 1.00002 */
genomestart 105
trait 1 0.1 0.0170172 0 0 0 0 0 0 
trait 2 0.2 0 0 0 0 0 0 0 
trait 3 0.3 0 0 0 0 0 0 0 
node 1 2 1 3
node 2 3 1 1
node 3 3 1 1
node 4 3 0 2
node 7 1 0 0
node 18 1 0 0
node 58 1 0 0
gene 1 1 4 0.97 0 1 0.97 1
gene 2 2 4 -5.00625 0 2 -5.00625 1
gene 2 3 4 8 0 3 8 1
gene 1 3 7 -1.6197 0 8 -1.6197 0
gene 3 7 4 -6.21694 0 9 -6.21694 1
gene 1 3 18 1.19343 0 37 1.19343 1
gene 1 18 7 6.89539 0 38 6.89539 1
gene 1 3 58 -1.44152 0 149 -1.44152 1
gene 1 58 7 3.83844 0 150 3.83844 1
genomeend 105

/* Organism #106 Fitness: 4.02006 Error: 1.99499 */
genomestart 106
trait 1 0.1 0.0170172 0 0 0 0 0 0 
trait 2 0.2 0 0 0 0 0 0 0 
trait 3 0.3 0 0 0 0 0 0 0 
node 1 2 1 3
node 2 3 1 1
node 3 3 1 1
node 4 3 0 2
node 7 1 0 0
node 18 1 0 0
node 58 1 0 0
gene 1 1 4 4.21204 0 1 4.21204 1
gene 2 2 4 -3.9906 0 2 -3.9906 1
gene 2 3 4 7.28957 0 3 7.28957 1
gene 1 3 7 3.3106 0 8 3.3106 0
gene 3 7 4 -6.4371 0 9 -6.4371 1
gene 1 3 18 3.8359 0 37 3.8359 1
gene 1 18 7 3.09753 0 38 3.09753 1
gene 1 3 58 -4.04545 0 149 -4.04545 1
gene 1 58 7 2.70218 0 150 2.70218 1
genomeend 106

/* Organism #107 Fitness: 8.99927 Error: 1.00012 */
genomestart 107
trait 1 0.1 0.0170172 0 0 0 0 0 0 
trait 2 0.2 0 0 0 0 0 0 0 
trait 3 0.3 0 0 0 0 0 0 0 
node 1 2 1 3
node 2 3 1 1
node 3 3 1 1
node 4 3 0 2
node 7 1 0 0
node 18 1 0 0
node 58 1 0 0
gene 1 1 4 1.77291 0 1 1.77291 1
gene 2 2 4 -3.9906 0 2 -3.9906 1
gene 2 3 4 8 0 3 8 1
gene 1 3 7 2.26065 0 8 2.26065 0
gene 3 7 4 -7.67938 0 9 -7.67938 1
gene 1 3 18 1.99934 0 37 1.99934 1
gene 1 18 7 4.5033 0 38 4.5033 1
gene 1 3 58 -5.21306 0 149 -5.21306 1
gene 1 58 7 1.58281 0 150 1.58281 1
genomeend 107

/* Organism #108 Fitness: 4 Error: 2 */
genomestart 108
trait 1 0.1 0.0170172 0 0 0 0 0 0 
trait 2 0.2 0 0 0 0 0 0 0 
trait 3 0.3 0 0 0 0 0 0 0 
node 1 2 1 3
node 2 3 1 1
node 3 3 1 1
node 4 3 0 2
node 7 1 0 0
node 18 1 0 0
node 58 1 0 0
gene 1 1 4 1.18313 0 1 1.18313 1
gene 2 2 4 -3.65628 0 2 -3.65628 1
gene 2 3 4 0.88824 0 3 0.88824 1
gene 2 3 7 0.342137 0 8 0.342137 0
gene 3 7 4 -6.47468 0 9 -6.47468 1
gene 1 3 18 1.87468 0 37 1.87468 1
gene 1 18 7 6.17941 0 38 6.17941 1
gene 1 3 58 -1.53323 0 149 -1.53323 1
gene 1 58 7 1.98705 0 150 1.98705 1
genomeend 108

/* Organism #109 Fitness: 8.998 Error: 1.00033 */
genomestart 109
trait 1 0.1 0.0170172 0 0 0 0 0 0 
trait 2 0.2 0 0 0 0 0 0 0 
trait 3 0.3 0 0 0 0 0 0 0 
node 1 2 1 3
node 2 3 1 1
node 3 3 1 1
node 4 3 0 2
node 7 1 0 0
node 18 1 0 0
node 58 1 0 0
gene 1 1 4 1.05719 0 1 1.05719 1
gene 2 2 4 -6.89909 0 2 -6.89909 1
gene 2 3 4 8 0 3 8 1
gene 1 3 7 -3.14848 0 8 -3.14848 0
gene 3 7 4 -3.78455 0 9 -3.78455 1
gene 1 3 18 2.48604 0 37 2.48604 1
gene 1 18 7 4.58054 0 38 4.58054 1
gene 1 3 58 -1.26504 0 149 -1.26504 1
gene 1 58 7 1.9056 0 150 1.9056 1
genomeend 109

/* Organism #110 Fitness: 3.98042 Error: 2.0049 */
genomestart 110
trait 1 0.1 0.0170172 0 0 0 0 0 0 
trait 2 0.2 0 0 0 0 0 0 0 
trait 3 0.3 0 0 0 0 0 0 0 
node 1 2 1 3
node 2 3 1 1
node 3 3 1 1
node 4 3 0 2
node 7 1 0 0
node 18 1 0 0
node 58 1 0 0
gene 1 1 4 -1.07643 0 1 -1.07643 1
gene 2 2 4 -3.52699 0 2 -3.52699 1
gene 2 3 4 7.69506 0 3 7.69506 1
gene 1 3 7 -2.79397 0 8 -2.79397 0
gene 3 7 4 -3.87071 0 9 -3.87071 1
gene 1 3 18 2.06713 0 37 2.06713 1
gene 1 18 7 -1.83354 0 38 -1.83354 1
gene 1 3 58 -1.44152 0 149 -1.44152 1
gene 1 58 7 -1.12964 0 150 -1.12964 1
genomeend 110

/* Organism #111 Fitness: 8.98931 Error: 1.00178 */
genomestart 111
trait 1 0 0.0170172 0 0 0.280921 0.815725 0 0.369977 
trait 2 0.2 0 0 0 0 0 0 0 
trait 3 0.3 0 0 0 0 0 0 0 
node 1 2 1 3
node 2 3 1 1
node 3 3 1 1
node 4 3 0 2
node 7 1 0 0
node 18 1 0 0
node 58 1 0 0
gene 1 1 4 -0.40897 0 1 -0.40897 1
gene 2 2 4 -3.0385 0 2 -3.0385 1
gene 2 3 4 8 0 3 8 1
gene 1 3 7 -0.277962 0 8 -0.277962 1
gene 3 7 4 -5.86193 0 9 -5.86193 1
gene 1 3 18 1.38665 0 37 1.38665 1
gene 1 18 7 4.33937 0 38 4.33937 1
gene 1 3 58 -5.38758 0 149 -5.38758 1
gene 1 58 7 2.05033 0 150 2.05033 1
genomeend 111

/* Organism #112 Fitness: 4 Error: 2 */
genomestart 112
trait 1 0.1 0.0170172 0 0 0 0 0 0 
trait 2 0.2 0 0 0 0 0 0 0 
trait 3 0.3 0 0 0 0 0 0 0 
node 1 2 1 3
node 2 3 1 1
node 3 3 1 1
node 4 3 0 2
node 7 1 0 0
node 18 1 0 0
node 58 1 0 0
gene 1 1 4 1.72956 0 1 1.72956 1
gene 2 2 4 -6.17734 0 2 -6.17734 1
gene 2 3 4 1.60611 0 3 1.60611 1
gene 1 3 7 -2.08578 0 8 -2.08578 0
gene 3 7 4 -6.13105 0 9 -6.13105 1
gene 1 3 18 1.19343 0 37 1.19343 1
gene 1 18 7 7.55622 0 38 7.55622 1
gene 1 3 58 -2.1383 0 149 -2.1383 1
gene 1 58 7 0.374141 0 150 0.374141 1
genomeend 112

/* Species #20 : (Size 9) (AF 6.94095) (Age 7)  */


/* Organism #113 Fitness: 8.99988 Error: 1.00002 */
genomestart 113
trait 1 0.080723 0.00847224 0 0.147976 0.00274264 0.200353 0.0270805 0.016239 
trait 2 0.2 0 0 0 0 0 0 0.195083 
trait 3 0.3 0 0 0 0 0 0 0 
node 1 3 1 3
node 2 3 1 1
node 3 3 1 1
node 4 3 0 2
node 16 1 0 0
node 71 1 0 0
gene 2 1 4 -6.57899 0 1 -6.57899 1
gene 3 2 4 4.955 0 2 4.955 1
gene 1 3 4 8 0 3 8 1
gene 1 3 16 2.86022 0 32 2.86022 1
gene 3 16 4 4.36579 0 33 4.36579 1
gene 1 3 71 1.84942 0 193 1.84942 1
gene 1 71 16 6.17517 0 194 6.17517 1
genomeend 113

/* Organism #114 Fitness: 1.79793 Error: 2.65913 */
genomestart 114
trait 1 0.080723 0.00847224 0 0.147976 0.00274264 0.200353 0.0270805 0.016239 
trait 2 0.297364 0 0 0 0 0 0 0.0975413 
trait 3 0.3 0 0 0 0 0 0 0 
node 1 3 1 3
node 2 3 1 1
node 3 3 1 1
node 4 3 0 2
node 16 1 0 0
node 71 1 0 0
gene 2 1 4 -7.67831 0 1 -7.67831 1
gene 3 2 4 2.76508 0 2 2.76508 1
gene 1 3 4 3.09108 0 3 3.09108 1
gene 1 3 16 4.47287 0 32 4.47287 0
gene 3 16 4 4.3866 0 33 4.3866 1
gene 1 3 71 -0.0980699 0 193 -0.0980699 1
gene 1 71 16 6.48175 0 194 6.48175 1
genomeend 114

/* Organism #115 Fitness: 4.55825 Error: 1.86499 */
genomestart 115
trait 1 0.080723 0.00847224 0 0.147976 0.00274264 0.200353 0.0270805 0.016239 
trait 2 0.248682 0 0 0 0 0 0 0.146312 
trait 3 0.3 0 0 0 0 0 0 0 
node 1 3 1 3
node 2 3 1 1
node 3 3 1 1
node 4 3 0 2
node 16 1 0 0
node 71 1 0 0
gene 2 1 4 -8 0 1 -8 1
gene 3 2 4 -0.861145 0 2 -0.861145 1
gene 1 3 4 3.19093 0 3 3.19093 1
gene 1 3 16 4.76245 0 32 4.76245 0
gene 3 16 4 4.43582 0 33 4.43582 1
gene 1 3 71 2.29953 0 193 2.29953 1
gene 1 71 16 7.90668 0 194 7.90668 1
genomeend 115

/* Organism #116 Fitness: 8.9621 Error: 1.00632 */
genomestart 116
trait 1 0.080723 0.00847224 0 0.147976 0.00274264 0.200353 0.0270805 0.016239 
trait 2 0.2 0 0 0 0 0 0 0.195083 
trait 3 0.3 0 0 0 0 0 0 0 
node 1 3 1 3
node 2 3 1 1
node 3 3 1 1
node 4 3 0 2
node 16 1 0 0
node 71 1 0 0
gene 2 1 4 -5.2331 0 1 -5.2331 1
gene 3 2 4 4.12978 0 2 4.12978 1
gene 1 3 4 8 0 3 8 1
gene 1 3 16 0.832937 0 32 0.832937 1
gene 3 16 4 4.20614 0 33 4.20614 1
gene 1 3 71 -0.329464 0 193 -0.329464 1
gene 1 71 16 5.55864 0 194 5.55864 1
genomeend 116

/* Organism #117 Fitness: 8.9988 Error: 1.0002 */
genomestart 117
trait 1 0.080723 0.00847224 0 0.147976 0.00274264 0.200353 0.0270805 0.016239 
trait 2 0.248682 0 0 0 0 0 0 0.146312 
trait 3 0.3 0 0 0 0 0 0 0 
node 1 3 1 3
node 2 3 1 1
node 3 3 1 1
node 4 3 0 2
node 16 1 0 0
node 71 1 0 0
gene 2 1 4 -7.44424 0 1 -7.44424 1
gene 3 2 4 5.56679 0 2 5.56679 1
gene 1 3 4 8 0 3 8 1
gene 1 3 16 1.69596 0 32 1.69596 0
gene 3 16 4 5.71489 0 33 5.71489 1
gene 1 3 71 3.58107 0 193 3.58107 1
gene 1 71 16 4.62736 0 194 4.62736 1
genomeend 117

/* Organism #118 Fitness: 4 Error: 2 */
genomestart 118
trait 1 0.080723 0.00847224 0 0.147976 0.00274264 0.200353 0.0270805 0.016239 
trait 2 0.248682 0 0 0 0 0 0 0.146312 
trait 3 0.3 0 0 0 0 0 0 0 
node 1 3 1 3
node 2 3 1 1
node 3 3 1 1
node 4 3 0 2
node 16 1 0 0
node 71 1 0 0
gene 2 1 4 -8 0 1 -8 1
gene 3 2 4 -0.574282 0 2 -0.574282 1
gene 1 3 4 1.68555 0 3 1.68555 1
gene 1 3 16 5.63582 0 32 5.63582 0
gene 3 16 4 2.2197 0 33 2.2197 1
gene 1 3 71 1.14446 0 193 1.14446 1
gene 1 71 16 2.17001 0 194 2.17001 1
genomeend 118

/* Organism #119 Fitness: 7.15225 Error: 1.32563 */
genomestart 119
trait 1 0.080723 0.00847224 0 0.147976 0.00274264 0.200353 0.0270805 0.016239 
trait 2 0.248682 0 0 0 0 0 0 0.146312 
trait 3 0.3 0 0 0 0 0 0 0 
node 1 3 1 3
node 2 3 1 1
node 3 3 1 1
node 4 3 0 2
node 16 1 0 0
node 71 1 0 0
gene 2 1 4 -8 0 1 -8 1
gene 3 2 4 7.41892 0 2 7.41892 1
gene 1 3 4 3.37404 0 3 3.37404 1
gene 1 3 16 3.90664 0 32 3.90664 0
gene 3 16 4 4.7738 0 33 4.7738 1
gene 3 3 71 1.15866 0 193 1.15866 1
gene 1 71 16 6.24213 0 194 6.24213 1
genomeend 119

/* Organism #120 Fitness: 8.99978 Error: 1.00004 */
genomestart 120
trait 1 0.080723 0.00847224 0 0.147976 0.00274264 0.200353 0.0270805 0.016239 
trait 2 0.248682 0 0 0 0 0 0 0.146312 
trait 3 0.3 0 0 0 0 0 0 0 
node 1 3 1 3
node 2 3 1 1
node 3 3 1 1
node 4 3 0 2
node 16 1 0 0
node 71 1 0 0
gene 2 1 4 -6.43882 0 1 -6.43882 1
gene 3 2 4 5.62701 0 2 5.62701 1
gene 1 3 4 5.78969 0 3 5.78969 1
gene 1 3 16 2.44337 0 32 2.44337 0
gene 3 16 4 4.36579 0 33 4.36579 1
gene 1 3 71 1.33129 0 193 1.33129 1
gene 1 71 16 3.72139 0 194 3.72139 1
genomeend 120

/* Organism #121 Fitness: 8.99956 Error: 1.00007 */
genomestart 121
trait 1 0.080723 0.00847224 0 0.147976 0.00274264 0.200353 0.0270805 0.016239 
trait 2 0.297364 0 0 0 0 0 0 0.0975413 
trait 3 0.3 0 0 0 0 0 0 0 
node 1 3 1 3
node 2 3 1 1
node 3 3 1 1
node 4 3 0 2
node 16 1 0 0
node 71 1 0 0
gene 2 1 4 -6.05957 0 1 -6.05957 1
gene 3 2 4 5.87281 0 2 5.87281 1
gene 1 3 4 4.31243 0 3 4.31243 1
gene 1 3 16 5.21905 0 32 5.21905 0
gene 3 16 4 4.09831 0 33 4.09831 1
gene 1 3 71 0.51056 0 193 0.51056 1
gene 1 71 16 6.23262 0 194 6.23262 1
genomeend 121

/* Species #21 : (Size 5) (AF 6.30184) (Age 7)  */


/* Organism #122 Fitness: 8.97842 Error: 1.0036 */
genomestart 122
trait 1 0.1 0 0 0 0.210224 0 0 0.28969 
trait 2 0.2 0 0 0 0 0 0 0 
trait 3 0.3 0 0 0 0 0 0 0 
node 1 2 1 3
node 2 3 1 1
node 3 3 1 1
node 4 3 0 2
node 7 1 0 0
node 67 1 0 0
gene 1 1 4 -4.98946 0 1 -4.98946 1
gene 3 2 4 -4.85957 0 2 -4.85957 1
gene 1 3 4 2.59631 0 3 2.59631 0
gene 3 3 7 3.09059 0 8 3.09059 1
gene 3 7 4 -3.35814 0 9 -3.35814 0
gene 2 2 7 -3.88013 0 21 -3.88013 0
gene 3 1 7 -2.7829 0 75 -2.7829 1
gene 3 7 67 1.67865 0 182 1.67865 1
gene 3 67 4 6.14295 0 183 6.14295 1
genomeend 122

/* Organism #123 Fitness: 8.99838 Error: 1.00027 */
genomestart 123
trait 1 0.1 0 0 0 0.183946 0 0 0.253478 
trait 2 0.2 0 0 0 0 0 0 0 
trait 3 0.3 0 0 0 0 0 0 0 
node 1 2 1 3
node 2 3 1 1
node 3 3 1 1
node 4 3 0 2
node 7 1 0 0
node 67 1 0 0
gene 1 1 4 -5.95849 0 1 -5.95849 1
gene 3 2 4 -3.80923 0 2 -3.80923 1
gene 1 3 4 1.70616 0 3 1.70616 0
gene 3 3 7 4.75505 0 8 4.75505 1
gene 3 7 4 -1.93945 0 9 -1.93945 0
gene 2 2 7 -2.82186 0 21 -2.82186 0
gene 3 1 7 -2.50592 0 75 -2.50592 1
gene 3 7 67 0.825199 0 182 0.825199 1
gene 3 67 4 7.83093 0 183 7.83093 1
genomeend 123

/* Organism #124 Fitness: 4.77334 Error: 1.8152 */
genomestart 124
trait 1 0.1 0 0 0 0.183946 0 0 0.253478 
trait 2 0.2 0 0 0 0 0 0 0 
trait 3 0.3 0 0 0 0 0 0 0 
node 1 2 1 3
node 2 3 1 1
node 3 3 1 1
node 4 3 0 2
node 7 1 0 0
node 67 1 0 0
gene 1 1 4 -8 0 1 -8 1
gene 3 2 4 -5.55092 0 2 -5.55092 1
gene 1 3 4 1.99506 0 3 1.99506 0
gene 3 3 7 7.15994 0 8 7.15994 1
gene 3 7 4 -1.93945 0 9 -1.93945 0
gene 2 2 7 -2.82186 0 21 -2.82186 0
gene 3 1 7 -2.50592 0 75 -2.50592 1
gene 3 7 67 0.825199 0 182 0.825199 1
gene 3 67 4 7.83093 0 183 7.83093 1
genomeend 124

/* Organism #125 Fitness: 4.70952 Error: 1.82986 */
genomestart 125
trait 1 0.1 0 0 0 0.157668 0 0 0.217267 
trait 2 0.2 0 0 0 0 0 0 0 
trait 3 0.3 0 0 0 0 0 0 0 
node 1 2 1 3
node 2 3 1 1
node 3 3 1 1
node 4 3 0 2
node 7 1 0 0
node 67 1 0 0
gene 1 1 4 -7.42197 0 1 -7.42197 1
gene 3 2 4 -1.74242 0 2 -1.74242 1
gene 1 3 4 0.966435 0 3 0.966435 0
gene 3 3 7 7.76942 0 8 7.76942 1
gene 3 7 4 -3.09959 0 9 -3.09959 0
gene 2 2 7 -3.28345 0 21 -3.28345 0
gene 3 1 7 -3.51399 0 75 -3.51399 1
gene 3 7 67 2.11969 0 182 2.11969 1
gene 3 67 4 7.10043 0 183 7.10043 1
genomeend 125

/* Organism #126 Fitness: 4.04953 Error: 1.98766 */
genomestart 126
trait 1 0.1 0.559044 0.802833 0.459732 0.157668 0 0 0.217267 
trait 2 0.2 0 0 0 0 0 0 0 
trait 3 0.3 0 0 0 0 0 0 0 
node 1 2 1 3
node 2 3 1 1
node 3 3 1 1
node 4 3 0 2
node 7 1 0 0
node 67 1 0 0
gene 1 1 4 -7.28124 0 1 -7.28124 1
gene 3 2 4 -4.28604 0 2 -4.28604 1
gene 1 3 4 -0.265172 0 3 -0.265172 0
gene 3 3 7 8 0 8 8 1
gene 3 7 4 0.399021 0 9 0.399021 0
gene 2 2 7 -1.14263 0 21 -1.14263 0
gene 3 1 7 -4.35242 0 75 -4.35242 1
gene 3 7 67 0.280149 0 182 0.280149 1
gene 3 67 4 8 0 183 8 1
genomeend 126

/* Species #22 : (Size 7) (AF 5.48497) (Age 6)  */


/* Organism #127 Fitness: 9 Error: 1 */
genomestart 127
trait 1 0.0292236 0 0.476138 0.147976 0 0.0735904 0 0 
trait 2 0.47793 0.0458749 0.187252 0 0.0824063 0 0.31905 0.313061 
trait 3 0.3 0.121451 0 0 0.179273 0 0 0 
node 1 3 1 3
node 2 1 1 1
node 3 3 1 1
node 4 1 0 2
node 10 1 0 0
node 74 1 0 0
gene 1 1 4 -4.00989 0 1 -4.00989 1
gene 1 2 4 1.1346 0 2 1.1346 0
gene 1 3 4 2.31895 0 3 2.31895 1
gene 1 2 10 5.14373 0 14 5.14373 0
gene 1 10 4 6.92484 0 15 6.92484 1
gene 2 1 10 -4.93734 0 41 -4.93734 1
gene 1 3 10 -5.11099 0 166 -5.11099 1
gene 1 2 74 0.902422 0 200 0.902422 1
gene 1 74 10 6.32002 0 201 6.32002 1
genomeend 127

/* Organism #128 Fitness: 4.19968 Error: 1.95069 */
genomestart 128
trait 1 0.0292236 0 0.476138 0.147976 0 0.0735904 0 0 
trait 2 0.47793 0.0458749 0.187252 0 0.0824063 0 0.31905 0.313061 
trait 3 0.3 0.121451 0 0 0.179273 0 0 0 
node 1 3 1 3
node 2 1 1 1
node 3 3 1 1
node 4 1 0 2
node 10 1 0 0
node 74 1 0 0
gene 1 1 4 -4.00989 0 1 -4.00989 1
gene 1 2 4 1.1346 0 2 1.1346 0
gene 1 3 4 2.31895 0 3 2.31895 1
gene 1 2 10 5.14373 0 14 5.14373 0
gene 1 10 4 4.94751 0 15 4.94751 1
gene 2 1 10 -3.13892 0 41 -3.13892 1
gene 1 3 10 -3.21516 0 166 -3.21516 1
gene 1 2 74 1.57443 0 200 1.57443 1
gene 1 74 10 6.32002 0 201 6.32002 1
genomeend 128

/* Organism #129 Fitness: 8.99999 Error: 1 */
genomestart 129
trait 1 0.0292236 0 0.476138 0.147976 0 0.0735904 0 0 
trait 2 0.47793 0.0458749 0.187252 0 0.0824063 0 0.31905 0.313061 
trait 3 0.3 0.121451 0 0 0.179273 0 0 0 
node 1 3 1 3
node 2 1 1 1
node 3 3 1 1
node 4 2 0 2
node 10 1 0 0
node 74 1 0 0
gene 1 1 4 -2.96555 0 1 -2.96555 1
gene 1 2 4 1.1346 0 2 1.1346 0
gene 1 3 4 -0.059466 0 3 -0.059466 1
gene 1 2 10 3.96213 0 14 3.96213 0
gene 1 10 4 5.93617 0 15 5.93617 1
gene 2 1 10 -4.03813 0 41 -4.03813 1
gene 1 3 10 -4.16308 0 166 -4.16308 1
gene 1 2 74 1.23843 0 200 1.23843 1
gene 1 74 10 5.72957 0 201 5.72957 1
genomeend 129

/* Organism #130 Fitness: 4.0031 Error: 1.99922 */
genomestart 130
trait 1 0.0292236 0 0.476138 0.147976 0 0.0735904 0 0 
trait 2 0.47793 0.0458749 0.187252 0 0.0824063 0 0.31905 0.313061 
trait 3 0.3 0.121451 0 0 0.179273 0 0 0 
node 1 3 1 3
node 2 1 1 1
node 3 2 1 1
node 4 2 0 2
node 10 1 0 0
node 74 1 0 0
gene 1 1 4 -3.99133 0 1 -3.99133 1
gene 1 2 4 -0.324635 0 2 -0.324635 0
gene 1 3 4 -2.43788 0 3 -2.43788 1
gene 1 2 10 -1.71769 0 14 -1.71769 0
gene 1 10 4 5.32931 0 15 5.32931 1
gene 2 1 10 -2.55631 0 41 -2.55631 1
gene 1 3 10 -4.80174 0 166 -4.80174 1
gene 1 2 74 2.3998 0 200 2.3998 1
gene 1 74 10 6.75855 0 201 6.75855 1
genomeend 130

/* Organism #131 Fitness: 3.99915 Error: 2.00021 */
genomestart 131
trait 1 0 0 0 0.147976 0 0.0735904 0 0 
trait 2 0.47793 0.0458749 0.187252 0 0.0824063 0 0.31905 0.313061 
trait 3 0.3 0.121451 0 0 0.179273 0 0 0 
node 1 3 1 3
node 2 1 1 1
node 3 3 1 1
node 4 1 0 2
node 10 1 0 0
node 74 1 0 0
gene 1 1 4 -5.81132 0 1 -5.81132 1
gene 1 2 4 2.87063 0 2 2.87063 0
gene 1 3 4 2.31895 0 3 2.31895 1
gene 1 2 10 -2.46711 0 14 -2.46711 0
gene 1 10 4 8 0 15 8 1
gene 2 1 10 -3.15037 0 41 -3.15037 1
gene 1 3 10 -3.89633 0 166 -3.89633 1
gene 1 2 74 -0.121745 0 200 -0.121745 1
gene 1 74 10 6.32002 0 201 6.32002 1
genomeend 131

/* Organism #132 Fitness: 4.19269 Error: 1.95239 */
genomestart 132
trait 1 0.0292236 0 0.476138 0.147976 0 0.0735904 0 0 
trait 2 0.47793 0.0458749 0.187252 0 0.0824063 0 0.31905 0.313061 
trait 3 0.3 0.121451 0 0 0.179273 0 0 0 
node 1 3 1 3
node 2 1 1 1
node 3 3 1 1
node 4 2 0 2
node 10 1 0 0
node 74 1 0 0
gene 1 1 4 0.0349953 0 1 0.0349953 1
gene 1 2 4 1.86936 0 2 1.86936 0
gene 1 3 4 -4.12248 0 3 -4.12248 1
gene 1 2 10 2.1259 0 14 2.1259 0
gene 1 10 4 5.66645 0 15 5.66645 1
gene 2 1 10 -5.43275 0 41 -5.43275 1
gene 1 3 10 -1.04239 0 166 -1.04239 1
gene 1 2 74 0.128264 0 200 0.128264 1
gene 1 74 10 6.78021 0 201 6.78021 1
genomeend 132

/* Organism #133 Fitness: 4.00019 Error: 1.99995 */
genomestart 133
trait 1 0.0292236 0 0.476138 0.147976 0 0.0735904 0 0 
trait 2 0.47793 0.0458749 0.187252 0 0.0824063 0 0.31905 0.313061 
trait 3 1 0.366015 0.518124 0.0742296 0.179273 0 0 0 
node 1 3 1 3
node 2 1 1 1
node 3 3 1 1
node 4 1 0 2
node 10 1 0 0
node 74 1 0 0
gene 1 1 4 -6.46904 0 1 -6.46904 1
gene 1 2 4 2.22454 0 2 2.22454 0
gene 1 3 4 3.14455 0 3 3.14455 1
gene 1 2 10 6.78239 0 14 6.78239 0
gene 1 10 4 4.44569 0 15 4.44569 1
gene 2 1 10 -3.4491 0 41 -3.4491 1
gene 1 3 10 -5.53804 0 166 -5.53804 1
gene 1 2 74 1.81101 0 200 1.81101 1
gene 1 74 10 6.33463 0 201 6.33463 1
genomeend 133

/* Species #23 : (Size 7) (AF 7.53444) (Age 6)  */


/* Organism #134 Fitness: 8.99958 Error: 1.00007 */
genomestart 134
trait 1 0.1 0.0170172 0 0 0 0 0 0 
trait 2 0.2 0 0 0 0 0 0 0 
trait 3 0.3 0 0 0 0 0 0 0 
node 1 2 1 3
node 2 3 1 1
node 3 3 1 1
node 4 3 0 2
node 7 1 0 0
node 18 1 0 0
node 59 1 0 0
node 75 1 0 0
node 83 1 0 0
gene 1 1 4 -2.09791 0 1 -2.09791 1
gene 2 2 4 -4.27958 0 2 -4.27958 1
gene 2 3 4 5.41447 0 3 5.41447 1
gene 1 3 7 1.53414 0 8 1.53414 0
gene 3 7 4 1.55595 0 9 1.55595 1
gene 1 3 18 0.211074 0 37 0.211074 1
gene 1 18 7 -3.49014 0 38 -3.49014 1
gene 1 7 59 1.23787 0 151 1.23787 1
gene 3 59 4 -1.01614 0 152 -1.01614 1
gene 1 7 75 1 0 202 0 1
gene 1 75 59 1.23787 0 203 0 1
gene 1 75 83 1 0 226 0 1
gene 1 83 59 1.23787 0 227 0 1
genomeend 134

/* Organism #135 Fitness: 8.94926 Error: 1.00847 */
genomestart 135
trait 1 0.1 0.0170172 0 0 0 0 0 0 
trait 2 0.2 0 0 0 0 0 0 0 
trait 3 0.3 0 0 0 0 0 0 0 
node 1 2 1 3
node 2 3 1 1
node 3 3 1 1
node 4 3 0 2
node 7 1 0 0
node 18 1 0 0
node 59 1 0 0
node 75 1 0 0
node 83 1 0 0
gene 1 1 4 -0.226712 0 1 -0.226712 1
gene 2 2 4 2.49074 0 2 2.49074 1
gene 2 3 4 5.41447 0 3 5.41447 1
gene 1 3 7 3.00213 0 8 3.00213 0
gene 3 7 4 -0.618289 0 9 -0.618289 1
gene 1 3 18 -2.1791 0 37 -2.1791 1
gene 1 18 7 2.22899 0 38 2.22899 1
gene 1 7 59 -1.14901 0 151 -1.14901 1
gene 3 59 4 -0.145768 0 152 -0.145768 1
gene 1 7 75 -0.639363 0 202 -0.639363 1
gene 1 75 59 -0.0514228 0 203 -0.0514228 0
gene 1 75 83 1.78743 0 226 1.78743 1
gene 1 83 59 3.01167 0 227 3.01167 1
genomeend 135

/* Organism #136 Fitness: 4 Error: 2 */
genomestart 136
trait 1 0.1 0.0170172 0 0 0 0 0 0 
trait 2 0.2 0 0 0 0 0 0 0 
trait 3 0.3 0 0 0 0 0 0 0 
node 1 2 1 3
node 2 3 1 1
node 3 3 1 1
node 4 3 0 2
node 7 1 0 0
node 18 1 0 0
node 59 1 0 0
node 75 1 0 0
node 83 1 0 0
gene 1 1 4 -1.20162 0 1 -1.20162 1
gene 2 2 4 -2.49321 0 2 -2.49321 1
gene 2 3 4 7.54145 0 3 7.54145 1
gene 1 3 7 1.24832 0 8 1.24832 0
gene 3 7 4 1.39944 0 9 1.39944 1
gene 1 3 18 -1.73913 0 37 -1.73913 1
gene 1 18 7 -1.10346 0 38 -1.10346 1
gene 1 7 59 2.16752 0 151 2.16752 1
gene 3 59 4 -1.60504 0 152 -1.60504 1
gene 1 7 75 1.07195 0 202 1.07195 1
gene 1 75 59 1.6576 0 203 1.6576 1
gene 1 75 83 1 0 226 1 1
gene 1 83 59 0.950158 0 227 0.950158 1
genomeend 136

/* Organism #137 Fitness: 4.09568 Error: 1.97622 */
genomestart 137
trait 1 0.1 0.0170172 0 0 0 0 0 0 
trait 2 0.2 0 0 0 0 0 0 0 
trait 3 0.3 0 0 0 0 0 0 0 
node 1 2 1 3
node 2 3 1 1
node 3 3 1 1
node 4 3 0 2
node 7 1 0 0
node 18 1 0 0
node 59 1 0 0
node 75 1 0 0
node 83 1 0 0
gene 1 1 4 -4.54782 0 1 -4.54782 1
gene 2 2 4 -1.85567 0 2 -1.85567 1
gene 2 3 4 5.41447 0 3 5.41447 1
gene 1 3 7 2.78733 0 8 2.78733 0
gene 3 7 4 3.6441 0 9 3.6441 1
gene 1 3 18 -1.99843 0 37 -1.99843 1
gene 1 18 7 -5.44797 0 38 -5.44797 1
gene 1 7 59 -1.99198 0 151 -1.99198 1
gene 3 59 4 -0.0905738 0 152 -0.0905738 1
gene 1 7 75 2.59828 0 202 2.59828 1
gene 1 75 59 2.11232 0 203 2.11232 1
gene 1 75 83 -0.0802679 0 226 -0.0802679 1
gene 1 83 59 -1.87499 0 227 -1.87499 1
genomeend 137

/* Organism #138 Fitness: 8.99958 Error: 1.00007 */
genomestart 138
trait 1 0.1 0.0170172 0 0 0 0 0 0 
trait 2 0.2 0 0 0 0 0 0 0 
trait 3 0.3 0 0 0 0 0 0 0 
node 1 2 1 3
node 2 3 1 1
node 3 3 1 1
node 4 3 0 2
node 7 1 0 0
node 18 1 0 0
node 59 1 0 0
node 75 1 0 0
node 83 1 0 0
node 96 1 0 0
gene 1 1 4 -2.09791 0 1 -2.09791 1
gene 2 2 4 -4.27958 0 2 -4.27958 1
gene 2 3 4 5.41447 0 3 5.41447 1
gene 1 3 7 1.53414 0 8 1.53414 0
gene 3 7 4 1.55595 0 9 1.55595 1
gene 1 3 18 0.211074 0 37 0.211074 1
gene 1 18 7 -3.49014 0 38 -3.49014 1
gene 1 7 59 1.23787 0 151 1.23787 1
gene 3 59 4 -1.01614 0 152 -1.01614 1
gene 1 7 75 1 0 202 0 1
gene 1 75 59 1.23787 0 203 0 1
gene 1 75 83 1 0 226 0 1
gene 1 83 59 1.23787 0 227 0 0
gene 1 83 96 1 0 263 0 1
gene 1 96 59 1.23787 0 264 0 1
genomeend 138

/* Organism #139 Fitness: 8.69741 Error: 1.05086 */
genomestart 139
trait 1 0.1 0.0170172 0 0 0 0 0 0 
trait 2 0.2 0 0 0 0 0 0 0 
trait 3 0.3 0 0 0 0 0 0 0 
node 1 2 1 3
node 2 3 1 1
node 3 3 1 1
node 4 3 0 2
node 7 1 0 0
node 18 1 0 0
node 59 1 0 0
node 75 1 0 0
node 83 1 0 0
gene 1 1 4 -1.50339 0 1 -1.50339 1
gene 2 2 4 -4.62581 0 2 -4.62581 1
gene 2 3 4 3.31361 0 3 3.31361 1
gene 1 3 7 2.41557 0 8 2.41557 0
gene 3 7 4 3.89122 0 9 3.89122 1
gene 1 3 18 -1.10568 0 37 -1.10568 1
gene 1 18 7 -4.00221 0 38 -4.00221 1
gene 1 7 59 2.84912 0 151 2.84912 1
gene 3 59 4 0.343842 0 152 0.343842 1
gene 1 7 75 -0.453903 0 202 -0.453903 1
gene 1 75 59 1.36828 0 203 1.36828 0
gene 1 75 83 1 0 226 1 1
gene 1 83 59 1.23787 0 227 1.23787 1
genomeend 139

/* Organism #140 Fitness: 8.99958 Error: 1.00007 */
genomestart 140
trait 1 0.1 0.0170172 0 0 0 0 0 0 
trait 2 0.2 0 0 0 0 0 0 0 
trait 3 0.3 0 0 0 0 0 0 0 
node 1 2 1 3
node 2 3 1 1
node 3 3 1 1
node 4 3 0 2
node 7 1 0 0
node 18 1 0 0
node 59 1 0 0
node 75 1 0 0
node 83 1 0 0
node 96 1 0 0
gene 1 1 4 -2.09791 0 1 -2.09791 1
gene 2 2 4 -4.27958 0 2 -4.27958 1
gene 2 3 4 5.41447 0 3 5.41447 1
gene 1 3 7 1.53414 0 8 1.53414 0
gene 3 7 4 1.55595 0 9 1.55595 1
gene 1 3 18 0.211074 0 37 0.211074 1
gene 1 18 7 -3.49014 0 38 -3.49014 1
gene 1 7 59 1.23787 0 151 1.23787 1
gene 3 59 4 -1.01614 0 152 -1.01614 1
gene 1 7 75 1 0 202 0 1
gene 1 75 59 1.23787 0 203 0 1
gene 1 75 83 1 0 226 0 1
gene 1 83 59 1.23787 0 227 0 0
gene 1 83 96 1 0 263 0 1
gene 1 96 59 1.23787 0 264 0 1
genomeend 140

/* Species #24 : (Size 9) (AF 7.44285) (Age 5)  */


/* Organism #141 Fitness: 9 Error: 1 */
genomestart 141
trait 1 0 0 0.353458 0 0.92848 0 0.660625 0 
trait 2 0.1 0 0 0 0 0.306856 0 0.331655 
trait 3 0.3 0 0 0 0 0 0 0 
node 1 2 1 3
node 2 3 1 1
node 3 3 1 1
node 4 3 0 2
node 7 1 0 0
node 17 2 0 0
node 72 1 0 0
node 80 1 0 0
gene 1 1 4 -4.70065 0 1 -4.70065 1
gene 2 2 4 -3.95866 0 2 -3.95866 0
gene 2 3 4 6.97282 0 3 6.97282 0
gene 1 3 7 1.18588 0 8 1.18588 1
gene 3 7 4 8 0 9 8 1
gene 3 2 7 8 0 26 8 1
gene 2 1 7 -0.602902 0 29 -0.602902 1
gene 2 2 17 -0.064669 0 35 -0.064669 1
gene 2 17 4 -1.61062 0 36 -1.61062 0
gene 2 17 72 1.63749 0 195 1.63749 1
gene 2 72 4 -3.21777 0 196 -3.21777 1
gene 2 3 80 0.822492 0 216 0.822492 1
gene 2 80 4 8 0 217 8 1
genomeend 141

/* Organism #142 Fitness: 8.99975 Error: 1.00004 */
genomestart 142
trait 1 0 0 0.353458 0 0.92848 0 0.660625 0 
trait 2 0.1 0 0 0 0 0.306856 0 0.331655 
trait 3 0.3 0 0 0.548778 0.869005 0 0 0 
node 1 2 1 3
node 2 3 1 1
node 3 3 1 1
node 4 3 0 2
node 7 1 0 0
node 17 2 0 0
node 72 1 0 0
node 80 1 0 0
gene 1 1 4 -2.594 0 1 -2.594 1
gene 2 2 4 -5.34448 0 2 -5.34448 0
gene 2 3 4 5.50663 0 3 5.50663 0
gene 1 3 7 3.80111 0 8 3.80111 1
gene 3 7 4 8 0 9 8 1
gene 3 2 7 8 0 26 8 1
gene 2 1 7 -3.52779 0 29 -3.52779 1
gene 2 2 17 0.366113 0 35 0.366113 1
gene 2 17 4 -0.124316 0 36 -0.124316 0
gene 2 17 72 2.63135 0 195 2.63135 1
gene 2 72 4 -3.45947 0 196 -3.45947 1
gene 2 3 80 0.574969 0 216 0.574969 1
gene 2 80 4 8 0 217 8 1
genomeend 142

/* Organism #143 Fitness: 4 Error: 2 */
genomestart 143
trait 1 0 0 0.353458 0 0.92848 0 0.660625 0 
trait 2 0.1 0 0 0 0 0.306856 0 0.331655 
trait 3 0.3 0 0 0 0 0 0 0 
node 1 2 1 3
node 2 3 1 1
node 3 3 1 1
node 4 3 0 2
node 7 1 0 0
node 17 2 0 0
node 72 1 0 0
node 80 1 0 0
gene 1 1 4 -0.0182063 0 1 -0.0182063 1
gene 2 2 4 -3.65917 0 2 -3.65917 0
gene 2 3 4 5.87727 0 3 5.87727 0
gene 1 3 7 2.58876 0 8 2.58876 1
gene 3 7 4 8 0 9 8 1
gene 3 2 7 7.9787 0 26 7.9787 1
gene 2 1 7 -2.40243 0 29 -2.40243 1
gene 2 2 17 0.654418 0 35 0.654418 1
gene 2 17 4 -0.774928 0 36 -0.774928 0
gene 2 17 72 -0.794922 0 195 -0.794922 1
gene 2 72 4 -4.88768 0 196 -4.88768 1
gene 2 3 80 0.773492 0 216 0.773492 1
gene 2 80 4 7.03105 0 217 7.03105 1
genomeend 143

/* Organism #144 Fitness: 3.99933 Error: 2.00017 */
genomestart 144
trait 1 0 0 0.353458 0 0.92848 0 0.660625 0 
trait 2 0.1 0 0 0 0 0.306856 0 0.331655 
trait 3 0.3 0 0 0 0 0 0 0 
node 1 2 1 3
node 2 3 1 1
node 3 3 1 1
node 4 3 0 2
node 7 1 0 0
node 17 2 0 0
node 72 1 0 0
node 80 1 0 0
gene 1 1 4 -3.4166 0 1 -3.4166 1
gene 2 2 4 -0.005505 0 2 -0.005505 0
gene 2 3 4 4.42862 0 3 4.42862 0
gene 1 3 7 3.46785 0 8 3.46785 1
gene 3 7 4 6.77353 0 9 6.77353 1
gene 3 2 7 5.62466 0 26 5.62466 1
gene 2 1 7 1.60439 0 29 1.60439 1
gene 2 2 17 0.168341 0 35 0.168341 1
gene 2 17 4 -0.27643 0 36 -0.27643 0
gene 2 17 72 2.26301 0 195 2.26301 1
gene 2 72 4 -4.84958 0 196 -4.84958 1
gene 2 3 80 1.4108 0 216 1.4108 1
gene 2 80 4 1.00764 0 217 1.00764 1
gene 1 7 72 -0.281961 0 250 -0.281961 1
gene 1 80 17 -1.2262 0 259 -1.2262 1
genomeend 144

/* Organism #145 Fitness: 8.99903 Error: 1.00016 */
genomestart 145
trait 1 0 0 0.353458 0 0.92848 0 0.660625 0 
trait 2 0.1 0 0 0 0 0.306856 0 0.331655 
trait 3 0.3 0 0 0 0 0 0 0 
node 1 2 1 3
node 2 3 1 1
node 3 3 1 1
node 4 3 0 2
node 7 1 0 0
node 17 2 0 0
node 72 1 0 0
node 80 1 0 0
gene 1 1 4 -3.72974 0 1 -3.72974 1
gene 2 2 4 -5.19224 0 2 -5.19224 0
gene 2 3 4 8 0 3 8 0
gene 1 3 7 1.58736 0 8 1.58736 1
gene 3 7 4 6.39121 0 9 6.39121 1
gene 3 2 7 7.21884 0 26 7.21884 1
gene 2 1 7 -1.39283 0 29 -1.39283 1
gene 2 2 17 0.554667 0 35 0.554667 1
gene 2 17 4 -3.42046 0 36 -3.42046 0
gene 2 17 72 2.73165 0 195 2.73165 1
gene 2 72 4 -3.76498 0 196 -3.76498 1
gene 2 3 80 0.822492 0 216 0.822492 1
gene 2 80 4 5.75546 0 217 5.75546 1
genomeend 145

/* Organism #146 Fitness: 8.99992 Error: 1.00001 */
genomestart 146
trait 1 0 0 0.353458 0 0.92848 0 0.660625 0 
trait 2 0.1 0 0 0 0 0.306856 0 0.331655 
trait 3 0.3 0 0 0 0 0 0 0 
node 1 2 1 3
node 2 3 1 1
node 3 3 1 1
node 4 3 0 2
node 7 1 0 0
node 17 2 0 0
node 72 1 0 0
node 80 1 0 0
gene 1 1 4 -2.30028 0 1 -2.30028 1
gene 2 2 4 -1.48875 0 2 -1.48875 0
gene 2 3 4 6.57828 0 3 6.57828 0
gene 1 3 7 3.46785 0 8 3.46785 1
gene 3 7 4 6.69243 0 9 6.69243 1
gene 3 2 7 8 0 26 8 1
gene 2 1 7 -1.54549 0 29 -1.54549 1
gene 2 2 17 2.18307 0 35 2.18307 1
gene 2 17 4 -1.14185 0 36 -1.14185 0
gene 2 17 72 0.938697 0 195 0.938697 1
gene 2 72 4 -4.2583 0 196 -4.2583 1
gene 2 3 80 1.77021 0 216 1.77021 1
gene 2 80 4 8 0 217 8 1
gene 1 7 72 0.710977 0 250 0.710977 1
gene 1 80 17 0.138255 0 259 0.138255 1
genomeend 146

/* Organism #147 Fitness: 1.11087 Error: 2.94602 */
genomestart 147
trait 1 0 0 0.353458 0 0.92848 0 0.660625 0 
trait 2 0.1 0 0 0 0 0.306856 0 0.331655 
trait 3 0.3 0 0 0 0 0 0 0 
node 1 2 1 3
node 2 3 1 1
node 3 3 1 1
node 4 3 0 2
node 7 1 0 0
node 17 2 0 0
node 72 1 0 0
node 80 1 0 0
gene 1 1 4 -1.67582 0 1 -1.67582 1
gene 2 2 4 -3.88941 0 2 -3.88941 0
gene 2 3 4 5.49594 0 3 5.49594 0
gene 1 3 7 1.22232 0 8 1.22232 1
gene 3 7 4 8 0 9 8 1
gene 3 2 7 5.61555 0 26 5.61555 1
gene 2 1 7 -3.55996 0 29 -3.55996 1
gene 2 2 17 2.9036 0 35 2.9036 1
gene 2 17 4 -2.7034 0 36 -2.7034 0
gene 2 17 72 -0.27781 0 195 -0.27781 1
gene 2 72 4 -4.74613 0 196 -4.74613 1
gene 2 3 80 -2.11264 0 216 -2.11264 1
gene 2 80 4 7.69813 0 217 7.69813 1
genomeend 147

/* Organism #148 Fitness: 13.5372 Error: 0.3207 */
/* ##------$ WINNER 148 SPECIES #24 $------## */
genomestart 148
trait 1 0 0 0.353458 0 0.92848 0 0.660625 0 
trait 2 0.1 0 0 0 0 0.306856 0 0.331655 
trait 3 0.3 0 0 0 0 0 0 0 
node 1 2 1 3
node 2 3 1 1
node 3 3 1 1
node 4 3 0 2
node 7 1 0 0
node 17 2 0 0
node 72 1 0 0
node 80 1 0 0
gene 1 1 4 -4.06525 0 1 -4.06525 1
gene 2 2 4 -6.12087 0 2 -6.12087 1
gene 2 3 4 6.65275 0 3 6.65275 0
gene 1 3 7 1.72556 0 8 1.72556 1
gene 3 7 4 8 0 9 8 1
gene 3 2 7 6.66063 0 26 6.66063 1
gene 2 1 7 -0.489914 0 29 -0.489914 1
gene 2 2 17 -0.917581 0 35 -0.917581 1
gene 2 17 4 -4.09589 0 36 -4.09589 1
gene 2 17 72 3.9729 0 195 3.9729 1
gene 2 72 4 -2.70613 0 196 -2.70613 1
gene 2 3 80 -0.228823 0 216 -0.228823 1
gene 2 80 4 7.76624 0 217 7.76624 1
genomeend 148

/* Organism #149 Fitness: 8.33952 Error: 1.11218 */
genomestart 149
trait 1 0 0 0.353458 0 0.92848 0 0.660625 0 
trait 2 0.1 0 0 0 0 0.306856 0 0.331655 
trait 3 0.3 0 0 0 0 0 0 0 
node 1 2 1 3
node 2 3 1 1
node 3 3 1 1
node 4 3 0 2
node 7 1 0 0
node 17 2 0 0
node 72 1 0 0
node 80 1 0 0
gene 1 1 4 -5.17975 0 1 -5.17975 1
gene 2 2 4 -1.47294 0 2 -1.47294 0
gene 2 3 4 5.28425 0 3 5.28425 0
gene 1 3 7 3.89662 0 8 3.89662 1
gene 3 7 4 8 0 9 8 1
gene 3 2 7 0.541954 0 26 0.541954 1
gene 2 1 7 -0.705365 0 29 -0.705365 1
gene 2 2 17 -0.304788 0 35 -0.304788 1
gene 2 17 4 -1.74337 0 36 -1.74337 1
gene 2 17 72 3.35951 0 195 3.35951 1
gene 2 72 4 1.39103 0 196 1.39103 1
gene 2 3 80 0.582205 0 216 0.582205 1
gene 2 80 4 8 0 217 8 1
genomeend 149
