
/* Species #31 : (Size 10) (AF 5.25569) (Age 14)  */


/* Organism #0 Fitness: 9.97688 Error: 0.84138 */
genomestart 0
trait 1 0.0987943 0 0 0.0534519 0 0 0.0413909 0 
trait 2 1 0.162866 0.64203 0 0 0.0170796 0.0829908 0.0978675 
trait 3 0.285937 0.147698 0.0425052 0.0338685 0.22744 0.013745 0 0.108743 
node 1 3 1 3
node 2 1 1 1
node 3 3 1 1
node 4 3 0 2
node 22 2 0 0
node 58 3 0 0
node 102 1 0 0
gene 3 1 4 6.92039 0 1 6.92039 1
gene 3 2 4 -0.860878 0 2 -0.860878 0
gene 1 3 4 -0.784302 0 3 -0.784302 1
gene 3 2 22 -0.450608 0 48 -0.450608 1
gene 3 22 4 -8 0 49 -8 1
gene 3 22 58 1.54572 0 177 1.54572 1
gene 2 58 4 1.9202 0 178 1.9202 1
gene 3 2 58 -1.42148 0 310 -1.42148 0
gene 3 2 102 -0.635719 0 320 -0.635719 1
gene 3 102 58 -3.81712 0 321 -3.81712 1
gene 3 3 22 1.44105 0 333 1.44105 1
gene 2 1 22 2.373 0 360 2.373 1
gene 1 102 4 0.566033 0 575 0.566033 1
gene 3 3 58 2.0034 0 583 2.0034 1
genomeend 0

/* Organism #1 Fitness: 6.5158 Error: 1.44739 */
genomestart 1
trait 1 0.0987943 0 0 0.0534519 0 0 0.0413909 0 
trait 2 1 0.162866 0.64203 0 0 0.0170796 0.0829908 0.0978675 
trait 3 0.285937 0.147698 0.0425052 0.0338685 0.22744 0.013745 0 0.108743 
node 1 3 1 3
node 2 1 1 1
node 3 3 1 1
node 4 3 0 2
node 22 2 0 0
node 58 3 0 0
node 102 1 0 0
gene 3 1 4 8 0 1 8 1
gene 3 2 4 0.368939 0 2 0.368939 0
gene 1 3 4 0.600582 0 3 0.600582 1
gene 3 2 22 -2.07305 0 48 -2.07305 1
gene 3 22 4 -7.83344 0 49 -7.83344 1
gene 3 22 58 -0.132052 0 177 -0.132052 1
gene 2 58 4 2.03003 0 178 2.03003 1
gene 3 2 58 0.0940779 0 310 0.0940779 0
gene 3 2 102 -1.33135 0 320 -1.33135 1
gene 3 102 58 -4.32862 0 321 -4.32862 1
gene 3 3 22 0.869795 0 333 0.869795 1
gene 2 1 22 0.893864 0 360 0.893864 1
gene 1 102 4 -1.07966 0 575 -1.07966 1
gene 3 3 58 -0.173579 0 583 -0.173579 1
genomeend 1

/* Organism #2 Fitness: 4.00119 Error: 1.9997 */
genomestart 2
trait 1 0.0987943 0 0 0.0534519 0 0 0.0413909 0 
trait 2 1 0.162866 0.64203 0 0 0.0170796 0.0829908 0.0978675 
trait 3 0.285937 0.147698 0.0425052 0.0338685 0.22744 0.013745 0 0.108743 
node 1 3 1 3
node 2 1 1 1
node 3 3 1 1
node 4 3 0 2
node 22 2 0 0
node 58 3 0 0
node 102 1 0 0
gene 3 1 4 8 0 1 8 1
gene 3 2 4 1.60809 0 2 1.60809 0
gene 1 3 4 -0.784302 0 3 -0.784302 1
gene 3 2 22 1.49762 0 48 1.49762 1
gene 3 22 4 -5.5826 0 49 -5.5826 1
gene 3 22 58 0.644289 0 177 0.644289 1
gene 2 58 4 3.57628 0 178 3.57628 1
gene 3 2 58 -3.80956 0 310 -3.80956 1
gene 3 2 102 -2.94057 0 320 -2.94057 1
gene 3 102 58 -5.36437 0 321 -5.36437 1
gene 3 3 22 3.2368 0 333 3.2368 1
gene 2 1 22 2.61537 0 360 2.61537 1
gene 1 102 4 0.975465 0 575 0.975465 1
gene 3 3 58 2.0034 0 583 2.0034 1
genomeend 2

/* Organism #3 Fitness: 4 Error: 2 */
genomestart 3
trait 1 0.0987943 0 0 0.0534519 0 0 0.0413909 0 
trait 2 1 0.142813 0 0 0 0.210581 0.0829908 0.0978675 
trait 3 0.285937 0.147698 0.0425052 0.0338685 0.22744 0.013745 0 0.108743 
node 1 3 1 3
node 2 1 1 1
node 3 3 1 1
node 4 3 0 2
node 22 2 0 0
node 58 3 0 0
node 102 1 0 0
gene 3 1 4 7.82223 0 1 7.82223 1
gene 3 2 4 -1.37463 0 2 -1.37463 0
gene 1 3 4 2.70243 0 3 2.70243 1
gene 3 2 22 -0.357695 0 48 -0.357695 1
gene 3 22 4 -2.49079 0 49 -2.49079 1
gene 3 22 58 0.166967 0 177 0.166967 1
gene 2 58 4 0.585114 0 178 0.585114 1
gene 3 2 58 2.61774 0 310 2.61774 0
gene 3 2 102 -1.99615 0 320 -1.99615 1
gene 3 102 58 -4.97215 0 321 -4.97215 1
gene 3 3 22 3.83928 0 333 3.83928 1
gene 2 1 22 0.514992 0 360 0.514992 1
gene 1 102 4 2.14897 0 575 2.14897 1
gene 3 3 58 2.6909 0 583 2.6909 1
genomeend 3

/* Organism #4 Fitness: 7.40634 Error: 1.27854 */
genomestart 4
trait 1 0.0987943 0 0 0.0534519 0 0 0.0413909 0 
trait 2 1 0.162866 0.64203 0 0 0.0170796 0.0829908 0.0978675 
trait 3 0.285937 0.147698 0.0425052 0.0338685 0.22744 0.013745 0 0.108743 
node 1 3 1 3
node 2 1 1 1
node 3 3 1 1
node 4 3 0 2
node 22 2 0 0
node 58 3 0 0
node 102 1 0 0
gene 3 1 4 6.79112 0 1 6.79112 1
gene 3 2 4 -2.59288 0 2 -2.59288 0
gene 1 3 4 1.37965 0 3 1.37965 1
gene 3 2 22 -0.450608 0 48 -0.450608 1
gene 3 22 4 -8 0 49 -8 1
gene 3 22 58 0.207895 0 177 0.207895 1
gene 2 58 4 2.98103 0 178 2.98103 1
gene 3 2 58 -1.42148 0 310 -1.42148 0
gene 3 2 102 -0.635719 0 320 -0.635719 1
gene 3 102 58 -5.40866 0 321 -5.40866 1
gene 3 3 22 1.48693 0 333 1.48693 1
gene 2 1 22 2.373 0 360 2.373 1
gene 1 102 4 0.566033 0 575 0.566033 1
gene 3 3 58 2.0034 0 583 2.0034 1
genomeend 4

/* Organism #5 Fitness: 7.9883 Error: 1.17364 */
genomestart 5
trait 1 0.0987943 0 0 0.0534519 0 0 0.0413909 0 
trait 2 0.952889 0 0.64203 0.854126 0.930135 0.198769 0.0829908 0 
trait 3 0.285937 0.147698 0.0425052 0.0338685 0.22744 0.013745 0 0.108743 
node 1 3 1 3
node 2 1 1 1
node 3 3 1 1
node 4 3 0 2
node 22 2 0 0
node 58 3 0 0
node 102 1 0 0
gene 3 1 4 6.31348 0 1 6.31348 1
gene 3 2 4 -2.8798 0 2 -2.8798 0
gene 1 3 4 3.01487 0 3 3.01487 1
gene 3 2 22 -0.0972547 0 48 -0.0972547 1
gene 3 22 4 -7.63559 0 49 -7.63559 1
gene 3 22 58 0.343993 0 177 0.343993 1
gene 2 58 4 3.64118 0 178 3.64118 1
gene 3 2 58 3.02562 0 310 3.02562 0
gene 3 2 102 -1.49339 0 320 -1.49339 1
gene 3 102 58 -7.06482 0 321 -7.06482 1
gene 3 3 22 2.86388 0 333 2.86388 1
gene 2 1 22 2.47173 0 360 2.47173 1
gene 1 102 4 2.00999 0 575 2.00999 1
gene 3 3 58 1.22694 0 583 1.22694 1
genomeend 5

/* Organism #6 Fitness: 0.497329 Error: 3.29478 */
genomestart 6
trait 1 0.0987943 0 0 0.0534519 0 0 0.0413909 0 
trait 2 1 0.162866 0.64203 0 0 0.0170796 0.0829908 0.0978675 
trait 3 0.285937 0.147698 0.0425052 0.0338685 0.22744 0.013745 0 0.108743 
node 1 3 1 3
node 2 1 1 1
node 3 3 1 1
node 4 3 0 2
node 22 2 0 0
node 58 3 0 0
node 102 1 0 0
gene 3 1 4 7.23188 0 1 7.23188 1
gene 3 2 4 -0.530468 0 2 -0.530468 0
gene 1 3 4 -0.288675 0 3 -0.288675 1
gene 3 2 22 2.35113 0 48 2.35113 1
gene 3 22 4 -8 0 49 -8 1
gene 3 22 58 -0.779597 0 177 -0.779597 1
gene 2 58 4 5.36831 0 178 5.36831 1
gene 3 2 58 -0.537645 0 310 -0.537645 0
gene 3 2 102 -1.59096 0 320 -1.59096 1
gene 3 102 58 -4.74184 0 321 -4.74184 1
gene 3 3 22 2.19474 0 333 2.19474 1
gene 2 1 22 2.98595 0 360 2.98595 1
gene 1 102 4 1.69318 0 575 1.69318 1
gene 3 3 58 1.22694 0 583 1.22694 1
genomeend 6

/* Organism #7 Fitness: 4.18941 Error: 1.9532 */
genomestart 7
trait 1 0.0987943 0 0 0.0534519 0 0 0.0413909 0 
trait 2 1 0.162866 0.64203 0 0 0.0170796 0.0829908 0.0978675 
trait 3 0.285937 0.147698 0.0425052 0.0338685 0.22744 0.013745 0 0.108743 
node 1 3 1 3
node 2 1 1 1
node 3 3 1 1
node 4 3 0 2
node 22 2 0 0
node 58 3 0 0
node 102 1 0 0
gene 3 1 4 6.41323 0 1 6.41323 1
gene 3 2 4 -3.0995 0 2 -3.0995 0
gene 1 3 4 2.35556 0 3 2.35556 1
gene 3 2 22 4.39363 0 48 4.39363 1
gene 3 22 4 -6.58865 0 49 -6.58865 1
gene 3 22 58 1.41789 0 177 1.41789 1
gene 2 58 4 2.14444 0 178 2.14444 1
gene 3 2 58 -1.00395 0 310 -1.00395 0
gene 3 2 102 -0.982277 0 320 -0.982277 1
gene 3 102 58 -4.96842 0 321 -4.96842 1
gene 3 3 22 0.737489 0 333 0.737489 1
gene 2 1 22 4.17016 0 360 4.17016 1
gene 1 102 4 1.55201 0 575 1.55201 1
gene 3 3 58 0.160285 0 583 0.160285 1
genomeend 7

/* Organism #8 Fitness: 4 Error: 2 */
genomestart 8
trait 1 0.0987943 0 0 0.0534519 0 0 0.0413909 0 
trait 2 0.248258 0.162866 0.173309 0 0 0.0170796 0.0829908 0.0978675 
trait 3 0.285937 0.147698 0.0425052 0.0338685 0.22744 0.013745 0 0.108743 
node 1 3 1 3
node 2 1 1 1
node 3 3 1 1
node 4 3 0 2
node 22 2 0 0
node 58 3 0 0
node 102 1 0 0
node 197 3 0 0
gene 3 1 4 7.48659 0 1 7.48659 1
gene 3 2 4 0.251589 0 2 0.251589 0
gene 1 3 4 2.75335 0 3 2.75335 1
gene 3 2 22 -0.883972 0 48 -0.883972 1
gene 3 22 4 -8 0 49 -8 1
gene 3 22 58 5.51376 0 177 5.51376 1
gene 2 58 4 -6.36449 0 178 -6.36449 1
gene 3 2 58 -1.35989 0 310 -1.35989 0
gene 3 2 102 -1.5113 0 320 -1.5113 1
gene 3 102 58 -1.28511 0 321 -1.28511 1
gene 3 3 22 -1.60412 0 333 -1.60412 1
gene 2 1 22 2.92455 0 360 2.92455 1
gene 1 102 4 -0.161546 0 575 -0.161546 1
gene 3 3 58 -1.22577 0 583 -1.22577 1
gene 1 102 197 2.79265 0 605 2.79265 1
gene 1 197 4 -0.416194 0 606 -0.416194 1
genomeend 8

/* Organism #9 Fitness: 3.9817 Error: 2.00458 */
genomestart 9
trait 1 0.0987943 0 0 0.0534519 0 0 0.0413909 0 
trait 2 0.248258 0.162866 0.173309 0 0 0.0170796 0.0829908 0.0978675 
trait 3 0.285937 0.147698 0.0425052 0.0338685 0.22744 0.013745 0 0.108743 
node 1 3 1 3
node 2 1 1 1
node 3 3 1 1
node 4 3 0 2
node 22 2 0 0
node 58 3 0 0
node 102 1 0 0
node 197 1 0 0
gene 3 1 4 8 0 1 8 1
gene 3 2 4 -2.0582 0 2 -2.0582 0
gene 1 3 4 0.805859 0 3 0.805859 1
gene 3 2 22 -2.07837 0 48 -2.07837 1
gene 3 22 4 0.0803476 0 49 0.0803476 1
gene 3 22 58 0.8108 0 177 0.8108 1
gene 2 58 4 -8 0 178 -8 1
gene 3 2 58 -3.53459 0 310 -3.53459 0
gene 3 2 102 -1.74437 0 320 -1.74437 1
gene 3 102 58 -2.5526 0 321 -2.5526 1
gene 3 3 22 -1.19137 0 333 -1.19137 1
gene 2 1 22 3.20365 0 360 3.20365 1
gene 1 102 4 0.309004 0 575 0.309004 1
gene 3 3 58 0.40966 0 583 0.40966 1
gene 1 102 197 1.90904 0 605 1.90904 1
gene 1 197 4 1.72108 0 606 1.72108 1
genomeend 9

/* Species #32 : (Size 8) (AF 5.66551) (Age 14)  */


/* Organism #10 Fitness: 8.99935 Error: 1.00011 */
genomestart 10
trait 1 0.0987943 0 0 0.0534519 0 0 0.0413909 0 
trait 2 0.248258 0.162866 0.173309 0 0 0.0170796 0.0829908 0.0978675 
trait 3 0.285937 0.147698 0.0425052 0.0338685 0.22744 0.013745 0 0.108743 
node 1 3 1 3
node 2 2 1 1
node 3 3 1 1
node 4 3 0 2
node 22 2 0 0
node 58 3 0 0
node 102 1 0 0
node 203 1 0 0
gene 3 1 4 -1.02063 0 1 -1.02063 1
gene 3 2 4 -2.62719 0 2 -2.62719 1
gene 1 3 4 0.846225 0 3 0.846225 1
gene 3 2 22 0.959809 0 48 0.959809 1
gene 3 22 4 -2.10596 0 49 -2.10596 1
gene 3 22 58 -3.3738 0 177 -3.3738 1
gene 2 58 4 2.05087 0 178 2.05087 1
gene 3 2 58 -1.67081 0 310 -1.67081 1
gene 3 2 102 -1.50286 0 320 -1.50286 0
gene 3 102 58 -3.43561 0 321 -3.43561 1
gene 3 3 22 -1.50204 0 333 -1.50204 1
gene 2 1 22 0.568823 0 360 0.568823 1
gene 2 3 58 2.16458 0 580 2.16458 1
gene 3 2 203 1 0 622 0 1
gene 3 203 102 -1.50286 0 623 0 1
gene 1 203 58 -0.141487 0 692 -0.141487 1
genomeend 10

/* Organism #11 Fitness: 7.73257 Error: 1.21925 */
genomestart 11
trait 1 0.0987943 0 0 0.0534519 0 0 0.0413909 0 
trait 2 0.248258 0.162866 0.173309 0 0 0.0170796 0.0829908 0.0978675 
trait 3 0.285937 0.147698 0.0425052 0.0338685 0.22744 0.013745 0 0.108743 
node 1 3 1 3
node 2 2 1 1
node 3 3 1 1
node 4 3 0 2
node 22 2 0 0
node 58 3 0 0
node 102 1 0 0
node 203 1 0 0
gene 3 1 4 -3.30026 0 1 -3.30026 1
gene 3 2 4 1.38588 0 2 1.38588 1
gene 1 3 4 3.16923 0 3 3.16923 1
gene 3 2 22 3.42347 0 48 3.42347 1
gene 3 22 4 -1.51567 0 49 -1.51567 1
gene 3 22 58 -3.3738 0 177 -3.3738 1
gene 2 58 4 1.3653 0 178 1.3653 1
gene 2 2 58 -0.589262 0 310 -0.589262 1
gene 3 2 102 -0.28753 0 320 -0.28753 0
gene 3 102 58 -5.7094 0 321 -5.7094 1
gene 3 3 22 -1.37887 0 333 -1.37887 1
gene 2 1 22 0.160404 0 360 0.160404 1
gene 2 3 58 2.16458 0 580 2.16458 1
gene 3 2 203 1 0 622 1 1
gene 3 203 102 -3.81134 0 623 -3.81134 1
gene 1 203 58 -0.141487 0 692 -0.141487 1
genomeend 11

/* Organism #12 Fitness: 4.86964 Error: 1.79327 */
genomestart 12
trait 1 0.0987943 0 0 0.0534519 0 0 0.0413909 0 
trait 2 0.248258 0.162866 0.173309 0 0 0.0170796 0.0829908 0.0978675 
trait 3 0.285937 0.147698 0 0.618436 0.22744 0.013745 0 0 
node 1 3 1 3
node 2 2 1 1
node 3 3 1 1
node 4 3 0 2
node 22 2 0 0
node 58 3 0 0
node 102 1 0 0
node 203 1 0 0
gene 3 1 4 -1.90823 0 1 -1.90823 1
gene 3 2 4 -0.566567 0 2 -0.566567 1
gene 1 3 4 0.694902 0 3 0.694902 1
gene 3 2 22 -1.08475 0 48 -1.08475 1
gene 3 22 4 -2.63278 0 49 -2.63278 1
gene 3 22 58 2.17718 0 177 2.17718 1
gene 2 58 4 0.953421 0 178 0.953421 1
gene 3 2 58 -3.91179 0 310 -3.91179 1
gene 3 2 102 -0.0105651 0 320 -0.0105651 0
gene 3 102 58 -1.90194 0 321 -1.90194 1
gene 3 3 22 -3.83979 0 333 -3.83979 1
gene 2 1 22 2.68085 0 360 2.68085 1
gene 2 3 58 2.49649 0 580 2.49649 1
gene 3 2 203 0.532724 0 622 0.532724 1
gene 3 203 102 -2.84139 0 623 -2.84139 1
gene 1 203 58 1.67287 0 692 1.67287 1
genomeend 12

/* Organism #13 Fitness: 4 Error: 2 */
genomestart 13
trait 1 0.0987943 0 0 0.0534519 0 0 0.0413909 0 
trait 2 0.248258 0.162866 0.173309 0 0 0.0170796 0.0829908 0.0978675 
trait 3 0.285937 0.147698 0.0425052 0.0338685 0.22744 0.013745 0 0.108743 
node 1 3 1 3
node 2 2 1 1
node 3 3 1 1
node 4 3 0 2
node 22 2 0 0
node 58 3 0 0
node 102 1 0 0
node 203 1 0 0
gene 3 1 4 -1.22813 0 1 -1.22813 1
gene 3 2 4 -3.6656 0 2 -3.6656 1
gene 1 3 4 1.40241 0 3 1.40241 1
gene 3 2 22 -0.264057 0 48 -0.264057 1
gene 3 22 4 -3.62108 0 49 -3.62108 1
gene 3 22 58 -0.335058 0 177 -0.335058 1
gene 2 58 4 0.738037 0 178 0.738037 1
gene 3 2 58 -3.58163 0 310 -3.58163 1
gene 3 2 102 1.77669 0 320 1.77669 0
gene 3 102 58 -4.05588 0 321 -4.05588 1
gene 3 3 22 1.21835 0 333 1.21835 1
gene 2 1 22 1.78277 0 360 1.78277 1
gene 2 3 58 2.8643 0 580 2.8643 1
gene 3 2 203 1.82357 0 622 1.82357 1
gene 3 203 102 1.32441 0 623 1.32441 1
gene 1 203 58 1.02564 0 692 1.02564 1
genomeend 13

/* Organism #14 Fitness: 5.55474 Error: 1.64315 */
genomestart 14
trait 1 0.0987943 0 0 0.0534519 0 0 0.0413909 0 
trait 2 0.248258 0.162866 0.173309 0 0 0.0170796 0.0829908 0.0978675 
trait 3 0.285937 0.147698 0.0425052 0.0338685 0.22744 0.013745 0 0.108743 
node 1 3 1 3
node 2 2 1 1
node 3 3 1 1
node 4 3 0 2
node 22 2 0 0
node 58 3 0 0
node 102 1 0 0
node 203 1 0 0
gene 3 1 4 -1.02092 0 1 -1.02092 1
gene 3 2 4 -3.73242 0 2 -3.73242 1
gene 1 3 4 2.86202 0 3 2.86202 1
gene 3 2 22 0.60748 0 48 0.60748 1
gene 3 22 4 -2.10596 0 49 -2.10596 1
gene 3 22 58 -5.5206 0 177 -5.5206 1
gene 2 58 4 -0.573462 0 178 -0.573462 1
gene 3 2 58 -1.99656 0 310 -1.99656 1
gene 3 2 102 -1.50286 0 320 -1.50286 0
gene 3 102 58 -3.43561 0 321 -3.43561 1
gene 3 3 22 0.196587 0 333 0.196587 1
gene 2 1 22 0.331956 0 360 0.331956 1
gene 2 3 58 0.690896 0 580 0.690896 1
gene 3 2 203 -1.82364 0 622 -1.82364 1
gene 3 203 102 -0.294223 0 623 -0.294223 1
gene 1 203 58 2.21897 0 692 2.21897 1
genomeend 14

/* Organism #15 Fitness: 3.27377 Error: 2.19065 */
genomestart 15
trait 1 0 0 0 0.0534519 0.881061 0 0.0413909 0 
trait 2 0.248258 0.162866 0.173309 0 0 0.0170796 0.0829908 0.0978675 
trait 3 0.285937 0.147698 0.0425052 0.0338685 0.22744 0.013745 0 0.108743 
node 1 3 1 3
node 2 2 1 1
node 3 3 1 1
node 4 3 0 2
node 22 2 0 0
node 58 3 0 0
node 102 1 0 0
node 203 1 0 0
gene 3 1 4 -1.52715 0 1 -1.52715 1
gene 3 2 4 -4.70369 0 2 -4.70369 1
gene 1 3 4 -2.49885 0 3 -2.49885 1
gene 3 2 22 2.41777 0 48 2.41777 1
gene 3 22 4 -2.24903 0 49 -2.24903 1
gene 3 22 58 -2.43976 0 177 -2.43976 1
gene 2 58 4 2.05087 0 178 2.05087 1
gene 3 2 58 0.195281 0 310 0.195281 1
gene 3 2 102 0.445352 0 320 0.445352 0
gene 3 102 58 -2.08164 0 321 -2.08164 1
gene 3 3 22 0.0840973 0 333 0.0840973 1
gene 2 1 22 -1.53728 0 360 -1.53728 1
gene 2 3 58 0.607795 0 580 0.607795 1
gene 3 2 203 -1.20472 0 622 -1.20472 1
gene 3 203 102 -1.50286 0 623 -1.50286 1
gene 1 203 58 0.271111 0 692 0.271111 1
genomeend 15

/* Organism #16 Fitness: 1.89465 Error: 2.62354 */
genomestart 16
trait 1 0.0987943 0 0 0.0534519 0 0 0.0413909 0 
trait 2 0.248258 0.162866 0.173309 0 0 0.0170796 0.0829908 0.0978675 
trait 3 0.285937 0.147698 0.0425052 0.0338685 0.22744 0.013745 0 0.108743 
node 1 3 1 3
node 2 2 1 1
node 3 3 1 1
node 4 3 0 2
node 22 2 0 0
node 58 3 0 0
node 102 1 0 0
node 203 1 0 0
gene 3 1 4 -0.775622 0 1 -0.775622 1
gene 3 2 4 -1.37229 0 2 -1.37229 1
gene 1 3 4 2.55923 0 3 2.55923 1
gene 3 2 22 -0.0652669 0 48 -0.0652669 1
gene 3 22 4 -4.02925 0 49 -4.02925 1
gene 3 22 58 1.85877 0 177 1.85877 1
gene 2 58 4 4.45292 0 178 4.45292 1
gene 3 2 58 -0.0207671 0 310 -0.0207671 1
gene 3 2 102 -0.731 0 320 -0.731 0
gene 3 102 58 0.306267 0 321 0.306267 1
gene 3 3 22 -1.37235 0 333 -1.37235 1
gene 2 1 22 -1.723 0 360 -1.723 1
gene 2 3 58 4.09651 0 580 4.09651 1
gene 3 2 203 3.17915 0 622 3.17915 1
gene 3 203 102 0.248577 0 623 0.248577 1
gene 1 203 58 -0.249189 0 692 -0.249189 1
genomeend 16

/* Organism #17 Fitness: 8.99935 Error: 1.00011 */
genomestart 17
trait 1 0.0987943 0 0 0.0534519 0 0 0.0413909 0 
trait 2 0.248258 0.162866 0.173309 0 0 0.0170796 0.0829908 0.0978675 
trait 3 0.285937 0.147698 0.0425052 0.0338685 0.22744 0.013745 0 0.108743 
node 1 3 1 3
node 2 2 1 1
node 3 3 1 1
node 4 3 0 2
node 22 2 0 0
node 58 3 0 0
node 102 1 0 0
node 203 1 0 0
gene 3 1 4 -1.02063 0 1 -1.02063 1
gene 3 2 4 -2.62719 0 2 -2.62719 1
gene 1 3 4 0.846225 0 3 0.846225 1
gene 3 2 22 0.959809 0 48 0.959809 1
gene 3 22 4 -2.10596 0 49 -2.10596 1
gene 3 22 58 -3.3738 0 177 -3.3738 1
gene 2 58 4 2.05087 0 178 2.05087 1
gene 3 2 58 -1.67081 0 310 -1.67081 1
gene 3 2 102 -1.50286 0 320 -1.50286 1
gene 3 102 58 -3.43561 0 321 -3.43561 1
gene 3 3 22 -1.50204 0 333 -1.50204 1
gene 2 1 22 0.568823 0 360 0.568823 1
gene 2 3 58 2.16458 0 580 2.16458 1
gene 3 2 203 1 0 622 0 1
gene 3 203 102 -1.50286 0 623 0 1
gene 1 203 58 -0.141487 0 692 -0.141487 1
gene 1 3 102 -0.268286 0 716 -0.268286 1
genomeend 17

/* Species #33 : (Size 11) (AF 7.14036) (Age 14)  */


/* Organism #18 Fitness: 9 Error: 1 */
genomestart 18
trait 1 0.0987943 0 0 0.0534519 0 0 0.0413909 0 
trait 2 0.286194 0.18377 0.162478 0 0.0342459 0.0160122 0.0778039 0.0978675 
trait 3 0.285937 0.147698 0.0425052 0.0338685 0.22744 0.013745 0 0.108743 
node 1 3 1 3
node 2 1 1 1
node 3 3 1 1
node 4 3 0 2
node 22 2 0 0
node 58 3 0 0
node 102 1 0 0
node 190 1 0 0
gene 3 1 4 7.0484 0 1 7.0484 1
gene 3 2 4 -0.797022 0 2 -0.797022 0
gene 1 3 4 6.80316 0 3 6.80316 1
gene 3 2 22 -4.17978 0 48 -4.17978 1
gene 3 22 4 -7.52206 0 49 -7.52206 1
gene 3 22 58 1.89378 0 177 1.89378 1
gene 2 58 4 -7.36726 0 178 -7.36726 1
gene 3 2 58 -1.9887 0 310 -1.9887 1
gene 3 2 102 0.564423 0 320 0.564423 1
gene 3 102 58 -1.07029 0 321 -1.07029 1
gene 3 3 22 -0.959673 0 333 -0.959673 0
gene 2 1 22 2.55601 0 360 2.55601 1
gene 3 3 190 0.94176 0 585 0.94176 1
gene 3 190 22 -3.08918 0 586 -3.08918 1
gene 2 190 102 -0.864432 0 618 -0.864432 1
gene 2 190 58 0.118032 0 648 0.118032 1
genomeend 18

/* Organism #19 Fitness: 5.33254 Error: 1.69077 */
genomestart 19
trait 1 0.0987943 0 0 0.0534519 0 0 0.0413909 0 
trait 2 0.286194 0.18377 0.142168 0 0.0299651 0.0160122 0.0778039 0.085634 
trait 3 0.285937 0.147698 0.0425052 0.0338685 0.22744 0.013745 0 0.108743 
node 1 3 1 3
node 2 1 1 1
node 3 3 1 1
node 4 3 0 2
node 22 2 0 0
node 58 3 0 0
node 102 1 0 0
node 190 1 0 0
gene 3 1 4 7.9603 0 1 7.9603 1
gene 3 2 4 -1.95218 0 2 -1.95218 0
gene 1 3 4 6.31676 0 3 6.31676 1
gene 3 2 22 -3.81637 0 48 -3.81637 1
gene 3 22 4 -8 0 49 -8 1
gene 3 22 58 3.18936 0 177 3.18936 1
gene 2 58 4 -8 0 178 -8 1
gene 3 2 58 -4.3077 0 310 -4.3077 1
gene 3 2 102 1.60553 0 320 1.60553 1
gene 3 102 58 -0.459065 0 321 -0.459065 1
gene 3 3 22 -0.187208 0 333 -0.187208 0
gene 2 1 22 3.37716 0 360 3.37716 1
gene 3 3 190 3.21418 0 585 3.21418 1
gene 3 190 22 -3.08918 0 586 -3.08918 1
gene 2 190 102 0.0951462 0 618 0.0951462 1
gene 2 190 58 0.276098 0 648 0.276098 1
genomeend 19

/* Organism #20 Fitness: 9 Error: 1 */
genomestart 20
trait 1 0.0987943 0 0 0.0534519 0 0 0.0413909 0 
trait 2 0.286194 0.18377 0.162478 0 0.0342459 0.0160122 0.0778039 0.0978675 
trait 3 0.285937 0.147698 0.0425052 0.0338685 0.22744 0.013745 0 0.108743 
node 1 3 1 3
node 2 1 1 1
node 3 3 1 1
node 4 3 0 2
node 22 2 0 0
node 58 3 0 0
node 102 1 0 0
node 190 1 0 0
gene 3 1 4 8 0 1 8 1
gene 3 2 4 0.0434788 0 2 0.0434788 0
gene 1 3 4 7.60371 0 3 7.60371 1
gene 3 2 22 -4.3168 0 48 -4.3168 1
gene 3 22 4 -7.2235 0 49 -7.2235 1
gene 3 22 58 1.45944 0 177 1.45944 1
gene 2 58 4 -4.87179 0 178 -4.87179 1
gene 3 2 58 -2.26184 0 310 -2.26184 1
gene 3 2 102 0.317547 0 320 0.317547 1
gene 3 102 58 0.158025 0 321 0.158025 1
gene 3 3 22 -0.418134 0 333 -0.418134 0
gene 2 1 22 3.57772 0 360 3.57772 1
gene 3 3 190 -0.718263 0 585 -0.718263 1
gene 3 190 22 -5.18354 0 586 -5.18354 1
gene 2 190 102 0.293527 0 618 0.293527 1
gene 2 190 58 0.118032 0 648 0.118032 1
genomeend 20

/* Organism #21 Fitness: 6.82993 Error: 1.38659 */
genomestart 21
trait 1 0.0987943 0 0 0.0534519 0 0 0.0413909 0 
trait 2 0.286194 0.18377 0.162478 0 0.0342459 0.0160122 0.0778039 0.0978675 
trait 3 0.285937 0.147698 0.0425052 0.0338685 0.22744 0.013745 0 0.108743 
node 1 3 1 3
node 2 1 1 1
node 3 3 1 1
node 4 3 0 2
node 22 2 0 0
node 58 3 0 0
node 102 1 0 0
node 190 1 0 0
gene 3 1 4 8 0 1 8 1
gene 3 2 4 -2.232 0 2 -2.232 0
gene 1 3 4 -0.595001 0 3 -0.595001 1
gene 3 2 22 -3.99042 0 48 -3.99042 1
gene 3 22 4 -8 0 49 -8 1
gene 3 22 58 0.92534 0 177 0.92534 1
gene 2 58 4 -8 0 178 -8 1
gene 3 2 58 -0.79228 0 310 -0.79228 1
gene 3 2 102 1.83565 0 320 1.83565 1
gene 3 102 58 -0.52397 0 321 -0.52397 1
gene 3 3 22 0.702637 0 333 0.702637 0
gene 1 1 22 0.675346 0 360 0.675346 1
gene 3 3 190 1.87896 0 585 1.87896 1
gene 3 190 22 -1.0882 0 586 -1.0882 1
gene 2 190 102 -1.89673 0 618 -1.89673 1
gene 2 190 58 1.56462 0 648 1.56462 1
genomeend 21

/* Organism #22 Fitness: 8.99996 Error: 1.00001 */
genomestart 22
trait 1 0.0987943 0 0 0.0534519 0 0 0.0413909 0 
trait 2 0.286194 0.18377 0.162478 0 0.0342459 0.0160122 0.0778039 0.0978675 
trait 3 0.285937 0.147698 0.0425052 0.0338685 0.22744 0.013745 0 0.108743 
node 1 3 1 3
node 2 1 1 1
node 3 3 1 1
node 4 3 0 2
node 22 2 0 0
node 58 3 0 0
node 102 1 0 0
node 190 1 0 0
gene 3 1 4 5.57669 0 1 5.57669 1
gene 3 2 4 1.60954 0 2 1.60954 0
gene 1 3 4 7.1146 0 3 7.1146 1
gene 3 2 22 -6.67749 0 48 -6.67749 1
gene 3 22 4 -8 0 49 -8 1
gene 3 22 58 2.08575 0 177 2.08575 1
gene 2 58 4 -7.62787 0 178 -7.62787 1
gene 3 2 58 -4.46984 0 310 -4.46984 1
gene 3 2 102 1.20751 0 320 1.20751 1
gene 3 102 58 -2.76323 0 321 -2.76323 1
gene 3 3 22 -3.4719 0 333 -3.4719 0
gene 2 1 22 2.90754 0 360 2.90754 1
gene 3 3 190 1.55319 0 585 1.55319 1
gene 3 190 22 0.194955 0 586 0.194955 1
gene 2 190 102 1.29657 0 618 1.29657 1
gene 2 190 58 -1.2341 0 648 -1.2341 1
genomeend 22

/* Organism #23 Fitness: 8.09804 Error: 1.15429 */
genomestart 23
trait 1 0.0987943 0 0 0.0534519 0 0 0.0413909 0 
trait 2 0.286194 0.18377 0.142168 0 0.0299651 0.0160122 0.0778039 0.085634 
trait 3 0.285937 0.147698 0.0425052 0.0338685 0.22744 0.013745 0 0.108743 
node 1 3 1 3
node 2 1 1 1
node 3 3 1 1
node 4 3 0 2
node 22 2 0 0
node 58 3 0 0
node 102 2 0 0
node 190 1 0 0
gene 3 1 4 7.50386 0 1 7.50386 1
gene 3 2 4 -0.043686 0 2 -0.043686 0
gene 1 3 4 8 0 3 8 1
gene 3 2 22 -2.03513 0 48 -2.03513 1
gene 3 22 4 -7.1925 0 49 -7.1925 1
gene 3 22 58 3.51551 0 177 3.51551 1
gene 2 58 4 -8 0 178 -8 1
gene 3 2 58 -1.7142 0 310 -1.7142 1
gene 3 2 102 -0.468987 0 320 -0.468987 1
gene 3 102 58 -3.31965 0 321 -3.31965 1
gene 3 3 22 -2.06766 0 333 -2.06766 0
gene 2 1 22 2.41763 0 360 2.41763 1
gene 3 3 190 2.05986 0 585 2.05986 1
gene 3 190 22 -1.33206 0 586 -1.33206 1
gene 2 190 102 -0.864432 0 618 -0.864432 1
gene 2 190 58 0.337911 0 648 0.337911 1
genomeend 23

/* Organism #24 Fitness: 9 Error: 1 */
genomestart 24
trait 1 0.0987943 0 0 0.0534519 0 0 0.0413909 0 
trait 2 0.286194 0.18377 0.121858 0 0.0256844 0.0160122 0.0778039 0.0734006 
trait 3 0.285937 0.147698 0.0425052 0.0338685 0.22744 0.013745 0 0.108743 
node 1 3 1 3
node 2 1 1 1
node 3 3 1 1
node 4 3 0 2
node 22 2 0 0
node 58 3 0 0
node 102 1 0 0
node 190 1 0 0
gene 3 1 4 7.22021 0 1 7.22021 1
gene 3 2 4 -0.860756 0 2 -0.860756 0
gene 1 3 4 7.20156 0 3 7.20156 1
gene 3 2 22 -3.57673 0 48 -3.57673 1
gene 3 22 4 -6.2753 0 49 -6.2753 1
gene 3 22 58 1.98463 0 177 1.98463 1
gene 2 58 4 -7.68363 0 178 -7.68363 1
gene 3 2 58 -3.10024 0 310 -3.10024 1
gene 3 2 102 -0.412663 0 320 -0.412663 1
gene 3 102 58 -1.22937 0 321 -1.22937 1
gene 3 3 22 -0.928542 0 333 -0.928542 0
gene 2 1 22 2.82089 0 360 2.82089 1
gene 3 3 190 2.3359 0 585 2.3359 1
gene 3 190 22 -3.22984 0 586 -3.22984 1
gene 2 190 102 -0.439134 0 618 -0.439134 1
gene 2 190 58 0.337911 0 648 0.337911 1
gene 3 1 58 -0.980164 0 717 -0.980164 1
genomeend 24

/* Organism #25 Fitness: 9 Error: 1 */
genomestart 25
trait 1 0.0987943 0 0 0.0534519 0 0 0.0413909 0 
trait 2 0.286194 0.18377 0.142168 0 0.0299651 0.0160122 0.0778039 0.085634 
trait 3 0.285937 0.147698 0.0425052 0.0338685 0.22744 0.013745 0 0.108743 
node 1 3 1 3
node 2 1 1 1
node 3 3 1 1
node 4 3 0 2
node 22 2 0 0
node 58 3 0 0
node 102 1 0 0
node 190 1 0 0
gene 3 1 4 7.22021 0 1 7.22021 1
gene 3 2 4 -0.860756 0 2 -0.860756 0
gene 1 3 4 6.80316 0 3 6.80316 1
gene 3 2 22 -3.57673 0 48 -3.57673 1
gene 3 22 4 -7.52206 0 49 -7.52206 1
gene 3 22 58 1.98463 0 177 1.98463 1
gene 2 58 4 -7.68363 0 178 -7.68363 1
gene 3 2 58 -1.9887 0 310 -1.9887 1
gene 3 2 102 0.564423 0 320 0.564423 1
gene 3 102 58 -1.22937 0 321 -1.22937 1
gene 3 3 22 -0.959673 0 333 -0.959673 0
gene 2 1 22 2.82089 0 360 2.82089 1
gene 3 3 190 0.94176 0 585 0.94176 1
gene 3 190 22 -3.22984 0 586 -3.22984 1
gene 2 190 102 -0.864432 0 618 -0.864432 1
gene 2 190 58 0.118032 0 648 0.118032 1
genomeend 25

/* Organism #26 Fitness: 4 Error: 2 */
genomestart 26
trait 1 0.0987943 0 0 0.0534519 0 0 0.0413909 0 
trait 2 0.286194 0.18377 0.142168 0 0.0299651 0.0160122 0.0778039 0.085634 
trait 3 0.285937 0.147698 0.0425052 0.0338685 0.22744 0.013745 0 0.108743 
node 1 3 1 3
node 2 1 1 1
node 3 3 1 1
node 4 3 0 2
node 22 2 0 0
node 58 3 0 0
node 102 1 0 0
node 190 1 0 0
gene 3 1 4 6.45658 0 1 6.45658 1
gene 3 2 4 -0.860756 0 2 -0.860756 0
gene 1 3 4 -1.70772 0 3 -1.70772 1
gene 3 2 22 -4.08964 0 48 -4.08964 1
gene 3 22 4 -0.00980269 0 49 -0.00980269 1
gene 3 22 58 -2.1655 0 177 -2.1655 1
gene 2 58 4 -8 0 178 -8 1
gene 3 2 58 -3.11696 0 310 -3.11696 1
gene 3 2 102 -0.689395 0 320 -0.689395 1
gene 3 102 58 -0.407012 0 321 -0.407012 1
gene 3 3 22 -1.57474 0 333 -1.57474 0
gene 2 1 22 2.53471 0 360 2.53471 1
gene 3 3 190 -2.03364 0 585 -2.03364 1
gene 3 190 22 -1.62259 0 586 -1.62259 1
gene 2 190 102 -0.70899 0 618 -0.70899 1
gene 2 190 58 0.118032 0 648 0.118032 1
genomeend 26

/* Organism #27 Fitness: 5.28348 Error: 1.70142 */
genomestart 27
trait 1 0.0987943 0 0 0.0534519 0 0 0.0413909 0 
trait 2 0.286194 0.18377 0.142168 0 0.0299651 0.0160122 0.0778039 0.085634 
trait 3 0.285937 0.147698 0.0425052 0.0338685 0.22744 0.013745 0 0.108743 
node 1 3 1 3
node 2 1 1 1
node 3 3 1 1
node 4 3 0 2
node 22 2 0 0
node 58 3 0 0
node 102 1 0 0
node 190 1 0 0
gene 3 1 4 8 0 1 8 1
gene 3 2 4 -0.915381 0 2 -0.915381 0
gene 1 3 4 8 0 3 8 1
gene 3 2 22 0.702692 0 48 0.702692 1
gene 3 22 4 -8 0 49 -8 1
gene 3 22 58 -0.816928 0 177 -0.816928 1
gene 2 58 4 -6.80555 0 178 -6.80555 1
gene 3 2 58 -1.50239 0 310 -1.50239 1
gene 3 2 102 -2.86758 0 320 -2.86758 1
gene 3 102 58 -2.06094 0 321 -2.06094 1
gene 3 3 22 -2.04714 0 333 -2.04714 1
gene 2 1 22 4.42888 0 360 4.42888 1
gene 3 3 190 -0.483185 0 585 -0.483185 1
gene 3 190 22 -2.39948 0 586 -2.39948 1
gene 2 190 102 -1.91937 0 618 -1.91937 1
gene 2 190 58 0.391279 0 648 0.391279 1
genomeend 27

/* Organism #28 Fitness: 4 Error: 2 */
genomestart 28
trait 1 0.0987943 0 0 0.0534519 0 0 0.0413909 0 
trait 2 0.286194 0.18377 0.142168 0 0.0299651 0.0160122 0.0778039 0.085634 
trait 3 0.285937 0.147698 0.0425052 0.0338685 0.22744 0.013745 0 0.108743 
node 1 3 1 3
node 2 1 1 1
node 3 3 1 1
node 4 3 0 2
node 22 2 0 0
node 58 3 0 0
node 102 1 0 0
node 190 1 0 0
gene 3 1 4 5.75033 0 1 5.75033 1
gene 3 2 4 -0.526825 0 2 -0.526825 0
gene 1 3 4 6.9115 0 3 6.9115 1
gene 3 2 22 -2.86485 0 48 -2.86485 1
gene 3 22 4 -8 0 49 -8 1
gene 3 22 58 0.333724 0 177 0.333724 1
gene 2 58 4 -8 0 178 -8 1
gene 3 2 58 -4.08798 0 310 -4.08798 1
gene 1 2 102 0.166231 0 320 0.166231 1
gene 3 102 58 1.10978 0 321 1.10978 1
gene 3 3 22 -2.13141 0 333 -2.13141 0
gene 2 1 22 3.77338 0 360 3.77338 1
gene 3 3 190 -0.556003 0 585 -0.556003 1
gene 3 190 22 -3.647 0 586 -3.647 1
gene 2 190 102 -0.864432 0 618 -0.864432 1
gene 2 190 58 2.38847 0 648 2.38847 1
genomeend 28

/* Species #34 : (Size 10) (AF 7.11592) (Age 11)  */


/* Organism #29 Fitness: 8.97252 Error: 1.00458 */
genomestart 29
trait 1 0.0987943 0 0 0.0534519 0 0 0.0413909 0 
trait 2 0.248258 0.162866 0.173309 0 0 0.0170796 0.0829908 0.0978675 
trait 3 0.285937 0.147698 0.0425052 0.0338685 0.22744 0.013745 0 0.108743 
node 1 1 1 3
node 2 1 1 1
node 3 3 1 1
node 4 3 0 2
node 22 2 0 0
node 58 3 0 0
node 102 1 0 0
node 201 1 0 0
gene 1 1 4 -1.86727 0 1 -1.86727 1
gene 3 2 4 0.787794 0 2 0.787794 0
gene 1 3 4 6.10685 0 3 6.10685 1
gene 3 2 22 -4.07592 0 48 -4.07592 1
gene 3 22 4 -2.09263 0 49 -2.09263 1
gene 3 22 58 -7.62068 0 177 -7.62068 1
gene 2 58 4 -5.62743 0 178 -5.62743 1
gene 2 2 58 5.80556 0 310 5.80556 1
gene 3 2 102 2.51944 0 320 2.51944 1
gene 3 102 58 -1.52719 0 321 -1.52719 1
gene 3 3 22 -4.92708 0 333 -4.92708 0
gene 2 1 22 2.68723 0 360 2.68723 1
gene 2 3 58 -3.68832 0 580 -3.68832 1
gene 3 3 201 -0.691209 0 616 -0.691209 1
gene 3 201 22 -1.81628 0 617 -1.81628 1
gene 3 102 201 0.360037 0 706 0.360037 1
genomeend 29

/* Organism #30 Fitness: 8.98548 Error: 1.00242 */
genomestart 30
trait 1 0.0987943 0 0 0.0534519 0 0 0.0413909 0 
trait 2 0.248258 0.162866 0.173309 0 0 0.0170796 0.0829908 0.0978675 
trait 3 0.285937 0.147698 0.0425052 0.0338685 0.22744 0.013745 0 0.108743 
node 1 1 1 3
node 2 1 1 1
node 3 3 1 1
node 4 3 0 2
node 22 2 0 0
node 58 3 0 0
node 102 1 0 0
node 201 1 0 0
gene 1 1 4 -1.86727 0 1 -1.86727 1
gene 3 2 4 0.787794 0 2 0.787794 0
gene 1 3 4 6.10685 0 3 6.10685 1
gene 3 2 22 -4.07592 0 48 -4.07592 1
gene 3 22 4 -2.09263 0 49 -2.09263 1
gene 3 22 58 -7.62068 0 177 -7.62068 1
gene 2 58 4 -5.62743 0 178 -5.62743 1
gene 2 2 58 5.80556 0 310 5.80556 1
gene 3 2 102 2.51944 0 320 2.51944 1
gene 3 102 58 -1.52719 0 321 -1.52719 1
gene 3 3 22 -4.92708 0 333 -4.92708 0
gene 2 1 22 2.68723 0 360 2.68723 1
gene 2 3 58 -3.68832 0 580 -3.68832 1
gene 3 3 201 -0.691209 0 616 -0.691209 1
gene 3 201 22 -1.81628 0 617 -1.81628 1
gene 3 102 201 0.360037 0 706 0.360037 1
gene 1 201 58 0.76035 0 718 0.76035 1
genomeend 30

/* Organism #31 Fitness: 8.97188 Error: 1.00469 */
genomestart 31
trait 1 0.0987943 0 0 0.0534519 0 0 0.0413909 0 
trait 2 0.248258 0.162866 0.173309 0 0 0.0170796 0.0829908 0.0978675 
trait 3 0.285937 0.147698 0.0425052 0.0338685 0.22744 0.013745 0 0.108743 
node 1 1 1 3
node 2 1 1 1
node 3 3 1 1
node 4 3 0 2
node 22 2 0 0
node 58 3 0 0
node 102 1 0 0
node 201 1 0 0
gene 1 1 4 -1.86727 0 1 -1.86727 1
gene 3 2 4 0.787794 0 2 0.787794 0
gene 1 3 4 6.10685 0 3 6.10685 1
gene 3 2 22 -4.07592 0 48 -4.07592 1
gene 3 22 4 -2.09263 0 49 -2.09263 1
gene 3 22 58 -7.62068 0 177 -7.62068 1
gene 2 58 4 -5.62743 0 178 -5.62743 1
gene 2 2 58 5.80556 0 310 5.80556 1
gene 3 2 102 2.51944 0 320 2.51944 1
gene 3 102 58 -1.52719 0 321 -1.52719 1
gene 3 3 22 -4.92708 0 333 -4.92708 0
gene 2 1 22 2.68723 0 360 2.68723 1
gene 2 3 58 -3.68832 0 580 -3.68832 1
gene 3 3 201 -0.691209 0 616 -0.691209 1
gene 3 201 22 -1.81628 0 617 -1.81628 1
genomeend 31

/* Organism #32 Fitness: 8.97252 Error: 1.00458 */
genomestart 32
trait 1 0.0987943 0 0 0.0534519 0 0 0.0413909 0 
trait 2 0.248258 0.162866 0.173309 0 0 0.0170796 0.0829908 0.0978675 
trait 3 0.285937 0.147698 0.0425052 0.0338685 0.22744 0.013745 0 0.108743 
node 1 1 1 3
node 2 1 1 1
node 3 3 1 1
node 4 3 0 2
node 22 2 0 0
node 58 3 0 0
node 102 1 0 0
node 201 1 0 0
gene 1 1 4 -1.86727 0 1 -1.86727 1
gene 3 2 4 0.787794 0 2 0.787794 0
gene 1 3 4 6.10685 0 3 6.10685 1
gene 3 2 22 -4.07592 0 48 -4.07592 1
gene 3 22 4 -2.09263 0 49 -2.09263 1
gene 3 22 58 -7.62068 0 177 -7.62068 1
gene 2 58 4 -5.62743 0 178 -5.62743 1
gene 2 2 58 5.80556 0 310 5.80556 1
gene 3 2 102 2.51944 0 320 2.51944 1
gene 3 102 58 -1.52719 0 321 -1.52719 1
gene 3 3 22 -4.92708 0 333 -4.92708 0
gene 2 1 22 2.68723 0 360 2.68723 1
gene 2 3 58 -3.68832 0 580 -3.68832 1
gene 3 3 201 -0.691209 0 616 -0.691209 1
gene 3 201 22 -1.81628 0 617 -1.81628 1
gene 3 102 201 0.360037 0 706 0.360037 1
genomeend 32

/* Organism #33 Fitness: 8.97252 Error: 1.00458 */
genomestart 33
trait 1 0.0987943 0 0 0.0534519 0 0 0.0413909 0 
trait 2 0.248258 0.162866 0.173309 0 0 0.0170796 0.0829908 0.0978675 
trait 3 0.285937 0.147698 0.0425052 0.0338685 0.22744 0.013745 0 0.108743 
node 1 1 1 3
node 2 1 1 1
node 3 3 1 1
node 4 3 0 2
node 22 2 0 0
node 58 3 0 0
node 102 1 0 0
node 201 1 0 0
gene 1 1 4 -1.86727 0 1 -1.86727 1
gene 3 2 4 0.787794 0 2 0.787794 0
gene 1 3 4 6.10685 0 3 6.10685 1
gene 3 2 22 -4.07592 0 48 -4.07592 1
gene 3 22 4 -2.09263 0 49 -2.09263 1
gene 3 22 58 -7.62068 0 177 -7.62068 1
gene 2 58 4 -5.62743 0 178 -5.62743 1
gene 2 2 58 5.80556 0 310 5.80556 1
gene 3 2 102 2.51944 0 320 2.51944 1
gene 3 102 58 -1.52719 0 321 -1.52719 1
gene 3 3 22 -4.92708 0 333 -4.92708 0
gene 2 1 22 2.68723 0 360 2.68723 1
gene 2 3 58 -3.68832 0 580 -3.68832 1
gene 3 3 201 -0.691209 0 616 -0.691209 1
gene 3 201 22 -1.81628 0 617 -1.81628 1
gene 3 102 201 0.360037 0 706 0.360037 1
genomeend 33

/* Organism #34 Fitness: 4 Error: 2 */
genomestart 34
trait 1 0.0987943 0 0 0.0534519 0 0 0.0413909 0 
trait 2 0.248258 0.162866 0.173309 0 0 0.0170796 0.0829908 0.0978675 
trait 3 0.285937 0.147698 0.0425052 0.0338685 0.22744 0.013745 0 0.108743 
node 1 1 1 3
node 2 1 1 1
node 3 3 1 1
node 4 3 0 2
node 22 2 0 0
node 58 3 0 0
node 102 1 0 0
node 201 1 0 0
gene 1 1 4 -1.23132 0 1 -1.23132 1
gene 3 2 4 -0.6232 0 2 -0.6232 0
gene 1 3 4 6.99772 0 3 6.99772 1
gene 3 2 22 -2.13443 0 48 -2.13443 1
gene 3 22 4 -2.05959 0 49 -2.05959 1
gene 3 22 58 1.98517 0 177 1.98517 1
gene 2 58 4 -0.801846 0 178 -0.801846 1
gene 2 2 58 4.09354 0 310 4.09354 1
gene 3 2 102 2.11089 0 320 2.11089 1
gene 3 102 58 0.938062 0 321 0.938062 1
gene 3 3 22 -4.92708 0 333 -4.92708 0
gene 2 1 22 4.38741 0 360 4.38741 1
gene 2 3 58 -2.73977 0 580 -2.73977 1
gene 3 3 201 -0.454816 0 616 -0.454816 1
gene 3 201 22 -0.0469564 0 617 -0.0469564 1
gene 3 102 201 0.431641 0 706 0.431641 1
genomeend 34

/* Organism #35 Fitness: 1 Error: 3 */
genomestart 35
trait 1 0.0987943 0 0 0.0534519 0 0 0.0413909 0 
trait 2 0.248258 0.162866 0.173309 0 0 0.0170796 0.0829908 0.0978675 
trait 3 0.285937 0.147698 0.0425052 0.0338685 0.22744 0.013745 0 0.108743 
node 1 1 1 3
node 2 1 1 1
node 3 3 1 1
node 4 3 0 2
node 22 2 0 0
node 58 3 0 0
node 102 1 0 0
node 201 1 0 0
gene 1 1 4 0.751851 0 1 0.751851 1
gene 3 2 4 -1.78816 0 2 -1.78816 0
gene 1 3 4 8 0 3 8 1
gene 3 2 22 -4.62373 0 48 -4.62373 1
gene 3 22 4 1.91047 0 49 1.91047 1
gene 3 22 58 -7.62068 0 177 -7.62068 1
gene 2 58 4 -4.14273 0 178 -4.14273 1
gene 2 2 58 6.53805 0 310 6.53805 1
gene 3 2 102 4.26903 0 320 4.26903 1
gene 3 102 58 -1.52719 0 321 -1.52719 1
gene 3 3 22 -6.28011 0 333 -6.28011 0
gene 2 1 22 2.68723 0 360 2.68723 1
gene 2 3 58 -3.68832 0 580 -3.68832 1
gene 3 3 201 -2.3083 0 616 -2.3083 1
gene 3 201 22 -1.81628 0 617 -1.81628 1
gene 3 102 201 -0.412831 0 706 -0.412831 1
genomeend 35

/* Organism #36 Fitness: 8.97188 Error: 1.00469 */
genomestart 36
trait 1 0.0987943 0 0 0.0534519 0 0 0.0413909 0 
trait 2 0.248258 0.162866 0.173309 0 0 0.0170796 0.0829908 0.0978675 
trait 3 0.285937 0.147698 0.0425052 0.0338685 0.22744 0.013745 0 0.108743 
node 1 1 1 3
node 2 1 1 1
node 3 3 1 1
node 4 3 0 2
node 22 2 0 0
node 58 3 0 0
node 102 1 0 0
node 201 1 0 0
gene 1 1 4 -1.86727 0 1 -1.86727 1
gene 3 2 4 0.787794 0 2 0.787794 0
gene 1 3 4 6.10685 0 3 6.10685 1
gene 3 2 22 -4.07592 0 48 -4.07592 1
gene 3 22 4 -2.09263 0 49 -2.09263 1
gene 3 22 58 -7.62068 0 177 -7.62068 1
gene 2 58 4 -5.62743 0 178 -5.62743 1
gene 2 2 58 5.80556 0 310 5.80556 1
gene 3 2 102 2.51944 0 320 2.51944 1
gene 3 102 58 -1.52719 0 321 -1.52719 1
gene 3 3 22 -4.92708 0 333 -4.92708 0
gene 2 1 22 2.68723 0 360 2.68723 1
gene 2 3 58 -3.68832 0 580 -3.68832 1
gene 3 3 201 -0.691209 0 616 -0.691209 1
gene 3 201 22 -1.81628 0 617 -1.81628 1
gene 3 1 102 0.777654 0 719 0.777654 1
genomeend 36

/* Organism #37 Fitness: 3.33991 Error: 2.17246 */
genomestart 37
trait 1 0.0987943 0 0 0.0534519 0 0 0.0413909 0 
trait 2 0.248258 0.162866 0.173309 0 0 0.0170796 0.0829908 0.0978675 
trait 3 0.285937 0.147698 0.0425052 0.0338685 0.22744 0.013745 0 0.108743 
node 1 1 1 3
node 2 1 1 1
node 3 3 1 1
node 4 3 0 2
node 22 2 0 0
node 58 3 0 0
node 102 1 0 0
node 201 1 0 0
gene 1 1 4 -2.37353 0 1 -2.37353 1
gene 3 2 4 1.39398 0 2 1.39398 0
gene 1 3 4 4.78463 0 3 4.78463 1
gene 3 2 22 -6.14075 0 48 -6.14075 1
gene 3 22 4 -2.09263 0 49 -2.09263 1
gene 3 22 58 -7.58628 0 177 -7.58628 1
gene 2 58 4 -7.60596 0 178 -7.60596 1
gene 2 2 58 6.19488 0 310 6.19488 1
gene 3 2 102 3.12451 0 320 3.12451 1
gene 3 102 58 -3.00599 0 321 -3.00599 1
gene 3 3 22 0.069885 0 333 0.069885 0
gene 2 1 22 2.78322 0 360 2.78322 1
gene 2 3 58 -5.05373 0 580 -5.05373 1
gene 3 3 201 -0.86156 0 616 -0.86156 1
gene 1 201 22 0.467413 0 617 0.467413 1
genomeend 37

/* Organism #38 Fitness: 8.97252 Error: 1.00458 */
genomestart 38
trait 1 0.0987943 0 0 0.0534519 0 0 0.0413909 0 
trait 2 0.248258 0.162866 0.173309 0 0 0.0170796 0.0829908 0.0978675 
trait 3 0.285937 0.147698 0.0425052 0.0338685 0.22744 0.013745 0 0.108743 
node 1 1 1 3
node 2 1 1 1
node 3 3 1 1
node 4 3 0 2
node 22 2 0 0
node 58 3 0 0
node 102 1 0 0
node 201 1 0 0
gene 1 1 4 -1.86727 0 1 -1.86727 1
gene 3 2 4 0.787794 0 2 0.787794 0
gene 1 3 4 6.10685 0 3 6.10685 1
gene 3 2 22 -4.07592 0 48 -4.07592 1
gene 3 22 4 -2.09263 0 49 -2.09263 1
gene 3 22 58 -7.62068 0 177 -7.62068 1
gene 2 58 4 -5.62743 0 178 -5.62743 1
gene 2 2 58 5.80556 0 310 5.80556 1
gene 3 2 102 2.51944 0 320 2.51944 1
gene 3 102 58 -1.52719 0 321 -1.52719 1
gene 3 3 22 -4.92708 0 333 -4.92708 0
gene 2 1 22 2.68723 0 360 2.68723 1
gene 2 3 58 -3.68832 0 580 -3.68832 1
gene 3 3 201 -0.691209 0 616 -0.691209 1
gene 3 201 22 -1.81628 0 617 -1.81628 1
gene 3 102 201 0.360037 0 706 0.360037 1
genomeend 38

/* Species #35 : (Size 11) (AF 8.24334) (Age 10)  */


/* Organism #39 Fitness: 9.82206 Error: 0.865984 */
genomestart 39
trait 1 0.0987943 0 0 0.0534519 0 0 0.0413909 0 
trait 2 0.248258 0.162866 0.173309 0 0 0.0170796 0.0829908 0.0978675 
trait 3 0.285937 0.147698 0.0425052 0.0338685 0.22744 0.013745 0 0.108743 
node 1 3 1 3
node 2 1 1 1
node 3 3 1 1
node 4 3 0 2
node 22 2 0 0
node 58 3 0 0
node 102 1 0 0
node 197 1 0 0
gene 3 1 4 4.71042 0 1 4.71042 1
gene 3 2 4 0.873868 0 2 0.873868 0
gene 1 3 4 -0.604777 0 3 -0.604777 1
gene 3 2 22 -8 0 48 -8 1
gene 3 22 4 -7.47299 0 49 -7.47299 1
gene 3 22 58 2.69883 0 177 2.69883 1
gene 2 58 4 -8 0 178 -8 1
gene 3 2 58 -3.31069 0 310 -3.31069 0
gene 3 2 102 2.88677 0 320 2.88677 1
gene 3 102 58 -3.88043 0 321 -3.88043 1
gene 3 3 22 -7.05402 0 333 -7.05402 1
gene 2 1 22 1.07348 0 360 1.07348 1
gene 1 102 4 -3.01818 0 575 -3.01818 1
gene 1 3 58 -1.50864 0 583 -1.50864 1
gene 1 102 197 0.180984 0 605 0.180984 1
gene 1 197 4 -1.01946 0 606 -1.01946 1
genomeend 39

/* Organism #40 Fitness: 7.90166 Error: 1.18901 */
genomestart 40
trait 1 0.0987943 0 0 0.0534519 0 0 0.0413909 0 
trait 2 0.248258 0.162866 0.173309 0 0 0.0170796 0.0829908 0.0978675 
trait 3 0.285937 0.147698 0.0425052 0.0338685 0.22744 0.013745 0 0.108743 
node 1 3 1 3
node 2 1 1 1
node 3 3 1 1
node 4 3 0 2
node 22 2 0 0
node 58 3 0 0
node 102 1 0 0
node 197 1 0 0
gene 3 1 4 4.43669 0 1 4.43669 1
gene 3 2 4 0.972045 0 2 0.972045 0
gene 1 3 4 -0.955724 0 3 -0.955724 1
gene 3 2 22 0.244958 0 48 0.244958 1
gene 3 22 4 -8 0 49 -8 1
gene 3 22 58 1.77784 0 177 1.77784 1
gene 2 58 4 -8 0 178 -8 1
gene 3 2 58 -5.03362 0 310 -5.03362 0
gene 3 2 102 3.0388 0 320 3.0388 1
gene 3 102 58 -5.35851 0 321 -5.35851 1
gene 3 3 22 -6.49663 0 333 -6.49663 1
gene 2 1 22 3.38067 0 360 3.38067 1
gene 1 102 4 -3.68485 0 575 -3.68485 1
gene 1 3 58 -1.65954 0 583 -1.65954 1
gene 1 102 197 0.93058 0 605 0.93058 1
gene 1 197 4 -1.47819 0 606 -1.47819 1
genomeend 40

/* Organism #41 Fitness: 8.91038 Error: 1.01497 */
genomestart 41
trait 1 0.0987943 0 0 0.0534519 0 0 0.0413909 0 
trait 2 0.248258 0.162866 0.173309 0 0 0.0170796 0.0829908 0.0978675 
trait 3 0.285937 0.147698 0.0425052 0.0338685 0.22744 0.013745 0 0.108743 
node 1 3 1 3
node 2 1 1 1
node 3 3 1 1
node 4 3 0 2
node 22 2 0 0
node 58 3 0 0
node 102 1 0 0
node 197 1 0 0
gene 1 1 4 8 0 1 8 1
gene 3 2 4 2.92751 0 2 2.92751 0
gene 1 3 4 2.22788 0 3 2.22788 1
gene 3 2 22 -4.88309 0 48 -4.88309 1
gene 3 22 4 -8 0 49 -8 1
gene 3 22 58 4.21925 0 177 4.21925 1
gene 2 58 4 -1.46755 0 178 -1.46755 1
gene 3 2 58 -3.53459 0 310 -3.53459 0
gene 3 2 102 -2.00307 0 320 -2.00307 1
gene 3 102 58 0.430422 0 321 0.430422 1
gene 3 3 22 -1.35531 0 333 -1.35531 1
gene 2 1 22 4.07635 0 360 4.07635 1
gene 1 102 4 0.210618 0 575 0.210618 1
gene 3 3 58 1.22543 0 583 1.22543 1
gene 1 102 197 2.7743 0 605 2.7743 1
gene 1 197 4 -0.447178 0 606 -0.447178 1
gene 3 3 197 -2.0895 0 709 -2.0895 1
genomeend 41

/* Organism #42 Fitness: 5.00012 Error: 1.7639 */
genomestart 42
trait 1 0.0987943 0 0 0.0534519 0 0 0.0413909 0 
trait 2 0.248258 0.162866 0.173309 0 0 0.0170796 0.0829908 0.0978675 
trait 3 0.285937 0.147698 0.0425052 0.0338685 0.22744 0.013745 0 0.108743 
node 1 3 1 3
node 2 1 1 1
node 3 3 1 1
node 4 3 0 2
node 22 2 0 0
node 58 3 0 0
node 102 1 0 0
node 197 1 0 0
gene 3 1 4 1.84202 0 1 1.84202 1
gene 3 2 4 -0.363531 0 2 -0.363531 0
gene 1 3 4 2.16722 0 3 2.16722 1
gene 3 2 22 -4.09039 0 48 -4.09039 1
gene 3 22 4 -7.03975 0 49 -7.03975 1
gene 3 22 58 3.45904 0 177 3.45904 1
gene 2 58 4 -7.65659 0 178 -7.65659 1
gene 3 2 58 -2.34886 0 310 -2.34886 0
gene 3 2 102 1.45721 0 320 1.45721 1
gene 3 102 58 -2.56062 0 321 -2.56062 1
gene 3 3 22 -5.50781 0 333 -5.50781 1
gene 2 1 22 1.69501 0 360 1.69501 1
gene 1 102 4 -0.0269049 0 575 -0.0269049 1
gene 3 3 58 -1.11927 0 583 -1.11927 1
gene 1 102 197 1.02148 0 605 1.02148 1
gene 1 197 4 -2.06703 0 606 -2.06703 1
genomeend 42

/* Organism #43 Fitness: 4 Error: 2 */
genomestart 43
trait 1 0.0987943 0 0 0.0534519 0 0 0.0413909 0 
trait 2 0.248258 0.162866 0.173309 0 0 0.0170796 0.0829908 0.0978675 
trait 3 0.285937 0.147698 0.0425052 0.0338685 0.22744 0.013745 0 0.108743 
node 1 3 1 3
node 2 1 1 1
node 3 3 1 1
node 4 3 0 2
node 22 2 0 0
node 58 3 0 0
node 102 1 0 0
node 197 1 0 0
gene 3 1 4 4.71042 0 1 4.71042 1
gene 3 2 4 -1.16988 0 2 -1.16988 0
gene 1 3 4 -0.505893 0 3 -0.505893 1
gene 3 2 22 -6.52007 0 48 -6.52007 1
gene 3 22 4 -7.26085 0 49 -7.26085 1
gene 3 22 58 4.83992 0 177 4.83992 1
gene 2 58 4 -6.09317 0 178 -6.09317 1
gene 3 2 58 -1.29471 0 310 -1.29471 0
gene 3 2 102 2.18785 0 320 2.18785 1
gene 3 102 58 -3.88043 0 321 -3.88043 1
gene 3 3 22 -8 0 333 -8 1
gene 2 1 22 -0.882923 0 360 -0.882923 1
gene 1 102 4 -2.1581 0 575 -2.1581 1
gene 1 3 58 0.852406 0 583 0.852406 1
gene 1 102 197 1.23718 0 605 1.23718 1
gene 1 197 4 1.59831 0 606 1.59831 1
genomeend 43

/* Organism #44 Fitness: 9 Error: 1 */
genomestart 44
trait 1 0.0987943 0 0 0.0534519 0 0 0.0413909 0 
trait 2 0.248258 0.162866 0.173309 0 0 0.0170796 0.0829908 0.0978675 
trait 3 0.285937 0.147698 0.0425052 0.0338685 0.22744 0.013745 0 0.108743 
node 1 3 1 3
node 2 1 1 1
node 3 3 1 1
node 4 3 0 2
node 22 2 0 0
node 58 3 0 0
node 102 1 0 0
node 197 1 0 0
gene 3 1 4 8 0 1 8 1
gene 3 2 4 -0.323427 0 2 -0.323427 0
gene 1 3 4 2.76151 0 3 2.76151 1
gene 3 2 22 -2.19472 0 48 -2.19472 1
gene 3 22 4 -4.7408 0 49 -4.7408 1
gene 3 22 58 3.47215 0 177 3.47215 1
gene 2 58 4 -8 0 178 -8 1
gene 3 2 58 -3.34408 0 310 -3.34408 1
gene 3 2 102 -1.20393 0 320 -1.20393 1
gene 3 102 58 -0.462037 0 321 -0.462037 1
gene 3 3 22 -2.95197 0 333 -2.95197 1
gene 2 1 22 0.42989 0 360 0.42989 1
gene 1 102 4 -0.64095 0 575 -0.64095 1
gene 3 3 58 0.806746 0 583 0.806746 1
gene 1 102 197 0.787619 0 605 0.787619 1
gene 1 197 4 0.845126 0 606 0.845126 1
genomeend 44

/* Organism #45 Fitness: 15.0158 Error: 0.124974 */
/* ##------$ WINNER 45 SPECIES #35 $------## */
genomestart 45
trait 1 0.0987943 0 0 0.0534519 0 0 0.0413909 0 
trait 2 0.248258 0.162866 0.173309 0 0 0.0170796 0.0829908 0.0978675 
trait 3 0.285937 0.147698 0.0425052 0.0338685 0.22744 0.013745 0 0.108743 
node 1 3 1 3
node 2 1 1 1
node 3 3 1 1
node 4 3 0 2
node 22 2 0 0
node 58 3 0 0
node 102 1 0 0
node 197 1 0 0
gene 3 1 4 2.53153 0 1 2.53153 1
gene 3 2 4 1.84408 0 2 1.84408 0
gene 1 3 4 -1.25715 0 3 -1.25715 1
gene 3 2 22 -8 0 48 -8 1
gene 3 22 4 -5.77845 0 49 -5.77845 1
gene 3 22 58 1.13803 0 177 1.13803 1
gene 2 58 4 -6.66953 0 178 -6.66953 1
gene 3 2 58 -3.08318 0 310 -3.08318 0
gene 3 2 102 3.30337 0 320 3.30337 1
gene 3 102 58 -5.34426 0 321 -5.34426 1
gene 3 3 22 -3.33842 0 333 -3.33842 1
gene 2 1 22 0.897911 0 360 0.897911 1
gene 1 102 4 -2.91608 0 575 -2.91608 1
gene 3 3 58 -2.38713 0 583 -2.38713 1
gene 1 102 197 0.673401 0 605 0.673401 1
gene 1 197 4 1.0077 0 606 1.0077 1
genomeend 45

/* Organism #46 Fitness: 8.99633 Error: 1.00061 */
genomestart 46
trait 1 0.0987943 0 0 0.0534519 0 0 0.0413909 0 
trait 2 0.248258 0.162866 0.173309 0 0 0.0170796 0.0829908 0.0978675 
trait 3 0.285937 0.147698 0.0425052 0.0338685 0.22744 0.013745 0 0.108743 
node 1 3 1 3
node 2 1 1 1
node 3 3 1 1
node 4 3 0 2
node 22 2 0 0
node 58 3 0 0
node 102 1 0 0
node 197 1 0 0
gene 3 1 4 8 0 1 8 1
gene 2 2 4 1.06439 0 2 1.06439 0
gene 1 3 4 1.2436 0 3 1.2436 1
gene 3 2 22 -6.67571 0 48 -6.67571 1
gene 3 22 4 -5.39622 0 49 -5.39622 1
gene 3 22 58 0.729278 0 177 0.729278 1
gene 2 58 4 -7.19892 0 178 -7.19892 1
gene 3 2 58 -0.770835 0 310 -0.770835 0
gene 3 2 102 3.4474 0 320 3.4474 1
gene 3 102 58 -3.09018 0 321 -3.09018 1
gene 3 3 22 -4.94753 0 333 -4.94753 1
gene 2 1 22 3.31208 0 360 3.31208 1
gene 1 102 4 -3.50162 0 575 -3.50162 1
gene 3 3 58 -2.61144 0 583 -2.61144 1
gene 1 102 197 0.926704 0 605 0.926704 1
gene 1 197 4 -2.47127 0 606 -2.47127 1
genomeend 46

/* Organism #47 Fitness: 4.03041 Error: 1.99241 */
genomestart 47
trait 1 0.0987943 0 0 0.0534519 0 0 0.0413909 0 
trait 2 0.248258 0.162866 0.173309 0 0 0.0170796 0.0829908 0.0978675 
trait 3 0.285937 0.147698 0.0425052 0.0338685 0.22744 0.013745 0 0.108743 
node 1 3 1 3
node 2 1 1 1
node 3 3 1 1
node 4 3 0 2
node 22 2 0 0
node 58 3 0 0
node 102 1 0 0
node 197 1 0 0
gene 3 1 4 2.26054 0 1 2.26054 1
gene 3 2 4 1.94159 0 2 1.94159 0
gene 1 3 4 0.644285 0 3 0.644285 1
gene 3 2 22 -6.7067 0 48 -6.7067 1
gene 3 22 4 -7.10148 0 49 -7.10148 1
gene 3 22 58 1.752 0 177 1.752 1
gene 2 58 4 -8 0 178 -8 1
gene 3 2 58 -1.45751 0 310 -1.45751 0
gene 3 2 102 -1.05916 0 320 -1.05916 1
gene 3 102 58 -6.17102 0 321 -6.17102 1
gene 3 3 22 -5.20563 0 333 -5.20563 1
gene 2 1 22 0.578102 0 360 0.578102 1
gene 1 102 4 -2.13143 0 575 -2.13143 1
gene 3 3 58 -2.5578 0 583 -2.5578 1
gene 1 102 197 4.57116 0 605 4.57116 1
gene 1 197 4 0.817832 0 606 0.817832 1
genomeend 47

/* Organism #48 Fitness: 9 Error: 1 */
genomestart 48
trait 1 0.0987943 0 0 0.0534519 0 0 0.0413909 0 
trait 2 0.248258 0.162866 0.173309 0 0 0.0170796 0.0829908 0.0978675 
trait 3 0.285937 0.147698 0.0425052 0.0338685 0.22744 0.013745 0 0.108743 
node 1 3 1 3
node 2 1 1 1
node 3 3 1 1
node 4 3 0 2
node 22 2 0 0
node 58 3 0 0
node 102 1 0 0
node 197 1 0 0
gene 3 1 4 8 0 1 8 1
gene 3 2 4 1.36629 0 2 1.36629 0
gene 1 3 4 6.59104 0 3 6.59104 1
gene 3 2 22 -4.88309 0 48 -4.88309 1
gene 3 22 4 -8 0 49 -8 1
gene 3 22 58 4.21925 0 177 4.21925 1
gene 2 58 4 -8 0 178 -8 1
gene 3 2 58 -3.53459 0 310 -3.53459 0
gene 3 2 102 0.0276438 0 320 0.0276438 1
gene 3 102 58 -0.831941 0 321 -0.831941 1
gene 3 3 22 -3.9616 0 333 -3.9616 1
gene 2 1 22 3.20365 0 360 3.20365 1
gene 1 102 4 0.787082 0 575 0.787082 1
gene 3 3 58 -0.306977 0 583 -0.306977 1
gene 1 102 197 1.18531 0 605 0.935314 1
gene 1 197 4 -0.0337464 0 606 -0.0337464 1
gene 3 3 197 0.167002 0 709 0.167002 1
gene 1 197 58 -0.33412 0 720 -0.33412 1
genomeend 48

/* Organism #49 Fitness: 9 Error: 1 */
genomestart 49
trait 1 0.0987943 0 0 0.0534519 0 0 0.0413909 0 
trait 2 0.248258 0.162866 0.173309 0 0 0.0170796 0.0829908 0.0978675 
trait 3 0.285937 0.147698 0.0425052 0.0338685 0.22744 0.013745 0 0.108743 
node 1 3 1 3
node 2 1 1 1
node 3 3 1 1
node 4 3 0 2
node 22 2 0 0
node 58 3 0 0
node 102 1 0 0
node 197 1 0 0
gene 3 1 4 7.48659 0 1 7.48659 1
gene 3 2 4 0.649363 0 2 0.649363 1
gene 1 3 4 2.75335 0 3 2.75335 1
gene 3 2 22 -6.12082 0 48 -6.12082 1
gene 3 22 4 -7.09766 0 49 -7.09766 1
gene 3 22 58 3.47215 0 177 3.47215 1
gene 2 58 4 -8 0 178 -8 1
gene 3 2 58 -2.5765 0 310 -2.5765 1
gene 3 2 102 0.586698 0 320 0.586698 1
gene 3 102 58 -1.31415 0 321 -1.31415 1
gene 3 3 22 -4.87865 0 333 -4.87865 1
gene 2 1 22 2.77126 0 360 2.77126 1
gene 1 102 4 -0.161546 0 575 -0.161546 1
gene 3 3 58 -0.515598 0 583 -0.515598 1
gene 1 102 197 1.8202 0 605 1.6952 1
gene 1 197 4 0.486976 0 606 0.486976 1
gene 1 3 197 -0.485203 0 721 -0.485203 1
genomeend 49

/* Species #36 : (Size 8) (AF 5.74176) (Age 9)  */


/* Organism #50 Fitness: 8.97996 Error: 1.00334 */
genomestart 50
trait 1 0.0987943 0 0 0.0534519 0 0 0.0413909 0 
trait 2 0.248258 0.162866 0.173309 0 0 0.0170796 0.0829908 0.0978675 
trait 3 0.285937 0.147698 0.0425052 0.0338685 0.22744 0.013745 0 0.108743 
node 1 3 1 3
node 2 1 1 1
node 3 3 1 1
node 4 3 0 2
node 22 2 0 0
node 58 3 0 0
node 102 2 0 0
gene 3 1 4 -2.73886 0 1 -2.73886 1
gene 3 2 4 3.15096 0 2 3.15096 1
gene 1 3 4 -1.43846 0 3 -1.43846 1
gene 3 2 22 -0.865111 0 48 -0.865111 1
gene 3 22 4 1.54472 0 49 1.54472 1
gene 3 22 58 0.100177 0 177 0.100177 1
gene 2 58 4 -0.339428 0 178 -0.339428 1
gene 3 2 58 2.72808 0 310 2.72808 1
gene 3 2 102 0.19821 0 320 0.19821 1
gene 3 102 58 -5.48532 0 321 -5.48532 1
gene 3 3 22 -1.28989 0 333 -1.28989 1
gene 2 1 22 1.33609 0 360 1.33609 1
gene 2 3 58 4.23606 0 580 4.23606 1
gene 2 1 102 -0.746497 0 693 -0.746497 1
genomeend 50

/* Organism #51 Fitness: 3.77309 Error: 2.05756 */
genomestart 51
trait 1 0.0987943 0 0 0.0534519 0 0 0.0413909 0 
trait 2 0.248258 0.162866 0.173309 0 0 0.0170796 0.0829908 0.0978675 
trait 3 0.285937 0.147698 0.0425052 0.0338685 0.22744 0.013745 0 0.108743 
node 1 3 1 3
node 2 1 1 1
node 3 3 1 1
node 4 3 0 2
node 22 2 0 0
node 58 3 0 0
node 102 2 0 0
gene 3 1 4 -1.37691 0 1 -1.37691 1
gene 3 2 4 2.16016 0 2 2.16016 1
gene 1 3 4 0.0936201 0 3 0.0936201 1
gene 3 2 22 -1.20974 0 48 -1.20974 1
gene 3 22 4 2.13744 0 49 2.13744 1
gene 2 22 58 -1.92503 0 177 -1.92503 1
gene 2 58 4 -2.64965 0 178 -2.64965 1
gene 3 2 58 4.27279 0 310 4.27279 1
gene 3 2 102 -2.2458 0 320 -2.2458 1
gene 3 102 58 -5.52322 0 321 -5.52322 1
gene 3 3 22 -0.134914 0 333 -0.134914 1
gene 2 1 22 3.28739 0 360 3.28739 1
gene 2 3 58 4.28008 0 580 4.28008 1
gene 2 1 102 1.10324 0 693 1.10324 1
genomeend 51

/* Organism #52 Fitness: 3.8437 Error: 2.03946 */
genomestart 52
trait 1 0.0987943 0.35768 0 0 0 0 0.0413909 0 
trait 2 0.248258 0.162866 0.173309 0 0 0.0170796 0.0829908 0.0978675 
trait 3 0.285937 0.147698 0.0425052 0.0338685 0.22744 0.013745 0 0.108743 
node 1 3 1 3
node 2 1 1 1
node 3 3 1 1
node 4 3 0 2
node 22 2 0 0
node 58 3 0 0
node 102 2 0 0
gene 3 1 4 -0.423273 0 1 -0.423273 1
gene 3 2 4 1.59091 0 2 1.59091 1
gene 1 3 4 0.111509 0 3 0.111509 1
gene 3 2 22 -0.5846 0 48 -0.5846 1
gene 3 22 4 1.57061 0 49 1.57061 1
gene 2 22 58 2.03688 0 177 2.03688 1
gene 2 58 4 0.51412 0 178 0.51412 1
gene 3 2 58 2.87442 0 310 2.87442 1
gene 3 2 102 1.27816 0 320 1.27816 1
gene 3 102 58 -4.87547 0 321 -4.87547 1
gene 3 3 22 -1.34424 0 333 -1.34424 1
gene 2 1 22 1.24393 0 360 1.24393 1
gene 2 3 58 4.23606 0 580 4.23606 1
gene 2 1 102 1.18925 0 693 1.18925 1
genomeend 52

/* Organism #53 Fitness: 3.97961 Error: 2.0051 */
genomestart 53
trait 1 0.0987943 0 0 0.0534519 0 0 0.0413909 0 
trait 2 0.248258 0.162866 0.173309 0 0 0.0170796 0.0829908 0.0978675 
trait 3 0.285937 0.147698 0.0425052 0.0338685 0.22744 0.013745 0 0.108743 
node 1 3 1 3
node 2 1 1 1
node 3 3 1 1
node 4 3 0 2
node 22 2 0 0
node 58 3 0 0
node 102 2 0 0
gene 3 1 4 -1.32725 0 1 -1.32725 1
gene 3 2 4 3.15096 0 2 3.15096 1
gene 1 3 4 2.31267 0 3 2.31267 1
gene 3 2 22 -1.45305 0 48 -1.45305 1
gene 3 22 4 3.05427 0 49 3.05427 1
gene 2 22 58 0.100177 0 177 0.100177 1
gene 2 58 4 -0.339428 0 178 -0.339428 1
gene 3 2 58 4.61102 0 310 4.61102 1
gene 3 2 102 0.19821 0 320 0.19821 1
gene 3 102 58 -6.31405 0 321 -6.31405 1
gene 3 3 22 -1.79752 0 333 -1.79752 1
gene 2 1 22 0.310389 0 360 0.310389 1
gene 2 3 58 5.49939 0 580 5.49939 1
gene 2 1 102 1.12275 0 693 1.12275 1
genomeend 53

/* Organism #54 Fitness: 4 Error: 2 */
genomestart 54
trait 1 0.0987943 0 0 0.0534519 0 0 0.0413909 0 
trait 2 0.248258 0.162866 0.173309 0 0 0.0170796 0.0829908 0.0978675 
trait 3 0.129758 0.147698 0.0425052 0.9374 0 0 0 0.108743 
node 1 3 1 3
node 2 1 1 1
node 3 3 1 1
node 4 3 0 2
node 22 2 0 0
node 58 3 0 0
node 102 2 0 0
gene 3 1 4 -2.70086 0 1 -2.70086 1
gene 3 2 4 -1.08346 0 2 -1.08346 1
gene 1 3 4 -0.763477 0 3 -0.763477 1
gene 3 2 22 -2.59581 0 48 -2.59581 1
gene 3 22 4 -0.576429 0 49 -0.576429 1
gene 3 22 58 1.0536 0 177 1.0536 1
gene 2 58 4 -0.106149 0 178 -0.106149 1
gene 3 2 58 0.403128 0 310 0.403128 1
gene 3 2 102 -0.104746 0 320 -0.104746 1
gene 3 102 58 -4.30079 0 321 -4.30079 1
gene 3 3 22 -1.41906 0 333 -1.41906 1
gene 2 1 22 0.425195 0 360 0.425195 1
gene 2 3 58 2.54788 0 580 2.54788 1
gene 2 1 102 0.585231 0 693 0.585231 1
genomeend 54

/* Organism #55 Fitness: 8.97996 Error: 1.00334 */
genomestart 55
trait 1 0.0987943 0 0 0.0534519 0 0 0.0413909 0 
trait 2 0.248258 0.162866 0.173309 0 0 0.0170796 0.0829908 0.0978675 
trait 3 0.285937 0.147698 0.0425052 0.0338685 0.22744 0.013745 0 0.108743 
node 1 3 1 3
node 2 1 1 1
node 3 3 1 1
node 4 3 0 2
node 22 2 0 0
node 58 3 0 0
node 102 2 0 0
gene 3 1 4 -2.73886 0 1 -2.73886 1
gene 3 2 4 3.15096 0 2 3.15096 1
gene 1 3 4 -1.43846 0 3 -1.43846 1
gene 3 2 22 -0.865111 0 48 -0.865111 1
gene 3 22 4 1.54472 0 49 1.54472 1
gene 2 22 58 0.100177 0 177 0.100177 1
gene 2 58 4 -0.339428 0 178 -0.339428 1
gene 3 2 58 2.72808 0 310 2.72808 1
gene 3 2 102 0.19821 0 320 0.19821 1
gene 3 102 58 -5.48532 0 321 -5.48532 1
gene 3 3 22 -1.28989 0 333 -1.28989 1
gene 2 1 22 1.33609 0 360 1.33609 1
gene 2 3 58 4.23606 0 580 4.23606 1
gene 2 1 102 -0.746497 0 693 -0.746497 1
genomeend 55

/* Organism #56 Fitness: 8.0083 Error: 1.17011 */
genomestart 56
trait 1 0.0987943 0 0 0.0534519 0 0 0.0413909 0 
trait 2 0.248258 0.162866 0.173309 0 0 0.0170796 0.0829908 0.0978675 
trait 3 0.285937 0.147698 0.0425052 0.0338685 0.22744 0.013745 0 0.108743 
node 1 3 1 3
node 2 1 1 1
node 3 3 1 1
node 4 3 0 2
node 22 2 0 0
node 58 3 0 0
node 102 2 0 0
gene 3 1 4 -1.61125 0 1 -1.61125 1
gene 3 2 4 1.81753 0 2 1.81753 1
gene 1 3 4 -0.217892 0 3 -0.217892 1
gene 3 2 22 1.04694 0 48 1.04694 1
gene 3 22 4 3.05918 0 49 3.05918 1
gene 3 22 58 -2.06191 0 177 -2.06191 1
gene 2 58 4 -2.51615 0 178 -2.51615 1
gene 3 2 58 2.0422 0 310 2.0422 1
gene 3 2 102 -1.15434 0 320 -1.15434 1
gene 3 102 58 -7.04602 0 321 -7.04602 1
gene 3 3 22 -0.472464 0 333 -0.472464 1
gene 2 1 22 -0.795286 0 360 -0.795286 1
gene 2 3 58 4.23606 0 580 4.23606 1
gene 2 1 102 -0.319679 0 693 -0.319679 1
genomeend 56

/* Organism #57 Fitness: 4.36947 Error: 1.90967 */
genomestart 57
trait 1 0.0987943 0 0 0.0534519 0 0 0.0413909 0 
trait 2 0.248258 0.162866 0.173309 0 0 0.0170796 0.0829908 0.0978675 
trait 3 0.285937 0.147698 0.0425052 0.0338685 0.22744 0.013745 0 0.108743 
node 1 3 1 3
node 2 1 1 1
node 3 3 1 1
node 4 3 0 2
node 22 2 0 0
node 58 3 0 0
node 102 2 0 0
gene 3 1 4 -2.34596 0 1 -2.34596 1
gene 3 2 4 1.39307 0 2 1.39307 1
gene 1 3 4 -2.34054 0 3 -2.34054 1
gene 3 2 22 1.35576 0 48 1.35576 1
gene 3 22 4 3.0407 0 49 3.0407 1
gene 3 22 58 2.44143 0 177 2.44143 1
gene 2 58 4 0.625205 0 178 0.625205 1
gene 3 2 58 2.70408 0 310 2.70408 1
gene 3 2 102 -1.36731 0 320 -1.36731 1
gene 3 102 58 -3.58765 0 321 -3.58765 1
gene 3 3 22 -2.08473 0 333 -2.08473 1
gene 2 1 22 0.191989 0 360 0.191989 1
gene 2 3 58 4.37614 0 580 4.37614 1
gene 2 1 102 -1.17252 0 693 -1.17252 1
genomeend 57

/* Species #37 : (Size 16) (AF 5.81496) (Age 9)  */


/* Organism #58 Fitness: 8.91688 Error: 1.01388 */
genomestart 58
trait 1 0.0987943 0 0 0.0534519 0 0 0.0413909 0 
trait 2 0.400004 0.246481 0.129982 0 0.136984 0.0128097 0.0622431 0.0978675 
trait 3 0.285937 0.147698 0.0425052 0.0338685 0.22744 0.013745 0 0.108743 
node 1 3 1 3
node 2 1 1 1
node 3 3 1 1
node 4 3 0 2
node 22 2 0 0
node 58 3 0 0
node 102 1 0 0
node 190 1 0 0
node 207 1 0 0
gene 3 1 4 -0.13464 0 1 -0.13464 1
gene 3 2 4 1.38026 0 2 1.38026 1
gene 1 3 4 2.57679 0 3 2.57679 1
gene 3 2 22 -0.889701 0 48 -0.889701 0
gene 3 22 4 0.635288 0 49 0.635288 1
gene 3 22 58 -0.0872656 0 177 -0.0872656 1
gene 2 58 4 -0.822341 0 178 -0.822341 1
gene 3 2 58 -4.87599 0 310 -4.87599 1
gene 3 2 102 0.339147 0 320 0.339147 1
gene 3 102 58 1.09728 0 321 1.09728 1
gene 3 3 22 -2.51491 0 333 -2.51491 0
gene 2 1 22 -1.4029 0 360 -1.4029 1
gene 3 3 190 6.63897 0 585 6.63897 1
gene 3 190 22 -1.86243 0 586 -1.86243 1
gene 3 2 207 0.158629 0 632 0.158629 1
gene 3 207 22 -1.9545 0 633 -1.9545 1
genomeend 58

/* Organism #59 Fitness: 2.72632 Error: 2.34884 */
genomestart 59
trait 1 0.0987943 0 0 0.0534519 0 0 0.0413909 0 
trait 2 0.400004 0.246481 0.129982 0 0.136984 0.0128097 0.0622431 0.0978675 
trait 3 0.285937 0.147698 0.0425052 0.0338685 0.22744 0.013745 0 0.108743 
node 1 3 1 3
node 2 1 1 1
node 3 3 1 1
node 4 3 0 2
node 22 2 0 0
node 58 3 0 0
node 102 1 0 0
node 190 1 0 0
node 207 1 0 0
gene 3 1 4 -0.149477 0 1 -0.149477 1
gene 3 2 4 3.22086 0 2 3.22086 0
gene 1 3 4 0.830026 0 3 0.830026 1
gene 3 2 22 -0.205762 0 48 -0.205762 0
gene 3 22 4 0.420911 0 49 0.420911 1
gene 3 22 58 0.347517 0 177 0.347517 1
gene 2 58 4 -1.34916 0 178 -1.34916 1
gene 3 2 58 -4.873 0 310 -4.873 1
gene 3 2 102 -1.16358 0 320 -1.16358 1
gene 3 102 58 1.20853 0 321 1.20853 1
gene 3 3 22 -5.79111 0 333 -5.79111 0
gene 2 1 22 2.59296 0 360 2.59296 1
gene 3 3 190 6.04296 0 585 6.04296 1
gene 3 190 22 -3.87895 0 586 -3.87895 0
gene 3 2 207 0.658068 0 632 0.658068 1
gene 3 207 22 -3.06387 0 633 -3.06387 1
genomeend 59

/* Organism #60 Fitness: 8.99991 Error: 1.00002 */
genomestart 60
trait 1 0.0987943 0 0 0.0534519 0 0 0.0413909 0 
trait 2 0.400004 0.246481 0.129982 0 0.136984 0.0128097 0.0622431 0.0978675 
trait 3 0.285937 0.147698 0.0425052 0.0338685 0.22744 0.013745 0 0.108743 
node 1 3 1 3
node 2 1 1 1
node 3 3 1 1
node 4 3 0 2
node 22 2 0 0
node 58 3 0 0
node 102 1 0 0
node 190 1 0 0
node 207 1 0 0
node 222 1 0 0
gene 3 1 4 2.28773 0 1 2.28773 1
gene 3 2 4 3.01023 0 2 3.01023 0
gene 1 3 4 1.05473 0 3 1.05473 1
gene 3 2 22 -0.454915 0 48 -0.454915 0
gene 3 22 4 -1.86462 0 49 -1.86462 1
gene 3 22 58 3.89987 0 177 3.89987 1
gene 1 58 4 -4.07937 0 178 -4.07937 1
gene 3 2 58 -3.59263 0 310 -3.59263 1
gene 3 2 102 2.33138 0 320 2.33138 1
gene 3 102 58 -0.792247 0 321 -0.792247 1
gene 3 3 22 -5.88975 0 333 -5.88975 1
gene 2 1 22 2.70973 0 360 2.70973 1
gene 3 3 190 1.65731 0 585 1.65731 1
gene 3 190 22 -2.51324 0 586 -2.51324 1
gene 3 2 207 3.28962 0 632 3.28962 1
gene 3 207 22 -2.10596 0 633 -2.10596 1
gene 3 190 222 -0.602036 0 673 -0.602036 1
gene 3 222 22 -1.99071 0 674 -1.99071 1
genomeend 60

/* Organism #61 Fitness: 4.00001 Error: 2 */
genomestart 61
trait 1 0.0987943 0 0 0.0534519 0 0 0.0413909 0 
trait 2 0.200002 0.246481 0.129982 0 0.202391 0.0128097 0.0622431 0.0978675 
trait 3 0.285937 0.147698 0.0425052 0.0338685 0.22744 0.013745 0 0.108743 
node 1 3 1 3
node 2 1 1 1
node 3 3 1 1
node 4 3 0 2
node 22 2 0 0
node 58 3 0 0
node 102 1 0 0
node 190 1 0 0
node 207 1 0 0
gene 3 1 4 2.36647 0 1 2.36647 1
gene 3 2 4 4.0039 0 2 4.0039 0
gene 1 3 4 4.56456 0 3 4.56456 1
gene 3 2 22 -1.85107 0 48 -1.85107 0
gene 3 22 4 1.00681 0 49 1.00681 1
gene 3 22 58 0.639015 0 177 0.639015 1
gene 2 58 4 -3.78487 0 178 -3.78487 1
gene 3 2 58 -1.68773 0 310 -1.68773 1
gene 3 2 102 -1.1988 0 320 -1.1988 1
gene 3 102 58 -1.49648 0 321 -1.49648 1
gene 3 3 22 -5.30608 0 333 -5.30608 0
gene 2 1 22 2.09935 0 360 2.09935 1
gene 3 3 190 7.73763 0 585 7.73763 1
gene 3 190 22 -2.78212 0 586 -2.78212 1
gene 3 2 207 0.0479715 0 632 0.0479715 1
gene 3 207 22 -2.12369 0 633 -2.12369 1
genomeend 61

/* Organism #62 Fitness: 3.97922 Error: 2.0052 */
genomestart 62
trait 1 0.0987943 0 0 0.0534519 0 0 0.0413909 0 
trait 2 0.200002 0.246481 0.129982 0 0.202391 0.0128097 0.0622431 0.0978675 
trait 3 0.285937 0.147698 0.0425052 0.0338685 0.22744 0.013745 0 0.108743 
node 1 3 1 3
node 2 1 1 1
node 3 3 1 1
node 4 3 0 2
node 22 2 0 0
node 58 3 0 0
node 102 1 0 0
node 190 1 0 0
node 207 1 0 0
node 222 1 0 0
gene 3 1 4 0.347551 0 1 0.347551 1
gene 3 2 4 0.53842 0 2 0.53842 0
gene 1 3 4 3.78342 0 3 3.78342 1
gene 3 2 22 -3.6808 0 48 -3.6808 0
gene 3 22 4 -2.19717 0 49 -2.19717 1
gene 3 22 58 3.40349 0 177 3.40349 1
gene 2 58 4 -0.929121 0 178 -0.929121 1
gene 3 2 58 -2.81204 0 310 -2.81204 1
gene 3 2 102 1.64376 0 320 1.64376 1
gene 3 102 58 -0.436517 0 321 -0.436517 1
gene 3 3 22 -5.96948 0 333 -5.96948 0
gene 2 1 22 5.71453 0 360 5.71453 1
gene 3 3 190 4.08925 0 585 4.08925 1
gene 3 190 22 -5.03581 0 586 -5.03581 0
gene 3 2 207 0.0136242 0 632 0.0136242 1
gene 3 207 22 -3.44413 0 633 -3.44413 1
gene 3 190 222 1 0 673 1 1
gene 3 222 22 -3.06931 0 674 -3.06931 1
genomeend 62

/* Organism #63 Fitness: 3.99911 Error: 2.00022 */
genomestart 63
trait 1 0.0987943 0 0 0.0534519 0 0 0.0413909 0 
trait 2 0 0.246481 0.129982 0 0.267799 0.0128097 0.0622431 0.0978675 
trait 3 0.285937 0.147698 0.0425052 0.0338685 0.22744 0.013745 0 0.108743 
node 1 3 1 3
node 2 1 1 1
node 3 3 1 1
node 4 3 0 2
node 22 2 0 0
node 58 3 0 0
node 102 1 0 0
node 190 1 0 0
node 207 1 0 0
node 222 1 0 0
gene 3 1 4 1.84178 0 1 1.84178 1
gene 3 2 4 2.62724 0 2 2.62724 0
gene 1 3 4 1.79607 0 3 1.79607 1
gene 3 2 22 -2.62062 0 48 -2.62062 0
gene 3 22 4 -0.904767 0 49 -0.904767 1
gene 3 22 58 2.4887 0 177 2.4887 1
gene 2 58 4 -3.95657 0 178 -3.95657 1
gene 3 2 58 -3.08856 0 310 -3.08856 1
gene 3 2 102 0.823516 0 320 0.823516 1
gene 3 102 58 1.72277 0 321 1.72277 1
gene 3 3 22 -0.824043 0 333 -0.824043 0
gene 2 1 22 5.35087 0 360 5.35087 1
gene 3 3 190 3.04142 0 585 3.04142 1
gene 3 190 22 -0.0363447 0 586 -0.0363447 0
gene 3 2 207 1.15751 0 632 1.15751 1
gene 3 207 22 -2.0503 0 633 -2.0503 1
gene 3 190 222 -0.810963 0 673 -0.810963 1
gene 3 222 22 -1.05658 0 674 -1.05658 1
genomeend 63

/* Organism #64 Fitness: 3.59079 Error: 2.10506 */
genomestart 64
trait 1 0.0987943 0 0 0.0534519 0 0 0.0413909 0 
trait 2 0.400004 0.246481 0.129982 0 0.136984 0.0128097 0.0622431 0.0978675 
trait 3 0.285937 0.147698 0.0425052 0.0338685 0.22744 0.013745 0 0.108743 
node 1 3 1 3
node 2 1 1 1
node 3 3 1 1
node 4 3 0 2
node 22 2 0 0
node 58 3 0 0
node 102 1 0 0
node 190 1 0 0
node 207 1 0 0
gene 3 1 4 1.08338 0 1 1.08338 1
gene 3 2 4 -0.65111 0 2 -0.65111 1
gene 1 3 4 3.08776 0 3 3.08776 1
gene 3 2 22 1.13221 0 48 1.13221 0
gene 3 22 4 0.411942 0 49 0.411942 1
gene 3 22 58 2.21838 0 177 2.21838 1
gene 2 58 4 0.276095 0 178 0.276095 1
gene 3 2 58 -4.87599 0 310 -4.87599 1
gene 3 2 102 1.18649 0 320 1.18649 1
gene 3 102 58 1.4364 0 321 1.4364 1
gene 3 3 22 -1.04413 0 333 -1.04413 0
gene 2 1 22 0.737666 0 360 0.737666 1
gene 3 3 190 6.14785 0 585 6.14785 1
gene 3 190 22 -2.84612 0 586 -2.84612 1
gene 3 2 207 1.58634 0 632 1.58634 1
gene 3 207 22 -3.12874 0 633 -3.12874 1
genomeend 64

/* Organism #65 Fitness: 8.70086 Error: 1.05028 */
genomestart 65
trait 1 0.0987943 0 0 0.0534519 0 0 0.0413909 0 
trait 2 0.400004 0.246481 0.129982 0 0.136984 0.0128097 0.0622431 0.0978675 
trait 3 0.285937 0.147698 0.0425052 0.0338685 0.22744 0.013745 0 0.108743 
node 1 3 1 3
node 2 1 1 1
node 3 3 1 1
node 4 3 0 2
node 22 2 0 0
node 58 3 0 0
node 102 1 0 0
node 190 1 0 0
node 207 1 0 0
gene 3 1 4 -1.38997 0 1 -1.38997 1
gene 3 2 4 2.67282 0 2 2.67282 1
gene 1 3 4 2.26274 0 3 2.26274 1
gene 3 2 22 1.06627 0 48 1.06627 0
gene 3 22 4 2.79201 0 49 2.79201 1
gene 3 22 58 -2.1771 0 177 -2.1771 1
gene 2 58 4 0.847333 0 178 0.847333 1
gene 3 2 58 -3.86755 0 310 -3.86755 1
gene 3 2 102 -1.96299 0 320 -1.96299 1
gene 3 102 58 1.02295 0 321 1.02295 1
gene 3 3 22 -3.56006 0 333 -3.56006 0
gene 2 1 22 -3.00867 0 360 -3.00867 1
gene 3 3 190 5.28047 0 585 5.28047 1
gene 3 190 22 -2.85009 0 586 -2.85009 1
gene 3 2 207 -0.50308 0 632 -0.50308 1
gene 3 207 22 -1.97159 0 633 -1.97159 1
genomeend 65

/* Organism #66 Fitness: 4.05084 Error: 1.98733 */
genomestart 66
trait 1 0.0987943 0 0 0.0534519 0 0 0.0413909 0 
trait 2 0.400004 0.246481 0.129982 0 0.136984 0.0128097 0.0622431 0.0978675 
trait 3 0.285937 0.147698 0.0425052 0.0338685 0.22744 0.013745 0 0.108743 
node 1 3 1 3
node 2 1 1 1
node 3 3 1 1
node 4 3 0 2
node 22 2 0 0
node 58 3 0 0
node 102 1 0 0
node 190 1 0 0
node 207 1 0 0
gene 3 1 4 1.35691 0 1 1.35691 1
gene 3 2 4 1.84484 0 2 1.84484 1
gene 1 3 4 3.42784 0 3 3.42784 1
gene 3 2 22 2.36845 0 48 2.36845 0
gene 3 22 4 1.40658 0 49 1.40658 1
gene 3 22 58 -1.48824 0 177 -1.48824 1
gene 2 58 4 -0.645328 0 178 -0.645328 1
gene 3 2 58 -5.98631 0 310 -5.98631 1
gene 3 2 102 -2.10432 0 320 -2.10432 1
gene 3 102 58 0.408003 0 321 0.408003 1
gene 3 3 22 2.27865 0 333 2.27865 0
gene 2 1 22 -2.09534 0 360 -2.09534 1
gene 3 3 190 5.35101 0 585 5.35101 1
gene 3 190 22 -0.601532 0 586 -0.601532 1
gene 3 2 207 -0.50308 0 632 -0.50308 1
gene 3 207 22 -2.93211 0 633 -2.93211 1
genomeend 66

/* Organism #67 Fitness: 6.28173 Error: 1.49366 */
genomestart 67
trait 1 0.0987943 0 0 0.0534519 0 0 0.0413909 0 
trait 2 0.400004 0.246481 0.129982 0 0.136984 0.0128097 0.0622431 0.0978675 
trait 3 0.285937 0.147698 0.0425052 0.0338685 0.22744 0.013745 0 0.108743 
node 1 3 1 3
node 2 1 1 1
node 3 3 1 1
node 4 3 0 2
node 22 2 0 0
node 58 3 0 0
node 102 1 0 0
node 190 1 0 0
node 207 1 0 0
gene 3 1 4 -2.53016 0 1 -2.53016 1
gene 3 2 4 4.22439 0 2 4.22439 1
gene 1 3 4 2.55367 0 3 2.55367 1
gene 3 2 22 1.26167 0 48 1.26167 0
gene 3 22 4 4.19405 0 49 4.19405 1
gene 3 22 58 -1.49412 0 177 -1.49412 1
gene 2 58 4 3.12238 0 178 3.12238 1
gene 3 2 58 -2.04865 0 310 -2.04865 1
gene 3 2 102 -0.521994 0 320 -0.521994 1
gene 3 102 58 0.585284 0 321 0.585284 1
gene 3 3 22 0.0492837 0 333 0.0492837 0
gene 2 1 22 -1.06913 0 360 -1.06913 1
gene 3 3 190 7.52361 0 585 7.52361 1
gene 3 190 22 -2.85009 0 586 -2.85009 1
gene 3 2 207 -0.743073 0 632 -0.743073 1
gene 3 207 22 -0.532083 0 633 -0.532083 1
genomeend 67

/* Organism #68 Fitness: 6.21193 Error: 1.50763 */
genomestart 68
trait 1 0.0987943 0 0 0.0534519 0 0 0.0413909 0 
trait 2 0.400004 0.246481 0.129982 0 0.136984 0.0128097 0.0622431 0.0978675 
trait 3 0.285937 0.147698 0.0425052 0.0338685 0.22744 0.013745 0 0.108743 
node 1 3 1 3
node 2 1 1 1
node 3 3 1 1
node 4 3 0 2
node 22 2 0 0
node 58 3 0 0
node 102 1 0 0
node 190 1 0 0
node 207 1 0 0
gene 3 1 4 0.171919 0 1 0.171919 1
gene 3 2 4 3.93773 0 2 3.93773 1
gene 1 3 4 3.4034 0 3 3.4034 1
gene 3 2 22 3.31973 0 48 3.31973 0
gene 3 22 4 0.894595 0 49 0.894595 1
gene 3 22 58 -0.856798 0 177 -0.856798 1
gene 2 58 4 -0.295805 0 178 -0.295805 1
gene 3 2 58 -2.85652 0 310 -2.85652 1
gene 3 2 102 -0.805431 0 320 -0.805431 1
gene 3 102 58 0.0983593 0 321 0.0983593 1
gene 3 3 22 -2.41782 0 333 -2.41782 0
gene 2 1 22 -3.92987 0 360 -3.92987 1
gene 3 3 190 7.5333 0 585 7.5333 1
gene 3 190 22 1.07313 0 586 1.07313 1
gene 3 2 207 -2.79392 0 632 -2.79392 1
gene 3 207 22 0.375377 0 633 0.375377 1
genomeend 68

/* Organism #69 Fitness: 3.99861 Error: 2.00035 */
genomestart 69
trait 1 0.0987943 0 0 0.0534519 0 0 0.0413909 0 
trait 2 0.400004 0.246481 0.129982 0 0.136984 0.0128097 0.0622431 0.0978675 
trait 3 0.285937 0.147698 0.0425052 0.0338685 0.22744 0.013745 0 0.108743 
node 1 3 1 3
node 2 1 1 1
node 3 3 1 1
node 4 3 0 2
node 22 2 0 0
node 58 3 0 0
node 102 1 0 0
node 190 1 0 0
node 207 1 0 0
gene 3 1 4 -0.64439 0 1 -0.64439 1
gene 3 2 4 2.26063 0 2 2.26063 1
gene 1 3 4 1.25308 0 3 1.25308 1
gene 3 2 22 -0.896401 0 48 -0.896401 0
gene 3 22 4 1.91607 0 49 1.91607 1
gene 3 22 58 -0.183671 0 177 -0.183671 1
gene 2 58 4 3.3428 0 178 3.3428 1
gene 3 2 58 -2.0268 0 310 -2.0268 1
gene 3 2 102 -1.1515 0 320 -1.1515 1
gene 3 102 58 2.04253 0 321 2.04253 1
gene 3 3 22 -5.78472 0 333 -5.78472 0
gene 2 1 22 -4.16449 0 360 -4.16449 1
gene 3 3 190 2.85207 0 585 2.85207 1
gene 3 190 22 -0.928264 0 586 -0.928264 1
gene 3 2 207 -2.17592 0 632 -2.17592 1
gene 3 207 22 -2.07761 0 633 -2.07761 1
genomeend 69

/* Organism #70 Fitness: 8.8957 Error: 1.01743 */
genomestart 70
trait 1 0.0987943 0 0 0.0534519 0 0 0.0413909 0 
trait 2 0.400004 0.246481 0.129982 0 0.136984 0.0128097 0.0622431 0.0978675 
trait 3 0.285937 0.147698 0.0425052 0.0338685 0.22744 0.013745 0 0.108743 
node 1 3 1 3
node 2 1 1 1
node 3 3 1 1
node 4 3 0 2
node 22 2 0 0
node 58 3 0 0
node 102 1 0 0
node 190 1 0 0
node 207 1 0 0
gene 3 1 4 -1.05266 0 1 -1.05266 1
gene 3 2 4 3.58703 0 2 3.58703 1
gene 1 3 4 2.97604 0 3 2.97604 1
gene 3 2 22 0.475806 0 48 0.475806 0
gene 3 22 4 4.83531 0 49 4.83531 1
gene 3 22 58 -0.836963 0 177 -0.836963 1
gene 2 58 4 0.289843 0 178 0.289843 1
gene 3 2 58 -3.40726 0 310 -3.40726 1
gene 3 2 102 -0.601341 0 320 -0.601341 1
gene 3 102 58 0.578126 0 321 0.578126 1
gene 3 3 22 -2.1327 0 333 -2.1327 0
gene 2 1 22 -3.32886 0 360 -3.32886 1
gene 3 3 190 6.68851 0 585 6.68851 1
gene 3 190 22 -2.85009 0 586 -2.85009 1
gene 3 2 207 -1.9101 0 632 -1.9101 1
gene 3 207 22 0.441809 0 633 0.441809 1
genomeend 70

/* Organism #71 Fitness: 4.13707 Error: 1.96602 */
genomestart 71
trait 1 0.0987943 0 0 0.0534519 0 0 0.0413909 0 
trait 2 0.400004 0.246481 0.129982 0 0.136984 0.0128097 0.0622431 0.0978675 
trait 3 0.285937 0.147698 0.0425052 0.0338685 0.22744 0.013745 0 0.108743 
node 1 3 1 3
node 2 1 1 1
node 3 3 1 1
node 4 3 0 2
node 22 2 0 0
node 58 3 0 0
node 102 1 0 0
node 190 3 0 0
node 207 1 0 0
gene 3 1 4 -2.07061 0 1 -2.07061 1
gene 3 2 4 4.28267 0 2 4.28267 1
gene 1 3 4 1.39338 0 3 1.39338 1
gene 3 2 22 1.32375 0 48 1.32375 0
gene 3 22 4 1.16459 0 49 1.16459 1
gene 3 22 58 -0.547999 0 177 -0.547999 1
gene 2 58 4 -0.0303515 0 178 -0.0303515 1
gene 3 2 58 -4.44221 0 310 -4.44221 1
gene 3 2 102 -2.23272 0 320 -2.23272 1
gene 3 102 58 -1.03324 0 321 -1.03324 1
gene 3 3 22 -3.60515 0 333 -3.60515 0
gene 2 1 22 -2.10527 0 360 -2.10527 1
gene 3 3 190 7.6585 0 585 7.6585 1
gene 3 190 22 -2.85009 0 586 -2.85009 1
gene 3 2 207 0.561035 0 632 0.561035 1
gene 3 207 22 -1.97159 0 633 -1.97159 1
genomeend 71

/* Organism #72 Fitness: 8.85559 Error: 1.02417 */
genomestart 72
trait 1 0.0987943 0 0 0.0534519 0 0 0.0413909 0 
trait 2 0.400004 0.246481 0.129982 0 0.136984 0.0128097 0.0622431 0.0978675 
trait 3 0.285937 0.147698 0.0425052 0.0338685 0.22744 0.013745 0 0.108743 
node 1 3 1 3
node 2 1 1 1
node 3 3 1 1
node 4 3 0 2
node 22 2 0 0
node 58 3 0 0
node 102 1 0 0
node 190 1 0 0
node 207 1 0 0
gene 3 1 4 -0.768737 0 1 -0.768737 1
gene 3 2 4 1.92429 0 2 1.92429 1
gene 1 3 4 1.89855 0 3 1.89855 1
gene 3 2 22 1.37284 0 48 1.37284 0
gene 3 22 4 3.14495 0 49 3.14495 1
gene 3 22 58 -4.33543 0 177 -4.33543 1
gene 2 58 4 -0.870133 0 178 -0.870133 1
gene 3 2 58 -5.698 0 310 -5.698 1
gene 3 2 102 -0.42437 0 320 -0.42437 1
gene 3 102 58 -0.938352 0 321 -0.938352 1
gene 3 3 22 -3.18546 0 333 -3.18546 0
gene 2 1 22 -3.25078 0 360 -3.25078 1
gene 3 3 190 6.41231 0 585 6.41231 1
gene 3 190 22 -3.64027 0 586 -3.64027 1
gene 3 2 207 -0.50308 0 632 -0.50308 1
gene 3 207 22 -1.97159 0 633 -1.97159 1
genomeend 72

/* Organism #73 Fitness: 5.69485 Error: 1.61361 */
genomestart 73
trait 1 0.0987943 0 0 0.0534519 0 0 0.0413909 0 
trait 2 0.400004 0.701205 0.129982 0.219217 0.563876 0 0.0622431 0.0978675 
trait 3 0.285937 0.147698 0.0425052 0.0338685 0.22744 0.013745 0 0.108743 
node 1 3 1 3
node 2 1 1 1
node 3 3 1 1
node 4 3 0 2
node 22 2 0 0
node 58 3 0 0
node 102 1 0 0
node 190 1 0 0
node 207 2 0 0
node 225 1 0 0
gene 3 1 4 0.434064 0 1 0.434064 1
gene 3 2 4 -1.43873 0 2 -1.43873 0
gene 1 3 4 1.6011 0 3 1.6011 1
gene 3 2 22 -2.07688 0 48 -2.07688 0
gene 3 22 4 -1.24979 0 49 -1.24979 1
gene 3 22 58 1.54996 0 177 1.54996 1
gene 2 58 4 -2.83055 0 178 -2.83055 1
gene 3 2 58 6.52585 0 310 6.52585 0
gene 3 2 102 1.04411 0 320 1.04411 1
gene 3 102 58 -0.641808 0 321 -0.641808 1
gene 3 3 22 -3.23113 0 333 -3.23113 0
gene 2 1 22 -2.07178 0 360 -2.07178 1
gene 3 3 190 0.195098 0 585 0.195098 1
gene 3 190 22 0.0182572 0 586 0.0182572 0
gene 3 2 207 1.49709 0 632 1.49709 1
gene 3 207 22 -2.40473 0 633 -2.40473 1
gene 3 190 225 2.00994 0 681 2.00994 1
gene 3 225 22 -3.66079 0 682 -3.66079 1
genomeend 73

/* Species #38 : (Size 10) (AF 8.48394) (Age 7)  */


/* Organism #74 Fitness: 9 Error: 1 */
genomestart 74
trait 1 0.0987943 0 0 0.0534519 0 0 0.0413909 0 
trait 2 0.365717 0.162866 0.246547 0 0 0.0170796 0.0829908 0.0978675 
trait 3 0.285937 0.147698 0.0425052 0.0338685 0.22744 0.013745 0 0.108743 
node 1 3 1 3
node 2 1 1 1
node 3 3 1 1
node 4 3 0 2
node 22 2 0 0
node 58 3 0 0
node 102 1 0 0
node 206 1 0 0
gene 3 1 4 7.37208 0 1 7.37208 1
gene 3 2 4 -0.632021 0 2 -0.632021 0
gene 1 3 4 1.61061 0 3 1.61061 1
gene 3 2 22 -3.73173 0 48 -3.73173 1
gene 3 22 4 -4.3421 0 49 -4.3421 1
gene 3 22 58 3.62653 0 177 3.62653 1
gene 2 58 4 -8 0 178 -8 1
gene 3 2 58 -1.94446 0 310 -1.94446 1
gene 3 2 102 2.81598 0 320 2.81598 1
gene 3 102 58 -1.15948 0 321 -1.15948 1
gene 3 3 22 -7.60851 0 333 -7.60851 1
gene 2 1 22 2.61662 0 360 2.61662 1
gene 1 102 4 -1.66756 0 575 -1.66756 0
gene 3 3 58 -2.36761 0 583 -2.36761 1
gene 3 2 206 1.2341 0 630 1.2341 1
gene 3 206 102 2.07778 0 631 2.07778 1
genomeend 74

/* Organism #75 Fitness: 8.99955 Error: 1.00007 */
genomestart 75
trait 1 0.0987943 0 0 0.0534519 0 0 0.0413909 0 
trait 2 0.682859 0.162866 0.623273 0 0 0.00853981 0.271973 0.0978675 
trait 3 0.285937 0.147698 0.0425052 0.0338685 0.22744 0.013745 0 0.108743 
node 1 3 1 3
node 2 1 1 1
node 3 3 1 1
node 4 3 0 2
node 22 2 0 0
node 58 3 0 0
node 102 1 0 0
node 206 1 0 0
gene 3 1 4 8 0 1 8 1
gene 3 2 4 -2.74171 0 2 -2.74171 0
gene 1 3 4 2.57308 0 3 2.57308 1
gene 3 2 22 -3.78377 0 48 -3.78377 1
gene 3 22 4 -1.93066 0 49 -1.93066 1
gene 3 22 58 2.33173 0 177 2.33173 1
gene 2 58 4 -8 0 178 -8 1
gene 3 2 58 -3.45239 0 310 -3.45239 1
gene 3 2 102 7.51733 0 320 7.51733 1
gene 3 102 58 -2.75239 0 321 -2.75239 1
gene 3 3 22 -8 0 333 -8 1
gene 2 1 22 5.27467 0 360 5.27467 1
gene 1 102 4 -3.71009 0 575 -3.71009 0
gene 3 3 58 -0.34056 0 583 -0.34056 1
gene 3 2 206 2.30597 0 630 2.30597 1
gene 3 206 102 -5.08522 0 631 -5.08522 1
genomeend 75

/* Organism #76 Fitness: 8.84819 Error: 1.02541 */
genomestart 76
trait 1 0.0987943 0 0 0.0534519 0 0 0.0413909 0 
trait 2 1 0.162866 1 0 0 0 0.460954 0.0978675 
trait 3 0.285937 0.147698 0.0425052 0.0338685 0.22744 0.013745 0 0.108743 
node 1 3 1 3
node 2 1 1 1
node 3 3 1 1
node 4 3 0 2
node 22 2 0 0
node 58 3 0 0
node 102 1 0 0
node 206 1 0 0
gene 3 1 4 7.32363 0 1 7.32363 1
gene 3 2 4 -2.54285 0 2 -2.54285 1
gene 1 3 4 -1.49136 0 3 -1.49136 1
gene 3 2 22 -5.53288 0 48 -5.53288 1
gene 3 22 4 -8 0 49 -8 1
gene 3 22 58 -0.813044 0 177 -0.813044 1
gene 2 58 4 -6.70829 0 178 -6.70829 1
gene 3 2 58 -3.07203 0 310 -3.07203 1
gene 3 2 102 7.30249 0 320 7.30249 1
gene 3 102 58 -1.15948 0 321 -1.15948 1
gene 3 3 22 -7.56349 0 333 -7.56349 1
gene 2 1 22 2.16406 0 360 2.16406 1
gene 1 102 4 -2.38018 0 575 -2.38018 0
gene 3 3 58 -0.998088 0 583 -0.998088 1
gene 3 2 206 0.989201 0 630 0.989201 1
gene 3 206 102 -0.845874 0 631 -0.845874 1
genomeend 76

/* Organism #77 Fitness: 9 Error: 1 */
genomestart 77
trait 1 0.0987943 0 0 0.0534519 0 0 0.0413909 0 
trait 2 0.682859 0.162866 0.623273 0 0 0.00853981 0.271973 0.0978675 
trait 3 0.285937 0.147698 0.0425052 0.0338685 0.22744 0.013745 0 0.108743 
node 1 3 1 3
node 2 1 1 1
node 3 3 1 1
node 4 3 0 2
node 22 2 0 0
node 58 3 0 0
node 102 1 0 0
node 206 1 0 0
gene 3 1 4 4.21409 0 1 4.21409 1
gene 3 2 4 1.85018 0 2 1.85018 0
gene 1 3 4 -0.655337 0 3 -0.655337 1
gene 3 2 22 -4.90458 0 48 -4.90458 1
gene 3 22 4 -7.1598 0 49 -7.1598 1
gene 3 22 58 0.943317 0 177 0.943317 1
gene 2 58 4 -5.82358 0 178 -5.82358 1
gene 3 2 58 -3.59696 0 310 -3.59696 1
gene 3 2 102 6.67079 0 320 6.67079 1
gene 3 102 58 -1.29172 0 321 -1.29172 1
gene 3 3 22 -8 0 333 -8 1
gene 2 1 22 0.83136 0 360 0.83136 1
gene 1 102 4 -2.32683 0 575 -2.32683 0
gene 3 3 58 -2.36761 0 583 -2.36761 1
gene 3 2 206 1.2341 0 630 1.2341 1
gene 3 206 102 -3.13093 0 631 -3.13093 1
genomeend 77

/* Organism #78 Fitness: 9 Error: 1 */
genomestart 78
trait 1 0.0987943 0 0 0.0534519 0 0 0.0413909 0 
trait 2 0.682859 0.162866 0.623273 0 0 0.00853981 0.271973 0.0978675 
trait 3 0.285937 0.147698 0.0425052 0.0338685 0.22744 0.013745 0 0.108743 
node 1 3 1 3
node 2 1 1 1
node 3 3 1 1
node 4 3 0 2
node 22 2 0 0
node 58 2 0 0
node 102 1 0 0
node 206 1 0 0
gene 3 1 4 7.59443 0 1 7.59443 1
gene 3 2 4 -2.13024 0 2 -2.13024 0
gene 1 3 4 1.11512 0 3 1.11512 1
gene 3 2 22 -4.56011 0 48 -4.56011 1
gene 3 22 4 -6.1741 0 49 -6.1741 1
gene 3 22 58 0.620945 0 177 0.620945 1
gene 2 58 4 -8 0 178 -8 1
gene 3 2 58 -3.62475 0 310 -3.62475 1
gene 3 2 102 3.80491 0 320 3.80491 1
gene 3 102 58 -1.798 0 321 -1.798 1
gene 3 3 22 -7.14368 0 333 -7.14368 1
gene 2 1 22 1.31157 0 360 1.31157 1
gene 1 102 4 0.387696 0 575 0.387696 0
gene 3 3 58 -0.34056 0 583 -0.34056 1
gene 3 2 206 1.2341 0 630 1.2341 1
gene 3 206 102 -3.13093 0 631 -3.13093 1
genomeend 78

/* Organism #79 Fitness: 3.99448 Error: 2.00138 */
genomestart 79
trait 1 0.0987943 0 0 0.0534519 0 0 0.0413909 0 
trait 2 0.365717 0.162866 0.246547 0 0 0.0170796 0.0829908 0.0978675 
trait 3 0.285937 0.147698 0.0425052 0.0338685 0.22744 0.013745 0 0.108743 
node 1 3 1 3
node 2 1 1 1
node 3 3 1 1
node 4 3 0 2
node 22 2 0 0
node 58 3 0 0
node 102 1 0 0
node 206 1 0 0
gene 3 1 4 1.4496 0 1 1.4496 1
gene 3 2 4 -3.05384 0 2 -3.05384 0
gene 1 3 4 -1.4169 0 3 -1.4169 1
gene 3 2 22 1.21865 0 48 1.21865 1
gene 3 22 4 0.200668 0 49 0.200668 1
gene 3 22 58 -2.46149 0 177 -2.46149 1
gene 2 58 4 -8 0 178 -8 1
gene 3 2 58 -2.29538 0 310 -2.29538 1
gene 3 2 102 2.00774 0 320 2.00774 1
gene 3 102 58 -1.02023 0 321 -1.02023 1
gene 3 3 22 -7.60851 0 333 -7.60851 1
gene 2 1 22 1.3137 0 360 1.3137 1
gene 1 102 4 -2.44693 0 575 -2.44693 1
gene 3 3 58 -2.36761 0 583 -2.36761 1
gene 3 2 206 -0.468586 0 630 -0.468586 1
gene 3 206 102 2.07778 0 631 2.07778 1
genomeend 79

/* Organism #80 Fitness: 9 Error: 1 */
genomestart 80
trait 1 0.0987943 0 0 0.0534519 0 0 0.0413909 0 
trait 2 0.365717 0.162866 0.246547 0 0 0.0170796 0.0829908 0.0978675 
trait 3 0.285937 0.147698 0.0425052 0.0338685 0.22744 0.013745 0 0.108743 
node 1 3 1 3
node 2 1 1 1
node 3 3 1 1
node 4 3 0 2
node 22 2 0 0
node 58 3 0 0
node 102 1 0 0
node 206 1 0 0
gene 3 1 4 7.37208 0 1 7.37208 1
gene 1 2 4 -0.632021 0 2 -0.632021 0
gene 1 3 4 1.61061 0 3 1.61061 1
gene 3 2 22 -3.73173 0 48 -3.73173 1
gene 3 22 4 -4.3421 0 49 -4.3421 1
gene 3 22 58 3.62653 0 177 3.62653 1
gene 2 58 4 -8 0 178 -8 1
gene 3 2 58 -1.94446 0 310 -1.94446 1
gene 3 2 102 2.81598 0 320 2.81598 1
gene 3 102 58 -1.15948 0 321 -1.15948 1
gene 3 3 22 -7.60851 0 333 -7.60851 1
gene 2 1 22 2.61662 0 360 2.61662 1
gene 1 102 4 -1.66756 0 575 -1.66756 0
gene 3 3 58 -2.36761 0 583 -2.36761 1
gene 3 2 206 1.2341 0 630 1.2341 1
gene 3 206 102 2.07778 0 631 2.07778 1
genomeend 80

/* Organism #81 Fitness: 9 Error: 1 */
genomestart 81
trait 1 0.0987943 0 0 0.0534519 0 0 0.0413909 0 
trait 2 0.682859 0.162866 0.623273 0 0 0.00853981 0.271973 0.0978675 
trait 3 0.285937 0.147698 0.0425052 0.0338685 0.22744 0.013745 0 0.108743 
node 1 3 1 3
node 2 1 1 1
node 3 3 1 1
node 4 3 0 2
node 22 2 0 0
node 58 3 0 0
node 102 1 0 0
node 206 1 0 0
gene 3 1 4 7.37208 0 1 7.37208 1
gene 3 2 4 -0.38207 0 2 -0.38207 0
gene 1 3 4 0.226093 0 3 0.226093 1
gene 3 2 22 -3.73173 0 48 -3.73173 1
gene 3 22 4 -6.55098 0 49 -6.55098 1
gene 3 22 58 0.925787 0 177 0.925787 1
gene 2 58 4 -8 0 178 -8 1
gene 3 2 58 -1.28435 0 310 -1.28435 1
gene 3 2 102 5.13868 0 320 5.13868 1
gene 3 102 58 -1.15948 0 321 -1.15948 1
gene 3 3 22 -7.60851 0 333 -7.60851 1
gene 2 1 22 0.662717 0 360 0.662717 1
gene 1 102 4 -2.06998 0 575 -2.06998 0
gene 3 3 58 -0.34056 0 583 -0.34056 1
gene 3 2 206 1.2341 0 630 1.2341 1
gene 3 206 102 -3.13093 0 631 -3.13093 1
genomeend 81

/* Organism #82 Fitness: 8.99993 Error: 1.00001 */
genomestart 82
trait 1 0.0987943 0 0 0.0534519 0 0 0.0413909 0 
trait 2 0.365717 0.162866 0.246547 0 0 0.0170796 0.0829908 0.0978675 
trait 3 0.285937 0.147698 0.0425052 0.0338685 0.22744 0.013745 0 0.108743 
node 1 3 1 3
node 2 1 1 1
node 3 3 1 1
node 4 3 0 2
node 22 2 0 0
node 58 3 0 0
node 102 1 0 0
node 206 1 0 0
gene 3 1 4 7.97446 0 1 7.97446 1
gene 3 2 4 -2.64029 0 2 -2.64029 0
gene 1 3 4 -1.89304 0 3 -1.89304 1
gene 3 2 22 -2.25611 0 48 -2.25611 1
gene 3 22 4 -2.54143 0 49 -2.54143 1
gene 3 22 58 0.69419 0 177 0.69419 1
gene 2 58 4 -8 0 178 -8 1
gene 3 2 58 -1.24113 0 310 -1.24113 1
gene 3 2 102 4.92303 0 320 4.92303 1
gene 3 102 58 -0.613828 0 321 -0.613828 1
gene 3 3 22 -7.14065 0 333 -7.14065 1
gene 2 1 22 2.26974 0 360 2.26974 1
gene 1 102 4 -2.41227 0 575 -2.41227 0
gene 3 3 58 -1.31687 0 583 -1.31687 1
gene 3 2 206 1.18481 0 630 1.18481 1
gene 3 206 102 -3.46913 0 631 -3.46913 1
genomeend 82

/* Organism #83 Fitness: 8.99729 Error: 1.00045 */
genomestart 83
trait 1 0.0987943 0 0 0.0534519 0 0 0.0413909 0 
trait 2 0.682859 0.162866 0.623273 0 0 0.00853981 0.271973 0.0978675 
trait 3 0.285937 0.147698 0.0425052 0.0338685 0.22744 0.013745 0 0.108743 
node 1 3 1 3
node 2 1 1 1
node 3 3 1 1
node 4 3 0 2
node 22 2 0 0
node 58 3 0 0
node 102 1 0 0
node 206 1 0 0
gene 3 1 4 4.9988 0 1 4.9988 1
gene 3 2 4 -1.95077 0 2 -1.95077 0
gene 1 3 4 2.35564 0 3 2.35564 1
gene 3 2 22 -3.73173 0 48 -3.73173 1
gene 3 22 4 1.13045 0 49 1.13045 1
gene 3 22 58 1.70991 0 177 1.70991 1
gene 2 58 4 -7.69469 0 178 -7.69469 1
gene 3 2 58 -1.74919 0 310 -1.74919 1
gene 3 2 102 7.07342 0 320 7.07342 1
gene 3 102 58 -0.051084 0 321 -0.051084 1
gene 3 3 22 -8 0 333 -8 1
gene 2 1 22 3.83035 0 360 3.83035 1
gene 1 102 4 -1.76438 0 575 -1.76438 0
gene 3 3 58 -2.50158 0 583 -2.50158 1
gene 3 2 206 -1.07262 0 630 -1.07262 1
gene 3 206 102 -2.31784 0 631 -2.31784 1
genomeend 83

/* Species #39 : (Size 11) (AF 7.63636) (Age 7)  */


/* Organism #84 Fitness: 9 Error: 1 */
genomestart 84
trait 1 0.387416 0 0 0.0534519 0.752566 0 0.0413909 0 
trait 2 0.248258 0.162866 0.173309 0 0 0.0170796 0.0829908 0.0978675 
trait 3 0.285937 0.147698 0.0425052 0.0338685 0.22744 0.013745 0 0.108743 
node 1 3 1 3
node 2 1 1 1
node 3 3 1 1
node 4 3 0 2
node 22 2 0 0
node 58 3 0 0
node 102 1 0 0
node 190 1 0 0
node 212 1 0 0
node 217 1 0 0
gene 3 1 4 5.34073 0 1 5.34073 1
gene 3 2 4 -0.943263 0 2 -0.943263 0
gene 1 3 4 8 0 3 8 1
gene 3 2 22 -7.72368 0 48 -7.72368 1
gene 3 22 4 -8 0 49 -8 1
gene 3 22 58 4.13168 0 177 4.13168 1
gene 2 58 4 -5.1143 0 178 -5.1143 1
gene 3 2 58 -5.56384 0 310 -5.56384 1
gene 3 2 102 1.35319 0 320 1.35319 0
gene 3 102 58 -6.54351 0 321 -6.54351 1
gene 1 3 22 0.0409378 0 333 0.0409378 0
gene 2 1 22 1.85213 0 360 1.85213 1
gene 3 3 190 4.06383 0 585 4.06383 1
gene 3 190 22 -2.25771 0 586 -2.25771 1
gene 2 190 102 -0.555327 0 618 -0.555327 1
gene 3 2 212 0.914139 0 649 0.914139 1
gene 3 212 58 -1.30645 0 650 -1.30645 1
gene 3 2 217 1 0 663 1 1
gene 3 217 102 -1.03165 0 664 -1.03165 1
genomeend 84

/* Organism #85 Fitness: 8.99999 Error: 1 */
genomestart 85
trait 1 0.0987943 0 0 0.0534519 0 0 0.0413909 0 
trait 2 0.248258 0.162866 0.173309 0 0 0.0170796 0.0829908 0.0978675 
trait 3 0.285937 0.0738491 0.0425052 0.0338685 0.441527 0.013745 0 0.0543717 
node 1 3 1 3
node 2 1 1 1
node 3 3 1 1
node 4 3 0 2
node 22 2 0 0
node 58 3 0 0
node 102 1 0 0
node 190 1 0 0
node 212 1 0 0
node 217 1 0 0
gene 3 1 4 2.7021 0 1 2.7021 1
gene 3 2 4 -3.22087 0 2 -3.22087 0
gene 1 3 4 7.19431 0 3 7.19431 1
gene 3 2 22 -7.06474 0 48 -7.06474 1
gene 3 22 4 -7.81456 0 49 -7.81456 1
gene 3 22 58 7.48554 0 177 7.48554 1
gene 2 58 4 -7.13199 0 178 -7.13199 1
gene 3 2 58 -7.6265 0 310 -7.6265 1
gene 3 2 102 3.12918 0 320 3.12918 0
gene 3 102 58 -5.26971 0 321 -5.26971 1
gene 1 3 22 -6.99915 0 333 -6.99915 1
gene 2 1 22 0.484813 0 360 0.484813 1
gene 3 3 190 1.55066 0 585 1.55066 1
gene 3 190 22 0.235826 0 586 0.235826 1
gene 2 190 102 3.86382 0 618 3.86382 1
gene 3 2 212 2.03369 0 649 2.03369 1
gene 3 212 58 2.47307 0 650 2.47307 1
gene 3 2 217 2.38983 0 663 2.38983 1
gene 3 217 102 2.18041 0 664 2.18041 1
genomeend 85

/* Organism #86 Fitness: 4 Error: 2 */
genomestart 86
trait 1 0.243105 0 0 0.0534519 0.376283 0 0.0413909 0 
trait 2 0.248258 0.162866 0.173309 0 0 0.0170796 0.0829908 0.0978675 
trait 3 0.285937 0.0738491 0.0425052 0.0338685 0.441527 0.013745 0 0.0543717 
node 1 3 1 3
node 2 1 1 1
node 3 3 1 1
node 4 3 0 2
node 22 2 0 0
node 58 3 0 0
node 102 1 0 0
node 190 1 0 0
node 212 1 0 0
node 217 1 0 0
gene 3 1 4 6.89775 0 1 6.89775 1
gene 3 2 4 -2.59964 0 2 -2.59964 0
gene 1 3 4 2.44635 0 3 2.44635 1
gene 3 2 22 -3.20573 0 48 -3.20573 1
gene 3 22 4 -8 0 49 -8 1
gene 3 22 58 5.24251 0 177 5.24251 1
gene 2 58 4 -7.43322 0 178 -7.43322 1
gene 3 2 58 -8 0 310 -8 1
gene 3 2 102 -2.05605 0 320 -2.05605 0
gene 3 102 58 -4.12082 0 321 -4.12082 1
gene 1 3 22 -5.44914 0 333 -5.44914 0
gene 2 1 22 1.60036 0 360 1.60036 1
gene 3 3 190 0.387438 0 585 0.387438 1
gene 3 190 22 -1.04359 0 586 -1.04359 1
gene 2 190 102 2.74339 0 618 2.74339 1
gene 3 2 212 -0.746279 0 649 -0.746279 1
gene 3 212 58 3.48093 0 650 3.48093 1
gene 3 2 217 1.70795 0 663 1.70795 1
gene 3 217 102 0.64682 0 664 0.64682 1
genomeend 86

/* Organism #87 Fitness: 9 Error: 1 */
genomestart 87
trait 1 0.0987943 0 0 0.0534519 0 0 0.0413909 0 
trait 2 0.248258 0.162866 0.173309 0 0 0.0170796 0.0829908 0.0978675 
trait 3 0.285937 0.147698 0.0425052 0.0338685 0.22744 0.013745 0 0.108743 
node 1 3 1 3
node 2 1 1 1
node 3 3 1 1
node 4 3 0 2
node 22 2 0 0
node 58 3 0 0
node 102 1 0 0
node 190 1 0 0
node 212 1 0 0
node 217 2 0 0
gene 3 1 4 4.66357 0 1 4.66357 1
gene 3 2 4 1.80811 0 2 1.80811 1
gene 1 3 4 0.30466 0 3 0.30466 1
gene 3 2 22 -8 0 48 -8 1
gene 3 22 4 -7.05681 0 49 -7.05681 1
gene 3 22 58 7.04144 0 177 7.04144 1
gene 2 58 4 -1.32623 0 178 -1.32623 1
gene 3 2 58 -6.34432 0 310 -6.34432 1
gene 3 2 102 4.05812 0 320 4.05812 0
gene 3 102 58 -2.94566 0 321 -2.94566 1
gene 1 3 22 -4.05296 0 333 -4.05296 1
gene 2 1 22 1.83516 0 360 1.83516 1
gene 3 3 190 -2.33567 0 585 -2.33567 1
gene 3 190 22 0.562968 0 586 0.562968 1
gene 2 190 102 -1.35219 0 618 -1.35219 1
gene 3 2 212 -1.62824 0 649 -1.62824 1
gene 3 212 58 2.39555 0 650 2.39555 1
gene 3 2 217 0.508705 0 663 0.508705 1
gene 3 217 102 -2.772 0 664 -2.772 1
genomeend 87

/* Organism #88 Fitness: 8.99991 Error: 1.00002 */
genomestart 88
trait 1 0.243105 0 0 0.0534519 0.376283 0 0.0413909 0 
trait 2 0.248258 0.162866 0.173309 0 0 0.0170796 0.0829908 0.0978675 
trait 3 0.285937 0.147698 0.0425052 0.0338685 0.22744 0.013745 0 0.108743 
node 1 3 1 3
node 2 1 1 1
node 3 3 1 1
node 4 3 0 2
node 22 2 0 0
node 58 3 0 0
node 102 1 0 0
node 190 1 0 0
node 212 1 0 0
node 217 1 0 0
gene 3 1 4 3.23167 0 1 3.23167 1
gene 3 2 4 -0.976157 0 2 -0.976157 1
gene 1 3 4 8 0 3 8 1
gene 3 2 22 -8 0 48 -8 1
gene 3 22 4 -5.82129 0 49 -5.82129 1
gene 3 22 58 7.74281 0 177 7.74281 1
gene 2 58 4 -5.61018 0 178 -5.61018 1
gene 3 2 58 -5.10621 0 310 -5.10621 1
gene 3 2 102 3.63637 0 320 3.63637 0
gene 3 102 58 -5.61245 0 321 -5.61245 1
gene 1 3 22 -5.04791 0 333 -5.04791 0
gene 2 1 22 2.22314 0 360 2.22314 1
gene 3 3 190 5.46925 0 585 5.46925 1
gene 3 190 22 -2.76737 0 586 -2.76737 1
gene 2 190 102 -1.67532 0 618 -1.67532 1
gene 3 2 212 -1.35674 0 649 -1.35674 1
gene 3 212 58 0.560057 0 650 0.560057 1
gene 3 2 217 0.0769684 0 663 0.0769684 1
gene 3 217 102 -0.846263 0 664 -0.846263 1
genomeend 88

/* Organism #89 Fitness: 9 Error: 1 */
genomestart 89
trait 1 0.0987943 0 0 0.0534519 0 0 0.0413909 0 
trait 2 0.248258 0.162866 0.173309 0 0 0.0170796 0.0829908 0.0978675 
trait 3 0.538967 0.547823 0.0425052 0.0338685 0 0.013745 0.152795 0.0543717 
node 1 3 1 3
node 2 1 1 1
node 3 3 1 1
node 4 3 0 2
node 22 2 0 0
node 58 3 0 0
node 102 1 0 0
node 190 1 0 0
node 212 1 0 0
node 217 1 0 0
gene 3 1 4 4.66357 0 1 4.66357 1
gene 3 2 4 -2.36127 0 2 -2.36127 0
gene 1 3 4 8 0 3 8 1
gene 3 2 22 -3.90003 0 48 -3.90003 1
gene 3 22 4 -5.57748 0 49 -5.57748 1
gene 3 22 58 7.04144 0 177 7.04144 1
gene 2 58 4 -5.82741 0 178 -5.82741 1
gene 3 2 58 -7.34086 0 310 -7.34086 1
gene 3 2 102 3.81119 0 320 3.81119 0
gene 3 102 58 -5.01504 0 321 -5.01504 1
gene 1 3 22 -5.35274 0 333 -5.35274 1
gene 2 1 22 2.46417 0 360 2.46417 1
gene 3 3 190 2.5119 0 585 2.5119 1
gene 3 190 22 0.562968 0 586 0.562968 1
gene 2 190 102 2.82385 0 618 2.82385 1
gene 3 2 212 0.32226 0 649 0.32226 1
gene 3 212 58 1.54174 0 650 1.54174 1
gene 3 2 217 0.786209 0 663 0.786209 1
gene 3 217 102 -1.39193 0 664 -1.39193 1
genomeend 89

/* Organism #90 Fitness: 4.00001 Error: 2 */
genomestart 90
trait 1 0.0987943 0 0 0.0534519 0 0 0.0413909 0 
trait 2 0.248258 0.162866 0.173309 0 0 0.0170796 0.0829908 0.0978675 
trait 3 0.285937 0 0.0425052 0.0338685 0.655615 0.013745 0 0 
node 1 3 1 3
node 2 1 1 1
node 3 3 1 1
node 4 3 0 2
node 22 2 0 0
node 58 3 0 0
node 102 1 0 0
node 190 1 0 0
node 212 1 0 0
node 217 1 0 0
gene 3 1 4 1.83435 0 1 1.83435 1
gene 3 2 4 0.147091 0 2 0.147091 0
gene 1 3 4 8 0 3 8 1
gene 3 2 22 -4.32125 0 48 -4.32125 1
gene 3 22 4 -7.61213 0 49 -7.61213 1
gene 3 22 58 -0.76198 0 177 -0.76198 1
gene 2 58 4 -7.32862 0 178 -7.32862 1
gene 3 2 58 -8 0 310 -8 1
gene 3 2 102 2.33633 0 320 2.33633 0
gene 3 102 58 -1.57176 0 321 -1.57176 1
gene 1 3 22 -5.44914 0 333 -5.44914 1
gene 2 1 22 -0.482292 0 360 -0.482292 1
gene 3 3 190 0.718257 0 585 0.718257 1
gene 3 190 22 -1.97856 0 586 -1.97856 1
gene 2 190 102 2.27115 0 618 2.27115 1
gene 3 2 212 1.33531 0 649 1.33531 1
gene 3 212 58 -0.654405 0 650 -0.654405 1
gene 3 2 217 -0.230984 0 663 -0.230984 1
gene 3 217 102 0.87359 0 664 0.87359 1
genomeend 90

/* Organism #91 Fitness: 4.00001 Error: 2 */
genomestart 91
trait 1 0.243105 0 0 0.0534519 0.376283 0 0.0413909 0 
trait 2 0.248258 0.162866 0.173309 0 0 0.0170796 0.0829908 0.0978675 
trait 3 0.285937 0.0738491 0.0425052 0.0338685 0.441527 0.013745 0 0.0543717 
node 1 3 1 3
node 2 1 1 1
node 3 3 1 1
node 4 3 0 2
node 22 2 0 0
node 58 3 0 0
node 102 1 0 0
node 190 1 0 0
node 212 1 0 0
node 217 1 0 0
gene 3 1 4 6.40991 0 1 6.40991 1
gene 3 2 4 0.752335 0 2 0.752335 0
gene 1 3 4 8 0 3 8 1
gene 3 2 22 -3.90003 0 48 -3.90003 1
gene 3 22 4 0.330909 0 49 0.330909 1
gene 3 22 58 4.36309 0 177 4.36309 1
gene 2 58 4 -4.03483 0 178 -4.03483 1
gene 3 2 58 -8 0 310 -8 1
gene 3 2 102 0.952707 0 320 0.952707 0
gene 3 102 58 -3.04214 0 321 -3.04214 1
gene 1 3 22 -2.31378 0 333 -2.31378 0
gene 2 1 22 1.23575 0 360 1.23575 1
gene 3 3 190 1.3988 0 585 1.3988 1
gene 3 190 22 -1.53151 0 586 -1.53151 1
gene 2 190 102 -1.64655 0 618 -1.64655 1
gene 3 2 212 -1.44363 0 649 -1.44363 1
gene 3 212 58 -1.36544 0 650 -1.36544 1
gene 3 2 217 -1.15365 0 663 -1.15365 1
gene 3 217 102 0.0955874 0 664 0.0955874 1
genomeend 91

/* Organism #92 Fitness: 9 Error: 1 */
genomestart 92
trait 1 0.0987943 0 0 0.0534519 0 0 0.0413909 0 
trait 2 0.248258 0.162866 0.173309 0 0 0.0170796 0.0829908 0.0978675 
trait 3 0.285937 0.0738491 0.0425052 0.0338685 0.441527 0.013745 0 0.0543717 
node 1 3 1 3
node 2 1 1 1
node 3 3 1 1
node 4 3 0 2
node 22 2 0 0
node 58 3 0 0
node 102 1 0 0
node 190 1 0 0
node 212 1 0 0
node 217 1 0 0
gene 3 1 4 4.36384 0 1 4.36384 1
gene 3 2 4 -1.14464 0 2 -1.14464 0
gene 1 3 4 7.59807 0 3 7.59807 1
gene 3 2 22 -5.68971 0 48 -5.68971 1
gene 3 22 4 -6.54305 0 49 -6.54305 1
gene 3 22 58 6.14198 0 177 6.14198 1
gene 2 58 4 -6.39865 0 178 -6.39865 1
gene 3 2 58 -6.60367 0 310 -6.60367 1
gene 3 2 102 2.60516 0 320 2.60516 0
gene 3 102 58 -5.11599 0 321 -5.11599 1
gene 1 3 22 -5.40094 0 333 -5.40094 1
gene 2 1 22 2.14967 0 360 2.14967 1
gene 3 3 190 1.95678 0 585 1.95678 1
gene 3 190 22 0.553306 0 586 0.553306 1
gene 2 190 102 2.08622 0 618 2.08622 1
gene 3 2 212 -0.183604 0 649 -0.183604 1
gene 3 212 58 2.0074 0 650 2.0074 1
gene 3 2 217 1.58802 0 663 1.58802 1
gene 3 217 102 -1.0264 0 664 -1.0264 1
genomeend 92

/* Organism #93 Fitness: 9 Error: 1 */
genomestart 93
trait 1 0.387416 0 0 0.0534519 0.752566 0 0.0413909 0 
trait 2 0 0.13399 0.173309 0 0.893322 0.0884599 0 0 
trait 3 0.285937 0.147698 0.0425052 0.0338685 0.22744 0.013745 0 0.108743 
node 1 3 1 3
node 2 1 1 1
node 3 3 1 1
node 4 3 0 2
node 22 2 0 0
node 58 3 0 0
node 102 1 0 0
node 190 1 0 0
node 212 1 0 0
node 217 1 0 0
gene 3 1 4 5.34073 0 1 5.34073 1
gene 3 2 4 -0.943263 0 2 -0.943263 0
gene 1 3 4 8 0 3 8 1
gene 3 2 22 -7.72368 0 48 -7.72368 1
gene 3 22 4 -8 0 49 -8 1
gene 3 22 58 4.13168 0 177 4.13168 1
gene 2 58 4 -5.1143 0 178 -5.1143 1
gene 3 2 58 -5.56384 0 310 -5.56384 1
gene 3 2 102 1.35319 0 320 1.35319 0
gene 3 102 58 -6.54351 0 321 -6.54351 1
gene 1 3 22 0.0409378 0 333 0.0409378 0
gene 2 1 22 1.85213 0 360 1.85213 1
gene 3 3 190 4.06383 0 585 4.06383 1
gene 3 190 22 -2.25771 0 586 -2.25771 1
gene 2 190 102 -0.555327 0 618 -0.555327 1
gene 3 2 212 0.914139 0 649 0.914139 1
gene 3 212 58 -1.30645 0 650 -1.30645 1
gene 3 2 217 1 0 663 1 1
gene 3 217 102 -1.03165 0 664 -1.03165 1
genomeend 93

/* Organism #94 Fitness: 9 Error: 1 */
genomestart 94
trait 1 0.0987943 0 0 0.0534519 0 0 0.0413909 0 
trait 2 0.248258 0.162866 0.173309 0 0 0.0170796 0.0829908 0.0978675 
trait 3 0.285937 0.147698 0.0425052 0.0338685 0.22744 0.013745 0 0.108743 
node 1 3 1 3
node 2 1 1 1
node 3 3 1 1
node 4 3 0 2
node 22 2 0 0
node 58 3 0 0
node 102 1 0 0
node 190 1 0 0
node 212 1 0 0
node 217 1 0 0
gene 3 1 4 4.3624 0 1 4.3624 1
gene 3 2 4 1.74238 0 2 1.74238 1
gene 1 3 4 8 0 3 8 1
gene 3 2 22 -6.34722 0 48 -6.34722 1
gene 3 22 4 -5.93525 0 49 -5.93525 1
gene 3 22 58 8 0 177 8 1
gene 2 58 4 -7.30619 0 178 -7.30619 1
gene 3 2 58 -4.02134 0 310 -4.02134 1
gene 3 2 102 5.65941 0 320 5.65941 0
gene 3 102 58 -5.58235 0 321 -5.58235 1
gene 1 3 22 -7.61219 0 333 -7.61219 1
gene 2 1 22 0.991663 0 360 0.991663 1
gene 3 3 190 3.72628 0 585 3.72628 1
gene 3 190 22 0.982283 0 586 0.982283 1
gene 2 190 102 -0.736095 0 618 -0.736095 1
gene 3 2 212 0.537437 0 649 0.537437 1
gene 3 212 58 3.0482 0 650 3.0482 1
gene 3 2 217 0.7961 0 663 0.7961 1
gene 3 217 102 -0.660876 0 664 -0.660876 1
genomeend 94

/* Species #40 : (Size 10) (AF 6.29498) (Age 7)  */


/* Organism #95 Fitness: 9 Error: 1 */
genomestart 95
trait 1 0.0987943 0 0 0.0534519 0 0 0.0413909 0 
trait 2 0.286194 0.18377 0.162478 0 0.0342459 0.0160122 0.0778039 0.0978675 
trait 3 0.285937 0.147698 0.0425052 0.0338685 0.22744 0.013745 0 0.108743 
node 1 3 1 3
node 2 1 1 1
node 3 3 1 1
node 4 3 0 2
node 22 2 0 0
node 58 3 0 0
node 102 1 0 0
node 190 1 0 0
node 218 1 0 0
node 226 1 0 0
gene 3 1 4 7.0484 0 1 7.0484 1
gene 3 2 4 -0.797022 0 2 -0.797022 0
gene 1 3 4 6.80316 0 3 6.80316 1
gene 3 2 22 -4.17978 0 48 -4.17978 1
gene 3 22 4 -7.52206 0 49 -7.52206 1
gene 3 22 58 1.89378 0 177 1.89378 0
gene 2 58 4 -7.36726 0 178 -7.36726 1
gene 3 2 58 -1.9887 0 310 -1.9887 1
gene 3 2 102 0.564423 0 320 0.564423 1
gene 3 102 58 -1.07029 0 321 -1.07029 1
gene 3 3 22 -0.959673 0 333 -0.959673 0
gene 2 1 22 2.55601 0 360 2.55601 1
gene 3 3 190 0.94176 0 585 0.94176 1
gene 3 190 22 -3.08918 0 586 -3.08918 1
gene 2 190 102 -0.864432 0 618 -0.864432 0
gene 2 190 58 0.118032 0 648 0.118032 1
gene 3 22 218 1 0 665 0 1
gene 3 218 58 1.89378 0 666 0 1
gene 2 190 226 1 0 683 0 1
gene 2 226 102 -0.864432 0 684 0 1
genomeend 95

/* Organism #96 Fitness: 9 Error: 1 */
genomestart 96
trait 1 0.0987943 0 0 0.0534519 0 0 0.0413909 0 
trait 2 0.286194 0.18377 0.162478 0 0.0342459 0.0160122 0.0778039 0.0978675 
trait 3 0.285937 0.147698 0.0425052 0.0338685 0.22744 0.013745 0 0.108743 
node 1 3 1 3
node 2 1 1 1
node 3 3 1 1
node 4 3 0 2
node 22 2 0 0
node 58 3 0 0
node 102 2 0 0
node 190 1 0 0
node 218 1 0 0
node 226 1 0 0
gene 3 1 4 5.47271 0 1 5.47271 1
gene 3 2 4 0.592156 0 2 0.592156 0
gene 1 3 4 7.94634 0 3 7.94634 1
gene 3 2 22 -4.35492 0 48 -4.35492 1
gene 3 22 4 -6.75662 0 49 -6.75662 1
gene 3 22 58 -0.352332 0 177 -0.352332 1
gene 2 58 4 -2.62729 0 178 -2.62729 1
gene 3 2 58 -2.39776 0 310 -2.39776 1
gene 3 2 102 1.48365 0 320 1.48365 1
gene 3 102 58 -3.65868 0 321 -3.65868 1
gene 3 3 22 -5.12725 0 333 -5.12725 1
gene 3 1 22 2.09778 0 360 2.09778 1
gene 3 3 190 -2.62769 0 585 -2.62769 1
gene 3 190 22 -1.83024 0 586 -1.83024 1
gene 2 190 102 -3.65202 0 618 -3.65202 0
gene 2 190 58 4.24736 0 648 4.24736 1
gene 3 22 218 -1.96023 0 665 -1.96023 1
gene 3 218 58 -0.970601 0 666 -0.970601 1
gene 1 190 226 0.762017 0 683 0.762017 1
gene 2 226 102 -0.864432 0 684 -0.864432 1
genomeend 96

/* Organism #97 Fitness: 8.82702 Error: 1.02897 */
genomestart 97
trait 1 0.0987943 0 0 0.0534519 0 0 0.0413909 0 
trait 2 0.286194 0.18377 0.162478 0 0.0342459 0.0160122 0.0778039 0.0978675 
trait 3 0.285937 0.147698 0.0425052 0.0338685 0.22744 0.013745 0 0.108743 
node 1 3 1 3
node 2 1 1 1
node 3 3 1 1
node 4 3 0 2
node 22 2 0 0
node 58 3 0 0
node 102 1 0 0
node 190 1 0 0
node 218 1 0 0
node 226 1 0 0
gene 3 1 4 7.0484 0 1 7.0484 1
gene 3 2 4 -0.797022 0 2 -0.797022 0
gene 1 3 4 6.80316 0 3 6.80316 1
gene 3 2 22 -1.00673 0 48 -1.00673 1
gene 3 22 4 -7.52206 0 49 -7.52206 1
gene 3 22 58 1.89378 0 177 1.89378 0
gene 2 58 4 -7.36726 0 178 -7.36726 1
gene 3 2 58 -1.9887 0 310 -1.9887 1
gene 3 2 102 0.564423 0 320 0.564423 1
gene 3 102 58 1.52703 0 321 1.52703 1
gene 3 3 22 -0.959673 0 333 -0.959673 0
gene 2 1 22 2.55601 0 360 2.55601 1
gene 3 3 190 0.94176 0 585 0.94176 1
gene 3 190 22 -3.08918 0 586 -3.08918 1
gene 2 190 102 -2.89276 0 618 -2.89276 0
gene 2 190 58 2.09578 0 648 2.09578 1
gene 3 22 218 0.146964 0 665 0.146964 1
gene 3 218 58 -3.28944 0 666 -3.28944 1
gene 2 190 226 -0.67862 0 683 -0.67862 1
gene 2 226 102 -0.864432 0 684 -0.864432 1
genomeend 97

/* Organism #98 Fitness: 4 Error: 2 */
genomestart 98
trait 1 0.0987943 0 0 0.0534519 0 0 0.0413909 0 
trait 2 0.286194 0.18377 0.162478 0 0.0342459 0.0160122 0.0778039 0.0978675 
trait 3 0.285937 0.147698 0.0425052 0.0338685 0.22744 0.013745 0 0.108743 
node 1 3 1 3
node 2 1 1 1
node 3 3 1 1
node 4 3 0 2
node 22 2 0 0
node 58 3 0 0
node 102 2 0 0
node 190 1 0 0
node 218 1 0 0
node 226 1 0 0
gene 3 1 4 4.27167 0 1 4.27167 1
gene 3 2 4 2.28007 0 2 2.28007 0
gene 1 3 4 4.72484 0 3 4.72484 1
gene 3 2 22 -2.94617 0 48 -2.94617 1
gene 3 22 4 -5.77623 0 49 -5.77623 1
gene 3 22 58 1.64764 0 177 1.64764 0
gene 2 58 4 -8 0 178 -8 1
gene 3 2 58 1.34596 0 310 1.34596 1
gene 3 2 102 2.467 0 320 2.467 1
gene 3 102 58 -0.289222 0 321 -0.289222 1
gene 3 3 22 1.53076 0 333 1.53076 0
gene 2 1 22 3.8226 0 360 3.8226 1
gene 3 3 190 -1.77732 0 585 -1.77732 1
gene 3 190 22 2.35715 0 586 2.35715 1
gene 2 190 102 -3.91608 0 618 -3.91608 0
gene 2 190 58 0.896554 0 648 0.896554 1
gene 3 22 218 2.60941 0 665 2.60941 1
gene 3 218 58 1.66484 0 666 1.66484 1
gene 2 190 226 -1.14915 0 683 -1.14915 1
gene 2 226 102 -1.94673 0 684 -1.94673 1
gene 3 226 22 -0.0244841 0 702 -0.0244841 1
genomeend 98

/* Organism #99 Fitness: 4.1867 Error: 1.95386 */
genomestart 99
trait 1 0.0987943 0 0 0.0534519 0 0 0.0413909 0 
trait 2 0 0 0.162478 0.315616 0.0342459 0.0160122 0 0.0978675 
trait 3 0.285937 0.147698 0.0425052 0.0338685 0.22744 0.013745 0 0.108743 
node 1 3 1 3
node 2 1 1 1
node 3 3 1 1
node 4 3 0 2
node 22 2 0 0
node 58 3 0 0
node 102 2 0 0
node 190 1 0 0
node 218 1 0 0
node 226 1 0 0
gene 3 1 4 7.3223 0 1 7.3223 1
gene 3 2 4 -3.41925 0 2 -3.41925 0
gene 1 3 4 -0.125558 0 3 -0.125558 1
gene 3 2 22 -2.87588 0 48 -2.87588 1
gene 3 22 4 -7.36563 0 49 -7.36563 1
gene 3 22 58 -0.190235 0 177 -0.190235 1
gene 2 58 4 -3.03004 0 178 -3.03004 1
gene 3 2 58 0.563746 0 310 0.563746 1
gene 3 2 102 1.14639 0 320 1.14639 1
gene 3 102 58 -3.32496 0 321 -3.32496 1
gene 3 3 22 -5.36273 0 333 -5.36273 1
gene 2 1 22 4.7526 0 360 4.7526 1
gene 3 3 190 -2.12595 0 585 -2.12595 1
gene 3 190 22 -1.61399 0 586 -1.61399 1
gene 2 190 102 -2.49674 0 618 -2.49674 0
gene 2 190 58 1.79401 0 648 1.79401 1
gene 3 22 218 -0.949302 0 665 -0.949302 1
gene 3 218 58 3.31741 0 666 3.31741 1
gene 1 190 226 1.99001 0 683 1.99001 1
gene 2 226 102 1.40181 0 684 1.40181 1
genomeend 99

/* Organism #100 Fitness: 9 Error: 1 */
genomestart 100
trait 1 0.0987943 0 0 0.0534519 0 0 0.0413909 0 
trait 2 0.286194 0.18377 0.162478 0 0.0342459 0.0160122 0.0778039 0.0978675 
trait 3 0.285937 0.147698 0.0425052 0.0338685 0.22744 0.013745 0 0.108743 
node 1 3 1 3
node 2 1 1 1
node 3 3 1 1
node 4 3 0 2
node 22 2 0 0
node 58 3 0 0
node 102 2 0 0
node 190 1 0 0
node 218 1 0 0
node 226 1 0 0
gene 3 1 4 7.23666 0 1 7.23666 1
gene 3 2 4 -1.0391 0 2 -1.0391 0
gene 1 3 4 7.57727 0 3 7.57727 1
gene 3 2 22 -3.82205 0 48 -3.82205 1
gene 3 22 4 -8 0 49 -8 1
gene 3 22 58 -0.190235 0 177 -0.190235 1
