
/* Species #1 : (Size 9) (AF 8.09183) (Age 32)  */


/* Organism #0 Fitness: 9 Error: 1 */
genomestart 0
trait 1 0.037207 0.530931 0 0.0819403 0 0.0523176 0.048311 0.335439 
trait 2 0.254021 0 0.0652197 0.0483188 0 0.116418 0 0.0913698 
trait 3 0.343994 0 0 0 0.041151 0 0.0537385 0 
node 1 3 1 3
node 2 1 1 1
node 3 2 1 1
node 4 1 0 2
gene 2 1 4 -4.07408 0 1 -4.07408 1
gene 1 2 4 8 0 2 8 1
gene 1 3 4 -8 0 3 -8 1
genomeend 0

/* Organism #1 Fitness: 8.9997 Error: 1.00005 */
genomestart 1
trait 1 0.037207 0.530931 0 0.0819403 0 0.0523176 0.048311 0.335439 
trait 2 0.254021 0 0.0652197 0.0483188 0 0.116418 0 0.0913698 
trait 3 0.343994 0 0 0 0.041151 0 0.0537385 0 
node 1 3 1 3
node 2 1 1 1
node 3 2 1 1
node 4 1 0 2
gene 2 1 4 -2.01452 0 1 -2.01452 1
gene 1 2 4 6.10838 0 2 6.10838 1
gene 1 3 4 -8 0 3 -8 1
genomeend 1

/* Organism #2 Fitness: 8.98081 Error: 1.0032 */
genomestart 2
trait 1 0.037207 0.530931 0 0.0819403 0 0.0523176 0.048311 0.335439 
trait 2 0.254021 0 0.0652197 0.0483188 0 0.116418 0 0.0913698 
trait 3 0.343994 0 0 0 0.041151 0 0.0537385 0 
node 1 3 1 3
node 2 1 1 1
node 3 2 1 1
node 4 1 0 2
gene 2 1 4 -2.90554 0 1 -2.90554 1
gene 1 2 4 8 0 2 8 1
gene 1 3 4 -6.26039 0 3 -6.26039 1
genomeend 2

/* Organism #3 Fitness: 1.02171 Error: 2.9892 */
genomestart 3
trait 1 0.037207 0.530931 0 0.0819403 0 0.0523176 0.048311 0.335439 
trait 2 0.254021 0 0.0652197 0.0483188 0 0.116418 0 0.0913698 
trait 3 0.343994 0 0 0 0.041151 0 0.0537385 0 
node 1 3 1 3
node 2 1 1 1
node 3 2 1 1
node 4 1 0 2
gene 2 1 4 0.922343 0 1 0.922343 1
gene 1 2 4 6.75308 0 2 6.75308 1
gene 1 3 4 -5.99699 0 3 -5.99699 1
genomeend 3

/* Organism #4 Fitness: 8.99397 Error: 1.00101 */
genomestart 4
trait 1 0.037207 0.530931 0 0.0819403 0 0.0523176 0.048311 0.335439 
trait 2 0.254021 0 0.0652197 0.0483188 0 0.116418 0 0.0913698 
trait 3 0.343994 0 0 0 0.041151 0 0.0537385 0 
node 1 3 1 3
node 2 1 1 1
node 3 2 1 1
node 4 1 0 2
gene 2 1 4 -6.50024 0 1 -6.50024 1
gene 1 2 4 7.90173 0 2 7.90173 1
gene 1 3 4 -8 0 3 -8 1
genomeend 4

/* Organism #5 Fitness: 9 Error: 1 */
genomestart 5
trait 1 0.037207 0.530931 0 0.0819403 0 0.0523176 0.048311 0.335439 
trait 2 0.254021 0 0.0652197 0.0483188 0 0.116418 0 0.0913698 
trait 3 0.343994 0 0 0 0.041151 0 0.0537385 0 
node 1 3 1 3
node 2 1 1 1
node 3 2 1 1
node 4 1 0 2
gene 2 1 4 -4.39692 0 1 -4.39692 1
gene 1 2 4 8 0 2 8 1
gene 1 3 4 -8 0 3 -8 1
genomeend 5

/* Organism #6 Fitness: 9 Error: 1 */
genomestart 6
trait 1 0.037207 0.530931 0 0.0819403 0 0.0523176 0.048311 0.335439 
trait 2 0.254021 0 0.0652197 0.0483188 0 0.116418 0 0.0913698 
trait 3 0.343994 0 0 0 0.041151 0 0.0537385 0 
node 1 3 1 3
node 2 1 1 1
node 3 2 1 1
node 4 1 0 2
gene 2 1 4 -4.91836 0 1 -4.91836 1
gene 1 2 4 8 0 2 8 1
gene 1 3 4 -8 0 3 -8 1
genomeend 6

/* Organism #7 Fitness: 8.8303 Error: 1.02842 */
genomestart 7
trait 1 0.037207 0.530931 0 0.0819403 0 0.0523176 0.048311 0.335439 
trait 2 0.254021 0 0.0652197 0.0483188 0 0.116418 0 0.0913698 
trait 3 0.343994 0 0 0 0.041151 0 0.0537385 0 
node 1 3 1 3
node 2 1 1 1
node 3 2 1 1
node 4 1 0 2
gene 2 1 4 -2.59875 0 1 -2.59875 1
gene 1 2 4 8 0 2 8 1
gene 1 3 4 -6.11851 0 3 -6.11851 1
genomeend 7

/* Organism #8 Fitness: 8.99997 Error: 1.00001 */
genomestart 8
trait 1 0.037207 0.530931 0 0.0819403 0 0.0523176 0.048311 0.335439 
trait 2 0.254021 0 0.0652197 0.0483188 0 0.116418 0 0.0913698 
trait 3 0.343994 0 0 0 0.041151 0 0.0537385 0 
node 1 2 1 3
node 2 1 1 1
node 3 2 1 1
node 4 1 0 2
gene 2 1 4 -5.52611 0 1 -5.52611 1
gene 1 2 4 8 0 2 8 1
gene 1 3 4 -8 0 3 -8 1
genomeend 8

/* Species #3 : (Size 9) (AF 7.55501) (Age 27)  */


/* Organism #9 Fitness: 9 Error: 1 */
genomestart 9
trait 1 0.1 0 0 0 0.452707 0 0 0.192215 
trait 2 0.2 0 0 0 0 0 0 0 
trait 3 0.475 0 0 0 0.139534 0 0.186688 0 
node 1 1 1 3
node 2 3 1 1
node 3 2 1 1
node 4 1 0 2
node 11 1 0 0
gene 3 1 4 -4.03444 0 1 -4.03444 1
gene 3 2 4 -8 0 2 -8 1
gene 1 3 4 8 0 3 8 1
gene 1 3 11 1.22268 0 18 1.22268 1
gene 1 11 4 -0.875425 0 19 -0.875425 1
gene 1 1 11 -1.87081 0 78 -1.87081 1
gene 1 2 11 0.741844 0 131 0.741844 1
genomeend 9

/* Organism #10 Fitness: 8.99826 Error: 1.00029 */
genomestart 10
trait 1 0.1 0 0 0 0.452707 0 0 0.192215 
trait 2 0.2 0 0 0 0 0 0 0 
trait 3 0.475 0 0 0 0.139534 0 0.186688 0 
node 1 1 1 3
node 2 3 1 1
node 3 2 1 1
node 4 1 0 2
node 11 1 0 0
gene 3 1 4 -5.43934 0 1 -5.43934 1
gene 3 2 4 -7.24511 0 2 -7.24511 1
gene 1 3 4 8 0 3 8 1
gene 1 3 11 0.411123 0 18 0.411123 1
gene 1 11 4 -2.70165 0 19 -2.70165 1
gene 2 1 11 -0.549958 0 78 -0.549958 1
gene 1 2 11 2.49075 0 131 2.49075 1
genomeend 10

/* Organism #11 Fitness: 8.9993 Error: 1.00012 */
genomestart 11
trait 1 0.1 0 0 0 0.452707 0 0 0.192215 
trait 2 0.2 0 0 0 0 0 0 0 
trait 3 0.475 0 0 0 0.139534 0 0.186688 0 
node 1 1 1 3
node 2 3 1 1
node 3 2 1 1
node 4 1 0 2
node 11 1 0 0
gene 3 1 4 -6.15991 0 1 -6.15991 1
gene 3 2 4 -6.55341 0 2 -6.55341 1
gene 1 3 4 8 0 3 8 1
gene 1 3 11 -0.664025 0 18 -0.664025 1
gene 1 11 4 -1.22529 0 19 -1.22529 1
gene 2 1 11 -3.41952 0 78 -3.41952 1
gene 1 2 11 -0.549315 0 131 -0.549315 1
genomeend 11

/* Organism #12 Fitness: 8.99749 Error: 1.00042 */
genomestart 12
trait 1 0.1 0 0 0 0.452707 0 0 0.192215 
trait 2 0.2 0 0 0 0 0 0 0 
trait 3 0.475 0 0 0 0.139534 0 0.186688 0 
node 1 1 1 3
node 2 3 1 1
node 3 2 1 1
node 4 1 0 2
node 11 1 0 0
gene 3 1 4 -1.90397 0 1 -1.90397 1
gene 3 2 4 -7.7215 0 2 -7.7215 1
gene 1 3 4 8 0 3 8 1
gene 1 3 11 -0.0397575 0 18 -0.0397575 1
gene 1 11 4 1.16097 0 19 1.16097 1
gene 1 1 11 -4.20591 0 78 -4.20591 1
gene 1 2 11 -0.12415 0 131 -0.12415 1
genomeend 12

/* Organism #13 Fitness: 8.99998 Error: 1 */
genomestart 13
trait 1 0.1 0 0 0 0.452707 0 0 0.192215 
trait 2 0.2 0 0 0 0 0 0 0 
trait 3 0.475 0 0 0 0.139534 0 0.186688 0 
node 1 1 1 3
node 2 3 1 1
node 3 2 1 1
node 4 1 0 2
node 11 1 0 0
gene 3 1 4 -2.56482 0 1 -2.56482 1
gene 3 2 4 -7.76795 0 2 -7.76795 1
gene 1 3 4 6.70773 0 3 6.70773 1
gene 1 3 11 -0.0443523 0 18 -0.0443523 1
gene 1 11 4 -0.790783 0 19 -0.790783 1
gene 1 1 11 -0.920177 0 78 -0.920177 1
gene 2 2 11 -0.416076 0 131 -0.416076 1
genomeend 13

/* Organism #14 Fitness: 8.99999 Error: 1 */
genomestart 14
trait 1 0.1 0 0 0 0.452707 0 0 0.192215 
trait 2 0.2 0 0 0 0 0 0 0 
trait 3 0.475 0 0 0 0.139534 0 0.186688 0 
node 1 1 1 3
node 2 3 1 1
node 3 2 1 1
node 4 1 0 2
node 11 1 0 0
gene 3 1 4 -3.92101 0 1 -3.92101 1
gene 3 2 4 -6.84423 0 2 -6.84423 1
gene 1 3 4 8 0 3 8 1
gene 1 3 11 1.59153 0 18 1.59153 1
gene 1 11 4 -0.0214793 0 19 -0.0214793 1
gene 1 1 11 0.405079 0 78 0.405079 1
gene 1 2 11 1.66007 0 131 1.66007 1
genomeend 14

/* Organism #15 Fitness: 4 Error: 2 */
genomestart 15
trait 1 0.1 0 0 0 0.452707 0 0 0.192215 
trait 2 0.2 0 0 0 0 0 0 0 
trait 3 0.475 0 0 0 0.139534 0 0.186688 0 
node 1 1 1 3
node 2 3 1 1
node 3 2 1 1
node 4 1 0 2
node 11 1 0 0
gene 3 1 4 -6.23809 0 1 -6.23809 1
gene 3 2 4 -5.8431 0 2 -5.8431 1
gene 1 3 4 -0.575126 0 3 -0.575126 1
gene 1 3 11 1.22268 0 18 1.22268 1
gene 1 11 4 1.19588 0 19 1.19588 1
gene 2 1 11 -2.29723 0 78 -2.29723 1
gene 1 2 11 0.766933 0 131 0.766933 1
genomeend 15

/* Organism #16 Fitness: 9 Error: 1 */
genomestart 16
trait 1 0.1 0 0 0 0.452707 0 0 0.192215 
trait 2 0.2 0 0 0 0 0 0 0 
trait 3 0.475 0 0 0 0.139534 0 0.186688 0 
node 1 1 1 3
node 2 3 1 1
node 3 2 1 1
node 4 1 0 2
node 11 1 0 0
gene 3 1 4 -4.03444 0 1 -4.03444 1
gene 3 2 4 -8 0 2 -8 1
gene 1 3 4 8 0 3 8 1
gene 1 3 11 1.22268 0 18 1.22268 1
gene 1 11 4 -0.875425 0 19 -0.875425 1
gene 1 1 11 -1.87081 0 78 -1.87081 1
gene 1 2 11 0.741844 0 131 0.741844 1
genomeend 16

/* Organism #17 Fitness: 1.00004 Error: 2.99998 */
genomestart 17
trait 1 0.1 0 0 0 0.452707 0 0 0.192215 
trait 2 0.2 0 0 0 0 0 0 0 
trait 3 0.475 0 0 0 0.139534 0 0.186688 0 
node 1 1 1 3
node 2 3 1 1
node 3 2 1 1
node 4 1 0 2
node 11 1 0 0
gene 3 1 4 2.17824 0 1 2.17824 1
gene 3 2 4 -6.43166 0 2 -6.43166 1
gene 1 3 4 8 0 3 8 1
gene 1 3 11 2.12637 0 18 2.12637 1
gene 1 11 4 1.12957 0 19 1.12957 1
gene 1 1 11 -1.87081 0 78 -1.87081 1
gene 1 2 11 1.47385 0 131 1.47385 1
genomeend 17

/* Species #4 : (Size 9) (AF 8.3194) (Age 27)  */


/* Organism #18 Fitness: 9 Error: 1 */
genomestart 18
trait 1 0.1 0 0 0 0 0 0 0 
trait 2 0.2 0 0 0 0 0 0 0 
trait 3 0.3 0 0 0 0 0 0 0 
node 1 1 1 3
node 2 3 1 1
node 3 3 1 1
node 4 1 0 2
node 9 1 0 0
node 12 1 0 0
node 62 1 0 0
node 74 1 0 0
gene 3 1 4 -4.23964 0 1 -4.23964 1
gene 3 2 4 -7.74915 0 2 -7.74915 1
gene 2 3 4 7.08987 0 3 7.08987 1
gene 2 3 9 0.197317 0 12 0.197317 1
gene 2 9 4 0.762805 0 13 0.762805 1
gene 2 2 9 -0.0662662 0 17 -0.0662662 0
gene 2 3 12 4.47359 0 20 4.47359 1
gene 2 12 9 -1.22456 0 21 -1.22456 0
gene 3 2 12 1.15617 0 29 1.15617 1
gene 3 12 4 -0.172899 0 46 -0.172899 1
gene 2 1 9 1.94497 0 63 1.94497 1
gene 3 1 12 3.48879 0 68 3.48879 1
gene 2 12 62 -2.78761 0 195 -2.78761 1
gene 2 62 9 1.07009 0 196 1.07009 1
gene 2 2 74 1 0 238 0 1
gene 2 74 9 -0.0662662 0 239 0 1
genomeend 18

/* Organism #19 Fitness: 9 Error: 1 */
genomestart 19
trait 1 0.1 0 0 0 0 0 0 0 
trait 2 0.2 0 0 0 0 0 0 0 
trait 3 0.3 0 0 0 0 0 0 0 
node 1 1 1 3
node 2 3 1 1
node 3 3 1 1
node 4 3 0 2
node 9 1 0 0
node 12 1 0 0
node 62 1 0 0
node 74 1 0 0
gene 3 1 4 -4.23964 0 1 -4.23964 1
gene 3 2 4 -7.74915 0 2 -7.74915 1
gene 2 3 4 7.08987 0 3 7.08987 1
gene 2 3 9 0.197317 0 12 0.197317 1
gene 2 9 4 0.762805 0 13 0.762805 1
gene 2 2 9 -0.0662662 0 17 -0.0662662 0
gene 2 3 12 4.47359 0 20 4.47359 1
gene 2 12 9 -1.22456 0 21 -1.22456 0
gene 3 2 12 1.15617 0 29 1.15617 1
gene 3 12 4 -0.172899 0 46 -0.172899 1
gene 2 1 9 1.94497 0 63 1.94497 1
gene 3 1 12 3.48879 0 68 3.48879 1
gene 2 12 62 -2.78761 0 195 -2.78761 1
gene 2 62 9 1.07009 0 196 1.07009 1
gene 2 2 74 1 0 238 0 1
gene 2 74 9 -0.0662662 0 239 0 1
genomeend 19

/* Organism #20 Fitness: 9 Error: 1 */
genomestart 20
trait 1 0.1 0 0 0 0 0 0 0 
trait 2 0.2 0 0 0 0 0 0 0 
trait 3 0.3 0 0 0 0 0 0 0 
node 1 1 1 3
node 2 3 1 1
node 3 3 1 1
node 4 1 0 2
node 9 1 0 0
node 12 1 0 0
node 62 1 0 0
node 74 1 0 0
gene 3 1 4 -4.56276 0 1 -4.56276 1
gene 3 2 4 -7.23979 0 2 -7.23979 1
gene 2 3 4 7.54494 0 3 7.54494 1
gene 2 3 9 -0.178539 0 12 -0.178539 1
gene 2 9 4 0.464723 0 13 0.464723 1
gene 2 2 9 -0.644262 0 17 -0.644262 0
gene 2 3 12 4.03015 0 20 4.03015 1
gene 2 12 9 -0.662778 0 21 -0.662778 0
gene 3 2 12 1.5211 0 29 1.5211 1
gene 3 12 4 0.15336 0 46 0.15336 1
gene 2 1 9 1.85869 0 63 1.85869 1
gene 3 1 12 2.62902 0 68 2.62902 1
gene 2 12 62 -3.30244 0 195 -3.30244 1
gene 2 62 9 0.935911 0 196 0.935911 1
gene 2 2 74 1 0 238 0 1
gene 2 74 9 -0.0662662 0 239 0 1
genomeend 20

/* Organism #21 Fitness: 9 Error: 1 */
genomestart 21
trait 1 0.1 0 0 0 0 0 0 0 
trait 2 0.2 0 0 0 0 0 0 0 
trait 3 0.3 0 0 0 0 0 0 0 
node 1 1 1 3
node 2 3 1 1
node 3 3 1 1
node 4 1 0 2
node 9 1 0 0
node 12 1 0 0
node 62 1 0 0
node 74 1 0 0
gene 3 1 4 -4.23964 0 1 -4.23964 1
gene 3 2 4 -7.49831 0 2 -7.49831 1
gene 2 3 4 7.51948 0 3 7.51948 1
gene 2 3 9 -0.554394 0 12 -0.554394 1
gene 2 9 4 0.762805 0 13 0.762805 1
gene 2 2 9 -0.0662662 0 17 -0.0662662 0
gene 2 3 12 4.47359 0 20 4.47359 1
gene 2 12 9 -1.22456 0 21 -1.22456 0
gene 3 2 12 2.83622 0 29 2.83622 1
gene 3 12 4 -0.172899 0 46 -0.172899 1
gene 2 1 9 3.00048 0 63 3.00048 1
gene 3 1 12 3.66038 0 68 3.66038 1
gene 2 12 62 -2.78761 0 195 -2.78761 1
gene 2 62 9 1.07009 0 196 1.07009 1
gene 2 2 74 1 0 238 0 1
gene 2 74 9 -0.0662662 0 239 0 1
genomeend 21

/* Organism #22 Fitness: 8.7636 Error: 1.03966 */
genomestart 22
trait 1 0.1 0 0 0 0 0 0 0 
trait 2 0.2 0 0 0 0 0 0 0 
trait 3 0.3 0 0 0 0 0 0 0 
node 1 1 1 3
node 2 3 1 1
node 3 3 1 1
node 4 1 0 2
node 9 1 0 0
node 12 1 0 0
node 62 1 0 0
node 74 1 0 0
gene 3 1 4 -4.64206 0 1 -4.64206 1
gene 3 2 4 -2.12895 0 2 -2.12895 1
gene 2 3 4 6.49178 0 3 6.49178 1
gene 2 3 9 1.40808 0 12 1.40808 1
gene 2 9 4 -0.198764 0 13 -0.198764 1
gene 2 2 9 -0.0662662 0 17 -0.0662662 0
gene 2 3 12 5.79451 0 20 5.79451 1
gene 2 12 9 -0.431425 0 21 -0.431425 0
gene 3 2 12 2.58286 0 29 2.58286 1
gene 3 12 4 -0.172899 0 46 -0.172899 1
gene 2 1 9 0.139068 0 63 0.139068 1
gene 3 1 12 1.76924 0 68 1.76924 1
gene 2 12 62 0.730863 0 195 0.730863 1
gene 2 62 9 0.801729 0 196 0.801729 1
gene 2 2 74 0.485329 0 238 0.485329 1
gene 2 74 9 0.252764 0 239 0.252764 1
genomeend 22

/* Organism #23 Fitness: 8.99326 Error: 1.00112 */
genomestart 23
trait 1 0.1 0 0 0 0 0 0 0 
trait 2 0.2 0 0 0 0 0 0 0 
trait 3 0.3 0 0 0 0 0 0 0 
node 1 1 1 3
node 2 3 1 1
node 3 3 1 1
node 4 1 0 2
node 9 1 0 0
node 12 1 0 0
node 62 1 0 0
node 74 1 0 0
gene 3 1 4 -1.53684 0 1 -1.53684 1
gene 3 2 4 -8 0 2 -8 1
gene 2 3 4 8 0 3 8 1
gene 2 3 9 0.550385 0 12 0.550385 1
gene 2 9 4 -2.16282 0 13 -2.16282 1
gene 2 2 9 0.168476 0 17 0.168476 1
gene 2 3 12 5.48658 0 20 5.48658 1
gene 2 12 9 -1.54231 0 21 -1.54231 0
gene 3 2 12 1.34818 0 29 1.34818 1
gene 3 12 4 2.30484 0 46 2.30484 1
gene 2 1 9 2.30899 0 63 2.30899 1
gene 3 1 12 0.254675 0 68 0.254675 1
gene 2 12 62 -2.42917 0 195 -2.42917 1
gene 2 62 9 0.852472 0 196 0.852472 1
gene 2 2 74 1.03568 0 238 1.03568 1
gene 2 74 9 1.71224 0 239 1.71224 1
genomeend 23

/* Organism #24 Fitness: 8.11778 Error: 1.15083 */
genomestart 24
trait 1 0.1 0 0 0 0 0 0 0 
trait 2 0.2 0 0 0 0 0 0 0 
trait 3 0.3 0 0 0 0 0 0 0 
node 1 1 1 3
node 2 3 1 1
node 3 3 1 1
node 4 1 0 2
node 9 1 0 0
node 12 1 0 0
node 62 3 0 0
node 74 1 0 0
gene 3 1 4 -1.21989 0 1 -1.21989 1
gene 3 2 4 -7.15114 0 2 -7.15114 1
gene 2 3 4 5.83746 0 3 5.83746 1
gene 2 3 9 -0.606772 0 12 -0.606772 1
gene 2 9 4 0.0942993 0 13 0.0942993 1
gene 2 2 9 -0.030599 0 17 -0.030599 0
gene 2 3 12 4.40182 0 20 4.40182 1
gene 2 12 9 -1.04478 0 21 -1.04478 0
gene 3 2 12 1.70239 0 29 1.70239 1
gene 3 12 4 -4.36093 0 46 -4.36093 1
gene 2 1 9 5.26415 0 63 5.26415 1
gene 3 1 12 5.78825 0 68 5.78825 1
gene 2 12 62 -0.362037 0 195 -0.362037 1
gene 2 62 9 -2.63013 0 196 -2.63013 1
gene 2 2 74 -0.3313 0 238 -0.3313 1
gene 2 74 9 0.35759 0 239 0.35759 1
genomeend 24

/* Organism #25 Fitness: 8.99998 Error: 1 */
genomestart 25
trait 1 0.1 0 0 0 0 0 0 0 
trait 2 0.2 0 0 0 0 0 0 0 
trait 3 0.3 0 0 0 0 0 0 0 
node 1 1 1 3
node 2 3 1 1
node 3 3 1 1
node 4 1 0 2
node 9 1 0 0
node 12 1 0 0
node 62 1 0 0
node 74 1 0 0
gene 3 1 4 -3.62474 0 1 -3.62474 1
gene 3 2 4 -6.81921 0 2 -6.81921 1
gene 2 3 4 8 0 3 8 1
gene 2 3 9 -0.979248 0 12 -0.979248 1
gene 2 9 4 0.768454 0 13 0.768454 1
gene 2 2 9 1.80892 0 17 1.80892 0
gene 2 3 12 2.6813 0 20 2.6813 1
gene 2 12 9 0.258659 0 21 0.258659 0
gene 3 2 12 -0.300519 0 29 -0.300519 1
gene 3 12 4 -0.864211 0 46 -0.864211 1
gene 2 1 9 2.07991 0 63 2.07991 1
gene 3 1 12 4.69577 0 68 4.69577 1
gene 2 12 62 -1.93462 0 195 -1.93462 1
gene 2 62 9 1.29827 0 196 1.29827 1
gene 2 2 74 1.71692 0 238 1.71692 1
gene 2 74 9 -0.0662662 0 239 -0.0662662 1
genomeend 25

/* Organism #26 Fitness: 4 Error: 2 */
genomestart 26
trait 1 0.1 0 0 0 0 0 0 0 
trait 2 0.2 0 0 0 0 0 0 0 
trait 3 0.177239 0 0 0 0 0 0 0 
node 1 1 1 3
node 2 3 1 1
node 3 3 1 1
node 4 1 0 2
node 9 1 0 0
node 12 1 0 0
node 62 1 0 0
node 74 1 0 0
gene 3 1 4 -6.69173 0 1 -6.69173 1
gene 3 2 4 -5.38182 0 2 -5.38182 1
gene 2 3 4 0.364172 0 3 0.364172 1
gene 2 3 9 1.61801 0 12 1.61801 1
gene 2 9 4 2.4904 0 13 2.4904 1
gene 2 2 9 -1.45569 0 17 -1.45569 0
gene 2 3 12 5.305 0 20 5.305 1
gene 2 12 9 -1.88917 0 21 -1.88917 0
gene 3 2 12 -1.33183 0 29 -1.33183 1
gene 3 12 4 -0.172899 0 46 -0.172899 1
gene 2 1 9 1.94497 0 63 1.94497 1
gene 3 1 12 5.14781 0 68 5.14781 1
gene 2 12 62 -2.78761 0 195 -2.78761 1
gene 2 62 9 -0.439304 0 196 -0.439304 1
gene 2 2 74 1.62394 0 238 1.62394 1
gene 2 74 9 2.29826 0 239 2.29826 1
genomeend 26

/* Species #5 : (Size 11) (AF 8.54548) (Age 24)  */


/* Organism #27 Fitness: 9 Error: 1 */
genomestart 27
trait 1 0.1 0 0 0 0 0 0 0 
trait 2 0.316805 0 0.180184 0.133491 0 0.258057 0 0.197562 
trait 3 0.371875 0 0 0 0.0872091 0 0.11668 0 
node 1 2 1 3
node 2 2 1 1
node 3 1 1 1
node 4 3 0 2
node 17 1 0 0
gene 2 1 4 -5.47455 0 1 -5.47455 1
gene 1 2 4 8 0 2 8 1
gene 3 3 4 5.58056 0 3 5.58056 1
gene 1 2 17 5.46678 0 40 5.46678 1
gene 1 17 4 5.01836 0 41 5.01836 1
gene 1 1 17 -2.7629 0 55 -2.7629 1
gene 3 3 17 5.67213 0 118 5.67213 1
genomeend 27

/* Organism #28 Fitness: 8.99989 Error: 1.00002 */
genomestart 28
trait 1 0.1 0 0 0 0 0 0 0 
trait 2 0.316805 0 0.180184 0.133491 0 0.258057 0 0.197562 
trait 3 0.371875 0 0 0 0.0872091 0 0.11668 0 
node 1 2 1 3
node 2 2 1 1
node 3 1 1 1
node 4 3 0 2
node 17 1 0 0
gene 2 1 4 -4.63656 0 1 -4.63656 1
gene 1 2 4 6.53806 0 2 6.53806 1
gene 3 3 4 6.90703 0 3 6.90703 1
gene 1 2 17 5.46678 0 40 5.46678 1
gene 1 17 4 4.53105 0 41 4.53105 1
gene 1 1 17 -5.86856 0 55 -5.86856 1
gene 3 3 17 4.63263 0 118 4.63263 1
genomeend 28

/* Organism #29 Fitness: 9 Error: 1 */
genomestart 29
trait 1 0.1 0 0 0 0 0 0 0 
trait 2 0.316805 0 0.180184 0.133491 0 0.258057 0 0.197562 
trait 3 0.371875 0 0 0 0.0872091 0 0.11668 0 
node 1 2 1 3
node 2 2 1 1
node 3 1 1 1
node 4 3 0 2
node 17 1 0 0
gene 2 1 4 -2.98368 0 1 -2.98368 1
gene 1 2 4 6.01072 0 2 6.01072 1
gene 3 3 4 5.60214 0 3 5.60214 1
gene 1 2 17 4.92019 0 40 4.92019 1
gene 1 17 4 7.00032 0 41 7.00032 1
gene 1 1 17 -2.28174 0 55 -2.28174 1
gene 3 3 17 3.55916 0 118 3.55916 1
genomeend 29

/* Organism #30 Fitness: 9 Error: 1 */
genomestart 30
trait 1 0.1 0 0 0 0 0 0 0 
trait 2 0.316805 0 0.180184 0.133491 0 0.258057 0 0.197562 
trait 3 0.371875 0 0 0 0.0872091 0 0.11668 0 
node 1 2 1 3
node 2 2 1 1
node 3 1 1 1
node 4 3 0 2
node 17 1 0 0
gene 2 1 4 -4.41648 0 1 -4.41648 1
gene 1 2 4 6.05502 0 2 6.05502 1
gene 3 3 4 4.93039 0 3 4.93039 1
gene 1 2 17 6.215 0 40 6.215 1
gene 1 17 4 6.16786 0 41 6.16786 1
gene 1 1 17 -2.00588 0 55 -2.00588 1
gene 3 3 17 5.13601 0 118 5.13601 1
genomeend 30

/* Organism #31 Fitness: 9 Error: 1 */
genomestart 31
trait 1 0.1 0 0 0 0 0 0 0 
trait 2 0.316805 0 0.180184 0.133491 0 0.258057 0 0.197562 
trait 3 0.371875 0 0 0 0 0.948126 0.11668 0 
node 1 2 1 3
node 2 2 1 1
node 3 1 1 1
node 4 3 0 2
node 17 1 0 0
gene 2 1 4 -5.46778 0 1 -5.46778 1
gene 1 2 4 8 0 2 8 1
gene 3 3 4 3.95686 0 3 3.95686 1
gene 1 2 17 5.15498 0 40 5.15498 1
gene 1 17 4 4.54831 0 41 4.54831 1
gene 1 1 17 -2.22056 0 55 -2.22056 1
gene 3 3 17 6.19579 0 118 6.19579 1
genomeend 31

/* Organism #32 Fitness: 4.00058 Error: 1.99985 */
genomestart 32
trait 1 0.1 0 0 0 0 0 0 0 
trait 2 0.316805 0 0.180184 0.133491 0 0.258057 0 0.197562 
trait 3 0.371875 0 0 0 0.0872091 0 0.11668 0 
node 1 2 1 3
node 2 2 1 1
node 3 1 1 1
node 4 3 0 2
node 17 1 0 0
gene 2 1 4 -5.79403 0 1 -5.79403 1
gene 1 2 4 8 0 2 8 1
gene 3 3 4 -0.43009 0 3 -0.43009 1
gene 1 2 17 1.11134 0 40 1.11134 1
gene 1 17 4 4.42968 0 41 4.42968 1
gene 1 1 17 -0.589678 0 55 -0.589678 1
gene 3 3 17 5.67213 0 118 5.67213 1
genomeend 32

/* Organism #33 Fitness: 9 Error: 1 */
genomestart 33
trait 1 0.1 0 0 0 0 0 0 0 
trait 2 0.316805 0 0.180184 0.133491 0 0.258057 0 0.197562 
trait 3 0.371875 0 0 0 0.0872091 0 0.11668 0 
node 1 2 1 3
node 2 2 1 1
node 3 1 1 1
node 4 3 0 2
node 17 1 0 0
gene 2 1 4 -7.07455 0 1 -7.07455 1
gene 1 2 4 7.19993 0 2 7.19993 1
gene 3 3 4 8 0 3 8 1
gene 1 2 17 7.80121 0 40 7.80121 1
gene 1 17 4 4.88077 0 41 4.88077 1
gene 1 1 17 -3.59135 0 55 -3.59135 1
gene 3 3 17 7.79027 0 118 7.79027 1
genomeend 33

/* Organism #34 Fitness: 9 Error: 1 */
genomestart 34
trait 1 0.1 0 0 0 0 0 0 0 
trait 2 0.316805 0 0.180184 0.133491 0 0.258057 0 0.197562 
trait 3 0.371875 0 0 0 0.0872091 0 0.11668 0 
node 1 2 1 3
node 2 2 1 1
node 3 1 1 1
node 4 3 0 2
node 17 1 0 0
gene 2 1 4 -5.47455 0 1 -5.47455 1
gene 1 2 4 8 0 2 8 1
gene 3 3 4 5.58056 0 3 5.58056 1
gene 1 2 17 5.46678 0 40 5.46678 1
gene 1 17 4 5.01836 0 41 5.01836 1
gene 1 1 17 -3.13977 0 55 -3.13977 1
gene 3 3 17 5.67213 0 118 5.67213 1
genomeend 34

/* Organism #35 Fitness: 9 Error: 1 */
genomestart 35
trait 1 0.1 0 0 0 0 0 0 0 
trait 2 0.316805 0 0.180184 0.133491 0 0.258057 0 0.197562 
trait 3 0.371875 0 0 0 0.0872091 0 0.11668 0 
node 1 2 1 3
node 2 2 1 1
node 3 1 1 1
node 4 3 0 2
node 17 1 0 0
gene 2 1 4 -3.62027 0 1 -3.62027 1
gene 1 2 4 8 0 2 8 1
gene 3 3 4 5.64604 0 3 5.64604 1
gene 1 2 17 5.9751 0 40 5.9751 1
gene 1 17 4 7.51047 0 41 7.51047 1
gene 1 1 17 -1.59814 0 55 -1.59814 1
gene 3 3 17 4.07321 0 118 4.07321 1
genomeend 35

/* Organism #36 Fitness: 9 Error: 1 */
genomestart 36
trait 1 0.1 0 0 0 0 0 0 0 
trait 2 0.316805 0 0.180184 0.133491 0 0.258057 0 0.197562 
trait 3 0.371875 0 0 0 0.0872091 0 0.11668 0 
node 1 2 1 3
node 2 2 1 1
node 3 1 1 1
node 4 3 0 2
node 17 1 0 0
gene 2 1 4 -5.77152 0 1 -5.77152 1
gene 1 2 4 8 0 2 8 1
gene 3 3 4 5.07872 0 3 5.07872 1
gene 1 2 17 7.67138 0 40 7.67138 1
gene 1 17 4 6.8656 0 41 6.8656 1
gene 1 1 17 -3.92708 0 55 -3.92708 1
gene 3 3 17 7.32503 0 118 7.32503 1
genomeend 36

/* Organism #37 Fitness: 8.99984 Error: 1.00003 */
genomestart 37
trait 1 0.1 0 0 0 0 0 0 0 
trait 2 0.316805 0 0.180184 0.133491 0 0.258057 0 0.197562 
trait 3 0.371875 0 0 0 0.0872091 0 0.11668 0 
node 1 2 1 3
node 2 2 1 1
node 3 1 1 1
node 4 3 0 2
node 17 1 0 0
gene 2 1 4 -6.52033 0 1 -6.52033 1
gene 3 2 4 8 0 2 8 1
gene 3 3 4 6.74144 0 3 6.74144 1
gene 1 2 17 6.83045 0 40 6.83045 1
gene 1 17 4 3.60825 0 41 3.60825 1
gene 1 1 17 -1.3174 0 55 -1.3174 1
gene 3 3 17 1.34299 0 118 1.34299 1
genomeend 37

/* Species #7 : (Size 10) (AF 7.62328) (Age 24)  */


/* Organism #38 Fitness: 8.9998 Error: 1.00003 */
genomestart 38
trait 1 0.1 0 0 0 0 0 0 0 
trait 2 0.383857 0 0 0 0 0 0 0 
trait 3 0.475 0 0 0 0.139534 0 0.186688 0 
node 1 1 1 3
node 2 3 1 1
node 3 3 1 1
node 4 1 0 2
node 11 1 0 0
node 18 1 0 0
gene 3 1 4 -2.22558 0 1 -2.22558 1
gene 3 2 4 -6.37946 0 2 -6.37946 1
gene 1 3 4 0.49253 0 3 0.49253 1
gene 1 3 11 -2.88992 0 18 -2.88992 0
gene 1 11 4 8 0 19 8 1
gene 1 3 18 -7.66062 0 44 -7.66062 1
gene 1 18 11 -2.67333 0 45 -2.67333 1
gene 3 2 18 -0.6827 0 200 -0.6827 1
genomeend 38

/* Organism #39 Fitness: 4 Error: 2 */
genomestart 39
trait 1 0.1 0 0 0 0 0 0 0 
trait 2 0.383857 0 0 0.0760646 0 0 0.03541 0 
trait 3 0.475 0 0 0 0.139534 0 0.186688 0 
node 1 1 1 3
node 2 3 1 1
node 3 3 1 1
node 4 2 0 2
node 11 1 0 0
node 18 1 0 0
gene 3 1 4 -4.37323 0 1 -4.37323 1
gene 3 2 4 -5.35554 0 2 -5.35554 1
gene 1 3 4 0.056101 0 3 0.056101 0
gene 1 3 11 -3.3742 0 18 -3.3742 0
gene 1 11 4 -1.57791 0 19 -1.57791 1
gene 1 3 18 1.93165 0 44 1.93165 1
gene 1 18 11 -3.6196 0 45 -3.6196 1
gene 3 2 18 -0.6827 0 200 -0.6827 1
genomeend 39

/* Organism #40 Fitness: 8.47706 Error: 1.08846 */
genomestart 40
trait 1 0.1 0 0 0 0 0 0 0 
trait 2 0.696667 0 0 0.152129 0 0 0 0 
trait 3 0.475 0 0 0 0.139534 0 0.186688 0 
node 1 1 1 3
node 2 3 1 1
node 3 3 1 1
node 4 1 0 2
node 11 1 0 0
node 18 1 0 0
gene 3 1 4 -3.52631 0 1 -3.52631 1
gene 3 2 4 -4.12573 0 2 -4.12573 1
gene 1 3 4 0.134211 0 3 0.134211 0
gene 1 3 11 -1.19459 0 18 -1.19459 0
gene 1 11 4 8 0 19 8 1
gene 1 3 18 -8 0 44 -8 1
gene 1 18 11 -2.25139 0 45 -2.25139 1
gene 3 2 18 -0.408093 0 200 -0.408093 1
genomeend 40

/* Organism #41 Fitness: 8.95396 Error: 1.00768 */
genomestart 41
trait 1 0.1 0 0 0 0 0 0 0 
trait 2 0.383857 0 0 0.152129 0 0 0.0708201 0 
trait 3 0.475 0 0 0 0.139534 0 0.186688 0 
node 1 1 1 3
node 2 3 1 1
node 3 3 1 1
node 4 1 0 2
node 11 1 0 0
node 18 1 0 0
gene 3 1 4 -1.08652 0 1 -1.08652 1
gene 3 2 4 -8 0 2 -8 1
gene 1 3 4 -0.0531225 0 3 -0.0531225 0
gene 1 3 11 -3.40212 0 18 -3.40212 0
gene 2 11 4 5.98184 0 19 5.98184 1
gene 1 3 18 -8 0 44 -8 1
gene 1 18 11 -1.66687 0 45 -1.66687 1
gene 3 2 18 -3.06367 0 200 -3.06367 1
genomeend 41

/* Organism #42 Fitness: 8.97326 Error: 1.00446 */
genomestart 42
trait 1 0.1 0 0 0 0 0 0 0 
trait 2 0.383857 0 0 0.152129 0 0 0.0708201 0 
trait 3 0.475 0 0 0 0.139534 0 0.186688 0 
node 1 1 1 3
node 2 3 1 1
node 3 3 1 1
node 4 1 0 2
node 11 1 0 0
node 18 1 0 0
gene 3 1 4 -1.15483 0 1 -1.15483 1
gene 3 2 4 -4.8831 0 2 -4.8831 1
gene 1 3 4 2.35749 0 3 2.35749 0
gene 1 3 11 -4.74404 0 18 -4.74404 0
gene 1 11 4 8 0 19 8 1
gene 1 3 18 -7.44153 0 44 -7.44153 1
gene 1 18 11 -2.02317 0 45 -2.02317 1
gene 3 2 18 0.771103 0 200 0.771103 1
genomeend 42

/* Organism #43 Fitness: 4.31943 Error: 1.92168 */
genomestart 43
trait 1 0.1 0 0 0 0 0 0 0 
trait 2 0.383857 0 0 0.152129 0 0 0.0708201 0 
trait 3 0.475 0 0 0 0.139534 0 0.186688 0 
node 1 1 1 3
node 2 3 1 1
node 3 3 1 1
node 4 1 0 2
node 11 1 0 0
node 18 1 0 0
gene 3 1 4 -4.50065 0 1 -4.50065 1
gene 3 2 4 -7.76978 0 2 -7.76978 1
gene 1 3 4 -0.89701 0 3 -0.89701 0
gene 1 3 11 -5.0385 0 18 -5.0385 0
gene 1 11 4 8 0 19 8 1
gene 1 3 18 -8 0 44 -8 1
gene 1 18 11 -0.945009 0 45 -0.945009 1
gene 3 2 18 -2.09056 0 200 -2.09056 1
genomeend 43

/* Organism #44 Fitness: 8.99922 Error: 1.00013 */
genomestart 44
trait 1 0.1 0 0 0 0 0 0 0 
trait 2 0.383857 0 0 0.0760646 0 0 0.03541 0 
trait 3 0.475 0 0 0 0.139534 0 0.186688 0 
node 1 1 1 3
node 2 3 1 1
node 3 3 1 1
node 4 1 0 2
node 11 1 0 0
node 18 1 0 0
gene 3 1 4 -1.9743 0 1 -1.9743 1
gene 3 2 4 -7.05431 0 2 -7.05431 1
gene 1 3 4 2.67238 0 3 2.67238 0
gene 1 3 11 -1.8279 0 18 -1.8279 0
gene 1 11 4 8 0 19 8 1
gene 1 3 18 -7.03621 0 44 -7.03621 1
gene 1 18 11 -1.93184 0 45 -1.93184 1
gene 3 2 18 1.14519 0 200 1.14519 1
genomeend 44

/* Organism #45 Fitness: 8.99957 Error: 1.00007 */
genomestart 45
trait 1 0.1 0 0 0 0 0 0 0 
trait 2 0.383857 0 0 0 0 0 0 0 
trait 3 0.475 0 0 0 0.139534 0 0.186688 0 
node 1 1 1 3
node 2 3 1 1
node 3 3 1 1
node 4 1 0 2
node 11 1 0 0
node 18 1 0 0
gene 3 1 4 -3.86581 0 1 -3.86581 1
gene 3 2 4 -6.05986 0 2 -6.05986 1
gene 1 3 4 1.80283 0 3 1.80283 1
gene 1 3 11 -1.9211 0 18 -1.9211 0
gene 1 11 4 8 0 19 8 1
gene 1 3 18 -8 0 44 -8 1
gene 1 18 11 -4.77777 0 45 -4.77777 1
gene 3 2 18 -0.13392 0 200 -0.13392 1
genomeend 45

/* Organism #46 Fitness: 8.80464 Error: 1.03274 */
genomestart 46
trait 1 0.1 0 0 0 0 0 0 0 
trait 2 0.383857 0 0 0.152129 0 0 0.0708201 0 
trait 3 0.475 0 0 0 0.139534 0 0.186688 0 
node 1 1 1 3
node 2 3 1 1
node 3 3 1 1
node 4 1 0 2
node 11 1 0 0
node 18 1 0 0
gene 3 1 4 -1.01913 0 1 -1.01913 1
gene 3 2 4 -7.70519 0 2 -7.70519 1
gene 1 3 4 -0.00674748 0 3 -0.00674748 0
gene 1 3 11 -1.3296 0 18 -1.3296 0
gene 1 11 4 7.54148 0 19 7.54148 1
gene 1 3 18 -5.76666 0 44 -5.76666 1
gene 1 18 11 -1.25074 0 45 -1.25074 1
gene 3 2 18 -0.784552 0 200 -0.784552 1
genomeend 46

/* Organism #47 Fitness: 5.70583 Error: 1.61131 */
genomestart 47
trait 1 0.1 0 0 0 0 0 0 0 
trait 2 0.383857 0 0 0 0 0 0 0 
trait 3 0.990939 0 0.454078 0 0.139534 0 1 0 
node 1 1 1 3
node 2 3 1 1
node 3 3 1 1
node 4 1 0 2
node 11 1 0 0
node 18 1 0 0
gene 3 1 4 -0.0166986 0 1 -0.0166986 1
gene 3 2 4 -6.71822 0 2 -6.71822 1
gene 1 3 4 2.9724 0 3 2.9724 1
gene 1 3 11 -4.87494 0 18 -4.87494 0
gene 1 11 4 6.74767 0 19 6.74767 1
gene 1 3 18 -7.6779 0 44 -7.6779 1
gene 1 18 11 -3.1769 0 45 -3.1769 1
gene 3 2 18 0.907503 0 200 0.907503 1
genomeend 47

/* Species #9 : (Size 11) (AF 6.25069) (Age 23)  */


/* Organism #48 Fitness: 8.99966 Error: 1.00006 */
genomestart 48
trait 1 0.0625 0 0 0.362394 0.333829 0 0 0 
trait 2 0.2 0 0 0.271243 0.01205 0 0.234642 0 
trait 3 0.3 0 0 0.129966 0.186978 0 0 0 
node 1 1 1 3
node 2 3 1 1
node 3 3 1 1
node 4 3 0 2
node 9 1 0 0
node 12 1 0 0
node 19 1 0 0
gene 3 1 4 -6.01426 0 1 -6.01426 1
gene 3 2 4 6.64342 0 2 6.64342 1
gene 2 3 4 -2.38235 0 3 -2.38235 0
gene 2 3 9 -6.89366 0 12 -6.89366 0
gene 2 9 4 -8 0 13 -8 0
gene 2 2 9 2.30186 0 17 2.30186 1
gene 2 3 12 -4.49903 0 20 -4.49903 1
gene 2 12 9 -8 0 21 -8 1
gene 2 9 19 5.92802 0 47 5.92802 1
gene 2 19 4 8 0 48 8 1
gene 2 12 4 -2.29748 0 210 -2.29748 1
genomeend 48

/* Organism #49 Fitness: 8.99794 Error: 1.00034 */
genomestart 49
trait 1 0.0625 0 0 0.362394 0.333829 0 0 0 
trait 2 0.2 0 0 0.271243 0.01205 0 0.234642 0 
trait 3 0.3 0 0 0.129966 0.186978 0 0 0 
node 1 1 1 3
node 2 3 1 1
node 3 3 1 1
node 4 3 0 2
node 9 1 0 0
node 12 1 0 0
node 19 1 0 0
gene 3 1 4 -4.62217 0 1 -4.62217 1
gene 3 2 4 3.60075 0 2 3.60075 1
gene 2 3 4 1.65758 0 3 1.65758 0
gene 2 3 9 -7.51667 0 12 -7.51667 0
gene 2 9 4 -7.48355 0 13 -7.48355 0
gene 2 2 9 5.79681 0 17 5.79681 1
gene 2 3 12 -2.73821 0 20 -2.73821 1
gene 2 12 9 -6.08916 0 21 -6.08916 1
gene 2 9 19 5.1588 0 47 5.1588 1
gene 2 19 4 6.25138 0 48 6.25138 1
gene 2 12 4 -1.5266 0 210 -1.5266 1
genomeend 49

/* Organism #50 Fitness: 8.99175 Error: 1.00137 */
genomestart 50
trait 1 0.0625 0 0 0.362394 0.333829 0 0 0 
trait 2 0.2 0 0 0.271243 0.01205 0 0.234642 0 
trait 3 0.3 0 0 0.129966 0.186978 0 0 0 
node 1 1 1 3
node 2 3 1 1
node 3 3 1 1
node 4 3 0 2
node 9 1 0 0
node 12 1 0 0
node 19 1 0 0
gene 3 1 4 -4.11557 0 1 -4.11557 1
gene 3 2 4 2.32273 0 2 2.32273 1
gene 2 3 4 2.22668 0 3 2.22668 0
gene 2 3 9 -8 0 12 -8 0
gene 2 9 4 -5.82334 0 13 -5.82334 0
gene 2 2 9 3.98758 0 17 3.98758 1
gene 2 3 12 -2.90746 0 20 -2.90746 1
gene 2 12 9 -3.89422 0 21 -3.89422 1
gene 2 9 19 5.07016 0 47 5.07016 1
gene 2 19 4 8 0 48 8 1
gene 2 12 4 -2.45152 0 210 -2.45152 1
genomeend 50

/* Organism #51 Fitness: 8.99991 Error: 1.00001 */
genomestart 51
trait 1 0.0625 0 0 0.362394 0.333829 0 0 0 
trait 2 0.2 0 0 0.271243 0.01205 0 0.234642 0 
trait 3 0.3 0 0 0.129966 0.186978 0 0 0 
node 1 1 1 3
node 2 3 1 1
node 3 3 1 1
node 4 3 0 2
node 9 1 0 0
node 12 1 0 0
node 19 1 0 0
gene 3 1 4 -5.49928 0 1 -5.49928 1
gene 3 2 4 4.54381 0 2 4.54381 1
gene 2 3 4 -1.24676 0 3 -1.24676 0
gene 2 3 9 -7.44683 0 12 -7.44683 0
gene 2 9 4 -8 0 13 -8 0
gene 2 2 9 3.44428 0 17 3.44428 1
gene 2 3 12 -4.46508 0 20 -4.46508 1
gene 2 12 9 -6.47718 0 21 -6.47718 1
gene 2 9 19 5.24737 0 47 5.24737 1
gene 2 19 4 8 0 48 8 1
gene 2 12 4 -1.65736 0 210 -1.65736 1
genomeend 51

/* Organism #52 Fitness: 3.18997 Error: 2.21395 */
genomestart 52
trait 1 0.0625 0 0 0.362394 0.333829 0 0 0 
trait 2 0.2 0 0 0.271243 0.01205 0 0.234642 0 
trait 3 0.3 0 0 0.129966 0.186978 0 0 0 
node 1 1 1 3
node 2 3 1 1
node 3 3 1 1
node 4 3 0 2
node 9 1 0 0
node 12 1 0 0
node 19 1 0 0
gene 3 1 4 -4.16628 0 1 -4.16628 1
gene 3 2 4 8 0 2 8 1
gene 2 3 4 -3.46922 0 3 -3.46922 0
gene 2 3 9 -7.73344 0 12 -7.73344 0
gene 2 9 4 -8 0 13 -8 0
gene 2 2 9 0.346831 0 17 0.346831 1
gene 2 3 12 -5.32572 0 20 -5.32572 1
gene 2 12 9 -8 0 21 -8 1
gene 2 9 19 6.59139 0 47 6.59139 1
gene 2 19 4 -2.37303 0 48 -2.37303 1
gene 2 12 4 -4.76772 0 210 -4.76772 1
genomeend 52

/* Organism #53 Fitness: 4.01012 Error: 1.99747 */
genomestart 53
trait 1 0.0625 0 0 0.362394 0.333829 0 0 0 
trait 2 0.2 0 0 0.271243 0.01205 0 0.234642 0 
trait 3 0.3 0 0 0.129966 0.186978 0 0 0 
node 1 1 1 3
node 2 3 1 1
node 3 3 1 1
node 4 3 0 2
node 9 2 0 0
node 12 1 0 0
node 19 1 0 0
gene 3 1 4 -4.61568 0 1 -4.61568 1
gene 3 2 4 8 0 2 8 1
gene 2 3 4 -0.0325706 0 3 -0.0325706 1
gene 2 3 9 -7.46746 0 12 -7.46746 0
gene 2 9 4 -8 0 13 -8 1
gene 2 2 9 1.14238 0 17 1.14238 1
gene 2 3 12 -2.8819 0 20 -2.8819 1
gene 2 12 9 -8 0 21 -8 1
gene 2 9 19 6.65052 0 47 6.65052 1
gene 2 19 4 5.83202 0 48 5.83202 1
gene 2 12 4 -1.02587 0 210 -1.02587 1
genomeend 53

/* Organism #54 Fitness: 4.00019 Error: 1.99995 */
genomestart 54
trait 1 0.0625 0 0 0.362394 0.333829 0 0 0 
trait 2 0.2 0 0 0.271243 0.01205 0 0.234642 0 
trait 3 0.3 0 0 0.129966 0.186978 0 0 0 
node 1 1 1 3
node 2 3 1 1
node 3 3 1 1
node 4 3 0 2
node 9 1 0 0
node 12 1 0 0
node 19 1 0 0
gene 3 1 4 -5.94083 0 1 -5.94083 1
gene 3 2 4 3.2535 0 2 3.2535 1
gene 2 3 4 1.20333 0 3 1.20333 0
gene 2 3 9 -6.06039 0 12 -6.06039 0
gene 2 9 4 -8 0 13 -8 0
gene 2 2 9 2.96732 0 17 2.96732 1
gene 2 3 12 -2.51224 0 20 -2.51224 1
gene 2 12 9 -6.71422 0 21 -6.71422 1
gene 2 9 19 6.92085 0 47 6.92085 1
gene 2 19 4 -0.463794 0 48 -0.463794 1
gene 2 12 4 2.24444 0 210 2.24444 1
genomeend 54

/* Organism #55 Fitness: 4.00002 Error: 2 */
genomestart 55
trait 1 0.0625 0 0 0.362394 0.333829 0 0 0 
trait 2 0.2 0 0 0.271243 0.01205 0 0.234642 0 
trait 3 0.3 0 0 0.129966 0.186978 0 0 0 
node 1 1 1 3
node 2 3 1 1
node 3 3 1 1
node 4 3 0 2
node 9 1 0 0
node 12 1 0 0
node 19 1 0 0
node 75 1 0 0
gene 3 1 4 -4.9843 0 1 -4.9843 1
gene 3 2 4 2.44421 0 2 2.44421 1
gene 2 3 4 -0.111172 0 3 -0.111172 0
gene 2 3 9 -8 0 12 -8 0
gene 2 9 4 -8 0 13 -8 0
gene 2 2 9 4.58669 0 17 4.58669 1
gene 2 3 12 -4.43113 0 20 -4.43113 1
gene 2 12 9 -4.95435 0 21 -4.95435 1
gene 2 9 19 4.56671 0 47 4.56671 0
gene 2 19 4 8 0 48 8 1
gene 2 12 4 -1.01724 0 210 -1.01724 1
gene 2 9 75 1 0 244 0 1
gene 2 75 19 4.56671 0 245 0 1
genomeend 55

/* Organism #56 Fitness: 8.58034 Error: 1.07078 */
genomestart 56
trait 1 0.0625 0 0 0.362394 0.333829 0 0 0 
trait 2 0.2 0 0 0.271243 0.01205 0 0.234642 0 
trait 3 0.3 0 0 0.129966 0.186978 0 0 0 
node 1 1 1 3
node 2 3 1 1
node 3 3 1 1
node 4 3 0 2
node 9 1 0 0
node 12 1 0 0
node 19 1 0 0
gene 3 1 4 -3.94044 0 1 -3.94044 1
gene 3 2 4 2.23022 0 2 2.23022 1
gene 2 3 4 1.89655 0 3 1.89655 0
gene 2 3 9 -8 0 12 -8 0
gene 2 9 4 -7.53166 0 13 -7.53166 0
gene 2 2 9 6.5243 0 17 6.5243 1
gene 2 3 12 -2.27892 0 20 -2.27892 1
gene 2 12 9 -7.29193 0 21 -7.29193 1
gene 2 9 19 5.08206 0 47 5.08206 1
gene 2 19 4 8 0 48 8 1
gene 2 12 4 -1.16488 0 210 -1.16488 1
genomeend 56

/* Organism #57 Fitness: 4.98774 Error: 1.76667 */
genomestart 57
trait 1 0.0625 0 0 0.362394 0.333829 0 0 0 
trait 2 0.2 0 0 0.271243 0.01205 0 0.234642 0 
trait 3 0.3 0 0 0.129966 0.186978 0 0 0 
node 1 1 1 3
node 2 3 1 1
node 3 3 1 1
node 4 3 0 2
node 9 1 0 0
node 12 1 0 0
node 19 2 0 0
gene 3 1 4 -4.32772 0 1 -4.32772 1
gene 3 2 4 4.77923 0 2 4.77923 1
gene 2 3 4 -1.5914 0 3 -1.5914 0
gene 2 3 9 -8 0 12 -8 0
gene 2 9 4 -8 0 13 -8 0
gene 2 2 9 4.64539 0 17 4.64539 1
gene 2 3 12 -4.11412 0 20 -4.11412 1
gene 2 12 9 -7.09804 0 21 -7.09804 1
gene 2 9 19 7.75417 0 47 7.75417 1
gene 2 19 4 8 0 48 8 1
gene 2 12 4 1.13861 0 210 1.13861 1
genomeend 57

/* Organism #58 Fitness: 4 Error: 2 */
genomestart 58
trait 1 0.0625 0 0 0.362394 0.333829 0 0 0 
trait 2 0.2 0 0 0.271243 0.01205 0 0.234642 0 
trait 3 0.3 0 0 0.129966 0.186978 0 0 0 
node 1 1 1 3
node 2 3 1 1
node 3 3 1 1
node 4 3 0 2
node 9 1 0 0
node 12 1 0 0
node 19 1 0 0
gene 3 1 4 -7.8579 0 1 -7.8579 1
gene 3 2 4 5.92572 0 2 5.92572 1
gene 2 3 4 2.3002 0 3 2.3002 0
gene 2 3 9 -7.44683 0 12 -7.44683 0
gene 2 9 4 -7.8351 0 13 -7.8351 1
gene 2 2 9 0.76892 0 17 0.76892 1
gene 2 3 12 -4.12961 0 20 -4.12961 1
gene 2 12 9 -0.690693 0 21 -0.690693 1
gene 2 9 19 4.72245 0 47 4.72245 1
gene 2 19 4 7.02325 0 48 7.02325 1
gene 2 12 4 -1.41511 0 210 -1.41511 1
genomeend 58

/* Species #11 : (Size 8) (AF 7.05302) (Age 21)  */


/* Organism #59 Fitness: 9 Error: 1 */
genomestart 59
trait 1 0.09375 0 0 0 0.0453513 0 0.0182159 0 
trait 2 0.346659 0 0 0.0431893 0.00268571 0 0.0053539 0.738128 
trait 3 0.3 0.00992925 0 0 0.00234407 0 0 0 
node 1 1 1 3
node 2 3 1 1
node 3 2 1 1
node 4 3 0 2
node 9 3 0 0
node 22 1 0 0
gene 3 1 4 -6.25042 0 1 -6.25042 1
gene 3 2 4 -8 0 2 -8 1
gene 2 3 4 7.30065 0 3 7.30065 1
gene 2 3 9 2.46787 0 12 2.46787 1
gene 2 9 4 3.78912 0 13 3.78912 1
gene 2 9 22 4.036 0 60 4.036 1
gene 2 22 4 -0.357393 0 61 -0.357393 1
gene 1 2 9 0.343705 0 67 0.343705 1
genomeend 59

/* Organism #60 Fitness: 4 Error: 2 */
genomestart 60
trait 1 0.09375 0 0 0 0.0453513 0 0.0182159 0 
trait 2 0.346659 0 0 0.0431893 0.00268571 0 0.0053539 0.738128 
trait 3 0.3 0.00992925 0 0 0.00234407 0 0 0 
node 1 1 1 3
node 2 3 1 1
node 3 2 1 1
node 4 3 0 2
node 9 3 0 0
node 22 1 0 0
gene 3 1 4 -8 0 1 -8 1
gene 3 2 4 1.99318 0 2 1.99318 1
gene 2 3 4 6.57458 0 3 6.57458 1
gene 2 3 9 2.882 0 12 2.882 1
gene 2 9 4 5.2673 0 13 5.2673 1
gene 2 9 22 2.88054 0 60 2.88054 1
gene 2 22 4 0.772683 0 61 0.772683 1
gene 1 2 9 -1.55568 0 67 -1.55568 1
genomeend 60

/* Organism #61 Fitness: 8.99895 Error: 1.00018 */
genomestart 61
trait 1 0.09375 0 0 0 0.0453513 0 0.0182159 0 
trait 2 0.346659 0 0 0.0431893 0.00268571 0 0.0053539 0.738128 
trait 3 0.3 0.00992925 0 0 0.00234407 0 0 0 
node 1 1 1 3
node 2 3 1 1
node 3 2 1 1
node 4 3 0 2
node 9 1 0 0
node 22 1 0 0
gene 3 1 4 -5.88706 0 1 -5.88706 1
gene 3 2 4 -8 0 2 -8 1
gene 2 3 4 8 0 3 8 1
gene 2 3 9 1.94895 0 12 1.94895 1
gene 2 9 4 1.27947 0 13 1.27947 1
gene 2 9 22 4.036 0 60 4.036 1
gene 2 22 4 -1.63597 0 61 -1.63597 1
gene 1 2 9 -0.64544 0 67 -0.64544 1
genomeend 61

/* Organism #62 Fitness: 6.42511 Error: 1.46522 */
genomestart 62
trait 1 0.09375 0 0 0 0.0453513 0 0.0182159 0 
trait 2 0.346659 0 0 0.0431893 0.00268571 0 0.0053539 0.738128 
trait 3 0.3 0.00992925 0 0 0.00234407 0 0 0 
node 1 1 1 3
node 2 3 1 1
node 3 2 1 1
node 4 3 0 2
node 9 3 0 0
node 22 1 0 0
gene 3 1 4 -4.62272 0 1 -4.62272 1
gene 3 2 4 -5.9882 0 2 -5.9882 1
gene 2 3 4 7.22381 0 3 7.22381 1
gene 2 3 9 1.14667 0 12 1.14667 1
gene 2 9 4 4.86814 0 13 4.86814 1
gene 2 9 22 2.74279 0 60 2.74279 1
gene 2 22 4 -1.19034 0 61 -1.19034 1
gene 1 2 9 -0.60699 0 67 -0.60699 1
genomeend 62

/* Organism #63 Fitness: 9 Error: 1 */
genomestart 63
trait 1 0.09375 0 0 0 0.0453513 0 0.0182159 0 
trait 2 0.346659 0 0 0.0431893 0.00268571 0 0.0053539 0.738128 
trait 3 0.3 0.00992925 0 0 0.00234407 0 0 0 
node 1 1 1 3
node 2 3 1 1
node 3 2 1 1
node 4 3 0 2
node 9 3 0 0
node 22 1 0 0
gene 3 1 4 -6.25042 0 1 -6.25042 1
gene 3 2 4 -8 0 2 -8 1
gene 2 3 4 7.30065 0 3 7.30065 1
gene 2 3 9 2.46787 0 12 2.46787 1
gene 2 9 4 3.78912 0 13 3.78912 1
gene 2 9 22 4.036 0 60 4.036 1
gene 2 22 4 -0.357393 0 61 -0.357393 1
gene 1 2 9 0.343705 0 67 0.343705 1
genomeend 63

/* Organism #64 Fitness: 1.00007 Error: 2.99996 */
genomestart 64
trait 1 0.09375 0 0 0 0.0453513 0 0.0182159 0 
trait 2 0.346659 0 0 0.0431893 0.00268571 0 0.0053539 0.738128 
trait 3 0.3 0.00992925 0 0 0.00234407 0 0 0 
node 1 1 1 3
node 2 3 1 1
node 3 2 1 1
node 4 3 0 2
node 9 3 0 0
node 22 1 0 0
gene 3 1 4 1.30164 0 1 1.30164 1
gene 3 2 4 -8 0 2 -8 1
gene 2 3 4 8 0 3 8 1
gene 2 3 9 1.08147 0 12 1.08147 1
gene 2 9 4 2.44191 0 13 2.44191 1
gene 2 9 22 1.58865 0 60 1.58865 1
gene 2 22 4 -0.44337 0 61 -0.44337 1
gene 1 2 9 -0.880493 0 67 -0.880493 1
genomeend 64

/* Organism #65 Fitness: 9 Error: 1 */
genomestart 65
trait 1 0.09375 0 0 0 0.0453513 0 0.0182159 0 
trait 2 0.346659 0 0 0.0431893 0.00268571 0 0.0053539 0.738128 
trait 3 0.3 0.00992925 0 0 0.00234407 0 0 0 
node 1 1 1 3
node 2 3 1 1
node 3 2 1 1
node 4 3 0 2
node 9 3 0 0
node 22 1 0 0
gene 3 1 4 -6.61842 0 1 -6.61842 1
gene 3 2 4 -8 0 2 -8 1
gene 2 3 4 6.74848 0 3 6.74848 1
gene 2 3 9 3.44143 0 12 3.44143 1
gene 2 9 4 5.87819 0 13 5.87819 1
gene 2 9 22 4.70573 0 60 4.70573 1
gene 2 22 4 -2.04646 0 61 -2.04646 1
gene 1 2 9 2.56361 0 67 2.56361 1
genomeend 65

/* Organism #66 Fitness: 9 Error: 1 */
genomestart 66
trait 1 0.09375 0 0 0 0.0453513 0 0.0182159 0 
trait 2 0.346659 0 0 0.0431893 0.00268571 0 0.0053539 0.738128 
trait 3 0.3 0.00992925 0 0 0.00234407 0 0 0 
node 1 1 1 3
node 2 3 1 1
node 3 2 1 1
node 4 3 0 2
node 9 3 0 0
node 22 1 0 0
gene 3 1 4 -7.32975 0 1 -7.32975 1
gene 3 2 4 -8 0 2 -8 1
gene 2 3 4 6.57458 0 3 6.57458 1
gene 2 3 9 4.04731 0 12 4.04731 1
gene 2 9 4 5.2673 0 13 5.2673 1
gene 2 9 22 2.88054 0 60 2.88054 1
gene 2 22 4 0.0121352 0 61 0.0121352 1
gene 1 2 9 -0.283398 0 67 -0.283398 1
gene 2 2 22 -0.782412 0 246 -0.782412 1
genomeend 66

/* Species #12 : (Size 8) (AF 8.73534) (Age 19)  */


/* Organism #67 Fitness: 9 Error: 1 */
genomestart 67
trait 1 0.01875 0.212414 0.369531 0.0409302 0 0 0.39808 0.16904 
trait 2 0.623361 0.416824 0.0523191 0.0387612 0.130225 0.100027 0.359994 0.0395123 
trait 3 0.340063 0 0 0 0.0363825 0 0.0486775 0 
node 1 3 1 3
node 2 1 1 1
node 3 2 1 1
node 4 1 0 2
node 29 1 0 0
gene 2 1 4 -7.25646 0 1 -7.25646 1
gene 3 2 4 6.00226 0 2 6.00226 1
gene 3 3 4 7.12923 0 3 7.12923 1
gene 3 2 29 1.56183 0 87 1.56183 1
gene 3 29 4 5.87772 0 88 5.87772 1
gene 3 3 29 2.37643 0 111 2.37643 1
gene 1 1 29 -0.565137 0 141 -0.565137 1
genomeend 67

/* Organism #68 Fitness: 7.41855 Error: 1.2763 */
genomestart 68
trait 1 0.01875 0.212414 0.323339 0.0409302 0 0 0.34832 0.16904 
trait 2 0.576281 0.364721 0.0523191 0.0387612 0.113947 0.100027 0.314995 0.0444514 
trait 3 0.340063 0 0 0 0.0363825 0 0.0486775 0 
node 1 3 1 3
node 2 1 1 1
node 3 2 1 1
node 4 1 0 2
node 29 1 0 0
gene 2 1 4 -7.30894 0 1 -7.30894 1
gene 3 2 4 7.45481 0 2 7.45481 1
gene 3 3 4 7.18855 0 3 7.18855 1
gene 3 2 29 -0.290348 0 87 -0.290348 1
gene 3 29 4 3.40391 0 88 3.40391 1
gene 3 3 29 1.48961 0 111 1.48961 1
gene 1 1 29 -0.565137 0 141 -0.565137 1
genomeend 68

/* Organism #69 Fitness: 9 Error: 1 */
genomestart 69
trait 1 0.01875 0.212414 0.277148 0.0409302 0 0 0.29856 0.16904 
trait 2 0.529201 0.312618 0.0523191 0.0387612 0.0976688 0.100027 0.269996 0.0493904 
trait 3 0.340063 0 0 0 0.0363825 0 0.0486775 0 
node 1 3 1 3
node 2 1 1 1
node 3 2 1 1
node 4 1 0 2
node 29 1 0 0
gene 2 1 4 -7.30894 0 1 -7.30894 1
gene 3 2 4 7.45481 0 2 7.45481 1
gene 3 3 4 7.18855 0 3 7.18855 1
gene 3 2 29 -0.290348 0 87 -0.290348 1
gene 3 29 4 3.40391 0 88 3.40391 1
gene 3 3 29 1.48961 0 111 1.48961 1
gene 1 1 29 1.62893 0 141 1.62893 1
genomeend 69

/* Organism #70 Fitness: 8.46426 Error: 1.09066 */
genomestart 70
trait 1 0.01875 0.212414 0.277148 0.0409302 0 0 0.29856 0.16904 
trait 2 0.529201 0.312618 0.0523191 0.0387612 0.0976688 0.100027 0.269996 0.0493904 
trait 3 0.340063 0 0 0 0.0363825 0 0.0486775 0 
node 1 3 1 3
node 2 1 1 1
node 3 2 1 1
node 4 1 0 2
node 29 1 0 0
gene 2 1 4 -8 0 1 -8 1
gene 3 2 4 5.11982 0 2 5.11982 1
gene 3 3 4 8 0 3 8 1
gene 3 2 29 0.436021 0 87 0.436021 1
gene 3 29 4 3.34839 0 88 3.34839 1
gene 3 3 29 2.87912 0 111 2.87912 1
gene 1 1 29 2.89223 0 141 2.89223 1
genomeend 70

/* Organism #71 Fitness: 8.99998 Error: 1 */
genomestart 71
trait 1 0.01875 0.39153 0.323339 0.0409302 0 0 0.34832 0 
trait 2 0.576281 0.364721 0.0523191 0.0387612 0.113947 0.100027 0.314995 0.0444514 
trait 3 0.340063 0 0 0 0.0363825 0 0.0486775 0 
node 1 3 1 3
node 2 1 1 1
node 3 2 1 1
node 4 1 0 2
node 29 1 0 0
gene 2 1 4 -8 0 1 -8 1
gene 3 2 4 8 0 2 8 1
gene 3 3 4 8 0 3 8 1
gene 3 2 29 2.5769 0 87 2.5769 1
gene 3 29 4 2.72052 0 88 2.72052 1
gene 3 3 29 0.0694502 0 111 0.0694502 1
gene 1 1 29 2.2446 0 141 2.2446 1
genomeend 71

/* Organism #72 Fitness: 9 Error: 1 */
genomestart 72
trait 1 0.01875 0.212414 0.277148 0.0409302 0 0 0.29856 0.16904 
trait 2 0.529201 0.312618 0.0523191 0.0387612 0.0976688 0.100027 0.269996 0.0493904 
trait 3 0.340063 0 0 0 0.0363825 0 0.0486775 0 
node 1 3 1 3
node 2 1 1 1
node 3 2 1 1
node 4 1 0 2
node 29 1 0 0
gene 2 1 4 -7.30894 0 1 -7.30894 1
gene 3 2 4 7.45481 0 2 7.45481 1
gene 3 3 4 7.18855 0 3 7.18855 1
gene 3 2 29 -0.290348 0 87 -0.290348 1
gene 3 29 4 3.40391 0 88 3.40391 1
gene 3 3 29 1.48961 0 111 1.48961 1
gene 1 1 29 1.62893 0 141 1.62893 1
genomeend 72

/* Organism #73 Fitness: 8.99992 Error: 1.00001 */
genomestart 73
trait 1 0 1 0 0.662467 0 0.41803 0 0.971461 
trait 2 0.576281 0.364721 0.0523191 0.0387612 0.113947 0.100027 0.314995 0.0444514 
trait 3 0.340063 0 0 0 0.0363825 0 0.0486775 0 
node 1 3 1 3
node 2 1 1 1
node 3 2 1 1
node 4 1 0 2
node 29 1 0 0
gene 2 1 4 -5.95074 0 1 -5.95074 1
gene 3 2 4 6.67528 0 2 6.67528 1
gene 3 3 4 5.57656 0 3 5.57656 1
gene 3 2 29 -1.7001 0 87 -1.7001 1
gene 3 29 4 2.65146 0 88 2.65146 1
gene 3 3 29 2.68668 0 111 2.68668 1
gene 1 1 29 2.77544 0 141 2.77544 1
genomeend 73

/* Organism #74 Fitness: 9 Error: 1 */
genomestart 74
trait 1 0 0.212414 0 0.0409302 0 0 1 0 
trait 2 0.623361 0.416824 0.0523191 0.0387612 0.130225 0.100027 0.359994 0.0395123 
trait 3 0.340063 0 0 0 0.0363825 0 0.0486775 0 
node 1 3 1 3
node 2 1 1 1
node 3 2 1 1
node 4 1 0 2
node 29 1 0 0
gene 2 1 4 -5.29574 0 1 -5.29574 1
gene 3 2 4 3.63058 0 2 3.63058 1
gene 3 3 4 8 0 3 8 1
gene 3 2 29 1.61823 0 87 1.61823 1
gene 3 29 4 6.56356 0 88 6.56356 1
gene 3 3 29 0.688722 0 111 0.688722 1
gene 1 1 29 -0.202325 0 141 -0.202325 1
genomeend 74

/* Species #13 : (Size 11) (AF 7.99879) (Age 19)  */


/* Organism #75 Fitness: 9 Error: 1 */
genomestart 75
trait 1 0.1 0 0 0 0 0.195878 0 0.218224 
trait 2 0.2 0 0 0 0 0 0 0 
trait 3 0.475 0 0 0 0.139534 0 0.186688 0 
node 1 1 1 3
node 2 3 1 1
node 3 2 1 1
node 4 2 0 2
node 11 1 0 0
node 26 1 0 0
gene 3 1 4 1.7013 0 1 1.7013 1
gene 3 2 4 -8 0 2 -8 1
gene 2 3 4 8 0 3 8 1
gene 1 3 11 8 0 18 8 1
gene 1 11 4 -7.43341 0 19 -7.43341 1
gene 1 3 26 2.98171 0 76 2.98171 1
gene 1 26 11 4.94872 0 77 4.94872 1
gene 3 26 4 0.939475 0 127 0.939475 1
genomeend 75

/* Organism #76 Fitness: 9 Error: 1 */
genomestart 76
trait 1 0.1 0 0 0 0 0.195878 0 0.218224 
trait 2 0.2 0 0 0.0593816 0 0.263813 0.512177 0 
trait 3 0.475 0 0 0 0.139534 0 0.186688 0 
node 1 1 1 3
node 2 3 1 1
node 3 2 1 1
node 4 2 0 2
node 11 1 0 0
node 26 1 0 0
gene 1 1 4 2.80903 0 1 2.80903 1
gene 3 2 4 -8 0 2 -8 1
gene 1 3 4 8 0 3 8 1
gene 1 3 11 8 0 18 8 1
gene 1 11 4 -6.82663 0 19 -6.82663 1
gene 1 3 26 2.55051 0 76 2.55051 1
gene 1 26 11 2.96971 0 77 2.96971 1
gene 3 26 4 -1.03481 0 127 -1.03481 1
genomeend 76

/* Organism #77 Fitness: 3.99997 Error: 2.00001 */
genomestart 77
trait 1 0.1 0 0 0 0 0.195878 0 0.218224 
trait 2 0.2 0 0 0.0296908 0 0.131906 0.256088 0 
trait 3 0.475 0 0 0 0.139534 0 0.186688 0 
node 1 1 1 3
node 2 3 1 1
node 3 2 1 1
node 4 2 0 2
node 11 1 0 0
node 26 1 0 0
gene 3 1 4 2.71688 0 1 2.71688 1
gene 3 2 4 -5.79771 0 2 -5.79771 1
gene 1 3 4 6.50709 0 3 6.50709 1
gene 1 3 11 -0.351074 0 18 -0.351074 1
gene 1 11 4 -5.83808 0 19 -5.83808 1
gene 1 3 26 -1.07001 0 76 -1.07001 1
gene 1 26 11 2.2992 0 77 2.2992 1
gene 3 26 4 1.6259 0 127 1.6259 1
genomeend 77

/* Organism #78 Fitness: 9 Error: 1 */
genomestart 78
trait 1 0.1 0 0 0 0 0.195878 0 0.218224 
trait 2 0.2 0 0 0.0593816 0 0.263813 0.512177 0 
trait 3 0.475 0 0 0 0.139534 0 0.186688 0 
node 1 1 1 3
node 2 3 1 1
node 3 2 1 1
node 4 2 0 2
node 11 1 0 0
node 26 1 0 0
gene 1 1 4 2.80903 0 1 2.80903 1
gene 3 2 4 -8 0 2 -8 1
gene 1 3 4 8 0 3 8 1
gene 1 3 11 8 0 18 8 1
gene 1 11 4 -6.82663 0 19 -6.82663 1
gene 1 3 26 2.55051 0 76 2.55051 1
gene 1 26 11 2.96971 0 77 2.96971 1
gene 3 26 4 -1.03481 0 127 -1.03481 1
genomeend 78

/* Organism #79 Fitness: 9 Error: 1 */
genomestart 79
trait 1 0.1 0 0 0 0 0.195878 0 0.218224 
trait 2 0.2 0 0 0.0296908 0 0.131906 0.256088 0 
trait 3 0.475 0 0 0 0.139534 0 0.186688 0 
node 1 1 1 3
node 2 3 1 1
node 3 2 1 1
node 4 2 0 2
node 11 1 0 0
node 26 1 0 0
gene 1 1 4 2.80903 0 1 2.80903 1
gene 3 2 4 -8 0 2 -8 1
gene 1 3 4 8 0 3 8 1
gene 1 3 11 8 0 18 8 1
gene 1 11 4 -6.82663 0 19 -6.82663 1
gene 1 3 26 2.55051 0 76 2.55051 1
gene 1 26 11 2.96971 0 77 2.96971 1
gene 3 26 4 0.939475 0 127 0.939475 1
genomeend 79

/* Organism #80 Fitness: 4.00018 Error: 1.99995 */
genomestart 80
trait 1 0.1 0 0 0 0 0.195878 0 0.218224 
trait 2 0.2 0 0 0.0296908 0 0.131906 0.256088 0 
trait 3 0.475 0 0 0 0.139534 0 0.186688 0 
node 1 1 1 3
node 2 3 1 1
node 3 2 1 1
node 4 2 0 2
node 11 1 0 0
node 26 1 0 0
gene 3 1 4 3.89964 0 1 3.89964 1
gene 3 2 4 0.542304 0 2 0.542304 1
gene 1 3 4 6.62545 0 3 6.62545 1
gene 1 3 11 6.17422 0 18 6.17422 1
gene 1 11 4 -8 0 19 -8 1
gene 1 3 26 -1.51213 0 76 -1.51213 1
gene 1 26 11 4.53404 0 77 4.53404 1
gene 3 26 4 3.11443 0 127 3.11443 1
genomeend 80

/* Organism #81 Fitness: 8.02322 Error: 1.16747 */
genomestart 81
trait 1 0.1 0 0 0 0 0.195878 0 0.218224 
trait 2 0.2 0 0 0 0 0 0 0 
trait 3 1 0 0 0 0.533167 0 0.186688 0 
node 1 1 1 3
node 2 3 1 1
node 3 2 1 1
node 4 2 0 2
node 11 1 0 0
node 26 1 0 0
gene 3 1 4 4.49934 0 1 4.49934 1
gene 3 2 4 -7.5849 0 2 -7.5849 1
gene 1 3 4 8 0 3 8 1
gene 1 3 11 0.663032 0 18 0.663032 1
gene 1 11 4 -7.96205 0 19 -7.96205 1
gene 1 3 26 1.49453 0 76 1.49453 1
gene 1 26 11 3.88856 0 77 3.88856 1
gene 3 26 4 2.72363 0 127 2.72363 1
genomeend 81

/* Organism #82 Fitness: 9 Error: 1 */
genomestart 82
trait 1 0.1 0 0 0 0 0.195878 0 0.218224 
trait 2 0.2 0 0 0.0296908 0 0.131906 0.256088 0 
trait 3 0.475 0 0 0 0.139534 0 0.186688 0 
node 1 1 1 3
node 2 3 1 1
node 3 2 1 1
node 4 2 0 2
node 11 1 0 0
node 26 1 0 0
gene 1 1 4 2.80903 0 1 2.80903 1
gene 3 2 4 -8 0 2 -8 1
gene 1 3 4 8 0 3 8 1
gene 1 3 11 8 0 18 8 1
gene 1 11 4 -6.82663 0 19 -6.82663 1
gene 1 3 26 2.55051 0 76 2.55051 1
gene 1 26 11 2.96971 0 77 2.96971 1
gene 3 26 4 0.939475 0 127 0.939475 1
genomeend 82

/* Organism #83 Fitness: 8.97857 Error: 1.00357 */
genomestart 83
trait 1 0.1 0 0 0 0 0.195878 0 0.218224 
trait 2 0.2 0 0 0.0593816 0 0.263813 0.512177 0 
trait 3 0.475 0 0 0 0.139534 0 0.186688 0 
node 1 1 1 3
node 2 3 1 1
node 3 2 1 1
node 4 2 0 2
node 11 1 0 0
node 26 1 0 0
gene 1 1 4 5.27757 0 1 5.27757 1
gene 3 2 4 -6.53361 0 2 -6.53361 1
gene 1 3 4 8 0 3 8 1
gene 1 3 11 -2.49224 0 18 -2.49224 1
gene 1 11 4 -8 0 19 -8 1
gene 1 3 26 2.73708 0 76 2.73708 1
gene 1 26 11 4.63407 0 77 4.63407 1
gene 3 26 4 0.112292 0 127 0.112292 1
genomeend 83

/* Organism #84 Fitness: 9 Error: 1 */
genomestart 84
trait 1 0.1 0 0 0 0 0.195878 0 0.218224 
trait 2 0.2 0 0 0 0 0 0 0 
trait 3 0.475 0 0 0 0.139534 0 0.186688 0 
node 1 1 1 3
node 2 3 1 1
node 3 2 1 1
node 4 2 0 2
node 11 1 0 0
node 26 1 0 0
gene 3 1 4 3.07883 0 1 3.07883 1
gene 3 2 4 -7.83234 0 2 -7.83234 1
gene 1 3 4 7.95925 0 3 7.95925 1
gene 1 3 11 6.24574 0 18 6.24574 1
gene 1 11 4 -7.43341 0 19 -7.43341 1
gene 1 3 26 2.98171 0 76 2.98171 1
gene 1 26 11 4.94872 0 77 4.94872 1
gene 3 26 4 0.634413 0 127 0.634413 1
genomeend 84

/* Organism #85 Fitness: 8.98481 Error: 1.00253 */
genomestart 85
trait 1 0.1 0 0 0 0 0.195878 0 0.218224 
trait 2 0.2 0 0 0 0 0 0 0 
trait 3 0.475 0 0 0 0.139534 0 0.186688 0 
node 1 1 1 3
node 2 3 1 1
node 3 2 1 1
node 4 2 0 2
node 11 1 0 0
node 26 1 0 0
gene 3 1 4 2.37932 0 1 2.37932 1
gene 3 2 4 -8 0 2 -8 1
gene 1 3 4 6.73859 0 3 6.73859 1
gene 1 3 11 4.35062 0 18 4.35062 1
gene 1 11 4 -8 0 19 -8 1
gene 1 3 26 -0.637672 0 76 -0.637672 1
gene 1 26 11 1.60419 0 77 1.60419 1
gene 3 26 4 2.30705 0 127 2.30705 1
genomeend 85

/* Species #14 : (Size 11) (AF 7.46607) (Age 18)  */


/* Organism #86 Fitness: 9 Error: 1 */
genomestart 86
trait 1 0.09375 0 0 0 0.421253 0 0.0182159 0.30044 
trait 2 0.340856 0 0 0 0 0 0.147108 0.141712 
trait 3 0 0.00992925 0.673954 0.00914793 0.00234407 0 0 0 
node 1 1 1 3
node 2 3 1 1
node 3 3 1 1
node 4 3 0 2
node 9 3 0 0
node 22 1 0 0
node 36 1 0 0
gene 3 1 4 -5.3603 0 1 -5.3603 1
gene 2 2 4 -8 0 2 -8 1
gene 2 3 4 8 0 3 8 1
gene 2 3 9 8 0 12 8 1
gene 2 9 4 4.49601 0 13 4.49601 0
gene 2 9 22 1.67972 0 60 1.67972 1
gene 2 22 4 2.49086 0 61 2.49086 1
gene 1 2 9 -1.28236 0 67 -1.28236 0
gene 2 1 9 1.40755 0 98 1.40755 1
gene 1 2 36 -3.55842 0 106 -3.55842 1
gene 1 36 9 -1.6005 0 107 -1.6005 1
gene 3 3 36 1.58752 0 112 1.58752 1
gene 2 1 22 -1.64113 0 143 -1.64113 1
genomeend 86

/* Organism #87 Fitness: 9 Error: 1 */
genomestart 87
trait 1 0.09375 0 0 0 0.421253 0 0.0182159 0.30044 
trait 2 0.340856 0 0 0 0 0 0.147108 0.141712 
trait 3 0 0.00992925 0.673954 0.00914793 0.00234407 0 0 0 
node 1 1 1 3
node 2 3 1 1
node 3 3 1 1
node 4 3 0 2
node 9 3 0 0
node 22 1 0 0
node 36 1 0 0
gene 3 1 4 -3.38675 0 1 -3.38675 1
gene 2 2 4 -8 0 2 -8 1
gene 2 3 4 7.84806 0 3 7.84806 1
gene 2 3 9 6.99723 0 12 6.99723 1
gene 2 9 4 3.68159 0 13 3.68159 0
gene 2 9 22 0.304905 0 60 0.304905 1
gene 2 22 4 1.8099 0 61 1.8099 1
gene 1 2 9 1.09513 0 67 1.09513 0
gene 2 1 9 0.0204475 0 98 0.0204475 1
gene 1 2 36 -5.87069 0 106 -5.87069 1
gene 1 36 9 -2.08695 0 107 -2.08695 1
gene 3 3 36 0.0982981 0 112 0.0982981 1
gene 2 1 22 -1.64113 0 143 -1.64113 1
genomeend 87

/* Organism #88 Fitness: 3.99999 Error: 2 */
genomestart 88
trait 1 0.09375 0 0 0 0.421253 0 0.0182159 0.30044 
trait 2 0.340856 0 0 0 0 0 0.147108 0.141712 
trait 3 0 0 0.673954 0.00914793 0.00234407 0 0.779648 0 
node 1 1 1 3
node 2 3 1 1
node 3 3 1 1
node 4 3 0 2
node 9 3 0 0
node 22 1 0 0
node 36 1 0 0
gene 3 1 4 0.790418 0 1 0.790418 1
gene 2 2 4 -7.85764 0 2 -7.85764 1
gene 2 3 4 -0.193809 0 3 -0.193809 1
gene 2 3 9 2.06139 0 12 2.06139 1
gene 2 9 4 4.96878 0 13 4.96878 0
gene 2 9 22 1.72615 0 60 1.72615 1
gene 2 22 4 1.99716 0 61 1.99716 1
gene 1 2 9 -1.28236 0 67 -1.28236 0
gene 2 1 9 1.90403 0 98 1.90403 1
gene 1 2 36 -5.26706 0 106 -5.26706 1
gene 1 36 9 1.14965 0 107 1.14965 1
gene 3 3 36 -1.63958 0 112 -1.63958 1
gene 2 1 22 -0.980311 0 143 -0.980311 1
genomeend 88

/* Organism #89 Fitness: 8.99998 Error: 1 */
genomestart 89
trait 1 0.09375 0 0 0 0.421253 0 0.0182159 0.30044 
trait 2 0.340856 0 0 0 0 0 0.147108 0.141712 
trait 3 0 0.00992925 0.673954 0.00914793 0.00234407 0 0 0 
node 1 1 1 3
node 2 3 1 1
node 3 1 1 1
node 4 3 0 2
node 9 3 0 0
node 22 1 0 0
node 36 1 0 0
gene 3 1 4 -5.51882 0 1 -5.51882 1
gene 2 2 4 -8 0 2 -8 1
gene 2 3 4 8 0 3 8 1
gene 2 3 9 6.50435 0 12 6.50435 1
gene 2 9 4 6.94413 0 13 6.94413 0
gene 2 9 22 0.7884 0 60 0.7884 1
gene 2 22 4 1.39148 0 61 1.39148 1
gene 1 2 9 -0.758703 0 67 -0.758703 0
gene 2 1 9 -0.582434 0 98 -0.582434 1
gene 1 2 36 -3.22713 0 106 -3.22713 1
gene 1 36 9 -1.77812 0 107 -1.77812 1
gene 3 3 36 1.67327 0 112 1.67327 1
gene 2 1 22 -1.48089 0 143 -1.48089 1
genomeend 89

/* Organism #90 Fitness: 7.01891 Error: 1.35068 */
genomestart 90
trait 1 0.09375 0 0 0 0.421253 0 0.0182159 0.30044 
trait 2 0.340856 0 0 0 0 0 0.147108 0.141712 
trait 3 0 0.00992925 0.673954 0.00914793 0.00234407 0 0 0 
node 1 1 1 3
node 2 3 1 1
node 3 3 1 1
node 4 3 0 2
node 9 3 0 0
node 22 1 0 0
node 36 1 0 0
gene 3 1 4 -6.96123 0 1 -6.96123 1
gene 2 2 4 -8 0 2 -8 1
gene 2 3 4 7.40748 0 3 7.40748 1
gene 2 3 9 7.03211 0 12 7.03211 1
gene 2 9 4 1.19051 0 13 1.19051 0
gene 2 9 22 2.3606 0 60 2.3606 1
gene 2 22 4 -0.978804 0 61 -0.978804 1
gene 1 2 9 0.264642 0 67 0.264642 0
gene 2 1 9 1.40755 0 98 1.40755 1
gene 1 2 36 -3.29665 0 106 -3.29665 1
gene 1 36 9 -1.6005 0 107 -1.6005 1
gene 3 3 36 0.416607 0 112 0.416607 1
gene 2 1 22 -2.50616 0 143 -2.50616 1
genomeend 90

/* Organism #91 Fitness: 4.59596 Error: 1.85618 */
genomestart 91
trait 1 0.09375 0 0 0 0.421253 0 0.0182159 0.30044 
trait 2 0.340856 0 0 0 0 0 0.147108 0.141712 
trait 3 0 0.00992925 0.673954 0.00914793 0.00234407 0 0 0 
node 1 1 1 3
node 2 3 1 1
node 3 3 1 1
node 4 3 0 2
node 9 3 0 0
node 22 1 0 0
node 36 1 0 0
gene 3 1 4 -5.92436 0 1 -5.92436 1
gene 2 2 4 -1.71343 0 2 -1.71343 1
gene 2 3 4 8 0 3 8 1
gene 2 3 9 7.60112 0 12 7.60112 1
gene 2 9 4 5.04907 0 13 5.04907 0
gene 2 9 22 -1.79817 0 60 -1.79817 1
gene 2 22 4 3.62665 0 61 3.62665 1
gene 1 2 9 -1.28236 0 67 -1.28236 0
gene 2 1 9 1.84486 0 98 1.84486 1
gene 1 2 36 -5.35235 0 106 -5.35235 1
gene 1 36 9 -1.6005 0 107 -1.6005 1
gene 3 3 36 1.07575 0 112 1.07575 1
gene 2 1 22 -1.70725 0 143 -1.70725 1
genomeend 91

/* Organism #92 Fitness: 9 Error: 1 */
genomestart 92
trait 1 0.09375 0 0 0 0.421253 0 0.0182159 0.30044 
trait 2 0.340856 0 0 0 0 0 0.147108 0.141712 
trait 3 0 0.00992925 0.673954 0.00914793 0.00234407 0 0 0 
node 1 1 1 3
node 2 3 1 1
node 3 3 1 1
node 4 3 0 2
node 9 3 0 0
node 22 1 0 0
node 36 1 0 0
gene 3 1 4 -6.28483 0 1 -6.28483 1
gene 2 2 4 -8 0 2 -8 1
gene 2 3 4 8 0 3 8 1
gene 2 3 9 8 0 12 8 1
gene 2 9 4 6.24852 0 13 6.24852 0
gene 2 9 22 1.20906 0 60 1.20906 1
gene 2 22 4 3.07138 0 61 3.07138 1
gene 1 2 9 -1.85269 0 67 -1.85269 0
gene 2 1 9 1.62665 0 98 1.62665 1
gene 1 2 36 -1.71284 0 106 -1.71284 1
gene 1 36 9 -2.62505 0 107 -2.62505 1
gene 3 3 36 1.21568 0 112 1.21568 1
gene 2 1 22 -0.0543006 0 143 -0.0543006 1
genomeend 92

/* Organism #93 Fitness: 3.53377 Error: 2.12017 */
genomestart 93
trait 1 0.09375 0 0 0 0.421253 0 0.0182159 0.30044 
trait 2 0.340856 0 0 0 0 0 0.147108 0.141712 
trait 3 0 0.00992925 0.673954 0.00914793 0.00234407 0 0 0 
node 1 1 1 3
node 2 3 1 1
node 3 3 1 1
node 4 3 0 2
node 9 3 0 0
node 22 1 0 0
node 36 1 0 0
gene 3 1 4 -5.3603 0 1 -5.3603 1
gene 2 2 4 -8 0 2 -8 1
gene 2 3 4 8 0 3 8 1
gene 2 3 9 8 0 12 8 1
gene 2 9 4 4.49601 0 13 4.49601 1
gene 2 9 22 1.67972 0 60 1.67972 1
gene 2 22 4 2.49086 0 61 2.49086 1
gene 1 2 9 -1.28236 0 67 -1.28236 0
gene 2 1 9 1.40755 0 98 1.40755 1
gene 1 2 36 -3.55842 0 106 -3.55842 1
gene 1 36 9 -1.6005 0 107 -1.6005 1
gene 3 3 36 1.58752 0 112 1.58752 1
gene 2 1 22 -1.64113 0 143 -1.64113 1
gene 3 36 4 -0.64202 0 247 -0.64202 1
genomeend 93

/* Organism #94 Fitness: 9 Error: 1 */
genomestart 94
trait 1 0.09375 0 0 0 0.421253 0 0.0182159 0.30044 
trait 2 1 0 0 0 0.671505 0 0.147108 0 
trait 3 0 0.00992925 0.673954 0.00914793 0.00234407 0 0 0 
node 1 1 1 3
node 2 3 1 1
node 3 3 1 1
node 4 3 0 2
node 9 3 0 0
node 22 1 0 0
node 36 1 0 0
gene 3 1 4 -4.837 0 1 -4.837 1
gene 2 2 4 -8 0 2 -8 1
gene 2 3 4 8 0 3 8 1
gene 2 3 9 7.46536 0 12 7.46536 1
gene 2 9 4 3.19011 0 13 3.19011 0
gene 2 9 22 1.58333 0 60 1.58333 1
gene 2 22 4 1.66602 0 61 1.66602 1
gene 1 2 9 -0.0105745 0 67 -0.0105745 0
gene 2 1 9 -0.0249074 0 98 -0.0249074 1
gene 1 2 36 -4.94435 0 106 -4.94435 1
gene 1 36 9 -2.27647 0 107 -2.27647 1
gene 3 3 36 1.58752 0 112 1.58752 1
gene 2 1 22 -3.91382 0 143 -3.91382 1
genomeend 94

/* Organism #95 Fitness: 8.97817 Error: 1.00364 */
genomestart 95
trait 1 0.09375 0 0 0 0.421253 0 0.0182159 0.30044 
trait 2 0.340856 0 0 0 0 0 0.147108 0.141712 
trait 3 0 0.00992925 0.673954 0.00914793 0.00234407 0 0 0 
node 1 1 1 3
node 2 3 1 1
node 3 3 1 1
node 4 3 0 2
node 9 3 0 0
node 22 1 0 0
node 36 1 0 0
gene 3 1 4 -7.31115 0 1 -7.31115 1
gene 2 2 4 -7.64721 0 2 -7.64721 1
gene 2 3 4 7.27649 0 3 7.27649 1
gene 2 3 9 5.75549 0 12 5.75549 1
gene 2 9 4 3.83449 0 13 3.83449 0
gene 2 9 22 1.92635 0 60 1.92635 1
gene 2 22 4 1.46257 0 61 1.46257 1
gene 1 2 9 -2.28383 0 67 -2.28383 0
gene 2 1 9 1.3757 0 98 1.3757 1
gene 1 2 36 -1.94961 0 106 -1.94961 1
gene 1 36 9 -3.06863 0 107 -3.06863 1
gene 3 3 36 0.374864 0 112 0.374864 1
gene 2 1 22 -1.64113 0 143 -1.64113 1
genomeend 95

/* Organism #96 Fitness: 9 Error: 1 */
genomestart 96
trait 1 0.09375 0 0 0 0.421253 0 0.0182159 0.30044 
trait 2 0.340856 0 0 0 0 0 0.147108 0.141712 
trait 3 0 0.00992925 0.673954 0.00914793 0.00234407 0 0 0 
node 1 1 1 3
node 2 3 1 1
node 3 3 1 1
node 4 3 0 2
node 9 3 0 0
node 22 1 0 0
node 36 1 0 0
gene 3 1 4 -7.85 0 1 -7.85 1
gene 2 2 4 -7.68053 0 2 -7.68053 1
gene 2 3 4 7.45802 0 3 7.45802 1
gene 2 3 9 8 0 12 8 1
gene 2 9 4 4.07665 0 13 4.07665 0
gene 2 9 22 3.79975 0 60 3.79975 1
gene 2 22 4 4.66872 0 61 4.66872 1
gene 1 2 9 -0.950482 0 67 -0.950482 0
gene 2 1 9 3.37402 0 98 3.37402 1
gene 1 2 36 -3.26292 0 106 -3.26292 1
gene 1 36 9 -1.26192 0 107 -1.26192 1
gene 3 3 36 1.58752 0 112 1.58752 1
gene 2 1 22 -1.64113 0 143 -1.64113 1
genomeend 96

/* Species #15 : (Size 10) (AF 8.17464) (Age 16)  */


/* Organism #97 Fitness: 9 Error: 1 */
genomestart 97
trait 1 0.01875 0.212414 0 0.0409302 0 0 0 0.16904 
trait 2 0.246722 0 0.0523191 0.0387612 0 0.100027 0 0.0790247 
trait 3 0.340063 0 0 0 0.0363825 0 0.0486775 0 
node 1 3 1 3
node 2 1 1 1
node 3 2 1 1
node 4 1 0 2
node 29 1 0 0
node 38 1 0 0
gene 2 1 4 -7.47231 0 1 -7.47231 1
gene 3 2 4 4.77727 0 2 4.77727 1
gene 3 3 4 6.84051 0 3 6.84051 1
gene 3 2 29 5.49695 0 87 5.49695 1
gene 3 29 4 4.65509 0 88 4.65509 1
gene 3 3 38 2.67612 0 113 2.67612 1
gene 3 38 4 5.6607 0 114 5.6607 1
gene 2 1 29 -1.15724 0 129 -1.15724 1
gene 3 38 29 0.126995 0 176 0.126995 1
gene 3 3 29 0.43857 0 215 0.43857 1
genomeend 97

/* Organism #98 Fitness: 4 Error: 2 */
genomestart 98
trait 1 0.01875 0.212414 0 0.0409302 0 0 0 0.16904 
trait 2 0.246722 0 0.0523191 0.0387612 0 0.100027 0 0.0790247 
trait 3 0.340063 0 0 0 0.0363825 0 0.0486775 0 
node 1 3 1 3
node 2 1 1 1
node 3 2 1 1
node 4 1 0 2
node 29 1 0 0
node 38 1 0 0
gene 2 1 4 1.11815 0 1 1.11815 1
gene 3 2 4 4.19265 0 2 4.19265 1
gene 3 3 4 7.21107 0 3 7.21107 1
gene 3 2 29 -1.48068 0 87 -1.48068 1
gene 3 29 4 5.57622 0 88 5.57622 1
gene 3 3 38 1.15043 0 113 1.15043 1
gene 3 38 4 7.45979 0 114 7.45979 1
gene 2 1 29 -3.14022 0 129 -3.14022 1
gene 3 38 29 2.41315 0 176 2.41315 1
gene 3 3 29 0.43857 0 215 0.43857 1
genomeend 98

/* Organism #99 Fitness: 9 Error: 1 */
genomestart 99
trait 1 0.01875 0.212414 0 0.0409302 0 0 0 0.16904 
trait 2 0.246722 0 0.0523191 0.0387612 0 0.100027 0 0.0790247 
trait 3 0.340063 0 0 0 0.0363825 0 0.0486775 0 
node 1 3 1 3
node 2 1 1 1
node 3 2 1 1
node 4 1 0 2
node 29 1 0 0
node 38 1 0 0
gene 2 1 4 -5.53185 0 1 -5.53185 1
gene 3 2 4 6.36486 0 2 6.36486 1
gene 3 3 4 7.59895 0 3 7.59895 1
gene 3 2 29 5.66087 0 87 5.66087 1
gene 3 29 4 -0.221852 0 88 -0.221852 1
gene 3 3 38 4.35996 0 113 4.35996 1
gene 3 38 4 4.90011 0 114 4.90011 1
gene 2 1 29 -0.00287194 0 129 -0.00287194 1
gene 3 38 29 -0.29084 0 176 -0.29084 1
gene 3 3 29 -2.32467 0 215 -2.32467 1
genomeend 99

/* Organism #100 Fitness: 8.99989 Error: 1.00002 */
genomestart 100
trait 1 0.01875 0.212414 0 0.0409302 0 0 0 0.16904 
trait 2 0.246722 0 0.0523191 0.0387612 0 0.100027 0 0.0790247 
trait 3 0.340063 0 0 0 0.0363825 0 0.0486775 0 
node 1 3 1 3
node 2 1 1 1
node 3 2 1 1
node 4 1 0 2
node 29 1 0 0
node 38 1 0 0
gene 2 1 4 -5.44822 0 1 -5.44822 1
gene 3 2 4 6.87004 0 2 6.87004 0
gene 3 3 4 5.60592 0 3 5.60592 1
gene 3 2 29 2.84337 0 87 2.84337 1
gene 3 29 4 5.15067 0 88 5.15067 1
gene 3 3 38 2.90878 0 113 2.90878 1
gene 3 38 4 6.41898 0 114 6.41898 1
gene 2 1 29 -1.46616 0 129 -1.46616 1
gene 3 38 29 -1.44726 0 176 -1.44726 1
gene 3 3 29 -0.763992 0 215 -0.763992 1
genomeend 100

/* Organism #101 Fitness: 9 Error: 1 */
genomestart 101
trait 1 0.01875 0.212414 0 0.0409302 0 0 0 0.16904 
trait 2 0.246722 0 0.0523191 0.0387612 0 0.100027 0 0.0790247 
trait 3 0.340063 0 0 0 0.0363825 0 0.0486775 0 
node 1 3 1 3
node 2 1 1 1
node 3 2 1 1
node 4 1 0 2
node 29 1 0 0
node 38 1 0 0
gene 2 1 4 -7.27619 0 1 -7.27619 1
gene 3 2 4 5.79286 0 2 5.79286 1
gene 3 3 4 6.77502 0 3 6.77502 1
gene 3 2 29 5.44268 0 87 5.44268 1
gene 3 29 4 1.88816 0 88 1.88816 1
gene 3 3 38 2.49511 0 113 2.49511 1
gene 3 38 4 5.93397 0 114 5.93397 1
gene 2 1 29 -1.07533 0 129 -1.07533 1
gene 3 38 29 -2.0435 0 176 -2.0435 1
gene 3 3 29 0.483994 0 215 0.483994 1
genomeend 101

/* Organism #102 Fitness: 9 Error: 1 */
genomestart 102
trait 1 0.01875 0.212414 0 0.0409302 0 0 0 0.16904 
trait 2 0.246722 0 0.0523191 0.0387612 0 0.100027 0 0.0790247 
trait 3 0.340063 0 0 0 0.0363825 0 0.0486775 0 
node 1 3 1 3
node 2 1 1 1
node 3 2 1 1
node 4 1 0 2
node 29 1 0 0
node 38 1 0 0
gene 2 1 4 -6.37865 0 1 -6.37865 1
gene 3 2 4 5.78178 0 2 5.78178 1
gene 3 3 4 6.71549 0 3 6.71549 1
gene 3 2 29 7.55882 0 87 7.55882 1
gene 3 29 4 1.86935 0 88 1.86935 1
gene 3 3 38 1.6593 0 113 1.6593 1
gene 3 38 4 4.73596 0 114 4.73596 1
gene 2 1 29 1.33311 0 129 1.33311 1
gene 3 38 29 -3.76345 0 176 -3.76345 1
gene 3 3 29 0.483994 0 215 0.483994 1
genomeend 102

/* Organism #103 Fitness: 9 Error: 1 */
genomestart 103
trait 1 0.01875 0.212414 0 0.0409302 0 0 0 0.16904 
trait 2 0.246722 0 0.0523191 0.0387612 0 0.100027 0 0.0790247 
trait 3 0.340063 0 0 0 0.0363825 0 0.0486775 0 
node 1 3 1 3
node 2 1 1 1
node 3 2 1 1
node 4 1 0 2
node 29 1 0 0
node 38 1 0 0
gene 2 1 4 -7.08831 0 1 -7.08831 1
gene 3 2 4 5.07582 0 2 5.07582 1
gene 3 3 4 8 0 3 8 1
gene 3 2 29 7.12626 0 87 7.12626 1
gene 3 29 4 3.69854 0 88 3.69854 1
gene 3 3 38 1.93334 0 113 1.93334 1
gene 3 38 4 4.93107 0 114 4.93107 1
gene 2 1 29 -2.16291 0 129 -2.16291 1
gene 3 38 29 -0.332275 0 176 -0.332275 1
gene 3 3 29 0.43857 0 215 0.43857 1
genomeend 103

/* Organism #104 Fitness: 5.76138 Error: 1.59971 */
genomestart 104
trait 1 0.01875 0.212414 0 0.0409302 0 0 0 0.16904 
trait 2 0.246722 0 0.0523191 0.0387612 0 0.100027 0 0.0790247 
trait 3 0.340063 0 0 0 0.0363825 0 0.0486775 0 
node 1 3 1 3
node 2 1 1 1
node 3 2 1 1
node 4 1 0 2
node 29 1 0 0
node 38 1 0 0
gene 2 1 4 -6.63972 0 1 -6.63972 1
gene 3 2 4 4.86417 0 2 4.86417 0
gene 3 3 4 4.02329 0 3 4.02329 1
gene 3 2 29 1.90597 0 87 1.90597 1
gene 3 29 4 3.77423 0 88 3.77423 1
gene 3 3 38 3.56207 0 113 3.56207 1
gene 3 38 4 6.93803 0 114 6.93803 1
gene 2 1 29 -0.259696 0 129 -0.259696 1
gene 3 38 29 -2.68123 0 176 -2.68123 1
gene 3 3 29 -1.50384 0 215 -1.50384 1
genomeend 104

/* Organism #105 Fitness: 8.98546 Error: 1.00242 */
genomestart 105
trait 1 0.0279785 0.371672 0 0.0614352 0 0.0261588 0.0241555 0.25224 
trait 2 0.250372 0 0.0587694 0.04354 0 0.108222 0 0.0851972 
trait 3 0.342029 0 0 0 0.0387668 0 0.051208 0 
node 1 3 1 3
node 2 1 1 1
node 3 2 1 1
node 4 1 0 2
node 29 1 0 0
node 38 1 0 0
gene 2 1 4 -4.07408 0 1 -4.07408 1
gene 3 2 4 4.77727 0 2 4.77727 1
gene 3 3 4 6.84051 0 3 6.84051 1
gene 3 2 29 5.49695 0 87 5.49695 1
gene 3 29 4 4.65509 0 88 4.65509 1
gene 3 3 38 2.67612 0 113 2.67612 1
gene 3 38 4 5.6607 0 114 5.6607 1
gene 2 1 29 -1.15724 0 129 -1.15724 1
gene 3 38 29 0.126995 0 176 0.126995 1
gene 3 3 29 0.43857 0 215 0.43857 1
genomeend 105

/* Organism #106 Fitness: 8.99971 Error: 1.00005 */
genomestart 106
trait 1 0.01875 0.212414 0 0.0409302 0 0 0 0.16904 
trait 2 0.246722 0 0.0523191 0.0387612 0 0.100027 0 0.0790247 
trait 3 0.340063 0 0 0 0.0363825 0 0.0486775 0 
node 1 3 1 3
node 2 1 1 1
node 3 2 1 1
node 4 1 0 2
node 29 1 0 0
node 38 1 0 0
node 76 1 0 0
gene 2 1 4 -7.08007 0 1 -7.08007 1
gene 3 2 4 6.80845 0 2 6.80845 1
gene 3 3 4 6.70953 0 3 6.70953 1
gene 3 2 29 5.38841 0 87 5.38841 1
gene 3 29 4 -0.878776 0 88 -0.878776 1
gene 3 3 38 2.31409 0 113 2.31409 1
gene 3 38 4 6.20724 0 114 6.20724 1
gene 2 1 29 -0.99342 0 129 -0.99342 1
gene 3 38 29 -4.214 0 176 -4.214 0
gene 3 3 29 0.529417 0 215 0.529417 1
gene 3 38 76 1 0 248 0 1
gene 3 76 29 -4.214 0 249 0 1
genomeend 106

/* Species #16 : (Size 8) (AF 6.50935) (Age 13)  */


/* Organism #107 Fitness: 8.99727 Error: 1.00046 */
genomestart 107
trait 1 0.01875 0.212414 0 0.0409302 0 0 0 0.16904 
trait 2 0.246722 0 0.0523191 0.0387612 0 0.100027 0 0.0790247 
trait 3 0.340063 0 0 0 0.0363825 0 0.0486775 0 
node 1 3 1 3
node 2 1 1 1
node 3 2 1 1
node 4 1 0 2
node 29 1 0 0
node 38 1 0 0
node 44 1 0 0
gene 2 1 4 -6.0272 0 1 -6.0272 1
gene 3 2 4 5.81709 0 2 5.81709 1
gene 3 3 4 5.58746 0 3 5.58746 0
gene 3 2 29 5.00545 0 87 5.00545 1
gene 3 29 4 4.71196 0 88 4.71196 1
gene 3 3 38 3.33387 0 113 3.33387 1
gene 3 38 4 7.58961 0 114 7.58961 1
gene 2 1 29 -3.42051 0 129 -3.42051 1
gene 3 3 44 -1.2604 0 144 -1.2604 1
gene 3 44 38 -3.23083 0 145 -3.23083 1
genomeend 107

/* Organism #108 Fitness: 8.87408 Error: 1.02106 */
genomestart 108
trait 1 0.01875 0.212414 0 0.0409302 0 0 0 0.16904 
trait 2 0.246722 0 0.0523191 0.0387612 0 0.100027 0 0.0790247 
trait 3 0.340063 0 0 0 0.0363825 0 0.0486775 0 
node 1 3 1 3
node 2 1 1 1
node 3 2 1 1
node 4 1 0 2
node 29 1 0 0
node 38 1 0 0
node 44 1 0 0
gene 2 1 4 -7.24234 0 1 -7.24234 1
gene 3 2 4 5.81709 0 2 5.81709 1
gene 3 3 4 6.38382 0 3 6.38382 0
gene 3 2 29 6.67453 0 87 6.67453 1
gene 3 29 4 5.27257 0 88 5.27257 1
gene 3 3 38 3.99246 0 113 3.99246 1
gene 3 38 4 8 0 114 8 1
gene 2 1 29 -1.11224 0 129 -1.11224 1
gene 3 3 44 -1.83413 0 144 -1.83413 1
gene 3 44 38 -2.14409 0 145 -2.14409 1
genomeend 108

/* Organism #109 Fitness: 4.20873 Error: 1.94848 */
genomestart 109
trait 1 0.01875 0.212414 0 0.0409302 0 0 0 0.16904 
trait 2 0.246722 0 0.0523191 0.0387612 0 0.100027 0 0.0790247 
trait 3 0.340063 0 0 0 0.0363825 0 0.0486775 0 
node 1 3 1 3
node 2 1 1 1
node 3 2 1 1
node 4 1 0 2
node 29 1 0 0
node 38 1 0 0
node 44 1 0 0
gene 2 1 4 0.591233 0 1 0.591233 1
gene 3 2 4 4.34776 0 2 4.34776 1
gene 3 3 4 6.71363 0 3 6.71363 0
gene 3 2 29 0.79572 0 87 0.79572 1
gene 3 29 4 1.21784 0 88 1.21784 1
gene 3 3 38 1.09958 0 113 1.09958 1
gene 3 38 4 1.34616 0 114 1.34616 1
gene 2 1 29 -5.0937 0 129 -5.0937 1
gene 3 3 44 -1.04891 0 144 -1.04891 1
gene 3 44 38 -5.27698 0 145 -5.27698 1
genomeend 109

/* Organism #110 Fitness: 4.00017 Error: 1.99996 */
genomestart 110
trait 1 0.01875 0.212414 0 0.0409302 0 0 0 0.16904 
trait 2 0.246722 0 0.0523191 0.0387612 0 0.100027 0 0.0790247 
trait 3 0.340063 0 0 0 0.0363825 0 0.0486775 0 
node 1 3 1 3
node 2 1 1 1
node 3 2 1 1
node 4 1 0 2
node 29 1 0 0
node 38 1 0 0
node 44 1 0 0
gene 2 1 4 -5.77031 0 1 -5.77031 1
gene 3 2 4 8 0 2 8 1
gene 3 3 4 5.20632 0 3 5.20632 0
gene 3 2 29 3.75417 0 87 3.75417 1
gene 3 29 4 6.76928 0 88 6.76928 1
gene 3 3 38 2.44731 0 113 2.44731 1
gene 3 38 4 8 0 114 8 1
gene 2 1 29 -4.43472 0 129 -4.43472 1
gene 3 3 44 -2.95996 0 144 -2.95996 1
gene 3 44 38 1.38637 0 145 1.38637 1
genomeend 110

/* Organism #111 Fitness: 4.00004 Error: 1.99999 */
genomestart 111
trait 1 0.01875 0.212414 0 0.0409302 0 0 0 0.16904 
trait 2 0.246722 0 0.0523191 0.0387612 0 0.100027 0 0.0790247 
trait 3 0.340063 0 0 0 0.0363825 0 0.0486775 0 
node 1 3 1 3
node 2 1 1 1
node 3 2 1 1
node 4 1 0 2
node 29 1 0 0
node 38 1 0 0
node 44 1 0 0
gene 2 1 4 2.27377 0 1 2.27377 1
gene 3 2 4 4.28038 0 2 4.28038 1
gene 3 3 4 7.5322 0 3 7.5322 0
gene 3 2 29 5.99653 0 87 5.99653 1
gene 3 29 4 3.13522 0 88 3.13522 1
gene 3 3 38 2.60551 0 113 2.60551 1
gene 3 38 4 5.75712 0 114 5.75712 1
gene 2 1 29 -0.981761 0 129 -0.981761 1
gene 3 3 44 -2.40848 0 144 -2.40848 1
gene 3 44 38 -2.3941 0 145 -2.3941 1
genomeend 111

/* Organism #112 Fitness: 8.99727 Error: 1.00046 */
genomestart 112
trait 1 0.01875 0.212414 0 0.0409302 0 0 0 0.16904 
trait 2 0.246722 0 0.0523191 0.0387612 0 0.100027 0 0.0790247 
trait 3 0.340063 0 0 0 0.0363825 0 0.0486775 0 
node 1 3 1 3
node 2 1 1 1
node 3 2 1 1
node 4 1 0 2
node 29 1 0 0
node 38 1 0 0
node 44 1 0 0
gene 2 1 4 -6.0272 0 1 -6.0272 1
gene 3 2 4 5.81709 0 2 5.81709 1
gene 2 3 4 5.58746 0 3 5.58746 0
gene 3 2 29 5.00545 0 87 5.00545 1
gene 3 29 4 4.71196 0 88 4.71196 1
gene 3 3 38 3.33387 0 113 3.33387 1
gene 3 38 4 7.58961 0 114 7.58961 1
gene 2 1 29 -3.42051 0 129 -3.42051 1
gene 3 3 44 -1.2604 0 144 -1.2604 1
gene 3 44 38 -3.23083 0 145 -3.23083 1
genomeend 112

/* Organism #113 Fitness: 8.99727 Error: 1.00046 */
genomestart 113
trait 1 0.01875 0.212414 0 0.0409302 0 0 0 0.16904 
trait 2 0.246722 0 0.0523191 0.0387612 0 0.100027 0 0.0790247 
trait 3 0.340063 0 0 0 0.0363825 0 0.0486775 0 
node 1 3 1 3
node 2 1 1 1
node 3 2 1 1
node 4 1 0 2
node 29 1 0 0
node 38 1 0 0
node 44 1 0 0
gene 2 1 4 -6.0272 0 1 -6.0272 1
gene 3 2 4 5.81709 0 2 5.81709 1
gene 3 3 4 5.58746 0 3 5.58746 0
gene 3 2 29 5.00545 0 87 5.00545 1
gene 3 29 4 4.71196 0 88 4.71196 1
gene 3 3 38 3.33387 0 113 3.33387 1
gene 3 38 4 7.58961 0 114 7.58961 1
gene 2 1 29 -3.42051 0 129 -3.42051 1
gene 3 3 44 -1.2604 0 144 -1.2604 1
gene 3 44 38 -3.23083 0 145 -3.23083 1
gene 3 38 29 -0.49937 0 250 -0.49937 1
genomeend 113

/* Organism #114 Fitness: 4 Error: 2 */
genomestart 114
trait 1 0.01875 0.212414 0 0.0409302 0 0 0 0.16904 
trait 2 0.246722 0 0.0523191 0.0387612 0 0.100027 0 0.0790247 
trait 3 0.340063 0 0 0 0.0363825 0 0.0486775 0 
node 1 3 1 3
node 2 1 1 1
node 3 2 1 1
node 4 1 0 2
node 29 1 0 0
node 38 1 0 0
node 44 1 0 0
gene 2 1 4 -7.89146 0 1 -7.89146 1
gene 3 2 4 7.5086 0 2 7.5086 1
gene 3 3 4 5.58746 0 3 5.58746 0
gene 3 2 29 4.94823 0 87 4.94823 1
gene 3 29 4 5.56095 0 88 5.56095 1
gene 3 3 38 4.43256 0 113 4.43256 1
gene 3 38 4 1.59243 0 114 1.59243 1
gene 2 1 29 -4.19974 0 129 -4.19974 1
gene 3 3 44 1.22924 0 144 1.22924 1
gene 3 44 38 -5.65626 0 145 -5.65626 1
genomeend 114

/* Species #17 : (Size 7) (AF 5.00559) (Age 10)  */


/* Organism #115 Fitness: 8.98192 Error: 1.00301 */
genomestart 115
trait 1 0.1 0 0 0 0 0 0 0 
trait 2 0.2 0 0 0 0 0 0 0 
trait 3 0.3 0 0 0 0 0 0 0 
node 1 1 1 3
node 2 3 1 1
node 3 3 1 1
node 4 3 0 2
node 9 1 0 0
node 12 1 0 0
node 55 1 0 0
gene 3 1 4 -1.73571 0 1 -1.73571 1
gene 3 2 4 -2.60594 0 2 -2.60594 1
gene 2 3 4 1.20776 0 3 1.20776 0
gene 2 3 9 1.7208 0 12 1.7208 0
gene 2 9 4 4.2338 0 13 4.2338 1
gene 2 2 9 -0.17076 0 17 -0.17076 1
gene 2 3 12 0.995628 0 20 0.995628 1
gene 2 12 9 1.48295 0 21 1.48295 0
gene 2 1 9 -1.80188 0 54 -1.80188 1
gene 3 1 12 -1.13614 0 160 -1.13614 1
gene 2 12 55 2.97929 0 171 2.97929 1
gene 2 55 9 1.98244 0 172 1.98244 1
genomeend 115

/* Organism #116 Fitness: 4 Error: 2 */
genomestart 116
trait 1 0.1 0 0 0 0 0 0 0 
trait 2 0.2 0 0 0 0 0 0 0 
trait 3 0.3 0 0 0 0 0 0 0 
node 1 1 1 3
node 2 3 1 1
node 3 3 1 1
node 4 3 0 2
node 9 1 0 0
node 12 1 0 0
node 55 1 0 0
gene 3 1 4 -2.29693 0 1 -2.29693 1
gene 3 2 4 -3.76466 0 2 -3.76466 1
gene 2 3 4 3.36356 0 3 3.36356 0
gene 2 3 9 1.7208 0 12 1.7208 0
gene 2 9 4 2.12566 0 13 2.12566 1
gene 2 2 9 -1.12651 0 17 -1.12651 1
gene 2 3 12 2.9903 0 20 2.9903 1
gene 2 12 9 1.48295 0 21 1.48295 0
gene 2 1 9 0.190682 0 54 0.190682 1
gene 3 1 12 0.483085 0 160 0.483085 1
gene 2 12 55 2.97929 0 171 2.97929 1
gene 2 55 9 2.90999 0 172 2.90999 1
genomeend 116

/* Organism #117 Fitness: 3.99123 Error: 2.00219 */
genomestart 117
trait 1 0.1 0 0 0 0 0 0 0 
trait 2 0.2 0 0 0 0 0 0 0 
trait 3 0.3 0 0 0 0 0 0 0 
node 1 1 1 3
node 2 3 1 1
node 3 3 1 1
node 4 3 0 2
node 9 1 0 0
node 12 1 0 0
node 55 1 0 0
node 65 1 0 0
gene 3 1 4 0.589424 0 1 0.589424 1
gene 2 2 4 0.90894 0 2 0.90894 0
gene 2 3 4 0.964415 0 3 0.964415 0
gene 2 3 9 1.755 0 12 1.755 0
gene 2 9 4 2.89513 0 13 2.89513 1
gene 2 2 9 -0.617046 0 17 -0.617046 1
gene 2 3 12 -0.737232 0 20 -0.737232 1
gene 2 12 9 -0.0795169 0 21 -0.0795169 0
gene 2 1 9 -0.896673 0 54 -0.896673 1
gene 3 1 12 -0.485432 0 160 -0.485432 1
gene 2 12 55 0.797121 0 171 0.797121 1
gene 2 55 9 0.146558 0 172 0.146558 1
gene 3 2 65 -1.3378 0 216 -1.3378 1
gene 3 65 4 -1.8504 0 217 -1.8504 1
genomeend 117

/* Organism #118 Fitness: 4.9491 Error: 1.77534 */
genomestart 118
trait 1 0.1 0 0 0 0 0 0 0 
trait 2 0.2 0 0 0 0 0 0 0 
trait 3 0.3 0 0 0 0 0 0 0 
node 1 1 1 3
node 2 3 1 1
node 3 3 1 1
node 4 3 0 2
node 9 1 0 0
node 12 1 0 0
node 55 1 0 0
node 65 1 0 0
gene 3 1 4 0.503531 0 1 0.503531 1
gene 2 2 4 -0.597266 0 2 -0.597266 0
gene 2 3 4 -0.155809 0 3 -0.155809 0
gene 2 3 9 2.13974 0 12 2.13974 0
gene 2 9 4 -1.04929 0 13 -1.04929 1
gene 2 2 9 -0.679277 0 17 -0.679277 1
gene 2 3 12 2.16386 0 20 2.16386 1
gene 2 12 9 0.534429 0 21 0.534429 0
gene 2 1 9 -2.37408 0 54 -2.37408 1
gene 3 1 12 -2.06026 0 160 -2.06026 1
gene 2 12 55 2.09402 0 171 2.09402 1
gene 2 55 9 2.7719 0 172 2.7719 1
gene 3 2 65 -0.547111 0 216 -0.547111 1
gene 3 65 4 -4.22735 0 217 -4.22735 1
genomeend 118

/* Organism #119 Fitness: 1.2709 Error: 2.87266 */
genomestart 119
trait 1 0 0 0 0.0757221 0 0 0.582581 0.275185 
trait 2 0.2 0 0 0 0 0 0 0 
trait 3 0.3 0 0 0 0 0 0 0 
node 1 1 1 3
node 2 3 1 1
node 3 3 1 1
node 4 3 0 2
node 9 1 0 0
node 12 1 0 0
node 55 1 0 0
gene 3 1 4 0.274362 0 1 0.274362 1
gene 3 2 4 -0.948124 0 2 -0.948124 1
gene 2 3 4 -1.73287 0 3 -1.73287 0
gene 2 3 9 3.55971 0 12 3.55971 0
gene 2 9 4 4.55818 0 13 4.55818 1
gene 2 2 9 -0.51369 0 17 -0.51369 1
gene 2 3 12 2.34495 0 20 2.34495 1
gene 2 12 9 0.696161 0 21 0.696161 0
gene 2 1 9 -1.92335 0 54 -1.92335 1
gene 3 1 12 -0.324198 0 160 -0.324198 1
gene 2 12 55 1.61833 0 171 1.61833 1
gene 2 55 9 2.37424 0 172 2.37424 1
genomeend 119

/* Organism #120 Fitness: 4.00565 Error: 1.99859 */
genomestart 120
trait 1 0.1 0 0 0 0 0 0 0 
trait 2 0.2 0 0 0 0 0 0 0 
trait 3 0.3 0 0 0 0 0 0 0 
node 1 1 1 3
node 2 3 1 1
node 3 3 1 1
node 4 3 0 2
node 9 1 0 0
node 12 2 0 0
node 55 1 0 0
gene 3 1 4 -0.635646 0 1 -0.635646 1
gene 3 2 4 -3.75785 0 2 -3.75785 1
gene 2 3 4 1.20776 0 3 1.20776 0
gene 2 3 9 2.56769 0 12 2.56769 0
gene 2 9 4 -1.05055 0 13 -1.05055 1
gene 2 2 9 1.87024 0 17 1.87024 1
gene 2 3 12 -2.4548 0 20 -2.4548 1
gene 2 12 9 1.48295 0 21 1.48295 0
gene 2 1 9 -1.80188 0 54 -1.80188 1
gene 3 1 12 1.12434 0 160 1.12434 1
gene 2 12 55 0.807962 0 171 0.807962 1
gene 2 55 9 3.8128 0 172 3.8128 1
genomeend 120

/* Organism #121 Fitness: 7.84031 Error: 1.19995 */
/* ##------$ WINNER 121 SPECIES #17 $------## */
genomestart 121
trait 1 0.1 0 0 0 0 0 0 0 
trait 2 0.2 0 0 0 0 0 0 0 
trait 3 0.3 0 0 0 0 0 0 0 
node 1 1 1 3
node 2 3 1 1
node 3 3 1 1
node 4 3 0 2
node 9 1 0 0
node 12 1 0 0
node 55 1 0 0
node 65 1 0 0
gene 3 1 4 0.048035 0 1 0.048035 1
gene 2 2 4 1.72009 0 2 1.72009 0
gene 2 3 4 -0.155809 0 3 -0.155809 1
gene 2 3 9 3.8055 0 12 3.8055 0
gene 2 9 4 2.59635 0 13 2.59635 1
gene 2 2 9 -1.11063 0 17 -1.11063 1
gene 2 3 12 2.16386 0 20 2.16386 1
gene 2 12 9 -0.0795169 0 21 -0.0795169 0
gene 2 1 9 -2.02409 0 54 -2.02409 1
gene 3 1 12 -0.485432 0 160 -0.485432 1
gene 2 12 55 3.13757 0 171 3.13757 1
gene 2 55 9 2.47848 0 172 2.47848 1
gene 3 2 65 -1.3378 0 216 -1.3378 1
gene 3 65 4 -2.60594 0 217 -2.60594 1
genomeend 121

/* Species #18 : (Size 7) (AF 5.99544) (Age 4)  */


/* Organism #122 Fitness: 8.82614 Error: 1.02912 */
genomestart 122
trait 1 0.1 0 0 0 0 0 0 0 
trait 2 0.2 0 0 0 0 0 0 0 
trait 3 0.3 0 0 0 0 0 0 0 
node 1 2 1 3
node 2 3 1 1
node 3 3 1 1
node 4 1 0 2
node 9 1 0 0
node 12 1 0 0
gene 3 1 4 -5.69653 0 1 -5.69653 1
gene 3 2 4 -2.73671 0 2 -2.73671 1
gene 2 3 4 8 0 3 8 1
gene 2 3 9 6.46082 0 12 6.46082 1
gene 2 9 4 1.56568 0 13 1.56568 1
gene 2 2 9 -4.98777 0 17 -4.98777 1
gene 2 3 12 5.30033 0 20 5.30033 1
gene 2 12 9 2.71077 0 21 2.71077 1
gene 3 2 12 1.8867 0 29 1.8867 1
gene 3 12 4 -3.15666 0 46 -3.15666 1
gene 2 1 9 -2.49539 0 63 -2.49539 1
gene 3 1 12 -0.55389 0 68 -0.55389 1
genomeend 122

/* Organism #123 Fitness: 8.98543 Error: 1.00243 */
genomestart 123
trait 1 0.1 0 0 0 0 0 0 0 
trait 2 0.2 0 0 0 0 0 0 0 
trait 3 0.3 0 0 0 0 0 0 0 
node 1 2 1 3
node 2 3 1 1
node 3 3 1 1
node 4 1 0 2
node 9 1 0 0
node 12 1 0 0
gene 3 1 4 -4.5149 0 1 -4.5149 1
gene 3 2 4 -2.73671 0 2 -2.73671 1
gene 2 3 4 8 0 3 8 1
gene 2 3 9 6.2317 0 12 6.2317 1
gene 2 9 4 -0.913676 0 13 -0.913676 1
gene 2 2 9 2.07267 0 17 2.07267 1
gene 2 3 12 7.00952 0 20 7.00952 1
gene 2 12 9 -1.98846 0 21 -1.98846 1
gene 3 2 12 3.14886 0 29 3.14886 1
gene 3 12 4 -1.15629 0 46 -1.15629 1
gene 2 1 9 -2.37354 0 63 -2.37354 1
gene 3 1 12 -2.56928 0 68 -2.56928 1
genomeend 123

/* Organism #124 Fitness: 4 Error: 2 */
genomestart 124
trait 1 0.1 0 0 0 0 0 0 0 
trait 2 0.2 0 0 0 0 0 0 0 
trait 3 0.3 0 0 0 0 0 0 0 
node 1 2 1 3
node 2 3 1 1
node 3 3 1 1
node 4 1 0 2
node 9 1 0 0
node 12 1 0 0
gene 3 1 4 -4.73697 0 1 -4.73697 1
gene 3 2 4 -5.12512 0 2 -5.12512 1
gene 2 3 4 5.57213 0 3 5.57213 1
gene 2 3 9 7.09683 0 12 7.09683 1
gene 2 9 4 0.455653 0 13 0.455653 1
gene 2 2 9 -3.27706 0 17 -3.27706 1
gene 2 3 12 4.13104 0 20 4.13104 1
gene 2 12 9 3.26631 0 21 3.26631 1
gene 3 2 12 4.01688 0 29 4.01688 1
gene 3 12 4 -4.41415 0 46 -4.41415 1
gene 2 1 9 -1.18537 0 63 -1.18537 1
gene 3 1 12 1.53839 0 68 1.53839 1
genomeend 124

/* Organism #125 Fitness: 8.3245 Error: 1.11478 */
genomestart 125
trait 1 0.1 0 0 0 0 0 0 0 
trait 2 0.2 0 0 0 0 0 0 0 
trait 3 0.3 0 0 0 0 0 0 0 
node 1 2 1 3
node 2 3 1 1
node 3 3 1 1
node 4 1 0 2
node 9 1 0 0
node 12 1 0 0
gene 3 1 4 -6.22747 0 1 -6.22747 1
gene 3 2 4 -3.683 0 2 -3.683 1
gene 2 3 4 8 0 3 8 1
gene 2 3 9 7.13472 0 12 7.13472 1
gene 2 9 4 0.848253 0 13 0.848253 1
gene 2 2 9 -5.83705 0 17 -5.83705 1
gene 2 3 12 5.96115 0 20 5.96115 1
gene 2 12 9 1.35667 0 21 1.35667 1
gene 3 2 12 -0.14399 0 29 -0.14399 1
gene 3 12 4 -2.20593 0 46 -2.20593 1
gene 2 1 9 -2.49539 0 63 -2.49539 1
gene 3 1 12 0.568074 0 68 0.568074 1
genomeend 125

/* Organism #126 Fitness: 3.82891 Error: 2.04324 */
genomestart 126
trait 1 0.1 0 0 0 0 0 0 0 
trait 2 0.2 0 0 0 0 0 0 0 
trait 3 0.3 0 0 0 0 0 0 0 
node 1 2 1 3
node 2 3 1 1
node 3 3 1 1
node 4 1 0 2
node 9 1 0 0
node 12 1 0 0
gene 3 1 4 -7.39461 0 1 -7.39461 1
gene 3 2 4 -0.397412 0 2 -0.397412 1
gene 2 3 4 8 0 3 8 1
gene 2 3 9 4.00975 0 12 4.00975 1
gene 2 9 4 -0.701257 0 13 -0.701257 1
gene 2 2 9 -4.1907 0 17 -4.1907 1
gene 2 3 12 7.13849 0 20 7.13849 1
gene 2 12 9 2.30573 0 21 2.30573 1
gene 3 2 12 2.69682 0 29 2.69682 1
gene 3 12 4 -0.758204 0 46 -0.758204 1
gene 2 1 9 -2.88638 0 63 -2.88638 1
gene 3 1 12 -0.722014 0 68 -0.722014 1
genomeend 126

/* Organism #127 Fitness: 4.00306 Error: 1.99923 */
genomestart 127
trait 1 0.1 0 0 0 0 0 0 0 
trait 2 0.2 0 0 0 0 0 0 0 
trait 3 0.3 0 0 0 0 0 0 0 
node 1 2 1 3
node 2 3 1 1
node 3 3 1 1
node 4 1 0 2
node 9 1 0 0
node 12 1 0 0
gene 3 1 4 -6.13673 0 1 -6.13673 1
gene 3 2 4 -4.45447 0 2 -4.45447 1
gene 2 3 4 8 0 3 8 1
gene 2 3 9 7.40656 0 12 7.40656 1
gene 2 9 4 1.16147 0 13 1.16147 1
gene 2 2 9 -2.80085 0 17 -2.80085 1
gene 2 3 12 4.40584 0 20 4.40584 1
gene 2 12 9 0.779754 0 21 0.779754 1
gene 3 2 12 3.28454 0 29 3.28454 1
gene 3 12 4 -4.48178 0 46 -4.48178 1
gene 2 1 9 -2.49539 0 63 -2.49539 1
gene 3 1 12 -2.3803 0 68 -2.3803 1
genomeend 127

/* Organism #128 Fitness: 4.00001 Error: 2 */
genomestart 128
trait 1 0.1 0 0 0 0 0 0 0 
trait 2 0.2 0 0 0 0 0 0 0 
trait 3 0.3 0 0 0 0 0 0 0 
node 1 2 1 3
node 2 3 1 1
node 3 3 1 1
node 4 1 0 2
node 9 1 0 0
node 12 1 0 0
gene 3 1 4 -4.97826 0 1 -4.97826 1
gene 3 2 4 -1.14564 0 2 -1.14564 1
gene 2 3 4 7.21571 0 3 7.21571 1
gene 2 3 9 7.55505 0 12 7.55505 1
gene 2 9 4 3.50088 0 13 3.50088 1
gene 2 2 9 -7.16915 0 17 -7.16915 1
gene 2 3 12 6.19884 0 20 6.19884 1
gene 2 12 9 0.832089 0 21 0.832089 1
gene 3 2 12 2.66064 0 29 2.66064 1
gene 3 12 4 -1.83709 0 46 -1.83709 1
gene 2 1 9 -0.391537 0 63 -0.391537 1
gene 3 1 12 -2.30989 0 68 -2.30989 1
genomeend 128

/* Species #19 : (Size 10) (AF 6.48756) (Age 3)  */


/* Organism #129 Fitness: 9 Error: 1 */
genomestart 129
trait 1 0.09375 0 0 0 0.327278 0 0.0182159 0.22533 
trait 2 0.340856 0 0 0 0 0 0.147108 0.141712 
trait 3 0 0.00992925 0.673954 0.00914793 0.00234407 0 0 0 
node 1 1 1 3
node 2 3 1 1
node 3 3 1 1
node 4 3 0 2
node 9 3 0 0
node 22 1 0 0
node 36 1 0 0
node 70 1 0 0
gene 3 1 4 -4.93379 0 1 -4.93379 1
gene 2 2 4 -8 0 2 -8 1
gene 2 3 4 7.83091 0 3 7.83091 1
gene 2 3 9 7.48786 0 12 7.48786 1
gene 2 9 4 4.18547 0 13 4.18547 0
gene 2 9 22 1.78202 0 60 1.78202 1
gene 2 22 4 1.73029 0 61 1.73029 1
gene 1 2 9 -1.07615 0 67 -1.07615 1
gene 2 1 9 0.708561 0 98 0.708561 1
gene 1 2 36 -3.38563 0 106 -3.38563 1
gene 1 36 9 -1.56822 0 107 -1.56822 0
gene 3 3 36 0.927143 0 112 0.927143 0
gene 2 1 22 -1.14937 0 143 -1.14937 1
gene 3 36 4 -0.0857978 0 212 -0.0857978 1
gene 3 3 70 1 0 230 0 1
gene 3 70 36 0.927143 0 231 0 1
genomeend 129

/* Organism #130 Fitness: 4.05281 Error: 1.98684 */
genomestart 130
trait 1 0.09375 0 0 0 0.327278 0 0.0182159 0.22533 
trait 2 0.340856 0 0 0 0 0 0.147108 0.141712 
trait 3 0 0.00992925 0.673954 0.00914793 0.00234407 0 0 0 
node 1 1 1 3
node 2 3 1 1
node 3 3 1 1
node 4 3 0 2
node 9 3 0 0
node 22 1 0 0
node 36 1 0 0
node 70 1 0 0
gene 3 1 4 -3.31782 0 1 -3.31782 1
gene 2 2 4 -8 0 2 -8 1
gene 2 3 4 0.682593 0 3 0.682593 1
gene 2 3 9 5.4857 0 12 5.4857 1
gene 2 9 4 2.57946 0 13 2.57946 0
gene 2 9 22 -1.4159 0 60 -1.4159 1
gene 2 22 4 1.71776 0 61 1.71776 1
gene 1 2 9 -1.48373 0 67 -1.48373 1
gene 2 1 9 -0.484014 0 98 -0.484014 1
gene 1 2 36 2.14998 0 106 2.14998 1
gene 1 36 9 -0.359877 0 107 -0.359877 0
gene 3 3 36 -0.311507 0 112 -0.311507 0
gene 2 1 22 2.04289 0 143 2.04289 1
gene 3 36 4 0.126346 0 212 0.126346 1
gene 3 3 70 3.37926 0 230 3.37926 1
gene 3 70 36 1.96779 0 231 1.96779 1
genomeend 130

/* Organism #131 Fitness: 1.68346 Error: 2.70252 */
genomestart 131
trait 1 0.09375 0 0 0 0.327278 0 0.0182159 0.22533 
trait 2 0.340856 0 0 0 0 0 0.147108 0.141712 
trait 3 0 0.00992925 0.673954 0.00914793 0.00234407 0 0 0 
node 1 1 1 3
node 2 3 1 1
node 3 3 1 1
node 4 3 0 2
node 9 3 0 0
node 22 1 0 0
node 36 1 0 0
node 70 1 0 0
gene 3 1 4 2.05688 0 1 2.05688 1
gene 2 2 4 -1.78161 0 2 -1.78161 1
gene 2 3 4 8 0 3 8 1
gene 2 3 9 7.48786 0 12 7.48786 1
gene 2 9 4 6.01888 0 13 6.01888 0
gene 2 9 22 0.929694 0 60 0.929694 1
gene 2 22 4 -1.28715 0 61 -1.28715 1
gene 1 2 9 -1.07615 0 67 -1.07615 1
gene 2 1 9 0.797977 0 98 0.797977 1
gene 1 2 36 -4.81399 0 106 -4.81399 1
gene 1 36 9 -3.9855 0 107 -3.9855 0
gene 3 3 36 -1.1874 0 112 -1.1874 0
gene 2 1 22 0.550459 0 143 0.550459 1
gene 3 36 4 -1.11506 0 212 -1.11506 1
gene 3 3 70 2.72022 0 230 2.72022 1
gene 3 70 36 3.21757 0 231 3.21757 1
gene 2 36 22 -1.38852 0 242 -1.38852 1
genomeend 131

/* Organism #132 Fitness: 4 Error: 2 */
genomestart 132
trait 1 0.09375 0 0 0 0.327278 0 0.0182159 0.22533 
trait 2 0.340856 0 0 0 0 0 0.147108 0.141712 
trait 3 0 0.00992925 0.673954 0.00914793 0.00234407 0 0 0 
node 1 1 1 3
node 2 3 1 1
node 3 3 1 1
node 4 3 0 2
node 9 3 0 0
node 22 1 0 0
node 36 1 0 0
node 70 1 0 0
gene 3 1 4 -3.9659 0 1 -3.9659 1
gene 2 2 4 -8 0 2 -8 1
gene 2 3 4 -0.0889711 0 3 -0.0889711 1
gene 2 3 9 8 0 12 8 1
gene 2 9 4 5.5797 0 13 5.5797 0
gene 2 9 22 0.466135 0 60 0.466135 1
gene 2 22 4 1.73029 0 61 1.73029 1
gene 1 2 9 0.467982 0 67 0.467982 1
gene 2 1 9 -0.292132 0 98 -0.292132 1
gene 1 2 36 -3.84739 0 106 -3.84739 1
gene 1 36 9 0.771886 0 107 0.771886 0
gene 3 3 36 2.26014 0 112 2.26014 0
gene 2 1 22 -0.273026 0 143 -0.273026 1
gene 3 36 4 -1.53476 0 212 -1.53476 1
gene 3 3 70 1.24179 0 230 1.24179 1
gene 3 70 36 0.102089 0 231 0.102089 1
genomeend 132

/* Organism #133 Fitness: 8.99895 Error: 1.00017 */
genomestart 133
trait 1 0.09375 0 0 0 0.327278 0 0.0182159 0.22533 
trait 2 0.340856 0 0 0 0 0 0.147108 0.141712 
trait 3 0 0.00992925 0.673954 0.00914793 0.00234407 0 0 0 
node 1 1 1 3
node 2 3 1 1
node 3 3 1 1
node 4 3 0 2
node 9 3 0 0
node 22 1 0 0
node 36 1 0 0
node 70 1 0 0
gene 3 1 4 -7.36584 0 1 -7.36584 1
gene 2 2 4 -7.65383 0 2 -7.65383 1
gene 2 3 4 5.34645 0 3 5.34645 1
gene 2 3 9 5.18877 0 12 5.18877 1
gene 2 9 4 4.6867 0 13 4.6867 1
gene 2 9 22 3.40407 0 60 3.40407 1
gene 2 22 4 2.40636 0 61 2.40636 1
gene 1 2 9 -3.20698 0 67 -3.20698 1
gene 2 1 9 0.820041 0 98 0.820041 1
gene 1 2 36 -5.13128 0 106 -5.13128 1
gene 1 36 9 -2.79988 0 107 -2.79988 0
gene 3 3 36 -0.947247 0 112 -0.947247 1
gene 2 1 22 1.19355 0 143 1.19355 1
gene 3 36 4 -1.55077 0 212 -1.55077 1
gene 3 3 70 1 0 230 1 1
gene 3 70 36 0.927143 0 231 0.927143 1
genomeend 133

/* Organism #134 Fitness: 4.00172 Error: 1.99957 */
genomestart 134
trait 1 0.09375 0 0 0 0.327278 0 0.0182159 0.22533 
trait 2 0.340856 0 0 0 0 0 0.147108 0.141712 
trait 3 0 0.00992925 0.673954 0.00914793 0.00234407 0 0 0 
node 1 1 1 3
node 2 3 1 1
node 3 3 1 1
node 4 3 0 2
node 9 3 0 0
node 22 1 0 0
node 36 1 0 0
node 70 1 0 0
gene 3 1 4 -6.94867 0 1 -6.94867 1
gene 2 2 4 -6.30072 0 2 -6.30072 1
gene 2 3 4 5.47035 0 3 5.47035 1
gene 2 3 9 8 0 12 8 1
gene 2 9 4 2.41558 0 13 2.41558 0
gene 2 9 22 3.00895 0 60 3.00895 1
gene 2 22 4 -0.0953973 0 61 -0.0953973 1
gene 1 2 9 -2.02962 0 67 -2.02962 1
gene 2 1 9 -1.29815 0 98 -1.29815 1
gene 1 2 36 -2.3072 0 106 -2.3072 1
gene 1 36 9 -1.91598 0 107 -1.91598 0
gene 3 3 36 2.58695 0 112 2.58695 0
gene 2 1 22 0.526861 0 143 0.526861 1
gene 3 36 4 -0.0857978 0 212 -0.0857978 1
gene 3 3 70 0.531821 0 230 0.531821 1
gene 3 70 36 -1.11693 0 231 -1.11693 1
genomeend 134

/* Organism #135 Fitness: 9 Error: 1 */
genomestart 135
trait 1 0.09375 0 0 0 0.327278 0 0.0182159 0.22533 
trait 2 0.340856 0 0 0 0 0 0.147108 0.141712 
trait 3 0 0.00992925 0.673954 0.00914793 0.00234407 0 0 0 
node 1 1 1 3
node 2 2 1 1
node 3 3 1 1
node 4 3 0 2
node 9 3 0 0
node 22 1 0 0
node 36 1 0 0
node 70 1 0 0
gene 3 1 4 -3.29737 0 1 -3.29737 1
gene 2 2 4 -8 0 2 -8 1
gene 2 3 4 8 0 3 8 1
gene 2 3 9 8 0 12 8 1
gene 2 9 4 4.31925 0 13 4.31925 0
gene 2 9 22 -1.25071 0 60 -1.25071 1
gene 2 22 4 0.33021 0 61 0.33021 1
gene 1 2 9 -2.49257 0 67 -2.49257 1
gene 2 1 9 1.9172 0 98 1.9172 1
gene 1 2 36 -1.24905 0 106 -1.24905 1
gene 1 36 9 -3.61306 0 107 -3.61306 0
gene 3 3 36 2.92758 0 112 2.92758 0
gene 2 1 22 -0.763651 0 143 -0.763651 1
gene 3 36 4 -1.73553 0 212 -1.73553 1
gene 3 3 70 1.53211 0 230 1.53211 1
gene 3 70 36 0.927143 0 231 0.927143 1
gene 2 36 22 1.0692 0 242 1.0692 1
genomeend 135

/* Organism #136 Fitness: 9 Error: 1 */
genomestart 136
trait 1 0.09375 0 0 0 0.327278 0 0.0182159 0.22533 
trait 2 0.340856 0 0 0 0 0 0.147108 0.141712 
trait 3 0 0.00992925 0.673954 0.00914793 0.00234407 0 0 0 
node 1 1 1 3
node 2 3 1 1
node 3 3 1 1
node 4 3 0 2
node 9 3 0 0
node 22 1 0 0
node 36 1 0 0
node 70 1 0 0
gene 3 1 4 -3.64216 0 1 -3.64216 1
gene 2 2 4 -6.60639 0 2 -6.60639 1
gene 2 3 4 7.20683 0 3 7.20683 1
gene 2 3 9 8 0 12 8 1
gene 2 9 4 6.49107 0 13 6.49107 0
gene 2 9 22 -0.0529982 0 60 -0.0529982 1
gene 2 22 4 0.000655072 0 61 0.000655072 1
gene 1 2 9 -1.01584 0 67 -1.01584 1
gene 2 1 9 -0.303468 0 98 -0.303468 1
gene 1 2 36 -5.08873 0 106 -5.08873 1
gene 1 36 9 0.833791 0 107 0.833791 0
gene 3 3 36 -0.577815 0 112 -0.577815 0
gene 2 1 22 0.389755 0 143 0.389755 1
gene 3 36 4 -0.0857978 0 212 -0.0857978 1
gene 3 3 70 0.456402 0 230 0.456402 1
gene 3 70 36 -0.711435 0 231 -0.711435 1
genomeend 136

/* Organism #137 Fitness: 8.99794 Error: 1.00034 */
genomestart 137
trait 1 0 0 0.113176 0 0.327278 0 0.0182159 0.0717824 
trait 2 0.340856 0 0 0 0 0 0.147108 0.141712 
trait 3 0 0 0.673954 0.524076 0.00234407 0 0 0 
node 1 1 1 3
node 2 3 1 1
node 3 3 1 1
node 4 3 0 2
node 9 3 0 0
node 22 1 0 0
node 36 1 0 0
node 70 1 0 0
gene 3 1 4 -6.34566 0 1 -6.34566 1
gene 2 2 4 -8 0 2 -8 1
gene 2 3 4 8 0 3 8 1
gene 2 3 9 5.75367 0 12 5.75367 1
gene 2 9 4 -1.0994 0 13 -1.0994 0
gene 2 9 22 -2.37283 0 60 -2.37283 1
gene 2 22 4 1.1655 0 61 1.1655 1
gene 1 2 9 1.72178 0 67 1.72178 1
gene 2 1 9 0.447273 0 98 0.447273 1
gene 1 2 36 0.970894 0 106 0.970894 1
gene 1 36 9 -0.274051 0 107 -0.274051 0
gene 3 3 36 2.72564 0 112 2.72564 0
gene 2 1 22 -0.825715 0 143 -0.825715 1
gene 3 36 4 -0.0857978 0 212 -0.0857978 1
gene 3 3 70 -0.372905 0 230 -0.372905 1
gene 3 70 36 -0.557206 0 231 -0.557206 1
genomeend 137

/* Organism #138 Fitness: 6.14072 Error: 1.52195 */
genomestart 138
trait 1 0.09375 0 0 0 0.327278 0 0.0182159 0.22533 
trait 2 0.340856 0 0 0 0 0 0.147108 0.141712 
trait 3 0 0.00992925 0.673954 0.00914793 0.00234407 0 0 0 
node 1 1 1 3
node 2 3 1 1
node 3 3 1 1
node 4 3 0 2
node 9 3 0 0
node 22 1 0 0
node 36 1 0 0
node 70 1 0 0
gene 3 1 4 -6.65872 0 1 -6.65872 1
gene 2 2 4 -8 0 2 -8 1
gene 2 3 4 8 0 3 8 1
gene 2 3 9 8 0 12 8 1
gene 2 9 4 3.28866 0 13 3.28866 0
gene 2 9 22 -0.0689493 0 60 -0.0689493 1
gene 2 22 4 1.14173 0 61 1.14173 1
gene 1 2 9 1.13235 0 67 1.13235 1
gene 2 1 9 0.582437 0 98 0.582437 1
gene 1 2 36 -1.10181 0 106 -1.10181 1
gene 1 36 9 -3.55843 0 107 -3.55843 0
gene 3 3 36 -0.115073 0 112 -0.115073 0
gene 2 1 22 -3.3205 0 143 -3.3205 1
gene 3 36 4 -1.5221 0 212 -1.5221 1
gene 3 3 70 -0.0288204 0 230 -0.0288204 1
gene 3 70 36 0.927143 0 231 0.927143 1
genomeend 138

/* Species #20 : (Size 11) (AF 8.24668) (Age 3)  */


/* Organism #139 Fitness: 9 Error: 1 */
genomestart 139
trait 1 0.09375 0 0 0 0.28029 0 0.0182159 0.187775 
trait 2 0.340856 0 0 0 0 0 0.147108 0.141712 
trait 3 0 0.00992925 0.673954 0.00914793 0.00234407 0 0 0 
node 1 1 1 3
node 2 3 1 1
node 3 3 1 1
node 4 3 0 2
node 9 3 0 0
node 22 1 0 0
node 36 3 0 0
node 71 1 0 0
gene 3 1 4 -3.00967 0 1 -3.00967 1
gene 2 2 4 -8 0 2 -8 1
gene 2 3 4 7.65524 0 3 7.65524 1
gene 2 3 9 8 0 12 8 1
gene 2 9 4 5.59282 0 13 5.59282 0
gene 2 9 22 4.99186 0 60 4.99186 1
gene 2 22 4 -0.528581 0 61 -0.528581 1
gene 1 2 9 -3.03136 0 67 -3.03136 0
gene 2 1 9 2.10619 0 98 2.10619 1
gene 1 2 36 -1.7253 0 106 -1.7253 1
gene 1 36 9 -1.79521 0 107 -1.79521 0
gene 3 3 36 -1.25901 0 112 -1.25901 1
gene 2 1 22 -3.31129 0 143 -3.31129 1
gene 3 36 4 2.21283 0 212 2.21283 0
gene 3 36 71 -1.0603 0 232 -1.0603 1
gene 3 71 4 -1.52383 0 233 -1.52383 1
genomeend 139

/* Organism #140 Fitness: 5.02778 Error: 1.75773 */
genomestart 140
trait 1 0.09375 0 0 0 0.28029 0 0.0182159 0.187775 
trait 2 0.340856 0 0 0 0 0 0.147108 0.141712 
trait 3 0 0.00992925 0.673954 0.00914793 0.00234407 0 0 0 
node 1 1 1 3
node 2 3 1 1
node 3 3 1 1
node 4 3 0 2
node 9 3 0 0
node 22 1 0 0
node 36 3 0 0
node 71 1 0 0
gene 3 1 4 -4.12846 0 1 -4.12846 1
gene 2 2 4 -6.59618 0 2 -6.59618 1
gene 1 3 4 6.12251 0 3 6.12251 1
gene 2 3 9 6.21355 0 12 6.21355 1
gene 2 9 4 2.78087 0 13 2.78087 0
gene 2 9 22 5.58828 0 60 5.58828 1
gene 2 22 4 2.19597 0 61 2.19597 1
gene 1 2 9 -3.2074 0 67 -3.2074 0
gene 2 1 9 -0.0332719 0 98 -0.0332719 1
gene 1 2 36 -1.80547 0 106 -1.80547 1
gene 1 36 9 -4.05393 0 107 -4.05393 0
gene 3 3 36 1.16503 0 112 1.16503 1
gene 2 1 22 -2.02328 0 143 -2.02328 1
gene 3 36 4 -1.8057 0 212 -1.8057 0
gene 3 36 71 2.03739 0 232 2.03739 1
gene 3 71 4 2.31399 0 233 2.31399 1
genomeend 140

/* Organism #141 Fitness: 8.99956 Error: 1.00007 */
genomestart 141
trait 1 0.09375 0 0 0 0.28029 0 0.0182159 0.187775 
trait 2 0.340856 0 0 0 0 0 0.147108 0.141712 
trait 3 0 0.00992925 0.673954 0.00914793 0.00234407 0 0 0 
node 1 1 1 3
node 2 3 1 1
node 3 3 1 1
node 4 3 0 2
node 9 3 0 0
node 22 1 0 0
node 36 3 0 0
node 71 1 0 0
gene 3 1 4 -3.69966 0 1 -3.69966 1
gene 2 2 4 -8 0 2 -8 1
gene 2 3 4 4.76636 0 3 4.76636 1
gene 2 3 9 6.7875 0 12 6.7875 1
gene 2 9 4 6.39086 0 13 6.39086 0
gene 2 9 22 2.6356 0 60 2.6356 1
gene 2 22 4 2.4987 0 61 2.4987 1
gene 1 2 9 -0.417945 0 67 -0.417945 0
gene 2 1 9 -0.175468 0 98 -0.175468 1
gene 1 2 36 -2.27022 0 106 -2.27022 1
gene 1 36 9 -3.1766 0 107 -3.1766 0
gene 3 3 36 1.56771 0 112 1.56771 1
gene 2 1 22 -4.17806 0 143 -4.17806 1
gene 3 36 4 -0.280549 0 212 -0.280549 0
gene 3 36 71 1 0 232 1 1
gene 3 71 4 0.871341 0 233 0.871341 1
gene 3 2 22 -0.866694 0 243 -0.866694 1
genomeend 141

/* Organism #142 Fitness: 4.68934 Error: 1.83451 */
genomestart 142
trait 1 0.09375 0 0 0 0.28029 0 0.0182159 0.187775 
trait 2 0.340856 0 0 0 0 0 0.147108 0.141712 
trait 3 0 0.00992925 0.673954 0.00914793 0.00234407 0 0 0 
node 1 1 1 3
node 2 3 1 1
node 3 3 1 1
node 4 3 0 2
node 9 3 0 0
node 22 1 0 0
node 36 3 0 0
node 71 1 0 0
gene 3 1 4 -1.84145 0 1 -1.84145 1
gene 2 2 4 -5.51963 0 2 -5.51963 1
gene 2 3 4 6.78036 0 3 6.78036 1
gene 2 3 9 5.94207 0 12 5.94207 1
gene 2 9 4 6.48777 0 13 6.48777 0
gene 2 9 22 5.69206 0 60 5.69206 1
gene 2 22 4 1.35803 0 61 1.35803 1
gene 1 2 9 0.661312 0 67 0.661312 0
gene 2 1 9 1.36278 0 98 1.36278 1
gene 1 2 36 -2.14336 0 106 -2.14336 1
gene 1 36 9 -2.93678 0 107 -2.93678 0
gene 3 3 36 1.85841 0 112 1.85841 1
gene 2 1 22 -1.99978 0 143 -1.99978 1
gene 3 36 4 -1.84718 0 212 -1.84718 0
gene 3 36 71 -1.0603 0 232 -1.0603 1
gene 3 71 4 -1.93865 0 233 -1.93865 1
genomeend 142

/* Organism #143 Fitness: 9 Error: 1 */
genomestart 143
trait 1 0.09375 0 0 0 0.28029 0 0.0182159 0.187775 
trait 2 0.340856 0 0 0 0 0 0.147108 0.141712 
trait 3 0 0.00992925 0.673954 0.00914793 0.00234407 0 0 0 
node 1 1 1 3
node 2 3 1 1
node 3 3 1 1
node 4 3 0 2
node 9 3 0 0
node 22 1 0 0
node 36 3 0 0
node 71 1 0 0
gene 3 1 4 -5.3958 0 1 -5.3958 1
gene 2 2 4 -8 0 2 -8 1
gene 2 3 4 7.80252 0 3 7.80252 1
gene 2 3 9 8 0 12 8 1
gene 2 9 4 4.08766 0 13 4.08766 0
gene 2 9 22 6.39886 0 60 6.39886 1
gene 2 22 4 1.60828 0 61 1.60828 1
gene 1 2 9 0.490276 0 67 0.490276 0
gene 2 1 9 -1.10322 0 98 -1.10322 1
gene 1 2 36 -2.27526 0 106 -2.27526 1
gene 1 36 9 -3.22571 0 107 -3.22571 0
gene 3 3 36 1.62774 0 112 1.62774 1
gene 2 1 22 -0.577095 0 143 -0.577095 1
gene 3 36 4 1.47667 0 212 1.47667 0
gene 3 36 71 0.871891 0 232 0.871891 1
gene 3 71 4 0.601218 0 233 0.601218 1
genomeend 143

/* Organism #144 Fitness: 8.99812 Error: 1.00031 */
genomestart 144
trait 1 0.09375 0 0 0 0.28029 0 0.0182159 0.187775 
trait 2 0.340856 0 0 0 0 0 0.147108 0.141712 
trait 3 0 0.00992925 0.673954 0.00914793 0.00234407 0 0 0 
node 1 1 1 3
node 2 3 1 1
node 3 3 1 1
node 4 3 0 2
node 9 3 0 0
node 22 1 0 0
node 36 3 0 0
node 71 1 0 0
gene 3 1 4 -4.64134 0 1 -4.64134 1
gene 2 2 4 -5.67557 0 2 -5.67557 1
gene 2 3 4 8 0 3 8 1
gene 2 3 9 6.75259 0 12 6.75259 1
gene 2 9 4 4.37422 0 13 4.37422 0
gene 2 9 22 4.67453 0 60 4.67453 1
gene 2 22 4 -0.964677 0 61 -0.964677 1
gene 1 2 9 -4.78723 0 67 -4.78723 0
gene 2 1 9 2.0957 0 98 2.0957 1
gene 1 2 36 -1.33071 0 106 -1.33071 1
gene 1 36 9 -0.173432 0 107 -0.173432 0
gene 3 3 36 -1.17155 0 112 -1.17155 1
gene 2 1 22 -2.26724 0 143 -2.26724 1
gene 3 36 4 2.21283 0 212 2.21283 0
gene 3 36 71 -1.0603 0 232 -1.0603 1
gene 3 71 4 -1.52383 0 233 -1.52383 1
genomeend 144

/* Organism #145 Fitness: 9 Error: 1 */
genomestart 145
trait 1 0.09375 0 0 0 0.28029 0 0.0182159 0.187775 
trait 2 0.340856 0 0 0 0 0 0.147108 0.141712 
trait 3 0 0.00992925 0.673954 0.00914793 0.00234407 0 0 0 
node 1 1 1 3
node 2 3 1 1
node 3 3 1 1
node 4 3 0 2
node 9 3 0 0
node 22 1 0 0
node 36 3 0 0
node 71 1 0 0
gene 3 1 4 -4.60418 0 1 -4.60418 1
gene 2 2 4 -8 0 2 -8 1
gene 2 3 4 6.51429 0 3 6.51429 1
gene 2 3 9 7.48786 0 12 7.48786 1
gene 2 9 4 4.18547 0 13 4.18547 0
gene 2 9 22 3.92481 0 60 3.92481 1
gene 2 22 4 1.73029 0 61 1.73029 1
gene 1 2 9 -1.07615 0 67 -1.07615 0
gene 2 1 9 0.0958805 0 98 0.0958805 1
gene 1 2 36 -3.14547 0 106 -3.14547 1
gene 1 36 9 -1.56822 0 107 -1.56822 0
gene 3 3 36 0.266769 0 112 0.266769 1
gene 2 1 22 -2.07971 0 143 -2.07971 1
gene 3 36 4 -0.0857978 0 212 -0.0857978 0
gene 3 36 71 1 0 232 0 1
gene 3 71 4 -0.0857978 0 233 0 1
gene 3 2 22 -0.866694 0 243 -0.866694 1
genomeend 145

/* Organism #146 Fitness: 9 Error: 1 */
genomestart 146
trait 1 0.09375 0 0 0 0.28029 0 0.0182159 0.187775 
trait 2 0.340856 0 0 0 0 0 0.147108 0.141712 
trait 3 0 0.00992925 0.673954 0.00914793 0.00234407 0 0 0 
node 1 1 1 3
node 2 3 1 1
node 3 3 1 1
node 4 3 0 2
node 9 3 0 0
node 22 1 0 0
node 36 3 0 0
node 71 1 0 0
gene 3 1 4 -4.60418 0 1 -4.60418 1
gene 2 2 4 -8 0 2 -8 1
gene 2 3 4 6.51429 0 3 6.51429 1
gene 2 3 9 7.48786 0 12 7.48786 1
gene 2 9 4 4.18547 0 13 4.18547 0
gene 2 9 22 3.92481 0 60 3.92481 1
gene 2 22 4 1.73029 0 61 1.73029 1
gene 1 2 9 -1.07615 0 67 -1.07615 0
gene 2 1 9 0.0958805 0 98 0.0958805 1
gene 1 2 36 -3.14547 0 106 -3.14547 1
gene 1 36 9 -1.56822 0 107 -1.56822 0
gene 3 3 36 0.266769 0 112 0.266769 1
gene 2 1 22 -2.07971 0 143 -2.07971 1
gene 3 36 4 -0.0857978 0 212 -0.0857978 1
gene 3 36 71 1 0 232 0 1
gene 3 71 4 -0.0857978 0 233 0 1
gene 2 71 9 -0.511395 0 251 -0.511395 1
genomeend 146

/* Organism #147 Fitness: 9 Error: 1 */
genomestart 147
trait 1 0.09375 0 0 0 0.28029 0 0.0182159 0.187775 
trait 2 0.340856 0 0 0 0 0 0.147108 0.141712 
trait 3 0 0.00992925 0.673954 0.00914793 0.00234407 0 0 0 
node 1 1 1 3
node 2 3 1 1
node 3 3 1 1
node 4 3 0 2
node 9 3 0 0
node 22 1 0 0
node 36 3 0 0
node 71 1 0 0
gene 3 1 4 -3.80693 0 1 -3.80693 1
gene 2 2 4 -8 0 2 -8 1
gene 2 3 4 7.08477 0 3 7.08477 1
gene 2 3 9 7.74393 0 12 7.74393 1
gene 2 9 4 4.88914 0 13 4.88914 0
gene 2 9 22 4.45833 0 60 4.45833 1
gene 2 22 4 0.600853 0 61 0.600853 1
gene 1 2 9 -2.05375 0 67 -2.05375 0
gene 2 1 9 1.10104 0 98 1.10104 1
gene 1 2 36 -2.43539 0 106 -2.43539 1
gene 1 36 9 -1.68172 0 107 -1.68172 0
gene 3 3 36 -0.49612 0 112 -0.49612 1
gene 2 1 22 -2.6955 0 143 -2.6955 1
gene 3 36 4 1.06352 0 212 1.06352 0
gene 3 36 71 -0.0301509 0 232 -0.530151 1
gene 3 71 4 -0.804814 0 233 -0.761915 1
genomeend 147

/* Organism #148 Fitness: 8.99874 Error: 1.00021 */
genomestart 148
trait 1 0.09375 0 0 0 0.28029 0 0.0182159 0.187775 
trait 2 0.340856 0 0 0 0 0 0.147108 0.141712 
trait 3 0 0.00992925 0.673954 0.00914793 0.00234407 0 0 0 
node 1 1 1 3
node 2 3 1 1
node 3 3 1 1
node 4 3 0 2
node 9 3 0 0
node 22 1 0 0
node 36 3 0 0
node 71 1 0 0
gene 3 1 4 -3.31166 0 1 -3.31166 1
gene 2 2 4 -8 0 2 -8 1
gene 2 3 4 5.35868 0 3 5.35868 1
gene 2 3 9 8 0 12 8 1
gene 2 9 4 6.43239 0 13 6.43239 0
gene 2 9 22 4.17529 0 60 4.17529 1
gene 2 22 4 3.63717 0 61 3.63717 1
gene 1 2 9 1.09127 0 67 1.09127 0
gene 2 1 9 -1.06932 0 98 -1.06932 1
gene 1 2 36 -1.65951 0 106 -1.65951 1
gene 1 36 9 -3.866 0 107 -3.866 0
gene 3 3 36 -0.569068 0 112 -0.569068 1
gene 2 1 22 -0.352172 0 143 -0.352172 1
gene 3 36 4 1.59633 0 212 1.59633 0
gene 3 36 71 -1.08901 0 232 -1.08901 1
gene 3 71 4 1.18837 0 233 1.18837 1
gene 3 2 22 0.355924 0 243 0.355924 1
genomeend 148

/* Organism #149 Fitness: 9 Error: 1 */
genomestart 149
trait 1 0.09375 0 0 0 0.28029 0 0.0182159 0.187775 
trait 2 0.340856 0 0 0 0 0 0.147108 0.141712 
trait 3 0 0.00992925 0.673954 0.00914793 0.00234407 0 0 0 
node 1 1 1 3
node 2 3 1 1
node 3 3 1 1
node 4 3 0 2
node 9 3 0 0
node 22 1 0 0
node 36 3 0 0
node 71 1 0 0
gene 3 1 4 -4.60418 0 1 -4.60418 1
gene 2 2 4 -8 0 2 -8 1
gene 2 3 4 6.51429 0 3 6.51429 1
gene 2 3 9 7.48786 0 12 7.48786 1
gene 2 9 4 4.18547 0 13 4.18547 0
gene 2 9 22 3.92481 0 60 3.92481 1
gene 2 22 4 1.73029 0 61 1.73029 1
gene 1 2 9 -1.07615 0 67 -1.07615 0
gene 2 1 9 0.0958805 0 98 0.0958805 1
gene 1 2 36 -3.14547 0 106 -3.14547 1
gene 1 36 9 -1.56822 0 107 -1.56822 0
gene 3 3 36 0.266769 0 112 0.266769 1
gene 2 1 22 -2.07971 0 143 -2.07971 1
gene 3 36 4 -0.0857978 0 212 -0.0857978 0
gene 3 36 71 1 0 232 0 1
gene 3 71 4 -0.0857978 0 233 0 1
gene 3 2 22 -0.866694 0 243 -0.866694 1
genomeend 149
