
/* Species #1 : (Size 9) (AF 7.17086) (Age 24)  */


/* Organism #0 Fitness: 9 Error: 1 */
genomestart 0
trait 1 0.1 0 0 0 0 0 0 0 
trait 2 0.210547 0 0 0 0 0 0 0 
trait 3 0.3 0 0 0 0 0 0 0 
node 1 2 1 3
node 2 1 1 1
node 3 3 1 1
node 4 2 0 2
gene 3 1 4 -4.2568 0 1 -4.2568 1
gene 2 2 4 8 0 2 8 1
gene 1 3 4 -8 0 3 -8 1
genomeend 0

/* Organism #1 Fitness: 8.99981 Error: 1.00003 */
genomestart 1
trait 1 0.1 0 0 0 0 0 0 0 
trait 2 0.210547 0 0 0 0 0 0 0 
trait 3 0.3 0 0 0 0 0 0 0 
node 1 2 1 3
node 2 1 1 1
node 3 3 1 1
node 4 2 0 2
gene 3 1 4 -2.74548 0 1 -2.74548 1
gene 2 2 4 8 0 2 8 1
gene 1 3 4 -7.36416 0 3 -7.36416 1
genomeend 1

/* Organism #2 Fitness: 3.99723 Error: 2.00069 */
genomestart 2
trait 1 0.1 0 0 0 0 0 0 0 
trait 2 0.210547 0 0 0 0 0 0 0 
trait 3 0.3 0 0 0 0 0 0 0 
node 1 2 1 3
node 2 1 1 1
node 3 3 1 1
node 4 2 0 2
gene 3 1 4 -1.47717 0 1 -1.47717 1
gene 2 2 4 -1.97197 0 2 -1.97197 1
gene 1 3 4 -5.60433 0 3 -5.60433 1
genomeend 2

/* Organism #3 Fitness: 9 Error: 1 */
genomestart 3
trait 1 0.1 0 0 0 0 0 0 0 
trait 2 0.210547 0 0 0 0 0 0 0 
trait 3 0.3 0 0 0 0 0 0 0 
node 1 2 1 3
node 2 1 1 1
node 3 3 1 1
node 4 2 0 2
gene 3 1 4 -3.95782 0 1 -3.95782 1
gene 2 2 4 7.74633 0 2 7.74633 1
gene 1 3 4 -8 0 3 -8 1
genomeend 3

/* Organism #4 Fitness: 9 Error: 1 */
genomestart 4
trait 1 0.1 0 0 0 0 0 0 0 
trait 2 0.210547 0 0 0 0 0 0 0 
trait 3 0.3 0 0 0 0 0 0 0 
node 1 2 1 3
node 2 1 1 1
node 3 3 1 1
node 4 2 0 2
gene 3 1 4 -4.2568 0 1 -4.2568 1
gene 2 2 4 8 0 2 8 1
gene 1 3 4 -6.74375 0 3 -6.74375 1
genomeend 4

/* Organism #5 Fitness: 8.99211 Error: 1.00132 */
genomestart 5
trait 1 0.1 0 0 0 0 0 0 0 
trait 2 0.210547 0 0 0 0 0 0 0 
trait 3 0.3 0 0 0 0 0 0 0 
node 1 2 1 3
node 2 1 1 1
node 3 3 1 1
node 4 2 0 2
gene 3 1 4 -4.81047 0 1 -4.81047 1
gene 2 2 4 6.15724 0 2 6.15724 1
gene 1 3 4 -8 0 3 -8 1
genomeend 5

/* Organism #6 Fitness: 2.54855 Error: 2.40358 */
genomestart 6
trait 1 0.1 0 0 0 0 0 0 0 
trait 2 0.210547 0 0 0 0 0 0 0 
trait 3 0.3 0 0 0 0 0 0 0 
node 1 2 1 3
node 2 1 1 1
node 3 3 1 1
node 4 2 0 2
gene 3 1 4 1.24446 0 1 1.24446 1
gene 2 2 4 0.482135 0 2 0.482135 1
gene 1 3 4 -1.23361 0 3 -1.23361 1
genomeend 6

/* Organism #7 Fitness: 4.00004 Error: 1.99999 */
genomestart 7
trait 1 0.1 0 0 0 0 0 0 0 
trait 2 0.210547 0 0 0 0 0 0 0 
trait 3 0.3 0 0 0 0 0 0 0 
node 1 2 1 3
node 2 1 1 1
node 3 3 1 1
node 4 2 0 2
gene 3 1 4 -3.20849 0 1 -3.20849 1
gene 2 2 4 8 0 2 8 1
gene 1 3 4 0.853817 0 3 0.853817 1
genomeend 7

/* Organism #8 Fitness: 9 Error: 1 */
genomestart 8
trait 1 0.1 0 0 0 0 0 0 0 
trait 2 0.210547 0 0 0 0 0 0 0 
trait 3 0.3 0 0 0 0 0 0 0 
node 1 2 1 3
node 2 1 1 1
node 3 3 1 1
node 4 2 0 2
gene 3 1 4 -3.33331 0 1 -3.33331 1
gene 2 2 4 8 0 2 8 1
gene 1 3 4 -8 0 3 -8 1
genomeend 8

/* Species #2 : (Size 8) (AF 7.7475) (Age 22)  */


/* Organism #9 Fitness: 9 Error: 1 */
genomestart 9
trait 1 0.1 0 0 0 0 0 0 0 
trait 2 0.2 0 0 0 0 0 0 0 
trait 3 0.731464 0 0 0 0 0.739673 0 0 
node 1 1 1 3
node 2 2 1 1
node 3 1 1 1
node 4 1 0 2
node 5 1 0 0
gene 3 1 4 -3.37516 0 1 -3.37516 1
gene 3 2 4 -4.53144 0 2 -4.53144 0
gene 1 3 4 6.31934 0 3 6.31934 1
gene 2 2 5 4.72554 0 4 4.72554 1
gene 3 5 4 -7.36232 0 5 -7.36232 1
gene 2 1 5 -2.7766 0 28 -2.7766 1
genomeend 9

/* Organism #10 Fitness: 8.99126 Error: 1.00146 */
genomestart 10
trait 1 0.1 0 0 0 0 0 0 0 
trait 2 0.2 0 0 0 0 0 0 0 
trait 3 0.731464 0 0 0 0 0.739673 0 0 
node 1 1 1 3
node 2 3 1 1
node 3 1 1 1
node 4 1 0 2
node 5 1 0 0
gene 3 1 4 -1.32662 0 1 -1.32662 1
gene 3 2 4 -5.1045 0 2 -5.1045 0
gene 1 3 4 5.83903 0 3 5.83903 1
gene 2 2 5 5.35016 0 4 5.35016 1
gene 3 5 4 -7.01031 0 5 -7.01031 1
gene 2 1 5 -2.67514 0 28 -2.67514 1
genomeend 10

/* Organism #11 Fitness: 9 Error: 1 */
genomestart 11
trait 1 0.1 0 0 0.39306 0 0 0 0.282373 
trait 2 0.2 0 0 0 0 0 0 0 
trait 3 0.731464 0 0 0 0 0.739673 0 0 
node 1 1 1 3
node 2 2 1 1
node 3 1 1 1
node 4 1 0 2
node 5 1 0 0
gene 3 1 4 -3.37516 0 1 -3.37516 1
gene 3 2 4 -4.53144 0 2 -4.53144 0
gene 1 3 4 6.31934 0 3 6.31934 1
gene 2 2 5 4.72554 0 4 4.72554 1
gene 3 5 4 -7.36232 0 5 -7.36232 1
gene 2 1 5 -2.7766 0 28 -2.7766 1
genomeend 11

/* Organism #12 Fitness: 8.9891 Error: 1.00182 */
genomestart 12
trait 1 0.1 0 0 0 0 0 0 0 
trait 2 0.2 0 0 0 0 0 0 0 
trait 3 0.731464 0 0 0 0 0.739673 0 0 
node 1 1 1 3
node 2 2 1 1
node 3 1 1 1
node 4 1 0 2
node 5 1 0 0
gene 3 1 4 -1.31692 0 1 -1.31692 1
gene 3 2 4 -6.8779 0 2 -6.8779 0
gene 1 3 4 7.66505 0 3 7.66505 1
gene 2 2 5 6.0729 0 4 6.0729 1
gene 3 5 4 -8 0 5 -8 1
gene 2 1 5 -2.43447 0 28 -2.43447 1
genomeend 12

/* Organism #13 Fitness: 9 Error: 1 */
genomestart 13
trait 1 0.1 0 0 0 0 0 0 0 
trait 2 0.2 0 0 0 0 0 0 0 
trait 3 0.731464 0 0 0 0 0.739673 0 0 
node 1 1 1 3
node 2 2 1 1
node 3 1 1 1
node 4 1 0 2
node 5 1 0 0
gene 3 1 4 -3.37516 0 1 -3.37516 1
gene 3 2 4 -4.53144 0 2 -4.53144 0
gene 1 3 4 6.31934 0 3 6.31934 1
gene 2 2 5 4.72554 0 4 4.72554 1
gene 3 5 4 -7.36232 0 5 -7.36232 1
gene 2 1 5 -2.7766 0 28 -2.7766 1
genomeend 13

/* Organism #14 Fitness: 9 Error: 1 */
genomestart 14
trait 1 0.1 0 0 0 0 0 0 0 
trait 2 0.2 0 0 0 0 0 0 0 
trait 3 0.731464 0 0 0 0 0.739673 0 0 
node 1 1 1 3
node 2 2 1 1
node 3 1 1 1
node 4 1 0 2
node 5 1 0 0
gene 3 1 4 -3.37516 0 1 -3.37516 1
gene 3 2 4 -4.53144 0 2 -4.53144 0
gene 1 3 4 6.31934 0 3 6.31934 1
gene 2 2 5 4.72554 0 4 4.72554 1
gene 3 5 4 -7.36232 0 5 -7.36232 1
gene 2 1 5 -2.7766 0 28 -2.7766 1
gene 3 3 5 0.690104 0 224 0.690104 1
genomeend 14

/* Organism #15 Fitness: 4.00007 Error: 1.99998 */
genomestart 15
trait 1 0.1 0 0 0 0 0 0 0 
trait 2 0.2 0 0 0 0 0 0 0 
trait 3 0.731464 0 0 0 0 0.739673 0 0 
node 1 1 1 3
node 2 2 1 1
node 3 1 1 1
node 4 1 0 2
node 5 1 0 0
gene 3 1 4 -5.58706 0 1 -5.58706 1
gene 3 2 4 -5.353 0 2 -5.353 0
gene 1 3 4 5.8021 0 3 5.8021 1
gene 2 2 5 2.65211 0 4 2.65211 1
gene 3 5 4 -5.66266 0 5 -5.66266 1
gene 2 1 5 -5.20376 0 28 -5.20376 1
genomeend 15

/* Organism #16 Fitness: 3.99958 Error: 2.0001 */
genomestart 16
trait 1 0.1 0 0 0 0 0 0 0 
trait 2 0.2 0 0 0 0 0 0 0 
trait 3 0.731464 0 0 0 0 0.739673 0 0 
node 1 1 1 3
node 2 2 1 1
node 3 1 1 1
node 4 1 0 2
node 5 1 0 0
gene 3 1 4 -1.43743 0 1 -1.43743 1
gene 3 2 4 -2.18635 0 2 -2.18635 0
gene 1 3 4 0.814685 0 3 0.814685 1
gene 2 2 5 -0.388113 0 4 -0.388113 1
gene 3 5 4 -7.32627 0 5 -7.32627 1
gene 2 1 5 -1.91147 0 28 -1.91147 1
genomeend 16

/* Species #3 : (Size 8) (AF 5.67051) (Age 21)  */


/* Organism #17 Fitness: 8.99773 Error: 1.00038 */
genomestart 17
trait 1 0.140775 0 0 0 0 0 0 0 
trait 2 0.204319 0 0 0.221953 0 0 0.476548 0 
trait 3 0.3 0 0 0 0.147259 0.125918 0.310601 0.270752 
node 1 2 1 3
node 2 2 1 1
node 3 3 1 1
node 4 2 0 2
node 9 3 0 0
gene 1 1 4 6.26987 0 1 6.26987 1
gene 3 2 4 -4.63419 0 2 -4.63419 1
gene 2 3 4 -0.0983149 0 3 -0.0983149 1
gene 2 3 9 4.55844 0 13 4.55844 1
gene 2 9 4 -4.38051 0 14 -4.38051 1
gene 1 2 9 -3.39025 0 116 -3.39025 1
gene 3 1 9 1.82652 0 185 1.82652 1
genomeend 17

/* Organism #18 Fitness: 8.95181 Error: 1.00804 */
genomestart 18
trait 1 0.140775 0 0 0 0 0 0 0 
trait 2 0.204319 0 0 0.221953 0 0 0.476548 0 
trait 3 0.3 0 0 0 0.147259 0.125918 0.310601 0.270752 
node 1 2 1 3
node 2 2 1 1
node 3 3 1 1
node 4 2 0 2
node 9 3 0 0
gene 1 1 4 5.48077 0 1 5.48077 1
gene 3 2 4 -2.36647 0 2 -2.36647 1
gene 2 3 4 -2.24991 0 3 -2.24991 1
gene 2 3 9 3.57334 0 13 3.57334 1
gene 2 9 4 -6.4586 0 14 -6.4586 1
gene 2 2 9 -3.29361 0 116 -3.29361 1
gene 3 1 9 2.7633 0 185 2.7633 1
genomeend 18

/* Organism #19 Fitness: 4 Error: 2 */
genomestart 19
trait 1 0.140775 0 0 0 0 0 0 0 
trait 2 0.204319 0 0 0.221953 0 0 0.476548 0 
trait 3 0.3 0 0 0 0.147259 0.125918 0.310601 0.270752 
node 1 2 1 3
node 2 2 1 1
node 3 3 1 1
node 4 2 0 2
node 9 3 0 0
gene 1 1 4 8 0 1 8 1
gene 3 2 4 -5.88399 0 2 -5.88399 1
gene 2 3 4 -1.39932 0 3 -1.39932 1
gene 2 3 9 2.92423 0 13 2.92423 1
gene 2 9 4 2.34886 0 14 2.34886 1
gene 1 2 9 -0.895321 0 116 -0.895321 1
gene 3 1 9 1.92349 0 185 1.92349 1
genomeend 19

/* Organism #20 Fitness: 2.2155 Error: 2.51154 */
genomestart 20
trait 1 0.140775 0 0 0 0 0 0 0 
trait 2 0.204319 0 0 0.221953 0 0 0.476548 0 
trait 3 0.3 0 0 0 0.147259 0.125918 0.310601 0.270752 
node 1 2 1 3
node 2 2 1 1
node 3 3 1 1
node 4 2 0 2
node 9 3 0 0
gene 1 1 4 0.539999 0 1 0.539999 1
gene 3 2 4 -0.579014 0 2 -0.579014 1
gene 1 3 4 -1.31941 0 3 -1.31941 1
gene 2 3 9 3.4885 0 13 3.4885 1
gene 2 9 4 -3.30613 0 14 -3.30613 1
gene 1 2 9 0.497866 0 116 0.497866 1
gene 3 1 9 -1.49201 0 185 -1.49201 1
genomeend 20

/* Organism #21 Fitness: 8.39627 Error: 1.10237 */
genomestart 21
trait 1 0.140775 0 0 0 0 0 0 0 
trait 2 0.204319 0 0 0.221953 0 0 0.476548 0 
trait 3 0.3 0 0 0 0.147259 0.125918 0.310601 0.270752 
node 1 2 1 3
node 2 2 1 1
node 3 3 1 1
node 4 2 0 2
node 9 3 0 0
gene 1 1 4 4.1917 0 1 4.1917 1
gene 3 2 4 -3.75086 0 2 -3.75086 1
gene 2 3 4 0.370227 0 3 0.370227 1
gene 2 3 9 3.05336 0 13 3.05336 1
gene 2 9 4 -2.57969 0 14 -2.57969 1
gene 1 2 9 -3.68755 0 116 -3.68755 1
gene 3 1 9 1.76659 0 185 1.76659 1
genomeend 21

/* Organism #22 Fitness: 1.23614 Error: 2.88818 */
genomestart 22
trait 1 0.140775 0 0 0 0 0 0 0 
trait 2 0.204319 0 0 0.221953 0 0 0.476548 0 
trait 3 0.3 0 0 0 0.147259 0.125918 0.310601 0.270752 
node 1 2 1 3
node 2 2 1 1
node 3 3 1 1
node 4 2 0 2
node 9 3 0 0
gene 1 1 4 5.94056 0 1 5.94056 1
gene 3 2 4 -2.99201 0 2 -2.99201 1
gene 2 3 4 -1.39932 0 3 -1.39932 1
gene 2 3 9 2.12214 0 13 2.12214 1
gene 2 9 4 -4.96787 0 14 -4.96787 1
gene 1 2 9 -4.90467 0 116 -4.90467 1
gene 3 1 9 0.588781 0 185 0.588781 1
genomeend 22

/* Organism #23 Fitness: 4.34967 Error: 1.91441 */
genomestart 23
trait 1 0.140775 0 0 0 0 0 0 0 
trait 2 0.204319 0 0 0.221953 0 0 0.476548 0 
trait 3 0.3 0 0 0 0.147259 0.125918 0.310601 0.270752 
node 1 2 1 3
node 2 2 1 1
node 3 3 1 1
node 4 2 0 2
node 9 3 0 0
gene 1 1 4 4.861 0 1 4.861 1
gene 3 2 4 -6.91333 0 2 -6.91333 1
gene 2 3 4 2.24942 0 3 2.24942 1
gene 2 3 9 6.57476 0 13 6.57476 1
gene 2 9 4 -4.38051 0 14 -4.38051 1
gene 1 2 9 -1.5654 0 116 -1.5654 1
gene 3 1 9 1.82652 0 185 1.82652 1
genomeend 23

/* Organism #24 Fitness: 7.21699 Error: 1.31355 */
genomestart 24
trait 1 0.140775 0 0 0 0 0 0 0 
trait 2 0.204319 0 0 0.221953 0 0 0.476548 0 
trait 3 0.3 0 0 0 0.147259 0.125918 0.310601 0.270752 
node 1 2 1 3
node 2 2 1 1
node 3 3 1 1
node 4 2 0 2
node 9 3 0 0
gene 1 1 4 4.32155 0 1 4.32155 1
gene 3 2 4 -7.05382 0 2 -7.05382 1
gene 2 3 4 0.734575 0 3 0.734575 1
gene 2 3 9 4.49166 0 13 4.49166 1
gene 2 9 4 -4.81285 0 14 -4.81285 1
gene 1 2 9 -3.35634 0 116 -3.35634 1
gene 3 1 9 3.42419 0 185 3.42419 1
genomeend 24

/* Species #4 : (Size 8) (AF 7.09079) (Age 21)  */


/* Organism #25 Fitness: 9 Error: 1 */
genomestart 25
trait 1 0.1 0 0 0 0 0 0 0 
trait 2 0.15 0 0.208348 0.0748037 0.233741 0.139788 0.395855 0 
trait 3 0.765289 0 0 0 0 0.962196 0 0.620436 
node 1 1 1 3
node 2 3 1 1
node 3 1 1 1
node 4 1 0 2
node 5 1 0 0
node 11 1 0 0
gene 1 1 4 3.20733 0 1 3.20733 1
gene 3 2 4 -0.496739 0 2 -0.496739 0
gene 3 3 4 -6.19536 0 3 -6.19536 1
gene 3 2 5 -1.42705 0 4 -1.42705 1
gene 3 5 4 -2.11093 0 5 -2.11093 1
gene 3 5 11 5.23159 0 18 5.23159 1
gene 3 11 4 -5.79911 0 19 -5.79911 1
gene 2 2 11 -0.98799 0 67 -0.98799 1
genomeend 25

/* Organism #26 Fitness: 4 Error: 2 */
genomestart 26
trait 1 0.1 0 0 0 0 0 0 0 
trait 2 0.15 0 0.208348 0.0748037 0.233741 0.139788 0.395855 0 
trait 3 0.765289 0 0 0 0 0.962196 0 0.620436 
node 1 1 1 3
node 2 3 1 1
node 3 1 1 1
node 4 1 0 2
node 5 1 0 0
node 11 1 0 0
gene 1 1 4 0.832497 0 1 0.832497 1
gene 3 2 4 -0.361765 0 2 -0.361765 0
gene 3 3 4 -6.31738 0 3 -6.31738 1
gene 3 2 5 -1.22767 0 4 -1.22767 1
gene 3 5 4 0.783191 0 5 0.783191 1
gene 3 5 11 2.38364 0 18 2.38364 1
gene 3 11 4 -5.06211 0 19 -5.06211 1
gene 2 2 11 1.69883 0 67 1.69883 1
genomeend 26

/* Organism #27 Fitness: 8.9951 Error: 1.00082 */
genomestart 27
trait 1 0.1 0 0 0 0 0 0 0 
trait 2 0.15 0 0.208348 0.0748037 0.233741 0.139788 0.395855 0 
trait 3 0.765289 0 0 0 0 0.962196 0 0.620436 
node 1 1 1 3
node 2 3 1 1
node 3 1 1 1
node 4 1 0 2
node 5 1 0 0
node 11 1 0 0
gene 1 1 4 4.27963 0 1 4.27963 1
gene 3 2 4 -4.63939 0 2 -4.63939 0
gene 3 3 4 -5.5076 0 3 -5.5076 1
gene 3 2 5 -1.3541 0 4 -1.3541 1
gene 3 5 4 -1.17006 0 5 -1.17006 1
gene 3 5 11 0.479594 0 18 0.479594 1
gene 3 11 4 -7.6402 0 19 -7.6402 1
gene 2 2 11 -0.714418 0 67 -0.714418 1
genomeend 27

/* Organism #28 Fitness: 8.74347 Error: 1.04306 */
genomestart 28
trait 1 0.1 0 0 0 0 0 0 0 
trait 2 0.15 0 0.208348 0.0748037 0.233741 0.139788 0.395855 0 
trait 3 0.765289 0 0 0 0 0.962196 0 0.620436 
node 1 1 1 3
node 2 3 1 1
node 3 1 1 1
node 4 1 0 2
node 5 1 0 0
node 11 1 0 0
gene 1 1 4 0.629765 0 1 0.629765 1
gene 3 2 4 0.131798 0 2 0.131798 0
gene 3 3 4 -8 0 3 -8 1
gene 3 2 5 -4.2053 0 4 -4.2053 1
gene 3 5 4 -0.280767 0 5 -0.280767 1
gene 3 5 11 -0.140159 0 18 -0.140159 1
gene 3 11 4 -8 0 19 -8 1
gene 2 2 11 -2.75962 0 67 -2.75962 1
genomeend 28

/* Organism #29 Fitness: 8.9999 Error: 1.00002 */
genomestart 29
trait 1 1 0.433444 0 0 0.923957 0.0433483 0 0 
trait 2 0.15 0 0.208348 0.0748037 0.233741 0.139788 0.395855 0 
trait 3 0.765289 0 0 0 0 0.962196 0 0.620436 
node 1 1 1 3
node 2 3 1 1
node 3 1 1 1
node 4 1 0 2
node 5 1 0 0
node 11 1 0 0
gene 1 1 4 2.28647 0 1 2.28647 1
gene 3 2 4 -1.70856 0 2 -1.70856 0
gene 3 3 4 -5.79643 0 3 -5.79643 1
gene 3 2 5 -1.45821 0 4 -1.45821 1
gene 3 5 4 -2.11093 0 5 -2.11093 1
gene 3 5 11 5.34067 0 18 5.34067 1
gene 1 11 4 -6.04912 0 19 -6.04912 1
gene 2 2 11 -0.98799 0 67 -0.98799 1
genomeend 29

/* Organism #30 Fitness: 3.98782 Error: 2.00305 */
genomestart 30
trait 1 0.1 0 0 0 0 0 0 0 
trait 2 0.15 0 0.208348 0.0748037 0.233741 0.139788 0.395855 0 
trait 3 0.765289 0 0 0 0 0.962196 0 0.620436 
node 1 1 1 3
node 2 3 1 1
node 3 1 1 1
node 4 1 0 2
node 5 1 0 0
node 11 1 0 0
gene 1 1 4 5.69229 0 1 5.69229 1
gene 3 2 4 0.50439 0 2 0.50439 0
gene 3 3 4 -6.845 0 3 -6.845 1
gene 3 2 5 -1.42705 0 4 -1.42705 1
gene 3 5 4 -1.52648 0 5 -1.52648 1
gene 3 5 11 4.66642 0 18 4.66642 1
gene 3 11 4 -0.614757 0 19 -0.614757 1
gene 2 2 11 -0.677032 0 67 -0.677032 1
genomeend 30

/* Organism #31 Fitness: 4.00012 Error: 1.99997 */
genomestart 31
trait 1 0.1 0 0 0 0 0 0 0 
trait 2 0.15 0 0.208348 0.0748037 0.233741 0.139788 0.395855 0 
trait 3 0.765289 0 0 0.397221 0 0.962196 0 0.760455 
node 1 1 1 3
node 2 3 1 1
node 3 1 1 1
node 4 1 0 2
node 5 1 0 0
node 11 1 0 0
gene 1 1 4 3.8596 0 1 3.8596 1
gene 3 2 4 0.00191362 0 2 0.00191362 0
gene 3 3 4 -8 0 3 -8 1
gene 3 2 5 -1.95885 0 4 -1.95885 1
gene 3 5 4 -3.37607 0 5 -3.37607 1
gene 3 5 11 -1.40207 0 18 -1.40207 1
gene 3 11 4 -1.68519 0 19 -1.68519 1
gene 2 2 11 -2.55747 0 67 -2.55747 1
genomeend 31

/* Organism #32 Fitness: 8.99992 Error: 1.00001 */
genomestart 32
trait 1 0.1 0 0 0 0 0 0 0 
trait 2 0.15 0 0.208348 0.0748037 0.233741 0.139788 0.395855 0 
trait 3 0.765289 0 0 0 0 0.962196 0 0.620436 
node 1 1 1 3
node 2 3 1 1
node 3 1 1 1
node 4 1 0 2
node 5 1 0 0
node 11 1 0 0
gene 1 1 4 5.11087 0 1 5.11087 1
gene 3 2 4 -2.07778 0 2 -2.07778 0
gene 3 3 4 -7.4028 0 3 -7.4028 1
gene 3 2 5 -1.75723 0 4 -1.75723 1
gene 3 5 4 -2.36725 0 5 -2.36725 1
gene 3 5 11 4.426 0 18 4.426 1
gene 3 11 4 -8 0 19 -8 1
gene 2 2 11 -2.15491 0 67 -2.15491 1
genomeend 32

/* Species #5 : (Size 7) (AF 4.99949) (Age 20)  */


/* Organism #33 Fitness: 8.99992 Error: 1.00001 */
genomestart 33
trait 1 0.1 0 0 0 0 0 0 0 
trait 2 0.202159 0 0 0 0 0 0.781827 0 
trait 3 0.3 0 0 0 0 0 0 0 
node 1 3 1 3
node 2 2 1 1
node 3 1 1 1
node 4 3 0 2
node 10 1 0 0
gene 3 1 4 2.31622 0 1 2.31622 1
gene 2 2 4 0.0335997 0 2 0.0335997 0
gene 2 3 4 -4.94789 0 3 -4.94789 1
gene 2 2 10 -3.70522 0 15 -3.70522 1
gene 2 10 4 7.27299 0 16 7.27299 1
gene 1 3 10 0.405919 0 110 0.405919 1
genomeend 33

/* Organism #34 Fitness: 8.99397 Error: 1.001 */
genomestart 34
trait 1 0.1 0 0 0 0 0 0 0 
trait 2 0.202159 0 0 0 0 0 0.781827 0 
trait 3 0.3 0 0 0 0 0 0 0 
node 1 3 1 3
node 2 2 1 1
node 3 1 1 1
node 4 3 0 2
node 10 1 0 0
gene 3 1 4 3.09764 0 1 3.09764 1
gene 2 2 4 1.16637 0 2 1.16637 0
gene 2 3 4 -6.83988 0 3 -6.83988 1
gene 2 2 10 -2.98978 0 15 -2.98978 1
gene 2 10 4 5.15171 0 16 5.15171 1
gene 1 3 10 1.31749 0 110 1.31749 1
genomeend 34

/* Organism #35 Fitness: 4 Error: 2 */
genomestart 35
trait 1 0.1 0 0 0 0 0 0 0 
trait 2 0.202159 0 0 0 0 0 0.781827 0 
trait 3 0.3 0 0 0 0 0 0 0 
node 1 3 1 3
node 2 2 1 1
node 3 1 1 1
node 4 3 0 2
node 10 1 0 0
gene 3 1 4 3.0246 0 1 3.0246 1
gene 2 2 4 -2.28353 0 2 -2.28353 0
gene 2 3 4 -5.13659 0 3 -5.13659 1
gene 2 2 10 -2.80107 0 15 -2.80107 1
gene 2 10 4 0.564539 0 16 0.564539 1
gene 1 3 10 -0.843376 0 110 -0.843376 1
genomeend 35

/* Organism #36 Fitness: 1.00026 Error: 2.99987 */
genomestart 36
trait 1 0.1 0 0 0 0 0 0 0 
trait 2 0.202159 0 0 0 0 0 0.781827 0 
trait 3 0.3 0 0 0 0 0 0 0 
node 1 3 1 3
node 2 2 1 1
node 3 1 1 1
node 4 3 0 2
node 10 1 0 0
gene 3 1 4 1.07979 0 1 1.07979 1
gene 2 2 4 -2.30349 0 2 -2.30349 0
gene 2 3 4 -6.10341 0 3 -6.10341 1
gene 2 2 10 1.9445 0 15 1.9445 1
gene 2 10 4 6.84731 0 16 6.84731 1
gene 1 3 10 -0.622214 0 110 -0.622214 1
genomeend 36

/* Organism #37 Fitness: 4 Error: 2 */
genomestart 37
trait 1 0.1 0 0 0 0 0 0 0 
trait 2 0.202159 0 0 0 0 0 0.781827 0 
trait 3 0.3 0 0 0 0 0 0 0 
node 1 3 1 3
node 2 2 1 1
node 3 1 1 1
node 4 3 0 2
node 10 1 0 0
gene 3 1 4 3.85399 0 1 3.85399 1
gene 2 2 4 1.1473 0 2 1.1473 0
gene 2 3 4 -6.69579 0 3 -6.69579 1
gene 2 2 10 -3.33755 0 15 -3.33755 1
gene 2 10 4 7.94052 0 16 7.94052 1
gene 1 3 10 -1.90775 0 110 -1.90775 1
genomeend 37

/* Organism #38 Fitness: 3.99995 Error: 2.00001 */
genomestart 38
trait 1 0.1 0 0 0 0 0 0 0 
trait 2 0.202159 0 0 0 0 0 0.781827 0 
trait 3 0.3 0 0 0 0 0 0 0 
node 1 3 1 3
node 2 2 1 1
node 3 1 1 1
node 4 3 0 2
node 10 1 0 0
gene 3 1 4 4.39143 0 1 4.39143 1
gene 2 2 4 1.39395 0 2 1.39395 0
gene 2 3 4 -3.77387 0 3 -3.77387 1
gene 2 2 10 0.845134 0 15 0.845134 1
gene 2 10 4 8 0 16 8 1
gene 1 3 10 -0.270838 0 110 -0.270838 1
genomeend 38

/* Organism #39 Fitness: 4.00235 Error: 1.99941 */
genomestart 39
trait 1 0.1 0 0 0 0 0 0 0 
trait 2 0.202159 0 0 0 0 0 0.781827 0 
trait 3 0.3 0 0 0 0 0 0 0 
node 1 3 1 3
node 2 2 1 1
node 3 1 1 1
node 4 3 0 2
node 10 1 0 0
gene 3 1 4 4.1156 0 1 4.1156 1
gene 2 2 4 -0.711451 0 2 -0.711451 0
gene 2 3 4 -2.60456 0 3 -2.60456 1
gene 2 2 10 -5.94923 0 15 -5.94923 1
gene 2 10 4 5.55599 0 16 5.55599 1
gene 1 3 10 2.56424 0 110 2.56424 1
genomeend 39

/* Species #7 : (Size 6) (AF 5.14738) (Age 19)  */


/* Organism #40 Fitness: 9 Error: 1 */
genomestart 40
trait 1 0.1 0 0 0 0 0 0 0 
trait 2 0.2 0 0 0 0 0 0 0 
trait 3 0.3 0 0 0 0 0 0 0 
node 1 2 1 3
node 2 3 1 1
node 3 1 1 1
node 4 3 0 2
node 13 1 0 0
gene 3 1 4 -0.299352 0 1 -0.299352 1
gene 1 2 4 5.88379 0 2 5.88379 1
gene 1 3 4 -1.51047 0 3 -1.51047 1
gene 1 3 13 3.14054 0 26 3.14054 1
gene 1 13 4 -7.25828 0 27 -7.25828 1
gene 3 1 13 0.591932 0 46 0.591932 1
gene 1 2 13 -2.79674 0 64 -2.79674 1
genomeend 40

/* Organism #41 Fitness: 4.30969 Error: 1.92402 */
genomestart 41
trait 1 0.1 0 0 0 0 0 0 0 
trait 2 0.2 0 0 0 0 0 0 0 
trait 3 0.3 0 0 0 0 0 0 0 
node 1 2 1 3
node 2 3 1 1
node 3 1 1 1
node 4 3 0 2
node 13 1 0 0
gene 3 1 4 -1.54464 0 1 -1.54464 1
gene 1 2 4 5.88379 0 2 5.88379 1
gene 1 3 4 -2.62967 0 3 -2.62967 1
gene 1 3 13 2.27734 0 26 2.27734 1
gene 1 13 4 -6.97094 0 27 -6.97094 1
gene 3 1 13 -2.16715 0 46 -2.16715 1
gene 1 2 13 -0.428392 0 64 -0.428392 1
genomeend 41

/* Organism #42 Fitness: 1.00164 Error: 2.99918 */
genomestart 42
trait 1 0.1 0 0 0 0 0 0 0.566971 
trait 2 0.2 0 0 0 0 0 0 0 
trait 3 0.3 0 0 0 0 0 0 0 
node 1 2 1 3
node 2 3 1 1
node 3 1 1 1
node 4 3 0 2
node 13 1 0 0
gene 3 1 4 -0.378321 0 1 -0.378321 1
gene 1 2 4 3.87939 0 2 3.87939 1
gene 1 3 4 0.640091 0 3 0.640091 1
gene 1 3 13 -1.76274 0 26 -1.76274 1
gene 1 13 4 -7.84286 0 27 -7.84286 1
gene 3 1 13 2.82718 0 46 2.82718 1
gene 1 2 13 -2.71878 0 64 -2.71878 1
genomeend 42

/* Organism #43 Fitness: 3.57352 Error: 2.10962 */
genomestart 43
trait 1 0.1 0 0 0 0 0 0 0 
trait 2 0.2 0 0 0 0 0 0 0 
trait 3 0.3 0 0 0 0 0 0 0 
node 1 2 1 3
node 2 3 1 1
node 3 1 1 1
node 4 3 0 2
node 13 1 0 0
gene 3 1 4 -0.299352 0 1 -0.299352 1
gene 1 2 4 5.17282 0 2 5.17282 1
gene 1 3 4 -0.721539 0 3 -0.721539 1
gene 1 3 13 2.95154 0 26 2.95154 1
gene 1 13 4 -7.20059 0 27 -7.20059 1
gene 3 1 13 -0.817971 0 46 -0.817971 1
gene 1 2 13 -3.43451 0 64 -3.43451 1
genomeend 43

/* Organism #44 Fitness: 4 Error: 2 */
genomestart 44
trait 1 0.1 0 0 0 0 0 0 0 
trait 2 0.2 0 0 0 0 0 0 0 
trait 3 0.3 0 0 0 0 0 0 0 
node 1 2 1 3
node 2 3 1 1
node 3 1 1 1
node 4 3 0 2
node 13 1 0 0
gene 3 1 4 1.59632 0 1 1.59632 1
gene 1 2 4 4.16395 0 2 4.16395 1
gene 1 3 4 0.90273 0 3 0.90273 1
gene 1 3 13 1.11888 0 26 1.11888 1
gene 1 13 4 -5.74407 0 27 -5.74407 1
gene 3 1 13 1.12876 0 46 1.12876 1
gene 1 2 13 -2.48864 0 64 -2.48864 1
genomeend 44

/* Organism #45 Fitness: 8.99941 Error: 1.0001 */
genomestart 45
trait 1 0.1 0 0 0 0 0 0 0 
trait 2 0.2 0 0 0 0 0 0 0 
trait 3 0.3 0 0 0 0 0 0 0 
node 1 2 1 3
node 2 3 1 1
node 3 1 1 1
node 4 3 0 2
node 13 1 0 0
gene 3 1 4 1.94662 0 1 1.94662 1
gene 1 2 4 -0.00602015 0 2 -0.00602015 1
gene 1 3 4 -0.507884 0 3 -0.507884 1
gene 1 3 13 1.9441 0 26 1.9441 1
gene 1 13 4 -8 0 27 -8 1
gene 3 1 13 0.00845861 0 46 0.00845861 1
gene 1 2 13 -1.70129 0 64 -1.70129 1
genomeend 45

/* Species #9 : (Size 10) (AF 7.47449) (Age 19)  */


/* Organism #46 Fitness: 9 Error: 1 */
genomestart 46
trait 1 0 0 0 0 0 0.790236 0 0 
trait 2 0.2 0 0 0 0 0 0 0 
trait 3 0.3 0 0 0 0 0 0 0 
node 1 3 1 3
node 2 3 1 1
node 3 1 1 1
node 4 1 0 2
node 5 1 0 0
node 15 1 0 0
gene 1 1 4 -3.7167 0 1 -3.7167 1
gene 3 2 4 -0.188599 0 2 -0.188599 0
gene 1 3 4 -7.71106 0 3 -7.71106 1
gene 3 2 5 8 0 4 8 1
gene 3 5 4 8 0 5 8 1
gene 3 1 5 -4.17669 0 10 -4.17669 1
gene 1 3 5 2.75284 0 22 2.75284 0
gene 1 3 15 0.275123 0 31 0.275123 1
gene 1 15 5 1.04166 0 32 1.04166 1
gene 1 1 15 -0.0759205 0 91 -0.0759205 1
genomeend 46

/* Organism #47 Fitness: 8.99964 Error: 1.00006 */
genomestart 47
trait 1 0.05 0 0 0 0 0.395118 0 0 
trait 2 0.2 0 0 0 0 0 0 0 
trait 3 0.3 0 0 0 0 0 0 0 
node 1 3 1 3
node 2 3 1 1
node 3 1 1 1
node 4 1 0 2
node 5 1 0 0
node 15 1 0 0
gene 1 1 4 -2.72055 0 1 -2.72055 1
gene 3 2 4 -1.88778 0 2 -1.88778 0
gene 1 3 4 -8 0 3 -8 1
gene 3 2 5 5.56077 0 4 5.56077 1
gene 3 5 4 5.50444 0 5 5.50444 1
gene 3 1 5 -3.67004 0 10 -3.67004 1
gene 1 3 5 0.621768 0 22 0.621768 0
gene 1 3 15 1.18526 0 31 1.18526 0
gene 1 15 5 3.29338 0 32 3.29338 1
gene 1 1 15 2.05776 0 91 2.05776 1
genomeend 47

/* Organism #48 Fitness: 9 Error: 1 */
genomestart 48
trait 1 0.05 0 0 0 0 0.395118 0 0 
trait 2 0.2 0 0 0 0 0 0 0 
trait 3 0.3 0 0 0 0 0 0 0 
node 1 3 1 3
node 2 3 1 1
node 3 1 1 1
node 4 1 0 2
node 5 1 0 0
node 15 1 0 0
gene 1 1 4 -3.46989 0 1 -3.46989 1
gene 3 2 4 0.49463 0 2 0.49463 0
gene 1 3 4 -6.71287 0 3 -6.71287 1
gene 3 2 5 7.99824 0 4 7.99824 1
gene 3 5 4 7.20164 0 5 7.20164 1
gene 3 1 5 -4.90489 0 10 -4.90489 1
gene 1 3 5 2.54742 0 22 2.54742 0
gene 1 3 15 -0.322178 0 31 -0.322178 0
gene 1 15 5 1.11803 0 32 1.11803 1
gene 1 1 15 -0.0759205 0 91 -0.0759205 1
genomeend 48

/* Organism #49 Fitness: 4.07221 Error: 1.98203 */
genomestart 49
trait 1 0.025 0 0 0 0 0.592677 0 0 
trait 2 0.2 0 0 0 0 0 0 0 
trait 3 0.3 0 0 0 0 0 0 0 
node 1 3 1 3
node 2 3 1 1
node 3 1 1 1
node 4 1 0 2
node 5 1 0 0
node 15 1 0 0
gene 1 1 4 -1.43116 0 1 -1.43116 1
gene 3 2 4 -0.436397 0 2 -0.436397 0
gene 1 3 4 -5.76616 0 3 -5.76616 1
gene 3 2 5 8 0 4 8 1
gene 3 5 4 8 0 5 8 1
gene 3 1 5 -1.9743 0 10 -1.9743 1
gene 1 3 5 2.2094 0 22 2.2094 0
gene 1 3 15 2.27739 0 31 2.27739 0
gene 1 15 5 0.578949 0 32 0.578949 1
gene 1 1 15 -2.02164 0 91 -2.02164 1
genomeend 49

/* Organism #50 Fitness: 8.99981 Error: 1.00003 */
genomestart 50
trait 1 0.025 0 0 0 0 0.592677 0 0 
trait 2 0.2 0 0 0 0 0 0 0 
trait 3 0.3 0 0 0 0 0 0 0 
node 1 3 1 3
node 2 3 1 1
node 3 1 1 1
node 4 1 0 2
node 5 1 0 0
node 15 1 0 0
gene 1 1 4 -2.10185 0 1 -2.10185 1
gene 3 2 4 -0.188599 0 2 -0.188599 0
gene 1 3 4 -6.70112 0 3 -6.70112 1
gene 3 2 5 7.99824 0 4 7.99824 1
gene 3 5 4 5.49226 0 5 5.49226 1
gene 3 1 5 -4.16325 0 10 -4.16325 1
gene 1 3 5 4.55439 0 22 4.55439 0
gene 1 3 15 -0.540425 0 31 -0.540425 0
gene 1 15 5 1.96183 0 32 1.96183 1
gene 1 1 15 -1.39602 0 91 -1.39602 1
genomeend 50

/* Organism #51 Fitness: 4 Error: 2 */
genomestart 51
trait 1 0.05 0 0 0 0 0.395118 0 0 
trait 2 0.2 0 0 0 0 0 0 0 
trait 3 0.3 0 0 0 0 0 0 0 
node 1 3 1 3
node 2 3 1 1
node 3 1 1 1
node 4 1 0 2
node 5 1 0 0
node 15 1 0 0
gene 1 1 4 0.438708 0 1 0.438708 1
gene 3 2 4 2.29442 0 2 2.29442 0
gene 1 3 4 1.35689 0 3 1.35689 1
gene 3 2 5 -1.51202 0 4 -1.51202 1
gene 3 5 4 4.99392 0 5 4.99392 1
gene 3 1 5 -5.25033 0 10 -5.25033 1
gene 1 3 5 0.524464 0 22 0.524464 0
gene 1 3 15 1.26526 0 31 1.26526 0
gene 1 15 5 -0.787387 0 32 -0.787387 1
gene 1 1 15 2.41024 0 91 2.41024 1
genomeend 51

/* Organism #52 Fitness: 8.99592 Error: 1.00068 */
genomestart 52
trait 1 0.05 0 0 0 0 0.395118 0 0 
trait 2 0.2 0 0 0 0 0 0 0 
trait 3 0.3 0 0 0 0 0 0 0 
node 1 3 1 3
node 2 3 1 1
node 3 1 1 1
node 4 1 0 2
node 5 1 0 0
node 15 1 0 0
gene 1 1 4 -3.17074 0 1 -3.17074 1
gene 3 2 4 -1.87479 0 2 -1.87479 0
gene 1 3 4 -6.31026 0 3 -6.31026 1
gene 3 2 5 8 0 4 8 1
gene 3 5 4 8 0 5 8 1
gene 3 1 5 -4.87758 0 10 -4.87758 1
gene 1 3 5 2.37749 0 22 2.37749 1
gene 1 3 15 0.879832 0 31 0.879832 0
gene 1 15 5 -0.484513 0 32 -0.484513 1
gene 1 1 15 -1.47196 0 91 -1.47196 1
genomeend 52

/* Organism #53 Fitness: 8.99976 Error: 1.00004 */
genomestart 53
trait 1 0.025 0 0 0 0 0.592677 0 0 
trait 2 0.2 0 0 0 0 0 0 0 
trait 3 0.3 0 0 0 0 0 0 0 
node 1 3 1 3
node 2 3 1 1
node 3 1 1 1
node 4 1 0 2
node 5 1 0 0
node 15 1 0 0
gene 1 1 4 -2.52089 0 1 -2.52089 1
gene 3 2 4 -1.00659 0 2 -1.00659 1
gene 1 3 4 -6.54698 0 3 -6.54698 1
gene 3 2 5 8 0 4 8 1
gene 3 5 4 8 0 5 8 1
gene 3 1 5 -5.26785 0 10 -5.26785 1
gene 1 3 5 3.99133 0 22 3.99133 0
gene 1 3 15 -0.542594 0 31 -0.542594 1
gene 1 15 5 1.28049 0 32 1.28049 1
gene 1 1 15 -0.0759205 0 91 -0.0759205 1
genomeend 53

/* Organism #54 Fitness: 8.67933 Error: 1.05393 */
genomestart 54
trait 1 0.025 0 0 0 0 0.592677 0 0 
trait 2 0.2 0 0 0 0 0 0 0 
trait 3 0.3 0 0 0 0 0 0 0 
node 1 3 1 3
node 2 3 1 1
node 3 1 1 1
node 4 1 0 2
node 5 1 0 0
node 15 3 0 0
gene 1 1 4 -4.75879 0 1 -4.75879 1
gene 3 2 4 -0.0964274 0 2 -0.0964274 0
gene 1 3 4 -7.88712 0 3 -7.88712 1
gene 3 2 5 7.71743 0 4 7.71743 1
gene 3 5 4 5.34053 0 5 5.34053 1
gene 2 1 5 -3.06051 0 10 -3.06051 1
gene 1 3 5 4.0583 0 22 4.0583 0
gene 1 3 15 -1.97171 0 31 -1.97171 1
gene 1 15 5 0.809482 0 32 0.809482 1
gene 1 1 15 -0.400267 0 91 -0.400267 1
genomeend 54

/* Organism #55 Fitness: 3.99825 Error: 2.00044 */
genomestart 55
trait 1 0.05 0 0 0 0 0.395118 0 0 
trait 2 0.2 0 0 0 0 0 0 0 
trait 3 0.3 0 0 0 0 0 0 0 
node 1 3 1 3
node 2 3 1 1
node 3 1 1 1
node 4 1 0 2
node 5 1 0 0
node 15 1 0 0
gene 1 1 4 -1.56053 0 1 -1.56053 1
gene 3 2 4 0.831813 0 2 0.831813 0
gene 1 3 4 -4.26632 0 3 -4.26632 1
gene 3 2 5 8 0 4 8 1
gene 3 5 4 8 0 5 8 1
gene 3 1 5 -6.20836 0 10 -6.20836 1
gene 1 3 5 1.04641 0 22 1.04641 0
gene 1 3 15 -0.968552 0 31 -0.968552 0
gene 1 15 5 0.81406 0 32 0.81406 1
gene 1 1 15 -0.71707 0 91 -0.71707 1
genomeend 55

/* Species #10 : (Size 8) (AF 5.43042) (Age 17)  */


/* Organism #56 Fitness: 8.87365 Error: 1.02113 */
genomestart 56
trait 1 0.1 0 0 0 0 0.334681 0 0.439635 
trait 2 0.2 0 0 0 0 0 0 0 
trait 3 0.643454 0 0 0 0 0.588794 0 0 
node 1 3 1 3
node 2 3 1 1
node 3 1 1 1
node 4 1 0 2
node 5 1 0 0
node 21 1 0 0
gene 3 1 4 0.950674 0 1 0.950674 1
gene 3 2 4 -5.75038 0 2 -5.75038 0
gene 1 3 4 2.49536 0 3 2.49536 1
gene 3 2 5 6.13211 0 4 6.13211 1
gene 3 5 4 0.661682 0 5 0.661682 1
gene 3 5 21 1.00359 0 51 1.00359 1
gene 3 21 4 -2.23856 0 52 -2.23856 1
gene 2 2 21 -2.36481 0 70 -2.36481 1
gene 2 3 5 -0.814061 0 190 -0.814061 1
genomeend 56

/* Organism #57 Fitness: 4 Error: 2 */
genomestart 57
trait 1 0.1 0 0 0 0 0.334681 0 0.439635 
trait 2 0.2 0 0 0 0 0 0 0 
trait 3 0.643454 0 0 0 0 0.588794 0 0 
node 1 3 1 3
node 2 3 1 1
node 3 1 1 1
node 4 1 0 2
node 5 1 0 0
node 21 1 0 0
gene 3 1 4 -1.99034 0 1 -1.99034 1
gene 3 2 4 -4.05882 0 2 -4.05882 0
gene 1 3 4 1.15602 0 3 1.15602 1
gene 3 2 5 4.71524 0 4 4.71524 1
gene 3 5 4 0.977604 0 5 0.977604 0
gene 3 5 21 4.81627 0 51 4.81627 1
gene 3 21 4 -3.84443 0 52 -3.84443 1
gene 2 2 21 -3.10595 0 70 -3.10595 1
gene 2 3 5 -0.814061 0 190 -0.814061 1
genomeend 57

/* Organism #58 Fitness: 6.27307 Error: 1.49539 */
genomestart 58
trait 1 0.1 0 0 0 0 0.334681 0 0.439635 
trait 2 0.2 0 0 0 0 0 0 0 
trait 3 0.643454 0 0 0 0 0.588794 0 0 
node 1 3 1 3
node 2 3 1 1
node 3 1 1 1
node 4 1 0 2
node 5 1 0 0
node 21 1 0 0
gene 3 1 4 -1.44843 0 1 -1.44843 1
gene 3 2 4 -6.0979 0 2 -6.0979 0
gene 1 3 4 4.57126 0 3 4.57126 1
gene 3 2 5 6.96164 0 4 6.96164 1
gene 3 5 4 -0.179118 0 5 -0.179118 0
gene 3 5 21 2.37592 0 51 2.37592 1
gene 3 21 4 -4.71266 0 52 -4.71266 1
gene 2 2 21 -2.00707 0 70 -2.00707 1
gene 2 3 5 -1.10042 0 190 -1.10042 1
gene 1 1 21 -0.231016 0 225 -0.231016 1
genomeend 58

/* Organism #59 Fitness: 1.09069 Error: 2.95564 */
genomestart 59
trait 1 0.1 0 0 0 0 0.334681 0 0.439635 
trait 2 0.2 0 0 0 0 0 0 0 
trait 3 0.643454 0 0 0 0 0.588794 0 0 
node 1 3 1 3
node 2 3 1 1
node 3 1 1 1
node 4 1 0 2
node 5 1 0 0
node 21 1 0 0
gene 3 1 4 -0.748785 0 1 -0.748785 1
gene 3 2 4 -4.59342 0 2 -4.59342 0
gene 1 3 4 1.75252 0 3 1.75252 1
gene 3 2 5 8 0 4 8 1
gene 3 5 4 0.652175 0 5 0.652175 0
gene 3 5 21 1.21875 0 51 1.21875 1
gene 3 21 4 -1.89194 0 52 -1.89194 1
gene 2 2 21 -4.28808 0 70 -4.28808 1
gene 2 3 5 0.568253 0 190 0.568253 1
genomeend 59

/* Organism #60 Fitness: 6.27307 Error: 1.49539 */
genomestart 60
trait 1 0.1 0 0 0 0 0.334681 0 0.439635 
trait 2 0.2 0 0 0 0 0 0 0 
trait 3 0.643454 0 0 0 0 0.588794 0 0 
node 1 3 1 3
node 2 3 1 1
node 3 1 1 1
node 4 1 0 2
node 5 1 0 0
node 21 1 0 0
gene 3 1 4 -1.44843 0 1 -1.44843 1
gene 3 2 4 -6.0979 0 2 -6.0979 0
gene 1 3 4 4.57126 0 3 4.57126 1
gene 3 2 5 6.96164 0 4 6.96164 1
gene 3 5 4 -0.179118 0 5 -0.179118 0
gene 3 5 21 2.37592 0 51 2.37592 1
gene 3 21 4 -4.71266 0 52 -4.71266 1
gene 2 2 21 -2.00707 0 70 -2.00707 1
gene 2 3 5 -1.10042 0 190 -1.10042 1
gene 1 1 21 -0.231016 0 225 0 1
genomeend 60

/* Organism #61 Fitness: 4.00007 Error: 1.99998 */
genomestart 61
trait 1 0.1 0 0 0 0 0.334681 0 0.439635 
trait 2 0.2 0 0 0 0 0 0 0 
trait 3 0.643454 0 0 0 0 0.588794 0 0 
node 1 3 1 3
node 2 3 1 1
node 3 1 1 1
node 4 1 0 2
node 5 1 0 0
node 21 1 0 0
gene 3 1 4 -0.514387 0 1 -0.514387 1
gene 3 2 4 -3.62657 0 2 -3.62657 0
gene 1 3 4 6.98576 0 3 6.98576 1
gene 3 2 5 8 0 4 8 1
gene 3 5 4 1.87701 0 5 1.87701 0
gene 3 5 21 1.04042 0 51 1.04042 1
gene 3 21 4 -2.60076 0 52 -2.60076 1
gene 2 2 21 -0.911154 0 70 -0.911154 1
gene 2 3 5 -0.664345 0 190 -0.664345 1
genomeend 61

/* Organism #62 Fitness: 8.82259 Error: 1.02972 */
genomestart 62
trait 1 0.1 0 0 0 0 0.334681 0 0.439635 
trait 2 0.2 0 0 0 0 0 0 0 
trait 3 0.643454 0 0 0 0 0.588794 0 0 
node 1 3 1 3
node 2 3 1 1
node 3 1 1 1
node 4 1 0 2
node 5 1 0 0
node 21 1 0 0
gene 3 1 4 -1.4435 0 1 -1.4435 1
gene 3 2 4 -5.80045 0 2 -5.80045 0
gene 1 3 4 4.79982 0 3 4.79982 1
gene 3 2 5 4.68713 0 4 4.68713 1
gene 3 5 4 -0.493903 0 5 -0.493903 0
gene 3 5 21 1.78656 0 51 1.78656 1
gene 3 21 4 -5.29415 0 52 -5.29415 1
gene 2 2 21 -0.103261 0 70 -0.103261 1
gene 2 3 5 -1.93672 0 190 -1.93672 1
genomeend 62

/* Organism #63 Fitness: 4.11021 Error: 1.97264 */
genomestart 63
trait 1 0.1 0 0 0 0 0.334681 0 0.439635 
trait 2 0.2 0 0 0 0 0 0 0 
trait 3 0.643454 0 0 0 0 0.588794 0 0 
node 1 3 1 3
node 2 3 1 1
node 3 1 1 1
node 4 1 0 2
node 5 1 0 0
node 21 1 0 0
gene 3 1 4 -0.723813 0 1 -0.723813 1
gene 3 2 4 -7.7362 0 2 -7.7362 0
gene 1 3 4 3.41516 0 3 3.41516 1
gene 3 2 5 -1.2739 0 4 -1.2739 1
gene 3 5 4 -0.451279 0 5 -0.451279 1
gene 3 5 21 2.5968 0 51 2.5968 1
gene 3 21 4 -1.17207 0 52 -1.17207 1
gene 2 2 21 -2.20048 0 70 -2.20048 1
gene 2 3 5 -3.05746 0 190 -3.05746 1
genomeend 63

/* Species #11 : (Size 7) (AF 5.05069) (Age 17)  */


/* Organism #64 Fitness: 8.99999 Error: 1 */
genomestart 64
trait 1 0.0996094 0 0.107775 0.0859425 0 0.000724116 0 0 
trait 2 0.2 0 0 0 0 0.209975 0 0.271937 
trait 3 0.712144 0 0 0 0 0.715723 0.0306018 0 
node 1 3 1 3
node 2 3 1 1
node 3 1 1 1
node 4 1 0 2
node 5 1 0 0
gene 2 1 4 -2.95334 0 1 -2.95334 1
gene 3 2 4 -2.73973 0 2 -2.73973 0
gene 1 3 4 -7.57384 0 3 -7.57384 1
gene 3 2 5 2.37485 0 4 2.37485 1
gene 3 5 4 6.70899 0 5 6.70899 1
gene 1 3 5 0.840707 0 22 0.840707 1
gene 1 1 5 -0.656908 0 53 -0.656908 1
genomeend 64

/* Organism #65 Fitness: 4.00246 Error: 1.99939 */
genomestart 65
trait 1 0.0996094 0 0.107775 0.0859425 0 0.000724116 0 0 
trait 2 0.2 0 0 0 0 0.209975 0 0.271937 
trait 3 0.712144 0 0 0 0 0.715723 0.0306018 0 
node 1 3 1 3
node 2 3 1 1
node 3 1 1 1
node 4 1 0 2
node 5 1 0 0
gene 2 1 4 -1.71772 0 1 -1.71772 1
gene 3 2 4 -0.392057 0 2 -0.392057 1
gene 1 3 4 3.50843 0 3 3.50843 1
gene 3 2 5 0.233698 0 4 0.233698 1
gene 3 5 4 4.67295 0 5 4.67295 1
gene 1 3 5 -0.585092 0 22 -0.585092 1
gene 1 1 5 -0.656908 0 53 -0.656908 1
genomeend 65

/* Organism #66 Fitness: 8.99999 Error: 1 */
genomestart 66
trait 1 0.0996094 0 0.107775 0.0859425 0 0.000724116 0 0 
trait 2 0.2 0 0 0 0 0.209975 0 0.271937 
trait 3 0.712144 0 0 0 0 0.715723 0.0306018 0 
node 1 3 1 3
node 2 3 1 1
node 3 1 1 1
node 4 1 0 2
node 5 1 0 0
gene 2 1 4 -2.95334 0 1 -2.95334 1
gene 3 2 4 -2.73973 0 2 -2.73973 0
gene 1 3 4 1.75387 0 3 1.75387 1
gene 3 2 5 2.37485 0 4 2.37485 1
gene 3 5 4 6.70899 0 5 6.70899 1
gene 1 3 5 0.840707 0 22 0.840707 1
gene 1 1 5 -0.656908 0 53 -0.656908 1
genomeend 66

/* Organism #67 Fitness: 4 Error: 2 */
genomestart 67
trait 1 0.0996094 0 0.107775 0.0859425 0 0.000724116 0 0 
trait 2 0.2 0 0 0 0 0.209975 0 0.271937 
trait 3 0.680651 0 0 0 0 0.715723 0.0267765 0 
node 1 3 1 3
node 2 3 1 1
node 3 1 1 1
node 4 1 0 2
node 5 1 0 0
gene 2 1 4 -2.22482 0 1 -2.22482 1
gene 3 2 4 1.41311 0 2 1.41311 0
gene 1 3 4 -0.296429 0 3 -0.296429 1
gene 3 2 5 1.09619 0 4 1.09619 1
gene 3 5 4 -1.32657 0 5 -1.32657 1
gene 1 3 5 3.12434 0 22 3.12434 1
gene 1 1 5 1.66209 0 53 1.66209 1
genomeend 67

/* Organism #68 Fitness: 1.00039 Error: 2.99981 */
genomestart 68
trait 1 0.0996094 0 0.107775 0.0859425 0 0.000724116 0 0 
trait 2 0 0 0 0 0 0.133166 0 0.271937 
trait 3 0.712144 0 0 0 0 0.715723 0.0306018 0 
node 1 3 1 3
node 2 3 1 1
node 3 1 1 1
node 4 1 0 2
node 5 1 0 0
gene 2 1 4 1.73682 0 1 1.73682 1
gene 3 2 4 -2.21944 0 2 -2.21944 0
gene 1 3 4 -6.24968 0 3 -6.24968 1
gene 1 2 5 4.80567 0 4 4.80567 1
gene 3 5 4 7.41255 0 5 7.41255 1
gene 1 3 5 1.0554 0 22 1.0554 1
gene 1 1 5 -1.91067 0 53 -1.91067 1
genomeend 68

/* Organism #69 Fitness: 5.35473 Error: 1.68597 */
genomestart 69
trait 1 0.0996094 0 0.107775 0.0859425 0 0.000724116 0 0 
trait 2 0.2 0 0 0 0 0.209975 0 0.271937 
trait 3 0.680651 0 0 0 0 0.715723 0.0267765 0 
node 1 3 1 3
node 2 3 1 1
node 3 1 1 1
node 4 1 0 2
node 5 1 0 0
gene 2 1 4 -3.02506 0 1 -3.02506 1
gene 3 2 4 -3.78619 0 2 -3.78619 0
gene 1 3 4 2.86548 0 3 2.86548 1
gene 3 2 5 2.96601 0 4 2.96601 1
gene 3 5 4 7.30638 0 5 7.30638 1
gene 1 3 5 -0.461972 0 22 -0.461972 1
gene 1 1 5 -1.36484 0 53 -1.36484 1
genomeend 69

/* Organism #70 Fitness: 2.99726 Error: 2.26874 */
genomestart 70
trait 1 0.0996094 0 0.107775 0.0859425 0 0.000724116 0 0 
trait 2 0.2 0 0 0 0 0.209975 0 0.271937 
trait 3 0.712144 0 0 0 0 0.715723 0.0306018 0 
node 1 3 1 3
node 2 3 1 1
node 3 1 1 1
node 4 1 0 2
node 5 1 0 0
gene 2 1 4 -5.13859 0 1 -5.13859 1
gene 3 2 4 -2.73973 0 2 -2.73973 0
gene 1 3 4 0.644467 0 3 0.644467 1
gene 3 2 5 2.32312 0 4 2.32312 1
gene 3 5 4 4.29205 0 5 4.29205 1
gene 1 3 5 1.52968 0 22 1.52968 1
gene 1 1 5 -1.95346 0 53 -1.95346 1
genomeend 70

/* Species #12 : (Size 9) (AF 8.4357) (Age 17)  */


/* Organism #71 Fitness: 9 Error: 1 */
genomestart 71
trait 1 0.1 0 0 0 0 0 0 0 
trait 2 0.2 0 0 0 0 0 0 0 
trait 3 0.712144 0 0 0 0 0.706553 0 0 
node 1 3 1 3
node 2 1 1 1
node 3 1 1 1
node 4 1 0 2
node 5 1 0 0
node 25 1 0 0
node 60 1 0 0
gene 1 1 4 3.2004 0 1 3.2004 1
gene 3 2 4 1.66636 0 2 1.66636 0
gene 1 3 4 -7.30613 0 3 -7.30613 1
gene 3 2 5 -7.66418 0 4 -7.66418 1
gene 3 5 4 -8 0 5 -8 1
gene 1 3 5 1.2132 0 22 1.2132 1
gene 1 3 25 4.44569 0 60 4.44569 0
gene 1 25 5 4.05962 0 61 4.05962 1
gene 1 3 60 5.47613 0 178 5.47613 1
gene 1 60 25 0.581787 0 179 0.581787 1
genomeend 71

/* Organism #72 Fitness: 3.98579 Error: 2.00356 */
genomestart 72
trait 1 0.1 0 0 0 0 0 0 0 
trait 2 0.2 0 0 0 0 0 0 0 
trait 3 0.712144 0 0 0 0 0.706553 0 0 
node 1 3 1 3
node 2 1 1 1
node 3 1 1 1
node 4 1 0 2
node 5 1 0 0
node 25 1 0 0
node 60 1 0 0
gene 1 1 4 4.80822 0 1 4.80822 1
gene 3 2 4 0.431307 0 2 0.431307 0
gene 1 3 4 -6.64827 0 3 -6.64827 1
gene 3 2 5 1.52247 0 4 1.52247 1
gene 3 5 4 2.08525 0 5 2.08525 1
gene 1 3 5 1.2132 0 22 1.2132 1
gene 1 3 25 1.59661 0 60 1.59661 0
gene 1 25 5 5.85514 0 61 5.85514 1
gene 1 3 60 2.32759 0 178 2.32759 1
gene 1 60 25 -0.949578 0 179 -0.949578 1
genomeend 72

/* Organism #73 Fitness: 8.99645 Error: 1.00059 */
genomestart 73
trait 1 0.1 0 0 0 0 0 0 0 
trait 2 0.2 0 0 0 0 0 0 0 
trait 3 0.712144 0 0 0 0 0.706553 0 0 
node 1 3 1 3
node 2 3 1 1
node 3 1 1 1
node 4 1 0 2
node 5 1 0 0
node 25 1 0 0
node 60 1 0 0
gene 1 1 4 1.50938 0 1 1.50938 1
gene 3 2 4 -1.49431 0 2 -1.49431 0
gene 1 3 4 -1.98166 0 3 -1.98166 1
gene 3 2 5 -5.56433 0 4 -5.56433 1
gene 3 5 4 -6.33235 0 5 -6.33235 1
gene 1 3 5 -3.83882 0 22 -3.83882 1
gene 1 3 25 3.17429 0 60 3.17429 0
gene 1 25 5 0.843152 0 61 0.843152 1
gene 1 3 60 0.552524 0 178 0.552524 1
gene 1 60 25 4.25561 0 179 4.25561 1
genomeend 73

/* Organism #74 Fitness: 8.99996 Error: 1.00001 */
genomestart 74
trait 1 0.1 0 0 0 0 0 0 0 
trait 2 0.2 0 0 0 0 0 0 0 
trait 3 0.712144 0 0 0 0 0.706553 0 0 
node 1 3 1 3
node 2 3 1 1
node 3 1 1 1
node 4 1 0 2
node 5 1 0 0
node 25 1 0 0
node 60 1 0 0
gene 1 1 4 2.97687 0 1 2.97687 1
gene 3 2 4 0.382887 0 2 0.382887 0
gene 1 3 4 -4.73947 0 3 -4.73947 1
gene 3 2 5 -7.87117 0 4 -7.87117 1
gene 3 5 4 -6.33235 0 5 -6.33235 1
gene 1 3 5 -3.72621 0 22 -3.72621 1
gene 1 3 25 4.53947 0 60 4.53947 0
gene 1 25 5 2.56872 0 61 2.56872 1
gene 1 3 60 0.535267 0 178 0.535267 1
gene 1 60 25 0.581787 0 179 0.581787 1
gene 3 1 25 -0.0722958 0 226 -0.0722958 1
genomeend 74

/* Organism #75 Fitness: 8.99209 Error: 1.00132 */
genomestart 75
trait 1 0.1 0 0 0 0 0 0 0 
trait 2 0.2 0 0 0 0 0 0 0 
trait 3 0.712144 0 0 0 0 0.706553 0 0 
node 1 2 1 3
node 2 1 1 1
node 3 1 1 1
node 4 1 0 2
node 5 1 0 0
node 25 1 0 0
node 60 1 0 0
gene 1 1 4 5.25491 0 1 5.25491 1
gene 3 2 4 3.69046 0 2 3.69046 0
gene 1 3 4 -8 0 3 -8 1
gene 3 2 5 -6.57976 0 4 -6.57976 1
gene 3 5 4 -6.60137 0 5 -6.60137 1
gene 1 3 5 0.0777703 0 22 0.0777703 1
gene 1 3 25 2.31972 0 60 2.31972 0
gene 1 25 5 6.0482 0 61 6.0482 1
gene 1 3 60 7.90209 0 178 7.90209 1
gene 1 60 25 0.581787 0 179 0.581787 1
genomeend 75

/* Organism #76 Fitness: 8.99965 Error: 1.00006 */
genomestart 76
trait 1 0.1 0 0 0 0 0 0 0 
trait 2 0.2 0 0 0 0 0 0 0 
trait 3 0.712144 0 0 0 0 0.706553 0 0 
node 1 3 1 3
node 2 3 1 1
node 3 1 1 1
node 4 1 0 2
node 5 1 0 0
node 25 1 0 0
node 60 1 0 0
gene 1 1 4 1.09438 0 1 1.09438 1
gene 3 2 4 1.61878 0 2 1.61878 1
gene 1 3 4 -4.70099 0 3 -4.70099 1
gene 3 2 5 -8 0 4 -8 1
gene 3 5 4 -4.32533 0 5 -4.32533 1
gene 1 3 5 -3.08325 0 22 -3.08325 1
gene 1 3 25 5.30632 0 60 5.30632 0
gene 1 25 5 3.17643 0 61 3.17643 1
gene 1 3 60 2.67774 0 178 2.67774 1
gene 1 60 25 1.91044 0 179 1.91044 1
genomeend 76

/* Organism #77 Fitness: 8.99999 Error: 1 */
genomestart 77
trait 1 0.1 0 0 0 0 0 0 0 
trait 2 0.2 0 0 0 0 0 0 0 
trait 3 0.712144 0 0 0 0 0.706553 0 0 
node 1 3 1 3
node 2 1 1 1
node 3 1 1 1
node 4 1 0 2
node 5 1 0 0
node 25 1 0 0
node 60 1 0 0
gene 1 1 4 3.59017 0 1 3.59017 1
gene 3 2 4 1.66636 0 2 1.66636 0
gene 1 3 4 -6.41643 0 3 -6.41643 1
gene 3 2 5 -8 0 4 -8 1
gene 3 5 4 -8 0 5 -8 1
gene 1 3 5 3.22597 0 22 3.22597 1
gene 1 3 25 5.80965 0 60 5.80965 0
gene 1 25 5 2.7652 0 61 2.7652 1
gene 1 3 60 -1.21224 0 178 -1.21224 1
gene 1 60 25 2.62206 0 179 2.62206 1
genomeend 77

/* Organism #78 Fitness: 8.94753 Error: 1.00876 */
genomestart 78
trait 1 0.1 0 0 0 0 0 0 0 
trait 2 0.2 0 0 0 0 0 0 0 
trait 3 0.712144 0 0 0 0 0.588455 0.427622 0 
node 1 3 1 3
node 2 3 1 1
node 3 1 1 1
node 4 1 0 2
node 5 1 0 0
node 25 1 0 0
node 60 1 0 0
gene 1 1 4 0.960329 0 1 0.960329 1
gene 3 2 4 -0.704644 0 2 -0.704644 0
gene 1 3 4 -6.92112 0 3 -6.92112 1
gene 3 2 5 -8 0 4 -8 1
gene 3 5 4 -6.78407 0 5 -6.78407 1
gene 1 3 5 -5.48319 0 22 -5.48319 1
gene 1 3 25 3.71567 0 60 3.71567 0
gene 1 25 5 1.82896 0 61 1.82896 1
gene 1 3 60 2.19171 0 178 2.19171 1
gene 1 60 25 2.7888 0 179 2.7888 1
genomeend 78

/* Organism #79 Fitness: 8.9998 Error: 1.00003 */
genomestart 79
trait 1 0.1 0 0 0 0 0 0 0 
trait 2 0.2 0 0 0 0 0 0 0 
trait 3 0.712144 0 0 0 0 0.706553 0 0 
node 1 3 1 3
node 2 1 1 1
node 3 1 1 1
node 4 1 0 2
node 5 1 0 0
node 25 1 0 0
node 60 1 0 0
gene 1 1 4 2.64556 0 1 2.64556 1
gene 3 2 4 2.23552 0 2 2.23552 0
gene 1 3 4 -5.33208 0 3 -5.33208 1
gene 3 2 5 -5.29068 0 4 -5.29068 1
gene 3 5 4 -6.44097 0 5 -6.44097 1
gene 1 3 5 3.23018 0 22 3.23018 1
gene 1 3 25 3.95297 0 60 3.95297 0
gene 1 25 5 5.95879 0 61 5.95879 1
gene 1 3 60 6.40773 0 178 6.40773 1
gene 1 60 25 0.581787 0 179 0.581787 1
genomeend 79

/* Species #13 : (Size 7) (AF 6.28271) (Age 15)  */


/* Organism #80 Fitness: 9 Error: 1 */
genomestart 80
trait 1 0.1 0 0 0 0 0 0 0 
trait 2 0.2 0 0 0 0 0 0 0 
trait 3 0.471727 0 0 0 0 0.294397 0 0 
node 1 3 1 3
node 2 3 1 1
node 3 1 1 1
node 4 1 0 2
node 5 1 0 0
node 29 1 0 0
gene 3 1 4 4.24673 0 1 4.24673 1
gene 3 2 4 -0.330788 0 2 -0.330788 0
gene 1 3 4 0.530318 0 3 0.530318 0
gene 3 2 5 5.58773 0 4 5.58773 1
gene 3 5 4 -8 0 5 -8 1
gene 3 1 5 -6.38986 0 10 -6.38986 1
gene 2 3 5 3.79559 0 50 3.79559 1
gene 1 3 29 1.41628 0 73 1.41628 1
gene 1 29 4 -0.802366 0 74 -0.802366 1
gene 1 2 29 2.39991 0 147 2.39991 1
genomeend 80

/* Organism #81 Fitness: 10.3146 Error: 0.78837 */
/* ##------$ WINNER 81 SPECIES #13 $------## */
genomestart 81
trait 1 0.1 0 0 0 0 0 0 0 
trait 2 0.2 0 0 0 0 0 0 0 
trait 3 0.471727 0 0 0 0 0.294397 0 0 
node 1 3 1 3
node 2 3 1 1
node 3 1 1 1
node 4 1 0 2
node 5 1 0 0
node 29 1 0 0
gene 3 1 4 -1.44696 0 1 -1.44696 1
gene 3 2 4 -0.330788 0 2 -0.330788 0
gene 1 3 4 -1.95597 0 3 -1.95597 0
gene 3 2 5 5.46055 0 4 5.46055 1
gene 3 5 4 -8 0 5 -8 1
gene 3 1 5 -6.31744 0 10 -6.31744 1
gene 2 3 5 3.79559 0 50 3.79559 1
gene 1 3 29 2.30088 0 73 2.30088 1
gene 1 29 4 1.61186 0 74 1.61186 1
gene 1 2 29 2.59877 0 147 2.59877 1
genomeend 81

/* Organism #82 Fitness: 1.00001 Error: 3 */
genomestart 82
trait 1 0.1 0 0 0 0 0 0 0 
trait 2 0.2 0 0 0 0 0 0 0 
trait 3 0.471727 0 0 0 0 0.294397 0 0 
node 1 3 1 3
node 2 3 1 1
node 3 1 1 1
node 4 1 0 2
node 5 1 0 0
node 29 1 0 0
gene 3 1 4 5.45124 0 1 5.45124 1
gene 3 2 4 -5.84318 0 2 -5.84318 1
gene 1 3 4 -0.966933 0 3 -0.966933 0
gene 3 2 5 4.73842 0 4 4.73842 1
gene 3 5 4 -6.60034 0 5 -6.60034 1
gene 3 1 5 -3.75118 0 10 -3.75118 1
gene 2 3 5 5.2162 0 50 5.2162 1
gene 1 3 29 2.53838 0 73 2.53838 1
gene 1 29 4 -1.38822 0 74 -1.38822 1
gene 1 2 29 0.000866143 0 147 0.000866143 1
genomeend 82

/* Organism #83 Fitness: 4 Error: 2 */
genomestart 83
trait 1 0.1 0 0 0 0 0 0 0 
trait 2 0.2 0 0 0 0 0 0 0 
trait 3 0.471727 0 0 0 0 0.294397 0 0 
node 1 3 1 3
node 2 3 1 1
node 3 1 1 1
node 4 1 0 2
node 5 1 0 0
node 29 1 0 0
gene 3 1 4 4.11285 0 1 4.11285 1
gene 3 2 4 -1.05274 0 2 -1.05274 0
gene 1 3 4 0.226625 0 3 0.226625 1
gene 3 2 5 6.98351 0 4 6.98351 1
gene 3 5 4 -8 0 5 -8 1
gene 3 1 5 -4.91286 0 10 -4.91286 1
gene 2 3 5 3.22853 0 50 3.22853 1
gene 1 3 29 2.24265 0 73 2.24265 1
gene 1 29 4 0.162694 0 74 0.162694 1
gene 1 2 29 1.15056 0 147 1.15056 1
genomeend 83

/* Organism #84 Fitness: 9 Error: 1 */
genomestart 84
trait 1 0.1 0 0 0 0 0 0 0 
trait 2 0.2 0 0 0 0 0 0 0 
trait 3 0.471727 0 0 0 0 0.294397 0 0 
node 1 3 1 3
node 2 3 1 1
node 3 1 1 1
node 4 1 0 2
node 5 2 0 0
node 29 1 0 0
gene 3 1 4 2.61745 0 1 2.61745 1
gene 3 2 4 -0.330788 0 2 -0.330788 0
gene 1 3 4 0.530318 0 3 0.530318 0
gene 3 2 5 3.85577 0 4 3.85577 1
gene 3 5 4 -8 0 5 -8 1
gene 3 1 5 -6.38986 0 10 -6.38986 1
gene 2 3 5 3.79559 0 50 3.79559 1
gene 1 3 29 1.41628 0 73 1.41628 1
gene 1 29 4 0.484046 0 74 0.484046 1
gene 1 2 29 2.39991 0 147 2.39991 1
genomeend 84

/* Organism #85 Fitness: 4.00014 Error: 1.99997 */
genomestart 85
trait 1 0.1 0 0 0 0 0 0 0 
trait 2 0.2 0 0 0 0 0 0 0 
trait 3 0.471727 0 0 0 0 0.294397 0 0 
node 1 3 1 3
node 2 3 1 1
node 3 1 1 1
node 4 1 0 2
node 5 2 0 0
node 29 1 0 0
gene 3 1 4 3.80771 0 1 3.80771 1
gene 3 2 4 -5.98766 0 2 -5.98766 0
gene 1 3 4 3.59679 0 3 3.59679 0
gene 3 2 5 2.45039 0 4 2.45039 1
gene 3 5 4 -7.58865 0 5 -7.58865 1
gene 3 1 5 -3.81082 0 10 -3.81082 1
gene 2 3 5 5.54355 0 50 5.54355 1
gene 1 3 29 0.0933385 0 73 0.0933385 1
gene 1 29 4 2.75825 0 74 2.75825 1
gene 1 2 29 -4.03461 0 147 -4.03461 1
genomeend 85

/* Organism #86 Fitness: 6.66427 Error: 1.41847 */
genomestart 86
trait 1 0.1 0 0 0 0 0 0 0 
trait 2 0.2 0 0 0 0 0 0 0 
trait 3 0.471727 0 0 0 0 0.294397 0 0 
node 1 3 1 3
node 2 3 1 1
node 3 1 1 1
node 4 1 0 2
node 5 2 0 0
node 29 1 0 0
gene 3 1 4 0.526557 0 1 0.526557 1
gene 3 2 4 2.00674 0 2 2.00674 0
gene 1 3 4 2.44799 0 3 2.44799 0
gene 3 2 5 1.59947 0 4 1.59947 1
gene 3 5 4 -7.37193 0 5 -7.37193 1
gene 3 1 5 -4.81113 0 10 -4.81113 1
gene 2 3 5 3.72739 0 50 3.72739 1
gene 1 3 29 0.209302 0 73 0.209302 1
gene 1 29 4 -0.895583 0 74 -0.895583 1
gene 1 2 29 -0.354013 0 147 -0.354013 1
genomeend 86

/* Species #14 : (Size 8) (AF 7.37187) (Age 15)  */


/* Organism #87 Fitness: 9 Error: 1 */
genomestart 87
trait 1 0.1 0 0 0 0 0 0 0 
trait 2 0.2 0 0 0 0 0 0 0 
trait 3 0.591936 0 0 0 0 0.500475 0 0 
node 1 3 1 3
node 2 3 1 1
node 3 1 1 1
node 4 1 0 2
node 5 1 0 0
node 61 1 0 0
gene 3 1 4 -3.86203 0 1 -3.86203 1
gene 3 2 4 7.42867 0 2 7.42867 1
gene 1 3 4 -8 0 3 -8 1
gene 2 2 5 -0.814064 0 4 -0.814064 0
gene 3 5 4 1.76225 0 5 1.76225 1
gene 3 1 5 -1.62593 0 10 -1.62593 1
gene 2 2 61 3.708 0 180 3.708 1
gene 2 61 5 -0.613169 0 181 -0.613169 1
genomeend 87

/* Organism #88 Fitness: 9 Error: 1 */
genomestart 88
trait 1 0.1 0 0 0 0 0 0 0 
trait 2 0.2 0 0 0 0 0 0 0 
trait 3 0.591936 0 0 0 0 0.500475 0 0 
node 1 2 1 3
node 2 3 1 1
node 3 1 1 1
node 4 1 0 2
node 5 1 0 0
node 61 1 0 0
gene 3 1 4 -4.16318 0 1 -4.16318 1
gene 3 2 4 7.42867 0 2 7.42867 1
gene 1 3 4 -8 0 3 -8 1
gene 2 2 5 -0.814064 0 4 -0.814064 0
gene 3 5 4 1.76225 0 5 1.76225 1
gene 3 1 5 -1.62593 0 10 -1.62593 1
gene 2 2 61 3.708 0 180 3.708 1
gene 2 61 5 -0.613169 0 181 -0.613169 1
genomeend 88

/* Organism #89 Fitness: 8.97082 Error: 1.00487 */
genomestart 89
trait 1 0.1 0 0 0 0 0 0 0 
trait 2 0.2 0 0 0 0 0 0 0 
trait 3 0.591936 0 0 0 0 0.500475 0 0 
node 1 3 1 3
node 2 3 1 1
node 3 1 1 1
node 4 1 0 2
node 5 1 0 0
node 61 1 0 0
gene 3 1 4 -4.55009 0 1 -4.55009 1
gene 3 2 4 7.21976 0 2 7.21976 1
gene 1 3 4 -7.04349 0 3 -7.04349 1
gene 2 2 5 0.480945 0 4 0.480945 0
gene 3 5 4 3.23328 0 5 3.23328 1
gene 3 1 5 0.0635139 0 10 0.0635139 1
gene 2 2 61 2.04384 0 180 2.04384 1
gene 2 61 5 1.65378 0 181 1.65378 1
genomeend 89

/* Organism #90 Fitness: 3.99998 Error: 2 */
genomestart 90
trait 1 0.1 0 0 0 0 0 0 0 
trait 2 0.2 0 0 0 0 0 0 0 
trait 3 0.591936 0 0 0 0 0.500475 0 0 
node 1 3 1 3
node 2 3 1 1
node 3 1 1 1
node 4 1 0 2
node 5 1 0 0
node 61 1 0 0
gene 3 1 4 -2.53146 0 1 -2.53146 1
gene 3 2 4 8 0 2 8 1
gene 1 3 4 -1.39851 0 3 -1.39851 1
gene 1 2 5 1.43877 0 4 1.43877 0
gene 3 5 4 2.75631 0 5 2.75631 1
gene 3 1 5 -4.07013 0 10 -4.07013 1
gene 2 2 61 6.05886 0 180 6.05886 1
gene 2 61 5 0.439351 0 181 0.439351 1
genomeend 90

/* Organism #91 Fitness: 1.00451 Error: 2.99775 */
genomestart 91
trait 1 0.1 0 0 0 0 0 0 0 
trait 2 0.2 0 0 0 0 0 0 0 
trait 3 0.591936 0 0 0 0 0.500475 0 0 
node 1 3 1 3
node 2 3 1 1
node 3 1 1 1
node 4 1 0 2
node 5 1 0 0
node 61 1 0 0
gene 3 1 4 1.27592 0 1 1.27592 1
gene 3 2 4 7.44284 0 2 7.44284 1
gene 1 3 4 -7.12344 0 3 -7.12344 1
gene 2 2 5 -3.26629 0 4 -3.26629 1
gene 3 5 4 1.76225 0 5 1.76225 1
gene 3 1 5 -3.96452 0 10 -3.96452 1
gene 2 2 61 0.808002 0 180 0.808002 1
gene 2 61 5 -0.0607787 0 181 -0.0607787 1
genomeend 91

/* Organism #92 Fitness: 8.99974 Error: 1.00004 */
genomestart 92
trait 1 0.1 0 0 0 0 0 0 0 
trait 2 0.2 0 0 0 0 0 0 0 
trait 3 0.591936 0 0 0 0 0.500475 0 0 
node 1 3 1 3
node 2 3 1 1
node 3 1 1 1
node 4 1 0 2
node 5 1 0 0
node 61 1 0 0
gene 1 1 4 -5.40945 0 1 -5.40945 1
gene 3 2 4 7.42867 0 2 7.42867 1
gene 1 3 4 -8 0 3 -8 1
gene 2 2 5 -3.05514 0 4 -3.05514 0
gene 3 5 4 1.76225 0 5 1.76225 1
gene 3 1 5 -0.524463 0 10 -0.524463 1
gene 2 2 61 2.73713 0 180 2.73713 1
gene 2 61 5 -0.383889 0 181 -0.383889 1
genomeend 92

/* Organism #93 Fitness: 9 Error: 1 */
genomestart 93
trait 1 0.1 0 0 0 0 0 0 0 
trait 2 0.2 0 0 0 0 0 0 0 
trait 3 0.591936 0 0 0 0 0.500475 0 0 
node 1 3 1 3
node 2 3 1 1
node 3 1 1 1
node 4 1 0 2
node 5 1 0 0
node 61 1 0 0
gene 3 1 4 -5.08766 0 1 -5.08766 1
gene 3 2 4 8 0 2 8 1
gene 1 3 4 -6.45498 0 3 -6.45498 1
gene 2 2 5 1.34576 0 4 1.34576 0
gene 3 5 4 -0.699634 0 5 -0.699634 1
gene 3 1 5 -2.06032 0 10 -2.06032 1
gene 2 2 61 2.41942 0 180 2.41942 1
gene 2 61 5 -2.45049 0 181 -2.45049 1
genomeend 93

/* Organism #94 Fitness: 8.99992 Error: 1.00001 */
genomestart 94
trait 1 0.1 0 0 0 0 0 0 0 
trait 2 0.2 0 0 0 0 0 0 0 
trait 3 0.591936 0 0 0 0 0.500475 0 0 
node 1 3 1 3
node 2 3 1 1
node 3 2 1 1
node 4 1 0 2
node 5 1 0 0
node 61 1 0 0
gene 3 1 4 -3.19984 0 1 -3.19984 1
gene 3 2 4 8 0 2 8 1
gene 1 3 4 -7.07562 0 3 -7.07562 1
gene 2 2 5 0.165997 0 4 0.165997 0
gene 3 5 4 -0.135063 0 5 -0.135063 1
gene 3 1 5 -3.37905 0 10 -3.37905 1
gene 2 2 61 3.708 0 180 3.708 1
gene 2 61 5 1.689 0 181 1.689 1
genomeend 94

/* Species #15 : (Size 9) (AF 7.33315) (Age 14)  */


/* Organism #95 Fitness: 9 Error: 1 */
genomestart 95
trait 1 0.1 0 0 0 0 0 0 0 
trait 2 0.2 0 0 0 0 0 0 0 
trait 3 0.796834 0 0 0 0 0 0.374513 0.368969 
node 1 2 1 3
node 2 1 1 1
node 3 3 1 1
node 4 1 0 2
node 33 1 0 0
gene 3 1 4 -8 0 1 -8 1
gene 2 2 4 6.5629 0 2 6.5629 1
gene 1 3 4 5.36985 0 3 5.36985 1
gene 2 3 33 4.2182 0 85 4.2182 1
gene 2 33 4 6.85213 0 86 6.85213 1
gene 3 2 33 1.35356 0 124 1.35356 1
genomeend 95

/* Organism #96 Fitness: 4.00023 Error: 1.99994 */
genomestart 96
trait 1 0.1 0 0 0.73707 0 0.860519 0 0 
trait 2 0.2 0 0 0 0 0 0 0 
trait 3 0.3 0 0 0 0 0 0 0 
node 1 2 1 3
node 2 1 1 1
node 3 3 1 1
node 4 1 0 2
node 33 1 0 0
gene 3 1 4 -8 0 1 -8 1
gene 2 2 4 3.9167 0 2 3.9167 1
gene 2 3 4 4.23679 0 3 4.23679 1
gene 2 3 33 0.959823 0 85 0.959823 1
gene 2 33 4 8 0 86 8 1
gene 3 2 33 -0.209935 0 124 -0.209935 1
genomeend 96

/* Organism #97 Fitness: 9 Error: 1 */
genomestart 97
trait 1 0.1 0 0 0.368535 0 0.430259 0 0 
trait 2 0.2 0 0 0 0 0 0 0 
trait 3 0.548417 0 0 0 0 0 0.187256 0.184485 
node 1 2 1 3
node 2 1 1 1
node 3 3 1 1
node 4 1 0 2
node 33 1 0 0
gene 3 1 4 -8 0 1 -8 1
gene 2 2 4 6.5629 0 2 6.5629 1
gene 1 3 4 5.36985 0 3 5.36985 1
gene 2 3 33 4.2182 0 85 4.2182 1
gene 2 33 4 6.85213 0 86 6.85213 1
gene 3 2 33 1.35356 0 124 1.35356 1
genomeend 97

/* Organism #98 Fitness: 8.99865 Error: 1.00023 */
genomestart 98
trait 1 0.1 0 0 0.73707 0 0.860519 0 0 
trait 2 0.2 0 0 0 0 0 0 0 
trait 3 0.3 0 0 0 0 0 0 0 
node 1 2 1 3
node 2 1 1 1
node 3 3 1 1
node 4 1 0 2
node 33 1 0 0
gene 3 1 4 -5.70512 0 1 -5.70512 1
gene 2 2 4 3.32008 0 2 3.32008 1
gene 2 3 4 6.98906 0 3 6.98906 1
gene 2 3 33 2.04972 0 85 2.04972 1
gene 2 33 4 8 0 86 8 1
gene 3 2 33 3.08099 0 124 3.08099 1
genomeend 98

/* Organism #99 Fitness: 9 Error: 1 */
genomestart 99
trait 1 0.1 0 0 0 0 0 0 0 
trait 2 0 0 0 0 0.48593 0 0 0.499787 
trait 3 0.796834 0 0 0 0 0 0.374513 0.368969 
node 1 2 1 3
node 2 1 1 1
node 3 3 1 1
node 4 2 0 2
node 33 1 0 0
gene 3 1 4 -8 0 1 -8 1
gene 2 2 4 4.87782 0 2 4.87782 1
gene 1 3 4 3.40354 0 3 3.40354 1
gene 2 3 33 2.2212 0 85 2.2212 1
gene 2 33 4 8 0 86 8 1
gene 3 2 33 1.20821 0 124 1.20821 1
genomeend 99

/* Organism #100 Fitness: 9 Error: 1 */
genomestart 100
trait 1 0.1 0 0 0.368535 0 0.430259 0 0 
trait 2 0.2 0 0 0 0 0 0 0 
trait 3 0.548417 0 0 0 0 0 0.187256 0.184485 
node 1 2 1 3
node 2 1 1 1
node 3 3 1 1
node 4 1 0 2
node 33 1 0 0
gene 3 1 4 -8 0 1 -8 1
gene 2 2 4 4.77782 0 2 4.77782 1
gene 1 3 4 5.36985 0 3 5.36985 1
gene 2 3 33 3.29025 0 85 3.29025 1
gene 2 33 4 8 0 86 8 1
gene 3 2 33 1.87523 0 124 1.87523 1
genomeend 100

/* Organism #101 Fitness: 8.9983 Error: 1.00028 */
genomestart 101
trait 1 0.1 0 0 0 0 0 0 0 
trait 2 0.2 0 0 0 0 0 0 0 
trait 3 0.548417 0 0 0 0 0 0.187256 0.184485 
node 1 2 1 3
node 2 1 1 1
node 3 3 1 1
node 4 1 0 2
node 33 1 0 0
node 76 1 0 0
gene 3 1 4 -8 0 1 -8 1
gene 2 2 4 6.33497 0 2 6.33497 1
gene 1 3 4 5.25609 0 3 5.25609 0
gene 2 3 33 4.94298 0 85 4.94298 1
gene 2 33 4 7.42607 0 86 7.42607 1
gene 3 2 33 1.58315 0 124 1.58315 1
gene 1 3 76 1 0 227 0 1
gene 1 76 4 5.25609 0 228 0 1
genomeend 101

/* Organism #102 Fitness: 4.00085 Error: 1.99979 */
genomestart 102
trait 1 0.1 0 0 0.368535 0 0.430259 0 0 
trait 2 0.2 0 0 0 0 0 0 0 
trait 3 0.3 0 0 0 0 0 0 0 
node 1 2 1 3
node 2 1 1 1
node 3 3 1 1
node 4 1 0 2
node 33 1 0 0
gene 3 1 4 -1.52845 0 1 -1.52845 1
gene 2 2 4 3.91597 0 2 3.91597 1
gene 2 3 4 7.27627 0 3 7.27627 1
gene 2 3 33 -0.820427 0 85 -0.820427 1
gene 2 33 4 6.48976 0 86 6.48976 1
gene 3 2 33 1.31022 0 124 1.31022 1
genomeend 102

/* Organism #103 Fitness: 4.00028 Error: 1.99993 */
genomestart 103
trait 1 0.1 0 0 0.368535 0 0.430259 0 0 
trait 2 0.2 0 0 0 0 0 0 0 
trait 3 0.3 0 0 0 0 0 0 0 
node 1 2 1 3
node 2 1 1 1
node 3 3 1 1
node 4 1 0 2
node 33 1 0 0
gene 3 1 4 -8 0 1 -8 1
gene 2 2 4 4.16208 0 2 4.16208 1
gene 2 3 4 3.07791 0 3 3.07791 1
gene 2 3 33 6.44819 0 85 6.44819 1
gene 2 33 4 8 0 86 8 1
gene 3 2 33 -0.237524 0 124 -0.237524 1
genomeend 103

/* Species #16 : (Size 8) (AF 7.12473) (Age 14)  */


/* Organism #104 Fitness: 8.99999 Error: 1 */
genomestart 104
trait 1 0.1 0 0 0 0 0 0 0 
trait 2 0.2 0 0 0 0 0 0 0 
trait 3 0.712144 0 0 0 0 0.706553 0 0 
node 1 3 1 3
node 2 3 1 1
node 3 1 1 1
node 4 1 0 2
node 5 1 0 0
node 25 1 0 0
node 28 1 0 0
gene 1 1 4 2.52826 0 1 2.52826 1
gene 3 2 4 -1.17511 0 2 -1.17511 0
gene 1 3 4 -2.68423 0 3 -2.68423 1
gene 3 2 5 -3.33217 0 4 -3.33217 1
gene 3 5 4 -5.86371 0 5 -5.86371 1
gene 1 3 5 2.43374 0 22 2.43374 1
gene 1 3 25 -2.37245 0 60 -2.37245 0
gene 1 25 5 2.2592 0 61 2.2592 1
gene 1 3 28 -3.21114 0 71 -3.21114 1
gene 1 28 25 2.65416 0 72 2.65416 1
gene 1 28 5 -0.292111 0 92 -0.292111 1
gene 1 28 4 0.88563 0 115 0.88563 1
gene 3 1 5 0.29131 0 184 0.29131 1
gene 3 2 25 -0.213248 0 221 -0.213248 1
genomeend 104

/* Organism #105 Fitness: 8.99791 Error: 1.00035 */
genomestart 105
trait 1 0.1 0 0 0 0 0 0 0 
trait 2 0.2 0 0 0 0 0 0 0 
trait 3 0.712144 0 0 0 0 0.706553 0 0 
node 1 3 1 3
node 2 3 1 1
node 3 1 1 1
node 4 1 0 2
node 5 1 0 0
node 25 1 0 0
node 28 1 0 0
gene 1 1 4 1.4194 0 1 1.4194 1
gene 3 2 4 -3.69068 0 2 -3.69068 0
gene 1 3 4 -4.36925 0 3 -4.36925 1
gene 3 2 5 -5.71288 0 4 -5.71288 1
gene 3 5 4 -5.03001 0 5 -5.03001 1
gene 1 3 5 3.53077 0 22 3.53077 1
gene 1 3 25 -3.4929 0 60 -3.4929 0
gene 1 25 5 1.83576 0 61 1.83576 1
gene 1 3 28 -3.32346 0 71 -3.32346 1
gene 1 28 25 3.00814 0 72 3.00814 1
gene 1 28 5 -1.38653 0 92 -1.38653 1
gene 1 28 4 0.394756 0 115 0.394756 1
gene 3 1 5 1.72218 0 184 1.72218 1
gene 3 2 25 1.19569 0 221 1.19569 1
genomeend 105

/* Organism #106 Fitness: 9 Error: 1 */
genomestart 106
trait 1 0.1 0 0 0 0 0 0 0 
trait 2 0.2 0 0 0 0 0 0 0 
trait 3 0.712144 0 0 0 0 0.706553 0 0 
node 1 3 1 3
node 2 3 1 1
node 3 1 1 1
node 4 1 0 2
node 5 1 0 0
node 25 1 0 0
node 28 1 0 0
node 77 1 0 0
gene 1 1 4 3.76437 0 1 3.76437 1
gene 3 2 4 -2.1761 0 2 -2.1761 0
gene 1 3 4 -2.40209 0 3 -2.40209 1
gene 3 2 5 -3.33217 0 4 -3.33217 1
gene 3 5 4 -6.64622 0 5 -6.64622 1
gene 1 3 5 3.46326 0 22 3.46326 1
gene 1 3 25 -3.15828 0 60 -3.15828 0
gene 1 25 5 3.3646 0 61 3.3646 1
gene 1 3 28 -3.43578 0 71 -3.43578 0
gene 1 28 25 3.36212 0 72 3.36212 1
gene 1 28 5 -0.292111 0 92 -0.292111 1
gene 1 28 4 0.88563 0 115 0.88563 1
gene 3 1 5 0.29131 0 184 0.29131 1
gene 3 2 25 -0.213248 0 221 -0.213248 1
gene 1 3 77 1 0 229 0 1
gene 1 77 28 -3.43578 0 230 0 1
genomeend 106

/* Organism #107 Fitness: 8.99999 Error: 1 */
genomestart 107
trait 1 0.1 0 0 0 0 0 0 0 
trait 2 0.2 0 0 0 0 0 0 0 
trait 3 0.712144 0 0 0 0 0.706553 0 0 
node 1 3 1 3
node 2 3 1 1
node 3 1 1 1
node 4 1 0 2
node 5 1 0 0
node 25 1 0 0
node 28 1 0 0
gene 1 1 4 2.52826 0 1 2.52826 1
gene 3 2 4 -1.17511 0 2 -1.17511 0
gene 1 3 4 -2.68423 0 3 -2.68423 1
gene 3 2 5 -3.33217 0 4 -3.33217 1
gene 3 5 4 -5.86371 0 5 -5.86371 1
gene 1 3 5 2.43374 0 22 2.43374 1
gene 1 3 25 -2.37245 0 60 -2.37245 0
gene 1 25 5 2.2592 0 61 2.2592 1
gene 1 3 28 -3.43578 0 71 -3.43578 1
gene 1 28 25 2.65416 0 72 2.65416 1
gene 1 28 5 -0.292111 0 92 -0.292111 1
gene 1 28 4 0.88563 0 115 0.88563 1
gene 3 1 5 0.29131 0 184 0.29131 1
gene 3 2 25 -0.213248 0 221 -0.213248 1
genomeend 107

/* Organism #108 Fitness: 4 Error: 2 */
genomestart 108
trait 1 0.1 0 0 0 0 0 0 0 
trait 2 0.2 0 0 0 0 0 0 0 
trait 3 0.712144 0 0 0 0 0.706553 0 0 
node 1 3 1 3
node 2 3 1 1
node 3 1 1 1
node 4 1 0 2
node 5 1 0 0
node 25 1 0 0
node 28 1 0 0
gene 1 1 4 3.0501 0 1 3.0501 1
gene 3 2 4 -0.563565 0 2 -0.563565 0
gene 1 3 4 -1.12923 0 3 -1.12923 1
gene 3 2 5 -2.24371 0 4 -2.24371 1
gene 3 5 4 -7.91669 0 5 -7.91669 1
gene 1 3 5 3.36609 0 22 3.36609 1
gene 1 3 25 -5.30032 0 60 -5.30032 0
gene 1 25 5 5.07205 0 61 5.07205 1
gene 1 3 28 -5.70975 0 71 -5.70975 1
gene 1 28 25 4.73216 0 72 4.73216 1
gene 1 28 5 -1.09544 0 92 -1.09544 1
gene 1 28 4 3.45446 0 115 3.45446 1
gene 3 1 5 2.39802 0 184 2.39802 1
genomeend 108

/* Organism #109 Fitness: 8.99999 Error: 1 */
genomestart 109
trait 1 0.1 0 0 0 0 0 0 0 
trait 2 0.2 0 0 0 0 0 0 0 
trait 3 0.712144 0 0 0 0 0.706553 0 0 
node 1 3 1 3
node 2 3 1 1
node 3 1 1 1
node 4 1 0 2
node 5 1 0 0
node 25 1 0 0
node 28 1 0 0
gene 1 1 4 2.52826 0 1 2.52826 1
gene 3 2 4 -1.17511 0 2 -1.17511 0
gene 1 3 4 -2.68423 0 3 -2.68423 1
gene 3 2 5 -3.33217 0 4 -3.33217 1
gene 3 5 4 -5.86371 0 5 -5.86371 1
gene 1 3 5 2.43374 0 22 2.43374 1
gene 1 3 25 -2.37245 0 60 -2.37245 0
gene 1 25 5 2.2592 0 61 2.2592 1
gene 1 3 28 -3.21114 0 71 -3.21114 1
gene 1 28 25 2.65416 0 72 2.65416 1
gene 1 28 5 -0.292111 0 92 -0.292111 1
gene 1 28 4 0.88563 0 115 0.88563 1
gene 3 1 5 0.29131 0 184 0.29131 1
gene 3 2 25 -0.213248 0 221 -0.213248 1
genomeend 109

/* Organism #110 Fitness: 4 Error: 2 */
genomestart 110
trait 1 0.1 0 0 0 0 0 0 0 
trait 2 0.2 0 0 0 0 0 0 0 
trait 3 0.712144 0 0 0 0 0.706553 0 0 
node 1 3 1 3
node 2 3 1 1
node 3 1 1 1
node 4 1 0 2
node 5 1 0 0
node 25 1 0 0
node 28 1 0 0
gene 1 1 4 1.28455 0 1 1.28455 1
gene 3 2 4 -0.189529 0 2 -0.189529 0
gene 1 3 4 -0.492458 0 3 -0.492458 1
gene 3 2 5 -2.69638 0 4 -2.69638 1
gene 3 5 4 -4.69081 0 5 -4.69081 1
gene 1 3 5 0.278772 0 22 0.278772 1
gene 1 3 25 -3.74072 0 60 -3.74072 0
gene 1 25 5 3.04621 0 61 3.04621 1
gene 1 3 28 -5.31903 0 71 -5.31903 1
gene 1 28 25 4.43805 0 72 4.43805 1
gene 1 28 5 1.34431 0 92 1.34431 1
gene 1 28 4 2.28879 0 115 2.28879 1
gene 3 1 5 0.29131 0 184 0.29131 1
gene 3 2 25 2.28432 0 221 2.28432 1
genomeend 110

/* Organism #111 Fitness: 4 Error: 2 */
genomestart 111
trait 1 0.1 0 0 0 0 0 0 0 
trait 2 0.2 0 0 0 0 0 0 0 
trait 3 0.712144 0 0 0 0 0.706553 0 0 
node 1 3 1 3
node 2 3 1 1
node 3 1 1 1
node 4 1 0 2
node 5 1 0 0
node 25 1 0 0
node 28 1 0 0
gene 1 1 4 3.76437 0 1 3.76437 1
gene 3 2 4 -1.53606 0 2 -1.53606 0
gene 1 3 4 -0.286395 0 3 -0.286395 1
gene 3 2 5 -3.01676 0 4 -3.01676 1
gene 3 5 4 -8 0 5 -8 1
gene 1 3 5 1.50244 0 22 1.50244 1
gene 1 3 25 -1.9341 0 60 -1.9341 0
gene 1 25 5 5.62087 0 61 5.62087 1
gene 1 3 28 -4.71884 0 71 -4.71884 1
gene 1 28 25 4.51806 0 72 4.51806 1
gene 1 28 5 -0.260807 0 92 -0.260807 1
gene 1 28 4 -0.710933 0 115 -0.710933 1
gene 3 1 5 0.958031 0 184 0.958031 1
genomeend 111

/* Species #18 : (Size 5) (AF 3.67295) (Age 10)  */


/* Organism #112 Fitness: 4 Error: 2 */
genomestart 112
trait 1 0.140775 0 0 0 0 0 0 0 
trait 2 0.204319 0 0 0.221953 0 0 0.476548 0 
trait 3 0.3 0 0 0 0.147259 0.125918 0.310601 0.270752 
node 1 2 1 3
node 2 2 1 1
node 3 2 1 1
node 4 2 0 2
node 9 1 0 0
node 42 1 0 0
gene 1 1 4 8 0 1 8 1
gene 3 2 4 3.16399 0 2 3.16399 0
gene 2 3 4 1.13734 0 3 1.13734 0
gene 2 3 9 -1.45662 0 13 -1.45662 1
gene 2 9 4 -1.52504 0 14 -1.52504 1
gene 3 2 42 2.03168 0 125 2.03168 1
gene 3 42 4 0.551407 0 126 0.551407 1
genomeend 112

/* Organism #113 Fitness: 4.00003 Error: 1.99999 */
genomestart 113
trait 1 0.140775 0 0 0 0 0 0 0 
trait 2 0.204319 0 0 0.221953 0 0 0.476548 0 
trait 3 0.3 0 0 0 0.147259 0.125918 0.310601 0.270752 
node 1 2 1 3
node 2 2 1 1
node 3 2 1 1
node 4 2 0 2
node 9 1 0 0
node 42 1 0 0
gene 1 1 4 -1.73974 0 1 -1.73974 1
gene 3 2 4 0.871427 0 2 0.871427 0
gene 2 3 4 0.230143 0 3 0.230143 0
gene 2 3 9 -2.45607 0 13 -2.45607 1
gene 2 9 4 -4.97002 0 14 -4.97002 1
gene 3 2 42 3.72935 0 125 3.72935 1
gene 3 42 4 -1.33546 0 126 -1.33546 1
genomeend 113

/* Organism #114 Fitness: 4 Error: 2 */
genomestart 114
trait 1 0.140775 0 0 0 0 0 0 0 
trait 2 0.204319 0 0 0.221953 0 0 0.476548 0 
trait 3 0.3 0 0 0 0.147259 0.125918 0.310601 0.270752 
node 1 2 1 3
node 2 2 1 1
node 3 2 1 1
node 4 2 0 2
node 9 1 0 0
node 42 1 0 0
gene 1 1 4 7.38367 0 1 7.38367 1
gene 3 2 4 -0.763179 0 2 -0.763179 0
gene 2 3 4 -2.82512 0 3 -2.82512 0
gene 2 3 9 -2.38633 0 13 -2.38633 1
gene 2 9 4 -3.05734 0 14 -3.05734 1
gene 3 2 42 3.60139 0 125 3.60139 1
gene 3 42 4 -2.0005 0 126 -2.0005 1
genomeend 114

/* Organism #115 Fitness: 4.35834 Error: 1.91234 */
genomestart 115
trait 1 0.140775 0 0 0 0 0 0 0 
trait 2 0.204319 0 0 0.221953 0 0 0.476548 0 
trait 3 0.3 0 0 0 0.147259 0.125918 0.310601 0.270752 
node 1 2 1 3
node 2 2 1 1
node 3 2 1 1
node 4 2 0 2
node 9 1 0 0
node 42 1 0 0
gene 1 1 4 6.51646 0 1 6.51646 1
gene 3 2 4 -0.223699 0 2 -0.223699 0
gene 2 3 4 -0.360076 0 3 -0.360076 0
gene 2 3 9 3.71989 0 13 3.71989 1
gene 2 9 4 -3.56553 0 14 -3.56553 1
gene 3 2 42 1.35049 0 125 1.35049 1
gene 3 42 4 -2.47902 0 126 -2.47902 1
genomeend 115

/* Organism #116 Fitness: 2.0064 Error: 2.58353 */
genomestart 116
trait 1 0.140775 0 0 0 0 0 0 0 
trait 2 0.204319 0 0 0.221953 0 0 0.476548 0 
trait 3 0.3 0 0 0 0.147259 0.125918 0.310601 0.270752 
node 1 2 1 3
node 2 2 1 1
node 3 2 1 1
node 4 2 0 2
node 9 1 0 0
node 42 1 0 0
gene 1 1 4 5.59314 0 1 5.59314 1
gene 3 2 4 3.87941 0 2 3.87941 0
gene 2 3 4 -0.116823 0 3 -0.116823 0
gene 2 3 9 0.290476 0 13 0.290476 1
gene 2 9 4 -5.14638 0 14 -5.14638 1
gene 3 2 42 2.96366 0 125 2.96366 1
gene 3 42 4 -5.90194 0 126 -5.90194 1
genomeend 116

/* Species #19 : (Size 8) (AF 6.4763) (Age 6)  */


/* Organism #117 Fitness: 8.98342 Error: 1.00276 */
genomestart 117
trait 1 0.140775 0 0 0 0 0 0 0 
trait 2 0.204319 0 0 0.221953 0 0 0.476548 0 
trait 3 0.3 0 0 0 0.147259 0.125918 0.310601 0.270752 
node 1 2 1 3
node 2 2 1 1
node 3 3 1 1
node 4 2 0 2
node 9 3 0 0
node 63 1 0 0
gene 1 1 4 8 0 1 8 1
gene 3 2 4 -4.81118 0 2 -4.81118 1
gene 2 3 4 -2.5691 0 3 -2.5691 1
gene 2 3 9 4.79163 0 13 4.79163 1
gene 2 9 4 -4.66605 0 14 -4.66605 0
gene 1 2 9 -3.0457 0 116 -3.0457 1
gene 2 1 9 -0.381795 0 157 -0.381795 1
gene 2 9 63 0.82835 0 186 0.82835 1
gene 2 63 4 -3.91861 0 187 0 1
genomeend 117

/* Organism #118 Fitness: 4.1493 Error: 1.96302 */
genomestart 118
trait 1 0.140775 0 0 0 0 0 0 0 
trait 2 0.204319 0 0 0.221953 0 0 0.476548 0 
trait 3 0.3 0 0 0 0.147259 0.125918 0.310601 0.270752 
node 1 2 1 3
node 2 2 1 1
node 3 3 1 1
node 4 2 0 2
node 9 3 0 0
node 63 1 0 0
gene 1 1 4 8 0 1 8 1
gene 3 2 4 -4.81118 0 2 -4.81118 1
gene 2 3 4 -2.5691 0 3 -2.5691 1
gene 2 3 9 4.79163 0 13 4.79163 1
gene 2 9 4 -4.66605 0 14 -4.66605 0
gene 1 2 9 -3.0457 0 116 -3.0457 1
gene 2 1 9 -0.381795 0 157 -0.381795 1
gene 2 9 63 0.82835 0 186 0.82835 1
gene 2 63 4 -3.91861 0 187 0 1
gene 2 2 63 0.813013 0 231 0.813013 1
genomeend 118

/* Organism #119 Fitness: 3.9847 Error: 2.00383 */
genomestart 119
trait 1 0.140775 0 0 0 0 0 0 0 
trait 2 0.204319 0 0 0.221953 0 0 0.476548 0 
trait 3 0.3 0 0 0 0.147259 0.125918 0.310601 0.270752 
node 1 2 1 3
node 2 2 1 1
node 3 3 1 1
node 4 2 0 2
node 9 3 0 0
node 63 1 0 0
gene 1 1 4 8 0 1 8 1
gene 3 2 4 -5.50388 0 2 -5.50388 1
gene 2 3 4 0.225239 0 3 0.225239 1
gene 2 3 9 -1.19916 0 13 -1.19916 1
gene 2 9 4 -3.15577 0 14 -3.15577 0
gene 1 2 9 -2.23043 0 116 -2.23043 1
gene 2 1 9 -0.381795 0 157 -0.381795 1
gene 2 9 63 2.42469 0 186 2.42469 1
gene 2 63 4 -2.89739 0 187 -2.89739 1
genomeend 119

/* Organism #120 Fitness: 4.1493 Error: 1.96302 */
genomestart 120
trait 1 0.140775 0 0 0 0 0 0 0 
trait 2 0.204319 0 0 0.221953 0 0 0.476548 0 
trait 3 0.3 0 0 0 0.147259 0.125918 0.310601 0.270752 
node 1 2 1 3
node 2 2 1 1
node 3 3 1 1
node 4 2 0 2
node 9 3 0 0
node 63 1 0 0
gene 1 1 4 8 0 1 8 1
gene 3 2 4 -4.81118 0 2 -4.81118 1
gene 2 3 4 -2.5691 0 3 -2.5691 1
gene 2 3 9 4.17897 0 13 4.17897 1
gene 2 9 4 -4.66605 0 14 -4.66605 0
gene 1 2 9 -3.0457 0 116 -3.0457 1
gene 2 1 9 -0.381795 0 157 -0.381795 1
gene 2 9 63 0.82835 0 186 0.82835 1
gene 2 63 4 -3.91861 0 187 0 1
gene 2 2 63 0.813013 0 231 0 1
genomeend 120

/* Organism #121 Fitness: 8.56521 Error: 1.07336 */
genomestart 121
trait 1 0.140775 0 0 0 0 0 0 0 
trait 2 0.204319 0 0 0.221953 0 0 0.476548 0 
trait 3 0.3 0 0 0 0.147259 0.125918 0.310601 0.270752 
node 1 2 1 3
node 2 2 1 1
node 3 3 1 1
node 4 2 0 2
node 9 3 0 0
node 63 1 0 0
gene 1 1 4 7.43886 0 1 7.43886 1
gene 3 2 4 -3.76856 0 2 -3.76856 1
gene 2 3 4 -1.19985 0 3 -1.19985 1
gene 2 3 9 2.48734 0 13 2.48734 1
gene 2 9 4 -6.12379 0 14 -6.12379 0
gene 1 2 9 -1.97828 0 116 -1.97828 1
gene 2 1 9 0.367276 0 157 0.367276 1
gene 2 9 63 0.0429333 0 186 0.0429333 1
gene 2 63 4 -5.46535 0 187 -5.46535 1
genomeend 121

/* Organism #122 Fitness: 4.01164 Error: 1.99709 */
genomestart 122
trait 1 0.140775 0 0 0 0 0 0 0 
trait 2 0.204319 0 0 0.221953 0 0 0.476548 0 
trait 3 0.3 0 0 0 0.147259 0.125918 0.310601 0.270752 
node 1 2 1 3
node 2 2 1 1
node 3 3 1 1
node 4 2 0 2
node 9 3 0 0
node 63 1 0 0
gene 1 1 4 8 0 1 8 1
gene 3 2 4 -3.00235 0 2 -3.00235 1
gene 2 3 4 -3.77182 0 3 -3.77182 1
gene 2 3 9 3.32057 0 13 3.32057 1
gene 2 9 4 -3.29035 0 14 -3.29035 0
gene 1 2 9 -0.627321 0 116 -0.627321 1
gene 2 1 9 -1.30325 0 157 -1.30325 1
gene 2 9 63 -0.994396 0 186 -0.994396 1
gene 2 63 4 -5.61763 0 187 -5.61763 1
genomeend 122

/* Organism #123 Fitness: 8.98342 Error: 1.00276 */
genomestart 123
trait 1 0.140775 0 0 0 0 0 0 0 
trait 2 0.204319 0 0 0.221953 0 0 0.476548 0 
trait 3 0.3 0 0 0 0.147259 0.125918 0.310601 0.270752 
node 1 2 1 3
node 2 2 1 1
node 3 3 1 1
node 4 2 0 2
node 9 3 0 0
node 63 1 0 0
node 78 1 0 0
gene 1 1 4 8 0 1 8 1
gene 3 2 4 -4.81118 0 2 -4.81118 1
gene 2 3 4 -2.5691 0 3 -2.5691 1
gene 2 3 9 4.17897 0 13 4.17897 1
gene 2 9 4 -4.66605 0 14 -4.66605 0
gene 1 2 9 -3.0457 0 116 -3.0457 0
gene 2 1 9 -0.381795 0 157 -0.381795 1
gene 2 9 63 0.82835 0 186 0.82835 1
gene 2 63 4 -3.91861 0 187 0 1
gene 1 2 78 1 0 232 0 1
gene 1 78 9 -3.0457 0 233 0 1
genomeend 123

/* Organism #124 Fitness: 8.98342 Error: 1.00276 */
genomestart 124
trait 1 0.140775 0 0 0 0 0 0 0 
trait 2 0.204319 0 0 0.221953 0 0 0.476548 0 
trait 3 0.3 0 0 0 0.147259 0.125918 0.310601 0.270752 
node 1 2 1 3
node 2 2 1 1
node 3 3 1 1
node 4 2 0 2
node 9 3 0 0
node 63 1 0 0
gene 1 1 4 8 0 1 8 1
gene 3 2 4 -4.81118 0 2 -4.81118 1
gene 2 3 4 -2.5691 0 3 -2.5691 1
gene 2 3 9 4.17897 0 13 4.17897 1
gene 2 9 4 -4.66605 0 14 -4.66605 0
gene 1 2 9 -3.0457 0 116 -3.0457 1
gene 2 1 9 -0.381795 0 157 -0.381795 1
gene 2 9 63 0.82835 0 186 0.82835 1
gene 2 63 4 -3.91861 0 187 0 1
genomeend 124

/* Species #21 : (Size 7) (AF 5.70746) (Age 6)  */


/* Organism #125 Fitness: 8.99743 Error: 1.00043 */
genomestart 125
trait 1 0.1 0 0 0 0 0 0 0 
trait 2 0.2 0 0 0 0 0 0 0 
trait 3 0.591936 0 0 0 0 0.500475 0 0 
node 1 3 1 3
node 2 3 1 1
node 3 1 1 1
node 4 1 0 2
node 5 1 0 0
gene 3 1 4 1.37579 0 1 1.37579 1
gene 3 2 4 5.64291 0 2 5.64291 1
gene 1 3 4 3.4958 0 3 3.4958 1
gene 2 2 5 1.70787 0 4 1.70787 1
gene 3 5 4 -3.00653 0 5 -3.00653 1
gene 3 1 5 1.97525 0 10 1.97525 1
genomeend 125

/* Organism #126 Fitness: 5.75319 Error: 1.60142 */
genomestart 126
trait 1 0.1 0 0 0 0 0 0 0 
trait 2 0.2 0.194618 0 0 0 0.885231 0.0894801 0 
trait 3 0.591936 0 0 0 0 0.500475 0 0 
node 1 3 1 3
node 2 3 1 1
node 3 1 1 1
node 4 1 0 2
node 5 1 0 0
gene 3 1 4 1.2563 0 1 1.2563 1
gene 3 2 4 4.47487 0 2 4.47487 1
gene 1 3 4 4.20942 0 3 4.20942 1
gene 2 2 5 0.458178 0 4 0.458178 1
gene 3 5 4 -5.40966 0 5 -5.40966 1
gene 3 1 5 2.02022 0 10 2.02022 1
genomeend 126

/* Organism #127 Fitness: 8.99939 Error: 1.0001 */
genomestart 127
trait 1 1 0 0 0 0 0 0 0 
trait 2 0.2 0 0 0 0 0 0 0 
trait 3 0.591936 0.603151 0 0 0 0.500475 0 0 
node 1 3 1 3
node 2 3 1 1
node 3 1 1 1
node 4 1 0 2
node 5 1 0 0
gene 3 1 4 -2.85315 0 1 -2.85315 1
gene 3 2 4 8 0 2 8 1
gene 1 3 4 5.72115 0 3 5.72115 1
gene 2 2 5 -4.37481 0 4 -4.37481 1
gene 3 5 4 -2.15299 0 5 -2.15299 1
gene 3 1 5 -0.0283315 0 10 -0.0283315 1
genomeend 127

/* Organism #128 Fitness: 3.99993 Error: 2.00002 */
genomestart 128
trait 1 1 0 0 0 0 0 0 0 
trait 2 0.2 0 0 0 0 0 0 0 
trait 3 0.591936 0.603151 0 0 0 0.500475 0 0 
node 1 3 1 3
node 2 3 1 1
node 3 1 1 1
node 4 1 0 2
node 5 1 0 0
gene 3 1 4 -0.00509702 0 1 -0.00509702 1
gene 3 2 4 6.88044 0 2 6.88044 1
gene 1 3 4 3.36387 0 3 3.36387 1
gene 2 2 5 -1.12726 0 4 -1.12726 1
gene 3 5 4 -5.35984 0 5 -5.35984 1
gene 3 1 5 1.62298 0 10 1.62298 1
genomeend 128

/* Organism #129 Fitness: 4.04232 Error: 1.98945 */
genomestart 129
trait 1 1 0 0 0 0 0 0 0 
trait 2 0.2 0 0 0 0 0 0 0 
trait 3 0.591936 0.603151 0 0 0 0.500475 0 0 
node 1 3 1 3
node 2 3 1 1
node 3 1 1 1
node 4 1 0 2
node 5 1 0 0
gene 3 1 4 0.921373 0 1 0.921373 1
gene 3 2 4 0.886456 0 2 0.886456 1
gene 1 3 4 4.31139 0 3 4.31139 1
gene 2 2 5 -4.09868 0 4 -4.09868 1
gene 3 5 4 -2.43475 0 5 -2.43475 1
gene 3 1 5 -1.45368 0 10 -1.45368 1
genomeend 129

/* Organism #130 Fitness: 4.00022 Error: 1.99994 */
genomestart 130
trait 1 1 0 0 0 0 0 0 0 
trait 2 0.2 0 0 0 0 0 0 0 
trait 3 0.591936 0.603151 0 0 0 0.500475 0 0 
node 1 3 1 3
node 2 3 1 1
node 3 1 1 1
node 4 1 0 2
node 5 1 0 0
gene 3 1 4 -2.6782 0 1 -2.6782 1
gene 3 2 4 8 0 2 8 1
gene 1 3 4 5.01895 0 3 5.01895 1
gene 2 2 5 -4.13629 0 4 -4.13629 1
gene 3 5 4 -4.59522 0 5 -4.59522 1
gene 3 1 5 0.567935 0 10 0.567935 1
genomeend 130

/* Organism #131 Fitness: 4.15976 Error: 1.96045 */
genomestart 131
trait 1 1 0 0 0 0 0 0 0 
trait 2 0.2 0 0 0 0 0 0 0 
trait 3 0.591936 0.603151 0 0 0 0.500475 0 0 
node 1 3 1 3
node 2 3 1 1
node 3 1 1 1
node 4 1 0 2
node 5 1 0 0
gene 3 1 4 0.653377 0 1 0.653377 1
gene 3 2 4 8 0 2 8 1
gene 1 3 4 4.20934 0 3 4.20934 1
gene 2 2 5 -2.12618 0 4 -2.12618 1
gene 3 5 4 -3.96627 0 5 -3.96627 1
gene 3 1 5 -1.33268 0 10 -1.33268 1
genomeend 131

/* Species #22 : (Size 7) (AF 4.28598) (Age 6)  */


/* Organism #132 Fitness: 8.99698 Error: 1.0005 */
genomestart 132
trait 1 0.1 0 0 0 0 0 0 0 
trait 2 0.2 0 0 0 0 0 0 0 
trait 3 0.712144 0 0 0 0 0.706553 0 0 
node 1 3 1 3
node 2 3 1 1
node 3 1 1 1
node 4 1 0 2
node 5 1 0 0
node 25 1 0 0
node 28 1 0 0
node 67 1 0 0
node 70 1 0 0
gene 1 1 4 3.06708 0 1 3.06708 1
gene 3 2 4 0.794548 0 2 0.794548 0
gene 1 3 4 -4.60959 0 3 -4.60959 1
gene 3 2 5 -1.35974 0 4 -1.35974 0
gene 3 5 4 -6.61135 0 5 -6.61135 1
gene 1 3 5 1.8698 0 22 1.8698 0
gene 1 3 25 -0.299092 0 60 -0.299092 1
gene 1 25 5 2.2847 0 61 2.2847 1
gene 1 3 28 -1.50091 0 71 -1.50091 1
gene 1 28 25 -0.387232 0 72 -0.387232 0
gene 1 28 5 1.94721 0 92 1.94721 1
gene 1 28 4 1.9801 0 115 1.9801 1
gene 3 1 5 -1.0049 0 184 -1.0049 1
gene 1 28 67 0.740658 0 198 0.740658 1
gene 1 67 25 3.49307 0 199 3.49307 1
gene 3 2 70 1 0 208 1 1
gene 3 70 5 -2.84259 0 209 -2.84259 1
genomeend 132

/* Organism #133 Fitness: 4 Error: 2 */
genomestart 133
trait 1 0.1 0 0 0 0 0 0 0 
trait 2 0.2 0 0 0 0 0 0 0 
trait 3 0.712144 0 0 0 0 0.706553 0 0 
node 1 3 1 3
node 2 3 1 1
node 3 1 1 1
node 4 1 0 2
node 5 1 0 0
node 25 1 0 0
node 28 1 0 0
node 67 1 0 0
node 70 1 0 0
gene 1 1 4 2.43595 0 1 2.43595 1
gene 3 2 4 3.28573 0 2 3.28573 0
gene 1 3 4 -2.3024 0 3 -2.3024 1
gene 3 2 5 2.06427 0 4 2.06427 0
gene 3 5 4 -5.41192 0 5 -5.41192 1
gene 1 3 5 -0.0976724 0 22 -0.0976724 0
gene 1 3 25 -0.380165 0 60 -0.380165 1
gene 1 25 5 -0.690449 0 61 -0.690449 1
gene 1 3 28 -0.97037 0 71 -0.97037 1
gene 1 28 25 1.34619 0 72 1.34619 0
gene 1 28 5 2.25791 0 92 2.25791 1
gene 1 28 4 3.14868 0 115 3.14868 1
gene 3 1 5 1.44158 0 184 1.44158 1
gene 1 28 67 -1.41964 0 198 -1.41964 1
gene 1 67 25 1.7467 0 199 1.7467 1
gene 3 2 70 2.14626 0 208 2.14626 1
gene 3 70 5 2.07956 0 209 2.07956 1
genomeend 133

/* Organism #134 Fitness: 3.99937 Error: 2.00016 */
genomestart 134
trait 1 0.1 0 0 0 0 0 0 0 
trait 2 0.2 0 0 0 0 0 0 0 
trait 3 0.712144 0 0 0 0 0.706553 0 0 
node 1 3 1 3
node 2 3 1 1
node 3 1 1 1
node 4 1 0 2
node 5 1 0 0
node 25 1 0 0
node 28 1 0 0
node 67 1 0 0
node 70 1 0 0
gene 1 1 4 2.30978 0 1 2.30978 1
gene 3 2 4 -0.0366436 0 2 -0.0366436 0
gene 1 3 4 -4.65777 0 3 -4.65777 1
gene 3 2 5 -1.64664 0 4 -1.64664 0
gene 3 5 4 -4.69639 0 5 -4.69639 1
gene 1 3 5 -0.0834368 0 22 -0.0834368 0
gene 1 3 25 0.375531 0 60 0.375531 1
gene 1 25 5 1.95539 0 61 1.95539 1
gene 1 3 28 -3.11716 0 71 -3.11716 1
gene 1 28 25 -1.46053 0 72 -1.46053 0
gene 1 28 5 0.790065 0 92 0.790065 1
gene 1 28 4 -0.226195 0 115 -0.226195 1
gene 3 1 5 0.112214 0 184 0.112214 1
gene 1 28 67 0.82158 0 198 0.82158 1
gene 1 67 25 3.49307 0 199 3.49307 1
gene 3 2 70 -0.925856 0 208 -0.925856 1
gene 3 70 5 -4.23629 0 209 -4.23629 1
genomeend 134

/* Organism #135 Fitness: 4 Error: 2 */
genomestart 135
trait 1 0.1 0 0 0 0 0 0 0 
trait 2 0.2 0 0 0 0 0 0 0 
trait 3 0.712144 0 0 0 0 0.706553 0 0 
node 1 3 1 3
node 2 3 1 1
node 3 1 1 1
node 4 1 0 2
node 5 1 0 0
node 25 1 0 0
node 28 1 0 0
node 67 1 0 0
node 70 1 0 0
gene 1 1 4 1.73332 0 1 1.73332 1
gene 3 2 4 2.17223 0 2 2.17223 0
gene 1 3 4 -2.75103 0 3 -2.75103 1
gene 3 2 5 -3.71423 0 4 -3.71423 0
gene 3 5 4 -4.57763 0 5 -4.57763 1
gene 1 3 5 1.41569 0 22 1.41569 0
gene 1 3 25 -0.0282886 0 60 -0.0282886 1
gene 1 25 5 4.22209 0 61 4.22209 1
gene 1 3 28 0.121243 0 71 0.121243 1
gene 1 28 25 -1.25197 0 72 -1.25197 0
gene 1 28 5 -0.098783 0 92 -0.098783 1
gene 1 28 4 -0.332513 0 115 -0.332513 1
gene 3 1 5 0.49739 0 184 0.49739 1
gene 1 28 67 -0.294204 0 198 -0.294204 1
gene 1 67 25 3.49307 0 199 3.49307 1
gene 3 2 70 2.86456 0 208 2.86456 1
gene 3 70 5 -2.84259 0 209 -2.84259 1
genomeend 135

/* Organism #136 Fitness: 1.00478 Error: 2.99761 */
genomestart 136
trait 1 0.1 0 0 0 0 0 0 0 
trait 2 0.2 0 0 0 0 0 0 0 
trait 3 0.712144 0 0 0 0 0.706553 0 0 
node 1 3 1 3
node 2 3 1 1
node 3 1 1 1
node 4 1 0 2
node 5 1 0 0
node 25 1 0 0
node 28 1 0 0
node 67 1 0 0
node 70 1 0 0
gene 1 1 4 2.03868 0 1 2.03868 1
gene 3 2 4 1.93674 0 2 1.93674 0
gene 1 3 4 0.972072 0 3 0.972072 1
gene 3 2 5 -0.0505772 0 4 -0.0505772 0
gene 3 5 4 -5.30192 0 5 -5.30192 1
gene 1 3 5 -0.418439 0 22 -0.418439 1
gene 1 3 25 2.084 0 60 2.084 1
gene 1 25 5 3.99505 0 61 3.99505 1
gene 1 3 28 -0.210249 0 71 -0.210249 1
gene 1 28 25 -2.26242 0 72 -2.26242 0
gene 1 28 5 -0.31911 0 92 -0.31911 1
gene 1 28 4 1.07547 0 115 1.07547 1
gene 3 1 5 -1.84575 0 184 -1.84575 1
gene 1 28 67 -1.48154 0 198 -1.48154 1
gene 1 67 25 4.69412 0 199 4.69412 1
gene 3 2 70 0.699684 0 208 0.699684 1
gene 3 70 5 -2.58282 0 209 -2.58282 1
genomeend 136

/* Organism #137 Fitness: 4.0001 Error: 1.99997 */
genomestart 137
trait 1 0.1 0 0 0 0 0 0 0 
trait 2 0.2 0 0 0 0 0 0 0 
trait 3 0.712144 0 0 0 0 0.706553 0 0 
node 1 3 1 3
node 2 3 1 1
node 3 1 1 1
node 4 1 0 2
node 5 1 0 0
node 25 1 0 0
node 28 1 0 0
node 67 1 0 0
node 70 1 0 0
gene 1 1 4 4.7277 0 1 4.7277 1
gene 3 2 4 1.16686 0 2 1.16686 0
gene 1 3 4 -6.67402 0 3 -6.67402 1
gene 3 2 5 0.574647 0 4 0.574647 0
gene 3 5 4 -8 0 5 -8 1
gene 1 3 5 1.45539 0 22 1.45539 0
gene 1 3 25 1.38577 0 60 1.38577 1
gene 1 25 5 2.38878 0 61 2.38878 1
gene 1 3 28 -2.31387 0 71 -2.31387 1
gene 1 28 25 -1.84135 0 72 -1.84135 0
gene 1 28 5 1.66102 0 92 1.66102 1
gene 1 28 4 3.65131 0 115 3.65131 1
gene 3 1 5 0.120701 0 184 0.120701 1
gene 1 28 67 2.04936 0 198 2.04936 1
gene 1 67 25 3.98664 0 199 3.98664 1
gene 3 2 70 2.07268 0 208 2.07268 1
gene 3 70 5 -1.8949 0 209 -1.8949 1
genomeend 137

/* Organism #138 Fitness: 4.00062 Error: 1.99985 */
genomestart 138
trait 1 0.1 0 0 0 0 0 0 0 
trait 2 0.2 0 0 0 0 0 0 0 
trait 3 0.712144 0 0 0 0 0.706553 0 0 
node 1 3 1 3
node 2 3 1 1
node 3 1 1 1
node 4 1 0 2
node 5 1 0 0
node 25 1 0 0
node 28 1 0 0
node 67 1 0 0
node 70 1 0 0
gene 1 1 4 5.33756 0 1 5.33756 1
gene 3 2 4 0.347634 0 2 0.347634 0
gene 1 3 4 0.294554 0 3 0.294554 1
gene 3 2 5 -0.190681 0 4 -0.190681 0
gene 3 5 4 -7.6579 0 5 -7.6579 1
gene 1 3 5 0.64164 0 22 0.64164 0
gene 1 3 25 -1.54641 0 60 -1.54641 1
gene 1 25 5 1.07659 0 61 1.07659 1
gene 1 3 28 -1.12565 0 71 -1.12565 1
gene 1 28 25 0.987552 0 72 0.987552 0
gene 1 28 5 2.03874 0 92 2.03874 1
gene 1 28 4 1.9801 0 115 1.9801 1
gene 3 1 5 1.25582 0 184 1.25582 1
gene 1 28 67 1.58877 0 198 1.58877 1
gene 1 67 25 3.49307 0 199 3.49307 1
gene 3 2 70 -0.720327 0 208 -0.720327 1
gene 3 70 5 -2.84259 0 209 -2.84259 1
genomeend 138

/* Species #23 : (Size 11) (AF 6.61223) (Age 2)  */


/* Organism #139 Fitness: 8.97956 Error: 1.00341 */
genomestart 139
trait 1 0.1 0 0 0 0 0 0 0 
trait 2 0.2 0 0 0 0 0 0 0 
trait 3 0.3 0 0 0 0 0 0 0 
node 1 2 1 3
node 2 1 1 1
node 3 1 1 1
node 4 2 0 2
node 33 1 0 0
gene 3 1 4 -3.85751 0 1 -3.85751 1
gene 2 2 4 8 0 2 8 1
gene 2 3 4 6.07029 0 3 6.07029 1
gene 2 3 33 -0.879852 0 85 -0.879852 1
gene 2 33 4 3.35026 0 86 3.35026 1
gene 1 1 33 0.290626 0 112 0.290626 1
genomeend 139

/* Organism #140 Fitness: 8.99999 Error: 1 */
genomestart 140
trait 1 0.1 0 0 0 0 0 0 0 
trait 2 0.2 0 0 0 0 0 0 0 
trait 3 0.3 0 0 0 0 0 0 0 
node 1 2 1 3
node 2 1 1 1
node 3 1 1 1
node 4 2 0 2
node 33 1 0 0
gene 3 1 4 -2.7432 0 1 -2.7432 1
gene 2 2 4 8 0 2 8 1
gene 2 3 4 6.62751 0 3 6.62751 1
gene 2 3 33 1.61884 0 85 1.61884 1
gene 2 33 4 2.42912 0 86 2.42912 1
gene 1 1 33 -1.05044 0 112 -1.05044 1
genomeend 140

/* Organism #141 Fitness: 8.97956 Error: 1.00341 */
genomestart 141
trait 1 0.1 0 0 0 0 0 0 0 
trait 2 0.2 0 0 0 0 0 0 0 
trait 3 1 0 0 0 0 0 0 0 
node 1 2 1 3
node 2 1 1 1
node 3 1 1 1
node 4 2 0 2
node 33 1 0 0
gene 3 1 4 -3.85751 0 1 -3.85751 1
gene 2 2 4 8 0 2 8 1
gene 2 3 4 6.07029 0 3 6.07029 1
gene 2 3 33 -0.879852 0 85 -0.879852 1
gene 2 33 4 3.35026 0 86 3.35026 1
gene 1 1 33 0.290626 0 112 0.290626 1
genomeend 141

/* Organism #142 Fitness: 4 Error: 2 */
genomestart 142
trait 1 0.1 0 0 0 0 0 0 0 
trait 2 0.2 0 0 0 0 0 0 0 
trait 3 0.3 0 0 0 0 0 0 0 
node 1 2 1 3
node 2 1 1 1
node 3 1 1 1
node 4 2 0 2
node 33 1 0 0
gene 3 1 4 2.37776 0 1 2.37776 1
gene 2 2 4 5.83873 0 2 5.83873 1
gene 2 3 4 5.2459 0 3 5.2459 1
gene 2 3 33 -0.835109 0 85 -0.835109 1
gene 2 33 4 3.30379 0 86 3.30379 1
gene 1 1 33 2.57252 0 112 2.57252 1
genomeend 142

/* Organism #143 Fitness: 8.18804 Error: 1.13852 */
genomestart 143
trait 1 0.1 0 0 0 0 0 0 0 
trait 2 0.2 0 0 0 0 0 0 0 
trait 3 0.3 0 0 0 0 0 0 0 
node 1 2 1 3
node 2 1 1 1
node 3 1 1 1
node 4 2 0 2
node 33 1 0 0
gene 3 1 4 -6.31456 0 1 -6.31456 1
gene 2 2 4 8 0 2 8 1
gene 2 3 4 6.68549 0 3 6.68549 1
gene 2 3 33 -2.84015 0 85 -2.84015 1
gene 2 33 4 1.12173 0 86 1.12173 1
gene 1 1 33 1.09521 0 112 1.09521 1
genomeend 143

/* Organism #144 Fitness: 1.26515 Error: 2.87521 */
genomestart 144
trait 1 0.1 0 0 0 0 0 0 0 
trait 2 0.2 0 0 0 0 0 0 0 
trait 3 0.3 0 0 0 0 0 0 0 
node 1 2 1 3
node 2 1 1 1
node 3 1 1 1
node 4 2 0 2
node 33 1 0 0
gene 3 1 4 -1.19733 0 1 -1.19733 1
gene 2 2 4 1.14154 0 2 1.14154 1
gene 2 3 4 -2.10769 0 3 -2.10769 1
gene 2 3 33 -0.879852 0 85 -0.879852 1
gene 2 33 4 2.737 0 86 2.737 1
gene 1 1 33 1.54611 0 112 1.54611 1
genomeend 144

/* Organism #145 Fitness: 8.99996 Error: 1.00001 */
genomestart 145
trait 1 0.1 0 0 0 0 0 0 0 
trait 2 0.2 0 0 0 0 0 0 0 
trait 3 0.119294 0 0 0 0.366532 0 0 0.041089 
node 1 2 1 3
node 2 1 1 1
node 3 1 1 1
node 4 2 0 2
node 33 1 0 0
gene 3 1 4 -4.98644 0 1 -4.98644 1
gene 2 2 4 8 0 2 8 1
gene 2 3 4 7.42068 0 3 7.42068 1
gene 2 3 33 0.295296 0 85 0.295296 1
gene 2 33 4 3.35995 0 86 3.35995 1
gene 1 1 33 -1.59441 0 112 -1.59441 1
genomeend 145

/* Organism #146 Fitness: 8.997 Error: 1.0005 */
genomestart 146
trait 1 0.1 0 0 0 0 0 0 0 
trait 2 0.2 0 0 0 0 0 0 0 
trait 3 0.3 0 0 0 0 0 0 0 
node 1 2 1 3
node 2 1 1 1
node 3 1 1 1
node 4 2 0 2
node 33 1 0 0
gene 3 1 4 -1.54388 0 1 -1.54388 1
gene 2 2 4 7.35293 0 2 7.35293 1
gene 2 3 4 6.21655 0 3 6.21655 1
gene 2 3 33 -2.46347 0 85 -2.46347 1
gene 2 33 4 4.323 0 86 4.323 1
gene 1 1 33 -2.07367 0 112 -2.07367 1
genomeend 146

/* Organism #147 Fitness: 4 Error: 2 */
genomestart 147
trait 1 0.1 0 0 0 0 0 0 0 
trait 2 0.2 0 0 0 0 0 0 0 
trait 3 0.3 0 0 0 0 0 0 0 
node 1 2 1 3
node 2 1 1 1
node 3 1 1 1
node 4 2 0 2
node 33 1 0 0
gene 3 1 4 -1.86429 0 1 -1.86429 1
gene 2 2 4 8 0 2 8 1
gene 2 3 4 7.61475 0 3 7.61475 1
gene 2 3 33 -0.423238 0 85 -0.423238 1
gene 2 33 4 5.42301 0 86 5.42301 1
gene 1 1 33 2.5263 0 112 2.5263 1
genomeend 147

/* Organism #148 Fitness: 6.32496 Error: 1.48505 */
genomestart 148
trait 1 0.1 0 0 0 0 0 0 0 
trait 2 0.2 0 0 0 0 0 0 0 
trait 3 0.3 0 0 0 0 0 0 0 
node 1 2 1 3
node 2 1 1 1
node 3 1 1 1
node 4 2 0 2
node 33 1 0 0
gene 3 1 4 -6.13891 0 1 -6.13891 1
gene 2 2 4 8 0 2 8 1
gene 2 3 4 -2.47832 0 3 -2.47832 1
gene 2 3 33 -0.879852 0 85 -0.879852 1
gene 2 33 4 5.71532 0 86 5.71532 1
gene 1 1 33 0.444348 0 112 0.444348 1
genomeend 148

/* Organism #149 Fitness: 4.00034 Error: 1.99992 */
genomestart 149
trait 1 0.1 0 0 0 0 0 0 0 
trait 2 0.2 0 0 0 0 0 0 0 
trait 3 0.3 0 0 0 0 0 0 0 
node 1 2 1 3
node 2 1 1 1
node 3 1 1 1
node 4 2 0 2
node 33 1 0 0
node 76 1 0 0
gene 3 1 4 -3.85751 0 1 -3.85751 1
gene 2 2 4 8 0 2 8 1
gene 2 3 4 6.07029 0 3 6.07029 0
gene 2 3 33 -0.879852 0 85 -0.879852 1
gene 2 33 4 3.35026 0 86 3.35026 1
gene 1 1 33 0.290626 0 112 0.290626 1
gene 2 3 76 1 0 227 0 1
gene 2 76 4 6.07029 0 228 0 1
genomeend 149
