
/* Species #1 : (Size 11) (AF 8.57456) (Age 25)  */


/* Organism #0 Fitness: 9 Error: 1 */
genomestart 0
trait 1 0.075 0 0 0 0 0.229649 0 0 
trait 2 0.2 0.0165878 0 0 0 0 0 0 
trait 3 0.225 0 0 0 0 0 0 0 
node 1 3 1 3
node 2 2 1 1
node 3 2 1 1
node 4 2 0 2
gene 1 1 4 -4.06874 0 1 -4.06874 1
gene 1 2 4 -8 0 2 -8 1
gene 2 3 4 8 0 3 8 1
genomeend 0

/* Organism #1 Fitness: 9 Error: 1 */
genomestart 1
trait 1 0.075 0 0 0 0 0.229649 0 0 
trait 2 0.2 0.0165878 0 0 0 0 0 0 
trait 3 0.225 0 0 0 0 0 0 0 
node 1 3 1 3
node 2 2 1 1
node 3 2 1 1
node 4 2 0 2
gene 1 1 4 -4.05954 0 1 -4.05954 1
gene 1 2 4 -8 0 2 -8 1
gene 2 3 4 8 0 3 8 1
genomeend 1

/* Organism #2 Fitness: 9 Error: 1 */
genomestart 2
trait 1 0.075 0 0 0 0 0.229649 0 0 
trait 2 0.2 0.0165878 0 0 0 0 0 0 
trait 3 0.225 0 0 0 0 0 0 0 
node 1 3 1 3
node 2 2 1 1
node 3 2 1 1
node 4 2 0 2
gene 1 1 4 -4.06874 0 1 -4.06874 1
gene 1 2 4 -8 0 2 -8 1
gene 2 3 4 8 0 3 8 1
genomeend 2

/* Organism #3 Fitness: 8.99997 Error: 1 */
genomestart 3
trait 1 0.075 0 0 0 0 0.229649 0 0 
trait 2 0.2 0.0165878 0 0 0 0 0 0 
trait 3 0.225 0 0 0 0 0 0 0 
node 1 3 1 3
node 2 2 1 1
node 3 2 1 1
node 4 2 0 2
gene 1 1 4 -4.13886 0 1 -4.13886 1
gene 1 2 4 -6.45751 0 2 -6.45751 1
gene 2 3 4 6.6261 0 3 6.6261 1
genomeend 3

/* Organism #4 Fitness: 9 Error: 1 */
genomestart 4
trait 1 0.075 0 0 0 0 0.229649 0 0 
trait 2 0.2 0.0165878 0 0 0 0 0 0 
trait 3 0.225 0 0 0 0 0 0 0 
node 1 3 1 3
node 2 2 1 1
node 3 2 1 1
node 4 2 0 2
gene 1 1 4 -3.71246 0 1 -3.71246 1
gene 1 2 4 -8 0 2 -8 1
gene 2 3 4 8 0 3 8 1
genomeend 4

/* Organism #5 Fitness: 9 Error: 1 */
genomestart 5
trait 1 0.075 0 0 0 0 0.229649 0 0 
trait 2 0.2 0.0165878 0 0 0 0 0 0 
trait 3 0.225 0 0 0 0 0 0 0 
node 1 3 1 3
node 2 2 1 1
node 3 2 1 1
node 4 2 0 2
gene 1 1 4 -4.06874 0 1 -4.06874 1
gene 1 2 4 -6.99908 0 2 -6.99908 1
gene 2 3 4 8 0 3 8 1
genomeend 5

/* Organism #6 Fitness: 8.99995 Error: 1.00001 */
genomestart 6
trait 1 0.075 0 0 0 0 0.229649 0 0 
trait 2 0.2 0.0165878 0 0 0 0 0 0 
trait 3 0.225 0 0 0 0 0 0 0 
node 1 3 1 3
node 2 2 1 1
node 3 2 1 1
node 4 2 0 2
gene 3 1 4 -3.41815 0 1 -3.41815 1
gene 1 2 4 -8 0 2 -8 1
gene 2 3 4 5.79263 0 3 5.79263 1
genomeend 6

/* Organism #7 Fitness: 9 Error: 1 */
genomestart 7
trait 1 0.075 0 0 0 0 0.229649 0 0 
trait 2 0.2 0.0165878 0 0 0 0 0 0 
trait 3 0.225 0 0 0 0 0 0 0 
node 1 3 1 3
node 2 2 1 1
node 3 2 1 1
node 4 2 0 2
gene 1 1 4 -4.06874 0 1 -4.06874 1
gene 1 2 4 -8 0 2 -8 1
gene 2 3 4 8 0 3 8 1
genomeend 7

/* Organism #8 Fitness: 8.99998 Error: 1 */
genomestart 8
trait 1 0.075 0 0 0 0 0.229649 0 0 
trait 2 0.2 0.0165878 0 0 0 0 0 0 
trait 3 0.225 0 0 0 0 0 0 0 
node 1 3 1 3
node 2 2 1 1
node 3 2 1 1
node 4 2 0 2
gene 1 1 4 -2.67975 0 1 -2.67975 1
gene 1 2 4 -8 0 2 -8 1
gene 2 3 4 8 0 3 8 1
genomeend 8

/* Organism #9 Fitness: 8.98634 Error: 1.00228 */
genomestart 9
trait 1 0.075 0 0 0 0 0.229649 0 0 
trait 2 0.2 0.0165878 0 0 0 0 0 0 
trait 3 0.225 0 0 0 0 0 0 0 
node 1 3 1 3
node 2 2 1 1
node 3 2 1 1
node 4 2 0 2
gene 1 1 4 -1.26516 0 1 -1.26516 1
gene 1 2 4 -6.4751 0 2 -6.4751 1
gene 2 3 4 6.10072 0 3 6.10072 1
genomeend 9

/* Organism #10 Fitness: 4.33393 Error: 1.91819 */
genomestart 10
trait 1 0.1 0 0 0 0 0 0 0 
trait 2 0.2 0.0165878 0 0 0 0 0 0 
trait 3 0.225 0 0 0 0 0 0 0 
node 1 3 1 3
node 2 2 1 1
node 3 2 1 1
node 4 2 0 2
gene 1 1 4 4.9255 0 1 4.9255 1
gene 1 2 4 -5.41653 0 2 -5.41653 1
gene 1 3 4 -2.09656 0 3 -2.09656 1
genomeend 10

/* Species #2 : (Size 9) (AF 6.21385) (Age 23)  */


/* Organism #11 Fitness: 9.07811 Error: 0.98701 */
genomestart 11
trait 1 0.1 0 0 0 0 0 0 0 
trait 2 0.15 0 0 0.116605 0 0.173514 0 0.168516 
trait 3 0.3 0.221611 0 0 0 0 0.158335 0.149065 
node 1 3 1 3
node 2 2 1 1
node 3 2 1 1
node 4 1 0 2
node 7 1 0 0
gene 3 1 4 0.927268 0 1 0.927268 1
gene 3 2 4 -0.134151 0 2 -0.134151 1
gene 1 3 4 -1.29584 0 3 -1.29584 1
gene 3 3 7 -1.16258 0 8 -1.16258 1
gene 3 7 4 -6.61345 0 9 -6.61345 1
gene 2 2 7 -0.788985 0 34 -0.788985 1
genomeend 11

/* Organism #12 Fitness: 4.00285 Error: 1.99929 */
genomestart 12
trait 1 0.1 0 0 0 0 0 0 0 
trait 2 0.15 0 0 0.116605 0 0.173514 0 0.168516 
trait 3 0.3 0.221611 0 0 0 0 0.158335 0.149065 
node 1 3 1 3
node 2 2 1 1
node 3 2 1 1
node 4 1 0 2
node 7 1 0 0
gene 3 1 4 -0.838312 0 1 -0.838312 1
gene 3 2 4 4.43687 0 2 4.43687 1
gene 3 3 4 -0.631698 0 3 -0.631698 1
gene 3 3 7 -1.6902 0 8 -1.6902 1
gene 3 7 4 -7.95907 0 9 -7.95907 1
gene 2 2 7 -1.08851 0 34 -1.08851 1
genomeend 12

/* Organism #13 Fitness: 4.00643 Error: 1.99839 */
genomestart 13
trait 1 0.1 0 0 0 0 0 0 0 
trait 2 0.15 0 0 0.116605 0 0.173514 0 0.168516 
trait 3 0.3 0.221611 0 0 0 0 0.158335 0.149065 
node 1 3 1 3
node 2 2 1 1
node 3 2 1 1
node 4 1 0 2
node 7 1 0 0
gene 3 1 4 -2.27292 0 1 -2.27292 1
gene 3 2 4 0.971651 0 2 0.971651 1
gene 1 3 4 -2.46414 0 3 -2.46414 1
gene 3 3 7 -1.16258 0 8 -1.16258 1
gene 3 7 4 -7.30375 0 9 -7.30375 1
gene 2 2 7 -1.48575 0 34 -1.48575 1
genomeend 13

/* Organism #14 Fitness: 8.77752 Error: 1.03731 */
genomestart 14
trait 1 0.1 0 0 0 0 0 0 0 
trait 2 0.15 0 0 0.116605 0 0.173514 0 0.168516 
trait 3 0.3 0.221611 0 0 0 0 0.158335 0.149065 
node 1 3 1 3
node 2 2 1 1
node 3 2 1 1
node 4 1 0 2
node 7 1 0 0
gene 3 1 4 0.927268 0 1 0.927268 1
gene 3 2 4 -0.134151 0 2 -0.134151 1
gene 3 3 4 -2.32378 0 3 -2.32378 1
gene 3 3 7 -1.16258 0 8 -1.16258 1
gene 3 7 4 -6.71695 0 9 -6.71695 1
gene 2 2 7 -0.788985 0 34 -0.788985 1
genomeend 14

/* Organism #15 Fitness: 4 Error: 2 */
genomestart 15
trait 1 0.1 0 0 0 0 0 0 0 
trait 2 0.15 0 0 0.116605 0 0.173514 0 0.168516 
trait 3 0.3 0.221611 0 0 0 0 0.158335 0.149065 
node 1 3 1 3
node 2 2 1 1
node 3 2 1 1
node 4 1 0 2
node 7 1 0 0
gene 3 1 4 -0.680238 0 1 -0.680238 1
gene 3 2 4 2.25082 0 2 2.25082 1
gene 1 3 4 -1.46845 0 3 -1.46845 1
gene 3 3 7 -0.087614 0 8 -0.087614 1
gene 3 7 4 -7.92304 0 9 -7.92304 1
gene 2 2 7 1.14807 0 34 1.14807 1
genomeend 15

/* Organism #16 Fitness: 4.12878 Error: 1.96806 */
genomestart 16
trait 1 0.1 0 0 0 0 0 0 0 
trait 2 0.15 0 0 0.116605 0 0.173514 0 0.168516 
trait 3 0.3 0.221611 0 0 0 0 0.158335 0.149065 
node 1 3 1 3
node 2 2 1 1
node 3 2 1 1
node 4 1 0 2
node 7 1 0 0
gene 3 1 4 -0.556739 0 1 -0.556739 1
gene 3 2 4 -0.134151 0 2 -0.134151 1
gene 1 3 4 -1.09965 0 3 -1.09965 1
gene 3 3 7 4.20159 0 8 4.20159 1
gene 3 7 4 -8 0 9 -8 1
gene 2 2 7 -1.69541 0 34 -1.69541 1
genomeend 16

/* Organism #17 Fitness: 4 Error: 2 */
genomestart 17
trait 1 0.1 0 0 0 0 0 0 0 
trait 2 0.15 0 0 0.116605 0 0.173514 0 0.168516 
trait 3 0.3 0.221611 0 0 0 0 0.158335 0.149065 
node 1 3 1 3
node 2 2 1 1
node 3 2 1 1
node 4 1 0 2
node 7 1 0 0
gene 3 1 4 -2.491 0 1 -2.491 1
gene 3 2 4 6.0472 0 2 6.0472 1
gene 3 3 4 -2.32378 0 3 -2.32378 1
gene 3 3 7 3.5587 0 8 3.5587 1
gene 3 7 4 -7.19337 0 9 -7.19337 1
gene 2 2 7 2.12279 0 34 2.12279 1
genomeend 17

/* Organism #18 Fitness: 8.98896 Error: 1.00184 */
genomestart 18
trait 1 0.1 0 0 0 0 0 0 0 
trait 2 0.15 0 0 0.116605 0 0.173514 0 0.168516 
trait 3 0.3 0.221611 0 0 0 0 0.158335 0.149065 
node 1 3 1 3
node 2 2 1 1
node 3 2 1 1
node 4 1 0 2
node 7 1 0 0
gene 3 1 4 0.320166 0 1 0.320166 1
gene 3 2 4 2.22948 0 2 2.22948 1
gene 1 3 4 0.958702 0 3 0.958702 1
gene 3 3 7 -3.23722 0 8 -3.23722 1
gene 3 7 4 -8 0 9 -8 1
gene 2 2 7 -2.75012 0 34 -2.75012 1
genomeend 18

/* Organism #19 Fitness: 8.94204 Error: 1.00968 */
genomestart 19
trait 1 0.1 0 0 0 0 0 0 0 
trait 2 0 0.984222 0 0.116605 0 0.277863 0 0.168516 
trait 3 0.3 0.221611 0 0 0 0 0.158335 0.149065 
node 1 3 1 3
node 2 2 1 1
node 3 2 1 1
node 4 1 0 2
node 7 1 0 0
gene 3 1 4 1.50698 0 1 1.50698 1
gene 3 2 4 0.619119 0 2 0.619119 1
gene 1 3 4 0.675043 0 3 0.675043 1
gene 3 3 7 -1.79542 0 8 -1.79542 1
gene 3 7 4 -4.89586 0 9 -4.89586 1
gene 2 2 7 -2.40825 0 34 -2.40825 1
genomeend 19

/* Species #3 : (Size 10) (AF 8.00016) (Age 20)  */


/* Organism #20 Fitness: 9 Error: 1 */
genomestart 20
trait 1 0.1 0 0 0 0 0 0 0 
trait 2 0.2 0 0 0 0 0 0 0 
trait 3 0.3 0 0 0 0 0 0 0 
node 1 3 1 3
node 2 2 1 1
node 3 2 1 1
node 4 2 0 2
node 7 1 0 0
node 15 1 0 0
node 47 1 0 0
gene 3 1 4 3.16617 0 1 3.16617 1
gene 2 2 4 7.40453 0 2 7.40453 1
gene 3 3 4 -1.92059 0 3 -1.92059 0
gene 3 3 7 -5.50243 0 8 -5.50243 1
gene 3 7 4 -7.45171 0 9 -7.45171 1
gene 3 3 15 -3.83549 0 27 -3.83549 1
gene 3 15 7 -3.39612 0 28 -3.39612 0
gene 3 15 47 2.13967 0 127 2.13967 1
gene 3 47 7 2.12419 0 128 2.12419 1
genomeend 20

/* Organism #21 Fitness: 9 Error: 1 */
genomestart 21
trait 1 0.1 0 0 0 0 0 0 0 
trait 2 0.2 0 0 0 0 0 0 0 
trait 3 0.558554 0 0.00991395 0 0 0.162072 0 0 
node 1 1 1 3
node 2 2 1 1
node 3 2 1 1
node 4 2 0 2
node 7 1 0 0
node 15 1 0 0
node 47 1 0 0
gene 3 1 4 3.16617 0 1 3.16617 1
gene 2 2 4 7.40453 0 2 7.40453 1
gene 3 3 4 -1.92059 0 3 -1.92059 0
gene 3 3 7 -5.50243 0 8 -5.50243 1
gene 3 7 4 -7.45171 0 9 -7.45171 1
gene 3 3 15 -3.83549 0 27 -3.83549 1
gene 3 15 7 -3.39612 0 28 -3.39612 0
gene 3 15 47 2.13967 0 127 2.13967 1
gene 3 47 7 2.12419 0 128 2.12419 1
genomeend 21

/* Organism #22 Fitness: 9 Error: 1 */
genomestart 22
trait 1 0.1 0 0 0 0 0 0 0 
trait 2 0.2 0 0 0 0 0 0 0 
trait 3 0.3 0 0 0 0 0 0 0 
node 1 3 1 3
node 2 2 1 1
node 3 2 1 1
node 4 2 0 2
node 7 1 0 0
node 15 1 0 0
node 47 1 0 0
gene 3 1 4 3.41904 0 1 3.41904 1
gene 2 2 4 8 0 2 8 1
gene 3 3 4 -1.86467 0 3 -1.86467 0
gene 3 3 7 -5.3678 0 8 -5.3678 1
gene 3 7 4 -6.89391 0 9 -6.89391 1
gene 3 3 15 -4.13507 0 27 -4.13507 1
gene 3 15 7 1.24505 0 28 1.24505 1
gene 3 15 47 5.0955 0 127 5.0955 1
gene 3 47 7 1.11331 0 128 1.11331 1
genomeend 22

/* Organism #23 Fitness: 9 Error: 1 */
genomestart 23
trait 1 0.1 0 0 0 0 0 0 0 
trait 2 0.2 0 0 0 0 0 0 0 
trait 3 0.3 0 0 0 0 0 0 0 
node 1 3 1 3
node 2 2 1 1
node 3 2 1 1
node 4 2 0 2
node 7 1 0 0
node 15 1 0 0
node 47 1 0 0
gene 3 1 4 4.0829 0 1 4.0829 1
gene 2 2 4 8 0 2 8 1
gene 2 3 4 -2.85659 0 3 -2.85659 0
gene 3 3 7 -6.58916 0 8 -6.58916 1
gene 3 7 4 -7.94442 0 9 -7.94442 1
gene 3 3 15 -5.52783 0 27 -5.52783 1
gene 3 15 7 -2.93529 0 28 -2.93529 0
gene 3 15 47 1.59127 0 127 1.59127 1
gene 3 47 7 0.946345 0 128 0.946345 1
genomeend 23

/* Organism #24 Fitness: 8.99982 Error: 1.00003 */
genomestart 24
trait 1 0.1 0 0 0 0 0 0 0 
trait 2 0.2 0 0 0 0 0 0 0 
trait 3 0.228759 0 0.938096 0.0218809 0 0 0 0.363282 
node 1 3 1 3
node 2 2 1 1
node 3 2 1 1
node 4 2 0 2
node 7 1 0 0
node 15 1 0 0
node 47 1 0 0
gene 3 1 4 3.11957 0 1 3.11957 1
gene 2 2 4 5.06809 0 2 5.06809 1
gene 3 3 4 -0.684507 0 3 -0.684507 0
gene 3 3 7 -4.12794 0 8 -4.12794 1
gene 3 7 4 -6.06471 0 9 -6.06471 1
gene 3 3 15 -5.34108 0 27 -5.34108 1
gene 3 15 7 -5.85365 0 28 -5.85365 0
gene 3 15 47 4.26635 0 127 4.26635 1
gene 3 47 7 2.74679 0 128 2.74679 1
genomeend 24

/* Organism #25 Fitness: 9 Error: 1 */
genomestart 25
trait 1 0.1 0 0 0 0 0 0 0 
trait 2 0.2 0 0 0 0 0 0 0 
trait 3 0.3 0 0 0 0 0 0 0 
node 1 3 1 3
node 2 2 1 1
node 3 2 1 1
node 4 2 0 2
node 7 1 0 0
node 15 1 0 0
node 47 1 0 0
gene 3 1 4 3.07562 0 1 3.07562 1
gene 2 2 4 7.38076 0 2 7.38076 1
gene 3 3 4 -2.12518 0 3 -2.12518 0
gene 3 3 7 -5.87417 0 8 -5.87417 1
gene 3 7 4 -6.98506 0 9 -6.98506 1
gene 3 3 15 -3.35369 0 27 -3.35369 1
gene 3 15 7 -2.32494 0 28 -2.32494 0
gene 3 15 47 2.38724 0 127 2.38724 1
gene 3 47 7 2.09446 0 128 2.09446 1
genomeend 25

/* Organism #26 Fitness: 9 Error: 1 */
genomestart 26
trait 1 0.1 0 0 0 0 0 0 0 
trait 2 0.2 0 0 0 0 0 0 0 
trait 3 0.3 0 0 0 0 0 0 0 
node 1 3 1 3
node 2 2 1 1
node 3 2 1 1
node 4 2 0 2
node 7 1 0 0
node 15 1 0 0
node 47 1 0 0
gene 3 1 4 2.98506 0 1 2.98506 1
gene 2 2 4 7.40453 0 2 7.40453 1
gene 3 3 4 -2.32976 0 3 -2.32976 0
gene 3 3 7 -5.50243 0 8 -5.50243 1
gene 3 7 4 -6.51841 0 9 -6.51841 1
gene 3 3 15 -2.87188 0 27 -2.87188 1
gene 3 15 7 -1.25377 0 28 -1.25377 0
gene 3 15 47 2.13967 0 127 2.13967 1
gene 3 47 7 2.06473 0 128 2.06473 1
genomeend 26

/* Organism #27 Fitness: 8.99993 Error: 1.00001 */
genomestart 27
trait 1 0.1 0 0 0 0 0 0 0 
trait 2 0.2 0 0 0 0 0 0 0 
trait 3 0.3 0 0 0 0 0 0 0 
node 1 1 1 3
node 2 2 1 1
node 3 2 1 1
node 4 2 0 2
node 7 1 0 0
node 15 1 0 0
node 47 1 0 0
gene 3 1 4 5.02216 0 1 5.02216 1
gene 2 2 4 5.3225 0 2 5.3225 1
gene 3 3 4 -2.16688 0 3 -2.16688 1
gene 3 3 7 -5.10571 0 8 -5.10571 1
gene 3 7 4 -8 0 9 -8 1
gene 3 3 15 -2.69124 0 27 -2.69124 1
gene 3 15 7 -2.98151 0 28 -2.98151 0
gene 3 15 47 1.55053 0 127 1.55053 1
gene 3 47 7 2.2649 0 128 2.2649 1
genomeend 27

/* Organism #28 Fitness: 4 Error: 2 */
genomestart 28
trait 1 0.1 0 0 0 0 0 0 0 
trait 2 0.2 0 0 0 0 0 0 0 
trait 3 0.3 0 0 0 0 0 0 0 
node 1 3 1 3
node 2 2 1 1
node 3 2 1 1
node 4 2 0 2
node 7 1 0 0
node 15 1 0 0
node 47 1 0 0
gene 3 1 4 2.64526 0 1 2.64526 1
gene 2 2 4 7.64538 0 2 7.64538 1
gene 3 3 4 -2.21002 0 3 -2.21002 0
gene 3 3 7 -7.11203 0 8 -7.11203 1
gene 3 7 4 -8 0 9 -8 1
gene 3 3 15 -2.16861 0 27 -2.16861 1
gene 3 15 7 -5.09532 0 28 -5.09532 1
gene 3 15 47 2.05375 0 127 2.05375 1
gene 3 47 7 -0.163168 0 128 -0.163168 1
genomeend 28

/* Organism #29 Fitness: 4.00185 Error: 1.99954 */
genomestart 29
trait 1 0.1 0 0 0 0 0 0 0 
trait 2 0.2 0 0 0 0 0 0 0 
trait 3 0.3 0 0 0 0 0 0 0 
node 1 3 1 3
node 2 2 1 1
node 3 2 1 1
node 4 2 0 2
node 7 1 0 0
node 15 1 0 0
node 47 1 0 0
gene 3 1 4 0.860441 0 1 0.860441 1
gene 2 2 4 5.93274 0 2 5.93274 1
gene 3 3 4 -2.32976 0 3 -2.32976 0
gene 3 3 7 1.39627 0 8 1.39627 1
gene 3 7 4 -5.83286 0 9 -5.83286 1
gene 3 3 15 -1.0936 0 27 -1.0936 1
gene 3 15 7 -3.18563 0 28 -3.18563 0
gene 3 15 47 2.94438 0 127 2.94438 1
gene 3 47 7 1.26742 0 128 1.26742 1
genomeend 29

/* Species #4 : (Size 8) (AF 6.57077) (Age 19)  */


/* Organism #30 Fitness: 8.99922 Error: 1.00013 */
genomestart 30
trait 1 0.1 0 0 0 0 0 0 0 
trait 2 0.2 0 0 0 0 0 0 0 
trait 3 0.3 0 0 0 0 0 0 0 
node 1 3 1 3
node 2 2 1 1
node 3 2 1 1
node 4 2 0 2
node 7 1 0 0
node 16 1 0 0
gene 3 1 4 -4.16379 0 1 -4.16379 1
gene 2 2 4 -4.80129 0 2 -4.80129 1
gene 3 3 4 3.95834 0 3 3.95834 1
gene 3 3 7 -1.0431 0 8 -1.0431 1
gene 3 7 4 3.9911 0 9 3.9911 0
gene 2 7 16 -4.06083 0 30 -4.06083 1
gene 3 16 4 6.77502 0 31 6.77502 1
genomeend 30

/* Organism #31 Fitness: 4.97065 Error: 1.7705 */
genomestart 31
trait 1 0.1 0 0 0 0 0 0 0 
trait 2 0.2 0 0 0 0 0 0 0 
trait 3 0.3 0 0 0 0 0 0 0 
node 1 3 1 3
node 2 2 1 1
node 3 2 1 1
node 4 2 0 2
node 7 1 0 0
node 16 1 0 0
gene 3 1 4 -4.16379 0 1 -4.16379 1
gene 2 2 4 -2.91426 0 2 -2.91426 1
gene 3 3 4 3.95834 0 3 3.95834 0
gene 3 3 7 -1.15507 0 8 -1.15507 1
gene 3 7 4 1.15902 0 9 1.15902 0
gene 2 7 16 -2.47216 0 30 -2.47216 1
gene 3 16 4 8 0 31 8 1
genomeend 31

/* Organism #32 Fitness: 8.49906 Error: 1.08469 */
genomestart 32
trait 1 0.1 0 0 0 0 0 0 0 
trait 2 0.2 0 0 0 0 0 0 0 
trait 3 0.3 0 0 0 0 0 0 0 
node 1 3 1 3
node 2 2 1 1
node 3 2 1 1
node 4 2 0 2
node 7 1 0 0
node 16 1 0 0
gene 3 1 4 -3.05673 0 1 -3.05673 1
gene 2 2 4 -5.00786 0 2 -5.00786 1
gene 3 3 4 2.83128 0 3 2.83128 0
gene 2 3 7 -1.72928 0 8 -1.72928 1
gene 3 7 4 2.93258 0 9 2.93258 0
gene 2 7 16 -3.95717 0 30 -3.95717 1
gene 3 16 4 7.09408 0 31 7.09408 1
genomeend 32

/* Organism #33 Fitness: 4 Error: 2 */
genomestart 33
trait 1 0.1 0 0 0 0 0 0 0 
trait 2 0.2 0 0 0 0 0 0 0 
trait 3 0.3 0 0 0 0 0 0 0 
node 1 3 1 3
node 2 2 1 1
node 3 2 1 1
node 4 2 0 2
node 7 1 0 0
node 16 1 0 0
gene 3 1 4 -1.39135 0 1 -1.39135 1
gene 2 2 4 -5.90389 0 2 -5.90389 1
gene 3 3 4 2.24481 0 3 2.24481 0
gene 2 3 7 2.04713 0 8 2.04713 1
gene 3 7 4 3.21744 0 9 3.21744 0
gene 2 7 16 -4.2892 0 30 -4.2892 1
gene 3 16 4 6.19229 0 31 6.19229 1
genomeend 33

/* Organism #34 Fitness: 8.99946 Error: 1.00009 */
genomestart 34
trait 1 0.1 0 0 0 0 0 0 0 
trait 2 0.2 0 0 0 0 0 0 0 
trait 3 0.3 0 0 0 0 0 0 0 
node 1 3 1 3
node 2 2 1 1
node 3 2 1 1
node 4 2 0 2
node 7 1 0 0
node 16 1 0 0
node 72 1 0 0
gene 3 1 4 -4.16379 0 1 -4.16379 1
gene 2 2 4 -5.21443 0 2 -5.21443 1
gene 3 3 4 3.95834 0 3 3.95834 0
gene 3 3 7 -1.0431 0 8 -1.0431 1
gene 3 7 4 3.9911 0 9 3.9911 0
gene 2 7 16 -3.85351 0 30 -3.85351 1
gene 3 16 4 7.41314 0 31 7.41314 1
gene 3 3 72 1 0 209 0 1
gene 3 72 4 3.95834 0 210 0 1
genomeend 34

/* Organism #35 Fitness: 4 Error: 2 */
genomestart 35
trait 1 0.1 0 0 0 0 0 0 0 
trait 2 0.2 0 0 0 0 0 0 0 
trait 3 0.3 0 0 0 0 0 0 0 
node 1 3 1 3
node 2 2 1 1
node 3 2 1 1
node 4 2 0 2
node 7 1 0 0
node 16 1 0 0
gene 3 1 4 -3.1355 0 1 -3.1355 1
gene 2 2 4 -2.96264 0 2 -2.96264 1
gene 3 3 4 3.60272 0 3 3.60272 0
gene 2 3 7 2.14153 0 8 2.14153 1
gene 3 7 4 0.260878 0 9 0.260878 0
gene 2 7 16 -2.51535 0 30 -2.51535 1
gene 3 16 4 8 0 31 8 1
genomeend 35

/* Organism #36 Fitness: 8.92457 Error: 1.0126 */
genomestart 36
trait 1 0.1 0 0 0 0 0 0 0 
trait 2 0.2 0 0 0 0 0 0 0 
trait 3 0.3 0 0 0 0 0 0 0 
node 1 3 1 3
node 2 2 1 1
node 3 2 1 1
node 4 2 0 2
node 7 1 0 0
node 16 1 0 0
gene 3 1 4 -2.28288 0 1 -2.28288 1
gene 2 2 4 -5.25532 0 2 -5.25532 1
gene 3 3 4 3.16657 0 3 3.16657 1
gene 3 3 7 0.0703336 0 8 0.0703336 1
gene 3 7 4 1.65511 0 9 1.65511 0
gene 2 7 16 -2.62987 0 30 -2.62987 1
gene 3 16 4 4.414 0 31 4.414 1
genomeend 36

/* Organism #37 Fitness: 4.17321 Error: 1.95716 */
genomestart 37
trait 1 0.1 0 0 0 0 0 0 0 
trait 2 0.2 0 0 0 0 0 0 0 
trait 3 0.3 0 0 0 0 0 0 0 
node 1 3 1 3
node 2 2 1 1
node 3 2 1 1
node 4 2 0 2
node 7 1 0 0
node 16 1 0 0
gene 3 1 4 -3.45163 0 1 -3.45163 1
gene 2 2 4 -4.58571 0 2 -4.58571 1
gene 3 3 4 -0.0150747 0 3 -0.0150747 0
gene 2 3 7 -1.86983 0 8 -1.86983 1
gene 3 7 4 3.79138 0 9 3.79138 0
gene 2 7 16 -1.57022 0 30 -1.57022 1
gene 3 16 4 5.64379 0 31 5.64379 1
genomeend 37

/* Species #5 : (Size 8) (AF 4.58965) (Age 19)  */


/* Organism #38 Fitness: 8.96382 Error: 1.00604 */
genomestart 38
trait 1 0.1 0 0 0 0 0 0 0 
trait 2 0.2125 0 0 0 0 0 0 0 
trait 3 0.301229 0.0200507 0 0 0 0.00273827 0 0 
node 1 3 1 3
node 2 2 1 1
node 3 2 1 1
node 4 2 0 2
node 7 1 0 0
node 17 1 0 0
gene 3 1 4 -2.05304 0 1 -2.05304 1
gene 3 2 4 -4.44278 0 2 -4.44278 0
gene 3 3 4 0.835638 0 3 0.835638 0
gene 3 3 7 0.525009 0 8 0.525009 1
gene 3 7 4 -4.64989 0 9 -4.64989 1
gene 3 2 17 4.90767 0 32 4.90767 1
gene 3 17 4 4.29583 0 33 4.29583 1
gene 2 2 7 -0.498571 0 48 -0.498571 1
gene 3 1 7 0.154928 0 184 0.154928 1
genomeend 38

/* Organism #39 Fitness: 4.76009 Error: 1.81824 */
genomestart 39
trait 1 0.1 0 0 0 0 0 0 0 
trait 2 0.2125 0 0 0 0 0 0 0 
trait 3 0.301229 0.0200507 0 0 0 0.00273827 0 0 
node 1 3 1 3
node 2 2 1 1
node 3 2 1 1
node 4 2 0 2
node 7 1 0 0
node 17 1 0 0
gene 3 1 4 0.126047 0 1 0.126047 1
gene 3 2 4 -3.4483 0 2 -3.4483 0
gene 3 3 4 2.75044 0 3 2.75044 0
gene 3 3 7 -1.83707 0 8 -1.83707 1
gene 3 7 4 -4.64989 0 9 -4.64989 1
gene 3 2 17 7.04798 0 32 7.04798 1
gene 3 17 4 -0.777908 0 33 -0.777908 1
gene 2 2 7 -2.9597 0 48 -2.9597 1
gene 3 1 7 0.8858 0 184 0.8858 1
genomeend 39

/* Organism #40 Fitness: 4.00001 Error: 2 */
genomestart 40
trait 1 0.1 0 0 0 0 0 0 0 
trait 2 0.2125 0 0 0 0 0 0 0 
trait 3 0.301229 0.0200507 0 0 0 0.00273827 0 0 
node 1 3 1 3
node 2 2 1 1
node 3 2 1 1
node 4 2 0 2
node 7 1 0 0
node 17 1 0 0
gene 3 1 4 -2.20061 0 1 -2.20061 1
gene 3 2 4 -1.09155 0 2 -1.09155 0
gene 3 3 4 3.06316 0 3 3.06316 0
gene 3 3 7 1.51454 0 8 1.51454 1
gene 3 7 4 -5.39593 0 9 -5.39593 1
gene 3 2 17 2.49034 0 32 2.49034 1
gene 3 17 4 5.22154 0 33 5.22154 1
gene 2 2 7 -0.554993 0 48 -0.554993 1
gene 3 1 7 1.48237 0 184 1.48237 1
genomeend 40

/* Organism #41 Fitness: 1.55438 Error: 2.75325 */
genomestart 41
trait 1 0.1 0 0 0 0 0 0 0 
trait 2 0.2125 0 0 0 0 0 0 0 
trait 3 0.301229 0.0200507 0 0 0 0.00273827 0 0 
node 1 3 1 3
node 2 2 1 1
node 3 2 1 1
node 4 2 0 2
node 7 1 0 0
node 17 1 0 0
gene 3 1 4 -1.36973 0 1 -1.36973 1
gene 3 2 4 -6.6771 0 2 -6.6771 0
gene 3 3 4 2.47912 0 3 2.47912 0
gene 3 3 7 1.88482 0 8 1.88482 1
gene 3 7 4 -3.46094 0 9 -3.46094 1
gene 3 2 17 3.18476 0 32 3.18476 1
gene 3 17 4 3.20263 0 33 3.20263 1
gene 2 2 7 -1.34671 0 48 -1.34671 1
gene 3 1 7 -1.97887 0 184 -1.97887 1
genomeend 41

/* Organism #42 Fitness: 3.95734 Error: 2.01069 */
genomestart 42
trait 1 0.1 0 0 0 0 0 0 0 
trait 2 0.2125 0 0 0 0 0 0 0 
trait 3 0.301229 0.0200507 0 0 0 0.00273827 0 0 
node 1 3 1 3
node 2 2 1 1
node 3 2 1 1
node 4 2 0 2
node 7 1 0 0
node 17 1 0 0
gene 3 1 4 -4.12435 0 1 -4.12435 1
gene 3 2 4 -5.8936 0 2 -5.8936 0
gene 3 3 4 -0.295908 0 3 -0.295908 0
gene 3 3 7 -0.216719 0 8 -0.216719 1
gene 3 7 4 -3.73774 0 9 -3.73774 1
gene 3 2 17 2.70999 0 32 2.70999 1
gene 3 17 4 5.34483 0 33 5.34483 1
gene 2 2 7 1.95033 0 48 1.95033 1
gene 3 1 7 -1.67507 0 184 -1.67507 1
genomeend 42

/* Organism #43 Fitness: 2.25778 Error: 2.49741 */
genomestart 43
trait 1 0.1 0 0 0 0 0 0 0 
trait 2 0.2125 0 0 0 0 0 0 0 
trait 3 0.301229 0.0200507 0 0 0 0.00273827 0 0 
node 1 3 1 3
node 2 2 1 1
node 3 2 1 1
node 4 2 0 2
node 7 1 0 0
node 17 1 0 0
gene 3 1 4 -0.450967 0 1 -0.450967 1
gene 3 2 4 -4.29141 0 2 -4.29141 1
gene 3 3 4 2.86953 0 3 2.86953 0
gene 3 3 7 2.15009 0 8 2.15009 1
gene 3 7 4 -2.91761 0 9 -2.91761 1
gene 3 2 17 4.71233 0 32 4.71233 1
gene 3 17 4 6.73504 0 33 6.73504 1
gene 2 2 7 -2.05083 0 48 -2.05083 1
gene 3 1 7 -0.279927 0 184 -0.279927 1
genomeend 43

/* Organism #44 Fitness: 7.2566 Error: 1.30619 */
genomestart 44
trait 1 0.1 0 0 0 0 0 0 0 
trait 2 0.2125 0.215848 0 0 0 0 0.72553 0.346434 
trait 3 0.301229 0.0200507 0 0 0 0.00273827 0 0 
node 1 3 1 3
node 2 2 1 1
node 3 2 1 1
node 4 2 0 2
node 7 1 0 0
node 17 1 0 0
gene 3 1 4 -2.05304 0 1 -2.05304 1
gene 3 2 4 -2.21711 0 2 -2.21711 0
gene 3 3 4 3.28263 0 3 3.28263 0
gene 3 3 7 2.31839 0 8 2.31839 1
gene 3 7 4 -4.64989 0 9 -4.64989 1
gene 3 2 17 5.06346 0 32 5.06346 1
gene 3 17 4 2.23304 0 33 2.23304 1
gene 2 2 7 0.910424 0 48 0.910424 1
gene 3 1 7 -2.324 0 184 -2.324 1
genomeend 44

/* Organism #45 Fitness: 3.96722 Error: 2.00821 */
genomestart 45
trait 1 0.1 0 0 0 0 0 0 0 
trait 2 0.2125 0 0 0 0 0 0 0 
trait 3 0.301229 0.0200507 0 0 0 0.00273827 0 0 
node 1 3 1 3
node 2 2 1 1
node 3 2 1 1
node 4 2 0 2
node 7 1 0 0
node 17 1 0 0
gene 3 1 4 -2.73344 0 1 -2.73344 1
gene 3 2 4 -4.83103 0 2 -4.83103 0
gene 3 3 4 -0.780872 0 3 -0.780872 0
gene 3 3 7 2.83943 0 8 2.83943 1
gene 3 7 4 -4.8879 0 9 -4.8879 1
gene 3 2 17 5.51626 0 32 5.51626 1
gene 3 17 4 4.02329 0 33 4.02329 1
gene 2 2 7 1.60419 0 48 1.60419 1
gene 3 1 7 -0.591636 0 184 -0.591636 1
genomeend 45

/* Species #6 : (Size 6) (AF 5.50124) (Age 19)  */


/* Organism #46 Fitness: 8.99902 Error: 1.00016 */
genomestart 46
trait 1 0.55 0.291963 0 0 0 0 0 0 
trait 2 0.2 0 0 0 0 0 0 0 
trait 3 0.3 0 0 0 0 0 0 0 
node 1 3 1 3
node 2 2 1 1
node 3 2 1 1
node 4 2 0 2
node 7 1 0 0
node 45 1 0 0
gene 3 1 4 0.696061 0 1 0.696061 1
gene 3 2 4 1.19273 0 2 1.19273 1
gene 3 3 4 -0.099068 0 3 -0.099068 1
gene 3 3 7 5.57885 0 8 5.57885 1
gene 2 7 4 -3.74013 0 9 -3.74013 1
gene 2 2 7 -2.97008 0 21 -2.97008 0
gene 1 1 7 3.07915 0 35 3.07915 1
gene 2 2 45 8 0 121 8 1
gene 2 45 7 -5.4479 0 122 -5.4479 1
genomeend 46

/* Organism #47 Fitness: 4 Error: 2 */
genomestart 47
trait 1 0.55 0.291963 0 0 0 0 0 0 
trait 2 0.2 0 0 0 0 0 0 0 
trait 3 0.3 0 0 0 0 0 0 0 
node 1 1 1 3
node 2 2 1 1
node 3 2 1 1
node 4 2 0 2
node 7 1 0 0
node 45 1 0 0
gene 3 1 4 -1.35892 0 1 -1.35892 1
gene 3 2 4 0.512666 0 2 0.512666 1
gene 3 3 4 0.283227 0 3 0.283227 1
gene 3 3 7 6.89188 0 8 6.89188 1
gene 2 7 4 -3.78244 0 9 -3.78244 1
gene 2 2 7 -0.908631 0 21 -0.908631 1
gene 3 1 7 7.07979 0 35 7.07979 1
gene 2 2 45 8 0 121 8 1
gene 2 45 7 -6.08165 0 122 -6.08165 1
genomeend 47

/* Organism #48 Fitness: 1.00097 Error: 2.99952 */
genomestart 48
trait 1 0.55 0.291963 0 0 0 0 0 0 
trait 2 0.2 0 0 0 0 0 0 0 
trait 3 0.3 0 0 0 0 0 0 0 
node 1 3 1 3
node 2 2 1 1
node 3 2 1 1
node 4 2 0 2
node 7 1 0 0
node 45 1 0 0
gene 3 1 4 1.57458 0 1 1.57458 1
gene 3 2 4 3.19266 0 2 3.19266 1
gene 3 3 4 -2.53313 0 3 -2.53313 1
gene 3 3 7 4.10137 0 8 4.10137 1
gene 2 7 4 -2.16152 0 9 -2.16152 1
gene 2 2 7 -2.37353 0 21 -2.37353 0
gene 1 1 7 2.56878 0 35 2.56878 1
gene 2 2 45 8 0 121 8 1
gene 2 45 7 -7.25034 0 122 -7.25034 1
genomeend 48

/* Organism #49 Fitness: 1.01963 Error: 2.99024 */
genomestart 49
trait 1 0.55 0.291963 0 0 0 0 0 0 
trait 2 0.2 0 0 0 0 0 0 0 
trait 3 0.610768 0 0 0 0 0.776587 0 0 
node 1 3 1 3
node 2 2 1 1
node 3 2 1 1
node 4 2 0 2
node 7 1 0 0
node 45 1 0 0
gene 3 1 4 2.30526 0 1 2.30526 1
gene 3 2 4 -0.480514 0 2 -0.480514 1
gene 3 3 4 0.512888 0 3 0.512888 1
gene 3 3 7 5.24378 0 8 5.24378 1
gene 2 7 4 -3.75404 0 9 -3.75404 1
gene 2 2 7 -1.52648 0 21 -1.52648 0
gene 1 1 7 1.58644 0 35 1.58644 1
gene 2 2 45 8 0 121 8 1
gene 2 45 7 -8 0 122 -8 1
genomeend 49

/* Organism #50 Fitness: 8.99173 Error: 1.00138 */
genomestart 50
trait 1 0.55 0.291963 0 0 0 0 0 0 
trait 2 0.2 0 0 0 0 0 0 0 
trait 3 0.3 0 0 0 0 0 0 0 
node 1 3 1 3
node 2 2 1 1
node 3 2 1 1
node 4 2 0 2
node 7 1 0 0
node 45 1 0 0
gene 3 1 4 -0.298658 0 1 -0.298658 1
gene 3 2 4 1.63589 0 2 1.63589 1
gene 3 3 4 -1.49459 0 3 -1.49459 1
gene 3 3 7 5.3176 0 8 5.3176 1
gene 2 7 4 -4.25427 0 9 -4.25427 1
gene 2 2 7 -3.37014 0 21 -3.37014 1
gene 1 1 7 5.34529 0 35 5.34529 1
gene 2 2 45 8 0 121 8 1
gene 2 45 7 -6.72395 0 122 -6.72395 1
genomeend 50

/* Organism #51 Fitness: 8.9961 Error: 1.00065 */
genomestart 51
trait 1 0.55 0.291963 0 0 0 0 0 0 
trait 2 0.2 0 0 0 0 0 0 0 
trait 3 0.3 0 0 0 0 0 0 0 
node 1 1 1 3
node 2 2 1 1
node 3 2 1 1
node 4 2 0 2
node 7 1 0 0
node 45 1 0 0
gene 3 1 4 0.981961 0 1 0.981961 1
gene 3 2 4 3.44066 0 2 3.44066 1
gene 3 3 4 -1.08042 0 3 -1.08042 1
gene 3 3 7 4.16318 0 8 4.16318 1
gene 2 7 4 -4.85004 0 9 -4.85004 1
gene 2 2 7 -5.45902 0 21 -5.45902 0
gene 3 1 7 8 0 35 8 1
gene 2 2 45 5.61251 0 121 5.61251 1
gene 1 45 7 -8 0 122 -8 1
genomeend 51

/* Species #8 : (Size 8) (AF 5.12666) (Age 18)  */


/* Organism #52 Fitness: 8.99818 Error: 1.0003 */
genomestart 52
trait 1 0.1 0 0 0 0 0.150562 0 0.25096 
trait 2 0.2 0.0663514 0 0 0 0 0 0 
trait 3 0.3 0.395982 0.508063 0 0 0 0 0 
node 1 3 1 3
node 2 2 1 1
node 3 2 1 1
node 4 1 0 2
node 7 1 0 0
node 18 1 0 0
node 26 1 0 0
gene 3 1 4 1.93347 0 1 1.93347 1
gene 2 2 4 4.3133 0 2 4.3133 1
gene 3 3 4 -4.35059 0 3 -4.35059 0
gene 3 3 7 -1.18957 0 8 -1.18957 1
gene 3 7 4 -6.80055 0 9 -6.80055 0
gene 3 7 18 -2.63474 0 38 -2.63474 1
gene 3 18 4 -3.77687 0 39 -3.77687 0
gene 3 18 26 1.94865 0 63 1.94865 1
gene 3 26 4 -8 0 64 -8 1
genomeend 52

/* Organism #53 Fitness: 2.695 Error: 2.35836 */
genomestart 53
trait 1 0.1 0 0 0 0 0.150562 0 0.25096 
trait 2 0.2 0.0663514 0 0 0 0 0 0 
trait 3 0.3 0.395982 0.508063 0 0 0 0 0 
node 1 3 1 3
node 2 2 1 1
node 3 2 1 1
node 4 1 0 2
node 7 1 0 0
node 18 1 0 0
node 26 1 0 0
gene 3 1 4 3.3376 0 1 3.3376 1
gene 2 2 4 -2.27725 0 2 -2.27725 1
gene 3 3 4 -3.9942 0 3 -3.9942 0
gene 3 3 7 -2.49629 0 8 -2.49629 1
gene 3 7 4 -0.650221 0 9 -0.650221 0
gene 3 7 18 -2.63474 0 38 -2.63474 1
gene 3 18 4 -2.19282 0 39 -2.19282 0
gene 3 18 26 1.94865 0 63 1.94865 1
gene 3 26 4 -6.86172 0 64 -6.86172 1
genomeend 53

/* Organism #54 Fitness: 4.00096 Error: 1.99976 */
genomestart 54
trait 1 0.1 0 0 0 0 0.150562 0 0.25096 
trait 2 0.2 0.0663514 0 0 0 0 0 0 
trait 3 0.3 0.395982 0.508063 0 0 0 0 0 
node 1 3 1 3
node 2 2 1 1
node 3 2 1 1
node 4 1 0 2
node 7 1 0 0
node 18 1 0 0
node 26 1 0 0
gene 3 1 4 -0.447804 0 1 -0.447804 1
gene 2 2 4 2.76896 0 2 2.76896 1
gene 3 3 4 -1.99665 0 3 -1.99665 0
gene 3 3 7 -1.9699 0 8 -1.9699 1
gene 3 7 4 -5.9246 0 9 -5.9246 0
gene 3 7 18 -2.9126 0 38 -2.9126 1
gene 3 18 4 -3.07746 0 39 -3.07746 0
gene 3 18 26 1.7766 0 63 1.7766 1
gene 3 26 4 -8 0 64 -8 1
genomeend 54

/* Organism #55 Fitness: 7.39196 Error: 1.28118 */
genomestart 55
trait 1 0 0 0 0 0.604626 0.844266 0 0 
trait 2 0.2 0.0663514 0 0 0 0 0 0 
trait 3 0.3 0.395982 0.508063 0 0 0 0 0 
node 1 3 1 3
node 2 2 1 1
node 3 2 1 1
node 4 1 0 2
node 7 1 0 0
node 18 1 0 0
node 26 1 0 0
gene 3 1 4 0.188555 0 1 0.188555 1
gene 2 2 4 4.4323 0 2 4.4323 1
gene 3 3 4 0.312316 0 3 0.312316 1
gene 3 3 7 -1.18957 0 8 -1.18957 1
gene 3 7 4 -0.615841 0 9 -0.615841 0
gene 3 7 18 -3.58616 0 38 -3.58616 1
gene 3 18 4 -1.31389 0 39 -1.31389 0
gene 3 18 26 0.251404 0 63 0.251404 1
gene 3 26 4 -8 0 64 -8 1
genomeend 55

/* Organism #56 Fitness: 5.92537 Error: 1.56579 */
genomestart 56
trait 1 0.1 0 0.554908 0.541742 0 0.150562 0 0 
trait 2 0.2 0.0663514 0 0 0 0 0 0 
trait 3 0.3 0.395982 0.508063 0 0 0 0 0 
node 1 3 1 3
node 2 2 1 1
node 3 2 1 1
node 4 1 0 2
node 7 1 0 0
node 18 1 0 0
node 26 1 0 0
gene 3 1 4 -0.0174888 0 1 -0.0174888 1
gene 2 2 4 2.7672 0 2 2.7672 1
gene 1 3 4 -6.37703 0 3 -6.37703 0
gene 3 3 7 -1.93788 0 8 -1.93788 1
gene 3 7 4 -6.1702 0 9 -6.1702 0
gene 3 7 18 -3.44853 0 38 -3.44853 1
gene 3 18 4 -3.73634 0 39 -3.73634 0
gene 3 18 26 0.876054 0 63 0.876054 1
gene 3 26 4 -5.60442 0 64 -5.60442 1
genomeend 56

/* Organism #57 Fitness: 4.00024 Error: 1.99994 */
genomestart 57
trait 1 0.1 0 0 0 0 0.150562 0 0.25096 
trait 2 0.2 0.0663514 0 0 0 0 0 0 
trait 3 0.3 0.395982 0.508063 0 0 0 0 0 
node 1 3 1 3
node 2 2 1 1
node 3 2 1 1
node 4 1 0 2
node 7 1 0 0
node 18 1 0 0
node 26 1 0 0
gene 3 1 4 0.735218 0 1 0.735218 1
gene 2 2 4 1.13724 0 2 1.13724 1
gene 3 3 4 -3.93145 0 3 -3.93145 0
gene 3 3 7 -0.520889 0 8 -0.520889 1
gene 3 7 4 -8 0 9 -8 0
gene 3 7 18 -2.32008 0 38 -2.32008 1
gene 3 18 4 -6.09629 0 39 -6.09629 0
gene 3 18 26 3.04523 0 63 3.04523 1
gene 3 26 4 2.41426 0 64 2.41426 1
genomeend 57

/* Organism #58 Fitness: 4.00001 Error: 2 */
genomestart 58
trait 1 0.1 0 0 0 0 0.150562 0 0.25096 
trait 2 0.2 0.0663514 0 0 0 0 0 0 
trait 3 0.3 0.395982 0.508063 0 0 0 0 0 
node 1 3 1 3
node 2 2 1 1
node 3 2 1 1
node 4 1 0 2
node 7 1 0 0
node 18 1 0 0
node 26 1 0 0
gene 3 1 4 -0.456597 0 1 -0.456597 1
gene 1 2 4 2.85229 0 2 2.85229 1
gene 3 3 4 -4.52751 0 3 -4.52751 0
gene 3 3 7 -2.08003 0 8 -2.08003 1
gene 3 7 4 -4.45005 0 9 -4.45005 1
gene 3 7 18 -5.10363 0 38 -5.10363 1
gene 3 18 4 -5.57702 0 39 -5.57702 0
gene 3 18 26 0.645824 0 63 0.645824 1
gene 3 26 4 -5.54447 0 64 -5.54447 1
gene 2 1 7 -1.30986 0 205 -1.30986 1
genomeend 58

/* Organism #59 Fitness: 4.0016 Error: 1.9996 */
genomestart 59
trait 1 0.1 0 0 0 0 0.150562 0 0.25096 
trait 2 0.2 0.0663514 0 0 0 0 0 0 
trait 3 0.3 0.395982 0.508063 0 0 0 0 0 
node 1 2 1 3
node 2 2 1 1
node 3 2 1 1
node 4 1 0 2
node 7 1 0 0
node 18 1 0 0
node 26 1 0 0
gene 3 1 4 1.33831 0 1 1.33831 1
gene 2 2 4 5.68102 0 2 5.68102 1
gene 3 3 4 -3.30763 0 3 -3.30763 0
gene 3 3 7 -0.850695 0 8 -0.850695 1
gene 3 7 4 -0.294403 0 9 -0.294403 0
gene 3 7 18 -1.71094 0 38 -1.71094 1
gene 3 18 4 1.28953 0 39 1.28953 0
gene 3 18 26 -0.101349 0 63 -0.101349 1
gene 3 26 4 -6.50035 0 64 -6.50035 1
gene 2 1 7 0.106676 0 205 0.106676 1
genomeend 59

/* Species #9 : (Size 6) (AF 6.35341) (Age 18)  */


/* Organism #60 Fitness: 9 Error: 1 */
genomestart 60
trait 1 0.75108 0.426661 0 0 0 0.460069 0.384813 0 
trait 2 0.2 0.0663514 0 0 0 0 0 0 
trait 3 0.136844 0 0.785146 0.170818 0 0 0.679579 0 
node 1 2 1 3
node 2 3 1 1
node 3 1 1 1
node 4 3 0 2
node 7 1 0 0
gene 3 1 4 -2.40113 0 1 -2.40113 1
gene 2 2 4 -2.97741 0 2 -2.97741 1
gene 3 3 4 7.57074 0 3 7.57074 1
gene 3 3 7 -1.65163 0 8 -1.65163 1
gene 3 7 4 -7.93067 0 9 -7.93067 1
gene 2 2 7 1.29643 0 21 1.29643 1
gene 3 1 7 0.961073 0 43 0.961073 1
genomeend 60

/* Organism #61 Fitness: 4.00001 Error: 2 */
genomestart 61
trait 1 0.75108 0.426661 0 0 0 0.460069 0.384813 0 
trait 2 0.2 0.0663514 0 0 0 0 0 0 
trait 3 0.136844 0 0.785146 0.170818 0 0 0.679579 0 
node 1 2 1 3
node 2 3 1 1
node 3 1 1 1
node 4 3 0 2
node 7 1 0 0
gene 3 1 4 -0.4404 0 1 -0.4404 1
gene 2 2 4 -1.21502 0 2 -1.21502 1
gene 3 3 4 5.6074 0 3 5.6074 1
gene 3 3 7 -1.41291 0 8 -1.41291 1
gene 3 7 4 -7.83331 0 9 -7.83331 1
gene 2 2 7 1.68106 0 21 1.68106 1
gene 3 1 7 2.61519 0 43 2.61519 1
genomeend 61

/* Organism #62 Fitness: 8.99947 Error: 1.00009 */
genomestart 62
trait 1 0.75108 0.426661 0 0 0 0.460069 0.384813 0 
trait 2 0.1 0.0663514 0 0.395844 0 0 0 0 
trait 3 0.136844 0.588693 0.785146 0.355183 0 0 0.679579 0.419459 
node 1 2 1 3
node 2 3 1 1
node 3 1 1 1
node 4 3 0 2
node 7 1 0 0
gene 3 1 4 -3.74102 0 1 -3.74102 1
gene 2 2 4 -4.11377 0 2 -4.11377 1
gene 3 3 4 5.68088 0 3 5.68088 1
gene 3 3 7 -1.99686 0 8 -1.99686 1
gene 1 7 4 -7.53467 0 9 -7.53467 1
gene 2 2 7 0.439507 0 21 0.439507 1
gene 3 1 7 0.876784 0 43 0.876784 1
genomeend 62

/* Organism #63 Fitness: 4 Error: 2 */
genomestart 63
trait 1 0.75108 0.426661 0 0 0 0.460069 0.384813 0 
trait 2 0.1 0.0663514 0 0.395844 0 0 0 0 
trait 3 0.136844 0 0.785146 0.170818 0 0 0.679579 0 
node 1 2 1 3
node 2 3 1 1
node 3 1 1 1
node 4 3 0 2
node 7 1 0 0
gene 3 1 4 -3.0077 0 1 -3.0077 1
gene 2 2 4 -1.73979 0 2 -1.73979 1
gene 3 3 4 0.339563 0 3 0.339563 1
gene 3 3 7 2.02468 0 8 2.02468 1
gene 3 7 4 -8 0 9 -8 1
gene 2 2 7 2.48366 0 21 2.48366 1
gene 3 1 7 3.05225 0 43 3.05225 1
genomeend 63

/* Organism #64 Fitness: 8.14282 Error: 1.14644 */
genomestart 64
trait 1 0.75108 0.426661 0 0 0 0.460069 0.384813 0 
trait 2 0.1 0.0663514 0 0.395844 0 0 0 0 
trait 3 0.136844 0 0.785146 0.170818 0 0 0.679579 0 
node 1 2 1 3
node 2 3 1 1
node 3 1 1 1
node 4 3 0 2
node 7 1 0 0
gene 3 1 4 -3.15826 0 1 -3.15826 1
gene 3 2 4 -3.18658 0 2 -3.18658 1
gene 3 3 4 5.98685 0 3 5.98685 1
gene 3 3 7 -2.97865 0 8 -2.97865 1
gene 3 7 4 -7.12798 0 9 -7.12798 1
gene 2 2 7 -0.940262 0 21 -0.940262 1
gene 3 1 7 0.0359485 0 43 0.0359485 1
genomeend 64

/* Organism #65 Fitness: 3.97819 Error: 2.00546 */
genomestart 65
trait 1 0.75108 0.426661 0 0 0 0.460069 0.384813 0 
trait 2 0 0.0663514 0 0.791688 0 0 0 0 
trait 3 0.136844 0 0.785146 0.170818 0 0 0.679579 0 
node 1 2 1 3
node 2 3 1 1
node 3 1 1 1
node 4 3 0 2
node 7 1 0 0
gene 3 1 4 -0.948343 0 1 -0.948343 1
gene 2 2 4 1.81264 0 2 1.81264 1
gene 3 3 4 8 0 3 8 1
gene 3 3 7 -0.889749 0 8 -0.889749 1
gene 3 7 4 -6.00115 0 9 -6.00115 1
gene 2 2 7 1.12223 0 21 1.12223 1
gene 3 1 7 2.27696 0 43 2.27696 1
genomeend 65

/* Species #10 : (Size 8) (AF 6.52196) (Age 17)  */


/* Organism #66 Fitness: 8.99972 Error: 1.00005 */
genomestart 66
trait 1 0.1 0 0 0 0 0 0 0 
trait 2 0.2 0.132703 0 0 0 0 0 0 
trait 3 0.3 0 0 0 0 0 0 0 
node 1 3 1 3
node 2 2 1 1
node 3 2 1 1
node 4 2 0 2
node 20 1 0 0
node 34 1 0 0
gene 2 1 4 -2.02909 0 1 -2.02909 1
gene 1 2 4 4.86103 0 2 4.86103 1
gene 3 3 4 0.958241 0 3 0.958241 0
gene 3 3 20 3.15835 0 44 3.15835 1
gene 3 20 4 6.40295 0 45 6.40295 1
gene 2 1 20 -1.27931 0 66 -1.27931 1
gene 1 2 20 -1.87786 0 75 -1.87786 0
gene 1 2 34 -1.34426 0 89 -1.34426 1
gene 1 34 20 -2.45021 0 90 -2.45021 1
genomeend 66

/* Organism #67 Fitness: 4.62957 Error: 1.84836 */
genomestart 67
trait 1 0.05 0 0 0.400394 0 0 0 0 
trait 2 0.2 0.132703 0 0 0 0 0 0 
trait 3 0.3 0 0 0 0 0 0 0 
node 1 3 1 3
node 2 2 1 1
node 3 2 1 1
node 4 2 0 2
node 20 2 0 0
node 34 1 0 0
gene 2 1 4 0.349651 0 1 0.349651 1
gene 1 2 4 6.71265 0 2 6.71265 1
gene 3 3 4 2.00158 0 3 2.00158 0
gene 3 3 20 4.73088 0 44 4.73088 1
gene 3 20 4 5.61395 0 45 5.61395 1
gene 2 1 20 -4.52076 0 66 -4.52076 1
gene 1 2 20 -0.46747 0 75 -0.46747 0
gene 1 2 34 -0.838107 0 89 -0.838107 0
gene 1 34 20 -4.37133 0 90 -4.37133 1
genomeend 67

/* Organism #68 Fitness: 4.00822 Error: 1.99795 */
genomestart 68
trait 1 0.1 0 0 0 0 0 0 0 
trait 2 0.2 0.132703 0 0 0 0 0 0 
trait 3 0.3 0 0 0 0 0 0 0 
node 1 3 1 3
node 2 2 1 1
node 3 2 1 1
node 4 2 0 2
node 20 1 0 0
node 34 1 0 0
gene 2 1 4 -2.02909 0 1 -2.02909 1
gene 1 2 4 5.89172 0 2 5.89172 1
gene 3 3 4 3.15013 0 3 3.15013 0
gene 3 3 20 3.52529 0 44 3.52529 1
gene 3 20 4 6.57784 0 45 6.57784 1
gene 2 1 20 -2.52516 0 66 -2.52516 1
gene 1 2 20 -4.08301 0 75 -4.08301 0
gene 1 2 34 0.549812 0 89 0.549812 1
gene 1 34 20 -2.81662 0 90 -2.81662 1
genomeend 68

/* Organism #69 Fitness: 4 Error: 2 */
genomestart 69
trait 1 0 0 0 0.800788 0 0 0 0 
trait 2 0.2 0.132703 0 0 0 0 0 0 
trait 3 0.3 0 0 0 0 0 0 0 
node 1 3 1 3
node 2 2 1 1
node 3 2 1 1
node 4 2 0 2
node 20 2 0 0
node 34 1 0 0
node 69 1 0 0
gene 2 1 4 -2.20847 0 1 -2.20847 1
gene 1 2 4 -0.268617 0 2 -0.268617 1
gene 3 3 4 -0.960926 0 3 -0.960926 0
gene 3 3 20 4.2115 0 44 4.2115 1
gene 3 20 4 7.35295 0 45 7.35295 1
gene 2 1 20 0.980095 0 66 0.980095 1
gene 1 2 20 -2.55834 0 75 -2.55834 0
gene 1 2 34 -3.51928 0 89 -3.51928 0
gene 1 34 20 -5.66875 0 90 -5.66875 1
gene 1 2 69 2.71476 0 195 2.71476 1
gene 1 69 34 -2.527 0 196 -2.527 1
genomeend 69

/* Organism #70 Fitness: 8.58804 Error: 1.06946 */
genomestart 70
trait 1 0.1 0 0 0 0 0 0 0 
trait 2 0.2 0.132703 0 0 0 0 0 0 
trait 3 0.3 0 0 0 0 0 0 0 
node 1 3 1 3
node 2 2 1 1
node 3 2 1 1
node 4 2 0 2
node 20 1 0 0
node 34 1 0 0
gene 2 1 4 -0.554742 0 1 -0.554742 1
gene 1 2 4 5.23756 0 2 5.23756 1
gene 3 3 4 -0.732792 0 3 -0.732792 0
gene 3 3 20 1.80714 0 44 1.80714 1
gene 3 20 4 5.57216 0 45 5.57216 1
gene 2 1 20 -0.178217 0 66 -0.178217 1
gene 1 2 20 -2.97293 0 75 -2.97293 0
gene 1 2 34 -2.15537 0 89 -2.15537 1
gene 1 34 20 -1.79476 0 90 -1.79476 1
genomeend 70

/* Organism #71 Fitness: 8.9997 Error: 1.00005 */
genomestart 71
trait 1 0.05 0 0 0.400394 0 0 0 0 
trait 2 0.2 0.132703 0 0 0 0 0 0 
trait 3 0.3 0 0 0 0 0 0 0 
node 1 3 1 3
node 2 2 1 1
node 3 2 1 1
node 4 2 0 2
node 20 2 0 0
node 34 1 0 0
gene 2 1 4 -2.02909 0 1 -2.02909 1
gene 1 2 4 4.86103 0 2 4.86103 1
gene 3 3 4 0.553542 0 3 0.553542 0
gene 3 3 20 5.43111 0 44 5.43111 1
gene 3 20 4 6.73926 0 45 6.73926 1
gene 2 1 20 -1.27931 0 66 -1.27931 1
gene 1 2 20 -1.87786 0 75 -1.87786 0
gene 1 2 34 -1.34426 0 89 -1.34426 0
gene 1 34 20 -3.28739 0 90 -3.28739 1
genomeend 71

/* Organism #72 Fitness: 4 Error: 2 */
genomestart 72
trait 1 0 0 0 0.800788 0 0 0 0 
trait 2 0.2 0.132703 0 0 0 0 0 0 
trait 3 0.3 0 0 0 0 0 0 0 
node 1 3 1 3
node 2 2 1 1
node 3 2 1 1
node 4 2 0 2
node 20 2 0 0
node 34 1 0 0
node 69 1 0 0
gene 2 1 4 -4.47762 0 1 -4.47762 1
gene 1 2 4 4.43436 0 2 4.43436 1
gene 3 3 4 0.553542 0 3 0.553542 0
gene 3 3 20 -0.597558 0 44 -0.597558 1
gene 3 20 4 5.4389 0 45 5.4389 1
gene 2 1 20 -3.77809 0 66 -3.77809 1
gene 1 2 20 -0.598052 0 75 -0.598052 0
gene 1 2 34 0.370652 0 89 0.370652 0
gene 1 34 20 -0.887401 0 90 -0.887401 1
gene 1 2 69 -1.1303 0 195 -1.1303 1
gene 1 69 34 -1.07801 0 196 -1.07801 1
genomeend 72

/* Organism #73 Fitness: 8.95044 Error: 1.00827 */
genomestart 73
trait 1 0.1 0 0 0 0 0 0 0 
trait 2 0.2 0.132703 0 0 0 0 0 0 
trait 3 0.3 0 0 0 0 0 0 0 
node 1 3 1 3
node 2 2 1 1
node 3 2 1 1
node 4 2 0 2
node 20 1 0 0
node 34 1 0 0
gene 2 1 4 -0.97213 0 1 -0.97213 1
gene 1 2 4 6.01353 0 2 6.01353 1
gene 3 3 4 -0.16463 0 3 -0.16463 0
gene 3 3 20 4.05627 0 44 4.05627 1
gene 3 20 4 8 0 45 8 1
gene 2 1 20 -0.979661 0 66 -0.979661 1
gene 1 2 20 -0.369078 0 75 -0.369078 0
gene 1 2 34 -0.772435 0 89 -0.772435 1
gene 1 34 20 -2.76423 0 90 -2.76423 1
genomeend 73

/* Species #11 : (Size 8) (AF 8.27331) (Age 17)  */


/* Organism #74 Fitness: 9 Error: 1 */
genomestart 74
trait 1 0.1 0 0 0 0.136133 0.279063 0 0 
trait 2 0.338392 0.132703 0 0 0 0.388301 0 0.276992 
trait 3 0.3 0 0 0 0 0 0 0 
node 1 3 1 3
node 2 2 1 1
node 3 2 1 1
node 4 1 0 2
node 21 1 0 0
gene 1 1 4 -4.52055 0 1 -4.52055 1
gene 1 2 4 7.75906 0 2 7.75906 1
gene 3 3 4 8 0 3 8 1
gene 1 2 21 4.60723 0 46 4.60723 1
gene 1 21 4 0.42434 0 47 0.42434 1
genomeend 74

/* Organism #75 Fitness: 9 Error: 1 */
genomestart 75
trait 1 0.1 0 0 0 0.130554 0.267626 0 0 
trait 2 0.269196 0.132703 0 0 0 0.194151 0 0.138496 
trait 3 0.3 0 0 0 0 0 0 0 
node 1 3 1 3
node 2 2 1 1
node 3 2 1 1
node 4 1 0 2
node 21 1 0 0
gene 1 1 4 -3.83591 0 1 -3.83591 1
gene 1 2 4 6.01103 0 2 6.01103 1
gene 3 3 4 8 0 3 8 1
gene 1 2 21 2.86071 0 46 2.86071 1
gene 1 21 4 0.995248 0 47 0.995248 1
genomeend 75

/* Organism #76 Fitness: 9 Error: 1 */
genomestart 76
trait 1 0.1 0 0.369487 0 0.136133 0.279063 0 0 
trait 2 0.338392 0.132703 0 0 0 0.388301 0 0.276992 
trait 3 0.3 0 0 0 0 0 0 0 
node 1 3 1 3
node 2 2 1 1
node 3 2 1 1
node 4 1 0 2
node 21 1 0 0
gene 1 1 4 -3.90675 0 1 -3.90675 1
gene 1 2 4 6.93367 0 2 6.93367 1
gene 3 3 4 8 0 3 8 1
gene 1 2 21 5.39394 0 46 5.39394 1
gene 1 21 4 1.51524 0 47 1.51524 1
genomeend 76

/* Organism #77 Fitness: 8.55303 Error: 1.07544 */
genomestart 77
trait 1 0.1 0 0 0 0.124974 0.256189 0 0 
trait 2 0.2 0.132703 0 0 0 0 0 0 
trait 3 0.3 0 0 0 0 0 0 0 
node 1 3 1 3
node 2 2 1 1
node 3 1 1 1
node 4 2 0 2
node 21 1 0 0
gene 1 1 4 -4.70906 0 1 -4.70906 1
gene 1 2 4 6.65215 0 2 6.65215 1
gene 3 3 4 4.28036 0 3 4.28036 1
gene 1 2 21 4.21645 0 46 4.21645 1
gene 1 21 4 1.8752 0 47 1.8752 1
genomeend 77

/* Organism #78 Fitness: 4 Error: 2 */
genomestart 78
trait 1 0.1 0 0.184743 0 0.130554 0.267626 0 0 
trait 2 0.269196 0.132703 0 0 0 0.194151 0 0.138496 
trait 3 0.3 0 0 0 0 0 0 0 
node 1 3 1 3
node 2 2 1 1
node 3 2 1 1
node 4 2 0 2
node 21 1 0 0
gene 1 1 4 1.27042 0 1 1.27042 1
gene 2 2 4 8 0 2 8 1
gene 3 3 4 5.91087 0 3 5.91087 1
gene 1 2 21 3.161 0 46 3.161 1
gene 1 21 4 3.21533 0 47 3.21533 1
genomeend 78

/* Organism #79 Fitness: 8.99998 Error: 1 */
genomestart 79
trait 1 0.1 0 0.184743 0 0.136133 0.279063 0 0 
trait 2 0.338392 0.132703 0 0 0 0.388301 0 0.276992 
trait 3 0.3 0 0 0 0 0 0 0 
node 1 3 1 3
node 2 2 1 1
node 3 2 1 1
node 4 1 0 2
node 21 1 0 0
gene 1 1 4 -3.68273 0 1 -3.68273 1
gene 1 2 4 4.42652 0 2 4.42652 1
gene 3 3 4 8 0 3 8 1
gene 1 2 21 5.11354 0 46 5.11354 1
gene 1 21 4 2.29311 0 47 2.29311 1
genomeend 79

/* Organism #80 Fitness: 8.63664 Error: 1.06118 */
genomestart 80
trait 1 0.1 0 0.184743 0 0.136133 0.279063 0 0 
trait 2 0.338392 0.132703 0 0 0 0.388301 0 0.276992 
trait 3 0.3 0 0 0 0 0 0 0 
node 1 3 1 3
node 2 2 1 1
node 3 2 1 1
node 4 1 0 2
node 21 1 0 0
gene 1 1 4 -0.895933 0 1 -0.895933 1
gene 1 2 4 6.54543 0 2 6.54543 1
gene 3 3 4 6.55405 0 3 6.55405 1
gene 1 2 21 4.53164 0 46 4.53164 1
gene 1 21 4 0.682779 0 47 0.682779 1
genomeend 80

/* Organism #81 Fitness: 8.99685 Error: 1.00052 */
genomestart 81
trait 1 0.1 0 0.184743 0 0.136133 0.279063 0 0 
trait 2 0.338392 0.132703 0 0 0 0.388301 0 0.276992 
trait 3 0.3 0 0 0 0 0 0 0 
node 1 3 1 3
node 2 2 1 1
node 3 2 1 1
node 4 1 0 2
node 21 1 0 0
gene 1 1 4 -2.57853 0 1 -2.57853 1
gene 1 2 4 6.38877 0 2 6.38877 1
gene 3 3 4 7.2981 0 3 7.2981 1
gene 1 2 21 4.10662 0 46 4.10662 1
gene 1 21 4 2.08951 0 47 2.08951 1
genomeend 81

/* Species #12 : (Size 7) (AF 7.20874) (Age 15)  */


/* Organism #82 Fitness: 8.95117 Error: 1.00815 */
genomestart 82
trait 1 0.1 0 0 0 0 0.188203 0 0.836826 
trait 2 0.2 0.0497635 0 0.0168388 0 0.104149 0 0 
trait 3 0.3 0 0 0 0 0 0 0 
node 1 3 1 3
node 2 2 1 1
node 3 2 1 1
node 4 1 0 2
node 7 1 0 0
node 18 1 0 0
gene 3 1 4 -0.93736 0 1 -0.93736 1
gene 2 2 4 5.70568 0 2 5.70568 1
gene 3 3 4 3.75834 0 3 3.75834 1
gene 3 3 7 -3.09554 0 8 -3.09554 1
gene 3 7 4 1.22319 0 9 1.22319 0
gene 3 7 18 3.28814 0 38 3.28814 1
gene 3 18 4 -0.0377725 0 39 -0.0377725 1
genomeend 82

/* Organism #83 Fitness: 6.73233 Error: 1.40533 */
genomestart 83
trait 1 0.1 0 0 0 0 0.188203 0 0.836826 
trait 2 0.2 0.0497635 0 0.0168388 0 0.104149 0 0 
trait 3 0.3 0 0 0 0 0 0 0 
node 1 3 1 3
node 2 2 1 1
node 3 2 1 1
node 4 1 0 2
node 7 1 0 0
node 18 1 0 0
gene 3 1 4 -0.602307 0 1 -0.602307 1
gene 2 2 4 2.15806 0 2 2.15806 1
gene 3 3 4 3.90279 0 3 3.90279 1
gene 3 3 7 -2.35111 0 8 -2.35111 1
gene 3 7 4 1.68826 0 9 1.68826 0
gene 3 7 18 2.84471 0 38 2.84471 1
gene 3 18 4 0.524911 0 39 0.524911 1
gene 1 2 18 0.170387 0 206 0.170387 1
genomeend 83

/* Organism #84 Fitness: 8.83249 Error: 1.02805 */
genomestart 84
trait 1 0.1 0 0 0 0 0.188203 0 0.836826 
trait 2 0.2 0.0497635 0 0.0168388 0 0.104149 0 0 
trait 3 0.3 0 0 0 0 0 0 0 
node 1 3 1 3
node 2 2 1 1
node 3 2 1 1
node 4 1 0 2
node 7 1 0 0
node 18 1 0 0
gene 3 1 4 -0.769834 0 1 -0.769834 1
gene 2 2 4 5.13174 0 2 5.13174 1
gene 3 3 4 3.00596 0 3 3.00596 1
gene 3 3 7 -2.99001 0 8 -2.99001 1
gene 3 7 4 1.24538 0 9 1.24538 0
gene 3 7 18 3.06642 0 38 3.06642 1
gene 3 18 4 0.0497787 0 39 0.0497787 1
genomeend 84

/* Organism #85 Fitness: 4.53504 Error: 1.87044 */
genomestart 85
trait 1 0.1 0 0 0 0 0.188203 0 0.836826 
trait 2 0.2 0.0497635 0 0.0168388 0 0.104149 0 0 
trait 3 0.3 0 0 0 0 0 0 0 
node 1 3 1 3
node 2 2 1 1
node 3 2 1 1
node 4 1 0 2
node 7 1 0 0
node 18 2 0 0
gene 3 1 4 0.96095 0 1 0.96095 1
gene 2 2 4 4.21986 0 2 4.21986 1
gene 3 3 4 3.85888 0 3 3.85888 1
gene 3 3 7 -4.91655 0 8 -4.91655 1
gene 3 7 4 2.78302 0 9 2.78302 0
gene 3 7 18 3.03538 0 38 3.03538 1
gene 3 18 4 -0.574455 0 39 -0.574455 1
gene 1 2 18 -1.63702 0 206 -1.63702 1
genomeend 85

/* Organism #86 Fitness: 8.9524 Error: 1.00794 */
genomestart 86
trait 1 0.1 0 0 0 0 0.188203 0 0.836826 
trait 2 0.2 0.0497635 0 0.0168388 0 0.104149 0 0 
trait 3 0.3 0 0 0 0 0 0 0 
node 1 3 1 3
node 2 2 1 1
node 3 2 1 1
node 4 1 0 2
node 7 1 0 0
node 18 1 0 0
gene 3 1 4 -0.985227 0 1 -0.985227 1
gene 2 2 4 6.85955 0 2 6.85955 1
gene 3 3 4 3.24071 0 3 3.24071 1
gene 3 3 7 -4.18762 0 8 -4.18762 1
gene 3 7 4 1.26757 0 9 1.26757 0
gene 3 7 18 -2.36076 0 38 -2.36076 1
gene 3 18 4 1.63697 0 39 1.63697 1
gene 1 2 18 1.81816 0 206 1.81816 1
genomeend 86

/* Organism #87 Fitness: 4.00068 Error: 1.99983 */
genomestart 87
trait 1 0.1 0 0 0 0 0.188203 0 0.836826 
trait 2 0.2 0.0497635 0 0.0168388 0 0.104149 0 0 
trait 3 0.3 0 0 0 0 0 0 0 
node 1 3 1 3
node 2 2 1 1
node 3 2 1 1
node 4 1 0 2
node 7 1 0 0
node 18 1 0 0
gene 3 1 4 -3.29017 0 1 -3.29017 1
gene 2 2 4 5.4558 0 2 5.4558 1
gene 3 3 4 1.09873 0 3 1.09873 1
gene 3 3 7 -1.55776 0 8 -1.55776 1
gene 3 7 4 3.27637 0 9 3.27637 0
gene 3 7 18 5.35491 0 38 5.35491 1
gene 3 18 4 0.865954 0 39 0.865954 1
genomeend 87

/* Organism #88 Fitness: 8.4571 Error: 1.09189 */
genomestart 88
trait 1 0.1 0 0 0 0 0.188203 0 0.836826 
trait 2 0.2 0.0497635 0 0.0168388 0 0.104149 0 0 
trait 3 0.3 0 0 0 0 0 0 0 
node 1 3 1 3
node 2 2 1 1
node 3 2 1 1
node 4 1 0 2
node 7 1 0 0
node 18 1 0 0
gene 3 1 4 -0.602307 0 1 -0.602307 1
gene 2 2 4 4.5578 0 2 4.5578 1
gene 3 3 4 2.25358 0 3 2.25358 1
gene 3 3 7 -2.88447 0 8 -2.88447 1
gene 3 7 4 1.26757 0 9 1.26757 0
gene 3 7 18 2.84471 0 38 2.84471 1
gene 3 18 4 0.13733 0 39 0.13733 1
gene 1 2 18 0.577948 0 206 0.577948 1
gene 3 1 7 -0.105276 0 211 -0.105276 1
genomeend 88

/* Species #14 : (Size 9) (AF 8.40527) (Age 13)  */


/* Organism #89 Fitness: 9 Error: 1 */
genomestart 89
trait 1 0.1 0 0 0 0 0 0 0 
trait 2 0.2 0 0 0 0 0 0 0 
trait 3 0.225 0 0 0 0 0 0 0 
node 1 3 1 3
node 2 2 1 1
node 3 2 1 1
node 4 2 0 2
node 37 1 0 0
gene 2 1 4 -3.60893 0 1 -3.60893 1
gene 1 2 4 6.8174 0 2 6.8174 1
gene 3 3 4 5.94496 0 3 5.94496 1
gene 3 3 37 4.35104 0 96 4.35104 1
gene 3 37 4 7.29095 0 97 7.29095 1
gene 1 1 37 -2.64002 0 117 -2.64002 1
genomeend 89

/* Organism #90 Fitness: 8.66651 Error: 1.05611 */
genomestart 90
trait 1 0.1 0 0 0 0 0 0 0 
trait 2 0.2 0 0 0 0 0 0 0 
trait 3 0.225 0 0 0 0 0 0 0 
node 1 3 1 3
node 2 2 1 1
node 3 2 1 1
node 4 2 0 2
node 37 1 0 0
gene 2 1 4 -2.1037 0 1 -2.1037 1
gene 1 2 4 6.8174 0 2 6.8174 1
gene 3 3 4 4.47663 0 3 4.47663 1
gene 2 3 37 2.64343 0 96 2.64343 1
gene 3 37 4 -1.79968 0 97 -1.79968 1
gene 1 1 37 1.79592 0 117 1.79592 1
genomeend 90

/* Organism #91 Fitness: 8.99998 Error: 1 */
genomestart 91
trait 1 0.1 0 0 0 0 0 0 0 
trait 2 0.2 0 0 0 0 0 0 0 
trait 3 0.225 0 0 0 0 0 0 0 
node 1 3 1 3
node 2 2 1 1
node 3 2 1 1
node 4 2 0 2
node 37 1 0 0
gene 2 1 4 -2.98724 0 1 -2.98724 1
gene 1 2 4 5.49104 0 2 5.49104 1
gene 3 3 4 8 0 3 8 1
gene 3 3 37 3.57842 0 96 3.57842 1
gene 3 37 4 6.16198 0 97 6.16198 1
gene 1 1 37 -0.929111 0 117 -0.929111 1
genomeend 91

/* Organism #92 Fitness: 3.99785 Error: 2.00054 */
genomestart 92
trait 1 0.1 0 0 0 0 0 0 0 
trait 2 0.2 0 0 0 0 0 0 0 
trait 3 0.225 0 0 0 0 0 0 0 
node 1 3 1 3
node 2 2 1 1
node 3 2 1 1
node 4 2 0 2
node 37 1 0 0
gene 2 1 4 -4.11645 0 1 -4.11645 1
gene 1 2 4 -2.48714 0 2 -2.48714 1
gene 3 3 4 4.75113 0 3 4.75113 1
gene 2 3 37 7.15595 0 96 7.15595 1
gene 3 37 4 8 0 97 8 1
gene 1 1 37 -0.149818 0 117 -0.149818 1
genomeend 92

/* Organism #93 Fitness: 9 Error: 1 */
genomestart 93
trait 1 0.1 0 0 0 0 0 0 0 
trait 2 0.2 0 0 0 0 0 0 0 
trait 3 0.225 0 0 0 0 0 0 0 
node 1 3 1 3
node 2 2 1 1
node 3 2 1 1
node 4 2 0 2
node 37 1 0 0
gene 2 1 4 -3.60893 0 1 -3.60893 1
gene 1 2 4 6.8174 0 2 6.8174 1
gene 3 3 4 5.94496 0 3 5.94496 1
gene 3 3 37 4.35104 0 96 4.35104 1
gene 3 37 4 7.29095 0 97 7.29095 1
gene 1 1 37 -2.64002 0 117 -2.64002 1
gene 1 2 37 -0.216978 0 212 -0.216978 1
genomeend 93

/* Organism #94 Fitness: 8.99958 Error: 1.00007 */
genomestart 94
trait 1 0.1 0 0 0 0 0 0 0 
trait 2 0.2 0 0 0 0 0 0 0 
trait 3 0.225 0 0 0 0 0 0 0 
node 1 3 1 3
node 2 2 1 1
node 3 2 1 1
node 4 2 0 2
node 37 3 0 0
gene 2 1 4 -2.19965 0 1 -2.19965 1
gene 1 2 4 4.20152 0 2 4.20152 1
gene 3 3 4 7.98296 0 3 7.98296 1
gene 3 3 37 -0.56184 0 96 -0.56184 1
gene 3 37 4 5.98184 0 97 5.98184 1
gene 1 1 37 -0.700632 0 117 -0.700632 1
genomeend 94

/* Organism #95 Fitness: 8.99999 Error: 1 */
genomestart 95
trait 1 0.1 0 0 0 0 0 0 0 
trait 2 0.2 0 0 0 0 0 0 0 
trait 3 0.225 0 0 0 0 0 0 0 
node 1 3 1 3
node 2 2 1 1
node 3 2 1 1
node 4 2 0 2
node 37 3 0 0
gene 2 1 4 -2.90663 0 1 -2.90663 1
gene 1 2 4 5.93093 0 2 5.93093 1
gene 3 3 4 5.747 0 3 5.747 1
gene 3 3 37 8 0 96 8 1
gene 3 37 4 5.98184 0 97 5.98184 1
gene 1 1 37 -4.73546 0 117 -4.73546 1
genomeend 95

/* Organism #96 Fitness: 8.98366 Error: 1.00273 */
genomestart 96
trait 1 0.1 0 0 0 0 0 0 0 
trait 2 0.2 0 0 0 0 0 0 0 
trait 3 0.225 0 0 0 0 0 0 0 
node 1 3 1 3
node 2 2 1 1
node 3 2 1 1
node 4 2 0 2
node 37 1 0 0
gene 2 1 4 -5.20386 0 1 -5.20386 1
gene 1 2 4 5.29644 0 2 5.29644 1
gene 3 3 4 6.80066 0 3 6.80066 1
gene 3 3 37 3.94649 0 96 3.94649 1
gene 3 37 4 4.9892 0 97 4.9892 1
gene 1 1 37 -0.255027 0 117 -0.255027 1
genomeend 96

/* Organism #97 Fitness: 8.99989 Error: 1.00002 */
genomestart 97
trait 1 0.1 0 0 0 0 0 0 0 
trait 2 0.2 0 0 0 0 0 0 0 
trait 3 0.225 0 0 0 0 0 0 0 
node 1 3 1 3
node 2 2 1 1
node 3 2 1 1
node 4 2 0 2
node 37 1 0 0
gene 2 1 4 -5.22374 0 1 -5.22374 1
gene 1 2 4 7.4398 0 2 7.4398 1
gene 3 3 4 7.93913 0 3 7.93913 1
gene 3 3 37 5.10186 0 96 5.10186 1
gene 3 37 4 8 0 97 8 1
gene 1 1 37 -1.94883 0 117 -1.94883 1
genomeend 97

/* Species #15 : (Size 8) (AF 6.57974) (Age 12)  */


/* Organism #98 Fitness: 8.99531 Error: 1.00078 */
genomestart 98
trait 1 0.1 0 0 0 0 0 0 0 
trait 2 0.2 0.0124409 0 0 0 0 0 0 
trait 3 0.2625 0 0 0 0 0 0 0 
node 1 3 1 3
node 2 2 1 1
node 3 1 1 1
node 4 2 0 2
node 41 1 0 0
gene 1 1 4 -6.68439 0 1 -6.68439 1
gene 3 2 4 -2.36067 0 2 -2.36067 1
gene 1 3 4 5.67164 0 3 5.67164 1
gene 1 2 41 -3.32756 0 108 -3.32756 1
gene 2 41 4 2.48448 0 109 2.48448 1
gene 2 1 41 3.38895 0 187 3.38895 1
genomeend 98

/* Organism #99 Fitness: 3.99975 Error: 2.00006 */
genomestart 99
trait 1 0.1 0 0 0 0 0 0 0 
trait 2 0.2 0.0124409 0 0 0 0 0 0 
trait 3 0.2625 0 0 0 0 0 0 0 
node 1 3 1 3
node 2 2 1 1
node 3 1 1 1
node 4 2 0 2
node 41 1 0 0
gene 1 1 4 -7.56591 0 1 -7.56591 1
gene 3 2 4 0.103965 0 2 0.103965 1
gene 1 3 4 6.32426 0 3 6.32426 1
gene 1 2 41 -1.04833 0 108 -1.04833 1
gene 2 41 4 3.02251 0 109 3.02251 1
gene 2 1 41 4.75936 0 187 4.75936 1
genomeend 99

/* Organism #100 Fitness: 6.90119 Error: 1.37299 */
genomestart 100
trait 1 0.1 0 0 0 0 0 0 0 
trait 2 0.2 0.0124409 0 0 0 0 0 0 
trait 3 0.173052 0 0 0 0 0 0 0 
node 1 3 1 3
node 2 2 1 1
node 3 1 1 1
node 4 2 0 2
node 41 1 0 0
gene 1 1 4 -6.00513 0 1 -6.00513 1
gene 3 2 4 -2.152 0 2 -2.152 1
gene 1 3 4 8 0 3 8 1
gene 1 2 41 -3.83776 0 108 -3.83776 1
gene 2 41 4 0.611301 0 109 0.611301 1
gene 2 1 41 3.35384 0 187 3.35384 1
genomeend 100

/* Organism #101 Fitness: 3.99484 Error: 2.00129 */
genomestart 101
trait 1 0.1 0 0 0 0 0 0 0 
trait 2 0.2 0.0124409 0 0 0 0 0 0 
trait 3 0.173052 0 0 0 0 0 0 0 
node 1 3 1 3
node 2 2 1 1
node 3 1 1 1
node 4 2 0 2
node 41 1 0 0
gene 1 1 4 -4.64088 0 1 -4.64088 1
gene 3 2 4 -3.23252 0 2 -3.23252 1
gene 1 3 4 7.02631 0 3 7.02631 1
gene 1 2 41 -0.652942 0 108 -0.652942 1
gene 1 41 4 3.29681 0 109 3.29681 1
gene 2 1 41 1.32307 0 187 1.32307 1
genomeend 101

/* Organism #102 Fitness: 5.67738 Error: 1.61727 */
genomestart 102
trait 1 0.1 0 0 0 0 0 0 0 
trait 2 0.2 0.0124409 0 0 0 0 0 0 
trait 3 0.2625 0 0 0 0 0 0 0 
node 1 3 1 3
node 2 2 1 1
node 3 1 1 1
node 4 2 0 2
node 41 1 0 0
gene 1 1 4 -7.37634 0 1 -7.37634 1
gene 3 2 4 -1.15091 0 2 -1.15091 1
gene 1 3 4 6.96556 0 3 6.96556 1
gene 1 2 41 -1.53768 0 108 -1.53768 1
gene 2 41 4 0.314739 0 109 0.314739 1
gene 2 1 41 1.34053 0 187 1.34053 1
genomeend 102

/* Organism #103 Fitness: 8.66259 Error: 1.05677 */
genomestart 103
trait 1 0.1 0 0 0 0 0 0 0 
trait 2 0.2 0.0124409 0 0 0 0 0 0 
trait 3 0.173052 0 0 0 0 0 0 0 
node 1 3 1 3
node 2 2 1 1
node 3 1 1 1
node 4 2 0 2
node 41 1 0 0
gene 1 1 4 -5.21543 0 1 -5.21543 1
gene 3 2 4 -2.36067 0 2 -2.36067 1
gene 1 3 4 6.17125 0 3 6.17125 1
gene 1 2 41 -2.04915 0 108 -2.04915 1
gene 1 41 4 0.910705 0 109 0.910705 1
gene 2 1 41 3.38895 0 187 3.38895 1
gene 3 3 41 -0.855852 0 213 -0.855852 1
genomeend 103

/* Organism #104 Fitness: 5.6499 Error: 1.62305 */
genomestart 104
trait 1 0.1 0 0 0 0 0 0 0 
trait 2 0.2 0.0124409 0 0 0 0 0 0 
trait 3 0.173052 0 0 0 0 0 0 0 
node 1 3 1 3
node 2 2 1 1
node 3 1 1 1
node 4 2 0 2
node 41 1 0 0
gene 1 1 4 -6.68439 0 1 -6.68439 1
gene 3 2 4 -2.36067 0 2 -2.36067 1
gene 1 3 4 5.67164 0 3 5.67164 1
gene 1 2 41 -2.04915 0 108 -2.04915 1
gene 1 41 4 0.910705 0 109 0.910705 1
gene 2 1 41 3.38895 0 187 3.38895 1
genomeend 104

/* Organism #105 Fitness: 8.75695 Error: 1.04079 */
genomestart 105
trait 1 0.1 0 0 0 0 0 0 0 
trait 2 0.2 0.0124409 0 0 0 0 0 0 
trait 3 0.0836042 0 0 0 0 0 0 0 
node 1 3 1 3
node 2 2 1 1
node 3 1 1 1
node 4 2 0 2
node 41 1 0 0
gene 1 1 4 -6.65327 0 1 -6.65327 1
gene 3 2 4 -2.37822 0 2 -2.37822 1
gene 1 3 4 7.43811 0 3 7.43811 1
gene 1 2 41 0.133035 0 108 0.133035 1
gene 1 41 4 1.44185 0 109 1.44185 1
genomeend 105

/* Species #16 : (Size 5) (AF 4.8615) (Age 11)  */


/* Organism #106 Fitness: 6.08938 Error: 1.53233 */
genomestart 106
trait 1 0.1 0 0 0 0 0 0 0 
trait 2 0.2 0.0165878 0 0 0 0 0 0 
trait 3 0.225 0 0 0 0 0 0 0 
node 1 3 1 3
node 2 2 1 1
node 3 2 1 1
node 4 2 0 2
gene 1 1 4 5.46055 0 1 5.46055 1
gene 1 2 4 -3.34204 0 2 -3.34204 1
gene 1 3 4 -2.09223 0 3 -2.09223 1
genomeend 106

/* Organism #107 Fitness: 1.35444 Error: 2.83619 */
genomestart 107
trait 1 0.1 0 0 0 0 0 0 0 
trait 2 0.2 0.0165878 0 0 0 0 0 0 
trait 3 0.225 0 0 0 0 0 0 0 
node 1 3 1 3
node 2 2 1 1
node 3 2 1 1
node 4 2 0 2
gene 1 1 4 3.75734 0 1 3.75734 1
gene 1 2 4 -4.19485 0 2 -4.19485 1
gene 1 3 4 -4.31653 0 3 -4.31653 1
genomeend 107

/* Organism #108 Fitness: 8.8637 Error: 1.0228 */
genomestart 108
trait 1 0.1 0 0 0 0 0 0 0 
trait 2 0.2 0.0165878 0 0 0 0 0 0 
trait 3 0.225 0 0 0 0 0 0 0 
node 1 3 1 3
node 2 2 1 1
node 3 2 1 1
node 4 2 0 2
gene 1 1 4 5.86084 0 1 5.86084 1
gene 1 2 4 -4.77931 0 2 -4.77931 1
gene 1 3 4 -1.8941 0 3 -1.8941 1
genomeend 108

/* Organism #109 Fitness: 4 Error: 2 */
genomestart 109
trait 1 0.1 0 0 0 0 0 0 0 
trait 2 0.2 0.0165878 0 0 0 0 0 0 
trait 3 0.225 0 0 0 0 0 0 0 
node 1 3 1 3
node 2 2 1 1
node 3 2 1 1
node 4 2 0 2
gene 1 1 4 7.7798 0 1 7.7798 1
gene 1 2 4 -1.56275 0 2 -1.56275 1
gene 1 3 4 -0.967039 0 3 -0.967039 1
genomeend 109

/* Organism #110 Fitness: 4.00001 Error: 2 */
genomestart 110
trait 1 0.1 0 0 0 0 0 0 0 
trait 2 0.2 0.0165878 0 0 0 0 0 0 
trait 3 0.225 0 0 0 0 0 0 0 
node 1 3 1 3
node 2 2 1 1
node 3 2 1 1
node 4 2 0 2
gene 1 1 4 7.73209 0 1 7.73209 1
gene 1 2 4 -2.18498 0 2 -2.18498 1
gene 1 3 4 -2.7991 0 3 -2.7991 1
genomeend 110

/* Species #18 : (Size 6) (AF 5.30519) (Age 9)  */


/* Organism #111 Fitness: 8.04212 Error: 1.16414 */
genomestart 111
trait 1 0.1 0 0 0 0 0 0 0 
trait 2 0.2 0 0 0 0 0 0 0 
trait 3 0.3 0 0 0 0 0 0 0 
node 1 3 1 3
node 2 2 1 1
node 3 2 1 1
node 4 2 0 2
node 7 1 0 0
node 15 1 0 0
gene 3 1 4 -0.478307 0 1 -0.478307 1
gene 2 2 4 7.4085 0 2 7.4085 1
gene 3 3 4 -0.888568 0 3 -0.888568 0
gene 3 3 7 2.25839 0 8 2.25839 1
gene 3 7 4 1.00933 0 9 1.00933 1
gene 3 3 15 -1.27784 0 27 -1.27784 1
gene 3 15 7 -1.53037 0 28 -1.53037 1
genomeend 111

/* Organism #112 Fitness: 4.00002 Error: 2 */
genomestart 112
trait 1 0.1 0 0 0 0 0 0 0 
trait 2 0.2 0 0 0 0 0 0 0 
trait 3 0.3 0 0 0 0 0 0 0 
node 1 3 1 3
node 2 2 1 1
node 3 2 1 1
node 4 2 0 2
node 7 1 0 0
node 15 1 0 0
gene 3 1 4 1.3183 0 1 1.3183 1
gene 2 2 4 8 0 2 8 1
gene 3 3 4 -2.02599 0 3 -2.02599 0
gene 3 3 7 2.25839 0 8 2.25839 1
gene 3 7 4 1.00933 0 9 1.00933 1
gene 3 3 15 -1.97038 0 27 -1.97038 1
gene 3 15 7 1.0264 0 28 1.0264 1
genomeend 112

/* Organism #113 Fitness: 3.14797 Error: 2.22575 */
genomestart 113
trait 1 0.1 0 0 0 0 0 0 0 
trait 2 0 0.14295 0 0 0 0 0 0.407086 
trait 3 0.3 0 0 0 0 0 0 0 
node 1 3 1 3
node 2 2 1 1
node 3 2 1 1
node 4 2 0 2
node 7 1 0 0
node 15 1 0 0
gene 3 1 4 -0.00968812 0 1 -0.00968812 1
gene 2 2 4 7.30033 0 2 7.30033 1
gene 3 3 4 1.51029 0 3 1.51029 0
gene 3 3 7 1.10898 0 8 1.10898 1
gene 3 7 4 -0.916824 0 9 -0.916824 1
gene 3 3 15 -2.67167 0 27 -2.67167 1
gene 3 15 7 -0.428585 0 28 -0.428585 1
gene 1 15 4 0.0163636 0 198 0.0163636 1
genomeend 113

/* Organism #114 Fitness: 8.65469 Error: 1.05811 */
genomestart 114
trait 1 0.1 0 0 0 0 0 0 0 
trait 2 0.2 0 0 0 0 0 0 0 
trait 3 0.3 0 0 0 0 0 0 0 
node 1 3 1 3
node 2 2 1 1
node 3 2 1 1
node 4 2 0 2
node 7 1 0 0
node 15 1 0 0
gene 3 1 4 1.43564 0 1 1.43564 1
gene 2 2 4 8 0 2 8 1
gene 3 3 4 -0.905852 0 3 -0.905852 0
gene 3 3 7 0.726079 0 8 0.726079 1
gene 3 7 4 -0.045045 0 9 -0.045045 1
gene 3 3 15 -3.26857 0 27 -3.26857 1
gene 3 15 7 3.23792 0 28 3.23792 1
gene 1 15 4 -3.92043 0 198 -3.92043 1
genomeend 114

/* Organism #115 Fitness: 3.99413 Error: 2.00147 */
genomestart 115
trait 1 0.1 0 0 0 0 0 0 0 
trait 2 0.2 0 0 0.546042 0 0.937594 0.730747 0 
trait 3 0.3 0 0 0 0 0 0 0 
node 1 3 1 3
node 2 2 1 1
node 3 2 1 1
node 4 2 0 2
node 7 1 0 0
node 15 1 0 0
gene 3 1 4 -1.10654 0 1 -1.10654 1
gene 2 2 4 5.85617 0 2 5.85617 1
gene 3 3 4 -1.77607 0 3 -1.77607 0
gene 3 3 7 1.45746 0 8 1.45746 1
gene 3 7 4 -0.085652 0 9 -0.085652 1
gene 3 3 15 -3.07506 0 27 -3.07506 1
gene 3 15 7 -3.87084 0 28 -3.87084 1
genomeend 115

/* Organism #116 Fitness: 3.9922 Error: 2.00195 */
genomestart 116
trait 1 0.1 0 0 0 0 0 0 0 
trait 2 0.2 0 0 0 0 0 0 0 
trait 3 0.3 0 0 0 0 0 0 0 
node 1 3 1 3
node 2 2 1 1
node 3 2 1 1
node 4 2 0 2
node 7 1 0 0
node 15 1 0 0
gene 3 1 4 -1.19492 0 1 -1.19492 1
gene 2 2 4 7.15342 0 2 7.15342 1
gene 3 3 4 -0.527964 0 3 -0.527964 0
gene 3 3 7 0.643436 0 8 0.643436 1
gene 3 7 4 -1.67737 0 9 -1.67737 1
gene 3 3 15 -2.10097 0 27 -2.10097 1
gene 3 15 7 -1.26264 0 28 -1.26264 1
genomeend 116

/* Species #19 : (Size 7) (AF 8.08672) (Age 9)  */


/* Organism #117 Fitness: 8.81397 Error: 1.03117 */
genomestart 117
trait 1 0.55 0.506293 0.0174076 0.451588 0 0 0.132966 0 
trait 2 0.2 0 0 0 0 0 0 0 
trait 3 0.3 0 0 0 0 0 0 0 
node 1 3 1 3
node 2 2 1 1
node 3 2 1 1
node 4 2 0 2
node 7 1 0 0
node 45 1 0 0
node 66 1 0 0
gene 3 1 4 -0.486203 0 1 -0.486203 1
gene 3 2 4 1.94525 0 2 1.94525 1
gene 3 3 4 4.03876 0 3 4.03876 0
gene 3 3 7 7.81597 0 8 7.81597 1
gene 2 7 4 -4.17362 0 9 -4.17362 1
gene 2 2 7 -1.96206 0 21 -1.96206 0
gene 1 1 7 3.10281 0 35 3.10281 1
gene 1 2 45 1.08347 0 121 1.08347 1
gene 2 45 7 -3.00076 0 122 -3.00076 0
gene 3 1 45 1.16965 0 168 1.16965 1
gene 2 45 66 1 0 188 0 1
gene 2 66 7 -3.70905 0 189 -3.70905 1
genomeend 117

/* Organism #118 Fitness: 8.8137 Error: 1.03121 */
genomestart 118
trait 1 0.55 0.399128 0.00870381 0.225794 0 0 0.0664828 0 
trait 2 0.2 0 0 0 0 0 0 0 
trait 3 0.3 0 0 0 0 0 0 0 
node 1 3 1 3
node 2 2 1 1
node 3 2 1 1
node 4 2 0 2
node 7 1 0 0
node 45 1 0 0
node 66 1 0 0
gene 3 1 4 -0.486203 0 1 -0.486203 1
gene 3 2 4 1.94525 0 2 1.94525 1
gene 3 3 4 4.03876 0 3 4.03876 0
gene 3 3 7 7.72493 0 8 7.72493 1
gene 2 7 4 -4.17362 0 9 -4.17362 1
gene 2 2 7 -3.88643 0 21 -3.88643 0
gene 1 1 7 3.10281 0 35 3.10281 1
gene 1 2 45 1.08347 0 121 1.08347 1
gene 2 45 7 -3.00076 0 122 -3.00076 0
gene 3 1 45 1.44683 0 168 1.44683 1
gene 2 45 66 1 0 188 0 1
gene 2 66 7 -3.70905 0 189 -3.70905 1
gene 1 3 66 -0.999845 0 214 -0.999845 1
genomeend 118

/* Organism #119 Fitness: 8.55042 Error: 1.07589 */
genomestart 119
trait 1 0.55 0.399128 0.00870381 0.225794 0 0 0.0664828 0 
trait 2 0.2 0 0 0 0 0 0 0 
trait 3 0.3 0 0 0 0 0 0 0 
node 1 3 1 3
node 2 2 1 1
node 3 2 1 1
node 4 2 0 2
node 7 1 0 0
node 45 1 0 0
node 66 1 0 0
gene 3 1 4 -0.507812 0 1 -0.507812 1
gene 3 2 4 2.4538 0 2 2.4538 1
gene 3 3 4 4.06892 0 3 4.06892 0
gene 3 3 7 7.77045 0 8 7.77045 1
gene 2 7 4 -4.12964 0 9 -4.12964 1
gene 2 2 7 -2.92424 0 21 -2.92424 1
gene 1 1 7 2.1061 0 35 2.1061 1
gene 1 2 45 3.84163 0 121 3.84163 1
gene 2 45 7 -3.74399 0 122 -3.74399 0
gene 3 1 45 1.30824 0 168 1.30824 1
gene 2 45 66 0.678171 0 188 0.178171 1
gene 2 66 7 -4.58644 0 189 -4.58644 1
genomeend 119

/* Organism #120 Fitness: 8.80167 Error: 1.03324 */
genomestart 120
trait 1 0.55 0.399128 0.00870381 0.225794 0 0 0.0664828 0 
trait 2 0.2 0 0 0 0 0 0 0 
trait 3 0.3 0 0 0 0 0 0 0 
node 1 3 1 3
node 2 2 1 1
node 3 2 1 1
node 4 2 0 2
node 7 1 0 0
node 45 1 0 0
node 66 1 0 0
gene 3 1 4 -0.529422 0 1 -0.529422 1
gene 3 2 4 2.96236 0 2 2.96236 1
gene 3 3 4 4.09908 0 3 4.09908 0
gene 3 3 7 7.72493 0 8 7.72493 1
gene 2 7 4 -4.08567 0 9 -4.08567 1
gene 2 2 7 -1.96206 0 21 -1.96206 0
gene 1 1 7 3.10281 0 35 3.10281 1
gene 1 2 45 1.08347 0 121 1.08347 1
gene 2 45 7 -3.00076 0 122 -3.00076 0
gene 3 1 45 1.16965 0 168 1.16965 1
gene 2 45 66 0.356342 0 188 0.356342 1
gene 2 66 7 -3.70905 0 189 -3.70905 1
genomeend 120

/* Organism #121 Fitness: 4 Error: 2 */
genomestart 121
trait 1 0.55 0.291963 0 0 0 0 0 0 
trait 2 0.2 0 0 0 0 0 0 0 
trait 3 0.3 0 0 0 0 0 0 0 
node 1 3 1 3
node 2 2 1 1
node 3 2 1 1
node 4 2 0 2
node 7 1 0 0
node 45 1 0 0
node 66 1 0 0
gene 3 1 4 -1.44639 0 1 -1.44639 1
gene 3 2 4 2.9038 0 2 2.9038 1
gene 3 3 4 0.124481 0 3 0.124481 0
gene 3 3 7 8 0 8 8 1
gene 2 7 4 -6.451 0 9 -6.451 1
gene 2 2 7 1.40368 0 21 1.40368 0
gene 1 1 7 0.866952 0 35 0.866952 1
gene 1 2 45 -2.03666 0 121 -2.03666 1
gene 2 45 7 -5.49352 0 122 -5.49352 0
gene 3 1 45 3.87532 0 168 3.87532 1
gene 2 45 66 0.356342 0 188 0.356342 1
gene 2 66 7 0.857733 0 189 0.857733 1
genomeend 121

/* Organism #122 Fitness: 8.81397 Error: 1.03117 */
genomestart 122
trait 1 0.55 0.506293 0.0174076 0.451588 0 0 0.132966 0 
trait 2 0.2 0 0 0 0 0 0 0 
trait 3 0.3 0 0 0 0 0 0 0 
node 1 3 1 3
node 2 2 1 1
node 3 2 1 1
node 4 2 0 2
node 7 1 0 0
node 45 1 0 0
node 66 1 0 0
gene 3 1 4 -0.486203 0 1 -0.486203 1
gene 3 2 4 1.94525 0 2 1.94525 1
gene 3 3 4 4.03876 0 3 4.03876 0
gene 3 3 7 7.81597 0 8 7.81597 1
gene 2 7 4 -4.17362 0 9 -4.17362 1
gene 2 2 7 -1.96206 0 21 -1.96206 0
gene 1 1 7 3.10281 0 35 3.10281 1
gene 1 2 45 1.08347 0 121 1.08347 1
gene 2 45 7 -3.00076 0 122 -3.00076 0
gene 3 1 45 1.16965 0 168 1.16965 1
gene 2 45 66 1 0 188 0 1
gene 2 66 7 -3.70905 0 189 -3.70905 1
genomeend 122

/* Organism #123 Fitness: 8.81335 Error: 1.03127 */
genomestart 123
trait 1 0.55 0.291963 0 0 0 0 0 0 
trait 2 0.2 0 0 0 0 0 0 0 
trait 3 0.3 0 0 0 0 0 0 0 
node 1 3 1 3
node 2 2 1 1
node 3 1 1 1
node 4 2 0 2
node 7 1 0 0
node 45 1 0 0
node 66 1 0 0
gene 3 1 4 0.176452 0 1 0.176452 1
gene 3 2 4 3.99259 0 2 3.99259 1
gene 3 3 4 5.50935 0 3 5.50935 0
gene 3 3 7 5.73733 0 8 5.73733 1
gene 2 7 4 -5.09492 0 9 -5.09492 1
gene 2 2 7 -2.22321 0 21 -2.22321 0
gene 1 1 7 -0.293704 0 35 -0.293704 1
gene 1 2 45 5.56702 0 121 5.56702 1
gene 2 45 7 -4.36071 0 122 -4.36071 0
gene 3 1 45 1.53167 0 168 1.53167 1
gene 2 45 66 -1.4951 0 188 -1.4951 1
gene 2 66 7 -5.46384 0 189 -5.46384 1
genomeend 123

/* Species #20 : (Size 6) (AF 8.58368) (Age 9)  */


/* Organism #124 Fitness: 8.99999 Error: 1 */
genomestart 124
trait 1 0.1 0.452187 0.474475 0 0 0.989762 0 0 
trait 2 0.220207 0 0.0121986 0 0 0 0 0.0999952 
trait 3 0.3 0 0 0 0 0 0 0 
node 1 3 1 3
node 2 2 1 1
node 3 2 1 1
node 4 2 0 2
node 7 1 0 0
node 49 1 0 0
gene 3 1 4 1.87075 0 1 1.87075 1
gene 3 2 4 0.47942 0 2 0.47942 1
gene 3 3 4 0.207592 0 3 0.207592 1
gene 3 3 7 -3.01208 0 8 -3.01208 1
gene 3 7 4 -6.29123 0 9 -6.29123 1
gene 2 2 7 -0.729764 0 21 -0.729764 1
gene 1 1 7 1.08382 0 35 1.08382 1
gene 3 2 49 1.14109 0 131 1.14109 1
gene 3 49 4 3.03045 0 132 3.03045 1
gene 1 49 7 -0.920375 0 141 -0.920375 1
genomeend 124

/* Organism #125 Fitness: 14.5788 Error: 0.181775 */
/* ##------$ WINNER 125 SPECIES #20 $------## */
genomestart 125
trait 1 0.1 0.452187 0.474475 0 0 0.989762 0 0 
trait 2 0.220207 0 0.0121986 0 0 0 0 0.0999952 
trait 3 0.3 0 0 0 0 0 0 0 
node 1 3 1 3
node 2 2 1 1
node 3 2 1 1
node 4 2 0 2
node 7 1 0 0
node 49 1 0 0
gene 3 1 4 1.04789 0 1 1.04789 1
gene 3 2 4 -0.489368 0 2 -0.489368 1
gene 1 3 4 -1.62728 0 3 -1.62728 1
gene 3 3 7 -3.56981 0 8 -3.56981 1
gene 3 7 4 -8 0 9 -8 1
gene 2 2 7 -0.654505 0 21 -0.654505 1
gene 1 1 7 -0.173527 0 35 -0.173527 1
gene 3 2 49 -1.29529 0 131 -1.29529 1
gene 3 49 4 2.22407 0 132 2.22407 1
gene 1 49 7 1.77517 0 141 1.77517 1
genomeend 125

/* Organism #126 Fitness: 3.99956 Error: 2.00011 */
genomestart 126
trait 1 0.1 0.226093 0.237238 0 0 0.494881 0 0 
trait 2 0.215156 0 0.00914895 0 0 0 0 0.0749964 
trait 3 0.3 0 0 0 0 0 0 0 
node 1 3 1 3
node 2 2 1 1
node 3 2 1 1
node 4 2 0 2
node 7 1 0 0
node 49 1 0 0
gene 3 1 4 -0.161418 0 1 -0.161418 1
gene 3 2 4 -2.67518 0 2 -2.67518 1
gene 3 3 4 -0.327655 0 3 -0.327655 1
gene 3 3 7 -2.13194 0 8 -2.13194 1
gene 3 7 4 -8 0 9 -8 1
gene 2 2 7 0.525061 0 21 0.525061 0
gene 1 1 7 -2.27739 0 35 -2.27739 1
gene 3 2 49 -0.357687 0 131 -0.357687 1
gene 3 49 4 4.53022 0 132 4.53022 1
gene 1 49 7 -0.593322 0 141 -0.593322 1
genomeend 126

/* Organism #127 Fitness: 8.9984 Error: 1.00027 */
genomestart 127
trait 1 0.1 0.226093 0.237238 0 0 0.494881 0 0 
trait 2 0.215156 0 0.00914895 0 0 0 0 0.0749964 
trait 3 0.3 0 0 0 0 0 0 0 
node 1 3 1 3
node 2 2 1 1
node 3 2 1 1
node 4 2 0 2
node 7 1 0 0
node 49 1 0 0
gene 3 1 4 1.87075 0 1 1.87075 1
gene 3 2 4 -1.10487 0 2 -1.10487 1
gene 3 3 4 0.207592 0 3 0.207592 1
gene 3 3 7 -2.13194 0 8 -2.13194 1
gene 3 7 4 -6.29123 0 9 -6.29123 1
gene 2 2 7 -0.729764 0 21 -0.729764 0
gene 1 1 7 2.99176 0 35 2.99176 1
gene 3 2 49 -0.492517 0 131 -0.492517 1
gene 3 49 4 3.03045 0 132 3.03045 1
gene 1 49 7 -2.05338 0 141 -2.05338 1
genomeend 127

/* Organism #128 Fitness: 8.99998 Error: 1 */
genomestart 128
trait 1 0.1 0.452187 0.474475 0 0 0.989762 0 0 
trait 2 0.220207 0 0.0121986 0 0 0 0 0.0999952 
trait 3 0.3 0 0 0 0 0 0 0 
node 1 3 1 3
node 2 2 1 1
node 3 2 1 1
node 4 2 0 2
node 7 1 0 0
node 49 1 0 0
node 72 1 0 0
gene 3 1 4 1.87075 0 1 1.87075 1
gene 3 2 4 0.47942 0 2 0.47942 1
gene 3 3 4 0.207592 0 3 0.207592 0
gene 3 3 7 -3.01208 0 8 -3.01208 1
gene 3 7 4 -6.29123 0 9 -6.29123 1
gene 2 2 7 -0.729764 0 21 -0.729764 1
gene 1 1 7 1.08382 0 35 1.08382 1
gene 3 2 49 1.14109 0 131 1.14109 1
gene 3 49 4 3.03045 0 132 3.03045 1
gene 1 49 7 -0.920375 0 141 -0.920375 1
gene 3 3 72 1 0 209 0 1
gene 3 72 4 0.207592 0 210 0 1
genomeend 128

/* Organism #129 Fitness: 5.92529 Error: 1.56581 */
genomestart 129
trait 1 0.1 0.452187 0.474475 0 0 0.989762 0 0 
trait 2 0.220207 0 0.0121986 0 0 0 0 0.0999952 
trait 3 0.3 0 0 0 0 0 0 0 
node 1 3 1 3
node 2 2 1 1
node 3 2 1 1
node 4 2 0 2
node 7 1 0 0
node 49 1 0 0
node 73 1 0 0
gene 3 1 4 1.87075 0 1 1.87075 1
gene 3 2 4 0.47942 0 2 0.47942 1
gene 3 3 4 0.207592 0 3 0.207592 1
gene 3 3 7 -3.01208 0 8 -3.01208 1
gene 3 7 4 -6.29123 0 9 -6.29123 1
gene 2 2 7 -0.729764 0 21 -0.729764 1
gene 1 1 7 1.08382 0 35 1.08382 1
gene 3 2 49 1.14109 0 131 1.14109 0
gene 3 49 4 3.03045 0 132 3.03045 1
gene 1 49 7 -0.920375 0 141 -0.920375 1
gene 3 2 73 1 0 215 0 1
gene 3 73 49 1.14109 0 216 0 1
genomeend 129

/* Species #21 : (Size 8) (AF 6.1586) (Age 7)  */


/* Organism #130 Fitness: 8.99775 Error: 1.00038 */
genomestart 130
trait 1 0.75108 0.426661 0 0 0 0.460069 0.384813 0 
trait 2 0.2 0.0663514 0 0 0 0 0 0 
trait 3 0.136844 0 0.785146 0.170818 0 0 0.679579 0 
node 1 2 1 3
node 2 3 1 1
node 3 1 1 1
node 4 3 0 2
node 7 1 0 0
node 53 1 0 0
node 56 1 0 0
gene 3 1 4 -2.22961 0 1 -2.22961 1
gene 2 2 4 1.09533 0 2 1.09533 1
gene 3 3 4 4.56611 0 3 4.56611 1
gene 3 3 7 -5.45993 0 8 -5.45993 1
gene 3 7 4 -8 0 9 -8 0
gene 2 2 7 6.00252 0 21 6.00252 1
gene 3 1 7 -1.63975 0 43 -1.63975 1
gene 3 3 53 0.390286 0 148 0.390286 1
gene 3 53 4 5.57526 0 149 5.57526 1
gene 1 7 56 -1.02354 0 157 -1.02354 1
gene 3 56 4 -8 0 158 -8 1
genomeend 130

/* Organism #131 Fitness: 4.00737 Error: 1.99816 */
genomestart 131
trait 1 0.75108 0.426661 0 0 0 0.460069 0.384813 0 
trait 2 0.2 0.0663514 0 0 0 0 0 0 
trait 3 0.136844 0 0.785146 0.170818 0 0 0.679579 0 
node 1 2 1 3
node 2 3 1 1
node 3 1 1 1
node 4 3 0 2
node 7 1 0 0
node 53 2 0 0
node 56 1 0 0
gene 3 1 4 -3.11693 0 1 -3.11693 1
gene 2 2 4 -0.778255 0 2 -0.778255 1
gene 3 3 4 6.77331 0 3 6.77331 1
gene 3 3 7 -3.23321 0 8 -3.23321 1
gene 3 7 4 -7.53551 0 9 -7.53551 0
gene 2 2 7 6.10848 0 21 6.10848 1
gene 3 1 7 -3.66697 0 43 -3.66697 1
gene 3 3 53 0.795539 0 148 0.795539 1
gene 3 53 4 5.33666 0 149 5.33666 1
gene 1 7 56 -1.02354 0 157 -1.02354 1
gene 3 56 4 -8 0 158 -8 1
genomeend 131

/* Organism #132 Fitness: 3.99447 Error: 2.00138 */
genomestart 132
trait 1 0.75108 0.426661 0 0 0 0.460069 0.384813 0 
trait 2 0.2 0.0663514 0 0 0 0 0 0 
trait 3 0.136844 0 0.785146 0.170818 0 0 0.679579 0 
node 1 2 1 3
node 2 3 1 1
node 3 1 1 1
node 4 3 0 2
node 7 1 0 0
node 53 1 0 0
node 56 1 0 0
gene 3 1 4 -0.363221 0 1 -0.363221 1
gene 2 2 4 2.34071 0 2 2.34071 1
gene 3 3 4 5.43255 0 3 5.43255 1
gene 3 3 7 -6.63569 0 8 -6.63569 1
gene 3 7 4 -8 0 9 -8 0
gene 2 2 7 5.56646 0 21 5.56646 1
gene 3 1 7 -1.595 0 43 -1.595 1
gene 3 3 53 0.933836 0 148 0.933836 1
gene 3 53 4 6.06613 0 149 6.06613 1
gene 1 7 56 1.73626 0 157 1.73626 1
gene 3 56 4 -8 0 158 -8 1
genomeend 132

/* Organism #133 Fitness: 4.68679 Error: 1.8351 */
genomestart 133
trait 1 0.75108 0.426661 0 0 0 0.460069 0.384813 0 
trait 2 0.2 0.0663514 0 0 0 0 0 0 
trait 3 0.136844 0 0.785146 0.170818 0 0 0.679579 0 
node 1 2 1 3
node 2 3 1 1
node 3 1 1 1
node 4 3 0 2
node 7 1 0 0
node 53 2 0 0
node 56 1 0 0
gene 3 1 4 -1.33601 0 1 -1.33601 1
gene 2 2 4 2.43107 0 2 2.43107 1
gene 3 3 4 5.00418 0 3 5.00418 1
gene 3 3 7 -6.21826 0 8 -6.21826 1
gene 3 7 4 -6.30079 0 9 -6.30079 0
gene 2 2 7 6.68163 0 21 6.68163 1
gene 3 1 7 -1.73602 0 43 -1.73602 1
gene 3 3 53 -1.59932 0 148 -1.59932 1
gene 3 53 4 6.27031 0 149 6.27031 1
gene 1 7 56 -1.02354 0 157 -1.02354 1
gene 3 56 4 -8 0 158 -8 1
genomeend 133

/* Organism #134 Fitness: 8.99198 Error: 1.00134 */
genomestart 134
trait 1 0.75108 0.426661 0 0 0 0.460069 0.384813 0 
trait 2 0.2 0.0663514 0 0 0 0 0 0 
trait 3 0.136844 0 0.785146 0.170818 0 0 0.679579 0 
node 1 2 1 3
node 2 3 1 1
node 3 1 1 1
node 4 3 0 2
node 7 1 0 0
node 53 1 0 0
node 56 1 0 0
gene 3 1 4 -1.0289 0 1 -1.0289 1
gene 2 2 4 3.47891 0 2 3.47891 1
gene 3 3 4 6.68349 0 3 6.68349 1
gene 3 3 7 -5.4063 0 8 -5.4063 1
gene 3 7 4 -6.11457 0 9 -6.11457 0
gene 2 2 7 6.97489 0 21 6.97489 1
gene 3 1 7 -1.67609 0 43 -1.67609 1
gene 3 3 53 2.34904 0 148 2.34904 1
gene 3 53 4 5.3244 0 149 5.3244 1
gene 1 7 56 -1.02354 0 157 -1.02354 1
gene 3 56 4 -5.95748 0 158 -5.95748 1
genomeend 134

/* Organism #135 Fitness: 5.20116 Error: 1.71939 */
genomestart 135
trait 1 0.75108 0.426661 0 0 0 0.460069 0.384813 0 
trait 2 0.2 0.0663514 0 0 0 0 0 0 
trait 3 0.136844 0 0.785146 0.170818 0 0 0.679579 0 
node 1 2 1 3
node 2 3 1 1
node 3 1 1 1
node 4 3 0 2
node 7 1 0 0
node 53 1 0 0
node 56 1 0 0
gene 3 1 4 1.08521 0 1 1.08521 1
gene 2 2 4 1.09533 0 2 1.09533 1
gene 3 3 4 6.96416 0 3 6.96416 1
gene 3 3 7 -5.45823 0 8 -5.45823 1
gene 3 7 4 -5.60219 0 9 -5.60219 0
gene 2 2 7 -0.221746 0 21 -0.221746 1
gene 3 1 7 -2.68503 0 43 -2.68503 1
gene 3 3 53 0.271012 0 148 0.271012 1
gene 3 53 4 5.49708 0 149 5.49708 1
gene 1 7 56 -1.48803 0 157 -1.48803 1
gene 3 56 4 -7.28875 0 158 -7.28875 1
genomeend 135

/* Organism #136 Fitness: 8.80953 Error: 1.03191 */
genomestart 136
trait 1 0.75108 0.426661 0 0 0 0.460069 0.384813 0 
trait 2 0.2 0.0663514 0 0 0 0 0 0 
trait 3 0.136844 0 0.785146 0.170818 0 0 0.679579 0 
node 1 2 1 3
node 2 3 1 1
node 3 1 1 1
node 4 3 0 2
node 7 1 0 0
node 53 2 0 0
node 56 1 0 0
gene 3 1 4 -2.22961 0 1 -2.22961 1
gene 2 2 4 1.09533 0 2 1.09533 1
gene 3 3 4 4.56611 0 3 4.56611 1
gene 3 3 7 -5.45993 0 8 -5.45993 1
gene 3 7 4 -8 0 9 -8 0
gene 2 2 7 6.00252 0 21 6.00252 1
gene 3 1 7 -1.63975 0 43 -1.63975 1
gene 3 3 53 0.390286 0 148 0.390286 1
gene 3 53 4 5.57526 0 149 5.57526 1
gene 1 7 56 -1.02354 0 157 -1.02354 1
gene 3 56 4 -8 0 158 -8 1
gene 1 1 53 0.992478 0 217 0.992478 1
genomeend 136

/* Organism #137 Fitness: 4.57973 Error: 1.85997 */
genomestart 137
trait 1 0.75108 0.426661 0 0 0 0.460069 0.384813 0 
trait 2 0.2 0.0663514 0 0 0 0 0 0 
trait 3 0.136844 0 0.785146 0.170818 0 0 0.679579 0 
node 1 2 1 3
node 2 3 1 1
node 3 1 1 1
node 4 3 0 2
node 7 1 0 0
node 53 1 0 0
node 56 1 0 0
gene 3 1 4 -1.52327 0 1 -1.52327 1
gene 2 2 4 0.00983214 0 2 0.00983214 1
gene 3 3 4 4.56611 0 3 4.56611 1
gene 3 3 7 -4.20418 0 8 -4.20418 1
gene 3 7 4 -8 0 9 -8 0
gene 2 2 7 5.29966 0 21 5.29966 1
gene 3 1 7 -3.25104 0 43 -3.25104 1
gene 3 3 53 -1.69813 0 148 -1.69813 1
gene 3 53 4 4.76169 0 149 4.76169 1
gene 1 7 56 -1.49108 0 157 -1.49108 1
gene 3 56 4 -1.02276 0 158 -1.02276 1
genomeend 137

/* Species #22 : (Size 5) (AF 3.99997) (Age 6)  */


/* Organism #138 Fitness: 4 Error: 2 */
genomestart 138
trait 1 0.75108 0.426661 0 0 0 0.460069 0.384813 0 
trait 2 0.2 0.0663514 0 0 0 0 0 0 
trait 3 0.136844 0 0.785146 0.170818 0 0 0.679579 0 
node 1 2 1 3
node 2 3 1 1
node 3 1 1 1
node 4 3 0 2
node 7 3 0 0
node 53 1 0 0
gene 3 1 4 -2.78745 0 1 -2.78745 1
gene 2 2 4 -3.55818 0 2 -3.55818 1
gene 3 3 4 6.07693 0 3 6.07693 0
gene 3 3 7 0.538109 0 8 0.538109 1
gene 3 7 4 0.512688 0 9 0.512688 1
gene 1 2 7 1.70085 0 21 1.70085 1
gene 3 1 7 -5.63474 0 43 -5.63474 1
gene 3 3 53 -1.62047 0 148 -1.62047 1
gene 3 53 4 -1.6974 0 149 -1.6974 1
genomeend 138

/* Organism #139 Fitness: 4.00006 Error: 1.99999 */
genomestart 139
trait 1 0.75108 0.426661 0 0 0 0.460069 0.384813 0 
trait 2 0.2 0.0663514 0 0 0 0 0 0 
trait 3 0.136844 0 0.785146 0.170818 0 0 0.679579 0 
node 1 2 1 3
node 2 3 1 1
node 3 1 1 1
node 4 3 0 2
node 7 1 0 0
node 53 1 0 0
gene 3 1 4 -2.78745 0 1 -2.78745 1
gene 2 2 4 -4.10126 0 2 -4.10126 1
gene 3 3 4 4.42559 0 3 4.42559 0
gene 3 3 7 0.437212 0 8 0.437212 1
gene 3 7 4 3.24176 0 9 3.24176 1
gene 1 2 7 1.70085 0 21 1.70085 1
gene 3 1 7 -0.773662 0 43 -0.773662 1
gene 3 3 53 -1.62047 0 148 -1.62047 1
gene 3 53 4 -1.6974 0 149 -1.6974 1
genomeend 139

/* Organism #140 Fitness: 4 Error: 2 */
genomestart 140
trait 1 0.75108 0.426661 0 0 0 0.460069 0.384813 0 
trait 2 0.2 0.0663514 0 0 0 0 0 0 
trait 3 0.136844 0 0.785146 0.170818 0 0 0.679579 0 
node 1 2 1 3
node 2 3 1 1
node 3 1 1 1
node 4 3 0 2
node 7 1 0 0
node 53 1 0 0
gene 3 1 4 -4.79562 0 1 -4.79562 1
gene 2 2 4 -2.5523 0 2 -2.5523 1
gene 3 3 4 3.93929 0 3 3.93929 0
gene 3 3 7 -0.676623 0 8 -0.676623 1
gene 3 7 4 2.55499 0 9 2.55499 1
gene 1 2 7 0.170742 0 21 0.170742 1
gene 3 1 7 -2.60759 0 43 -2.60759 1
gene 3 3 53 -3.14581 0 148 -3.14581 1
gene 3 53 4 -0.917366 0 149 -0.917366 1
genomeend 140

/* Organism #141 Fitness: 3.9998 Error: 2.00005 */
genomestart 141
trait 1 0.75108 0.426661 0 0 0 0.460069 0.384813 0 
trait 2 0.2 0.0663514 0 0 0 0 0 0 
trait 3 0.136844 0 0.785146 0.170818 0 0 0.679579 0 
node 1 2 1 3
node 2 3 1 1
node 3 1 1 1
node 4 3 0 2
node 7 3 0 0
node 53 1 0 0
gene 3 1 4 -0.474939 0 1 -0.474939 1
gene 2 2 4 -1.3533 0 2 -1.3533 1
gene 3 3 4 -0.950506 0 3 -0.950506 1
gene 3 3 7 1.75359 0 8 1.75359 1
gene 3 7 4 1.87722 0 9 1.87722 1
gene 1 2 7 -0.140666 0 21 -0.140666 1
gene 3 1 7 -2.35515 0 43 -2.35515 1
gene 3 3 53 -0.367087 0 148 -0.367087 1
gene 3 53 4 -2.30058 0 149 -2.30058 1
genomeend 141

/* Organism #142 Fitness: 4 Error: 2 */
genomestart 142
trait 1 0.75108 0.426661 0 0 0 0.460069 0.384813 0 
trait 2 0.2 0.0663514 0 0 0 0 0 0 
trait 3 0.136844 0 0.785146 0.170818 0 0 0.679579 0 
node 1 2 1 3
node 2 3 1 1
node 3 1 1 1
node 4 3 0 2
node 7 3 0 0
node 53 1 0 0
gene 3 1 4 -2.72715 0 1 -2.72715 1
gene 2 2 4 -3.55818 0 2 -3.55818 1
gene 3 3 4 6.07693 0 3 6.07693 0
gene 3 3 7 0.538109 0 8 0.538109 1
gene 3 7 4 0.512688 0 9 0.512688 1
gene 1 2 7 2.08167 0 21 2.08167 1
gene 3 1 7 -5.63474 0 43 -5.63474 1
gene 3 3 53 -0.514013 0 148 -0.514013 1
gene 3 53 4 -3.06714 0 149 -3.06714 1
gene 1 53 7 -0.717299 0 218 -0.717299 1
genomeend 142

/* Species #23 : (Size 7) (AF 5.30236) (Age 4)  */


/* Organism #143 Fitness: 8.99939 Error: 1.0001 */
genomestart 143
trait 1 0.1 0 0 0 0 0 0 0 
trait 2 0.2 0 0 0 0 0 0 0 
trait 3 0.0599876 0 0 0 0.553064 0.599613 0 1 
node 1 3 1 3
node 2 2 1 1
node 3 2 1 1
node 4 2 0 2
node 7 1 0 0
node 61 1 0 0
gene 3 1 4 -0.192024 0 1 -0.192024 1
gene 3 2 4 5.66486 0 2 5.66486 1
gene 3 3 4 2.06046 0 3 2.06046 1
gene 3 3 7 -1.89875 0 8 -1.89875 1
gene 3 7 4 -6.72898 0 9 -6.72898 1
gene 2 2 7 -1.74928 0 21 -1.74928 0
gene 1 1 7 1.04572 0 35 1.04572 1
gene 2 2 61 3.8317 0 174 3.8317 1
gene 2 61 7 -2.06975 0 175 -2.06975 1
genomeend 143

/* Organism #144 Fitness: 8.99909 Error: 1.00015 */
genomestart 144
trait 1 0.1 0 0 0 0 0 0 0 
trait 2 0.2 0 0 0 0 0 0 0 
trait 3 0.0599876 0 0 0 0.553064 0.599613 0 1 
node 1 3 1 3
node 2 2 1 1
node 3 2 1 1
node 4 2 0 2
node 7 1 0 0
node 61 1 0 0
gene 3 1 4 -0.192024 0 1 -0.192024 1
gene 3 2 4 5.66486 0 2 5.66486 1
gene 3 3 4 2.06046 0 3 2.06046 1
gene 3 3 7 -1.89875 0 8 -1.89875 1
gene 3 7 4 -6.72898 0 9 -6.72898 1
gene 2 2 7 -1.74928 0 21 -1.74928 0
gene 1 1 7 1.04572 0 35 1.04572 1
gene 2 2 61 3.8317 0 174 3.8317 1
gene 2 61 7 -2.06975 0 175 -2.06975 1
gene 1 3 61 -0.801764 0 219 -0.801764 1
genomeend 144

/* Organism #145 Fitness: 1.00014 Error: 2.99993 */
genomestart 145
trait 1 0.1 0 0 0 0 0 0 0 
trait 2 0.2 0 0 0 0 0 0 0 
trait 3 0.0599876 0 0 0 0.553064 0.299806 0 0.708206 
node 1 3 1 3
node 2 2 1 1
node 3 2 1 1
node 4 2 0 2
node 7 1 0 0
node 61 1 0 0
gene 3 1 4 -1.66486 0 1 -1.66486 1
gene 3 2 4 6.91884 0 2 6.91884 1
gene 3 3 4 -3.18514 0 3 -3.18514 1
gene 3 3 7 -3.73955 0 8 -3.73955 1
gene 3 7 4 -7.36882 0 9 -7.36882 1
gene 2 2 7 -3.43509 0 21 -3.43509 0
gene 1 1 7 1.26098 0 35 1.26098 1
gene 2 2 61 3.36404 0 174 3.36404 1
gene 2 61 7 0.234841 0 175 0.234841 1
genomeend 145

/* Organism #146 Fitness: 3.99976 Error: 2.00006 */
genomestart 146
trait 1 0.1 0 0 0 0 0 0 0 
trait 2 0.2 0 0 0 0 0 0 0 
trait 3 0.0599876 0 0 0 0.553064 0.299806 0 0.708206 
node 1 3 1 3
node 2 2 1 1
node 3 2 1 1
node 4 2 0 2
node 7 1 0 0
node 61 1 0 0
gene 3 1 4 -1.16532 0 1 -1.16532 1
gene 3 2 4 5.26443 0 2 5.26443 1
gene 3 3 4 -0.00400209 0 3 -0.00400209 1
gene 3 3 7 -3.86974 0 8 -3.86974 1
gene 3 7 4 -0.586873 0 9 -0.586873 1
gene 2 2 7 -2.07713 0 21 -2.07713 0
gene 1 1 7 0.64525 0 35 0.64525 1
gene 2 2 61 4.30452 0 174 4.30452 1
gene 2 61 7 -4.50258 0 175 -4.50258 1
genomeend 146

/* Organism #147 Fitness: 1.1064 Error: 2.94815 */
genomestart 147
trait 1 0.1 0 0 0 0 0 0 0 
trait 2 0.2 0 0 0 0 0 0 0 
trait 3 0.0599876 0 0 0 0.553064 0.299806 0 0.708206 
node 1 3 1 3
node 2 2 1 1
node 3 2 1 1
node 4 2 0 2
node 7 1 0 0
node 61 1 0 0
gene 3 1 4 0.168372 0 1 0.168372 1
gene 3 2 4 3.48837 0 2 3.48837 1
gene 3 3 4 3.86984 0 3 3.86984 1
gene 3 3 7 -0.522996 0 8 -0.522996 1
gene 3 7 4 -4.6604 0 9 -4.6604 1
gene 2 2 7 -3.69243 0 21 -3.69243 0
gene 1 1 7 2.58588 0 35 2.58588 1
gene 2 2 61 3.77611 0 174 3.77611 1
gene 2 61 7 -0.518347 0 175 -0.518347 1
genomeend 147

/* Organism #148 Fitness: 8.9963 Error: 1.00062 */
genomestart 148
trait 1 0.1 0 0 0 0 0 0 0 
trait 2 0.2 0 0 0 0 0 0 0 
trait 3 0.0599876 0 0 0 0.553064 0.299806 0 0.708206 
node 1 3 1 3
node 2 2 1 1
node 3 2 1 1
node 4 2 0 2
node 7 1 0 0
node 61 1 0 0
gene 3 1 4 -0.192024 0 1 -0.192024 1
gene 3 2 4 5.66486 0 2 5.66486 1
gene 3 3 4 2.06046 0 3 2.06046 1
gene 3 3 7 -1.89875 0 8 -1.89875 1
gene 3 7 4 -6.72898 0 9 -6.72898 1
gene 2 2 7 -1.74928 0 21 -1.74928 0
gene 1 1 7 1.04572 0 35 1.04572 1
gene 2 2 61 3.8317 0 174 3.8317 1
gene 2 61 7 -2.29892 0 175 -2.29892 1
gene 2 61 4 -0.733904 0 220 -0.733904 1
genomeend 148

/* Organism #149 Fitness: 4.01544 Error: 1.99614 */
genomestart 149
trait 1 0.1 0 0 0 0 0 0 0 
trait 2 0.2 0 0 0 0 0 0 0 
trait 3 0.0599876 0 0 0 0.553064 0 0 0.416411 
node 1 3 1 3
node 2 2 1 1
node 3 2 1 1
node 4 2 0 2
node 7 1 0 0
node 61 1 0 0
gene 3 1 4 1.18213 0 1 1.18213 1
gene 3 2 4 3.31719 0 2 3.31719 1
gene 3 3 4 0.685152 0 3 0.685152 1
gene 3 3 7 -0.377076 0 8 -0.377076 1
gene 3 7 4 -8 0 9 -8 1
gene 2 2 7 -4.28637 0 21 -4.28637 0
gene 1 1 7 0.637496 0 35 0.637496 1
gene 2 2 61 4.51414 0 174 4.51414 1
gene 2 61 7 -3.2604 0 175 -3.2604 1
genomeend 149
