
/* Species #3 : (Size 10) (AF 7.50079) (Age 38)  */


/* Organism #0 Fitness: 9 Error: 1 */
genomestart 0
trait 1 0.1 0 0 0 0 0 0 0 
trait 2 0.2 0.0382851 0 0.114024 0 0.035101 0.0544719 0 
trait 3 0.3 0 0 0 0 0 0 0 
node 1 3 1 3
node 2 1 1 1
node 3 2 1 1
node 4 3 0 2
node 12 1 0 0
gene 2 1 4 -7.35091 0 1 -7.35091 1
gene 3 2 4 7.5834 0 2 7.5834 1
gene 1 3 4 7.07619 0 3 7.07619 1
gene 1 3 12 8 0 18 8 1
gene 2 12 4 8 0 19 8 1
gene 1 2 12 7.08712 0 49 7.08712 1
gene 2 1 12 -3.47312 0 60 -3.47312 1
genomeend 0

/* Organism #1 Fitness: 9 Error: 1 */
genomestart 1
trait 1 0.1 0 0 0 0 0 0 0 
trait 2 0.2 0.0382851 0 0.114024 0 0.035101 0.0544719 0 
trait 3 0.3 0 0 0 0 0 0 0 
node 1 3 1 3
node 2 1 1 1
node 3 2 1 1
node 4 2 0 2
node 12 1 0 0
gene 2 1 4 -8 0 1 -8 1
gene 3 2 4 6.34488 0 2 6.34488 1
gene 1 3 4 7.01126 0 3 7.01126 1
gene 1 3 12 5.97502 0 18 5.97502 1
gene 2 12 4 6.51761 0 19 6.51761 1
gene 1 2 12 7.44183 0 49 7.44183 1
gene 2 1 12 -1.40575 0 60 -1.40575 1
genomeend 1

/* Organism #2 Fitness: 4.01105 Error: 1.99724 */
genomestart 2
trait 1 0.1 0 0 0 0 0 0 0 
trait 2 0.2 0.0382851 0 0.114024 0 0.035101 0.0544719 0 
trait 3 0.326019 0.0404728 0 0 0.107352 0 0 0 
node 1 3 1 3
node 2 1 1 1
node 3 2 1 1
node 4 3 0 2
node 12 1 0 0
gene 2 1 4 -7.90686 0 1 -7.90686 1
gene 3 2 4 6.7109 0 2 6.7109 1
gene 1 3 4 5.92454 0 3 5.92454 1
gene 1 3 12 8 0 18 8 1
gene 2 12 4 8 0 19 8 1
gene 1 2 12 8 0 49 8 0
gene 2 1 12 -4.24629 0 60 -4.24629 1
genomeend 2

/* Organism #3 Fitness: 9 Error: 1 */
genomestart 3
trait 1 0.1 0 0 0 0 0 0 0 
trait 2 0.2 0.0382851 0 0.114024 0 0.035101 0.0544719 0 
trait 3 0.352038 0.0809456 0 0 0.214703 0 0 0 
node 1 3 1 3
node 2 1 1 1
node 3 2 1 1
node 4 3 0 2
node 12 1 0 0
node 124 1 0 0
gene 2 1 4 -5.2216 0 1 -5.2216 1
gene 3 2 4 8 0 2 8 1
gene 1 3 4 7.8094 0 3 7.8094 1
gene 1 3 12 5.55411 0 18 5.55411 1
gene 2 12 4 5.55333 0 19 5.55333 1
gene 1 2 12 4.43424 0 49 4.43424 0
gene 2 1 12 -4.65189 0 60 -4.65189 1
gene 1 2 124 1.02405 0 399 1.02405 1
gene 1 124 12 7.06468 0 400 7.06468 1
genomeend 3

/* Organism #4 Fitness: 4.01614 Error: 1.99597 */
genomestart 4
trait 1 0.1 0 0 0 0 0 0 0 
trait 2 0.2 0.0382851 0 0.114024 0 0.035101 0.0544719 0 
trait 3 0.326019 0.0404728 0 0 0.107352 0 0 0 
node 1 3 1 3
node 2 1 1 1
node 3 2 1 1
node 4 3 0 2
node 12 1 0 0
gene 2 1 4 -8 0 1 -8 1
gene 3 2 4 6.88113 0 2 6.88113 1
gene 1 3 4 8 0 3 8 1
gene 1 3 12 7.20731 0 18 7.20731 1
gene 2 12 4 5.51717 0 19 5.51717 1
gene 1 2 12 1.51162 0 49 1.51162 0
gene 2 1 12 -2.8573 0 60 -2.8573 1
genomeend 4

/* Organism #5 Fitness: 9 Error: 1 */
genomestart 5
trait 1 0.1 0 0 0 0 0 0 0 
trait 2 0.2 0.0382851 0 0.114024 0 0.035101 0.0544719 0 
trait 3 0.326019 0.0404728 0 0 0.107352 0 0 0 
node 1 3 1 3
node 2 1 1 1
node 3 2 1 1
node 4 2 0 2
node 12 1 0 0
gene 2 1 4 -7.31763 0 1 -7.31763 1
gene 3 2 4 7.19668 0 2 7.19668 1
gene 1 3 4 7.54354 0 3 7.54354 1
gene 1 3 12 5.73486 0 18 5.73486 1
gene 2 12 4 6.92454 0 19 6.92454 1
gene 1 2 12 6.28585 0 49 6.28585 1
gene 2 1 12 -2.2094 0 60 -2.2094 1
genomeend 5

/* Organism #6 Fitness: 8.99906 Error: 1.00016 */
genomestart 6
trait 1 0.1 0 0 0 0 0 0 0 
trait 2 0.2 0.0382851 0 0.114024 0 0.035101 0.0544719 0 
trait 3 0.352038 0.0809456 0 0 0.214703 0 0 0 
node 1 3 1 3
node 2 1 1 1
node 3 2 1 1
node 4 3 0 2
node 12 1 0 0
gene 2 1 4 -1.77753 0 1 -1.77753 1
gene 3 2 4 6.48696 0 2 6.48696 1
gene 1 3 4 8 0 3 8 1
gene 1 3 12 6.09051 0 18 6.09051 1
gene 2 12 4 -0.830572 0 19 -0.830572 1
gene 1 2 12 6.06933 0 49 6.06933 0
gene 2 1 12 -1.38692 0 60 -1.38692 1
genomeend 6

/* Organism #7 Fitness: 7.30279 Error: 1.29763 */
genomestart 7
trait 1 0.1 0 0 0 0 0 0 0 
trait 2 0.2 0.0382851 0 0.114024 0 0.035101 0.0544719 0 
trait 3 0.326019 0.0404728 0 0 0.107352 0 0 0 
node 1 3 1 3
node 2 1 1 1
node 3 2 1 1
node 4 3 0 2
node 12 1 0 0
gene 2 1 4 -7.51319 0 1 -7.51319 1
gene 3 2 4 7.68755 0 2 7.68755 1
gene 1 3 4 7.15193 0 3 7.15193 1
gene 1 3 12 8 0 18 8 1
gene 2 12 4 8 0 19 8 1
gene 1 2 12 6.84421 0 49 6.84421 0
gene 2 1 12 -4.16217 0 60 -4.16217 1
genomeend 7

/* Organism #8 Fitness: 6.96599 Error: 1.36068 */
genomestart 8
trait 1 0.1 0 0 0 0 0 0 0 
trait 2 0.2 0.0382851 0 0.114024 0 0.035101 0.0544719 0 
trait 3 0.352038 0.0809456 0 0 0.214703 0 0 0 
node 1 3 1 3
node 2 1 1 1
node 3 2 1 1
node 4 2 0 2
node 12 1 0 0
gene 2 1 4 -7.67546 0 1 -7.67546 1
gene 3 2 4 7.7917 0 2 7.7917 1
gene 1 3 4 7.22768 0 3 7.22768 1
gene 1 3 12 8 0 18 8 1
gene 2 12 4 8 0 19 8 1
gene 1 2 12 6.6013 0 49 6.6013 0
gene 2 1 12 -4.85121 0 60 -4.85121 1
genomeend 8

/* Organism #9 Fitness: 7.71286 Error: 1.2228 */
genomestart 9
trait 1 0.1 0 0 0 0 0 0 0 
trait 2 0.2 0.0382851 0 0.114024 0 0.035101 0.0544719 0 
trait 3 0.352038 0.0809456 0 0 0.214703 0 0 0 
node 1 3 1 3
node 2 1 1 1
node 3 2 1 1
node 4 2 0 2
node 12 1 0 0
gene 2 1 4 -0.253732 0 1 -0.253732 1
gene 3 2 4 8 0 2 8 1
gene 1 3 4 6.11812 0 3 6.11812 1
gene 1 3 12 7.39283 0 18 7.39283 1
gene 2 12 4 -1.79615 0 19 -1.79615 1
gene 1 2 12 5.16392 0 49 5.16392 0
gene 2 1 12 -4.35975 0 60 -4.35975 1
genomeend 9

/* Species #4 : (Size 10) (AF 7.17077) (Age 37)  */


/* Organism #10 Fitness: 9 Error: 1 */
genomestart 10
trait 1 0 0.592696 0.940659 0 0.985309 0 0.459836 0.731613 
trait 2 0.2 0.845868 0 0 0 0 0 0.614839 
trait 3 0.3 0 0 0 0 0.105092 0 0 
node 1 3 1 3
node 2 3 1 1
node 3 2 1 1
node 4 2 0 2
node 14 2 0 0
gene 1 1 4 -2.73238 0 1 -2.73238 1
gene 3 2 4 7.57375 0 2 7.57375 1
gene 2 3 4 -2.34904 0 3 -2.34904 1
gene 2 3 14 1.90948 0 22 1.90948 1
gene 2 14 4 -7.73282 0 23 -7.73282 1
gene 2 2 14 -0.668266 0 274 -0.668266 1
genomeend 10

/* Organism #11 Fitness: 9 Error: 1 */
genomestart 11
trait 1 0 0.592696 0.940659 0 0.985309 0 0.459836 0.731613 
trait 2 0.2 0.422934 0 0 0 0 0 0.30742 
trait 3 0.3 0 0 0 0 0.105092 0 0 
node 1 3 1 3
node 2 3 1 1
node 3 2 1 1
node 4 2 0 2
node 14 2 0 0
gene 1 1 4 -1.69135 0 1 -1.69135 1
gene 3 2 4 5.03574 0 2 5.03574 1
gene 2 3 4 -5.15174 0 3 -5.15174 1
gene 2 3 14 2.96794 0 22 2.96794 1
gene 2 14 4 -5.91887 0 23 -5.91887 1
gene 2 2 14 -1.74726 0 274 -1.74726 1
genomeend 11

/* Organism #12 Fitness: 6.96427 Error: 1.36101 */
genomestart 12
trait 1 0 0.592696 0.940659 0 0.985309 0 0.459836 0.731613 
trait 2 0.2 0.422934 0 0 0 0 0 0.30742 
trait 3 0.3 0 0 0 0 0.105092 0 0 
node 1 3 1 3
node 2 3 1 1
node 3 2 1 1
node 4 2 0 2
node 14 2 0 0
gene 1 1 4 -3.07373 0 1 -3.07373 1
gene 3 2 4 8 0 2 8 1
gene 2 3 4 -2.34904 0 3 -2.34904 1
gene 2 3 14 2.25023 0 22 2.25023 1
gene 2 14 4 -6.39231 0 23 -6.39231 1
gene 2 2 14 0.225836 0 274 0.225836 1
genomeend 12

/* Organism #13 Fitness: 9 Error: 1 */
genomestart 13
trait 1 0 0.592696 0.940659 0 0.985309 0 0.459836 0.731613 
trait 2 0.2 0 0 0 0 0 0 0 
trait 3 0.3 0 0 0 0 0.105092 0 0 
node 1 3 1 3
node 2 3 1 1
node 3 2 1 1
node 4 2 0 2
node 14 2 0 0
gene 1 1 4 -1.19717 0 1 -1.19717 1
gene 3 2 4 5.83178 0 2 5.83178 1
gene 2 3 4 -3.79442 0 3 -3.79442 1
gene 2 3 14 2.63616 0 22 2.63616 1
gene 2 14 4 -6.50727 0 23 -6.50727 1
gene 2 2 14 -1.43663 0 274 -1.43663 1
genomeend 13

/* Organism #14 Fitness: 4 Error: 2 */
genomestart 14
trait 1 0 0.592696 0.940659 0 0.985309 0 0.459836 0.731613 
trait 2 0.2 0.845868 0 0 0 0 0 0.614839 
trait 3 0.3 0 0 0 0 0.105092 0 0 
node 1 3 1 3
node 2 3 1 1
node 3 2 1 1
node 4 3 0 2
node 14 2 0 0
gene 1 1 4 -5.05597 0 1 -5.05597 1
gene 3 2 4 8 0 2 8 1
gene 2 3 4 -0.202864 0 3 -0.202864 1
gene 2 3 14 2.44926 0 22 2.44926 1
gene 2 14 4 -8 0 23 -8 1
gene 2 2 14 1.25033 0 274 1.25033 1
genomeend 14

/* Organism #15 Fitness: 6.50774 Error: 1.44897 */
genomestart 15
trait 1 0 0.592696 0.940659 0 0.985309 0 0.459836 0.731613 
trait 2 0.2 0.422934 0 0 0 0 0 0.30742 
trait 3 0.3 0 0 0 0 0.105092 0 0 
node 1 3 1 3
node 2 3 1 1
node 3 2 1 1
node 4 2 0 2
node 14 2 0 0
gene 1 1 4 -2.88345 0 1 -2.88345 1
gene 3 2 4 8 0 2 8 1
gene 2 3 4 -5.03984 0 3 -5.03984 1
gene 2 3 14 -0.224837 0 22 -0.224837 1
gene 2 14 4 -6.47539 0 23 -6.47539 1
gene 2 2 14 -0.584222 0 274 -0.584222 1
genomeend 15

/* Organism #16 Fitness: 4.00001 Error: 2 */
genomestart 16
trait 1 0 0.592696 0.940659 0 0.985309 0 0.459836 0.731613 
trait 2 0.2 0.845868 0 0 0 0 0 0.614839 
trait 3 0.3 0 0 0 0 0.105092 0 0 
node 1 3 1 3
node 2 3 1 1
node 3 2 1 1
node 4 2 0 2
node 14 2 0 0
gene 1 1 4 -2.32035 0 1 -2.32035 1
gene 3 2 4 8 0 2 8 1
gene 2 3 4 -2.52196 0 3 -2.52196 1
gene 2 3 14 1.88414 0 22 1.88414 1
gene 2 14 4 -5.65024 0 23 -5.65024 1
gene 2 2 14 -2.34497 0 274 -2.34497 1
genomeend 16

/* Organism #17 Fitness: 8.93496 Error: 1.01086 */
genomestart 17
trait 1 0 0.592696 0.940659 0 0.985309 0 0.459836 0.731613 
trait 2 0.2 0 0 0 0 0 0 0 
trait 3 0.3 0 0 0 0 0.105092 0 0 
node 1 3 1 3
node 2 3 1 1
node 3 2 1 1
node 4 2 0 2
node 14 2 0 0
gene 1 1 4 1.32069 0 1 1.32069 1
gene 3 2 4 5.58916 0 2 5.58916 1
gene 2 3 4 -1.34555 0 3 -1.34555 1
gene 2 3 14 4.31604 0 22 4.31604 1
gene 2 14 4 -6.48202 0 23 -6.48202 1
gene 2 2 14 -0.453182 0 274 -0.453182 1
genomeend 17

/* Organism #18 Fitness: 5.30074 Error: 1.69767 */
genomestart 18
trait 1 0 0.592696 0.940659 0 0.985309 0 0.459836 0.731613 
trait 2 0.2 0 0 0 0 0 0 0 
trait 3 0.3 0 0 0 0 0.105092 0 0 
node 1 3 1 3
node 2 3 1 1
node 3 2 1 1
node 4 2 0 2
node 14 2 0 0
gene 1 1 4 -1.14211 0 1 -1.14211 1
gene 3 2 4 6.1737 0 2 6.1737 1
gene 2 3 4 -2.52073 0 3 -2.52073 1
gene 2 3 14 2.83988 0 22 2.83988 1
gene 2 14 4 -6.50727 0 23 -6.50727 1
gene 2 2 14 -2.95694 0 274 -2.95694 1
genomeend 18

/* Organism #19 Fitness: 9 Error: 1 */
genomestart 19
trait 1 0 0.592696 0.940659 0 0.985309 0 0.459836 0.731613 
trait 2 0.2 0 0 0 0 0 0 0 
trait 3 0.3 0 0 0 0 0.105092 0 0 
node 1 3 1 3
node 2 3 1 1
node 3 2 1 1
node 4 2 0 2
node 14 2 0 0
gene 1 1 4 -1.19717 0 1 -1.19717 1
gene 3 2 4 5.83178 0 2 5.83178 1
gene 2 3 4 -3.79442 0 3 -3.79442 1
gene 2 3 14 2.63616 0 22 2.63616 1
gene 2 14 4 -6.50727 0 23 -6.50727 1
gene 2 2 14 -1.43663 0 274 -1.43663 1
genomeend 19

/* Species #5 : (Size 7) (AF 7.43341) (Age 34)  */


/* Organism #20 Fitness: 9 Error: 1 */
genomestart 20
trait 1 0.075 0 0.195128 0 0 0 0.223343 0.196119 
trait 2 0.184188 0.405566 0.995571 0 0 0.395325 0.425676 0 
trait 3 0.3 0 0 0 0 0.0525705 0.549418 0.160536 
node 1 3 1 3
node 2 3 1 1
node 3 3 1 1
node 4 2 0 2
node 11 1 0 0
node 22 1 0 0
gene 2 1 4 -3.87373 0 1 -3.87373 1
gene 3 2 4 -2.11435 0 2 -2.11435 0
gene 3 3 4 -4.44244 0 3 -4.44244 1
gene 1 2 11 2.58677 0 16 2.58677 1
gene 3 11 4 8 0 17 8 1
gene 2 3 11 4.63142 0 36 4.63142 0
gene 2 3 22 6.10064 0 46 6.10064 1
gene 2 22 11 -8 0 47 -8 1
gene 1 1 11 2.51105 0 178 2.51105 1
gene 1 22 4 0.336526 0 338 0.336526 1
genomeend 20

/* Organism #21 Fitness: 3.47169 Error: 2.13675 */
genomestart 21
trait 1 0.221482 0 0.195128 0.0978012 0 0 0.417507 0.196119 
trait 2 0.233995 0.304174 0.791304 0 0 0.296494 0.319257 0 
trait 3 0.3 0 0 0 0 0.643264 1 0.160536 
node 1 3 1 3
node 2 3 1 1
node 3 2 1 1
node 4 2 0 2
node 11 1 0 0
node 22 1 0 0
gene 2 1 4 -4.14249 0 1 -4.14249 1
gene 3 2 4 -4.59402 0 2 -4.59402 0
gene 3 3 4 -5.29298 0 3 -5.29298 1
gene 1 2 11 4.86045 0 16 4.86045 1
gene 3 11 4 6.66205 0 17 6.66205 1
gene 2 3 11 3.44571 0 36 3.44571 0
gene 2 3 22 5.66879 0 46 5.66879 1
gene 2 22 11 -6.29098 0 47 -6.29098 1
gene 1 1 11 3.45036 0 178 3.45036 1
gene 1 22 4 2.39957 0 338 2.39957 1
genomeend 21

/* Organism #22 Fitness: 9 Error: 1 */
genomestart 22
trait 1 0.221482 0 0.195128 0.0978012 0 0 0.417507 0.196119 
trait 2 0.233995 0.304174 0.791304 0 0 0.296494 0.319257 0 
trait 3 0.3 0 0 0 0 0.0525705 0.549418 0.160536 
node 1 3 1 3
node 2 3 1 1
node 3 3 1 1
node 4 2 0 2
node 11 1 0 0
node 22 1 0 0
gene 2 1 4 -3.87373 0 1 -3.87373 1
gene 3 2 4 -0.174059 0 2 -0.174059 0
gene 3 3 4 -3.20473 0 3 -3.20473 1
gene 1 2 11 2.58677 0 16 2.58677 1
gene 3 11 4 8 0 17 8 1
gene 2 3 11 3.63318 0 36 3.63318 0
gene 2 3 22 6.10064 0 46 6.10064 1
gene 2 22 11 -8 0 47 -8 1
gene 1 1 11 2.28417 0 178 2.28417 1
gene 1 22 4 1.36805 0 338 1.36805 1
genomeend 22

/* Organism #23 Fitness: 8.87268 Error: 1.0213 */
genomestart 23
trait 1 0.221482 0 0.195128 0.0978012 0 0 0.417507 0.196119 
trait 2 0.233995 0.304174 0.791304 0 0 0.296494 0.319257 0 
trait 3 0 0 0.970603 0 0 0.0525705 0.549418 0.160536 
node 1 3 1 3
node 2 3 1 1
node 3 3 1 1
node 4 2 0 2
node 11 1 0 0
node 22 1 0 0
gene 2 1 4 -4.33182 0 1 -4.33182 1
gene 3 2 4 -1.14034 0 2 -1.14034 0
gene 3 3 4 -0.933473 0 3 -0.933473 1
gene 1 2 11 2.58677 0 16 2.58677 1
gene 3 11 4 8 0 17 8 1
gene 2 3 11 -0.93366 0 36 -0.93366 0
gene 2 3 22 6.96081 0 46 6.96081 1
gene 2 22 11 -8 0 47 -8 1
gene 1 1 11 1.50602 0 178 1.50602 1
gene 1 22 4 0.421806 0 338 0.421806 1
genomeend 23

/* Organism #24 Fitness: 8.687 Error: 1.05263 */
genomestart 24
trait 1 0.367964 0 0.195128 0.195602 0 0 0 0.300641 
trait 2 0.283802 0.202783 0.587037 0 0 0.197663 0.212838 0 
trait 3 0.3 0 0 0 0 0.0525705 0.549418 0.160536 
node 1 3 1 3
node 2 3 1 1
node 3 3 1 1
node 4 2 0 2
node 11 1 0 0
node 22 1 0 0
gene 2 1 4 -6.18225 0 1 -6.18225 1
gene 3 2 4 1.7428 0 2 1.7428 0
gene 3 3 4 -2.47401 0 3 -2.47401 1
gene 1 2 11 3.42461 0 16 3.42461 1
gene 3 11 4 8 0 17 8 1
gene 2 3 11 0.177405 0 36 0.177405 0
gene 2 3 22 7.24405 0 46 7.24405 1
gene 2 22 11 -5.62991 0 47 -5.62991 1
gene 1 1 11 -0.268351 0 178 -0.268351 1
gene 1 22 4 0.0505064 0 338 0.0505064 1
genomeend 24

/* Organism #25 Fitness: 9 Error: 1 */
genomestart 25
trait 1 0.075 0 0.195128 0 0 0 0.223343 0.196119 
trait 2 0.184188 0.405566 0.995571 0 0 0.395325 0.425676 0 
trait 3 0.3 0 0 0 0 0.0525705 0.549418 0.160536 
node 1 3 1 3
node 2 3 1 1
node 3 3 1 1
node 4 2 0 2
node 11 1 0 0
node 22 2 0 0
gene 2 1 4 -3.93515 0 1 -3.93515 1
gene 3 2 4 0.277003 0 2 0.277003 0
gene 3 3 4 -2.12457 0 3 -2.12457 1
gene 1 2 11 4.28187 0 16 4.28187 1
gene 3 11 4 8 0 17 8 1
gene 2 3 11 6.22137 0 36 6.22137 0
gene 2 3 22 6.63273 0 46 6.63273 1
gene 2 22 11 -7.75523 0 47 -7.75523 1
gene 1 1 11 2.69101 0 178 2.69101 1
gene 1 22 4 0.26521 0 338 0.26521 1
genomeend 25

/* Organism #26 Fitness: 4.00249 Error: 1.99938 */
genomestart 26
trait 1 0.221482 0 0.195128 0.0978012 0 0 0.417507 0.196119 
trait 2 0.233995 0.304174 0.791304 0 0 0.296494 0.319257 0 
trait 3 0.3 0 0 0 0 0.0525705 0.549418 0.160536 
node 1 3 1 3
node 2 3 1 1
node 3 3 1 1
node 4 2 0 2
node 11 1 0 0
node 22 1 0 0
gene 2 1 4 -3.87373 0 1 -3.87373 1
gene 3 2 4 -0.174059 0 2 -0.174059 1
gene 3 3 4 -3.20473 0 3 -3.20473 1
gene 1 2 11 2.58677 0 16 2.58677 1
gene 3 11 4 8 0 17 8 1
gene 2 3 11 3.63318 0 36 3.63318 1
gene 2 3 22 6.10064 0 46 6.10064 1
gene 2 22 11 -8 0 47 -8 1
gene 1 1 11 2.28417 0 178 2.28417 1
gene 1 22 4 1.36805 0 338 1.36805 1
genomeend 26

/* Species #6 : (Size 9) (AF 7.37521) (Age 33)  */


/* Organism #27 Fitness: 9 Error: 1 */
genomestart 27
trait 1 0.04375 0.41461 0.0975641 0 0 0.192134 0.75 0.171423 
trait 2 0.1 0.445412 0 0 0 0.326931 0 0 
trait 3 0.315384 0 0 0 0 0.0394278 0.421654 0.157138 
node 1 3 1 3
node 2 3 1 1
node 3 3 1 1
node 4 3 0 2
node 11 1 0 0
node 23 1 0 0
gene 2 1 4 -7.88115 0 1 -7.88115 1
gene 3 2 4 3.06902 0 2 3.06902 1
gene 1 3 4 -6.50652 0 3 -6.50652 1
gene 3 2 11 6.13927 0 16 6.13927 1
gene 3 11 4 2.44491 0 17 2.44491 1
gene 3 3 23 -3.55879 0 50 -3.55879 1
gene 3 23 4 7.68602 0 51 7.68602 1
gene 2 2 23 0.665653 0 351 0.665653 1
gene 3 1 11 -0.059921 0 388 -0.059921 1
genomeend 27

/* Organism #28 Fitness: 8.98873 Error: 1.00188 */
genomestart 28
trait 1 0.04375 0.41461 0.0975641 0 0 0.192134 0.75 0.171423 
trait 2 0.1 0.445412 0 0 0 0.326931 0 0 
trait 3 0.315384 0 0 0 0 0.0394278 0.421654 0.157138 
node 1 3 1 3
node 2 3 1 1
node 3 3 1 1
node 4 3 0 2
node 11 2 0 0
node 23 1 0 0
node 129 1 0 0
gene 2 1 4 -8 0 1 -8 1
gene 3 2 4 1.35424 0 2 1.35424 1
gene 1 3 4 -8 0 3 -8 0
gene 3 2 11 3.87214 0 16 3.87214 1
gene 3 11 4 4.23408 0 17 4.23408 1
gene 3 3 23 -3.55879 0 50 -3.55879 1
gene 3 23 4 7.68602 0 51 7.68602 1
gene 2 2 23 2.48991 0 351 2.48991 1
gene 3 1 11 -0.059921 0 388 -0.059921 1
gene 1 3 129 1 0 411 0 1
gene 1 129 4 -8 0 412 0 1
genomeend 28

/* Organism #29 Fitness: 3.99999 Error: 2 */
genomestart 29
trait 1 0.04375 0.41461 0.0975641 0 0 0.192134 0.75 0.171423 
trait 2 0.1 0.445412 0 0 0 0.326931 0 0 
trait 3 0.315384 0 0 0 0 0.0394278 0.421654 0.157138 
node 1 3 1 3
node 2 3 1 1
node 3 3 1 1
node 4 3 0 2
node 11 1 0 0
node 23 1 0 0
gene 2 1 4 -8 0 1 -8 1
gene 3 2 4 1.26981 0 2 1.26981 1
gene 1 3 4 -6.50652 0 3 -6.50652 1
gene 3 2 11 6.74495 0 16 6.74495 1
gene 3 11 4 1.81201 0 17 1.81201 1
gene 3 3 23 -3.55879 0 50 -3.55879 1
gene 3 23 4 7.26764 0 51 7.26764 1
gene 2 2 23 -1.18645 0 351 -1.18645 1
gene 3 1 11 0.718931 0 388 0.718931 1
genomeend 29

/* Organism #30 Fitness: 8.99999 Error: 1 */
genomestart 30
trait 1 0.04375 0.41461 0.0975641 0 0 0.192134 0.75 0.171423 
trait 2 0.1 0.445412 0 0 0 0.326931 0 0 
trait 3 0.315384 0 0 0 0 0.0394278 0.421654 0.157138 
node 1 3 1 3
node 2 3 1 1
node 3 3 1 1
node 4 3 0 2
node 11 1 0 0
node 23 1 0 0
gene 2 1 4 -8 0 1 -8 1
gene 3 2 4 1.35424 0 2 1.35424 1
gene 1 3 4 -6.50652 0 3 -6.50652 1
gene 3 2 11 6.13927 0 16 6.13927 1
gene 3 11 4 2.44491 0 17 2.44491 1
gene 3 3 23 -4.44872 0 50 -4.44872 1
gene 3 23 4 7.23256 0 51 7.23256 1
gene 2 2 23 0.665653 0 351 0.665653 1
gene 3 1 11 -0.059921 0 388 -0.059921 1
genomeend 30

/* Organism #31 Fitness: 9 Error: 1 */
genomestart 31
trait 1 0.04375 0.41461 0.0975641 0 0 0.192134 0.75 0.171423 
trait 2 0.1 0.445412 0 0 0 0.326931 0 0 
trait 3 0.315384 0 0 0 0 0.0394278 0.421654 0.157138 
node 1 3 1 3
node 2 3 1 1
node 3 3 1 1
node 4 3 0 2
node 11 1 0 0
node 23 1 0 0
gene 2 1 4 -8 0 1 -8 1
gene 3 2 4 5.40796 0 2 5.40796 1
gene 1 3 4 -8 0 3 -8 1
gene 3 2 11 4.32626 0 16 4.32626 1
gene 3 11 4 3.8683 0 17 3.8683 1
gene 3 3 23 -5.36898 0 50 -5.36898 1
gene 3 23 4 8 0 51 8 1
gene 2 2 23 3.15381 0 351 3.15381 1
gene 3 1 11 -0.805937 0 388 -0.805937 1
genomeend 31

/* Organism #32 Fitness: 8.99999 Error: 1 */
genomestart 32
trait 1 0.04375 0.41461 0.0975641 0 0 0.192134 0.75 0.171423 
trait 2 0.1 0.445412 0 0 0 0.326931 0 0 
trait 3 0.315384 0 0 0 0 0.0394278 0.421654 0.157138 
node 1 3 1 3
node 2 3 1 1
node 3 3 1 1
node 4 3 0 2
node 11 1 0 0
node 23 1 0 0
gene 2 1 4 -8 0 1 -8 1
gene 3 2 4 3.06902 0 2 3.06902 1
gene 1 3 4 -8 0 3 -8 1
gene 3 2 11 6.13927 0 16 6.13927 1
gene 3 11 4 4.23408 0 17 4.23408 1
gene 3 3 23 -3.55879 0 50 -3.55879 1
gene 3 23 4 7.68602 0 51 7.68602 1
gene 2 2 23 2.48991 0 351 2.48991 1
gene 3 1 11 -0.130071 0 388 -0.130071 1
genomeend 32

/* Organism #33 Fitness: 9 Error: 1 */
genomestart 33
trait 1 0.04375 0.41461 0.0975641 0 0 0.192134 0.75 0.171423 
trait 2 0.1 0.445412 0 0 0 0.326931 0 0 
trait 3 0.315384 0 0 0 0 0.0394278 0.421654 0.157138 
node 1 3 1 3
node 2 3 1 1
node 3 3 1 1
node 4 3 0 2
node 11 1 0 0
node 23 1 0 0
gene 2 1 4 -8 0 1 -8 1
gene 3 2 4 4.87256 0 2 4.87256 1
gene 1 3 4 -6.16247 0 3 -6.16247 1
gene 3 2 11 4.59432 0 16 4.59432 1
gene 3 11 4 2.29743 0 17 2.29743 1
gene 3 3 23 -3.1138 0 50 -3.1138 1
gene 3 23 4 5.2933 0 51 5.2933 1
gene 2 2 23 1.83789 0 351 1.83789 1
gene 3 1 11 1.62575 0 388 1.62575 1
genomeend 33

/* Organism #34 Fitness: 3.93368 Error: 2.01665 */
genomestart 34
trait 1 0.04375 0.41461 0.0975641 0 0 0.192134 0.75 0.171423 
trait 2 0.1 0.445412 0 0 0 0.326931 0 0 
trait 3 0.315384 0 0 0 0 0.0394278 0.421654 0.157138 
node 1 3 1 3
node 2 3 1 1
node 3 3 1 1
node 4 3 0 2
node 11 1 0 0
node 23 1 0 0
gene 2 1 4 -0.679807 0 1 -0.679807 1
gene 3 2 4 3.73837 0 2 3.73837 1
gene 1 3 4 1.49307 0 3 1.49307 1
gene 3 2 11 1.74182 0 16 1.74182 1
gene 3 11 4 0.445412 0 17 0.445412 1
gene 3 3 23 -4.44872 0 50 -4.44872 1
gene 3 23 4 8 0 51 8 1
gene 2 2 23 2.15256 0 351 2.15256 1
gene 3 1 11 -0.681842 0 388 -0.681842 1
genomeend 34

/* Organism #35 Fitness: 4.45452 Error: 1.88943 */
genomestart 35
trait 1 0.04375 0.41461 0.0975641 0 0 0.192134 0.75 0.171423 
trait 2 0.1 0.445412 0 0 0 0.326931 0 0 
trait 3 0.315384 0 0 0 0 0.0394278 0.421654 0.157138 
node 1 3 1 3
node 2 3 1 1
node 3 3 1 1
node 4 3 0 2
node 11 2 0 0
node 23 1 0 0
gene 2 1 4 -6.69618 0 1 -6.69618 1
gene 3 2 4 1.70842 0 2 1.70842 1
gene 1 3 4 -7.62924 0 3 -7.62924 1
gene 3 2 11 3.10616 0 16 3.10616 1
gene 3 11 4 3.27696 0 17 3.27696 1
gene 3 3 23 -3.9421 0 50 -3.9421 1
gene 3 23 4 7.68602 0 51 7.68602 1
gene 2 2 23 0.794098 0 351 0.794098 1
gene 3 1 11 1.83171 0 388 1.83171 1
genomeend 35

/* Species #7 : (Size 8) (AF 7.77058) (Age 31)  */


/* Organism #36 Fitness: 9 Error: 1 */
genomestart 36
trait 1 0.209607 0 0 0 0.018903 0.0603188 0 0 
trait 2 0.1 0.0150322 0 0.419263 0.176834 0.0729686 0 0.082925 
trait 3 0.3 0 0 0 0 0 0 0 
node 1 3 1 3
node 2 1 1 1
node 3 3 1 1
node 4 1 0 2
node 12 3 0 0
node 31 1 0 0
gene 2 1 4 -4.66484 0 1 -4.66484 1
gene 3 2 4 8 0 2 8 1
gene 3 3 4 8 0 3 8 1
gene 1 3 12 4.13611 0 18 4.13611 1
gene 1 12 4 1.09837 0 19 1.09837 1
gene 1 3 31 -1.32714 0 73 -1.32714 1
gene 1 31 12 -1.33548 0 74 -1.33548 1
gene 3 1 12 0.305015 0 181 0.305015 1
gene 2 1 31 -0.260311 0 245 -0.260311 1
genomeend 36

/* Organism #37 Fitness: 8.99995 Error: 1.00001 */
genomestart 37
trait 1 0.209607 0 0 0 0.018903 0.0603188 0 0 
trait 2 0.1 0.0150322 0 0.419263 0.176834 0.0729686 0 0.082925 
trait 3 0.3 0 0 0 0 0 0 0 
node 1 3 1 3
node 2 1 1 1
node 3 3 1 1
node 4 1 0 2
node 12 3 0 0
node 31 1 0 0
gene 2 1 4 -2.66323 0 1 -2.66323 1
gene 3 2 4 8 0 2 8 1
gene 3 3 4 8 0 3 8 1
gene 1 3 12 4.05046 0 18 4.05046 1
gene 1 12 4 3.14413 0 19 3.14413 1
gene 1 3 31 1.10677 0 73 1.10677 1
gene 1 31 12 -3.39122 0 74 -3.39122 1
gene 3 1 12 -0.0129702 0 181 -0.0129702 1
gene 2 1 31 -0.379165 0 245 -0.379165 1
genomeend 37

/* Organism #38 Fitness: 8.99978 Error: 1.00004 */
genomestart 38
trait 1 0.209607 0 0 0 0.018903 0.0603188 0 0 
trait 2 0.1 0.0150322 0 0.419263 0.176834 0.0729686 0 0.082925 
trait 3 0.3 0 0 0 0 0 0 0 
node 1 3 1 3
node 2 1 1 1
node 3 3 1 1
node 4 1 0 2
node 12 3 0 0
node 31 1 0 0
gene 2 1 4 -2.77957 0 1 -2.77957 1
gene 3 2 4 4.92788 0 2 4.92788 1
gene 3 3 4 4.26993 0 3 4.26993 1
gene 1 3 12 6.16459 0 18 6.16459 1
gene 1 12 4 0.839932 0 19 0.839932 1
gene 2 3 31 1.33856 0 73 1.33856 1
gene 1 31 12 -5.07642 0 74 -5.07642 1
gene 3 1 12 3.13379 0 181 3.13379 1
gene 2 1 31 1.35291 0 245 1.35291 1
genomeend 38

/* Organism #39 Fitness: 9 Error: 1 */
genomestart 39
trait 1 0.209607 0 0 0 0.018903 0.0603188 0 0 
trait 2 0.1 0.0150322 0 0.419263 0.176834 0.0729686 0 0.082925 
trait 3 0.3 0 0 0 0 0 0 0 
node 1 3 1 3
node 2 1 1 1
node 3 3 1 1
node 4 1 0 2
node 12 3 0 0
node 31 1 0 0
gene 2 1 4 -4.66484 0 1 -4.66484 1
gene 3 2 4 7.98482 0 2 7.98482 1
gene 3 3 4 7.88916 0 3 7.88916 1
gene 1 3 12 4.13611 0 18 4.13611 1
gene 1 12 4 0.830138 0 19 0.830138 1
gene 1 3 31 -1.42037 0 73 -1.42037 1
gene 1 31 12 -1.33548 0 74 -1.33548 1
gene 3 1 12 0.305015 0 181 0.305015 1
gene 2 1 31 -0.0655384 0 245 -0.0655384 1
genomeend 39

/* Organism #40 Fitness: 3.9548 Error: 2.01133 */
genomestart 40
trait 1 0.209607 0 0 0 0.018903 0.0603188 0 0 
trait 2 0.1 0.0150322 0 0.419263 0.176834 0.0729686 0 0.082925 
trait 3 0.3 0 0 0 0 0 0 0 
node 1 3 1 3
node 2 1 1 1
node 3 3 1 1
node 4 1 0 2
node 12 3 0 0
node 31 1 0 0
gene 2 1 4 -6.22233 0 1 -6.22233 1
gene 3 2 4 0.244864 0 2 0.244864 1
gene 3 3 4 6.26921 0 3 6.26921 1
gene 1 3 12 4.14511 0 18 4.14511 1
gene 1 12 4 -1.12493 0 19 -1.12493 1
gene 1 3 31 0.871617 0 73 0.871617 1
gene 1 31 12 -1.27922 0 74 -1.27922 1
gene 3 1 12 0.722374 0 181 0.722374 1
gene 2 1 31 -0.0655384 0 245 -0.0655384 1
genomeend 40

/* Organism #41 Fitness: 4.21037 Error: 1.94808 */
genomestart 41
trait 1 0.209607 0 0 0 0.018903 0.0603188 0 0 
trait 2 0.1 0.0150322 0 0.419263 0.176834 0.0729686 0 0.082925 
trait 3 0.3 0 0 0 0 0 0 0 
node 1 3 1 3
node 2 1 1 1
node 3 3 1 1
node 4 1 0 2
node 12 3 0 0
node 31 1 0 0
gene 2 1 4 0.593455 0 1 0.593455 1
gene 3 2 4 7.43327 0 2 7.43327 1
gene 3 3 4 2.42775 0 3 2.42775 1
gene 1 3 12 3.35705 0 18 3.35705 1
gene 1 12 4 -0.771374 0 19 -0.771374 1
gene 1 3 31 -2.13105 0 73 -2.13105 1
gene 1 31 12 -0.365964 0 74 -0.365964 1
gene 3 1 12 -1.08713 0 181 -1.08713 1
gene 2 1 31 -1.98405 0 245 -1.98405 1
genomeend 41

/* Organism #42 Fitness: 8.99977 Error: 1.00004 */
genomestart 42
trait 1 0.209607 0 0 0 0.018903 0.0603188 0 0 
trait 2 0.1 0.0150322 0 0.419263 0.176834 0.0729686 0 0.082925 
trait 3 0.3 0 0 0 0 0 0 0 
node 1 3 1 3
node 2 1 1 1
node 3 3 1 1
node 4 1 0 2
node 12 3 0 0
node 31 1 0 0
gene 2 1 4 -4.60473 0 1 -4.60473 1
gene 3 2 4 6.15902 0 2 6.15902 1
gene 3 3 4 8 0 3 8 1
gene 1 3 12 2.57511 0 18 2.57511 1
gene 1 12 4 2.54525 0 19 2.54525 1
gene 1 3 31 -2.86895 0 73 -2.86895 1
gene 1 31 12 0.214394 0 74 0.214394 1
gene 3 1 12 1.41082 0 181 1.41082 1
gene 2 1 31 -1.07896 0 245 -1.07896 1
genomeend 42

/* Organism #43 Fitness: 9 Error: 1 */
genomestart 43
trait 1 0.209607 0 0 0 0.018903 0.0603188 0 0 
trait 2 0.1 0.0150322 0 0.419263 0.176834 0.0729686 0 0.082925 
trait 3 0.3 0 0 0 0 0 0 0 
node 1 3 1 3
node 2 1 1 1
node 3 3 1 1
node 4 1 0 2
node 12 3 0 0
node 31 1 0 0
gene 2 1 4 -4.5495 0 1 -4.5495 1
gene 3 2 4 7.99241 0 2 7.99241 1
gene 3 3 4 7.94458 0 3 7.94458 1
gene 1 3 12 3.92371 0 18 3.92371 1
gene 1 12 4 0.964252 0 19 0.964252 1
gene 1 3 31 -1.37375 0 73 -1.37375 1
gene 1 31 12 -0.978299 0 74 -0.978299 1
gene 3 1 12 0.342827 0 181 0.342827 1
gene 2 1 31 -0.162925 0 245 -0.162925 1
genomeend 43

/* Species #8 : (Size 11) (AF 8.54598) (Age 31)  */


/* Organism #44 Fitness: 9 Error: 1 */
genomestart 44
trait 1 0.1 0 0 0.24045 0 0.213998 0.129483 0 
trait 2 0.259209 0 0 0 0 0.190714 0.0320816 0 
trait 3 0.713723 0 0 0.0252945 0.0439627 0.00571405 0 0 
node 1 3 1 3
node 2 1 1 1
node 3 3 1 1
node 4 1 0 2
node 12 1 0 0
node 33 1 0 0
gene 1 1 4 -3.94589 0 1 -3.94589 1
gene 3 2 4 8 0 2 8 1
gene 1 3 4 8 0 3 8 1
gene 1 3 12 0.282098 0 18 0.282098 1
gene 1 12 4 8 0 19 8 0
gene 1 12 33 0.547736 0 77 0.547736 1
gene 1 33 4 0.873788 0 78 0.873788 0
genomeend 44

/* Organism #45 Fitness: 8.99974 Error: 1.00004 */
genomestart 45
trait 1 0.1 0 0 0.24045 0 0.213998 0.129483 0 
trait 2 0.259209 0 0 0 0 0.190714 0.0320816 0 
trait 3 0.713723 0 0 0.0252945 0.0439627 0.00571405 0 0 
node 1 3 1 3
node 2 1 1 1
node 3 3 1 1
node 4 1 0 2
node 12 1 0 0
node 33 1 0 0
gene 1 1 4 -2.04028 0 1 -2.04028 1
gene 3 2 4 5.6338 0 2 5.6338 1
gene 1 3 4 8 0 3 8 1
gene 1 3 12 1.20357 0 18 1.20357 1
gene 1 12 4 7.62134 0 19 7.62134 0
gene 1 12 33 2.35212 0 77 2.35212 1
gene 1 33 4 0.260694 0 78 0.260694 0
genomeend 45

/* Organism #46 Fitness: 9 Error: 1 */
genomestart 46
trait 1 0.1 0 0 0.24045 0 0.213998 0.129483 0 
trait 2 0.259209 0 0 0 0 0.190714 0.0320816 0 
trait 3 0.713723 0 0 0.0252945 0.0439627 0.00571405 0 0 
node 1 3 1 3
node 2 1 1 1
node 3 3 1 1
node 4 1 0 2
node 12 1 0 0
node 33 1 0 0
gene 1 1 4 -3.34323 0 1 -3.34323 1
gene 3 2 4 7.83876 0 2 7.83876 1
gene 1 3 4 8 0 3 8 1
gene 1 3 12 1.19562 0 18 1.19562 1
gene 1 12 4 8 0 19 8 0
gene 1 12 33 2.46726 0 77 2.46726 1
gene 1 33 4 0.666952 0 78 0.666952 0
genomeend 46

/* Organism #47 Fitness: 8.85424 Error: 1.02439 */
genomestart 47
trait 1 0.1 0 0 0.24045 0 0.213998 0.129483 0 
trait 2 0.259209 0 0 0 0 0.190714 0.0320816 0 
trait 3 0.713723 0 0 0.0252945 0.0439627 0.00571405 0 0 
node 1 3 1 3
node 2 1 1 1
node 3 3 1 1
node 4 1 0 2
node 12 1 0 0
node 33 1 0 0
gene 1 1 4 -5.75763 0 1 -5.75763 1
gene 3 2 4 6.52512 0 2 6.52512 1
gene 1 3 4 -2.02269 0 3 -2.02269 1
gene 1 3 12 0.509638 0 18 0.509638 1
gene 1 12 4 6.10758 0 19 6.10758 0
gene 1 12 33 0.031489 0 77 0.031489 1
gene 1 33 4 -0.217791 0 78 -0.217791 0
genomeend 47

/* Organism #48 Fitness: 8.84221 Error: 1.02641 */
genomestart 48
trait 1 0.1 0 0 0.24045 0 0.213998 0.129483 0 
trait 2 0.259209 0 0 0 0 0.190714 0.0320816 0 
trait 3 0.713723 0 0 0.0252945 0.0439627 0.00571405 0 0 
node 1 3 1 3
node 2 1 1 1
node 3 3 1 1
node 4 1 0 2
node 12 1 0 0
node 33 1 0 0
gene 1 1 4 -5.60487 0 1 -5.60487 1
gene 3 2 4 8 0 2 8 1
gene 1 3 4 6.33744 0 3 6.33744 1
gene 1 3 12 0.722498 0 18 0.722498 1
gene 1 12 4 4.11784 0 19 4.11784 0
gene 1 12 33 -0.107539 0 77 -0.107539 1
gene 1 33 4 0.531993 0 78 0.531993 0
genomeend 48

/* Organism #49 Fitness: 8.99847 Error: 1.00025 */
genomestart 49
trait 1 0.1 0 0 0.24045 0 0.213998 0.129483 0 
trait 2 0.259209 0 0 0 0 0.190714 0.0320816 0 
trait 3 0.713723 0 0 0.0252945 0.0439627 0.00571405 0 0 
node 1 3 1 3
node 2 1 1 1
node 3 3 1 1
node 4 1 0 2
node 12 1 0 0
node 33 1 0 0
gene 1 1 4 -1.68036 0 1 -1.68036 1
gene 3 2 4 8 0 2 8 1
gene 1 3 4 8 0 3 8 1
gene 1 3 12 -1.01173 0 18 -1.01173 1
gene 1 12 4 8 0 19 8 0
gene 1 12 33 1.5453 0 77 1.5453 1
gene 1 33 4 -1.128 0 78 -1.128 0
genomeend 49

/* Organism #50 Fitness: 8.89012 Error: 1.01837 */
genomestart 50
trait 1 0.1 0 0 0.24045 0 0.213998 0.129483 0 
trait 2 0.259209 0 0 0 0 0.190714 0.0320816 0 
trait 3 0.713723 0 0 0.0252945 0.0439627 0.00571405 0 0 
node 1 3 1 3
node 2 1 1 1
node 3 3 1 1
node 4 1 0 2
node 12 1 0 0
node 33 1 0 0
gene 1 1 4 -0.80795 0 1 -0.80795 1
gene 3 2 4 6.80193 0 2 6.80193 1
gene 1 3 4 6.62821 0 3 6.62821 1
gene 1 3 12 -1.20469 0 18 -1.20469 1
gene 1 12 4 8 0 19 8 0
gene 1 12 33 0.190424 0 77 0.190424 1
gene 1 33 4 -0.232395 0 78 -0.232395 0
genomeend 50

/* Organism #51 Fitness: 9 Error: 1 */
genomestart 51
trait 1 0.1 0 0 0.24045 0 0.213998 0.129483 0 
trait 2 0.259209 0 0 0 0 0.190714 0.0320816 0 
trait 3 0.713723 0 0 0.0252945 0.0439627 0.00571405 0 0 
node 1 3 1 3
node 2 1 1 1
node 3 3 1 1
node 4 1 0 2
node 12 1 0 0
node 33 1 0 0
gene 1 1 4 -4.1139 0 1 -4.1139 1
gene 3 2 4 8 0 2 8 1
gene 1 3 4 8 0 3 8 1
gene 1 3 12 1.51309 0 18 1.51309 1
gene 1 12 4 8 0 19 8 0
gene 1 12 33 0.547736 0 77 0.547736 1
gene 1 33 4 -0.217791 0 78 -0.217791 0
genomeend 51

/* Organism #52 Fitness: 4.4223 Error: 1.89707 */
genomestart 52
trait 1 0.1 0 0 0.24045 0 0.213998 0.129483 0 
trait 2 0.259209 0 0 0 0 0.190714 0.0320816 0 
trait 3 0.713723 0 0 0.0252945 0.0439627 0.00571405 0 0 
node 1 3 1 3
node 2 1 1 1
node 3 3 1 1
node 4 1 0 2
node 12 1 0 0
node 33 1 0 0
gene 1 1 4 -6.08271 0 1 -6.08271 1
gene 3 2 4 5.67703 0 2 5.67703 1
gene 1 3 4 6.91266 0 3 6.91266 1
gene 1 3 12 -0.921995 0 18 -0.921995 1
gene 1 12 4 0.892354 0 19 0.892354 0
gene 1 12 33 -0.876146 0 77 -0.876146 1
gene 1 33 4 -1.10687 0 78 -1.10687 0
genomeend 52

/* Organism #53 Fitness: 8.99872 Error: 1.00021 */
genomestart 53
trait 1 0.1 0 0 0.24045 0 0.213998 0.129483 0 
trait 2 0.259209 0 0 0 0 0.190714 0.0320816 0 
trait 3 0.713723 0 0 0.0252945 0.0439627 0.00571405 0 0 
node 1 3 1 3
node 2 1 1 1
node 3 3 1 1
node 4 1 0 2
node 12 1 0 0
node 33 1 0 0
gene 1 1 4 -1.71647 0 1 -1.71647 1
gene 3 2 4 8 0 2 8 1
gene 1 3 4 6.63221 0 3 6.63221 1
gene 1 3 12 -1.66456 0 18 -1.66456 1
gene 1 12 4 -0.106882 0 19 -0.106882 0
gene 1 12 33 0.148298 0 77 0.148298 1
gene 1 33 4 1.88774 0 78 1.88774 0
genomeend 53

/* Organism #54 Fitness: 9 Error: 1 */
genomestart 54
trait 1 0.1 0 0 0.24045 0 0.213998 0.129483 0 
trait 2 0.259209 0 0 0 0 0.190714 0.0320816 0 
trait 3 0.713723 0 0 0.0252945 0.0439627 0.00571405 0 0 
node 1 3 1 3
node 2 1 1 1
node 3 3 1 1
node 4 1 0 2
node 12 1 0 0
node 33 1 0 0
gene 1 1 4 -2.20657 0 1 -2.20657 1
gene 3 2 4 6.70979 0 2 6.70979 1
gene 1 3 4 7.00765 0 3 7.00765 1
gene 1 3 12 1.71987 0 18 1.71987 1
gene 1 12 4 5.69227 0 19 5.69227 0
gene 1 12 33 2.33906 0 77 2.33906 1
gene 1 33 4 -1.57673 0 78 -1.57673 1
genomeend 54

/* Species #9 : (Size 4) (AF 7.62004) (Age 31)  */


/* Organism #55 Fitness: 8.7739 Error: 1.03792 */
genomestart 55
trait 1 0.0875 0.41461 0.0975641 0 0 0 0.5 0.273394 
trait 2 0.2 0 0 0 0 0 0 0 
trait 3 0.315384 0 0 0 0 0.0394278 0.421654 0.157138 
node 1 3 1 3
node 2 3 1 1
node 3 3 1 1
node 4 3 0 2
node 11 1 0 0
node 23 2 0 0
node 36 1 0 0
node 114 1 0 0
node 122 1 0 0
gene 2 1 4 -6.83591 0 1 -6.83591 1
gene 3 2 4 -7.04555 0 2 -7.04555 1
gene 3 3 4 1.5617 0 3 1.5617 1
gene 3 2 11 2.59157 0 16 2.59157 1
gene 3 11 4 1.19643 0 17 1.19643 1
gene 3 3 23 3.02008 0 50 3.02008 1
gene 3 23 4 7.64132 0 51 7.64132 1
gene 1 3 11 -1.33838 0 69 -1.33838 0
gene 1 3 36 3.07684 0 84 3.07684 1
gene 1 36 11 2.25294 0 85 2.25294 1
gene 1 2 36 2.0014 0 96 2.0014 1
gene 3 1 36 -2.55599 0 115 -2.55599 1
gene 3 11 23 0.829406 0 340 0.829406 1
gene 1 3 114 1.8817 0 352 1.3817 1
gene 1 114 11 -0.269912 0 353 0.147678 1
gene 3 36 4 0.419896 0 377 0.419896 1
gene 3 11 122 1 0 391 0 1
gene 3 122 23 -0.0625901 0 392 0 1
genomeend 55

/* Organism #56 Fitness: 3.9974 Error: 2.00065 */
genomestart 56
trait 1 0.0875 0.41461 0.0975641 0 0 0 0.5 0.273394 
trait 2 0.2 0 0 0 0 0 0 0 
trait 3 0.315384 0 0 0 0 0.0394278 0.421654 0.157138 
node 1 3 1 3
node 2 3 1 1
node 3 3 1 1
node 4 3 0 2
node 11 1 0 0
node 23 2 0 0
node 36 1 0 0
node 114 1 0 0
gene 2 1 4 -7.95231 0 1 -7.95231 1
gene 3 2 4 1.75 0 2 1.75 1
gene 3 3 4 2.57271 0 3 2.57271 1
gene 3 2 11 2.79893 0 16 2.79893 1
gene 3 11 4 0.697085 0 17 0.697085 1
gene 3 3 23 -0.513487 0 50 -0.513487 1
gene 3 23 4 8 0 51 8 1
gene 1 3 11 -1.84158 0 69 -1.84158 0
gene 1 3 36 -0.9986 0 84 -0.9986 1
gene 1 36 11 -0.973409 0 85 -0.973409 1
gene 1 2 36 3.56787 0 96 3.56787 1
gene 3 1 36 -1.48803 0 115 -1.48803 1
gene 3 11 23 -0.643931 0 340 -0.643931 1
gene 1 3 114 3.35568 0 352 3.35568 1
gene 1 114 11 -0.132015 0 353 -0.132015 1
gene 3 36 4 1.42256 0 377 1.42256 1
genomeend 56

/* Organism #57 Fitness: 8.99999 Error: 1 */
genomestart 57
trait 1 0.0875 0.41461 0.0975641 0 0 0 0.5 0.273394 
trait 2 0.2 0 0 0 0 0 0 0 
trait 3 0.315384 0 0 0 0 0.0394278 0.421654 0.157138 
node 1 3 1 3
node 2 3 1 1
node 3 3 1 1
node 4 3 0 2
node 11 1 0 0
node 23 2 0 0
node 36 1 0 0
node 114 1 0 0
node 122 1 0 0
gene 2 1 4 -6.46672 0 1 -6.46672 1
gene 3 2 4 -8 0 2 -8 1
gene 3 3 4 2.20965 0 3 2.20965 1
gene 3 2 11 2.5358 0 16 2.5358 1
gene 3 11 4 1.69578 0 17 1.69578 1
gene 3 3 23 1.78037 0 50 1.78037 1
gene 3 23 4 7.28264 0 51 7.28264 1
gene 1 3 11 -0.835181 0 69 -0.835181 0
gene 1 3 36 2.88564 0 84 2.88564 1
gene 1 36 11 2.82849 0 85 2.82849 1
gene 1 2 36 2.84599 0 96 2.84599 1
gene 3 1 36 -3.27413 0 115 -3.27413 1
gene 3 11 23 -0.0625901 0 340 -0.0625901 0
gene 1 3 114 2.7634 0 352 2.7634 1
gene 1 114 11 -0.835181 0 353 0 1
gene 3 36 4 0.419896 0 377 0.419896 1
gene 3 11 122 1 0 391 0 1
gene 3 122 23 -0.0625901 0 392 0 1
genomeend 57

/* Organism #58 Fitness: 8.70886 Error: 1.04892 */
genomestart 58
trait 1 0.0875 0.41461 0.0975641 0 0 0 0.5 0.273394 
trait 2 0.2 0 0 0 0 0 0 0 
trait 3 0.315384 0 0 0 0 0.0394278 0.421654 0.157138 
node 1 3 1 3
node 2 3 1 1
node 3 3 1 1
node 4 3 0 2
node 11 1 0 0
node 23 2 0 0
node 36 1 0 0
node 114 1 0 0
node 122 1 0 0
gene 2 1 4 -7.90777 0 1 -7.90777 1
gene 3 2 4 -8 0 2 -8 1
gene 3 3 4 1.43153 0 3 1.43153 1
gene 3 2 11 0.577096 0 16 0.577096 1
gene 3 11 4 1.14638 0 17 1.14638 1
gene 3 3 23 0.890849 0 50 0.890849 1
gene 3 23 4 7.13202 0 51 7.13202 1
gene 1 3 11 1.18095 0 69 1.18095 0
gene 1 3 36 5.69711 0 84 5.69711 1
gene 1 36 11 1.51665 0 85 1.51665 1
gene 1 2 36 -0.874379 0 96 -0.874379 1
gene 3 1 36 -1.37014 0 115 -1.37014 1
gene 3 11 23 1.61705 0 340 1.61705 0
gene 1 3 114 1.80273 0 352 1.80273 1
gene 1 114 11 0.569171 0 353 0.569171 1
gene 3 36 4 0.419896 0 377 0.419896 1
gene 3 11 122 1 0 391 1 1
gene 3 122 23 0.443472 0 392 0.443472 1
genomeend 58

/* Species #10 : (Size 11) (AF 7.20263) (Age 28)  */


/* Organism #59 Fitness: 9 Error: 1 */
genomestart 59
trait 1 0.1 0 0 0 0.00903372 0 0 0 
trait 2 0.2 0.0563707 0 0.167888 0 0.0516825 0.080204 0 
trait 3 0.159375 0 0 0.157478 0 0 0.185896 0 
node 1 3 1 3
node 2 1 1 1
node 3 3 1 1
node 4 1 0 2
node 12 3 0 0
node 42 1 0 0
gene 2 1 4 -6.62213 0 1 -6.62213 1
gene 3 2 4 8 0 2 8 1
gene 1 3 4 8 0 3 8 1
gene 1 3 12 4.73828 0 18 4.73828 1
gene 2 12 4 5.73575 0 19 5.73575 1
gene 1 2 12 6.31772 0 49 6.31772 1
gene 1 1 12 -2.15622 0 99 -2.15622 1
gene 3 2 42 -2.69301 0 110 -2.69301 1
gene 3 42 4 4.49059 0 111 4.49059 1
gene 2 42 12 -0.656787 0 213 -0.656787 1
gene 2 1 42 -0.374297 0 393 -0.374297 1
genomeend 59

/* Organism #60 Fitness: 4.2208 Error: 1.94554 */
genomestart 60
trait 1 0.1 0 0 0 0.00903372 0 0 0 
trait 2 0.2 0.0563707 0 0.167888 0 0.0516825 0.080204 0 
trait 3 0.159375 0 0 0.157478 0 0 0.185896 0 
node 1 3 1 3
node 2 1 1 1
node 3 3 1 1
node 4 1 0 2
node 12 3 0 0
node 42 1 0 0
gene 2 1 4 -7.56569 0 1 -7.56569 1
gene 3 2 4 6.98728 0 2 6.98728 1
gene 1 3 4 -2.33321 0 3 -2.33321 1
gene 1 3 12 2.68609 0 18 2.68609 1
gene 2 12 4 5.76304 0 19 5.76304 1
gene 1 2 12 0.431463 0 49 0.431463 1
gene 1 1 12 -3.37328 0 99 -3.37328 1
gene 3 2 42 -1.14691 0 110 -1.14691 1
gene 3 42 4 3.69423 0 111 3.69423 1
gene 2 42 12 -1.1711 0 213 -1.1711 1
gene 2 1 42 -1.62366 0 393 -1.62366 1
genomeend 60

/* Organism #61 Fitness: 9 Error: 1 */
genomestart 61
trait 1 0.1 0 0 0 0.00903372 0 0 0 
trait 2 0.2 0.0563707 0 0.167888 0 0.0516825 0.080204 0 
trait 3 0.159375 0 0 0.157478 0 0 0.185896 0 
node 1 3 1 3
node 2 1 1 1
node 3 3 1 1
node 4 1 0 2
node 12 3 0 0
node 42 1 0 0
gene 2 1 4 -6.62213 0 1 -6.62213 1
gene 3 2 4 8 0 2 8 1
gene 1 3 4 8 0 3 8 1
gene 1 3 12 4.18298 0 18 4.18298 1
gene 2 12 4 2.23563 0 19 2.23563 1
gene 1 2 12 6.9976 0 49 6.9976 1
gene 1 1 12 0.067676 0 99 0.067676 1
gene 3 2 42 -0.468199 0 110 -0.468199 1
gene 3 42 4 3.78865 0 111 3.78865 1
gene 2 42 12 -0.16893 0 213 -0.16893 1
gene 2 1 42 -0.374297 0 393 -0.374297 1
genomeend 61

/* Organism #62 Fitness: 9 Error: 1 */
genomestart 62
trait 1 0.1 0 0 0 0.00903372 0 0 0 
trait 2 0.2 0.0563707 0 0.167888 0 0.0516825 0.080204 0 
trait 3 0.159375 0 0 0.157478 0 0 0.185896 0 
node 1 3 1 3
node 2 1 1 1
node 3 3 1 1
node 4 1 0 2
node 12 3 0 0
node 42 1 0 0
gene 2 1 4 -6.97266 0 1 -6.97266 1
gene 1 2 4 8 0 2 8 1
gene 1 3 4 8 0 3 8 1
gene 1 3 12 3.41896 0 18 3.41896 1
gene 2 12 4 5.49734 0 19 5.49734 1
gene 1 2 12 7.18097 0 49 7.18097 1
gene 1 1 12 -2.88273 0 99 -2.88273 1
gene 3 2 42 0.371293 0 110 0.371293 1
gene 3 42 4 1.20787 0 111 1.20787 1
gene 2 42 12 -0.656787 0 213 -0.656787 1
gene 2 1 42 -0.374297 0 393 -0.374297 1
genomeend 62

/* Organism #63 Fitness: 3.98879 Error: 2.00281 */
genomestart 63
trait 1 0.1 0 0 0 0.00903372 0 0 0 
trait 2 0.2 0.0563707 0 0.167888 0 0.0516825 0.080204 0 
trait 3 0.159375 0 0 0.157478 0 0 0.185896 0 
node 1 3 1 3
node 2 1 1 1
node 3 3 1 1
node 4 1 0 2
node 12 3 0 0
node 42 1 0 0
gene 2 1 4 -6.08922 0 1 -6.08922 1
gene 3 2 4 7.66449 0 2 7.66449 1
gene 1 3 4 5.56866 0 3 5.56866 1
gene 1 3 12 6.30315 0 18 6.30315 1
gene 2 12 4 -0.88862 0 19 -0.88862 1
gene 1 2 12 7.8373 0 49 7.8373 1
gene 1 1 12 -1.72898 0 99 -1.72898 1
gene 3 2 42 2.39481 0 110 2.39481 1
gene 3 42 4 0.428937 0 111 0.428937 1
gene 2 42 12 1.83779 0 213 1.83779 1
gene 2 1 42 -0.374297 0 393 -0.374297 1
genomeend 63

/* Organism #64 Fitness: 9 Error: 1 */
genomestart 64
trait 1 0.1 0 0 0 0.00903372 0 0 0 
trait 2 0.2 0.0563707 0 0.167888 0 0.0516825 0.080204 0 
trait 3 0.159375 0 0 0.157478 0 0 0.185896 0 
node 1 3 1 3
node 2 1 1 1
node 3 3 1 1
node 4 3 0 2
node 12 3 0 0
node 42 1 0 0
gene 2 1 4 -7.66364 0 1 -7.66364 1
gene 3 2 4 8 0 2 8 1
gene 1 3 4 5.41274 0 3 5.41274 1
gene 1 3 12 6.06368 0 18 6.06368 1
gene 2 12 4 6.16643 0 19 6.16643 1
gene 1 2 12 7.81098 0 49 7.81098 1
gene 1 1 12 -0.426838 0 99 -0.426838 1
gene 3 2 42 -3.62697 0 110 -3.62697 1
gene 3 42 4 5.7461 0 111 5.7461 1
gene 2 42 12 -2.72368 0 213 -2.72368 1
gene 2 1 42 0.227477 0 393 0.227477 1
genomeend 64

/* Organism #65 Fitness: 4 Error: 2 */
genomestart 65
trait 1 0.1 0 0 0 0.00903372 0 0 0 
trait 2 0.2 0.0563707 0 0.167888 0 0.0516825 0.080204 0 
trait 3 0.159375 0 0 0.157478 0 0 0.185896 0 
node 1 3 1 3
node 2 1 1 1
node 3 3 1 1
node 4 1 0 2
node 12 3 0 0
node 42 1 0 0
gene 2 1 4 0.883491 0 1 0.883491 1
gene 3 2 4 8 0 2 8 1
gene 1 3 4 8 0 3 8 1
gene 1 3 12 3.49605 0 18 3.49605 1
gene 2 12 4 7.78134 0 19 7.78134 1
gene 1 2 12 4.49315 0 49 4.49315 1
gene 1 1 12 -1.02035 0 99 -1.02035 1
gene 3 2 42 -0.549477 0 110 -0.549477 1
gene 3 42 4 5.78614 0 111 5.78614 1
gene 2 42 12 -2.43998 0 213 -2.43998 1
gene 2 1 42 1.46344 0 393 1.46344 1
genomeend 65

/* Organism #66 Fitness: 4.01966 Error: 1.99509 */
genomestart 66
trait 1 0.1 0 0 0 0.00903372 0 0 0 
trait 2 0.2 0.0563707 0 0.167888 0 0.0516825 0.080204 0 
trait 3 0.159375 0 0 0.157478 0 0 0.185896 0 
node 1 3 1 3
node 2 1 1 1
node 3 3 1 1
node 4 1 0 2
node 12 3 0 0
node 42 1 0 0
gene 2 1 4 -8 0 1 -8 1
gene 3 2 4 5.36281 0 2 5.36281 1
gene 1 3 4 0.161282 0 3 0.161282 1
gene 1 3 12 3.26385 0 18 3.26385 1
gene 2 12 4 6.76036 0 19 6.76036 1
gene 1 2 12 6.17232 0 49 6.17232 1
gene 1 1 12 -1.26256 0 99 -1.26256 1
gene 3 2 42 -0.81987 0 110 -0.81987 1
gene 1 42 4 4.49059 0 111 4.49059 1
gene 2 42 12 1.61752 0 213 1.61752 1
gene 2 1 42 -2.24532 0 393 -2.24532 1
genomeend 66

/* Organism #67 Fitness: 9 Error: 1 */
genomestart 67
trait 1 0.1 0 0 0 0.00903372 0 0 0 
trait 2 0.2 0.0563707 0 0.167888 0 0.0516825 0.080204 0 
trait 3 0.159375 0 0 0.157478 0 0 0.185896 0 
node 1 3 1 3
node 2 1 1 1
node 3 3 1 1
node 4 1 0 2
node 12 3 0 0
node 42 1 0 0
gene 2 1 4 -6.08922 0 1 -6.08922 1
gene 3 2 4 6.49653 0 2 6.49653 1
gene 1 3 4 4.77531 0 3 4.77531 1
gene 1 3 12 6.30315 0 18 6.30315 1
gene 2 12 4 6.86882 0 19 6.86882 1
gene 1 2 12 7.09958 0 49 7.09958 1
gene 1 1 12 -3.88915 0 99 -3.88915 1
gene 3 2 42 -2.46463 0 110 -2.46463 1
gene 3 42 4 0.102479 0 111 0.102479 1
gene 2 42 12 -2.25576 0 213 -2.25576 1
gene 2 1 42 1.14623 0 393 1.14623 1
genomeend 67

/* Organism #68 Fitness: 8.99972 Error: 1.00005 */
genomestart 68
trait 1 0.1 0 0 0 0.00903372 0 0 0 
trait 2 0.2 0.0563707 0 0.167888 0 0.0516825 0.080204 0 
trait 3 0.159375 0 0 0.157478 0 0 0.185896 0 
node 1 3 1 3
node 2 1 1 1
node 3 3 1 1
node 4 1 0 2
node 12 3 0 0
node 42 1 0 0
gene 2 1 4 -6.51896 0 1 -6.51896 1
gene 3 2 4 5.10419 0 2 5.10419 1
gene 1 3 4 3.09556 0 3 3.09556 1
gene 1 3 12 6.2338 0 18 6.2338 1
gene 2 12 4 5.4488 0 19 5.4488 1
gene 1 2 12 8 0 49 8 1
gene 1 1 12 -2.49305 0 99 -2.49305 1
gene 3 2 42 -2.63396 0 110 -2.63396 1
gene 3 42 4 1.57462 0 111 1.57462 1
gene 2 42 12 1.6794 0 213 1.6794 1
gene 2 1 42 -2.01982 0 393 -2.01982 1
genomeend 68

/* Organism #69 Fitness: 9 Error: 1 */
genomestart 69
trait 1 0.1 0 0 0 0.00903372 0 0 0 
trait 2 0.2 0.0563707 0 0.167888 0 0.0516825 0.080204 0 
trait 3 0.159375 0 0 0.157478 0 0 0.185896 0 
node 1 3 1 3
node 2 1 1 1
node 3 3 1 1
node 4 1 0 2
node 12 3 0 0
node 42 1 0 0
gene 2 1 4 -4.89824 0 1 -4.89824 1
gene 3 2 4 6.78693 0 2 6.78693 1
gene 1 3 4 5.56197 0 3 5.56197 1
gene 1 3 12 3.88415 0 18 3.88415 1
gene 2 12 4 7.50827 0 19 7.50827 1
gene 1 2 12 7.57648 0 49 7.57648 1
gene 1 1 12 -1.02882 0 99 -1.02882 1
gene 3 2 42 -2.60157 0 110 -2.60157 1
gene 3 42 4 2.67566 0 111 2.67566 1
gene 2 42 12 -0.128792 0 213 -0.128792 1
gene 2 1 42 -1.09953 0 393 -1.09953 1
genomeend 69

/* Species #11 : (Size 8) (AF 6.58225) (Age 24)  */


/* Organism #70 Fitness: 9 Error: 1 */
genomestart 70
trait 1 0.0518188 0 0.327278 0.0438898 0 0.0440024 0.437102 0.350869 
trait 2 0.2 0 0.163944 0 0 0 0.0538545 0 
trait 3 0.3 0 0 0 0.100045 0.0484121 0.213464 0.147837 
node 1 3 1 3
node 2 3 1 1
node 3 3 1 1
node 4 2 0 2
node 11 1 0 0
node 56 1 0 0
gene 2 1 4 1.56552 0 1 1.56552 1
gene 3 2 4 3.80709 0 2 3.80709 0
gene 3 3 4 -8 0 3 -8 1
gene 3 2 11 -7.85205 0 16 -7.85205 1
gene 3 11 4 8 0 17 8 1
gene 3 11 56 4.52626 0 151 4.52626 1
gene 3 56 4 7.8919 0 152 7.8919 1
gene 2 3 11 0.4414 0 252 0.4414 1
gene 3 3 56 -2.72949 0 325 -2.72949 1
genomeend 70

/* Organism #71 Fitness: 4.07738 Error: 1.98075 */
genomestart 71
trait 1 0.0518188 0 0.327278 0.0438898 0 0.0440024 0.437102 0.350869 
trait 2 0.2 0 0.163944 0 0 0 0.0538545 0 
trait 3 0.3 0 0 0 0.100045 0.0484121 0.213464 0.147837 
node 1 3 1 3
node 2 3 1 1
node 3 1 1 1
node 4 2 0 2
node 11 1 0 0
node 56 1 0 0
gene 2 1 4 0.814725 0 1 0.814725 1
gene 3 2 4 5.18965 0 2 5.18965 0
gene 3 3 4 -8 0 3 -8 1
gene 3 2 11 -7.85205 0 16 -7.85205 1
gene 3 11 4 8 0 17 8 1
gene 3 11 56 6.31321 0 151 6.31321 1
gene 3 56 4 8 0 152 8 1
gene 2 3 11 1.42953 0 252 1.42953 1
gene 3 3 56 1.25524 0 325 1.25524 1
genomeend 71

/* Organism #72 Fitness: 9 Error: 1 */
genomestart 72
trait 1 0.0518188 0 0.327278 0.0438898 0 0.0440024 0.437102 0.350869 
trait 2 0.2 0 0.163944 0 0 0 0.0538545 0 
trait 3 0.3 0 0 0 0.100045 0.0484121 0.213464 0.147837 
node 1 3 1 3
node 2 3 1 1
node 3 3 1 1
node 4 2 0 2
node 11 1 0 0
node 56 1 0 0
gene 2 1 4 1.56552 0 1 1.56552 1
gene 3 2 4 3.80709 0 2 3.80709 0
gene 3 3 4 -8 0 3 -8 1
gene 3 2 11 -7.85205 0 16 -7.85205 1
gene 3 11 4 8 0 17 8 1
gene 3 11 56 4.52626 0 151 4.52626 1
gene 3 56 4 7.8919 0 152 7.8919 1
gene 2 3 11 0.4414 0 252 0.4414 1
gene 3 3 56 -2.72949 0 325 -2.72949 1
genomeend 72

/* Organism #73 Fitness: 4.5819 Error: 1.85946 */
genomestart 73
trait 1 0.0518188 0 0.327278 0.0438898 0 0.0440024 0.437102 0.350869 
trait 2 0.2 0 0.163944 0 0 0 0.0538545 0 
trait 3 0.3 0 0 0 0.100045 0.0484121 0.213464 0.147837 
node 1 3 1 3
node 2 3 1 1
node 3 3 1 1
node 4 2 0 2
node 11 1 0 0
node 56 1 0 0
gene 2 1 4 0.678043 0 1 0.678043 1
gene 3 2 4 3.80709 0 2 3.80709 0
gene 3 3 4 -7.40225 0 3 -7.40225 1
gene 3 2 11 -6.7499 0 16 -6.7499 1
gene 3 11 4 6.36408 0 17 6.36408 1
gene 3 11 56 1.03699 0 151 1.03699 1
gene 3 56 4 7.8919 0 152 7.8919 1
gene 2 3 11 1.36627 0 252 1.36627 1
gene 3 3 56 -4.63707 0 325 -4.63707 1
genomeend 73

/* Organism #74 Fitness: 3.99999 Error: 2 */
genomestart 74
trait 1 0.0518188 0 0.327278 0.0438898 0 0.0440024 0.437102 0.350869 
trait 2 0.2 0 0.163944 0 0 0 0.0538545 0 
trait 3 0.3 0 0 0 0.100045 0.0484121 0.213464 0.147837 
node 1 3 1 3
node 2 3 1 1
node 3 3 1 1
node 4 2 0 2
node 11 1 0 0
node 56 1 0 0
gene 2 1 4 3.93095 0 1 3.93095 1
gene 3 2 4 2.51196 0 2 2.51196 0
gene 3 3 4 -8 0 3 -8 1
gene 3 2 11 1.84361 0 16 1.84361 1
gene 3 11 4 1.9873 0 17 1.9873 1
gene 3 11 56 2.41021 0 151 2.41021 1
gene 3 56 4 8 0 152 8 1
gene 2 3 11 1.11962 0 252 1.11962 1
gene 3 3 56 -3.65301 0 325 -3.65301 1
genomeend 74

/* Organism #75 Fitness: 4 Error: 2 */
genomestart 75
trait 1 0.0518188 0 0.327278 0.0438898 0 0.0440024 0.437102 0.350869 
trait 2 0.2 0 0.163944 0 0 0 0.0538545 0 
trait 3 0.3 0 0 0 0.100045 0.0484121 0.213464 0.147837 
node 1 3 1 3
node 2 3 1 1
node 3 3 1 1
node 4 2 0 2
node 11 1 0 0
node 56 1 0 0
gene 2 1 4 0.77035 0 1 0.77035 1
gene 3 2 4 5.03519 0 2 5.03519 0
gene 3 3 4 -8 0 3 -8 1
gene 3 2 11 -8 0 16 -8 1
gene 3 11 4 -1.49502 0 17 -1.49502 1
gene 3 11 56 2.53554 0 151 2.53554 1
gene 3 56 4 7.69659 0 152 7.69659 1
gene 2 3 11 2.13872 0 252 2.13872 1
gene 3 3 56 -3.46912 0 325 -3.46912 1
genomeend 75

/* Organism #76 Fitness: 9 Error: 1 */
genomestart 76
trait 1 0.0518188 0 0.327278 0.0438898 0 0.0440024 0.437102 0.350869 
trait 2 0.2 0 0.163944 0 0 0 0.0538545 0 
trait 3 0.3 0 0 0 0.100045 0.0484121 0.213464 0.147837 
node 1 3 1 3
node 2 3 1 1
node 3 3 1 1
node 4 2 0 2
node 11 1 0 0
node 56 1 0 0
gene 2 1 4 3.93095 0 1 3.93095 1
gene 3 2 4 4.52871 0 2 4.52871 0
gene 3 3 4 -8 0 3 -8 1
gene 3 2 11 -8 0 16 -8 1
gene 3 11 4 8 0 17 8 1
gene 3 11 56 2.09256 0 151 2.09256 1
gene 3 56 4 8 0 152 8 1
gene 2 3 11 3.34772 0 252 3.34772 1
gene 3 3 56 -4.41273 0 325 -4.41273 1
gene 1 1 56 0.0797301 0 415 0.0797301 1
genomeend 76

/* Organism #77 Fitness: 8.99872 Error: 1.00021 */
genomestart 77
trait 1 0.0518188 0 0.327278 0.0438898 0 0.0440024 0.437102 0.350869 
trait 2 0.2 0 0.163944 0 0 0 0.0538545 0 
trait 3 0.3 0 0 0 0.100045 0.0484121 0.213464 0.147837 
node 1 3 1 3
node 2 3 1 1
node 3 3 1 1
node 4 2 0 2
node 11 1 0 0
node 56 3 0 0
gene 2 1 4 -2.35512 0 1 -2.35512 1
gene 3 2 4 4.95486 0 2 4.95486 1
gene 3 3 4 -7.64124 0 3 -7.64124 1
gene 3 2 11 -7.64899 0 16 -7.64899 1
gene 3 11 4 5.60642 0 17 5.60642 1
gene 3 11 56 5.20067 0 151 5.20067 1
gene 3 56 4 6.67976 0 152 6.67976 1
gene 2 3 11 0.4414 0 252 0.4414 1
gene 3 3 56 -2.06557 0 325 -2.06557 1
genomeend 77

/* Species #12 : (Size 6) (AF 4.83332) (Age 22)  */


/* Organism #78 Fitness: 9.00017 Error: 0.999972 */
genomestart 78
trait 1 0.0549805 0 0.351383 0 0 0 0.402192 0.353167 
trait 2 0.2 0 0 0 0 0 0 0 
trait 3 0.3 0 0 0 0 0.0486431 0.211184 0.148543 
node 1 3 1 3
node 2 3 1 1
node 3 3 1 1
node 4 2 0 2
node 11 1 0 0
node 62 1 0 0
node 86 1 0 0
gene 2 1 4 3.69413 0 1 3.69413 1
gene 3 2 4 1.45948 0 2 1.45948 1
gene 3 3 4 -3.08184 0 3 -3.08184 0
gene 3 2 11 -2.36045 0 16 -2.36045 1
gene 3 11 4 7.35707 0 17 7.35707 1
gene 3 1 11 -1.73426 0 135 -1.73426 1
gene 1 3 11 2.16242 0 158 2.16242 1
gene 3 3 62 1.97307 0 174 1.97307 1
gene 3 62 4 -7.48431 0 175 -7.48431 0
gene 3 62 86 2.03997 0 253 2.03997 1
gene 3 86 4 -7.19365 0 254 -7.19365 1
gene 3 3 86 -0.483947 0 334 -0.483947 1
gene 3 1 86 -0.169693 0 378 -0.169693 1
genomeend 78

/* Organism #79 Fitness: 3.99978 Error: 2.00005 */
genomestart 79
trait 1 0.0549805 0 0.351383 0 0 0 0.402192 0.353167 
trait 2 0.2 0 0 0 0 0 0 0 
trait 3 0.3 0 0 0 0 0.0486431 0.211184 0.148543 
node 1 3 1 3
node 2 3 1 1
node 3 3 1 1
node 4 2 0 2
node 11 1 0 0
node 62 1 0 0
node 86 1 0 0
gene 2 1 4 2.69358 0 1 2.69358 1
gene 1 2 4 2.93084 0 2 2.93084 1
gene 3 3 4 -2.05571 0 3 -2.05571 0
gene 3 2 11 -2.60249 0 16 -2.60249 1
gene 3 11 4 8 0 17 8 1
gene 3 1 11 -0.557467 0 135 -0.557467 1
gene 1 3 11 -0.310142 0 158 -0.310142 1
gene 3 3 62 -0.487426 0 174 -0.487426 1
gene 3 62 4 -8 0 175 -8 0
gene 3 62 86 2.57613 0 253 2.57613 1
gene 3 86 4 -7.03839 0 254 -7.03839 1
gene 3 3 86 -0.881251 0 334 -0.881251 1
gene 3 1 86 1.97341 0 378 1.97341 1
genomeend 79

/* Organism #80 Fitness: 4 Error: 2 */
genomestart 80
trait 1 0.0549805 0 0.351383 0 0 0 0.402192 0.353167 
trait 2 0.1 0.0706903 0.374213 0.181887 0 0 0.0278563 0 
trait 3 0.3 0 0 0 0 0.0486431 0.211184 0.148543 
node 1 3 1 3
node 2 3 1 1
node 3 3 1 1
node 4 2 0 2
node 11 1 0 0
node 62 1 0 0
node 86 1 0 0
gene 2 1 4 5.67052 0 1 5.67052 1
gene 3 2 4 1.21333 0 2 1.21333 0
gene 3 3 4 -1.22667 0 3 -1.22667 0
gene 3 2 11 -4.62907 0 16 -4.62907 1
gene 3 11 4 8 0 17 8 1
gene 3 1 11 0.439227 0 135 0.439227 1
gene 1 3 11 1.71759 0 158 1.71759 1
gene 3 3 62 1.54868 0 174 1.54868 1
gene 3 62 4 -7.85624 0 175 -7.85624 0
gene 3 62 86 0.00126047 0 253 0.00126047 1
gene 3 86 4 -8 0 254 -8 1
gene 3 3 86 0.607695 0 334 0.607695 1
gene 3 1 86 -1.91426 0 378 -1.91426 1
genomeend 80

/* Organism #81 Fitness: 3.99999 Error: 2 */
genomestart 81
trait 1 0.0549805 0 0.351383 0 0 0 0.402192 0.353167 
trait 2 0.1 0.0706903 0.374213 0.181887 0 0 0.0278563 0 
trait 3 0.3 0 0 0 0 0.0486431 0.211184 0.148543 
node 1 3 1 3
node 2 3 1 1
node 3 3 1 1
node 4 2 0 2
node 11 1 0 0
node 62 1 0 0
node 86 1 0 0
gene 2 1 4 1.96139 0 1 1.96139 1
gene 3 2 4 -0.40239 0 2 -0.40239 0
gene 3 3 4 -0.646007 0 3 -0.646007 0
gene 3 2 11 -3.98221 0 16 -3.98221 1
gene 3 11 4 8 0 17 8 1
gene 3 1 11 0.756122 0 135 0.756122 1
gene 1 3 11 2.92575 0 158 2.92575 1
gene 3 3 62 1.54291 0 174 1.54291 1
gene 3 62 4 -7.39927 0 175 -7.39927 0
gene 3 62 86 4.01036 0 253 4.01036 1
gene 3 86 4 -7.20669 0 254 -7.20669 1
gene 3 3 86 1.38646 0 334 1.38646 1
gene 3 1 86 -1.70146 0 378 -1.70146 1
genomeend 81

/* Organism #82 Fitness: 4 Error: 2 */
genomestart 82
trait 1 0.0549805 0 0.351383 0 0 0 0.402192 0.353167 
trait 2 0.1 0.0706903 0.374213 0.181887 0 0 0.0278563 0 
trait 3 0.3 0 0 0 0 0.0486431 0.211184 0.148543 
node 1 3 1 3
node 2 3 1 1
node 3 3 1 1
node 4 2 0 2
node 11 1 0 0
node 62 1 0 0
node 86 1 0 0
gene 2 1 4 4.75263 0 1 4.75263 1
gene 3 2 4 -0.56863 0 2 -0.56863 0
gene 3 3 4 -0.547195 0 3 -0.547195 0
gene 3 2 11 -2.22569 0 16 -2.22569 1
gene 3 11 4 8 0 17 8 1
gene 3 1 11 -1.05689 0 135 -1.05689 1
gene 1 3 11 -0.782481 0 158 -0.782481 1
gene 3 3 62 0.00412748 0 174 0.00412748 1
gene 3 62 4 -7.48431 0 175 -7.48431 0
gene 3 62 86 2.6642 0 253 2.6642 1
gene 3 86 4 -7.99684 0 254 -7.99684 1
gene 3 3 86 2.12471 0 334 2.12471 1
gene 3 1 86 -1.87896 0 378 -1.87896 1
genomeend 82

/* Organism #83 Fitness: 4 Error: 2 */
genomestart 83
trait 1 0.0549805 0 0.351383 0 0 0 0.402192 0.353167 
trait 2 0.1 0.0706903 0.374213 0.181887 0 0 0.0278563 0 
trait 3 0.3 0 0 0 0 0.0486431 0.211184 0.148543 
node 1 3 1 3
node 2 3 1 1
node 3 3 1 1
node 4 2 0 2
node 11 1 0 0
node 62 1 0 0
node 86 1 0 0
gene 2 1 4 4.88968 0 1 4.88968 1
gene 3 2 4 -0.349589 0 2 -0.349589 0
gene 3 3 4 -4.19968 0 3 -4.19968 0
gene 3 2 11 -1.60206 0 16 -1.60206 1
gene 3 11 4 4.9768 0 17 4.9768 1
gene 3 1 11 -3.25373 0 135 -3.25373 1
gene 1 3 11 1.74895 0 158 1.74895 1
gene 3 3 62 2.09384 0 174 2.09384 1
gene 3 62 4 -7.31482 0 175 -7.31482 0
gene 3 62 86 0.933161 0 253 0.933161 1
gene 3 86 4 0.567502 0 254 0.567502 1
gene 3 3 86 -0.82214 0 334 -0.82214 1
gene 3 1 86 -1.26594 0 378 -1.26594 1
genomeend 83

/* Species #13 : (Size 6) (AF 6.08762) (Age 20)  */


/* Organism #84 Fitness: 7.78451 Error: 1.20993 */
genomestart 84
trait 1 0.075 0 0.195128 0 0 0 0.223343 0.196119 
trait 2 0.383417 0 0.178502 0 0 0 0 0 
trait 3 0.3 0 0 0 0 0.0525705 0.549418 0.160536 
node 1 3 1 3
node 2 3 1 1
node 3 3 1 1
node 4 2 0 2
node 11 1 0 0
node 22 1 0 0
node 74 2 0 0
gene 2 1 4 -2.99558 0 1 -2.99558 1
gene 2 2 4 1.09014 0 2 1.09014 0
gene 3 3 4 0.731401 0 3 0.731401 1
gene 2 2 11 4.76758 0 16 4.76758 1
gene 3 11 4 8 0 17 8 1
gene 2 3 11 -2.15582 0 36 -2.15582 1
gene 2 3 22 4.88725 0 46 4.88725 0
gene 2 22 11 -3.0947 0 47 -3.0947 1
gene 2 3 74 2.13946 0 209 2.13946 1
gene 2 74 22 1.62762 0 210 1.62762 1
gene 2 74 4 2.52197 0 273 2.52197 1
gene 2 2 74 1.53088 0 379 1.53088 1
genomeend 84

/* Organism #85 Fitness: 3.99971 Error: 2.00007 */
genomestart 85
trait 1 0.075 0 0.195128 0.233195 0 0 0.223343 0.196119 
trait 2 0.383417 0 0.178502 0 0 0 0 0 
trait 3 0.3 0 0 0 0 0.0525705 0.549418 0.160536 
node 1 3 1 3
node 2 3 1 1
node 3 3 1 1
node 4 2 0 2
node 11 1 0 0
node 22 1 0 0
node 74 2 0 0
gene 2 1 4 -3.25864 0 1 -3.25864 1
gene 2 2 4 -0.265869 0 2 -0.265869 0
gene 3 3 4 2.4702 0 3 2.4702 1
gene 2 2 11 -0.90473 0 16 -0.90473 1
gene 3 11 4 8 0 17 8 1
gene 2 3 11 -3.80005 0 36 -3.80005 1
gene 2 3 22 4.92261 0 46 4.92261 0
gene 2 22 11 -3.71304 0 47 -3.71304 1
gene 2 3 74 1.4081 0 209 1.4081 1
gene 2 74 22 1.95558 0 210 1.95558 1
gene 2 74 4 2.68314 0 273 2.68314 1
gene 2 2 74 -0.393595 0 379 -0.393595 1
genomeend 85

/* Organism #86 Fitness: 4.00011 Error: 1.99997 */
genomestart 86
trait 1 0.248694 0 0.195128 0 0 0 0.111672 0.196119 
trait 2 0.383417 0 0.178502 0 0 0 0 0 
trait 3 0.3 0 0 0 0 0.0525705 0.549418 0.160536 
node 1 3 1 3
node 2 3 1 1
node 3 3 1 1
node 4 2 0 2
node 11 1 0 0
node 22 1 0 0
node 74 2 0 0
gene 2 1 4 -0.14297 0 1 -0.14297 1
gene 2 2 4 -1.40686 0 2 -1.40686 0
gene 3 3 4 3.01236 0 3 3.01236 1
gene 2 2 11 4.51574 0 16 4.51574 1
gene 3 11 4 3.68691 0 17 3.68691 1
gene 2 3 11 0.0358632 0 36 0.0358632 1
gene 2 3 22 6.09619 0 46 6.09619 1
gene 2 22 11 -3.77353 0 47 -3.77353 1
gene 2 3 74 3.89425 0 209 3.89425 1
gene 2 74 22 2.52846 0 210 2.52846 1
gene 2 74 4 4.55561 0 273 4.55561 1
gene 2 2 74 1.53088 0 379 1.53088 1
genomeend 86

/* Organism #87 Fitness: 3.99512 Error: 2.00122 */
genomestart 87
trait 1 0.422389 0 0.195128 0 0 0 0 0.196119 
trait 2 0.383417 0 0.178502 0 0 0 0 0 
trait 3 0.3 0 0 0 0 0.0525705 0.549418 0.160536 
node 1 3 1 3
node 2 3 1 1
node 3 3 1 1
node 4 2 0 2
node 11 1 0 0
node 22 1 0 0
node 74 2 0 0
gene 2 1 4 0.0934691 0 1 0.0934691 1
gene 2 2 4 -3.6937 0 2 -3.6937 0
gene 3 3 4 0.780312 0 3 0.780312 1
gene 2 2 11 2.23522 0 16 2.23522 1
gene 3 11 4 -1.50041 0 17 -1.50041 1
gene 2 3 11 -2.08262 0 36 -2.08262 1
gene 2 3 22 3.07132 0 46 3.07132 0
gene 2 22 11 -2.84667 0 47 -2.84667 1
gene 2 3 74 3.93094 0 209 3.93094 1
gene 2 74 22 1.89789 0 210 1.89789 1
gene 2 74 4 2.23764 0 273 2.23764 1
genomeend 87

/* Organism #88 Fitness: 8.99851 Error: 1.00025 */
genomestart 88
trait 1 0.075 0 0.195128 0 0 0 0.223343 0.196119 
trait 2 0.383417 0 0.178502 0 0 0 0 0 
trait 3 0.3 0 0 0 0 0.0525705 0.549418 0.160536 
node 1 3 1 3
node 2 3 1 1
node 3 3 1 1
node 4 2 0 2
node 11 1 0 0
node 22 1 0 0
node 74 2 0 0
gene 2 1 4 -2.5142 0 1 -2.5142 1
gene 2 2 4 -0.829816 0 2 -0.829816 0
gene 3 3 4 3.06485 0 3 3.06485 1
gene 2 2 11 6.25558 0 16 6.25558 1
gene 3 11 4 8 0 17 8 1
gene 2 3 11 -1.64539 0 36 -1.64539 1
gene 2 3 22 3.38828 0 46 3.38828 1
gene 2 22 11 -3.74515 0 47 -3.74515 1
gene 2 3 74 2.38998 0 209 2.38998 1
gene 2 74 22 3.09674 0 210 3.09674 1
gene 2 74 4 1.2194 0 273 1.2194 1
gene 2 2 74 0.806271 0 379 0.806271 1
genomeend 88

/* Organism #89 Fitness: 7.74773 Error: 1.21653 */
genomestart 89
trait 1 0.075 0 0.195128 0 0 0 0.223343 0.196119 
trait 2 0.383417 0 0.178502 0 0 0 0 0 
trait 3 0.3 0 0 0 0 0.0525705 0.549418 0.160536 
node 1 3 1 3
node 2 3 1 1
node 3 3 1 1
node 4 2 0 2
node 11 1 0 0
node 22 1 0 0
node 74 2 0 0
gene 2 1 4 -2.99558 0 1 -2.99558 1
gene 2 2 4 1.09014 0 2 1.09014 0
gene 3 3 4 0.731401 0 3 0.731401 1
gene 2 2 11 4.76758 0 16 4.76758 1
gene 3 11 4 8 0 17 8 1
gene 2 3 11 -2.15582 0 36 -2.15582 1
gene 2 3 22 4.88725 0 46 4.88725 0
gene 2 22 11 -3.0947 0 47 -3.0947 1
gene 2 3 74 2.13946 0 209 2.13946 1
gene 2 74 22 1.62762 0 210 1.62762 1
gene 2 74 4 2.52197 0 273 2.52197 1
gene 2 2 74 1.53088 0 379 1.53088 1
gene 3 1 22 -0.854771 0 416 -0.854771 1
genomeend 89

/* Species #14 : (Size 9) (AF 6.92785) (Age 15)  */


/* Organism #90 Fitness: 9 Error: 1 */
genomestart 90
trait 1 0.104804 0 0.160054 0 0.445478 0.443439 0 0 
trait 2 0.1 0.0150322 0.0939484 0.556631 0 0 0 0 
trait 3 0.490323 0 0 0 0 0 0.75428 0 
node 1 3 1 3
node 2 1 1 1
node 3 3 1 1
node 4 1 0 2
node 12 1 0 0
node 31 1 0 0
node 87 1 0 0
gene 2 1 4 -8 0 1 -8 1
gene 3 2 4 8 0 2 8 1
gene 3 3 4 7.12542 0 3 7.12542 0
gene 1 3 12 6.76896 0 18 6.76896 1
gene 1 12 4 5.16841 0 19 5.16841 1
gene 2 3 31 5.81075 0 73 5.81075 1
gene 1 31 12 2.61942 0 74 2.61942 1
gene 3 1 12 -4.06835 0 181 -4.06835 1
gene 3 3 87 2.0586 0 255 2.0586 1
gene 3 87 4 8 0 256 8 1
genomeend 90

/* Organism #91 Fitness: 9 Error: 1 */
genomestart 91
trait 1 0.104804 0 0.160054 0 0.445478 0.443439 0 0 
trait 2 0.1 0.0150322 0.0939484 0.556631 0 0 0 0 
trait 3 0.490323 0 0 0 0 0 0.75428 0 
node 1 3 1 3
node 2 1 1 1
node 3 3 1 1
node 4 1 0 2
node 12 1 0 0
node 31 1 0 0
node 87 1 0 0
gene 2 1 4 -8 0 1 -8 1
gene 3 2 4 8 0 2 8 1
gene 3 3 4 6.62482 0 3 6.62482 0
gene 1 3 12 7.30806 0 18 7.30806 1
gene 1 12 4 4.56246 0 19 4.56246 1
gene 2 3 31 4.7195 0 73 4.7195 1
gene 1 31 12 1.37185 0 74 1.37185 1
gene 3 1 12 -5.01331 0 181 -5.01331 1
gene 3 3 87 1.71546 0 255 1.71546 1
gene 3 87 4 7.99668 0 256 7.99668 1
genomeend 91

/* Organism #92 Fitness: 8.99982 Error: 1.00003 */
genomestart 92
trait 1 0.104804 0 0.160054 0 0.445478 0.443439 0 0 
trait 2 0.1 0.0150322 0.0939484 0.556631 0 0 0 0 
trait 3 0.490323 0 0 0 0 0 0.75428 0 
node 1 3 1 3
node 2 1 1 1
node 3 3 1 1
node 4 1 0 2
node 12 1 0 0
node 31 1 0 0
node 87 1 0 0
gene 2 1 4 -6.11176 0 1 -6.11176 1
gene 3 2 4 6.21416 0 2 6.21416 1
gene 3 3 4 7.57927 0 3 7.57927 1
gene 1 3 12 7.17302 0 18 7.17302 1
gene 1 12 4 3.3228 0 19 3.3228 1
gene 2 3 31 3.62825 0 73 3.62825 1
gene 1 31 12 -2.33838 0 74 -2.33838 1
gene 3 1 12 -6.86569 0 181 -6.86569 1
gene 3 3 87 3.56071 0 255 3.56071 1
gene 3 87 4 8 0 256 8 1
gene 1 87 31 0.198597 0 406 0.198597 1
genomeend 92

/* Organism #93 Fitness: 4.21745 Error: 1.94636 */
genomestart 93
trait 1 0.104804 0 0.160054 0 0.445478 0.443439 0 0 
trait 2 0.1 0.0150322 0.0939484 0.556631 0 0 0 0 
trait 3 0.490323 0 0 0 0 0 0.75428 0 
node 1 3 1 3
node 2 2 1 1
node 3 3 1 1
node 4 1 0 2
node 12 1 0 0
node 31 1 0 0
node 87 1 0 0
gene 2 1 4 -8 0 1 -8 1
gene 3 2 4 7.76352 0 2 7.76352 1
gene 3 3 4 -1.1439 0 3 -1.1439 0
gene 1 3 12 7.84717 0 18 7.84717 1
gene 1 12 4 1.68748 0 19 1.68748 1
gene 2 3 31 -0.92811 0 73 -0.92811 1
gene 1 31 12 -1.45506 0 74 -1.45506 1
gene 3 1 12 2.36633 0 181 2.36633 1
gene 3 3 87 0.843608 0 255 0.843608 1
gene 3 87 4 5.81959 0 256 5.81959 1
gene 1 87 31 1.42451 0 406 1.42451 1
genomeend 93

/* Organism #94 Fitness: 4 Error: 2 */
genomestart 94
trait 1 0.104804 0 0.160054 0 0.445478 0.443439 0 0 
trait 2 0.1 0.0150322 0.0939484 0.556631 0 0 0 0 
trait 3 0.490323 0 0 0 0 0 0.75428 0 
node 1 3 1 3
node 2 1 1 1
node 3 3 1 1
node 4 1 0 2
node 12 1 0 0
node 31 1 0 0
node 87 1 0 0
gene 2 1 4 -6.47228 0 1 -6.47228 1
gene 3 2 4 -1.64883 0 2 -1.64883 1
gene 3 3 4 4.69976 0 3 4.69976 0
gene 1 3 12 8 0 18 8 1
gene 1 12 4 -2.14046 0 19 -2.14046 1
gene 2 3 31 2.08678 0 73 2.08678 1
gene 1 31 12 0.337627 0 74 0.337627 1
gene 3 1 12 1.99407 0 181 1.99407 1
gene 3 3 87 -0.4856 0 255 -0.4856 1
gene 3 87 4 8 0 256 8 1
gene 1 87 31 0.920759 0 406 0.920759 1
genomeend 94

/* Organism #95 Fitness: 9 Error: 1 */
genomestart 95
trait 1 0.104804 0 0.160054 0 0.445478 0.443439 0 0 
trait 2 0.1 0.0150322 0.0939484 0.556631 0 0 0 0 
trait 3 0.490323 0 0 0 0 0 0.75428 0 
node 1 3 1 3
node 2 1 1 1
node 3 3 1 1
node 4 1 0 2
node 12 1 0 0
node 31 1 0 0
node 87 1 0 0
gene 2 1 4 -7.44069 0 1 -7.44069 1
gene 3 2 4 8 0 2 8 1
gene 3 3 4 8 0 3 8 0
gene 1 3 12 6.41927 0 18 6.41927 1
gene 1 12 4 4.04957 0 19 4.04957 1
gene 2 3 31 7.46098 0 73 7.46098 1
gene 1 31 12 0.707331 0 74 0.707331 1
gene 3 1 12 -4.14082 0 181 -4.14082 1
gene 3 3 87 1.57896 0 255 1.57896 1
gene 3 87 4 8 0 256 8 1
genomeend 95

/* Organism #96 Fitness: 4 Error: 2 */
genomestart 96
trait 1 0.104804 0 0.160054 0 0.445478 0.443439 0 0 
trait 2 0.1 0.0150322 0.0939484 0.556631 0 0 0 0 
trait 3 0.490323 0 0 0 0 0 0.75428 0 
node 1 3 1 3
node 2 1 1 1
node 3 3 1 1
node 4 1 0 2
node 12 1 0 0
node 31 1 0 0
node 87 1 0 0
gene 2 1 4 -8 0 1 -8 1
gene 3 2 4 8 0 2 8 1
gene 3 3 4 5.75771 0 3 5.75771 0
gene 1 3 12 8 0 18 8 1
gene 1 12 4 4.2788 0 19 4.2788 1
gene 2 3 31 1.52554 0 73 1.52554 1
gene 1 31 12 0.84296 0 74 0.84296 1
gene 3 1 12 -7.57892 0 181 -7.57892 1
gene 3 3 87 -0.90982 0 255 -0.90982 1
gene 3 87 4 7.99336 0 256 7.99336 1
gene 1 87 31 0.0842901 0 406 0.0842901 1
genomeend 96

/* Organism #97 Fitness: 8.99964 Error: 1.00006 */
genomestart 97
trait 1 0.104804 0 0.160054 0 0.445478 0.443439 0 0 
trait 2 0.1 0.0150322 0.0939484 0.556631 0 0 0 0 
trait 3 0.490323 0 0 0.0459043 0.600633 0 0.75428 0.134412 
node 1 3 1 3
node 2 1 1 1
node 3 3 1 1
node 4 1 0 2
node 12 1 0 0
node 31 1 0 0
node 87 1 0 0
gene 2 1 4 -8 0 1 -8 1
gene 3 2 4 6.18976 0 2 6.18976 1
gene 3 3 4 4.07354 0 3 4.07354 0
gene 1 3 12 7.62269 0 18 7.62269 1
gene 1 12 4 2.06493 0 19 2.06493 1
gene 2 3 31 5.3222 0 73 5.3222 1
gene 1 31 12 0.227035 0 74 0.227035 1
gene 3 1 12 -5.18329 0 181 -5.18329 1
gene 3 3 87 3.26204 0 255 3.26204 1
gene 3 87 4 7.99336 0 256 7.99336 1
gene 1 87 31 -0.131033 0 406 -0.131033 1
genomeend 97

/* Organism #98 Fitness: 5.13379 Error: 1.73421 */
genomestart 98
trait 1 0.104804 0 0.160054 0 0.445478 0.443439 0 0 
trait 2 0.1 0.0150322 0.0939484 0.556631 0 0 0 0 
trait 3 0.490323 0 0 0 0 0 0.75428 0 
node 1 3 1 3
node 2 1 1 1
node 3 3 1 1
node 4 1 0 2
node 12 1 0 0
node 31 1 0 0
node 87 1 0 0
gene 2 1 4 -8 0 1 -8 1
gene 3 2 4 5.9291 0 2 5.9291 1
gene 3 3 4 7.33477 0 3 7.33477 0
gene 1 3 12 7.2885 0 18 7.2885 1
gene 1 12 4 2.01745 0 19 2.01745 1
gene 2 3 31 4.95036 0 73 4.95036 1
gene 1 31 12 -1.45035 0 74 -1.45035 1
gene 3 1 12 -3.94694 0 181 -3.94694 1
gene 3 3 87 -0.6455 0 255 -0.6455 1
gene 3 87 4 6.40464 0 256 6.40464 1
gene 1 87 31 -0.96048 0 406 -0.96048 1
genomeend 98

/* Species #15 : (Size 10) (AF 8.12354) (Age 14)  */


/* Organism #99 Fitness: 9 Error: 1 */
genomestart 99
trait 1 0.209607 0 0.459136 0.108518 0.018903 0.062586 0 0 
trait 2 0.1 0.0150322 0 0.0234242 0 0 0 0 
trait 3 0.3 0 0 0 0 0 0 0 
node 1 3 1 3
node 2 1 1 1
node 3 3 1 1
node 4 1 0 2
node 12 1 0 0
node 31 1 0 0
node 93 1 0 0
gene 2 1 4 -6.51222 0 1 -6.51222 1
gene 3 2 4 8 0 2 8 1
gene 3 3 4 1.44289 0 3 1.44289 1
gene 1 3 12 8 0 18 8 1
gene 1 12 4 8 0 19 8 1
gene 1 3 31 5.09615 0 73 5.09615 1
gene 1 31 12 1.06764 0 74 1.06764 1
gene 3 1 12 -3.57109 0 181 -3.57109 1
gene 1 2 93 0.310446 0 276 0.310446 1
gene 1 93 4 4.56625 0 277 4.56625 1
genomeend 99

/* Organism #100 Fitness: 5.27039 Error: 1.70427 */
genomestart 100
trait 1 0.209607 0 0.459136 0.108518 0.018903 0.062586 0 0 
trait 2 0.1 0.0150322 0 0.0234242 0 0 0 0 
trait 3 0.3 0 0 0 0 0 0 0 
node 1 3 1 3
node 2 1 1 1
node 3 3 1 1
node 4 1 0 2
node 12 1 0 0
node 31 1 0 0
node 93 1 0 0
gene 2 1 4 -6.62906 0 1 -6.62906 1
gene 3 2 4 6.41786 0 2 6.41786 1
gene 3 3 4 0.91127 0 3 0.91127 1
gene 1 3 12 6.65833 0 18 6.65833 1
gene 1 12 4 8 0 19 8 1
gene 1 3 31 3.26873 0 73 3.26873 1
gene 1 31 12 3.05977 0 74 3.05977 1
gene 3 1 12 -4.49478 0 181 -4.49478 1
gene 1 2 93 -0.970755 0 276 -0.970755 1
gene 1 93 4 4.20292 0 277 4.20292 1
genomeend 100

/* Organism #101 Fitness: 9 Error: 1 */
genomestart 101
trait 1 0.209607 0 0.459136 0.108518 0.018903 0.062586 0 0 
trait 2 0.1 0.0150322 0 0.0234242 0 0 0 0 
trait 3 0.3 0 0 0 0 0 0 0 
node 1 3 1 3
node 2 1 1 1
node 3 3 1 1
node 4 1 0 2
node 12 1 0 0
node 31 1 0 0
node 93 1 0 0
gene 2 1 4 -6.51222 0 1 -6.51222 1
gene 3 2 4 8 0 2 8 1
gene 3 3 4 1.44289 0 3 1.44289 1
gene 1 3 12 8 0 18 8 1
gene 1 12 4 8 0 19 8 1
gene 1 3 31 5.09615 0 73 5.09615 1
gene 1 31 12 1.06764 0 74 1.06764 1
gene 3 1 12 -3.57109 0 181 -3.57109 1
gene 1 2 93 0.310446 0 276 0.310446 1
gene 1 93 4 4.56625 0 277 4.56625 1
genomeend 101

/* Organism #102 Fitness: 9 Error: 1 */
genomestart 102
trait 1 0.209607 0 0.459136 0.108518 0.018903 0.062586 0 0 
trait 2 0.1 0.0150322 0 0.0234242 0 0 0 0 
trait 3 0.3 0 0 0 0 0 0 0 
node 1 3 1 3
node 2 1 1 1
node 3 3 1 1
node 4 1 0 2
node 12 1 0 0
node 31 1 0 0
node 93 1 0 0
gene 2 1 4 -6.51222 0 1 -6.51222 1
gene 3 2 4 8 0 2 8 1
gene 3 3 4 1.44289 0 3 1.44289 1
gene 1 3 12 8 0 18 8 1
gene 1 12 4 8 0 19 8 1
gene 1 3 31 5.09615 0 73 5.09615 1
gene 1 31 12 1.06764 0 74 1.06764 1
gene 3 1 12 -3.57109 0 181 -3.57109 1
gene 1 2 93 0.310446 0 276 0.310446 1
gene 1 93 4 4.56625 0 277 4.56625 1
genomeend 102

/* Organism #103 Fitness: 8.99966 Error: 1.00006 */
genomestart 103
trait 1 0.209607 0 0.459136 0.108518 0.018903 0.062586 0 0 
trait 2 0.1 0.0150322 0 0.0234242 0 0 0 0 
trait 3 0.3 0 0 0 0 0 0 0 
node 1 3 1 3
node 2 1 1 1
node 3 3 1 1
node 4 1 0 2
node 12 1 0 0
node 31 1 0 0
node 93 1 0 0
gene 2 1 4 -4.43306 0 1 -4.43306 1
gene 3 2 4 8 0 2 8 1
gene 3 3 4 2.6433 0 3 2.6433 1
gene 1 3 12 7.67456 0 18 7.67456 1
gene 1 12 4 7.28164 0 19 7.28164 1
gene 1 3 31 6.97622 0 73 6.97622 1
gene 1 31 12 -0.147677 0 74 -0.147677 1
gene 3 1 12 -1.35838 0 181 -1.35838 1
gene 1 2 93 -0.265147 0 276 -0.265147 1
gene 1 93 4 4.87883 0 277 4.87883 1
genomeend 103

/* Organism #104 Fitness: 3.97011 Error: 2.00749 */
genomestart 104
trait 1 0.209607 0 0.459136 0.108518 0.018903 0.062586 0 0 
trait 2 0.1 0.0150322 0 0.0234242 0 0 0 0 
trait 3 0.776277 0 0.719168 0.344643 0 0 0 0 
node 1 3 1 3
node 2 1 1 1
node 3 3 1 1
node 4 1 0 2
node 12 1 0 0
node 31 1 0 0
node 93 1 0 0
gene 2 1 4 -7.02039 0 1 -7.02039 1
gene 3 2 4 8 0 2 8 1
gene 3 3 4 1.44289 0 3 1.44289 1
gene 1 3 12 6.42533 0 18 6.42533 1
gene 1 12 4 0.872588 0 19 0.872588 1
gene 1 3 31 6.83035 0 73 6.83035 1
gene 1 31 12 1.13821 0 74 1.13821 1
gene 3 1 12 -2.36393 0 181 -2.36393 1
gene 1 2 93 -1.32009 0 276 -1.32009 1
gene 1 93 4 5.82595 0 277 5.82595 1
genomeend 104

/* Organism #105 Fitness: 8.99969 Error: 1.00005 */
genomestart 105
trait 1 0.209607 0 0.459136 0.108518 0.018903 0.062586 0 0 
trait 2 0.1 0.0150322 0 0.0234242 0 0 0 0 
trait 3 0 0 0 0.882466 0 0 0 0 
node 1 3 1 3
node 2 1 1 1
node 3 3 1 1
node 4 1 0 2
node 12 1 0 0
node 31 1 0 0
node 93 1 0 0
gene 2 1 4 -4.91422 0 1 -4.91422 1
gene 3 2 4 8 0 2 8 1
gene 3 3 4 -1.27302 0 3 -1.27302 1
gene 1 3 12 7.36507 0 18 7.36507 1
gene 1 12 4 5.97552 0 19 5.97552 1
gene 1 3 31 6.29589 0 73 6.29589 1
gene 1 31 12 -1.45739 0 74 -1.45739 1
gene 3 1 12 -5.1734 0 181 -5.1734 1
gene 1 2 93 0.374348 0 276 0.374348 1
gene 1 93 4 5.79154 0 277 5.79154 1
genomeend 105

/* Organism #106 Fitness: 9 Error: 1 */
genomestart 106
trait 1 0.209607 0 0.459136 0.108518 0.018903 0.062586 0 0 
trait 2 0.1 0.0150322 0 0.0234242 0 0 0 0 
trait 3 0.3 0 0 0 0 0 0 0 
node 1 3 1 3
node 2 1 1 1
node 3 3 1 1
node 4 1 0 2
node 12 1 0 0
node 31 1 0 0
node 93 1 0 0
gene 2 1 4 -6.51222 0 1 -6.51222 1
gene 3 2 4 8 0 2 8 1
gene 3 3 4 1.44289 0 3 1.44289 1
gene 1 3 12 8 0 18 8 1
gene 1 12 4 8 0 19 8 1
gene 1 3 31 5.09615 0 73 5.09615 1
gene 1 31 12 1.06764 0 74 1.06764 1
gene 3 1 12 -3.57109 0 181 -3.57109 1
gene 1 2 93 0.310446 0 276 0.310446 1
gene 1 93 4 4.56625 0 277 4.56625 1
gene 2 2 31 -0.491687 0 417 -0.491687 1
genomeend 106

/* Organism #107 Fitness: 9 Error: 1 */
genomestart 107
trait 1 0.209607 0 0.459136 0.108518 0.018903 0.062586 0 0 
trait 2 0.1 0.0150322 0 0.0234242 0 0 0 0 
trait 3 0.3 0 0 0 0 0 0 0 
node 1 3 1 3
node 2 1 1 1
node 3 3 1 1
node 4 1 0 2
node 12 1 0 0
node 31 1 0 0
node 93 1 0 0
gene 2 1 4 -6.51222 0 1 -6.51222 1
gene 3 2 4 8 0 2 8 1
gene 3 3 4 1.44289 0 3 1.44289 1
gene 1 3 12 8 0 18 8 1
gene 1 12 4 8 0 19 8 1
gene 1 3 31 5.09615 0 73 5.09615 1
gene 1 31 12 1.06764 0 74 1.06764 1
gene 3 1 12 -3.57109 0 181 -3.57109 1
gene 1 2 93 0.310446 0 276 0.310446 1
gene 1 93 4 4.56625 0 277 4.56625 1
gene 2 2 31 -0.491687 0 417 0 1
genomeend 107

/* Organism #108 Fitness: 8.99551 Error: 1.00075 */
genomestart 108
trait 1 0.209607 0 0.459136 0.108518 0.018903 0.062586 0 0 
trait 2 0.1 0.0150322 0 0.0234242 0 0 0 0 
trait 3 0.3 0 0 0 0 0 0 0.297355 
node 1 3 1 3
node 2 1 1 1
node 3 3 1 1
node 4 1 0 2
node 12 1 0 0
node 31 1 0 0
node 93 1 0 0
gene 2 1 4 -7.10466 0 1 -7.10466 1
gene 3 2 4 8 0 2 8 1
gene 3 3 4 1.21951 0 3 1.21951 1
gene 1 3 12 7.41691 0 18 7.41691 1
gene 1 12 4 6.77404 0 19 6.77404 1
gene 1 3 31 5.66233 0 73 5.66233 1
gene 1 31 12 -1.26534 0 74 -1.26534 1
gene 3 1 12 -2.95528 0 181 -2.95528 1
gene 1 2 93 0.310446 0 276 0.310446 1
gene 1 93 4 1.20003 0 277 1.20003 1
genomeend 108

/* Species #16 : (Size 9) (AF 6.64736) (Age 14)  */


/* Organism #109 Fitness: 9 Error: 1 */
genomestart 109
trait 1 0.209607 0.14879 0 0.449819 0.018903 0.0603188 0.289107 0 
trait 2 0.1 0.0150322 0 0.0234242 0 0 0 0 
trait 3 0.3 0 0 0 0 0 0 0 
node 1 3 1 3
node 2 1 1 1
node 3 3 1 1
node 4 1 0 2
node 12 1 0 0
node 31 1 0 0
gene 2 1 4 -3.9685 0 1 -3.9685 1
gene 3 2 4 3.73207 0 2 3.73207 1
gene 3 3 4 1.5773 0 3 1.5773 1
gene 1 3 12 8 0 18 8 1
gene 1 12 4 6.56259 0 19 6.56259 1
gene 1 3 31 3.3815 0 73 3.3815 1
gene 1 31 12 6.00435 0 74 6.00435 1
gene 3 1 12 -4.12636 0 181 -4.12636 1
gene 1 1 31 -0.755793 0 263 -0.755793 1
gene 3 2 31 2.27851 0 329 2.27851 1
genomeend 109

/* Organism #110 Fitness: 8.56494 Error: 1.07341 */
genomestart 110
trait 1 0.209607 0.14879 0 0.357735 0.018903 0.0301594 0.289107 0.217106 
trait 2 0.1 0.0150322 0 0.0234242 0 0 0 0 
trait 3 0.3 0 0 0 0 0 0 0 
node 1 3 1 3
node 2 1 1 1
node 3 3 1 1
node 4 2 0 2
node 12 1 0 0
node 31 1 0 0
gene 2 1 4 -4.58878 0 1 -4.58878 1
gene 3 2 4 2.6425 0 2 2.6425 1
gene 3 3 4 -0.413903 0 3 -0.413903 1
gene 1 3 12 8 0 18 8 1
gene 1 12 4 5.5177 0 19 5.5177 1
gene 1 3 31 3.25047 0 73 3.25047 1
gene 1 31 12 4.56504 0 74 4.56504 1
gene 3 1 12 -4.36636 0 181 -4.36636 1
gene 1 1 31 -0.710449 0 263 -0.710449 1
gene 3 2 31 2.34533 0 329 2.34533 1
genomeend 110

/* Organism #111 Fitness: 3.99949 Error: 2.00013 */
genomestart 111
trait 1 0.209607 0.14879 0 0.357735 0.018903 0.0301594 0.289107 0.217106 
trait 2 0.1 0.0150322 0 0.0234242 0 0 0 0 
trait 3 0.3 0 0 0 0 0 0 0 
node 1 3 1 3
node 2 1 1 1
node 3 3 1 1
node 4 1 0 2
node 12 1 0 0
node 31 1 0 0
gene 2 1 4 -1.8197 0 1 -1.8197 1
gene 3 2 4 -2.21562 0 2 -2.21562 1
gene 3 3 4 -0.0607443 0 3 -0.0607443 1
gene 1 3 12 6.37406 0 18 6.37406 1
gene 1 12 4 8 0 19 8 1
gene 1 3 31 4.84262 0 73 4.84262 1
gene 1 31 12 6.20256 0 74 6.20256 1
gene 3 1 12 -2.07003 0 181 -2.07003 1
gene 1 1 31 -4.21884 0 263 -4.21884 1
gene 3 2 31 -1.77763 0 329 -1.77763 1
genomeend 111

/* Organism #112 Fitness: 7.33054 Error: 1.2925 */
genomestart 112
trait 1 0.209607 0.14879 0 0.265651 0.018903 0 0.289107 0.434211 
trait 2 0.1 0.0150322 0 0.0234242 0 0 0 0 
trait 3 0.3 0 0 0 0 0 0 0 
node 1 3 1 3
node 2 1 1 1
node 3 3 1 1
node 4 1 0 2
node 12 1 0 0
node 31 1 0 0
gene 2 1 4 -3.5619 0 1 -3.5619 1
gene 3 2 4 4.65464 0 2 4.65464 1
gene 3 3 4 -1.68146 0 3 -1.68146 1
gene 1 3 12 8 0 18 8 1
gene 1 12 4 0.408749 0 19 0.408749 1
gene 1 3 31 -1.73156 0 73 -1.73156 1
gene 1 31 12 8 0 74 8 1
gene 3 1 12 -1.1241 0 181 -1.1241 1
gene 1 1 31 -1.72824 0 263 -1.72824 1
gene 3 2 31 3.28588 0 329 3.28588 1
genomeend 112

/* Organism #113 Fitness: 3.99978 Error: 2.00006 */
genomestart 113
trait 1 0.209607 0.14879 0 0.265651 0.018903 0 0.289107 0.434211 
trait 2 0.1 0.0150322 0 0.0234242 0 0 0 0 
trait 3 0.3 0 0 0 0 0 0 0 
node 1 3 1 3
node 2 1 1 1
node 3 3 1 1
node 4 1 0 2
node 12 1 0 0
node 31 1 0 0
gene 2 1 4 -3.5619 0 1 -3.5619 1
gene 3 2 4 2.04855 0 2 2.04855 1
gene 3 3 4 -2.45045 0 3 -2.45045 1
gene 1 3 12 6.20017 0 18 6.20017 1
gene 1 12 4 8 0 19 8 1
gene 1 3 31 0.852144 0 73 0.852144 1
gene 1 31 12 -0.9057 0 74 -0.9057 1
gene 3 1 12 1.51361 0 181 1.51361 1
gene 1 1 31 -1.72824 0 263 -1.72824 1
gene 3 2 31 0.691397 0 329 0.691397 1
genomeend 113

/* Organism #114 Fitness: 9 Error: 1 */
genomestart 114
trait 1 0.209607 0.14879 0 0.357735 0.018903 0.0301594 0.289107 0.217106 
trait 2 0.1 0.0150322 0 0.0234242 0 0 0 0 
trait 3 0.3 0 0 0 0 0 0 0 
node 1 3 1 3
node 2 1 1 1
node 3 3 1 1
node 4 1 0 2
node 12 1 0 0
node 31 1 0 0
gene 2 1 4 -3.5619 0 1 -3.5619 1
gene 3 2 4 5.62344 0 2 5.62344 1
gene 3 3 4 1.5773 0 3 1.5773 1
gene 1 3 12 8 0 18 8 1
gene 1 12 4 8 0 19 8 1
gene 1 3 31 3.3815 0 73 3.3815 1
gene 1 31 12 6.00435 0 74 6.00435 1
gene 3 1 12 -4.12636 0 181 -4.12636 1
gene 1 1 31 -0.755793 0 263 -0.755793 1
gene 3 2 31 2.27851 0 329 2.27851 1
genomeend 114

/* Organism #115 Fitness: 8.99443 Error: 1.00093 */
genomestart 115
trait 1 0.209607 0.14879 0 0.449819 0.018903 0.0603188 0.289107 0 
trait 2 0.1 0.0150322 0 0.0234242 0 0 0 0 
trait 3 0.3 0 0 0 0 0 0 0 
node 1 3 1 3
node 2 1 1 1
node 3 3 1 1
node 4 1 0 2
node 12 1 0 0
node 31 1 0 0
gene 2 1 4 -4.04421 0 1 -4.04421 1
gene 3 2 4 3.79264 0 2 3.79264 1
gene 3 3 4 1.99046 0 3 1.99046 1
gene 1 3 12 7.60876 0 18 7.60876 1
gene 1 12 4 7.76409 0 19 7.76409 1
gene 1 3 31 2.47724 0 73 2.47724 1
gene 1 31 12 5.82474 0 74 5.82474 1
gene 3 1 12 -6.07841 0 181 -6.07841 1
gene 1 1 31 -0.971145 0 263 -0.971145 1
gene 3 2 31 2.27851 0 329 2.27851 1
genomeend 115

/* Organism #116 Fitness: 4.48523 Error: 1.88216 */
genomestart 116
trait 1 0.209607 0.14879 0 0.357735 0.018903 0.0301594 0.289107 0.217106 
trait 2 0.1 0.0150322 0 0.0234242 0 0 0 0 
trait 3 0.3 0 0 0 0 0 0 0 
node 1 3 1 3
node 2 1 1 1
node 3 3 1 1
node 4 1 0 2
node 12 1 0 0
node 31 1 0 0
gene 2 1 4 -6.06202 0 1 -6.06202 1
gene 3 2 4 6.3306 0 2 6.3306 1
gene 3 3 4 2.01928 0 3 2.01928 1
gene 1 3 12 8 0 18 8 1
gene 1 12 4 6.47084 0 19 6.47084 1
gene 1 3 31 4.04708 0 73 4.04708 1
gene 1 31 12 8 0 74 8 1
gene 3 1 12 -4.70103 0 181 -4.70103 1
gene 1 1 31 0.47714 0 263 0.47714 1
gene 3 2 31 2.27851 0 329 2.27851 1
genomeend 116

/* Organism #117 Fitness: 4.45182 Error: 1.89007 */
genomestart 117
trait 1 0.209607 0.14879 0 0.357735 0.018903 0.0301594 0.289107 0.217106 
trait 2 0.1 0.0150322 0 0.0234242 0 0 0 0 
trait 3 0.3 0 0 0 0 0 0 0 
node 1 3 1 3
node 2 1 1 1
node 3 3 1 1
node 4 1 0 2
node 12 1 0 0
node 31 1 0 0
gene 2 1 4 -3.61901 0 1 -3.61901 1
gene 3 2 4 3.1943 0 2 3.1943 1
gene 3 3 4 0.256175 0 3 0.256175 1
gene 1 3 12 5.74512 0 18 5.74512 1
gene 1 12 4 7.45396 0 19 7.45396 1
gene 1 3 31 1.83681 0 73 1.83681 1
gene 1 31 12 8 0 74 8 1
gene 3 1 12 -3.78042 0 181 -3.78042 1
gene 1 1 31 -3.6744 0 263 -3.6744 1
gene 3 2 31 2.27851 0 329 2.27851 1
genomeend 117

/* Species #17 : (Size 10) (AF 8.26493) (Age 14)  */


/* Organism #118 Fitness: 9 Error: 1 */
genomestart 118
trait 1 0.1 0 0 0.24045 0 0.213998 0.129483 0 
trait 2 0.259209 0 0 0 0 0.190714 0.0320816 0 
trait 3 0.0045651 0 0 0 0.296147 0 0 0.857304 
node 1 3 1 3
node 2 1 1 1
node 3 3 1 1
node 4 1 0 2
node 12 1 0 0
node 33 1 0 0
node 90 1 0 0
gene 1 1 4 -2.03164 0 1 -2.03164 1
gene 3 2 4 8 0 2 8 1
gene 1 3 4 8 0 3 8 1
gene 1 3 12 -2.76077 0 18 -2.76077 1
gene 1 12 4 -3.9652 0 19 -3.9652 1
gene 1 12 33 -3.53585 0 77 -3.53585 0
gene 1 33 4 7.52571 0 78 7.52571 0
gene 1 12 90 1.46369 0 265 1.46369 1
gene 1 90 33 -8 0 266 -8 1
genomeend 118

/* Organism #119 Fitness: 9 Error: 1 */
genomestart 119
trait 1 0.256688 0.319026 0 0.752843 0 0.213998 0 0 
trait 2 0.259209 0 0 0 0 0.190714 0.0320816 0 
trait 3 0.0045651 0 0 0 0.296147 0 0 0.857304 
node 1 3 1 3
node 2 1 1 1
node 3 3 1 1
node 4 1 0 2
node 12 1 0 0
node 33 1 0 0
node 90 1 0 0
gene 1 1 4 -2.03164 0 1 -2.03164 1
gene 3 2 4 8 0 2 8 1
gene 1 3 4 7.96458 0 3 7.96458 1
gene 1 3 12 -2.5149 0 18 -2.5149 1
gene 1 12 4 -3.79344 0 19 -3.79344 1
gene 1 12 33 -3.53585 0 77 -3.53585 0
gene 1 33 4 7.52571 0 78 7.52571 0
gene 1 12 90 1.46369 0 265 1.46369 1
gene 1 90 33 -8 0 266 -8 1
genomeend 119

/* Organism #120 Fitness: 8.99971 Error: 1.00005 */
genomestart 120
trait 1 0.1 0 0 0.24045 0 0.213998 0.129483 0 
trait 2 0.259209 0 0 0 0 0.190714 0.0320816 0 
trait 3 0.0045651 0 0 0 0.296147 0 0 0.857304 
node 1 3 1 3
node 2 1 1 1
node 3 3 1 1
node 4 1 0 2
node 12 1 0 0
node 33 1 0 0
node 90 1 0 0
gene 1 1 4 0.221651 0 1 0.221651 1
gene 3 2 4 5.65784 0 2 5.65784 1
gene 1 3 4 6.18137 0 3 6.18137 1
gene 1 3 12 -1.20308 0 18 -1.20308 1
gene 1 12 4 -7.72452 0 19 -7.72452 1
gene 1 12 33 -8 0 77 -8 0
gene 1 33 4 5.33329 0 78 5.33329 0
gene 1 12 90 2.85801 0 265 2.85801 1
gene 1 90 33 -5.43612 0 266 -5.43612 1
genomeend 120

/* Organism #121 Fitness: 8.99993 Error: 1.00001 */
genomestart 121
trait 1 0.1 0 0 0.24045 0 0.213998 0.129483 0 
trait 2 0.259209 0 0 0 0 0.190714 0.0320816 0 
trait 3 0.494835 0 0 0.121411 0.555667 0 0.892578 0.857304 
node 1 3 1 3
node 2 1 1 1
node 3 3 1 1
node 4 1 0 2
node 12 1 0 0
node 33 1 0 0
node 90 1 0 0
gene 1 1 4 -0.589204 0 1 -0.589204 1
gene 3 2 4 7.46286 0 2 7.46286 1
gene 1 3 4 6.67954 0 3 6.67954 1
gene 1 3 12 -2.42501 0 18 -2.42501 1
gene 1 12 4 -3.416 0 19 -3.416 1
gene 1 12 33 -7.15186 0 77 -7.15186 0
gene 1 33 4 8 0 78 8 0
gene 1 12 90 3.53171 0 265 3.53171 1
gene 1 90 33 -6.46167 0 266 -6.46167 1
genomeend 121

/* Organism #122 Fitness: 9 Error: 1 */
genomestart 122
trait 1 0.1 0 0 0.24045 0 0.213998 0.129483 0 
trait 2 0.259209 0 0 0 0 0.190714 0.0320816 0 
trait 3 0.0045651 0 0 0 0.296147 0 0 0.857304 
node 1 3 1 3
node 2 1 1 1
node 3 3 1 1
node 4 1 0 2
node 12 1 0 0
node 33 1 0 0
node 90 1 0 0
gene 1 1 4 -1.74351 0 1 -1.74351 1
gene 3 2 4 8 0 2 8 1
gene 1 3 4 7.98229 0 3 7.98229 1
gene 1 3 12 -2.63784 0 18 -2.63784 1
gene 1 12 4 -3.87932 0 19 -3.87932 1
gene 1 12 33 -4.15205 0 77 -4.15205 0
gene 1 33 4 6.69327 0 78 6.69327 0
gene 1 12 90 2.39923 0 265 2.39923 1
gene 1 90 33 -7.73097 0 266 -7.73097 1
genomeend 122

/* Organism #123 Fitness: 9 Error: 1 */
genomestart 123
trait 1 0.1 0 0 0.24045 0 0.213998 0.129483 0 
trait 2 0.259209 0 0 0 0 0.190714 0.0320816 0 
trait 3 0.0045651 0 0 0 0.296147 0 0 0.857304 
node 1 3 1 3
node 2 1 1 1
node 3 3 1 1
node 4 1 0 2
node 12 1 0 0
node 33 1 0 0
node 90 1 0 0
gene 1 1 4 -1.32294 0 1 -1.32294 1
gene 3 2 4 8 0 2 8 1
gene 1 3 4 6.49242 0 3 6.49242 1
gene 1 3 12 -2.57218 0 18 -2.57218 1
gene 1 12 4 -5.4514 0 19 -5.4514 1
gene 1 12 33 -6.51557 0 77 -6.51557 0
gene 1 33 4 7.73212 0 78 7.73212 0
gene 1 12 90 2.85801 0 265 2.85801 1
gene 1 90 33 -5.12787 0 266 -5.12787 1
genomeend 123

/* Organism #124 Fitness: 8.95368 Error: 1.00773 */
genomestart 124
trait 1 0.1 0 0 0.24045 0 0.213998 0.129483 0 
trait 2 0.259209 0 0 0 0 0.190714 0.0320816 0 
trait 3 0.0045651 0 0 0 0.296147 0 0 0.857304 
node 1 3 1 3
node 2 1 1 1
node 3 3 1 1
node 4 2 0 2
node 12 1 0 0
node 33 1 0 0
node 90 1 0 0
gene 1 1 4 -0.240101 0 1 -0.240101 1
gene 3 2 4 5.60467 0 2 5.60467 1
gene 1 3 4 8 0 3 8 1
gene 1 3 12 -2.79798 0 18 -2.79798 1
gene 1 12 4 -1.49158 0 19 -1.49158 1
gene 1 12 33 -3.34995 0 77 -3.34995 0
gene 1 33 4 8 0 78 8 0
gene 1 12 90 1.63445 0 265 1.63445 1
gene 1 90 33 -8 0 266 -8 1
genomeend 124

/* Organism #125 Fitness: 3.99401 Error: 2.0015 */
genomestart 125
trait 1 0.1 0 0 0.24045 0 0.213998 0.129483 0 
trait 2 0.259209 0 0 0 0 0.190714 0.0320816 0 
trait 3 0.0045651 0 0 0 0.296147 0 0 0.857304 
node 1 3 1 3
node 2 1 1 1
node 3 3 1 1
node 4 1 0 2
node 12 1 0 0
node 33 1 0 0
node 90 1 0 0
gene 1 1 4 -1.91185 0 1 -1.91185 1
gene 3 2 4 -0.215159 0 2 -0.215159 1
gene 1 3 4 7.40896 0 3 7.40896 1
gene 1 3 12 1.15513 0 18 1.15513 1
gene 1 12 4 1.35636 0 19 1.35636 1
gene 1 12 33 -3.53585 0 77 -3.53585 0
gene 1 33 4 7.01669 0 78 7.01669 0
gene 1 12 90 2.07299 0 265 2.07299 1
gene 1 90 33 -8 0 266 -8 1
genomeend 125

/* Organism #126 Fitness: 8.9981 Error: 1.00032 */
genomestart 126
trait 1 0.1 0 0 0.24045 0 0.213998 0.129483 0 
trait 2 0.259209 0 0 0 0 0.190714 0.0320816 0 
trait 3 0.0045651 0 0 0 0.296147 0 0 0.857304 
node 1 3 1 3
node 2 1 1 1
node 3 3 1 1
node 4 1 0 2
node 12 1 0 0
node 33 1 0 0
node 90 1 0 0
gene 1 1 4 -1.91748 0 1 -1.91748 1
gene 3 2 4 6.58473 0 2 6.58473 1
gene 1 3 4 8 0 3 8 1
gene 1 3 12 -2.08158 0 18 -2.08158 1
gene 1 12 4 -6.06262 0 19 -6.06262 1
gene 1 12 33 -1.67067 0 77 -1.67067 0
gene 1 33 4 5.4502 0 78 5.4502 0
gene 1 12 90 2.25564 0 265 2.25564 1
gene 1 90 33 -8 0 266 -8 1
genomeend 126

/* Organism #127 Fitness: 6.70393 Error: 1.4108 */
genomestart 127
trait 1 0.1 0 0 0.24045 0 0.213998 0.129483 0 
trait 2 0.259209 0 0 0 0 0.190714 0.0320816 0 
trait 3 0.0045651 0 0 0 0.296147 0 0 0.857304 
node 1 3 1 3
node 2 1 1 1
node 3 3 1 1
node 4 1 0 2
node 12 1 0 0
node 33 1 0 0
node 90 1 0 0
gene 1 1 4 -2.36785 0 1 -2.36785 1
gene 3 2 4 -1.01514 0 2 -1.01514 1
gene 1 3 4 2.4495 0 3 2.4495 1
gene 1 3 12 -2.76077 0 18 -2.76077 1
gene 1 12 4 -3.79395 0 19 -3.79395 1
gene 1 12 33 -2.55607 0 77 -2.55607 0
gene 1 33 4 7.50579 0 78 7.50579 0
gene 1 12 90 1.99538 0 265 1.99538 1
gene 1 90 33 -8 0 266 -8 1
genomeend 127

/* Species #18 : (Size 6) (AF 6.20243) (Age 13)  */


/* Organism #128 Fitness: 8.99835 Error: 1.00027 */
genomestart 128
trait 1 0 0 0 0.702237 0 0.704038 1 0.350869 
trait 2 0.2 0 0 0 0 0 0 0 
trait 3 0.3 0 0 0 0.100045 0.0484121 0.213464 0.147837 
node 1 3 1 3
node 2 3 1 1
node 3 3 1 1
node 4 2 0 2
node 11 1 0 0
node 56 1 0 0
node 96 1 0 0
gene 1 1 4 3.93725 0 1 3.93725 1
gene 3 2 4 -1.28755 0 2 -1.28755 1
gene 3 3 4 -4.49196 0 3 -4.49196 0
gene 3 2 11 -5.33224 0 16 -5.33224 1
gene 3 11 4 7.48033 0 17 7.48033 1
gene 3 11 56 1.9222 0 151 1.9222 1
gene 3 56 4 5.60951 0 152 5.60951 1
gene 3 3 96 4.30129 0 289 4.30129 1
gene 3 96 4 -7.23228 0 290 -7.23228 1
gene 2 1 11 0.318626 0 364 0.318626 1
genomeend 128

/* Organism #129 Fitness: 4.10412 Error: 1.97414 */
genomestart 129
trait 1 0 0 0 0.702237 0 0.704038 1 0.504057 
trait 2 0.2 0 0 0 0 0 0 0 
trait 3 0.3 0 0 0 0.100045 0.0484121 0.213464 0.147837 
node 1 3 1 3
node 2 3 1 1
node 3 3 1 1
node 4 2 0 2
node 11 1 0 0
node 56 1 0 0
node 96 1 0 0
gene 1 1 4 3.74652 0 1 3.74652 1
gene 3 2 4 -0.917734 0 2 -0.917734 1
gene 3 3 4 -5.5724 0 3 -5.5724 0
gene 3 2 11 -8 0 16 -8 1
gene 3 11 4 6.94243 0 17 6.94243 1
gene 3 11 56 2.56502 0 151 2.56502 1
gene 3 56 4 7.03542 0 152 7.03542 1
gene 3 3 96 4.63244 0 289 4.63244 1
gene 3 96 4 -8 0 290 -8 1
gene 2 1 11 -2.03812 0 364 -2.03812 1
genomeend 129

/* Organism #130 Fitness: 8.79725 Error: 1.03398 */
genomestart 130
trait 1 0 0 0 0.702237 0 0.704038 1 0.350869 
trait 2 0.2 0 0 0 0 0 0 0 
trait 3 0.3 0 0 0 0.100045 0.0484121 0.213464 0.147837 
node 1 3 1 3
node 2 3 1 1
node 3 2 1 1
node 4 2 0 2
node 11 1 0 0
node 56 1 0 0
node 96 1 0 0
gene 1 1 4 6.09323 0 1 6.09323 1
gene 3 2 4 -2.28964 0 2 -2.28964 1
gene 3 3 4 -6.14143 0 3 -6.14143 0
gene 3 2 11 -8 0 16 -8 1
gene 3 11 4 6.21893 0 17 6.21893 1
gene 3 11 56 6.08459 0 151 6.08459 1
gene 3 56 4 5.60951 0 152 5.60951 1
gene 3 3 96 0.788797 0 289 0.788797 1
gene 3 96 4 -7.43903 0 290 -7.43903 1
gene 2 1 11 -1.16238 0 364 -1.16238 1
genomeend 130

/* Organism #131 Fitness: 4 Error: 2 */
genomestart 131
trait 1 0 0 0 0.702237 0 0.704038 1 0.350869 
trait 2 0.2 0 0 0 0 0 0 0 
trait 3 0.3 0 0 0 0.100045 0.0484121 0.213464 0.147837 
node 1 3 1 3
node 2 3 1 1
node 3 2 1 1
node 4 2 0 2
node 11 1 0 0
node 56 1 0 0
node 96 1 0 0
gene 1 1 4 -0.184009 0 1 -0.184009 1
gene 3 2 4 -1.37198 0 2 -1.37198 1
gene 1 3 4 -4.83316 0 3 -4.83316 0
gene 3 2 11 -2.40158 0 16 -2.40158 1
gene 3 11 4 -1.66593 0 17 -1.66593 1
gene 3 11 56 3.02004 0 151 3.02004 1
gene 3 56 4 -0.202482 0 152 -0.202482 1
gene 3 3 96 3.49944 0 289 3.49944 1
gene 3 96 4 -6.48407 0 290 -6.48407 1
gene 2 1 11 -2.08506 0 364 -2.08506 1
gene 3 3 11 -2.54326 0 396 -2.54326 1
genomeend 131

/* Organism #132 Fitness: 7.51663 Error: 1.25835 */
genomestart 132
trait 1 0 0 0 0.702237 0 0.704038 1 0.350869 
trait 2 0.2 0 0 0 0 0 0 0 
trait 3 0.3 0 0 0 0.100045 0.0484121 0.213464 0.147837 
node 1 3 1 3
node 2 3 1 1
node 3 2 1 1
node 4 2 0 2
node 11 1 0 0
node 56 1 0 0
node 96 1 0 0
gene 1 1 4 5.49503 0 1 5.49503 1
gene 3 2 4 -1.28755 0 2 -1.28755 1
gene 3 3 4 -3.77112 0 3 -3.77112 0
gene 3 2 11 -7.72811 0 16 -7.72811 1
gene 3 11 4 5.84535 0 17 5.84535 1
gene 3 11 56 4.32391 0 151 4.32391 1
gene 3 56 4 5.60951 0 152 5.60951 1
gene 3 3 96 1.99168 0 289 1.99168 1
gene 3 96 4 -7.23228 0 290 -7.23228 1
gene 2 1 11 -2.10023 0 364 -2.10023 1
genomeend 132

/* Organism #133 Fitness: 3.79821 Error: 2.0511 */
genomestart 133
trait 1 0 0 0 0.702237 0 0.704038 1 0.350869 
trait 2 0.2 0 0 0 0 0 0 0 
trait 3 0.3 0 0 0 0.100045 0.0484121 0.213464 0.147837 
node 1 3 1 3
node 2 3 1 1
node 3 2 1 1
node 4 2 0 2
node 11 1 0 0
node 56 1 0 0
node 96 1 0 0
gene 1 1 4 4.71614 0 1 4.71614 1
gene 3 2 4 -1.28755 0 2 -1.28755 1
gene 3 3 4 -4.13154 0 3 -4.13154 0
gene 3 2 11 -6.53017 0 16 -6.53017 1
gene 3 11 4 6.66284 0 17 6.66284 1
gene 3 11 56 3.12305 0 151 3.12305 1
gene 3 56 4 6.21477 0 152 6.21477 1
gene 3 3 96 3.14648 0 289 3.14648 1
gene 3 96 4 -7.61614 0 290 -7.61614 1
gene 2 1 11 -0.8908 0 364 -0.8908 1
gene 2 2 56 0.379768 0 418 0.379768 1
genomeend 133

/* Species #19 : (Size 7) (AF 7.38511) (Age 10)  */


/* Organism #134 Fitness: 7.50703 Error: 1.2601 */
genomestart 134
trait 1 0.1 0 0 0.24045 0 0.213998 0.129483 0 
trait 2 0.259209 0 0 0 0 0.190714 0.0320816 0 
trait 3 0.713723 0 0 0.0252945 0.0439627 0.00571405 0 0 
node 1 3 1 3
node 2 1 1 1
node 3 3 1 1
node 4 1 0 2
node 12 1 0 0
node 33 1 0 0
gene 1 1 4 -2.04249 0 1 -2.04249 1
gene 3 2 4 2.26862 0 2 2.26862 1
gene 1 3 4 -0.198874 0 3 -0.198874 1
gene 1 3 12 1.91762 0 18 1.91762 1
gene 1 12 4 -1.12283 0 19 -1.12283 1
gene 1 12 33 -1.85785 0 77 -1.85785 1
gene 1 33 4 -1.08394 0 78 -1.08394 0
gene 3 1 12 -0.985124 0 300 -0.985124 1
gene 1 2 33 -1.1318 0 367 -1.1318 1
gene 3 3 33 0.493017 0 382 0.493017 1
genomeend 134

/* Organism #135 Fitness: 7.49149 Error: 1.26294 */
genomestart 135
trait 1 0.1 0 0 0.24045 0 0.213998 0.129483 0 
trait 2 0.259209 0 0 0 0 0.190714 0.0320816 0 
trait 3 0.713723 0 0 0.0252945 0.0439627 0.00571405 0 0 
node 1 3 1 3
node 2 1 1 1
node 3 3 1 1
node 4 1 0 2
node 12 1 0 0
node 33 1 0 0
gene 1 1 4 -2.04249 0 1 -2.04249 1
gene 3 2 4 2.26862 0 2 2.26862 1
gene 1 3 4 -0.198874 0 3 -0.198874 1
gene 1 3 12 1.91762 0 18 1.91762 1
gene 1 12 4 -1.12283 0 19 -1.12283 1
gene 1 12 33 -1.85785 0 77 -1.85785 1
gene 1 33 4 -1.08394 0 78 -1.08394 0
gene 3 1 12 -0.985124 0 300 -0.985124 1
gene 1 2 33 -1.1318 0 367 -1.1318 1
gene 3 3 33 0.493017 0 382 0.493017 1
gene 2 2 12 -0.679893 0 419 -0.679893 1
genomeend 135

/* Organism #136 Fitness: 7.50703 Error: 1.2601 */
genomestart 136
trait 1 0.1 0 0 0.24045 0 0.213998 0.129483 0 
trait 2 0.259209 0 0 0 0 0.190714 0.0320816 0 
trait 3 0.713723 0 0 0.0252945 0.0439627 0.00571405 0 0 
node 1 3 1 3
node 2 1 1 1
node 3 3 1 1
node 4 1 0 2
node 12 1 0 0
node 33 1 0 0
gene 1 1 4 -2.04249 0 1 -2.04249 1
gene 3 2 4 2.26862 0 2 2.26862 1
gene 1 3 4 -0.198874 0 3 -0.198874 1
gene 1 3 12 1.91762 0 18 1.91762 1
gene 1 12 4 -1.12283 0 19 -1.12283 1
gene 1 12 33 -1.85785 0 77 -1.85785 1
gene 1 33 4 -1.08394 0 78 -1.08394 0
gene 3 1 12 -0.985124 0 300 -0.985124 1
gene 1 2 33 -1.1318 0 367 -1.1318 1
gene 3 3 33 0.493017 0 382 0.493017 1
genomeend 136

/* Organism #137 Fitness: 7.37844 Error: 1.28367 */
genomestart 137
trait 1 0.1 0 0 0.24045 0 0.213998 0.129483 0 
trait 2 0.259209 0 0 0 0 0.190714 0.0320816 0 
trait 3 0.713723 0 0 0.0252945 0.0439627 0.00571405 0 0 
node 1 3 1 3
node 2 1 1 1
node 3 3 1 1
node 4 1 0 2
node 12 1 0 0
node 33 1 0 0
gene 1 1 4 1.77963 0 1 1.77963 1
gene 3 2 4 -1.4715 0 2 -1.4715 1
gene 1 3 4 -1.32751 0 3 -1.32751 1
gene 1 3 12 3.50863 0 18 3.50863 1
gene 1 12 4 -1.12283 0 19 -1.12283 0
gene 1 12 33 2.10695 0 77 2.10695 1
gene 1 33 4 -3.96902 0 78 -3.96902 0
gene 3 1 12 -4.14414 0 300 -4.14414 1
gene 1 2 33 -3.29911 0 367 -3.29911 1
gene 3 3 33 -1.41102 0 382 -1.41102 1
genomeend 137

/* Organism #138 Fitness: 2.57493 Error: 2.39534 */
genomestart 138
trait 1 0.1 0 0 0.24045 0 0.213998 0.129483 0 
trait 2 0.259209 0 0 0 0 0.190714 0.0320816 0 
trait 3 0.713723 0 0 0.0252945 0.0439627 0.00571405 0 0 
node 1 3 1 3
node 2 1 1 1
node 3 3 1 1
node 4 1 0 2
node 12 1 0 0
node 33 1 0 0
gene 1 1 4 -2.38774 0 1 -2.38774 1
gene 3 2 4 2.26862 0 2 2.26862 1
gene 1 3 4 0.345109 0 3 0.345109 1
gene 1 3 12 0.655909 0 18 0.655909 1
gene 1 12 4 0.452195 0 19 0.452195 1
gene 1 12 33 -0.701048 0 77 -0.701048 1
gene 1 33 4 0.912348 0 78 0.912348 0
gene 3 1 12 -2.27369 0 300 -2.27369 1
gene 1 2 33 -3.55894 0 367 -3.55894 1
gene 3 3 33 -1.55572 0 382 -1.55572 1
genomeend 138

/* Organism #139 Fitness: 11.7298 Error: 0.575121 */
/* ##------$ WINNER 139 SPECIES #19 $------## */
genomestart 139
trait 1 0.1 0 0 0.24045 0 0.213998 0.129483 0 
trait 2 0.259209 0 0 0 0 0.190714 0.0320816 0 
trait 3 0.713723 0 0 0.0252945 0.0439627 0.00571405 0 0 
node 1 3 1 3
node 2 1 1 1
node 3 3 1 1
node 4 1 0 2
node 12 1 0 0
node 33 1 0 0
gene 1 1 4 1.77963 0 1 1.77963 1
gene 3 2 4 -1.4715 0 2 -1.4715 1
gene 2 3 4 -1.32751 0 3 -1.32751 1
gene 1 3 12 3.50863 0 18 3.50863 1
gene 1 12 4 -1.12283 0 19 -1.12283 1
gene 1 12 33 2.10695 0 77 2.10695 1
gene 1 33 4 -3.96902 0 78 -3.96902 1
gene 3 1 12 -4.14414 0 300 -4.14414 1
gene 1 2 33 -3.29911 0 367 -3.29911 1
gene 3 3 33 -1.41102 0 382 -1.41102 1
genomeend 139

/* Organism #140 Fitness: 7.50703 Error: 1.2601 */
genomestart 140
trait 1 0.1 0 0 0.24045 0 0.213998 0.129483 0 
trait 2 0.259209 0 0 0 0 0.190714 0.0320816 0 
trait 3 0.713723 0 0 0.0252945 0.0439627 0.00571405 0 0 
node 1 3 1 3
node 2 1 1 1
node 3 3 1 1
node 4 1 0 2
node 12 1 0 0
node 33 1 0 0
node 131 1 0 0
gene 1 1 4 -2.04249 0 1 -2.04249 1
gene 3 2 4 2.26862 0 2 2.26862 1
gene 1 3 4 -0.198874 0 3 -0.198874 1
gene 1 3 12 1.91762 0 18 1.91762 1
gene 1 12 4 -1.12283 0 19 -1.12283 1
gene 1 12 33 -1.85785 0 77 -1.85785 1
gene 1 33 4 -1.08394 0 78 -1.08394 0
gene 3 1 12 -0.985124 0 300 -0.985124 1
gene 1 2 33 -1.1318 0 367 -1.1318 0
gene 3 3 33 0.493017 0 382 0.493017 1
gene 1 2 131 1 0 420 0 1
gene 1 131 33 -1.1318 0 421 0 1
genomeend 140

/* Species #20 : (Size 8) (AF 8.20196) (Age 5)  */


/* Organism #141 Fitness: 8.99926 Error: 1.00012 */
genomestart 141
trait 1 0 0 0 0.702237 0 0.704038 1 0.350869 
trait 2 0.2 0 0 0 0 0 0 0 
trait 3 0.3 0 0 0 0.100045 0.0484121 0.213464 0.147837 
node 1 3 1 3
node 2 3 1 1
node 3 3 1 1
node 4 2 0 2
node 11 1 0 0
node 56 1 0 0
node 96 2 0 0
gene 1 1 4 3.93725 0 1 3.93725 1
gene 3 2 4 -1.28755 0 2 -1.28755 1
gene 3 3 4 -4.49196 0 3 -4.49196 1
gene 3 2 11 -5.33224 0 16 -5.33224 1
gene 3 11 4 7.48033 0 17 7.48033 1
gene 3 11 56 1.9222 0 151 1.9222 1
gene 3 56 4 5.60951 0 152 5.60951 1
gene 3 3 96 4.30129 0 289 4.30129 1
gene 3 96 4 -7.23228 0 290 -7.23228 1
gene 3 11 96 0.0919429 0 365 0.0919429 1
gene 2 3 11 0.0955706 0 371 0.0955706 1
genomeend 141

/* Organism #142 Fitness: 8.93666 Error: 1.01058 */
genomestart 142
trait 1 0 0 0 0.702237 0 0.704038 1 0.350869 
trait 2 0.2 0 0 0 0 0 0 0 
trait 3 0.3 0 0 0 0.100045 0.0484121 0.213464 0.147837 
node 1 3 1 3
node 2 3 1 1
node 3 3 1 1
node 4 2 0 2
node 11 1 0 0
node 56 1 0 0
node 96 2 0 0
gene 1 1 4 3.37049 0 1 3.37049 1
gene 3 2 4 -1.98899 0 2 -1.98899 1
gene 3 3 4 -0.470773 0 3 -0.470773 0
gene 3 2 11 -4.24294 0 16 -4.24294 1
gene 3 11 4 8 0 17 8 1
gene 3 11 56 -0.209791 0 151 -0.209791 1
gene 3 56 4 7.04722 0 152 7.04722 1
gene 3 3 96 5.47523 0 289 5.47523 1
gene 3 96 4 -5.82789 0 290 -5.82789 1
gene 3 11 96 2.19777 0 365 2.19777 1
gene 2 3 11 1.86836 0 371 1.86836 1
genomeend 142

/* Organism #143 Fitness: 8.10641 Error: 1.15282 */
genomestart 143
trait 1 0 0 0 0.702237 0 0.704038 1 0.350869 
trait 2 0.2 0 0 0 0 0 0 0 
trait 3 0.3 0 0 0 0.100045 0.0484121 0.213464 0.147837 
node 1 3 1 3
node 2 3 1 1
node 3 3 1 1
node 4 2 0 2
node 11 1 0 0
node 56 1 0 0
node 96 2 0 0
gene 1 1 4 3.60431 0 1 3.60431 1
gene 3 2 4 1.91355 0 2 1.91355 1
gene 3 3 4 -2.65727 0 3 -2.65727 0
gene 3 2 11 -4.46885 0 16 -4.46885 1
gene 3 11 4 5.52343 0 17 5.52343 1
gene 3 11 56 0.899933 0 151 0.899933 1
gene 3 56 4 4.02438 0 152 4.02438 1
gene 3 3 96 3.05433 0 289 3.05433 1
gene 3 96 4 -7.87784 0 290 -7.87784 1
gene 3 11 96 0.911789 0 365 0.911789 1
gene 2 3 11 0.289838 0 371 0.289838 1
genomeend 143

/* Organism #144 Fitness: 4.00005 Error: 1.99999 */
genomestart 144
trait 1 0 0 0 0.702237 0 0.704038 1 0.350869 
trait 2 0.2 0 0 0 0 0 0 0 
trait 3 0.3 0 0 0 0.100045 0.0484121 0.213464 0.147837 
node 1 3 1 3
node 2 3 1 1
node 3 3 1 1
node 4 2 0 2
node 11 1 0 0
node 56 1 0 0
node 96 2 0 0
gene 1 1 4 0.537742 0 1 0.537742 1
gene 3 2 4 -1.4993 0 2 -1.4993 1
gene 3 3 4 0.892921 0 3 0.892921 0
gene 3 2 11 -5.46959 0 16 -5.46959 1
gene 3 11 4 5.18727 0 17 5.18727 1
gene 3 11 56 2.3063 0 151 2.3063 1
gene 3 56 4 4.92307 0 152 4.92307 1
gene 3 3 96 4.28044 0 289 4.28044 1
gene 3 96 4 -7.5626 0 290 -7.5626 1
gene 3 11 96 -0.152066 0 365 -0.152066 1
gene 2 3 11 2.82019 0 371 2.82019 1
genomeend 144

/* Organism #145 Fitness: 8.93214 Error: 1.01133 */
genomestart 145
trait 1 0 0 0 0.702237 0 0.704038 1 0.350869 
trait 2 0.2 0 0 0 0 0 0 0 
trait 3 0.3 0 0 0 0.100045 0.0484121 0.213464 0.147837 
node 1 3 1 3
node 2 3 1 1
node 3 3 1 1
node 4 2 0 2
node 11 1 0 0
node 56 1 0 0
node 96 2 0 0
gene 1 1 4 3.0059 0 1 3.0059 1
gene 3 2 4 0.414684 0 2 0.414684 1
gene 3 3 4 -2.83332 0 3 -2.83332 1
gene 3 2 11 -3.0132 0 16 -3.0132 1
gene 3 11 4 8 0 17 8 1
gene 3 11 56 3.17819 0 151 3.17819 1
gene 3 56 4 3.83728 0 152 3.83728 1
gene 3 3 96 3.63833 0 289 3.63833 1
gene 3 96 4 -8 0 290 -8 1
gene 3 11 96 1.50759 0 365 1.50759 1
gene 2 3 11 0.0955706 0 371 0.0955706 1
genomeend 145

/* Organism #146 Fitness: 8.98161 Error: 1.00307 */
genomestart 146
trait 1 0 0 0 0.702237 0 0.704038 1 0.350869 
trait 2 0.2 0 0 0 0 0 0 0 
trait 3 0.3 0 0 0 0.100045 0.0484121 0.213464 0.147837 
node 1 3 1 3
node 2 3 1 1
node 3 3 1 1
node 4 2 0 2
node 11 1 0 0
node 56 1 0 0
node 96 2 0 0
gene 1 1 4 3.08038 0 1 3.08038 1
gene 3 2 4 -0.179224 0 2 -0.179224 1
gene 3 3 4 -2.42471 0 3 -2.42471 0
gene 3 2 11 -6.04437 0 16 -6.04437 1
gene 3 11 4 5.55721 0 17 5.55721 1
gene 3 11 56 0.771136 0 151 0.771136 1
gene 3 56 4 5.22875 0 152 5.22875 1
gene 3 3 96 3.29566 0 289 3.29566 1
gene 3 96 4 -6.69167 0 290 -6.69167 1
gene 3 11 96 -2.68347 0 365 -2.68347 1
gene 2 3 11 2.09804 0 371 2.09804 1
genomeend 146

/* Organism #147 Fitness: 8.99533 Error: 1.00078 */
genomestart 147
trait 1 0 0 0 0.702237 0 0.704038 1 0.350869 
trait 2 0.2 0 0 0 0 0 0 0 
trait 3 0.3 0 0 0 0.100045 0.0484121 0.213464 0.147837 
node 1 3 1 3
node 2 3 1 1
node 3 3 1 1
node 4 2 0 2
node 11 1 0 0
node 56 1 0 0
node 96 2 0 0
gene 1 1 4 3.93725 0 1 3.93725 1
gene 3 2 4 -1.28755 0 2 -1.28755 1
gene 3 3 4 -4.49196 0 3 -4.49196 0
gene 3 2 11 -5.33224 0 16 -5.33224 1
gene 3 11 4 7.48033 0 17 7.48033 1
gene 3 11 56 1.9222 0 151 1.9222 1
gene 3 56 4 5.60951 0 152 5.60951 1
gene 3 3 96 4.30129 0 289 4.30129 1
gene 3 96 4 -8 0 290 -8 1
gene 3 11 96 -1.67361 0 365 -1.67361 1
gene 2 3 11 0.484105 0 371 0.484105 1
genomeend 147

/* Organism #148 Fitness: 8.66424 Error: 1.05649 */
genomestart 148
trait 1 0 0 0 0.702237 0 0.704038 1 0.350869 
trait 2 0.2 0 0 0 0 0 0 0 
trait 3 0.3 0 0 0 0.100045 0.0484121 0.213464 0.147837 
node 1 3 1 3
node 2 3 1 1
node 3 3 1 1
node 4 2 0 2
node 11 1 0 0
node 56 1 0 0
node 96 2 0 0
gene 1 1 4 2.0517 0 1 2.0517 1
gene 3 2 4 -1.10316 0 2 -1.10316 1
gene 3 3 4 -3.43455 0 3 -3.43455 1
gene 3 2 11 -6.58841 0 16 -6.58841 1
gene 3 11 4 7.59021 0 17 7.59021 1
gene 3 11 56 0.992228 0 151 0.992228 1
gene 3 56 4 5.54983 0 152 5.54983 1
gene 3 3 96 2.82234 0 289 2.82234 1
gene 3 96 4 -6.30339 0 290 -6.30339 1
gene 3 11 96 0.0919429 0 365 0.0919429 1
gene 2 3 11 2.52042 0 371 2.52042 1
genomeend 148

/* Species #21 : (Size 1) (AF 4.00772) (Age 1)  */


/* Organism #149 Fitness: 4.00772 Error: 1.99807 */
genomestart 149
trait 1 0.0875 0.41461 0.0975641 0 0 0 0.5 0.273394 
trait 2 0.2 0 0 0 0 0 0 0 
trait 3 0.315384 0 0 0 0 0.0394278 0.421654 0.157138 
node 1 3 1 3
node 2 3 1 1
node 3 3 1 1
node 4 3 0 2
node 11 1 0 0
node 23 2 0 0
node 36 1 0 0
node 114 1 0 0
node 130 1 0 0
gene 2 1 4 -7.20509 0 1 -7.20509 1
gene 3 2 4 -6.09109 0 2 -6.09109 1
gene 3 3 4 2.20965 0 3 2.20965 1
gene 3 2 11 2.64734 0 16 2.64734 1
gene 3 11 4 0.697085 0 17 0.697085 1
gene 3 3 23 4.25978 0 50 4.25978 1
gene 3 23 4 8 0 51 8 1
gene 1 3 11 -1.84158 0 69 -1.84158 0
gene 1 3 36 2.88564 0 84 2.88564 1
gene 1 36 11 1.67738 0 85 1.67738 1
gene 1 2 36 2.84599 0 96 2.84599 1
gene 3 1 36 -3.27413 0 115 -3.27413 1
gene 3 11 23 1.7214 0 340 1.7214 0
gene 1 3 114 2.7634 0 352 2.7634 1
gene 1 114 11 0.295357 0 353 0.295357 1
gene 3 36 4 0.419896 0 377 0.419896 1
gene 3 11 130 1 0 413 0 1
gene 3 130 23 1.7214 0 414 0 1
genomeend 149
