
/* Species #3 : (Size 8) (AF 7.1435) (Age 42)  */


/* Organism #0 Fitness: 9 Error: 1 */
genomestart 0
trait 1 0.1 0 0 0 0 0 0 0 
trait 2 0.2 0 0 0 0 0 0 0 
trait 3 0.34375 0 0 0 0 0 0.386382 0 
node 1 1 1 3
node 2 3 1 1
node 3 1 1 1
node 4 2 0 2
node 9 3 0 0
gene 1 1 4 -7.32569 0 1 -7.32569 1
gene 3 2 4 7.29401 0 2 7.29401 1
gene 3 3 4 7.6476 0 3 7.6476 1
gene 2 3 9 5.21589 0 12 5.21589 1
gene 3 9 4 7.96009 0 13 7.96009 1
gene 1 2 9 5.78014 0 22 5.78014 1
gene 3 1 9 -3.41749 0 203 -3.41749 1
genomeend 0

/* Organism #1 Fitness: 9 Error: 1 */
genomestart 1
trait 1 0.1 0 0 0 0 0 0 0 
trait 2 0.2 0 0 0 0 0 0 0 
trait 3 0.34375 0 0 0 0 0 0.386382 0 
node 1 1 1 3
node 2 3 1 1
node 3 1 1 1
node 4 2 0 2
node 9 3 0 0
gene 1 1 4 -8 0 1 -8 1
gene 3 2 4 7.29785 0 2 7.29785 1
gene 3 3 4 8 0 3 8 1
gene 2 3 9 4.13382 0 12 4.13382 1
gene 3 9 4 6.32552 0 13 6.32552 1
gene 1 2 9 4.51002 0 22 4.51002 1
gene 3 1 9 -2.82149 0 203 -2.82149 1
genomeend 1

/* Organism #2 Fitness: 8.71636 Error: 1.04765 */
genomestart 2
trait 1 0.1 0 0 0 0 0 0 0 
trait 2 0.2 0 0 0 0 0 0 0 
trait 3 0.34375 0 0 0 0 0 0.386382 0 
node 1 1 1 3
node 2 3 1 1
node 3 1 1 1
node 4 2 0 2
node 9 3 0 0
gene 1 1 4 -7.39179 0 1 -7.39179 1
gene 3 2 4 7.50446 0 2 7.50446 1
gene 3 3 4 8 0 3 8 1
gene 3 3 9 -1.65527 0 12 -1.65527 1
gene 3 9 4 6.30057 0 13 6.30057 1
gene 1 2 9 7.94474 0 22 7.94474 1
gene 3 1 9 -3.49125 0 203 -3.49125 1
genomeend 2

/* Organism #3 Fitness: 9 Error: 1 */
genomestart 3
trait 1 0.1 0 0 0 0 0 0 0 
trait 2 0.2 0 0 0 0 0 0 0 
trait 3 0.34375 0 0 0 0 0 0.386382 0 
node 1 1 1 3
node 2 3 1 1
node 3 1 1 1
node 4 2 0 2
node 9 3 0 0
gene 1 1 4 -8 0 1 -8 1
gene 3 2 4 7.49233 0 2 7.49233 1
gene 3 3 4 7.11032 0 3 7.11032 1
gene 3 3 9 4.81421 0 12 4.81421 1
gene 3 9 4 8 0 13 8 1
gene 1 2 9 4.86774 0 22 4.86774 1
gene 3 1 9 -3.82286 0 203 -3.82286 1
genomeend 3

/* Organism #4 Fitness: 4.41473 Error: 1.89887 */
genomestart 4
trait 1 0.1 0 0 0 0 0 0 0 
trait 2 0.2 0 0 0 0 0 0 0 
trait 3 0.34375 0 0 0 0 0 0.386382 0 
node 1 1 1 3
node 2 3 1 1
node 3 1 1 1
node 4 2 0 2
node 9 3 0 0
gene 1 1 4 0.443673 0 1 0.443673 1
gene 3 2 4 5.4534 0 2 5.4534 1
gene 3 3 4 8 0 3 8 1
gene 2 3 9 -0.266616 0 12 -0.266616 1
gene 3 9 4 7.48086 0 13 7.48086 1
gene 1 2 9 3.85278 0 22 3.85278 1
gene 3 1 9 -4.68721 0 203 -4.68721 1
genomeend 4

/* Organism #5 Fitness: 9 Error: 1 */
genomestart 5
trait 1 0.1 0 0 0 0 0 0 0 
trait 2 0.2 0 0 0 0 0 0 0 
trait 3 0.34375 0 0 0 0 0 0.386382 0 
node 1 1 1 3
node 2 3 1 1
node 3 1 1 1
node 4 2 0 2
node 9 3 0 0
gene 1 1 4 -7.66284 0 1 -7.66284 1
gene 3 2 4 7.647 0 2 7.647 1
gene 3 3 4 7.8238 0 3 7.8238 1
gene 3 3 9 3.77865 0 12 3.77865 1
gene 3 9 4 7.79869 0 13 7.79869 1
gene 1 2 9 4.32846 0 22 4.32846 1
gene 3 1 9 -2.64744 0 203 -2.64744 1
genomeend 5

/* Organism #6 Fitness: 4.03949 Error: 1.99015 */
genomestart 6
trait 1 0.1 0 0 0 0 0 0 0 
trait 2 0.2 0 0 0 0 0 0 0 
trait 3 0.34375 0 0 0 0 0 0.386382 0 
node 1 1 1 3
node 2 3 1 1
node 3 1 1 1
node 4 2 0 2
node 9 3 0 0
gene 1 1 4 -8 0 1 -8 1
gene 3 2 4 6.95977 0 2 6.95977 1
gene 3 3 4 7.05379 0 3 7.05379 1
gene 2 3 9 1.47154 0 12 1.47154 1
gene 3 9 4 8 0 13 8 1
gene 1 2 9 4.24177 0 22 4.24177 1
gene 3 1 9 -2.83017 0 203 -2.83017 1
genomeend 6

/* Organism #7 Fitness: 3.97739 Error: 2.00566 */
genomestart 7
trait 1 0.1 0 0 0 0 0 0 0 
trait 2 0.2 0 0 0 0 0 0 0 
trait 3 0.34375 0 0 0 0 0 0.386382 0 
node 1 1 1 3
node 2 3 1 1
node 3 1 1 1
node 4 2 0 2
node 9 3 0 0
gene 1 1 4 -1.04183 0 1 -1.04183 1
gene 3 2 4 8 0 2 8 1
gene 3 3 4 -0.667513 0 3 -0.667513 1
gene 3 3 9 0.498598 0 12 0.498598 1
gene 3 9 4 7.94437 0 13 7.94437 1
gene 1 2 9 3.27855 0 22 3.27855 1
gene 3 1 9 -3.31595 0 203 -3.31595 1
genomeend 7

/* Species #4 : (Size 4) (AF 5.51308) (Age 42)  */


/* Organism #8 Fitness: 8.99959 Error: 1.00007 */
genomestart 8
trait 1 0.1 0 0 0 0 0 0 0 
trait 2 0.2 0 0 0 0 0 0 0 
trait 3 0.703586 0 0 0 0.482044 0.0393313 0 0 
node 1 1 1 3
node 2 3 1 1
node 3 3 1 1
node 4 2 0 2
node 10 1 0 0
node 89 1 0 0
node 110 1 0 0
gene 1 1 4 -8 0 1 -8 1
gene 1 2 4 8 0 2 8 0
gene 3 3 4 -6.02233 0 3 -6.02233 1
gene 3 2 10 7.68033 0 14 7.68033 1
gene 1 10 4 7.52967 0 15 7.52967 1
gene 3 1 10 -0.504173 0 270 -0.504173 1
gene 1 2 89 0.678928 0 300 0.678928 1
gene 1 89 4 5.72243 0 301 5.72243 1
gene 2 10 89 -0.868653 0 320 -0.868653 0
gene 2 3 89 -0.40677 0 371 -0.40677 1
gene 2 10 110 -1.25562 0 387 -1.25562 1
gene 2 110 89 0.779882 0 388 0.779882 1
genomeend 8

/* Organism #9 Fitness: 4 Error: 2 */
genomestart 9
trait 1 0.1 0 0 0 0 0 0 0 
trait 2 0.2 0 0 0 0 0 0 0 
trait 3 0.669954 0 0 0 0.441873 0.0360537 0 0 
node 1 1 1 3
node 2 3 1 1
node 3 3 1 1
node 4 2 0 2
node 10 1 0 0
node 89 1 0 0
node 110 1 0 0
gene 1 1 4 -8 0 1 -8 1
gene 1 2 4 7.52591 0 2 7.52591 0
gene 3 3 4 -7.9143 0 3 -7.9143 1
gene 3 2 10 3.81961 0 14 3.81961 1
gene 1 10 4 3.53039 0 15 3.53039 1
gene 3 1 10 -3.20148 0 270 -3.20148 1
gene 1 2 89 -0.381033 0 300 -0.381033 1
gene 1 89 4 0.89938 0 301 0.89938 1
gene 2 10 89 -1.06862 0 320 -1.06862 0
gene 2 3 89 -1.2573 0 371 -1.2573 1
gene 2 10 110 2.09485 0 387 2.09485 1
gene 2 110 89 1.62535 0 388 1.62535 1
genomeend 9

/* Organism #10 Fitness: 3.92662 Error: 2.01843 */
genomestart 10
trait 1 0.1 0 0 0 0 0 0 0 
trait 2 0.2 0 0 0 0 0 0 0 
trait 3 0.703586 0 0 0 0.482044 0.0393313 0 0 
node 1 1 1 3
node 2 3 1 1
node 3 3 1 1
node 4 2 0 2
node 10 1 0 0
node 89 1 0 0
node 110 1 0 0
gene 1 1 4 1.87417 0 1 1.87417 1
gene 1 2 4 7.38296 0 2 7.38296 0
gene 3 3 4 -6.96039 0 3 -6.96039 1
gene 3 2 10 3.72981 0 14 3.72981 1
gene 1 10 4 6.4915 0 15 6.4915 1
gene 3 1 10 -3.62935 0 270 -3.62935 1
gene 1 2 89 2.18806 0 300 2.18806 1
gene 1 89 4 0.249336 0 301 0.249336 1
gene 2 10 89 -0.929818 0 320 -0.929818 0
gene 2 3 89 -0.684717 0 371 -0.684717 1
gene 2 10 110 0.759782 0 387 0.759782 1
gene 2 110 89 -0.590276 0 388 -0.590276 1
genomeend 10

/* Organism #11 Fitness: 5.1261 Error: 1.73591 */
genomestart 11
trait 1 0.1 0 0 0 0 0 0 0 
trait 2 0.2 0 0 0 0 0 0 0 
trait 3 0.636322 0 0 0 0.401703 0.0327761 0 0 
node 1 1 1 3
node 2 3 1 1
node 3 3 1 1
node 4 2 0 2
node 10 1 0 0
node 89 1 0 0
node 110 1 0 0
gene 1 1 4 -8 0 1 -8 1
gene 1 2 4 4.801 0 2 4.801 0
gene 3 3 4 -4.55858 0 3 -4.55858 1
gene 3 2 10 5.30867 0 14 5.30867 1
gene 1 10 4 7.79191 0 15 7.79191 1
gene 3 1 10 0.226663 0 270 0.226663 1
gene 1 2 89 -0.747255 0 300 -0.747255 1
gene 1 89 4 0.826371 0 301 0.826371 1
gene 2 10 89 2.77249 0 320 2.77249 0
gene 2 3 89 -1.91335 0 371 -1.91335 1
gene 2 10 110 0.840087 0 387 0.840087 1
gene 2 110 89 -1.93181 0 388 -1.93181 1
genomeend 11

/* Species #5 : (Size 8) (AF 9) (Age 40)  */


/* Organism #12 Fitness: 9 Error: 1 */
genomestart 12
trait 1 0.1 0 0 0 0 0 0 0 
trait 2 0 0 0.475283 0.626264 0.894846 0 0.27953 0 
trait 3 0.3 0 0.352062 0 0.408723 0 0 0 
node 1 1 1 3
node 2 3 1 1
node 3 3 1 1
node 4 2 0 2
node 9 1 0 0
node 15 1 0 0
gene 3 1 4 -7.56649 0 1 -7.56649 1
gene 3 2 4 7.68761 0 2 7.68761 1
gene 3 3 4 8 0 3 8 1
gene 3 3 9 6.73831 0 12 6.73831 1
gene 3 9 4 7.29573 0 13 7.29573 1
gene 1 2 9 3.58188 0 22 3.58188 1
gene 3 2 15 -6.31361 0 29 -6.31361 1
gene 3 15 4 -0.422702 0 30 -0.422702 1
gene 3 15 9 -3.57564 0 46 -3.57564 1
gene 2 3 15 -2.54633 0 421 -2.54633 1
genomeend 12

/* Organism #13 Fitness: 9 Error: 1 */
genomestart 13
trait 1 0.1 0 0 0 0 0 0 0 
trait 2 0 0 0.475283 0.626264 0.894846 0 0.27953 0 
trait 3 0.3 0 0.352062 0 0.408723 0 0 0 
node 1 1 1 3
node 2 3 1 1
node 3 3 1 1
node 4 2 0 2
node 9 1 0 0
node 15 1 0 0
gene 3 1 4 -8 0 1 -8 1
gene 3 2 4 8 0 2 8 1
gene 3 3 4 7.98284 0 3 7.98284 1
gene 3 3 9 8 0 12 8 1
gene 3 9 4 8 0 13 8 1
gene 1 2 9 3.93401 0 22 3.93401 1
gene 3 2 15 -6.38628 0 29 -6.38628 1
gene 3 15 4 0.653216 0 30 0.653216 1
gene 3 15 9 -3.69987 0 46 -3.69987 1
gene 2 3 15 -4.74067 0 421 -4.74067 1
genomeend 13

/* Organism #14 Fitness: 9 Error: 1 */
genomestart 14
trait 1 0.1 0 0 0 0 0 0 0 
trait 2 0 0 0.475283 0.626264 0.894846 0 0.27953 0 
trait 3 0.3 0 0.352062 0 0.408723 0 0 0 
node 1 1 1 3
node 2 3 1 1
node 3 3 1 1
node 4 2 0 2
node 9 1 0 0
node 15 1 0 0
gene 3 1 4 -8 0 1 -8 1
gene 3 2 4 5.67729 0 2 5.67729 1
gene 3 3 4 8 0 3 8 1
gene 3 3 9 1.77709 0 12 1.77709 1
gene 3 9 4 5.93362 0 13 5.93362 1
gene 1 2 9 3.4881 0 22 3.4881 1
gene 3 2 15 0.0521277 0 29 0.0521277 1
gene 3 15 4 1.75245 0 30 1.75245 1
gene 3 15 9 -3.8633 0 46 -3.8633 1
gene 2 3 15 -0.114842 0 421 -0.114842 1
genomeend 14

/* Organism #15 Fitness: 9 Error: 1 */
genomestart 15
trait 1 0.1 0 0 0 0 0 0 0 
trait 2 0 0 0.475283 0.626264 0.894846 0 0.27953 0 
trait 3 0.3 0 0.352062 0 0.408723 0 0 0 
node 1 1 1 3
node 2 3 1 1
node 3 3 1 1
node 4 2 0 2
node 9 1 0 0
node 15 1 0 0
gene 3 1 4 -6.34647 0 1 -6.34647 1
gene 3 2 4 5.91739 0 2 5.91739 1
gene 3 3 4 6.33966 0 3 6.33966 1
gene 3 3 9 5.94932 0 12 5.94932 1
gene 3 9 4 8 0 13 8 1
gene 1 2 9 4.47919 0 22 4.47919 1
gene 3 2 15 -5.12629 0 29 -5.12629 1
gene 3 15 4 -0.130435 0 30 -0.130435 1
gene 3 15 9 -1.12646 0 46 -1.12646 1
gene 2 3 15 -1.0639 0 421 -1.0639 1
genomeend 15

/* Organism #16 Fitness: 9 Error: 1 */
genomestart 16
trait 1 0.1 0 0 0 0 0 0 0 
trait 2 0 0 0.475283 0.626264 0.894846 0 0.27953 0 
trait 3 0.3 0 0.352062 0 0.408723 0 0 0 
node 1 1 1 3
node 2 3 1 1
node 3 3 1 1
node 4 2 0 2
node 9 1 0 0
node 15 1 0 0
gene 3 1 4 -6.91373 0 1 -6.91373 1
gene 3 2 4 8 0 2 8 1
gene 3 3 4 8 0 3 8 1
gene 3 3 9 6.5207 0 12 6.5207 1
gene 3 9 4 6.0947 0 13 6.0947 1
gene 1 2 9 2.47867 0 22 2.47867 1
gene 3 2 15 -6.19261 0 29 -6.19261 1
gene 3 15 4 -1.1098 0 30 -1.1098 1
gene 3 15 9 -3.57564 0 46 -3.57564 1
gene 2 3 15 1.79679 0 421 1.79679 1
genomeend 16

/* Organism #17 Fitness: 9 Error: 1 */
genomestart 17
trait 1 0.1 0 0 0 0 0 0 0 
trait 2 0 0 0.475283 0.626264 0.894846 0 0.27953 0 
trait 3 0.3 0 0.352062 0 0.408723 0 0 0 
node 1 1 1 3
node 2 3 1 1
node 3 3 1 1
node 4 2 0 2
node 9 1 0 0
node 15 1 0 0
gene 3 1 4 -8 0 1 -8 1
gene 3 2 4 7.31972 0 2 7.31972 1
gene 3 3 4 8 0 3 8 1
gene 3 3 9 6.56477 0 12 6.56477 1
gene 3 9 4 6.605 0 13 6.605 1
gene 1 2 9 7.65729 0 22 7.65729 1
gene 3 2 15 -7.94962 0 29 -7.94962 1
gene 3 15 4 -0.181453 0 30 -0.181453 1
gene 3 15 9 -1.79783 0 46 -1.79783 1
gene 2 3 15 2.14569 0 421 2.14569 1
genomeend 17

/* Organism #18 Fitness: 9 Error: 1 */
genomestart 18
trait 1 0.1 0 0 0 0 0 0 0 
trait 2 0 0 0.475283 0.626264 0.894846 0 0.27953 0 
trait 3 0.3 0 0.352062 0 0.408723 0 0 0 
node 1 1 1 3
node 2 3 1 1
node 3 3 1 1
node 4 2 0 2
node 9 1 0 0
node 15 1 0 0
gene 3 1 4 -6.69665 0 1 -6.69665 1
gene 3 2 4 8 0 2 8 1
gene 3 3 4 8 0 3 8 1
gene 3 3 9 8 0 12 8 1
gene 3 9 4 7.79344 0 13 7.79344 1
gene 1 2 9 5.39312 0 22 5.39312 1
gene 3 2 15 -1.97667 0 29 -1.97667 1
gene 3 15 4 -0.422702 0 30 -0.422702 1
gene 3 15 9 -6.00397 0 46 -6.00397 1
gene 2 3 15 -3.31147 0 421 -3.31147 1
genomeend 18

/* Organism #19 Fitness: 9 Error: 1 */
genomestart 19
trait 1 0.1 0 0 0 0 0 0 0 
trait 2 0 0 0.475283 0.626264 0.894846 0 0.27953 0 
trait 3 0.3 0 0.352062 0 0.408723 0 0 0 
node 1 1 1 3
node 2 3 1 1
node 3 3 1 1
node 4 2 0 2
node 9 1 0 0
node 15 1 0 0
gene 3 1 4 -8 0 1 -8 1
gene 3 2 4 8 0 2 8 1
gene 3 3 4 7.172 0 3 7.172 1
gene 3 3 9 7.15642 0 12 7.15642 1
gene 3 9 4 6.04891 0 13 6.04891 1
gene 1 2 9 5.2442 0 22 5.2442 1
gene 3 2 15 -5.9927 0 29 -5.9927 1
gene 3 15 4 1.85591 0 30 1.85591 1
gene 3 15 9 -2.0018 0 46 -2.0018 1
gene 2 3 15 -3.10871 0 421 -3.10871 1
genomeend 19

/* Species #6 : (Size 5) (AF 5.27598) (Age 37)  */


/* Organism #20 Fitness: 5.37994 Error: 1.68053 */
genomestart 20
trait 1 0.1 0 0 0.426794 0 0 0 0.633918 
trait 2 0.2 0 0 0 0 0 0 0 
trait 3 0 0 0.120943 0 0 0 0.0810554 0.0641255 
node 1 1 1 3
node 2 3 1 1
node 3 3 1 1
node 4 2 0 2
node 9 2 0 0
node 24 1 0 0
gene 3 1 4 -0.116888 0 1 -0.116888 1
gene 3 2 4 -1.51017 0 2 -1.51017 1
gene 3 3 4 -8 0 3 -8 0
gene 3 3 9 7.14006 0 12 7.14006 1
gene 3 9 4 6.37178 0 13 6.37178 1
gene 1 2 9 -7.40727 0 22 -7.40727 1
gene 1 2 24 -5.07585 0 59 -5.07585 1
gene 1 24 9 -1.00649 0 60 -1.00649 1
gene 2 1 9 -0.148545 0 285 -0.148545 1
gene 3 1 24 -0.113097 0 290 -0.113097 1
gene 2 3 24 2.59643 0 302 2.59643 1
gene 2 24 4 -0.569212 0 310 -0.569212 1
genomeend 20

/* Organism #21 Fitness: 4 Error: 2 */
genomestart 21
trait 1 0.1 0 0 0 0 0 0 0 
trait 2 0.2 0 0 0 0 0 0 0 
trait 3 0 0 0 0 0 0 0 0 
node 1 1 1 3
node 2 3 1 1
node 3 3 1 1
node 4 2 0 2
node 9 2 0 0
node 24 1 0 0
gene 3 1 4 -3.87768 0 1 -3.87768 1
gene 3 2 4 0.992728 0 2 0.992728 1
gene 3 3 4 -6.21919 0 3 -6.21919 0
gene 3 3 9 0.380103 0 12 0.380103 1
gene 3 9 4 8 0 13 8 1
gene 1 2 9 -4.1575 0 22 -4.1575 1
gene 1 2 24 -1.14956 0 59 -1.14956 1
gene 1 24 9 0.805979 0 60 0.805979 1
gene 2 1 9 -3.01217 0 285 -3.01217 1
gene 3 1 24 -1.54814 0 290 -1.54814 1
gene 2 3 24 -0.162766 0 302 -0.162766 1
gene 2 24 4 -2.7394 0 310 -2.7394 1
genomeend 21

/* Organism #22 Fitness: 4 Error: 2 */
genomestart 22
trait 1 0.1 0 0 0 0 0 0 0 
trait 2 0.2 0 0 0 0 0 0 0 
trait 3 0 0 0 0 0 0 0 0 
node 1 1 1 3
node 2 3 1 1
node 3 3 1 1
node 4 2 0 2
node 9 2 0 0
node 24 1 0 0
gene 3 1 4 -3.49995 0 1 -3.49995 1
gene 3 2 4 0.253516 0 2 0.253516 1
gene 3 3 4 -7.20919 0 3 -7.20919 0
gene 3 3 9 8 0 12 8 1
gene 3 9 4 8 0 13 8 1
gene 1 2 9 1.64979 0 22 1.64979 1
gene 1 2 24 1.24205 0 59 1.24205 1
gene 1 24 9 0.00400812 0 60 0.00400812 1
gene 2 1 9 0.286692 0 285 0.286692 1
gene 3 1 24 -0.078281 0 290 -0.078281 1
gene 2 3 24 5.45509 0 302 5.45509 1
gene 2 24 4 0.690897 0 310 0.690897 1
genomeend 22

/* Organism #23 Fitness: 3.99998 Error: 2.00001 */
genomestart 23
trait 1 0.1 0 0 0 0 0 0 0 
trait 2 0.2 0 0 0 0 0 0 0 
trait 3 0 0 0.241886 0 0 0 0.162111 0.128251 
node 1 1 1 3
node 2 3 1 1
node 3 3 1 1
node 4 2 0 2
node 9 2 0 0
node 24 1 0 0
gene 3 1 4 -1.88841 0 1 -1.88841 1
gene 3 2 4 -1.37316 0 2 -1.37316 1
gene 3 3 4 -8 0 3 -8 0
gene 3 3 9 8 0 12 8 1
gene 3 9 4 6.44757 0 13 6.44757 1
gene 1 2 9 -0.0164875 0 22 -0.0164875 1
gene 1 2 24 -5.55137 0 59 -5.55137 1
gene 1 24 9 -0.322369 0 60 -0.322369 1
gene 2 1 9 -4.8972 0 285 -4.8972 1
gene 3 1 24 1.79209 0 290 1.79209 1
gene 2 3 24 2.66739 0 302 2.66739 1
gene 2 24 4 -0.569212 0 310 -0.569212 1
genomeend 23

/* Organism #24 Fitness: 8.99996 Error: 1.00001 */
genomestart 24
trait 1 0.1 0 0 0 0 0 0 0 
trait 2 0.2 0 0 0 0 0 0 0 
trait 3 0 0 0 0 0 0 0 0 
node 1 1 1 3
node 2 3 1 1
node 3 3 1 1
node 4 2 0 2
node 9 2 0 0
node 24 1 0 0
gene 3 1 4 -0.692308 0 1 -0.692308 1
gene 3 2 4 -2.77679 0 2 -2.77679 1
gene 3 3 4 -8 0 3 -8 0
gene 3 3 9 8 0 12 8 1
gene 3 9 4 5.72202 0 13 5.72202 1
gene 1 2 9 -8 0 22 -8 1
gene 1 2 24 -3.27334 0 59 -3.27334 1
gene 1 24 9 -4.31016 0 60 -4.31016 1
gene 2 1 9 1.25653 0 285 1.25653 1
gene 3 1 24 0.662415 0 290 0.662415 1
gene 2 3 24 2.98565 0 302 2.98565 1
gene 2 24 4 -1.82434 0 310 -1.82434 1
genomeend 24

/* Species #7 : (Size 8) (AF 8.9329) (Age 36)  */


/* Organism #25 Fitness: 9 Error: 1 */
genomestart 25
trait 1 0.05 0 0 0.307885 0 0.224002 0 0 
trait 2 0.2 0 0 0 0 0 0 0 
trait 3 0 0.774211 0 0.0455894 0 0 0.193001 0.607419 
node 1 1 1 3
node 2 3 1 1
node 3 3 1 1
node 4 2 0 2
node 10 1 0 0
node 26 1 0 0
node 29 1 0 0
node 124 1 0 0
gene 1 1 4 -2.58601 0 1 -2.58601 1
gene 2 2 4 8 0 2 8 1
gene 3 3 4 -4.57783 0 3 -4.57783 1
gene 2 2 10 1.95786 0 14 1.95786 1
gene 2 10 4 3.45191 0 15 3.45191 1
gene 2 3 10 -5.08211 0 62 -5.08211 1
gene 3 3 26 2.83843 0 67 2.83843 1
gene 3 26 4 -8 0 68 -8 1
gene 1 3 29 -1.02789 0 85 -1.02789 1
gene 1 29 10 -1.43316 0 86 -1.43316 0
gene 3 1 29 2.77263 0 95 2.77263 1
gene 3 29 4 -0.106141 0 303 -0.106141 1
gene 1 2 29 -0.583526 0 430 -0.583526 1
gene 1 29 124 1 0 440 0 1
gene 1 124 10 -1.43316 0 441 0 1
genomeend 25

/* Organism #26 Fitness: 8.4685 Error: 1.08993 */
genomestart 26
trait 1 0.05 0 0 0.307885 0 0.224002 0 0 
trait 2 0.2 0 0 0 0 0 0 0 
trait 3 0 0.774211 0 0.0455894 0 0 0.193001 0.607419 
node 1 1 1 3
node 2 3 1 1
node 3 3 1 1
node 4 2 0 2
node 10 1 0 0
node 26 1 0 0
node 29 1 0 0
gene 1 1 4 -0.114776 0 1 -0.114776 1
gene 2 2 4 8 0 2 8 1
gene 3 3 4 -2.10063 0 3 -2.10063 1
gene 2 2 10 1.42744 0 14 1.42744 1
gene 2 10 4 3.1409 0 15 3.1409 1
gene 2 3 10 -4.48761 0 62 -4.48761 1
gene 3 3 26 3.86661 0 67 3.86661 1
gene 3 26 4 -8 0 68 -8 1
gene 1 3 29 0.124088 0 85 0.124088 1
gene 1 29 10 0.378501 0 86 0.378501 1
gene 3 1 29 2.27561 0 95 2.27561 1
gene 3 29 4 0.921301 0 303 0.921301 1
gene 1 2 29 0.333366 0 430 0.333366 1
genomeend 26

/* Organism #27 Fitness: 9 Error: 1 */
genomestart 27
trait 1 0.05 0 0 0.307885 0 0.224002 0 0 
trait 2 0.2 0 0 0 0 0 0 0 
trait 3 0 0.774211 0 0.0455894 0 0 0.193001 0.607419 
node 1 1 1 3
node 2 3 1 1
node 3 3 1 1
node 4 2 0 2
node 10 1 0 0
node 26 1 0 0
node 29 1 0 0
node 124 1 0 0
gene 1 1 4 -2.58601 0 1 -2.58601 1
gene 2 2 4 8 0 2 8 1
gene 3 3 4 -4.57783 0 3 -4.57783 1
gene 2 2 10 1.95786 0 14 1.95786 1
gene 2 10 4 3.45191 0 15 3.45191 1
gene 2 3 10 -5.08211 0 62 -5.08211 1
gene 3 3 26 2.83843 0 67 2.83843 1
gene 3 26 4 -8 0 68 -8 1
gene 1 3 29 -1.02789 0 85 -1.02789 1
gene 1 29 10 -1.43316 0 86 -1.43316 0
gene 3 1 29 2.77263 0 95 2.77263 1
gene 3 29 4 -0.106141 0 303 -0.106141 1
gene 1 2 29 -0.583526 0 430 -0.583526 1
gene 1 29 124 1 0 440 0 1
gene 1 124 10 -1.43316 0 441 0 1
genomeend 27

/* Organism #28 Fitness: 8.99998 Error: 1 */
genomestart 28
trait 1 0.05 0 0 0.307885 0 0.224002 0 0 
trait 2 0.2 0 0 0 0 0 0 0 
trait 3 0 0.774211 0 0.0455894 0 0 0.193001 0.607419 
node 1 1 1 3
node 2 3 1 1
node 3 3 1 1
node 4 2 0 2
node 10 1 0 0
node 26 1 0 0
node 29 1 0 0
node 124 1 0 0
gene 1 1 4 -2.42057 0 1 -2.42057 1
gene 2 2 4 7.67728 0 2 7.67728 1
gene 3 3 4 -3.93963 0 3 -3.93963 1
gene 2 2 10 -0.330549 0 14 -0.330549 1
gene 2 10 4 2.73134 0 15 2.73134 1
gene 2 3 10 -3.82351 0 62 -3.82351 1
gene 3 3 26 0.490126 0 67 0.490126 1
gene 3 26 4 -8 0 68 -8 1
gene 1 3 29 -1.54499 0 85 -1.54499 1
gene 1 29 10 -2.5351 0 86 -2.5351 1
gene 3 1 29 2.31406 0 95 2.31406 1
gene 3 29 4 1.28205 0 303 1.28205 1
gene 1 2 29 1.11527 0 430 1.11527 1
gene 1 29 124 1 0 440 1 1
gene 1 124 10 -1.43316 0 441 -1.43316 1
genomeend 28

/* Organism #29 Fitness: 8.99704 Error: 1.00049 */
genomestart 29
trait 1 0.05 0 0 0.307885 0 0.224002 0 0 
trait 2 0.2 0 0 0 0 0 0 0 
trait 3 0 0.774211 0 0.0455894 0 0 0.193001 0.607419 
node 1 1 1 3
node 2 3 1 1
node 3 3 1 1
node 4 2 0 2
node 10 1 0 0
node 26 1 0 0
node 29 1 0 0
node 124 1 0 0
gene 1 1 4 -2.58601 0 1 -2.58601 1
gene 2 2 4 8 0 2 8 1
gene 3 3 4 -4.57783 0 3 -4.57783 1
gene 2 2 10 1.95786 0 14 1.95786 1
gene 2 10 4 3.45191 0 15 3.45191 1
gene 2 3 10 -5.08211 0 62 -5.08211 1
gene 3 3 26 2.83843 0 67 2.83843 1
gene 3 26 4 -8 0 68 -8 1
gene 1 3 29 -1.02789 0 85 -1.02789 1
gene 1 29 10 -1.43316 0 86 -1.43316 0
gene 3 1 29 2.77263 0 95 2.77263 1
gene 3 29 4 -0.106141 0 303 -0.106141 1
gene 1 2 29 -0.583526 0 430 -0.583526 1
gene 1 29 124 1 0 440 0 1
gene 1 124 10 -1.43316 0 441 0 1
gene 1 2 26 0.391159 0 448 0.391159 1
genomeend 29

/* Organism #30 Fitness: 9 Error: 1 */
genomestart 30
trait 1 0.05 0 0 0.307885 0 0.224002 0 0 
trait 2 0.2 0 0 0 0 0 0 0 
trait 3 0 0.774211 0 0.0455894 0 0 0.193001 0.607419 
node 1 1 1 3
node 2 3 1 1
node 3 3 1 1
node 4 2 0 2
node 10 2 0 0
node 26 1 0 0
node 29 1 0 0
node 124 1 0 0
gene 1 1 4 -3.56678 0 1 -3.56678 1
gene 2 2 4 8 0 2 8 1
gene 3 3 4 -6.31907 0 3 -6.31907 1
gene 2 2 10 1.95786 0 14 1.95786 1
gene 2 10 4 4.55904 0 15 4.55904 1
gene 2 3 10 -0.302583 0 62 -0.302583 1
gene 3 3 26 1.28048 0 67 1.28048 1
gene 3 26 4 -7.72669 0 68 -7.72669 1
gene 1 3 29 -2.26514 0 85 -2.26514 1
gene 1 29 10 -0.871066 0 86 -0.871066 0
gene 3 1 29 0.640456 0 95 0.640456 1
gene 3 29 4 0.783176 0 303 0.783176 1
gene 1 2 29 -2.46289 0 430 -2.46289 1
gene 1 29 124 1.95341 0 440 1.95341 1
gene 1 124 10 -1.55507 0 441 -1.55507 1
genomeend 30

/* Organism #31 Fitness: 9 Error: 1 */
genomestart 31
trait 1 0.05 0 0 0.307885 0 0.224002 0 0 
trait 2 0.2 0 0 0 0 0 0 0 
trait 3 0 0.774211 0 0.0455894 0 0 0.193001 0.607419 
node 1 1 1 3
node 2 3 1 1
node 3 3 1 1
node 4 2 0 2
node 10 1 0 0
node 26 1 0 0
node 29 1 0 0
node 124 1 0 0
gene 1 1 4 -2.58601 0 1 -2.58601 1
gene 2 2 4 8 0 2 8 1
gene 3 3 4 -4.57783 0 3 -4.57783 1
gene 2 2 10 1.95786 0 14 1.95786 1
gene 2 10 4 3.45191 0 15 3.45191 1
gene 2 3 10 -5.08211 0 62 -5.08211 1
gene 3 3 26 2.83843 0 67 2.83843 1
gene 3 26 4 -8 0 68 -8 1
gene 1 3 29 -1.02789 0 85 -1.02789 1
gene 1 29 10 -1.43316 0 86 -1.43316 0
gene 3 1 29 2.77263 0 95 2.77263 1
gene 3 29 4 -0.106141 0 303 -0.106141 1
gene 1 2 29 -0.583526 0 430 -0.583526 1
gene 1 29 124 1 0 440 0 1
gene 1 124 10 -1.43316 0 441 0 1
genomeend 31

/* Organism #32 Fitness: 8.99769 Error: 1.00039 */
genomestart 32
trait 1 0.05 0 0 0.307885 0 0.224002 0 0 
trait 2 0.2 0 0 0 0 0 0 0 
trait 3 0 0.774211 0 0.0455894 0 0 0.193001 0.607419 
node 1 1 1 3
node 2 3 1 1
node 3 3 1 1
node 4 2 0 2
node 10 1 0 0
node 26 1 0 0
node 29 1 0 0
node 124 1 0 0
gene 1 1 4 -3.45242 0 1 -3.45242 1
gene 2 2 4 6.89934 0 2 6.89934 1
gene 3 3 4 -5.23204 0 3 -5.23204 1
gene 2 2 10 1.95786 0 14 1.95786 1
gene 2 10 4 2.10874 0 15 2.10874 1
gene 2 3 10 -5.08211 0 62 -5.08211 1
gene 3 3 26 4.40134 0 67 4.40134 1
gene 3 26 4 -7.91577 0 68 -7.91577 1
gene 1 3 29 -0.531238 0 85 -0.531238 1
gene 1 29 10 -1.43316 0 86 -1.43316 0
gene 3 1 29 1.0981 0 95 1.0981 1
gene 3 29 4 -0.00362601 0 303 -0.00362601 1
gene 1 2 29 -1.16974 0 430 -1.16974 1
gene 1 29 124 2.43127 0 440 2.43127 1
gene 1 124 10 0.0278694 0 441 0.0278694 1
genomeend 32

/* Species #9 : (Size 7) (AF 5.69206) (Age 35)  */


/* Organism #33 Fitness: 8.98772 Error: 1.00205 */
genomestart 33
trait 1 0.1 0 0 0 0 0 0 0 
trait 2 0.2 0 0.173808 0 0 0 0.618594 0.355571 
trait 3 0.3 0 0 0 0 0 0 0 
node 1 2 1 3
node 2 2 1 1
node 3 1 1 1
node 4 1 0 2
node 8 1 0 0
node 25 1 0 0
node 47 1 0 0
node 68 1 0 0
node 91 1 0 0
gene 2 1 4 -0.881021 0 1 -0.881021 1
gene 2 2 4 3.33993 0 2 3.33993 1
gene 2 3 4 -8 0 3 -8 1
gene 2 2 8 -1.50045 0 10 -1.50045 1
gene 1 8 4 0.294395 0 11 0.294395 1
gene 2 2 25 -0.409151 0 64 -0.409151 1
gene 2 25 8 -1.79774 0 65 -1.79774 0
gene 1 3 25 5.80572 0 75 5.80572 1
gene 3 1 25 -3.38225 0 89 -3.38225 1
gene 1 1 8 1.34708 0 97 1.34708 1
gene 2 25 4 -4.27163 0 104 -4.27163 0
gene 2 25 47 5.13451 0 153 5.13451 1
gene 2 47 8 -2.08569 0 154 -2.08569 1
gene 2 3 8 0.50399 0 205 0.50399 1
gene 2 25 68 5.82618 0 223 5.82618 1
gene 2 68 8 1.06634 0 224 1.06634 1
gene 2 25 91 -1.09932 0 313 -1.09932 1
gene 2 91 4 -2.38479 0 314 -2.38479 1
gene 3 91 47 0.56341 0 333 0.56341 1
gene 2 1 47 0.0359413 0 391 0.0359413 1
genomeend 33

/* Organism #34 Fitness: 8.99984 Error: 1.00003 */
genomestart 34
trait 1 0.1 0 0 0 0 0 0 0 
trait 2 0.2 0 0.173808 0 0 0 0.618594 0.355571 
trait 3 0.3 0 0 0 0 0 0 0 
node 1 2 1 3
node 2 2 1 1
node 3 1 1 1
node 4 1 0 2
node 8 1 0 0
node 25 1 0 0
node 47 1 0 0
node 68 1 0 0
node 91 1 0 0
gene 2 1 4 -1.88758 0 1 -1.88758 1
gene 2 2 4 4.35159 0 2 4.35159 1
gene 2 3 4 -7.27896 0 3 -7.27896 1
gene 2 2 8 -0.817517 0 10 -0.817517 1
gene 1 8 4 -0.912475 0 11 -0.912475 1
gene 2 2 25 1.09246 0 64 1.09246 1
gene 2 25 8 3.10113 0 65 3.10113 0
gene 1 3 25 4.85329 0 75 4.85329 1
gene 3 1 25 -2.27281 0 89 -2.27281 1
gene 1 1 8 1.70116 0 97 1.70116 1
gene 2 25 4 -3.02506 0 104 -3.02506 0
gene 2 25 47 4.13986 0 153 4.13986 1
gene 2 47 8 -2.77384 0 154 -2.77384 1
gene 2 3 8 -0.0779753 0 205 -0.0779753 1
gene 2 25 68 3.95537 0 223 3.95537 1
gene 2 68 8 1.66983 0 224 1.66983 1
gene 2 25 91 -0.574998 0 313 -0.574998 1
gene 2 91 4 -0.534708 0 314 -0.534708 1
gene 3 91 47 -0.0013272 0 333 -0.0013272 1
gene 2 1 47 0.733582 0 391 0.733582 1
genomeend 34

/* Organism #35 Fitness: 7.00576 Error: 1.35316 */
genomestart 35
trait 1 0.1 0 0 0 0 0 0 0 
trait 2 0.2 0 0.173808 0 0 0 0.618594 0.355571 
trait 3 0.3 0 0 0 0 0 0 0 
node 1 2 1 3
node 2 2 1 1
node 3 1 1 1
node 4 1 0 2
node 8 1 0 0
node 25 1 0 0
node 47 1 0 0
node 68 1 0 0
node 91 2 0 0
gene 2 1 4 -4.86036 0 1 -4.86036 1
gene 2 2 4 4.71789 0 2 4.71789 1
gene 2 3 4 -7.47998 0 3 -7.47998 1
gene 2 2 8 1.17725 0 10 1.17725 1
gene 1 8 4 0.251656 0 11 0.251656 1
gene 2 2 25 2.53804 0 64 2.53804 1
gene 2 25 8 7.4033 0 65 7.4033 0
gene 1 3 25 5.02346 0 75 5.02346 1
gene 3 1 25 1.06971 0 89 1.06971 1
gene 1 1 8 2.23425 0 97 2.23425 1
gene 2 25 4 0.306444 0 104 0.306444 0
gene 2 25 47 4.36867 0 153 4.36867 1
gene 2 47 8 -2.1152 0 154 -2.1152 1
gene 2 3 8 -1.3585 0 205 -1.3585 1
gene 2 25 68 0.963191 0 223 0.963191 1
gene 2 68 8 2.86242 0 224 2.86242 1
gene 2 25 91 -0.71333 0 313 -0.71333 1
gene 2 91 4 0.473705 0 314 0.473705 1
gene 3 91 47 -2.5088 0 333 -2.5088 1
gene 2 1 47 1.43122 0 391 1.43122 1
genomeend 35

/* Organism #36 Fitness: 5.82961 Error: 1.58554 */
genomestart 36
trait 1 0.1 0 0 0 0 0 0 0 
trait 2 0.2 0 0.173808 0 0 0 0.618594 0.355571 
trait 3 0.3 0 0 0 0 0 0 0 
node 1 2 1 3
node 2 2 1 1
node 3 1 1 1
node 4 1 0 2
node 8 1 0 0
node 25 1 0 0
node 47 1 0 0
node 68 1 0 0
node 91 1 0 0
gene 2 1 4 -3.80443 0 1 -3.80443 1
gene 2 2 4 4.78895 0 2 4.78895 1
gene 2 3 4 -6.05989 0 3 -6.05989 1
gene 2 2 8 0.36415 0 10 0.36415 1
gene 1 8 4 -1.09734 0 11 -1.09734 1
gene 2 2 25 3.03957 0 64 3.03957 1
gene 2 25 8 6.90793 0 65 6.90793 0
gene 1 3 25 6.0532 0 75 6.0532 1
gene 3 1 25 -2.58872 0 89 -2.58872 1
gene 1 1 8 1.4058 0 97 1.4058 1
gene 2 25 4 -1.52938 0 104 -1.52938 0
gene 2 25 47 3.75859 0 153 3.75859 1
gene 2 47 8 -2.27772 0 154 -2.27772 1
gene 2 3 8 0.452554 0 205 0.452554 1
gene 2 25 68 2.3468 0 223 2.3468 1
gene 2 68 8 4.73202 0 224 4.73202 1
gene 2 25 91 -0.410229 0 313 -0.410229 1
gene 2 91 4 0.306378 0 314 0.306378 1
gene 3 91 47 -2.72254 0 333 -2.72254 1
gene 2 1 47 -0.254273 0 391 -0.254273 1
genomeend 36

/* Organism #37 Fitness: 3.40061 Error: 2.15593 */
genomestart 37
trait 1 0.1 0 0 0 0 0 0 0 
trait 2 0.2 0 0.173808 0 0 0 0.618594 0.355571 
trait 3 0.3 0 0 0 0 0 0 0 
node 1 3 1 3
node 2 2 1 1
node 3 1 1 1
node 4 1 0 2
node 8 1 0 0
node 25 1 0 0
node 47 1 0 0
node 68 1 0 0
node 91 1 0 0
gene 2 1 4 -2.17556 0 1 -2.17556 1
gene 2 2 4 5.36325 0 2 5.36325 1
gene 2 3 4 -0.711456 0 3 -0.711456 1
gene 2 2 8 1.71167 0 10 1.71167 1
gene 1 8 4 -2.37147 0 11 -2.37147 1
gene 2 2 25 3.25612 0 64 3.25612 1
gene 2 25 8 8 0 65 8 0
gene 1 3 25 3.90085 0 75 3.90085 1
gene 3 1 25 -1.16337 0 89 -1.16337 1
gene 1 1 8 -2.3054 0 97 -2.3054 1
gene 2 25 4 -1.71017 0 104 -1.71017 0
gene 2 25 47 1.74256 0 153 1.74256 1
gene 2 47 8 -4.44261 0 154 -4.44261 1
gene 2 3 8 1.7113 0 205 1.7113 1
gene 2 25 68 0.160113 0 223 0.160113 1
gene 2 68 8 2.27332 0 224 2.27332 1
gene 2 25 91 -0.0506793 0 313 -0.0506793 1
gene 2 91 4 3.67232 0 314 3.67232 1
gene 3 91 47 -0.366942 0 333 -0.366942 1
gene 2 1 47 2.63536 0 391 2.63536 1
genomeend 37

/* Organism #38 Fitness: 1.09535 Error: 2.95341 */
genomestart 38
trait 1 0.1 0 0 0 0 0 0 0 
trait 2 0.2 0 0.173808 0 0 0 0.618594 0.355571 
trait 3 0.3 0 0 0 0 0 0 0 
node 1 2 1 3
node 2 2 1 1
node 3 1 1 1
node 4 1 0 2
node 8 1 0 0
node 25 1 0 0
node 47 1 0 0
node 68 1 0 0
node 91 1 0 0
gene 2 1 4 1.11998 0 1 1.11998 1
gene 2 2 4 2.88256 0 2 2.88256 1
gene 2 3 4 -1.75069 0 3 -1.75069 1
gene 2 2 8 0.908077 0 10 0.908077 1
gene 1 8 4 -4.61667 0 11 -4.61667 1
gene 2 2 25 3.48081 0 64 3.48081 1
gene 2 25 8 6.72254 0 65 6.72254 0
gene 1 3 25 5.15113 0 75 5.15113 1
gene 3 1 25 0.00892979 0 89 0.00892979 1
gene 1 1 8 -2.1292 0 97 -2.1292 1
gene 2 25 4 -2.60887 0 104 -2.60887 0
gene 2 25 47 5.34186 0 153 5.34186 1
gene 2 47 8 -2.96685 0 154 -2.96685 1
gene 2 3 8 -0.905018 0 205 -0.905018 1
gene 2 25 68 3.7123 0 223 3.7123 1
gene 2 68 8 2.28991 0 224 2.28991 1
gene 2 25 91 -1.66656 0 313 -1.66656 1
gene 2 91 4 1.36965 0 314 1.36965 1
gene 3 91 47 -1.18671 0 333 -1.18671 1
gene 2 1 47 0.4246 0 391 0.4246 1
genomeend 38

/* Organism #39 Fitness: 4.52555 Error: 1.87266 */
genomestart 39
trait 1 0.1 0 0 0 0 0 0 0 
trait 2 0.2 0 0.173808 0 0 0 0.618594 0.355571 
trait 3 0.3 0 0 0 0 0 0 0 
node 1 2 1 3
node 2 2 1 1
node 3 1 1 1
node 4 1 0 2
node 8 1 0 0
node 25 1 0 0
node 47 1 0 0
node 68 1 0 0
node 91 1 0 0
gene 2 1 4 -2.89414 0 1 -2.89414 1
gene 2 2 4 3.33993 0 2 3.33993 1
gene 2 3 4 -8 0 3 -8 1
gene 2 2 8 -0.134588 0 10 -0.134588 1
gene 1 8 4 0.294395 0 11 0.294395 1
gene 2 2 25 2.59406 0 64 2.59406 1
gene 2 25 8 -1.79774 0 65 -1.79774 0
gene 1 3 25 3.90085 0 75 3.90085 1
gene 3 1 25 -3.38225 0 89 -3.38225 1
gene 1 1 8 1.34708 0 97 1.34708 1
gene 2 25 4 -1.7785 0 104 -1.7785 0
gene 2 25 47 3.14522 0 153 3.14522 1
gene 2 47 8 -2.08569 0 154 -2.08569 1
gene 2 3 8 0.50399 0 205 0.50399 1
gene 2 25 68 5.82618 0 223 5.82618 1
gene 2 68 8 2.27332 0 224 2.27332 1
gene 2 25 91 -1.09932 0 313 -1.09932 1
gene 2 91 4 -2.38479 0 314 -2.38479 1
gene 3 91 47 0.56341 0 333 0.56341 1
gene 2 1 47 0.0359413 0 391 0.0359413 1
genomeend 39

/* Species #10 : (Size 7) (AF 7.29234) (Age 33)  */


/* Organism #40 Fitness: 9 Error: 1 */
genomestart 40
trait 1 0.340251 0 0.460431 0.302836 0.0441153 0 0 0.439752 
trait 2 0.2 0 0.231744 0 0 0 0.824792 0.474095 
trait 3 0.3 0 0 0 0 0 0 0 
node 1 2 1 3
node 2 2 1 1
node 3 3 1 1
node 4 1 0 2
node 8 1 0 0
node 104 1 0 0
gene 1 1 4 -2.85875 0 1 -2.85875 1
gene 2 2 4 8 0 2 8 1
gene 1 3 4 -8 0 3 -8 1
gene 3 2 8 8 0 10 8 0
gene 1 8 4 -1.33736 0 11 -1.33736 1
gene 2 1 8 5.78215 0 66 5.78215 1
gene 2 2 104 0.0104996 0 361 0.0104996 1
gene 2 104 8 2.52709 0 362 2.52709 1
genomeend 40

/* Organism #41 Fitness: 8.99998 Error: 1 */
genomestart 41
trait 1 0.340251 0 0.460431 0.302836 0.0441153 0 0 0.439752 
trait 2 0.2 0 0.231744 0 0 0 0.824792 0.474095 
trait 3 0.3 0 0 0 0 0 0 0 
node 1 2 1 3
node 2 2 1 1
node 3 3 1 1
node 4 1 0 2
node 8 1 0 0
node 104 1 0 0
gene 1 1 4 -4.17383 0 1 -4.17383 1
gene 2 2 4 6.27005 0 2 6.27005 1
gene 1 3 4 -8 0 3 -8 1
gene 3 2 8 8 0 10 8 0
gene 1 8 4 0.49403 0 11 0.49403 1
gene 2 1 8 4.971 0 66 4.971 1
gene 2 2 104 0.627165 0 361 0.627165 1
gene 2 104 8 1.43273 0 362 1.43273 1
genomeend 41

/* Organism #42 Fitness: 2.09685 Error: 2.55195 */
genomestart 42
trait 1 0.340251 0 0.460431 0.302836 0.0441153 0 0 0.439752 
trait 2 0.2 0 0.231744 0 0 0 0.824792 0.474095 
trait 3 0.3 0 0 0 0 0 0 0 
node 1 2 1 3
node 2 2 1 1
node 3 3 1 1
node 4 1 0 2
node 8 1 0 0
node 104 1 0 0
gene 1 1 4 -0.445022 0 1 -0.445022 1
gene 2 2 4 8 0 2 8 1
gene 1 3 4 -7.6837 0 3 -7.6837 1
gene 3 2 8 1.0372 0 10 1.0372 0
gene 1 8 4 0.573175 0 11 0.573175 1
gene 2 1 8 3.94305 0 66 3.94305 1
gene 2 2 104 -1.60899 0 361 -1.60899 1
gene 3 104 8 -2.31949 0 362 -2.31949 1
genomeend 42

/* Organism #43 Fitness: 8.95715 Error: 1.00715 */
genomestart 43
trait 1 0.340251 0 0.460431 0.302836 0.0441153 0 0 0.439752 
trait 2 0.2 0 0.231744 0 0 0 0.824792 0.474095 
trait 3 0.3 0 0 0 0 0 0 0 
node 1 2 1 3
node 2 2 1 1
node 3 3 1 1
node 4 1 0 2
node 8 1 0 0
node 104 1 0 0
gene 1 1 4 -0.363823 0 1 -0.363823 1
gene 2 2 4 8 0 2 8 1
gene 1 3 4 -8 0 3 -8 1
gene 3 2 8 8 0 10 8 0
gene 1 8 4 -0.779532 0 11 -0.779532 1
gene 2 1 8 6.88866 0 66 6.88866 1
gene 1 2 104 -2.86186 0 361 -2.86186 1
gene 2 104 8 1.6437 0 362 1.6437 1
genomeend 43

/* Organism #44 Fitness: 8.99999 Error: 1 */
genomestart 44
trait 1 0.340251 0 0.460431 0.302836 0.0441153 0 0 0.439752 
trait 2 0.2 0 0.231744 0 0 0 0.824792 0.474095 
trait 3 0.3 0 0 0 0 0 0 0 
node 1 2 1 3
node 2 2 1 1
node 3 3 1 1
node 4 1 0 2
node 8 1 0 0
node 104 1 0 0
gene 1 1 4 -2.04729 0 1 -2.04729 1
gene 2 2 4 8 0 2 8 1
gene 1 3 4 -8 0 3 -8 1
gene 3 2 8 5.82475 0 10 5.82475 0
gene 1 8 4 -3.26653 0 11 -3.26653 1
gene 2 1 8 7.30754 0 66 7.30754 1
gene 2 2 104 2.47852 0 361 2.47852 1
gene 2 104 8 3.07325 0 362 3.07325 1
genomeend 44

/* Organism #45 Fitness: 8.99031 Error: 1.00162 */
genomestart 45
trait 1 0.340251 0 0.460431 0.302836 0.0441153 0 0 0.439752 
trait 2 0.2 0 0.231744 0 0 0 0.824792 0.474095 
trait 3 0.3 0 0 0 0 0 0 0 
node 1 2 1 3
node 2 2 1 1
node 3 3 1 1
node 4 1 0 2
node 8 1 0 0
node 104 1 0 0
gene 1 1 4 -3.41502 0 1 -3.41502 1
gene 2 2 4 8 0 2 8 1
gene 1 3 4 -8 0 3 -8 1
gene 3 2 8 8 0 10 8 0
gene 1 8 4 -3.27989 0 11 -3.27989 1
gene 2 1 8 5.97681 0 66 5.97681 1
gene 2 2 104 -1.76737 0 361 -1.76737 1
gene 2 104 8 0.0511914 0 362 0.0511914 1
genomeend 45

/* Organism #46 Fitness: 4.0021 Error: 1.99948 */
genomestart 46
trait 1 0.340251 0 0.460431 0.302836 0.0441153 0 0 0.439752 
trait 2 0.2 0 0.231744 0 0 0 0.824792 0.474095 
trait 3 0.3 0 0 0 0 0 0 0 
node 1 2 1 3
node 2 2 1 1
node 3 3 1 1
node 4 1 0 2
node 8 1 0 0
node 104 1 0 0
gene 1 1 4 -1.56632 0 1 -1.56632 1
gene 2 2 4 7.00609 0 2 7.00609 1
gene 1 3 4 -1.17657 0 3 -1.17657 1
gene 3 2 8 8 0 10 8 0
gene 1 8 4 -2.73001 0 11 -2.73001 1
gene 2 1 8 8 0 66 8 1
gene 2 2 104 2.41152 0 361 2.41152 1
gene 2 104 8 2.49304 0 362 2.49304 1
genomeend 46

/* Species #12 : (Size 6) (AF 7.33456) (Age 33)  */


/* Organism #47 Fitness: 9 Error: 1 */
genomestart 47
trait 1 0.170396 0 0 0.163536 0 0.298306 0.11122 0 
trait 2 0.2 0 0 0 0 0.0127421 0 0 
trait 3 0.3 0 0 0 0 0 0 0 
node 1 1 1 3
node 2 3 1 1
node 3 3 1 1
node 4 3 0 2
node 10 1 0 0
node 26 1 0 0
gene 1 1 4 -1.06553 0 1 -1.06553 1
gene 2 2 4 8 0 2 8 1
gene 3 3 4 -6.9097 0 3 -6.9097 1
gene 2 2 10 4.34387 0 14 4.34387 1
gene 2 10 4 -4.35397 0 15 -4.35397 0
gene 1 3 10 -3.75613 0 62 -3.75613 1
gene 3 3 26 3.55805 0 67 3.55805 1
gene 3 26 4 -7.45388 0 68 -7.45388 1
gene 2 2 26 -3.6168 0 87 -3.6168 1
gene 2 1 10 -0.0601626 0 336 -0.0601626 1
gene 2 1 26 2.32862 0 348 2.32862 1
genomeend 47

/* Organism #48 Fitness: 4.00002 Error: 1.99999 */
genomestart 48
trait 1 0.170396 0 0 0.163536 0 0.298306 0.11122 0 
trait 2 0.2 0 0 0 0 0.0127421 0 0 
trait 3 0.3 0 0 0 0 0 0 0 
node 1 1 1 3
node 2 3 1 1
node 3 3 1 1
node 4 3 0 2
node 10 1 0 0
node 26 1 0 0
gene 1 1 4 -0.0133412 0 1 -0.0133412 1
gene 2 2 4 8 0 2 8 1
gene 3 3 4 -5.52119 0 3 -5.52119 1
gene 2 2 10 2.62203 0 14 2.62203 1
gene 2 10 4 -1.93796 0 15 -1.93796 0
gene 1 3 10 -5.9005 0 62 -5.9005 1
gene 3 3 26 1.2774 0 67 1.2774 1
gene 3 26 4 -6.36646 0 68 -6.36646 1
gene 2 2 26 -4.88515 0 87 -4.88515 1
gene 2 1 10 0.19234 0 336 0.19234 1
gene 2 1 26 0.35485 0 348 0.35485 1
genomeend 48

/* Organism #49 Fitness: 9 Error: 1 */
genomestart 49
trait 1 0.170396 0 0 0.163536 0 0.298306 0.11122 0 
trait 2 0.2 0 0 0 0 0.0127421 0 0 
trait 3 0.3 0 0 0 0 0 0 0 
node 1 1 1 3
node 2 3 1 1
node 3 3 1 1
node 4 3 0 2
node 10 1 0 0
node 26 1 0 0
gene 1 1 4 0.363666 0 1 0.363666 1
gene 2 2 4 8 0 2 8 1
gene 3 3 4 -7.58634 0 3 -7.58634 1
gene 2 2 10 4.85178 0 14 4.85178 1
gene 2 10 4 -2.9837 0 15 -2.9837 0
gene 1 3 10 -3.64692 0 62 -3.64692 1
gene 3 3 26 2.7835 0 67 2.7835 1
gene 3 26 4 -8 0 68 -8 1
gene 2 2 26 -3.10436 0 87 -3.10436 1
gene 2 1 10 -2.44994 0 336 -2.44994 1
gene 2 1 26 0.404071 0 348 0.404071 1
genomeend 49

/* Organism #50 Fitness: 9 Error: 1 */
genomestart 50
trait 1 0.170396 0 0 0.163536 0 0.298306 0.11122 0 
trait 2 0.2 0 0 0 0 0.0127421 0 0 
trait 3 0.3 0 0 0 0 0 0 0 
node 1 1 1 3
node 2 3 1 1
node 3 3 1 1
node 4 3 0 2
node 10 1 0 0
node 26 1 0 0
gene 1 1 4 -1.06553 0 1 -1.06553 1
gene 2 2 4 8 0 2 8 1
gene 3 3 4 -6.9097 0 3 -6.9097 1
gene 2 2 10 4.34387 0 14 4.34387 1
gene 2 10 4 -4.35397 0 15 -4.35397 0
gene 1 3 10 -3.75613 0 62 -3.75613 1
gene 3 3 26 3.55805 0 67 3.55805 1
gene 3 26 4 -7.45388 0 68 -7.45388 1
gene 2 2 26 -3.6168 0 87 -3.6168 1
gene 2 1 10 -0.0601626 0 336 -0.0601626 1
gene 2 1 26 2.32862 0 348 2.32862 1
gene 3 10 26 -0.00109268 0 449 -0.00109268 1
genomeend 50

/* Organism #51 Fitness: 8.99995 Error: 1.00001 */
genomestart 51
trait 1 0.170396 0 0 0.163536 0 0.298306 0.11122 0 
trait 2 0.2 0 0 0 0 0.0127421 0 0 
trait 3 0.3 0 0 0 0 0 0 0 
node 1 1 1 3
node 2 3 1 1
node 3 3 1 1
node 4 3 0 2
node 10 1 0 0
node 26 1 0 0
gene 1 1 4 -3.41999 0 1 -3.41999 1
gene 2 2 4 7.74613 0 2 7.74613 1
gene 3 3 4 -6.63707 0 3 -6.63707 1
gene 2 2 10 5.77571 0 14 5.77571 1
gene 2 10 4 -2.86768 0 15 -2.86768 0
gene 1 3 10 -5.17493 0 62 -5.17493 1
gene 3 3 26 2.60016 0 67 2.60016 1
gene 3 26 4 -7.9069 0 68 -7.9069 1
gene 2 2 26 -5.89619 0 87 -5.89619 1
gene 2 1 10 -0.0934141 0 336 -0.0934141 1
gene 2 1 26 2.32862 0 348 2.32862 1
genomeend 51

/* Organism #52 Fitness: 4.00739 Error: 1.99815 */
genomestart 52
trait 1 0.170396 0 0 0.163536 0 0.298306 0.11122 0 
trait 2 0.2 0 0 0 0 0.0127421 0 0 
trait 3 0.83115 0 0.242726 0 0 0.0976403 0.840771 0 
node 1 1 1 3
node 2 3 1 1
node 3 3 1 1
node 4 3 0 2
node 10 1 0 0
node 26 1 0 0
gene 1 1 4 -2.06739 0 1 -2.06739 1
gene 2 2 4 7.01525 0 2 7.01525 1
gene 3 3 4 -5.86153 0 3 -5.86153 1
gene 2 2 10 6.31969 0 14 6.31969 1
gene 2 10 4 -3.08351 0 15 -3.08351 0
gene 1 3 10 0.366658 0 62 0.366658 1
gene 3 3 26 -0.931012 0 67 -0.931012 1
gene 3 26 4 -6.27877 0 68 -6.27877 1
gene 2 2 26 -3.6168 0 87 -3.6168 1
gene 2 1 10 -0.432931 0 336 -0.432931 1
gene 2 1 26 4.58432 0 348 4.58432 1
genomeend 52

/* Species #13 : (Size 7) (AF 8.25822) (Age 32)  */


/* Organism #53 Fitness: 9.39382 Error: 0.935066 */
genomestart 53
trait 1 0.1 0 0 0 0 0 0.218837 0 
trait 2 0.2 0 0 0.414968 0.385364 0 0.164161 0 
trait 3 1 0 0 0 0 0.966912 0 0 
node 1 1 1 3
node 2 2 1 1
node 3 3 1 1
node 4 3 0 2
node 9 1 0 0
node 15 1 0 0
node 31 2 0 0
node 113 1 0 0
gene 3 1 4 -2.68977 0 1 -2.68977 1
gene 3 2 4 -2.05528 0 2 -2.05528 1
gene 3 3 4 -1.77536 0 3 -1.77536 1
gene 2 3 9 2.47521 0 12 2.47521 1
gene 3 9 4 7.29074 0 13 7.29074 1
gene 1 2 9 2.87276 0 22 2.87276 1
gene 3 2 15 -6.55099 0 29 -6.55099 1
gene 3 15 4 -2.30907 0 30 -2.30907 1
gene 3 15 9 -5.37232 0 46 -5.37232 1
gene 1 2 31 0.806433 0 99 0.806433 1
gene 1 31 9 3.14003 0 100 3.14003 0
gene 1 1 31 -1.57804 0 117 -1.57804 1
gene 3 1 9 -1.36199 0 142 -1.36199 1
gene 3 3 15 -1.90811 0 262 -1.90811 1
gene 1 31 113 2.93022 0 399 2.93022 1
gene 1 113 9 2.03347 0 400 2.03347 1
gene 3 113 4 -0.395495 0 423 -0.395495 1
genomeend 53

/* Organism #54 Fitness: 9.00412 Error: 0.999313 */
genomestart 54
trait 1 0.1 0 0 0 0 0 0.218837 0 
trait 2 0.2 0 0 0.414968 0.385364 0 0.164161 0 
trait 3 1 0 0 0 0 0.966912 0 0 
node 1 1 1 3
node 2 2 1 1
node 3 3 1 1
node 4 3 0 2
node 9 1 0 0
node 15 1 0 0
node 31 2 0 0
node 113 1 0 0
gene 3 1 4 -2.42665 0 1 -2.42665 1
gene 3 2 4 -1.0378 0 2 -1.0378 1
gene 3 3 4 -2.74932 0 3 -2.74932 1
gene 2 3 9 0.519996 0 12 0.519996 1
gene 3 9 4 7.88883 0 13 7.88883 1
gene 1 2 9 1.09019 0 22 1.09019 1
gene 3 2 15 -6.42232 0 29 -6.42232 1
gene 3 15 4 -4.10181 0 30 -4.10181 1
gene 3 15 9 -6.88404 0 46 -6.88404 1
gene 1 2 31 -0.386434 0 99 -0.386434 1
gene 1 31 9 2.41484 0 100 2.41484 0
gene 1 1 31 -2.61185 0 117 -2.61185 1
gene 3 1 9 0.0565041 0 142 0.0565041 1
gene 3 3 15 -0.855851 0 262 -0.855851 1
gene 1 31 113 1.7493 0 399 1.7493 1
gene 1 113 9 2.03347 0 400 2.03347 1
gene 3 113 4 -0.395495 0 423 -0.395495 1
genomeend 54

/* Organism #55 Fitness: 4 Error: 2 */
genomestart 55
trait 1 0.1 0 0 0 0 0 0.218837 0 
trait 2 0.2 0 0 0.414968 0.385364 0 0.164161 0 
trait 3 1 0 0 0 0 0.966912 0 0 
node 1 1 1 3
node 2 2 1 1
node 3 3 1 1
node 4 3 0 2
node 9 1 0 0
node 15 1 0 0
node 31 2 0 0
node 113 1 0 0
gene 3 1 4 -4.76554 0 1 -4.76554 1
gene 3 2 4 1.20767 0 2 1.20767 1
gene 3 3 4 -0.109809 0 3 -0.109809 1
gene 2 3 9 -2.02902 0 12 -2.02902 1
gene 3 9 4 8 0 13 8 1
gene 1 2 9 -1.37235 0 22 -1.37235 1
gene 3 2 15 -8 0 29 -8 1
gene 3 15 4 -1.57441 0 30 -1.57441 1
gene 3 15 9 -7.66302 0 46 -7.66302 1
gene 1 2 31 2.03862 0 99 2.03862 1
gene 1 31 9 3.49411 0 100 3.49411 0
gene 1 1 31 2.23324 0 117 2.23324 1
gene 3 1 9 0.838311 0 142 0.838311 1
gene 3 3 15 -2.62773 0 262 -2.62773 1
gene 1 31 113 2.93022 0 399 2.93022 1
gene 1 113 9 0.0810449 0 400 0.0810449 1
gene 3 113 4 -1.47242 0 423 -1.47242 1
genomeend 55

/* Organism #56 Fitness: 15.9533 Error: 0.00584028 */
/* ##------$ WINNER 56 SPECIES #13 $------## */
genomestart 56
trait 1 0.1 0 0 0 0 0 0.218837 0 
trait 2 0.2 0 0 0.414968 0.385364 0 0.164161 0 
trait 3 1 0 0 0 0 0.966912 0 0 
node 1 1 1 3
node 2 2 1 1
node 3 3 1 1
node 4 3 0 2
node 9 1 0 0
node 15 1 0 0
node 31 2 0 0
node 113 1 0 0
gene 3 1 4 -1.70811 0 1 -1.70811 1
gene 3 2 4 -2.42331 0 2 -2.42331 1
gene 3 3 4 -3.40062 0 3 -3.40062 1
gene 2 3 9 0.0696559 0 12 0.0696559 1
gene 3 9 4 6.70288 0 13 6.70288 1
gene 1 2 9 2.14762 0 22 2.14762 1
gene 3 2 15 -4.48543 0 29 -4.48543 1
gene 3 15 4 -3.61747 0 30 -3.61747 1
gene 3 15 9 -5.95028 0 46 -5.95028 1
gene 1 2 31 2.25267 0 99 2.25267 1
gene 1 31 9 1.96075 0 100 1.96075 0
gene 1 1 31 -2.62797 0 117 -2.62797 1
gene 3 1 9 -0.306272 0 142 -0.306272 1
gene 3 3 15 -3.48961 0 262 -3.48961 1
gene 1 31 113 1.78317 0 399 1.78317 1
gene 1 113 9 2.03347 0 400 2.03347 1
gene 3 113 4 -0.395495 0 423 -0.395495 1
genomeend 56

/* Organism #57 Fitness: 3.99932 Error: 2.00017 */
genomestart 57
trait 1 0.1 0 0 0 0 0 0.218837 0 
trait 2 0.2 0 0 0.414968 0.385364 0 0.164161 0 
trait 3 0.825 0 0 0 0 0.725184 0 0 
node 1 1 1 3
node 2 2 1 1
node 3 3 1 1
node 4 3 0 2
node 9 1 0 0
node 15 1 0 0
node 31 2 0 0
node 113 1 0 0
gene 3 1 4 -3.8354 0 1 -3.8354 1
gene 3 2 4 -2.7606 0 2 -2.7606 1
gene 3 3 4 -2.34188 0 3 -2.34188 1
gene 2 3 9 1.69124 0 12 1.69124 1
gene 3 9 4 8 0 13 8 1
gene 1 2 9 2.234 0 22 2.234 1
gene 3 2 15 -8 0 29 -8 1
gene 3 15 4 -2.00206 0 30 -2.00206 1
gene 3 15 9 -4.69583 0 46 -4.69583 1
gene 1 2 31 -0.731969 0 99 -0.731969 1
gene 1 31 9 4.27098 0 100 4.27098 0
gene 1 1 31 -3.61788 0 117 -3.61788 1
gene 3 1 9 -3.42804 0 142 -3.42804 1
gene 3 3 15 -0.979775 0 262 -0.979775 1
gene 1 31 113 3.5605 0 399 3.5605 1
gene 1 113 9 2.58675 0 400 2.58675 1
gene 3 113 4 -1.63119 0 423 -1.63119 1
genomeend 57

/* Organism #58 Fitness: 3.87013 Error: 2.03273 */
genomestart 58
trait 1 0.762052 0 0.499116 0 0.734846 0 0.851828 0.639403 
trait 2 0.2 0 0 0.414968 0.385364 0 0.164161 0 
trait 3 0.65 0 0 0 0 0.483456 0 0 
node 1 1 1 3
node 2 2 1 1
node 3 3 1 1
node 4 3 0 2
node 9 1 0 0
node 15 1 0 0
node 31 2 0 0
node 113 1 0 0
gene 3 1 4 -2.05224 0 1 -2.05224 1
gene 3 2 4 0.030594 0 2 0.030594 1
gene 3 3 4 1.35813 0 3 1.35813 1
gene 2 3 9 -0.815591 0 12 -0.815591 1
gene 3 9 4 3.43006 0 13 3.43006 1
gene 3 2 9 3.56916 0 22 3.56916 1
gene 3 2 15 -6.47523 0 29 -6.47523 1
gene 3 15 4 1.54272 0 30 1.54272 1
gene 3 15 9 -6.98427 0 46 -6.98427 1
gene 1 2 31 0.221149 0 99 0.221149 1
gene 1 31 9 6.34305 0 100 6.34305 0
gene 1 1 31 0.487723 0 117 0.487723 1
gene 3 1 9 0.0258101 0 142 0.0258101 1
gene 3 3 15 -4.21009 0 262 -4.21009 1
gene 1 31 113 0.659332 0 399 0.659332 1
gene 1 113 9 -2.4033 0 400 -2.4033 1
gene 3 113 4 -0.752667 0 423 -0.752667 1
genomeend 58

/* Organism #59 Fitness: 11.5868 Error: 0.596059 */
genomestart 59
trait 1 0.1 0 0 0 0 0 0.218837 0 
trait 2 0.2 0 0 0.414968 0.385364 0 0.164161 0 
trait 3 0.65 0 0 0 0 0.483456 0 0 
node 1 1 1 3
node 2 2 1 1
node 3 3 1 1
node 4 3 0 2
node 9 1 0 0
node 15 1 0 0
node 31 2 0 0
node 113 1 0 0
gene 3 1 4 -2.05224 0 1 -2.05224 1
gene 3 2 4 -4.08501 0 2 -4.08501 1
gene 3 3 4 -1.50392 0 3 -1.50392 1
gene 2 3 9 4.52631 0 12 4.52631 1
gene 3 9 4 5.73361 0 13 5.73361 1
gene 1 2 9 -0.497791 0 22 -0.497791 1
gene 3 2 15 -7.53731 0 29 -7.53731 1
gene 3 15 4 -0.356557 0 30 -0.356557 1
gene 3 15 9 -5.53657 0 46 -5.53657 1
gene 1 2 31 2.56325 0 99 2.56325 1
gene 1 31 9 0.088213 0 100 0.088213 0
gene 1 1 31 -1.20615 0 117 -1.20615 1
gene 3 1 9 -0.753516 0 142 -0.753516 1
gene 3 3 15 -2.16472 0 262 -2.16472 1
gene 1 31 113 1.02887 0 399 1.02887 1
gene 1 113 9 3.06034 0 400 3.06034 1
gene 3 113 4 1.9968 0 423 1.9968 1
genomeend 59

/* Species #14 : (Size 6) (AF 8.54528) (Age 31)  */


/* Organism #60 Fitness: 9 Error: 1 */
genomestart 60
trait 1 0.345054 0.0464972 0 0 0.39234 0 0 0.24567 
trait 2 0.2 0 0 0 0 0 0 0 
trait 3 0.3 0.138387 0 0 0 0 0 0 
node 1 1 1 3
node 2 3 1 1
node 3 3 1 1
node 4 2 0 2
node 10 1 0 0
node 26 1 0 0
node 29 1 0 0
node 34 1 0 0
gene 1 1 4 -6.15927 0 1 -6.15927 1
gene 2 2 4 8 0 2 8 1
gene 3 3 4 -8 0 3 -8 1
gene 2 2 10 1.34359 0 14 1.34359 1
gene 2 10 4 4.67451 0 15 4.67451 1
gene 1 3 10 -2.45274 0 62 -2.45274 1
gene 3 3 26 0.714685 0 67 0.714685 1
gene 3 26 4 -3.83176 0 68 -3.83176 1
gene 1 3 29 4.91158 0 85 4.91158 1
gene 1 29 10 -0.819633 0 86 -0.819633 1
gene 3 1 29 2.7872 0 103 2.7872 1
gene 2 10 34 -1.70684 0 110 -1.70684 1
gene 2 34 4 4.98233 0 111 4.98233 1
gene 2 2 26 -1.40525 0 401 -1.40525 1
genomeend 60

/* Organism #61 Fitness: 6.2718 Error: 1.49564 */
genomestart 61
trait 1 0.345054 0.0464972 0 0 0.39234 0 0 0.24567 
trait 2 0.2 0 0 0 0 0 0 0 
trait 3 0.3 0.138387 0 0 0 0 0 0 
node 1 1 1 3
node 2 3 1 1
node 3 3 1 1
node 4 2 0 2
node 10 1 0 0
node 26 1 0 0
node 29 1 0 0
node 34 1 0 0
gene 1 1 4 -5.15858 0 1 -5.15858 1
gene 2 2 4 5.53032 0 2 5.53032 1
gene 3 3 4 -5.76395 0 3 -5.76395 1
gene 2 2 10 0.800903 0 14 0.800903 1
gene 2 10 4 4.0869 0 15 4.0869 1
gene 1 3 10 -2.84934 0 62 -2.84934 1
gene 3 3 26 0.222817 0 67 0.222817 1
gene 3 26 4 -1.57326 0 68 -1.57326 1
gene 1 3 29 6.36629 0 85 6.36629 1
gene 1 29 10 -1.06261 0 86 -1.06261 1
gene 3 1 29 2.68996 0 103 2.68996 1
gene 2 10 34 -3.90584 0 110 -3.90584 1
gene 2 34 4 4.21962 0 111 4.21962 1
gene 2 2 26 0.331823 0 401 0.331823 1
genomeend 61

/* Organism #62 Fitness: 9 Error: 1 */
genomestart 62
trait 1 0.345054 0.0464972 0 0 0.39234 0 0 0.24567 
trait 2 0.2 0 0 0 0 0 0 0 
trait 3 0.3 0.138387 0 0 0 0 0 0 
node 1 1 1 3
node 2 3 1 1
node 3 3 1 1
node 4 2 0 2
node 10 1 0 0
node 26 1 0 0
node 29 1 0 0
node 34 1 0 0
gene 1 1 4 -4.7942 0 1 -4.7942 1
gene 2 2 4 7.49566 0 2 7.49566 1
gene 3 3 4 -7.30872 0 3 -7.30872 1
gene 2 2 10 1.00827 0 14 1.00827 1
gene 2 10 4 5.83791 0 15 5.83791 1
gene 1 3 10 -3.55422 0 62 -3.55422 1
gene 3 3 26 0.0805316 0 67 0.0805316 1
gene 3 26 4 -1.9871 0 68 -1.9871 1
gene 1 3 29 4.05823 0 85 4.05823 1
gene 1 29 10 -3.18608 0 86 -3.18608 1
gene 3 1 29 2.77338 0 103 2.77338 1
gene 2 10 34 -1.54094 0 110 -1.54094 1
gene 2 34 4 1.32929 0 111 1.32929 1
gene 2 2 26 -0.263731 0 401 -0.263731 1
genomeend 62

/* Organism #63 Fitness: 9 Error: 1 */
genomestart 63
trait 1 0.345054 0.0464972 0 0 0.39234 0 0 0.24567 
trait 2 0.2 0 0 0 0 0 0 0 
trait 3 0.3 0.138387 0 0 0 0 0 0 
node 1 1 1 3
node 2 3 1 1
node 3 3 1 1
node 4 2 0 2
node 10 1 0 0
node 26 1 0 0
node 29 1 0 0
node 34 1 0 0
gene 1 1 4 -5.35261 0 1 -5.35261 1
gene 2 2 4 8 0 2 8 1
gene 3 3 4 -8 0 3 -8 1
gene 2 2 10 0.210684 0 14 0.210684 1
gene 2 10 4 5.32478 0 15 5.32478 1
gene 1 3 10 -2.37152 0 62 -2.37152 1
gene 3 3 26 0.898285 0 67 0.898285 1
gene 3 26 4 -4.83753 0 68 -4.83753 1
gene 1 3 29 3.79008 0 85 3.79008 1
gene 1 29 10 -1.78682 0 86 -1.78682 1
gene 3 1 29 3.36321 0 103 3.36321 1
gene 2 10 34 -2.71879 0 110 -2.71879 1
gene 2 34 4 2.07895 0 111 2.07895 1
gene 2 2 26 -1.75236 0 401 -1.75236 1
genomeend 63

/* Organism #64 Fitness: 9 Error: 1 */
genomestart 64
trait 1 0.345054 0.0464972 0 0 0.39234 0 0 0.24567 
trait 2 0.2 0 0 0 0 0 0 0 
trait 3 0.3 0.138387 0 0 0 0 0 0 
node 1 1 1 3
node 2 3 1 1
node 3 3 1 1
node 4 2 0 2
node 10 1 0 0
node 26 1 0 0
node 29 1 0 0
node 34 1 0 0
gene 1 1 4 -4.68799 0 1 -4.68799 1
gene 2 2 4 6.85017 0 2 6.85017 1
gene 3 3 4 -7.84704 0 3 -7.84704 1
gene 2 2 10 0.275143 0 14 0.275143 1
gene 2 10 4 4.00815 0 15 4.00815 1
gene 1 3 10 -2.9872 0 62 -2.9872 1
gene 3 3 26 1.63579 0 67 1.63579 1
gene 3 26 4 -5.93754 0 68 -5.93754 1
gene 1 3 29 3.10897 0 85 3.10897 1
gene 1 29 10 0.418928 0 86 0.418928 1
gene 3 1 29 4.17758 0 103 4.17758 1
gene 2 10 34 -1.80736 0 110 -1.80736 1
gene 2 34 4 4.21545 0 111 4.21545 1
gene 2 2 26 -1.40525 0 401 -1.40525 1
genomeend 64

/* Organism #65 Fitness: 8.9999 Error: 1.00002 */
genomestart 65
trait 1 0.345054 0.0464972 0 0 0.39234 0 0 0.24567 
trait 2 0.2 0 0 0 0 0 0 0 
trait 3 0.3 0.138387 0 0 0 0 0 0 
node 1 1 1 3
node 2 3 1 1
node 3 3 1 1
node 4 2 0 2
node 10 1 0 0
node 26 1 0 0
node 29 1 0 0
node 34 1 0 0
gene 1 1 4 -4.25994 0 1 -4.25994 1
gene 2 2 4 5.9867 0 2 5.9867 1
gene 3 3 4 -7.45147 0 3 -7.45147 1
gene 1 2 10 2.32965 0 14 2.32965 1
gene 2 10 4 3.4812 0 15 3.4812 1
gene 1 3 10 -0.523039 0 62 -0.523039 1
gene 3 3 26 -1.13207 0 67 -1.13207 1
gene 3 26 4 -1.85358 0 68 -1.85358 1
gene 1 3 29 6.51914 0 85 6.51914 1
gene 1 29 10 -0.668301 0 86 -0.668301 1
gene 3 1 29 2.14151 0 103 2.14151 1
gene 2 10 34 -1.1573 0 110 -1.1573 1
gene 2 34 4 4.98233 0 111 4.98233 1
gene 2 2 26 -1.25687 0 401 -1.25687 1
genomeend 65

/* Species #15 : (Size 7) (AF 7.45495) (Age 31)  */


/* Organism #66 Fitness: 9 Error: 1 */
genomestart 66
trait 1 0.1 0 0 0 0 0 0 0 
trait 2 0.2 0 0.173808 0 0 0 0.618594 0.355571 
trait 3 0.592384 0.26175 0 0.290283 0 0 0 0 
node 1 2 1 3
node 2 2 1 1
node 3 3 1 1
node 4 1 0 2
node 8 1 0 0
node 25 1 0 0
node 28 1 0 0
node 36 1 0 0
node 66 1 0 0
node 75 1 0 0
gene 2 1 4 -2.29897 0 1 -2.29897 1
gene 1 2 4 8 0 2 8 1
gene 1 3 4 -8 0 3 -8 1
gene 2 2 8 5.80114 0 10 5.80114 0
gene 1 8 4 -1.61467 0 11 -1.61467 1
gene 2 2 25 4.24231 0 64 4.24231 1
gene 2 25 8 2.02911 0 65 2.02911 1
gene 2 2 28 -0.742954 0 73 -0.742954 1
gene 2 28 25 -4.01666 0 74 -4.01666 0
gene 1 28 8 3.16118 0 96 3.16118 1
gene 1 8 36 -0.465977 0 114 -0.465977 1
gene 1 36 4 -0.460016 0 115 -0.460016 1
gene 2 2 66 -0.399108 0 214 -0.399108 1
gene 2 66 28 0.0557206 0 215 0.0557206 1
gene 1 28 75 -3.88492 0 249 -3.88492 1
gene 2 75 25 -2.8827 0 250 -2.8827 1
gene 2 66 8 -0.197102 0 352 -0.197102 1
genomeend 66

/* Organism #67 Fitness: 8.48413 Error: 1.08725 */
genomestart 67
trait 1 0.1 0 0 0 0 0 0 0 
trait 2 0.2 0 0.173808 0 0 0 0.618594 0.355571 
trait 3 0.592384 0.26175 0 0.290283 0 0 0 0 
node 1 2 1 3
node 2 2 1 1
node 3 3 1 1
node 4 1 0 2
node 8 2 0 0
node 25 1 0 0
node 28 1 0 0
node 36 1 0 0
node 66 1 0 0
node 75 1 0 0
gene 2 1 4 -2.96977 0 1 -2.96977 1
gene 1 2 4 6.08644 0 2 6.08644 1
gene 1 3 4 -8 0 3 -8 1
gene 2 2 8 4.12198 0 10 4.12198 0
gene 1 8 4 -2.64106 0 11 -2.64106 1
gene 2 2 25 3.25896 0 64 3.25896 1
gene 2 25 8 1.58057 0 65 1.58057 1
gene 2 2 28 -1.50494 0 73 -1.50494 1
gene 2 28 25 -5.39871 0 74 -5.39871 0
gene 1 28 8 1.43012 0 96 1.43012 1
gene 1 8 36 -2.59705 0 114 -2.59705 1
gene 1 36 4 -1.09981 0 115 -1.09981 1
gene 2 2 66 -1.08141 0 214 -1.08141 1
gene 2 66 28 -2.01539 0 215 -2.01539 1
gene 1 28 75 -3.90458 0 249 -3.90458 1
gene 2 75 25 -2.8827 0 250 -2.8827 1
gene 2 66 8 -2.12018 0 352 -2.12018 1
genomeend 67

/* Organism #68 Fitness: 3.70185 Error: 2.07598 */
genomestart 68
trait 1 0.1 0 0 0 0 0 0 0 
trait 2 0.2 0 0.173808 0 0 0 0.618594 0.355571 
trait 3 0.592384 0.26175 0 0.290283 0 0 0 0 
node 1 2 1 3
node 2 2 1 1
node 3 3 1 1
node 4 1 0 2
node 8 1 0 0
node 25 1 0 0
node 28 1 0 0
node 36 1 0 0
node 66 1 0 0
node 75 1 0 0
gene 2 1 4 -0.10869 0 1 -0.10869 1
gene 1 2 4 8 0 2 8 1
gene 1 3 4 -5.98269 0 3 -5.98269 1
gene 2 2 8 3.78398 0 10 3.78398 0
gene 1 8 4 -1.00297 0 11 -1.00297 1
gene 2 2 25 3.298 0 64 3.298 1
gene 2 25 8 0.592949 0 65 0.592949 1
gene 2 2 28 -2.14054 0 73 -2.14054 1
gene 2 28 25 -4.97563 0 74 -4.97563 1
gene 1 28 8 1.93983 0 96 1.93983 1
gene 1 8 36 0.0219858 0 114 0.0219858 1
gene 1 36 4 1.14235 0 115 1.14235 1
gene 2 2 66 -2.81868 0 214 -2.81868 1
gene 2 66 28 1.75684 0 215 1.75684 1
gene 1 28 75 -3.24764 0 249 -3.24764 1
gene 2 75 25 -2.8827 0 250 -2.8827 1
gene 2 66 8 -1.55753 0 352 -1.55753 1
genomeend 68

/* Organism #69 Fitness: 8.99979 Error: 1.00003 */
genomestart 69
trait 1 0.1 0 0.75714 0.184506 0.00046658 0 0 0.884194 
trait 2 0.2 0 0.173808 0 0 0 0.618594 0.355571 
trait 3 0.592384 0.26175 0 0.290283 0 0 0 0 
node 1 2 1 3
node 2 2 1 1
node 3 3 1 1
node 4 1 0 2
node 8 1 0 0
node 25 1 0 0
node 28 1 0 0
node 36 1 0 0
node 66 1 0 0
node 75 1 0 0
gene 2 1 4 -3.19785 0 1 -3.19785 1
gene 1 2 4 8 0 2 8 1
gene 1 3 4 -8 0 3 -8 1
gene 2 2 8 4.84802 0 10 4.84802 1
gene 1 8 4 -2.71535 0 11 -2.71535 1
gene 2 2 25 5.56109 0 64 5.56109 1
gene 2 25 8 4.29435 0 65 4.29435 1
gene 2 2 28 1.64393 0 73 1.64393 1
gene 2 28 25 -5.09053 0 74 -5.09053 0
gene 1 28 8 5.46381 0 96 5.46381 1
gene 1 8 36 -1.75365 0 114 -1.75365 1
gene 1 36 4 -1.52896 0 115 -1.52896 1
gene 2 2 66 0.470937 0 214 0.470937 1
gene 2 66 28 1.64176 0 215 1.64176 1
gene 1 28 75 -3.88492 0 249 -3.88492 1
gene 2 75 25 -2.8827 0 250 -2.8827 1
gene 2 66 8 -2.0627 0 352 -2.0627 1
genomeend 69

/* Organism #70 Fitness: 4 Error: 2 */
genomestart 70
trait 1 0 0.170261 0 0.0933119 0.0372078 0 0 0 
trait 2 0.2 0 0.173808 0 0 0 0.618594 0.355571 
trait 3 0.592384 0.26175 0 0.290283 0 0 0 0 
node 1 2 1 3
node 2 2 1 1
node 3 3 1 1
node 4 1 0 2
node 8 1 0 0
node 25 2 0 0
node 28 1 0 0
node 36 1 0 0
node 66 1 0 0
node 75 1 0 0
gene 2 1 4 -2.95902 0 1 -2.95902 1
gene 1 2 4 7.79164 0 2 7.79164 1
gene 1 3 4 -0.11547 0 3 -0.11547 1
gene 2 2 8 5.80114 0 10 5.80114 0
gene 1 8 4 -1.61467 0 11 -1.61467 1
gene 2 2 25 1.86193 0 64 1.86193 1
gene 2 25 8 0.447009 0 65 0.447009 1
gene 2 2 28 -2.507 0 73 -2.507 1
gene 2 28 25 -4.66074 0 74 -4.66074 0
gene 2 28 8 0.826959 0 96 0.826959 1
gene 1 8 36 -1.16918 0 114 -1.16918 1
gene 1 36 4 1.79933 0 115 1.79933 1
gene 2 2 66 1.34204 0 214 1.34204 1
gene 2 66 28 1.73774 0 215 1.73774 1
gene 1 28 75 -5.7411 0 249 -5.7411 1
gene 2 75 25 -5.00604 0 250 -5.00604 1
gene 2 66 8 -1.37456 0 352 -1.37456 1
genomeend 70

/* Organism #71 Fitness: 8.99968 Error: 1.00005 */
genomestart 71
trait 1 0.1 0 0 0 0 0 0 0 
trait 2 0.2 0 0.173808 0 0 0 0.618594 0.355571 
trait 3 0.592384 0.26175 0 0.290283 0 0 0 0 
node 1 2 1 3
node 2 2 1 1
node 3 3 1 1
node 4 1 0 2
node 8 1 0 0
node 25 1 0 0
node 28 1 0 0
node 36 1 0 0
node 66 1 0 0
node 75 1 0 0
gene 2 1 4 -2.63432 0 1 -2.63432 1
gene 1 2 4 8 0 2 8 1
gene 1 3 4 -8 0 3 -8 1
gene 2 2 8 3.90617 0 10 3.90617 1
gene 1 8 4 0.621361 0 11 0.621361 1
gene 2 2 25 0.635602 0 64 0.635602 1
gene 2 25 8 2.02911 0 65 2.02911 1
gene 2 2 28 -0.343175 0 73 -0.343175 1
gene 2 28 25 -3.5638 0 74 -3.5638 1
gene 2 28 8 -1.05646 0 96 -1.05646 1
gene 1 8 36 -1.84131 0 114 -1.84131 1
gene 1 36 4 -2.40883 0 115 -2.40883 1
gene 2 2 66 0.504012 0 214 0.504012 1
gene 2 66 28 -1.39744 0 215 -1.39744 1
gene 1 28 75 1.17666 0 249 1.17666 1
gene 2 75 25 -2.27639 0 250 -2.27639 1
gene 2 66 8 -0.197102 0 352 -0.197102 1
genomeend 71

/* Organism #72 Fitness: 8.99916 Error: 1.00014 */
genomestart 72
trait 1 0.1 0 0 0 0 0 0 0 
trait 2 0.2 0 0.173808 0 0 0 0.618594 0.355571 
trait 3 0.592384 0.26175 0 0.290283 0 0 0 0 
node 1 2 1 3
node 2 2 1 1
node 3 3 1 1
node 4 1 0 2
node 8 1 0 0
node 25 1 0 0
node 28 1 0 0
node 36 1 0 0
node 66 1 0 0
node 75 1 0 0
gene 2 1 4 -0.561995 0 1 -0.561995 1
gene 1 2 4 7.28467 0 2 7.28467 1
gene 1 3 4 -5.69661 0 3 -5.69661 1
gene 2 2 8 5.01471 0 10 5.01471 0
gene 1 8 4 -3.12017 0 11 -3.12017 1
gene 2 2 25 4.60248 0 64 4.60248 1
gene 2 25 8 0.570615 0 65 0.570615 1
gene 2 2 28 0.437886 0 73 0.437886 1
gene 2 28 25 -4.01666 0 74 -4.01666 0
gene 1 28 8 5.02467 0 96 5.02467 1
gene 1 8 36 0.358373 0 114 0.358373 1
gene 1 36 4 0.342055 0 115 0.342055 1
gene 2 2 66 -2.548 0 214 -2.548 1
gene 2 66 28 2.50459 0 215 2.50459 1
gene 1 28 75 1.4255 0 249 1.4255 1
gene 2 75 25 -3.89113 0 250 -3.89113 1
gene 2 66 8 1.39418 0 352 1.39418 1
genomeend 72

/* Species #17 : (Size 8) (AF 8.37493) (Age 29)  */


/* Organism #73 Fitness: 9 Error: 1 */
genomestart 73
trait 1 0.1 0 0 0 0 0 0 0 
trait 2 0.2 0 0 0 0 0 0 0 
trait 3 0.3 0 0.511366 0 0 0.390318 0 0 
node 1 1 1 3
node 2 3 1 1
node 3 3 1 1
node 4 2 0 2
node 9 1 0 0
node 24 1 0 0
gene 2 1 4 -4.04813 0 1 -4.04813 1
gene 3 2 4 8 0 2 8 1
gene 1 3 4 -8 0 3 -8 1
gene 3 3 9 -2.13959 0 12 -2.13959 1
gene 3 9 4 2.75927 0 13 2.75927 1
gene 1 2 9 1.39501 0 22 1.39501 0
gene 1 2 24 -0.880845 0 59 -0.880845 1
gene 1 24 9 1.84998 0 60 1.84998 1
gene 2 1 24 3.46676 0 109 3.46676 1
gene 1 1 9 -2.55224 0 122 -2.55224 1
genomeend 73

/* Organism #74 Fitness: 9 Error: 1 */
genomestart 74
trait 1 0.1 0 0 0 0 0 0 0 
trait 2 0.2 0 0 0 0 0 0 0 
trait 3 0.3 0 0.511366 0 0 0.390318 0 0 
node 1 1 1 3
node 2 3 1 1
node 3 2 1 1
node 4 2 0 2
node 9 1 0 0
node 24 1 0 0
gene 2 1 4 -4.14401 0 1 -4.14401 1
gene 3 2 4 6.93277 0 2 6.93277 1
gene 1 3 4 -8 0 3 -8 1
gene 3 3 9 -0.569631 0 12 -0.569631 1
gene 3 9 4 1.01946 0 13 1.01946 1
gene 1 2 9 -0.656532 0 22 -0.656532 0
gene 1 2 24 0.720625 0 59 0.720625 1
gene 3 24 9 0.808648 0 60 0.808648 1
gene 2 1 24 2.92221 0 109 2.92221 1
gene 1 1 9 1.61179 0 122 1.61179 1
genomeend 74

/* Organism #75 Fitness: 3.99946 Error: 2.00014 */
genomestart 75
trait 1 0.1 0 0 0 0 0 0 0 
trait 2 0.2 0 0 0 0 0 0 0 
trait 3 0.3 0 0.511366 0 0 0.390318 0 0 
node 1 1 1 3
node 2 3 1 1
node 3 3 1 1
node 4 2 0 2
node 9 1 0 0
node 24 1 0 0
gene 2 1 4 -1.80528 0 1 -1.80528 1
gene 3 2 4 8 0 2 8 1
gene 1 3 4 -8 0 3 -8 1
gene 3 3 9 -2.63504 0 12 -2.63504 1
gene 3 9 4 4.46439 0 13 4.46439 1
gene 1 2 9 1.1871 0 22 1.1871 0
gene 1 2 24 -3.27164 0 59 -3.27164 1
gene 1 24 9 2.76054 0 60 2.76054 1
gene 2 1 24 3.17904 0 109 3.17904 1
gene 1 1 9 -0.892754 0 122 -0.892754 1
genomeend 75

/* Organism #76 Fitness: 9 Error: 1 */
genomestart 76
trait 1 0.1 0 0 0 0 0 0 0 
trait 2 0.2 0 0 0 0 0 0 0 
trait 3 0.3 0 0.511366 0 0 0.390318 0 0 
node 1 1 1 3
node 2 3 1 1
node 3 3 1 1
node 4 2 0 2
node 9 1 0 0
node 24 1 0 0
gene 2 1 4 -3.40945 0 1 -3.40945 1
gene 3 2 4 7.0792 0 2 7.0792 1
gene 1 3 4 -8 0 3 -8 1
gene 3 3 9 -0.635134 0 12 -0.635134 1
gene 3 9 4 1.96538 0 13 1.96538 1
gene 1 2 9 3.1774 0 22 3.1774 0
gene 1 2 24 -2.30088 0 59 -2.30088 1
gene 1 24 9 0.159362 0 60 0.159362 1
gene 2 1 24 3.34891 0 109 3.34891 1
gene 1 1 9 -1.03864 0 122 -1.03864 1
genomeend 76

/* Organism #77 Fitness: 9 Error: 1 */
genomestart 77
trait 1 0.1 0 0 0 0 0 0 0 
trait 2 0.2 0 0 0 0 0 0 0 
trait 3 0 0.990284 0.511366 0 0 0 0 0 
node 1 1 1 3
node 2 3 1 1
node 3 3 1 1
node 4 2 0 2
node 9 1 0 0
node 24 1 0 0
gene 2 1 4 -4.04813 0 1 -4.04813 1
gene 3 2 4 8 0 2 8 1
gene 1 3 4 -8 0 3 -8 1
gene 3 3 9 -2.13959 0 12 -2.13959 1
gene 3 9 4 2.75927 0 13 2.75927 1
gene 1 2 9 1.39501 0 22 1.39501 0
gene 1 2 24 -0.880845 0 59 -0.880845 1
gene 1 24 9 1.84998 0 60 1.84998 1
gene 2 1 24 3.46676 0 109 3.46676 1
gene 1 1 9 -2.55224 0 122 -2.55224 1
genomeend 77

/* Organism #78 Fitness: 9 Error: 1 */
genomestart 78
trait 1 0.1 0 0 0 0 0 0 0 
trait 2 0.2 0 0 0 0 0 0 0 
trait 3 0.3 0 0.511366 0 0 0.390318 0 0 
node 1 1 1 3
node 2 3 1 1
node 3 3 1 1
node 4 2 0 2
node 9 1 0 0
node 24 1 0 0
gene 2 1 4 -3.97289 0 1 -3.97289 1
gene 3 2 4 8 0 2 8 1
gene 1 3 4 -6.94267 0 3 -6.94267 1
gene 3 3 9 -1.9033 0 12 -1.9033 1
gene 3 9 4 1.80569 0 13 1.80569 1
gene 1 2 9 2.14404 0 22 2.14404 0
gene 1 2 24 -0.615001 0 59 -0.615001 1
gene 1 24 9 -0.245445 0 60 -0.245445 1
gene 2 1 24 5.80849 0 109 5.80849 1
gene 1 1 9 -3.68372 0 122 -3.68372 1
genomeend 78

/* Organism #79 Fitness: 9 Error: 1 */
genomestart 79
trait 1 0.1 0 0 0 0 0 0 0 
trait 2 0.2 0 0 0 0 0 0 0 
trait 3 0.3 0 0.511366 0 0 0.390318 0 0 
node 1 1 1 3
node 2 3 1 1
node 3 3 1 1
node 4 2 0 2
node 9 1 0 0
node 24 1 0 0
gene 2 1 4 -4.04813 0 1 -4.04813 1
gene 3 2 4 8 0 2 8 1
gene 1 3 4 -8 0 3 -8 1
gene 3 3 9 -2.13959 0 12 -2.13959 1
gene 3 9 4 2.75927 0 13 2.75927 1
gene 1 2 9 1.39501 0 22 1.39501 0
gene 1 2 24 -0.880845 0 59 -0.880845 1
gene 1 24 9 1.84998 0 60 1.84998 1
gene 2 1 24 3.46676 0 109 3.46676 1
gene 1 1 9 -2.55224 0 122 -2.55224 1
genomeend 79

/* Organism #80 Fitness: 9 Error: 1 */
genomestart 80
trait 1 0.1 0 0 0 0 0 0 0 
trait 2 0.2 0 0 0 0 0 0 0 
trait 3 0.3 0 0.511366 0 0 0.390318 0 0 
node 1 1 1 3
node 2 3 1 1
node 3 3 1 1
node 4 2 0 2
node 9 1 0 0
node 24 1 0 0
node 126 1 0 0
gene 2 1 4 -4.04813 0 1 -4.04813 1
gene 3 2 4 8 0 2 8 1
gene 1 3 4 -8 0 3 -8 1
gene 3 3 9 -2.13959 0 12 -2.13959 0
gene 3 9 4 2.75927 0 13 2.75927 1
gene 1 2 9 1.39501 0 22 1.39501 0
gene 1 2 24 -0.880845 0 59 -0.880845 1
gene 1 24 9 1.84998 0 60 1.84998 1
gene 2 1 24 3.46676 0 109 3.46676 1
gene 1 1 9 -2.55224 0 122 -2.55224 1
gene 3 3 126 1 0 450 0 1
gene 3 126 9 -2.13959 0 451 0 1
genomeend 80

/* Species #18 : (Size 5) (AF 8) (Age 25)  */


/* Organism #81 Fitness: 9 Error: 1 */
genomestart 81
trait 1 0.1 0 0 0 0 0 0 0 
trait 2 0.2 0 0 0 0 0 0.328321 0 
trait 3 0.15 0 0.180508 0 0 0 0 0 
node 1 1 1 3
node 2 1 1 1
node 3 3 1 1
node 4 2 0 2
node 9 1 0 0
node 15 1 0 0
node 31 1 0 0
node 57 1 0 0
node 127 1 0 0
gene 3 1 4 -5.64313 0 1 -5.64313 1
gene 3 2 4 6.15941 0 2 6.15941 1
gene 3 3 4 5.84018 0 3 5.84018 1
gene 3 3 9 4.11414 0 12 4.11414 1
gene 3 9 4 7.48492 0 13 7.48492 1
gene 1 2 9 0.524057 0 22 0.524057 1
gene 3 2 15 -3.71253 0 29 -3.71253 1
gene 3 15 4 -0.137818 0 30 -0.137818 1
gene 3 15 9 -5.4484 0 46 -5.4484 1
gene 1 2 31 6.30989 0 99 6.30989 0
gene 1 31 9 -3.44653 0 100 -3.44653 1
gene 1 1 31 -2.08531 0 117 -2.08531 1
gene 1 2 57 -1.71928 0 180 -1.71928 0
gene 1 57 31 -0.222957 0 181 -0.222957 1
gene 3 57 4 -0.0599512 0 328 -0.0599512 1
gene 1 2 127 1 0 452 0 1
gene 1 127 57 -1.71928 0 453 0 1
genomeend 81

/* Organism #82 Fitness: 9 Error: 1 */
genomestart 82
trait 1 0.1 0 0 0 0 0 0 0 
trait 2 0.2 0 0 0 0 0 0.328321 0 
trait 3 0.15 0 0.180508 0 0 0 0 0 
node 1 1 1 3
node 2 1 1 1
node 3 3 1 1
node 4 2 0 2
node 9 1 0 0
node 15 1 0 0
node 31 1 0 0
node 57 1 0 0
gene 3 1 4 -5.22895 0 1 -5.22895 1
gene 3 2 4 5.36386 0 2 5.36386 1
gene 3 3 4 7.0051 0 3 7.0051 1
gene 3 3 9 4.51796 0 12 4.51796 1
gene 3 9 4 8 0 13 8 1
gene 1 2 9 1.62947 0 22 1.62947 1
gene 3 2 15 -3.09509 0 29 -3.09509 1
gene 3 15 4 -0.744281 0 30 -0.744281 1
gene 3 15 9 -6.13977 0 46 -6.13977 1
gene 1 2 31 4.58191 0 99 4.58191 0
gene 1 31 9 -5.2817 0 100 -5.2817 1
gene 1 1 31 -1.22369 0 117 -1.22369 1
gene 1 2 57 0.702073 0 180 0.702073 1
gene 1 57 31 -1.24973 0 181 -1.24973 1
gene 3 57 4 -0.0599512 0 328 -0.0599512 1
genomeend 82

/* Organism #83 Fitness: 9 Error: 1 */
genomestart 83
trait 1 0.1 0 0 0 0 0 0 0 
trait 2 0.2 0 0 0 0 0 0.328321 0 
trait 3 0.15 0 0.180508 0 0 0 0 0 
node 1 1 1 3
node 2 1 1 1
node 3 3 1 1
node 4 2 0 2
node 9 1 0 0
node 15 1 0 0
node 31 1 0 0
node 57 1 0 0
gene 3 1 4 -6.30842 0 1 -6.30842 1
gene 3 2 4 5.03005 0 2 5.03005 1
gene 3 3 4 5.84018 0 3 5.84018 1
gene 3 3 9 4.11414 0 12 4.11414 1
gene 3 9 4 8 0 13 8 1
gene 1 2 9 0.524057 0 22 0.524057 1
gene 3 2 15 -3.95365 0 29 -3.95365 1
gene 3 15 4 3.43126 0 30 3.43126 1
gene 3 15 9 -5.4484 0 46 -5.4484 1
gene 1 2 31 8 0 99 8 0
gene 1 31 9 -1.72446 0 100 -1.72446 1
gene 1 1 31 -4.50494 0 117 -4.50494 1
gene 1 2 57 -1.71928 0 180 -1.71928 1
gene 1 57 31 -0.222957 0 181 -0.222957 1
gene 3 57 4 1.06427 0 328 1.06427 1
gene 1 57 15 -0.775112 0 454 -0.775112 1
genomeend 83

/* Organism #84 Fitness: 9 Error: 1 */
genomestart 84
trait 1 0.1 0 0 0 0 0 0 0 
trait 2 0.2 0 0 0 0 0 0.328321 0 
trait 3 0.15 0 0.180508 0 0 0 0 0 
node 1 1 1 3
node 2 1 1 1
node 3 3 1 1
node 4 2 0 2
node 9 1 0 0
node 15 1 0 0
node 31 1 0 0
node 57 1 0 0
gene 3 1 4 -3.62308 0 1 -3.62308 1
gene 3 2 4 6.39631 0 2 6.39631 1
gene 3 3 4 6.94607 0 3 6.94607 1
gene 3 3 9 3.21818 0 12 3.21818 1
gene 3 9 4 8 0 13 8 1
gene 1 2 9 1.72544 0 22 1.72544 1
gene 3 2 15 -6.21443 0 29 -6.21443 1
gene 3 15 4 0.122834 0 30 0.122834 1
gene 3 15 9 -4.60106 0 46 -4.60106 1
gene 1 2 31 5.75716 0 99 5.75716 0
gene 1 31 9 -2.80577 0 100 -2.80577 1
gene 1 1 31 -2.45786 0 117 -2.45786 1
gene 1 2 57 2.06334 0 180 2.06334 1
gene 1 57 31 -0.372726 0 181 -0.372726 1
gene 3 57 4 -0.0599512 0 328 -0.0599512 1
genomeend 84

/* Organism #85 Fitness: 4 Error: 2 */
genomestart 85
trait 1 0.1 0 0 0 0 0 0 0 
trait 2 0.2 0 0 0 0 0 0.328321 0 
trait 3 0.15 0 0.180508 0 0 0 0 0 
node 1 1 1 3
node 2 1 1 1
node 3 3 1 1
node 4 2 0 2
node 9 1 0 0
node 15 1 0 0
node 31 1 0 0
node 57 1 0 0
gene 3 1 4 1.62478 0 1 1.62478 1
gene 3 2 4 3.88596 0 2 3.88596 1
gene 3 3 4 4.21051 0 3 4.21051 1
gene 3 3 9 6.36345 0 12 6.36345 1
gene 3 9 4 8 0 13 8 1
gene 1 2 9 1.24995 0 22 1.24995 1
gene 3 2 15 -3.14356 0 29 -3.14356 1
gene 3 15 4 3.43126 0 30 3.43126 1
gene 3 15 9 -7.33456 0 46 -7.33456 1
gene 1 2 31 7.42316 0 99 7.42316 0
gene 1 31 9 -2.12766 0 100 -2.12766 1
gene 1 1 31 -3.27513 0 117 -3.27513 1
gene 1 2 57 0.729356 0 180 0.729356 1
gene 1 57 31 0.766549 0 181 0.766549 1
gene 3 57 4 2.3214 0 328 2.3214 1
genomeend 85

/* Species #19 : (Size 10) (AF 8.50595) (Age 25)  */


/* Organism #86 Fitness: 9 Error: 1 */
genomestart 86
trait 1 0.1 0 0 0 0 0 0 0 
trait 2 0.2 0 0.173808 0 0 0 0.618594 0.355571 
trait 3 0.467077 0.149572 0 0.165876 0 0 0 0 
node 1 2 1 3
node 2 2 1 1
node 3 3 1 1
node 4 1 0 2
node 8 1 0 0
node 25 1 0 0
node 28 1 0 0
node 36 1 0 0
node 58 1 0 0
gene 2 1 4 -2.02416 0 1 -2.02416 1
gene 1 2 4 7.37537 0 2 7.37537 1
gene 1 3 4 -6.52861 0 3 -6.52861 1
gene 3 2 8 -3.91294 0 10 -3.91294 1
gene 1 8 4 -4.14011 0 11 -4.14011 1
gene 2 2 25 0.0274968 0 64 0.0274968 1
gene 2 25 8 0.393562 0 65 0.393562 1
gene 2 2 28 -1.76704 0 73 -1.76704 1
gene 2 28 25 0.268086 0 74 0.268086 1
gene 1 28 8 1.40671 0 96 1.40671 1
gene 1 8 36 -3.5009 0 114 -3.5009 1
gene 1 36 4 -4.90828 0 115 -4.90828 1
gene 3 3 36 8 0 157 8 1
gene 3 3 58 0.113016 0 183 0.113016 1
gene 3 58 36 -2.8964 0 184 -2.8964 1
genomeend 86

/* Organism #87 Fitness: 9 Error: 1 */
genomestart 87
trait 1 0.1 0 0 0 0 0 0 0 
trait 2 0.2 0 0.173808 0 0 0 0.618594 0.355571 
trait 3 0.467077 0.149572 0 0.165876 0 0 0 0 
node 1 2 1 3
node 2 2 1 1
node 3 3 1 1
node 4 1 0 2
node 8 1 0 0
node 25 1 0 0
node 28 1 0 0
node 36 1 0 0
node 58 1 0 0
gene 2 1 4 -2.30811 0 1 -2.30811 1
gene 1 2 4 7.51048 0 2 7.51048 1
gene 1 3 4 -5.59916 0 3 -5.59916 1
gene 3 2 8 -5.35292 0 10 -5.35292 1
gene 1 8 4 -4.90229 0 11 -4.90229 1
gene 2 2 25 -0.573502 0 64 -0.573502 1
gene 2 25 8 -0.494323 0 65 -0.494323 1
gene 2 2 28 -3.69258 0 73 -3.69258 1
gene 2 28 25 -2.11368 0 74 -2.11368 1
gene 1 28 8 3.58151 0 96 3.58151 1
gene 1 8 36 -3.12931 0 114 -3.12931 1
gene 1 36 4 -6.33114 0 115 -6.33114 1
gene 3 3 36 6.504 0 157 6.504 1
gene 3 3 58 -1.98399 0 183 -1.98399 1
gene 3 58 36 -1.71934 0 184 -1.71934 1
genomeend 87

/* Organism #88 Fitness: 9 Error: 1 */
genomestart 88
trait 1 0.1 0 0 0 0 0 0 0 
trait 2 0.2 0 0.173808 0 0 0 0.618594 0.355571 
trait 3 0.467077 0.149572 0 0.165876 0 0 0 0 
node 1 2 1 3
node 2 2 1 1
node 3 3 1 1
node 4 1 0 2
node 8 1 0 0
node 25 1 0 0
node 28 1 0 0
node 36 1 0 0
node 58 1 0 0
gene 2 1 4 -2.02416 0 1 -2.02416 1
gene 1 2 4 7.37537 0 2 7.37537 1
gene 1 3 4 -6.52861 0 3 -6.52861 1
gene 3 2 8 -3.91294 0 10 -3.91294 1
gene 1 8 4 -4.14011 0 11 -4.14011 1
gene 2 2 25 0.0274968 0 64 0.0274968 1
gene 2 25 8 0.393562 0 65 0.393562 1
gene 2 2 28 -1.76704 0 73 -1.76704 1
gene 2 28 25 0.268086 0 74 0.268086 1
gene 1 28 8 1.40671 0 96 1.40671 1
gene 1 8 36 -3.5009 0 114 -3.5009 1
gene 1 36 4 -4.90828 0 115 -4.90828 1
gene 3 3 36 8 0 157 8 1
gene 3 3 58 0.113016 0 183 0.113016 1
gene 3 58 36 -2.8964 0 184 -2.8964 1
gene 2 58 8 -0.849918 0 455 -0.849918 1
genomeend 88

/* Organism #89 Fitness: 9 Error: 1 */
genomestart 89
trait 1 0.1 0 0 0 0 0 0 0 
trait 2 0.2 0 0.173808 0 0 0 0.618594 0.355571 
trait 3 0.600308 0.112179 0.150805 0.176647 0.0623186 0 0 0 
node 1 2 1 3
node 2 2 1 1
node 3 3 1 1
node 4 1 0 2
node 8 1 0 0
node 25 1 0 0
node 28 1 0 0
node 36 1 0 0
node 58 1 0 0
gene 2 1 4 -2.02416 0 1 -2.02416 1
gene 1 2 4 8 0 2 8 1
gene 1 3 4 -6.67631 0 3 -6.67631 1
gene 3 2 8 -2.6892 0 10 -2.6892 1
gene 1 8 4 -6.51768 0 11 -6.51768 1
gene 2 2 25 0.0274968 0 64 0.0274968 1
gene 2 25 8 1.7868 0 65 1.7868 1
gene 2 2 28 -1.76704 0 73 -1.76704 1
gene 2 28 25 0.268086 0 74 0.268086 1
gene 1 28 8 1.40671 0 96 1.40671 1
gene 1 8 36 -4.16745 0 114 -4.16745 1
gene 1 36 4 -4.90828 0 115 -4.90828 1
gene 3 3 36 8 0 157 8 1
gene 3 3 58 0.113016 0 183 0.113016 1
gene 3 58 36 -2.8964 0 184 -2.8964 1
genomeend 89

/* Organism #90 Fitness: 9 Error: 1 */
genomestart 90
trait 1 0.1 0 0 0 0 0 0 0 
trait 2 0.2 0 0.173808 0 0 0 0.618594 0.355571 
trait 3 0.733538 0.0747858 0.301609 0.187418 0.124637 0 0 0 
node 1 2 1 3
node 2 2 1 1
node 3 3 1 1
node 4 1 0 2
node 8 1 0 0
node 25 1 0 0
node 28 1 0 0
node 36 1 0 0
node 58 1 0 0
gene 2 1 4 -1.7507 0 1 -1.7507 1
gene 1 2 4 8 0 2 8 1
gene 1 3 4 -8 0 3 -8 1
gene 3 2 8 -2.6892 0 10 -2.6892 1
gene 1 8 4 -7.35779 0 11 -7.35779 1
gene 2 2 25 -0.573221 0 64 -0.573221 1
gene 2 25 8 -0.00363317 0 65 -0.00363317 1
gene 2 2 28 -0.556903 0 73 -0.556903 1
gene 2 28 25 -1.52411 0 74 -1.52411 1
gene 1 28 8 2.36808 0 96 2.36808 1
gene 1 8 36 -1.92042 0 114 -1.92042 1
gene 1 36 4 -1.88817 0 115 -1.88817 1
gene 3 3 36 6.09593 0 157 6.09593 1
gene 3 3 58 0.335835 0 183 0.335835 1
gene 3 58 36 -6.10094 0 184 -6.10094 1
genomeend 90

/* Organism #91 Fitness: 9 Error: 1 */
genomestart 91
trait 1 0.1 0 0 0 0 0 0 0 
trait 2 0.2 0 0.173808 0 0 0 0.618594 0.355571 
trait 3 0.600308 0.112179 0.150805 0.176647 0.0623186 0 0 0 
node 1 2 1 3
node 2 2 1 1
node 3 3 1 1
node 4 1 0 2
node 8 1 0 0
node 25 1 0 0
node 28 1 0 0
node 36 1 0 0
node 58 1 0 0
gene 2 1 4 -2.02416 0 1 -2.02416 1
gene 1 2 4 8 0 2 8 1
gene 1 3 4 -6.52861 0 3 -6.52861 1
gene 3 2 8 -2.6892 0 10 -2.6892 1
gene 1 8 4 -4.14011 0 11 -4.14011 1
gene 2 2 25 -0.60293 0 64 -0.60293 1
gene 2 25 8 1.7868 0 65 1.7868 1
gene 2 2 28 -0.556903 0 73 -0.556903 1
gene 2 28 25 -0.33417 0 74 -0.33417 1
gene 1 28 8 1.40671 0 96 1.40671 1
gene 1 8 36 -4.16745 0 114 -4.16745 1
gene 1 36 4 -4.90828 0 115 -4.90828 1
gene 3 3 36 8 0 157 8 1
gene 3 3 58 -0.0191719 0 183 -0.0191719 1
gene 3 58 36 -4.25075 0 184 -4.25075 1
genomeend 91

/* Organism #92 Fitness: 4.05947 Error: 1.98519 */
genomestart 92
trait 1 0.1 0 0 0 0 0 0 0 
trait 2 0.2 0 0.173808 0 0 0 0.618594 0.355571 
trait 3 0.733538 0.0747858 0.301609 0.187418 0.124637 0 0 0 
node 1 2 1 3
node 2 2 1 1
node 3 3 1 1
node 4 1 0 2
node 8 1 0 0
node 25 1 0 0
node 28 1 0 0
node 36 1 0 0
node 58 1 0 0
gene 2 1 4 -3.23529 0 1 -3.23529 1
gene 1 2 4 7.59204 0 2 7.59204 1
gene 1 3 4 -4.96758 0 3 -4.96758 1
gene 3 2 8 -0.942689 0 10 -0.942689 1
gene 1 8 4 -5.55766 0 11 -5.55766 1
gene 2 2 25 -2.60696 0 64 -2.60696 1
gene 2 25 8 1.7868 0 65 1.7868 1
gene 2 2 28 0.222784 0 73 0.222784 1
gene 2 28 25 -0.33417 0 74 -0.33417 1
gene 1 28 8 1.98996 0 96 1.98996 1
gene 1 8 36 -3.26996 0 114 -3.26996 1
gene 1 36 4 -4.52843 0 115 -4.52843 1
gene 3 3 36 6.24197 0 157 6.24197 1
gene 3 3 58 0.506881 0 183 0.506881 1
gene 3 58 36 -6.74444 0 184 -6.74444 1
genomeend 92

/* Organism #93 Fitness: 9 Error: 1 */
genomestart 93
trait 1 0.1 0 0 0 0 0 0 0 
trait 2 0.2 0 0.173808 0 0 0 0.618594 0.355571 
trait 3 0.467077 0.149572 0 0.165876 0 0 0 0 
node 1 2 1 3
node 2 2 1 1
node 3 3 1 1
node 4 1 0 2
node 8 1 0 0
node 25 1 0 0
node 28 1 0 0
node 36 1 0 0
node 58 1 0 0
gene 2 1 4 -1.46961 0 1 -1.46961 1
gene 1 2 4 5.61826 0 2 5.61826 1
gene 1 3 4 -7.16303 0 3 -7.16303 1
gene 3 2 8 -5.49194 0 10 -5.49194 1
gene 1 8 4 -4.00285 0 11 -4.00285 1
gene 2 2 25 0.442726 0 64 0.442726 1
gene 2 25 8 0.550122 0 65 0.550122 1
gene 2 2 28 0.502174 0 73 0.502174 1
gene 2 28 25 -0.96193 0 74 -0.96193 1
gene 1 28 8 1.88792 0 96 1.88792 1
gene 1 8 36 -5.288 0 114 -5.288 1
gene 1 36 4 -3.02467 0 115 -3.02467 1
gene 3 3 36 8 0 157 8 1
gene 3 3 58 1.6549 0 183 1.6549 1
gene 3 58 36 -3.33483 0 184 -3.33483 1
genomeend 93

/* Organism #94 Fitness: 9 Error: 1 */
genomestart 94
trait 1 0.1 0 0 0 0 0 0 0 
trait 2 0.2 0 0.173808 0 0 0 0.618594 0.355571 
trait 3 0.600308 0.112179 0.150805 0.176647 0.0623186 0 0 0 
node 1 2 1 3
node 2 2 1 1
node 3 3 1 1
node 4 1 0 2
node 8 1 0 0
node 25 1 0 0
node 28 1 0 0
node 36 1 0 0
node 58 1 0 0
gene 2 1 4 -2.5079 0 1 -2.5079 1
gene 1 2 4 7.68768 0 2 7.68768 1
gene 1 3 4 -6.60246 0 3 -6.60246 1
gene 3 2 8 -3.30107 0 10 -3.30107 1
gene 1 8 4 -5.32889 0 11 -5.32889 1
gene 2 2 25 -0.287717 0 64 -0.287717 1
gene 2 25 8 1.09018 0 65 1.09018 1
gene 2 2 28 -1.16197 0 73 -1.16197 1
gene 2 28 25 -0.0330419 0 74 -0.0330419 1
gene 1 28 8 1.88739 0 96 1.88739 1
gene 1 8 36 -3.83417 0 114 -3.83417 1
gene 1 36 4 -5.70296 0 115 -5.70296 1
gene 3 3 36 7.34649 0 157 7.34649 1
gene 3 3 58 0.0469221 0 183 0.0469221 1
gene 3 58 36 -3.57357 0 184 -3.57357 1
genomeend 94

/* Organism #95 Fitness: 9 Error: 1 */
genomestart 95
trait 1 0.1 0 0 0 0 0 0 0 
trait 2 0.943868 0 0 0 0.423418 0 1 0.355571 
trait 3 0.467077 0.149572 0 0.165876 0 0 0 0 
node 1 2 1 3
node 2 2 1 1
node 3 3 1 1
node 4 1 0 2
node 8 1 0 0
node 25 1 0 0
node 28 1 0 0
node 36 1 0 0
node 58 1 0 0
gene 2 1 4 -4.19892 0 1 -4.19892 1
gene 1 2 4 7.38643 0 2 7.38643 1
gene 1 3 4 -4.83651 0 3 -4.83651 1
gene 3 2 8 -5.34296 0 10 -5.34296 1
gene 1 8 4 -3.05427 0 11 -3.05427 1
gene 2 2 25 2.28971 0 64 2.28971 1
gene 2 25 8 1.04286 0 65 1.04286 1
gene 2 2 28 0.425609 0 73 0.425609 1
gene 2 28 25 1.36413 0 74 1.36413 1
gene 1 28 8 3.24889 0 96 3.24889 1
gene 1 8 36 -1.88183 0 114 -1.88183 1
gene 1 36 4 -3.08524 0 115 -3.08524 1
gene 3 3 36 6.15894 0 157 6.15894 1
gene 3 3 58 1.71629 0 183 1.71629 1
gene 3 58 36 -2.90336 0 184 -2.90336 1
genomeend 95

/* Species #21 : (Size 5) (AF 5.00755) (Age 22)  */


/* Organism #96 Fitness: 4.03911 Error: 1.99025 */
genomestart 96
trait 1 0.1 0 0 0 0 0 0 0 
trait 2 0.15 0 0.173808 0 0 0 0.463946 0.355571 
trait 3 0.3 0 0 0 0 0 0 0 
node 1 2 1 3
node 2 2 1 1
node 3 3 1 1
node 4 1 0 2
node 8 1 0 0
node 25 1 0 0
node 47 1 0 0
node 53 2 0 0
node 60 1 0 0
node 63 1 0 0
gene 2 1 4 -0.93187 0 1 -0.93187 1
gene 2 2 4 -7.62833 0 2 -7.62833 0
gene 1 3 4 -3.34211 0 3 -3.34211 1
gene 2 2 8 -5.17733 0 10 -5.17733 0
gene 1 8 4 -3.00401 0 11 -3.00401 0
gene 2 2 25 3.05349 0 64 3.05349 1
gene 2 25 8 0.0283921 0 65 0.0283921 1
gene 1 3 25 -4.53276 0 75 -4.53276 1
gene 3 1 25 -5.02656 0 89 -5.02656 1
gene 1 1 8 3.09791 0 97 3.09791 1
gene 2 25 4 4.01263 0 104 4.01263 1
gene 2 25 47 0.770727 0 153 0.770727 1
gene 2 47 8 0.049179 0 154 0.049179 1
gene 3 8 53 5.20939 0 171 5.20939 1
gene 1 53 4 -1.43578 0 172 -1.43578 0
gene 2 2 60 -6.89864 0 190 -6.89864 1
gene 2 60 4 -1.40495 0 191 -1.40495 1
gene 1 53 63 0.301468 0 207 0.301468 1
gene 1 63 4 -1.74545 0 208 -1.74545 1
gene 3 3 60 0.467625 0 252 0.467625 1
gene 3 8 63 -2.88167 0 369 -2.88167 1
genomeend 96

/* Organism #97 Fitness: 8.9987 Error: 1.00022 */
genomestart 97
trait 1 0.1 0 0 0 0 0 0 0 
trait 2 0.15 0 0.173808 0 0 0 0.463946 0.355571 
trait 3 0.3 0 0 0 0 0 0 0 
node 1 2 1 3
node 2 2 1 1
node 3 3 1 1
node 4 1 0 2
node 8 1 0 0
node 25 1 0 0
node 47 1 0 0
node 53 2 0 0
node 60 1 0 0
node 63 1 0 0
gene 2 1 4 -4.81246 0 1 -4.81246 1
gene 2 2 4 -6.07408 0 2 -6.07408 0
gene 1 3 4 -3.76548 0 3 -3.76548 1
gene 2 2 8 -2.91643 0 10 -2.91643 0
gene 1 8 4 -4.21523 0 11 -4.21523 0
gene 2 2 25 4.144 0 64 4.144 1
gene 2 25 8 4.89678 0 65 4.89678 1
gene 1 3 25 -5.21153 0 75 -5.21153 1
gene 3 1 25 -0.0740002 0 89 -0.0740002 1
gene 1 1 8 3.87733 0 97 3.87733 1
gene 2 25 4 5.8226 0 104 5.8226 1
gene 2 25 47 -0.031361 0 153 -0.031361 1
gene 2 47 8 0.0799376 0 154 0.0799376 1
gene 3 8 53 7.62009 0 171 7.62009 1
gene 1 53 4 -1.64273 0 172 -1.64273 0
gene 2 2 60 0.462299 0 190 0.462299 1
gene 2 60 4 0.826521 0 191 0.826521 1
gene 1 53 63 -0.400361 0 207 -0.400361 1
gene 1 63 4 0.16521 0 208 0.16521 1
gene 3 3 60 -1.6917 0 252 -1.6917 1
gene 3 8 63 -0.146837 0 369 -0.146837 1
genomeend 97

/* Organism #98 Fitness: 4 Error: 2 */
genomestart 98
trait 1 0.1 0 0 0 0 0 0 0 
trait 2 0.15 0 0.173808 0 0 0 0.463946 0.355571 
trait 3 0.3 0 0 0 0 0 0 0 
node 1 2 1 3
node 2 2 1 1
node 3 3 1 1
node 4 1 0 2
node 8 1 0 0
node 25 1 0 0
node 47 1 0 0
node 53 2 0 0
node 60 1 0 0
node 63 1 0 0
gene 2 1 4 -4.64287 0 1 -4.64287 1
gene 2 2 4 -3.67077 0 2 -3.67077 0
gene 1 3 4 -6.74253 0 3 -6.74253 1
gene 2 2 8 -4.48639 0 10 -4.48639 0
gene 1 8 4 -2.81604 0 11 -2.81604 0
gene 2 2 25 3.42649 0 64 3.42649 1
gene 2 25 8 7.07956 0 65 7.07956 1
gene 1 3 25 -4.53143 0 75 -4.53143 1
gene 3 1 25 -4.89266 0 89 -4.89266 1
gene 1 1 8 1.50802 0 97 1.50802 1
gene 2 25 4 3.35288 0 104 3.35288 1
gene 2 25 47 0.037581 0 153 0.037581 1
gene 2 47 8 -1.03398 0 154 -1.03398 1
gene 3 8 53 7.93188 0 171 7.93188 1
gene 1 53 4 -4.57453 0 172 -4.57453 0
gene 2 2 60 -2.94918 0 190 -2.94918 1
gene 2 60 4 1.53597 0 191 1.53597 1
gene 1 53 63 0.466243 0 207 0.466243 1
gene 1 63 4 -0.920842 0 208 -0.920842 1
gene 3 3 60 -1.43585 0 252 -1.43585 1
gene 3 8 63 -2.06852 0 369 -2.06852 1
genomeend 98

/* Organism #99 Fitness: 3.99995 Error: 2.00001 */
genomestart 99
trait 1 0.1 0 0 0 0 0 0 0 
trait 2 0.15 0 0.173808 0 0 0 0.463946 0.355571 
trait 3 0.3 0 0 0 0 0 0 0 
node 1 2 1 3
node 2 2 1 1
node 3 3 1 1
node 4 1 0 2
node 8 1 0 0
node 25 1 0 0
node 47 1 0 0
node 53 2 0 0
node 60 1 0 0
node 63 1 0 0
gene 2 1 4 -1.93665 0 1 -1.93665 1
gene 2 2 4 2.04054 0 2 2.04054 0
gene 1 3 4 -4.7454 0 3 -4.7454 1
gene 2 2 8 -3.63772 0 10 -3.63772 0
gene 1 8 4 -1.34375 0 11 -1.34375 0
gene 2 2 25 -1.4278 0 64 -1.4278 1
gene 2 25 8 6.28587 0 65 6.28587 1
gene 1 3 25 -2.85152 0 75 -2.85152 1
gene 3 1 25 -3.7783 0 89 -3.7783 1
gene 1 1 8 3.93237 0 97 3.93237 1
gene 2 25 4 2.08492 0 104 2.08492 1
gene 2 25 47 0.986907 0 153 0.986907 1
gene 2 47 8 2.15416 0 154 2.15416 1
gene 3 8 53 8 0 171 8 1
gene 1 53 4 -4.47464 0 172 -4.47464 0
gene 2 2 60 -4.12147 0 190 -4.12147 1
gene 2 60 4 2.57129 0 191 2.57129 1
gene 1 53 63 0.464771 0 207 0.464771 1
gene 1 63 4 -1.92695 0 208 -1.92695 1
gene 3 3 60 -1.12438 0 252 -1.12438 1
gene 3 8 63 -0.113553 0 369 -0.113553 1
genomeend 99

/* Organism #100 Fitness: 4 Error: 2 */
genomestart 100
trait 1 0.1 0 0 0 0 0 0 0 
trait 2 0.15 0 0.173808 0 0 0 0.463946 0.355571 
trait 3 0.3 0 0 0 0 0 0 0 
node 1 2 1 3
node 2 2 1 1
node 3 3 1 1
node 4 1 0 2
node 8 1 0 0
node 25 1 0 0
node 47 1 0 0
node 53 2 0 0
node 60 1 0 0
node 63 1 0 0
gene 2 1 4 -4.80047 0 1 -4.80047 1
gene 2 2 4 -7.24634 0 2 -7.24634 0
gene 1 3 4 -5.80996 0 3 -5.80996 1
gene 2 2 8 -1.41388 0 10 -1.41388 0
gene 1 8 4 -0.291962 0 11 -0.291962 0
gene 2 2 25 1.61567 0 64 1.61567 1
gene 2 25 8 6.86473 0 65 6.86473 1
gene 1 3 25 -3.05083 0 75 -3.05083 1
gene 3 1 25 -4.46744 0 89 -4.46744 1
gene 1 1 8 1.45798 0 97 1.45798 1
gene 2 25 4 7.10905 0 104 7.10905 1
gene 2 25 47 0.599113 0 153 0.599113 1
gene 2 47 8 0.0242572 0 154 0.0242572 1
gene 3 8 53 6.025 0 171 6.025 1
gene 1 53 4 -3.26405 0 172 -3.26405 0
gene 2 2 60 -6.95279 0 190 -6.95279 1
gene 2 60 4 1.76224 0 191 1.76224 1
gene 1 53 63 2.20179 0 207 2.20179 1
gene 1 63 4 -1.92695 0 208 -1.92695 1
gene 3 3 60 2.0385 0 252 2.0385 1
gene 3 8 63 -0.935648 0 369 -0.935648 1
genomeend 100

/* Species #22 : (Size 7) (AF 8.27095) (Age 19)  */


/* Organism #101 Fitness: 9 Error: 1 */
genomestart 101
trait 1 0.1 0.0275301 0 0 0 0.380618 0 0 
trait 2 0.2 0 0.173808 0 0 0 0.618594 0.355571 
trait 3 0.3 0 0.484134 0.325412 0 0 0.311689 0 
node 1 2 1 3
node 2 2 1 1
node 3 3 1 1
node 4 2 0 2
node 8 1 0 0
node 25 1 0 0
node 47 3 0 0
node 97 1 0 0
gene 2 1 4 2.33062 0 1 2.33062 1
gene 2 2 4 6.7969 0 2 6.7969 1
gene 2 3 4 6.33656 0 3 6.33656 1
gene 2 2 8 1.40439 0 10 1.40439 1
gene 1 8 4 -5.37598 0 11 -5.37598 1
gene 2 2 25 -2.53354 0 64 -2.53354 1
gene 2 25 8 4.44784 0 65 4.44784 1
gene 1 3 25 4.27428 0 75 4.27428 1
gene 3 1 25 -4.05592 0 89 -4.05592 1
gene 1 1 8 7.72336 0 97 7.72336 1
gene 2 25 4 -0.136368 0 104 -0.136368 0
gene 2 25 47 4.14281 0 153 4.14281 1
gene 2 47 8 -0.196654 0 154 -0.196654 1
gene 2 3 47 4.50217 0 222 4.50217 1
gene 2 3 8 3.00602 0 282 3.00602 1
gene 2 25 97 -0.688936 0 339 -0.688936 1
gene 2 97 4 -0.271051 0 340 -0.271051 1
gene 3 3 97 -0.164031 0 409 -0.164031 1
genomeend 101

/* Organism #102 Fitness: 8.89751 Error: 1.01713 */
genomestart 102
trait 1 0.1 0.0275301 0 0 0 0.380618 0 0 
trait 2 0.2 0 0.173808 0 0 0 0.618594 0.355571 
trait 3 0.3 0 0.484134 0.325412 0 0 0.311689 0 
node 1 2 1 3
node 2 2 1 1
node 3 3 1 1
node 4 2 0 2
node 8 1 0 0
node 25 1 0 0
node 47 3 0 0
node 97 1 0 0
gene 2 1 4 2.8822 0 1 2.8822 1
gene 2 2 4 5.4077 0 2 5.4077 1
gene 2 3 4 4.2532 0 3 4.2532 1
gene 2 2 8 2.11145 0 10 2.11145 1
gene 1 8 4 -3.87719 0 11 -3.87719 1
gene 2 2 25 -4.77056 0 64 -4.77056 1
gene 2 25 8 4.74306 0 65 4.74306 1
gene 1 3 25 4.63811 0 75 4.63811 1
gene 3 1 25 -6.26141 0 89 -6.26141 1
gene 1 1 8 6.71148 0 97 6.71148 1
gene 2 25 4 -1.15696 0 104 -1.15696 0
gene 2 25 47 3.33557 0 153 3.33557 1
gene 2 47 8 0.810761 0 154 0.810761 1
gene 2 3 47 5.7236 0 222 5.7236 1
gene 2 3 8 1.44 0 282 1.44 1
gene 2 25 97 1.2409 0 339 1.2409 1
gene 2 97 4 0.345244 0 340 0.345244 1
gene 3 3 97 -0.207543 0 409 -0.207543 1
genomeend 102

/* Organism #103 Fitness: 8.99973 Error: 1.00004 */
genomestart 103
trait 1 0.1 0.0275301 0 0 0 0.380618 0 0 
trait 2 0.2 0 0.173808 0 0 0 0.618594 0.355571 
trait 3 0.3 0 0.544651 0.366088 0 0 0.35065 0 
node 1 2 1 3
node 2 2 1 1
node 3 3 1 1
node 4 2 0 2
node 8 1 0 0
node 25 1 0 0
node 47 3 0 0
node 97 1 0 0
gene 2 1 4 3.13013 0 1 3.13013 1
gene 2 2 4 7.19056 0 2 7.19056 1
gene 2 3 4 4.71798 0 3 4.71798 1
gene 2 2 8 1.21234 0 10 1.21234 1
gene 1 8 4 -5.51187 0 11 -5.51187 1
gene 2 2 25 -4.3929 0 64 -4.3929 1
gene 2 25 8 5.94378 0 65 5.94378 1
gene 1 3 25 4.58329 0 75 4.58329 1
gene 3 1 25 -2.2841 0 89 -2.2841 1
gene 1 1 8 6.17402 0 97 6.17402 1
gene 2 25 4 -2.21348 0 104 -2.21348 0
gene 2 25 47 4.99413 0 153 4.99413 1
gene 2 47 8 -0.0117637 0 154 -0.0117637 1
gene 2 3 47 4.93201 0 222 4.93201 1
gene 2 3 8 3.20709 0 282 3.20709 1
gene 2 25 97 0.449762 0 339 0.449762 1
gene 2 97 4 0.693896 0 340 0.693896 1
gene 3 3 97 0.71862 0 409 0.71862 1
genomeend 103

/* Organism #104 Fitness: 9 Error: 1 */
genomestart 104
trait 1 0.369464 0.0275301 0 0.819678 0.409272 1 0 0 
trait 2 0.2 0 0.173808 0 0 0 0.618594 0.355571 
trait 3 0.3 0 0.605167 0.406764 0 0 0.389612 0 
node 1 2 1 3
node 2 2 1 1
node 3 3 1 1
node 4 2 0 2
node 8 1 0 0
node 25 1 0 0
node 47 3 0 0
node 97 1 0 0
gene 2 1 4 2.53302 0 1 2.53302 1
gene 2 2 4 6.99203 0 2 6.99203 1
gene 2 3 4 6.19778 0 3 6.19778 1
gene 2 2 8 1.42743 0 10 1.42743 1
gene 1 8 4 -5.51187 0 11 -5.51187 1
gene 2 2 25 -2.67572 0 64 -2.67572 1
gene 2 25 8 4.64474 0 65 4.64474 1
gene 1 3 25 4.58329 0 75 4.58329 1
gene 3 1 25 -4.05536 0 89 -4.05536 1
gene 1 1 8 7.6542 0 97 7.6542 1
gene 2 25 4 -0.258861 0 104 -0.258861 0
gene 2 25 47 3.96517 0 153 3.96517 1
gene 2 47 8 0.0533114 0 154 0.0533114 1
gene 2 3 47 4.73905 0 222 4.73905 1
gene 2 3 8 3.21531 0 282 3.21531 1
gene 2 25 97 -0.928296 0 339 -0.928296 1
gene 2 97 4 -0.387689 0 340 -0.387689 1
gene 3 3 97 -0.164031 0 409 -0.164031 1
genomeend 104

/* Organism #105 Fitness: 8.99948 Error: 1.00009 */
genomestart 105
trait 1 0.1 0.0275301 0 0 0 0.380618 0 0 
trait 2 0.2 0 0.173808 0 0 0 0.618594 0.355571 
trait 3 0.3 0 0.605167 0.406764 0 0 0.389612 0 
node 1 2 1 3
node 2 2 1 1
node 3 3 1 1
node 4 2 0 2
node 8 1 0 0
node 25 1 0 0
node 47 3 0 0
node 97 1 0 0
gene 2 1 4 3.57411 0 1 3.57411 1
gene 2 2 4 6.87038 0 2 6.87038 1
gene 2 3 4 5.31459 0 3 5.31459 1
gene 2 2 8 1.51066 0 10 1.51066 1
gene 1 8 4 -5.60451 0 11 -5.60451 1
gene 2 2 25 -2.58898 0 64 -2.58898 1
gene 2 25 8 6.67451 0 65 6.67451 1
gene 1 3 25 5.55266 0 75 5.55266 1
gene 3 1 25 -3.12575 0 89 -3.12575 1
gene 1 1 8 8 0 97 8 1
gene 2 25 4 -1.85139 0 104 -1.85139 0
gene 2 25 47 2.81624 0 153 2.81624 1
gene 2 47 8 0.255634 0 154 0.255634 1
gene 2 3 47 5.57015 0 222 5.57015 1
gene 2 3 8 4.20341 0 282 4.20341 1
gene 2 25 97 0.179784 0 339 0.179784 1
gene 2 97 4 -2.66907 0 340 -2.66907 1
gene 3 3 97 -0.164031 0 409 -0.164031 1
genomeend 105

/* Organism #106 Fitness: 8.99998 Error: 1 */
genomestart 106
trait 1 0.1 0.0275301 0 0 0 0.380618 0 0 
trait 2 0.2 0 0.173808 0 0 0 0.618594 0.355571 
trait 3 0.3 0 0.605167 0.406764 0 0 0.389612 0 
node 1 2 1 3
node 2 2 1 1
node 3 3 1 1
node 4 2 0 2
node 8 1 0 0
node 25 1 0 0
node 47 3 0 0
node 97 1 0 0
gene 2 1 4 3.62182 0 1 3.62182 1
gene 2 2 4 6.66547 0 2 6.66547 1
gene 2 3 4 8 0 3 8 1
gene 2 2 8 2.32454 0 10 2.32454 1
gene 1 8 4 -5.04489 0 11 -5.04489 1
gene 2 2 25 -0.467067 0 64 -0.467067 1
gene 2 25 8 4.63593 0 65 4.63593 1
gene 1 3 25 5.09633 0 75 5.09633 1
gene 3 1 25 -4.13467 0 89 -4.13467 1
gene 1 1 8 7.28004 0 97 7.28004 1
gene 2 25 4 -0.0702612 0 104 -0.0702612 0
gene 2 25 47 5.09807 0 153 5.09807 1
gene 2 47 8 -1.74639 0 154 -1.74639 1
gene 2 3 47 2.33849 0 222 2.33849 1
gene 2 3 8 5.45589 0 282 5.45589 1
gene 2 25 97 -1.18192 0 339 -1.18192 1
gene 2 97 4 -2.24317 0 340 -2.24317 1
gene 3 3 97 -0.164031 0 409 -0.164031 1
genomeend 106

/* Organism #107 Fitness: 3.99995 Error: 2.00001 */
genomestart 107
trait 1 0.1 0.0275301 0 0 0 0.380618 0 0 
trait 2 0.2 0 0.173808 0 0 0 0.618594 0.355571 
trait 3 0.3 0 0.544651 0.366088 0 0 0.35065 0 
node 1 2 1 3
node 2 2 1 1
node 3 3 1 1
node 4 2 0 2
node 8 1 0 0
node 25 1 0 0
node 47 3 0 0
node 97 1 0 0
gene 2 1 4 0.075008 0 1 0.075008 1
gene 2 2 4 4.70802 0 2 4.70802 1
gene 2 3 4 0.470516 0 3 0.470516 1
gene 2 2 8 -2.12587 0 10 -2.12587 1
gene 1 8 4 -7.49393 0 11 -7.49393 1
gene 2 2 25 -4.54471 0 64 -4.54471 1
gene 2 25 8 4.54465 0 65 4.54465 1
gene 1 3 25 2.57909 0 75 2.57909 1
gene 3 1 25 -2.79923 0 89 -2.79923 1
gene 1 1 8 8 0 97 8 1
gene 2 25 4 -0.697694 0 104 -0.697694 0
gene 2 25 47 -1.11144 0 153 -1.11144 1
gene 2 47 8 2.40379 0 154 2.40379 1
gene 2 3 47 -0.935131 0 222 -0.935131 1
gene 2 3 8 3.11066 0 282 3.11066 1
gene 2 25 97 -1.15033 0 339 -1.15033 1
gene 2 97 4 -2.25308 0 340 -2.25308 1
gene 3 3 97 -0.76397 0 409 -0.76397 1
genomeend 107

/* Species #24 : (Size 7) (AF 7.74713) (Age 8)  */


/* Organism #108 Fitness: 9 Error: 1 */
genomestart 108
trait 1 0.1 0 0 0 0 0 0 0 
trait 2 0.2 0 0 0 0 0 0 0 
trait 3 0.3 0 0 0 0 0 0 0 
node 1 1 1 3
node 2 3 1 1
node 3 3 1 1
node 4 2 0 2
node 10 1 0 0
node 89 1 0 0
node 102 1 0 0
gene 1 1 4 -8 0 1 -8 1
gene 1 2 4 5.84235 0 2 5.84235 0
gene 3 3 4 -8 0 3 -8 1
gene 3 2 10 5.87338 0 14 5.87338 1
gene 1 10 4 6.24089 0 15 6.24089 1
gene 3 1 10 -2.22142 0 270 -2.22142 1
gene 1 2 89 1 0 300 0 1
gene 1 89 4 5.84235 0 301 0 1
gene 2 10 89 -0.074007 0 320 -0.074007 0
gene 1 3 89 0.0342548 0 341 0.0342548 1
gene 2 10 102 1 0 357 0 1
gene 2 102 89 -0.074007 0 358 0 1
genomeend 108

/* Organism #109 Fitness: 8.46214 Error: 1.09102 */
genomestart 109
trait 1 0.1 0 0 0 0 0 0 0 
trait 2 0.2 0 0 0 0 0 0 0 
trait 3 0.3 0 0 0 0 0 0 0 
node 1 1 1 3
node 2 3 1 1
node 3 3 1 1
node 4 2 0 2
node 10 1 0 0
node 89 1 0 0
node 102 1 0 0
gene 1 1 4 -5.57368 0 1 -5.57368 1
gene 1 2 4 4.90945 0 2 4.90945 0
gene 3 3 4 -8 0 3 -8 1
gene 3 2 10 -1.74781 0 14 -1.74781 1
gene 1 10 4 4.87055 0 15 4.87055 1
gene 3 1 10 -1.22692 0 270 -1.22692 1
gene 1 2 89 3.46837 0 300 3.46837 1
gene 1 89 4 6.041 0 301 6.041 1
gene 2 10 89 -1.94013 0 320 -1.94013 0
gene 1 3 89 0.0342548 0 341 0.0342548 1
gene 2 10 102 1 0 357 1 1
gene 2 102 89 -0.937154 0 358 -0.937154 1
genomeend 109

/* Organism #110 Fitness: 4.00171 Error: 1.99957 */
genomestart 110
trait 1 0.1 0 0 0 0 0 0 0 
trait 2 0.2 0 0 0 0 0 0 0 
trait 3 0.3 0 0 0 0 0 0 0 
node 1 1 1 3
node 2 3 1 1
node 3 3 1 1
node 4 2 0 2
node 10 1 0 0
node 89 1 0 0
node 102 1 0 0
gene 1 1 4 -8 0 1 -8 1
gene 1 2 4 5.84235 0 2 5.84235 0
gene 3 3 4 -1.53663 0 3 -1.53663 1
gene 3 2 10 8 0 14 8 1
gene 1 10 4 8 0 15 8 1
gene 3 1 10 2.45113 0 270 2.45113 1
gene 1 2 89 0.0635102 0 300 0.0635102 1
gene 1 89 4 5.84235 0 301 5.84235 1
gene 2 10 89 -0.359737 0 320 -0.359737 0
gene 1 3 89 0.0342548 0 341 0.0342548 1
gene 2 10 102 0.882048 0 357 0.882048 1
gene 2 102 89 -1.82369 0 358 -1.82369 1
genomeend 110

/* Organism #111 Fitness: 8.99894 Error: 1.00018 */
genomestart 111
trait 1 0.1 0 0 0 0 0 0 0 
trait 2 0.2 0 0 0 0 0 0 0 
trait 3 0.3 0 0 0 0 0 0 0 
node 1 1 1 3
node 2 3 1 1
node 3 3 1 1
node 4 2 0 2
node 10 1 0 0
node 89 1 0 0
node 102 1 0 0
gene 1 1 4 -8 0 1 -8 1
gene 1 2 4 5.51834 0 2 5.51834 0
gene 3 3 4 -7.62966 0 3 -7.62966 1
gene 3 2 10 4.24436 0 14 4.24436 1
gene 1 10 4 5.59516 0 15 5.59516 1
gene 3 1 10 -4.16048 0 270 -4.16048 1
gene 1 2 89 2.76845 0 300 2.76845 1
gene 1 89 4 7.19904 0 301 7.19904 1
gene 2 10 89 1.69957 0 320 1.69957 1
gene 1 3 89 -1.31719 0 341 -1.31719 1
gene 2 10 102 2.72178 0 357 2.72178 1
gene 2 102 89 0.761411 0 358 0.761411 1
genomeend 111

/* Organism #112 Fitness: 5.76714 Error: 1.59851 */
genomestart 112
trait 1 0.1 0 0 0 0 0 0 0 
trait 2 0.2 0 0 0 0 0 0 0 
trait 3 0.3 0 0 0 0 0 0 0 
node 1 1 1 3
node 2 3 1 1
node 3 3 1 1
node 4 2 0 2
node 10 1 0 0
node 89 1 0 0
node 102 1 0 0
gene 1 1 4 -8 0 1 -8 1
gene 1 2 4 5.01226 0 2 5.01226 0
gene 3 3 4 -7.27898 0 3 -7.27898 1
gene 3 2 10 4.59456 0 14 4.59456 1
gene 1 10 4 7.92403 0 15 7.92403 1
gene 3 1 10 -3.12425 0 270 -3.12425 1
gene 1 2 89 -0.34879 0 300 -0.34879 1
gene 1 89 4 5.85196 0 301 5.85196 1
gene 2 10 89 -1.4567 0 320 -1.4567 1
gene 1 3 89 -2.4021 0 341 -2.4021 1
gene 2 10 102 0.657369 0 357 0.657369 1
gene 2 102 89 -0.074007 0 358 -0.074007 1
genomeend 112

/* Organism #113 Fitness: 9 Error: 1 */
genomestart 113
trait 1 0.1 0 0 0 0 0 0 0 
trait 2 0.2 0 0 0 0 0 0 0 
trait 3 0.3 0 0 0 0 0 0 0 
node 1 1 1 3
node 2 3 1 1
node 3 3 1 1
node 4 2 0 2
node 10 1 0 0
node 89 1 0 0
node 102 1 0 0
gene 1 1 4 -8 0 1 -8 1
gene 1 2 4 5.75649 0 2 5.75649 0
gene 3 3 4 -8 0 3 -8 1
gene 3 2 10 6.93669 0 14 6.93669 1
gene 1 10 4 6.01246 0 15 6.01246 1
gene 3 1 10 -3.78535 0 270 -3.78535 1
gene 1 2 89 1.5099 0 300 1.0099 1
gene 1 89 4 5.61115 0 301 2.68997 1
gene 2 10 89 0.304781 0 320 0.304781 0
gene 1 3 89 0.209368 0 341 0.209368 1
gene 2 10 102 -0.355335 0 357 -0.855335 1
gene 2 102 89 0.950211 0 358 0.987214 1
gene 3 2 102 -0.429697 0 456 -0.429697 1
genomeend 113

/* Organism #114 Fitness: 8.99999 Error: 1 */
genomestart 114
trait 1 0.1 0 0 0 0 0 0 0 
trait 2 0.2 0 0 0 0 0 0 0 
trait 3 0.3 0 0 0 0 0 0 0 
node 1 1 1 3
node 2 3 1 1
node 3 3 1 1
node 4 2 0 2
node 10 1 0 0
node 89 1 0 0
node 102 1 0 0
gene 1 1 4 -8 0 1 -8 1
gene 1 2 4 5.84235 0 2 5.84235 0
gene 3 3 4 -8 0 3 -8 1
gene 3 2 10 6.93669 0 14 6.93669 1
gene 1 10 4 6.24089 0 15 6.24089 1
gene 3 1 10 -2.22142 0 270 -2.22142 1
gene 1 2 89 1.5099 0 300 1.0099 1
gene 1 89 4 5.84235 0 301 0 1
gene 2 10 89 -0.074007 0 320 -0.074007 0
gene 1 3 89 0.209368 0 341 0.209368 1
gene 2 10 102 1 0 357 0 1
gene 2 102 89 0.950211 0 358 0.987214 1
genomeend 114

/* Species #25 : (Size 8) (AF 6.48142) (Age 6)  */


/* Organism #115 Fitness: 9 Error: 1 */
genomestart 115
trait 1 0.296509 0.117054 0.397113 0 0 0 0 0 
trait 2 0.2 0 0.173808 0 0 0 0.618594 0.355571 
trait 3 0.3 0 0 0 0 0 0 0 
node 1 3 1 3
node 2 2 1 1
node 3 3 1 1
node 4 1 0 2
node 8 1 0 0
node 25 1 0 0
node 28 1 0 0
node 111 1 0 0
gene 2 1 4 -2.75147 0 1 -2.75147 1
gene 1 2 4 8 0 2 8 1
gene 1 3 4 -8 0 3 -8 1
gene 2 2 8 4.49424 0 10 4.49424 1
gene 1 8 4 -1.2935 0 11 -1.2935 1
gene 2 2 25 2.60144 0 64 2.60144 1
gene 2 25 8 6.09351 0 65 6.09351 1
gene 2 2 28 -0.260998 0 73 -0.260998 1
gene 2 28 25 1.16951 0 74 1.16951 0
gene 2 1 8 0.125796 0 376 0.125796 1
gene 2 28 111 1 0 389 0 1
gene 2 111 25 1.16951 0 390 0 1
genomeend 115

/* Organism #116 Fitness: 9 Error: 1 */
genomestart 116
trait 1 0.296509 0.117054 0.397113 0 0 0 0 0 
trait 2 0.2 0 0.173808 0 0 0 0.618594 0.355571 
trait 3 0.3 0 0 0 0 0 0 0 
node 1 3 1 3
node 2 2 1 1
node 3 3 1 1
node 4 1 0 2
node 8 1 0 0
node 25 1 0 0
node 28 1 0 0
node 111 1 0 0
gene 2 1 4 -2.75147 0 1 -2.75147 1
gene 1 2 4 8 0 2 8 1
gene 1 3 4 -8 0 3 -8 1
gene 2 2 8 4.49424 0 10 4.49424 1
gene 1 8 4 -1.2935 0 11 -1.2935 1
gene 2 2 25 2.60144 0 64 2.60144 1
gene 2 25 8 6.09351 0 65 6.09351 1
gene 2 2 28 -0.260998 0 73 -0.260998 1
gene 2 28 25 1.16951 0 74 1.16951 0
gene 2 1 8 0.125796 0 376 0.125796 1
gene 2 28 111 1 0 389 0 1
gene 2 111 25 1.16951 0 390 0 1
genomeend 116

/* Organism #117 Fitness: 8.99801 Error: 1.00033 */
genomestart 117
trait 1 0.296509 0.117054 0.397113 0 0 0 0 0 
trait 2 0.2 0 0.173808 0 0 0 0.618594 0.355571 
trait 3 0.3 0 0 0 0 0 0 0 
node 1 3 1 3
node 2 2 1 1
node 3 3 1 1
node 4 1 0 2
node 8 1 0 0
node 25 1 0 0
node 28 1 0 0
node 111 1 0 0
gene 2 1 4 -1.2467 0 1 -1.2467 1
gene 1 2 4 7.28836 0 2 7.28836 1
gene 1 3 4 -5.66961 0 3 -5.66961 1
gene 2 2 8 3.34624 0 10 3.34624 1
gene 1 8 4 -1.99933 0 11 -1.99933 1
gene 2 2 25 2.91201 0 64 2.91201 1
gene 2 25 8 5.80816 0 65 5.80816 1
gene 2 2 28 1.5847 0 73 1.5847 1
gene 2 28 25 1.6732 0 74 1.6732 0
gene 2 1 8 1.29525 0 376 1.29525 1
gene 2 28 111 -1.05963 0 389 -1.05963 1
gene 2 111 25 0.461873 0 390 0.461873 1
gene 1 1 25 3.04681 0 444 3.04681 1
genomeend 117

/* Organism #118 Fitness: 9 Error: 1 */
genomestart 118
trait 1 0.296509 0.117054 0.397113 0 0 0 0 0 
trait 2 0.2 0 0.173808 0 0 0 0.618594 0.355571 
trait 3 0.3 0 0 0 0 0 0 0 
node 1 3 1 3
node 2 2 1 1
node 3 3 1 1
node 4 1 0 2
node 8 1 0 0
node 25 1 0 0
node 28 1 0 0
node 111 1 0 0
gene 2 1 4 -2.75147 0 1 -2.75147 1
gene 1 2 4 8 0 2 8 1
gene 1 3 4 -8 0 3 -8 1
gene 2 2 8 4.49424 0 10 4.49424 1
gene 1 8 4 -1.2935 0 11 -1.2935 1
gene 2 2 25 2.60144 0 64 2.60144 1
gene 2 25 8 6.09351 0 65 6.09351 1
gene 2 2 28 -0.260998 0 73 -0.260998 1
gene 2 28 25 1.16951 0 74 1.16951 0
gene 2 1 8 0.125796 0 376 0.125796 1
gene 2 28 111 1 0 389 0 1
gene 2 111 25 1.16951 0 390 0 1
genomeend 118

/* Organism #119 Fitness: 1.00811 Error: 2.99595 */
genomestart 119
trait 1 0.296509 0.117054 0.397113 0 0 0 0 0 
trait 2 0.2 0 0.173808 0 0 0 0.618594 0.355571 
trait 3 0.3 0 0 0 0 0 0 0 
node 1 3 1 3
node 2 2 1 1
node 3 3 1 1
node 4 1 0 2
node 8 1 0 0
node 25 1 0 0
node 28 1 0 0
node 111 1 0 0
gene 2 1 4 -0.852486 0 1 -0.852486 1
gene 1 2 4 8 0 2 8 1
gene 1 3 4 -8 0 3 -8 1
gene 2 2 8 6.10954 0 10 6.10954 1
gene 1 8 4 2.11173 0 11 2.11173 1
gene 2 2 25 0.433643 0 64 0.433643 1
gene 2 25 8 6.525 0 65 6.525 1
gene 2 2 28 0.562751 0 73 0.562751 1
gene 2 28 25 -0.14209 0 74 -0.14209 0
gene 2 1 8 1.24587 0 376 1.24587 1
gene 2 28 111 0.465479 0 389 0.465479 1
gene 2 111 25 3.51636 0 390 3.51636 1
genomeend 119

/* Organism #120 Fitness: 4.00059 Error: 1.99985 */
genomestart 120
trait 1 0.296509 0.117054 0.397113 0 0 0 0 0 
trait 2 0.2 0 0.173808 0 0 0 0.618594 0.355571 
trait 3 0.3 0 0 0 0 0 0 0 
node 1 3 1 3
node 2 2 1 1
node 3 3 1 1
node 4 1 0 2
node 8 1 0 0
node 25 1 0 0
node 28 1 0 0
node 111 1 0 0
gene 2 1 4 -4.50504 0 1 -4.50504 1
gene 1 2 4 5.97035 0 2 5.97035 1
gene 1 3 4 -8 0 3 -8 1
gene 2 2 8 4.62257 0 10 4.62257 1
gene 1 8 4 -3.25839 0 11 -3.25839 1
gene 2 2 25 0.421541 0 64 0.421541 1
gene 2 25 8 3.71651 0 65 3.71651 1
gene 2 2 28 -2.50384 0 73 -2.50384 1
gene 2 28 25 -0.686512 0 74 -0.686512 0
gene 2 1 8 0.61551 0 376 0.61551 1
gene 2 28 111 2.58641 0 389 2.58641 1
gene 2 111 25 3.5199 0 390 3.5199 1
genomeend 120

/* Organism #121 Fitness: 4.24482 Error: 1.9397 */
genomestart 121
trait 1 0.296509 0.117054 0.397113 0 0 0 0 0 
trait 2 0.2 0 0.173808 0 0 0 0.618594 0.355571 
trait 3 0.3 0 0 0 0 0 0 0 
node 1 3 1 3
node 2 2 1 1
node 3 3 1 1
node 4 1 0 2
node 8 1 0 0
node 25 1 0 0
node 28 1 0 0
node 111 1 0 0
gene 2 1 4 -5.03603 0 1 -5.03603 1
gene 1 2 4 5.82144 0 2 5.82144 1
gene 1 3 4 -8 0 3 -8 1
gene 2 2 8 2.01631 0 10 2.01631 1
gene 1 8 4 -1.34312 0 11 -1.34312 1
gene 2 2 25 2.96385 0 64 2.96385 1
gene 2 25 8 4.76036 0 65 4.76036 1
gene 2 2 28 -0.49456 0 73 -0.49456 1
gene 2 28 25 1.84396 0 74 1.84396 0
gene 2 1 8 0.773095 0 376 0.773095 1
gene 2 28 111 1.33181 0 389 1.33181 1
gene 2 111 25 -1.11168 0 390 -1.11168 1
genomeend 121

/* Organism #122 Fitness: 6.59983 Error: 1.43099 */
genomestart 122
trait 1 0.296509 0.117054 0.397113 0 0 0 0 0 
trait 2 0.2 0 0.173808 0 0 0 0.618594 0.355571 
trait 3 0.3 0 0 0 0 0 0 0 
node 1 3 1 3
node 2 2 1 1
node 3 3 1 1
node 4 1 0 2
node 8 1 0 0
node 25 1 0 0
node 28 1 0 0
node 111 1 0 0
gene 2 1 4 -2.45253 0 1 -2.45253 1
gene 1 2 4 6.17855 0 2 6.17855 1
gene 1 3 4 -6.89928 0 3 -6.89928 1
gene 2 2 8 4.17411 0 10 4.17411 1
gene 1 8 4 -3.6696 0 11 -3.6696 1
gene 2 2 25 1.83647 0 64 1.83647 1
gene 2 25 8 6.6814 0 65 6.6814 1
gene 2 2 28 -1.15739 0 73 -1.15739 1
gene 2 28 25 2.00042 0 74 2.00042 0
gene 2 1 8 1.4995 0 376 1.4995 1
gene 2 28 111 2.47443 0 389 2.47443 1
gene 2 111 25 0.995517 0 390 0.995517 1
genomeend 122

/* Species #26 : (Size 7) (AF 7.14047) (Age 6)  */


/* Organism #123 Fitness: 9 Error: 1 */
genomestart 123
trait 1 0.1 0 0 0 0 0 0 0 
trait 2 0.2 0 0.173808 0 0 0 0.618594 0.355571 
trait 3 0.592384 0.26175 0 0.290283 0 0 0 0 
node 1 2 1 3
node 2 2 1 1
node 3 3 1 1
node 4 1 0 2
node 8 1 0 0
node 25 1 0 0
node 28 1 0 0
node 36 1 0 0
node 66 1 0 0
node 75 1 0 0
node 108 1 0 0
gene 2 1 4 -4.17656 0 1 -4.17656 1
gene 1 2 4 8 0 2 8 1
gene 1 3 4 -8 0 3 -8 1
gene 2 2 8 3.98494 0 10 3.98494 0
gene 1 8 4 1.22383 0 11 1.22383 1
gene 2 2 25 2.30863 0 64 2.30863 1
gene 2 25 8 0.758682 0 65 0.758682 1
gene 2 2 28 2.38771 0 73 2.38771 0
gene 2 28 25 -2.8827 0 74 -2.8827 1
gene 1 28 8 1.98043 0 96 1.98043 1
gene 1 8 36 -2.2011 0 114 -2.2011 1
gene 1 36 4 1.47915 0 115 1.47915 0
gene 2 2 66 1.88787 0 214 1.88787 1
gene 2 66 28 -1.21804 0 215 -1.21804 1
gene 2 28 75 -0.820357 0 249 -0.820357 1
gene 2 75 25 -0.739847 0 250 -0.739847 1
gene 2 66 8 -2.33038 0 352 -2.33038 1
gene 1 36 108 1.26864 0 379 1.26864 1
gene 1 108 4 -2.02561 0 380 -2.02561 1
gene 2 25 4 2.68643 0 402 2.68643 1
genomeend 123

/* Organism #124 Fitness: 8.99999 Error: 1 */
genomestart 124
trait 1 0.1 0 0 0 0 0 0 0 
trait 2 0.2 0 0.173808 0 0 0 0.618594 0.355571 
trait 3 0.592384 0.26175 0 0.290283 0 0 0 0 
node 1 2 1 3
node 2 2 1 1
node 3 3 1 1
node 4 1 0 2
node 8 1 0 0
node 25 1 0 0
node 28 1 0 0
node 36 1 0 0
node 66 1 0 0
node 75 1 0 0
node 108 1 0 0
gene 2 1 4 -5.07782 0 1 -5.07782 1
gene 1 2 4 7.58304 0 2 7.58304 1
gene 1 3 4 -7.63773 0 3 -7.63773 1
gene 2 2 8 5.35818 0 10 5.35818 1
gene 1 8 4 0.974441 0 11 0.974441 1
gene 2 2 25 3.1476 0 64 3.1476 1
gene 2 25 8 0.7084 0 65 0.7084 1
gene 2 2 28 2.06833 0 73 2.06833 1
gene 2 28 25 -2.82645 0 74 -2.82645 1
gene 1 28 8 1.43893 0 96 1.43893 1
gene 1 8 36 -0.270191 0 114 -0.270191 1
gene 1 36 4 3.02761 0 115 3.02761 0
gene 2 2 66 2.06113 0 214 2.06113 1
gene 2 66 28 0.0998666 0 215 0.0998666 1
gene 2 28 75 -1.11496 0 249 -1.11496 1
gene 2 75 25 -3.89032 0 250 -3.89032 1
gene 2 66 8 2.46216 0 352 2.46216 1
gene 1 36 108 2.79131 0 379 2.79131 1
gene 1 108 4 -1.86543 0 380 -1.86543 1
gene 2 25 4 1.24811 0 402 1.24811 1
genomeend 124

/* Organism #125 Fitness: 3.99991 Error: 2.00002 */
genomestart 125
trait 1 0.1 0 0 0 0 0 0 0 
trait 2 0.2 0 0.173808 0 0 0 0.618594 0.355571 
trait 3 0.592384 0.26175 0 0.290283 0 0 0 0 
node 1 2 1 3
node 2 2 1 1
node 3 3 1 1
node 4 1 0 2
node 8 1 0 0
node 25 1 0 0
node 28 1 0 0
node 36 1 0 0
node 66 1 0 0
node 75 1 0 0
node 108 1 0 0
gene 2 1 4 -2.80188 0 1 -2.80188 1
gene 1 2 4 8 0 2 8 1
gene 1 3 4 -1.56582 0 3 -1.56582 1
gene 2 2 8 -2.11243 0 10 -2.11243 0
gene 1 8 4 1.10263 0 11 1.10263 1
gene 2 2 25 0.0216718 0 64 0.0216718 1
gene 2 25 8 -0.429795 0 65 -0.429795 1
gene 2 2 28 2.32075 0 73 2.32075 0
gene 2 28 25 -3.22128 0 74 -3.22128 1
gene 1 28 8 1.33912 0 96 1.33912 1
gene 1 8 36 -1.07725 0 114 -1.07725 1
gene 1 36 4 2.36882 0 115 2.36882 0
gene 2 2 66 1.41822 0 214 1.41822 1
gene 2 66 28 -1.04864 0 215 -1.04864 1
gene 2 28 75 0.678988 0 249 0.678988 1
gene 2 75 25 -2.8827 0 250 -2.8827 1
gene 2 66 8 1.68357 0 352 1.68357 1
gene 1 36 108 -1.05195 0 379 -1.05195 1
gene 1 108 4 -0.920291 0 380 -0.920291 1
gene 2 25 4 -0.195027 0 402 -0.195027 1
genomeend 125

/* Organism #126 Fitness: 8.99942 Error: 1.0001 */
genomestart 126
trait 1 0.1 0 0 0 0 0 0 0 
trait 2 0.2 0 0.173808 0 0 0 0.618594 0.355571 
trait 3 0.592384 0.26175 0 0.290283 0 0 0 0 
node 1 2 1 3
node 2 2 1 1
node 3 3 1 1
node 4 1 0 2
node 8 1 0 0
node 25 1 0 0
node 28 1 0 0
node 36 1 0 0
node 66 1 0 0
node 75 1 0 0
node 108 1 0 0
gene 2 1 4 -4.5583 0 1 -4.5583 1
gene 1 2 4 8 0 2 8 1
gene 1 3 4 -6.52847 0 3 -6.52847 1
gene 2 2 8 3.87454 0 10 3.87454 0
gene 1 8 4 1.24307 0 11 1.24307 1
gene 2 2 25 -0.44317 0 64 -0.44317 1
gene 2 25 8 0.597047 0 65 0.597047 1
gene 2 2 28 1.5439 0 73 1.5439 0
gene 2 28 25 0.430787 0 74 0.430787 1
gene 1 28 8 -0.23543 0 96 -0.23543 1
gene 1 8 36 -0.784441 0 114 -0.784441 1
gene 1 36 4 1.99873 0 115 1.99873 0
gene 2 2 66 4.01583 0 214 4.01583 1
gene 2 66 28 -2.85606 0 215 -2.85606 1
gene 2 28 75 -0.820357 0 249 -0.820357 1
gene 2 75 25 0.8041 0 250 0.8041 1
gene 2 66 8 -2.40077 0 352 -2.40077 1
gene 1 36 108 3.01011 0 379 3.01011 1
gene 1 108 4 -0.451317 0 380 -0.451317 1
gene 2 25 4 3.36452 0 402 3.36452 1
genomeend 126

/* Organism #127 Fitness: 6.83363 Error: 1.38588 */
genomestart 127
trait 1 0.1 0 0 0 0 0 0 0 
trait 2 0.2 0 0.173808 0 0 0 0.618594 0.355571 
trait 3 0.592384 0.26175 0 0.290283 0 0 0 0 
node 1 2 1 3
node 2 2 1 1
node 3 3 1 1
node 4 1 0 2
node 8 1 0 0
node 25 1 0 0
node 28 1 0 0
node 36 1 0 0
node 66 1 0 0
node 75 1 0 0
node 108 1 0 0
gene 2 1 4 -4.17656 0 1 -4.17656 1
gene 1 2 4 8 0 2 8 1
gene 1 3 4 -7.84167 0 3 -7.84167 1
gene 2 2 8 3.98494 0 10 3.98494 0
gene 1 8 4 1.22383 0 11 1.22383 1
gene 2 2 25 2.30863 0 64 2.30863 1
gene 2 25 8 0.758682 0 65 0.758682 1
gene 2 2 28 2.38771 0 73 2.38771 0
gene 2 28 25 -2.8827 0 74 -2.8827 1
gene 1 28 8 2.55817 0 96 2.55817 1
gene 1 8 36 -2.2011 0 114 -2.2011 1
gene 1 36 4 0.248922 0 115 0.248922 0
gene 2 2 66 1.88787 0 214 1.88787 1
gene 2 66 28 -1.21804 0 215 -1.21804 1
